-23 16 -18 -28 27 -36 -57 24 44 -63 0 -22 41 30 -5 60 56 -32 40 -16 40 38 -11 -34 -35 56 17 -12 35 -29 -12 -5 41 38 -45 64 -7 -21 -44 46 44 -44 -14 20 -43 53 -24 -52 20 -35 43 48 -2 -16 10 -31 -38 20 -6 41 55 68 -40 57 -5 -37 6 -61 41 26 -33 -48 23 1 -45 -54 -9 43 8 7 49 -54 -18 33 17 -25 -36 -32 7 -30 -47 21 16 16 -18 10 -30 40 63 38 -22 -16 43 -53 -39 13 -12 -28 121 61 -5 21 -28 44 -17 25 48 23 -50 38 38 32 -36 -8 -44 -60 -34 19 -11 -6 -13 -28 -31 -19 -26 -58 -46 -4 -25 -23 -30 -23 63 38 13 60 5 13 -18 11 23 21 11 58 24 -4 -66 -44 -24 24 51 -2 -59 -13 -48 16 36 51 30 51 48 23 10 -31 -14 -21 -5 -29 -18 -35 -4 19 51 -58 -29 -44 0 11 -49 11 -16 -34 40 127 57 62 5 36 13 -46 -52 -54 54 -58 -55 33 33 40 -13 -77 18 -21 1 37 41 32 12 37 -61 63 -34 -26 8 -3 -58 -9 17 -60 58 8 14 3 -74 37 -41 33 30 7 -4 8 40 -28 31 -32 96 -59 46 28 100 -44 29 42 15 127 -52 59
52 23 -12 39 -36 22 -49 38 30 -52 -50 -33 1 -59 43 27 33 22 -7 37 74 8 5 15 -22 35 -13 -83 -11 -19 -13 3 48 -55 -18 49 -21 -57 13 -34 54 21 18 33 53 13 -19 -73 -61 -4 18 -61 -16 -48 -14 8 9 41 59 52 -37 13 14 -69 28 -45 44 -5 5 1 -2 37 8 46 -45 52 76 -20 45 39 16 50 37 27 12 -60 -62 -60 -45 -67 38 -11 37 8 15 -30 28 35 29 -51 39 -35 -12 47 -3 -16 16 51 -56 -64 -41 -12 -61 36 -36 -61 -24 -53 32 41 -34 26 -60 42 55 22 5 -28 20 12 10 -26 -51 -56 -13 29 58 -38 41 18 16 -23 18 -47 9 -33 24 56 -1 -10 46 -54 -63 -59 -37 23 43 -41 -9 55 31 -5 28 25 47 31 33 23 -60 16 48 41 18 53 -19 22 69 -28 49 -37 37 -8 -6 -55 48 26 22 -22 41 -55 -24 32 23 -3 -44 -14 5 -8 30 -13 -2 -17 -63 -40 48 39 22 37 28 63 -48 40 19 -2 32 32 -29 -15 10 8 -37 36 34 17 -15 -26 1 -63 -52 -4 -11 -39 -17 -86 11 -15 -46 -50 44 41 23 31 31 -42 -48 -5 -20 -33 14 -11 -9 -21 -38 102 -5 23
-60 0 2 -61 -44 -48 -40 -35 15 18 -27 32 -17 -64 8 48 -9 -31 29 47 -58 18 44 15 -41 -14 7 -41 3 9 -17 -43 64 -61 2 -16 19 33 3 42 -11 -33 -44 58 57 -68 29 18 -38 -37 51 -6 0 -58 24 27 11 49 -13 34 -44 17 -14 -24 -28 1 4 35 32 47 49 4 -52 47 -47 60 -17 46 -51 43 53 47 57 26 38 -42 -80 39 -43 -36 17 -49 -59 -63 24 -30 24 -58 5 4 -6 -8 -34 4 37 38 31 -45 -46 13 -15 42 24 44 11 -46 -22 30 33 2 1 11 57 -40 -27 -19 -18 47 -40 52 22 -6 -21 65 -27 24 3 -34 92 56 40 27 -44 29 61 58 34 5 -59 64 -65 23 -56 -8 13 -3 -26 -16 9 -49 -49 44 -3 3 11 11 -64 -23 -57 -61 -8 -16 -61 -43 -22 -39 -25 43 -57 23 -14 -60 -18 -10 -33 -1 59 51 59 54 64 63 -4 39 -58 60 22 -63 -51 -7 28 52 -34 -34 57 -52 -35 -76 16 19 29 55 -60 37 -54 30 7 33 24 62 33 -48 -54 -26 -39 -49 -21 47 -6 -37 27 20 8 58 -29 52 -43 25 -8 27 15 18 -58 20 -16 43 38 35 -6 -41 58 -6 12 15 9 -55
83 -58 8 -34 51 73 -44 14 34 31 -62 -93 48 1 -3 -11 39 27 58 14 -46 46 40 9 76 -64 -54 -25 -7 45 6 0 53 -28 -29 -20 16 56 -50 30 -39 -4 21 34 -50 9 64 -54 -60 85 -35 30 -52 38 -31 -61 23 -15 37 -23 -49 6 -32 -3 31 23 -36 33 -27 45 -26 -23 -28 12 -67 40 3 5 -57 -60 -19 -33 -38 -14 -40 -36 70 36 58 56 0 -30 -47 -4 -63 -54 -37 -23 -10 -29 -61 -14 6 -27 -39 -32 40 -7 -77 0 -41 8 35 36 11 -11 53 29 97 13 22 -4 -15 15 -33 11 15 -46 -15 15 16 -28 22 54 -44 58 11 -37 -87 -2 -1 14 -30 -56 -38 37 20 -60 16 18 -80 -14 -52 28 -47 2 -35 -5 -6 -29 -20 1 -21 -6 24 6 -23 -19 -37 -27 45 -33 -60 -15 58 -8 45 52 58 -30 -77 40 -64 23 -52 58 12 9 28 46 4 -13 -4 -5 -21 -3 55 -3 -38 -53 -64 44 -86 31 -51 -48 72 38 -1 -18 22 -25 -62 -44 -14 68 7 15 17 -37 41 10 10 -7 -11 -6 -28 -27 64 -21 -24 26 -12 -14 38 -15 55 15 21 -81 33 25 60 81 -55 -25 2 29 -2 -50 -15 2 -7 27 0 -33
-18 27 -36 6 -51 -45 -59 -33 -58 -67 51 32 27 -51 -27 -43 44 -26 -51 24 24 -55 -56 -4 -48 28 55 -9 18 -43 -29 42 -7 -48 -35 24 -15 41 20 -6 48 43 -11 -9 -30 20 56 -47 -12 58 -12 -59 -40 34 15 42 42 57 23 -7 4 42 -23 44 -59 0 47 -15 -65 0 6 47 -44 7 -21 -25 -43 -76 16 28 18 -9 -43 -40 2 -68 -39 20 -20 46 -39 4 32 57 -49 27 12 5 14 58 -22 -58 48 43 12 -61 24 28 -38 -68 -42 50 -38 38 -42 28 -56 22 -49 4 12 30 23 -45 0 8 -14 29 57 -3 -28 42 29 -73 -79 50 4 -52 -48 54 56 -29 19 15 18 34 36 51 -17 -30 -75 60 -18 -35 -8 -68 -28 33 -19 -6 45 59 -11 -57 -47 -37 62 -10 -42 9 22 34 -40 -14 46 37 7 20 20 19 -23 12 27 -45 54 -51 36 -66 47 8 61 -31 52 12 -37 50 -28 52 3 2 -25 -19 33 31 -20 56 1 51 52 17 -26 -9 4 -26 53 -39 64 -36 3 5 -12 58 -19 -55 -42 50 -62 -11 -43 25 -5 -33 6 -30 11 51 15 -62 23 9 58 -55 -52 -14 4 29 41 -1 -48 -60 -22 -55 16 51 26 22
29 -17 -5 -19 49 8 -21 3 -78 -53 90 -80 -74 -84 22 14 -49 -44 -51 -7 36 -43 -34 -47 -39 -2 86 37 52 -63 -59 120 24 -50 -10 -53 -52 -68 24 9 51 -28 -56 -61 69 6 13 3 73 -56 93 -2 -41 18 41 -45 34 -45 61 -9 -21 81 -63 35 13 -15 -43 -50 -41 -61 46 57 10 -38 -35 -51 39 -39 -56 92 -93 12 -31 81 29 2 -26 -72 7 -56 81 40 59 113 -25 -28 67 26 -40 15 -61 0 -36 -38 -36 -73 53 32 43 26 -57 60 -43 3 38 -68 56 12 -8 -37 -57 -11 -39 -21 -38 -44 31 -65 -26 -5 18 -27 -66 -20 70 27 -2 -23 -6 47 19 -44 16 48 29 -39 -16 28 -28 -78 -28 -56 107 -4 -56 15 27 -38 0 -22 24 -19 -54 -68 -9 -65 9 39 -15 21 -39 7 -63 -30 34 -75 51 38 69 23 60 39 1 -23 3 -19 69 10 -7 -22 -65 7 42 26 13 -43 -19 -1 60 17 -59 -22 52 -17 -68 13 -1 -6 -60 47 35 -42 -58 48 15 5 -61 43 -21 50 -32 -31 38 42 20 41 -7 -57 93 45 -10 4 -26 46 -22 19 27 19 2 -50 41 -9 -9 -51 21 31 39 -7 5 55 -61 -52 35 31 -25 -65
-4 -41 17 -7 70 6 -14 -19 9 16 47 -55 30 -106 40 -30 -53 39 5 -54 60 21 45 -60 -62 52 -19 -42 58 -10 -105 1 37 56 48 47 -20 -1 20 1 -18 24 -70 6 -25 -48 -36 3 -41 38 53 36 -4 -7 -16 -10 63 -46 49 -15 -33 -54 -40 -24 42 60 -39 19 15 -1 -17 34 -48 -1 -53 -21 54 -44 6 -8 22 43 23 33 18 47 62 -85 28 -58 31 -50 -50 -36 -7 59 -12 -25 -16 43 48 39 -62 -31 -28 19 58 31 41 19 56 12 -52 0 32 -11 36 -29 -26 -19 27 30 58 -26 54 -36 -2 43 -53 35 54 5 17 -71 6 20 -46 38 -7 29 -59 9 -17 12 12 -4 -51 -28 102 -70 0 2 43 22 43 33 -51 58 -16 18 21 18 15 -57 -5 42 -57 15 -38 -4 7 -71 -63 -55 -55 59 25 -62 -61 -60 28 -22 -19 50 -19 30 25 28 -65 52 -17 -83 -78 96 48 -12 27 -41 -33 17 -56 -60 49 39 54 52 -18 25 -56 56 -50 -3 34 -96 -52 -16 9 25 -51 20 -41 18 44 1 8 -34 33 39 -32 -70 -49 10 -22 38 -58 31 -23 -1 -3 32 45 -32 54 55 17 48 -12 42 42 -68 -8 49 -65 80 -12 -2
-48 -128 -12 26 -42 33 -63 26 21 -37 -36 -19 -19 86 -50 31 44 104 -62 60 -34 -20 27 -62 40 15 39 -39 -23 6 30 -26 9 4 -3 3 42 31 23 -14 -32 1 -45 52 -31 -8 -5 -47 -52 -46 50 -64 56 21 15 57 -28 53 -45 -50 -6 -18 35 56 53 1 -28 -62 3 50 32 -14 -31 -5 -27 -10 11 -38 8 34 -12 -44 34 17 -56 -46 38 -47 39 23 108 -46 -16 -61 13 -34 32 -32 13 14 25 -55 -55 32 57 32 -28 59 31 8 24 23 -62 -17 -16 -60 2 10 -54 -20 -44 -58 16 60 32 60 25 15 -24 -31 -13 -15 14 -24 24 43 46 -34 50 0 5 59 -24 -52 25 34 13 24 21 4 32 11 35 -32 24 113 -56 -59 55 -58 -14 0 -7 -46 -44 21 -31 34 62 4 58 -36 16 51 -18 3 -128 47 24 -58 -3 -25 24 67 54 -25 -41 57 -13 -60 26 -18 17 -1 52 -40 52 28 3 45 -13 59 -65 3 3 32 -26 -5 -28 113 -2 -57 41 45 56 -22 -33 1 44 98 -29 -27 -21 33 -10 35 -59 -18 17 -19 -10 30 24 77 13 -58 -29 54 30 72 -60 -50 6 -60 51 41 57 33 20 -125 48 3 26 -2 -3 -34
22 -19 -40 -15 -6 58 -5 -38 37 13 -52 22 -14 27 -46 -13 -19 1 58 -59 -25 -65 -64 48 64 39 20 18 0 -46 70 -2 3 37 -61 -62 -22 13 27 41 -38 8 -23 -3 25 -39 59 38 37 -40 -50 -66 -10 27 -10 -55 -45 10 -42 -27 -49 23 -17 -42 -2 18 52 29 -51 52 39 1 -36 -19 -29 -50 2 48 -68 -11 15 -6 11 22 -51 -43 -15 -14 -34 -51 53 -20 -29 -41 -35 -60 34 9 18 39 3 -28 -58 -25 -14 18 48 -9 68 -53 65 -13 33 24 14 -38 19 -39 11 -40 -16 -69 -44 -34 -56 -19 -40 39 43 65 -20 35 69 44 -7 -7 -55 -51 -69 58 13 35 -66 45 -69 20 12 -27 -32 -12 -59 -19 54 13 -25 -7 54 -55 -2 53 17 -19 -15 61 30 0 -4 -43 17 -70 -32 35 50 20 52 66 61 -59 -35 12 -27 -35 63 -12 -42 25 -42 -47 49 35 -57 -26 27 -45 5 47 -10 -6 -7 54 -14 48 -17 16 26 1 28 -43 -60 -30 -60 23 -18 -25 26 -21 3 -32 0 15 -34 -11 37 -3 48 -47 -13 -3 33 37 -3 -41 -45 -42 26 -14 -51 33 25 54 5 -9 -40 23 -44 21 -27 -17 7 56 39 43 27 -5 33 -18
-47 -37 -54 -22 15 -9 -40 -44 -49 54 38 -18 65 -31 -47 53 -47 33 42 2 -68 -32 3 32 -8 -55 33 -64 -20 18 -49 -71 23 -11 19 -45 -27 -38 27 54 22 28 -64 -66 31 83 62 -58 -14 77 50 19 25 6 -34 17 16 -60 44 -31 -14 -42 3 -63 3 26 45 -22 -57 -25 -21 1 -18 -20 4 -42 9 32 41 -4 3 18 26 10 -4 25 44 57 -63 7 -40 56 -26 23 -50 62 -27 40 46 -46 -23 -59 26 -78 -20 3 -26 10 38 36 56 23 40 32 -52 -49 -52 19 -46 56 -57 34 -55 61 25 -18 0 -3 -42 -57 -52 -46 19 26 -40 -5 -4 50 45 17 18 40 23 20 52 59 -60 59 -41 33 37 34 8 -13 33 -54 -50 -12 -1 -49 -18 -34 -60 -24 -29 38 11 -17 -41 9 36 -27 23 -6 -79 -30 -58 6 -22 -11 37 -32 -63 19 14 2 -58 3 52 18 17 -65 -15 -27 -25 1 15 12 -52 28 14 34 -70 46 25 12 3 -24 -37 6 22 35 -24 34 -45 42 42 32 52 -72 50 -24 -6 85 32 -5 -47 -34 41 -53 -11 -15 -23 42 47 42 -18 1 51 30 6 31 38 -16 19 45 41 -13 -48 -16 -5 -53 -41 -61 47 -26
-36 -12 -32 48 43 23 -45 91 40 55 91 -41 -11 -19 51 17 -68 -51 -24 -35 52 -78 25 52 19 -16 29 -22 32 -56 49 43 21 -31 -45 119 37 64 5 -40 -14 80 -1 46 100 87 -22 21 95 61 -52 73 -34 -62 72 -27 31 13 10 2 33 27 74 32 -56 73 -51 -54 -22 30 30 42 51 34 -5 -46 33 37 -16 118 -35 24 -40 62 20 16 -19 -17 71 -45 4 -4 -1 53 -69 -66 23 116 -32 -9 15 38 27 -7 -78 -36 -53 31 50 -63 -72 -90 -37 -27 -9 -12 -59 -33 28 -118 -27 6 29 -56 95 -47 75 14 -100 -14 -11 -23 -5 -74 -44 -13 -13 3 -1 83 16 -16 23 3 -19 23 39 24 -44 17 100 -60 20 -12 80 -40 -1 97 9 23 81 -49 -34 -37 -67 57 -22 98 -22 -35 75 -3 -6 33 -2 -49 12 37 -15 -32 32 1 -43 29 -3 -33 42 -1 -27 96 -19 19 4 103 -35 -6 36 -25 39 8 8 14 41 -48 -7 -27 -5 -56 -29 33 51 -2 -19 55 -29 -70 44 37 -37 21 65 68 49 -13 0 -128 18 12 108 -55 -41 -24 115 -46 8 89 -60 71 -2 -7 1 2 0 -27 27 7 37 8 42 48 -6 -13 70 127 58 9
-4 2 -18 44 58 44 13 -30 38 7 6 15 14 -6 47 55 46 13 17 -23 -2 -66 16 15 26 8 80 18 -45 34 24 -5 -88 -27 -35 43 -37 65 -12 17 17 -18 7 58 -56 -20 -56 -21 -25 -59 -128 38 54 -55 -33 -30 -43 10 -40 39 -7 19 12 37 98 -65 -23 -76 16 27 11 -3 -90 -69 14 -41 -32 17 -44 46 8 -48 -40 50 39 -80 -49 57 -43 -19 -60 60 31 39 27 -16 -9 72 -11 -1 24 -53 -74 -62 55 -17 -46 -46 0 -44 -37 10 47 -14 -43 55 41 -63 -6 -42 -22 -13 26 30 24 -39 9 -19 37 -36 38 -29 -63 -39 43 22 -63 -27 -39 29 27 36 -18 -3 -34 14 -1 -5 -1 62 2 -40 -36 19 -58 53 -44 -55 -29 45 -26 -13 -12 -42 -23 -71 -42 -20 -78 -63 -34 48 -26 -33 34 39 -6 -55 -5 -18 -26 -12 -36 -19 -12 -27 59 -37 15 11 18 47 -24 -75 -22 5 46 -50 19 -30 2 24 29 -50 -52 -12 -5 -36 43 -10 28 -45 -11 68 -93 3 15 -57 29 -55 -56 67 -64 -59 -24 1 72 -59 -11 -64 41 -42 -41 -82 -19 4 45 -81 -3 -42 11 17 37 -2 -77 16 -86 -51 28 31 -49 46 25 33 -52 -47
9 59 53 1 6 14 -8 11 27 -53 6 -29 -51 -53 52 10 16 -27 -57 -11 -64 40 53 -24 -36 4 -28 -21 -39 -43 -56 -2 -37 2 -54 -17 -60 29 51 -13 42 -21 58 -60 -30 53 -15 15 32 46 -20 -15 46 22 4 41 63 52 -18 49 51 -53 -14 64 -37 -62 24 -46 52 62 -10 -46 -38 25 -27 -2 28 -9 -15 3 -53 -11 32 5 43 4 -11 23 67 -69 -46 -22 16 32 32 39 -19 -3 -27 52 24 18 27 56 -46 -11 0 -10 -18 -3 35 -50 47 -10 -13 -63 -52 0 61 32 20 -43 -32 -5 7 28 7 7 59 -50 31 59 42 -6 -44 8 39 -48 -58 31 -27 -20 21 12 -15 30 50 -50 -18 37 47 27 -56 22 37 -40 38 5 -10 -36 52 -4 -25 -23 -14 46 52 -2 59 -4 -65 -70 11 33 -57 -36 -52 38 -21 48 -27 44 -25 -44 -56 -11 -37 -42 -23 36 -53 8 27 -51 24 21 43 -24 -45 0 9 -55 -60 1 -8 -10 11 -16 17 7 55 54 13 -62 7 -18 8 3 31 58 10 53 -64 -38 9 12 -50 -31 30 13 16 -63 59 -27 40 -35 -21 -37 -56 -13 -22 34 5 5 -4 -7 33 -17 -63 -2 59 -21 38 52 -2 17
13 -4 29 -42 -37 11 22 -3 -15 -46 9 10 -27 20 -28 15 55 7 -48 -2 26 23 65 20 -17 -50 38 -26 -43 7 20 74 -15 18 42 -11 46 15 -17 -16 87 30 80 -46 32 -26 -18 42 -47 -15 45 -19 -55 -4 -2 35 51 51 -1 39 26 -12 0 -6 5 53 -56 1 -51 -48 10 -41 47 -4 -33 42 41 27 4 22 70 -36 -24 -36 13 29 65 -54 -39 -38 13 11 11 84 -31 84 10 -34 14 35 49 -35 -37 -3 60 -4 -7 -2 47 -55 -52 -10 -24 20 24 -23 -1 -40 -28 71 -38 20 57 46 45 -26 4 4 52 -49 -40 -25 -1 21 61 42 24 11 16 23 -54 17 -3 -40 -2 -35 48 64 -29 -4 51 23 -10 52 -24 38 14 43 27 -10 -3 51 -3 11 32 -35 31 18 66 3 4 -78 21 53 -16 29 42 70 16 37 -7 3 48 35 20 16 -19 -24 25 9 -23 22 -76 -29 -1 -66 34 -17 38 -64 28 -39 -62 51 -23 33 -15 -3 52 23 21 78 -49 -10 -36 6 74 -34 -16 -13 3 -49 16 10 -46 1 29 49 13 6 14 -47 -39 21 -17 62 23 64 -3 87 -49 -35 -38 -49 8 -20 56 56 41 41 3 -55 -9 78 -53 -1
-26 -64 38 -42 52 20 29 17 23 46 33 -1 3 36 48 -16 -42 1 -25 17 3 12 -42 39 11 -4 -14 -8 -11 -51 -8 4 51 -27 -8 73 -50 15 60 -1 21 63 10 27 40 -4 7 -23 -68 19 -25 -11 -50 50 57 58 -27 61 57 -18 -48 -54 36 5 -16 46 8 -51 -54 27 -20 5 19 21 36 14 -53 -61 16 -62 -63 -9 11 -20 3 -45 -23 47 -14 -46 5 46 56 -29 -2 60 -72 -75 39 44 36 -37 58 -27 -62 -28 20 -71 -32 24 -26 -58 -2 -13 -43 53 -8 -65 -11 -29 -39 45 -3 29 -60 -11 -59 27 -28 50 -18 36 -38 53 -26 -26 55 22 15 7 11 8 -42 -69 -37 -19 44 56 32 -62 -48 1 -96 -47 -45 -56 26 53 -30 -23 -47 -49 -4 -58 -11 61 49 -12 0 -53 -33 47 -23 24 -31 -55 -26 6 60 -60 -37 13 34 11 -59 54 -42 -54 41 49 0 55 -45 25 -56 47 54 19 -21 7 -50 26 -3 -16 53 59 28 20 60 -42 8 -24 -15 39 -34 38 -52 -36 7 -63 31 43 -50 -42 -5 3 9 51 -16 16 35 -16 -68 -18 -56 38 -63 -26 18 -59 -2 31 6 -18 29 -59 17 -45 -49 -55 -2 37 27 -8 -52 -60
45 -35 12 -24 56 -39 -5 2 -22 31 51 60 46 76 -4 37 -4 8 10 56 46 -30 -47 53 -40 -45 58 -4 39 -55 50 19 -43 -21 56 8 11 -23 -14 19 58 -61 20 58 37 74 -56 -3 46 -26 -55 21 19 -53 37 -48 -51 53 64 -11 53 -39 16 25 -40 -19 13 1 11 24 24 32 -49 12 -2 -41 45 35 -62 7 49 39 3 61 12 21 -13 54 11 46 34 -18 24 -39 59 15 -21 42 50 -39 49 -45 46 11 36 -42 27 43 -62 39 38 -51 -24 -55 2 7 -35 -60 -26 22 -20 12 -30 -46 24 21 50 4 -12 -18 -3 2 -52 -8 42 28 33 39 -17 2 21 11 -31 7 -19 37 -4 11 20 32 -28 -47 -24 61 55 65 -8 -33 32 76 31 39 -1 -1 -61 -2 53 67 40 16 -30 79 -57 24 -34 -15 3 24 18 38 28 -27 25 62 45 18 1 37 -61 -23 50 -14 -37 -34 20 1 15 -10 -18 -27 12 67 -39 -19 -35 -18 -36 54 24 -33 -1 -38 -36 42 -16 54 -8 -31 48 -38 36 -42 24 0 32 48 -42 -48 35 7 59 -33 47 50 -31 37 10 30 -2 -46 43 -68 13 -16 33 -14 -37 -40 61 28 41 -46 1 -62 47 -44
19 51 15 47 -49 -71 -37 -1 -44 50 -27 8 12 58 8 -6 42 -62 23 6 -19 -36 -24 16 52 -55 3 -34 67 -1 27 -53 -54 53 -55 17 -7 -27 61 -36 9 -2 59 -61 47 -71 -40 20 -10 22 4 -21 -3 17 -13 -46 58 -10 40 32 -20 -48 41 24 -8 12 -6 -25 49 -22 3 -5 38 29 38 -38 -16 -19 -8 -61 -39 -29 11 -24 -48 -47 -8 -71 -9 -34 -41 37 74 60 -49 5 56 -46 32 12 -19 13 72 -34 -38 13 1 79 12 6 40 53 55 34 -26 -10 17 -47 -14 10 39 -45 -52 44 55 -16 9 10 -44 32 40 -47 -27 -44 -61 -38 38 16 -23 7 -40 -32 17 -33 -18 -48 -13 -27 -7 18 30 41 -43 -12 -54 -45 -62 -2 -35 -71 -3 18 -57 -16 -57 -41 46 11 73 -34 16 -38 -36 -50 -50 28 57 -2 -20 -47 36 -23 27 13 27 63 10 60 59 -51 59 30 59 -52 -29 -11 45 36 44 -48 63 -37 59 -37 18 27 -41 -34 21 -5 62 40 -4 -32 -60 67 28 30 -41 -36 -55 -6 -34 -40 -43 -27 -17 -20 50 53 12 -20 -37 63 -58 -43 31 22 42 62 -82 -25 2 60 20 32 39 17 -36 44 -16 -52 48 -4 24 -48
-36 13 34 -33 -52 4 -3 -64 3 15 19 -42 -8 12 55 -30 37 -23 5 -14 -55 47 -26 -29 -54 -2 6 13 -24 -42 -39 -14 28 18 -3 45 23 -54 -55 60 -52 11 50 -11 -44 -1 56 14 -6 29 27 -48 -55 -11 -45 10 -41 31 61 1 22 7 23 -5 -12 -8 19 -5 -30 10 21 37 -6 -52 29 -32 21 61 22 -26 22 16 -1 -41 15 57 19 -15 -29 -57 -12 42 -56 -8 -53 9 24 4 24 55 22 -32 -3 47 -57 4 38 45 27 49 -42 -11 5 -35 -36 39 -48 20 8 25 -28 25 59 -2 -59 -45 -16 67 45 -3 -34 9 0 21 -45 59 41 19 -52 4 -60 34 -6 -12 45 -35 -53 41 16 -58 -5 -19 20 -49 -40 64 -53 -44 -23 -53 -32 -1 -24 -49 6 57 54 19 -36 16 15 -33 -34 18 55 46 -39 64 3 -62 -14 -40 43 58 -29 -29 50 -35 -47 -27 29 -18 -8 27 25 -47 -64 -19 30 -27 56 -21 23 59 26 71 -52 11 -12 -21 -49 -7 -16 -30 12 -24 21 -12 -22 -16 37 26 -41 18 -13 8 -25 45 51 22 43 -37 4 5 25 -56 15 23 23 66 -24 16 -2 -18 44 -57 53 -27 7 -59 -27 -17 8 31 0 9
12 38 -43 -46 -65 -12 -46 32 23 -37 -27 51 1 40 24 25 -40 -57 7 18 20 41 48 14 -46 -3 21 -10 24 35 -21 -45 2 39 2 34 38 61 -19 -60 20 -27 14 33 -40 -29 43 -8 51 35 -44 34 -13 4 4 40 14 19 -14 66 -32 -60 -19 -13 -56 18 -66 37 -16 31 19 3 -39 -12 32 44 34 -19 25 17 -40 28 -34 17 65 -33 20 -18 3 27 47 -50 30 -45 -30 -8 64 54 -40 59 -8 -43 -23 -34 29 -24 61 -38 -37 35 -5 53 19 -4 6 -33 3 1 59 42 -67 7 -40 -56 -11 -31 -39 -11 41 -37 9 41 59 -29 -16 -41 58 -52 64 -21 -16 -14 47 -22 -23 -19 18 24 -31 -27 50 -51 16 20 -17 -52 -10 43 2 52 63 -24 -23 31 38 -69 -17 14 -52 -37 -49 -24 -34 -52 -19 13 -38 -45 39 46 -43 53 -14 -17 37 54 -14 18 -47 -19 10 -60 -15 -10 -26 -57 14 -25 -63 60 -47 -47 -35 42 2 46 10 -8 8 -1 25 55 34 -17 7 -49 -20 47 10 -19 -5 -17 28 40 -65 -24 -36 47 -32 -39 65 27 -21 -49 25 -52 19 42 -27 -13 9 -61 -18 -2 40 35 -45 -3 -35 -40 -56 16 -45 -68 -24 -8
15 -60 40 -60 -6 12 4 -6 -57 -5 20 22 -38 -45 -8 45 49 43 5 24 60 54 29 -20 -33 40 17 -54 44 16 -54 55 -5 -15 -44 22 -29 46 38 67 6 59 -50 52 -1 26 27 15 -76 45 39 -16 -21 -18 57 -14 63 34 -22 -52 -1 -10 -22 -29 -38 -46 -28 -44 -41 -9 -68 55 34 -49 -17 -74 18 -53 -7 109 3 0 34 44 30 -44 65 -64 4 -28 -16 -18 23 33 2 -6 -1 -32 -30 11 -33 -28 -35 -9 -36 14 -26 -32 15 -50 -31 71 26 -10 57 -53 54 14 24 43 12 -64 39 72 -38 -10 -45 -54 50 -24 30 -21 40 63 -103 25 -26 -11 27 45 19 71 38 -4 -41 0 38 53 -51 15 -36 44 4 48 8 -62 -3 -50 64 16 -61 -62 -21 -56 -15 -35 67 13 73 -16 0 -14 -46 -10 -5 -30 4 80 87 -16 -77 -32 42 5 -14 6 -60 69 53 46 37 87 42 -89 45 -46 18 -1 2 -26 -10 46 -31 -38 -48 13 26 25 -18 52 -34 70 30 -52 -6 58 -21 25 -68 -109 -59 -13 6 -6 -32 -27 9 8 7 -29 85 51 -45 77 -15 -49 -42 41 -6 -45 22 -19 -49 50 25 -36 10 -34 -18 19 32 7 -62 35 -79 64
10 90 -14 -15 -47 27 -22 -16 -51 45 70 -22 21 31 -4 50 -3 33 6 62 -65 -14 17 56 -32 -3 -33 -56 7 -42 3 -9 -1 -12 58 65 -50 36 -50 17 2 66 35 -6 -59 8 -12 -30 -36 -4 28 -34 10 11 26 68 15 -1 -22 1 33 31 -72 -29 -20 19 29 -52 -22 -8 -34 -2 -77 64 6 28 34 -32 -56 55 35 -50 -68 40 2 17 -46 30 -14 -70 -50 -56 -34 16 44 -17 19 -67 -19 54 25 -36 2 0 2 -14 -40 28 28 19 -49 32 30 51 -57 56 12 35 -56 63 63 -35 -50 -38 42 18 44 -10 -17 29 36 -29 -1 -30 -7 29 22 15 -5 45 34 -48 7 -36 -8 -41 -44 3 26 11 37 24 32 -31 -45 -37 18 -56 -47 3 -15 -57 -5 21 2 61 52 60 -49 44 -25 -65 30 33 29 -16 45 64 -20 27 30 14 -16 47 -52 -23 -17 -11 -44 16 43 -21 -34 -48 -64 17 -51 -31 -72 -63 47 -54 29 -14 27 12 -21 53 25 -17 -36 -34 -27 35 -40 -29 51 29 15 -30 -1 32 -53 -61 48 -35 41 -57 24 37 35 -12 -41 47 -62 5 4 -13 -46 12 31 -3 36 -70 53 -50 53 54 27 29 -61 -35 37 50 38 30
9 30 -52 3 -6 -27 -1 -4 -10 -38 73 55 12 -32 -53 -34 39 -16 -4 -35 27 29 -23 36 27 57 -40 53 -11 61 34 75 17 44 8 75 -24 3 17 -78 -43 -2 -75 -10 -5 14 20 -76 20 -55 -24 43 -50 56 -12 -48 57 53 31 33 36 -39 -24 64 -27 -9 -21 45 21 -43 63 37 60 -45 -26 -89 -23 -9 46 104 -78 15 3 33 44 11 -60 14 -14 -10 36 43 -44 -14 -50 -63 -7 63 -50 46 -50 11 -21 -17 -96 -6 -122 -12 -16 18 -64 -7 8 8 -34 -55 58 22 70 -122 30 23 9 -54 17 21 95 7 -7 61 -31 27 -50 15 39 -11 -54 -21 66 -6 25 -53 22 52 33 61 -34 19 21 -25 40 -85 -1 -36 29 57 -26 -13 -29 40 -58 -85 -1 -73 -52 -51 16 -22 15 -1 60 -50 49 -34 -33 -68 22 1 60 -3 41 10 13 -17 -52 26 -27 54 -39 -18 -12 -51 63 -33 -49 23 35 55 -33 31 -50 -103 49 -34 47 43 60 -20 -55 -32 48 -9 -34 18 -58 14 -15 53 -22 66 30 -49 -29 34 49 -128 -40 32 58 36 -37 49 -13 -79 -66 54 10 -30 -64 5 -27 -45 -12 -9 14 19 -33 27 127 63 -53 43 6 4 -30 -41
38 -34 18 21 31 -33 1 25 52 52 -12 -54 40 -62 42 10 -57 -60 -53 -2 -30 50 52 1 60 12 33 2 -60 30 -3 -46 -8 4 11 31 -62 -7 -39 -26 -41 8 4 -36 -59 -25 54 -66 11 16 -24 57 -38 26 30 0 6 57 6 28 43 -10 4 -51 25 -40 37 26 -29 4 59 -10 53 -79 49 -51 25 5 -6 45 -58 19 45 -6 45 -22 -21 -59 -8 -33 -36 -3 19 52 -25 -36 35 -21 42 -38 25 -39 34 38 5 -55 17 -3 39 -68 61 -27 21 32 -32 58 -46 -46 7 27 16 44 -52 -36 -10 -57 -58 -56 35 -32 -12 -36 -33 16 8 15 -27 5 -59 -54 -48 -34 6 -71 8 37 -17 -29 -46 -45 -71 9 -66 14 -12 -66 9 -40 1 15 55 -55 -55 -63 41 48 22 -26 6 14 17 33 15 -4 -15 38 22 49 -8 -21 30 -51 -62 51 -57 40 -58 -8 -44 47 57 -3 -11 44 7 22 -18 -46 18 -57 57 52 -7 -40 -55 -22 -53 21 3 -36 -33 50 26 9 -7 -24 29 55 -13 38 55 58 -8 2 -13 -30 -13 -49 7 -51 28 -38 25 4 18 -68 45 -52 33 18 -43 -3 -46 18 -39 47 -10 5 -15 -11 -23 -26 -7 -63 26 -37
30 9 18 54 -29 -51 -37 67 -25 12 -101 29 3 -1 57 37 33 -28 9 50 28 -36 -18 58 -51 35 23 60 13 -69 -29 -65 44 37 17 72 31 -52 -29 58 57 -1 -78 -16 4 5 -36 -77 -19 26 -29 45 62 -50 -48 9 -51 -13 36 10 -4 -67 5 -63 -54 -71 -43 -24 -16 34 -14 -64 -32 -68 -51 7 -11 -52 53 51 32 6 -12 17 -67 -10 -51 18 38 19 -66 -3 -5 72 34 -63 -60 4 -14 -34 16 38 10 -28 54 -27 34 52 -29 -49 -88 -54 -50 54 -40 22 -4 -35 -26 26 37 -33 40 -42 -9 -78 42 -55 12 33 32 -19 -41 11 -60 -19 -53 -16 2 39 12 -40 -30 -8 -45 38 -58 23 -8 -65 10 -56 -56 1 11 32 -58 40 60 -1 56 -59 9 52 -17 -27 -51 -8 29 25 28 18 28 -25 47 -9 6 -12 35 -17 28 28 -44 -49 -55 42 -62 20 -18 58 -28 -36 -15 -57 -10 -52 16 -63 32 3 -45 -27 -47 35 8 -63 4 27 -28 18 42 -12 -71 -12 -65 -19 -21 18 -21 -67 -63 21 23 -11 -72 24 75 -21 -32 -29 56 -47 -72 20 -25 8 -3 -21 25 -79 -66 31 24 -33 63 -5 51 29 1 -39 -116 47 7 29 -48 0
0 -68 9 -30 34 6 13 2 -33 -41 -33 36 -54 -2 -44 -52 -80 -71 -2 -10 1 -15 39 61 -38 2 -10 -38 50 -3 43 -40 50 -5 -41 -37 -17 14 4 -63 33 56 56 5 -35 -55 40 -30 48 -6 18 30 29 48 -28 5 -43 -40 33 38 20 10 -2 41 -48 -24 44 -69 -55 13 58 -31 -42 31 35 30 5 -60 1 -21 23 34 -55 -62 38 -44 -17 13 -23 10 8 -48 -56 37 -67 -17 -12 28 34 3 58 49 2 19 -35 13 30 -50 47 2 -57 39 -41 13 -52 53 6 29 -48 -15 1 -16 -51 -30 -27 -77 -35 63 56 -50 -55 -52 -13 38 39 -41 -58 59 51 -13 31 -58 15 -61 58 -40 40 -13 -28 12 17 -2 -8 23 -53 18 19 -44 -45 -23 -32 -14 -21 34 -18 -11 -22 19 -5 48 52 -15 -61 -48 1 -25 -42 -42 -4 12 33 11 -10 9 48 32 -40 26 -6 -40 58 -44 -62 -33 52 64 1 27 -2 14 -17 36 -24 -41 42 -43 28 6 -9 -38 -11 -52 15 -37 50 -55 -41 27 -60 89 10 36 37 41 -52 -14 -20 -57 0 8 1 29 6 -28 -29 -10 48 76 -16 36 55 54 4 6 12 29 -23 -1 -32 19 -64 -2 37 -38 44 -36
21 -30 46 -31 35 -27 44 -13 -19 -57 -30 13 22 -69 29 -34 23 -37 -23 21 33 52 10 -65 -58 -47 -37 -49 33 54 -21 55 -19 -10 -26 -18 7 60 50 91 -17 54 62 -25 -19 30 29 36 38 127 -5 -26 -61 32 17 -56 24 59 41 -10 18 -16 20 18 8 28 -65 28 47 51 44 57 58 -31 -96 26 5 -24 19 -29 -13 -63 52 68 18 47 -4 20 -5 -31 -19 -30 33 21 -61 -20 -17 4 15 39 -17 -63 -36 -67 5 -32 -9 22 44 -68 -21 30 -23 -7 -10 5 39 -3 -24 -28 -49 -28 -41 -39 44 -19 -67 2 58 13 9 22 46 49 -47 -5 -7 -13 48 59 -63 9 -14 -17 60 -46 -60 -37 -14 -22 16 -49 13 25 -27 -1 18 -28 61 -37 -24 -49 45 -69 -59 18 -4 -15 60 -79 -52 54 45 -46 4 -9 6 24 53 22 13 12 3 31 -6 -4 -28 -56 9 -43 52 10 25 -9 33 19 -23 -59 32 -44 -59 29 -55 41 55 14 19 -61 10 11 4 -16 -2 -5 -31 54 -54 48 -51 -19 -24 63 37 62 -5 -50 59 40 50 -59 14 23 -10 -27 3 -21 49 49 61 43 21 -20 -41 -6 -46 57 -49 16 -7 27 45 -35 34 50 10 50
-61 -54 0 -23 7 -5 30 68 -53 28 -8 -65 34 -18 -57 -34 -3 45 20 -51 73 4 -10 -7 -46 13 35 4 -54 47 7 70 -39 -22 56 -34 -52 -22 15 19 30 -41 19 -9 54 -57 58 -24 -15 45 0 49 32 -46 -25 15 -19 5 29 -30 15 -3 28 56 2 51 25 39 40 -24 33 -13 22 22 5 34 -31 -13 -54 -59 1 -61 -34 -64 58 53 -5 23 -17 45 -8 38 49 46 26 -36 17 -71 8 -53 -13 -56 5 18 13 62 6 30 3 41 13 -67 16 -15 -24 55 0 -59 -15 60 5 -19 17 60 -41 -53 48 50 5 37 20 -41 -1 -45 -48 12 -36 55 31 2 30 -35 39 -32 4 -40 28 -54 26 -56 -15 55 58 -62 -18 -25 -10 -46 58 -49 21 -48 47 -68 -26 -52 -2 37 27 -42 23 -7 -30 30 -46 -32 59 -31 -33 -37 6 38 56 55 -37 -49 51 52 -55 51 36 -45 13 10 21 3 27 56 46 53 -22 17 -35 -64 30 -13 -15 -33 2 20 51 13 -39 3 20 24 -40 -61 7 -31 60 62 42 -3 82 -2 -51 -31 -31 -37 -2 -53 -41 22 27 -65 4 -67 52 9 -27 -50 49 62 5 18 -16 -43 -9 48 -36 -14 35 15 9 50
33 -55 36 -61 -49 -57 25 2 -42 -6 -50 -62 -54 67 -22 -5 -42 -2 -62 9 21 -58 -22 4 -19 -5 70 -44 50 20 40 -17 64 51 48 -34 -55 24 36 46 -31 -36 -86 -32 44 28 -39 -75 -31 2 -27 14 -10 9 36 -32 26 1 -50 43 -45 -66 55 9 21 38 -49 28 -42 14 32 2 -29 45 23 6 9 38 2 -34 -32 -25 43 31 40 -30 -43 37 -5 20 -42 -12 -60 -14 58 12 -69 -9 19 -11 -58 -48 22 -25 -7 8 40 50 34 51 68 -23 -3 56 16 18 -63 -1 37 -18 -48 -61 -35 -55 34 -18 -35 -46 27 5 -10 24 16 -52 -64 17 26 3 -14 -57 -29 14 31 39 58 25 39 -10 -5 55 -61 32 11 14 28 -72 -34 36 9 67 -52 40 -8 -58 -2 16 -17 -26 -37 -29 51 14 -45 5 -51 -50 -38 -27 49 9 -54 -3 0 -57 -28 -5 -13 -35 19 -34 35 -2 83 3 -10 28 32 59 33 -25 44 -23 -65 -7 30 -5 7 52 -11 16 -55 -14 -26 -14 -55 42 -62 30 -15 -47 54 36 21 21 6 25 -17 9 52 28 -29 11 43 -32 -14 -62 -46 3 -48 -74 41 7 -64 -28 -62 -20 42 17 -35 -41 -43 -36 -43 56 -42 -47
-50 -33 -21 11 0 -61 -68 28 5 48 -35 42 13 -68 56 1 -7 -34 -2 38 30 53 -17 -31 45 -44 78 -31 41 58 60 -8 -6 3 23 84 -55 -29 -13 -12 9 57 23 -14 -59 -54 36 30 -40 -11 -26 0 -28 17 51 5 -5 20 16 61 -61 -46 -37 -35 -4 -43 -53 42 -6 -28 37 -23 -49 -67 -27 -60 -48 42 1 26 -69 -34 36 -59 43 40 22 55 15 -30 40 6 4 -4 -12 -38 -53 18 -67 30 -76 -10 5 -20 0 -49 55 22 33 -24 -24 -60 -54 4 28 -25 0 20 -85 47 -65 -1 52 54 -14 -13 49 -15 -51 53 -42 51 -54 -45 -22 -38 -21 -29 50 -17 -33 -45 2 10 19 3 -26 59 2 28 18 7 -17 25 53 -69 -37 43 18 -37 51 -55 48 28 -13 51 27 -62 -24 -22 60 6 14 14 27 -68 -4 1 27 -2 -36 21 -34 -68 -9 49 37 -49 1 0 1 -4 51 -39 -59 -18 -19 -65 14 -62 44 -49 73 38 25 20 -43 26 -48 -85 -56 2 -41 8 44 50 31 39 16 41 -44 -7 51 -54 -7 -31 47 30 -50 -73 -39 -58 -2 0 -35 -22 -56 -65 46 -57 -6 -42 -8 51 17 -60 18 34 29 -57 -74 -19 30 47 -42 -16
-43 2 1 -66 11 20 9 22 41 -40 -30 55 42 29 17 2 54 -1 -68 -59 -47 38 33 48 2 57 69 45 21 -15 33 -31 -7 12 18 44 22 -2 -20 60 51 -31 -27 -11 -36 13 46 44 -15 -44 56 63 57 13 33 -22 11 -2 -60 -12 -35 -62 -40 14 16 -55 -18 -3 18 20 -19 26 -31 46 9 -7 -30 -58 -24 -22 -17 -37 11 -30 43 10 -12 34 -48 2 -15 18 -44 -61 14 -58 -55 3 46 57 40 -66 44 -27 -16 -2 48 -48 -41 34 26 44 -27 -60 -42 -56 -44 19 22 -17 -43 -32 24 48 -25 28 -45 -3 -69 -10 -44 32 15 -23 49 -18 41 7 -30 16 45 -14 -13 -21 13 17 25 -17 9 -51 -55 -40 -33 20 -5 -25 -34 -40 41 48 15 -4 -46 66 -29 -41 -35 43 -39 14 -42 -30 2 8 -43 53 58 29 -7 29 -19 34 -13 -47 -10 56 -20 -56 -12 -56 26 52 59 26 -32 -15 -16 -39 -5 27 -3 -47 -56 9 60 -4 -48 -40 -63 -45 -66 25 59 3 36 59 -12 -34 21 39 -9 -34 -35 5 5 -63 -37 28 -46 -46 -51 -31 38 -20 -42 -39 -28 23 -20 26 24 69 68 -51 -8 30 -59 -58 -50 -25 47 -61 6 -50 5 29
-26 -58 51 -61 31 52 41 -49 17 46 44 -41 -54 25 15 3 33 31 14 22 -5 -16 -51 48 0 18 4 -62 -45 31 23 13 24 -50 -36 -41 -64 57 5 78 30 26 53 -59 -25 34 48 8 -41 34 -6 18 39 -70 10 -22 -54 -57 -60 83 20 41 -15 -9 -22 -40 -13 34 24 45 36 -50 37 -59 -13 -30 40 -37 51 57 -9 53 42 47 18 -45 -11 -61 -45 12 48 -49 -53 -43 59 59 -64 3 -51 -11 -1 17 27 -34 -12 -66 -18 29 25 5 9 17 9 -30 66 64 5 32 -5 -8 52 55 -7 -59 -40 -29 -29 -3 -14 -22 -7 12 8 37 9 -7 38 47 -67 12 21 -9 -12 41 43 -12 20 -35 33 45 14 33 -60 -48 12 -35 -48 -54 25 44 -19 37 3 -12 -58 -72 -42 34 -30 31 42 52 40 -33 -2 -48 24 19 40 62 10 0 -7 36 -17 30 38 58 -35 -7 43 77 56 -46 28 -10 -57 43 11 46 -63 7 20 59 -10 -37 -33 -27 25 -13 -65 11 -43 66 52 36 76 60 -42 -1 66 -18 71 45 12 -33 -57 -3 45 8 -2 19 3 -25 6 50 8 58 38 -14 51 21 -51 14 18 -20 53 62 -64 61 10 -29 -7 -9 10 24
-35 -66 37 -31 -9 -21 -1 41 -45 37 -30 52 -16 25 34 -32 33 51 -18 52 46 2 -19 -3 -35 -39 33 -55 60 -72 -39 -25 9 -53 -55 59 59 -50 10 -26 43 61 2 -22 55 56 14 45 46 38 15 -2 -21 -42 -81 69 9 -22 -22 15 58 9 37 26 -19 -44 -49 42 -9 -9 -52 48 -57 20 21 -11 -16 -43 42 -37 -14 -5 24 -28 16 4 -43 -2 28 -10 44 -9 5 -11 -36 -52 -51 -47 -53 -15 45 34 -3 10 -5 -24 45 -24 55 -55 67 19 -23 -24 28 -17 12 3 -24 -41 52 -33 23 13 44 -51 27 5 -52 30 -9 -3 -17 -32 34 -23 37 8 -7 22 -48 9 -28 60 -37 67 -49 -22 -27 -25 -47 44 -32 -35 -52 29 -29 43 18 -55 41 43 32 55 60 1 -88 -56 21 -21 28 -17 46 60 3 6 46 -66 19 25 -39 -29 -52 42 45 44 21 -8 -5 -55 -49 49 52 10 -12 -17 -61 52 -19 0 37 51 33 7 -63 33 -33 19 -81 -47 17 17 -47 -17 -6 -22 35 47 0 -6 30 57 59 34 -10 8 56 8 25 -40 -79 55 1 9 43 1 34 -33 -9 46 72 23 -69 -58 -44 -52 17 -26 23 62 -56 -24 24 53 42 -47
-55 -48 48 34 -45 42 61 -8 22 8 59 -6 -24 -62 -29 -61 -12 -21 28 16 -15 -16 -43 -26 -3 -8 -43 -52 -32 16 -42 -9 40 61 64 2 -45 34 -48 -63 -51 -44 -19 44 -4 22 33 38 12 11 3 -31 52 -6 -9 19 -61 -35 -13 57 36 -26 -59 50 -1 -20 45 -36 -62 -29 -35 55 -30 8 30 -47 -20 -24 -30 38 -60 -8 36 -36 -34 -18 -43 38 71 -12 53 0 63 41 3 -6 -31 33 24 -21 39 48 -41 -39 -22 -25 -63 -31 18 -64 27 59 15 -33 -51 -58 -61 41 -26 -30 53 -28 -33 -42 -47 14 -40 61 -14 15 -56 30 47 15 5 -57 39 -14 4 33 60 -23 67 15 63 -30 35 20 7 -58 -50 26 14 21 10 47 40 -53 -60 28 -12 -40 -53 -12 6 -7 -44 -22 12 -48 -52 -9 32 4 -42 -3 -36 39 45 29 60 41 -36 40 5 0 -5 60 -55 -1 54 48 12 64 57 -8 23 -33 -49 -53 45 40 46 28 -66 -44 0 -4 56 -25 -11 27 -5 10 -17 -46 -55 -5 -59 33 20 52 19 -21 8 -3 12 14 60 18 -15 -2 63 -16 24 -5 -2 52 4 -13 -40 -46 -34 -61 -56 24 -4 -20 17 62 0 -40 -1 23 32 59
0 -45 -3 -5 53 55 -15 -57 -33 -18 -9 -65 19 -15 7 -62 3 -31 -14 -37 8 46 35 33 -23 -10 28 -48 -32 7 34 11 -57 33 23 -9 57 -54 -44 -9 50 43 14 52 6 -41 21 27 42 -51 -2 -28 25 -7 43 -2 13 57 43 59 -7 -63 -15 3 -54 39 15 8 13 -28 46 29 -7 -41 -41 32 -15 24 -60 56 54 41 54 -2 39 26 52 0 16 54 -13 20 -6 53 -61 42 -51 27 -47 63 60 58 -17 -36 31 -6 -52 -39 35 -64 -21 -14 -37 25 17 6 -59 -64 12 -61 -15 6 2 -42 25 -30 49 -51 -61 39 24 6 39 36 -27 23 9 42 -34 13 -38 38 -59 55 -9 16 -60 8 -18 28 2 56 -14 -56 -25 11 48 -37 3 -58 -61 -34 45 27 -47 48 41 -55 -42 41 14 -36 -16 4 -23 -37 53 57 20 -16 -51 49 -17 -36 36 64 16 8 13 -53 14 -34 -21 4 -19 -33 30 -17 52 -16 56 1 26 -6 28 29 -8 -22 10 -30 50 61 -54 -30 -52 17 -16 42 -46 7 38 -6 -2 13 -42 58 -13 -32 5 -72 47 34 64 -25 25 -23 40 -40 2 -43 4 21 42 10 5 -12 14 -25 56 -64 1 -61 -66 4 38 52
-6 -6 58 -6 66 13 20 -15 -2 37 -37 31 -12 -22 27 53 -19 19 8 48 18 27 62 52 -16 -55 0 -50 61 -55 -19 -11 -24 31 -35 -14 6 29 36 5 45 24 5 -3 -32 -43 -39 2 67 -13 -20 -21 -43 25 8 5 59 21 -54 44 -52 -35 -57 -58 -42 -35 -51 -63 -32 -3 -13 32 -10 2 2 -45 4 8 42 42 -2 46 39 18 -51 35 51 3 -60 -1 -16 34 -31 35 5 13 -28 5 8 28 63 60 -24 -6 -3 31 1 -36 -26 -44 -47 25 -54 53 80 -39 -55 44 29 27 0 -5 -2 -28 -16 55 15 -20 55 48 -52 1 30 -32 -77 18 -51 31 49 -61 -41 20 60 33 -13 -57 26 -39 -18 13 37 -39 -53 46 -62 43 14 34 18 -35 -24 54 -38 10 -35 22 25 -57 69 58 -36 -26 32 -35 28 -1 11 57 3 3 -10 -24 -44 2 28 4 19 58 30 -69 12 -38 -25 -11 -33 -78 36 -50 10 -59 16 -14 -8 -35 -39 44 11 -58 1 98 37 -7 -60 -68 40 -41 -67 50 -57 -74 42 41 -26 40 -5 5 56 54 -32 15 -15 -33 62 16 16 20 31 64 3 10 -4 -20 47 45 -24 12 -13 54 -23 -35 -4 41 1 24 1 -5
-40 -66 -6 -4 -25 -4 -8 49 -27 28 33 8 -4 -35 -4 58 -44 -36 -35 -19 44 -26 -23 14 3 -18 -51 39 -15 12 -5 -13 20 -41 -42 -61 -58 -43 25 32 -3 -18 -54 13 24 -4 -6 63 -34 -13 -45 -19 48 -11 26 30 9 -54 -57 -40 -51 -12 -4 31 15 24 20 -6 -52 42 1 32 -57 -32 -60 -41 -3 -15 -24 28 -21 57 1 39 -55 -65 29 -44 49 -56 61 32 -21 -55 37 50 -2 -46 61 -16 -19 -9 -7 1 -47 47 -15 -54 21 54 33 11 -37 -60 -9 47 -2 12 -10 -44 -11 56 51 -58 47 -24 52 52 48 34 29 -52 25 67 -49 61 -51 55 -42 -4 -9 -4 42 29 23 -34 -24 -21 26 35 39 -5 25 36 -29 8 15 28 29 -27 -17 -17 -31 -16 43 -23 -32 36 41 -42 44 20 54 0 57 11 -49 -69 -20 -19 -8 -26 55 52 21 25 -24 -61 -27 50 -51 -25 13 3 -17 -47 64 7 -2 44 -37 48 48 3 60 -58 -35 -19 -49 83 68 -5 41 3 -53 54 -2 -50 1 28 -60 28 12 55 37 -1 22 -17 0 6 -21 41 -25 43 38 -9 46 47 26 16 -15 3 -21 -19 2 -58 -18 15 47 -16 -17 -11 16 -2 -43 37
-8 7 -68 -11 4 -15 -27 -78 57 -57 22 42 -29 -13 -16 8 -17 -6 -3 -61 14 -30 57 21 -18 36 -11 37 13 11 -33 6 45 -35 41 45 -33 58 61 -53 -63 -46 15 -36 -50 -51 -11 37 5 -37 30 -31 12 14 35 69 -56 3 32 -59 28 -3 27 3 -40 -63 40 -56 48 -60 38 -2 14 17 25 41 -52 5 -47 -28 1 -18 -20 -15 53 4 -16 -24 33 -73 -70 24 73 -42 30 14 -45 20 41 -53 -49 41 -34 7 3 -43 -27 50 -49 -20 -57 -38 50 17 21 -41 19 10 -17 60 -19 51 -60 -47 -9 -62 14 -26 -4 -18 -14 -19 36 -57 -63 31 47 8 -19 -29 -45 -19 60 -45 -13 52 39 -49 15 -59 4 -56 43 -66 54 26 37 -8 -35 28 42 22 33 -23 -30 3 11 6 -53 29 63 -19 -6 10 28 -46 -40 51 -63 -18 -66 38 -64 -19 46 -53 29 -65 -8 11 32 38 30 -6 -52 -29 -1 -23 -44 34 -59 52 -59 -10 54 15 61 11 44 47 29 32 29 -57 -48 12 -39 -21 52 -35 -12 8 9 -23 -21 26 5 -54 -17 -67 -16 -95 -33 37 -25 67 -33 -45 23 -106 -45 18 51 -62 -59 59 16 9 -22 19 19 -66 -6 122 39 2
-53 48 41 36 -8 17 -64 -13 30 -13 -48 3 -44 5 -12 -62 37 22 12 -4 50 45 -50 -61 10 15 2 -31 19 2 -47 72 98 49 -50 76 23 20 38 -44 -40 -22 10 10 101 -7 -7 53 -47 67 72 -15 47 -17 21 -11 -60 17 -23 -13 33 25 -16 -25 39 -50 27 -43 22 16 12 -69 19 -25 9 -60 63 -36 30 69 -61 -26 -39 6 2 34 -56 -21 40 -16 -44 30 17 49 -59 -52 -69 -79 -61 -43 11 -52 36 39 22 42 -19 -74 55 -6 -25 -9 46 12 41 -16 -53 -41 -2 -39 32 -29 -60 -27 7 37 40 19 -7 11 52 60 -16 -62 49 27 2 -64 -30 -57 -68 -66 -90 31 -76 -48 -12 35 22 62 62 42 61 -20 6 -12 -32 -20 -50 15 -35 -7 2 -12 7 -16 -25 88 -33 -59 -28 -35 24 -27 -7 40 0 -56 -23 -4 -48 34 -13 -34 -42 -42 29 42 50 -51 12 -48 -25 -43 23 49 -17 43 -45 -50 55 6 -24 -73 -38 117 -42 -57 -6 -12 -13 -59 -29 -94 -44 12 -27 32 28 -29 -13 -28 32 -42 75 33 34 -13 80 -14 -30 29 -24 30 -50 22 14 -52 -35 34 -27 -11 38 77 87 -41 9 -52 -18 48 25 -35 45 30 27 -75
-15 1 13 61 -29 -32 -64 -48 -60 52 -38 -59 34 48 -56 -58 22 -18 55 41 -21 -1 28 13 2 23 -30 45 22 -39 -9 -30 -42 33 50 -13 -17 14 23 30 40 42 11 -49 -50 53 -1 -18 -62 43 42 0 -63 -68 47 -56 23 53 -22 -9 52 23 -43 -33 -94 -59 34 -27 -11 -5 -45 20 6 -69 2 -9 -14 -37 42 10 2 -9 14 44 -49 43 -55 30 66 23 53 -42 -1 52 26 28 -15 5 -80 -9 26 -56 -3 39 -2 -24 -25 -44 -68 -50 -53 56 -9 20 -64 -51 -68 -54 24 41 4 -57 1 -56 -6 -62 -9 -47 -16 -9 8 -53 59 61 -63 20 -25 58 -13 -16 -24 -45 29 -30 57 -14 -51 51 61 21 -75 -11 -10 13 22 5 64 44 -67 60 36 -66 10 17 -20 58 64 35 -7 -71 -4 52 -20 -50 -49 17 -17 28 5 -52 62 -23 -47 4 -39 10 -14 1 57 48 48 8 53 -5 -26 -11 -17 -14 -73 -28 -33 42 -13 47 45 -24 40 15 38 -72 -38 43 -57 -34 40 12 49 -30 -61 -9 50 33 -23 54 -42 -60 -41 -48 -17 2 33 -69 -21 -2 52 -65 -9 -18 -28 -87 -14 -33 59 60 -61 -61 -52 -53 -41 10 -45 -34 32 -1 35 -58
-16 47 51 -52 32 65 -56 -28 49 19 54 -56 -37 -30 30 50 49 5 59 8 -59 -40 -16 16 26 -61 51 61 55 -33 38 -63 17 58 -53 56 56 -6 -65 33 -24 -49 12 -53 -57 34 -37 -61 38 -27 -14 37 -12 -12 10 -27 -53 39 69 -30 -46 -46 -44 -55 48 -26 -20 -34 50 -13 26 -18 39 -45 -48 -45 -10 -4 -26 43 30 -51 36 -4 -41 -65 47 6 -9 46 7 -51 29 62 2 30 -22 -34 -64 40 52 -39 15 8 15 13 35 56 36 -1 41 47 -47 -49 -12 11 -46 -33 37 -35 46 32 30 -36 -7 -30 -44 -51 13 6 6 -17 48 -49 13 25 11 -36 -5 -15 -20 -28 -4 43 0 -52 -36 35 -39 -51 46 67 -53 51 18 -46 -36 50 49 -53 -42 -4 6 -37 -5 -4 22 8 9 -47 17 -30 28 -53 21 33 -48 0 55 -40 40 -34 17 68 -1 -51 9 -10 8 54 31 -51 73 6 23 49 42 36 1 23 -43 -19 13 -50 -59 -24 34 31 16 -24 -28 34 -27 -33 54 25 -34 -22 33 -18 26 5 31 68 -2 23 -31 7 -47 46 22 -3 -8 38 -10 -31 -45 -42 -52 32 37 4 -18 43 58 19 2 2 35 -19 -9 58 49 41 -54 67
5 24 -28 22 -26 -37 -38 64 41 38 -49 3 46 -14 -45 6 -41 -18 -10 -23 -32 -56 52 37 -46 27 -14 -57 16 45 49 42 -30 0 -29 8 -15 -15 -2 61 44 -65 64 25 19 30 9 -41 -25 23 58 -10 -38 52 63 31 7 -23 20 62 -13 27 56 14 52 -2 16 -47 59 4 44 -29 2 -39 6 -41 -39 -6 6 -59 -30 0 -3 63 48 -44 -33 21 -32 -50 -25 35 34 -35 -24 -17 -9 -50 -22 63 17 13 -17 -23 61 63 45 16 42 23 20 -66 13 -9 36 -34 62 -29 44 54 55 3 -16 -32 -50 -27 -2 -15 4 23 -31 17 -56 -41 -10 25 37 12 42 -12 65 30 2 -43 30 30 22 5 -22 21 23 -27 63 1 23 -56 -54 -9 -8 -26 -48 29 -3 27 -5 -55 21 18 -63 -41 30 -43 -12 -45 -10 -19 16 22 -63 -46 58 27 4 -60 12 36 42 -43 -30 -4 -16 -45 -41 -49 -10 23 4 51 -37 42 0 14 23 37 -56 -57 -37 -58 -2 1 -16 -6 6 31 -47 -50 5 -49 -45 18 18 -29 4 25 -31 -29 44 -27 -30 -9 -15 -52 16 30 45 -50 53 53 38 49 16 -53 27 36 -42 55 58 3 -4 40 -24 48 64 15 63 18
43 54 33 3 -52 31 -50 17 57 -47 24 -66 -45 57 51 -29 16 1 36 -66 -55 43 -61 0 -57 -30 -51 -25 56 37 -18 -61 57 -37 40 28 -51 -21 -20 66 -62 -13 -27 3 -26 -36 -51 -49 51 -32 29 -1 13 -8 -50 -52 35 -33 -1 -59 -18 -8 -39 3 33 -51 36 -42 42 -18 -7 43 -7 62 -42 38 -13 -6 59 57 17 42 -7 -46 -4 57 -24 30 -59 44 -60 22 -26 -47 -5 2 -18 22 18 41 -44 35 21 42 -38 47 -25 21 42 20 -31 -19 -45 49 -55 55 -57 -18 38 39 1 -14 -20 -29 22 -44 35 55 -6 -4 -45 -44 32 -41 -39 -26 37 4 43 34 -29 5 -22 -28 -17 -22 -66 -17 -62 -34 -47 14 -48 43 10 24 57 2 -23 37 -50 40 64 -44 -34 -1 -31 42 20 20 37 -31 3 9 -23 -57 -17 -21 -9 -39 -44 -52 30 22 36 26 24 -15 -34 -36 31 50 -24 44 -40 11 32 39 -26 56 60 40 -10 43 22 16 24 -20 18 -24 -54 -23 -8 -19 40 -59 63 26 28 -40 -23 -51 34 -52 13 -39 -1 1 32 -4 5 -56 -8 70 54 37 23 36 12 -5 -30 54 -3 -8 53 5 32 -69 -34 15 32 -66 -62 29 45 14
-9 -4 -3 -28 37 -67 27 -51 -18 34 48 -29 -9 8 17 -48 -1 -6 23 -41 28 62 36 -25 -32 8 23 44 -51 -60 -29 -15 23 23 61 124 8 -20 17 -9 41 -43 43 -20 9 -23 26 25 -61 -36 -7 42 -48 -18 3 -55 -3 2 20 47 15 14 21 -52 7 31 20 -32 1 -70 -66 -66 -4 12 4 15 -46 -27 -29 -42 -17 -53 57 13 34 -53 -3 -30 -51 25 -40 41 49 -26 22 -43 36 47 15 11 45 -34 -50 -5 5 56 39 -22 -26 -6 3 19 52 -25 5 15 15 62 -42 -2 -42 -24 29 64 -25 -1 23 8 -64 -37 -28 33 50 -57 12 18 50 2 40 47 -35 -22 -53 13 1 -21 -19 60 23 -10 -9 51 -4 47 -57 100 62 -35 -41 -19 -47 10 30 63 -15 33 -23 -53 -47 -8 13 48 24 41 13 -38 36 28 -2 50 61 45 -29 15 9 53 27 -59 31 -3 37 36 -13 -19 49 18 -36 -45 -38 25 -60 40 -62 -52 58 -44 -11 20 -54 31 -10 -61 -27 -49 -13 -19 32 21 23 -26 7 54 45 43 56 -50 41 43 -17 14 -50 -54 -22 -69 -17 40 19 15 16 94 -44 59 -38 -25 -45 46 0 45 49 -10 2 -36 -38 50 -20 41
-47 -2 -55 49 -59 -32 -57 -29 -56 -61 -18 -58 -1 -19 -44 -57 -30 -50 31 -13 35 4 51 3 -60 57 46 46 33 24 -80 38 -57 -56 -16 -31 -17 2 25 58 -57 48 -19 -69 25 42 28 48 -16 -15 -39 -16 53 9 21 -30 18 45 33 22 12 -6 -12 50 12 -41 34 -20 59 -33 41 51 27 61 -25 -55 -49 -51 62 33 16 -2 -13 -23 -31 20 20 -28 14 -11 -57 -35 3 -41 -7 15 -58 53 57 -44 -10 -12 -46 12 42 -29 -17 -18 1 -55 -2 -6 -29 9 -22 -69 63 20 -28 13 5 -1 -4 -62 24 -7 80 37 21 -36 24 -51 11 80 9 -11 -6 -5 45 4 -54 71 -61 -32 23 46 -56 16 -14 10 -39 47 30 38 -35 92 1 -42 -37 -35 26 15 -23 57 26 35 16 -64 -31 -44 40 -25 -58 18 55 11 52 4 13 -27 -14 -11 -14 -26 -27 1 36 -35 -25 23 44 -42 38 5 -24 36 -60 -11 -43 38 -39 7 -37 -33 2 13 38 15 19 41 -43 -29 32 70 40 25 -40 54 59 7 -2 2 52 -56 -26 45 -25 37 64 -62 51 -34 12 -22 -10 32 -22 38 -50 16 -15 28 -49 0 -39 59 26 -50 -68 49 -53 35 35 -54 -51 -64
-53 -7 67 -21 -38 50 -51 49 43 28 95 -70 64 37 -34 56 -52 -11 32 -39 -61 32 0 -57 -17 -63 28 41 -5 -29 26 18 109 -8 -17 93 -14 35 19 31 -14 -12 27 9 3 16 -11 44 78 117 45 20 29 33 -14 55 -31 29 -65 -16 36 24 -66 48 21 48 70 4 -44 -47 -6 116 -69 -26 -8 55 83 24 5 105 -24 18 56 61 4 2 -39 2 68 43 31 45 82 -51 1 -11 97 94 -50 44 2 0 47 -40 -41 10 -71 16 44 -29 -55 74 -57 -21 126 -60 23 -20 -8 24 -46 -45 22 -72 -3 -72 56 -19 40 -84 21 -5 53 7 -72 -21 3 72 0 113 -22 -62 42 -20 -54 48 -63 -67 -66 -71 23 41 -11 14 53 88 -3 17 -47 -63 53 36 10 18 25 -86 -9 96 -12 27 12 25 -8 47 -45 -8 -28 74 12 65 14 1 -59 -29 -63 -43 45 49 -15 72 -4 19 46 50 -26 -8 52 39 -47 40 32 -44 -38 -17 -1 37 16 -16 3 118 50 8 32 91 -22 12 2 12 -2 24 -61 33 -7 65 -10 -68 22 15 98 -48 63 -7 114 -77 -32 111 -58 -44 -75 65 15 22 27 -34 16 43 -63 -22 127 54 -25 22 19 66 40 -12
48 23 -35 9 -3 -43 -16 -54 42 -69 -82 42 -6 -47 32 6 -34 39 65 -18 -9 7 -16 -37 -21 -75 -48 -13 28 31 -46 24 -38 64 41 20 38 43 -29 89 38 4 -44 -43 13 22 43 10 45 68 -6 1 -3 44 59 -19 48 38 2 2 44 -23 3 -50 -76 -57 -13 53 -19 43 58 -64 6 -51 24 -80 -64 -36 -6 -3 -65 26 -48 -29 -34 50 33 37 -20 45 -56 -38 42 -56 43 -59 25 -71 -18 -16 -82 15 24 51 -32 4 22 26 -52 -26 -44 46 30 -10 23 -56 -62 -28 -9 45 51 57 -35 6 -62 -69 -20 24 -5 16 3 -24 -64 -1 -38 -57 48 45 -31 -21 -33 39 16 60 8 -62 -3 10 26 8 -20 9 2 -46 -16 18 -12 -11 30 48 58 -18 48 -5 17 67 63 13 48 31 9 -51 -7 -30 3 -27 -56 -47 54 43 -33 -44 -6 -54 -33 1 -29 6 16 -47 -46 -43 -61 -46 12 -56 12 29 -40 -44 46 -9 -66 -36 -43 -49 95 -50 -13 -6 42 32 -46 -7 -64 -32 26 -46 40 -46 59 39 28 -8 -58 40 -18 -39 44 23 -53 -14 28 -46 -32 -9 -5 9 -16 -54 -22 -4 51 -9 -40 27 23 39 16 3 -17 -44 45 -5 -41 -67
22 -47 43 -37 33 5 -26 -1 -9 60 16 11 46 42 -8 46 -14 51 -60 0 -37 -45 -59 57 -5 39 -63 -14 -4 -22 6 74 13 -34 -42 -6 61 -49 16 -34 -44 -52 97 -33 -24 48 53 24 -64 28 55 -53 -63 -54 -43 -27 50 6 -38 15 -61 -50 10 6 -92 43 70 42 56 -4 62 -11 10 14 -73 -88 46 45 -36 42 14 -16 31 -50 5 -27 40 -9 -48 -78 7 -12 63 4 44 4 74 -21 21 41 -61 -6 -29 27 -42 -54 -19 7 -17 -46 -37 61 -35 40 45 -20 39 49 -20 -35 35 8 -61 -20 -11 -14 6 43 -47 -5 -16 -53 16 20 6 -40 -35 -4 -17 -2 44 5 -34 10 -53 37 -16 53 -25 17 -63 53 27 10 62 -26 5 -32 -35 63 -30 32 45 50 49 -57 -46 -21 11 -10 -8 38 -56 7 -87 -34 -90 31 36 -60 -15 -49 4 55 36 -16 58 44 -17 -4 6 58 -68 -35 -36 -21 -4 19 12 -62 -44 30 -8 57 60 -10 -13 -55 -57 54 36 -44 -3 2 17 16 -13 32 -54 -35 -55 -25 45 -48 -6 59 40 1 -19 -55 -25 -33 -56 -51 60 -35 -12 -48 56 48 -54 -62 15 34 10 61 45 -4 -18 35 12 -22 -79 -30 -59 33
-48 -60 -5 -38 -43 14 2 -14 23 2 -10 -63 -24 56 -31 -3 -58 4 12 8 -4 69 6 39 70 -35 -57 -11 -52 7 -30 30 31 -25 -26 3 26 -51 43 -22 68 28 6 38 41 -44 49 -32 -37 95 -25 -47 -32 28 7 -63 32 -7 71 -57 -64 -36 -56 10 23 -5 63 56 -12 42 53 28 -30 -10 29 -65 26 10 22 -43 -20 -2 43 38 -27 3 -50 -28 -6 47 -42 -4 -40 96 -35 -37 105 -43 -17 -19 -43 -4 25 24 7 39 2 40 -13 -14 -78 -37 -3 -10 21 11 -11 52 15 -31 25 23 -25 -7 -30 -15 83 23 11 62 42 47 45 -41 -13 44 -48 57 16 -10 15 -40 42 47 -69 61 -51 31 -32 -51 87 -60 -9 28 13 66 -30 33 -13 31 26 24 1 -55 -47 -57 -30 -29 43 -28 -6 5 -63 13 31 45 -53 82 23 35 35 39 -63 4 -29 4 -42 -24 2 -75 50 42 10 84 15 27 -40 53 13 -29 62 21 53 -18 32 -12 -38 49 13 69 -29 -49 -19 -59 -1 23 -6 45 -39 -53 -9 38 36 26 -7 3 65 -5 24 55 -32 16 69 -24 58 8 35 13 -70 82 -17 -44 0 39 26 -57 -2 -15 15 -128 2 -32 -41 36 -28 22
53 -37 42 -55 71 37 -30 -74 53 15 -43 -22 -1 101 -60 95 48 -10 25 -30 -44 -56 49 23 -32 3 9 -41 55 33 -6 -15 44 1 -41 55 -62 49 19 -10 0 2 -27 -65 -64 101 35 -78 -49 20 -45 55 -38 -43 40 -20 -8 -37 51 -47 35 17 -38 17 -34 -22 -51 -17 -58 8 13 37 38 -9 42 -39 -19 -56 -47 63 -1 -1 19 -8 31 -3 -43 -33 34 55 92 -29 -57 -74 -16 -37 13 -57 24 39 -57 -50 -61 -10 29 2 -20 -40 60 19 35 30 47 57 2 -9 18 31 -6 -42 23 32 -12 -3 -29 -48 94 20 4 -35 31 34 12 17 -24 23 -66 41 63 -41 37 -48 8 10 -3 -46 -47 -61 -38 24 17 -34 60 45 65 97 60 64 -58 -48 33 -56 -21 8 -55 -10 -17 20 32 -33 11 -42 -22 25 -3 16 -95 39 -34 -29 -52 61 28 19 -58 -1 -47 41 22 57 37 -15 73 111 -64 42 -40 61 -12 -56 24 31 -26 3 38 -16 15 54 39 123 -39 -10 44 77 -18 54 101 -46 -50 9 -31 32 14 -20 -27 35 -18 -1 -37 -42 -29 1 8 60 -29 2 -44 -7 -28 102 -41 48 -12 -15 -24 -51 39 -39 22 -128 35 36 -23 115 -12 -16
20 79 -69 -5 9 43 36 33 29 63 43 -33 -57 -12 -16 40 18 9 4 -23 -54 39 64 -70 54 55 2 -7 -36 -26 -25 -40 8 -34 -55 -16 -37 -1 -56 20 2 -39 -64 -14 -36 -1 -3 -30 -72 7 -29 28 27 -29 -28 -44 24 41 20 40 22 16 -24 36 99 -36 -10 -47 62 -63 -73 25 72 -73 61 16 -29 47 -69 -34 -5 25 -9 -3 27 28 6 -16 30 25 -76 45 -18 -46 -23 -75 19 19 2 -61 -1 -17 -46 39 -19 31 21 -65 52 28 7 36 57 -19 3 -17 55 -20 34 38 4 -5 -15 19 14 57 80 22 -51 58 -1 -1 45 3 -70 -51 18 52 -20 -50 -25 -7 15 19 8 24 3 -40 11 -29 9 12 -16 -56 -58 23 -45 -62 3 -13 -60 48 54 52 35 27 -11 2 -24 -1 -24 -1 23 11 -31 23 74 60 7 28 16 -22 62 30 -63 -48 -71 -21 -18 -56 24 -27 -36 23 -7 15 -70 24 -52 33 -51 18 -82 -40 -47 12 28 -41 -53 14 -40 -38 -66 66 -39 51 -31 37 62 -28 12 8 -11 60 -9 46 -56 42 60 -34 35 27 -45 -94 27 -42 -40 -34 -10 4 -20 -39 52 -47 -7 -56 36 6 -42 -10 15 -18 -14 7 18 9
-30 -14 -35 -43 -25 37 4 -28 33 21 -15 52 50 12 17 -47 -26 -45 29 28 -73 -44 -48 -10 52 -62 22 -53 -19 36 62 -26 -3 -16 50 47 -73 -63 43 67 41 -47 26 -39 -37 -30 -62 7 31 2 4 0 -35 -52 38 24 31 -26 48 12 1 13 54 -54 -43 -58 -68 29 34 -57 -32 44 -44 -5 -9 50 17 -58 5 35 -24 18 -65 -52 -55 33 -4 0 57 2 -47 0 -34 -4 -19 -54 -44 48 -31 12 -61 -43 28 -24 -47 3 8 53 -8 -45 -20 20 -49 8 -56 19 -60 -57 -46 54 61 -30 18 -19 -9 39 42 -60 60 22 -63 -8 37 -50 -96 48 33 57 0 56 -47 54 -12 -72 52 9 -69 -50 -55 64 -57 -12 40 15 18 -16 29 -35 -16 64 5 -34 29 -63 -18 -5 5 -13 24 -53 36 35 -30 56 -10 -49 -68 16 -44 -35 -51 -49 -59 -62 -55 -39 -1 2 -4 -38 57 51 55 55 -63 -2 -56 -30 1 -29 58 -43 -18 -8 30 12 -47 -8 61 10 -38 -4 -5 60 -37 -4 34 -56 43 -35 -49 -2 33 -59 34 24 34 -33 -1 35 33 -45 -36 -33 47 -22 32 -57 -12 -6 -40 -26 -9 -39 -43 3 -9 50 -49 -67 5 3 -13 -71 -9 2
-21 23 -42 36 102 115 -36 49 37 -60 -38 22 36 127 47 124 -31 79 44 -6 11 -46 25 47 50 49 47 58 -7 -29 30 -61 30 -11 33 122 -1 37 -3 19 -57 20 16 0 4 124 2 -25 -31 -60 -34 -24 -47 -63 -108 20 3 -15 31 6 119 22 8 -56 24 22 33 -45 -53 -13 31 -18 -73 -4 -56 -20 70 -3 -52 68 69 -14 20 41 23 31 -56 84 15 18 77 20 -116 94 14 -64 18 10 -36 23 -34 -27 -83 -30 -4 -57 0 -1 -30 -62 -3 31 -33 -38 -23 42 -17 -30 3 -9 18 24 -16 -10 -47 -22 -23 -50 -8 5 -58 15 25 8 21 33 -25 -20 -25 58 46 13 -68 -20 -40 -45 38 18 46 0 10 -46 80 10 -22 118 -48 44 36 -20 -35 22 0 -52 -32 36 -25 -22 28 -65 46 -37 44 -22 -64 29 -99 -102 23 57 -2 49 -40 -41 -67 -2 30 48 -28 -3 52 -66 123 53 -52 8 -25 36 18 -62 -19 -34 28 -7 -9 -43 -13 -43 4 107 -31 -35 -38 124 14 -35 121 21 18 103 56 121 -57 -6 87 -21 -56 30 -45 -8 -106 -59 47 23 -56 16 -36 -10 -50 71 4 6 -6 17 25 30 -62 8 28 96 -10 -56 50 88 43 -14
-29 3 -17 -39 -49 62 0 8 32 46 10 52 28 61 -51 -18 -52 7 -34 37 88 -88 -6 43 -46 -6 -50 -65 -65 54 -40 83 44 -35 -36 79 36 58 1 -91 25 4 44 36 16 60 -71 -34 -26 8 38 47 47 57 -4 15 24 -32 29 -28 10 34 -19 7 83 35 19 -34 -18 -3 22 62 -86 -21 17 67 -46 -9 -70 93 29 -35 -9 -17 43 22 35 -53 -6 18 34 2 -48 -10 -17 9 64 2 18 22 51 7 -51 40 -49 49 -39 -94 63 48 -23 -84 20 -40 13 28 -55 15 -73 19 -63 63 27 -49 15 -77 70 -2 -86 -61 25 48 13 36 16 -32 -11 -80 68 -67 -70 -25 16 -2 -65 -2 -20 -18 36 46 -17 -65 35 -35 54 90 4 -33 -6 53 39 29 19 5 19 -29 -57 -13 -54 -54 49 71 -29 18 -22 43 32 -91 -64 3 -56 -23 5 2 -4 -77 59 -8 10 -29 -11 5 -62 -26 63 -9 6 -50 -37 15 40 -32 52 1 -54 31 -12 -5 20 90 73 -62 -51 -14 -19 -57 -25 18 -71 25 70 -11 -40 30 14 -58 -48 -6 9 12 35 3 43 57 30 19 -23 52 46 11 -21 35 -41 23 64 41 -25 54 79 -30 -17 15 58 23 35 -60
-12 4 -47 38 8 -20 -14 28 22 19 -27 -57 -33 -77 6 8 15 -58 -21 6 -49 39 58 -61 18 61 11 17 26 39 -5 -13 53 77 55 -68 52 24 -19 92 61 33 -55 -6 -79 -31 6 -64 -38 1 -7 -48 34 50 -3 51 -58 48 63 -22 -34 10 58 29 -32 -26 20 -48 45 47 32 54 35 -59 -19 7 -40 -28 -41 17 -1 -63 -103 -29 43 -9 8 -128 80 43 -36 5 -15 -6 20 40 15 -9 48 -14 -7 54 25 32 -9 17 -39 -3 22 34 44 78 -33 42 -59 21 25 58 -3 39 43 -7 0 21 -40 -11 18 40 90 84 44 -9 -4 72 -35 -99 101 76 -26 55 22 1 -12 -26 24 9 -27 24 38 -90 -42 -61 45 -8 16 -41 -107 -71 -57 -27 -23 47 -81 -40 -19 -15 98 -72 20 37 -28 19 -44 -16 100 -9 6 78 -17 -39 53 16 58 47 53 6 -51 86 -32 -7 -50 47 -7 -4 3 3 -7 50 -54 22 34 72 35 55 -4 -25 101 5 31 -42 63 47 -29 21 -17 25 -45 7 -54 -11 -79 29 35 22 -61 -11 -48 32 40 -36 20 -40 32 109 -21 10 10 75 -27 -27 -68 -47 94 -45 -44 -58 -13 18 -33 48 36 -12 2 -63 -11 6
50 42 -7 57 30 -5 21 52 -78 22 -6 -29 13 19 -20 75 22 28 45 13 -15 -47 -57 2 -53 44 79 28 7 -54 12 37 -8 -80 -20 13 -35 -25 -53 -11 -33 -28 19 -24 -21 38 36 -46 44 80 -81 60 46 -53 27 -52 -60 4 -7 53 -58 -36 30 -14 32 -38 27 -38 -10 -26 37 33 20 35 23 28 -2 64 50 67 33 -72 33 -25 73 -13 -3 30 -42 -25 -39 9 -1 53 -5 -30 45 21 13 -80 -14 -10 -52 -60 -128 -32 -71 0 79 11 -26 48 27 -25 46 -74 57 -72 59 -107 42 7 14 51 -1 -41 -16 -2 -13 53 -18 -31 23 64 49 -33 52 3 -28 101 -49 -7 -33 -8 -30 -2 17 -69 -16 -10 51 12 -37 31 82 -35 -76 -46 -38 45 -42 -74 -9 -40 8 41 -11 10 -42 31 -11 67 -12 -51 -33 16 61 -55 28 -43 -62 0 5 -26 12 -99 -32 9 20 -19 -14 -79 -37 -48 -30 30 -9 -83 -17 -37 -1 -60 1 -21 -5 63 47 -23 36 1 33 -69 -62 -16 -37 10 42 -63 -105 29 -10 -5 20 -61 70 -117 -2 63 13 -9 -47 -42 -10 -40 1 115 -36 -40 -10 14 13 15 -5 13 64 -5 -94 38 119 -18 -83 22 -35 51 -28 -75
-22 56 -67 42 -71 -50 -32 39 -11 29 -36 26 3 10 31 7 45 -33 -5 55 -84 -10 -64 15 32 32 18 -34 0 -17 23 -44 -33 46 55 52 -3 -47 3 9 23 25 -47 -40 39 -63 37 -60 31 49 -50 38 21 16 -6 -46 -66 -34 6 54 -44 -37 -29 6 -26 15 -44 17 17 40 -4 33 54 12 46 62 -59 -31 59 -55 -13 -19 13 -51 -20 -26 -35 -51 -52 -12 48 38 -40 15 8 -45 23 -71 5 -11 -32 -34 -11 13 47 6 -51 -70 -23 -40 34 -26 -67 7 6 -63 10 -56 -25 51 35 -16 -53 57 44 -8 46 -6 -27 26 -71 -73 -11 -70 -55 -32 -1 21 -50 2 -26 33 22 -30 -14 -53 -34 -13 -13 25 -86 -63 -84 23 -21 -52 -31 -3 12 -12 -5 60 -21 -29 24 -64 -35 21 -16 -43 -55 -37 25 22 26 54 32 -61 -52 -24 59 51 -17 -64 -9 -31 21 -52 -26 -3 33 37 68 36 14 47 42 46 -30 -79 49 34 -12 -59 2 -9 19 22 -47 4 19 -34 36 -64 50 -32 50 -7 -2 -6 45 -58 -21 -45 -1 -43 17 1 -5 -75 -11 -11 -45 45 -24 -53 20 -12 -52 -57 -59 51 28 42 28 48 15 19 65 4 -25 -77 30 -50 41 -18
-39 -61 -34 -69 36 19 -48 20 -7 -10 53 50 23 -29 -13 64 -4 53 6 11 18 -80 -16 -34 -9 -52 -10 39 72 -34 70 22 6 -49 -7 90 -32 -24 94 11 27 39 -34 -1 -33 47 10 14 -11 -5 66 -68 11 -9 44 61 -29 -27 19 9 106 25 -71 28 91 19 -43 4 47 8 -21 50 13 -43 -29 -29 14 -8 21 -1 52 -30 -19 -36 -29 47 -29 4 -13 -8 -36 -58 -31 55 -41 -83 56 38 16 3 15 1 39 24 23 50 16 -43 17 -26 27 5 -30 23 15 60 -35 -7 -6 42 -17 -26 -54 -92 -6 -20 -43 0 -29 32 -36 53 30 8 -60 -47 56 62 57 38 -26 -52 7 -5 30 -19 -8 -19 68 -28 19 36 59 51 -55 89 -48 -53 -28 24 -10 -1 -45 24 19 -62 4 -38 -12 -42 14 12 9 5 -71 7 -56 36 -19 17 -3 -39 -16 10 -35 -6 47 -62 -38 -50 -18 88 13 94 18 37 1 1 -56 7 -18 6 -66 49 64 53 12 -49 -64 96 1 42 12 13 60 49 10 19 -4 -5 -2 -8 50 -24 19 44 -49 -68 -26 -38 -71 25 -35 68 -28 -20 53 1 -11 99 -16 -58 -39 -5 -62 -66 -13 -55 -24 -128 4 -29 -4 -16 -28 11
-47 -11 -56 -7 22 16 9 -29 -35 29 15 54 42 -73 -19 -50 -10 33 -48 2 -35 0 -6 34 59 -12 -38 58 30 -45 -26 -41 -51 -32 -5 -27 43 39 34 28 -10 -29 15 -8 28 -72 16 51 5 -27 41 21 58 42 40 -42 -37 59 60 -15 -19 -32 51 35 -54 40 24 -48 41 -44 -37 15 13 -18 -44 15 15 34 54 -29 9 -33 10 -15 -56 -56 -55 56 7 45 -21 15 67 -43 55 -56 -19 67 -4 -55 -42 21 56 -37 2 -13 53 63 0 45 33 15 13 -3 -28 11 -67 -37 -63 32 -4 22 -14 -4 56 -17 45 -25 9 -22 -17 -48 50 -27 -70 -28 60 32 64 58 50 -48 -2 -36 -14 12 -61 14 -56 54 -40 49 -17 47 16 0 32 -57 46 -45 59 -61 63 -8 -60 50 -42 -23 23 -18 15 -2 39 -50 -70 -48 26 -59 54 11 -47 46 36 34 36 11 -14 -45 14 -45 -28 10 7 -24 5 4 47 23 1 -36 23 -24 -1 -3 -33 43 65 -57 41 65 -1 -3 25 -57 25 -60 -60 -5 -12 -37 -36 -44 -6 -41 44 -1 -78 -30 -58 -62 -5 -27 31 25 27 9 -13 85 1 -18 -9 -40 2 -37 21 -2 43 -43 24 -4 77 -52 -47 25 -1 -13
56 -19 -61 3 -53 17 -53 -51 25 -15 64 -9 30 -38 42 25 -41 -62 -11 -62 -31 78 3 -71 14 -51 11 -64 -18 -34 -6 -31 5 -25 54 51 -46 -1 -73 71 -2 14 23 7 -10 46 20 -27 33 56 47 12 -20 -38 29 16 -12 14 27 42 39 0 -99 45 20 40 -16 -11 -29 -58 56 -7 42 -14 0 19 31 44 13 13 12 17 -68 -15 -10 55 50 -32 35 -36 -2 30 18 52 -46 -32 3 57 54 -14 -32 43 36 16 58 24 2 47 -37 -18 49 27 -37 -4 -32 49 31 -47 5 -19 -40 -33 -35 43 18 -46 -13 18 3 -37 0 -9 60 70 -7 -34 -46 43 -51 8 -1 17 79 -13 -49 -24 45 -13 15 -17 -2 43 -40 -53 23 33 15 -28 62 6 56 -35 -12 -19 -24 -56 31 10 53 -50 15 -12 -49 37 7 -11 -47 27 19 43 45 33 35 -38 41 61 -35 34 -1 6 26 -11 13 34 -69 -41 19 72 -20 0 48 32 18 -16 -26 -5 -45 5 15 -2 30 -22 -8 73 -41 24 -41 27 34 7 12 14 -8 31 27 40 46 -46 19 57 21 12 -35 5 26 -53 31 47 44 -21 3 56 40 2 26 42 -67 -26 -8 -1 -43 50 25 20 -49 38
47 -38 31 23 18 -17 54 -44 30 24 22 11 57 15 -11 23 4 -15 43 35 -44 31 -48 48 3 -14 32 -50 23 -56 37 -62 27 26 33 -16 -37 -14 50 -24 30 -12 -2 -61 35 -50 59 -6 23 -51 22 -5 27 -61 50 56 -46 -41 27 -13 -29 -33 -17 7 11 -22 9 -10 -19 -18 34 16 24 48 -41 -45 25 -10 -44 7 -55 38 -41 44 -48 -26 -29 67 -33 -22 -30 -25 -22 -24 -8 -32 1 36 -15 -9 24 -54 68 -4 27 -63 -11 -65 38 35 25 -59 -12 -42 -12 -58 4 36 -16 19 -6 58 40 -36 47 -33 -15 2 -32 19 26 -54 -38 -57 -18 -8 39 -23 -45 55 -29 -37 52 -27 18 39 -52 35 -17 9 61 58 5 44 -35 -28 61 -9 22 -6 19 31 62 49 16 -64 64 54 40 -23 -51 -29 -3 -25 -9 -38 -51 -60 25 -33 -62 26 -10 56 57 15 -45 47 12 -54 37 12 1 6 18 -6 53 -12 -58 -40 -53 -22 24 5 -25 -39 -3 28 -17 -79 25 -64 -43 59 -41 33 -14 21 -53 -38 -4 64 54 -27 -25 38 -21 51 -24 -54 2 -48 -55 20 -18 -17 -25 12 34 -48 13 -19 -3 26 -35 -24 -29 14 53 -69 15 14 39 52 46 39
39 -44 -43 -47 -29 -15 -64 -27 -21 25 44 28 -47 23 -24 -59 53 -68 13 -61 -15 -23 -28 22 -60 39 -24 -53 -3 40 -61 40 -18 47 6 16 3 -39 -46 38 15 17 -25 49 -38 37 17 -36 49 41 60 -62 19 -52 58 49 -23 35 -6 27 48 -43 32 -31 56 23 11 45 25 4 15 1 56 4 -37 66 -10 51 27 10 14 -10 8 -37 -15 34 -19 -57 -10 41 -72 -26 62 17 -49 -33 -11 22 40 43 -9 56 -58 23 35 -22 37 38 -57 -9 -53 19 -23 40 -64 -60 22 -60 -42 5 -59 32 47 -58 -2 3 27 17 -54 65 54 7 -21 -51 -10 17 54 64 5 37 15 -22 3 -60 -53 -9 43 45 7 -21 -28 -6 -28 -28 -18 -47 0 -28 20 24 43 -41 -41 -48 17 12 32 15 -38 9 8 22 -38 16 -41 41 -31 7 51 2 -23 -46 -26 32 24 -21 -39 12 -25 -36 -24 1 -58 57 -8 -48 39 44 -49 5 -2 -64 -65 18 -10 43 33 33 60 -40 -14 -33 57 20 -33 -31 -37 37 40 -22 -43 -47 -11 66 -67 -42 30 37 24 -53 -31 12 -22 -31 -21 -13 -9 -35 -16 -61 3 18 34 -41 -17 43 -4 7 -74 -25 44 -42 -70 -43 40 -61
-28 -16 -4 35 26 40 18 114 -43 31 12 40 -37 31 8 121 -46 25 2 14 31 2 -39 29 -121 8 114 26 -57 57 -17 38 -43 -40 -47 113 -61 18 19 -117 -47 4 49 7 39 22 24 27 -52 5 43 -14 -18 -6 30 -66 -17 1 35 9 9 26 19 -30 9 38 -42 16 -66 -59 58 11 23 -12 -78 -22 -7 30 41 -22 21 -52 -54 -7 4 -1 0 -42 -52 -2 33 8 -33 49 -7 53 97 20 -29 55 -99 62 68 -40 -57 -47 3 -1 -7 29 17 -44 22 38 -15 10 -3 6 -24 7 25 -44 57 -1 -54 -29 25 -31 57 46 15 41 62 -7 -78 -33 38 -63 54 33 -14 -37 -33 -37 -50 22 16 -24 -53 39 78 19 -33 -2 16 39 22 -5 46 -3 19 -5 -31 44 16 27 -49 32 -38 -10 -29 60 63 -63 -58 22 -64 35 29 -32 56 38 -48 -27 -52 55 45 37 -59 -14 -14 37 126 -47 -45 -1 -20 -45 -11 -23 -52 -7 67 -9 -49 56 -4 -24 -35 118 -38 -4 -62 62 43 39 41 45 62 59 52 19 -30 18 53 0 107 -6 25 -18 64 -19 115 -38 4 43 51 23 -9 94 12 -20 60 -8 23 41 1 49 -16 -37 -13 125 22 61 33 44
55 -55 53 51 -39 -44 53 -58 3 -23 -76 -53 38 14 -65 50 -52 -71 46 17 24 -23 13 14 -13 40 10 -10 -41 -38 13 34 61 50 -29 -52 -56 7 0 -7 23 4 55 -49 -24 -50 13 -52 54 107 -20 38 -13 -65 55 -63 24 45 -17 28 -3 42 -30 -61 34 55 37 6 47 -66 16 33 55 -63 41 -47 4 29 27 63 48 32 7 44 43 -19 48 39 26 11 31 -28 22 -28 7 -23 -57 43 -3 -52 -53 30 1 -20 8 -41 -14 51 47 13 18 53 66 14 40 56 26 48 59 32 -56 38 44 41 44 -77 10 -46 64 21 -33 -45 2 -36 37 32 -50 46 -21 50 -63 -58 67 -6 -15 34 -36 52 -48 60 -35 -61 28 38 13 -41 -30 8 25 -56 3 32 -60 -44 -9 56 70 -34 26 -5 31 13 -40 -26 47 12 -61 30 3 50 -28 7 -29 32 -60 -64 -37 -38 -46 -44 -64 -33 53 -14 -1 48 27 -44 39 -28 -29 -41 25 -61 41 -14 -17 29 63 -24 19 -57 24 -23 60 47 27 22 27 -26 -36 62 34 27 -34 -28 -57 2 22 -79 58 30 11 34 31 -8 -26 -19 28 -72 -28 -47 48 -23 -74 -35 -8 25 25 58 23 -47 -16 19 32 -37
43 -44 -16 -51 -50 42 -11 -35 -12 26 91 -3 -5 17 -13 53 9 34 -43 -28 9 -49 -16 20 -65 29 51 -10 47 13 -38 57 -37 -13 20 -34 -21 -58 -49 13 -12 28 -29 21 -39 63 -12 -4 -61 2 -7 -60 22 -47 22 5 10 40 -24 -42 49 2 40 -40 -51 -11 20 28 -5 38 -49 59 -21 11 -63 -18 17 -2 -31 6 24 15 45 -2 -6 -63 26 45 -42 -57 61 -4 62 22 -36 61 -9 -62 57 30 -16 -49 38 -8 2 -53 40 -38 0 25 -61 -33 26 -2 -44 22 3 -25 24 51 -55 -33 1 22 42 -36 23 6 -54 14 -20 15 17 22 -21 13 3 -30 5 -35 4 -31 -22 -37 6 -17 22 -52 26 -44 25 4 -35 -68 -12 74 -35 -20 27 -15 2 -62 19 17 -55 -65 -38 39 32 -50 -11 39 55 41 -59 -65 18 -56 46 39 22 48 -25 22 46 -49 47 -23 -46 34 -4 -45 -34 -13 58 -31 -52 20 64 -7 12 -57 53 -48 51 46 -22 23 64 7 46 -2 46 -20 -72 24 42 -45 31 -11 -51 -55 -17 28 44 -10 -18 -48 83 23 66 2 70 21 50 -39 -6 51 39 112 56 37 -37 43 -61 -61 18 -6 -57 -15 3 29 9 38 -45 20
-60 -19 -69 50 4 42 -10 42 26 39 4 -1 -45 -40 -30 51 -29 26 -9 -55 4 -15 -19 -32 -49 35 41 -57 53 36 -20 -32 -3 47 -25 47 43 -27 -58 -39 -40 26 34 -48 13 -41 24 3 25 -25 64 30 13 -35 -59 -11 47 53 42 46 44 -2 36 24 19 66 -67 -45 0 -45 -16 -30 -15 14 11 58 34 11 63 -26 -64 -27 30 8 58 -34 -63 -20 -5 2 58 -26 54 44 -63 35 4 2 -15 -17 -43 1 -57 7 31 3 4 -36 12 17 -2 -6 -2 -17 -66 -25 21 -30 -42 8 -60 -6 -58 -47 44 63 -18 -64 -35 35 27 46 43 -15 -76 27 -7 -34 22 -40 31 24 -26 -35 29 60 9 33 55 -31 -20 -16 49 46 51 74 -51 -49 56 29 -31 -8 40 13 30 -26 -33 -50 21 36 -45 32 14 -50 -31 -43 3 49 28 -40 13 -11 23 -13 19 -12 48 35 -29 7 -41 58 127 55 -54 -21 36 32 32 6 -13 -17 -89 -52 -59 11 1 -3 -33 111 61 42 44 124 39 -27 21 -38 13 -10 41 32 -51 2 -38 23 -71 -42 0 -57 5 4 -32 -61 54 5 56 -80 25 90 30 41 17 50 -4 -45 -13 -73 -3 26 32 -7 11 127 -27 -61
-52 -8 64 18 44 43 24 14 -45 12 42 -45 40 -60 28 -30 34 -77 -51 -37 5 61 -65 -4 32 -71 50 31 5 -23 -31 28 3 12 -62 5 -71 25 -55 57 49 45 -58 -14 -14 35 11 40 45 19 -60 -17 -33 3 -3 -30 -39 -40 13 -1 13 -9 34 34 -43 -46 53 21 40 -68 47 -75 12 -36 37 40 -6 -61 60 1 -65 -34 20 33 -32 6 19 36 58 36 -25 -48 -10 29 -27 68 -73 -56 -9 -2 -64 -52 -19 19 -39 -71 2 -15 38 19 -81 13 49 23 53 12 46 -46 7 -36 -60 -31 15 -49 -43 -31 -1 -61 -16 -4 -36 -40 -13 -35 50 1 15 -16 47 -16 -33 32 18 -1 17 49 -36 -47 -26 -20 -65 -56 -41 -36 0 -39 44 20 53 -10 -17 -50 -41 8 55 -58 60 -63 0 -78 19 -54 -54 43 -19 -38 37 58 -9 -46 -51 7 -22 63 40 -56 -22 -2 -67 -16 -65 -20 -37 -20 -42 -28 10 -6 -66 -63 -5 -15 -59 -35 -36 -50 78 47 1 16 -61 -8 0 25 -12 44 -19 -56 40 -53 -3 4 -34 64 -26 -43 10 -62 -7 15 46 44 -58 -17 -32 -35 -27 1 -15 -49 2 2 43 -38 -10 -12 -23 -5 3 -1 39 32 46 53 19 -60
-56 47 -37 43 44 23 -7 -25 -52 -30 -78 -65 56 122 -18 8 -47 -32 22 -2 -52 -40 -10 72 -10 -4 74 7 3 47 36 -15 13 -52 -38 73 24 17 -56 -41 -33 21 47 2 -47 -15 36 36 126 2 38 -12 -13 -4 38 -39 41 46 39 35 71 39 40 20 -36 -46 -11 -26 47 -2 42 -16 -65 44 38 -35 -15 33 69 79 4 11 -17 -49 54 -8 -18 31 28 5 -76 8 46 -19 40 14 -3 -5 -26 5 43 -30 -29 6 58 -11 22 18 102 -4 -70 6 -5 43 25 -2 -62 59 -52 45 -40 -53 -33 16 -37 1 -77 -11 68 19 1 29 -68 -6 55 -37 -24 45 24 63 16 -44 -59 -54 -18 -67 -8 60 22 -45 66 26 5 -7 24 -116 -26 29 -31 17 -28 -13 -14 13 -62 -86 -23 119 2 -2 58 58 -54 -20 34 -36 -31 25 -45 -41 -58 56 27 56 52 62 55 -50 -22 23 30 -61 52 62 -18 -14 30 -73 -46 -21 43 -31 -18 -44 20 -47 16 -22 24 -128 20 -31 -50 -22 -56 -21 7 54 51 -91 -56 -15 -64 -36 23 -30 -60 37 91 10 -36 43 -128 -38 -30 29 -15 23 -3 -114 -45 -15 43 35 6 17 52 -18 59 -44 6 71 10 102 44 -67
59 -93 -66 -52 -11 14 4 46 -16 35 18 35 3 28 29 -39 38 61 40 39 -8 2 -7 -20 26 60 12 -67 49 25 50 30 9 -30 -8 -32 -5 36 -9 -5 -16 41 -59 68 -12 26 -44 1 67 -11 -48 -30 -53 8 -33 68 -36 -10 -54 28 23 -32 -12 -24 44 -36 -70 5 54 -62 55 63 -102 -25 41 30 17 9 -11 -34 55 -50 -27 31 -62 -11 -7 52 0 -20 32 -9 -26 47 -12 -41 -19 27 57 -37 48 -1 -56 33 0 -41 -15 -4 53 63 66 32 -5 -33 63 -4 34 13 74 -33 -66 -62 -76 36 -33 -15 89 68 27 -16 -57 22 1 24 -65 23 66 -7 -48 45 36 -2 -55 3 -15 -19 51 1 -12 -56 -45 29 -45 38 -5 30 21 -22 -42 41 33 -51 30 -4 14 -27 -58 54 63 27 70 50 34 24 27 -22 -45 -52 26 -23 63 -71 -42 -56 -2 -45 49 53 31 8 21 -11 9 -38 41 66 22 -26 -27 -34 -63 50 -50 -4 44 55 -11 4 -64 -25 2 21 -32 -14 -19 38 -53 3 -42 -16 -52 -44 44 -20 26 -9 38 -42 -12 39 -15 42 -36 61 4 108 -40 -36 -34 -30 -12 42 40 -10 -11 -28 -73 29 73 0 -44 -55 31 127 50 0
51 -55 -12 -15 -52 -28 -57 -19 55 -44 57 -31 -60 -63 56 -53 43 9 -3 62 -23 66 12 48 -1 20 -45 -21 -64 7 49 55 50 47 2 8 -21 36 -51 -30 11 53 -48 13 30 45 6 2 51 -7 -5 -21 -51 21 -50 62 7 -28 38 -45 36 46 -67 -64 -11 24 44 23 -38 -32 30 -47 2 57 -2 -10 6 33 13 -53 -11 -16 40 42 -9 -58 53 -14 10 -8 34 -37 -18 -18 12 -35 28 -21 59 19 -35 -5 8 19 61 64 63 46 -13 -26 -49 -51 43 -34 -53 -49 -58 -28 18 -27 -24 -60 17 59 -35 14 -20 -30 4 58 -48 30 23 -7 26 18 -2 32 -18 -56 32 -4 -43 -50 -44 63 -63 38 -56 -31 34 -42 -1 57 1 -18 30 12 40 22 44 -67 55 16 9 -9 -60 32 -28 8 31 -45 -25 -32 -9 6 -57 -18 -20 6 -60 35 -1 -2 -56 -57 57 26 53 32 46 -45 61 2 -25 -19 63 3 7 -63 -25 4 -23 8 42 47 9 13 32 -16 -7 -34 -59 -38 52 -36 -4 50 12 -25 53 -37 -19 28 7 -44 -59 13 34 62 50 -49 -35 -13 -32 -33 23 -30 50 -27 10 -23 53 38 49 39 46 -70 44 -51 49 43 -18 2 -63 28
15 34 32 24 1 -44 20 -4 -24 -41 0 -13 3 25 12 11 -22 -44 50 -18 -48 58 54 11 53 45 -32 50 -25 -36 60 7 -36 -10 -12 -33 -69 49 43 -8 49 38 -49 -15 -8 -52 -41 -20 -54 46 9 62 -63 25 -54 1 -67 30 -31 -16 47 -8 8 43 15 -5 15 -34 -11 -47 -34 -36 49 -16 -7 -15 -2 -43 12 -15 -43 -43 -68 1 4 47 -53 -26 35 0 16 -53 -13 -30 7 11 -11 0 -18 -27 53 -14 18 -17 -4 36 -59 32 -54 -28 -20 -4 36 28 38 -33 -27 41 44 -52 35 45 49 45 41 23 10 -51 -48 -29 -39 -1 0 -59 -8 22 -41 35 -4 59 50 20 32 -51 18 0 55 18 -28 -46 -57 -46 38 -18 39 -41 8 49 -13 -35 -59 -25 -31 39 -29 24 -21 -44 16 -11 44 -43 -18 -34 -15 -38 -47 13 60 -5 26 9 57 27 48 32 -22 -4 -17 65 -47 -20 14 -11 -11 69 1 46 -20 -49 -56 42 9 -12 2 8 16 26 10 -47 12 0 2 -3 31 -42 -15 9 -41 -28 -20 -55 -64 11 13 -47 0 -16 -33 33 63 28 -53 -14 -62 40 -26 56 -3 17 54 -20 -17 -27 22 12 -52 -11 -19 -43 -68 20 5 -35 60 28
-58 -19 8 8 -76 -61 -58 -40 -68 -40 -43 -44 -12 32 5 -49 74 2 1 -39 -29 58 -42 -37 23 30 49 -24 -7 -78 -93 -1 46 -22 -47 -18 43 -33 66 -16 44 34 -39 42 42 -78 -2 79 33 0 -47 -33 -50 47 -1 25 52 -62 -23 -21 -37 51 -49 59 42 32 28 35 -55 59 36 -64 -59 19 -59 -65 54 -34 -29 -7 -19 -22 -42 -12 59 2 -20 53 38 45 -84 10 -72 75 27 33 -25 -24 -43 29 20 -40 -33 -53 -16 17 4 -8 -10 -47 13 26 -3 -10 10 -45 -40 12 19 -9 -7 51 -8 46 13 42 2 -30 -32 39 -40 -29 -3 -14 59 27 -29 35 -2 36 -75 0 36 24 -39 -26 -21 -13 -73 11 -58 37 -1 -9 -26 26 9 -22 -41 23 -25 2 -5 -54 11 21 -28 -10 -27 21 11 -30 58 -53 -52 -56 -1 6 20 46 -49 34 46 -40 1 6 -1 29 -7 -38 -17 -24 28 11 -10 19 27 41 -20 -47 44 -5 -17 45 2 30 -54 -49 7 -7 -46 30 -28 24 15 2 -62 63 46 46 13 -55 -26 -46 52 47 34 56 -40 -74 -23 -58 81 -48 20 39 22 64 46 -58 -47 -52 -23 53 32 -52 16 15 -13 3 56 -10 -16 -46 10 -52
10 60 -60 39 14 -10 -43 -50 -21 -38 -6 -35 -38 -33 27 -43 54 -44 -33 -1 11 -27 55 12 23 2 10 0 38 -28 -35 37 -28 5 -30 -33 5 62 -13 -12 15 -17 -20 -1 -36 -52 -65 55 -36 30 40 36 -27 23 -9 3 8 -2 -34 -38 7 24 -14 21 7 2 27 28 63 35 -43 28 -28 -46 59 23 14 16 -22 49 33 -17 -7 -22 -27 57 -26 -45 41 -17 -18 52 31 45 62 -50 59 -5 1 -31 54 8 -28 -46 -59 -12 3 -59 -14 47 -39 23 -33 3 -33 11 54 -19 61 21 17 -26 -52 7 20 37 -15 -58 44 -36 -62 -58 -27 -16 -36 46 58 22 -38 -53 19 12 -31 -29 57 34 64 -22 44 29 -46 28 -36 -36 54 27 -42 -39 -15 60 -46 4 51 12 58 5 -59 12 -17 -26 -32 17 48 12 55 -52 9 -42 50 -47 2 5 39 -41 -16 -44 -58 15 -7 -24 -1 -46 -55 -25 62 -34 24 16 -2 31 -4 46 -40 2 46 20 37 48 -62 33 -39 20 -15 -53 10 -55 -41 63 63 -9 10 -18 -46 0 -49 -10 34 26 -11 50 -57 43 -45 50 -47 62 26 17 11 34 46 26 -25 -61 -50 28 -44 29 57 49 -51 -11 -48 -58 40 -16
-48 52 59 -46 19 -8 -40 -10 29 58 -14 -13 28 -35 -22 39 51 47 0 -43 43 36 2 25 -19 27 -21 -52 -68 54 -35 -36 -43 60 1 -53 -42 26 6 13 -56 -66 60 58 55 28 -54 -27 -16 -34 -41 -20 -11 -51 13 62 58 -69 38 -35 64 -7 -43 -46 51 68 -15 23 6 61 -21 -4 49 8 -37 57 51 2 -6 28 52 -39 51 -41 10 -65 20 14 13 54 -63 2 -10 -53 55 35 -31 60 -58 68 -7 -27 -39 55 43 7 -38 48 -53 -64 46 57 -6 -27 -18 -18 3 -1 -14 -4 6 60 -35 -26 -25 -32 18 1 12 5 62 7 -8 75 6 43 -55 -46 -54 -13 -7 60 42 -12 61 -20 -38 -26 24 21 55 -30 42 -68 -53 -1 -58 18 38 -29 60 58 27 31 42 -41 -17 -25 -31 -41 -41 21 -2 39 57 51 -17 -30 48 -18 -59 -33 9 15 26 -17 60 37 -17 53 -58 6 -48 -3 -56 -13 -20 -52 53 -17 15 32 43 49 57 -49 -35 -11 47 -53 26 0 43 -36 32 -24 13 27 32 28 40 -49 -27 59 -8 -62 36 -47 -12 20 25 -56 -62 59 -22 -34 4 -11 55 -26 -14 36 -51 -1 27 -58 -55 -11 -28 49 58 63 48 27 -49 -50
23 33 47 31 7 -4 28 44 28 -7 48 -45 36 9 17 66 23 -19 28 55 29 61 -5 36 -37 24 16 2 20 -48 -2 -22 19 20 -17 -44 9 -43 -27 -106 57 -32 -37 -19 -20 -3 -9 -24 43 48 51 45 54 -21 -29 -50 34 -16 33 -57 19 -8 -24 -63 9 16 -61 -9 -37 53 -57 8 34 -23 -50 -37 30 -9 -35 -52 56 56 12 -57 43 -68 32 29 -25 -23 39 -45 -34 -22 -58 9 -52 -55 -37 58 -54 -66 -87 19 33 41 -3 15 -8 -44 28 8 -21 60 -31 -27 27 22 -18 39 -51 -29 2 -39 25 -26 -22 43 -34 27 -13 42 -7 -122 91 31 -54 45 -3 54 32 23 29 57 -51 8 -51 52 45 62 53 25 -45 39 14 42 4 35 -32 42 10 -9 2 38 -37 -16 -105 16 -43 22 -12 -24 17 -44 70 37 -16 6 28 1 7 -21 -24 23 10 59 -32 -18 16 -53 36 -43 52 77 47 19 35 63 10 -58 2 23 -37 -56 54 -10 -43 8 -13 99 18 -33 -64 42 3 -45 -61 -31 -1 39 21 -34 5 -12 -55 50 23 15 -36 42 -9 11 -54 7 7 -39 44 -41 -26 108 -38 -26 50 30 -37 24 60 -56 -44 24 -53 61 8 -8 -7 60
3 -67 -5 37 1 55 32 42 -26 38 -46 51 20 -1 36 5 -38 49 -6 17 -77 9 -12 -28 45 39 57 -34 29 23 -34 53 48 48 -34 -8 -38 59 -24 55 17 -45 -41 -15 33 9 51 0 -11 -42 49 57 -51 13 21 -6 66 -4 7 35 -32 39 27 20 -63 15 6 49 -8 -16 12 -2 -27 14 50 -15 -75 -12 -41 -27 33 38 -50 28 -23 33 -27 -37 -51 -45 -11 -34 -8 9 44 54 12 57 50 -14 66 3 13 -33 -3 22 -57 -79 62 -65 -36 30 6 6 18 -39 -62 -60 -50 -53 -18 45 8 30 33 64 -64 31 11 14 44 -32 27 36 66 17 24 -55 -42 -12 -8 45 36 32 -44 6 -31 65 39 -8 -8 -10 31 -44 -60 -12 -7 15 -15 1 24 47 -14 26 -9 -38 -15 -23 -48 -15 46 -57 8 29 -57 -45 -15 11 -40 15 -10 37 -28 -16 21 34 5 -16 58 -10 -69 12 -36 10 21 -14 -53 11 1 -30 -39 -5 -75 4 36 23 35 -27 45 -46 -44 -10 56 73 -60 50 -5 -68 1 7 38 -7 -36 -30 48 -46 -10 -38 -32 -53 27 -21 -3 52 45 -14 29 -48 20 -20 8 44 13 -54 -26 16 61 43 -17 69 33 63 -6 2 -9 64
-30 27 32 42 -3 3 -44 52 20 -45 23 51 26 33 -69 -6 -46 27 61 -36 64 29 -44 56 49 -50 -21 -42 -46 -8 -25 -30 -19 -24 31 -10 -13 -7 17 12 -47 -54 59 -3 50 -29 67 24 -28 -55 -12 -28 -32 -4 55 -11 -44 -21 13 43 57 -53 -50 -45 -2 -22 -54 -15 -53 21 36 63 25 -45 29 -48 21 -30 -2 11 36 -8 -35 -20 -10 -53 1 10 13 -64 -47 -38 1 19 54 12 16 -44 7 2 -20 -23 22 -1 -9 -16 -23 -35 4 58 -42 1 -20 53 -47 22 32 15 -4 -5 7 15 -37 -49 -35 29 -39 -3 26 -27 48 -19 61 -24 -11 -49 -18 -13 57 8 56 -10 18 17 -67 -1 2 16 -36 -45 -49 44 -6 -34 15 -30 5 28 -53 28 -6 10 -33 33 -28 -22 13 60 -18 34 4 -29 -28 -46 17 43 61 5 -28 -50 38 -46 12 -12 -1 36 -15 10 -45 -56 17 58 -23 42 -51 36 33 54 11 -56 -48 12 -60 -26 -63 7 -21 38 66 -61 10 -32 -7 55 -4 0 -33 -11 -25 20 -6 -53 33 3 5 -29 42 -32 -3 0 7 52 39 61 -54 -29 61 -28 -67 59 36 -44 35 46 58 -16 -51 -3 43 28 -50 -30 -54 17 -18 -18
41 -18 -54 20 10 -20 24 36 4 -38 -62 32 -53 49 -36 62 62 28 12 63 35 -24 23 44 70 41 -55 15 -1 -2 40 18 15 102 -19 -45 22 -32 -57 -27 21 54 33 -1 -49 -22 54 30 -33 62 13 30 58 -34 -18 37 41 -6 -55 1 -34 26 39 -39 32 34 10 -3 29 22 60 -16 13 -7 -26 10 -48 -27 59 42 19 -19 -63 29 12 5 -42 -30 61 -47 -40 -43 24 56 49 18 -47 -19 -19 55 -31 -14 -12 -46 -44 -58 -16 -23 38 -5 -58 16 42 -10 -11 -12 -45 -21 -29 -52 -11 39 -11 46 -48 53 -10 -7 47 -60 17 16 4 5 41 -58 22 58 -17 18 38 -9 57 -10 -40 17 -39 17 -19 24 5 30 39 -27 -36 -53 15 6 -56 29 23 24 28 46 -31 55 71 37 32 -24 -1 -26 63 44 -48 -53 -60 -17 7 -3 48 41 57 -44 -21 -43 -13 0 -15 19 -50 52 21 21 -9 14 2 69 -62 -45 20 56 19 33 -15 25 -37 -48 8 49 -58 58 -64 -10 -45 55 -49 -28 10 30 38 -59 -7 26 -16 2 -68 -55 11 -57 -18 40 10 -37 43 -48 -56 66 40 -32 60 41 13 -55 -14 -60 -58 43 -58 -56 12 -32 -24 -31 10 19
14 -41 30 -12 64 45 -55 -55 -9 -44 -47 13 59 -13 -60 36 48 44 -2 16 -56 41 -12 12 -21 22 -8 3 14 62 37 57 -4 -62 -6 11 59 10 51 -62 -61 -54 3 43 7 -9 54 -34 -30 -50 17 31 19 35 -65 -63 35 -64 -30 -17 -26 41 61 -45 47 61 -37 16 -54 13 58 54 22 -16 -26 0 -36 -27 10 -38 44 60 10 18 -47 1 11 -13 1 -48 -27 69 -34 60 51 5 34 -21 -38 -57 -37 -57 -51 -4 -24 -26 -7 29 49 -40 2 57 -44 58 58 37 -46 -39 31 -17 30 33 -19 -27 66 -26 -22 -19 -28 -60 15 -53 -57 -51 30 -57 -47 21 -38 -56 -58 37 39 33 -39 53 -47 49 -17 19 3 44 48 22 22 -39 28 47 -8 18 11 -62 29 1 -10 -39 -52 48 11 -43 -19 -37 18 41 60 -10 -33 -4 44 4 34 54 52 32 36 39 3 -54 53 -51 -34 34 56 -4 49 -52 -22 -36 37 46 -24 45 -61 1 -43 3 -34 -15 -5 -38 -5 -8 -51 -40 -43 -9 -30 11 41 41 54 18 -22 41 -36 35 -51 -60 -4 38 48 -6 12 -41 -65 47 18 43 39 -52 -21 -19 10 -58 23 47 37 6 30 -55 60 -50 29 60 -34 8
14 52 49 17 26 -32 2 41 48 21 58 42 47 -4 29 11 31 9 -45 43 -46 26 4 20 32 -69 33 1 59 -50 58 -18 -5 -4 3 -51 -72 29 57 -56 -30 68 -13 -26 -63 30 -21 -23 -88 101 -12 -29 -33 -59 68 -44 40 -13 -16 18 64 -53 38 -72 100 25 -22 22 36 49 16 -33 17 44 -63 54 50 -64 -31 -72 17 -11 15 -25 -21 -32 6 -26 59 49 -5 -45 48 9 -63 -25 13 47 41 40 36 40 51 -67 -7 -47 -7 -48 -58 25 34 24 -28 43 -14 13 -25 -11 -59 62 -44 -1 16 -34 -46 17 3 17 52 52 35 44 -57 47 64 61 22 -20 -3 -42 -13 33 34 40 -36 -2 46 53 -46 -35 29 -70 36 21 51 -45 -34 61 -51 -2 -52 -128 41 43 -63 12 -40 -18 -53 -22 -55 -69 38 -12 -62 -55 -49 34 -65 30 8 -37 42 62 20 43 63 30 2 -21 6 -48 -69 54 40 -13 34 -64 28 -18 -14 -32 67 -40 -40 11 -34 -22 -50 -41 -32 -20 4 1 -10 50 -68 55 29 14 -53 -38 1 37 15 -28 -8 12 -20 -54 52 -13 -51 -10 50 2 -51 -14 54 -9 31 30 -26 65 34 58 17 38 22 -5 9 -29 -24 0 45 -33
-56 55 -43 27 -64 -21 47 -17 -52 -18 -66 9 -22 12 11 -65 51 -85 19 -36 -78 -19 -41 49 30 29 28 60 68 -67 23 -7 -9 -55 -17 4 -52 -4 49 4 3 48 -12 -20 0 -26 60 45 54 29 23 -52 37 -66 -18 -20 -7 61 40 -56 45 -52 35 6 -66 -13 -38 15 -62 -20 -29 -67 -30 -2 -61 -52 -18 16 -46 10 -8 -1 0 -51 3 -55 27 17 36 24 22 -57 -40 -14 -56 17 -79 -69 22 -24 -28 49 46 -38 48 1 -16 47 -22 -13 -62 48 -31 26 20 16 54 -79 65 -1 -48 -67 -61 -7 44 30 55 -27 23 2 -7 -24 -30 -34 -23 17 48 9 -77 11 33 27 52 31 -15 39 25 15 55 62 -7 -54 23 54 -65 -41 16 -25 -21 -11 18 -16 27 49 -44 -58 -8 -5 -8 -17 -24 -29 -25 6 14 35 -40 -12 45 -42 -15 -43 -62 -53 -43 49 48 55 39 -35 -41 1 -58 41 17 1 -25 -26 8 1 2 33 -36 -16 9 30 41 -57 -35 -83 -14 -37 12 12 -58 -39 -12 -47 -16 -95 51 -25 -5 68 -48 -19 56 -19 -3 -44 1 -3 -92 -15 10 29 46 67 16 -103 18 -48 15 18 11 -65 34 -43 -58 -13 -27 -45 -77 -33 19 -57
-24 -52 -40 29 -14 47 48 -65 -55 -23 -15 -53 -54 47 -28 12 35 -5 -56 10 39 -14 -47 14 47 53 16 -68 21 -45 48 -10 -10 13 56 79 -53 -23 -42 92 51 41 36 21 -7 -16 -21 -42 -19 33 -35 -53 -5 -8 -1 -61 3 -52 3 40 34 54 24 52 -18 45 59 -7 21 -11 55 78 -5 56 -24 21 8 -30 -4 17 -9 31 20 -80 -64 -2 27 -61 36 20 -105 0 81 -22 29 68 -3 -45 53 25 42 -15 29 54 -47 8 33 -5 26 40 2 33 5 41 16 33 30 62 40 -32 19 52 -34 -34 16 1 25 5 48 -56 15 17 -7 -39 73 -31 -9 3 62 24 -26 25 -18 51 44 -36 -50 15 42 -70 31 -3 56 49 32 36 -64 57 11 41 50 -28 -58 3 26 -29 -34 55 13 29 -19 27 -11 -52 94 -29 85 -6 36 -9 -61 38 -17 -49 -55 57 -44 58 -22 3 -6 -41 -53 66 66 25 45 -42 -23 -53 -13 23 65 -41 35 -16 55 60 23 43 -2 56 -46 -7 -46 -13 29 31 -33 -30 -25 -36 16 69 -10 37 -55 -35 50 23 7 -30 48 -59 -26 -9 64 -24 13 39 29 5 58 58 52 -63 3 -29 19 110 -63 16 117 -10 -64 0
50 33 34 -22 -36 -20 46 -58 -48 33 -33 -34 -59 29 17 -46 -69 16 -18 -4 -68 4 -65 -14 -63 -2 -36 -11 -50 -44 13 -1 -40 -17 9 -40 49 36 -28 -29 -37 -28 -41 28 33 50 17 -62 -73 -54 56 -3 38 10 -10 60 30 -38 -6 12 -16 41 -17 12 37 -43 -44 24 -12 32 32 47 -50 -29 -63 -12 -18 -43 -59 -24 15 -15 18 36 -30 42 52 -45 -43 -19 61 47 -68 -9 -37 -11 -6 -9 19 -37 -28 -26 -81 -48 -57 -17 -16 -57 -7 -32 17 -3 -50 -58 34 20 -62 -50 -23 -16 -38 37 -49 33 44 -9 26 -14 27 -13 24 -30 42 32 -8 -56 31 64 -56 50 -62 10 60 15 29 -23 35 -21 -45 -54 19 6 5 -38 18 -56 -1 23 -69 22 25 -45 61 43 16 53 -55 -50 16 37 42 13 -4 -19 -37 -69 -50 40 -11 -3 8 -13 -33 47 56 24 62 51 35 -4 6 -2 -48 11 2 12 -57 -39 -54 -43 22 31 -43 -43 27 35 8 14 38 -6 12 55 -18 -4 38 -5 -47 -24 -5 -32 -22 57 13 24 -58 62 42 -67 -21 38 -20 21 -41 -87 4 41 59 -64 -27 -18 44 9 -68 -22 -36 -11 -48 43 68 -6 -62 -43 19 -6 42 27
21 -33 -48 26 -6 75 -19 34 42 23 -63 -45 -12 -59 12 65 -19 -8 -43 -13 -65 -35 -9 -1 29 -31 56 11 60 8 -6 3 41 -36 -38 40 42 54 44 -25 55 1 -51 48 4 -65 -49 -39 -2 -30 -13 -30 -22 33 20 30 -60 54 -1 -10 -15 24 -24 -12 -19 -56 22 -42 18 48 -37 -18 -65 -51 30 -48 18 10 -1 -43 -32 26 -60 41 -46 -22 57 -16 7 31 -30 -47 5 35 -61 -9 -36 -69 -41 -54 -13 -58 -14 -67 -4 -2 -55 -4 -20 -6 -45 68 10 -37 -53 14 57 21 52 -21 -11 -55 -78 21 -33 -18 -11 45 -2 14 31 -38 -49 -21 -27 33 28 4 -83 -33 -14 -3 -51 -52 -20 -56 -26 61 -21 -3 -15 43 -69 30 31 -3 55 8 -25 19 -35 -54 -39 -14 54 38 52 -53 66 -23 23 -41 53 -57 27 45 -63 -10 -13 50 -63 -37 44 -46 1 -56 0 37 44 33 -19 -4 -30 24 11 -35 -61 19 -67 -38 -49 30 -24 -21 -49 28 -12 27 -43 -54 -12 -39 14 2 6 15 30 10 42 2 -48 -16 22 19 -62 26 33 -15 -32 -42 -10 44 -76 -70 24 1 -16 -17 -67 -25 47 -61 -16 -30 -105 -7 26 -26 8 -50 36 -61 10 -47 -45 -54
46 -2 -3 -44 -70 -17 21 -19 -50 -4 26 -35 40 71 52 -3 57 -63 -34 -66 -24 -11 -51 30 -22 14 -12 -29 57 64 -34 28 -20 -18 -47 101 9 20 -9 36 -3 36 50 47 9 -34 -45 43 21 -30 4 -1 42 13 40 14 42 -35 28 42 -40 43 -10 -11 -48 -4 -53 2 41 -19 47 4 -22 -63 67 64 -28 -62 45 -42 45 43 2 52 54 -28 -60 37 28 28 25 -32 -28 30 42 -38 37 -55 15 -53 33 3 48 40 46 50 36 2 -1 -2 -25 36 31 54 -43 29 48 -11 -55 -36 -45 31 -43 19 39 -34 50 6 58 40 -11 62 -23 -1 -54 -37 4 -51 67 43 -50 -45 7 -55 -5 8 0 5 -28 -7 -6 20 -81 -15 -18 6 59 -57 59 -6 -28 -41 -46 -9 -35 33 32 -55 -10 -18 -8 -26 -31 28 -20 19 -93 -29 -34 13 -55 53 -24 -2 59 44 -10 -12 35 40 -19 -4 51 81 -39 15 -38 1 -16 16 -44 0 15 56 -33 44 -27 9 -53 -18 -4 8 56 42 7 39 49 41 1 -19 67 35 -66 -49 -52 35 8 29 -14 44 -16 37 20 11 -35 58 -67 0 23 50 23 0 -58 49 -44 -21 -46 -44 33 -83 10 21 -70 61 -9 26
62 -3 -9 -30 54 29 -34 35 45 -25 -34 -45 -54 26 -58 45 -29 -13 -25 2 -50 -2 -73 58 61 63 -55 43 -9 -51 -39 7 -35 22 -59 -35 -47 38 -21 -7 -21 3 -45 -33 -43 -37 -8 52 20 17 -34 37 -40 55 18 -27 -27 5 41 -47 -29 -62 50 15 45 -25 48 3 -58 -35 16 2 -52 -21 10 22 -45 44 18 -10 -34 8 11 -66 19 -36 52 -52 -34 -52 -35 -26 26 -27 45 -1 -44 27 -16 -58 -2 4 -41 -43 -2 -61 -56 14 20 52 45 25 41 7 -3 41 -42 55 -7 -48 -27 7 6 37 -4 -11 64 -37 -17 39 -30 -59 7 26 -34 38 53 -10 -8 -4 -21 -12 27 37 7 54 -42 -21 -49 28 11 -19 -50 -22 39 42 35 25 -23 0 -4 -48 24 -2 -45 -32 -26 43 -43 26 28 25 -18 3 -13 -21 -46 -50 23 44 -47 40 47 -18 -27 -50 -58 -24 61 52 41 49 25 -5 50 7 42 -17 2 -6 32 -18 45 -6 49 -62 -51 71 -3 47 16 -1 42 -63 -52 35 28 -57 52 -8 19 -28 -41 30 40 37 14 9 -65 43 12 54 -22 -7 -29 30 56 54 -12 -55 -28 18 -23 -19 -37 -40 19 46 48 -33 -24 -34 -29 -15 62 36
39 7 -50 -31 -24 50 -10 -33 2 -26 -9 9 -22 123 -44 87 10 -63 22 -12 -31 -51 12 41 -30 -30 53 -2 60 -55 105 20 8 -47 -59 115 13 19 22 2 28 -63 -46 -70 15 64 56 -58 48 -9 22 57 60 25 58 -5 7 11 -4 -46 18 36 8 -52 32 -25 -44 25 22 15 32 -26 45 -8 -37 54 -24 35 20 -47 33 -15 8 42 -7 34 -40 75 2 37 -128 0 -73 -49 47 -25 32 -59 -63 52 -51 -55 42 -23 -61 -12 13 -45 0 48 -11 -12 -40 -9 44 -63 -21 48 35 -10 -66 -36 24 -59 10 9 -9 -20 -33 -29 -29 24 23 41 21 45 46 -26 37 38 7 -48 32 13 37 -6 -3 -31 23 56 -48 -23 -59 -36 -36 45 40 63 25 16 -8 22 45 -26 -29 -57 -45 52 60 -8 -52 -34 16 -55 -63 33 -16 -90 14 5 48 -33 -18 61 -50 41 -42 49 34 1 -57 39 115 127 -60 -23 48 -6 58 -25 4 30 -67 -13 -41 32 -9 -56 -59 -128 -27 -1 35 66 -6 -34 120 -50 14 -79 -24 -40 59 -51 4 35 -15 -34 -57 3 17 12 -8 31 33 30 6 -14 -27 -30 -48 -39 -15 34 37 -46 -53 32 4 -14 52 -63 -45 76 4 26
19 -21 -25 19 45 -36 -60 -45 32 -62 51 -34 55 17 61 54 13 -30 -41 -47 15 -4 -38 29 19 -62 75 -17 23 -55 33 -26 -8 45 -32 -6 24 -35 26 -69 -57 8 -5 12 14 25 27 -84 39 -44 -49 63 -52 -44 -56 0 42 51 -65 19 -11 26 -1 -73 -77 -15 -25 3 -50 -11 53 17 19 -78 -82 -25 -30 -53 23 61 48 13 -5 -24 42 -7 -61 4 -18 -22 51 48 24 53 23 42 53 -67 -25 -52 23 22 -29 -28 61 -40 -1 -58 14 -15 -49 5 -44 -42 43 -4 -61 -3 -42 34 1 0 -5 28 5 26 -41 45 24 -4 -44 -41 27 -75 -40 34 27 -2 -33 -43 22 36 -7 3 -8 -58 -26 57 33 -12 23 -60 -38 -4 0 -65 -40 41 39 41 45 56 44 48 -37 -37 -59 13 23 -34 -52 -42 -60 -14 13 -32 -19 26 10 -57 22 3 -18 16 -18 26 4 24 4 -40 19 -8 -39 -9 -64 60 14 11 -28 10 -5 6 18 -28 -41 27 5 34 -64 -74 25 -60 -23 50 -15 -65 24 35 -57 -61 -21 51 50 3 8 25 -20 61 -49 -60 26 19 -52 47 26 -70 49 -38 -18 -93 -24 4 17 -34 -45 30 5 49 -50 -58 -82 -19 -86 -68 -32 55
35 -67 -33 -31 4 -12 -25 -56 -17 -9 18 -29 -19 68 -58 0 -33 13 -15 -66 -51 19 28 -17 4 69 12 -92 -37 -21 0 48 -7 63 -34 -21 7 1 11 -4 -8 46 -54 -34 17 1 16 -4 37 2 -18 20 21 -15 10 7 38 65 -52 -1 21 37 57 38 100 42 -50 53 18 -47 -14 -22 63 52 32 32 47 12 34 20 52 -38 9 -88 -49 -64 33 -36 24 8 40 5 39 -53 -62 -15 28 21 -23 -33 -39 18 -21 22 -29 31 23 27 -68 8 -44 61 -12 36 45 13 46 34 17 62 43 19 55 10 -28 -42 44 30 20 13 -64 47 52 21 -34 -33 -30 -9 -29 -33 39 -40 -55 -24 -16 65 -28 31 -36 -18 -11 -15 109 -44 29 24 61 39 12 50 -52 46 -57 -45 37 -14 9 54 -8 0 -61 35 3 67 1 -26 7 104 -48 -32 -30 -14 35 9 37 30 50 -27 -50 18 -12 45 44 5 16 -26 -68 -32 -38 26 -45 -24 -12 -29 -23 53 -5 50 32 -16 21 7 22 13 -58 58 28 -41 -51 55 -36 54 57 93 7 37 27 5 -28 -58 11 -53 70 95 43 -7 -5 7 42 105 37 32 -6 35 -41 47 -3 -30 -48 41 -33 -89 -9 39 -44 22
18 13 52 50 15 70 -46 -9 -56 -6 51 -17 12 -17 -56 48 -48 -26 -31 -47 -55 20 53 54 -59 61 -36 4 0 45 69 -38 -31 25 -16 33 -56 -32 27 -18 -38 65 50 63 -47 29 64 22 -38 33 -29 53 28 -57 2 -11 13 -33 -37 23 41 32 -7 39 -30 12 -34 -56 -51 0 -32 -26 -32 -17 53 -43 6 1 -18 -17 58 -51 41 47 9 -62 -31 16 -83 -37 21 -18 -90 29 58 26 -36 13 10 -32 36 3 43 46 6 -64 -55 13 74 -12 -18 -34 -22 34 15 64 7 13 9 46 -60 16 42 -7 -61 0 24 -47 -51 23 16 55 -11 0 5 47 31 -19 -15 37 -9 -67 46 29 -6 -1 34 65 -55 44 -11 34 -7 59 -18 -23 34 -19 -10 -13 16 52 3 -33 -54 -59 -11 41 66 43 52 45 -6 -16 -30 -1 -40 18 63 3 58 54 -4 -55 -60 -22 -36 -40 -33 85 54 61 -4 12 -7 38 -27 -34 16 8 34 13 0 -24 6 -19 -19 -47 -17 -39 34 9 25 37 2 -51 -55 7 -28 79 -12 -6 -21 5 -21 23 34 -2 23 -16 -55 25 10 -10 -45 18 11 -57 51 42 -34 -18 -50 -51 -56 -46 22 14 23 66 61 12 -36 9 -47 61
53 -29 -49 40 -60 -59 55 -40 -23 8 -40 28 27 44 -9 -18 6 4 -50 56 39 -55 -50 4 31 26 -15 13 -2 0 -58 -71 -15 -11 -44 92 -5 -53 -52 -87 35 21 -51 54 2 57 -32 -42 54 -42 46 57 42 -19 24 8 42 -32 29 40 -15 -43 49 21 19 -1 -62 35 -55 -46 14 27 54 -23 56 20 -4 -56 25 61 0 14 -68 -47 -5 12 35 -26 -61 -32 11 14 -38 -79 26 33 59 31 49 43 33 24 -25 -23 -29 26 -6 -38 -42 51 -50 37 7 59 2 -28 -16 -69 -57 59 -10 -12 40 -30 -53 18 20 -44 51 6 13 6 -20 47 -16 17 35 -29 -27 15 3 -30 -48 59 -32 -13 0 -43 4 10 -13 52 41 32 46 51 45 -22 -52 41 -60 -53 -24 -33 28 28 -37 -63 40 33 59 -61 54 -50 38 34 -16 -53 -35 -37 57 52 -31 -41 -55 5 61 8 -24 -15 49 -23 -6 -6 40 34 18 8 -24 28 59 39 20 -42 -60 59 -44 49 -45 30 31 45 17 -6 60 18 63 41 33 68 -10 -12 -20 33 -25 22 -28 -67 18 -27 46 -33 64 92 41 -55 22 -22 -32 -45 -32 -25 -44 38 -68 49 -46 -40 30 59 10 60 -70 14 44 15
-65 -12 -44 -7 55 77 -31 50 28 5 19 25 -43 41 -48 -12 14 31 -14 -22 -58 -11 -52 41 4 -53 31 -46 37 20 -15 -55 28 -1 9 -53 -15 -10 -10 -28 -60 -7 -25 -4 29 64 56 -31 -10 -54 -47 47 -49 13 23 -34 28 -37 -15 -41 37 32 -40 10 50 17 9 -1 -58 -10 -47 -38 -40 1 -67 27 -36 9 -21 37 59 35 11 14 25 44 57 -1 -32 -41 -26 49 -29 50 34 9 62 -17 -8 -5 11 24 46 -8 60 30 -67 28 -44 -6 55 -22 -31 45 55 -16 -41 32 -18 47 -28 -55 39 7 37 -51 -31 -19 -2 -45 20 -64 23 38 23 81 27 55 -49 54 61 -13 -33 -41 -50 -66 -15 31 -57 21 -9 -33 29 -24 -56 2 30 0 35 -41 -5 45 1 56 20 -58 -35 15 -59 47 -15 41 -31 -10 -28 -53 -32 -27 15 59 16 59 -42 19 54 39 29 -65 -15 45 -35 4 25 65 15 -41 -55 16 -10 3 47 31 -25 6 -6 50 -41 -18 -58 -44 -3 6 -2 69 31 -64 -4 -7 28 9 -39 -44 -60 59 15 -55 19 -44 -25 -60 22 -37 -28 -57 -4 57 -53 -4 25 -52 -33 -25 27 -5 14 -61 -1 -14 6 -47 5 23 -18 -51 -44 24
7 -58 48 -30 10 47 -67 0 46 -4 -37 15 -59 49 23 33 -11 -6 -18 30 27 23 -59 2 70 -66 50 -50 19 -41 -65 49 -19 3 -41 22 -51 -52 -35 43 34 11 54 -20 -72 -7 48 -30 -11 57 -7 22 -23 61 -29 -14 -23 16 -61 -44 -58 43 54 -22 -62 -31 22 -43 25 -59 8 -55 22 0 35 -48 16 59 -52 -33 15 -23 -40 -4 -48 51 29 39 -47 -30 -17 -20 1 16 35 5 -93 23 -17 -39 31 -53 -6 -26 -52 -45 35 -1 -28 -67 -38 -29 39 23 57 -16 33 38 -10 -48 -1 2 3 5 -21 -32 2 13 31 24 -58 -60 -74 62 48 -4 -1 36 13 16 -25 -7 -44 43 38 -20 -50 17 -14 54 68 -49 -22 33 -7 -1 -8 19 -8 -28 32 -102 -6 -56 28 58 72 -64 -42 40 31 -33 -22 -70 -60 62 23 15 -4 -7 4 -36 50 12 44 -50 0 -10 -54 23 -29 -30 -58 39 36 39 -20 58 -15 -16 -5 -92 42 -3 19 -33 68 47 26 44 -26 11 -63 1 -63 55 -15 18 32 -7 -21 -17 29 -33 19 -14 71 -20 121 14 18 -1 18 50 -12 -21 50 -1 19 -10 44 15 -22 -13 -6 -80 -54 63 -13 -2 -21 -64 11 5 40 25
-58 -60 22 -4 34 -18 -43 16 3 -6 -15 8 -13 44 19 -24 -74 -62 -22 -33 -7 48 52 65 17 -53 46 36 -37 -26 -19 23 -54 58 -65 -11 7 -6 2 -48 43 11 -12 -69 -47 -24 -35 -47 -69 -29 31 38 -34 -10 -28 24 -10 37 -5 56 -36 -32 -57 -66 -33 -39 -42 7 20 39 -3 48 5 -53 2 -29 16 28 28 -35 -52 -12 -39 -58 1 -66 -67 -30 -63 -48 -47 -2 -3 11 -20 36 -48 52 -37 -6 9 33 40 -29 7 34 36 -30 61 -19 63 55 -37 -3 60 -43 -6 15 -21 -18 -7 -10 15 -55 50 18 -57 -59 -63 58 -75 -2 46 -77 -80 13 4 34 -35 41 18 29 3 15 3 -63 43 -12 -33 -49 -84 11 -93 -3 25 49 -44 -1 -33 -52 32 -42 22 42 -25 -5 -34 -70 47 47 -2 15 -48 1 -29 57 5 -38 -47 -73 -51 -27 -43 13 -54 46 -11 56 26 12 24 -38 51 32 18 34 60 19 -35 33 37 -36 3 19 36 34 -47 46 4 -42 17 22 27 -11 -63 42 -13 -34 27 21 38 -47 -61 -33 42 4 -22 10 38 -20 -19 -25 -42 -46 24 -51 -23 -21 59 -108 9 -14 -62 -69 -25 32 60 43 45 41 -71 37 -53 1 -48 39
48 46 4 -50 59 34 -55 11 45 -13 -4 -22 60 -46 -61 -41 -31 -77 -51 31 38 -13 44 42 33 46 7 -16 -55 -57 -8 31 44 29 -2 43 40 -1 10 60 -27 57 55 -81 -8 12 57 -32 -46 -38 42 63 21 31 0 -55 31 32 -53 64 49 -7 -39 45 -26 -31 -4 -16 6 -60 59 21 19 15 59 6 -44 18 52 85 61 35 41 -9 26 21 25 -40 -63 -34 -63 -30 -58 54 34 -64 -72 -2 20 0 55 29 -15 39 -57 -53 44 3 69 -41 52 32 -20 59 65 14 10 29 -32 10 62 -50 -7 -18 -36 40 -15 -57 -27 -62 62 50 8 27 -62 69 -12 -22 -57 -9 -1 70 15 34 45 22 7 24 -11 10 34 43 25 39 51 31 21 42 -11 -15 -45 -38 42 17 -6 2 32 -36 52 38 -54 -15 28 -33 57 -52 0 4 17 10 69 -31 -26 7 -11 48 19 -7 42 -53 -54 24 37 51 -28 59 6 6 -20 35 -63 49 -3 -54 -10 78 -28 28 8 87 21 -47 -41 -42 52 14 -20 26 -22 78 -55 -22 -4 -55 61 -43 -1 -10 -34 -24 33 -40 -45 53 -37 8 -55 38 6 -31 22 -12 23 -65 -73 -15 -19 19 96 -11 29 -58 34 -36 -20 9
29 -55 50 2 33 38 -43 95 -60 -9 38 -55 -37 34 -12 14 58 -12 -9 12 -30 -62 57 20 -95 44 -6 -26 -42 -50 28 -52 45 -46 3 79 -26 -6 24 14 -60 -53 -25 62 -38 -44 -30 63 -21 -48 -44 -20 -8 49 -33 -59 -38 23 56 -53 -26 43 44 15 54 -43 -2 -22 1 52 24 6 -29 33 54 53 -39 18 -30 39 4 -39 4 55 -13 7 -62 -60 13 -1 -54 2 -60 -42 48 29 51 17 -28 40 -51 6 -11 -48 -6 54 15 -49 -5 52 -16 -11 -52 29 -9 55 13 20 48 19 24 -7 30 2 45 20 20 -34 -19 -53 -47 37 -48 -1 59 -49 26 5 57 43 -55 -5 -13 -50 78 5 -33 45 20 -59 -3 -3 25 8 12 -37 -15 16 -57 -39 -17 -84 18 -21 -8 31 -71 24 66 -12 -30 26 29 -6 -74 -41 -50 -23 -13 -27 16 -12 31 28 -26 -11 1 -13 56 -31 -30 -20 -31 4 -32 -1 55 -1 -35 10 3 38 -13 -48 -19 37 -35 -3 -44 22 -13 66 -1 -24 -67 9 30 -67 -46 46 40 -7 -11 -30 -50 36 -15 20 13 -3 45 -2 -27 47 -27 -38 34 32 -5 -28 40 -5 -29 55 -11 -55 -4 29 -36 32 -3 56 -36 55 4 63
85 -29 24 36 32 51 44 56 -27 -39 15 -54 -67 8 -20 5 -58 17 -66 22 18 -35 19 37 56 -39 7 3 62 9 -61 15 -54 -1 -41 -14 -35 -59 -36 -8 32 -11 42 42 33 -15 9 9 -33 67 30 -12 -2 8 -4 47 -6 -28 -41 -46 -89 6 23 54 -51 7 -38 -54 -18 -23 61 -18 -2 61 19 23 -37 -5 51 -41 52 23 23 44 26 -27 -9 -22 20 -31 -75 -17 55 44 62 -7 -65 2 -22 42 4 53 44 -57 -24 -51 22 8 -41 -59 -57 -57 23 -21 -33 0 45 35 60 18 7 16 29 -6 -69 -54 3 10 12 -15 -63 -13 55 48 42 46 10 17 -31 -13 -9 -3 4 51 53 32 28 9 13 27 31 -8 25 -52 -7 -1 -36 56 51 46 -31 1 11 40 -10 64 -39 -33 18 -2 62 -62 -29 9 -25 -70 -4 -7 -56 -33 26 -44 14 -31 55 -5 -35 -8 18 36 -49 55 11 -82 55 -12 33 -38 47 57 -32 -55 -61 13 34 -56 -50 -47 22 47 0 60 11 -22 -49 44 73 -52 2 -77 32 -55 -31 11 1 -21 -53 -61 -52 -59 0 7 -30 -25 24 -88 12 13 14 38 22 35 -39 -62 -66 64 38 -54 -10 14 -8 -58 -27 11 -64 30
25 2 31 60 61 -39 -56 -53 -61 -25 -22 27 -13 63 56 -1 -13 96 -32 -33 -35 13 -26 18 -49 -20 34 -42 -21 39 22 31 23 46 30 114 57 -38 -54 -101 23 -19 13 36 51 -60 -32 -7 56 120 -32 42 -49 -3 55 52 41 -33 -23 8 -57 -34 28 28 86 43 -66 -37 38 48 45 -43 30 -51 -13 -65 -51 51 -41 -25 32 -49 -29 -52 -14 -10 60 59 59 16 36 -54 -45 24 30 61 -4 -65 -42 -47 -45 27 56 17 38 -23 -2 8 23 -62 35 -20 -21 -2 20 14 -5 -4 -29 4 -63 30 44 63 -40 51 55 -53 -44 38 19 33 -10 -41 5 -62 -35 17 -14 47 -46 -15 54 31 -13 -44 -9 -38 -56 -60 -33 -42 58 -36 -52 8 -10 18 -2 20 -27 -79 19 36 -19 -22 -58 -68 -49 -53 21 -18 -58 42 28 29 -42 2 -21 -47 -58 -37 15 11 42 62 -18 30 40 55 21 32 -42 -41 51 57 -59 -25 20 50 29 -47 54 -14 -8 -55 37 49 42 49 -67 -29 26 39 -14 44 6 9 30 32 11 38 -32 -59 12 30 2 20 -8 -45 -45 -54 19 120 -38 48 -19 -2 -50 127 54 -18 -62 72 115 -49 39 34 -53 39 50 -54 -56 47 26 -60
26 -26 -39 30 -16 39 27 -23 -21 27 -31 59 -60 98 3 41 60 -24 -41 54 0 16 -15 48 56 -4 6 -14 -17 -34 -11 -29 -35 -14 49 111 1 41 44 16 33 -46 -47 24 -36 23 -16 -6 -34 -37 -35 -5 13 -57 12 -53 -42 -47 -35 -25 51 -29 49 -45 -60 26 -46 36 32 -36 44 20 14 -27 0 -7 -41 -3 10 16 -36 5 9 45 37 53 42 53 19 18 -26 -19 -42 57 9 38 -32 33 -17 -4 -53 45 41 0 -42 43 4 -15 -56 54 -7 47 -50 71 18 23 35 -20 -58 -28 36 -71 39 21 -27 -6 -31 41 -48 51 -57 40 -35 -52 15 -21 5 27 53 45 -8 2 28 -57 -32 45 -62 12 40 -70 19 -12 -61 74 -43 24 24 -6 35 -33 23 37 -51 -32 57 3 40 30 -30 15 -41 -1 -56 66 43 9 -48 68 -34 -21 -5 -50 -18 -12 -34 49 51 40 -58 1 47 55 34 -25 46 9 -3 -18 -63 -1 -7 -55 -64 6 -25 75 -29 33 48 63 -15 59 23 15 -42 -30 -66 -69 35 36 -69 54 -44 47 -50 -39 -57 -61 -41 37 -43 -58 74 -59 44 -61 58 -45 7 -26 -43 -62 -64 -31 22 -54 -29 15 33 5 46 2 -13 -25 40 11
-64 -59 -34 38 -4 -2 -39 -15 2 14 68 23 45 15 14 10 -40 -12 31 37 14 -48 -47 2 -35 40 67 -19 53 38 -32 53 9 2 58 42 26 62 -49 -29 35 36 15 -37 -13 23 24 -55 -36 -8 -31 -50 -7 -40 -15 63 35 -51 12 -4 47 -12 19 -61 57 54 -31 -14 49 -57 -41 -51 15 -17 41 19 29 -15 12 71 52 -18 35 -47 58 -50 -35 -19 25 70 28 37 53 0 2 -43 50 2 15 63 -15 33 -60 47 27 23 44 13 -3 16 -26 -29 7 -48 -68 -25 62 38 39 23 8 51 26 -41 65 29 -3 27 -19 44 55 57 55 -13 -22 11 -48 0 48 -43 -11 -35 -52 44 21 30 -21 31 47 -19 16 13 16 -16 -54 51 -6 65 37 -3 54 -59 -44 -52 -27 -52 -45 18 -19 -38 -31 13 -13 46 31 -30 -22 -1 42 -4 57 -32 47 22 -57 36 -54 34 39 1 42 45 -62 36 -62 19 38 -24 -30 -61 -43 -26 3 6 4 -23 6 -4 -36 7 -22 41 -34 56 -23 27 2 -2 16 27 10 -52 22 5 -12 -42 -44 -24 -9 -6 -45 -59 -48 -25 57 69 -61 -18 60 52 -55 -4 -5 21 -30 10 46 27 61 -56 -23 -48 53 11 -29 -9
-68 44 -54 -29 31 54 44 -13 29 43 -23 -44 -19 -11 -30 -54 -50 -17 19 50 -16 -30 -62 5 30 -59 -14 24 -66 68 -81 30 41 -52 -28 -26 3 54 45 -5 47 -23 -5 -16 10 -5 -50 -27 1 104 9 -38 -35 0 28 -42 -39 -66 58 -11 -63 -21 17 -56 -16 20 -74 -68 32 -59 -56 49 -42 -50 -76 36 41 -13 30 -54 -44 -28 47 16 49 46 -35 -69 -65 20 61 -46 64 -77 50 29 65 -18 -1 39 -21 -40 56 63 -48 -47 -44 -64 -36 -62 -15 5 36 48 18 8 -43 -45 -13 -53 29 -46 41 27 -22 20 6 -6 -21 2 25 -35 -14 61 9 55 -55 21 22 36 -25 -12 -57 3 4 24 -62 -24 8 -55 30 -10 -25 5 6 -92 -50 23 1 -14 -52 -33 -15 -16 -20 24 25 -4 -31 4 62 35 -42 -3 -42 48 -52 65 17 -7 -11 -55 -8 -58 19 -20 -42 -13 52 -44 21 17 -33 -58 2 -48 16 -26 -4 -51 -8 35 -15 48 39 54 -19 -2 13 -29 -10 58 10 -47 -44 20 28 -30 -42 -49 5 -41 10 33 44 -4 -29 9 47 -65 67 -71 30 -44 -7 49 -46 24 22 17 64 45 -41 -12 24 57 -40 -50 34 -41 -10 4 -49 -27 9 -36
-8 44 -23 -55 39 -60 -55 51 11 47 21 -10 56 31 38 57 -24 -42 25 20 14 10 -58 41 52 60 52 -18 -32 0 51 -11 3 19 -25 58 57 22 -50 30 18 45 1 20 -45 -62 -51 22 -12 -5 -58 11 20 -5 -59 56 -3 -38 -39 -32 0 43 39 -11 26 43 2 35 -20 -10 -9 46 -14 -19 65 10 -5 -16 1 -35 -45 64 28 56 -37 31 35 -39 -40 33 -1 -23 -38 -42 61 10 -59 45 1 -41 -2 -4 -8 41 64 -30 32 -7 -47 -40 23 -14 29 -14 -25 9 -62 -39 38 38 69 13 -21 -7 49 2 -47 -26 51 -38 19 39 -33 -9 50 13 -48 67 24 -32 58 61 -58 56 30 20 23 -62 44 5 -29 6 -44 59 4 14 -26 43 50 -36 -6 69 -56 -29 -38 -38 27 -50 -31 -64 51 -21 -38 15 -35 49 -34 -7 -68 47 -40 10 30 -2 37 28 13 63 35 -5 4 -48 56 -11 -39 65 3 -48 -24 58 -62 -13 -34 -49 33 43 32 63 33 -16 -35 28 11 30 16 -44 23 3 -40 4 -37 -17 21 54 -55 10 -19 54 -13 2 9 -58 27 11 -17 46 31 -39 -31 42 2 -33 53 54 32 67 17 57 -59 15 -15 42 2 -11 11 5
31 8 -31 46 27 -44 10 -10 12 51 -41 6 -50 27 -4 -15 29 -19 48 -61 -61 -61 45 51 9 16 -27 -32 -11 17 -48 0 68 -48 15 -49 1 -23 -35 3 15 -19 65 14 52 17 32 -33 12 46 -51 -17 -34 21 -33 15 35 10 45 17 25 57 71 63 43 1 58 45 4 -3 -21 2 -6 24 -20 -20 16 -47 3 -33 22 -3 -41 1 46 -46 -39 -35 4 59 -6 57 -77 42 -34 49 -61 -9 -48 -43 -57 3 25 36 -14 11 -21 64 60 -1 16 -39 22 -25 6 -61 21 -11 -63 11 -21 73 30 -30 56 39 -10 56 52 3 -7 -58 53 -5 32 14 -34 -4 29 -5 -48 -61 -47 23 -6 -47 47 53 -50 14 48 17 18 -47 -27 -60 34 36 32 -54 59 -37 -45 47 27 24 24 27 -39 57 19 -40 59 39 -6 52 -64 11 -43 42 55 35 -31 18 -39 -65 51 12 15 -3 -28 52 -1 -35 -31 19 -38 -6 -28 -20 60 13 -47 10 -10 -38 -27 40 -61 3 15 30 26 -21 -40 25 -54 -29 64 31 -50 29 -17 -27 -39 45 -6 58 -61 6 7 -34 -11 30 -42 -33 -26 -49 47 1 -40 34 29 -12 -30 -41 -53 -18 -16 -7 59 -51 -16 32 -53 -42
7 11 21 26 -14 47 6 6 -41 -34 -54 -10 53 -25 -35 41 11 -43 -20 -30 -63 19 -72 -24 -32 -17 60 13 -14 47 56 -47 -61 -49 62 -18 31 49 -30 -78 0 -57 19 5 40 -58 -14 -62 23 -83 52 -30 12 28 -21 -6 -67 -5 -10 -62 45 18 27 -60 -60 -65 -14 17 23 -17 -11 -73 -60 28 6 -9 3 -44 -58 11 -64 46 35 -27 54 10 -49 57 -13 -1 -47 -19 -51 -6 -13 47 -63 -56 -25 -29 12 -2 36 -44 52 -32 -20 -16 -23 -14 -22 31 -43 3 -19 -55 -31 27 18 58 -16 -46 -66 48 55 -14 -35 -73 41 20 -3 -23 23 -37 19 -57 -29 -42 -32 -32 -84 55 -42 0 10 43 -27 41 -19 16 -30 54 -79 14 5 22 -18 -55 -48 57 -23 -33 -26 57 5 62 25 17 63 55 14 27 -35 -21 -2 24 25 -18 -67 -14 -15 -15 55 -9 22 -11 49 -57 7 30 -3 -38 -24 45 -51 57 -37 -3 12 -31 -59 3 4 -54 -51 0 -25 34 -50 -83 -29 -32 0 16 -59 -34 -13 34 45 66 -52 59 43 -30 13 63 57 -1 1 28 44 49 -3 -6 -21 4 13 34 -41 -89 54 47 33 -51 -30 -36 -56 8 24 56 -50 9 36 -44 38 -6
49 33 -54 -36 -77 -70 6 9 42 -45 22 -1 53 -7 41 -13 -4 3 -22 30 -80 15 16 9 -64 25 2 -68 58 2 -39 -56 -30 -42 -55 -72 -34 27 -51 -108 12 -60 11 16 -11 -44 -4 -51 34 -54 -19 25 -35 -1 -58 -27 -21 39 -19 -53 0 -29 31 -47 -40 28 5 -15 -35 -20 -59 -51 -33 50 -25 -6 41 -61 12 -11 -11 27 -40 51 -46 -10 -38 -24 -14 -57 -8 55 74 -10 4 -1 60 -56 6 -2 35 7 11 -52 55 45 14 -7 -14 -32 60 -15 3 7 27 50 -30 57 20 23 3 -22 29 -6 -52 -39 -44 4 -61 -55 30 18 -50 22 -16 60 12 60 43 -48 48 -8 -6 39 -13 -29 0 -25 -50 -22 5 38 37 15 67 10 62 11 -50 14 -17 8 57 -36 -60 -52 -45 -3 49 -52 -35 -24 -8 -43 13 44 79 1 26 -35 -48 39 8 35 17 1 5 -9 -61 24 -58 3 -23 13 -51 -43 -32 8 -50 -7 -48 -33 13 54 46 39 11 48 26 -52 -33 4 9 -60 57 -34 -65 35 11 -56 -23 31 8 25 -18 39 -58 -2 22 -36 -54 -60 -36 -24 0 -7 50 30 -40 2 30 54 25 14 0 -24 -40 -23 -14 -5 -63 18 -2 4 60 -66
-55 48 -51 -9 53 55 -2 33 -28 7 27 58 16 -7 -8 -20 -26 -3 -43 33 25 -30 26 32 25 -46 38 -67 4 -15 19 18 16 -44 0 73 -18 -3 53 -93 -15 60 -66 -39 37 65 22 81 19 -40 61 59 3 -63 2 -49 20 36 -59 30 -27 13 -43 -33 -33 36 12 -33 27 -46 -10 -2 19 -38 -25 54 -48 -24 -15 -28 -35 64 -62 40 6 -6 14 59 -28 29 -73 23 -19 6 33 -1 20 -41 -46 -52 36 8 6 -40 -14 -8 -1 -13 36 -57 -38 -40 -58 1 -57 -51 -14 17 -60 63 37 -54 49 -30 20 1 -59 30 -45 15 21 -52 57 4 46 -21 44 -8 35 -28 -3 -68 -48 53 -49 7 -56 -52 86 -38 -36 -40 -35 61 -4 72 56 -3 40 65 16 -26 62 -35 12 -13 -36 -45 -51 40 -12 47 -9 -58 -66 46 82 -71 -51 -46 51 60 28 -53 50 27 35 13 38 -44 63 -2 -2 55 50 -38 0 0 -50 -61 42 55 -33 -5 -54 -9 12 22 -13 24 26 55 41 -38 19 -10 -27 12 -47 43 -43 38 20 -10 11 -43 25 -11 -16 10 21 -52 74 -31 16 79 54 28 -32 -18 62 -3 3 -44 6 50 -41 -21 -26 -32 -29 -70 36 -3 11 9
26 -39 24 9 35 19 32 -73 47 1 7 -61 54 61 -21 44 -8 34 22 -4 -15 15 -59 46 -45 -5 39 42 54 7 33 -58 -50 -31 -10 30 51 44 -30 -45 44 -8 82 3 -47 45 26 23 -23 -45 9 27 -11 -41 8 -41 -18 41 31 19 -40 57 -19 -9 -15 -56 21 -43 14 25 43 -51 4 29 1 39 -22 -40 -25 -3 -47 -60 5 -5 19 -38 43 13 46 -21 -49 -35 35 9 -39 -68 -26 42 58 8 48 -8 40 -18 -26 -72 31 42 57 8 7 7 11 45 0 53 63 50 -44 4 -57 22 -24 -71 22 -52 34 -32 -1 12 57 -24 -37 18 28 -41 61 -2 85 -68 0 28 -12 46 -37 -22 -50 -25 -31 -19 -53 -10 -30 -52 51 5 48 -1 2 -27 -60 60 -27 -53 -55 -43 28 15 -31 30 17 40 39 38 18 42 -61 22 39 2 -72 -44 -26 23 6 26 9 -23 55 64 3 -6 -68 11 -62 24 -3 -11 -4 -29 50 -42 -56 -7 35 -17 -18 -42 -46 25 -36 6 -4 -36 18 20 7 62 31 -53 -60 -48 47 23 -57 -41 45 53 50 -27 -40 -41 50 2 -27 -21 58 -41 -43 74 -42 8 5 -44 60 39 46 21 35 10 14 30 35 63 -49 55
-19 13 52 -12 31 34 -45 68 -43 -56 97 -61 -19 19 -63 99 -77 -15 8 44 -39 22 -85 -10 -96 -62 -2 22 -32 -32 -3 33 69 -23 -4 103 53 7 -17 -110 38 -6 -15 27 104 -46 23 -37 11 2 -75 -57 -9 -7 58 25 -32 -39 60 26 14 43 4 -12 51 -48 -1 -43 -29 -48 -9 -50 25 -57 3 28 -46 18 -24 73 1 -75 55 37 -39 -24 0 18 4 -45 73 -28 -35 54 -34 68 -10 -83 22 58 -12 55 63 -1 54 -37 -52 14 41 -40 -17 55 -33 -8 18 -6 61 7 -17 -18 -14 -22 24 -26 -41 33 46 8 -54 -2 63 32 51 9 39 21 32 20 -53 42 -78 -27 24 -26 -21 4 -21 2 46 9 108 -38 18 55 -55 47 -4 -47 -2 38 -25 -128 -52 12 65 19 6 97 -30 -39 -18 -53 -48 33 81 -2 27 -19 -3 -44 64 -1 -31 58 -6 -48 -13 14 13 34 -59 -13 72 48 -27 -18 13 29 54 -27 -12 -50 46 45 -5 -23 55 32 -45 41 17 -53 -21 74 74 24 -26 -12 -15 -17 -21 2 -1 -13 26 -47 -7 26 25 53 -28 -34 117 41 -56 24 32 -50 -43 40 -70 -35 14 8 -16 -58 -6 -77 -14 69 -1 -11 101 106 10 32
-13 -30 8 -4 -12 11 -6 -38 -39 -59 -14 -1 53 36 -10 34 26 15 20 -7 36 -28 32 -12 51 23 -69 -1 -37 43 32 57 15 56 8 54 -59 9 -52 67 22 -36 38 52 60 29 22 2 15 9 67 25 2 -19 -34 -55 57 -13 -23 20 -62 28 -4 -56 -36 16 12 -39 -27 1 12 -40 40 -60 -45 44 22 -56 65 -29 40 -1 17 33 -29 36 5 -47 -17 15 -48 50 -29 45 -38 -23 13 -49 -39 -17 -2 -20 15 33 52 -46 60 11 36 29 3 26 -43 48 31 -47 -38 -72 11 61 3 49 -47 -62 -34 -21 -16 -4 33 50 28 -63 -25 99 6 9 -28 -10 -33 -7 30 38 0 25 -3 -14 -10 58 -4 12 -30 8 52 -66 12 31 13 -41 -43 -57 -26 2 -19 -12 16 18 51 34 46 -39 -24 45 -12 47 11 -36 22 36 22 -61 44 64 -47 -46 27 -25 48 -6 -16 -7 -26 -29 -65 -16 -67 -56 -29 -43 17 -77 52 39 22 2 -46 64 36 49 -15 -55 4 39 5 -19 39 14 49 -16 44 -44 27 16 34 10 35 -55 -45 6 -54 -10 19 -56 3 59 44 -16 58 47 43 33 -18 14 -14 -1 4 -46 21 -22 -35 -6 2 -29 -9 -71 12 40
-44 35 42 -40 -19 -35 22 -50 39 -50 61 -5 -12 -1 -24 -4 6 43 -9 23 -15 -12 -60 -28 49 -47 49 32 17 55 -25 -42 -45 45 0 19 -6 19 -30 -32 -66 53 12 33 42 72 -68 -53 17 -53 -77 4 45 32 36 46 -57 43 -33 21 27 61 16 59 0 34 3 55 14 -54 20 -60 34 20 42 10 17 -14 -1 25 22 12 62 -61 27 62 -39 -24 37 -57 10 37 -60 53 53 20 -45 -2 -19 12 25 -19 -54 52 -34 -32 -38 53 40 29 -4 -17 34 29 -55 -2 -15 -5 0 18 -47 42 -26 -34 72 12 -33 50 -63 16 -16 0 28 -19 59 16 -7 21 44 -13 -46 2 2 -34 -18 -1 -48 10 25 11 -46 38 28 22 58 -28 -43 -43 4 5 -11 62 33 -28 -26 -52 -55 42 17 -59 -43 63 -45 5 27 6 36 -30 43 -19 56 -17 31 0 44 -56 61 31 53 26 -34 57 -50 -25 -33 -4 -2 -4 62 33 -46 -12 -24 -10 53 28 24 31 36 -9 14 46 -7 -31 -5 7 34 27 9 -57 -6 3 -45 -65 59 8 25 -35 -46 30 19 51 17 -56 -6 35 5 18 45 -15 -33 51 -47 48 -36 -60 23 57 -10 18 52 -20 -2 -10 14 26
14 -42 -30 49 50 -57 -60 41 -39 21 53 -35 4 -42 -48 -12 -61 60 10 32 15 14 -51 -35 -47 15 54 -52 -46 -51 -52 3 63 -38 24 -27 57 -51 36 -6 -6 -53 60 -36 -47 53 -38 -43 16 25 12 22 -39 51 -9 -42 7 40 -48 40 -2 38 32 -19 -30 -4 10 13 38 51 -9 26 -45 -19 9 -61 0 31 -16 -46 29 30 -11 17 -12 8 -31 -19 -50 -14 57 -8 21 -16 29 50 -55 27 -39 43 10 5 24 -4 34 42 -12 31 -24 29 59 6 -63 49 33 48 52 -19 -17 -38 13 -15 20 60 43 33 39 -54 -26 -52 -49 -27 -19 19 -19 36 -23 56 -49 64 48 55 12 51 -6 38 29 42 -64 37 28 23 -35 1 -58 4 29 -67 -59 -68 -49 -40 52 47 26 55 3 37 -34 44 26 -38 16 48 60 -4 -8 33 61 -39 -6 -69 42 -26 -1 27 -52 -33 36 -41 18 -41 41 -17 32 20 -60 -21 -18 -63 -54 22 61 2 3 -50 -1 18 62 31 10 53 24 39 -21 -20 -52 16 -39 11 -21 -50 -8 69 -36 20 6 -10 -5 -40 30 46 -3 19 36 -1 15 -30 -14 -12 -4 37 60 -14 42 44 -11 61 17 -52 -14 34 -64 -15 -54 -10
26 26 -51 13 9 -58 -46 3 33 33 -41 -38 62 -30 54 48 12 -8 -3 -14 -63 -30 42 -22 41 30 19 5 -34 -9 30 -30 -19 12 56 12 -27 -28 50 59 25 -17 36 -5 6 -3 22 13 34 -14 -9 -51 55 -61 52 -22 57 -73 51 21 -37 56 -34 55 9 -51 -54 18 13 -41 54 42 44 -2 24 9 11 48 55 15 1 0 56 -32 61 -33 2 38 -62 40 -11 33 50 -4 -8 -56 45 50 18 55 -18 52 -70 -2 -48 16 -54 -33 29 57 -14 39 36 -58 32 54 -57 -34 1 -43 -39 24 -2 36 40 24 35 -4 2 47 48 -18 16 -75 59 58 -70 -75 7 5 -52 24 40 24 -16 -54 1 26 2 30 -31 20 8 1 5 -53 52 -45 29 -50 -31 15 20 5 -40 -29 47 14 -43 41 -13 43 -44 -19 -29 20 -3 -59 25 49 -42 -45 0 -9 36 41 -30 -27 -18 -18 49 34 66 17 -55 -76 -33 -37 -44 -56 59 22 44 -73 -12 17 19 -39 -32 -61 38 26 29 5 -49 -8 58 -33 27 -47 -27 -47 1 -26 -3 8 25 0 -35 64 -42 -43 -5 63 25 -25 -41 2 59 -52 -4 56 16 -19 27 -3 -13 -36 -1 27 -32 -59 -36 -35 -16 55
64 73 8 54 -62 23 -31 -32 25 -13 18 -36 5 -16 -52 -7 -52 -26 -7 12 2 -8 52 57 -22 30 19 -53 -57 52 -39 -19 -43 2 -5 36 -38 12 -31 -37 42 30 -11 24 43 -23 -17 -4 51 -74 -19 -27 -46 -19 18 1 -57 35 31 1 32 44 16 46 -11 -41 -65 -23 -30 12 10 -37 -48 60 10 -52 -28 -32 46 -17 33 -52 53 -50 -33 -58 -33 -27 -52 -31 53 44 14 53 12 -13 13 -46 -34 -23 33 -52 -4 -32 -18 -64 20 0 -33 62 -40 60 16 -7 57 -40 -31 -58 64 37 -31 -50 38 12 3 -3 40 20 -54 -46 11 -58 -7 17 -3 -45 -7 35 39 56 29 47 -54 -36 57 -22 42 -55 64 -57 44 -55 -41 42 49 1 48 48 -32 -34 55 -52 -12 -15 -23 -44 10 30 21 -66 -21 0 0 47 28 -32 -12 -44 -35 -31 -32 59 33 -30 -22 20 -19 48 67 -52 -28 -33 -74 -36 8 -54 -61 3 -5 -37 4 67 -6 50 16 -35 -7 -51 45 5 34 -3 6 -37 -29 66 13 -13 -52 1 -27 8 -28 -26 16 19 0 5 39 -9 3 20 -79 65 -29 35 -23 -27 20 8 30 -9 31 -46 55 -10 25 -13 -28 49 29 -18 0 -11 9 -4
-29 32 -20 -11 0 49 2 54 -5 -1 6 -78 30 -56 -12 -40 -21 -6 -58 -50 -14 33 -35 8 -14 -55 -56 39 60 43 60 74 35 56 50 79 -57 -61 -19 -52 32 -33 -44 -57 -41 1 67 -5 0 5 7 31 -61 -63 42 -61 44 41 9 -58 17 65 22 -23 43 -20 -3 -27 -13 3 37 2 36 29 -8 -29 6 -27 -61 -39 -74 -13 -48 -51 -13 -1 -16 -43 45 32 54 22 -25 23 34 -32 38 24 56 49 -16 40 -31 24 -62 72 -24 17 -17 16 48 66 -3 13 -32 -14 -28 29 8 -56 -26 -65 -27 -10 25 9 18 32 -13 -8 30 -15 14 -29 5 50 38 38 7 48 28 3 -18 -34 20 -19 33 64 -1 -8 31 -10 60 0 14 -58 5 -41 -46 40 -17 -52 -4 -7 -69 -45 -36 12 74 -38 11 -51 -1 -6 -31 23 30 -6 -45 33 14 8 -29 54 -10 -71 -38 -45 31 -14 -54 63 -83 39 -30 40 -47 42 -52 -2 -53 -48 76 46 -8 38 -46 22 -15 -53 98 24 -31 -43 10 9 -45 -24 1 -2 -41 47 86 -42 18 -128 -33 -10 17 -4 -51 28 -1 35 31 60 39 61 -15 80 -42 24 -32 -4 18 12 -25 -64 -8 -44 -36 35 15 -43 -5 2
10 29 19 -54 -19 -40 -31 38 -40 11 13 39 43 -15 7 46 47 -58 -27 -40 -45 22 49 -4 58 -48 -42 -1 61 44 -35 18 30 57 -55 -17 49 -4 29 44 41 19 -32 -5 -53 7 21 -13 23 36 -12 14 -11 -60 23 -54 -69 -5 31 -50 -40 36 -7 -51 1 18 32 -32 15 27 35 1 -41 -62 -48 -18 59 39 27 -34 -16 -28 36 -9 -40 -52 21 24 -63 8 -43 11 30 -54 -34 50 -7 45 -27 58 -32 -70 -61 -4 44 40 -1 -41 -62 -61 -30 -52 -38 26 20 -17 -26 -56 -57 9 3 14 -59 18 42 39 -43 27 -67 11 -27 -58 23 35 54 -5 46 -2 36 -46 18 -46 53 -57 -39 33 -40 51 24 -17 -51 -34 17 -7 49 -14 -27 31 -64 -26 14 -40 60 26 -21 53 52 23 -17 20 7 37 -61 -63 -39 26 32 12 -62 -60 15 -20 -26 63 34 9 -50 32 -16 -50 24 -33 10 13 -71 -59 53 -42 -14 -41 -39 -12 17 14 23 -61 -11 -66 -29 -60 59 36 29 -40 -44 -4 32 58 -1 -24 35 -47 33 34 -61 55 -15 25 8 -66 -51 56 -43 47 19 51 25 -14 -25 -61 -26 6 15 33 -33 -39 -25 48 1 -53 -33 -24 7 -70 -51 51
-19 -23 -46 -52 -56 0 -8 -74 21 30 -26 36 0 -46 -24 -14 19 8 -9 -53 -30 59 -35 -33 27 -30 -54 46 -55 5 11 -8 -76 -5 54 5 33 -15 -9 -14 -34 -54 29 -53 67 50 -42 35 -6 46 -5 32 -48 -19 63 -19 -52 -14 -42 49 -3 4 -59 57 29 -69 -45 43 25 -17 -62 -2 -1 -13 -52 5 41 15 6 5 -25 34 -12 -14 49 38 -45 -48 -1 39 -3 51 -35 -44 -31 14 -14 6 -8 -14 21 7 -8 1 -6 39 15 -11 2 -18 -23 65 31 -49 -60 10 -23 64 47 -43 -41 -28 -57 34 13 -8 44 47 6 -15 38 38 17 -22 -23 -64 -19 -45 78 -48 -10 5 -25 -59 18 42 -58 41 44 -25 10 -31 50 32 -42 -56 17 -52 30 19 30 -3 39 18 -44 43 -10 -36 25 -45 -64 27 -59 -45 3 -24 20 -51 -29 54 42 -59 29 45 42 9 -1 -21 -17 66 -17 24 -35 -32 38 -44 -3 -24 -3 14 30 8 60 21 24 0 -23 -26 -22 6 -3 38 -44 -23 -67 59 26 -52 -53 -29 -56 -64 -19 16 58 -12 -16 24 -20 47 -18 46 49 -75 -2 -25 48 -17 5 12 -58 31 -58 -73 -50 17 24 14 -28 18 33 -18 3 11 -36 -3
50 12 -30 37 26 27 32 -45 -26 -55 13 -6 -41 -67 -5 38 0 -56 -59 -49 -1 29 10 58 -2 38 -14 -62 54 12 -28 46 -48 18 -11 2 -6 -34 -52 -62 -9 -21 17 0 -38 -42 -44 50 54 -42 52 22 51 22 -21 -70 7 23 -8 10 -33 29 48 -31 42 11 -5 -32 64 2 -7 8 -61 -19 40 -58 -28 -48 5 -53 -27 6 55 61 45 13 37 41 -63 -52 -55 57 37 -18 31 19 -56 37 -48 12 -35 -21 55 -54 -51 -36 62 -36 40 46 8 -13 -45 1 -48 -67 -32 -22 -50 35 17 24 -18 37 37 -58 35 16 51 49 45 44 -11 24 -55 27 60 -40 21 -11 -50 -31 -14 -55 -18 -56 17 -45 -23 21 -3 3 7 52 36 -21 33 -11 7 -51 16 -68 35 11 25 -28 23 -59 18 -35 -47 34 30 -3 -70 -59 1 46 -53 -62 14 48 26 -19 -43 -42 25 6 21 37 50 -7 66 -66 -63 -36 55 8 -45 -62 -55 -44 8 -45 -5 7 38 -17 13 -14 8 55 -3 13 -5 -48 -5 -27 -47 6 -35 -25 54 66 26 43 -12 -57 -63 -43 45 -69 -35 68 -26 -6 10 -27 -37 89 30 8 -13 -21 -13 4 20 31 -49 6 30 0 87 79 7 29
