-4 7 2 -2 5 3 0 1 -3 -6 0 -6 10 0 -3 -1 -5 -1 8 -1 -7 7 0 2 -3 7 -5 1 -5 -3 -10 4 7 1 -1 -4 -1 -5 -5 5 -4 -1 5 -2 -6 4 8 4 -5 -6 -8 -7 4 -5 -7 2 -7 -3 -4 1 3 -3 -4 -8 -6 3 1 2 -4 -1 5 2 0 -6 4 1 2 -4 7 1 -6 -5 -7 -5 1 4 7 -2 2 -5 7 -2 3 7 -7 0 2 -4 -6 -3 -4 2 -3 -4 -4 -6 2 -4 -4 8 4 -5 -6 2 6 0 -5 1 10 -1 2 2 9 5 -4 5 1 -3 4 3 0 0 2 0 1 -7 5 7 -1 4 5 -5 3 -1 6 0 -1 -3 5 -2 -4 5 2 -2 -3 2 5 6 -2 1 5 0 6 1 5 2 7 -1 3 -2 -6 -1 5 2 -3 7 0 2 0 2 3 0 -5 -6 2 0 0 3 -5 2 -3 1 -2 3 5 5 4 1 3 -5 -5 -5 -4 -1 2 -2 4 -3 4 -2 5 3 7 0 6 2 -4 4 4 5 -3 1 -4 2 3 1 -6 7 -3 -4 2 0 -1 -4 -2 -2 -3 0 5 -1 3 -7 5 2 5 -1 6 0 -4 5 0 2 5 -6 5 -3 -24 3 -5 18 2 1 -11 1 13 3 19 -9 5 -11 -6 -6 -15 13 7 10 -2 11 3 -15 4 1 -6 -11 -12 -2 -9 16 -2 21 -11 -13 -14 -11 -3 7 -9 -2 1 -1 26 21 -10 -19 -6 -1 6 5 -6 -3 -10 -21 9 17 -10 -7 5 -7 11 18 3 -10 1 1 5 19 0 11 -8 5 -8 -4 -7 -15 -8 11 -3 -2 -7 -6 3 7 13 -5 -8 -13 -16 6 -9 22 -13 5 3 -6 -10 15 12 -9 -4 -14 8 11 -5 2 -12 -22 -9 -12 8 -7 -4 17 -2 5 6 14 9 -5 -2 1 -6 6 2 -4
-4 7 2 -2 5 3 0 1 -3 -6 0 -6 10 0 -3 -1 -5 -1 8 -1 -7 7 0 2 -3 7 -5 1 -5 -3 -10 4 7 1 -1 -4 -1 -5 -5 5 -4 -1 5 -2 -6 4 8 4 -5 -6 -8 -7 4 -5 -7 2 -7 -3 -4 1 3 -3 -4 -8 -6 3 1 2 -4 -1 5 2 0 -6 4 1 2 -4 7 1 -6 -5 -7 -5 1 4 7 -2 2 -5 7 -2 3 7 -7 0 2 -4 -6 -3 -4 2 -3 -4 -4 -6 2 -4 -4 8 4 -5 -6 2 6 0 -5 1 10 -1 2 2 9 5 -4 5 1 -3 4 3 0 0 2 0 1 -7 5 7 -1 4 5 -5 3 -1 6 0 -1 -3 5 -2 -4 5 2 -2 -3 2 5 6 -2 1 5 0 6 1 5 2 7 -1 3 -2 -6 -1 5 2 -3 7 0 2 0 2 3 0 -5 -6 2 0 0 3 -5 2 -3 1 -2 3 5 5 4 1 3 -5 -5 -5 -4 -1 2 -2 4 -3 4 -2 5 3 7 0 6 2 -4 4 4 5 -3 1 -4 2 3 1 -6 7 -3 -4 2 0 -1 -4 -2 -2 -3 0 5 -1 3 -7 5 2 5 -1 6 0 -4 5 0 2 5 -6 5 -3 -24 3 -5 18 2 1 -11 1 13 3 19 -9 5 -11 -6 -6 -15 13 7 10 -2 11 3 -15 4 1 -6 -11 -12 -2 -9 16 -2 21 -11 -13 -14 -11 -3 7 -9 -2 1 -1 26 21 -10 -19 -6 -1 6 5 -6 -3 -10 -21 9 17 -10 -7 5 -7 11 18 3 -10 1 1 5 19 0 11 -8 5 -8 -4 -7 -15 -8 11 -3 -2 -7 -6 3 7 13 -5 -8 -13 -16 6 -9 22 -13 5 3 -6 -10 15 12 -9 -4 -14 8 11 -5 2 -12 -22 -9 -12 8 -7 -4 17 -2 5 6 14 9 -5 -2 1 -6 6 2 -4
-4 7 2 -2 5 3 0 1 -3 -6 0 -6 10 0 -3 -1 -5 -1 8 -1 -7 7 0 2 -3 7 -5 1 -5 -3 -10 4 7 1 -1 -4 -1 -5 -5 5 -4 -1 5 -2 -6 4 8 4 -5 -6 -8 -7 4 -5 -7 2 -7 -3 -4 1 3 -3 -4 -8 -6 3 1 2 -4 -1 5 2 0 -6 4 1 2 -4 7 1 -6 -5 -7 -5 1 4 7 -2 2 -5 7 -2 3 7 -7 0 2 -4 -6 -3 -4 2 -3 -4 -4 -6 2 -4 -4 8 4 -5 -6 2 6 0 -5 1 10 -1 2 2 9 5 -4 5 1 -3 4 3 0 0 2 0 1 -7 5 7 -1 4 5 -5 3 -1 6 0 -1 -3 5 -2 -4 5 2 -2 -3 2 5 6 -2 1 5 0 6 1 5 2 7 -1 3 -2 -6 -1 5 2 -3 7 0 2 0 2 3 0 -5 -6 2 0 0 3 -5 2 -3 1 -2 3 5 5 4 1 3 -5 -5 -5 -4 -1 2 -2 4 -3 4 -2 5 3 7 0 6 2 -4 4 4 5 -3 1 -4 2 3 1 -6 7 -3 -4 2 0 -1 -4 -2 -2 -3 0 5 -1 3 -7 5 2 5 -1 6 0 -4 5 0 2 5 -6 5 -3 -24 3 -5 18 2 1 -11 1 13 3 19 -9 5 -11 -6 -6 -15 13 7 10 -2 11 3 -15 4 1 -6 -11 -12 -2 -9 16 -2 21 -11 -13 -14 -11 -3 7 -9 -2 1 -1 26 21 -10 -19 -6 -1 6 5 -6 -3 -10 -21 9 17 -10 -7 5 -7 11 18 3 -10 1 1 5 19 0 11 -8 5 -8 -4 -7 -15 -8 11 -3 -2 -7 -6 3 7 13 -5 -8 -13 -16 6 -9 22 -13 5 3 -6 -10 15 12 -9 -4 -14 8 11 -5 2 -12 -22 -9 -12 8 -7 -4 17 -2 5 6 14 9 -5 -2 1 -6 6 2 -4
-4 7 2 -2 5 3 0 1 -3 -6 0 -6 10 0 -3 -1 -5 -1 8 -1 -7 7 0 2 -3 7 -5 1 -5 -3 -10 4 7 1 -1 -4 -1 -5 -5 5 -4 -1 5 -2 -6 4 8 4 -5 -6 -8 -7 4 -5 -7 2 -7 -3 -4 1 3 -3 -4 -8 -6 3 1 2 -4 -1 5 2 0 -6 4 1 2 -4 7 1 -6 -5 -7 -5 1 4 7 -2 2 -5 7 -2 3 7 -7 0 2 -4 -6 -3 -4 2 -3 -4 -4 -6 2 -4 -4 8 4 -5 -6 2 6 0 -5 1 10 -1 2 2 9 5 -4 5 1 -3 4 3 0 0 2 0 1 -7 5 7 -1 4 5 -5 3 -1 6 0 -1 -3 5 -2 -4 5 2 -2 -3 2 5 6 -2 1 5 0 6 1 5 2 7 -1 3 -2 -6 -1 5 2 -3 7 0 2 0 2 3 0 -5 -6 2 0 0 3 -5 2 -3 1 -2 3 5 5 4 1 3 -5 -5 -5 -4 -1 2 -2 4 -3 4 -2 5 3 7 0 6 2 -4 4 4 5 -3 1 -4 2 3 1 -6 7 -3 -4 2 0 -1 -4 -2 -2 -3 0 5 -1 3 -7 5 2 5 -1 6 0 -4 5 0 2 5 -6 5 -3 -24 3 -5 18 2 1 -11 1 13 3 19 -9 5 -11 -6 -6 -15 13 7 10 -2 11 3 -15 4 1 -6 -11 -12 -2 -9 16 -2 21 -11 -13 -14 -11 -3 7 -9 -2 1 -1 26 21 -10 -19 -6 -1 6 5 -6 -3 -10 -21 9 17 -10 -7 5 -7 11 18 3 -10 1 1 5 19 0 11 -8 5 -8 -4 -7 -15 -8 11 -3 -2 -7 -6 3 7 13 -5 -8 -13 -16 6 -9 22 -13 5 3 -6 -10 15 12 -9 -4 -14 8 11 -5 2 -12 -22 -9 -12 8 -7 -4 17 -2 5 6 14 9 -5 -2 1 -6 6 2 -4
-4 7 2 -2 5 3 0 1 -3 -6 0 -6 10 0 -3 -1 -5 -1 8 -1 -7 7 0 2 -3 7 -5 1 -5 -3 -10 4 7 1 -1 -4 -1 -5 -5 5 -4 -1 5 -2 -6 4 8 4 -5 -6 -8 -7 4 -5 -7 2 -7 -3 -4 1 3 -3 -4 -8 -6 3 1 2 -4 -1 5 2 0 -6 4 1 2 -4 7 1 -6 -5 -7 -5 1 4 7 -2 2 -5 7 -2 3 7 -7 0 2 -4 -6 -3 -4 2 -3 -4 -4 -6 2 -4 -4 8 4 -5 -6 2 6 0 -5 1 10 -1 2 2 9 5 -4 5 1 -3 4 3 0 0 2 0 1 -7 5 7 -1 4 5 -5 3 -1 6 0 -1 -3 5 -2 -4 5 2 -2 -3 2 5 6 -2 1 5 0 6 1 5 2 7 -1 3 -2 -6 -1 5 2 -3 7 0 2 0 2 3 0 -5 -6 2 0 0 3 -5 2 -3 1 -2 3 5 5 4 1 3 -5 -5 -5 -4 -1 2 -2 4 -3 4 -2 5 3 7 0 6 2 -4 4 4 5 -3 1 -4 2 3 1 -6 7 -3 -4 2 0 -1 -4 -2 -2 -3 0 5 -1 3 -7 5 2 5 -1 6 0 -4 5 0 2 5 -6 5 -3 -24 3 -5 18 2 1 -11 1 13 3 19 -9 5 -11 -6 -6 -15 13 7 10 -2 11 3 -15 4 1 -6 -11 -12 -2 -9 16 -2 21 -11 -13 -14 -11 -3 7 -9 -2 1 -1 26 21 -10 -19 -6 -1 6 5 -6 -3 -10 -21 9 17 -10 -7 5 -7 11 18 3 -10 1 1 5 19 0 11 -8 5 -8 -4 -7 -15 -8 11 -3 -2 -7 -6 3 7 13 -5 -8 -13 -16 6 -9 22 -13 5 3 -6 -10 15 12 -9 -4 -14 8 11 -5 2 -12 -22 -9 -12 8 -7 -4 17 -2 5 6 14 9 -5 -2 1 -6 6 2 -4
-4 7 2 -2 5 3 0 1 -3 -6 0 -6 10 0 -3 -1 -5 -1 8 -1 -7 7 0 2 -3 7 -5 1 -5 -3 -10 4 7 1 -1 -4 -1 -5 -5 5 -4 -1 5 -2 -6 4 8 4 -5 -6 -8 -7 4 -5 -7 2 -7 -3 -4 1 3 -3 -4 -8 -6 3 1 2 -4 -1 5 2 0 -6 4 1 2 -4 7 1 -6 -5 -7 -5 1 4 7 -2 2 -5 7 -2 3 7 -7 0 2 -4 -6 -3 -4 2 -3 -4 -4 -6 2 -4 -4 8 4 -5 -6 2 6 0 -5 1 10 -1 2 2 9 5 -4 5 1 -3 4 3 0 0 2 0 1 -7 5 7 -1 4 5 -5 3 -1 6 0 -1 -3 5 -2 -4 5 2 -2 -3 2 5 6 -2 1 5 0 6 1 5 2 7 -1 3 -2 -6 -1 5 2 -3 7 0 2 0 2 3 0 -5 -6 2 0 0 3 -5 2 -3 1 -2 3 5 5 4 1 3 -5 -5 -5 -4 -1 2 -2 4 -3 4 -2 5 3 7 0 6 2 -4 4 4 5 -3 1 -4 2 3 1 -6 7 -3 -4 2 0 -1 -4 -2 -2 -3 0 5 -1 3 -7 5 2 5 -1 6 0 -4 5 0 2 5 -6 5 -3 -24 3 -5 18 2 1 -11 1 13 3 19 -9 5 -11 -6 -6 -15 13 7 10 -2 11 3 -15 4 1 -6 -11 -12 -2 -9 16 -2 21 -11 -13 -14 -11 -3 7 -9 -2 1 -1 26 21 -10 -19 -6 -1 6 5 -6 -3 -10 -21 9 17 -10 -7 5 -7 11 18 3 -10 1 1 5 19 0 11 -8 5 -8 -4 -7 -15 -8 11 -3 -2 -7 -6 3 7 13 -5 -8 -13 -16 6 -9 22 -13 5 3 -6 -10 15 12 -9 -4 -14 8 11 -5 2 -12 -22 -9 -12 8 -7 -4 17 -2 5 6 14 9 -5 -2 1 -6 6 2 -4
-4 7 2 -2 5 3 0 1 -3 -6 0 -6 10 0 -3 -1 -5 -1 8 -1 -7 7 0 2 -3 7 -5 1 -5 -3 -10 4 7 1 -1 -4 -1 -5 -5 5 -4 -1 5 -2 -6 4 8 4 -5 -6 -8 -7 4 -5 -7 2 -7 -3 -4 1 3 -3 -4 -8 -6 3 1 2 -4 -1 5 2 0 -6 4 1 2 -4 7 1 -6 -5 -7 -5 1 4 7 -2 2 -5 7 -2 3 7 -7 0 2 -4 -6 -3 -4 2 -3 -4 -4 -6 2 -4 -4 8 4 -5 -6 2 6 0 -5 1 10 -1 2 2 9 5 -4 5 1 -3 4 3 0 0 2 0 1 -7 5 7 -1 4 5 -5 3 -1 6 0 -1 -3 5 -2 -4 5 2 -2 -3 2 5 6 -2 1 5 0 6 1 5 2 7 -1 3 -2 -6 -1 5 2 -3 7 0 2 0 2 3 0 -5 -6 2 0 0 3 -5 2 -3 1 -2 3 5 5 4 1 3 -5 -5 -5 -4 -1 2 -2 4 -3 4 -2 5 3 7 0 6 2 -4 4 4 5 -3 1 -4 2 3 1 -6 7 -3 -4 2 0 -1 -4 -2 -2 -3 0 5 -1 3 -7 5 2 5 -1 6 0 -4 5 0 2 5 -6 5 -3 -24 3 -5 18 2 1 -11 1 13 3 19 -9 5 -11 -6 -6 -15 13 7 10 -2 11 3 -15 4 1 -6 -11 -12 -2 -9 16 -2 21 -11 -13 -14 -11 -3 7 -9 -2 1 -1 26 21 -10 -19 -6 -1 6 5 -6 -3 -10 -21 9 17 -10 -7 5 -7 11 18 3 -10 1 1 5 19 0 11 -8 5 -8 -4 -7 -15 -8 11 -3 -2 -7 -6 3 7 13 -5 -8 -13 -16 6 -9 22 -13 5 3 -6 -10 15 12 -9 -4 -14 8 11 -5 2 -12 -22 -9 -12 8 -7 -4 17 -2 5 6 14 9 -5 -2 1 -6 6 2 -4
-4 7 2 -2 5 3 0 1 -3 -6 0 -6 10 0 -3 -1 -5 -1 8 -1 -7 7 0 2 -3 7 -5 1 -5 -3 -10 4 7 1 -1 -4 -1 -5 -5 5 -4 -1 5 -2 -6 4 8 4 -5 -6 -8 -7 4 -5 -7 2 -7 -3 -4 1 3 -3 -4 -8 -6 3 1 2 -4 -1 5 2 0 -6 4 1 2 -4 7 1 -6 -5 -7 -5 1 4 7 -2 2 -5 7 -2 3 7 -7 0 2 -4 -6 -3 -4 2 -3 -4 -4 -6 2 -4 -4 8 4 -5 -6 2 6 0 -5 1 10 -1 2 2 9 5 -4 5 1 -3 4 3 0 0 2 0 1 -7 5 7 -1 4 5 -5 3 -1 6 0 -1 -3 5 -2 -4 5 2 -2 -3 2 5 6 -2 1 5 0 6 1 5 2 7 -1 3 -2 -6 -1 5 2 -3 7 0 2 0 2 3 0 -5 -6 2 0 0 3 -5 2 -3 1 -2 3 5 5 4 1 3 -5 -5 -5 -4 -1 2 -2 4 -3 4 -2 5 3 7 0 6 2 -4 4 4 5 -3 1 -4 2 3 1 -6 7 -3 -4 2 0 -1 -4 -2 -2 -3 0 5 -1 3 -7 5 2 5 -1 6 0 -4 5 0 2 5 -6 5 -3 -24 3 -5 18 2 1 -11 1 13 3 19 -9 5 -11 -6 -6 -15 13 7 10 -2 11 3 -15 4 1 -6 -11 -12 -2 -9 16 -2 21 -11 -13 -14 -11 -3 7 -9 -2 1 -1 26 21 -10 -19 -6 -1 6 5 -6 -3 -10 -21 9 17 -10 -7 5 -7 11 18 3 -10 1 1 5 19 0 11 -8 5 -8 -4 -7 -15 -8 11 -3 -2 -7 -6 3 7 13 -5 -8 -13 -16 6 -9 22 -13 5 3 -6 -10 15 12 -9 -4 -14 8 11 -5 2 -12 -22 -9 -12 8 -7 -4 17 -2 5 6 14 9 -5 -2 1 -6 6 2 -4
-4 7 2 -2 5 3 0 1 -3 -6 0 -6 10 0 -3 -1 -5 -1 8 -1 -7 7 0 2 -3 7 -5 1 -5 -3 -10 4 7 1 -1 -4 -1 -5 -5 5 -4 -1 5 -2 -6 4 8 4 -5 -6 -8 -7 4 -5 -7 2 -7 -3 -4 1 3 -3 -4 -8 -6 3 1 2 -4 -1 5 2 0 -6 4 1 2 -4 7 1 -6 -5 -7 -5 1 4 7 -2 2 -5 7 -2 3 7 -7 0 2 -4 -6 -3 -4 2 -3 -4 -4 -6 2 -4 -4 8 4 -5 -6 2 6 0 -5 1 10 -1 2 2 9 5 -4 5 1 -3 4 3 0 0 2 0 1 -7 5 7 -1 4 5 -5 3 -1 6 0 -1 -3 5 -2 -4 5 2 -2 -3 2 5 6 -2 1 5 0 6 1 5 2 7 -1 3 -2 -6 -1 5 2 -3 7 0 2 0 2 3 0 -5 -6 2 0 0 3 -5 2 -3 1 -2 3 5 5 4 1 3 -5 -5 -5 -4 -1 2 -2 4 -3 4 -2 5 3 7 0 6 2 -4 4 4 5 -3 1 -4 2 3 1 -6 7 -3 -4 2 0 -1 -4 -2 -2 -3 0 5 -1 3 -7 5 2 5 -1 6 0 -4 5 0 2 5 -6 5 -3 -24 3 -5 18 2 1 -11 1 13 3 19 -9 5 -11 -6 -6 -15 13 7 10 -2 11 3 -15 4 1 -6 -11 -12 -2 -9 16 -2 21 -11 -13 -14 -11 -3 7 -9 -2 1 -1 26 21 -10 -19 -6 -1 6 5 -6 -3 -10 -21 9 17 -10 -7 5 -7 11 18 3 -10 1 1 5 19 0 11 -8 5 -8 -4 -7 -15 -8 11 -3 -2 -7 -6 3 7 13 -5 -8 -13 -16 6 -9 22 -13 5 3 -6 -10 15 12 -9 -4 -14 8 11 -5 2 -12 -22 -9 -12 8 -7 -4 17 -2 5 6 14 9 -5 -2 1 -6 6 2 -4
-4 7 2 -2 5 3 0 1 -3 -6 0 -6 10 0 -3 -1 -5 -1 8 -1 -7 7 0 2 -3 7 -5 1 -5 -3 -10 4 7 1 -1 -4 -1 -5 -5 5 -4 -1 5 -2 -6 4 8 4 -5 -6 -8 -7 4 -5 -7 2 -7 -3 -4 1 3 -3 -4 -8 -6 3 1 2 -4 -1 5 2 0 -6 4 1 2 -4 7 1 -6 -5 -7 -5 1 4 7 -2 2 -5 7 -2 3 7 -7 0 2 -4 -6 -3 -4 2 -3 -4 -4 -6 2 -4 -4 8 4 -5 -6 2 6 0 -5 1 10 -1 2 2 9 5 -4 5 1 -3 4 3 0 0 2 0 1 -7 5 7 -1 4 5 -5 3 -1 6 0 -1 -3 5 -2 -4 5 2 -2 -3 2 5 6 -2 1 5 0 6 1 5 2 7 -1 3 -2 -6 -1 5 2 -3 7 0 2 0 2 3 0 -5 -6 2 0 0 3 -5 2 -3 1 -2 3 5 5 4 1 3 -5 -5 -5 -4 -1 2 -2 4 -3 4 -2 5 3 7 0 6 2 -4 4 4 5 -3 1 -4 2 3 1 -6 7 -3 -4 2 0 -1 -4 -2 -2 -3 0 5 -1 3 -7 5 2 5 -1 6 0 -4 5 0 2 5 -6 5 -3 -24 3 -5 18 2 1 -11 1 13 3 19 -9 5 -11 -6 -6 -15 13 7 10 -2 11 3 -15 4 1 -6 -11 -12 -2 -9 16 -2 21 -11 -13 -14 -11 -3 7 -9 -2 1 -1 26 21 -10 -19 -6 -1 6 5 -6 -3 -10 -21 9 17 -10 -7 5 -7 11 18 3 -10 1 1 5 19 0 11 -8 5 -8 -4 -7 -15 -8 11 -3 -2 -7 -6 3 7 13 -5 -8 -13 -16 6 -9 22 -13 5 3 -6 -10 15 12 -9 -4 -14 8 11 -5 2 -12 -22 -9 -12 8 -7 -4 17 -2 5 6 14 9 -5 -2 1 -6 6 2 -4
-4 7 2 -2 5 3 0 1 -3 -6 0 -6 10 0 -3 -1 -5 -1 8 -1 -7 7 0 2 -3 7 -5 1 -5 -3 -10 4 7 1 -1 -4 -1 -5 -5 5 -4 -1 5 -2 -6 4 8 4 -5 -6 -8 -7 4 -5 -7 2 -7 -3 -4 1 3 -3 -4 -8 -6 3 1 2 -4 -1 5 2 0 -6 4 1 2 -4 7 1 -6 -5 -7 -5 1 4 7 -2 2 -5 7 -2 3 7 -7 0 2 -4 -6 -3 -4 2 -3 -4 -4 -6 2 -4 -4 8 4 -5 -6 2 6 0 -5 1 10 -1 2 2 9 5 -4 5 1 -3 4 3 0 0 2 0 1 -7 5 7 -1 4 5 -5 3 -1 6 0 -1 -3 5 -2 -4 5 2 -2 -3 2 5 6 -2 1 5 0 6 1 5 2 7 -1 3 -2 -6 -1 5 2 -3 7 0 2 0 2 3 0 -5 -6 2 0 0 3 -5 2 -3 1 -2 3 5 5 4 1 3 -5 -5 -5 -4 -1 2 -2 4 -3 4 -2 5 3 7 0 6 2 -4 4 4 5 -3 1 -4 2 3 1 -6 7 -3 -4 2 0 -1 -4 -2 -2 -3 0 5 -1 3 -7 5 2 5 -1 6 0 -4 5 0 2 5 -6 5 -3 -24 3 -5 18 2 1 -11 1 13 3 19 -9 5 -11 -6 -6 -15 13 7 10 -2 11 3 -15 4 1 -6 -11 -12 -2 -9 16 -2 21 -11 -13 -14 -11 -3 7 -9 -2 1 -1 26 21 -10 -19 -6 -1 6 5 -6 -3 -10 -21 9 17 -10 -7 5 -7 11 18 3 -10 1 1 5 19 0 11 -8 5 -8 -4 -7 -15 -8 11 -3 -2 -7 -6 3 7 13 -5 -8 -13 -16 6 -9 22 -13 5 3 -6 -10 15 12 -9 -4 -14 8 11 -5 2 -12 -22 -9 -12 8 -7 -4 17 -2 5 6 14 9 -5 -2 1 -6 6 2 -4
-4 7 2 -2 5 3 0 1 -3 -6 0 -6 10 0 -3 -1 -5 -1 8 -1 -7 7 0 2 -3 7 -5 1 -5 -3 -10 4 7 1 -1 -4 -1 -5 -5 5 -4 -1 5 -2 -6 4 8 4 -5 -6 -8 -7 4 -5 -7 2 -7 -3 -4 1 3 -3 -4 -8 -6 3 1 2 -4 -1 5 2 0 -6 4 1 2 -4 7 1 -6 -5 -7 -5 1 4 7 -2 2 -5 7 -2 3 7 -7 0 2 -4 -6 -3 -4 2 -3 -4 -4 -6 2 -4 -4 8 4 -5 -6 2 6 0 -5 1 10 -1 2 2 9 5 -4 5 1 -3 4 3 0 0 2 0 1 -7 5 7 -1 4 5 -5 3 -1 6 0 -1 -3 5 -2 -4 5 2 -2 -3 2 5 6 -2 1 5 0 6 1 5 2 7 -1 3 -2 -6 -1 5 2 -3 7 0 2 0 2 3 0 -5 -6 2 0 0 3 -5 2 -3 1 -2 3 5 5 4 1 3 -5 -5 -5 -4 -1 2 -2 4 -3 4 -2 5 3 7 0 6 2 -4 4 4 5 -3 1 -4 2 3 1 -6 7 -3 -4 2 0 -1 -4 -2 -2 -3 0 5 -1 3 -7 5 2 5 -1 6 0 -4 5 0 2 5 -6 5 -3 -24 3 -5 18 2 1 -11 1 13 3 19 -9 5 -11 -6 -6 -15 13 7 10 -2 11 3 -15 4 1 -6 -11 -12 -2 -9 16 -2 21 -11 -13 -14 -11 -3 7 -9 -2 1 -1 26 21 -10 -19 -6 -1 6 5 -6 -3 -10 -21 9 17 -10 -7 5 -7 11 18 3 -10 1 1 5 19 0 11 -8 5 -8 -4 -7 -15 -8 11 -3 -2 -7 -6 3 7 13 -5 -8 -13 -16 6 -9 22 -13 5 3 -6 -10 15 12 -9 -4 -14 8 11 -5 2 -12 -22 -9 -12 8 -7 -4 17 -2 5 6 14 9 -5 -2 1 -6 6 2 -4
-4 7 2 -2 5 3 0 1 -3 -6 0 -6 10 0 -3 -1 -5 -1 8 -1 -7 7 0 2 -3 7 -5 1 -5 -3 -10 4 7 1 -1 -4 -1 -5 -5 5 -4 -1 5 -2 -6 4 8 4 -5 -6 -8 -7 4 -5 -7 2 -7 -3 -4 1 3 -3 -4 -8 -6 3 1 2 -4 -1 5 2 0 -6 4 1 2 -4 7 1 -6 -5 -7 -5 1 4 7 -2 2 -5 7 -2 3 7 -7 0 2 -4 -6 -3 -4 2 -3 -4 -4 -6 2 -4 -4 8 4 -5 -6 2 6 0 -5 1 10 -1 2 2 9 5 -4 5 1 -3 4 3 0 0 2 0 1 -7 5 7 -1 4 5 -5 3 -1 6 0 -1 -3 5 -2 -4 5 2 -2 -3 2 5 6 -2 1 5 0 6 1 5 2 7 -1 3 -2 -6 -1 5 2 -3 7 0 2 0 2 3 0 -5 -6 2 0 0 3 -5 2 -3 1 -2 3 5 5 4 1 3 -5 -5 -5 -4 -1 2 -2 4 -3 4 -2 5 3 7 0 6 2 -4 4 4 5 -3 1 -4 2 3 1 -6 7 -3 -4 2 0 -1 -4 -2 -2 -3 0 5 -1 3 -7 5 2 5 -1 6 0 -4 5 0 2 5 -6 5 -3 -24 3 -5 18 2 1 -11 1 13 3 19 -9 5 -11 -6 -6 -15 13 7 10 -2 11 3 -15 4 1 -6 -11 -12 -2 -9 16 -2 21 -11 -13 -14 -11 -3 7 -9 -2 1 -1 26 21 -10 -19 -6 -1 6 5 -6 -3 -10 -21 9 17 -10 -7 5 -7 11 18 3 -10 1 1 5 19 0 11 -8 5 -8 -4 -7 -15 -8 11 -3 -2 -7 -6 3 7 13 -5 -8 -13 -16 6 -9 22 -13 5 3 -6 -10 15 12 -9 -4 -14 8 11 -5 2 -12 -22 -9 -12 8 -7 -4 17 -2 5 6 14 9 -5 -2 1 -6 6 2 -4
-4 7 2 -2 5 3 0 1 -3 -6 0 -6 10 0 -3 -1 -5 -1 8 -1 -7 7 0 2 -3 7 -5 1 -5 -3 -10 4 7 1 -1 -4 -1 -5 -5 5 -4 -1 5 -2 -6 4 8 4 -5 -6 -8 -7 4 -5 -7 2 -7 -3 -4 1 3 -3 -4 -8 -6 3 1 2 -4 -1 5 2 0 -6 4 1 2 -4 7 1 -6 -5 -7 -5 1 4 7 -2 2 -5 7 -2 3 7 -7 0 2 -4 -6 -3 -4 2 -3 -4 -4 -6 2 -4 -4 8 4 -5 -6 2 6 0 -5 1 10 -1 2 2 9 5 -4 5 1 -3 4 3 0 0 2 0 1 -7 5 7 -1 4 5 -5 3 -1 6 0 -1 -3 5 -2 -4 5 2 -2 -3 2 5 6 -2 1 5 0 6 1 5 2 7 -1 3 -2 -6 -1 5 2 -3 7 0 2 0 2 3 0 -5 -6 2 0 0 3 -5 2 -3 1 -2 3 5 5 4 1 3 -5 -5 -5 -4 -1 2 -2 4 -3 4 -2 5 3 7 0 6 2 -4 4 4 5 -3 1 -4 2 3 1 -6 7 -3 -4 2 0 -1 -4 -2 -2 -3 0 5 -1 3 -7 5 2 5 -1 6 0 -4 5 0 2 5 -6 5 -3 -24 3 -5 18 2 1 -11 1 13 3 19 -9 5 -11 -6 -6 -15 13 7 10 -2 11 3 -15 4 1 -6 -11 -12 -2 -9 16 -2 21 -11 -13 -14 -11 -3 7 -9 -2 1 -1 26 21 -10 -19 -6 -1 6 5 -6 -3 -10 -21 9 17 -10 -7 5 -7 11 18 3 -10 1 1 5 19 0 11 -8 5 -8 -4 -7 -15 -8 11 -3 -2 -7 -6 3 7 13 -5 -8 -13 -16 6 -9 22 -13 5 3 -6 -10 15 12 -9 -4 -14 8 11 -5 2 -12 -22 -9 -12 8 -7 -4 17 -2 5 6 14 9 -5 -2 1 -6 6 2 -4
-4 7 2 -2 5 3 0 1 -3 -6 0 -6 10 0 -3 -1 -5 -1 8 -1 -7 7 0 2 -3 7 -5 1 -5 -3 -10 4 7 1 -1 -4 -1 -5 -5 5 -4 -1 5 -2 -6 4 8 4 -5 -6 -8 -7 4 -5 -7 2 -7 -3 -4 1 3 -3 -4 -8 -6 3 1 2 -4 -1 5 2 0 -6 4 1 2 -4 7 1 -6 -5 -7 -5 1 4 7 -2 2 -5 7 -2 3 7 -7 0 2 -4 -6 -3 -4 2 -3 -4 -4 -6 2 -4 -4 8 4 -5 -6 2 6 0 -5 1 10 -1 2 2 9 5 -4 5 1 -3 4 3 0 0 2 0 1 -7 5 7 -1 4 5 -5 3 -1 6 0 -1 -3 5 -2 -4 5 2 -2 -3 2 5 6 -2 1 5 0 6 1 5 2 7 -1 3 -2 -6 -1 5 2 -3 7 0 2 0 2 3 0 -5 -6 2 0 0 3 -5 2 -3 1 -2 3 5 5 4 1 3 -5 -5 -5 -4 -1 2 -2 4 -3 4 -2 5 3 7 0 6 2 -4 4 4 5 -3 1 -4 2 3 1 -6 7 -3 -4 2 0 -1 -4 -2 -2 -3 0 5 -1 3 -7 5 2 5 -1 6 0 -4 5 0 2 5 -6 5 -3 -24 3 -5 18 2 1 -11 1 13 3 19 -9 5 -11 -6 -6 -15 13 7 10 -2 11 3 -15 4 1 -6 -11 -12 -2 -9 16 -2 21 -11 -13 -14 -11 -3 7 -9 -2 1 -1 26 21 -10 -19 -6 -1 6 5 -6 -3 -10 -21 9 17 -10 -7 5 -7 11 18 3 -10 1 1 5 19 0 11 -8 5 -8 -4 -7 -15 -8 11 -3 -2 -7 -6 3 7 13 -5 -8 -13 -16 6 -9 22 -13 5 3 -6 -10 15 12 -9 -4 -14 8 11 -5 2 -12 -22 -9 -12 8 -7 -4 17 -2 5 6 14 9 -5 -2 1 -6 6 2 -4
4 6 7 2 10 -5 0 -7 3 -4 4 0 12 -4 1 -4 3 -8 12 2 -13 3 -1 3 -5 -1 0 3 -1 -7 -11 11 0 8 -1 0 7 1 3 11 0 -2 -2 -1 -6 9 1 10 1 1 -15 -3 3 2 0 -6 -9 -5 2 -7 2 -2 -7 -9 1 4 -2 2 -1 -4 9 -6 3 -12 1 1 3 -1 13 7 0 -1 -14 -8 -4 5 11 -3 -3 -11 -1 -7 4 14 -6 3 -1 -1 -1 0 1 8 -9 2 -6 -3 9 -6 -3 0 9 0 -8 7 -1 -3 3 4 3 2 -1 6 3 2 -1 8 5 1 1 5 -1 3 8 7 7 -7 9 9 -2 10 9 -9 -4 1 0 1 -3 1 -1 -1 4 10 0 3 -9 0 12 6 -6 6 7 0 10 7 10 -6 8 3 10 -1 -2 4 0 -2 1 1 7 2 -3 0 -5 -2 -10 -1 -2 -7 -6 6 -6 -5 -8 -5 3 4 7 7 -1 4 -4 1 -8 -6 -7 -4 6 3 1 3 -1 2 -2 8 3 6 2 -5 4 -2 -2 1 -7 3 -11 7 7 2 -6 9 -8 2 -6 4 -7 -2 -8 -2 2 2 5 4 -1 -2 3 1 -3 2 1 3 0 5 -2 6 8 -4 -2 -9 -20 2 -2 19 5 6 -7 -7 5 7 15 -5 4 -14 1 -11 -7 10 6 8 3 15 7 -13 7 -1 -4 -5 -11 -3 -5 21 3 18 -13 -6 -20 -6 3 3 -7 -8 1 2 18 14 -3 -11 -1 3 2 5 -7 -1 -16 -14 12 9 -17 -1 8 -6 5 15 2 -13 -5 -2 -1 19 -5 18 -2 1 -7 1 -4 -18 -9 8 -2 3 0 2 9 12 11 1 -15 -10 -13 -1 -13 20 -17 4 2 -3 -16 20 17 -8 -11 -21 5 5 -10 0 -10 -29 -5 -4 15 -10 3 12 -7 7 5 9 8 3 -7 4 2 12 1 -3
