6 -36 36 10 8 -46 -22 46 -21 -37 -30 32 51 -48 -2 17 7 -28 47 44 7 -22 9 42 -43 -1 -15 47 -32 -32 4 37 13 -43 38 24 24 29 -3 31 -30 -22 -25 41 -48 24 -4 -51 11 30 -2 -15 19 37 -38 -38 46 49 36 22 40 -36 8 -2 -28 33 -47 -31 7 -31 -50 37 45 -20 42 -25 -20 -13 -14 -32 27 -1 2 -12 -39 -21 -36 -37 -31 -19 -18 15 33 40 19 36 -24 -18 17 4 3 -46 31 -22 -28 31 -39 -35 44 7 36 -41 -49 -13 38 11 27 -3 -27 -30 -47 32 -37 50 -2 -44 25 -14 44 -38 -7 39 -18 19 -10 -1 -33 -32 7 -29 -23 -39 16 -46 -40 14 34 29 -19 -44 -46 -37 22 -41 15 1 -23 34 45 38 -20 31 -51 -20 37 -41 -15 -10 -10 -12 -1 -34 -37 -44 36 -16 -46 0 4 24 49 -7 14 -39 14 -45 38 -23 -3 -5 -2 -37 43 -11 -25 11 26 41 0 -39 44 46 -15 38 36 -18 -45 -9 -50 51 46 13 -28 -13 31 -39 45 44 47 25 -47 0 -29 12 11 -37 5 -13 50 34 -5 -37 -6 -20 5 43 -21 51 -22 -3 21 -16 23 1 -47 51 1 14 -31 17 -27 -14 -28 17 52 -50 12 13 -19 -20 -26 35 -35 49 35 5 -14 -13 -16 34 -22 12 42 7 12 4 13 -2 -27 36 -48 30 -41 38 -9 3 2 -16 -8 35 3 -51 -44 42 -3 3 20 -36 -18 -14 -5 31 -38 -44 -4 42 30 -12 45 31 -49 5 -31 48 9 -3 -9 32 23 -3 2 44 32 -37 -5 35 -27 -12 -31 32 -51 20 30 -29 6 -8 -16 -3 8 41 49 -19 15 49 48 48 -22 -13 -50 13 -15 -38 14 -36 -31 46 -25 38 30 -34 -6 -47 -12 45 -47 -31 49 35 -19 16 -15 15 31 40 42 17 -8 46 -51 -5 -36 51 -21 -4
0 -23 32 -3 -26 22 12 -32 -12 -36 25 49 58 -28 -40 -33 24 11 5 -10 -30 39 -10 -47 40 40 -16 50 -34 10 7 -26 0 33 -12 14 -5 18 3 -6 -18 -16 -2 -23 43 8 2 -6 -34 66 -24 -57 -29 59 -32 36 26 -16 -23 -14 -15 -32 -56 -7 -10 -22 -25 34 51 49 -26 -22 43 21 -18 -2 -47 42 48 53 -13 -49 -20 -5 19 27 -28 47 26 1 -46 -34 47 35 -55 -6 44 20 31 -42 -20 -8 6 21 -37 -35 -29 16 -24 49 16 34 38 17 -34 3 43 70 29 -27 -5 31 56 46 -48 -18 -47 12 -46 -41 47 -10 4 -4 -15 -39 -37 -48 -36 -16 54 47 40 35 49 -37 4 -17 15 1 -43 56 14 11 -23 -40 -45 9 14 38 11 10 16 48 -15 14 -34 -7 -14 13 -41 2 10 19 14 -63 -3 18 -42 21 34 55 -50 49 37 34 -19 19 4 -41 23 -4 -18 -51 -15 34 44 16 -2 59 17 -5 26 -9 10 -23 6 34 27 22 3 -14 -12 20 22 4 -3 -8 45 6 -47 -22 18 -7 -20 5 -45 -19 -16 12 1 -55 41 -57 32 51 27 37 62 -54 28 26 13 -44 0 -11 -6 -20 -40 48 6 -14 42 -30 15 -33 42 -26 -49 33 -4 -48 -51 27 69 14 -7 36 -14 1 -38 -14 1 48 -8 56 12 -54 -15 -64 -30 -26 1 -37 -21 -9 -29 -3 -43 39 21 -2 -9 11 35 -20 -45 58 -27 -2 26 70 8 -51 33 -47 42 62 -40 14 -8 9 24 -45 0 -14 34 -13 32 28 22 -14 -22 -11 16 25 7 24 -10 -35 -30 -23 -18 -30 -57 -16 26 19 -7 -18 18 -5 -5 -9 -65 -21 39 8 -2 -38 54 6 9 9 -1 -55 39 32 17 -17 -12 60 29 -67 10 -22 -9 42 -34 12 56 44 7 3 37 13 -27 15 -32 -65 50 -9 -39 -52
-20 -3 12 -24 27 -45 8 16 -32 36 -1 0 50 49 -42 -34 -31 30 41 33 49 -38 -30 -35 -12 -3 16 43 9 -1 -15 43 -46 40 -30 -3 50 18 -46 42 -45 -32 -42 46 9 -21 11 -37 -30 42 -21 -52 -40 -27 37 -55 38 39 -2 -24 39 16 38 -37 11 22 -32 13 8 -47 27 20 -13 -10 -3 1 27 23 -30 0 23 -13 -10 0 -28 23 -21 15 -16 35 4 -42 -46 -15 -44 -37 -35 -17 26 47 23 -33 -39 -13 32 14 41 -11 35 -17 48 -37 -9 2 -37 27 5 18 -16 -36 -39 -35 -26 -28 -4 32 -27 9 -35 38 -43 -43 28 -23 -1 -56 -41 -32 21 13 42 -4 -36 27 3 26 -59 -73 -41 34 -5 -35 -37 -34 -10 -29 -13 50 -46 -11 -19 -48 -42 40 33 -52 0 -11 -36 -2 -26 28 -1 32 -8 27 20 -24 -8 -42 -27 2 -30 -4 39 -48 3 -2 -61 -12 -10 32 -47 -39 8 33 10 -8 -25 25 36 4 49 32 -41 -48 4 -45 41 -18 44 -27 -21 -46 29 -42 -2 12 5 41 14 38 -27 -41 7 -49 -11 49 26 0 39 -37 -3 10 -39 47 37 13 -27 0 -14 40 -23 -13 -14 13 -22 -37 21 -8 -31 30 38 -24 -22 -65 -45 -34 -63 49 -16 -46 -12 47 54 0 -14 -6 10 12 -63 -64 -66 40 -12 -23 44 -21 -25 -46 -19 -29 16 -60 -40 -15 -38 16 -37 -17 -40 31 -48 7 35 -1 14 -17 8 33 -16 33 -8 40 -23 -11 -23 55 26 -27 -18 29 8 -19 38 28 66 17 -45 -41 -44 -5 -31 -54 2 11 -17 6 23 -12 -44 -38 12 -46 30 1 -22 -27 5 -50 16 27 52 61 9 37 40 42 54 -8 37 -25 32 -40 -22 -1 36 -6 -29 -43 -3 54 -41 38 23 -9 3 -6 56 -2 -28 -21 4 6 59 -47 -43 32 -15 65 34 -5 -37 -4
40 -14 29 5 27 -30 -9 -16 7 80 6 13 27 -57 -39 -49 -17 18 -49 -34 24 -32 11 29 4 -22 3 -26 -49 -35 57 -34 -8 23 4 -16 -6 -24 49 -6 53 -47 12 -3 40 -52 -36 1 15 -48 47 35 -20 57 22 -5 -54 45 -65 40 33 -35 -3 -39 34 -21 -23 -34 -30 -24 -28 43 25 -5 10 -14 -44 -56 -16 60 -14 -29 1 55 -56 -26 -41 31 39 -12 15 -27 38 -66 -16 52 -22 -24 -27 44 76 15 -45 8 -6 -14 -19 23 -42 2 18 37 14 0 -37 22 40 -5 7 -2 -46 45 -73 -8 39 25 54 -42 -60 1 23 22 -9 -17 13 -55 -42 -32 32 3 -14 -12 -53 9 -1 51 -18 -45 -4 -63 37 -49 -30 -46 56 -1 17 12 -10 28 -64 11 60 -3 45 49 -21 16 -54 -30 35 -84 81 -6 34 29 -17 6 44 25 24 12 -80 4 -14 -32 -71 -27 37 -41 -24 -17 -22 -15 -27 -63 -47 55 -47 13 -1 -38 -59 37 -50 76 -27 12 -30 17 -70 -42 14 -42 -62 -3 -63 46 -102 42 10 -54 21 63 -57 26 9 -9 -10 55 -19 48 22 -66 -92 -36 -13 -49 81 61 1 -10 51 15 90 86 8 -24 26 38 40 31 37 68 45 66 -18 -29 70 -42 -27 -64 -56 23 17 -52 72 -23 79 -11 -61 -25 -99 -25 20 64 -33 54 5 2 24 86 -10 -17 -7 88 -16 49 8 27 10 -17 -63 -37 29 -60 -57 20 -52 -62 1 -13 -34 -60 69 -27 -19 -115 -112 -14 43 5 87 59 -112 29 45 33 37 66 57 -47 -8 15 -41 32 -43 67 52 71 20 22 44 -15 -10 -19 50 -54 -5 80 -9 -13 16 15 64 38 -18 -24 -78 55 -13 42 19 0 -25 60 -4 -70 16 64 0 -22 36 -38 32 -38 -11 -113 -39 55 -57 49 51 53 -46 -12 -90 34 11 21 -9 1 31 31
48 77 -11 60 -5 -54 -29 -9 -19 53 9 13 18 17 -85 -15 -72 45 -11 9 23 -81 56 -81 -60 -36 48 8 -21 -3 -15 50 5 13 -4 -27 -22 35 -55 33 -21 -54 36 22 45 -49 -62 -85 11 -4 49 75 43 2 -19 -10 -40 10 -90 24 16 -44 -23 29 -5 -22 16 -70 63 -1 23 45 -5 34 -26 49 -42 -2 -41 56 -57 -12 4 74 -14 34 18 -11 -37 -38 -7 9 -27 -33 76 -13 -14 29 -2 19 -3 23 -43 -69 -37 -27 18 -72 -35 -65 -74 6 6 -31 -7 -82 54 84 -39 43 -48 -5 -27 -1 -44 -4 72 -28 -69 -67 -47 21 -57 28 53 34 -42 48 -27 19 -67 3 34 24 13 25 76 9 87 31 -31 -5 80 92 36 29 -35 -28 5 49 -14 5 94 6 102 -3 67 44 -4 12 -25 -70 27 44 -17 65 -35 81 55 36 -85 -76 -61 55 -57 30 -15 32 -23 -8 39 -2 -53 -47 -53 -5 -111 -38 37 -62 33 -29 -54 -63 -28 18 -11 52 -7 51 -1 -75 30 94 27 45 -43 -7 -24 -27 9 6 20 34 43 -5 -18 16 20 6 44 -11 -70 -18 21 -35 -26 75 26 44 -9 12 32 6 11 36 -39 28 36 -15 -15 2 -18 -16 78 17 5 -64 36 35 7 -92 -128 127 24 59 -4 9 57 -71 -93 -31 -124 -62 107 99 0 31 -108 127 -14 127 -77 -84 -55 9 -39 127 1 -38 56 -38 -128 -64 93 78 -94 116 -93 25 47 63 127 35 94 -74 2 1 -36 51 40 -64 127 11 -30 -37 127 9 -33 -88 -10 -79 -8 -38 -109 -78 -128 77 34 26 0 127 -19 -119 61 -33 31 -78 -33 99 89 -96 125 20 -34 -18 -59 -51 -41 62 -128 47 -123 127 -58 46 -18 54 -6 4 127 -5 59 -60 37 -64 -128 -47 -56 -79 -64 59 -19 76 -99 -38 -41 13 46 18 -128 -4 47 53
-1 -65 -21 -39 48 8 43 -19 -43 6 48 -25 -23 -45 -28 -9 -60 19 -44 3 -43 -35 -11 21 -30 31 -25 -40 43 10 10 65 -36 -38 23 -28 12 30 20 -34 -39 -116 61 51 33 -69 -24 -4 -7 -17 91 75 -9 -4 38 3 47 60 7 56 -20 -11 -6 11 19 5 -50 59 24 -53 2 -38 46 -11 27 26 33 50 4 -53 -51 2 12 2 76 -44 -38 66 -23 22 -50 -45 41 -19 46 16 8 -22 27 7 -43 -1 27 7 17 28 3 -93 7 -49 -6 13 26 -19 7 -39 -10 -44 -62 -34 38 26 3 -6 48 36 3 39 -30 -20 61 -78 -19 27 -53 -27 36 -61 46 15 -33 -23 36 -59 19 60 2 63 72 -15 -29 45 46 -45 -7 41 -21 15 1 -50 2 -28 19 -60 -14 6 26 -44 -3 -12 30 18 -57 30 3 20 12 -15 -35 48 59 51 -48 57 -26 -62 -45 14 39 6 31 11 16 51 -39 38 -20 -34 -24 -6 21 10 -5 -17 55 58 47 -2 28 -55 -41 16 -34 38 29 -33 48 32 0 18 4 42 -8 80 55 82 28 -91 23 7 29 46 -23 -5 -38 45 47 61 60 27 -16 -26 65 -60 -63 34 63 -29 59 -37 26 -22 48 20 -58 25 94 -128 86 124 -85 -102 -128 127 27 58 -66 52 -39 20 -97 -37 -50 -59 54 98 77 -47 -83 101 -17 127 -6 -30 4 -70 -100 65 32 -52 88 -29 -105 -74 127 127 -74 79 -88 -128 49 26 127 88 127 -109 -50 -38 -37 33 51 -38 127 -55 -42 5 97 -77 -24 -12 -64 -67 -17 -65 -90 -119 -128 -25 62 -8 -82 127 -74 -70 98 -66 127 -128 -88 65 105 -115 93 99 -128 -34 -8 -9 20 33 -87 -9 -107 61 -7 115 -17 63 28 73 83 -98 12 37 83 44 -36 25 -113 -39 76 -29 -57 61 -87 -125 -69 24 37 -19 -128 -70 127 42
24 57 -19 -13 49 17 -8 -16 -12 -8 12 -9 -5 -40 56 -4 -36 41 -19 -5 -41 -5 56 -46 6 -51 54 6 49 -36 5 23 2 -27 40 -43 25 -2 -27 -42 -39 -33 -28 -6 1 -5 29 -6 -40 -66 -27 4 -11 43 43 0 -18 -47 14 2 -41 22 -66 -92 14 41 -48 -7 3 -66 -14 73 32 13 -34 -10 20 41 -42 76 -27 -62 -26 61 43 -28 -66 -20 24 20 -26 -24 18 -10 31 37 -8 -16 26 39 -10 -16 -65 13 -48 34 -5 -25 35 -58 20 -61 -18 -52 -54 -41 73 46 -23 14 -18 54 5 26 23 -50 62 -25 4 8 -34 -4 -63 -19 -41 49 5 2 18 39 60 -45 -29 9 19 46 -55 38 29 -32 -37 51 -13 14 -44 33 6 21 -3 -20 -1 -22 47 -47 15 24 -16 11 -64 19 57 -23 -30 35 60 -10 13 89 -59 51 -9 9 -34 33 48 56 39 51 70 -10 -12 8 20 -40 -56 -14 -54 -46 12 25 -10 2 -44 15 -17 31 -44 14 -28 -4 15 -79 22 -1 74 -42 47 0 5 -54 -34 29 42 0 27 63 40 -41 -17 -9 -13 13 -37 13 -23 63 -19 104 -25 37 -40 -27 66 -3 -59 19 18 29 -21 13 -4 18 -50 -43 -55 -5 17 -42 -14 78 19 -121 -128 85 23 68 -47 -16 23 27 -113 -47 3 -33 89 0 -15 -26 -122 127 -79 127 -93 -97 76 -60 -55 41 58 -91 72 -96 -31 8 127 69 -55 70 -107 -77 -49 -3 102 76 127 -54 -52 -33 -108 -15 118 10 69 -57 -69 -6 122 -54 -87 -45 -109 -41 -96 -25 -66 -85 -128 -33 33 -41 -10 127 -43 53 90 -106 95 -105 43 111 59 -128 82 48 -67 -40 17 -119 -59 96 -128 31 -98 95 -59 103 -53 127 56 24 93 -31 -2 48 46 27 -108 1 -116 -32 38 -18 -6 13 -47 -103 -24 10 -45 -42 -128 -91 100 33
65 -39 -4 21 10 -2 -11 -21 3 20 28 49 39 12 -26 -20 15 -10 -46 30 11 -53 35 19 -16 -10 34 6 65 39 35 69 -32 23 50 -13 26 32 36 -38 -60 26 -49 43 15 -44 17 -54 0 -49 18 -7 -34 46 -1 -70 17 20 15 -3 38 -32 -75 -27 56 59 -9 -18 -4 -31 33 -13 -4 -54 -46 43 -10 -17 -11 60 38 33 13 31 13 -35 -42 22 52 40 -41 57 57 -6 -51 -13 -47 -53 4 11 9 17 -80 4 -29 -33 -41 -43 -9 -35 51 3 -29 -59 -26 47 -34 65 36 -45 -3 9 19 61 9 34 -19 -30 -54 -52 -26 -60 -47 54 -15 23 -30 -69 -6 50 -11 -42 -20 -10 10 -29 28 -7 18 23 -13 36 55 60 -39 -37 6 -26 63 8 -3 -46 1 -46 -13 -20 -20 -32 6 47 -39 -36 -40 -6 -13 51 -20 4 -43 28 -29 26 9 21 -17 -23 60 -28 28 -2 41 -16 -61 30 10 -7 -2 -13 -6 2 14 31 -41 -29 69 -20 41 -32 -20 42 -28 -21 -24 63 1 -49 35 -49 -17 -45 10 51 25 -66 4 43 -12 -7 -1 43 40 -17 38 80 6 -44 9 72 36 -25 -44 -36 66 -32 -72 33 38 -20 -42 43 -50 -30 12 29 31 3 26 -65 -15 86 -10 -56 -121 53 8 127 -55 36 -6 -7 -72 1 13 -55 56 40 4 -5 -104 123 -74 127 -59 -3 24 3 -103 51 13 -29 -29 -45 -15 -55 104 40 -64 127 -40 -20 40 -49 122 38 118 -48 -83 81 -56 -18 100 -21 78 35 -63 -14 100 -57 -13 23 -109 -89 -60 -20 -87 -58 -128 37 73 24 -119 95 16 27 89 -79 127 -52 72 127 68 -128 25 58 -81 0 -13 -54 -36 22 -99 15 -128 125 -46 127 -1 125 -8 81 53 -5 57 70 36 -66 -52 1 -95 -90 31 -79 -14 8 9 -67 -16 12 -8 -86 -51 -41 119 74
35 53 5 41 39 -16 -66 23 -19 10 -53 53 -49 -29 13 -13 -28 8 2 -12 0 -44 39 -12 -40 -10 54 50 -15 22 -60 57 2 54 -35 -16 46 -7 -7 -42 -23 -46 -18 -12 -32 -6 -66 -16 11 -54 -38 20 41 39 -25 -18 49 -24 -1 47 -21 52 -7 -72 4 14 40 -41 65 18 40 -2 -29 -8 24 30 -54 -11 47 -6 46 26 41 44 -6 -61 10 42 19 -18 14 58 -17 5 24 26 -48 40 -84 31 -34 -68 -12 -22 -34 -37 -32 17 -46 -39 42 32 -18 30 32 -18 -9 -11 -34 -34 -59 13 24 72 -11 -29 -31 -22 -21 -67 49 -41 -87 -32 7 15 51 -68 0 60 2 5 24 38 67 -61 -10 33 11 -66 81 -46 11 39 -71 -17 -39 10 17 -9 -12 -38 15 13 -65 31 18 -60 67 -29 57 -13 7 -24 -20 34 9 75 -6 -51 -19 31 15 29 -40 -55 70 -50 20 -59 85 48 34 34 -48 15 9 -34 15 -36 36 60 47 -47 42 -9 -37 -45 -63 68 -16 32 39 -13 -20 -26 -4 21 -23 -43 3 -2 -16 -27 23 -44 29 -7 30 54 47 72 77 23 15 -57 5 62 20 -50 21 13 -38 -7 21 -25 -8 36 30 6 40 13 -34 -20 -61 32 23 -119 -17 70 -44 -94 -65 34 52 66 -53 28 -43 -21 -32 -34 73 -32 -1 66 44 53 -92 118 -78 108 -16 -26 76 -16 -117 44 -14 -89 40 -113 -41 -44 65 50 -11 110 -78 -33 25 9 52 37 79 -50 -48 74 -46 -9 87 21 71 -70 15 6 88 -65 -71 -7 -75 -60 -72 -80 -77 -128 -128 25 -13 -61 -28 108 -50 -19 77 -19 67 -33 -18 64 55 -65 89 30 -87 -69 21 -25 37 32 -128 36 -93 81 6 127 -10 114 -21 57 20 -60 62 46 -24 -16 -105 -8 -62 -80 29 -79 -20 -71 -61 -16 -52 -18 16 -32 -47 -107 104 60
51 1 53 6 -6 11 -15 -18 -28 33 3 -17 -19 -19 -18 -76 -73 11 -30 -11 -2 -4 -37 -31 -79 -63 81 -20 8 34 -45 21 -26 -42 21 77 -6 2 -38 6 15 -69 5 -45 -31 37 -72 10 34 -42 -5 -79 41 -2 -74 -33 14 10 -5 -11 -44 -35 7 21 -22 -27 -35 17 22 20 14 26 -65 -6 -51 55 -79 -51 -10 -7 -16 -34 -2 -1 4 -75 -16 38 44 -14 51 54 49 -73 -54 29 -53 35 -67 11 30 -56 14 48 31 13 1 30 -26 -10 18 -48 -36 43 -40 -9 -52 -3 -2 -18 -17 -66 40 58 43 -32 -34 -39 43 31 -15 40 -75 -4 -14 -14 -23 -4 -41 9 28 3 1 17 43 67 33 -8 -14 -45 90 -15 -42 60 -45 22 -37 -13 27 4 -21 29 -25 -48 -38 55 8 -26 29 21 -33 -13 15 -68 -29 -37 -44 -8 -78 -50 -24 -11 -21 35 -33 -22 -20 -5 -13 -41 5 24 4 31 -30 -28 29 -6 -2 1 25 9 -44 -78 70 69 35 49 -28 28 -23 40 41 -27 2 -28 32 40 10 -70 -39 56 41 -42 45 -13 21 8 5 16 16 27 60 13 -10 -51 48 -10 -40 40 49 66 -28 37 4 0 -5 -11 50 -27 -7 -2 -52 47 6 -39 54 -74 -31 74 -81 -61 -18 22 5 95 -83 37 -12 -39 32 -10 55 90 84 41 -25 1 -106 35 -4 44 -87 30 127 -26 -46 -42 -32 -30 1 -54 11 11 72 123 -59 17 14 96 -64 -20 125 57 21 -36 -92 120 -21 -79 97 29 63 -65 -16 -30 71 -27 -56 -24 -81 -51 -28 -2 -27 -86 -75 -50 7 -3 -85 56 -76 -4 119 -18 127 -88 55 125 84 -111 14 74 -61 -68 2 -58 -27 24 -84 -4 -128 113 -65 127 -70 89 -95 17 36 -75 79 127 -23 -58 -88 11 -71 -72 95 -94 31 -54 -52 -38 48 31 8 -78 -43 -78 46 29
-2 44 -11 40 34 6 -23 39 -23 -27 37 -56 -46 16 13 -48 18 -65 -66 -33 39 28 -14 -68 -70 2 25 -10 -24 14 -48 6 1 33 57 51 -39 18 -77 37 84 -44 17 0 33 19 -80 -32 1 4 -10 -73 68 32 -39 -3 -18 -29 36 -91 2 -37 15 48 -54 26 29 27 48 109 -26 24 -47 76 34 7 -48 -29 77 -22 25 -46 16 0 -36 30 -73 25 74 -72 62 -7 -44 -29 -51 -14 -28 77 -23 88 -30 -23 -72 17 58 -44 -52 19 32 -52 -61 -58 -35 40 5 -2 -4 -29 6 19 42 -33 34 -43 70 12 -20 -71 -9 52 17 32 -3 31 5 -21 -9 7 -2 52 -13 -34 4 20 23 -2 28 46 28 -5 53 -2 68 -41 -41 -29 17 -76 34 -6 2 19 -33 -41 -15 29 -37 48 49 -19 -31 -22 55 -18 -56 -6 -57 36 -5 14 35 59 6 2 -25 33 -30 15 43 43 49 -47 7 -15 26 -75 -17 -47 26 -9 -34 -18 -24 13 -3 58 -52 -33 26 27 -44 -9 -45 19 -7 -17 -58 -13 -36 -60 -12 -10 -53 -75 11 -9 -21 -51 67 16 47 -20 44 -29 31 -50 -29 45 19 21 -46 -51 -2 47 40 -43 -13 13 24 -32 -16 -50 -52 4 2 31 85 -104 4 95 -20 -3 -61 38 6 76 -128 8 -68 -72 14 66 113 74 117 10 62 93 -128 78 75 98 -61 29 121 -74 -52 -79 -89 -107 -13 -103 93 7 35 127 -39 -58 -19 110 -96 -37 127 127 24 -46 -128 104 1 16 123 -5 16 -81 35 -94 48 -25 -128 -74 -116 -68 -33 -54 -36 -125 -43 -7 -3 -14 -128 63 -44 25 86 -56 127 -67 98 96 55 -94 42 -2 -65 -118 22 -10 -7 51 -128 56 -93 127 -74 40 -2 127 -27 27 37 -65 5 68 -68 -52 -74 127 -100 -28 42 -94 -10 -76 -75 -93 -1 37 50 -128 -8 -41 77 37
28 -10 13 29 49 23 -38 33 29 61 -5 -14 -69 42 -29 21 65 -36 -9 26 28 19 -15 -41 -17 -16 -23 -34 47 92 -44 28 -39 9 -13 65 -53 71 -95 34 94 31 -15 9 -31 48 -42 -78 30 31 11 -61 46 79 -2 -15 52 -91 56 -86 29 -42 -9 53 -23 2 63 60 -7 30 45 60 -95 -12 46 35 8 -67 9 -6 41 -42 -30 -11 -35 55 20 25 51 -81 1 56 -57 -83 -86 -3 73 38 0 80 -80 12 -16 61 31 -64 -38 31 104 4 44 -52 -26 24 10 -21 1 -5 30 -62 -2 41 6 -57 56 23 21 29 2 -3 -9 1 -46 51 56 58 46 7 -6 27 4 -33 -6 -5 10 56 22 53 -33 -4 2 8 24 -38 -23 11 10 -92 73 -13 10 -15 23 -1 59 -3 41 50 -36 30 40 25 89 -37 39 -28 8 54 36 -14 26 8 -34 -48 -26 -24 -36 -36 11 60 29 3 -33 55 -21 -86 -51 41 55 -28 11 -7 41 -21 1 -7 -14 7 40 19 -38 7 -2 21 35 44 -59 -47 39 -4 -16 -65 35 11 10 -51 12 -5 25 46 -6 -63 -15 26 -12 -3 26 57 -32 60 -10 -7 -85 -31 3 -9 23 -47 48 4 -32 37 -22 -5 -6 89 79 -128 -102 8 -83 31 -41 -17 28 108 -128 -64 -126 -60 12 68 93 28 126 -40 31 108 -71 72 127 1 -126 -25 127 -104 20 -77 -75 -100 2 5 127 36 37 127 -84 -9 49 127 -128 -65 93 127 37 -27 -128 127 19 -10 102 22 63 20 -22 -64 117 -58 -128 14 -124 -104 -56 -61 -65 -128 -59 25 -2 -83 -128 -27 -128 1 127 25 127 -24 127 103 76 -71 10 6 -39 -76 58 -61 10 76 -108 -39 -67 87 -128 59 -56 127 -35 44 76 -128 -19 127 -128 -53 -101 127 -101 -67 90 -128 9 -128 -31 -30 48 -38 -22 -105 57 -32 56 -91
66 44 21 7 56 -41 -75 -8 -9 25 -39 -91 8 19 -29 -33 80 0 -92 38 49 -1 12 -48 43 -17 -9 -48 -4 28 48 37 2 24 -6 49 -9 -26 -85 83 61 -24 53 33 -53 -15 -40 14 -23 -39 23 -25 30 48 -65 51 37 -51 22 -16 4 24 42 -16 29 54 4 122 -43 103 70 -10 -28 5 8 -26 -22 -71 41 2 33 -24 -29 0 -37 72 25 -3 33 -101 27 83 -32 -6 -65 8 69 94 30 -27 -3 -70 -15 -21 1 -12 -22 11 30 7 -34 15 -55 10 -22 0 -102 1 -2 10 -6 -17 27 8 33 1 19 -57 -47 63 42 -31 32 -57 -10 -47 -47 85 -51 -25 36 -16 65 52 29 35 51 49 5 3 52 -27 -36 60 -7 24 -6 -76 81 -16 -43 4 40 24 53 -26 53 31 -12 -35 -14 -20 20 2 -23 -6 -47 60 -17 42 -33 -45 28 -15 -22 31 -15 1 -61 40 -21 22 -51 1 -23 -72 -26 -2 -8 5 17 -29 50 45 -27 48 -58 11 -3 22 35 -50 58 -40 -9 -20 -67 17 -18 -44 -71 12 52 -15 12 -19 9 52 41 70 6 18 -44 36 -30 -80 11 23 -24 0 -21 26 -75 -47 31 -22 -39 -37 -24 -14 32 -50 -15 2 51 73 18 -100 -42 -59 -128 11 59 -84 -13 123 -87 -128 -47 -78 92 75 38 37 59 -93 64 127 -4 5 127 11 4 63 127 -122 127 -99 -128 -98 -44 49 70 98 -13 84 20 -79 18 97 -16 -81 36 117 -52 8 -110 102 13 -39 60 81 -94 4 -85 -55 20 -74 -66 -10 -118 -94 -27 48 -33 -78 -32 -43 34 -55 -108 -62 -73 -27 100 127 127 73 102 52 -31 -29 -23 -89 69 -87 1 -91 -6 72 -29 -65 52 63 -96 37 -102 -2 -35 54 -36 -47 15 127 -100 16 32 127 -115 41 -25 -112 69 -62 66 -36 74 21 -78 5 78 14 -6 -109
3 36 -8 26 -29 30 0 11 42 38 31 -93 19 -25 -15 -16 -6 -35 -27 80 -23 44 -68 4 -20 -33 14 1 4 23 -58 39 36 7 -27 -38 -79 -20 5 44 -41 0 18 3 5 -1 48 0 4 -29 -20 16 4 -6 -69 36 -14 11 19 45 4 -49 -8 10 66 -48 -58 62 -51 38 43 46 -65 55 -37 -5 -61 8 10 41 52 16 19 7 -33 58 69 1 54 -75 110 49 19 31 -26 25 9 71 -61 -1 -18 4 -17 -11 -49 -67 94 21 0 23 -75 -34 -31 33 11 -23 -87 18 -27 36 -23 21 -28 22 26 56 37 -22 27 47 40 42 12 -47 -26 -46 17 -22 46 63 -56 -17 26 -41 32 48 -18 -12 -25 8 45 25 17 40 44 -9 -46 -45 14 15 29 -36 64 -51 48 -40 -14 -9 16 -42 67 32 52 -66 42 4 -76 59 20 67 -21 45 -45 -24 36 -42 3 63 18 -45 -28 -4 -29 17 5 -47 29 -17 -59 -21 95 -49 5 -33 -25 35 -22 45 14 -26 8 -60 -47 -1 42 -41 -57 13 9 -69 -16 40 5 -37 38 -41 49 -8 -13 43 40 -3 -46 5 43 21 -20 -15 27 -3 -32 17 -31 9 15 16 -49 -5 28 28 -17 -28 43 40 63 17 -57 12 2 -11 -128 -39 105 -98 18 98 12 -115 -21 -80 33 58 -66 22 111 -109 32 127 68 -99 94 -49 16 26 -2 -40 62 -68 -62 -47 -95 126 65 127 -51 -61 9 -21 71 -51 -53 -61 -107 -80 -128 127 -62 14 43 18 127 127 -62 112 -59 54 -128 -82 57 8 -44 11 -69 105 34 117 90 20 3 9 -2 -79 83 17 -5 103 17 72 19 -48 -94 116 -128 -128 125 -38 8 -78 45 29 127 -77 127 23 -122 76 -76 -74 -65 21 -105 19 -96 107 -117 -40 103 72 -88 62 -39 -45 -10 -24 85 103 43 17 -124 64 91 44 -104 -128
-72 51 -61 9 -2 3 13 -80 16 -69 38 42 42 -53 -42 9 -41 11 -22 29 72 -6 -5 33 66 -31 -9 28 -58 -36 -70 -50 -18 32 52 -9 6 -40 32 -29 -42 -8 -5 20 -29 39 -8 40 3 -48 59 -7 54 15 -50 29 -63 69 36 25 36 -33 -29 -17 -32 -55 -40 51 -51 71 -10 -22 31 -46 2 -17 -56 15 8 22 -22 -68 6 -66 -23 -12 30 5 -27 -52 18 31 58 54 61 66 22 3 -28 -40 -12 -55 -12 -18 -84 20 77 -16 -8 72 1 18 0 -17 63 -76 -8 -28 37 51 2 -20 3 40 -21 50 -41 -19 42 39 -38 -5 -45 38 23 53 36 62 -6 53 14 -39 31 -19 42 25 -14 -21 -46 -37 42 -17 57 39 -43 -11 -3 37 48 39 -13 52 34 -48 16 57 7 35 -8 0 -31 -30 28 4 26 16 20 38 8 52 -24 29 39 -5 -32 -8 21 3 9 -38 41 10 -1 35 17 -23 -45 15 -60 30 30 25 -20 -3 54 64 8 15 -26 38 -13 9 -20 22 -41 -30 -57 29 -1 -32 -56 -25 29 -62 -44 -23 41 21 25 23 7 40 -45 7 59 -51 -21 -17 47 41 17 -11 -71 -15 13 6 -56 15 -45 19 33 -16 -50 -4 69 -50 -128 -7 -33 32 -42 -3 11 -117 32 111 127 -128 19 -117 50 -13 -128 -38 83 -58 88 127 95 -118 78 8 33 -99 14 -75 23 18 -75 38 -101 103 36 109 -46 -95 -63 -20 114 -91 78 0 -128 -107 -128 83 31 -95 19 27 36 122 -68 107 -105 89 -128 -47 110 -7 -68 -25 -46 86 101 127 92 23 83 -25 40 -72 87 5 -28 127 -61 111 -22 -127 -65 82 -128 -128 92 -28 36 -19 -43 68 127 -128 127 82 -95 30 -33 -76 -52 37 -118 40 -101 46 -123 -38 72 18 -71 56 -68 -13 25 51 70 127 46 19 -83 113 3 108 -128 -128
-61 -45 -23 -8 -42 58 -8 -47 -27 -75 75 -31 -26 -33 11 -82 -35 30 33 42 2 10 -13 30 60 -4 2 48 -16 -78 27 -64 -3 -43 32 -71 8 -20 18 -24 -32 16 -21 -30 -61 35 -3 15 24 42 -18 -23 -41 -49 11 -3 26 -21 -39 38 -14 10 -11 -25 -27 -53 -28 75 -39 15 -8 30 43 14 -27 -29 -15 -3 27 46 -33 -69 -16 15 -69 5 27 17 -12 47 25 49 -12 26 39 77 41 24 21 2 22 -9 -49 9 -38 13 51 18 -46 -16 -33 12 64 40 52 -76 37 70 -16 97 25 44 -6 56 37 55 16 -43 24 -5 46 -33 12 -45 61 32 -34 -6 6 23 14 -3 -54 -7 30 -32 31 -48 -10 -26 -16 -15 -37 47 -1 -53 19 12 57 -28 4 9 -14 1 9 14 -8 24 67 18 -38 -38 43 17 28 29 -14 -12 21 64 7 -57 66 33 -43 14 10 20 16 27 11 29 18 -38 9 -7 -63 -70 -71 -36 27 32 -56 15 -11 49 -35 31 -33 10 61 9 52 61 -45 33 -6 58 54 -1 37 -52 8 -30 35 -1 6 10 24 17 4 21 -36 4 61 -46 -52 2 56 -25 69 58 -8 33 -25 -39 -23 33 -3 23 -39 -54 -33 52 -5 -27 -28 16 25 -5 -66 -57 -32 -116 39 60 69 -128 -34 -39 53 19 -45 -9 104 -44 0 92 31 -39 52 29 -66 -38 10 25 10 -13 -97 -50 -112 80 -22 117 -22 -88 9 43 17 16 87 -53 -109 -87 -57 -4 -47 1 5 -62 39 73 32 116 -90 43 -128 48 9 10 -35 25 -53 -13 6 61 67 21 -7 5 3 -109 38 26 -2 127 13 68 63 46 7 94 -112 -128 44 3 28 -33 -53 71 81 -86 127 69 -3 84 -104 -60 -9 50 -31 33 -88 20 -109 -56 -7 44 -3 74 -73 3 106 -15 62 35 85 52 -56 42 13 96 -88 -89
-14 27 13 46 -38 33 5 -8 63 -5 43 9 -11 -27 24 -70 -48 -15 -56 11 15 33 39 20 102 20 66 -36 1 -101 28 -16 -33 41 53 -8 -39 -28 41 19 17 9 28 -81 -8 17 10 1 9 86 58 23 44 0 47 -5 27 -59 -49 -66 49 29 -45 -13 -67 -47 -41 22 -68 95 -35 18 25 -28 -5 7 -62 37 13 38 25 -79 41 12 -45 41 84 64 -70 -15 34 11 45 -77 -40 38 50 -10 66 43 52 -74 25 -40 -42 15 8 15 -68 6 0 -20 39 62 15 -41 49 15 17 12 7 9 -32 15 37 5 36 -34 39 0 -34 -44 50 -27 55 -11 -50 79 -12 -47 32 37 -64 13 -40 36 3 41 -1 -3 -21 19 -35 -15 -18 -28 -5 -3 11 21 -11 -52 -53 18 53 3 1 37 59 30 -6 -25 35 15 -18 7 -44 -56 40 -6 3 -2 22 55 -56 73 -5 -31 0 26 12 -6 22 -1 29 -26 40 -4 43 21 2 -27 42 16 29 -7 -48 6 -23 20 23 -17 32 52 -29 15 10 -28 -14 -4 -4 -16 14 -69 -15 28 -43 38 38 -33 -52 36 58 49 57 -52 -26 -10 18 44 50 -7 -40 -10 25 38 34 45 16 -4 -4 -35 -8 8 2 27 -81 -5 4 -16 -6 -39 8 -63 112 83 34 -101 -8 -101 -34 -1 -91 -1 127 -7 63 123 76 36 77 40 -66 -2 -1 -8 -40 7 -128 26 -37 100 24 63 -46 -13 -61 -25 45 114 25 -43 -65 36 91 -87 18 18 -51 -90 42 74 27 127 -88 -92 -50 85 -70 19 -1 -68 26 -78 -2 -38 -62 70 31 -18 -58 40 46 -21 60 81 19 64 38 44 -10 53 63 -107 0 9 90 -98 -77 121 -28 44 -21 2 -51 73 -85 -61 69 -38 -14 -57 49 -79 -87 -128 -81 -36 -44 59 36 78 126 38 47 -36 16 64 -20 7 -8 112 -17 -43
2 33 -14 -41 -73 58 -4 45 52 9 6 -38 -61 19 67 0 12 51 -38 -21 66 -49 -33 -32 -13 -22 4 54 -6 -91 -5 -45 2 -18 -13 29 30 30 34 46 -1 8 -31 -37 4 -6 -4 -27 44 25 44 47 50 -16 28 32 58 -41 10 -72 3 51 60 -16 -12 24 -66 -25 -22 50 42 -33 59 -4 -22 -26 -37 55 -18 -5 43 -74 41 1 -39 -48 -6 -16 -39 71 21 51 -2 -54 21 72 8 -53 -50 7 -45 -33 88 -24 -16 0 12 40 -12 60 2 54 32 -46 -29 31 31 -15 56 18 -9 22 50 4 -17 16 18 24 16 -50 -8 36 15 -4 19 -8 -33 -1 1 7 41 34 -48 40 17 9 1 20 -42 59 15 -17 47 12 -10 20 20 2 -45 -35 37 -24 -16 -66 -13 7 -10 -38 -14 -4 -50 13 5 31 30 -13 -4 28 37 -56 9 -34 -19 29 6 66 38 17 -25 52 15 36 19 -56 3 66 -8 0 7 -16 -1 28 14 0 66 -53 1 -18 -19 21 -35 -23 40 -49 35 -6 13 32 -38 -28 -20 43 21 -35 26 43 39 -32 -35 18 13 47 46 38 -27 -43 7 -8 18 -47 20 55 -11 39 17 -48 5 -1 -8 22 56 1 -21 47 62 -9 1 37 -22 -47 73 -51 -78 26 73 0 -14 56 -46 -96 -57 3 26 42 33 80 -9 82 -29 36 97 -13 -114 38 -17 13 -13 85 -122 2 -44 59 -55 40 9 -54 -91 56 -54 84 23 -12 34 64 84 -114 -16 26 -39 3 12 32 117 44 -52 -34 -13 72 -70 -24 -57 -12 56 -96 -22 -64 -81 76 23 -8 16 61 36 10 114 6 25 20 10 64 18 -31 116 -13 -12 30 44 -64 -128 79 -72 62 -53 1 -14 51 -89 -32 34 36 45 -20 16 -67 10 -59 -104 -9 11 -26 27 52 41 76 -39 -23 -44 -15 15 -57 -70 -6 3 2
-32 7 -23 -18 -45 -2 12 -41 39 -3 -25 4 -44 -20 -17 15 -29 40 45 65 75 -9 78 -19 -51 11 40 -5 8 -59 -15 -7 -53 41 -38 41 -29 41 19 20 -29 36 -26 -66 43 57 -13 -65 -9 -30 -11 -4 70 -22 -37 42 -53 32 -70 -9 11 -32 45 33 40 -58 -39 5 -1 59 -12 45 9 -32 -48 -42 -18 38 53 -8 -9 -47 43 -35 -43 -8 -2 -23 6 -1 40 16 17 -73 -35 21 -2 21 38 -11 53 -47 4 -23 -10 -57 34 81 2 -38 -11 58 -10 -51 -10 -10 23 -2 -17 12 -13 -84 -48 -40 -28 -22 -12 -39 -3 -22 -38 -8 33 40 -14 40 -30 13 -36 20 38 1 -68 -58 -14 4 30 47 25 30 12 25 26 -35 42 -66 -7 -19 -18 37 -33 -92 -18 -66 -37 67 24 -3 39 -24 -26 -26 44 4 -45 -22 -29 71 -26 17 -51 -39 -9 -35 16 -38 -32 -32 26 31 -50 16 13 -50 -40 30 -46 21 -1 -74 -2 53 33 -32 -41 -86 9 60 -32 27 -8 0 37 -44 49 -21 -9 41 47 26 57 -31 22 -22 -8 31 51 -33 55 -51 -11 26 -48 -31 73 -56 -91 -16 -5 -53 15 12 -23 53 68 -7 -74 48 16 -43 -18 66 -2 7 -46 27 71 -41 -35 24 26 -63 -12 43 26 -98 24 53 -35 -12 -3 -2 -14 -66 64 74 3 -33 11 19 5 12 -32 -24 -49 12 -29 77 -54 -51 -24 67 3 3 76 -54 -26 64 -69 2 45 3 -20 -8 59 -126 -31 -1 -94 -28 -40 37 78 65 -22 -6 81 101 -88 28 -20 -56 18 -73 8 -112 -90 67 -20 -63 -55 24 -23 18 61 -35 13 35 75 80 5 -73 61 17 5 1 67 47 -62 16 -95 27 -23 13 74 -19 -95 10 4 19 17 -35 -8 -115 -3 -85 -92 28 -51 37 3 7 82 49 -35 -70 -68 59 86 -66 -2 -24 26 4
30 64 -44 -31 1 -44 71 -81 -22 16 20 -66 54 -3 -62 87 -46 39 -4 63 57 29 56 40 7 -12 14 -51 30 -37 49 -19 -44 38 -41 -12 -25 6 40 45 14 9 -20 -43 -3 -20 -27 -44 -51 -54 -16 -12 -1 11 40 48 -25 -5 -19 -79 58 -49 50 49 50 19 -2 -4 -7 62 -7 59 25 51 -19 56 15 7 -42 1 -4 26 50 70 -41 14 -18 -23 -51 -69 29 23 2 -30 -32 -43 -19 43 23 39 26 -8 -14 -89 34 15 16 -37 25 -29 -45 3 11 9 -81 -12 31 16 -63 34 18 9 8 -4 -52 -21 -34 -16 21 -83 -14 43 -41 55 21 54 8 15 -15 31 -2 60 -21 -82 -7 -46 56 -19 -38 83 -42 -56 -9 -4 -21 54 -26 -29 -67 -1 -46 -65 5 -28 -3 10 -10 -20 -2 -20 -46 -22 42 2 -13 -69 -8 77 56 -23 43 -35 -4 -52 65 -29 -46 -16 10 67 -26 40 -55 3 3 -5 -42 52 12 -33 -43 22 47 18 -34 -71 -5 74 -27 -25 -13 -3 13 -35 42 -6 5 87 -33 31 31 -58 -45 53 61 -16 -37 48 18 -38 7 -22 -21 25 38 4 -6 -26 -73 -8 -27 42 -1 6 42 62 20 62 49 24 10 67 14 62 -66 -24 31 37 -21 15 18 9 -54 36 49 -13 17 71 -11 31 -128 8 -48 -4 -37 54 19 -12 13 19 -77 23 -70 -36 9 17 -56 68 14 -65 -10 16 -60 -9 68 -15 -75 95 -59 19 9 18 39 -7 102 -43 77 19 -75 -29 -36 37 39 -27 -14 -65 -1 65 -31 32 -27 -31 -12 -72 -37 -90 -127 -32 69 29 -72 46 24 -5 71 -25 22 -16 22 24 64 -125 80 60 -15 -6 32 12 -68 39 -35 15 -112 53 -11 -8 -1 -4 28 3 60 -44 60 -6 -13 -11 -126 9 -69 1 56 44 93 27 -19 -111 -55 -17 55 -56 -101 10 26 25
28 54 -26 18 2 9 18 -67 9 6 -36 30 18 -82 -8 77 -13 -41 50 8 -42 36 15 2 48 -54 20 -73 19 -40 -30 -71 -49 -5 1 15 -3 37 -23 66 -67 17 17 -53 55 -6 -48 -15 21 -40 40 -66 -12 6 47 -10 -35 -3 25 1 -5 -55 -7 33 1 -40 55 61 38 -38 8 32 -15 2 31 26 13 3 -4 -55 70 26 25 90 53 -26 -13 -44 -28 21 -16 23 7 2 24 -26 -88 38 -24 29 57 -63 -75 -70 16 3 67 27 -27 -41 29 39 84 -3 -31 38 13 -39 -19 66 -46 -42 -64 77 -57 -5 -32 -63 -12 5 2 40 -64 56 20 83 30 -74 -56 68 5 21 -30 -40 -50 -15 69 -57 -32 -36 -26 -73 4 -18 14 42 -13 30 -23 35 -17 44 -9 -39 -17 21 37 -77 51 -9 37 -49 -51 -7 26 -31 35 -23 -2 14 -33 -41 18 -60 40 51 33 -5 -11 39 -68 -8 -1 -5 -80 1 -40 -37 19 -36 19 27 25 -24 16 -29 5 6 48 -33 31 -20 -41 -50 -21 40 -34 102 -19 -5 18 -22 7 0 12 5 -38 -39 2 -44 30 -16 -2 -13 65 -8 -62 -15 37 -33 0 -38 -2 39 -11 -24 8 40 38 7 -17 22 1 -8 -17 -4 85 -32 -20 3 -25 -54 -76 -20 2 33 47 78 -54 35 -90 -68 2 -5 -13 22 -58 -30 -15 53 -69 71 -39 -36 6 -55 -128 8 -53 -16 -29 -11 -66 -34 98 89 -51 87 -45 6 61 -53 71 18 109 -57 -49 40 -35 -37 47 29 12 -10 -17 -6 -12 -34 -48 81 -14 9 11 -41 -36 -75 -70 -8 30 62 -69 74 -56 70 98 -71 82 -59 42 55 27 -6 42 72 -11 -1 -26 7 -56 -19 -127 0 -95 55 -48 26 -66 74 60 4 55 -35 71 2 23 -48 -40 -29 -24 -7 20 63 -13 -48 40 -65 -24 10 65 -53 -14 -35 12 60
-37 35 -12 20 60 -6 17 -59 -88 1 34 21 2 -12 -56 78 -43 -6 -26 -14 -45 76 43 -14 25 -38 -60 -15 -19 37 13 22 -8 22 -72 -17 0 20 -35 12 16 -60 -47 -28 -4 -38 44 39 4 -2 18 -40 -15 19 32 -39 -84 29 -30 62 -70 5 -53 30 15 -8 12 42 50 13 30 -47 45 -50 -22 -16 -2 -12 10 1 -62 7 -40 11 7 -10 58 -32 -8 55 -11 4 63 59 16 -46 -6 -33 0 21 -22 -17 -29 -4 20 -38 10 17 -20 13 24 -5 121 -7 -40 72 -23 -16 -35 78 -92 50 -21 48 18 53 -38 -19 12 1 46 -27 -39 59 5 10 61 3 -27 54 -41 60 66 25 30 13 59 -23 2 -26 50 -21 17 32 56 8 -63 -10 -29 -38 -43 -53 4 33 -58 52 -8 -68 30 18 20 28 5 -48 9 18 -40 5 -3 28 9 25 17 -7 36 17 25 43 -38 35 -21 -63 68 -53 -24 -28 40 -26 -22 15 -17 6 -26 -49 -1 3 6 24 32 -17 -17 -20 15 -56 16 51 3 49 12 -30 -15 53 -38 53 32 -33 -41 1 26 -30 47 -29 18 -60 -55 -29 -37 7 35 -67 50 46 -22 45 65 9 -26 -53 -5 -12 61 38 -3 -54 27 -32 43 -106 -52 27 31 -94 -73 43 -55 7 2 49 -67 62 -109 -32 21 -81 -5 -13 -31 25 -101 80 3 36 -83 -78 22 -25 -76 -53 -1 -72 28 -53 -45 -83 55 67 38 37 58 -28 -44 -42 27 47 0 -61 -96 -30 -7 3 65 10 34 -36 -11 36 49 10 24 -13 -99 -26 -72 -36 -48 -90 -128 -77 19 19 -47 111 -42 36 4 -89 50 -27 -10 54 47 -94 -21 81 -70 -13 42 -42 63 -54 -101 13 -54 28 -20 105 -12 101 62 21 -10 -38 -24 36 5 32 -66 43 -110 38 5 -57 24 -66 -48 -49 -56 70 29 -105 -63 -82 96 80
6 -10 -29 -7 -18 -18 18 -67 -20 -29 -14 -2 -40 10 10 44 14 -47 -16 -63 25 84 -73 1 -7 85 -54 -7 37 54 -43 16 33 22 -11 23 34 14 -18 -16 -17 59 -3 13 -9 -50 74 -3 -12 -35 -36 -17 -34 -61 47 -78 -81 44 22 -7 6 -31 34 15 71 -39 0 -23 -24 -16 -9 -5 18 -4 94 24 36 -41 14 -26 8 -32 38 20 16 -55 -15 -12 43 -1 7 11 -36 50 4 61 -6 -2 -76 -38 16 17 27 4 -6 18 28 -9 16 -36 14 -29 27 -17 12 -7 18 -30 57 25 -58 7 -43 36 -51 1 -45 -19 52 -15 59 -41 35 40 -30 32 65 -29 44 48 23 67 21 35 -21 -32 15 -30 31 -20 27 -15 -32 36 16 -25 -27 -47 -30 21 22 17 -65 -50 -5 -65 -30 -71 -41 46 -1 17 14 -46 -1 38 66 -12 -14 -43 37 22 17 -31 -11 -7 47 -10 42 -22 20 -21 35 51 -6 -2 17 11 19 11 -13 18 -71 -16 72 -39 22 66 -13 -49 29 -20 -40 -42 33 -26 -13 4 64 5 -8 -13 -55 20 -38 -40 -11 -70 49 -28 24 24 -18 -16 43 3 -39 -21 61 41 -34 -38 62 47 -62 -67 31 -8 34 25 3 -36 -61 17 3 4 31 -54 -81 127 -11 -74 -128 46 -37 27 32 42 -7 30 -108 -67 50 -76 35 -49 54 -47 -72 47 -30 68 -44 -38 -55 -54 -114 -17 -7 -100 70 -1 7 0 114 28 -11 127 26 -30 7 -18 64 42 34 -70 -92 -20 -67 -66 39 50 52 0 5 69 28 -36 -29 31 -59 -9 -39 -74 -22 -53 -94 -35 55 20 -36 -4 -31 94 18 -11 51 -66 67 61 114 -116 51 35 -46 70 37 -68 -29 64 -74 -18 -103 25 -89 64 -42 33 -3 7 55 -27 -39 91 8 18 -49 96 -98 -38 34 -12 52 -32 66 -92 -16 62 -19 -99 -91 -118 9 17
-46 -75 19 -6 -9 -3 -53 -73 7 -49 4 31 32 44 -48 -20 16 -29 54 37 20 -24 -98 80 24 32 -2 52 12 27 -34 23 -9 84 -23 64 -8 -44 18 -42 -74 65 67 18 -63 -58 21 32 24 -96 -17 41 -55 -77 1 29 -59 50 26 17 87 -42 -3 1 -16 9 46 -21 59 28 -13 -61 48 -53 11 -7 58 16 41 -12 -13 22 -12 -75 25 31 51 18 56 -23 7 -32 52 -6 -37 59 -30 34 -17 -10 -38 -31 47 -29 10 64 41 90 25 -20 53 50 8 -6 110 35 -47 -19 -21 59 -67 -11 55 -43 54 23 -13 -44 -1 59 -35 4 -3 24 19 5 15 12 -23 60 39 -21 34 3 -11 -54 -23 -25 -27 -53 -24 57 -69 33 47 8 -65 -44 14 26 6 -77 -17 -18 32 3 3 -46 18 1 17 8 -13 -53 44 -39 22 20 -45 -5 -5 37 98 37 37 -23 12 26 50 5 -49 -49 14 26 -61 -47 -23 -63 39 44 -20 50 -12 3 52 -59 -24 0 8 33 28 35 29 1 0 -5 -4 53 -21 -9 -54 61 -4 -48 1 -39 31 -15 28 41 12 -47 9 -25 -14 -32 -61 45 -7 -23 20 6 46 46 11 -9 61 -48 -2 -18 43 8 -38 -42 -71 -60 71 -34 -48 65 62 -72 -24 18 21 -2 19 104 -61 59 -41 -26 87 -25 39 5 48 6 -40 33 -28 103 -14 -59 -26 44 -113 -41 -25 -40 48 -32 -2 -48 68 96 -18 71 63 -86 30 -70 9 81 55 4 -23 33 -9 -40 58 15 82 -12 -18 -51 18 -58 36 52 -87 29 -36 -3 53 -55 -123 -82 56 -40 -73 8 -42 109 -23 -43 70 0 26 -7 48 -128 -12 25 -74 68 -10 -103 -27 2 -67 29 -110 24 -39 65 31 73 -1 66 6 9 21 62 27 31 -36 71 -53 -11 53 -46 20 2 -16 -120 -84 0 -14 -4 -91 -128 63 19
-70 -79 -39 -39 36 -29 -31 -35 23 -14 22 11 36 -21 50 -59 -47 47 50 4 30 54 -85 46 -3 50 -14 12 24 57 -29 -45 13 43 -32 -13 94 -16 49 -71 -69 58 37 96 -119 -44 50 94 54 -53 -44 14 -27 3 -2 54 -40 22 69 42 71 12 -4 -33 46 69 10 45 24 2 19 37 29 -41 32 37 -18 -75 -4 -28 -8 32 49 -41 -45 17 91 -36 28 7 43 -30 1 61 16 85 -85 -1 4 -3 -92 39 -35 0 -58 29 33 95 -29 0 41 -10 -12 -41 105 -36 -26 -54 62 11 -11 18 49 -31 2 5 -91 -32 -13 80 33 -80 -11 9 -33 13 38 -4 2 -30 37 37 34 -27 -50 -5 -26 -40 -70 -29 -47 -17 8 58 -13 12 -17 -27 -24 42 60 -33 -48 -18 -3 2 6 -11 -32 37 19 89 -14 -53 85 50 -26 36 -29 -41 -35 -33 60 20 -55 37 21 -22 -19 -34 15 -65 90 -2 -18 -38 31 -80 14 45 0 0 6 -35 84 34 15 23 -38 21 -26 56 -28 -13 25 -12 -35 76 12 28 12 -3 5 15 39 -23 -34 2 8 50 -47 -15 -109 30 17 10 -26 -9 42 -23 12 -12 26 19 61 -38 0 -2 -46 -10 -16 14 -10 42 26 14 106 9 -101 106 60 61 -65 -29 -22 29 -36 57 -22 97 -19 -44 77 -48 15 -71 31 -56 -21 -26 -37 10 27 -38 48 -82 -95 -86 27 -111 45 -58 112 -41 47 91 -9 58 69 -10 -62 -71 -8 88 18 10 -74 20 31 12 -2 65 -2 -85 -8 -11 99 -30 -62 -8 -101 26 -25 1 -23 -125 -56 -128 -32 -63 -65 19 -86 109 19 -103 62 -85 1 17 17 -117 -9 87 -72 35 39 -64 53 -10 6 -26 -93 36 -10 46 86 127 32 73 -16 -4 -4 127 53 20 -17 104 -80 -78 127 -128 26 -71 -33 -86 -67 -41 -31 -64 -63 -123 95 74
31 -16 59 29 -49 -10 26 68 -53 27 -57 27 27 -5 -30 -22 9 27 -23 -17 88 27 -58 -11 -7 9 -13 29 19 20 -47 -49 -8 -44 -18 -50 102 -57 -10 0 -58 55 -44 -7 -23 -10 15 -13 18 17 -19 74 -63 19 -42 33 13 -46 -31 -40 28 38 -20 -18 -13 24 11 -36 -69 -2 -37 40 -14 41 -1 19 -18 24 -32 -51 -37 -11 10 9 -17 14 27 33 -30 20 10 -75 -1 30 65 49 -33 -50 3 -18 -26 0 50 -9 -8 -31 12 -15 -46 -26 23 56 -6 -40 113 -40 11 48 -4 -1 44 16 -25 37 -41 -51 18 -31 -6 45 -25 -3 -33 43 -40 -11 18 24 -14 9 50 35 2 -87 -24 1 -14 -6 -7 3 -25 28 42 39 45 6 4 29 26 -58 -59 -34 -39 49 -44 12 -16 -24 -36 8 16 34 43 59 36 -27 29 -25 -28 74 6 42 74 45 -46 11 -31 -17 55 -23 -14 -11 51 -39 3 -4 30 -3 18 55 14 -4 44 -19 -69 50 -30 -1 4 -1 -8 -50 -97 7 -3 19 -26 16 -22 25 -1 12 -20 49 -46 -41 -8 -47 26 0 -38 38 -79 -61 51 -27 -37 -18 43 6 13 -5 17 0 -28 63 2 -24 42 -19 27 -38 -36 -16 69 -1 65 19 -72 -60 27 80 35 -34 30 -37 -26 -30 -26 -22 35 34 74 55 -47 -49 -17 32 -20 -58 -15 -59 5 -7 2 -30 -40 -99 17 -30 26 -4 46 18 -68 36 -8 -32 50 61 -21 41 -1 11 -108 29 27 85 62 -21 16 15 -27 -10 -3 51 -59 47 37 80 -44 22 39 -29 60 -31 0 -64 -29 11 -30 -87 -73 113 -41 -23 -22 38 47 -66 -91 -36 -113 -13 -90 -27 -22 -61 27 -54 -37 -83 47 -80 -37 -21 24 -47 -22 -22 -33 19 -55 18 -48 -29 8 33 31 -49 32 -61 22 -127 20 -49 -12 -50 11 -13 19 53 -15 -42
-2 14 0 -6 36 -39 -16 56 37 -12 19 15 37 44 3 34 0 37 54 -20 -22 39 -30 -14 32 -11 31 -2 -29 -59 -13 -22 -35 33 60 16 -7 -27 47 -50 -21 -69 8 28 -41 -67 -28 19 -20 46 -51 -5 19 -14 -47 35 20 -9 -57 -10 23 38 22 -73 -27 -16 -27 -16 21 11 -48 -18 51 -22 -12 54 35 -24 -20 -45 -53 7 60 -14 61 -53 -2 22 58 63 54 8 -4 -44 29 1 -15 -23 24 19 35 -54 5 -23 36 32 19 -16 -25 -3 -38 52 28 14 74 -26 36 -38 -18 18 22 35 -28 -35 -45 3 -15 -38 -30 -13 9 23 -17 -26 29 -30 4 -51 24 17 0 -53 75 -15 -55 42 34 63 -1 -2 -47 45 76 51 26 30 -38 20 86 33 -14 60 -56 -44 -47 -10 36 -77 27 34 -41 54 34 72 29 1 -63 -5 5 88 -42 -82 51 -18 -14 29 29 55 -16 -23 50 56 26 52 -27 17 21 20 1 49 24 -72 -64 26 23 30 29 21 34 -29 40 20 -13 61 54 -46 6 -24 -49 -72 -23 -1 70 48 -12 43 80 -18 12 66 41 -12 31 42 -69 -39 -21 -15 15 -2 -84 -21 38 -18 42 49 -34 -77 -37 29 36 -8 -57 -7 54 26 -51 78 -85 -48 -36 97 122 -73 -99 -24 -67 -64 -103 117 99 79 37 127 -47 -1 -58 -92 21 -126 -123 -45 96 -38 90 30 7 -30 110 118 -108 -5 119 -83 -50 -43 40 -108 34 100 -36 85 -37 16 -102 7 44 17 109 25 -17 -46 -128 -90 106 32 -56 110 -1 48 2 37 97 -14 99 20 108 26 -126 -110 66 -81 -26 11 -58 -128 -36 90 7 -66 -61 64 -19 91 -55 -39 -120 -31 113 -83 49 -47 51 -77 78 -19 60 -37 -97 -88 40 82 53 -46 22 51 33 -43 48 -34 117 -25 -46 -44 -94 65 -41 -80 -6 -67 67 119 38 0
12 28 51 -39 -17 29 -40 23 -45 16 -8 14 34 -14 9 -18 7 -37 14 -44 -10 46 -48 2 46 -41 -31 -12 11 -51 -37 -49 -16 19 -29 26 -33 33 -49 -39 7 34 15 -51 -2 -26 45 11 -24 -36 -35 4 15 -25 35 -30 1 41 -5 6 30 35 4 -37 20 -42 31 8 11 -51 44 -26 -21 35 40 13 52 19 -30 -14 38 -21 28 -4 43 -18 28 -25 -41 14 6 -8 34 20 -35 -23 -31 14 51 39 27 39 34 -41 16 -6 -28 7 25 40 -21 46 -52 8 -41 -49 -2 -1 10 -2 -19 9 35 -49 27 -29 -8 39 -50 6 45 -27 -22 4 46 -10 -15 -38 -48 -25 -8 43 16 -23 -37 -30 21 -26 -35 -37 28 34 -18 34 -16 4 -15 2 -37 -5 -30 -4 29 8 -39 -7 -13 47 33 -16 38 -35 -13 27 9 -28 -31 -37 12 -17 5 -42 31 -45 11 11 38 29 -31 -22 -8 -19 -42 50 49 42 -21 -3 13 38 -24 40 48 -49 -14 -10 41 -15 -50 43 5 -31 -12 -45 -2 -16 44 -17 -30 -6 16 -16 -23 -4 14 -25 -19 -49 16 -31 -50 32 -14 21 36 -30 28 35 -41 40 3 -37 9 -29 43 -22 26 21 -22 -33 29 -9 -10 -24 27 34 -13 38 -24 -44 22 -30 -19 -13 -8 8 14 1 25 14 42 -27 -3 -11 3 -49 -48 43 -5 12 36 11 28 22 -27 18 -10 11 34 14 -11 1 4 33 24 11 15 41 10 13 36 24 24 27 46 -41 -25 -20 -9 20 25 19 -22 -1 -47 -44 -39 -45 -42 -34 43 -6 -35 -30 -11 30 -36 -51 -1 -33 -12 -10 4 -20 40 13 -17 -22 -27 0 21 -12 24 -41 -30 -10 4 46 -40 17 -41 42 28 -47 10 -26 12 39 15 -46 -28 50 -40 7 -25 36 -49 2 23 -27 44 -6 1 -1 -16 -38 4 35 27 -2 -49 32 48 36
42 40 -34 28 -17 -3 13 -43 34 34 4 23 -44 -22 -5 -35 20 -24 -1 29 -19 29 47 -14 -17 51 -23 -39 2 -10 42 -4 -31 26 -23 28 -6 29 -38 -14 -1 5 33 31 -33 40 7 32 9 -20 51 43 14 -7 7 -38 -2 -12 45 42 12 -28 17 12 -26 6 11 8 -16 31 9 4 20 48 4 18 -3 51 46 -26 -1 -48 -11 43 46 -30 -36 -19 -29 33 49 11 -49 -35 -18 -20 37 52 29 -28 44 3 2 37 -16 -8 19 -4 -35 -25 -27 25 14 24 -34 -45 50 26 12 45 18 -2 8 -29 -32 3 -13 12 -10 -6 -2 -26 19 34 -37 26 -31 19 11 -7 -50 -45 33 -43 -32 -10 23 -25 12 -14 -41 1 -44 6 35 -27 43 35 8 -19 -34 13 -15 -7 2 35 -34 3 -43 -30 23 -30 32 17 -28 25 -48 33 -1 -13 40 20 51 -41 -43 -29 4 -2 -25 24 45 -12 47 27 -50 -43 -5 50 3 -29 -8 -39 -40 -11 -47 51 8 -12 11 -17 12 -47 2 7 -50 36 -11 11 -24 51 -45 37 44 14 18 8 -50 -46 -3 -15 51 -33 -16 -51 12 -23 -7 -32 38 23 -3 3 -46 19 22 6 -9 -18 8 -33 -37 -20 -22 11 26 51 38 6 -11 41 20 -38 -8 -46 25 -41 -11 -4 20 14 -9 -14 49 -32 29 -10 -6 -50 11 -9 46 30 -3 9 26 -13 -20 5 46 -14 27 4 -27 -11 -50 21 20 2 39 -5 0 -25 -34 -10 -42 15 -48 35 47 -43 -25 -37 44 -40 21 -47 43 13 -22 -3 8 -9 38 -44 40 12 -16 27 5 -7 -43 -43 -29 42 -51 21 -51 19 -16 -51 45 -4 -4 -11 42 -37 7 -42 37 -16 26 -16 4 -31 -7 45 19 34 -46 32 -44 -19 37 -25 -16 46 33 43 -7 19 29 22 0 8 -38 -29 18 -30 -39 12 18 -22 28 -49
7 -44 -35 24 48 4 10 30 -43 -20 29 17 -12 52 -72 -42 -17 -8 -12 40 17 28 53 34 30 -29 6 -25 44 -4 -13 14 37 34 53 31 56 -29 52 20 -39 -16 -24 19 42 -21 15 18 34 72 -23 -6 34 -6 18 -42 6 -10 26 -27 -12 -41 24 32 -26 43 -6 45 41 46 -34 -24 -2 -23 -36 22 -44 23 -18 -27 43 10 -15 23 27 -45 46 44 -51 -12 51 36 44 -39 41 -17 -12 -5 -26 1 23 -11 -41 -44 46 26 -41 -47 -1 11 -5 50 44 21 38 -6 -47 34 38 -36 -30 -35 -41 11 -15 -11 8 2 -30 2 -58 24 -34 1 -27 22 22 27 14 41 45 -8 60 42 59 12 -13 35 34 -50 -32 19 -11 -26 -23 -7 3 23 40 -59 33 -41 0 -17 -4 56 -7 -37 46 2 2 1 -59 -40 -8 4 45 -20 -21 39 -16 68 -38 8 -45 39 -16 -24 4 -28 65 19 49 72 36 -52 56 54 -39 54 1 18 31 -14 -23 -22 7 29 28 -6 40 -46 -12 29 -9 4 68 -54 33 41 -32 -24 -43 14 20 -4 -43 -30 21 6 -25 34 22 -11 -38 -28 -56 -25 6 -35 18 -34 38 -18 -55 -22 28 -39 2 -49 -47 16 -59 43 6 32 62 68 23 -62 44 -4 -15 47 16 14 57 6 11 18 17 56 14 -65 -45 -36 -65 -60 -44 11 -20 6 7 19 29 54 23 71 -53 -5 18 -51 -16 -3 40 39 49 24 6 58 9 -52 44 43 -24 60 10 -39 -31 59 -28 -4 24 37 -48 67 -54 8 36 -19 -15 20 -53 66 -34 -51 -53 -4 2 2 19 37 14 -19 10 7 -18 -3 36 39 -40 7 14 12 11 -22 22 52 -60 51 -33 -19 -9 71 6 -56 -57 48 37 29 -62 -38 4 -46 39 -8 -33 -67 -32 -19 17 21 -36 -6 -12 19 -44 20 26 -21 -25 -4 -31 -21
47 -25 -27 34 28 -30 21 -15 -56 -43 -42 51 39 40 -73 -21 -64 5 23 30 -34 -17 4 22 46 -33 5 -5 -35 40 -55 57 8 -28 1 -13 -49 17 -11 -99 -67 -47 -20 -8 51 -70 16 12 -37 13 1 -41 -9 -40 53 -30 2 8 -77 33 50 -22 36 26 -53 -15 -11 49 3 -57 -38 -83 -23 27 -10 26 -22 -44 24 -30 -4 36 -32 7 -16 1 -20 13 15 21 -1 -18 17 -20 -2 -4 54 43 54 -40 13 -30 -34 34 -1 21 38 -8 -35 -29 -16 -22 6 51 61 40 38 29 -17 -13 -6 46 -54 28 -17 -37 -17 22 25 1 7 -30 -25 21 16 30 -46 -82 49 -42 79 51 18 33 34 6 -18 40 48 -43 10 -46 11 -39 17 15 -25 79 2 -7 -20 15 31 44 -76 39 -61 -2 1 -17 -52 -13 -53 13 -7 -6 16 11 -41 12 20 23 -51 -5 47 23 25 -21 -33 60 44 -1 -16 28 4 -5 29 34 23 -38 20 49 -2 17 14 35 -61 7 46 1 39 -36 -35 -22 -36 16 2 30 -15 37 19 11 19 30 -25 46 28 33 23 -75 50 -76 -10 -8 -59 32 41 2 -56 52 -2 20 40 -23 51 -26 33 45 44 19 -15 27 -29 -20 15 -42 57 83 -40 -8 4 -11 -64 50 -36 -15 53 81 -25 53 -49 -5 -64 -24 -31 -25 34 -92 -43 -42 8 -10 -1 43 -79 7 -30 47 48 63 27 -37 2 48 -36 39 41 97 15 -64 41 -37 -34 13 19 82 90 -27 -1 13 -18 66 -93 -3 -49 -26 -6 26 89 30 6 66 0 33 -32 22 -58 -31 33 -24 -26 -16 -42 27 -38 -32 -16 73 -49 -27 -63 -33 34 5 56 68 33 44 -7 -5 -18 79 -48 34 38 -21 16 -5 103 8 -9 6 65 -22 31 -41 5 -80 17 6 -10 45 -38 3 4 -22 -29 -36 13 45 10 -70 -70 46
-4 31 -37 -5 10 17 -43 -68 28 74 7 -62 -11 -49 21 79 3 -21 19 25 5 26 -9 -23 3 24 36 -78 48 -32 -22 -31 -22 -74 -17 53 37 34 63 -20 35 37 -25 11 25 37 16 -44 21 -48 34 46 0 -20 88 3 -27 -36 5 -14 45 -44 -8 -18 -6 -44 49 3 -49 -44 -16 89 8 -13 -6 74 -52 -48 -54 -19 13 -53 -2 -23 12 46 -13 23 -35 -23 50 -38 -42 -8 -21 -26 -71 -20 10 1 -25 33 -19 -43 -59 74 37 34 25 -11 16 12 -13 -15 -9 43 -36 -25 -19 30 35 -17 -19 -40 9 -16 79 -7 -4 -64 25 -56 -27 -39 -5 7 68 28 -11 55 -28 37 29 25 -47 22 27 -10 -19 21 35 -19 44 69 18 -13 12 70 -22 16 30 86 -36 28 13 21 62 -36 -4 -41 26 -20 12 23 26 -17 -59 53 -53 41 -7 45 -22 15 -20 52 -21 42 55 66 57 -5 14 18 -49 -64 15 -29 6 -51 25 -15 -33 -45 56 -37 -66 62 -13 -13 -2 -29 15 26 32 36 32 -25 -10 1 32 26 21 72 79 -17 43 -63 31 31 -11 -19 37 -45 -38 -23 -81 -6 0 -19 43 -39 3 -10 -56 95 -6 -20 -61 49 48 -48 7 -50 10 5 -16 -56 50 -35 -28 -45 27 -9 8 57 1 1 -23 -66 -4 52 -35 39 52 -1 55 45 -18 -68 5 -12 -26 -50 -20 4 -37 27 -82 54 -76 20 -19 -10 -11 -43 -32 12 -26 73 -21 68 -44 5 -18 -61 24 -4 28 8 -32 -3 66 27 -22 -18 41 118 -68 21 31 -47 32 -22 66 15 -9 113 1 -15 20 -13 6 -64 19 17 13 22 8 74 -27 52 42 -14 -19 -8 -22 -3 -86 -24 10 -58 44 -35 -31 16 -36 -99 0 -79 106 -44 61 -66 -31 -86 16 -18 37 -38 19 59 47 28 22 -17 59 -19 44 71 -29 91 -25 -6
19 -47 13 -22 26 -46 -45 -36 18 -22 35 17 4 -39 47 29 39 26 -31 20 -40 -31 50 -34 38 -73 -26 -19 -14 28 -32 -31 -14 -11 39 -17 -35 -7 23 52 2 -18 9 8 54 -24 -43 -59 -37 9 35 34 -11 -4 -29 48 79 -35 -27 -6 -22 -50 54 -28 -5 -22 46 -50 5 -21 14 60 15 -7 -7 18 -76 26 -14 -44 34 -14 -38 71 -5 -10 -29 51 24 20 53 -14 -11 -31 15 -1 -21 -21 -8 -21 11 38 -3 -41 7 -49 -9 -53 62 -72 -35 -2 21 13 -33 21 -42 -18 -26 7 56 -40 -43 -63 43 42 -14 -4 -7 25 6 20 6 2 9 49 -42 46 51 93 -58 -56 13 -15 -11 71 79 51 -5 -20 29 -26 63 41 -9 8 20 49 40 45 -30 63 51 -27 6 46 71 -45 40 -53 -24 -54 -25 -1 11 56 -24 29 9 89 -46 -84 -30 33 -10 45 -11 12 15 30 28 99 23 -9 5 -7 -65 -2 -42 -73 32 6 36 -4 89 59 -1 6 -114 16 38 -87 23 -10 36 57 -64 -33 -55 -20 -52 -73 7 17 55 -18 -17 -17 50 18 -15 8 -7 -17 -32 -61 -81 -33 51 57 -21 53 59 -40 -11 54 18 37 5 0 -26 -39 -19 -23 -16 25 -20 -30 -7 81 -32 4 -30 46 -29 32 -53 31 38 6 -7 27 -36 -14 32 32 -94 -49 -85 73 -42 46 22 -33 4 -78 -117 39 68 -37 40 -125 -62 -117 57 42 28 21 -18 -6 -92 22 18 77 115 -2 14 -29 37 100 -29 -2 -23 -35 -36 50 46 -29 -73 4 -68 -7 -19 10 -7 -23 -89 67 3 -82 -39 38 -16 -23 -29 -39 -13 -41 -60 33 111 48 85 44 -122 -53 -110 28 -14 18 -10 -80 -71 86 45 -13 49 -30 -75 20 87 -57 56 33 37 12 -13 12 -15 -128 53 -30 -76 -4 -100 23 -74 30 -1 1 -82 83 62 -11
34 27 26 -10 65 4 -66 57 -30 41 38 -12 -35 -11 52 -30 -28 -17 -4 -40 -41 -76 44 -63 3 -38 -11 -7 24 -19 57 16 -61 -27 -24 29 -15 -22 7 -6 -28 -23 13 32 -9 -81 -32 16 -21 -19 28 23 -6 23 38 -28 28 -71 -47 52 0 42 -37 -5 26 -52 13 51 52 -40 -68 76 -35 72 21 52 19 31 50 38 39 -40 39 80 -24 9 -26 52 -17 0 10 33 -29 -10 63 -46 -62 -11 28 27 -4 -47 -61 31 -55 13 -49 -12 -21 -56 1 -67 29 4 -48 -16 -11 9 -74 -4 42 -3 -18 -32 47 46 61 -52 -41 -31 -52 -79 -52 -10 -25 -30 -19 -49 -31 1 -44 -66 -3 -23 27 -28 -37 47 -33 23 12 59 24 73 -21 23 -42 47 20 21 27 30 1 -32 -36 34 22 2 40 13 12 39 -33 2 58 -21 0 -2 4 -7 48 -76 23 -36 30 24 -64 32 5 10 62 -28 6 40 -33 27 -11 50 -8 -52 -36 12 3 32 31 -1 13 14 -5 9 -13 -56 51 31 -23 20 69 -24 -8 14 -40 -4 -33 61 25 1 6 -18 -7 -38 -28 32 14 43 40 -5 -22 -31 35 -18 15 32 41 -54 -14 -26 -15 -32 54 53 -3 0 58 -11 4 52 50 -128 55 94 -69 10 -20 97 -6 6 -52 59 -27 92 -94 -46 35 -60 -27 67 -73 -52 -72 46 -85 127 17 -108 7 -75 -126 14 43 -16 28 -108 -22 -60 107 24 -4 36 -43 -38 -40 -18 49 40 95 -107 50 38 6 25 -11 27 62 -89 -9 62 127 37 -25 17 -41 -65 -14 -4 16 -128 -93 -41 3 -80 -63 62 -88 -28 72 -61 85 -95 -32 121 127 -82 93 73 -125 -32 -66 -100 -1 -31 -45 12 -128 89 -56 54 -10 52 14 39 70 8 100 39 67 19 -77 -33 -72 -128 -1 -60 -6 -39 -58 -96 -115 -69 115 -34 -45 -13 104 57
-8 19 -1 -13 51 -10 8 31 11 -4 -51 -11 -36 51 75 22 9 38 -62 -36 -67 1 22 -67 -19 -34 -37 19 11 32 -17 28 32 -57 15 30 9 -58 8 12 -4 10 -15 91 33 -62 -71 4 -44 17 1 -40 -68 94 -24 -38 24 -11 28 35 39 52 -38 -4 4 22 71 22 55 -60 41 4 21 24 -52 61 -13 -43 -44 11 58 -11 -11 -2 29 -37 -13 39 6 -47 36 -12 -17 -11 16 -11 13 26 23 11 20 -19 24 62 -66 -18 -51 -7 64 -28 -27 14 -17 19 -22 46 54 20 18 -5 18 26 -4 -23 15 -22 77 -60 -48 -32 -38 -26 -68 36 39 26 22 27 16 -59 74 -68 1 -37 18 -31 -3 7 -16 69 -42 35 21 90 53 19 7 41 55 -59 44 -24 -65 10 -30 54 52 -47 14 -23 -34 14 -36 70 16 40 -21 46 -3 24 43 -46 0 59 -24 43 51 10 18 56 19 37 -23 -20 -65 62 -72 -27 -12 -8 44 10 -7 -6 49 -26 23 -11 -9 13 -25 -64 12 69 48 -71 55 -53 23 -18 29 -22 57 -16 -11 71 5 -18 -69 -16 -9 50 -20 -5 54 50 14 85 23 50 -35 -22 29 -63 -76 -23 50 75 49 31 -33 48 -30 -37 -50 35 65 -65 -11 97 -73 -59 -44 42 48 72 -37 -19 -62 -21 -43 8 3 -8 -19 32 -6 16 -79 22 -109 104 -7 -61 101 0 -113 74 66 3 -50 -33 -73 -74 72 -3 -28 39 -51 32 10 -1 80 65 32 -103 78 -18 -38 25 21 42 42 -6 -36 13 11 12 44 21 -61 -48 2 -67 -28 -64 -61 27 -7 -19 -86 -2 -30 58 34 -60 74 -33 18 122 97 -32 20 23 -128 -73 -39 -106 -16 -49 -67 -27 -101 83 16 35 39 82 8 21 127 -2 46 65 -1 -38 -95 -50 0 -23 72 -47 35 -20 -36 -52 -22 26 78 -100 5 0 94 72
62 -30 60 -5 63 -18 -45 -20 4 -38 2 2 4 54 6 -1 -35 -55 -19 -51 12 -9 -7 -77 -75 -61 32 -2 26 -4 -43 72 -35 36 9 -17 -15 -47 -40 -38 -41 -4 48 40 43 -55 10 4 11 -67 -20 -8 -7 65 -1 -14 8 1 49 -19 25 1 -59 -59 18 -6 8 44 6 -21 -14 8 -16 -47 -56 22 -49 -15 -42 -20 -3 24 -39 12 -39 0 -49 28 -14 37 -62 46 47 20 -40 48 1 45 9 2 51 -7 27 52 49 3 -41 12 -3 -82 19 -23 17 -39 54 -3 38 28 47 -79 -49 -2 8 8 44 -34 1 -7 -38 -21 18 -57 -36 36 -19 -25 -6 24 31 25 -1 -23 -17 49 18 -16 44 -11 -32 -28 -20 93 47 38 -40 24 -25 45 56 -31 39 21 -33 37 67 -13 11 -16 42 17 12 -10 -86 -24 11 44 19 -4 -4 38 29 -77 1 30 40 -24 -8 -15 3 -30 56 -20 48 23 42 -17 -60 -55 -66 40 8 -13 21 -58 -20 54 -7 -5 -29 30 -25 15 -46 36 62 -4 -3 -76 5 -27 -1 35 12 -7 41 37 54 -64 -44 -17 -16 -39 -18 72 33 -73 -16 18 39 -15 10 33 -32 58 -28 -38 35 58 -13 40 7 50 -40 38 5 -6 30 -81 -62 86 -28 -57 -26 -30 18 87 -99 48 -71 22 3 -5 62 -6 60 7 -63 24 -72 60 -68 122 -86 -79 127 -68 -119 -28 49 -37 10 -48 -8 -73 56 58 -10 -10 -35 14 -32 -48 81 127 40 -69 35 60 10 -65 7 -14 6 -13 -22 39 86 45 31 -7 -65 -58 -40 -45 -50 -108 -96 34 -33 -42 -104 76 -88 30 63 -63 109 -75 5 60 78 -98 -5 38 -128 -35 -19 -95 28 -37 -67 19 -37 98 -62 115 24 101 2 25 105 3 11 59 38 -23 -38 39 -34 -20 -8 -33 -46 -98 2 -84 -67 -43 -6 -51 -38 11 71 32
25 -41 -22 27 78 -63 27 20 -8 -15 -52 62 -4 14 -1 -23 -10 -14 19 -71 -23 -43 17 -14 -29 -4 -22 49 11 36 8 24 29 -3 2 -1 -13 7 -28 -13 3 -42 61 -15 -8 30 -15 38 40 -45 8 7 -33 38 16 18 -30 21 4 21 -55 -26 29 -65 25 -16 16 28 11 -41 -39 10 -39 -39 1 -1 -59 26 -7 -21 51 -45 71 -4 45 23 -74 -24 -28 7 27 -18 60 40 -31 52 -42 -37 -63 2 -18 -2 -53 39 -37 25 -72 13 -45 15 0 -21 43 -22 23 7 47 6 -23 -38 -54 -20 27 -3 -15 18 42 -81 -63 -18 28 21 -16 44 63 14 -44 -42 28 -1 37 41 -18 29 41 51 -9 16 -9 -24 29 37 -39 64 -17 22 -27 5 -37 6 9 -52 -85 -13 41 35 58 -30 -32 -50 41 -39 -6 15 32 27 26 17 8 -7 -33 -67 68 -3 4 -17 -29 -25 -30 -43 -19 45 29 15 -10 33 15 -57 -42 8 51 -45 -6 -77 41 75 5 -58 -13 34 20 7 28 10 64 -22 -14 8 2 17 -63 49 1 -32 8 -18 11 24 13 11 78 -42 -4 35 72 11 -12 12 5 77 27 84 -1 -37 -45 8 -36 41 -1 52 -32 -36 -2 -13 4 -23 -6 -93 -62 15 -48 -20 -49 -27 -47 93 -46 -12 -95 19 42 15 56 -13 -36 -19 -32 -16 -17 55 -13 103 -20 -65 105 -79 -92 -3 35 -42 6 -65 47 -20 59 55 -75 -3 12 49 -64 26 104 114 113 -28 -10 120 38 21 20 -45 38 10 22 34 107 -20 11 -5 -15 -117 -52 -99 49 -104 -13 24 -39 -85 -28 10 -43 44 90 -34 55 -87 38 102 90 -60 34 41 -128 -6 8 -109 50 -19 -69 -63 -118 75 -32 26 -21 49 -102 10 63 7 82 95 -68 -19 -72 -34 -62 -48 3 -86 -34 -39 -42 -57 24 -41 37 -111 0 -3 60 12
62 42 30 52 60 -63 -18 -20 5 -41 22 36 -86 21 -11 48 13 -75 24 -73 25 -20 -4 -39 -84 3 40 7 60 58 -9 45 -53 -12 19 48 -37 36 -31 -38 81 0 66 18 14 22 14 17 -4 15 23 -76 69 39 -23 -24 -21 0 8 -30 -32 19 22 79 -12 32 6 -12 41 10 17 47 10 45 -28 -16 -60 -8 -23 21 64 19 29 3 -16 -32 4 24 6 55 24 75 3 -46 -13 17 -50 -12 -40 -21 33 3 -22 21 23 21 -51 -40 50 -6 2 16 -29 41 -58 -49 22 -37 -8 -86 30 -1 -6 -11 -7 -29 -44 -42 -28 49 33 -12 -78 -9 28 -11 49 38 -5 33 50 -53 -20 43 22 -25 12 -16 -25 -53 45 77 40 48 -34 -71 -84 -37 29 -14 20 47 19 -49 20 -11 -30 22 2 35 -6 -39 -55 -32 12 30 0 -8 -45 50 -7 -18 -14 50 -45 32 -63 -4 44 -35 62 -41 21 -14 61 -24 -22 13 -11 -59 -22 17 -16 -67 14 31 32 -20 -61 -38 2 2 -2 69 51 -51 29 -43 66 -46 -21 48 17 -20 39 -34 36 21 -40 52 9 -35 -10 42 39 -25 31 28 5 51 1 61 -48 -10 -35 -27 -9 -17 -61 -9 -13 -33 -32 -5 22 31 53 -97 -29 12 -47 28 2 -2 17 104 -65 11 -107 23 -21 36 106 42 36 -11 -32 44 -85 21 -21 18 -13 12 126 -87 -70 -65 -59 -11 -31 -101 95 34 13 19 -11 -58 -13 -4 -128 -30 113 60 49 -79 -78 74 -34 -53 -29 26 47 -55 4 -40 42 17 -79 -46 -28 -71 -71 -41 -7 -108 -61 32 26 -80 -87 97 -103 9 39 -22 117 -48 82 74 33 -64 25 59 -104 -93 -6 -49 -1 17 -79 -57 -86 68 -63 60 -30 71 -14 10 42 4 44 35 -3 11 -96 16 -64 -90 52 -128 13 -64 19 -6 26 15 77 -83 -65 53 58 18
17 19 27 89 9 -27 6 41 6 20 21 -23 -36 -7 -37 18 -1 -53 -13 -4 -22 -6 -18 9 -49 -46 -52 7 49 30 -44 -8 -49 -18 20 -12 -65 63 -50 76 63 -35 -48 -9 37 -36 24 -30 38 -21 6 -54 -7 82 -39 -82 56 -4 27 -44 -3 6 -5 65 -71 -18 33 28 40 79 68 34 -47 17 55 28 -40 32 79 38 -20 -38 -21 -22 -45 1 -69 -39 41 11 -43 82 55 -85 -32 -18 -14 -15 -23 67 36 -15 -18 -17 60 -68 -17 74 86 -25 -47 -24 -59 -41 -29 -13 5 -31 38 -44 67 44 -14 7 -16 0 -48 -38 -6 47 -42 -27 -67 -5 42 19 18 53 15 -41 53 -50 22 -9 1 8 33 70 6 7 33 53 -35 59 20 -21 -40 -23 -51 -20 46 41 13 -64 -16 10 -2 -31 -17 33 -33 -52 -13 -43 43 -10 18 -28 -27 54 55 -4 -22 4 2 -4 -47 54 80 21 -36 -46 -35 -34 15 -80 42 11 -38 -39 41 40 32 10 29 39 -7 20 4 16 -46 -35 -26 42 21 10 -27 -44 6 -60 15 -29 5 -76 1 1 25 -7 38 -41 42 -42 -47 22 30 -43 -86 -7 41 24 -14 46 -63 -2 8 75 21 25 -82 28 -33 10 -17 51 -35 42 62 -64 -13 -17 -84 15 17 24 4 87 -128 7 -82 -20 9 29 127 70 47 49 -51 -6 -70 4 -48 7 -52 63 127 -115 45 -117 -56 -88 -15 -34 85 20 15 27 -72 -100 -41 40 -128 -65 54 127 28 -96 -94 92 -3 -60 62 -11 -12 -66 84 -58 27 -15 -62 -33 -54 -119 6 -91 26 -90 -61 -1 -6 -84 -101 54 -110 -11 84 -100 88 -17 18 127 62 -41 32 35 -101 -41 -20 -61 41 -25 -41 -27 -21 70 -50 43 5 83 -119 86 52 -66 73 74 19 9 -79 25 -51 -92 -7 -128 -5 -75 2 -73 49 -2 49 -74 -6 -5 99 -50
47 -32 37 -15 51 -3 -6 -4 21 50 -32 -38 -30 12 -7 -55 10 2 -21 25 29 15 15 -5 -41 -63 -46 2 33 -6 21 -47 40 6 55 23 -7 75 -33 15 30 10 -29 -20 47 45 -27 -47 -14 -52 24 -112 45 -2 -33 28 9 -45 39 -63 61 4 -20 42 1 72 -17 -23 20 85 27 -7 -38 6 26 26 34 -54 -25 42 -18 -18 10 8 4 -72 48 60 66 -18 -42 -3 56 -12 -8 -4 8 42 41 2 -70 44 7 -20 44 -52 -7 -12 23 -20 -46 -34 -23 1 -27 -36 -41 27 69 32 1 39 -33 -4 -26 28 -56 44 -57 -49 -35 -54 24 8 40 16 29 63 10 -18 47 -25 -60 48 -17 58 -47 20 -31 -3 29 25 58 42 49 -17 2 -13 -50 -22 21 45 -22 28 36 -7 4 -10 36 -53 -11 4 -2 -48 29 -44 10 24 -19 56 -34 -61 -6 -18 -33 34 24 30 -34 -34 -18 1 36 -37 -5 -35 -31 -72 10 -32 43 20 4 -28 26 50 52 56 -20 -39 -68 29 40 19 -34 23 -69 8 35 -32 -59 -18 -2 -99 71 -7 77 5 52 18 24 -1 -67 -2 46 -59 11 -44 67 18 -40 14 -22 -22 65 10 36 -15 -69 27 1 -37 27 -13 57 62 35 -113 -37 -72 -38 33 70 -77 17 90 -128 30 -52 -100 11 27 45 54 12 17 -35 25 21 40 106 -13 -1 36 119 -57 23 -128 -30 -128 21 24 72 97 -26 75 -71 -81 39 83 -119 -87 59 127 -22 -54 -79 127 81 -61 37 31 -7 3 45 20 83 -24 -99 -90 -20 -128 -81 -84 -37 -104 -15 -37 2 -31 -94 43 -85 -44 110 77 127 58 19 81 -4 -7 22 9 7 -102 50 -67 -46 5 -35 28 30 119 -36 66 -107 44 -92 94 7 -70 70 117 -43 -26 -6 101 -30 -20 10 -128 -30 -34 12 30 37 4 13 -119 60 51 36 -107
49 52 6 16 61 38 -41 20 4 -8 31 1 12 -5 64 5 12 16 -27 -7 5 8 -18 -10 8 -11 -30 42 53 -12 54 4 34 -47 24 -50 -6 -32 -50 72 31 -23 45 -20 -17 -4 10 33 -20 -14 -35 -60 -16 -7 -15 40 60 7 69 -3 2 39 1 -23 35 36 31 10 -57 55 12 9 -40 39 20 27 0 -19 -43 50 -1 32 -43 -16 12 19 -23 -51 34 -69 27 35 38 51 8 -11 -21 4 -4 30 -30 -27 -32 -36 34 -12 9 -21 -16 40 -40 26 -55 -33 -20 -47 -39 -11 64 25 53 -4 -25 -44 40 -10 -5 -27 -44 -13 -5 -8 -43 -34 25 45 32 9 25 -17 -46 -15 -15 -34 1 31 -57 -35 20 -57 36 -21 18 57 -14 -38 19 -17 30 -41 29 38 48 34 36 -36 48 11 24 13 76 -31 40 -13 -35 32 -14 -23 -4 55 -18 -43 2 1 -18 17 -70 -6 56 -60 7 -6 -46 -25 21 30 31 11 39 17 46 24 -41 -54 -3 34 8 63 -28 -14 -13 2 9 37 39 15 -60 1 21 -52 35 20 59 26 19 -27 3 -56 -12 28 18 -42 -73 -7 -13 -23 -53 34 62 21 14 9 -7 -28 -14 68 -23 -67 -53 58 4 39 38 50 36 -23 -31 -47 32 -126 -82 54 76 -94 -23 65 -128 -20 -8 -91 115 15 66 2 44 -53 73 96 -31 14 81 -76 -14 58 63 -103 120 -77 -90 -68 1 79 100 119 -52 -40 -19 -63 29 72 -116 4 38 95 -128 13 -32 61 52 24 74 104 -97 -23 -29 -15 -18 -16 -42 -35 -17 -82 -13 18 -11 2 36 -26 36 -44 -15 -59 -6 -60 70 72 51 60 -1 42 -32 39 -95 -35 91 5 48 -20 -21 61 -16 -69 29 12 -35 21 -69 1 -78 63 -97 -37 -11 25 -93 12 -22 86 -99 29 -24 -122 5 -12 18 46 36 5 -19 50 13 -33 -52 -62
2 -5 -14 -35 -21 48 -3 2 2 -27 -4 -55 -54 -9 44 -1 -58 12 -41 41 57 -12 -12 -19 -1 30 26 -9 -17 52 33 -11 -18 40 -33 -38 -34 -6 -28 46 -29 29 -48 7 15 26 8 4 1 -24 5 38 8 -35 -13 56 29 34 -8 -31 -11 -55 -6 -39 39 -11 -32 32 2 -11 -6 -1 30 -5 -48 -7 -40 15 -12 30 -9 -3 -36 -52 9 15 31 10 0 -17 69 29 44 58 66 55 24 -9 -23 -7 10 17 30 -2 -21 -25 -26 5 -32 46 -31 26 -2 5 -51 35 -33 24 77 62 46 -30 -33 58 0 -11 -3 -28 20 12 63 7 -86 4 -13 -8 -35 35 0 52 15 14 -67 -41 2 65 4 -19 -15 -6 46 34 16 -13 -8 -36 17 -36 -37 13 -56 -36 -23 8 32 24 -2 -20 66 42 70 -18 14 25 17 3 -36 24 27 80 25 3 -37 -1 -22 7 -29 39 -43 -18 -11 -49 -14 -49 -29 -39 -38 -86 -85 -42 20 38 -81 -5 29 13 25 15 -39 36 13 5 -14 33 44 35 -67 -16 58 -51 10 -16 16 -26 -22 7 -38 -19 -10 -33 -41 4 -44 -10 6 16 -51 17 44 49 -14 -6 -37 -32 -21 29 -3 -45 -6 -13 50 6 29 0 64 22 -69 56 27 -88 -27 -40 52 -73 58 110 4 -128 39 -34 47 74 -38 7 12 -128 92 43 22 -83 64 -105 45 11 89 -48 127 -128 -45 -40 -56 73 89 109 -105 -39 11 -4 40 -24 -56 -51 -25 10 -126 35 -9 37 63 54 96 69 -35 77 -111 11 -97 14 12 -29 -19 46 -44 105 64 108 57 -61 10 -87 65 -73 85 -20 -6 60 33 52 28 -73 -56 58 -128 -127 127 58 66 -46 27 19 105 -94 98 70 3 -15 -18 -62 -70 -1 -128 -48 -101 81 -101 26 66 36 -45 114 -41 -88 23 22 66 50 105 -28 -87 81 42 13 -125 -80
-28 -25 -62 16 44 0 19 -52 -33 -99 30 -27 27 -50 -38 24 -54 -5 -41 -6 34 56 -6 -14 18 -36 43 77 70 -9 22 -9 12 7 17 29 56 -21 9 -10 -16 -82 -7 -78 -61 -9 -14 -38 33 -44 32 -16 -47 19 -67 23 -43 59 -31 -35 36 25 -36 0 16 -42 -48 -1 -42 71 42 76 -3 -5 51 25 -18 -71 44 -54 -2 -43 -15 22 -21 34 38 -33 46 -36 56 80 36 -12 69 21 36 -1 -1 6 3 -3 -4 38 -1 -65 13 44 -63 -25 40 66 21 -1 -33 -53 -26 44 51 37 6 9 26 69 -14 -9 -17 19 -43 49 -37 19 29 26 -3 -13 -39 23 -10 51 33 -57 14 42 -23 -29 31 -3 -12 -88 18 -36 2 22 39 -14 -10 -27 12 41 40 -37 55 -38 -47 -8 47 18 19 40 61 -53 83 -29 11 33 6 34 -28 7 -40 24 15 -15 -54 34 -55 11 18 -37 3 14 -44 -5 -13 -31 4 -13 -64 25 -7 -43 0 5 54 8 -7 4 -21 73 0 36 66 16 0 42 -8 -23 21 -4 -63 -1 24 -51 19 -60 -25 -49 36 4 -29 -34 -70 36 65 -68 -62 40 63 8 30 -28 -35 -30 48 1 -12 22 -13 2 58 -9 -7 18 37 -22 -51 -34 -1 39 -94 -67 98 -94 -5 84 104 -90 -49 -72 -16 9 -90 41 82 -128 51 78 83 -105 45 -50 57 5 41 -33 39 27 -101 -36 -82 39 27 108 -72 -94 -13 -5 107 8 79 25 -109 -31 -128 65 -47 -48 -35 -5 68 79 -34 102 -103 27 -128 -29 -2 -22 -68 2 -128 6 21 113 97 14 62 -100 60 -128 -3 -24 -61 86 -30 91 52 -87 -38 124 -83 -128 111 -19 41 -19 -66 103 87 -79 115 -9 -23 16 -49 -107 -22 -56 -57 63 -5 70 -78 -67 82 64 -43 40 -6 22 25 -13 113 5 6 -37 -27 127 11 21 -102 -82
4 15 -44 -41 -43 -23 -24 -46 46 -47 17 -50 30 24 10 -45 -1 6 29 30 37 10 -41 -10 87 -57 36 8 34 -58 1 14 14 -43 14 14 48 13 -53 -32 -13 43 24 35 5 -29 3 -43 22 44 -3 -45 23 -21 -45 -28 49 32 28 6 67 46 -60 -16 -9 -43 -45 -5 13 21 -15 -17 23 16 30 -20 -33 23 40 20 -14 -27 42 -11 -25 32 -6 52 6 -66 14 30 28 -26 23 78 -3 20 41 -6 -11 -13 -56 23 -15 -53 45 -10 40 -19 -18 19 12 -38 35 -29 -21 -10 1 86 -53 -3 7 81 31 46 14 7 17 -9 57 -20 25 -1 68 38 -42 43 -25 7 20 15 25 54 -4 -32 64 44 -5 -36 14 13 -30 16 -48 -5 -42 20 15 -44 33 12 21 -22 35 8 -23 1 -8 -3 -35 -39 26 13 14 38 12 -15 -24 -6 12 5 18 53 14 58 -39 59 38 -27 -32 40 5 -44 12 13 38 -57 -45 -25 46 -56 -23 12 9 -18 -28 31 -41 40 -9 -40 47 10 -25 -8 -58 40 44 -40 31 4 68 -44 -52 29 3 -32 45 -63 7 30 23 3 1 -27 5 -18 -5 -13 54 12 -45 33 -44 -20 -18 -9 7 43 -18 -43 -40 14 3 42 -113 -45 -23 35 -92 -27 -20 -93 69 105 36 -35 -39 -11 -60 71 -47 87 53 14 3 49 106 -106 89 -38 24 -35 -17 -43 -18 -19 -128 26 -69 17 39 62 24 -46 -73 52 76 20 -7 -2 -64 -94 -97 -13 26 -5 -3 -19 1 21 -5 109 -128 -46 -112 122 -48 -14 -20 -24 -51 -68 19 41 -21 65 -13 -50 49 -39 60 -60 -42 49 -1 105 79 23 50 79 25 -21 29 34 16 -85 -119 91 20 -60 -9 44 14 63 -40 -81 20 -32 19 51 34 -19 -119 -106 -80 41 8 -22 39 75 88 35 26 43 -21 -54 42 78 -12 85 -28 -81
-24 -37 13 38 17 22 -26 48 -21 -51 53 19 -48 1 -42 -76 -18 21 -14 24 50 -4 9 -46 84 -50 54 45 14 -58 22 -9 7 9 -9 -7 -36 -12 -35 54 11 -2 9 -58 39 19 -29 1 24 -16 80 49 45 58 6 41 -13 -40 -53 -49 -47 9 -1 -23 -38 -2 -15 -7 -3 -17 17 50 -14 -38 -8 -15 21 -24 76 3 10 -9 -53 -6 26 56 0 47 31 29 42 52 6 -71 56 -34 18 -10 46 6 12 -30 -23 -23 -22 -20 42 18 32 -32 -15 7 -31 -3 3 -41 27 26 -31 56 69 -42 -6 -23 49 13 0 20 -71 40 30 -37 -7 -51 -7 -17 49 1 61 48 -21 -51 -39 30 0 15 23 -10 49 50 0 -29 -15 3 -11 -22 -44 -26 36 24 41 -20 56 29 4 33 44 29 -34 -8 0 36 67 -30 68 0 -70 -11 2 30 -28 22 8 18 -44 -33 -36 67 -27 14 -32 48 16 30 -41 59 6 8 52 -38 -45 -13 -32 -20 45 -7 -57 31 -2 13 32 22 23 6 -27 -21 -43 -19 -52 -50 -20 47 61 29 32 10 28 46 30 20 -2 41 6 -10 -35 -31 -31 -12 7 -5 56 6 -39 32 38 -38 -23 -16 18 43 46 21 49 -34 22 68 -2 -67 -9 -53 3 -10 -15 -52 40 67 -19 -43 -71 -21 32 68 -12 65 63 -19 -28 19 34 -6 75 -40 -120 -29 65 8 8 51 -89 39 -81 16 29 -1 27 9 -82 -55 7 127 44 -36 -59 -24 36 -57 -30 62 -18 -7 -22 -28 121 88 -38 -26 15 83 -57 -44 -67 -32 -46 -94 -32 -61 -42 34 -37 -8 -59 -51 -6 -30 33 65 79 80 114 80 -7 38 -6 -37 -45 -41 94 -107 -112 22 5 -37 -26 6 42 8 -61 -36 0 -20 1 -76 30 -85 -81 -52 -128 45 -26 -30 19 -9 37 14 -29 -34 45 10 32 7 -36 113 -20 -6
-47 -77 -17 52 6 -10 -16 -30 19 33 3 -8 3 32 15 -31 24 61 35 -5 38 14 -22 -35 -35 -11 47 57 -24 -30 38 -33 -6 13 -4 3 -72 1 -29 20 16 -22 -15 8 58 63 31 13 21 11 31 -17 74 5 -29 42 -28 -66 -51 -10 32 -8 62 50 2 50 13 27 -45 76 1 -11 -21 29 -46 3 -3 29 24 26 -36 -23 -4 -57 -1 43 22 10 -35 28 50 -18 25 -24 54 -23 -5 -5 19 42 6 12 10 1 24 31 -36 44 -35 23 2 35 4 -36 -17 18 28 -5 3 -15 41 -37 44 -52 -14 -73 15 -14 -17 -18 26 -1 -60 35 -2 23 49 25 -46 13 5 11 -57 -10 17 18 -7 -38 39 12 -28 -1 15 -17 -20 -48 33 -53 32 -21 52 19 13 30 42 41 40 -71 -17 -22 5 -3 22 8 -17 54 -52 1 -42 21 -16 -24 15 -28 32 39 -32 42 15 24 18 55 -9 -33 11 59 -9 -51 -50 -3 -23 14 36 0 24 -29 -72 41 -52 -26 -41 25 -6 -37 -37 38 -2 -28 -25 -70 -36 14 1 -5 29 -2 -16 26 38 -17 -16 14 -27 18 -22 21 -56 -7 25 -2 -29 -24 -5 5 -16 -17 5 50 19 -32 -26 -13 -21 56 33 -34 0 31 -56 -36 -13 12 -53 29 31 6 18 55 -101 -70 -49 -12 -56 -19 -5 56 -7 29 -7 -34 46 44 -54 6 -46 16 -35 20 -26 -2 -55 -7 5 13 18 2 -61 -2 -39 99 -26 -24 41 42 66 -79 28 13 -44 -80 10 -29 24 55 -24 -62 -10 74 -61 -52 -66 -70 51 -125 -47 -81 -23 25 -26 -18 8 64 -15 -2 84 -40 31 19 117 85 49 -25 66 21 -52 -49 30 -47 -110 -23 -19 80 -101 -17 89 -30 -98 -70 -28 -68 76 -30 50 -95 -58 -70 -53 6 -19 -93 40 4 111 -22 -18 -29 0 -35 97 -17 36 69 34 41
73 -10 22 -28 48 9 12 -49 -27 30 5 -18 42 43 -49 81 13 -27 -48 -1 3 50 -21 -3 13 -68 5 16 65 -53 72 -41 -11 -42 11 -19 -17 16 -21 72 30 30 -4 -28 66 20 -48 -52 -48 48 22 45 34 44 -35 43 -34 -58 28 -66 -59 -16 6 27 -4 2 -2 -26 -43 -11 36 -24 -14 74 54 13 -4 -40 18 -22 -23 -7 4 12 -36 -33 -36 -57 -37 5 -6 -20 18 -56 9 36 -37 62 -19 18 9 -7 69 -30 34 11 -22 9 -15 26 -39 -1 -17 -8 4 -23 48 11 -53 17 -17 0 -6 -26 2 -6 29 -12 -28 -56 -15 17 26 9 4 78 -19 -50 4 21 35 11 26 -25 -64 -31 55 -17 30 18 1 -28 45 40 -35 5 39 -35 -47 -32 8 -58 -16 -26 2 72 -1 -9 37 7 -14 -64 13 39 -39 20 41 73 -9 -78 -21 13 39 -8 20 -27 -20 -19 56 51 21 43 -86 -28 -67 52 41 24 45 2 15 -36 45 -12 48 10 36 -13 51 -42 -32 -63 -1 -8 34 24 3 13 -15 -52 25 -14 -30 2 0 -2 47 -12 13 -19 -61 0 3 21 -24 -7 5 42 -13 50 8 27 58 -7 -60 26 0 58 57 -7 -47 -5 1 -13 -24 53 1 -8 -52 20 89 -5 -64 82 29 -43 47 66 -66 44 -34 60 31 12 -41 68 -8 -59 -62 31 -69 83 -19 7 -49 61 -68 53 8 -30 15 25 -20 47 70 25 -55 30 -91 67 53 39 -31 -6 112 -94 17 1 -54 -19 11 9 77 -10 22 -81 22 67 -30 -43 3 -21 -3 -37 -3 1 -52 73 23 -40 -63 6 -43 45 68 -31 26 -43 50 89 5 -26 54 85 1 -2 -22 -26 -58 56 -109 18 -56 -57 22 20 -56 24 54 -39 8 49 -11 -110 -46 6 -20 18 68 -51 21 77 76 -17 -35 -92 -1 13 68 6 -30 36 -22 25
38 39 -33 53 46 -7 50 -36 9 -19 44 7 43 -16 13 6 71 13 18 76 -15 -9 -36 63 -9 -60 -72 3 76 -30 85 -27 14 -49 2 8 11 -25 -76 63 -16 -5 -67 -13 -22 28 50 -51 -48 10 44 23 31 57 45 74 -49 -37 -19 -75 -1 -8 -17 47 89 -52 48 23 -37 7 -11 -1 -55 46 -41 -41 -35 -33 -41 -70 -27 1 -33 7 15 40 -4 -23 -26 -14 -2 2 -26 21 31 -26 -62 -4 0 -5 -8 -52 1 -62 51 2 -26 43 74 -10 -33 -18 25 9 -45 -59 -25 31 -10 -10 -13 -17 2 -42 35 71 13 -7 -27 7 -45 -13 -72 49 -2 44 15 -61 -1 -10 -22 8 -22 -86 -39 -9 34 -30 4 -6 13 -25 -11 41 66 19 -23 -48 2 -32 10 -18 46 32 -41 81 51 25 -16 12 -8 -73 -47 6 32 -19 -10 66 58 20 -49 -53 32 11 3 60 -31 -2 -32 48 -20 26 -10 8 -106 7 16 15 -1 -11 -7 -35 -1 -37 41 -28 64 75 -1 2 -37 -44 -60 44 16 80 -43 79 -44 -34 76 -6 12 27 37 -1 -2 31 -2 -42 -31 47 -29 -44 -18 -18 -15 25 -52 -67 9 35 26 35 -21 -15 -9 14 57 -22 5 46 -35 -21 9 30 25 21 -39 67 45 -7 -64 -6 -41 -8 30 64 -46 14 -91 -31 44 -14 -48 49 39 -61 10 -52 -16 6 -97 24 10 -21 -91 104 14 32 21 -39 20 11 49 42 18 20 -70 32 24 -23 -3 43 80 -75 58 33 -88 0 -18 5 1 -15 53 -36 16 61 29 -42 1 11 -49 -95 26 -106 -28 56 8 2 -43 9 -39 18 65 -29 8 70 94 25 77 -91 65 21 -22 -11 -45 -4 -42 -15 6 84 -71 7 68 -2 -19 8 49 -3 79 -31 97 -98 -8 -2 -25 -21 48 -32 57 79 13 -8 -3 -22 13 16 102 35 11 -49 -59 39
23 -9 9 32 28 -77 -16 -25 -6 8 -8 36 -11 -64 -20 17 6 15 -17 -19 8 15 -27 40 -8 26 34 -38 52 -28 0 -54 21 3 -11 -3 43 -21 -73 29 9 28 -50 -29 36 -74 -1 -23 12 -37 5 -44 22 -17 72 9 11 38 3 -41 -38 -42 -1 7 47 -53 53 -16 -3 38 -4 -18 0 -6 -1 -26 14 34 -13 18 -22 32 27 18 55 -33 0 6 1 -15 23 3 10 25 -40 -18 0 -22 -11 -3 9 0 -38 -95 17 -24 1 -10 33 -44 -19 -37 43 53 13 23 21 14 -10 64 -8 -6 -19 24 21 34 40 -2 64 28 20 -9 -4 19 61 20 49 7 11 15 -8 77 69 -53 -5 -53 22 -22 -24 43 59 0 -59 31 76 -18 38 -2 -59 -31 -46 4 -32 -34 -34 25 3 30 -28 -4 33 -31 8 14 -11 -63 -41 -10 -12 -26 -4 -17 32 23 63 -47 19 16 1 15 -5 -37 -35 -38 6 14 4 26 51 -12 -24 22 -28 -29 -4 -7 43 53 15 7 -57 28 28 -32 44 55 -28 46 -31 -4 19 25 -12 -16 7 -43 -69 -38 32 -40 26 -20 -38 -36 -25 20 -84 4 -48 9 25 8 28 28 31 -12 -5 -29 29 -47 12 59 23 -2 -44 32 20 -22 -89 2 59 4 -109 28 15 3 -3 90 3 -37 -55 -9 56 22 35 -24 -17 -62 -40 50 -26 32 -32 -47 17 51 -68 11 -23 -33 22 -74 -7 -21 44 73 -31 62 19 25 22 32 33 -33 -11 -17 -10 -8 -103 -89 9 30 36 -35 74 -4 11 29 11 2 12 -1 36 -101 -19 -17 -80 -25 21 48 -67 -20 -57 34 82 -51 72 0 5 12 53 -83 33 -13 -78 82 -1 24 -29 -15 -28 44 -57 28 -16 44 15 28 41 53 7 -67 45 -58 51 -84 -21 32 32 -14 2 19 83 -10 -7 -34 12 78 65 -43 -69 -21 -28 11
-16 2 30 45 19 10 -36 -84 -32 -19 54 -18 27 -70 -34 24 -43 -43 -35 47 -23 50 3 36 11 -6 -32 -10 41 10 22 -45 13 26 -56 58 -1 -7 -44 27 -20 39 -10 -96 -33 -28 24 -19 -14 -10 28 -46 -58 -15 15 -1 -102 -35 47 -10 -23 -10 22 59 -25 23 0 0 50 21 22 5 52 20 -18 11 -38 -2 8 -70 -58 12 36 66 52 -80 -41 -31 -5 59 -34 -43 -21 55 23 -42 -10 -52 13 -25 21 -65 15 -24 68 19 71 2 29 -29 6 20 64 84 35 0 24 0 -79 35 8 6 26 5 20 47 -7 -79 87 -14 9 -58 -53 2 13 31 47 60 -73 52 21 53 49 6 6 -43 -10 -10 -26 -12 39 -6 -15 -16 -31 1 22 -38 -63 -52 8 -11 -34 -32 26 -22 54 -36 63 -3 -9 35 12 65 32 -13 -41 -35 -19 5 47 -48 36 -12 74 -9 -50 -27 -48 12 -41 12 24 -70 10 -41 -16 9 -19 43 -61 44 43 -13 -25 -2 50 12 53 -1 54 23 -52 -64 4 11 27 95 4 -5 5 42 18 46 28 50 -41 43 21 28 4 29 23 -30 -19 31 -17 3 -40 -1 -5 23 -33 9 2 24 26 -18 2 -64 -13 -22 -47 -9 -52 -45 97 -58 -116 86 80 36 -8 10 -7 -21 65 47 -56 21 -34 -94 17 -26 -37 -27 -84 -5 15 -34 -66 73 -71 -36 -35 34 -73 13 -41 -32 -21 -25 32 -31 1 77 16 81 -15 10 23 -46 -7 28 -31 -55 61 42 -49 -84 5 -24 -24 -82 101 73 -28 -50 82 82 -22 -46 -3 -83 69 -9 -45 -21 36 47 -77 -56 -54 115 25 -86 60 22 41 -20 52 -72 -41 -10 -79 30 7 -13 39 -49 -37 100 -16 -40 16 60 9 75 8 31 23 24 -22 -24 33 -18 -6 47 -43 -22 84 -2 39 -79 62 -64 1 -8 68 -12 27 -101 35 -10
-2 -8 30 -37 -28 -49 -7 -37 -28 -33 27 -40 5 41 -14 -11 -12 -59 36 -29 22 -15 -12 -4 59 -35 -47 -9 11 20 3 39 -31 -34 -14 -23 55 -55 -29 -19 -20 18 -36 39 4 -29 19 4 35 15 -11 -46 -4 52 -18 0 -48 37 -7 42 44 39 -21 5 42 37 -26 63 21 5 35 1 44 -47 19 62 25 32 -5 -92 -8 -33 33 -62 23 -1 3 47 -15 -45 27 88 66 -50 -44 -17 -64 3 42 27 25 14 -10 12 -30 -10 -32 10 29 25 43 4 47 21 62 -37 -46 -23 30 -4 -20 41 -20 -20 21 -4 2 -40 65 55 23 -69 35 -16 32 -14 9 13 -15 18 -24 26 25 32 39 -27 24 -47 -69 -13 67 17 33 22 11 -2 -2 8 3 -41 43 16 18 -23 -16 23 67 -47 -35 -22 15 48 7 -48 -33 -32 -18 -22 -42 37 -52 -22 59 -61 54 8 -72 12 -33 2 27 -14 -35 20 -63 -80 11 0 -45 -39 -20 12 2 -16 18 -32 53 14 32 -3 51 -5 60 -41 27 -49 28 4 34 55 -40 31 -9 -22 -24 -1 -35 -4 -15 -6 2 11 5 49 31 -56 -42 25 -16 -25 -4 -69 -58 -14 56 -5 -49 -40 7 -21 3 -33 9 -46 40 5 79 0 -53 29 62 -25 -31 30 10 34 -11 93 -78 35 -82 -35 0 57 -28 15 70 -46 -37 10 -23 -3 0 -6 -12 33 -111 -21 58 -19 33 -15 -34 -38 23 10 -20 49 -47 -33 70 -10 -33 15 32 -20 -2 14 1 -22 -38 58 45 -20 11 -13 43 -27 51 -8 -18 7 -4 -31 -22 -33 -29 -20 7 4 -32 -2 -32 127 -38 -8 13 -7 36 32 22 -26 -13 64 -65 28 47 -13 -19 38 4 43 -37 -6 -40 7 -4 62 82 57 -25 -6 53 55 -32 -42 -73 52 38 2 94 28 44 -80 86 -60 5 -15 47 -49 2 -109 -29 48
-52 -95 -10 -49 -12 0 -16 -53 43 -71 33 -19 -30 -19 -36 -20 -8 28 38 -70 40 -60 -89 -8 -20 41 -62 -3 -54 33 -52 51 71 100 -9 15 61 -7 -59 -47 -68 24 10 96 -55 35 2 36 96 -22 -38 55 13 -3 7 15 -3 2 -29 -16 116 45 -9 -17 70 -26 -23 -11 -34 -33 -22 -42 8 20 -17 -4 22 -1 63 -91 -37 -22 41 -92 -27 8 80 -17 45 23 11 39 60 -18 -37 65 -64 -14 26 -78 2 30 14 -49 24 -26 -7 89 -12 75 70 24 5 -61 127 -32 -32 69 28 41 -19 -2 -6 -57 82 -49 -49 -59 -35 21 -8 2 38 48 43 -9 48 26 6 45 -4 -8 -51 -40 30 -12 -54 -39 -15 -35 -17 -65 -34 42 11 20 -36 -10 -12 37 0 1 13 35 -21 -41 71 -39 -25 -21 47 29 -14 -55 -2 22 23 -1 2 25 35 1 -12 14 34 17 -5 16 -60 58 -43 16 8 57 -47 -38 19 -21 32 80 59 73 30 25 37 -4 -4 55 -9 47 66 -18 17 28 -37 -33 57 66 5 19 42 14 -4 -25 -48 8 4 38 0 22 -37 19 3 33 13 1 -46 3 51 -9 -55 -40 -42 -6 33 -35 -30 -36 -40 29 13 11 14 50 -2 -42 127 -11 -96 56 111 72 26 -11 -6 -37 -39 35 -19 69 -16 -3 127 -1 7 -56 -19 -87 -21 -24 -64 67 17 23 -9 20 -99 -33 -16 -31 73 -43 84 10 57 92 20 50 30 -23 -36 21 -3 28 -10 43 17 -36 26 -53 43 26 -83 -43 47 4 -21 7 -3 25 -16 57 19 4 28 -42 -37 -31 25 32 -27 -54 -16 56 -9 -32 -4 -60 -22 17 35 -109 -56 53 -55 24 19 -42 43 -53 -92 49 -14 2 -40 -18 71 111 71 50 50 26 -40 15 41 -28 -63 45 -10 -88 74 -44 -36 -102 -38 -106 25 -34 8 -33 -29 -79 -6 7
-23 -25 9 -32 6 -67 -3 -51 -45 -18 6 -13 7 -29 -46 -50 -11 26 39 -87 58 1 -70 33 87 54 -42 41 52 -22 1 15 -20 9 32 28 22 -82 21 -34 -62 15 16 76 -56 37 -29 -14 30 38 -62 61 -46 6 15 19 8 46 -17 3 34 59 30 -22 -32 66 30 50 -59 -11 -17 41 -9 -32 -20 64 45 26 -81 0 -18 -18 14 -85 7 50 19 47 -20 -36 18 -49 -6 41 -10 65 22 -24 40 -1 -83 -41 -32 33 -57 34 -13 59 32 19 26 -40 50 -3 52 44 -25 68 -29 -12 18 0 -44 32 45 -19 13 42 -2 61 -25 -15 -19 32 -6 20 -30 3 -32 -16 84 -2 64 16 -4 20 17 30 11 -31 3 50 -6 27 25 26 14 -11 -39 33 -12 36 -59 -72 -23 34 -19 -47 -68 23 -52 -28 28 -22 -8 -8 -40 -12 -15 71 22 6 -13 34 -7 -14 -32 6 28 -2 -1 -36 -18 35 -71 -21 -13 19 47 -11 -34 -24 -13 6 -63 51 52 59 21 -50 -41 39 -63 47 71 14 44 -2 47 7 49 23 0 -2 -22 -26 53 -32 8 3 -24 -53 -25 -37 5 22 -76 15 -30 15 -19 -69 -44 23 -20 16 -11 28 52 -35 23 -17 -19 -15 25 -37 92 34 -26 12 72 127 61 6 -80 -60 -91 105 24 46 82 68 127 79 -22 10 -45 -8 -31 -89 -106 -58 1 -8 76 48 -64 -128 45 -35 61 -12 111 -66 -45 76 112 5 55 29 -73 -11 -39 48 -30 100 14 7 -9 -69 -5 29 -100 -75 88 60 11 -26 63 30 -63 31 -16 94 28 -59 12 -70 -113 -40 -50 -41 -58 127 -8 -73 12 8 -4 -90 -102 16 -41 40 -113 -15 -23 12 114 -76 -17 25 45 -15 -38 -45 75 100 -49 -12 25 -17 -51 50 8 57 -22 -8 74 -44 24 -128 9 -128 -53 -30 -53 -27 30 -91 31 -88 41 20
-71 -19 -8 -4 -26 -21 -41 -11 35 -11 -19 46 3 31 -16 21 7 29 23 -87 4 18 -89 -17 -6 -2 26 21 0 29 8 -39 -7 -55 -36 -31 52 -36 -14 -34 -69 -23 -36 56 -3 -24 29 55 -11 62 -21 19 -4 -22 55 28 -36 5 32 -2 29 -5 9 -17 9 -38 -9 -31 -36 -52 -27 48 -10 -40 45 24 37 88 -80 -30 -13 46 44 -74 -63 34 11 -28 -6 -13 29 11 9 -37 10 -3 -53 -61 25 -11 -21 -28 -5 -24 -18 31 -34 -12 -60 13 0 -36 77 12 10 18 0 54 -42 28 -39 5 31 16 28 -48 31 15 -9 3 10 14 -16 -4 3 -23 -55 37 34 17 -14 -22 -30 8 -30 40 -2 42 32 -12 -1 60 16 28 -22 -12 47 11 -3 29 53 83 18 -17 23 -46 11 -39 4 -10 82 38 -3 12 56 55 6 12 -50 101 -33 -59 -39 -11 6 48 18 60 68 -4 -24 2 -6 49 47 -57 -68 -30 -1 45 108 -72 -4 -24 61 7 -32 -50 -42 67 33 -36 23 66 23 -70 -42 41 11 -11 -59 34 43 5 24 44 -27 -15 -72 -15 -19 14 6 -5 -48 -16 -1 -24 85 60 25 -87 2 -14 35 16 58 -76 54 59 65 -3 -16 -5 48 0 23 -69 -84 -71 -3 61 56 -88 -54 -63 -105 1 -78 8 79 26 104 34 -4 -70 -45 -46 43 -53 -39 -85 82 -26 127 -38 29 -128 0 -43 -6 18 127 29 -28 -33 56 -62 69 30 -68 -28 -100 85 -128 66 69 107 71 11 -52 36 -115 -18 117 68 -74 103 50 81 -4 19 -26 -26 76 -55 60 -80 -45 -99 52 -118 -67 106 -44 -81 -77 89 41 -15 -73 96 -87 -14 -59 -40 -19 -64 14 -109 22 -128 116 -48 42 -34 23 -60 -50 28 8 45 -8 -23 -19 -8 18 -12 5 43 102 -128 -16 -128 -35 0 33 -31 -20 -96 80 56 -48 -64
8 6 15 -49 36 5 -16 -35 21 28 67 -35 -9 52 11 -27 44 -4 -49 21 65 -38 -3 -34 -26 -55 5 49 -22 17 13 14 -63 -40 38 -34 -53 6 -36 -57 -30 -62 -26 50 48 42 -15 -47 30 43 26 6 18 14 -1 -4 -48 -71 -11 -9 -48 -24 2 -9 6 -30 -54 29 41 49 -26 58 -60 10 5 -24 -75 17 -36 -24 -4 -42 -40 42 -36 30 37 -12 12 50 -59 -28 22 23 -32 0 -20 -21 -17 3 27 5 -48 -17 30 14 7 -8 25 10 42 -36 -50 -47 4 -26 -31 15 29 -22 62 16 41 -61 28 43 -40 -57 -18 81 14 47 37 -16 49 -39 -81 -4 -1 28 -59 -62 0 -47 26 -8 -17 27 28 13 -20 36 -2 58 6 12 16 45 26 -1 -25 62 5 -15 -32 -26 -22 -14 3 -57 11 -37 -13 68 57 84 -17 17 0 86 -1 2 -35 -30 -18 37 -10 63 15 10 38 -1 14 12 37 -52 -39 -5 -52 88 62 35 -73 47 -40 34 -44 -51 -23 4 -47 45 -22 81 13 -19 30 -14 17 -38 2 50 30 -14 44 42 58 21 -54 -23 -51 -3 -25 7 -69 -31 49 -55 -9 69 -40 -44 -25 52 57 2 37 20 -46 -40 19 -50 45 -35 58 28 -102 60 -40 -43 38 60 38 -52 -45 -62 27 -23 -128 51 96 67 12 127 -69 -41 -76 -53 52 -76 -98 -110 107 -44 119 -8 -11 -12 63 49 -84 -46 58 -57 -112 -105 80 -124 59 43 -128 63 -88 15 -32 19 124 114 29 73 -60 -75 -9 -87 105 -33 -16 119 -52 22 6 -18 52 -9 55 63 71 86 -62 -45 -1 -91 -58 -25 -31 -47 -81 97 36 -33 -85 84 -11 5 -128 -92 -64 61 20 -49 87 -128 42 -104 93 -112 80 -23 -84 -61 46 34 21 -46 -103 89 46 -58 73 -102 65 -64 -74 -115 28 60 -34 -93 50 71 86 96 3 -42
-20 21 18 -62 16 -8 -15 -20 -17 25 -41 -61 -2 11 56 22 -49 -71 -36 38 3 47 -18 23 11 3 -65 -16 -34 46 22 57 16 38 -67 6 57 17 -20 -48 -32 -3 25 43 25 76 -14 58 2 -62 -29 42 0 20 19 -27 -22 36 1 -28 -41 -17 -28 7 20 17 -12 -72 9 -8 -38 -39 29 -40 -18 -17 37 -36 -23 41 19 -42 8 -50 4 30 1 -35 -11 -38 21 49 -66 -8 49 -70 15 21 41 64 -43 -6 3 -10 17 -4 -18 2 22 -43 -65 34 -15 22 27 39 -55 -51 23 25 17 -68 -39 -59 20 -6 -1 -26 -74 80 37 45 -10 -56 -8 -23 -29 -21 59 7 -13 42 28 32 47 48 16 40 58 -6 41 24 -47 1 -25 1 18 56 -18 -6 36 53 -20 -45 69 -17 -5 -13 -25 -11 -13 16 5 52 17 -25 65 -15 -4 -14 56 51 -17 77 -18 8 -48 55 55 -20 -9 40 59 -42 68 -49 14 -19 -56 -18 13 -42 -17 29 36 16 12 45 7 -45 -8 -21 -11 -6 37 -1 46 -48 -5 32 -28 -52 -3 8 13 66 37 41 35 -28 -15 -26 -29 -57 3 -10 25 1 53 14 52 10 9 7 21 76 45 -71 18 49 20 -67 43 -51 -9 -32 -50 9 -65 -31 57 85 -12 -39 -70 -19 -84 20 -56 41 12 57 83 14 -38 -2 -27 -72 42 -30 -7 -14 -1 -28 76 -31 -58 -33 68 -12 -20 -64 39 -65 -70 -5 4 -41 -9 -13 -41 41 -18 11 -82 76 69 4 -8 -52 -58 15 -25 13 32 -12 36 61 -34 -31 68 58 63 60 32 -9 14 40 -87 -84 61 -3 -25 26 -81 -32 -48 -2 68 9 -74 61 4 70 -75 -64 -55 5 -8 -73 4 6 37 -71 2 -57 84 -34 -57 3 60 4 33 -64 -57 14 10 -6 13 -70 42 -68 -22 -60 -25 24 -2 -57 23 -19 59 59 -31 46
34 -33 12 47 -4 -11 8 9 -9 18 -24 21 37 17 3 11 26 -24 51 7 22 -7 19 47 -16 15 -3 -27 11 2 9 7 12 -42 -5 50 -46 27 36 48 10 16 -51 -50 50 -16 34 26 -44 4 -16 12 -26 44 -18 11 -6 -22 -8 2 -22 -35 -14 -37 -30 -6 -34 -43 4 23 -34 -22 15 -8 -22 -1 -6 7 11 9 32 -37 -5 -20 13 -39 42 -19 -16 -15 32 -7 7 19 -48 24 6 32 -12 24 -19 5 -21 31 42 5 -24 15 -22 -48 -41 32 -40 50 -15 13 29 40 -4 -46 5 19 16 10 -33 31 -17 -41 26 -10 50 -5 40 41 32 37 -38 -33 18 -22 37 -13 -36 14 -37 -12 -8 -19 -15 31 48 51 1 -5 42 -43 -14 -39 45 -5 -28 27 -3 8 42 49 -41 -9 -29 5 26 -19 18 -10 -31 -13 43 43 -5 -42 48 -8 -21 -45 2 8 -28 52 6 -32 -33 18 4 -26 5 -25 -41 36 -23 2 -46 10 -43 40 31 16 16 50 4 -14 -24 -11 -50 36 -6 6 41 24 -26 -27 -5 40 -34 -34 6 21 22 31 -24 -18 -43 -32 15 41 -42 -20 -32 24 19 -16 17 38 24 -3 -33 23 41 41 -26 -7 -45 32 51 31 -26 31 -21 36 -50 -9 -13 -50 31 25 -36 21 0 9 -5 -41 5 47 -19 42 -39 1 -44 -48 46 -49 18 -14 13 12 12 -41 9 -44 38 -9 -50 -27 -35 24 -14 19 -19 -16 30 44 -9 -42 -31 -41 7 -48 -47 48 50 33 -34 23 45 26 50 -24 -46 24 -2 -39 26 39 47 -23 23 -26 -35 49 21 38 -27 18 31 -1 -29 -29 30 -35 13 -22 45 17 26 37 27 6 37 23 -45 40 -10 37 27 -37 10 40 13 11 -22 -17 38 -17 -50 9 50 11 26 -23 14 43 -43 41 5 4 45 31 -46 31 -51 21 -39 -25 46 -51
-13 26 22 12 17 -1 -28 -27 -32 -17 22 16 12 3 23 1 18 -27 -17 -19 -31 2 0 47 3 47 -32 -39 -26 -2 -2 -10 -28 -11 41 52 -36 1 -7 26 47 -33 27 -2 1 9 38 40 -9 20 -32 18 -4 0 -16 -4 39 -20 -44 -22 16 23 0 50 -13 16 24 34 -33 -31 41 -21 -25 31 -13 -2 45 -17 10 10 15 -50 26 -19 -27 -14 37 12 -50 -49 17 24 17 -17 -21 51 0 -20 27 -43 17 40 38 29 44 28 12 -6 1 48 39 -2 -21 -41 -36 11 17 -20 -35 51 -37 13 -36 8 21 -42 -9 -14 4 49 30 31 28 -51 35 0 5 -45 20 43 16 -22 -1 -16 -2 36 -45 15 -8 -15 -16 -47 15 -2 33 17 -38 -50 -23 3 -27 -35 -35 -36 40 39 -2 38 -32 20 -4 -32 33 19 18 -23 32 42 9 2 4 -4 -25 42 -44 -3 40 -15 -37 -2 -49 -15 -19 4 -26 -33 -6 5 48 47 41 -38 -2 10 36 48 16 49 49 8 13 -3 -34 -23 42 -46 37 27 48 28 -25 38 -6 33 -35 -15 42 30 -11 -22 -36 -39 -13 42 21 0 4 51 46 -39 23 -23 -22 -17 1 35 0 14 11 6 -20 21 42 21 13 32 -12 23 -21 -38 20 -12 -21 -15 -52 22 12 20 11 19 -47 19 16 29 -15 10 -15 34 42 26 -1 34 8 -9 -50 -33 21 13 24 13 27 13 30 -8 38 -10 -46 -32 -23 -33 16 25 31 35 -32 -15 -13 -48 -49 0 8 -50 -39 -9 41 22 49 39 -2 -1 11 -30 -26 -45 19 37 -47 15 -31 -50 -8 -48 -40 32 18 9 8 -25 -23 -38 36 5 2 44 16 48 46 32 6 7 -47 -16 11 -12 -32 26 7 -9 14 -16 -11 22 1 25 29 49 7 -18 0 -2 40 -29 25 14 -37 -12 1 13 -24 20 7 -19 13 -46
-10 -67 -23 -8 11 -30 -12 -16 -60 6 62 34 11 45 -19 3 -46 -6 69 -38 39 4 73 -23 47 36 -41 -33 3 26 -33 -14 37 -19 -25 -2 55 -9 20 -83 -26 -20 -32 -19 -3 -67 -59 11 -68 28 28 36 -22 -10 68 -22 -2 42 -27 23 -6 61 64 58 -31 40 -38 -1 18 27 5 -43 -22 46 -58 -6 15 19 -77 -23 -57 61 59 -54 -5 -67 42 21 -80 84 -37 -72 58 -17 -2 -16 47 32 50 23 77 7 13 -32 68 77 -18 -32 -75 -11 7 41 14 -16 -44 34 34 12 12 -19 78 49 -20 41 1 8 -50 -32 -7 -9 -40 68 -30 44 39 -24 21 -4 35 5 -20 42 -25 65 30 -43 9 18 2 8 -23 22 38 -51 -5 46 -15 25 23 27 -32 39 14 5 -82 -20 8 37 28 24 54 18 -6 68 -33 -6 -27 43 35 -49 6 2 -3 30 -21 3 8 -9 -21 -20 90 -35 -13 54 -3 -63 26 34 -68 -14 12 -10 -31 -7 -79 26 -12 -6 9 48 12 -5 3 -5 0 -46 -12 -53 33 -15 -28 -23 -3 78 -11 54 -25 22 -60 -14 20 -52 -14 59 -29 29 9 -49 6 9 -10 -9 51 -52 -45 44 -76 5 17 35 20 -10 -4 -61 9 -34 64 51 30 -62 57 -38 4 100 -85 -42 23 34 94 -78 106 58 66 12 -75 -20 -31 -69 -65 100 -41 49 -22 59 2 49 62 -6 -10 2 83 -4 -42 44 23 3 -19 65 -14 81 39 -90 22 44 24 69 0 -92 -75 59 54 52 -74 28 -3 96 -63 88 75 -21 0 37 -20 32 -78 -7 -76 14 51 26 -79 54 21 62 94 88 36 86 8 75 -52 -39 -36 16 103 104 -88 40 -16 33 -56 21 9 55 35 -73 20 52 20 64 -104 12 52 30 18 -46 62 -26 -14 -13 -9 -80 -105 68 -12 105 1 51 -28 63 49 -99 -78 -4
5 -15 -26 33 -25 0 -7 4 25 29 3 -10 39 -48 49 68 0 -50 6 -14 19 -6 -21 6 7 3 37 -76 40 -38 19 -43 18 -81 -19 57 49 0 19 -26 -6 42 -24 1 52 -53 -46 46 12 -27 60 3 -12 -5 88 -72 -17 -43 -32 -7 -11 43 -41 72 -51 -17 60 23 -39 33 55 53 -30 16 -34 3 -38 -62 -49 37 18 7 -42 39 57 -75 -3 -8 11 -53 51 -11 58 -14 1 -3 -64 -45 26 -12 36 24 2 -15 -60 73 -40 -12 -27 -6 -40 -27 -2 39 -48 75 -13 -2 -95 5 33 -56 -39 -17 -73 48 15 79 -40 -35 41 21 -24 -46 8 -11 59 -5 -47 9 42 45 60 44 53 -13 -32 25 39 29 -21 21 4 -11 -2 -43 -24 -22 -47 -38 -6 29 51 15 39 -31 -12 45 -62 -6 54 35 13 -9 -16 17 32 34 -20 47 43 25 -16 28 19 23 33 -45 -44 -19 -7 73 -25 -35 31 31 7 42 -18 10 -12 47 -12 7 10 28 -62 0 -3 34 -59 -9 -1 9 -38 24 -22 12 18 10 19 -3 -41 5 32 -55 9 -66 -43 30 32 -4 16 -16 -57 16 23 -56 34 12 32 56 -29 24 -34 10 41 -13 18 48 33 16 -41 -16 46 41 -5 17 22 -56 -9 3 28 -50 -61 -42 -52 -40 2 79 55 26 1 20 -38 -21 -76 -30 65 -68 -46 -14 16 17 79 64 -26 -78 -9 91 -95 -34 56 -76 -55 -50 96 -123 9 102 -81 -9 -56 36 -39 60 109 -49 25 17 -66 28 -86 12 23 -9 -128 101 73 33 95 20 78 75 93 0 64 73 -44 24 67 -42 64 87 -91 28 -42 57 3 13 -105 127 -56 -41 -23 -63 -123 55 28 -69 48 -58 100 -40 93 -32 13 -89 -83 -33 11 6 44 -51 33 65 64 -70 42 -24 43 9 -12 14 -43 72 -34 -20 33 -33 65 79 -68 18
-36 -42 1 40 54 -79 1 -29 29 62 37 11 -53 25 -2 -14 69 -4 -13 11 -70 -40 10 -78 -38 -7 -22 15 -7 22 33 38 18 34 39 17 -9 20 25 -34 7 -32 -52 59 -30 -44 -66 18 -6 20 0 66 -12 -26 -20 14 87 -38 -1 20 -6 29 66 34 -37 10 14 -19 -18 -36 21 37 52 60 50 -1 18 -17 -36 14 -10 36 15 -20 24 29 -34 33 -42 33 21 12 11 -72 -19 18 -47 -17 36 35 34 17 -6 -35 -35 17 -31 -17 40 -44 -24 -34 2 -7 -56 1 18 37 -46 -101 -26 -68 -34 -25 9 -36 11 -15 -99 -19 -4 -71 -34 26 -40 -42 -10 -47 78 47 -71 -7 -65 -71 -40 58 76 50 8 -26 -65 -13 48 50 6 76 -10 -41 20 15 -65 21 -5 4 53 69 56 -8 -37 14 54 -24 -17 28 -26 -12 -9 -25 62 47 -30 -92 5 33 -12 -28 -13 27 2 -19 58 -14 31 -17 -7 -13 -21 47 -22 10 -13 -5 -87 -24 30 23 -24 24 -29 -15 -73 -51 -21 -2 -35 16 24 40 -10 -72 25 -62 10 62 -6 23 61 -7 -6 17 -14 51 -44 8 -8 -57 -21 21 74 6 28 19 35 6 35 5 -15 61 25 -7 44 39 -18 53 -4 -3 13 -27 59 4 -13 60 70 -19 -115 -81 2 26 -18 70 68 72 59 -34 -115 -1 -121 -105 -23 -23 -100 -10 71 -28 109 -37 -73 -26 65 47 41 -128 25 -92 -20 -29 33 -64 5 55 -100 26 27 87 68 -30 116 -31 78 76 -73 -46 -48 0 44 74 5 -14 34 33 -13 -39 19 -42 51 -56 31 -13 -56 -4 35 10 -14 84 -15 -30 -70 -4 -45 -8 15 59 -29 66 -128 -34 -127 -27 17 -125 -14 -111 -3 -63 29 -64 68 -31 -4 -33 106 4 96 -56 81 36 16 -19 20 -105 -5 -76 -73 -7 -98 60 -100 -41 73 -83 54 75 -2 10
13 -50 -16 8 -7 -6 -26 -37 -30 -27 -19 1 43 33 53 -51 41 -2 -42 -60 -26 -29 41 -60 11 -39 49 2 80 65 19 -33 -23 -24 -9 -21 27 23 -24 -39 52 -26 -12 26 -24 -66 -53 33 -52 -34 39 31 -45 91 -40 -53 17 -21 -10 50 -11 -2 -17 16 6 13 52 26 15 -67 -7 70 -5 72 -41 -2 -21 7 -44 -21 -26 -9 55 18 16 25 5 -19 -23 -36 -42 23 9 -36 36 -9 8 -23 42 -9 33 47 -23 44 -37 -12 -87 0 40 13 18 -33 -52 -10 31 -4 -40 -52 -44 -38 12 -29 22 -51 20 21 61 -5 -8 -5 -54 10 3 61 -27 -45 -6 28 -26 35 -6 -20 26 -68 -15 43 -41 41 5 -3 -36 -53 1 89 -13 57 -21 -19 -21 41 23 39 -12 -31 3 -20 -17 -73 43 -35 30 -48 -48 -19 46 77 61 31 -39 14 -32 -15 -45 21 7 14 52 9 -31 29 5 -3 -27 -27 -18 15 -70 63 -21 -81 0 18 -18 -32 79 -39 -18 -26 3 8 56 -11 59 2 41 32 -17 -63 19 -31 36 29 29 -25 102 26 12 -8 26 62 -5 26 3 12 21 1 -27 38 39 -52 1 53 -19 -58 10 -3 -20 31 50 10 8 -36 -29 6 31 32 94 -98 -65 -6 -33 1 71 -24 -85 57 -52 29 -81 96 -10 35 102 -12 -11 20 -128 -5 -77 -46 -85 60 -41 -128 62 -46 -128 13 97 -11 39 -83 -18 -112 62 34 9 -59 -71 54 -23 31 1 52 3 -69 109 23 -17 45 -13 -9 -50 12 61 114 68 44 -68 -32 -36 -91 -102 -55 43 -128 -74 -25 -37 -15 -18 -28 -106 24 38 -71 8 15 18 43 29 38 -50 79 -128 -97 -111 -69 31 -18 -40 -59 -69 18 35 -44 27 -15 -27 44 127 -13 127 30 -11 70 -14 -42 -22 -128 5 -44 10 -48 -60 -6 -91 -25 42 -108 42 -33 65 19
26 3 47 -24 -13 20 27 1 -38 52 39 7 -36 16 35 -20 -21 6 24 -24 -49 -41 -29 -7 -26 -64 7 -16 27 77 70 27 14 -27 83 -11 -34 -10 41 -46 24 -24 32 11 6 -3 -39 -29 5 15 12 -36 -38 82 21 -46 23 -10 29 -9 -5 -12 -45 -65 24 -7 33 64 -15 -57 58 62 -58 35 -19 77 -9 -43 -71 42 31 56 29 57 7 2 -76 39 4 58 6 11 -6 16 46 4 25 -17 7 -9 5 29 31 44 -20 -30 -82 -52 48 -21 -36 -25 -41 -64 -24 1 63 -58 -20 -16 -17 0 -9 -10 -64 6 43 -43 -23 28 34 -13 -40 -2 0 -11 33 -3 13 -57 41 -19 0 -59 -11 29 48 -11 7 72 -41 57 29 84 14 -40 -6 -27 46 -71 33 5 14 -7 -24 -21 25 -18 -57 20 52 -47 -8 14 9 61 -25 74 -29 -36 -6 -39 7 72 1 50 50 -15 -46 50 46 14 69 -52 -71 62 -90 -8 15 -46 38 -65 1 -7 39 -39 15 -30 38 -54 -50 0 -19 44 67 16 46 10 56 -22 15 45 62 -25 15 -29 -9 -66 41 -1 43 40 -3 51 -29 24 19 66 39 20 18 25 37 -63 13 0 -41 6 -56 13 -28 -24 19 -2 17 55 60 -78 -55 47 -41 30 78 -18 8 38 -48 -4 -128 46 -33 86 -1 25 40 -2 -51 -5 -83 -68 -26 -32 -57 -103 59 -74 -60 -33 26 26 5 -60 69 -16 70 76 -23 -3 8 31 -85 -25 -28 15 31 -63 114 28 -16 43 -30 6 36 10 40 -5 -5 9 -73 16 -70 -23 4 -57 18 -128 -42 2 9 -109 -17 49 -21 32 56 -52 -9 -41 78 87 52 1 -9 64 -128 -60 -71 -110 26 -71 -22 -50 -50 44 -19 21 51 4 -11 19 66 -9 19 -21 0 40 -93 -5 -65 -41 98 -122 -39 -120 24 -73 -37 -69 58 -63 -26 25 26 25
-24 -18 -20 41 -36 -6 -67 -6 25 -61 -17 40 -63 11 56 -20 23 45 0 -47 9 -20 7 -67 -37 9 44 -8 -48 11 47 20 -70 12 15 -59 -19 2 -41 -2 66 -5 1 0 64 66 -37 23 -25 38 37 26 2 50 21 -23 67 -56 -35 10 30 -49 -57 26 -80 49 -6 35 -19 -24 -44 56 -26 -14 -47 -21 -27 -31 -10 13 -29 -9 -6 51 31 -12 -95 23 -29 -8 -51 6 -56 2 -34 17 43 -43 25 28 52 34 17 26 -33 16 -72 -20 16 -11 16 -48 -55 -61 -33 49 6 3 5 -26 -23 -30 54 10 28 -31 80 -38 -13 -46 21 12 -49 7 30 4 1 -42 49 13 -1 8 -14 -29 -56 57 33 74 -25 26 -23 -30 67 -15 -15 5 -17 -16 5 -58 40 -8 24 54 15 -17 -9 -30 -40 -16 -4 30 -62 -40 46 -45 -10 14 29 72 -20 -81 26 56 -13 -31 17 25 -15 35 22 26 19 -22 -67 15 -60 -56 -47 -28 60 6 39 -37 48 30 -4 8 -5 -23 61 -51 -32 -9 0 -37 -17 18 52 -45 -44 50 72 -48 -28 -28 63 -47 -48 28 -31 -30 28 46 21 24 -57 -5 35 17 47 -25 5 -53 -35 21 32 24 -38 6 -27 -13 -33 -7 -7 56 15 -128 -78 64 -12 35 -38 -65 -5 76 -83 68 -119 34 -42 -29 111 12 -15 -34 -12 17 -46 -41 -68 74 -35 -44 46 -29 -77 -43 -46 -24 46 12 65 -71 47 -5 -41 49 24 59 -15 -29 64 23 92 -99 -5 90 5 27 29 65 19 -32 30 30 62 91 -71 37 -83 -23 -44 -60 25 -128 -62 -31 3 -44 -10 -6 -15 56 18 -27 54 33 24 78 88 -14 -5 98 -128 -65 -41 -128 47 -42 -75 -66 -75 -2 -32 21 -38 40 -3 37 86 -81 76 12 -26 -23 -35 2 -76 -103 76 -110 71 -56 9 -100 -30 -47 -1 -99 -53 38 72 36
14 -47 38 22 -3 -27 -16 38 -50 -30 -36 1 -65 62 31 45 -5 -35 -25 -53 35 -44 44 -70 -45 11 -21 58 8 -14 -7 44 26 -43 18 34 -46 5 -41 -1 -1 29 -8 46 42 -40 -38 24 -22 -17 -55 4 0 -22 -44 35 -46 31 54 -36 18 -17 -52 8 11 -17 -41 34 35 40 -38 -46 -37 30 19 -33 40 0 -20 30 30 62 13 46 -40 -40 -5 -6 15 59 -27 28 43 19 -13 -4 -54 -17 -52 -42 16 -22 4 81 49 18 -79 -20 4 43 -6 -4 -39 19 17 2 -6 -63 19 -7 19 -12 44 -9 -37 -38 8 -80 -44 -16 -2 -56 19 42 92 -24 8 -15 -4 -53 60 -39 32 14 -73 -33 38 7 60 69 -41 46 -5 51 3 -67 -45 -2 -10 -3 10 13 7 6 35 -92 58 -18 33 4 -11 6 -26 20 77 -9 61 -68 -13 71 -11 -84 46 35 13 -60 25 31 -46 -16 -4 -63 12 -8 45 -3 -5 28 22 31 26 -40 -36 30 -53 -37 -8 -6 10 -18 11 -59 -19 115 85 -9 -36 -39 51 -30 -9 48 64 -2 -17 64 15 24 -26 -42 29 -21 32 -37 64 35 -37 -20 2 47 2 36 -37 22 -20 2 4 82 -96 26 47 41 5 22 -29 43 1 -81 -6 25 -11 18 2 -53 -19 92 -79 33 -119 -6 -61 54 102 27 -32 -19 -72 33 -69 -9 -11 51 -74 -124 95 -12 -56 30 27 -22 32 -43 68 26 76 42 -29 39 6 -52 -128 26 56 120 114 -128 11 -9 -40 31 44 3 88 1 -46 1 89 39 -43 -57 -71 -38 -52 -72 51 -128 -80 -1 28 -91 -51 77 7 31 32 -13 66 -3 37 74 28 -36 11 100 -128 -50 -10 -128 -30 -40 -32 -96 -85 77 30 66 -36 9 -21 6 42 0 86 56 14 6 -54 40 -61 9 50 -107 0 -6 -51 -95 -47 -41 14 -76 -65 -15 45 -1
-17 37 -38 51 11 43 -9 13 47 18 42 59 16 28 -15 0 -13 -33 34 5 -52 -53 22 23 -9 4 -9 45 -27 -32 13 3 -24 -12 2 -16 -26 22 -20 42 2 58 52 43 -44 -2 31 35 0 46 -21 -10 16 51 -61 -45 15 -14 -39 8 27 39 27 -16 -52 39 42 -18 38 -14 -21 -20 37 -18 12 -51 41 19 41 14 8 6 -7 -17 -46 -57 12 -32 -15 65 13 -31 11 25 -65 20 -30 -24 -33 45 -13 13 21 46 4 -14 -27 25 38 2 -8 -59 -15 51 -19 8 -44 24 -60 -29 49 19 -34 7 -50 -21 -43 -59 18 59 -21 51 18 -36 83 -20 -26 17 -42 -58 17 30 0 -56 -63 32 33 5 -5 -18 -47 30 -19 78 38 -81 -95 44 -6 67 13 10 -32 1 23 -87 59 10 -5 24 12 61 -12 -1 28 -12 -6 -25 5 65 31 -48 74 72 -26 -54 -10 -11 -43 -59 -5 36 51 -93 17 36 -22 21 -30 39 -31 -70 4 -54 -57 67 46 23 -29 -61 95 2 -17 36 42 -45 -3 -48 33 5 -82 0 17 -27 52 5 -33 44 44 -43 19 -90 17 77 38 -17 -57 6 4 4 7 -34 4 -12 66 -38 57 62 -11 -3 -13 29 5 -72 71 -10 53 -87 -28 -87 -72 36 6 -39 36 -7 -47 -11 -57 11 -18 42 115 -74 -15 -8 -35 -20 -48 68 -38 57 -48 -22 98 -28 -61 -11 -51 -75 -42 -44 82 -43 72 -49 -22 -15 57 25 -128 -59 8 60 84 -70 -13 7 62 20 -58 65 -3 -85 28 -12 19 71 -70 -24 -26 -77 44 -110 -24 -118 34 -27 -38 2 -35 61 -47 44 -25 -12 85 16 65 33 60 16 -27 38 -100 -4 -9 -123 -21 -41 8 -75 -81 5 36 -42 -40 25 -50 22 38 -44 61 19 -64 -15 -38 29 -37 -10 52 -48 28 25 -41 -51 -61 -46 52 -85 33 -27 112 -6
-31 7 20 6 -47 -28 -7 4 -27 -21 -36 40 -21 -50 -9 0 39 18 2 -9 33 -42 76 -21 -20 18 -18 42 43 -65 -8 -45 -6 -56 -42 -26 45 83 -73 43 -23 6 54 14 61 -55 -20 -64 -57 -33 -31 7 25 85 -37 -90 39 33 7 -72 -12 20 -39 31 -12 28 -14 -51 37 54 43 48 4 -20 -22 39 -49 -45 6 20 43 0 -44 -15 -21 3 -52 42 -6 42 28 -38 21 -78 -34 -34 -38 5 -38 40 19 1 16 16 41 -51 33 -46 -29 25 58 -37 15 -17 -25 -43 20 49 -44 -12 63 15 36 -1 -67 66 -32 -24 18 -14 2 43 28 28 51 -5 1 24 -37 -31 -25 -45 -46 -36 -38 5 -3 37 37 39 -68 42 -16 62 -22 -61 -73 51 3 22 21 40 -62 -35 -2 -1 50 -37 54 -45 -16 13 7 62 13 3 -1 -16 42 51 48 -58 50 84 -41 34 43 37 -1 -62 38 17 50 -32 46 20 -23 -51 1 -2 31 -17 -38 -1 45 -6 29 -11 -37 -6 4 -15 43 54 20 -31 25 -86 46 12 -7 14 17 -91 58 29 25 -29 -44 14 13 -48 -29 -27 83 -26 -28 -25 33 50 -21 -23 -56 20 35 -1 25 4 -1 -6 49 -43 50 -11 13 34 -19 -96 29 -22 -94 57 9 -49 -73 -31 -109 49 -64 36 5 46 113 -6 -46 34 -26 -28 -59 6 24 -25 -4 -63 35 -3 -14 -128 -70 -102 57 57 117 -22 44 48 7 -43 39 -19 -128 -73 93 127 65 -78 -21 89 25 -38 -5 -31 72 -62 85 12 95 23 -38 -47 -83 -123 6 -37 41 -121 21 -25 1 -36 -58 3 -6 80 1 -4 53 -38 19 83 -9 25 24 44 -123 -49 -10 -21 -23 -19 -15 -73 -14 48 8 3 -95 -3 -67 69 79 -90 80 25 30 80 -22 -1 -47 -18 60 -82 46 -11 -35 20 -40 29 68 -85 -20 -26 75 -18
45 -34 -28 19 26 -36 -33 2 59 26 4 2 -7 -3 25 41 39 -41 -24 -40 7 35 91 -21 -27 -74 40 -13 18 11 -21 -42 39 16 -40 12 -12 31 -41 86 -12 -16 9 -44 70 31 16 -24 -13 21 20 -63 -29 -6 -2 -77 37 -14 -41 -56 -49 54 -14 34 28 -59 41 11 33 -17 -6 50 7 -16 -21 -21 1 56 -5 23 43 25 -62 -17 -10 11 43 60 -64 -10 -18 -18 34 -46 55 50 25 39 -41 60 54 -30 -44 -13 11 -63 -3 21 4 5 12 -15 26 -20 0 -44 -23 -19 8 -28 -28 -1 -66 -10 34 0 63 43 -27 64 51 -32 28 -14 18 55 38 78 -14 -6 -40 22 -31 26 0 16 -53 3 22 -15 2 13 -2 -12 66 -65 -40 -34 -28 7 63 50 -31 15 -25 -58 -37 43 -12 -57 -11 10 -40 -18 54 -28 -17 49 7 0 -10 -52 37 103 -24 40 -16 71 25 -75 -31 66 47 53 -2 -63 -54 0 27 24 -10 -4 -45 -68 -8 11 -27 0 -15 -11 46 -62 -21 34 15 13 26 -35 32 3 -60 25 -15 -65 34 3 72 11 -15 66 -10 -37 32 -29 44 -8 -11 41 32 -28 13 37 -72 -2 6 -7 -44 -22 -28 41 64 -4 39 -35 41 67 23 -109 -34 -62 -108 57 57 -3 -31 24 -84 39 -58 -7 69 50 87 -80 1 -33 0 32 -26 62 39 -47 17 -55 111 -42 49 -106 -97 -48 -46 90 69 56 36 -50 -3 -69 51 -11 -128 -11 -18 127 -37 -63 -101 62 71 -23 63 61 -30 -16 20 56 30 -57 -67 -21 -19 -8 36 -9 -39 -75 6 -61 -10 -67 -70 -11 12 12 23 -20 70 8 2 50 38 12 -39 -55 23 26 45 -40 -27 -62 -18 11 20 83 -79 -21 -92 -2 -64 13 -4 -128 27 36 -41 -19 -64 84 -62 76 -12 -128 -16 -11 -30 -12 14 58 33 -18 66 -1 127 -92
-16 10 -31 -8 20 46 -61 -52 -3 -10 0 -51 52 -27 -33 81 -8 -64 -38 28 38 7 -11 5 37 -10 27 13 22 -12 51 -21 -6 48 56 -32 21 -52 1 51 -26 49 -1 -26 -14 -17 -48 -27 43 -35 47 -26 1 58 -58 -47 -55 -59 13 -38 34 5 -2 -52 13 10 30 45 13 26 16 -20 37 37 -20 47 9 -11 -3 37 30 -59 -1 13 -22 25 48 34 20 -21 18 -5 -30 -21 14 75 4 -24 -16 -2 -40 27 -36 -42 -60 22 -33 26 44 42 8 57 -21 41 -38 -36 -55 -39 55 -17 20 -32 8 -37 40 9 51 -22 -25 -10 -46 11 24 37 12 6 -45 64 24 -28 -58 32 10 20 -68 18 -46 9 11 60 -24 35 -34 1 8 -65 -52 55 0 68 30 -35 14 12 62 0 0 -32 45 9 7 -17 22 -4 61 -19 -35 18 12 18 -50 -25 -28 61 8 81 19 72 -42 26 -11 60 50 -19 -25 -61 -67 -30 -33 3 -19 -65 -24 -10 19 -39 -3 4 -2 45 -4 32 -1 69 -36 12 -47 23 20 -19 -17 -31 35 -6 83 -19 22 -23 33 53 21 10 -66 13 34 -37 -74 33 68 47 24 -25 -12 27 -20 13 27 34 -62 16 -15 27 -15 -50 83 69 -45 -40 -14 -128 -61 54 93 -80 44 23 -128 5 -82 54 83 26 80 0 -16 5 81 86 40 -62 122 -22 60 35 95 13 107 -128 -14 -112 -82 30 122 92 -49 -50 33 -103 -2 44 -77 -2 -18 47 -26 1 -76 123 103 -3 -7 -28 -56 -51 -23 -5 -78 5 -81 5 5 -57 68 -44 36 43 80 -17 -82 -29 -1 -91 -31 32 -46 -5 23 54 86 20 -98 -48 -90 -99 84 -33 63 -84 -1 -46 49 16 117 25 -62 25 -25 -55 22 -20 -11 -40 -29 -32 -67 62 45 96 43 23 -24 -93 -4 -73 20 -14 95 -15 41 -10 24 48 76 -21
56 3 -31 -26 1 -42 3 -2 5 6 19 -17 -10 20 19 37 -62 -12 42 -38 28 37 19 13 -12 -71 -34 -31 55 -64 -24 -42 21 28 -32 -20 37 -33 -14 26 -39 51 -44 -42 44 -7 -44 -12 86 2 -39 -13 -38 49 35 34 35 22 -72 10 45 22 -21 -51 27 -58 27 4 -4 30 -12 24 -17 -18 12 49 -25 8 22 6 23 -50 26 46 -62 -2 60 -29 50 -29 2 24 66 14 -4 20 -45 7 -35 -32 -30 -38 50 3 -59 -60 9 67 -9 10 -46 17 53 25 29 2 19 44 72 84 -10 -63 11 52 7 57 -40 -3 12 3 48 -31 -25 47 59 15 -30 59 9 24 -34 4 -15 -61 -20 42 -15 61 -31 28 -8 -40 22 10 44 -17 -54 18 -27 -17 -41 -14 36 -37 -25 19 36 15 75 -36 -14 4 60 -13 63 26 19 68 -33 -23 -48 -40 13 17 -8 8 30 37 -29 -40 -22 -16 -13 -18 27 -44 -49 -42 -36 -47 40 21 -20 19 6 2 59 5 -72 27 -17 70 21 -22 -31 -21 -20 -19 -27 -22 -63 -34 -3 -18 41 -36 -28 -32 11 2 -42 -7 -44 8 32 -33 -32 43 1 24 52 45 -40 -6 -36 36 -66 3 1 16 -31 -5 37 11 19 47 -87 38 -64 -44 -27 69 46 -32 28 43 -28 -47 -5 4 70 -12 -39 35 57 -115 96 8 79 -38 59 -38 81 -6 34 -46 37 -55 -35 -12 -81 91 78 37 -70 -39 19 -9 92 -28 -21 13 -105 -38 -64 30 -14 87 93 2 67 60 -77 -29 -38 9 -67 -17 36 -25 -71 -17 -66 9 31 83 62 33 1 -57 -40 -81 -39 21 -97 -1 -43 47 83 -34 -35 90 -58 -128 22 -27 79 -80 6 56 83 -86 116 5 -53 23 -38 -58 -5 -3 -20 20 -65 71 -93 -35 50 -8 22 41 20 -65 35 -24 71 37 113 -36 -38 57 114 68 -105 -48
34 56 -35 -28 8 -12 -44 -24 7 -71 -4 -55 25 34 -29 42 -15 0 -5 42 37 74 23 -13 4 10 23 -34 69 -65 19 23 -41 0 21 -23 -4 -29 -19 57 -70 -56 14 -21 -45 21 -41 -64 -3 32 -27 33 -42 75 -16 -39 -19 16 -10 58 43 -35 16 -56 2 -29 -48 45 13 -10 58 -22 -11 -9 14 -8 40 -40 54 -49 36 8 -31 -40 -66 -33 -8 40 67 8 6 21 40 46 -16 40 5 17 -40 38 6 -28 -24 34 -15 -11 -44 30 47 62 -42 58 -42 -40 -39 -24 -41 -43 42 81 18 11 -15 -21 50 35 -7 10 -27 16 47 19 -17 -27 -31 19 42 -11 43 25 -38 28 19 -36 3 52 1 -1 -23 5 27 -29 35 36 40 55 4 -39 -40 6 0 -9 21 19 23 75 -25 16 0 -50 54 17 41 14 44 51 -19 -21 15 3 -19 -48 3 -23 -53 -7 27 25 -15 13 -21 -21 -45 54 21 32 -47 19 -23 -25 37 -64 -52 -16 1 44 14 -13 -23 -35 6 14 38 33 -11 -7 -28 16 27 -6 -41 -21 58 -10 85 -62 21 -33 38 1 -35 -20 2 55 -7 -73 -32 -39 50 -24 -18 -57 1 10 54 45 -29 -38 14 17 37 0 21 -1 18 7 -32 3 -59 46 -92 12 -18 -55 97 127 4 -128 -104 -41 -69 28 -100 52 13 -121 87 42 59 -128 59 -100 48 -44 71 -58 -55 36 -39 -29 -111 4 4 115 43 -46 -60 -47 60 50 109 0 -55 -40 -128 -33 46 47 60 67 37 72 29 71 -45 -25 -22 60 -42 -19 -30 -2 -53 -29 82 106 91 -19 3 -103 -7 -109 -85 -14 -34 68 -7 37 9 -51 1 95 -60 -123 98 -43 23 -103 1 34 110 -128 55 -12 -2 42 -37 -61 -89 -68 -5 2 -51 79 -121 -34 46 14 49 -12 36 2 7 -86 116 4 83 -41 -57 29 37 8 -128 -106
61 32 -51 -32 34 47 -30 35 -42 18 32 -1 66 19 24 7 -13 -65 32 8 -29 -16 -43 -26 1 28 23 50 34 -37 16 31 -17 40 9 -24 -50 35 6 62 34 -61 -40 7 -18 -53 -6 -34 49 6 20 36 1 28 4 -34 29 25 -7 42 -25 4 37 29 17 -45 3 51 -62 53 52 -34 12 -43 25 22 -35 -36 15 -14 46 50 -50 -23 -53 42 -12 69 42 -41 25 12 7 6 -19 -2 18 -30 6 -32 -51 12 6 -5 -32 -12 29 -49 -29 24 -15 38 0 -24 -11 -41 -6 33 60 67 41 -36 -58 54 -35 43 12 -13 -48 8 -15 61 -12 35 31 26 -31 -20 10 -27 42 -62 0 -36 22 63 42 -3 11 13 -16 -4 5 1 17 -19 -13 -49 28 -42 24 -35 -4 -4 -36 3 45 44 -37 -26 -34 -52 26 -22 23 -4 -59 -13 35 36 41 31 44 12 0 17 6 -14 -49 -42 -23 24 -14 47 17 61 22 20 44 -23 5 16 -8 -50 80 -20 9 -54 -11 -37 21 11 37 27 12 7 -22 -8 3 -37 -17 20 -14 29 -1 -38 -16 38 -34 -65 -11 65 44 47 -11 28 35 17 -6 -41 -26 43 21 25 36 -48 -1 57 -13 -12 -3 -14 -12 -15 4 51 -58 -76 -43 61 -60 42 -44 -54 63 50 10 -128 -122 -64 -56 44 -114 64 90 -48 34 59 18 -125 47 -77 -13 -47 14 -69 -20 46 -84 -29 -96 49 7 7 30 30 -23 25 73 119 73 30 16 -31 -2 -122 -1 126 -2 38 9 -23 75 15 -67 -123 -59 52 -45 -11 -43 -115 -1 -65 75 90 43 -18 -94 -80 -1 -80 -44 10 -43 5 3 66 14 73 9 -17 8 -22 -66 -93 38 -128 -87 116 -10 -43 -18 -58 -2 74 16 -39 -46 -55 71 -2 35 -67 -101 -75 -17 36 -29 -17 117 0 67 -35 73 0 5 -82 5 18 -32 51 -16 -41
64 -44 -3 1 22 79 -16 7 -8 -35 -29 19 22 53 5 -43 -14 -52 -20 -16 -3 -15 -36 -53 10 -50 19 -28 -15 -47 -13 -57 -7 36 -39 41 -23 -26 22 24 9 21 36 11 -32 55 -37 -33 -43 34 -3 46 -11 17 -27 26 39 -49 13 -17 -25 0 3 -28 -23 55 4 -19 -27 65 15 -6 45 -18 -14 20 -22 -5 34 68 48 43 48 -28 -33 22 42 -29 31 -9 69 -18 45 -15 70 6 -1 17 12 27 -25 44 18 22 -24 7 3 37 4 24 15 -11 -39 5 -2 -54 -56 -17 65 -21 71 -14 -41 -40 67 -15 68 42 4 -17 -17 -9 1 -41 -3 -26 31 23 48 31 -16 -16 -9 -17 -7 -15 45 16 6 -1 42 18 6 42 15 60 31 23 -24 -49 -20 -38 -2 -19 -10 55 -8 14 -41 -43 -4 -47 -13 -41 -7 34 -54 -39 -8 -6 -61 -45 53 39 37 19 -20 -19 21 31 22 0 -13 -1 -12 48 -56 -27 32 -15 48 42 -40 33 34 -23 28 24 10 -40 27 51 -17 38 33 -25 -44 0 -36 -49 -4 11 48 -46 -6 6 28 17 -32 47 22 34 -39 7 -11 -66 -23 36 -24 12 -37 61 36 50 -49 -44 -17 -12 17 34 -1 0 -21 71 3 -27 -81 -85 -65 13 -82 67 -27 18 48 81 -51 -26 -37 9 18 65 -99 58 77 13 -8 79 58 -79 64 -44 -50 -85 17 -14 -65 26 -116 23 -70 25 33 20 -5 -15 -85 16 53 127 60 32 -23 16 44 -78 69 91 18 9 -65 0 75 67 -17 -39 -17 120 -87 -27 -86 -80 10 -41 67 42 17 25 -46 -25 -25 -28 12 6 -26 -28 -2 37 91 73 53 -21 64 27 -78 -55 37 -47 -61 89 -31 -51 -72 -48 -22 24 -84 -29 -12 -11 71 39 5 -75 -42 -18 -128 -20 36 10 58 48 67 -37 -37 -40 26 -19 67 10 15 58 38 13
48 18 6 27 1 -7 -3 14 70 27 35 -12 31 -19 -3 51 6 -22 -27 19 51 9 42 -14 -50 -52 -45 25 -7 -24 -25 28 15 57 -56 -54 -22 -29 -45 -6 53 18 -38 -12 -5 85 -51 -40 -46 -21 17 30 43 32 -35 -26 -8 -64 25 -33 -26 33 -29 17 -33 69 46 -37 -44 36 -10 3 -20 6 -23 16 7 7 73 -20 21 5 50 18 -41 -33 -2 -7 -6 -50 -19 -13 -60 -60 32 61 29 15 -29 -13 -63 -15 54 28 9 7 -31 4 -11 -18 17 -23 -57 31 -50 -12 18 10 -39 -37 39 0 -34 -32 14 -18 26 7 20 25 -34 56 24 21 -28 25 15 -15 -37 -33 60 20 23 21 21 5 69 -8 0 39 4 -66 -36 35 -14 37 52 20 29 -56 -47 2 25 -25 -25 87 59 -41 -9 -64 -28 -42 -27 -4 -32 3 21 -5 -47 -15 33 17 -1 -25 46 73 -27 -51 30 -12 -15 -47 -53 -25 -38 19 26 -20 50 -20 35 -31 20 -14 -35 -28 -29 5 21 39 -41 27 37 -66 -17 48 30 -44 -59 18 78 -31 16 14 32 -3 -34 -36 21 -4 -49 71 -26 16 13 -30 16 -41 -56 -9 11 22 -23 -38 -9 3 -33 36 28 -54 -25 42 -48 85 -20 55 -27 31 -34 45 1 11 -2 -13 20 -30 -75 52 -82 1 25 19 -24 46 9 32 43 -75 -61 16 -49 19 -1 -32 -5 -1 -102 -5 19 45 -7 22 21 -53 39 25 -66 -26 3 84 -9 30 -13 18 47 -96 25 2 -30 -25 -42 -10 64 -33 36 -8 70 79 -45 -20 -95 -24 8 -117 70 -83 3 46 -16 -62 -62 23 -22 13 65 -24 -28 2 42 55 25 -64 114 103 -123 -35 -28 -59 -59 -56 -48 17 -88 1 58 18 7 -21 39 -43 127 -5 -11 -103 -42 -8 -75 7 71 -108 102 -24 48 -25 -69 -19 -56 -35 85 -20 -28 -14 105 -19
6 41 50 -22 -25 5 -42 19 12 -38 41 -11 -30 -45 -78 50 48 -4 15 19 59 29 -38 3 -18 -39 -14 -10 -35 48 -14 -53 -29 -16 23 -51 56 9 -56 44 54 22 54 -36 60 57 -34 -22 -60 -20 -11 -43 29 48 24 9 -26 -76 -9 2 -40 38 -49 19 53 4 22 -39 3 4 -18 -9 7 44 -17 33 22 -14 23 -10 -26 19 47 24 25 -29 -28 -68 -29 -16 -14 -75 -25 -34 -1 30 -53 25 6 -15 -28 -31 7 30 -23 40 -49 -13 20 -8 -11 -13 -1 -24 -30 -68 3 62 47 -64 -31 -3 36 -37 21 2 38 -3 11 -8 -45 51 -70 20 21 36 -3 -63 35 -20 -15 -26 -37 -60 -62 -15 47 5 0 60 13 -82 -3 -39 -10 46 63 13 -9 54 -16 20 -22 -7 -19 84 3 -81 -35 3 -42 12 11 -25 -23 53 -18 22 25 3 26 -51 -1 -52 -40 64 20 3 14 -13 33 3 -23 15 -58 49 57 53 4 43 -27 -39 -3 20 40 31 38 32 -36 -2 -35 24 55 44 23 57 55 35 14 -6 56 -57 46 30 55 -4 52 25 -28 -1 -66 70 8 -54 22 -42 25 -35 -21 -23 -5 41 -52 17 -74 -21 -25 -41 65 7 -53 44 -8 78 -68 46 1 -30 -71 54 73 13 -62 -12 5 -26 -25 127 -21 -2 -58 32 66 5 -28 36 37 -54 16 -27 -34 7 -33 -3 77 -52 -108 108 -54 34 18 10 43 -33 11 -19 -66 26 -77 127 40 -31 -31 53 17 -100 64 -8 -80 7 -23 -7 -26 -74 -1 0 21 122 -54 36 -8 -57 -3 -53 68 -109 -88 18 -62 4 -70 -25 -95 5 31 -80 102 -20 85 96 74 -79 78 58 -75 24 -52 26 -25 33 -45 31 -92 11 20 38 -20 44 5 45 64 7 48 -12 26 -2 -66 12 29 -84 20 61 4 -66 40 -91 -57 -20 31 4 -27 23 68 -17
-50 -42 80 32 43 -30 -5 29 -39 -3 47 -22 26 -5 -66 68 59 -4 -13 40 -29 80 -19 39 14 -47 -55 -60 29 21 -27 -53 15 -58 25 -5 49 -8 -62 56 42 5 -29 -8 -7 -28 15 -14 -13 2 11 -16 -24 58 -39 36 -32 -2 -22 -9 -48 -42 54 16 57 5 40 44 46 34 -11 -15 17 74 7 -9 -5 51 7 -73 -56 56 -40 -27 47 -47 35 -23 -48 26 13 -6 -12 22 -17 22 -57 -25 -1 20 -8 16 9 -29 66 -24 34 -5 103 39 -10 49 9 84 -60 -7 -38 18 17 82 37 59 15 35 29 11 -56 -5 -1 -10 -50 -30 -24 -21 18 72 8 3 70 -44 -21 82 -48 9 -55 -33 37 -28 9 -37 -19 -81 -26 11 18 54 37 -66 -13 -14 -67 -13 17 -47 -1 29 55 -46 46 -56 3 -40 -34 36 -73 -39 28 -1 17 -70 37 5 -42 -40 -6 25 -16 -1 9 42 -23 -30 -50 4 -83 55 61 69 -10 4 -56 -39 26 -28 1 14 -7 27 -16 -3 -41 37 -5 12 0 31 -8 -23 4 -13 13 4 -44 2 51 32 0 26 -25 -47 41 70 20 3 -6 9 -50 19 19 40 9 -26 9 -47 -56 -23 20 54 14 5 7 14 -53 20 34 -48 54 10 -15 53 127 38 -47 -26 29 -94 -22 46 -42 -10 -79 -32 -12 76 -54 51 -23 -66 -57 36 -73 67 -22 42 31 55 -62 6 8 -46 68 -68 -16 -22 51 51 24 -11 -20 55 101 -39 27 43 27 -64 42 -4 -79 -8 -37 -20 -49 -50 100 16 12 34 66 50 38 27 -22 1 72 -96 -14 -35 30 21 -48 1 -58 43 96 -13 80 24 78 40 39 -18 37 52 -49 41 25 77 8 -44 -75 23 -27 -43 16 -32 29 65 20 -17 50 -2 6 -62 -12 -19 -86 -46 45 -52 85 47 85 -25 52 -36 13 -22 104 -68 42 -7 -37 31
-35 -30 50 83 60 -32 -27 -13 -37 -31 -1 -12 3 12 -11 50 21 29 -43 -10 3 -31 -32 -15 -13 -7 27 -32 -33 6 -58 -8 63 3 38 18 10 49 -43 10 41 -34 16 -5 -17 -73 16 3 -49 32 -41 -49 55 -31 -12 -60 -36 31 13 0 -33 -53 -5 37 -14 23 54 -1 67 10 -5 -45 -20 30 -11 27 -31 -3 -41 12 -28 26 12 0 11 5 -1 17 -55 -27 -40 -28 -48 -14 -39 -2 10 -27 21 -44 -10 15 40 -50 -33 50 35 -61 -5 -51 -30 -31 -29 1 -5 17 -4 -62 -31 -12 3 29 16 -12 -47 38 -44 -62 -2 -7 -7 -10 -36 8 58 8 9 -18 -4 64 32 -5 -22 -66 8 -1 44 43 39 16 36 -41 1 48 24 18 28 -18 -56 42 42 9 -35 -5 -3 -21 -4 -6 26 -57 -9 14 -13 55 -21 37 13 -13 20 3 41 42 -24 6 9 14 -33 29 -13 7 28 6 -50 -63 -6 18 5 -18 -32 -4 33 4 35 -31 24 7 37 40 54 -40 -19 -19 -61 -22 9 4 6 18 -16 41 57 -19 -25 38 -43 -32 -29 -39 41 43 -11 -28 38 -70 -15 1 -23 -4 47 -47 48 39 18 -30 -24 -6 14 22 57 -45 14 25 5 -10 -8 -54 0 -4 -42 78 40 -3 -34 -16 -69 -88 -9 98 -75 28 12 6 93 -15 3 -3 -3 -48 -57 9 -84 32 9 0 68 -27 -128 -21 32 39 8 -54 -22 44 60 83 -43 65 -5 -8 70 -3 17 -38 24 -79 23 11 21 -57 -30 -28 -10 10 114 35 23 59 25 34 -13 15 -30 -3 -8 -55 -18 -41 42 28 -105 -38 -46 59 13 -54 19 -41 30 32 -2 -2 -47 67 -38 2 10 58 -21 -64 -85 24 -44 -50 45 35 -15 43 96 19 -7 -36 39 25 31 -24 -47 36 23 -67 74 11 -11 -25 44 -106 -56 -33 94 -52 26 -4 -41 21
