32 -31 11 12 4 -59 7 -16 16 0 1 39 -31 -30 -43 47 44 1 -19 55 -35 -38 -32 -54 39 -10 -5 50 -58 -18 84 -14 62 -29 34 -15 -12 -46 -14 -56 -36 30 17 41 40 42 16 91 -31 24 71 34 -17 57 -40 41 0 -35 -43 -52 34 54 -15 41 -15 36 26 -56 -28 -22 48 19 24 26 1 -58 -8 -4 10 63 -9 25 26 -30 74 -33 -6 29 52 39 -47 2 -48 -1 12 1 33 -14 44 21 -44 40 11 46 50 43 42 17 7 73 23 20 -49 22 23 -33 64 30 19 -27 -6 9 4 41 -7 -47 32 -20 -9 36 -22 14 10 9 29 -41 -40 -2 45 43 5 -62 26 7 -12 -10 58 18 31 -47 -42 45 9 -2 23 -34 0 55 -47 16 -34 30 -19 -71 -30 17 50 53 82 -37 32 -38 34 0 27 0 49 -63 6 29 -43 -22 39 -33 -16 6 -28 -8 12 26 8 -27 33 36 -25 24 33 -1 8 47 56 9 26 -41 -39 34 6 -48 -29 -45 -16 11 50 -44 -30 12 29 -26 56 -5 85 21 40 10 -11 18 -14 28 -51 23 -39 -39 9 -52 -55 31 -23 -54 -49 38 -49 1 9 -3 -37 6 -28 4 -39 -37 -49 -34 4 26 42 3
-30 18 -21 44 40 35 -56 -65 8 53 56 -17 -39 58 -8 5 53 52 -33 28 44 20 55 -5 -31 -56 14 -14 24 -6 -25 -12 13 28 -48 -41 -62 9 56 -49 59 -33 -37 21 -89 37 19 -4 14 -11 50 -20 -19 24 -20 -34 -37 -15 53 -4 13 32 24 51 50 44 -8 38 64 49 -58 50 3 11 -13 51 41 4 -20 4 -64 -27 -58 53 56 -55 -56 -65 28 -11 19 -15 -27 -17 -46 62 -51 -51 20 -33 38 20 -44 65 -21 1 -5 -48 -23 26 -20 -2 9 -13 -44 -50 49 53 -59 -44 -54 56 24 30 40 -1 -57 56 -26 -14 -11 18 -7 -17 -31 45 9 -12 -5 0 -6 43 67 -23 47 6 -35 3 -20 -35 27 47 -48 -13 -55 14 -8 24 -1 36 -40 17 -70 36 19 -10 68 38 9 57 -30 -54 55 -32 -36 -2 -74 1 -25 -27 -1 -18 47 -65 -33 -15 51 -62 31 -2 3 35 50 -37 -35 -39 -54 14 -6 2 -51 -32 37 21 57 -53 -43 63 -44 40 -32 38 -66 5 43 -56 5 36 25 42 -36 34 2 -33 -53 26 -50 -58 59 -25 52 21 -47 -29 -48 5 -44 -14 -9 22 -22 46 -16 -15 -15 -19 -8 -65 -31 -30 29 -47 -13 23 -55 -22
-39 42 -34 -25 -25 -23 65 5 -51 44 28 36 28 47 4 -25 38 -23 3 -33 2 76 8 -28 -30 32 -18 -43 58 19 60 -54 30 -33 -60 -47 -35 65 4 52 21 72 -40 43 59 -30 81 -77 17 33 -17 41 56 81 28 27 55 -6 96 13 -31 17 29 -24 27 67 29 -50 -33 23 -60 -74 15 54 20 -64 -11 -62 41 -118 49 27 24 57 2 -12 19 64 40 -72 -26 58 2 -41 -14 -41 22 -32 -8 36 -50 -56 -50 57 19 23 -48 -33 5 -40 51 -41 -62 -10 -29 32 50 -30 55 46 -63 -28 -22 -54 54 -6 -57 -48 28 -53 25 -43 7 14 3 -8 -22 25 -25 27 -22 -70 -28 -24 -34 22 53 -53 -42 54 12 21 11 -16 24 -39 11 33 -43 -57 -36 29 37 10 51 33 23 13 -34 30 50 8 -18 5 -31 -58 -4 6 -6 41 26 -59 13 73 6 19 19 24 51 68 85 -81 15 24 1 8 33 -68 33 20 -67 -5 66 81 -53 -6 17 -2 37 36 37 -14 30 -29 -9 12 -5 27 65 31 29 63 -15 19 21 -2 69 -37 -57 103 7 44 44 38 -52 1 -50 9 26 -65 -36 -22 -5 -4 37 -43 44 15 -38 -33 -48 57 -9 34 54 63
9 69 -59 42 20 -20 -35 14 0 29 -31 -12 -34 56 26 43 -48 14 47 22 -41 -42 26 -4 72 5 -43 31 57 8 -29 -20 -18 44 23 -50 -53 21 32 -60 7 1 26 -10 4 -19 -9 78 53 59 55 -65 -28 -5 -36 -20 41 -62 10 11 36 -29 33 24 -26 -33 8 -27 -27 6 73 48 -2 -38 -12 -69 59 -68 19 52 -20 -28 17 56 15 -46 -38 42 26 -1 45 48 3 -18 28 -43 57 34 35 -43 9 46 63 29 -4 -29 -31 3 -36 36 18 49 -51 46 -3 20 27 -38 -62 -46 30 35 18 -51 11 -56 -64 -19 -56 -24 -8 -57 16 -28 -11 7 -47 64 -45 32 -31 24 32 22 -56 -11 18 39 32 -58 64 51 86 -71 21 -8 98 -1 13 -8 -47 -11 44 -46 62 -32 -9 65 -12 44 -9 53 -21 16 -22 -42 29 -52 18 6 -10 14 -66 23 62 54 -59 -13 -53 85 -67 -28 -14 16 52 30 3 -1 -37 97 -27 -14 -12 -1 -12 -44 -27 31 42 -6 -39 -13 83 -64 17 -53 -25 24 22 -60 -56 67 60 -27 41 24 -11 38 -49 46 29 47 -18 22 -46 52 2 -1 -11 35 -21 46 -40 30 -55 -4 -15 0 -10 -18 43 62 24 -11 46 -9
43 39 40 -2 22 79 3 -24 1 -8 -24 4 40 -80 15 -32 -3 -28 -42 55 25 -16 -60 41 -49 1 52 -14 -55 -13 19 -39 54 -72 30 -6 13 -4 -60 26 -28 8 43 -74 -56 -44 58 -34 36 45 6 -24 12 1 58 34 6 -58 -39 7 40 45 13 28 -23 26 -6 8 -35 -17 -80 -64 -59 14 -34 -51 48 -5 14 -24 10 -25 -49 -8 -54 15 -68 26 -53 11 -84 -58 29 -57 11 -57 -38 -11 -1 -1 -14 -26 29 -43 -1 -54 -16 40 -105 -1 -29 35 -64 -36 29 -29 42 -10 41 -36 63 38 -22 45 -37 -1 -1 -71 -53 5 51 -16 28 -32 -83 -35 -71 -22 -21 -1 -33 -1 -34 -30 2 -46 -35 -35 22 -7 -52 -49 75 -27 -81 -72 -54 -9 1 6 -71 -63 -58 36 45 -82 -14 -42 -83 -37 -37 -67 65 16 -59 -49 2 22 -52 44 -40 -70 35 -21 -80 -27 -80 -79 -40 22 11 -36 21 -42 -39 -4 -54 5 32 -18 9 12 -13 -82 -33 64 -58 -71 -48 -80 -38 -88 48 41 -39 -69 41 -26 51 -25 -28 35 16 -51 -12 -20 17 -36 64 35 30 12 -54 4 -19 16 -32 -1 24 -10 27 45 25 3 -49 20 17 -46 22 -9 -82 -55 -38 18 -5 34
-58 47 -56 35 -46 8 79 -6 22 39 50 -29 47 -4 -48 -20 -43 -44 60 -36 -53 -60 -32 -40 -34 -19 54 8 37 -5 29 -35 -51 -57 -14 -17 20 -28 -28 -25 40 18 -6 32 5 37 34 24 -12 15 40 -3 25 -57 22 -7 -17 35 53 19 -44 -6 -37 -6 58 -1 18 44 -25 -71 66 24 50 -59 -10 49 -47 -43 30 -27 -36 -21 24 45 -53 -27 -63 1 58 -6 -33 -58 45 1 22 -23 -22 -8 -56 -27 -62 0 -1 -5 36 -34 5 -6 53 42 2 -16 14 40 33 -61 30 -32 16 -56 45 -47 64 -41 14 49 -26 28 -2 40 -30 2 -8 -42 -12 -51 -47 36 -41 43 0 -28 -46 7 -46 -4 45 -38 -67 2 48 14 47 -9 20 -5 -64 -61 -1 -65 -41 -3 48 39 25 34 -22 50 2 -46 57 -60 23 -2 -10 -9 44 53 24 -23 -71 -64 -41 -96 -3 -24 -22 4 51 25 -47 -7 -31 -42 -69 -10 -53 46 40 -47 -3 48 -56 55 -29 -75 -88 -11 -16 48 64 -6 31 62 -49 15 -12 -39 -41 46 -56 -19 -30 26 -43 2 12 -12 52 -61 -25 40 33 -64 -84 41 13 60 52 14 63 -32 -25 -49 17 43 73 -8 44 -78 -55 -63 -34 -72 0 6
-34 -35 -27 83 18 -50 -48 30 64 25 -19 -9 53 -64 -80 -13 6 11 30 -77 -19 -55 -1 -14 -57 23 9 -40 16 -33 9 -27 23 42 -6 23 41 9 60 46 -102 54 10 -38 58 -3 -7 -32 -5 3 25 -27 -61 51 30 -40 -11 11 4 13 -15 21 -36 -33 59 -18 -9 4 -16 24 36 67 -47 -18 -59 -42 -48 -18 -38 -77 -49 0 -25 62 29 -38 43 43 -49 -80 32 -49 22 -43 -74 -63 -40 -68 33 9 -46 14 -91 -80 -3 10 -51 35 14 40 43 -7 2 -42 -33 22 35 11 -3 5 -55 -37 -9 -15 23 -26 -10 49 -4 36 -49 -15 -18 -18 -93 -23 21 31 -33 15 -25 -5 -71 -12 58 18 -25 -67 15 -38 42 -3 3 -37 31 0 59 52 -68 -19 57 19 21 -50 1 -21 1 41 -14 -71 9 7 -50 72 -76 -63 -30 57 9 -68 7 22 -70 63 -20 -44 -53 -21 15 43 -17 40 46 40 36 -15 -1 -45 -53 -13 -16 48 -52 -7 -110 50 -49 7 -14 -24 13 10 40 -13 15 -9 7 -37 -10 6 15 24 17 -48 40 11 -36 -31 26 -10 27 38 -36 -52 -18 -3 -17 -66 10 48 35 -26 -55 -58 -47 25 -29 37 62 -41 20 -66 -10 -42 -47 -52
-76 -37 5 -6 -52 -83 71 10 5 39 16 22 -31 -52 -55 -45 24 -28 -43 54 18 10 -1 35 48 10 -28 -38 -20 55 -23 -34 37 30 54 -33 11 -21 32 -49 37 27 45 37 -84 -12 -34 -63 -29 29 -57 -11 -31 31 -5 -47 70 -48 24 -85 -43 33 19 -3 -51 -10 -6 -6 50 33 -56 -15 -55 22 42 12 -26 6 -69 -31 -2 -25 38 -61 -52 -59 -28 41 4 15 -77 28 -9 -31 19 -49 -25 -42 13 -4 -15 21 -75 52 -36 -32 -32 -9 72 47 0 44 58 37 -36 -45 -56 -10 0 -11 19 48 12 4 -72 -78 16 -64 2 27 1 3 62 -20 -81 -1 18 -22 -72 -21 20 -37 35 -9 38 -25 -61 19 -61 9 -39 21 -32 70 -1 -68 14 -21 39 18 -77 21 13 -87 42 43 -22 33 -36 -22 -39 -55 78 -73 5 -3 19 -6 -21 4 -46 -63 -33 -74 8 35 10 68 -39 42 8 -3 -24 -15 3 -31 47 -21 83 -18 -48 26 -31 18 -77 -48 -61 23 -4 29 28 22 -39 -29 -64 39 -35 -43 -64 39 42 -5 -61 -40 9 -3 22 29 21 -50 -66 17 15 3 26 32 52 42 -3 -39 -58 56 11 15 25 14 48 -3 12 14 -18 -4 -59 53 -15 18
-14 51 21 -62 4 20 31 -52 5 -22 -34 -48 0 -19 -8 -32 -52 7 -50 4 -66 -17 -14 -6 42 54 -40 47 7 -61 -48 -10 10 -69 39 32 41 -61 -19 -61 18 -25 -69 -22 -54 29 -97 47 -37 54 -57 -20 -28 -50 -72 -81 -50 44 69 -12 -3 37 -20 26 -7 -39 17 -24 34 -63 -44 -10 -32 11 -13 43 -11 -38 -7 16 -44 -5 -11 -19 -67 20 -36 -27 15 11 -25 -30 -26 -22 28 -48 -42 7 5 -16 -11 16 -12 32 -8 -16 43 -60 18 -59 -62 -11 -49 -52 21 26 6 49 -43 50 -58 51 11 0 -52 32 -19 -17 39 21 -52 27 56 17 13 28 55 -21 -2 -15 20 -19 -15 33 41 -31 -36 38 11 18 -62 44 28 26 -4 7 21 -26 -48 6 61 0 43 -65 -3 -63 -12 -64 18 27 -18 43 -46 -35 -24 28 -32 56 -34 -16 -24 -9 3 13 43 -10 45 44 -54 -26 -27 64 -66 2 -4 52 -5 -41 38 -8 -51 41 32 -41 -91 -26 -73 -35 -8 12 50 48 -67 20 -14 49 -45 16 22 -28 -14 -14 -41 -45 3 -22 -49 -7 37 12 -47 -40 -33 19 57 -57 -43 22 27 0 -44 -9 -39 -2 -9 32 -9 1 -34 -77 -14 -56 -34 -92 -50 -57
39 -2 27 -56 19 23 -18 19 5 32 -30 -53 39 -53 -34 52 -36 -53 5 -36 -34 -70 -15 -9 52 7 21 41 -62 -59 -46 -20 36 1 -13 -7 -51 -20 45 0 68 34 52 14 10 8 31 -9 50 -51 -2 -7 -2 -50 -52 26 6 57 45 2 -62 1 71 121 -53 22 -27 31 67 -19 -51 34 1 -16 -29 -59 27 -4 48 -18 13 -45 30 55 -42 43 -47 -26 15 -45 -36 58 -29 14 -3 28 -7 61 2 59 -25 -50 117 70 10 39 -36 -52 26 -19 4 -15 26 22 -23 -59 -20 -52 54 -7 63 -38 28 33 3 -29 -15 39 28 71 30 67 -20 30 -47 16 -57 -51 -33 29 -15 -7 -32 -54 40 30 6 -41 -7 -2 -47 34 0 31 36 -9 -38 -5 -41 -70 25 -2 78 -74 58 -40 -1 -52 -19 -10 34 21 5 29 7 -33 90 -34 -23 -59 49 7 -23 -2 -6 -26 34 31 32 -16 -33 -40 8 8 -55 -21 43 -2 -1 4 40 50 -45 71 41 78 45 -67 -5 8 -23 -9 19 46 55 -40 -26 34 -51 27 -54 -45 0 37 -47 6 46 67 -57 -60 26 -60 -30 -54 -15 27 15 87 -25 51 28 -8 63 49 -64 -27 -47 49 -50 -26 -38 -9 33 57 -53 -56
-44 -68 56 -12 -40 -33 25 46 33 22 17 -15 38 -33 57 -2 55 38 -36 40 -15 35 -13 -51 -17 52 37 26 5 50 53 0 62 40 10 69 -29 -54 22 56 65 52 18 -63 20 38 81 8 94 5 -35 -41 1 2 15 -6 17 -49 -45 -38 42 44 -3 50 11 29 -11 -29 36 -8 53 -11 -21 34 -25 3 -56 -9 35 -39 -3 53 11 -15 -5 -48 -40 17 26 -43 -56 -11 -49 -23 13 -67 58 43 62 -14 -63 -20 36 38 -30 0 60 64 8 25 -15 -52 -62 -12 -35 40 28 26 -59 -76 42 -13 -16 -11 -21 29 -47 19 33 -53 11 -19 33 33 -36 34 -23 63 9 35 10 7 28 60 39 -13 12 10 19 42 48 -36 12 -40 34 -41 9 10 -56 -30 -26 -28 12 13 -22 34 27 -57 17 -48 -64 -43 -12 28 19 14 -2 -14 -6 40 23 -43 -61 -50 -7 -54 13 -22 49 95 -17 -42 64 -42 28 0 32 -26 -17 24 47 -20 11 -28 20 -7 -19 24 -40 -18 41 -31 -13 -18 -21 -24 -29 -59 43 35 51 82 -27 59 21 -33 7 -34 65 8 40 90 40 10 5 47 -34 -49 43 31 46 33 85 -5 -84 -55 44 7 -12 5 46 -38 34 13 -51 17
4 -28 14 -2 13 -54 38 -56 68 52 -47 -18 33 18 10 13 -67 -8 -54 -19 57 -76 50 -5 41 -39 -4 -35 -74 -8 56 -52 58 50 28 30 -75 15 -55 5 0 4 35 50 36 15 19 -12 -34 29 59 -16 22 39 -66 -54 -94 -1 -6 13 1 -25 -24 -49 -61 -36 -65 -35 40 -11 -53 -12 -17 6 8 40 33 33 -7 -15 -31 -60 1 -10 25 1 -49 46 -16 -58 13 2 -51 -22 -47 7 -49 13 6 -46 27 -47 -72 -5 51 -65 -27 -67 -16 6 -2 -51 -37 -51 -37 32 29 58 -35 -5 -33 13 -30 15 -16 -58 -54 -60 -13 -24 3 15 -50 56 22 8 32 -31 -67 -66 -49 -3 -21 -45 -35 24 8 -39 -8 -62 31 15 74 -55 -54 -43 47 19 -64 -34 62 50 11 48 21 -12 -59 32 34 -35 -59 -46 24 54 -27 -3 -19 58 -90 -29 18 27 -67 -2 -46 12 -49 -24 -63 44 -71 13 -16 -65 -64 -13 -52 -43 36 37 1 -28 10 67 -66 -76 18 5 26 -56 -22 29 23 -29 49 15 -53 61 -29 -54 20 80 8 -66 49 9 -95 16 16 34 -27 8 -32 -28 13 5 -29 -17 -55 -62 15 -25 -31 -28 -79 47 -73 -45 69 51 38 -60 -70 -48 8 -21
19 -45 43 -22 13 38 -37 46 -33 -23 39 -28 -62 -68 -48 -10 0 -12 -4 -18 42 -4 54 -57 -18 2 49 56 -25 -67 -39 -37 -20 43 -47 -36 41 6 -58 37 -45 -10 49 4 -20 48 -56 -27 -42 -33 40 -4 -38 4 42 -28 12 -3 -37 37 -19 -1 16 -5 -24 -47 -16 -11 -38 -44 -30 -61 -47 2 -63 -23 -62 -26 43 32 33 -6 -2 21 51 -60 -10 10 -47 -46 -40 29 -61 -68 47 28 -57 -50 20 -42 -47 -55 -58 47 -46 -2 -4 50 -41 -18 10 -24 -7 -18 44 -2 -8 0 39 2 -27 30 -17 -49 -65 -62 24 -76 -62 -18 -43 -76 79 -3 -37 -41 25 47 22 31 -11 48 20 -61 -33 -2 -18 38 -51 37 -67 -33 -102 23 10 15 27 52 -45 -16 -20 -14 -31 -5 -40 -18 -5 -43 -42 -28 33 -27 -42 -45 -43 51 -2 49 -41 36 11 -44 15 33 46 -68 -8 -25 -39 -89 -35 -68 -63 51 22 -17 -59 -43 28 -76 28 33 -26 -16 -34 23 -25 57 53 3 15 51 27 68 15 18 -2 -74 41 -15 55 15 -66 22 -118 43 9 37 -4 -16 -22 -16 -41 46 25 20 13 -86 39 -65 -17 -4 33 -65 -11 -41 28 26 -53 51 5 32 -53 33 -8 62
34 31 -5 45 -42 -56 4 -18 -50 -19 43 60 -38 -47 35 -26 10 -13 -58 -47 -9 -20 -28 -5 76 -8 33 11 50 22 53 55 -54 -22 19 68 27 -13 -40 -48 32 58 -69 2 26 15 2 17 21 56 63 25 -15 14 -8 55 37 53 11 -5 18 60 29 38 90 -34 -28 26 -28 -30 -2 -19 13 -18 32 -39 -59 15 20 31 62 -19 -45 12 47 10 -18 -39 -17 28 27 -60 1 -55 -37 -28 -44 -41 2 14 38 65 -25 -33 3 17 -4 28 -54 22 -43 4 -38 0 29 -30 -60 25 45 20 59 24 -40 -66 -32 19 -17 21 -56 43 -53 39 -41 4 24 -41 22 -38 20 27 -66 13 15 36 -29 57 8 -55 19 3 17 49 19 5 -10 27 7 -7 -43 -13 19 40 34 14 -27 12 -13 21 9 61 -39 13 -56 6 -8 25 23 37 -24 -51 8 37 -33 -42 64 -23 -48 14 26 68 13 2 -33 58 -54 21 56 43 -22 19 12 15 -10 15 59 49 -42 63 51 11 -48 36 2 -49 40 16 -62 37 -24 -48 41 -76 5 30 -38 61 56 36 58 -50 -57 -36 -15 8 -2 -41 -51 -38 -14 49 -23 -15 -80 -67 -16 -4 83 -50 -47 -45 46 -28 24 46 -44 16
35 -26 -51 -4 9 6 20 -19 33 -68 -21 -45 31 36 33 -25 21 21 18 42 51 7 -28 3 0 -1 -56 -47 -30 -16 -42 -33 40 37 30 -21 92 -59 9 -8 -49 -10 -8 56 -63 -47 -13 25 11 -41 -32 -1 72 24 -22 -19 -73 -9 -9 -64 15 6 -2 42 93 -49 53 30 38 -67 -22 -1 20 -53 -6 55 -49 46 -1 -80 -23 -45 8 -57 15 -15 -67 -65 50 -57 -25 12 46 50 49 38 -12 -4 20 45 -13 -53 -58 -24 -36 31 -6 -13 4 -32 21 38 1 30 33 -63 -66 -19 47 -57 41 -19 1 9 12 -56 -18 -45 3 54 -40 35 52 51 13 52 -26 28 -32 -24 -8 -20 -45 -4 -53 -13 32 -33 -35 35 -21 -41 -17 46 -9 18 -47 -45 25 8 51 -43 41 -28 34 53 0 26 29 -13 63 -30 29 -11 47 -16 35 20 -68 -16 -4 -23 -16 -65 48 -21 -12 -25 -43 -66 -1 -28 -55 33 55 6 38 -60 -68 -80 -11 50 -17 -37 -28 -2 -84 -19 32 -55 -25 6 28 45 -19 0 15 -3 37 -45 -68 -74 -39 32 -51 45 -76 -16 60 -47 -68 -69 -48 42 49 31 3 -20 37 -61 -24 -19 -50 17 48 -60 27 7 17 -11 -41 51 -44 -4 7 28
-37 25 50 -24 -59 24 24 19 -24 -54 -21 44 1 -46 -64 -4 -45 -55 -23 30 -3 8 43 -8 53 20 34 -65 -57 43 -35 -66 16 37 12 -26 18 49 -14 23 -21 47 24 -26 -7 17 -25 -8 31 -22 43 15 -11 43 25 -35 -50 34 4 -3 41 10 43 -11 30 -67 43 59 -20 4 54 25 16 52 -26 -31 17 16 -23 -11 14 -66 18 -15 59 -59 -68 -23 62 39 -10 8 11 13 -64 -32 57 -32 33 27 49 30 -36 -57 -56 1 54 36 -41 40 52 23 -28 -30 -6 -13 -51 -40 -65 57 -2 5 55 23 -3 50 -18 -57 37 5 2 45 65 -63 -81 37 -32 13 -43 -16 -70 6 2 -3 -17 0 35 -61 53 13 -31 11 -27 19 -56 41 10 21 20 -37 50 -49 44 -31 -35 -31 -53 -18 -67 20 -42 -61 -7 40 -16 -2 36 34 -12 -15 -59 -37 -20 -26 58 -25 -38 23 51 3 -12 19 29 8 31 -22 -88 7 -26 27 -40 -43 65 -41 62 -39 -2 52 23 -32 23 -54 25 56 -55 -6 26 -58 55 45 50 8 43 -60 33 8 3 34 -66 -42 -94 20 -45 63 -4 -5 -42 -19 1 -4 31 -76 16 -31 -48 -41 49 64 45 -26 -53 -1 -33 -11 18 -44
-67 18 -14 36 -41 23 -35 10 -35 -6 -43 -62 -64 5 48 0 -58 -7 -41 -8 -29 63 14 40 18 -65 34 18 -50 -26 -45 -33 60 -42 -19 -41 20 11 -17 0 42 -24 -54 73 22 49 44 27 -13 33 -81 66 30 -1 11 36 53 -4 -31 35 45 81 72 29 -25 -7 -62 -1 -18 57 -28 67 -17 -53 6 61 -36 33 -62 -44 -8 26 -52 35 -59 -27 -51 -26 5 -4 -36 -52 -2 10 -4 -18 -24 21 -67 -11 33 -39 -68 14 -58 -42 46 -47 -22 45 -9 -19 18 -17 -70 -17 -32 -31 41 -44 -23 48 -47 -3 -20 38 -13 8 22 6 44 -44 42 -32 34 -5 -45 40 -19 36 -61 -23 9 16 53 53 48 73 34 -33 -29 62 35 29 56 -53 36 -67 -52 -58 16 -1 -38 -48 -21 -13 -45 7 -8 54 55 28 -54 51 8 14 -71 60 -28 12 12 -33 2 -68 -17 48 48 -16 33 -63 15 23 -2 37 -22 -46 38 50 -8 -15 55 -50 4 -10 66 -14 -43 13 47 -18 -42 -57 -11 73 -41 5 -36 -36 56 -39 27 -56 4 35 -27 -2 -28 -3 -30 5 -43 -82 -24 37 30 -38 19 -2 47 14 16 32 -23 -8 59 -33 15 50 -21 -8 -41 -4 35 2 -24 -76
48 -25 -40 19 -34 -19 -25 -41 -33 39 7 -48 -27 5 24 41 17 -54 -38 2 -36 3 -54 31 -53 44 -18 24 -4 -22 6 -8 29 48 -38 46 -22 57 20 41 54 -58 -62 -37 -36 7 -26 -55 -18 -16 -40 -3 -59 33 37 -71 49 -27 -53 -21 14 48 65 -8 68 28 -17 37 -31 -37 -31 -54 18 -30 -52 -2 -74 28 -51 -46 -27 46 7 13 -70 -37 -38 -40 -25 40 17 12 39 1 -68 8 -18 38 -36 35 -16 54 122 20 7 44 -30 -59 -13 -33 42 -3 -33 50 -26 -7 15 3 35 -9 20 -54 -33 -8 -41 2 -4 4 8 -44 26 41 69 -1 -67 23 -16 8 11 -10 -36 -38 23 -7 -4 -53 32 38 -84 -15 32 -44 -65 -15 45 24 -42 -46 42 -42 -5 -59 46 -37 53 -27 -19 5 32 -53 -42 26 22 -57 -24 -20 11 23 -41 5 -53 -62 -49 -35 -56 -60 27 41 -2 -31 -26 53 2 63 33 75 -103 -57 7 16 7 26 -27 34 0 -2 -24 65 -16 -37 59 -27 -48 -49 52 -1 17 -13 40 39 35 -35 -56 36 -78 11 31 -44 9 29 -56 -17 -44 -24 -54 25 -30 9 35 37 38 -20 28 11 47 -44 0 -57 4 -52 33 27 -30 12 39 -6
18 33 24 -70 20 -51 49 30 -84 17 24 -9 27 -20 -41 25 -52 -15 54 -7 -64 46 30 -43 -55 49 44 19 11 12 -41 70 57 -53 -60 -23 17 -38 -61 -31 19 -5 49 29 33 -1 19 14 25 -2 -41 -63 63 41 22 -28 -54 33 -55 19 2 41 3 -24 -14 -30 -68 19 -8 11 1 19 23 63 -22 -29 12 51 -41 57 91 21 0 57 56 16 -30 -17 -84 -38 -39 -65 -8 -17 41 48 53 -63 26 -49 57 41 29 -48 46 -35 69 7 -100 -13 26 0 1 -6 45 43 -39 -67 45 28 -32 38 57 -40 -28 35 -46 -18 -84 14 3 23 -39 -18 -63 17 53 6 10 -9 21 49 45 -6 -27 -11 5 53 -59 -18 20 5 36 18 32 34 -41 -30 -60 51 40 -5 49 2 66 -47 42 17 20 -31 39 -38 24 -57 41 35 53 12 -45 38 -56 -29 0 -36 53 -42 -83 32 -47 -10 18 -10 4 38 14 -40 -16 12 48 48 -79 43 -57 5 -34 19 -25 -48 -19 -53 -17 -23 34 22 -38 -44 1 -69 -42 -21 46 -22 58 -41 4 -53 -56 -28 -62 31 45 7 -59 17 -50 -10 -56 -54 -57 -31 -60 -22 -64 25 -43 0 12 -35 -17 11 -54 46 -24 -30 25 -44
-9 -63 -42 -86 2 -48 13 -60 -52 13 25 -18 9 -9 -9 26 -58 -62 -27 51 5 22 -51 -39 29 -49 -79 31 -2 34 17 -7 -43 25 24 48 39 -33 -6 61 12 -61 16 -8 57 7 49 -2 0 -22 -21 -41 32 -27 -64 45 -44 -21 12 -5 -50 49 28 -43 -8 -48 23 22 0 27 -29 -9 8 57 -43 38 -65 13 49 -11 28 67 24 0 1 -49 -35 -25 -60 41 16 -69 33 -45 -9 -22 -41 -23 -20 22 -12 -58 -22 -26 -33 4 24 7 15 -8 -42 -24 31 46 5 44 -20 -41 39 -32 -14 -3 61 -56 -45 -28 15 -58 -5 -36 37 -31 -12 19 -35 -15 26 20 54 -28 52 -20 -9 50 68 26 -31 59 -19 11 -36 -55 20 -15 64 21 -69 -7 -4 -19 -32 -41 18 24 41 15 -13 -13 -5 27 47 -23 -33 -22 30 30 -24 -55 -51 41 61 -26 24 -59 -11 -26 24 -14 -14 -5 56 8 23 78 -9 -67 -26 -29 -31 -47 -16 2 -39 -47 11 80 -35 45 14 -37 -23 -31 65 -16 45 -38 -3 37 61 -45 -35 54 -54 30 19 -27 42 -57 -35 39 -59 42 -24 11 -62 -48 17 -52 88 -51 12 31 -89 -59 -20 -44 58 -62 -19 -51 -23 39 -15 16 -35 4
58 50 -59 -45 -41 -9 44 37 -26 27 -39 17 38 66 36 -14 -42 -44 -7 28 18 -37 44 -30 3 29 -67 -64 43 -46 26 -55 47 36 30 1 16 -16 8 -2 -32 -83 -52 -29 14 -14 -63 -24 -4 27 -14 -7 32 -16 20 -27 -32 -13 -69 17 2 -9 31 -45 0 -81 -15 20 -41 -38 -53 46 -35 -55 22 -22 26 -2 55 35 3 -11 -36 -21 -43 -37 -22 -48 59 12 20 36 0 -33 49 -11 22 4 7 -21 -1 38 33 -56 10 -13 -38 -26 34 -6 2 -35 50 -29 -7 32 -64 19 15 47 53 -51 -22 -59 45 -10 -34 -24 -31 -12 35 -59 9 35 -16 -12 53 58 -21 -44 -20 -2 -29 28 -37 30 -19 -23 -21 -2 -29 -51 -54 15 0 48 -4 -23 -57 -22 9 32 51 -49 -22 -35 -39 -28 11 12 -54 45 -24 -24 12 38 53 18 -7 62 41 -56 -58 -81 11 -20 -7 23 -30 -12 38 39 -47 -85 -50 -47 2 7 2 26 53 59 -55 -16 -35 -24 29 55 -96 22 -45 41 18 26 2 16 -41 7 -13 5 -53 -14 1 -71 -46 68 27 34 9 14 30 -71 23 26 1 0 6 44 -51 32 -56 46 -28 -12 26 -52 22 23 -86 52 -23 27 -62 53 -23 -78
-34 -43 18 35 -58 -9 5 59 42 -53 -45 31 -53 40 -45 37 -44 -18 -61 1 -35 -51 -37 48 -40 47 -68 -59 35 -37 -7 -49 -63 -69 42 -34 -13 18 -15 25 1 -19 -44 -68 8 -10 -10 -33 47 -1 16 -47 -38 -13 3 -29 49 68 7 -35 44 -37 56 -8 52 31 -9 -28 59 19 48 31 -25 -54 -64 -42 -38 58 23 37 48 21 -2 0 21 -57 -54 17 -21 4 -21 -53 12 -34 -28 48 -57 -64 26 -28 -22 35 83 -6 -2 -19 -69 39 -54 32 -21 19 -9 -65 -72 -21 47 36 -33 35 -45 -4 26 -62 18 -19 -57 11 -12 -3 6 -35 -61 17 -2 -29 31 7 -62 33 5 33 -43 24 -27 -33 -26 37 -25 36 -59 -54 62 38 21 -26 -2 44 21 -24 21 -7 32 25 25 6 -51 27 -6 25 -15 3 37 69 -30 38 -20 -66 -4 4 49 -93 -62 -23 -57 16 -10 21 10 -16 11 80 -15 -50 -55 19 28 -3 -5 -4 21 -35 36 21 -68 -32 -50 -36 3 -2 -68 49 40 -56 17 4 24 -20 -49 -58 42 -4 38 10 55 2 -98 -14 37 -24 -79 20 -33 20 23 -48 11 -3 -38 -28 49 -62 38 -19 -49 -21 -5 -17 0 -87 -7 -49 28 -70 -13 55
31 -97 -35 70 1 29 39 14 -64 -23 -62 -2 -57 -77 46 -29 -36 -46 -63 -40 -17 -75 -12 -64 57 -18 40 24 2 8 -68 -12 -16 41 2 -11 50 -23 -32 47 -55 -35 -40 -54 40 -41 -32 1 -48 -24 -54 44 -45 33 15 -18 55 32 49 -44 -10 9 38 -22 3 -18 16 1 21 -32 -67 -27 -23 -25 13 49 47 38 -36 48 -55 -19 -3 -60 27 -65 17 31 51 77 38 42 -21 -76 -41 -91 -49 -8 17 -41 31 3 -59 24 23 -32 -11 53 6 -91 -40 -26 -17 46 -35 -50 -77 -50 -50 -79 15 -39 25 -46 36 -46 29 41 -25 15 -30 -15 83 32 -69 27 -24 -60 -23 -60 -71 -47 -40 42 -91 -55 -24 38 27 -24 -53 -1 43 9 -54 -5 41 17 32 -76 -23 -23 -70 1 34 -18 21 39 -70 23 -26 55 11 -1 67 -40 -10 14 29 -72 38 -28 13 1 -53 17 37 20 25 54 -53 -10 -38 61 -18 -40 -38 14 -10 -42 66 -27 -52 11 -92 -95 -40 32 -47 -35 59 21 -66 29 -37 26 -48 44 -10 -64 -29 1 -43 -42 -52 17 -56 -24 -1 -75 3 1 -108 -58 -27 33 51 -77 -53 50 -48 -53 -21 -47 4 40 -2 7 63 17 -54 13 -45 -73 -65 -8
35 -42 -70 9 -30 -69 100 39 -52 47 54 46 42 -72 10 -39 1 -36 40 12 69 -47 60 -66 -18 -10 -1 -5 -30 23 17 -22 -36 16 39 -14 -8 9 -29 40 27 -5 28 28 -95 37 -36 -70 -8 -10 22 -28 -32 -104 10 18 94 107 80 52 -22 25 -8 33 76 -53 22 -59 5 -47 -55 -24 22 16 0 15 -38 -1 -7 39 -4 75 66 42 -54 25 2 64 -23 49 -64 22 -20 -47 -19 6 -33 -57 -47 -27 15 41 -79 -44 0 -30 41 -49 -54 -14 -34 -30 -73 -7 45 48 -96 -30 -9 -18 -36 -1 6 -14 -64 -25 43 52 9 -19 -4 34 60 -58 10 -68 -49 -50 22 -16 21 -47 9 -53 -24 -67 -1 -17 4 25 -57 27 -64 58 10 -39 -51 -35 -18 -10 -70 -3 -15 -71 -57 14 -47 -36 0 -47 -68 54 18 -26 54 43 -76 -18 -26 28 38 21 -53 20 -12 49 -37 -37 -18 -89 38 110 43 66 -28 88 20 -46 23 -35 -24 48 -40 36 -45 -68 -22 -54 -58 46 32 30 -64 113 -48 -30 30 47 -53 -21 -34 -96 -82 -71 -64 -3 -2 11 45 17 -64 -25 -24 -89 -1 -52 31 -12 9 -22 -52 11 -11 -26 39 -5 -14 -21 -47 -1 2 -15 -32 -85 -37 -5
-34 13 -17 -4 -14 -37 116 22 -49 48 68 4 -4 15 -54 -6 -37 15 -23 -60 -20 -53 -69 -9 -5 47 59 15 -56 51 -70 -39 -36 -21 -69 61 38 39 23 -34 -40 -92 -20 31 -83 -26 -88 -10 -65 55 -23 -1 -23 -32 -18 -1 59 112 44 44 -81 64 -109 43 123 -93 -53 17 33 -28 41 10 -45 34 9 -62 -71 20 20 -10 6 32 -36 -31 -48 -8 28 43 -42 52 1 18 43 34 -33 13 -60 -19 8 -13 -61 26 -72 -31 -79 34 -3 -65 11 -56 -26 -45 22 -60 8 -69 -35 34 -49 -7 -53 -68 -43 -14 -29 40 53 31 -24 -22 -7 8 39 -49 -61 -23 37 11 -20 58 -47 -53 -42 -65 8 39 24 -2 -73 -50 29 -94 -76 54 -36 -34 -38 9 -2 35 21 13 0 -5 3 -75 -44 -11 32 29 -45 -9 -13 -101 -37 35 10 67 -24 16 -15 31 -30 44 12 39 17 -23 -61 -32 42 45 -37 2 -29 -9 -115 49 48 -73 20 12 -18 24 -55 5 -45 21 -62 21 103 32 -24 9 10 -68 37 -88 -72 -61 16 -45 -12 -13 -121 27 55 24 39 -21 -71 -94 14 -8 -53 -73 42 43 11 1 64 7 -41 3 -16 38 -15 -49 -84 -39 -74 -32 8 -67 -58 -39
2 -32 21 21 48 -99 53 -43 -73 -69 8 107 10 59 -16 26 -54 9 55 -12 40 60 -16 -9 -18 -25 -37 -37 -19 -30 4 -13 35 -51 29 30 -15 -24 -29 50 42 -11 53 -26 33 -27 45 40 -27 -57 38 -30 -24 -72 -59 34 28 34 -16 28 66 23 -38 -84 1 29 -69 -11 53 41 64 -20 -19 -20 31 -48 -2 22 -22 -37 -58 -86 -23 -59 -37 -49 -47 17 -7 36 18 45 -38 -28 47 51 -24 -38 -5 67 48 -1 -16 82 -7 17 -21 -6 -64 -45 10 1 46 46 0 -70 -3 -39 5 -31 50 -44 -42 -58 51 -13 -24 26 17 26 -49 62 69 -5 -7 -65 27 55 -48 -44 39 -9 65 46 -41 34 -26 22 -105 62 -41 39 -119 59 -21 42 -7 18 42 -62 -78 -32 60 -44 -80 -46 -5 -4 -53 38 77 19 74 8 46 -35 38 -40 40 4 -37 -52 -19 61 63 44 51 0 -40 -11 5 -1 39 -47 35 -17 -2 16 -17 15 -46 -42 29 4 89 44 56 -19 -86 -45 58 -21 -87 45 -25 -1 43 -85 -2 -39 27 21 -13 -20 31 -3 55 40 36 -83 30 -70 -15 34 5 -6 -23 90 10 5 15 61 -49 -60 -4 10 50 -18 -25 -60 38 54 22 18 35 -12
-11 53 35 24 -39 11 -28 35 8 38 -21 -48 -3 36 36 63 36 21 59 -13 -2 39 -52 -65 43 -6 14 -70 13 -25 6 34 -48 9 -32 -25 -4 22 -8 -22 64 -41 6 63 63 59 48 4 -6 -30 29 -8 7 2 12 53 -56 31 -50 -15 -39 -41 26 -1 39 -65 48 -12 42 42 -17 0 34 46 -7 -8 47 -48 -67 -51 104 -63 -31 42 5 8 29 -29 -21 -41 20 48 -67 38 -17 65 11 -40 53 43 -38 14 -46 45 44 5 -64 9 -10 38 -39 17 -1 -37 32 1 -48 -17 -28 -11 27 -11 52 8 -6 0 4 22 -3 -40 40 56 -51 43 -55 -7 52 -3 -4 29 -31 35 -12 -33 16 -29 31 26 -57 -28 40 35 -30 -46 -48 -3 26 -35 1 -21 10 35 -9 -32 27 37 38 38 47 0 55 -46 -68 12 40 42 22 32 -55 -4 37 2 -65 -56 17 20 -56 -19 -43 9 13 -29 -27 30 -63 69 -68 -12 -45 54 -11 38 -42 -19 -29 -29 6 -52 19 55 33 -47 -66 16 26 -40 -6 -60 -17 -60 -21 -30 -35 -46 -4 15 -32 15 -69 39 -1 37 -38 8 16 -34 -2 40 44 -42 -44 -28 -32 1 17 45 50 3 -55 -62 34 44 -9 66 13 10
36 29 38 8 15 -62 -17 8 -23 13 35 43 42 -50 51 -12 -50 -54 -20 5 -49 1 39 -19 24 -20 28 24 25 -61 35 -23 -60 -3 36 -53 1 -14 -48 20 49 -6 -44 -5 56 -60 -82 -18 -4 -28 -52 -12 -10 -43 -13 2 27 -51 -12 -25 60 3 16 -69 -20 47 -43 -47 68 -66 3 47 9 -22 -62 -37 -63 -96 -34 0 23 -17 10 -39 -59 -48 13 -43 23 -62 51 -36 -38 55 -66 40 4 52 2 -20 21 60 -15 -15 -76 -66 75 49 -43 35 -41 -14 23 -54 8 -23 -59 -51 -47 -35 38 -45 62 -5 -78 23 -73 -27 28 2 -48 -68 19 24 -5 -36 36 -25 -79 -31 -4 35 11 -16 28 36 -35 33 -57 7 19 38 -53 67 -68 -58 -28 51 24 6 12 -74 21 -46 -11 31 3 -27 -26 -29 -55 -12 -36 43 -54 -5 -7 -48 7 -85 -14 -62 -27 -85 -12 -26 -72 28 23 -17 18 18 -61 31 -38 5 38 -5 -48 -46 43 -27 -16 -4 1 -68 0 -37 -19 -64 -24 48 -13 35 -34 5 37 -60 -12 -66 -51 2 31 -21 -39 -62 -77 5 -27 -102 -6 -23 18 34 4 -10 -14 20 57 5 51 2 -73 -53 45 47 -39 -41 36 33 -3 -19 24 8 -23 52
47 27 29 18 -72 68 -32 26 24 -2 -26 18 -14 32 14 33 30 -3 47 -3 2 21 -41 54 -17 -17 -38 -54 4 -11 23 -27 2 -33 7 7 12 23 -11 24 -20 55 -25 -21 41 -28 32 -2 79 -10 20 -23 -51 73 -4 -72 -31 13 12 22 -1 -74 113 25 -12 -21 -25 -48 -55 -23 21 -44 -42 0 -27 -74 10 39 -58 -20 68 -96 81 65 -54 7 38 49 64 -83 -31 -42 -45 -2 8 -66 -5 -21 -67 -52 -12 -53 63 27 57 19 19 40 37 -18 19 -63 1 34 -31 2 47 -36 -30 21 43 34 27 -40 31 12 -57 -81 48 -28 -68 -68 -47 -6 18 -52 -34 6 9 -50 26 -52 39 -72 -27 0 -70 -54 46 -25 34 37 96 23 23 7 61 40 58 -36 16 -50 -19 55 -51 -43 -6 -25 -34 52 -5 -75 -48 -4 -34 26 -26 -44 21 -42 34 10 -40 70 -30 -31 57 42 -22 87 -38 -72 44 44 -3 -26 -25 11 -37 29 42 11 33 48 -5 -12 -15 -54 36 30 33 -14 47 -41 -13 -53 -9 39 26 -50 28 86 14 -15 54 -22 76 23 -81 89 -10 -28 -74 -38 51 -9 -54 -26 63 -19 51 -69 17 -18 -19 57 -74 -54 41 25 -24 -76 -50 -15 8 80
-36 -23 -46 16 54 -4 78 -26 -78 -50 -36 27 30 12 -82 -28 -13 36 12 -5 -13 -77 -14 20 29 9 27 -63 49 20 -31 26 21 -34 21 77 23 -33 50 26 -26 -55 -28 -50 -32 -59 -14 4 40 -24 22 42 44 20 -77 -43 5 76 26 -71 35 24 -65 -11 -17 46 -42 44 32 45 -37 15 -55 14 32 -60 -54 -38 -67 -21 -74 54 -32 -35 46 39 4 23 -18 -14 16 24 -88 23 13 2 -58 0 -65 63 -61 -46 34 -7 24 55 72 -57 61 -56 -48 -30 -18 -64 59 -26 -91 15 -42 54 -40 -2 -24 26 18 -44 49 -48 -27 -28 24 -87 113 7 16 35 -56 -19 29 46 21 -42 -19 9 -25 -49 9 42 16 43 -43 55 -20 73 31 3 -43 -61 -51 30 -52 -54 -35 2 -15 -42 -50 -63 -24 59 40 -12 -13 -19 65 9 40 -80 13 27 54 -67 22 -22 -49 65 -50 4 -83 -97 62 108 -2 29 -7 -32 18 50 0 -85 -71 28 -78 -58 -34 -45 -11 8 -32 -29 100 -45 -23 93 -49 8 -8 22 -73 16 49 -70 -35 38 -43 -24 -34 -31 30 -58 4 -7 27 -9 -43 29 -6 32 7 -47 52 2 -30 55 88 -1 74 40 21 -56 -15 -23 38 -46 57 -93
-67 10 19 -20 -38 57 -38 -43 -45 -25 -42 11 -29 21 -24 -49 22 1 16 56 -17 -39 22 39 42 28 14 -4 -54 36 10 -46 -21 45 15 -21 -23 46 46 23 -30 -21 6 36 -1 0 14 42 46 6 -69 17 48 -38 55 -40 -19 -51 29 48 -11 42 49 20 -17 -35 -66 11 -3 41 -15 -18 -57 56 -4 -23 5 18 -51 25 47 -9 -39 31 -10 -48 9 -67 25 47 35 -34 5 50 -64 65 -33 7 -24 -22 60 -23 3 35 30 -36 -38 -1 -2 34 46 30 38 -62 21 -37 44 -10 -42 5 -25 38 44 -12 -5 -49 45 38 -55 -55 44 -64 -23 -29 -64 -4 -61 54 23 -37 -46 -21 62 30 50 -65 -4 -32 21 47 -51 18 8 22 -71 60 20 -42 36 28 -17 4 -37 -10 13 25 9 -12 -34 -60 29 53 26 -60 40 -45 20 -56 -55 -36 58 -43 65 -58 -13 -14 -18 -3 60 23 -31 45 -51 -37 47 26 -62 -43 29 -30 -65 -49 2 55 65 -42 -60 -36 -35 19 8 -56 -40 37 -5 -61 -30 -22 -50 -10 32 36 48 -43 48 14 32 -59 -43 62 -60 -26 4 -52 30 -57 -3 -48 -50 47 -17 -16 -10 21 -35 27 -37 19 -54 -22 -17 30 5 -28 -24 -15
14 4 41 42 8 47 69 13 15 -68 -20 33 58 49 -33 37 24 -61 -45 16 -31 -11 63 27 -46 -24 61 54 14 -56 42 -35 -61 2 -50 -20 29 -17 47 -11 -8 49 32 -23 -3 -16 15 -38 40 45 -1 0 15 36 34 -5 22 65 -5 -18 -47 -53 -41 48 -11 1 -1 63 38 -26 17 66 5 47 -9 -19 36 -33 32 -28 -39 38 31 -7 5 8 20 -19 18 -2 -45 -66 -8 -11 -3 -6 -14 62 -22 21 23 64 -92 20 1 31 70 -11 22 15 -60 10 2 53 26 -27 33 8 -32 -4 2 -33 -35 -64 47 -48 -59 -12 20 -22 58 73 18 -57 -16 45 -6 -8 55 -59 19 -57 16 -55 24 -18 -38 -58 38 44 -33 15 16 58 -7 -46 -21 -28 -12 -23 -32 -61 -21 -37 -37 59 -43 9 -35 0 -30 54 -45 -12 -18 46 49 1 54 43 -44 -15 -29 -84 10 47 -39 -3 -43 3 -53 1 -69 -59 -19 -18 -47 -63 32 10 53 1 -31 -17 79 -40 -54 -26 -60 6 -1 68 54 43 -39 19 -45 3 -46 -60 -22 -26 -6 -67 -10 12 23 21 51 -35 53 24 -46 -33 39 47 53 -19 6 -62 -2 8 47 -29 29 16 -36 -27 -30 -45 59 57 62 -125 -22 -61
-58 -7 27 -34 56 5 -81 49 27 10 -29 11 31 24 -26 14 -33 -57 -35 5 11 -25 28 -45 -59 -32 -64 34 17 24 -76 -56 -14 56 34 44 -16 -28 -38 4 -57 -49 -41 25 2 -23 69 -4 69 44 -54 -10 45 1 -56 -27 58 14 29 -2 -21 -14 -59 1 -20 -20 -32 14 -22 -51 42 3 49 -65 13 3 -65 -18 42 -3 29 -3 -13 22 2 22 -21 52 -2 -65 -35 -57 -12 43 -53 -5 -7 29 17 -59 -27 20 -30 48 -45 33 -1 44 -13 14 -18 -5 -26 42 -20 -44 11 25 41 54 -44 -45 43 42 -62 3 4 6 32 55 28 -68 -34 70 -29 12 -35 29 40 -55 45 1 -53 7 33 59 52 5 12 3 -85 42 -20 56 -62 -58 18 -9 36 -59 10 -57 -37 -36 -12 35 25 33 2 -18 -38 36 43 16 8 -11 -6 -69 15 45 2 -7 31 -51 -38 -42 52 -53 62 -89 -66 -21 -7 54 -49 -41 12 -6 31 -11 -29 45 -47 -28 -22 6 39 -39 38 53 -9 8 42 -33 0 53 32 -35 58 -18 22 27 20 -15 71 -37 -33 21 12 -15 -22 26 47 2 34 -57 -42 36 -56 -68 -25 22 -96 48 15 58 20 30 7 -34 43 11 -35 -63 52 54
-31 43 -69 -50 32 1 -17 17 -103 -29 74 53 -18 9 17 25 -31 -41 -38 6 -6 -23 -45 -20 -61 21 -59 -34 55 21 -46 -77 56 -52 -47 35 17 -27 -33 46 21 -86 -67 -23 30 17 -61 -43 -66 32 0 54 6 -88 46 39 71 116 97 -45 -2 -7 -95 -75 95 19 -32 -22 -1 -9 16 45 -56 10 -33 -60 20 77 -14 43 -42 30 -20 -35 54 -48 40 -30 -36 7 5 -48 12 27 -61 -61 49 0 30 40 -1 8 -9 -57 -35 18 80 30 28 -16 35 49 -20 -6 -30 -43 -90 -62 -35 -62 -55 -49 -62 43 -52 -38 6 48 14 -68 37 -50 13 -94 -25 -80 -1 22 -39 7 1 6 -37 10 -71 40 -62 33 -38 -28 -26 -4 -36 41 -57 -67 -62 -56 -25 -12 -88 13 55 -29 17 48 -62 28 1 2 -18 54 41 -71 -61 -57 -16 22 53 2 -7 25 22 -52 -32 -44 -62 38 32 -86 11 55 -69 -20 55 22 -46 37 51 -95 -53 17 27 40 -86 -52 -81 -52 -42 -18 51 -54 -2 81 -16 19 -15 -92 -36 -5 68 -59 -33 -10 -77 -31 39 -53 29 -78 -22 -80 -63 -86 -13 -12 10 45 47 -14 43 13 -33 -51 -78 -49 42 -45 -12 -28 -28 -35 -58 -32 6 8
-6 31 -25 -26 25 -24 -12 -16 53 -4 40 -39 14 12 -53 44 -62 0 -24 14 31 -15 -50 47 -14 -8 29 -17 -13 -30 -31 -52 25 -31 -50 -54 11 -31 -3 -24 53 41 -15 51 -18 -44 -17 18 67 25 36 -26 -43 35 28 -27 23 -6 16 32 16 -30 -1 -17 -13 -3 9 26 5 7 -56 -50 4 -42 -22 11 51 -29 38 -2 -37 -37 61 63 7 -29 -5 20 31 28 -37 -32 -67 31 -54 -66 60 -32 -35 8 -27 -50 -12 43 51 44 -44 52 -27 -55 -36 -38 -54 9 -55 -39 47 13 -3 -59 -37 51 -57 -39 -3 -12 -18 -67 29 -2 -11 5 -40 48 -46 51 -66 -61 -8 -39 -26 -57 -49 -2 -71 27 -61 46 55 12 -29 19 15 59 -60 49 -48 -52 -45 -19 3 8 18 37 17 21 -60 -58 45 -12 41 -5 25 53 -20 8 51 53 -92 10 3 36 -44 -24 46 53 -5 42 -18 72 58 -49 34 -38 26 66 22 13 -68 -8 -65 -12 -43 46 -60 41 14 -62 -3 -67 50 -2 25 -9 -19 8 18 16 -44 -55 -48 71 17 -64 78 -39 -34 -6 -15 32 -36 57 -64 -13 -34 -8 31 -46 -18 -50 22 -25 -19 31 45 -41 -27 -63 -23 49 47 -6 26 -14 -20 38
7 52 -1 -29 38 11 -6 -95 45 0 -55 12 -9 22 36 7 -56 -47 -41 -50 -5 60 -51 -15 -16 24 9 14 -23 -27 27 -3 39 16 7 -44 1 7 2 -77 48 1 -23 -21 -43 10 56 17 -4 -11 16 -57 -1 36 -34 -50 -58 -116 -95 10 -33 -125 75 23 -57 40 -30 -45 46 11 -111 -20 -20 0 -20 23 72 -24 -29 -33 74 -30 100 79 18 -14 -29 12 11 -34 -60 32 27 -45 -18 32 -50 -64 19 -81 9 -8 90 41 96 13 -77 44 -55 5 7 62 13 -42 23 -43 75 97 61 -51 37 34 -16 40 24 -24 43 2 28 36 52 -20 15 -33 -16 50 29 -73 -19 9 16 -7 -14 -12 8 -74 -11 -80 5 -12 34 -15 5 -91 3 -47 75 27 -78 -11 5 -50 -95 11 -117 50 -50 -46 35 -18 28 -11 -7 5 -68 -70 95 12 -18 33 7 -7 22 87 -33 28 16 12 15 -2 -25 -127 -30 -16 -52 -48 20 -52 -16 -24 -54 -19 -89 65 52 22 -47 35 17 -38 10 -6 -15 -14 19 -7 -11 44 34 -76 8 66 -10 -75 59 -54 106 22 -78 94 -41 79 -28 -37 35 -5 -14 60 7 -13 -46 -4 -11 -24 28 -57 -65 -58 41 -53 49 -37 36 6 -102 -62
70 -49 12 -7 51 -67 -32 37 -44 -54 33 -15 4 -5 2 -52 -53 -26 -33 -36 63 14 -17 -27 10 -44 -61 -39 64 -2 21 -23 22 -52 -14 26 -2 35 0 -32 -33 53 0 15 31 -9 13 -32 81 19 5 -15 -56 27 43 32 10 -41 11 -45 -4 -1 18 -46 15 -81 -44 64 -53 49 -33 1 5 -2 50 17 -54 -20 53 -42 -20 37 -43 5 0 2 -21 -6 -40 -38 34 7 14 -47 -66 46 16 21 -22 -30 -49 33 -35 11 55 16 -24 -21 -42 4 50 -58 50 41 41 1 -30 10 35 55 69 13 -60 24 28 -46 -41 -14 -4 -24 40 11 -19 38 -51 -62 59 -25 21 34 30 54 56 -10 33 -33 -17 -28 -46 -31 10 20 37 0 31 -31 -40 -60 -52 2 -4 -62 59 -57 -24 16 -28 -42 40 54 -58 -33 -16 -3 -57 32 24 66 23 -81 -2 -13 39 -21 9 -32 48 -13 26 -6 -79 -35 -38 -9 -43 -33 -24 38 -59 -67 -19 43 -21 -54 30 -1 15 -6 76 -45 1 -43 53 12 -58 39 31 15 34 11 -37 46 -31 -37 53 -26 12 3 -56 -27 -68 13 29 -48 45 27 -62 10 65 39 4 20 -25 57 36 -18 4 24 -51 -3 23 22 -45 32 9 15
45 35 22 -86 -25 -50 17 -65 -71 -24 67 15 29 -2 15 -6 36 -25 22 31 59 -107 57 -29 4 23 48 -16 -25 -37 -49 -22 2 -38 15 -37 98 -30 29 -44 -9 -34 -10 -57 -58 -8 -71 48 -83 -5 -94 47 18 -20 -59 -37 33 72 6 -3 -14 21 -97 -30 111 9 10 45 90 22 4 7 37 3 -71 -44 -110 71 50 60 -33 98 -26 -58 23 42 38 -43 -7 34 -36 51 49 9 -44 20 -30 36 -32 80 62 -29 -65 18 -74 8 88 6 -3 -109 -56 -64 -12 -53 40 -43 -112 20 -52 7 -27 -66 1 30 -51 -77 -37 -6 -86 22 -13 -22 114 -58 28 29 26 29 17 -38 -55 -22 12 -18 30 4 -81 -9 -72 52 -65 -10 -7 66 -48 3 -28 -11 -95 -38 -51 -52 46 -69 -27 -46 14 -26 15 30 -53 35 59 10 -47 -54 -84 4 -22 -41 -41 -71 -42 -88 10 -36 41 -11 31 -29 101 93 -31 -11 -14 75 -81 -18 -32 -61 -50 -5 -46 56 -79 -93 -29 -26 -3 58 86 -10 6 80 30 17 -53 -63 -47 0 8 -62 -31 24 -78 -20 30 -65 58 -29 -72 -41 -42 48 -30 33 -2 -25 0 -8 -45 -75 -95 -14 -43 -57 12 33 -25 55 40 16 -64 -30 24 -71
-40 -59 44 -2 47 -28 97 -6 27 11 73 -55 28 5 39 46 -16 44 -90 -1 -43 -7 -35 -18 62 28 31 31 -63 -12 -48 -58 -46 12 -81 -25 -15 -18 40 -49 -44 -2 36 -48 -7 -3 5 -64 -78 -39 -41 42 -31 -77 51 -65 59 84 48 -40 -52 34 37 54 53 1 16 -3 24 -64 -21 -32 -26 -18 -62 -41 53 24 53 -2 -76 72 39 -12 37 25 -19 -7 17 -34 -77 37 -12 -41 17 -17 -32 8 -32 75 -56 48 1 55 -59 47 69 21 45 -41 21 -15 36 -70 -45 -67 -25 -60 -9 -27 -30 -25 -48 60 7 -8 51 -43 -74 -6 -41 34 67 -73 25 -6 11 57 4 -13 -15 29 4 6 26 -3 -25 -7 -39 -45 -15 -47 -65 81 37 56 -115 8 34 -56 -17 -19 33 12 -53 -61 30 -28 -99 12 -31 65 50 -45 -41 -15 11 -68 60 -58 43 17 -22 -20 10 -50 -21 23 40 33 74 46 -114 -20 45 -12 -9 -6 27 -37 24 -27 36 7 -13 25 19 3 -55 -13 -30 -65 -104 30 -59 35 13 -24 -71 33 -30 -45 -62 -46 -36 -28 1 15 46 -49 -35 11 7 -5 0 19 -20 -3 30 -29 14 5 1 36 55 -18 9 -61 -18 23 -17 -77 -55 21 37 1
47 12 -52 48 49 -8 45 47 -46 42 -7 20 -10 -67 24 16 -78 -81 43 26 -33 -23 -79 41 -23 17 -32 31 -7 -79 -3 -65 37 -49 -29 -58 -47 -27 -18 -84 17 56 -7 51 -39 36 -9 -63 30 -32 -7 34 -66 -49 40 -68 -48 -28 -45 -24 -18 15 3 -25 -29 -5 40 -63 46 12 3 -31 -14 -30 -75 26 54 -19 -50 -13 9 -57 39 19 -37 32 26 34 -54 -4 26 -64 -36 -55 -64 35 38 -21 -15 -14 7 -52 -35 -40 70 -11 47 -53 14 17 23 -11 28 16 9 -42 -1 11 38 11 -17 0 9 -38 -31 44 -22 -72 17 -13 -46 36 -37 -29 25 0 -102 46 -19 -8 2 45 -4 -30 26 39 36 42 27 -33 -43 46 66 -36 14 -23 58 49 -3 39 43 -27 -71 31 3 -15 25 49 -57 -8 -53 22 -48 54 -3 -42 22 -6 -62 -21 -48 -16 -64 13 14 31 -18 -88 55 38 -43 12 -2 31 -63 45 -34 -71 27 -10 -57 39 25 -21 -5 -4 -6 34 15 -16 -57 -76 -53 -52 -18 18 -7 -41 -29 -12 -59 63 -54 -48 59 34 -24 -68 30 43 -58 14 -1 67 18 7 26 41 55 48 -68 -27 45 22 7 -37 -51 -59 57 -37 31 -39 4 -27 9 -34
14 -36 -40 43 30 14 -7 37 10 -16 -12 -54 80 20 47 -12 31 -56 -30 -12 -23 23 -31 57 -10 2 -8 -14 39 -41 47 46 53 56 -40 -44 -8 53 -36 26 -2 -4 66 -17 73 -34 19 44 -43 -1 -50 11 58 -30 -54 13 47 18 -60 -16 -14 -3 21 31 -15 -30 -10 -24 -27 6 -17 -23 26 -5 58 -6 -35 16 -52 -13 45 -35 35 32 -31 24 43 69 -32 -45 3 -56 -39 26 -34 47 -8 -62 54 29 -5 -30 65 27 -14 -5 10 41 26 -55 -30 60 -59 41 -67 -67 -33 40 -41 58 2 55 11 -19 -14 57 -55 -67 -3 72 -28 -21 29 56 26 -28 -56 64 14 46 -8 50 50 -29 -35 26 -1 41 33 -62 51 -7 -48 3 -22 59 13 4 -21 -5 12 -8 -40 -36 -62 -36 -10 52 54 55 -11 -22 -44 -46 25 -11 -56 -28 40 -47 -25 16 -52 -59 -13 4 12 -53 -52 -44 51 -53 -1 -48 -23 30 -33 28 -33 6 18 75 -48 45 4 90 5 55 -50 63 -49 44 22 48 -30 -22 -10 -28 56 -61 -2 8 -52 13 29 -44 71 15 -51 18 41 -3 43 -4 11 -50 -1 -37 -26 -22 -37 41 47 18 -9 1 25 6 -20 55 2 28 35 -20 -19 -91
-54 29 -51 -78 7 -20 19 -10 36 49 15 -52 -47 -26 -90 57 43 -28 14 -11 26 -49 39 2 -39 20 3 -48 -3 64 -20 39 -15 -4 41 3 4 37 -29 -21 64 -17 27 -21 44 47 36 28 -24 -12 -71 49 68 15 -18 30 -37 59 12 -24 48 52 28 107 -53 -2 -70 -32 -12 -2 -71 49 -53 40 -10 -52 73 -57 33 14 -35 -4 53 5 -19 -60 5 21 -22 21 23 -54 -29 39 3 -48 49 29 44 32 46 -13 -35 51 6 -60 -46 -40 42 -37 -57 42 5 42 -47 6 27 -62 11 -74 26 -47 -31 -47 45 -43 49 -4 -48 -72 -19 60 -12 41 -56 -10 41 45 -66 11 11 -17 30 -16 3 -20 27 -29 46 -7 37 23 37 64 61 -49 -14 -62 35 -11 13 -23 77 -62 39 -44 -48 42 28 -55 41 -55 19 44 -35 3 62 -24 7 2 -54 -60 -43 17 54 -29 27 41 56 -75 -47 67 -4 -66 34 43 24 -19 49 -42 19 -22 -44 -4 52 10 15 -42 -27 -58 -49 -51 4 68 30 44 -47 8 -28 4 -56 44 18 -18 7 8 9 -61 18 -72 49 -23 -14 -30 -37 22 -5 -11 8 -44 28 -59 36 -45 43 -21 -4 -31 32 56 -21 63 22 -124 -33 -65
-14 -45 -64 -62 8 -58 8 -68 -14 -7 58 -20 47 -33 -18 -24 7 -44 -6 44 35 -8 8 -85 43 3 12 7 -60 -30 -45 -45 56 19 26 73 -11 46 -1 -57 -3 31 -27 -28 -80 -32 -24 3 -49 26 11 29 -1 53 -25 39 -51 53 -14 17 -48 -2 -79 42 71 3 -6 43 -10 -74 -41 47 -6 -47 34 41 -44 44 34 10 46 32 -12 -21 15 -12 -59 -68 -41 28 48 -23 11 -7 -69 44 -52 41 -81 -37 -13 64 19 10 -56 3 -17 46 -73 -25 9 -1 47 -43 -13 2 -93 23 -67 -47 -27 53 34 -18 -7 -60 43 -16 13 40 18 50 -10 -21 60 -33 -42 -41 27 18 -8 -29 26 -5 -2 -24 -32 -36 -34 -22 35 -39 -24 12 33 -49 30 6 44 33 -76 23 33 -40 -5 19 -51 -25 16 -1 7 -70 2 16 9 -9 -46 3 -25 5 52 43 15 -7 -37 -32 -28 -51 -44 -85 1 -54 -68 61 29 9 -31 9 -36 -43 47 59 -7 -50 -16 19 42 28 -23 -49 62 15 -19 -31 7 -15 -33 -13 -48 -41 55 -85 -65 -4 -73 -41 -49 -16 39 36 -63 -49 14 -41 12 -77 12 -8 34 17 -6 10 -4 -64 -16 -22 40 44 -19 -9 13 -26 7 22 -16 22
39 34 27 11 -1 -39 -67 -63 33 35 25 42 19 -46 -52 -50 -58 -42 13 -38 13 23 -28 -58 -23 11 -60 38 -20 -38 36 27 13 -64 28 -85 26 -61 -27 -38 76 -35 55 -33 19 62 -30 64 -9 -31 10 50 91 -26 -15 -56 -78 -44 -66 3 -46 14 3 -53 5 24 -5 -11 44 -52 -80 -21 -39 60 -55 -26 -95 -91 -38 1 55 35 23 -33 -54 -31 -23 63 42 48 -51 -3 -10 -62 18 60 22 62 -37 -61 61 -36 -18 49 -11 54 -45 13 67 -72 -50 -60 -12 32 26 12 -67 -41 42 -52 9 -42 -12 25 -31 -31 -64 13 -24 48 29 3 -17 -41 59 -13 48 20 17 39 -80 -49 -7 34 50 37 10 -38 11 -21 -24 -32 44 25 -32 -2 -13 49 -58 -45 73 26 34 2 -47 -6 -61 -62 -34 -31 -20 -50 21 56 -23 25 -13 38 8 52 -13 0 55 -41 5 -38 37 -51 33 -37 45 29 27 39 -14 -4 23 -37 22 -74 -48 57 -92 42 26 22 8 16 -29 -5 42 17 12 45 -41 1 -63 4 11 -19 -67 2 29 24 -124 -16 -35 18 -57 -78 -34 -39 -21 -22 28 41 61 -60 48 -6 -14 21 -89 -34 -20 36 26 26 14 59 -42 -25 -27 89 -32 -77
21 23 8 52 15 7 -40 23 38 42 29 10 -19 43 23 32 33 -51 -14 38 -76 -26 6 8 14 -62 -18 -17 40 -61 43 10 -65 19 -61 36 -48 28 -55 -34 -63 36 -1 48 33 36 31 3 6 24 -29 20 -9 -56 -45 -14 -36 72 -40 -2 16 59 21 -69 -4 12 -4 -77 76 40 -17 -41 -58 -70 -18 -71 45 26 -4 -5 -35 -46 -20 59 12 -46 9 -64 -63 15 -68 -51 31 -51 -55 -50 14 -13 -13 0 24 23 4 -83 16 -41 -6 32 -16 26 31 55 -4 -16 -32 -10 -8 56 25 -23 39 -46 29 24 -72 4 38 -4 -49 -61 -2 -61 -21 20 -57 -55 -89 -33 -6 -56 -36 14 46 -43 -78 5 33 -47 31 48 15 45 56 47 -46 -17 -17 7 -71 -5 62 -54 -33 21 -4 47 4 -53 30 -4 -48 -14 42 -11 32 -56 -61 -31 -21 -16 24 -21 -26 35 -25 -74 44 8 -69 5 -25 81 7 -39 -22 -55 -31 -45 51 5 -11 -38 -10 -2 3 17 -24 -9 -15 -68 56 -52 54 -17 41 26 -67 47 5 -59 -82 80 -84 3 76 -65 -17 -35 25 -12 -73 -11 7 61 35 -25 -52 10 14 47 2 51 -35 -23 -54 -79 24 -40 2 -41 -46 0 -59 -51 -28 -58
21 36 -61 -48 -9 -60 15 14 22 45 -17 48 -43 -34 4 -49 46 -14 -1 -48 -60 -22 44 -48 29 -10 -26 1 -30 26 -77 -32 28 -29 -58 28 115 -8 19 42 -13 -69 -62 -45 -36 -55 -108 15 17 -11 42 40 33 -19 -19 6 -3 121 -21 -58 25 95 -35 -30 93 44 9 46 16 40 6 -10 -72 -67 -17 -43 -30 77 -4 -17 23 55 -48 -60 -52 21 -44 -5 66 60 -61 10 28 31 49 47 -55 50 -15 6 56 55 0 -30 -73 20 77 -4 54 -89 -25 52 42 37 -18 -59 -81 -69 -23 -68 27 21 77 49 9 -16 -47 52 -35 -51 23 -92 127 -13 -75 14 -39 -18 22 -28 -22 -37 -13 64 32 52 8 95 7 31 -29 11 -87 104 -47 -3 -19 -40 -42 19 -71 3 -36 1 -43 -53 30 -47 57 -55 -58 -56 56 -39 52 29 -87 18 16 -5 -20 26 17 4 3 -17 36 -18 9 -63 60 120 -15 46 32 92 -46 -18 43 -109 -34 42 27 -41 -65 -103 -11 41 -18 17 27 54 -9 39 -88 28 3 -51 34 -11 -23 -81 -57 -25 -50 59 3 -17 37 -90 -18 3 -70 13 31 -44 -62 -78 17 2 -40 -47 -91 -65 46 -48 51 -58 -91 -13 -29 -2 17 34 45 -69
15 21 23 43 -61 -56 -27 15 7 -19 -22 -21 -46 25 55 -56 -5 -43 -19 -68 9 -34 36 -8 -54 -20 -44 49 -23 -30 -3 -39 -57 -32 -19 -46 -28 -39 -20 17 -17 65 -29 -20 0 36 24 -36 1 -2 -38 -2 -57 2 -39 -16 50 -56 23 19 -66 47 7 6 28 67 -30 32 41 67 -1 5 45 20 4 -44 -35 29 -29 -57 57 59 6 9 45 -52 -21 11 -60 -4 4 -56 -18 44 21 -23 -20 -27 -10 -64 -23 -12 -22 34 -9 -4 49 49 -27 27 40 61 10 -41 64 -52 43 -23 58 41 13 -1 -23 6 -32 -11 -49 25 -17 25 23 -19 31 -8 -40 -1 27 60 17 11 11 -15 31 61 -26 12 50 47 54 34 -12 -28 33 25 59 12 -25 13 -71 -3 18 -55 22 -62 -57 33 40 4 -31 -5 -64 37 -19 -41 -58 -22 -57 -45 -53 -38 62 -45 58 1 0 32 -32 5 -36 -7 -55 8 -63 -43 4 -29 -26 -53 52 -26 -34 10 -12 39 -24 -44 -49 -28 -13 -63 -37 15 -11 51 -26 16 53 2 -41 -35 -49 36 -54 50 -13 -48 -38 -12 -20 -18 16 15 39 25 42 42 -4 20 42 51 -3 -6 -7 50 -25 39 -54 15 -15 58 13 63 -46 -20 56 3
27 -4 -18 83 -29 26 -95 -49 -50 46 -80 -70 -65 16 -24 -49 -22 -4 -35 -68 -33 -46 46 6 25 -38 -70 29 39 -9 15 -18 42 60 -40 25 -50 26 -58 40 -6 68 18 68 58 10 40 -43 103 -50 -37 6 18 30 24 23 -24 -3 67 -15 22 -35 68 -30 21 31 32 -6 -16 28 14 12 -28 20 -50 -8 2 -100 -52 51 87 70 -20 49 55 43 -2 -64 -28 38 -14 -33 -24 -40 33 -45 21 56 17 -66 -28 6 12 -8 56 -49 -77 2 -34 15 -12 -3 64 11 6 -41 -39 68 20 54 48 -62 -30 50 40 32 71 -70 30 18 30 23 -46 21 -37 57 13 -17 10 -63 -24 10 22 15 19 7 57 7 -42 52 108 65 35 -62 -8 55 72 -44 -2 -62 -30 -51 -76 58 35 32 16 -34 -15 2 4 12 6 48 16 -3 52 -42 -32 -68 -17 49 33 14 -19 25 -14 51 28 71 -108 22 60 -10 -5 -49 -34 -35 -116 33 11 23 -54 -13 -22 89 -2 -68 63 4 -93 -32 4 -53 -23 2 62 67 2 -45 -25 3 1 38 81 4 47 -35 -42 44 -59 120 -17 13 -17 -2 -44 34 27 10 -47 64 33 -60 -124 26 21 -1 -6 -47 -3 33 -22 -58 -41 -1
-24 29 33 47 -35 59 36 43 -27 6 30 -45 25 -29 24 3 -43 34 47 30 -47 20 64 -42 -52 -61 -7 -23 -21 21 59 31 -30 30 -47 6 -45 28 10 -29 -35 62 -40 -54 1 -9 6 -36 49 -62 29 -17 13 44 -27 32 -59 3 4 -49 9 -34 -13 23 -22 -59 36 44 -47 41 -57 -33 -12 -35 -26 -44 -5 -15 6 -50 70 2 47 55 64 -63 -56 21 -52 -7 -52 -22 5 12 -42 -53 -50 23 -20 -86 -49 -46 -32 5 39 -61 -69 1 8 32 13 -3 -18 -26 -44 -7 17 -55 -44 14 24 -53 -36 41 -26 -56 -18 24 -21 25 -43 1 9 12 31 -47 -23 -41 69 6 41 -70 59 -30 -19 37 -13 35 24 -44 -63 41 79 -58 53 40 33 67 -44 20 27 -55 -53 31 60 -2 50 -26 -45 -11 25 -29 -8 -47 65 -58 39 -7 18 -24 -10 -50 7 -36 17 -57 19 43 13 0 -91 39 -54 1 -13 -51 -60 20 19 25 33 15 -10 5 54 33 -8 -49 -19 -50 65 -34 50 -47 -27 11 44 -20 -6 -11 -23 91 43 54 -21 0 28 46 26 3 41 18 53 56 -16 -40 0 53 16 -62 -24 37 23 6 -35 37 -23 61 -28 1 -3 24 -58 47 -25 -44
16 -31 -64 -34 -27 -72 -25 14 44 41 20 99 41 7 -49 49 28 23 36 50 62 45 -42 -40 14 54 -40 -35 -34 0 -3 -57 -9 -65 44 -23 15 54 -28 -17 18 -62 -7 53 -12 9 -9 33 -35 -64 -78 -27 36 -44 11 -38 -40 25 28 -33 34 11 9 -54 33 -29 39 29 39 -16 -39 -28 -9 -76 -54 -18 -27 -37 54 -41 -17 -26 -41 20 17 0 18 -36 -9 -72 -65 -49 -8 -36 13 54 -29 -35 57 31 -57 52 44 39 -75 -17 -73 37 -2 -61 61 24 7 -69 -33 -19 5 -43 -53 -3 0 12 7 27 -29 -11 -49 -31 -56 -26 21 64 42 -58 -59 47 -33 21 32 -12 11 17 -30 57 -26 29 -46 -24 -87 -68 23 -37 -53 23 -23 65 -14 -15 38 -66 2 12 -42 -72 -23 13 -24 -44 24 -56 56 -42 15 -43 45 -14 -38 -52 -31 -37 -62 -59 -8 -29 -17 -32 -56 -64 -21 -22 27 -27 -9 -28 16 73 -77 -62 36 -52 -18 34 -29 50 37 -11 4 6 3 -56 -45 -38 1 -27 15 23 40 -52 10 21 -26 -42 -22 -58 34 10 -28 36 -28 -19 -41 -43 -54 63 -20 15 9 -18 -60 49 -49 28 -20 -52 -45 -51 -15 -39 -57 -17 28 -27 -57 37 55 -20
12 58 -5 -7 29 -21 21 50 42 3 -94 9 17 -4 -48 -16 30 -34 -43 28 60 -14 -28 17 -29 -5 -48 -59 -48 10 37 -12 34 -43 28 -56 -7 -24 0 -27 -60 6 37 -60 81 30 -24 82 11 45 67 -37 -10 10 -9 53 -82 10 -16 -10 42 24 -3 34 -37 -1 17 40 10 -24 58 -11 31 -23 -37 41 -29 -12 44 -56 -13 -59 -6 52 23 14 -26 -19 64 -58 -64 -8 21 -48 -8 -73 -7 -16 -3 -21 36 -14 -27 -29 -1 -59 -2 40 49 -27 12 -36 51 -31 29 23 -58 13 52 64 26 3 24 14 49 55 -8 -15 -68 66 -50 31 -7 -27 -21 -18 5 8 -9 9 8 56 -2 52 -1 -43 29 -33 68 50 61 -11 65 -42 12 53 -62 -44 2 0 -56 30 -6 -58 28 11 -49 56 -36 28 17 1 -65 23 3 -58 31 13 -64 -56 33 30 -5 -48 46 51 -10 -20 -62 55 -36 -16 -16 -52 -34 -63 46 11 29 -15 -18 -49 -77 -55 34 -11 56 49 -65 54 4 -19 -27 11 16 -55 -31 38 46 -4 50 25 60 4 13 -44 -49 -36 -1 50 -23 -47 23 -22 -49 20 33 -16 53 -43 -35 6 14 -37 19 12 -10 -64 -39 -41 -49 -44 -40 -94 33 47
-27 -30 33 -17 8 57 40 -6 60 17 10 -60 21 -5 -46 -20 -21 -21 -58 31 1 -60 -46 -10 43 54 9 38 20 -2 50 -7 31 33 35 4 43 67 -33 -25 50 -4 6 30 8 -61 -20 -22 15 -15 33 35 -55 46 -64 47 -36 -54 -42 -66 50 -19 -12 1 -23 25 33 -67 25 -9 36 -49 6 20 -46 57 30 45 26 48 24 -58 67 9 21 -38 60 -44 -72 -25 2 15 -39 17 -56 -51 -50 63 -63 -7 32 20 63 7 -21 -33 20 56 24 -22 -52 -15 -2 -9 -81 -78 49 -12 -65 10 -31 -27 22 -46 -53 34 10 55 -88 -44 63 14 -8 20 16 -43 -72 -72 9 64 -39 35 38 40 -12 -18 -35 -13 19 -63 -48 -57 58 -21 -35 44 51 10 -62 -36 47 -1 21 -50 -35 61 42 60 38 -7 -12 -40 45 48 -42 -49 18 -11 -15 62 21 49 24 23 29 -41 12 4 20 -8 -43 -16 -13 -39 15 -42 -32 -55 -21 -39 -68 -14 -71 20 -58 50 -40 1 -40 -41 -36 -21 -18 55 47 -50 -17 -23 46 15 -53 49 -10 -10 -31 -23 14 -66 -2 94 -25 0 21 -23 11 63 41 -39 38 -53 -35 35 -7 26 -7 8 -34 -59 -34 -59 21 -59 -25 -43 -88 -59
-1 20 46 54 -45 -15 -63 54 -20 52 52 -33 69 -21 30 44 -38 -39 25 -28 20 -55 32 72 14 -60 -89 23 48 40 59 6 1 8 -8 -43 -43 -17 25 -45 -45 29 -56 -30 12 -13 43 -34 -9 -29 9 -15 -39 2 46 27 -16 21 31 -50 34 -65 67 22 -87 -19 64 21 4 40 37 -62 11 -9 -40 47 -13 -33 -47 -11 -21 30 -22 -47 -13 -41 -21 25 60 -12 21 39 -7 -47 1 -18 23 -16 -3 -43 0 -55 104 -29 13 -24 45 -14 -55 -79 32 24 -10 24 -22 51 -37 -51 32 -19 -10 -24 7 -2 -23 -64 37 -25 3 19 -39 -53 4 -36 -56 -18 3 -28 0 -52 -11 8 -63 -56 -38 25 -54 -75 67 -18 -40 -51 25 -69 38 21 -24 -58 42 32 -13 16 2 -36 -7 -18 -31 -31 -10 48 -66 -13 -5 10 -45 26 -29 80 -60 11 4 41 35 30 -7 14 4 -73 -49 -30 -48 -26 60 5 63 37 4 39 -35 -34 25 11 -22 38 25 -34 -35 -15 -77 64 -41 53 5 23 -29 -15 22 34 -67 -51 -5 -15 4 -33 -43 25 31 -27 -57 -52 -6 48 -50 0 -20 46 -56 3 92 22 49 39 -33 6 18 20 10 45 63 -50 50 -68 -50 -68 -4 56
-80 -29 -64 -46 8 40 3 51 47 -2 34 -64 67 45 6 -16 -47 -55 18 -45 30 -22 9 -49 -64 41 -13 62 -48 56 -77 -54 48 -33 -24 8 27 18 -31 62 15 -47 -55 -11 -56 -13 -16 -78 50 36 58 39 -63 -15 -2 -48 17 -41 -20 -7 23 -12 2 30 3 -14 -29 -106 20 50 -36 -52 2 -27 94 -59 112 -47 -71 4 -17 67 -21 20 -32 -31 52 19 -26 51 14 -61 -29 24 15 -27 27 22 -5 17 37 11 -27 17 56 -42 -25 38 31 -2 10 2 35 -59 80 -9 -52 -39 87 34 57 -6 32 37 -46 -18 30 -23 -3 94 -30 -27 -26 -51 -23 -46 17 -33 -51 -6 -83 24 8 -9 -29 37 47 -13 46 -15 -20 -33 3 -3 8 68 -40 -26 -53 7 -56 58 -25 56 -56 63 -18 -49 -53 28 -20 -19 -17 27 -9 28 -10 -40 20 -30 5 -48 -45 -21 -46 28 22 -16 46 -10 32 1 17 -21 64 57 -4 -53 -9 -21 -57 7 -63 15 32 97 -92 47 10 22 -51 -37 -22 14 55 -24 15 0 32 10 28 -10 -47 -70 -13 -13 93 -44 -51 75 40 -55 33 30 -10 58 46 35 29 29 4 -19 -26 29 -6 -10 -5 -8 57 -11 -63 -59 -32 -19 -57 58
-74 -51 40 -43 15 -15 -29 23 -40 -37 -19 43 -29 13 15 36 -11 -2 -82 -4 -11 -11 -80 -52 25 -43 -13 -26 6 38 -71 -45 -47 66 8 -9 25 -64 9 -46 25 -43 61 -70 -42 -69 -54 52 -26 -35 -54 -1 66 41 51 10 -44 -54 -60 33 -65 -22 8 -9 54 -31 -69 64 -50 -75 -57 5 -27 -46 -8 14 19 -49 -58 54 -64 -32 -51 -15 -39 27 -50 -61 -1 0 24 -47 -51 43 -34 -29 -28 2 -54 -45 34 30 -1 58 -9 24 6 -51 -34 -50 -48 49 28 35 -45 -50 -1 -55 -56 -6 18 16 -2 -60 -12 -61 0 49 16 -14 12 -55 -44 54 29 -18 23 24 -48 15 -2 29 28 -54 -18 -81 41 -38 -32 21 59 -44 -29 8 -34 -13 -73 -23 -19 31 -60 -36 -71 -32 -53 8 2 -44 5 45 52 -35 26 12 0 44 67 25 -64 -38 -12 34 24 34 -11 -11 -28 -5 40 -40 -1 -16 -62 45 -22 7 6 -77 -32 -23 -51 -20 -37 -56 61 -29 6 -77 -44 27 8 73 8 44 44 -19 8 51 29 -38 32 -33 -22 -49 7 -20 -32 -4 10 73 -75 -15 -8 -23 -3 35 -15 -45 -42 15 1 -76 10 29 43 -1 -77 -13 16 28 -49 -44 -23 76 -58 -34
-56 -16 51 -24 -22 80 24 -73 34 -85 -6 8 43 19 -65 45 8 7 21 -21 30 55 -43 53 -56 -74 8 -47 0 4 31 -16 -28 -30 57 19 -73 38 -49 -17 72 13 -58 -13 8 -65 13 9 -1 -47 -13 15 -67 65 -61 59 -76 25 -67 -19 -70 -18 11 -77 5 -43 32 4 -86 55 -60 2 17 -28 31 44 20 -51 -36 -7 -23 -6 65 22 -55 -13 2 -29 71 38 6 -45 56 -51 43 47 16 -38 -27 -46 42 42 -31 -73 36 12 -54 18 -128 -76 -58 -29 50 -45 -13 -83 -14 44 -14 21 2 -45 -59 -42 37 22 -63 4 -11 -31 -19 -70 14 9 -56 -33 11 -17 -14 12 -5 -55 -92 -45 10 -58 26 -49 69 64 23 48 84 51 -46 -8 -12 0 6 -36 -15 -33 43 5 45 29 1 -58 -63 43 -40 40 -48 81 -56 -16 -26 -47 -73 -9 36 -40 -33 -33 -12 -14 -51 1 19 17 -24 -80 74 44 49 -3 33 -4 -14 34 28 -38 47 -94 -6 -72 -43 -34 71 -60 -73 -7 1 -27 46 -39 3 69 24 39 17 73 -6 -14 -9 30 -30 -41 55 14 5 -7 -20 64 16 -32 -59 36 81 -33 36 -45 63 12 -95 -54 8 -12 65 9 14 -45 43 41 -77 -42
-12 -14 -64 -12 -27 -57 65 41 49 5 -7 -57 0 -55 22 1 -35 23 13 39 -36 45 -50 43 -5 -43 -49 -32 41 17 35 -12 -43 -7 -33 66 -52 -57 -28 33 53 56 -26 33 -6 53 -9 66 7 3 97 34 113 27 -34 -50 -65 -46 -12 37 -18 -20 22 121 2 -49 15 45 -42 -41 56 -26 -62 -28 52 34 -9 39 8 -44 -34 -46 89 14 -3 21 -10 -16 -61 58 -2 30 -17 -69 22 39 -41 -25 -47 -52 40 -29 96 39 -6 -57 55 -70 23 -62 18 -7 -39 -30 -14 -60 -29 51 24 -41 23 -43 3 -34 -29 14 36 14 9 9 -35 -28 -6 47 -5 -47 -6 46 43 -30 16 -22 -21 26 33 -30 47 -15 71 -29 8 53 63 -36 -6 43 35 42 35 -18 -67 -33 46 -12 -12 -27 27 -28 42 57 17 -50 18 -17 -16 52 17 -27 40 45 -3 -51 41 28 -9 -19 -2 19 -49 81 -25 -62 61 -35 -18 -30 -57 -58 -16 49 -17 -46 9 13 -59 25 -29 63 -37 51 66 25 15 34 21 -21 -12 20 19 -9 39 26 -58 1 82 -12 -38 -43 23 48 -61 7 -46 -65 22 -42 49 74 -69 -55 -22 -24 55 -53 31 -67 -65 38 60 -51 21 -27 53 -34 -57 91
-19 18 38 15 2 22 -65 12 20 64 -99 -61 16 33 48 43 2 24 15 69 8 0 -48 -25 40 -44 -7 -48 6 62 51 -51 -15 -4 -39 -47 -51 -37 24 -32 -42 -48 -8 62 1 -19 42 -21 28 -42 -21 36 27 25 23 -31 -2 7 37 -35 21 -5 17 -36 3 37 50 53 -78 39 -33 47 -46 58 -41 -58 61 -76 -41 59 96 -17 37 44 -20 -54 3 17 -59 -31 39 -18 8 62 39 -52 -31 -9 -21 -89 -55 15 95 52 26 18 -51 -49 -53 0 41 -44 -46 8 2 -12 -28 32 4 -3 62 -50 -3 49 20 63 -11 -43 29 31 -52 -12 -11 13 -13 25 22 -23 14 -41 -20 7 -86 -34 62 -18 -52 -45 26 -63 83 15 77 -30 -35 -42 34 14 5 -71 -39 27 -69 20 46 8 47 -41 -30 58 -46 -30 -97 77 48 12 -56 30 4 -50 60 16 -15 -20 -56 -28 -38 -39 3 -14 -1 3 33 48 52 -5 35 -12 -67 -37 -5 -38 -67 -26 1 49 -5 3 24 -12 5 39 63 -55 37 -46 15 37 -23 13 -28 -14 30 -19 69 -68 65 -50 -11 -31 -32 -1 10 -63 44 -13 -35 -7 32 -3 31 -30 -52 0 -56 -17 22 10 5 58 -14 -31 -15 38 33 0
12 33 -52 36 40 -17 -24 43 38 -61 46 14 -31 3 19 -23 -68 8 -20 20 -8 4 -32 7 52 20 47 -62 -35 51 -10 -81 40 29 12 -13 -19 -48 -63 34 -60 53 -52 -67 35 -37 31 38 38 -68 24 70 -59 -48 43 15 -71 -13 -10 43 -54 -53 46 3 -8 -6 6 55 -18 2 -39 -15 -27 41 3 45 1 -16 -30 -30 -6 -32 63 44 -73 -46 39 -59 27 -34 -104 14 -27 16 62 -50 46 -44 34 -4 -52 -49 -37 -42 92 -28 14 -20 0 33 -35 -51 43 25 37 -19 50 -2 12 3 34 24 -6 -59 21 -53 30 -43 16 -57 -69 43 41 17 9 -25 -50 -14 -20 8 -32 14 -22 -70 -24 66 -89 -37 -13 36 21 -63 -2 33 9 22 2 -46 3 -60 37 22 -1 -48 -50 -72 -40 43 25 29 56 11 54 83 -66 -47 -19 -40 48 -62 -47 -68 41 19 -76 -77 -56 -34 -63 11 57 2 -34 40 15 -53 -5 -33 -1 78 -66 61 44 -72 -13 21 -41 37 58 -22 21 44 18 -31 29 -13 -28 30 25 37 26 74 39 32 -25 25 -91 52 28 -29 -24 65 -14 44 -10 -41 -22 -36 37 -50 -59 -18 60 -39 -30 6 -40 -29 78 -63 -64 12 46 4 -50 -43
-45 -42 -44 8 8 40 -19 2 35 -22 -57 -58 44 22 -21 19 14 35 2 -35 19 -25 32 10 -47 -48 -29 28 -46 6 -10 9 5 -13 3 33 -19 -47 40 -28 4 -34 33 -66 -43 3 13 -13 -31 -4 -63 -69 10 61 27 26 -46 41 -27 19 47 47 -45 -59 1 -2 8 59 46 41 39 39 -34 5 -11 -6 37 -47 13 -54 -4 -14 -10 -21 -40 -4 8 8 -43 12 15 -51 -68 5 12 -23 -36 -34 -4 -64 32 21 -24 32 64 7 -29 -61 -1 39 40 -52 -39 2 13 -20 -18 -10 -70 -49 -49 24 33 -40 -32 20 -25 22 -31 -66 25 16 59 7 -37 -39 -32 50 42 -50 0 44 -6 -6 -57 1 8 -56 42 1 30 -17 40 -43 -24 39 26 -59 -56 -46 -8 -63 -9 -40 20 50 53 -36 -28 -33 -3 13 -3 7 -88 -21 44 -9 31 34 -69 16 -68 -43 42 -8 40 5 -41 -18 -13 -31 59 15 -45 38 27 -31 -70 -49 -42 -67 7 -5 -64 85 40 12 -49 -36 -12 -58 -34 -49 -26 -36 9 31 6 -57 -10 72 47 51 -35 60 -1 -21 0 -9 -14 27 -27 35 -65 -70 38 22 50 -22 -18 32 -59 44 -16 44 -48 -21 50 5 5 25 -72 26 40 -43
-60 -15 34 -36 46 52 16 -1 22 62 -18 41 33 -71 15 44 32 -8 52 -57 -14 -1 36 66 77 -61 79 24 -56 -16 47 54 -7 32 -57 25 79 -14 -24 19 17 11 -13 -16 26 -2 -4 -40 -4 7 -8 56 48 -53 52 61 30 -13 -21 34 18 19 -20 49 79 20 -31 -12 57 -33 -18 -43 -8 -52 -25 52 41 14 -8 65 -5 10 5 38 5 -17 -5 1 -43 -40 13 30 -15 3 15 4 -34 -47 -46 0 -33 36 67 -41 -6 40 6 28 34 9 5 43 26 -48 -25 -37 -24 -72 -9 43 24 1 -8 60 17 33 -10 -62 3 -46 -21 -40 -15 32 -72 -56 32 34 5 54 -44 -22 -25 -56 48 -64 7 70 -65 -1 -10 24 -29 -46 -10 -51 37 14 -43 50 -50 48 71 -31 -11 -16 42 -12 -32 -26 2 -8 24 -14 31 42 -48 14 -44 -32 44 2 57 -28 21 -73 -42 -58 36 42 -8 36 -44 -12 -1 -37 58 -56 -46 -52 -22 -31 -51 -28 -2 20 -25 60 -55 43 61 8 -34 -42 -21 -26 -18 -55 -15 37 -32 -66 4 30 -3 34 20 -48 67 -23 26 40 28 25 41 -50 46 -32 -28 -8 -62 28 62 -1 -53 59 26 -56 -50 -11 4 15 4 -55 -28 52
45 -17 18 -54 15 35 62 22 -60 17 73 -73 20 62 7 63 -19 -12 46 -18 -30 -32 -40 -39 -36 -64 -70 13 20 -25 -76 -19 -48 55 15 60 40 -34 -16 -60 -42 -90 43 -41 98 33 -44 -25 -4 -19 -82 -46 62 -10 -18 15 34 64 50 21 -51 81 -79 53 46 6 -39 60 9 -46 0 50 -12 -31 -21 -8 15 127 -4 -26 -73 -5 -3 27 17 -18 -20 1 56 30 -23 -17 51 -7 -25 -46 -59 31 -9 27 4 -50 7 -52 -3 -33 34 47 -25 15 32 30 -53 -12 1 47 5 -82 -24 -20 20 31 28 -61 8 -18 10 38 -59 -25 -5 35 48 14 -38 10 -57 -45 41 -30 8 13 63 1 -16 -15 -3 29 -59 -24 -90 9 -27 -35 -40 49 -17 -2 -19 16 60 -38 35 17 65 -11 -45 18 21 32 62 -23 -22 -21 -23 55 -53 -8 -49 6 16 -13 -29 8 31 -3 -12 -1 -22 -58 85 -14 23 32 34 -22 -16 -65 6 -42 33 13 59 -3 -24 46 15 -39 -11 -38 79 63 -29 -3 -62 33 47 -62 -21 56 -52 -65 16 57 -13 -25 -35 -25 37 4 -33 -65 -65 21 36 -45 39 78 16 20 -6 -52 -46 -45 -24 44 39 53 -3 51 -13 69 24 -51 67 38
49 44 -28 4 -2 71 -52 69 4 -44 25 8 2 -29 19 -46 37 -1 40 7 69 5 -51 -40 -14 -59 50 -40 24 8 -15 11 -25 39 -38 6 5 54 18 -9 12 35 53 -53 -15 -9 89 -54 86 -52 -43 -17 24 25 35 -63 -35 -54 -45 2 -39 -4 -12 11 42 -54 -49 -17 -6 5 -40 -66 -2 -19 -5 -34 77 -18 6 46 -9 -1 -41 3 34 -62 -38 -19 -10 34 21 -22 0 -19 27 64 35 -49 45 10 14 16 83 24 54 -60 3 -11 15 -62 -21 10 36 44 -42 -9 12 -48 -14 -9 -50 3 -58 -19 -37 42 -50 35 24 12 -41 -37 -42 -18 -17 47 -47 -61 -50 -19 26 28 -6 28 46 -5 10 10 60 37 -5 -39 10 18 -39 -44 52 -55 36 7 -29 14 -56 11 -17 -29 35 -29 -15 62 35 -52 10 -41 -17 -14 -65 -9 50 -57 16 -1 39 4 26 -26 -28 19 -44 15 -16 54 46 -22 25 -36 21 41 48 -13 -8 59 56 -9 -43 -10 -34 15 -32 -18 30 58 -23 49 49 5 -44 39 66 -30 70 27 -22 -16 -37 10 -67 19 -54 -18 -14 -16 32 22 -17 19 25 58 64 -25 -8 -21 -8 49 -65 49 30 -11 12 28 34 57 12 6 32 -58
-22 63 -4 32 13 -40 29 52 -31 -53 -45 31 -33 -56 1 44 -35 37 35 18 -16 -52 32 23 48 29 36 -33 58 -58 -24 -48 -37 -31 7 97 -2 22 -31 67 -7 11 32 35 5 52 30 -42 31 -45 -34 -57 53 -26 -31 22 -45 -4 24 -33 -3 -48 -6 -16 -19 7 41 50 -49 -36 0 35 -20 -29 -16 21 23 -18 -12 13 4 12 -28 -11 41 12 22 -52 28 19 -73 -8 18 -57 20 -28 43 -55 -33 76 -41 10 12 -6 27 12 43 38 -38 -76 48 18 -40 29 36 35 50 -48 -8 122 29 -47 -6 14 7 -39 39 60 -83 69 -10 -24 31 -29 29 23 -21 -20 64 36 39 -41 -22 -41 9 -17 -71 17 94 40 28 -9 -57 -13 -51 26 -27 25 -20 24 82 3 16 -38 44 -52 52 -56 113 -4 27 26 -28 11 -8 -63 13 -41 -74 15 -29 -12 -34 65 -33 -10 42 -24 -29 6 -9 -50 9 -5 -48 -18 -35 -45 38 -12 23 22 23 -45 -9 -24 -63 43 -103 9 -25 17 -16 60 -53 26 39 61 -26 62 51 38 25 -53 -62 -34 -24 41 -27 54 45 71 65 29 -28 -23 -60 87 23 -10 -50 -19 -26 1 -33 42 11 46 51 4 56 -29 -29 -58 6 -33
-42 25 -49 -55 12 43 -6 -17 -30 38 46 27 23 43 -6 -22 34 40 -45 -56 -23 34 -77 -95 -41 16 73 -30 -36 10 -78 37 20 -17 20 -29 18 -38 10 32 0 39 -61 -68 45 64 -37 -59 -47 -37 23 30 0 -40 31 -52 -1 40 39 52 21 43 55 -41 7 -6 -44 10 57 20 63 36 43 33 38 -58 -14 -17 44 -41 -74 56 -72 -50 13 -8 -67 51 -7 -10 -54 20 -23 1 -6 47 -28 17 -49 -28 38 -45 36 8 -69 31 19 -37 -3 -40 -4 -41 38 -73 -26 -8 -74 -35 4 -34 1 -21 -10 45 63 -40 -19 20 3 -37 10 28 26 -17 -63 23 -60 28 -85 38 33 29 -50 46 46 -31 -32 -13 -72 -39 -37 -52 -36 54 27 19 -95 -70 -43 38 -10 -11 -17 17 32 -31 27 -33 37 8 45 4 -10 -99 14 0 21 -4 14 -25 29 12 -60 -63 -4 -1 -7 39 49 -61 43 -18 2 57 -27 -22 -79 -31 28 -18 18 36 8 51 -14 17 14 50 32 26 38 -39 6 76 -34 -24 53 -16 35 63 36 35 14 1 -102 -43 28 -4 60 -14 41 -81 30 24 46 -12 -13 -79 53 -47 -64 -30 -55 -60 2 -24 21 -9 -60 3 -54 6 -51 -50 -45 71
-17 51 12 -22 -33 53 -8 -22 -25 -14 58 3 -13 -21 31 -59 22 23 -57 49 -12 23 -7 52 66 -33 -57 33 -12 -26 -60 10 -47 -24 -59 30 -45 48 -17 5 -40 -52 50 -37 71 -45 15 -1 88 26 63 -29 12 66 20 -29 59 -25 39 -21 -32 -55 31 23 91 -43 2 40 2 24 49 -51 -28 14 -43 34 25 -38 -66 -9 23 76 1 54 -47 -25 -43 -28 23 13 -68 51 -67 -23 -82 -47 29 -4 7 20 28 36 -2 41 -67 27 5 22 -31 25 47 -46 -45 -54 -57 -23 51 -5 4 -31 15 -44 7 -7 -68 -45 48 40 -42 -23 61 -24 54 -21 23 0 -68 -32 30 42 15 49 32 39 16 -4 35 -2 16 51 -38 25 -16 -22 50 21 -14 57 -18 -16 -40 26 -30 -38 14 42 62 -29 32 33 62 -26 31 5 -2 14 -38 -19 -80 -35 -37 25 -36 2 -53 -30 9 44 22 -11 -43 -26 69 46 -3 16 11 -5 -19 -56 55 20 14 1 13 -37 -27 48 61 -59 -12 -54 1 14 -37 -42 36 -25 37 5 16 -52 38 -54 52 49 -36 24 -16 -29 -52 -71 -30 29 -44 16 -21 80 29 -28 -47 -12 -52 12 -2 38 61 59 -61 -53 -39 8 -23 -40 -5 77
49 44 -38 -27 23 -46 33 53 -94 6 -33 -75 63 45 -32 -25 7 -4 39 -34 -31 -14 -49 -41 -28 -63 -72 -63 -24 -59 -93 65 -37 -34 -53 -67 1 -42 36 -26 34 -22 10 -25 22 -49 -82 -31 -110 14 28 37 17 -56 -31 62 -36 1 16 41 -60 51 13 -19 84 -61 20 -57 83 2 49 24 -51 -46 -72 31 -106 -85 45 -71 1 -68 -79 -31 68 1 -40 3 37 -39 39 50 34 57 -26 -7 -56 37 -72 44 -4 53 -13 -15 -48 17 -18 54 45 -52 3 -39 8 25 -56 -6 -42 -108 -31 -4 -16 -67 -24 38 3 33 -28 -65 -39 -39 -3 27 31 -102 -1 16 34 48 -81 50 19 6 25 -39 -46 2 -50 44 -50 11 -27 -50 12 13 36 -7 -12 -43 -67 -43 -26 -13 47 -13 -41 37 -31 40 -37 -39 -23 -43 -14 5 -18 23 -64 37 43 -17 0 19 34 -10 -51 31 -11 52 -23 -67 -28 70 -17 20 -22 -1 -80 -11 -49 -85 -7 -44 -26 -24 -77 12 24 56 -34 13 -62 56 11 35 -48 -32 -60 -54 19 -31 -39 -7 -17 50 -61 -32 -30 -38 47 -103 -33 -76 8 46 -36 -19 24 -20 49 -42 9 18 -93 11 38 38 4 -51 -37 23 -26 -26 9 -13 57 -86
-19 -23 -58 64 -45 -58 -42 32 24 23 -78 -53 -18 11 2 -39 41 2 1 -29 23 -29 -48 -69 44 -46 -38 -58 44 -43 28 -56 -70 52 17 -24 -43 15 -5 -23 -7 10 -41 -32 86 -39 59 -13 106 45 13 -50 7 25 -57 -59 21 -15 -92 25 1 -74 10 -44 -10 25 -35 18 -91 57 -1 16 32 -8 16 -29 35 -60 -6 40 69 -90 51 8 8 -57 -19 -47 -48 -17 11 14 11 11 42 37 37 53 56 -74 -74 27 6 32 -20 16 -2 29 -46 -73 -55 -28 39 8 42 -52 -12 -12 44 -63 -40 -30 -34 24 51 46 24 -27 -67 -28 31 -30 5 -9 0 -66 -91 59 -57 10 23 -59 41 -4 30 47 -60 -47 -27 39 70 -21 -12 -44 56 3 17 26 -36 -15 21 25 13 -43 -70 -23 -17 57 -69 1 3 47 -118 40 -22 47 26 21 11 4 -60 -29 49 -17 -37 -19 -34 -5 6 65 -91 0 -7 3 -34 25 -4 -63 -44 55 -65 -38 -58 -24 -96 64 -36 2 8 -83 -21 -33 -38 -14 -11 -65 42 74 24 -65 -35 8 -60 -27 72 -52 22 25 -79 46 26 99 -24 -36 -30 51 -64 -16 -44 -10 -23 -35 18 48 -83 -54 -10 -48 -28 45 -21 -62 38 -27 35 -22
-59 -76 -27 51 45 -23 67 -48 -48 -12 -57 -58 17 34 -1 -32 -5 -41 2 -50 -18 -90 37 -31 10 -53 22 -38 3 31 35 -56 22 -72 22 27 48 -54 -35 13 37 -1 -45 -26 -2 -7 -6 2 50 -27 -12 -60 -46 7 -73 -15 16 84 -59 -44 -29 21 6 -81 62 -14 -28 57 59 -44 -23 -67 -66 -62 14 -24 -83 -32 -53 -15 13 13 -39 1 5 37 1 -40 14 37 -1 -68 14 19 4 14 -25 -38 -44 37 26 -24 -66 -58 45 10 8 -14 58 14 42 39 46 -14 55 18 -22 -20 29 -85 -53 -7 -28 27 -24 -7 50 -52 -73 -14 -38 7 9 8 -26 -64 -5 13 25 18 -23 -25 -36 -35 49 -4 -83 44 33 50 -62 25 57 -21 -1 38 28 -38 -51 -58 -57 -14 -67 -29 39 -70 -76 -60 -92 -66 61 17 70 -12 -11 -56 -47 -17 49 38 -50 12 -65 9 -70 21 -37 34 57 53 3 40 -43 43 -1 62 -14 4 -65 -59 -34 -20 -29 41 3 6 -47 -29 66 11 22 -6 -31 10 -63 -15 -66 -10 19 19 -4 -44 -71 36 -23 -6 -83 -5 59 -77 3 52 -44 -83 -70 -64 12 -28 24 14 41 -24 22 -12 -12 -1 50 -26 -9 32 28 -42 -48 -78 23 -32
-3 54 7 -2 -5 -52 24 -34 -39 42 12 -38 -58 60 62 -58 -63 53 -6 -14 -40 -51 -24 -37 -27 21 -72 -15 -33 -40 52 -43 19 -32 -26 -3 -29 -22 -38 53 24 40 -6 43 -45 48 66 49 19 -34 -67 34 40 -35 47 30 -51 -57 40 35 -36 53 -2 -16 2 -71 9 33 -5 -44 -2 -64 -26 59 -7 -34 -6 -21 -46 17 14 -47 46 -5 10 -20 12 -45 56 9 -7 35 -9 10 25 52 -29 -45 66 3 -45 8 -32 -18 8 6 46 -8 18 43 -3 -45 -26 5 -6 -54 8 -35 1 -51 27 22 -35 9 -50 28 -28 -28 -65 52 20 54 11 49 27 45 -43 -17 7 -4 -41 -35 19 -55 7 -38 -10 11 -38 -50 -6 -8 64 10 23 10 -40 -7 -12 -60 45 -55 54 2 -38 33 63 58 45 -41 -35 12 -48 21 29 -11 -49 25 -53 -59 -11 -54 -46 -18 -23 30 -1 37 -35 -15 -23 25 -5 -31 -38 -61 -42 24 47 13 7 33 19 13 -53 -14 -2 31 -24 40 55 -57 -45 47 34 -4 -47 -49 -24 -36 -53 60 -65 20 -39 33 3 -25 49 -3 -48 22 4 1 -39 50 -1 -11 15 -43 -47 -20 50 52 -64 -2 -46 -44 -50 -16 -64 -6 -63 44 47 43
-22 -58 -65 7 24 -46 28 4 8 -20 51 -6 8 -1 5 -54 22 -30 20 14 -63 -31 1 42 48 -18 6 18 -15 14 43 -57 1 -44 -47 -26 33 -47 3 -39 -14 41 -51 7 -19 48 -16 -35 -54 -69 -25 -65 -50 -23 5 -45 -47 -27 19 -73 -5 -19 -58 -62 -33 -56 -56 -26 -54 24 -28 5 -25 60 -28 -55 3 77 -11 -5 11 24 -74 -64 -15 -60 18 -13 -58 -42 -31 39 -68 -66 -13 -33 -28 14 -57 -16 -5 -10 -23 -1 -37 -59 -53 -48 4 -37 -52 50 -26 -44 5 48 1 54 56 -13 -70 -22 -18 -17 -54 48 -11 -21 -68 49 46 -42 -51 -32 36 49 28 28 18 28 17 -55 -5 35 -16 26 -20 34 16 36 -72 -3 -35 -14 -55 51 27 16 -67 30 2 -18 1 22 30 -56 24 -32 12 0 -22 40 -43 38 53 18 -48 -10 -53 39 -15 60 -28 -80 -9 -61 13 52 22 33 -35 -36 46 -23 20 -50 30 52 75 22 -30 58 67 10 -18 -61 63 12 -19 -38 -57 -9 -36 -37 -38 33 -13 47 -20 42 18 -13 -44 -26 -34 -40 1 8 -48 9 -43 -38 -64 18 57 -29 15 -70 -29 -27 1 -53 -80 -71 -32 49 -32 54 7 -46 -42 -9 40 -19 33 -22
-31 -18 32 19 19 -16 40 1 -70 22 14 22 19 42 10 47 58 -9 -25 50 -42 9 34 -27 4 -27 -49 -39 43 34 -37 -48 -2 45 62 -11 20 -50 35 -46 -19 -72 42 55 43 -7 20 28 -46 -41 -4 19 21 -34 43 7 -57 -79 -53 29 8 -44 -3 118 65 38 29 -32 -47 20 -11 25 -22 -57 -61 -64 41 14 16 29 -46 54 38 -1 55 -62 -13 -30 -86 -16 46 57 14 8 -36 -58 18 54 -65 -21 -53 57 115 -27 -50 31 34 59 2 -52 18 19 29 -2 29 -75 42 -2 9 -64 3 -55 -39 -62 57 -41 -23 18 5 46 38 -19 -18 48 -28 27 18 40 32 45 45 -3 -31 22 17 6 69 -19 50 -61 27 14 24 46 -63 -9 -57 18 52 -11 -78 -27 -47 -16 19 52 52 -42 39 43 13 -50 -49 21 -13 21 88 -46 -2 16 -19 -60 -50 4 36 30 -25 28 -42 40 35 -14 -46 40 -17 59 -70 -52 7 7 31 -33 -5 -47 38 39 32 39 59 -48 49 9 -60 25 0 -38 -56 -3 31 -24 -36 34 62 54 44 8 -54 -9 -23 18 26 1 10 -28 -34 -17 57 -50 57 41 -30 9 38 45 -34 62 27 -19 -19 -17 -40 12 -11 8 63 -6
51 -54 33 15 -92 0 11 40 8 -2 43 -76 50 -65 -5 8 -86 -6 -40 -83 -15 7 -34 -48 47 31 -97 -22 -28 -62 9 7 -57 -71 -44 -14 19 -31 46 -36 31 -9 -61 -30 37 -59 12 9 -22 -7 -4 -21 -50 48 -41 -41 -8 73 -14 -30 -5 24 -15 -63 -14 -11 15 -64 -12 -11 -42 -20 -81 -27 -45 23 -12 54 27 39 27 -9 70 28 46 -19 -7 -52 -51 -60 28 56 36 13 -24 -62 18 -37 -57 31 -6 16 -43 -15 39 16 1 40 -32 -51 -4 23 22 -49 -17 -17 -26 28 -42 -28 34 -15 27 43 -40 -28 -52 28 -18 47 -58 33 -12 15 -72 -81 -79 15 -25 -55 32 -2 -6 35 -70 -45 -60 46 36 -26 66 -12 1 50 46 -72 76 -28 -66 -51 -3 50 -2 -50 -2 -48 4 -57 -74 37 -60 9 -17 -10 11 -74 30 -51 2 24 -17 -68 -69 -6 43 -21 -54 -88 52 76 -57 22 48 -19 -2 -6 -41 47 -27 41 35 -13 -23 54 -93 -68 -87 -59 7 24 11 -114 19 -60 -18 45 -57 52 37 -62 -32 -11 3 -29 -29 -75 -53 -63 -68 -43 -32 25 26 39 25 6 -44 27 63 -1 40 -81 -22 -70 25 -17 -9 -51 51 -14 -53 -53 -76 -58 -29 -40
-62 -48 -44 -40 -39 36 -55 -38 -40 -20 -31 45 13 -47 44 -45 8 -52 -7 6 -2 -3 17 -49 33 60 -61 2 -59 -40 -67 -26 59 -42 -8 -65 6 -43 -62 18 32 14 38 5 -20 4 53 -2 1 29 11 -20 71 -70 -52 -68 70 97 22 -48 -21 36 -64 17 12 -25 -63 47 -44 13 46 -51 -50 45 26 43 83 75 19 -10 -42 -36 21 38 43 -15 44 46 56 78 -43 2 -48 6 15 39 -50 57 -36 9 25 13 94 47 -47 4 39 -42 16 -63 38 -44 47 -54 20 73 -11 -27 37 103 37 41 -74 -10 -13 -46 41 17 -41 -58 -15 -78 -53 -8 5 -59 -32 -65 50 -8 -51 -35 -56 -16 -38 32 42 -13 50 -44 8 -29 56 -50 19 2 -26 -64 -9 13 10 -57 42 9 -14 -23 -3 -26 -44 26 29 -34 -45 -18 -44 -45 -77 12 -18 -44 51 47 60 -37 57 -48 -20 -30 23 18 -17 -6 -24 51 -30 -39 -13 -30 -60 58 -35 25 -9 -127 -11 70 5 -52 -22 -31 45 24 12 38 -39 -75 -3 31 -1 -29 29 46 -40 -11 -51 16 91 -17 23 -15 35 12 12 -9 -21 -10 20 -10 -44 -8 -53 -15 -6 -40 37 -30 21 32 40 58 -37 15 -44 40 -9 -41
0 34 46 -31 -22 28 -36 -30 -57 -43 -43 -85 48 -39 -20 -42 -24 -23 -22 36 31 42 45 12 -57 -63 52 25 21 -46 -39 -41 26 -61 49 -59 5 -62 -39 -60 -5 41 48 -28 -57 -27 -10 -22 35 -1 -56 -19 -28 17 -36 43 73 -46 -31 -16 -62 -17 -19 125 -34 29 31 -33 -46 69 48 30 63 -64 45 -6 43 -42 -39 -32 -56 -8 -46 -39 75 -21 59 -1 -35 -20 -39 63 13 53 -47 17 6 53 23 -53 6 -11 116 -19 9 4 42 -2 40 -54 -14 41 57 20 -18 -4 -5 81 -44 -36 42 -11 -5 -28 39 30 -79 44 45 42 -22 -25 18 56 -11 -58 9 -17 0 -59 1 -64 -69 -30 -8 3 -51 -49 25 -18 -8 57 -35 8 -2 15 -53 13 8 -31 40 -37 47 23 -22 -1 19 16 -11 -23 -53 -63 -53 -38 -67 34 90 -45 23 48 -41 -58 35 -79 20 -36 -21 4 -52 8 -21 -30 -35 -32 25 6 21 12 -49 1 -11 -57 -35 45 19 62 48 -14 17 -27 -45 11 -23 5 32 -5 41 -21 47 49 76 14 -7 -49 33 18 -26 46 -66 -6 60 -22 41 13 -27 42 15 27 -47 -28 22 16 23 -60 28 -44 -27 52 19 -3 -44 -62 11 -70 -57 57
-5 -24 -18 -28 -62 43 24 45 32 -44 76 17 3 -53 -35 -45 -67 -54 41 47 50 -25 12 -78 52 19 17 31 -26 -23 0 -4 7 -33 35 77 -24 39 -43 18 46 -72 -33 -1 27 1 85 -16 5 -13 -66 -33 29 25 3 14 26 54 -33 35 11 60 29 -16 34 -4 -58 -25 53 -41 55 24 31 56 34 -36 40 17 17 0 85 -17 11 19 -28 -33 -42 21 -8 -1 -54 44 -57 -21 -4 23 -1 -62 50 2 -33 -30 28 9 -34 27 -30 -4 -24 -39 56 56 -62 -34 -62 64 5 14 54 -34 4 26 43 14 10 -59 -46 30 22 -36 39 13 -22 93 24 -34 60 -6 -11 -21 47 16 42 -13 20 -7 -4 67 -58 -54 27 42 89 56 -36 72 37 -54 53 -6 18 13 58 -16 30 -45 57 -62 34 15 -15 20 95 -58 -30 -55 115 35 -5 25 36 13 -32 -20 -47 34 -21 1 -61 13 6 -25 -26 41 -58 -37 -1 -66 -18 -12 -31 -35 -33 -27 52 11 -33 50 2 -65 26 -20 32 62 66 50 -18 6 7 -28 40 95 18 12 82 -20 53 17 11 12 -30 40 -10 13 -52 32 -63 43 48 40 -2 -50 77 43 -78 -15 38 -4 -24 -66 36 5 -63 -48 28 15
56 -32 33 -12 -50 62 16 -56 -7 -60 -2 11 -28 -33 7 32 25 7 -15 -2 -25 -75 -4 -69 -44 -19 -32 -19 -31 4 -5 -16 -40 14 22 51 70 -28 -6 3 -9 26 -47 1 10 35 105 -49 106 -15 36 61 -41 26 -43 34 43 -32 -54 -13 45 -6 44 10 25 -17 -20 60 13 52 -9 -1 21 45 19 -24 44 48 -13 -12 64 -59 13 -52 14 49 12 10 41 -43 -14 -54 -21 -57 45 68 13 17 37 -19 -25 30 37 10 -52 56 42 -7 -37 -20 45 18 -36 37 -43 -39 8 20 -40 -57 45 46 -21 -18 11 -69 12 48 -33 -23 34 -43 16 27 -46 -13 -3 35 -20 8 -15 -25 -4 -52 25 39 -42 -8 97 -44 -27 -34 90 35 37 -56 -31 32 8 -37 -75 44 43 -69 22 -43 -48 11 10 20 60 -6 -50 -21 -49 1 48 14 15 -41 23 49 40 35 45 2 -19 -44 -30 3 13 -4 -1 27 47 -4 -49 10 -52 -57 -31 42 -56 59 -35 52 62 2 83 -34 4 48 -15 34 -54 -66 39 -87 -19 -22 48 -6 -22 -38 64 46 35 8 -9 -18 46 -56 -48 -49 38 -4 -45 14 5 45 38 30 105 0 -11 -65 -52 -31 62 25 -31 41 -21 -104 54 -55
-46 -25 -51 -8 41 -10 75 -3 -1 39 -55 -68 20 43 5 47 -38 39 32 1 31 -111 -44 -51 61 1 -27 -10 61 7 -73 17 -42 -67 -6 34 45 3 34 -2 66 -8 36 -36 86 -5 104 31 92 -11 -21 20 -44 3 9 -18 50 -38 28 43 -57 -25 24 0 -23 -87 -24 -3 49 -62 -38 38 -17 -59 -29 -20 -17 34 -41 11 73 -2 39 -58 29 -2 43 50 33 -36 -59 45 -54 41 -33 43 27 -37 22 13 -47 16 -8 -34 -24 37 69 -61 1 28 16 -3 -15 -44 -43 -5 33 -44 15 28 4 41 -3 -9 -25 -29 -7 -25 -5 18 -24 4 -2 -16 -69 -61 57 61 11 29 -26 -45 14 -29 -28 -5 55 60 -30 33 -22 11 11 -47 -1 38 -49 54 43 -16 -36 -46 52 26 -23 51 37 -32 -20 11 -29 -5 -55 29 -55 -21 27 -39 17 -7 42 -11 -48 -51 -36 12 -26 -38 49 41 -19 -47 13 -3 26 -21 -82 -55 -4 -4 -24 -15 47 22 -8 -18 29 -65 76 6 -6 -25 -78 -12 14 32 50 -20 59 -45 31 21 -41 -23 104 40 -7 -29 -32 -66 7 29 39 22 -55 -21 -8 -30 15 18 -64 -62 -47 50 -4 -50 -23 -3 -77 5 -6 58 3 65 -54 62
-1 28 -68 38 -30 -29 62 -64 -65 34 -2 20 -79 26 42 -70 -58 38 17 -35 -30 18 0 -70 17 -50 -23 -4 38 -16 31 18 -3 -28 49 16 27 -14 -31 -43 30 -24 25 47 1 -43 -11 -33 59 51 41 -6 -20 59 37 50 -45 16 -27 -22 -40 74 -36 -45 29 -80 -4 16 32 36 -40 -21 4 -50 37 -69 -102 -16 -17 2 -11 -24 -42 -33 64 41 29 -4 -44 -40 -37 -31 -55 24 28 -49 2 54 -37 61 -46 63 -16 -18 10 -58 51 -21 -7 35 20 47 -77 -1 -55 30 55 36 -10 -43 -15 -1 30 -27 26 14 40 -40 -39 12 -52 -12 -18 38 9 -28 -48 29 33 32 -60 -49 48 -35 22 -10 -28 41 1 -22 43 33 -12 28 -36 9 25 13 39 -6 19 -49 60 18 42 34 -40 35 -5 50 -56 -49 53 3 43 -7 24 39 -80 33 -49 25 -63 -28 38 -27 -55 2 -33 42 -48 27 -22 -4 -66 62 -48 -18 42 -51 57 16 -27 0 -9 -57 -67 34 -19 -8 -11 10 1 -36 -52 -62 50 50 -25 -11 -7 33 -6 -59 -42 48 -63 -26 -29 12 1 -65 35 30 28 -66 15 6 -30 -8 -32 -43 27 -4 -57 -48 5 -39 44 8 30 -23 43 79 7 23
23 35 -60 30 -24 6 16 -41 -21 -13 -3 37 31 -74 -45 19 5 23 24 -36 -65 6 -49 -33 -56 -70 -23 48 -62 -41 -6 -49 -57 -13 33 -74 14 -18 49 -8 29 59 19 24 50 -9 29 -10 -14 11 -30 -60 -3 10 15 18 -37 -10 -45 5 -63 4 67 10 -10 -37 29 -42 39 25 -7 0 -37 -15 30 -63 22 53 32 15 7 -31 -57 21 -69 40 -4 -30 25 11 -22 22 34 -45 24 22 8 32 -43 -61 26 -4 -54 -1 59 26 32 -63 -11 54 3 -47 32 -6 5 12 66 43 -22 -22 -44 7 56 -52 -88 -65 -32 22 -6 -45 29 36 -40 34 -6 17 -68 -4 5 -72 -48 -40 -43 -63 59 11 -25 -2 5 -33 64 -24 10 55 -67 -68 -38 49 -66 24 -12 -48 -46 -52 -59 3 -44 18 -82 28 -54 -66 19 39 27 -44 -64 -21 -45 -77 -2 -47 40 -58 0 -72 37 0 -64 -8 -2 -38 -33 -39 52 -11 6 8 -3 1 -10 -71 47 -80 20 1 -47 36 -32 0 -82 -44 -55 10 10 -46 45 -48 -6 -13 -95 -38 -13 -4 30 -48 -78 47 -53 -20 20 -33 -48 44 -52 15 4 13 -15 -50 -58 22 37 5 -20 -9 -53 39 -23 -22 -58 32 -42 2 -53 28
-47 -20 40 8 -10 53 49 -42 -39 28 34 57 -57 62 17 -14 40 9 69 15 2 55 49 -71 -7 -17 22 -19 -41 25 -37 -29 -39 -36 -68 -26 -29 -56 8 -23 49 11 0 -33 20 -13 66 36 -2 26 59 52 -35 16 -40 42 -8 -108 26 55 34 -103 55 -49 -22 -18 25 51 47 -35 21 53 -44 10 -58 -60 -23 -11 -13 2 16 38 -15 -23 29 7 26 -11 -8 2 -5 54 -1 14 -37 2 55 -25 -94 12 37 62 106 35 38 -22 -59 -15 37 12 -40 -44 13 11 25 12 41 1 -3 -50 63 -51 39 -22 49 -64 -47 -57 -3 36 13 -16 -60 1 56 -68 26 -60 -41 37 41 -26 17 5 24 -16 -9 17 -7 -31 59 22 -9 -45 30 6 30 -58 51 14 -56 -4 -50 1 37 8 -50 -58 -58 -42 -64 -10 -4 6 -42 -25 -29 -2 -59 -46 9 13 26 68 59 -36 58 -28 -39 49 30 -100 33 43 -40 31 -46 42 -31 66 13 -34 58 -10 -49 -1 29 -15 -39 -17 -60 -59 9 17 -53 -19 50 -60 29 43 -69 39 -28 36 -45 34 26 -69 -27 75 64 13 -51 -80 -46 -16 40 19 28 -9 -56 -69 2 46 -27 36 2 -17 -35 -44 54 -10 51 88 -50 25
-30 33 -5 -8 21 47 17 51 -63 -8 66 -36 -48 25 3 34 -57 -6 -24 26 -1 30 30 38 -47 -57 57 -58 -48 51 67 55 26 45 4 62 -21 48 0 17 18 11 38 20 14 -33 61 30 -32 -31 -85 0 -59 -44 5 7 63 0 -29 -47 -44 -23 -37 -39 -17 14 -6 44 -93 -34 45 -66 -22 -53 -11 -24 101 -17 9 7 -2 -13 6 27 -21 -22 26 -54 -23 -18 3 21 -64 25 -36 36 20 -14 27 -59 -54 -75 46 27 12 47 -40 45 -31 -53 56 5 -21 53 25 18 101 -3 -13 35 35 9 51 -12 0 -27 38 -25 -24 -5 -17 -28 13 42 -10 -61 -71 -7 -56 48 37 40 -39 -29 45 -41 -7 1 25 41 44 -18 36 -54 31 18 43 6 29 -49 -68 -27 57 4 -44 8 -19 -10 63 -13 -47 0 -27 2 71 -14 23 -29 -38 -32 -7 -8 -29 -44 47 -27 31 -75 -56 -25 -20 2 -47 65 5 -18 -25 13 60 -39 -5 3 -20 -49 76 -53 53 21 35 20 37 -76 -3 -51 36 60 -19 41 -3 6 -30 64 -53 26 15 -15 -8 -48 -16 -18 -53 59 39 -87 39 -52 -29 117 45 33 32 0 13 -27 77 2 -24 49 23 15 25 49 -24 4 -2 -24
46 -34 -47 11 -76 -46 -15 -53 -2 -12 -11 -35 -52 -5 -18 -36 -47 -21 56 6 -14 8 -23 -18 41 -56 -77 -23 48 -44 -65 17 26 42 -38 16 -41 -51 -46 -65 12 47 -46 -7 -9 23 -86 -75 -73 51 18 -41 24 9 26 -63 48 82 110 -43 40 -29 -46 29 91 -35 11 57 103 -44 -51 20 7 -4 -28 -43 -43 -66 -25 -64 -52 7 -2 -6 11 -58 26 46 -86 19 24 -20 -75 39 52 -28 -4 53 -22 -11 20 28 -9 -85 -36 -31 63 -47 -53 -32 -36 -24 -21 30 2 -20 -25 -28 36 21 -54 36 -28 -12 11 -5 16 -30 39 -28 -79 -27 114 -58 -83 -86 -14 -60 -63 -32 -10 -47 16 33 -8 -35 -47 12 -55 50 33 -44 -44 52 -27 26 -92 40 -85 -41 -74 24 31 4 -32 -27 -12 -12 10 -48 56 -18 18 -24 46 -22 -72 59 -52 -38 -39 -2 -8 29 48 37 1 -56 10 -82 17 -18 -39 19 -24 92 -30 28 43 25 -44 8 52 -3 -80 -79 17 5 -50 -31 59 -34 -89 1 55 26 7 -64 25 -50 22 -57 12 -70 -25 57 27 -24 -5 48 -11 -78 -95 -43 -54 -23 -48 -40 -39 3 -1 6 -30 32 -41 36 77 -30 14 -64 -43 -95 -12 -17 52 -41
-35 65 17 -32 -14 -42 -24 -16 21 -11 -14 -62 -67 27 14 -36 -65 -10 56 -28 -24 -29 63 33 -9 -38 41 5 -51 -51 -21 -4 -33 -11 25 -10 39 45 -28 59 31 -3 20 -2 35 -36 -61 -27 19 11 3 -42 36 12 -21 25 24 1 -48 8 26 -47 5 41 52 4 8 62 -39 48 24 37 -41 -42 28 18 35 62 12 -49 10 49 54 47 -40 -17 47 -66 -78 21 42 43 -2 -63 -64 23 49 -6 -40 23 41 -65 -66 -2 20 -37 0 11 39 -51 61 53 10 -79 30 23 3 -49 32 26 -37 -44 -52 35 14 23 -57 25 30 11 58 16 26 4 36 4 -40 25 30 42 -64 -40 42 -34 10 -5 -21 56 -25 -18 36 61 -16 10 -58 26 32 -30 -42 -48 -30 -6 51 -10 -2 -45 28 -60 38 20 25 -26 -1 15 35 -47 34 -32 56 -2 54 -38 32 -17 -51 -54 -36 -36 -13 -5 76 17 31 -27 53 -28 -31 -43 -29 -26 -45 -16 -8 20 18 7 21 -45 -26 55 72 59 49 69 2 -59 43 -67 -30 -58 61 1 -10 39 40 -27 -3 -63 59 35 -12 -75 52 -1 -64 -45 24 1 -41 14 3 9 5 28 46 7 -27 -22 -13 -16 63 42 -52 53 34 -33
-28 -5 26 21 -8 50 39 -19 33 -74 -88 -75 5 -22 -90 -17 -47 -79 -15 61 54 -48 -31 -58 -14 -61 -34 35 -23 57 7 -43 10 -29 11 -2 -32 16 -5 14 9 8 -42 -38 78 22 26 62 2 -41 13 -6 -62 -3 15 42 82 -49 4 13 -42 -4 69 47 -40 -65 5 -42 -13 12 -41 25 63 34 26 -3 73 -11 -58 -20 8 10 19 19 -46 11 -60 57 -33 34 -85 4 -31 -31 29 -73 -59 3 32 -11 -67 -18 -44 -53 56 23 -59 -63 -83 40 -31 20 -33 27 -43 -28 32 92 23 -7 30 43 37 5 36 -39 19 38 14 4 -14 31 -9 -49 46 -51 -22 -12 13 -78 -31 8 27 -1 -63 -125 -41 -46 -4 -24 42 48 70 -55 -4 15 -9 -36 -11 43 29 30 -46 -44 -14 22 44 -48 -38 11 -1 -16 -50 41 -64 -41 27 -57 12 -20 56 -9 -4 49 17 -38 29 -24 -3 -48 21 49 62 16 -46 -67 66 -72 21 -15 -48 -41 -62 -4 23 -37 45 -45 60 31 36 -87 80 53 49 39 42 114 -2 -20 9 52 -24 -64 12 -46 10 -58 -1 -5 -21 80 -7 5 16 -54 11 79 12 44 21 8 7 47 -76 50 -39 11 -29 45 0 25 -7 37 -46 -21
4 -39 14 12 30 -20 29 17 -24 57 47 69 -39 -28 -6 -35 1 -4 -3 0 -26 -23 17 -2 13 -70 -47 3 0 -46 3 -30 -10 -42 -23 -59 54 64 -11 3 -28 -59 -9 54 19 22 53 76 21 -25 -22 73 33 -37 40 -46 -29 -52 8 -43 -38 -12 -42 34 29 8 -42 -54 29 37 -57 38 -37 -58 -43 2 40 35 -21 14 -17 30 19 58 -36 43 -38 35 -35 29 -65 19 22 45 -30 16 40 42 -61 73 -4 31 -61 -11 -27 19 28 47 -5 37 44 61 -23 37 -23 -8 -23 23 32 -4 18 -49 -10 32 44 -39 -29 5 55 37 63 -47 24 -23 27 21 12 -24 -49 66 49 28 51 12 -32 -1 3 -19 -28 -52 43 9 -59 56 -47 27 -31 42 -64 56 2 19 -25 4 -10 57 33 -19 26 -57 -25 57 -53 21 30 -67 36 21 -5 -28 51 46 -63 24 -53 12 -9 55 -60 3 42 37 -56 5 -12 -40 10 17 43 40 23 -18 23 -50 10 -23 41 -21 -48 -49 -27 0 34 15 -53 33 49 1 45 21 -45 -6 -14 6 58 -38 -67 -58 -36 54 -68 52 -76 -24 -32 22 22 -71 -39 -5 -2 36 -55 -28 -47 34 8 -28 -49 13 -7 -41 18 11 23 31
-28 -37 -46 -8 41 -9 -7 25 -57 -10 2 -81 -43 -72 13 -43 -19 -19 8 56 -36 -47 -13 20 -33 27 30 -66 7 -41 55 -5 31 32 -31 -54 48 -40 -75 -21 -17 27 -32 -56 -18 35 3 52 57 -23 -66 70 78 -26 -40 38 -60 -19 -69 -41 38 -57 -40 -38 0 -58 -27 17 35 0 -46 -4 39 29 -79 17 93 -46 -12 -59 0 24 9 29 -51 -2 -37 -72 54 22 -28 21 8 55 28 -81 -4 21 -67 -69 36 4 50 -37 79 34 37 -20 26 41 37 -27 16 17 30 -86 -49 -45 27 -13 -41 -25 -36 -22 41 -67 -44 -35 -60 -73 -32 -27 43 7 54 17 -48 -67 -22 -44 -61 -34 42 23 10 7 5 -56 28 -19 26 -14 45 -57 -43 78 -36 44 -47 -58 11 30 33 50 3 -4 -5 -2 -11 5 -61 36 37 -33 -10 23 11 11 -15 -28 -16 -13 -59 -10 43 -39 -65 2 8 -7 53 -72 64 42 -47 -43 28 22 -12 43 6 41 -59 -75 -31 -30 42 -15 -31 21 -69 40 -38 35 44 34 -50 51 -56 -26 5 -6 13 -32 3 32 13 -51 -63 15 40 59 -43 -10 13 76 -12 29 26 50 5 -53 62 -7 -64 -14 -42 -7 33 9 -49 58 26 -48 -66 -33
-36 -44 40 -21 18 -49 78 -67 8 -33 36 47 5 -41 15 61 -35 -58 -84 11 -51 -59 9 -68 -76 -36 -64 23 13 -7 -123 -47 -62 -28 12 -41 48 -37 -53 -51 -18 -126 30 -32 -39 -10 -20 -63 -67 20 46 -42 -15 -53 -13 -19 79 5 75 31 -49 28 -105 72 47 26 21 -57 80 -17 -4 10 37 -28 -17 -36 -81 -30 13 47 1 79 -34 -60 -26 -68 59 -6 -8 57 35 19 -26 -76 62 -15 -53 2 38 69 -31 -34 0 -75 -97 -8 29 -23 -2 -29 -12 52 -37 -54 10 -65 -102 -7 -11 -62 -51 60 25 -50 31 -42 43 33 -30 -53 -1 -13 57 -71 47 46 27 -74 -91 15 39 -33 -46 10 -46 6 45 18 -61 43 41 -101 -86 0 -49 -58 -22 49 -76 -8 -16 27 -46 -69 87 16 45 2 -53 2 35 -67 11 -63 6 19 -31 16 -55 -2 1 -55 -62 9 -13 -27 26 -62 -43 -63 45 14 -105 94 -72 7 14 -28 -15 -55 -51 28 -66 -40 -11 -25 -49 -64 -39 31 53 -58 -9 95 27 4 -17 -81 28 -22 52 -113 -47 -66 -69 24 28 -4 52 -108 -28 7 -12 -38 -2 18 -25 24 -33 4 -10 3 -27 -29 6 -38 -36 -51 12 18 22 -9 2 -74 -26 -17
-16 -25 -13 -26 31 -70 44 -7 14 -28 -28 18 -58 -54 -14 9 -58 0 15 -66 54 -7 -4 2 -6 -51 -39 47 -34 -22 -59 -10 41 25 25 -51 -4 -12 40 -41 46 -48 -40 -25 -52 -47 -69 -10 -13 45 39 8 -13 -77 -30 -58 63 65 66 -16 -56 20 16 -99 27 -69 34 20 21 35 -69 -39 -20 -73 15 -31 -99 55 -19 -17 6 65 -49 6 31 34 -59 -53 43 -42 16 -30 -86 -77 -14 -48 46 -4 18 80 -20 -9 -78 -9 41 40 49 -32 -15 37 43 20 17 38 32 52 -67 -42 28 -54 -59 -59 9 -16 33 34 -62 -47 29 10 -3 -8 64 -50 6 -51 -22 -10 10 -14 -4 -16 28 -68 30 -46 22 3 -44 -50 -28 -56 -62 64 -67 -41 -28 17 45 24 -35 30 2 32 7 -62 -4 -67 21 -27 -55 -63 44 31 53 43 31 -5 -49 -12 -65 -53 -4 -64 -14 -24 -53 42 56 -9 -28 -10 -60 66 52 -5 -62 29 38 29 -47 9 -26 -54 -71 -55 -48 -19 -14 -35 -4 -52 23 92 -69 -11 -26 -1 -66 -37 41 29 -13 5 -20 -49 -57 -48 -2 -55 54 21 -59 -50 32 15 -44 -38 -31 0 -15 -77 17 29 -44 50 61 -53 -73 -21 -34 14 -75 -29 9 -19
-2 -56 -49 -44 -30 -16 25 -17 -52 -10 -44 63 26 58 -7 6 35 -42 66 8 23 46 -10 -8 -37 -64 28 53 53 -3 -49 52 5 50 15 38 4 -22 -37 -46 32 15 -1 -36 -29 -52 45 -88 28 -16 7 36 41 -21 45 -15 -50 58 -50 14 20 -50 28 -77 -17 12 -27 66 45 -42 45 -47 41 -28 39 -43 -51 -68 23 31 11 -1 -93 -45 1 42 -33 48 -68 28 27 12 42 -21 21 -33 27 56 -58 26 56 35 -40 -2 -80 -16 37 0 -26 -84 29 -63 -61 -53 13 -34 3 2 21 7 -43 -54 -14 33 -24 55 40 16 -16 -46 26 -67 5 -43 -64 51 -46 -38 -46 41 -61 0 29 51 -74 -61 -50 61 11 17 -46 21 -97 -1 -60 1 2 24 37 44 -15 -23 -26 18 44 -44 38 -33 29 -33 18 -66 -10 33 -7 -42 -58 6 57 -21 49 63 -11 -59 -40 -46 -32 8 59 -55 8 -8 22 37 7 -29 -88 -59 -30 24 27 32 -3 -47 2 30 23 -43 -13 55 -46 -20 -14 -1 -11 16 -63 -85 -21 50 -15 2 24 35 -2 66 -3 -64 79 -49 -9 -84 47 -52 -33 17 -26 47 45 51 -51 0 10 -30 20 5 29 -38 9 55 -55 38 -32 36 -34 -76
49 33 43 22 47 61 24 -32 79 -60 -40 -56 -31 -69 64 -23 -4 -45 14 16 -19 35 -15 -35 1 27 33 -10 -37 -58 58 23 33 -2 16 28 50 -12 -35 14 -54 76 -60 18 8 -60 36 84 21 -56 -3 20 -64 23 -56 -37 53 -56 -58 -56 28 4 43 -22 -16 -18 -29 -26 -43 53 -6 3 6 7 -27 -28 -24 -58 5 -55 -31 -14 4 -2 -27 12 -53 43 14 -45 40 2 -39 53 54 -10 39 24 18 -60 -26 39 23 29 6 45 -32 36 34 64 -8 24 -1 -35 -5 -24 28 -25 40 52 65 0 32 60 -2 33 13 -29 -22 53 42 -6 7 57 -42 54 37 21 24 -11 -23 2 5 56 -22 5 -7 -67 -13 12 32 22 14 60 45 -50 -31 50 20 9 -38 -49 -42 50 45 -1 14 -27 44 24 41 -25 9 20 -50 0 42 33 -33 -43 33 -4 -44 -42 56 -34 38 -15 -30 58 -7 56 -11 13 -47 -63 52 54 -35 2 -53 -69 46 30 -3 -49 -1 52 -20 48 -33 -59 0 6 42 42 59 -21 -2 35 4 -12 31 21 45 21 -17 34 -61 -63 -42 2 23 -53 11 -40 48 -1 18 -29 -50 -56 8 -1 -19 31 -25 5 2 20 12 -21 -62 22 27 -14
-9 -42 29 8 -54 -88 39 50 -10 14 42 54 47 -34 -5 5 2 -24 -14 -16 37 -50 -74 43 13 49 17 30 43 0 8 -15 35 -32 -71 23 35 -50 49 36 -72 19 -32 -66 44 -47 -81 56 44 27 -24 15 -34 -32 3 -9 41 63 40 12 -86 -34 76 14 70 14 1 -16 -22 26 3 20 -13 -54 19 14 -53 7 52 -74 -38 -1 -41 14 21 13 -49 32 72 -51 31 26 -42 -33 -35 -62 -45 0 22 63 -10 -53 -40 53 -9 -47 41 -62 -31 21 -63 -35 -66 47 26 -28 47 -2 -2 28 -11 34 0 -43 -13 -72 -33 -45 0 31 -33 22 25 -15 -6 32 -63 -70 -79 -67 26 45 -67 -20 -72 -36 -31 38 -52 1 18 -48 -32 2 9 -18 44 -40 24 -70 3 -79 -35 -17 -23 -4 27 -48 10 -17 50 -55 50 44 -22 22 -46 40 -38 -4 29 36 -30 39 7 -64 -52 -21 -22 36 32 73 43 3 0 10 -32 -4 -47 -28 -61 -10 -30 -24 -65 20 24 -90 -16 -26 -3 -12 -34 85 22 0 -18 8 10 27 15 82 1 32 -35 -68 5 34 -45 -64 -53 -45 -59 49 22 35 -35 -42 -37 -26 41 15 4 -40 -42 -27 40 16 -47 -22 13 -55 -42 -13 -87 -23
2 23 -77 30 41 22 13 -51 -17 -20 -32 -74 -62 18 56 25 19 -6 -4 0 26 25 36 14 -38 40 64 6 10 -11 21 -89 -43 -43 -10 5 -31 -70 -42 41 13 25 -65 -39 -19 -29 100 36 55 54 63 -77 4 60 33 -32 2 -51 -6 -3 -16 -49 95 -50 7 -39 5 -51 -9 -60 -37 -42 -12 3 -43 -10 32 -8 -64 11 21 -17 90 69 -33 41 20 48 -78 -49 27 -58 -25 -4 27 4 -6 -58 -19 0 3 5 46 2 30 -31 -9 -3 -110 37 18 -28 2 -4 -28 26 77 8 35 60 -54 19 -64 -39 -9 36 -12 -22 22 65 -28 52 -20 0 -71 -23 -22 -35 6 22 56 24 -34 16 -40 -62 63 1 -28 2 27 37 -24 31 -59 -26 30 -79 -35 -80 6 -21 13 71 -48 -78 6 1 -76 -54 31 1 -55 26 -37 -36 -60 8 6 59 17 -41 38 31 -56 18 -59 -39 16 82 2 -42 17 -3 -61 -23 35 46 -36 -6 -15 -13 -50 -19 -9 -52 21 -31 18 26 -69 -92 49 50 -9 43 21 57 -11 18 74 78 -17 -5 56 40 55 50 -40 77 14 76 46 9 39 -57 31 40 -68 -85 -30 18 -15 9 -35 -53 -1 -49 17 -36 0 -28 22 -50 -96 47
-54 -14 45 120 41 5 35 -46 18 35 -58 -80 -20 32 15 -41 -34 39 48 -31 -53 23 3 -8 22 35 68 -9 -26 -25 45 32 -17 55 -36 44 -8 -6 -3 -3 -77 -31 -26 -38 24 7 103 -20 105 30 20 1 35 89 -60 -24 9 -1 -17 1 -46 27 94 -17 19 63 22 -7 3 64 -17 40 -28 -48 61 -34 17 -1 -17 19 52 -35 87 -14 -5 15 -39 47 -81 -22 55 -35 54 -37 -41 -128 -49 -50 44 33 46 -1 38 0 -41 43 44 65 50 58 -48 35 57 -38 -14 -32 69 42 -7 -6 -48 -34 -41 -43 13 -66 45 55 -16 -88 58 -62 49 56 -31 32 -73 64 -22 -29 -32 -46 -7 15 -16 -62 40 -25 10 27 108 -7 97 -31 -20 -56 37 1 -18 -41 -13 15 17 -33 -16 31 -17 7 33 -36 42 6 0 3 22 5 71 -44 -88 56 17 -4 -51 -45 -33 -12 44 -25 -29 113 -16 56 -14 29 33 -74 24 -43 -73 25 22 39 44 -128 -90 -23 32 -18 95 12 -13 -43 47 1 6 13 6 -13 -53 18 -33 45 51 -7 64 -70 16 -34 60 2 -82 49 91 60 -5 48 -6 57 7 -40 -9 44 96 -7 -11 5 81 -1 60 -31 60 58 43 88 -29 -13
1 37 5 69 10 -1 19 34 -12 57 -23 -89 24 -28 -24 13 57 -62 46 31 10 -79 -6 -77 16 -37 20 16 16 -69 -47 19 -15 -24 -25 19 -26 16 30 -60 55 -43 -65 42 55 -57 47 -7 32 19 -33 30 -7 -88 -14 -6 62 -2 -46 35 36 17 -34 -55 90 44 37 -4 38 -37 59 50 45 -5 -2 -4 -65 61 -44 -70 9 12 -33 -5 -21 53 5 50 1 23 56 33 -59 -63 51 -2 -29 41 -16 -8 52 6 19 62 -93 12 34 16 72 -44 36 -37 63 -50 0 -12 -42 -100 -42 47 33 58 -24 -65 -54 27 -23 44 48 20 37 50 47 27 -66 57 74 -6 38 -16 54 16 -63 10 15 -15 43 45 -120 -42 39 -86 -7 -14 7 9 -109 11 27 -30 29 -8 -18 9 -18 7 -43 26 -5 -6 8 32 -6 2 -68 24 -46 -25 -17 -11 -41 -5 -32 -29 21 65 20 -40 61 39 4 63 -41 -33 -29 -16 -42 -29 2 -17 29 35 -23 -37 37 108 -20 -34 52 37 3 -61 -22 -18 -65 3 26 -90 19 50 -40 -25 -41 12 67 27 18 -11 -20 -29 74 23 95 -18 21 -12 -20 58 17 -8 50 -21 -69 -61 96 20 -24 -13 3 55 16 29 -48 22 12 -10
-52 29 -51 -32 11 -63 2 15 -19 26 17 28 -66 -65 4 -70 -25 -42 32 9 -16 -38 -75 -55 -19 -69 -21 7 34 24 44 -3 6 3 -33 -33 -15 7 -28 46 -67 -47 49 -18 -1 -39 22 25 48 5 7 5 44 10 20 11 39 -63 -55 -39 2 -64 -10 48 74 -18 -28 -22 71 21 4 -36 34 47 -6 -36 13 -69 63 -62 -47 43 68 -13 31 -46 27 52 -9 -30 10 -39 7 -15 47 -59 -58 62 -57 -24 23 -29 106 71 -37 -56 -19 -5 -4 50 0 42 19 69 -48 11 51 4 40 22 -46 -16 -35 -3 -44 -14 -11 43 -58 -53 -9 39 -38 -28 -31 25 36 44 8 -9 -22 61 3 -27 -29 -61 34 -35 -47 56 -47 -69 -60 43 23 -10 -3 -11 -48 -14 19 30 37 51 -25 54 -57 -26 35 -2 63 19 7 24 5 60 101 -27 -38 14 12 38 -52 -2 -67 -66 -41 57 -42 -26 -12 -103 10 -52 -13 48 -40 -66 -9 34 64 -28 -55 52 36 58 14 20 64 -39 -67 29 7 25 9 -63 48 28 -61 5 -4 51 35 -45 -59 -26 -27 -49 48 38 -49 70 -33 -31 -24 -29 21 40 -46 -7 -11 22 66 63 -21 -22 22 1 3 4 -23 -92 45 -5 -49 93
30 18 8 -33 -40 30 121 -50 -78 -58 71 -6 -57 -34 -20 -46 21 14 -34 16 20 3 5 29 60 42 11 59 -3 20 20 42 5 -39 -8 41 71 -52 -46 -18 -37 -94 8 2 62 49 56 110 10 3 113 -70 22 12 39 -58 114 120 109 -12 11 109 -10 24 107 127 -60 58 87 -27 37 74 34 -43 35 46 77 38 62 9 -89 99 -26 -108 63 -37 -68 -48 -6 98 24 -56 -43 -21 19 27 -5 -1 -37 116 23 62 85 -7 -4 -57 112 -62 89 6 13 -51 -5 13 -26 47 117 16 -26 -7 22 -20 -5 -12 36 23 -8 -14 30 30 6 23 123 86 44 53 -31 -22 -64 45 27 -30 63 -55 6 22 -6 47 -74 35 -65 25 -11 117 -56 -2 2 -8 -47 12 66 -47 41 40 79 55 -39 38 55 59 59 51 107 -69 -50 20 0 98 -8 -19 -34 6 -29 -10 8 59 -19 -73 -9 -49 110 91 96 115 -53 106 19 -39 107 -58 -4 30 -42 52 -62 -2 75 -33 60 -22 116 -62 15 119 -41 -44 -56 38 38 30 90 -8 -8 12 21 -59 -27 57 98 -72 -2 5 92 48 40 -55 8 10 20 -6 57 -41 101 -36 12 -36 114 50 -19 -1 39 39 50 -40 55 -84
-8 11 -1 -54 -21 -30 -9 -59 31 -35 -9 18 55 -60 37 4 -20 -66 14 -35 -26 46 6 -34 48 14 -71 -65 16 -47 -58 36 -64 29 36 53 23 56 41 -12 27 19 7 60 23 43 63 54 4 -11 -38 -13 25 55 50 11 12 -64 2 -22 22 27 55 38 22 -63 -1 -35 9 34 -33 33 -46 8 4 -7 47 -25 14 21 -8 -6 57 35 18 -19 48 34 46 -18 52 -8 54 -53 -15 -26 -30 60 21 -4 69 28 21 -24 12 28 -56 51 -63 -43 -28 57 30 -46 -31 -59 44 56 2 -6 19 48 -55 -65 -9 37 -9 -7 20 30 32 -32 -22 -1 52 4 31 -48 37 5 34 37 -30 -54 20 25 -46 20 33 -69 45 -44 -12 -38 -44 -3 -33 55 -16 6 -31 18 50 -32 51 66 -38 -54 9 32 -63 15 -74 -23 59 47 10 -66 -28 29 51 -51 36 22 57 -26 36 41 18 2 -38 6 -33 47 10 -57 -85 -29 -73 -70 2 -38 -16 -39 -9 15 -22 27 -3 -14 50 59 -17 18 -11 -32 -24 8 -66 56 32 50 14 47 12 29 -1 38 -32 27 9 -70 18 34 22 22 7 -8 -55 2 -46 34 -49 -1 -36 10 -75 28 19 -28 -16 0 32 27 52 16
-12 -10 16 -8 -33 -13 -50 50 -36 -24 20 -25 -18 -40 11 -33 -15 -87 -70 47 -20 -105 6 21 -33 -44 -71 1 40 -55 23 -12 31 -72 50 -38 50 -56 -8 -43 9 68 -42 -22 -28 -78 -5 68 23 -74 28 22 24 -47 5 24 -6 -23 65 -24 -33 49 35 -4 34 -45 -71 -13 16 51 -5 -46 6 -76 8 -3 -48 -22 -45 13 -22 39 74 35 -39 21 -42 27 61 33 13 -55 -63 -71 -12 -72 -55 -68 33 15 9 31 -96 36 -28 -78 -2 29 24 36 -22 -56 -21 -57 41 -3 -4 -43 -56 -70 -23 -61 -67 32 -28 -84 29 -25 -48 8 -77 -28 33 -47 -30 -31 -10 4 -11 -41 -23 -17 -49 7 18 -34 -8 -46 -29 26 65 -64 24 6 -46 31 6 -39 -64 -51 -66 -65 40 -34 -70 -72 29 47 23 -24 28 14 21 83 54 44 -63 39 -59 4 -16 -66 -62 -14 -55 -70 -31 -90 -48 10 65 -29 25 35 -59 24 14 -21 3 11 -43 -62 24 -37 -112 -58 -27 -51 16 -86 -3 71 20 29 -70 -9 -24 -46 35 6 -2 75 -37 18 16 -42 -6 -19 -13 0 18 32 -2 -6 39 38 -53 -14 -26 40 -43 29 52 29 -14 -68 -74 -17 15 23 6 -38 -59 -19 32 -26
-17 57 53 55 45 39 64 -31 15 20 -31 20 32 44 9 -61 26 1 9 0 -2 -6 10 -4 -44 -26 43 -20 -24 -47 -39 -12 45 -1 -43 42 62 45 -10 -10 48 21 48 -53 60 -14 -34 32 -28 27 -19 54 23 4 47 -54 -13 7 34 -28 -57 44 -45 -3 32 -47 45 -54 57 64 -16 -57 -44 -30 22 -27 58 24 -21 -30 42 -52 -26 17 -12 -3 -32 30 -57 -15 40 -51 32 -12 4 -52 2 -52 -23 2 -9 -54 20 3 -54 49 -1 -58 -37 -32 4 -52 -47 45 -62 -9 -36 -31 39 3 -42 36 32 26 -7 33 -58 -64 37 -56 47 -5 12 1 -62 58 -36 -44 54 -29 -61 33 -63 -4 66 17 -43 -49 -39 -35 15 -46 -1 -37 -40 38 48 -13 -22 -43 -30 -14 -68 -27 -23 -37 3 -42 -18 37 -42 19 41 23 29 1 7 -54 19 10 -47 -61 23 2 -7 -14 13 -10 42 -27 -12 9 16 -59 -55 -4 -14 -42 57 -52 -35 -67 -37 -11 -14 35 -61 -30 -59 -16 -50 43 60 -38 53 4 61 43 29 -3 35 32 -32 35 13 46 -14 33 7 -25 23 -6 19 -25 64 -40 -35 9 50 44 46 21 7 49 -36 56 47 63 -55 34 52 -28 -13 -40 16 63
36 -49 -39 36 -53 -55 45 -14 -43 -47 37 -64 13 -40 59 36 19 -76 -4 -69 6 -15 -5 17 21 -2 -8 -17 49 -25 42 16 -14 -27 16 -74 28 47 -8 23 7 -14 -33 -20 13 4 -20 42 8 -12 26 -82 59 70 4 -36 1 24 -73 36 19 -47 6 -76 -18 11 -30 20 -25 -41 -38 -23 52 -50 -27 37 -48 -45 -33 -2 22 -51 -31 -5 -39 -75 32 0 -49 -51 -24 18 47 -13 -21 -37 -61 -1 -31 24 55 15 60 27 1 -76 22 -68 49 -35 -44 31 6 26 -34 -76 12 35 49 28 -49 -24 -40 48 12 20 8 50 -23 33 -46 -24 43 -58 -60 -2 -25 -1 -58 -16 30 -27 57 37 9 -8 -19 -14 22 58 -28 -2 -6 12 -9 -3 32 15 -73 -42 -34 -57 -2 -21 -50 18 -98 32 -84 16 -16 -46 -11 -49 19 -83 -33 22 25 23 -6 -59 40 43 -25 16 -67 -48 -12 -7 53 51 32 -55 28 45 -19 44 -51 72 26 16 14 47 65 32 -6 16 12 43 -16 8 -49 -33 -64 56 -36 18 -31 -24 -49 23 -62 -54 -23 56 3 35 -13 13 41 -46 4 13 -38 -23 -31 -40 5 47 -49 22 -40 45 -12 35 31 -44 39 -38 17 -24 33 1 -40 0
-29 -25 -57 -66 3 -14 4 -39 34 4 -43 47 -31 -48 40 34 -69 -52 -25 27 -21 43 -42 -2 49 -39 14 -51 -60 -20 11 39 -5 -30 3 49 0 37 -21 -81 57 -10 39 15 -6 51 10 56 -19 55 -13 46 13 -54 -44 -85 -58 36 -26 0 46 -66 65 5 73 -46 20 29 -27 34 -36 45 -56 -17 12 -28 -5 27 45 -21 -18 7 9 -5 40 -55 47 3 -5 19 25 -54 -58 14 13 -51 -7 -53 -53 -49 50 54 44 -5 14 57 40 -14 0 4 -13 -20 38 29 4 -76 34 -5 -19 -11 68 62 45 36 -14 0 48 31 -61 -56 45 -26 -23 2 7 0 43 14 22 -6 -38 -49 -33 -41 -7 58 -46 -47 60 -35 -63 47 -10 -25 26 56 -31 38 23 -24 47 43 -6 -10 24 -14 -8 -22 -16 -9 63 -42 34 39 21 -15 24 31 -49 52 -48 10 36 -30 52 -21 -63 23 38 57 -58 -14 -5 7 50 -19 -44 -20 44 -6 -40 60 -2 49 -23 -42 -36 -55 -45 52 -8 51 42 24 -47 -47 -62 -7 -14 -16 0 56 56 15 3 -11 -28 26 -26 29 36 -37 30 -50 -29 42 -50 -25 -22 28 -60 -11 -61 60 25 16 45 -12 21 -13 6 36 3 16 63 47
-57 -61 -52 -25 -19 -50 -44 43 -36 -17 -58 -24 63 19 24 -57 -21 21 29 38 36 32 -41 -10 -23 48 21 -17 -35 -48 -35 20 -39 -10 -36 -26 -2 -10 -28 -50 5 -26 13 37 43 -28 -32 -8 48 -23 -33 48 59 -52 2 -21 18 -44 46 14 -28 -56 -60 -13 -23 -11 5 35 -57 -14 45 -22 -36 -38 19 -22 -67 -10 -46 -10 59 3 19 9 -51 43 -17 -8 29 24 -37 19 -43 -66 -18 2 40 4 -41 42 28 12 -26 -33 -30 20 -43 21 -53 -34 0 13 -13 49 -1 -53 15 48 -66 -16 -59 -9 15 15 -32 10 -36 24 -34 -49 5 15 -63 29 -55 -65 -51 -2 56 -32 43 -61 2 -63 57 -64 33 -24 -7 55 0 34 31 -46 39 -51 -50 60 -65 -24 28 -67 25 42 -15 -22 33 8 27 27 35 -23 57 40 53 9 20 -40 -20 -28 48 -9 -13 34 73 -1 40 33 -2 -4 -75 19 -29 43 -15 -25 -42 -55 19 -20 -35 50 -25 -5 21 24 -42 -29 60 8 3 -46 -22 -62 10 40 -35 -46 -35 -60 -11 -26 -4 -20 56 11 52 -4 -51 11 -40 33 55 31 0 -25 -23 15 42 26 -55 -29 -61 -39 -42 -44 42 3 1 -33 16 69 0 40 -32 -16
19 -59 -44 60 -32 -47 69 -69 50 -26 44 -1 -23 51 -45 -64 -89 -23 -29 -60 41 53 -8 -50 -48 -39 -10 32 -29 -20 -34 46 -34 -21 13 60 6 18 -9 30 -54 -24 23 21 -22 -13 -40 36 13 13 -26 -46 -9 53 40 4 -55 -15 -10 33 18 -42 -23 55 1 -36 -7 20 63 -5 -20 -46 -33 -43 -69 -29 -78 48 6 -73 34 48 -49 -27 -29 -27 -45 46 1 14 23 44 -69 30 50 -10 11 26 51 -57 -21 -56 -54 23 -2 -6 -36 7 -3 -41 -15 1 -49 40 30 51 -12 6 -66 59 20 -17 17 14 31 55 -3 32 -58 -3 -44 -68 -67 -33 -18 -47 -22 -42 40 17 -16 -58 -58 -41 -31 -21 34 11 24 42 -30 61 -52 5 -48 -22 28 -4 38 -59 -60 23 38 41 50 61 7 -43 -11 21 14 43 53 50 48 37 -47 -6 21 -51 48 -42 35 -44 -37 -31 8 -40 -31 13 -53 5 -13 46 47 -13 18 -63 -58 18 32 -18 -37 -10 -58 47 51 -40 -30 4 -40 69 5 51 32 -5 -38 41 -3 -52 -1 -11 24 -4 -7 63 -16 -27 -48 -28 -60 -21 -42 65 39 -50 13 57 32 -37 39 38 -47 -27 -6 44 -41 -3 -69 -12 -36 -56 17 58 -48 10
-41 -42 38 40 28 -69 3 41 6 18 -55 -45 56 -48 -38 14 62 -79 -22 10 55 -38 -31 -38 -86 -57 -52 54 -43 57 -42 -71 -51 1 39 -59 -55 -57 0 18 -49 7 19 10 -1 -81 17 18 -7 -11 -84 59 -41 10 52 25 20 18 52 -11 -62 66 65 -66 -37 21 -48 -52 6 -32 -48 -42 -39 -35 39 2 -19 26 -14 -31 -66 -25 24 -49 -16 -34 -58 -29 69 -41 -46 17 -50 -67 -2 -64 16 45 41 4 -20 -71 -31 -36 -8 -5 -56 -71 6 50 -45 -37 10 -64 22 -77 -26 -46 -44 -72 59 -73 -44 -36 -51 -6 -69 -16 17 -54 -32 -10 60 36 -62 45 16 -72 -50 25 23 -61 27 -72 -71 38 -20 53 44 -51 27 -7 -33 -46 -50 43 25 -52 -16 -40 -11 48 10 -36 -1 -86 -89 59 3 -17 -62 -65 -28 59 52 44 -58 -8 10 22 25 -29 -14 26 -37 -39 54 -47 -56 31 57 -4 61 13 -17 -28 1 30 -23 5 -31 -40 -62 34 -95 19 33 -83 -1 27 -33 -21 -10 -10 31 -42 42 -3 -1 -18 -36 68 22 28 45 -4 -28 -14 59 28 -26 -11 -56 -57 -68 -12 25 16 -42 39 51 28 55 29 -25 -37 49 3 25 8 31 58 18 19 24 3
45 -14 -11 -46 16 -63 -13 23 -55 -37 46 60 15 27 -73 -51 -6 3 30 -20 -1 18 -48 29 -62 26 -31 -63 75 42 22 -40 49 -58 -23 28 -40 30 -14 54 19 22 -70 -53 21 24 -11 -4 6 47 -44 30 27 -21 -52 -26 32 -19 29 -70 62 71 9 -50 19 -5 -46 31 -3 -33 11 57 51 8 51 -36 -43 -54 -16 -10 -5 77 -41 -40 -2 59 -28 -3 -39 -9 40 -51 13 36 -36 8 -37 25 -27 -22 23 -26 -63 -12 35 31 65 -7 -10 42 -8 -61 -29 53 9 -35 47 34 -72 39 -23 -15 46 24 -16 -4 37 50 -33 40 -18 -49 -7 -12 28 14 22 25 -44 -36 20 -19 39 -27 -6 13 -20 -42 -33 -56 37 21 60 6 -57 40 -41 -43 -69 -11 32 -41 18 -28 28 60 39 2 13 16 25 35 34 -30 -7 7 0 -38 40 -35 28 44 35 -36 -41 -32 44 -6 39 -38 66 37 43 66 37 49 -20 10 1 29 -56 43 -38 -58 -29 54 -61 18 27 7 -17 5 24 27 65 23 -52 25 27 21 -20 10 -57 -5 10 39 -20 30 44 72 -62 9 -25 57 -1 -68 -37 -57 -14 4 -10 9 38 23 14 -35 -13 -7 -2 -40 63 -42 -16 -56 -20 17
-9 -37 -59 -27 -54 -27 32 13 -105 -63 -1 26 28 -5 -87 -55 30 39 -19 63 -47 -48 -51 -9 -10 20 7 7 -41 19 9 -20 -2 -43 0 -14 -52 13 -16 -11 -56 -8 51 -28 -15 27 96 -84 23 29 -57 -45 -44 99 -11 -18 34 -13 70 -20 -2 75 -54 -28 53 -69 -40 65 70 -16 -13 -3 58 34 -65 -39 -30 91 -24 21 5 -8 7 -72 30 31 -18 44 -35 34 -15 22 52 49 -24 12 58 30 -48 -61 39 -83 92 15 46 42 -27 -68 7 -43 -59 9 15 21 24 -64 41 7 43 18 27 -29 -20 24 50 5 -58 47 20 35 23 22 60 -4 -44 -33 -33 22 -31 52 32 -25 -58 8 -14 -45 -14 3 18 -10 -47 12 -20 10 13 -16 61 -43 -41 32 18 -30 39 -10 34 -52 -16 -5 38 -24 31 -60 22 -46 20 -17 33 42 -26 28 -30 6 12 -42 6 -61 -56 -71 -55 83 41 47 42 -36 -67 -49 -6 -61 47 5 54 10 28 -46 2 -40 28 -25 60 -62 49 14 36 -11 27 -25 36 28 -26 -43 29 88 -39 -13 -4 -3 -40 -23 36 28 39 -3 -60 -28 13 47 34 106 29 44 10 -3 18 -39 -95 -66 -11 11 52 -12 -47 16 60 -10 32 -115
-13 53 17 -1 -54 13 -13 -64 -3 41 63 -9 -46 43 48 44 -71 3 -37 -15 -11 67 7 -25 17 -16 21 50 2 16 13 16 15 -3 3 -14 8 -8 56 18 77 29 29 52 -20 51 15 -10 -63 -19 19 34 63 29 31 -36 -1 54 53 20 -55 -55 -4 48 83 7 -35 18 3 -61 60 -35 -12 56 -11 -8 -14 -47 -46 19 44 -52 -65 -77 14 -41 56 61 -56 11 -69 33 29 17 -33 19 -12 -61 -14 43 9 -2 -84 15 28 60 47 -55 29 -52 41 -58 -20 -54 -6 -28 -81 35 1 20 64 60 -32 -42 12 -67 25 -48 -47 40 -8 1 20 13 -14 -36 15 -4 24 -13 52 -12 66 6 -44 64 -33 6 -55 -25 -25 14 53 38 -57 26 -21 -8 40 39 2 -48 -27 -64 -41 64 -17 -54 21 26 -49 18 -9 1 40 -7 -29 -6 -34 38 6 18 -46 -61 26 -50 -61 0 4 58 44 8 -71 13 48 -28 38 -3 -52 -23 36 -5 35 63 39 39 -91 -29 19 -16 57 58 -37 56 -29 -23 -56 -47 50 -24 4 33 14 45 -2 9 33 53 -7 28 8 20 -78 -30 -33 -20 -53 56 54 -71 -55 -16 16 21 2 -44 36 14 36 -56 69 -13 26 89 23 106
25 -22 4 -43 5 -8 29 27 -37 -21 -50 -44 -55 -37 20 41 9 27 5 -5 -10 52 26 -40 -12 -36 49 -9 -75 -23 -45 8 -64 12 -38 -72 -13 -75 -31 20 11 34 -13 20 -8 -72 21 -36 41 41 -73 -41 44 -39 7 35 65 -4 24 26 -32 -14 2 33 71 -78 20 -45 49 43 -73 -28 -36 10 40 -36 -43 -41 -53 -32 -10 -68 48 -53 -46 -32 43 21 -23 44 19 -23 -55 28 25 -4 50 14 25 -20 51 21 91 56 -1 -46 -64 48 28 24 -11 -50 1 11 -72 -34 27 61 37 -14 -16 45 -55 -45 15 -47 -54 19 -28 18 -39 -8 50 34 -33 6 12 -44 -37 19 -4 -51 -51 -17 38 -69 24 47 -56 3 37 1 -16 -29 -40 -11 45 -58 17 -41 -51 48 31 27 41 -47 -62 -51 -74 63 57 -39 10 -33 27 -6 -34 -49 -6 37 9 -67 40 27 21 4 -31 -44 -20 -67 -40 24 24 15 -44 -62 -25 35 -7 36 -29 32 25 -55 1 -14 -5 -39 50 -10 41 37 0 14 -6 -25 -15 -23 27 -15 -17 -6 -4 -20 12 -56 -23 41 -59 -71 -54 36 -26 -2 31 -2 -12 -53 32 13 16 42 51 -33 31 28 -47 47 35 6 11 40 42 11 -39 52
-61 -68 -10 -21 39 -2 96 70 -24 15 9 2 30 -8 -7 16 -37 -8 -34 16 28 2 1 11 -59 -42 -13 -52 38 -11 -12 -39 -23 -50 39 48 104 -65 -6 -40 -28 -33 5 4 -11 34 9 -74 -13 -33 22 -83 16 0 3 40 -10 -23 -60 -31 13 54 -34 -22 22 28 31 -92 56 -72 0 -55 15 -52 -29 -75 57 -2 8 30 -11 64 -29 33 -20 -3 -11 -18 -24 -84 43 25 -48 37 -12 20 -1 -16 51 89 -33 -49 -31 -23 29 38 43 34 94 -9 -40 48 -42 -4 -28 -21 -10 -23 33 41 -53 -34 -75 -21 -23 0 -67 20 -3 40 -19 -91 15 -24 -29 -6 37 -42 -29 60 7 -38 -80 -64 -94 35 25 -6 17 -11 57 2 -9 29 -46 66 44 -69 -15 33 41 1 -113 -45 -46 -9 -14 -6 -37 47 -57 -30 -1 49 -58 -36 33 -26 -71 41 -58 29 -55 -29 -44 -1 -24 65 -28 60 34 89 26 -32 25 5 -35 -63 61 47 -65 -22 19 42 26 23 35 48 36 61 -24 63 29 42 -52 66 60 34 -5 -15 12 11 44 -17 -15 8 54 -19 13 32 -38 52 54 -101 50 -32 -22 -48 -23 54 -32 54 48 -13 56 13 78 31 30 -1 14 -40 8 30 -111 13
36 -22 -13 82 -10 8 -55 36 56 5 -76 -75 1 -24 -4 -34 -49 -32 -17 -3 -44 -7 48 0 -67 -55 66 -45 14 -60 44 -2 -60 9 13 -22 26 -30 6 37 12 90 -6 15 -23 -76 106 16 66 -18 11 15 69 5 21 -42 6 -63 -80 -20 37 -96 69 -2 -65 91 14 -25 -49 -73 -105 -63 -24 32 18 -22 74 7 9 7 48 -54 125 16 -92 -1 49 -38 13 -41 14 1 -22 10 -54 33 59 22 22 2 -22 -74 24 -16 108 -39 -93 -2 29 8 16 10 -9 2 -46 -8 9 44 -2 92 -14 0 10 -12 -76 -46 51 36 -61 6 -34 -65 -76 -24 -34 -8 6 -31 5 29 3 16 -58 15 -60 -29 3 -17 18 -22 85 -15 94 -30 1 14 89 35 -78 -19 87 -48 -40 -50 -17 -27 -38 17 -27 -5 -20 -8 -23 55 1 -67 -30 -47 -19 15 46 -15 27 53 -55 14 39 34 37 73 -68 19 74 40 39 -45 48 44 8 55 -15 6 15 -22 27 49 -34 -45 39 -24 -35 -13 67 -7 -47 -50 -10 92 -33 43 -65 12 -36 -45 5 11 -24 13 19 114 42 28 45 -73 -47 -53 -23 1 -6 50 -50 -53 41 6 43 8 -80 19 38 -64 -3 41 35 45 3 53
-45 -18 -8 48 -9 6 -54 5 9 45 -18 18 19 -4 -17 -42 -63 -1 34 30 27 67 -37 -37 -26 28 -69 -50 -61 -44 20 -61 -40 -35 -11 28 28 31 -23 34 -4 79 26 -27 67 -35 49 11 110 -28 51 -38 -22 101 -14 5 -35 -20 -77 -53 26 4 38 25 -41 38 1 61 26 -13 50 -38 -13 -67 23 -6 -13 -12 59 -61 101 -48 -4 59 -54 14 39 -62 -40 -50 -33 -35 -17 -63 14 -20 -13 61 -25 -88 -45 -49 -67 -39 36 -13 2 -28 -52 54 -55 -5 -6 -16 13 42 99 -7 -19 -49 -75 14 12 -68 -15 -48 -62 28 11 34 -48 -62 -52 113 -64 -45 -68 2 -46 -68 -35 -23 41 -70 -11 -50 -2 -11 -15 -49 127 3 -11 20 30 18 -1 13 12 13 61 55 -67 -43 -6 37 7 56 -16 -5 32 19 -6 32 -55 -74 -26 -55 -29 -29 36 -11 -54 67 -54 -31 5 53 -41 52 -10 2 99 15 5 -49 61 12 -58 101 -39 -69 -35 -28 -76 -21 -16 -38 28 -64 -65 39 67 5 -27 -26 -27 80 27 12 -5 28 -45 -11 87 -34 -65 -3 -57 66 -76 127 42 21 -23 12 15 6 -31 22 -40 8 83 -35 79 26 9 43 86 -12 -38 54 -64 19 -7 42
46 -35 -51 -19 -40 5 -18 47 -25 48 9 47 -2 48 16 7 6 37 -19 31 48 58 13 41 -26 1 -40 -45 63 -11 -37 69 63 44 35 7 -18 6 -15 -44 24 9 39 39 -53 24 46 -52 -39 -26 16 16 7 -47 -38 -33 -25 21 -30 22 -43 -16 42 46 -2 -6 54 -50 -25 8 -26 -45 -40 45 -3 17 9 20 50 66 -15 76 9 -40 -24 26 -81 22 -8 -40 -66 24 -13 -5 -9 51 -48 20 -62 -39 -18 50 -62 14 45 -31 -41 -44 -61 -25 8 -34 23 21 -47 -33 -40 8 14 -5 57 -48 -5 -22 12 48 -15 55 -43 -48 17 57 53 -53 -5 -12 -57 -43 47 -35 -7 -2 18 -23 -57 -4 9 7 -34 -53 -86 -20 -61 -42 68 9 17 -43 58 -1 8 -61 -41 33 44 29 22 0 25 13 13 52 -30 42 7 -31 -24 65 -52 -22 -19 6 -16 35 53 -52 34 28 -24 -31 74 29 -19 89 -42 68 16 -30 -27 18 -14 3 36 83 -15 23 -20 -8 28 -47 15 6 9 -41 -2 -26 51 5 52 8 61 -44 69 -47 -32 15 -62 -57 13 -50 -85 -56 32 36 44 -22 46 -6 -65 36 -41 -61 30 12 48 52 -26 23 -42 33 8 -32 -33 5 57 -8
11 -71 -69 37 4 21 41 46 20 30 -29 47 32 -66 -60 -45 49 -3 8 55 55 -69 -35 24 3 42 -74 5 -49 -18 17 -59 -35 -21 -62 37 24 -16 -57 -58 58 62 -26 8 9 -25 28 -41 -62 20 24 -56 -57 55 -48 -49 -53 -61 -20 -48 17 18 -7 -26 -39 42 46 -35 -2 18 33 -59 -30 29 30 -4 73 -50 -20 36 40 7 62 18 -18 13 -45 -30 0 51 -1 -59 -11 -69 -47 -65 -6 -47 0 13 -63 -60 -3 29 19 -1 -23 37 -21 -11 -64 19 -27 -57 11 22 -19 -38 7 -5 52 -52 -64 -8 -62 28 -25 -11 -25 -40 51 -77 20 14 38 -39 9 45 -22 -70 -24 33 47 32 -53 -28 -24 -13 45 33 31 38 -16 -6 -58 57 24 26 4 -3 -33 -57 -78 -14 -6 -57 -16 -66 31 -55 -22 -25 27 -57 7 -81 -42 -8 -75 -37 -19 -49 -11 -37 -38 -52 29 -50 -15 -59 2 41 -24 -56 -53 28 41 28 -6 -54 35 -68 28 -8 -52 -42 -48 -4 15 -18 -56 53 -51 4 18 46 -29 3 -15 19 34 14 18 8 35 52 -41 -68 -4 21 21 -28 -12 50 10 -27 -25 -72 54 17 19 -19 6 53 10 31 25 -38 55 -16 -3 22 -41 -8 23 -15
47 -39 -59 -44 -18 -57 -23 36 -41 49 -62 -83 -29 60 11 -43 21 34 47 39 -59 -60 -15 22 20 -70 -24 -6 -20 14 31 -3 42 -42 -45 -9 52 13 -2 -1 35 -33 -23 7 -47 -58 -28 30 -74 14 55 -93 21 -44 -30 -51 69 -23 -8 -22 -56 70 -5 3 55 -20 43 -4 24 -35 38 -40 -64 3 -11 -37 -25 5 -54 -13 -69 63 -58 -39 -22 -5 -23 -57 29 -55 10 32 54 46 -33 -4 -29 49 -4 73 29 -38 10 -39 -91 -62 -4 27 60 12 3 31 5 39 -68 3 -63 -31 19 27 55 -55 49 13 -11 -6 -34 -10 -70 38 -64 24 -13 -22 -61 26 -16 -49 53 8 -27 24 2 61 8 -37 18 -18 -63 -37 -61 23 -56 2 -1 14 11 -10 -8 -25 13 28 -10 -66 38 37 53 0 43 -39 -33 -41 -47 -55 -57 -43 -60 33 30 16 21 -36 46 -48 31 -34 32 41 38 -10 24 38 -14 -7 54 3 -8 -66 68 -18 20 57 -42 -54 -62 -16 -83 15 -17 -7 57 71 -46 35 -20 -38 6 -10 8 -38 50 18 -35 39 -27 -33 38 -38 56 23 53 -77 11 -44 42 20 45 41 -16 29 -69 27 9 3 -55 30 -5 -31 -59 -34 -21 -35 5 23 1 27
