127 -115 18 94 -128 -14 127 60 -17 -6
-64 -66 -24 127 -116 105 -61 92 56 -53
-28 34 -97 25 -28 44 -113 -33 28 62
12 118 -32 -128 112 41 -43 127 -53 -58
-21 -113 -15 93 -86 1 6 127 -13 -49
-6 -48 74 13 -37 6 9 7 27 -77
-55 31 127 108 -128 -11 -19 -128 -6 -88
99 -128 -100 75 -21 108 -97 91 76 18
-94 -24 -11 -120 109 73 15 80 85 82
-122 127 -15 -106 127 66 -10 -119 -29 30
-98 121 -62 84 -29 -45 -58 127 -31 19
92 -128 -18 103 -24 -69 63 107 -74 -98
20 77 -98 90 -128 110 -46 -40 -49 5
34 -117 50 28 -128 7 -21 77 70 -101
-75 13 127 125 -109 115 -5 -128 -9 -7
-106 -128 95 120 -108 5 -79 -53 127 38
88 -128 79 28 -128 127 79 -125 11 -73
-124 -44 123 59 27 111 -14 25 31 -53
-87 43 -81 -108 81 -25 87 1 -52 67
0 -128 -23 8 16 125 -79 101 -39 112
-53 109 -87 -88 55 -52 -26 79 116 -59
-128 121 -32 -61 83 25 40 -128 23 127
-39 127 63 -128 65 -78 24 3 61 18
72 -108 -106 33 12 105 9 -81 -16 96
-89 -68 -73 -21 43 18 3 -128 127 94
-21 -48 -128 -5 33 26 35 51 -90 92
58 106 127 11 -128 94 -128 -27 127 -128
44 -128 -90 65 -81 122 -27 -52 40 -93
-52 -73 95 3 69 48 8 -128 -11 -25
-56 -117 -37 110 -87 124 -49 94 80 63
24 -21 -46 96 -108 16 -26 -128 109 -29
-51 87 -92 -61 127 -71 -119 127 -94 47
59 88 22 -49 -88 127 -94 104 -90 -94
-128 7 44 67 -76 80 -127 72 -93 52
127 -38 -50 127 -36 9 -51 42 45 -41
9 44 -29 -28 33 -78 25 -19 119 55
14 -48 111 -5 -12 -31 42 -128 38 -94
-96 -11 -64 65 42 84 24 -128 84 -48
127 6 -59 -101 127 -53 38 61 9 41
112 -58 -33 -44 62 84 99 24 -50 -86
62 52 107 49 -128 43 -60 32 90 -63
22 6 -96 5 40 -16 41 86 -9 -30
57 127 42 -108 -4 -76 44 12 17 -12
-55 -128 87 71 100 72 17 -25 -36 2
-126 75 -117 -36 37 1 25 127 -73 -43
-3 127 66 -99 75 35 -128 81 -100 -15
127 -79 -124 51 127 90 -32 -32 29 42
69 -109 69 -29 -12 76 121 -128 -8 29
49 -74 -66 -50 95 1 -30 85 -94 127
107 127 30 62 -114 86 -10 50 -20 -109
-121 101 123 76 15 -99 -89 127 -91 -59
15 -103 91 -63 105 87 60 -96 49 -54
127 49 120 -127 42 -53 8 -113 97 -128
127 100 -4 3 63 -107 -128 -48 127 -70
-10 44 -128 -75 -32 2 44 -79 27 22
10 90 -11 31 11 -128 38 -31 62 -19
-78 -128 -57 -58 64 57 -3 47 64 127
-121 79 -15 -22 73 -18 54 -9 -53 127
80 -37 76 -9 -6 45 69 -30 -112 -78
36 127 37 127 -81 -77 113 -101 -73 12
123 -34 -32 -34 63 64 -85 35 9 89
-128 -77 104 84 127 -128 -63 48 -69 93
-98 107 -33 127 -82 38 34 43 -118 -45
5 73 45 -29 -70 47 103 76 -79 43
-110 -48 -40 81 -39 127 -49 -45 -62 -19
-6 -10 -16 51 -128 -17 -10 67 63 -82
58 -112 50 -32 -61 127 33 82 44 66
58 91 4 16 -82 127 -52 14 113 -83
-38 127 111 -46 27 -103 12 28 -80 -59
-58 109 -55 -128 -55 63 -40 68 51 -31
16 32 127 -27 -61 38 11 -98 80 -18
-101 127 48 61 107 -12 -62 53 -128 124
4 67 -128 72 23 -19 82 -7 -45 40
-68 -96 -88 24 -97 127 64 84 -85 49
-12 58 9 -4 -118 -72 -59 43 127 60
93 -62 -79 -12 81 52 -35 13 27 120
-117 21 -65 35 -117 34 -45 -7 44 95
-33 -1 88 -3 -128 -112 107 37 -33 -57
-32 -128 -128 96 93 90 27 -64 -128 20
-98 127 -64 80 120 -90 -14 -101 7 14
4 -119 -79 94 127 48 124 -109 -4 17
-128 67 70 127 63 -128 49 -94 27 -64
-111 -86 45 28 78 -9 103 17 -57 15
-100 -128 -18 42 121 53 -42 -24 -38 92
14 -7 -108 -113 127 -119 -35 79 -33 62
-81 127 92 70 19 -89 11 -89 -22 15
29 -128 -88 -97 127 28 -89 102 -109 90
111 -71 33 66 23 -83 -77 119 -46 7
-31 127 -128 22 -76 -32 -14 -13 123 -21
-61 -27 -106 72 -96 -16 127 50 -32 -4
-32 -79 -91 -100 3 -64 71 -30 127 -18
9 -22 -49 94 -52 101 -44 54 -85 -40
127 127 90 -39 -119 8 75 -69 -37 -128
-120 25 -128 -1 127 76 8 48 34 52
-11 127 61 -30 -46 -128 -39 -40 127 -75
-29 -128 -75 62 -57 110 54 48 -40 -13
-86 121 93 116 -128 45 77 -71 91 -2
-58 -27 -124 127 50 127 -23 -128 2 127
-79 -120 28 75 22 37 -101 64 55 -8
-128 43 -128 -115 111 77 47 75 -30 33
35 24 73 50 -128 125 -53 127 -8 -128
127 -128 -66 -50 -87 119 90 -34 -27 -90
-63 -61 -119 111 -75 4 59 127 -8 23
34 -48 -52 47 -40 4 127 -68 -36 13
24 -124 72 -91 117 4 -60 84 -84 66
-72 24 41 4 -48 82 -106 74 30 -18
-29 -27 55 109 114 -91 -33 -57 -128 28
39 108 -30 -58 -16 127 51 -116 4 -103
127 -22 -52 112 -102 38 -57 80 -36 14
127 -61 61 3 -78 126 -80 -90 127 -75
103 127 52 6 -126 57 -59 -45 127 -94
72 -72 -44 -86 -17 -75 56 -77 46 -86
-40 -51 70 55 -74 85 -97 124 26 -44
-23 -17 -56 -12 -66 12 97 -107 81 36
55 -87 54 -115 52 -96 -28 81 56 -65
-90 110 -102 -74 101 -50 -18 127 -53 79
-105 -39 -10 -2 108 -110 80 106 44 36
-31 21 -101 106 2 15 -72 51 -1 102
-44 127 -5 18 127 -112 65 13 -16 -104
-83 127 68 66 -38 79 -113 -128 -41 46
-20 75 11 -6 17 2 127 -17 -15 -5
-41 -70 -112 127 -61 37 95 -31 -12 76
10 -57 35 -48 101 -128 -27 31 -63 -53
-103 127 -92 52 65 -68 -116 0 39 -69
-48 45 109 68 -74 -49 38 -76 -77 -106
-14 115 100 -117 88 -128 -89 -10 -83 79
111 -121 11 -93 11 54 8 -51 38 127
-2 -128 -13 9 -85 127 -5 85 -20 61
127 -107 -101 59 -23 9 33 -40 102 -64
-56 63 29 121 -105 84 -47 -7 10 -95
26 -66 -1 94 46 25 -126 -78 75 18
27 96 -105 -72 -55 19 27 113 -22 -69
-66 -128 -112 34 120 10 -87 -14 -30 103
91 -127 115 -26 -81 99 70 -33 -90 29
33 -73 80 14 -57 3 -10 -128 107 22
14 -34 -89 24 47 -38 -119 84 -45 32
-108 -1 -70 -74 43 10 -12 127 22 75
-23 127 -128 -67 -5 18 127 -81 37 120
-119 127 27 -12 -13 -116 -119 127 -38 -27
99 -128 51 20 -128 -58 -84 47 -20 -32
-110 33 -43 52 -1 32 -103 -45 -31 21
100 -79 -29 -25 -128 -76 -95 39 -55 94
-36 -50 -55 56 -72 89 -49 -123 126 -32
18 124 -128 -75 82 37 -54 65 52 2
44 -128 -51 57 6 -29 68 -63 -5 30
-119 -70 -115 -94 69 84 28 94 -23 -13
-82 -99 -128 -72 12 127 104 -104 109 127
-16 -128 -81 -76 58 101 -86 75 87 17
44 -128 6 -46 -128 113 -33 87 77 31
-125 -48 -71 -122 127 61 81 -106 57 -72
-91 89 127 55 -89 -58 30 4 -11 -49
5 -51 -128 72 70 -67 -124 -73 115 -39
-123 127 -46 -43 127 107 -24 -50 96 -128
93 -51 -99 18 54 -57 108 6 -98 127
58 63 125 -44 -99 -10 -128 78 38 -128
-100 -85 -22 44 -83 80 -33 -37 63 79
114 109 -14 40 58 -8 70 -112 41 -101
-67 88 -1 53 -54 -101 -88 109 73 25
-117 66 -25 -19 -72 86 -82 28 63 -46
-35 -12 -12 63 -107 -54 -37 127 -75 110
112 -57 15 23 -114 -7 -100 60 79 73
-112 65 -32 36 34 -16 -108 101 12 15
127 92 7 56 79 -128 -58 47 -27 -9
-84 -3 127 42 -128 -83 31 6 85 -5
33 -56 56 -1 -48 7 105 -89 76 -96
-73 38 0 86 -86 -36 53 -78 88 -76
112 118 15 37 -97 -74 11 37 -26 22
123 46 -128 -75 127 116 43 -5 -9 -128
5 -104 -77 37 -1 -28 -82 23 85 81
-37 127 -59 -6 -128 -128 -27 127 -17 101
-13 36 88 -84 34 50 76 -83 76 -86
-65 124 -57 -8 -115 99 127 -93 -34 123
-126 127 -25 -2 -107 65 -18 127 -128 6
-71 -25 56 -36 127 7 -47 115 -15 -112
127 52 -90 -54 -128 -104 14 37 19 86
108 -128 -65 40 62 42 56 -128 116 -123
127 -128 -47 52 117 -55 -23 20 70 105
-126 -118 -44 6 -128 127 28 -115 107 88
6 -6 9 122 -56 -61 -99 126 -128 60
86 43 59 -98 84 127 69 -31 -19 -96
26 -27 127 -26 -71 33 -43 -57 -82 -25
36 127 24 62 -108 -32 -128 81 -128 36
63 -87 -123 52 -128 127 127 -128 -10 97
84 51 -8 90 -78 -76 44 -60 61 -67
-30 109 -96 -118 122 -93 -53 127 -65 38
-121 127 -86 47 61 30 -45 -85 32 -23
33 -128 92 28 -45 -20 -49 -128 23 -119
86 113 99 75 -43 -80 11 -43 -94 -48
127 -84 -71 -38 127 -29 43 32 -86 -119
-67 -113 -12 88 -35 -128 -3 75 -1 104
-104 112 -7 79 85 -98 -17 23 -128 127
-109 66 -52 30 127 -38 116 53 -3 -24
-45 109 81 59 -66 -67 -128 -68 -19 11
-63 24 -64 99 -103 -81 -115 11 -36 76
-105 -128 10 -62 -36 63 -85 64 73 79
-60 29 -23 79 -128 35 -10 36 -47 127
36 -67 127 -3 -97 -18 97 8 -88 -64
-128 83 127 -40 -128 127 -12 8 -128 127
-85 125 127 57 -12 36 -14 -32 65 -128
-89 -128 -26 -10 127 49 82 -16 -9 21
58 108 30 33 -126 -49 26 -57 -6 93
-84 23 0 -76 -19 42 -58 -65 97 51
-32 -35 19 51 -22 -11 -115 80 -56 117
49 -62 -94 -17 57 -128 -122 78 -50 35
-88 -64 -61 56 -23 -16 -123 80 100 52
109 -128 -51 55 -45 -44 28 -12 90 -82
33 -103 -128 58 -48 121 127 -128 51 19
-99 127 75 15 -2 10 30 -53 -9 15
107 127 -74 -33 -41 -69 72 -46 -54 -100
-60 110 40 79 -28 -58 -110 -17 -24 -116
-4 -128 -34 -11 -9 72 127 -128 68 22
75 69 -128 -16 -80 -70 127 34 -3 127
127 58 -61 -68 71 -78 -41 50 -20 90
-68 127 127 15 7 30 -12 -60 -85 -6
-9 -128 -36 -93 37 18 -74 93 46 84
127 -112 -99 -38 76 -128 -55 65 -57 96
-92 -1 28 97 -128 127 -16 -128 38 -91
-29 -71 100 126 -34 -128 -43 -70 22 77
20 -68 68 51 -51 -126 -30 74 45 57
-73 -50 49 93 44 89 -128 -110 -38 -85
114 -36 104 -3 -73 65 -43 -10 -12 21
-128 127 -128 -112 -14 58 96 41 -114 27
-18 127 127 86 -128 -34 -128 48 66 59
-41 -128 -17 17 56 39 -71 67 39 93
-104 92 127 53 12 127 38 -109 -91 -43
45 113 -128 -58 80 -70 94 -86 22 -14
56 -41 78 92 -7 -106 -128 51 33 81
-2 -8 -128 -105 109 75 127 -40 25 41
64 127 -20 -48 19 77 -99 72 -126 -83
63 102 -128 12 -61 28 80 -93 65 -50
-40 -114 19 49 -46 -128 45 3 -87 127
90 -88 -56 54 -128 66 22 -128 73 -6
68 -95 -64 -89 10 26 101 104 -119 106
-93 127 -71 23 93 -64 -113 127 1 -43
71 6 -52 51 127 -79 -58 -96 40 -128
91 106 -88 -21 -34 55 101 -128 66 -83
100 -20 -16 87 -128 3 -82 30 36 25
122 -80 86 71 -116 -63 -124 -1 55 110
5 127 117 94 13 127 -128 -128 -12 -56
40 112 2 -28 -128 68 97 -107 65 -97
-72 -98 24 -52 38 82 -35 88 -38 79
-44 77 100 38 -110 -68 -99 -54 62 -44
113 59 27 41 -84 -3 59 105 29 -128
-78 8 124 35 75 8 -128 69 -20 -79
-14 55 90 -53 -33 -82 125 25 -27 88
-86 114 -47 40 -61 -84 -98 57 62 34
-52 127 127 40 -22 -67 51 -15 -18 -17
-128 97 18 19 127 115 -110 -91 0 -126
-68 -26 62 -95 127 127 106 -82 -16 -75
-75 -96 -66 -24 44 -59 -29 -64 -53 94
123 -128 127 46 -103 -38 6 0 -43 0
-67 100 127 77 -128 -124 -89 47 13 127
-13 -69 78 13 53 127 20 -92 121 -128
-128 -128 55 -21 -19 104 75 -83 88 61
127 -128 -22 -71 127 -38 35 113 -60 45
1 -100 -118 4 90 -27 -87 81 77 75
-127 115 -18 -94 128 14 -127 -60 17 6
64 66 24 -127 116 -105 61 -92 -56 53
28 -34 97 -25 28 -44 113 33 -28 -62
-12 -118 32 128 -112 -41 43 -127 53 58
21 113 15 -93 86 -1 -6 -127 13 49
6 48 -74 -13 37 -6 -9 -7 -27 77
55 -31 -127 -108 128 11 19 128 6 88
-99 128 100 -75 21 -108 97 -91 -76 -18
94 24 11 120 -109 -73 -15 -80 -85 -82
122 -127 15 106 -127 -66 10 119 29 -30
98 -121 62 -84 29 45 58 -127 31 -19
-92 128 18 -103 24 69 -63 -107 74 98
-20 -77 98 -90 128 -110 46 40 49 -5
-34 117 -50 -28 128 -7 21 -77 -70 101
75 -13 -127 -125 109 -115 5 128 9 7
106 128 -95 -120 108 -5 79 53 -127 -38
-88 128 -79 -28 128 -127 -79 125 -11 73
124 44 -123 -59 -27 -111 14 -25 -31 53
87 -43 81 108 -81 25 -87 -1 52 -67
0 128 23 -8 -16 -125 79 -101 39 -112
53 -109 87 88 -55 52 26 -79 -116 59
128 -121 32 61 -83 -25 -40 128 -23 -127
39 -127 -63 128 -65 78 -24 -3 -61 -18
-72 108 106 -33 -12 -105 -9 81 16 -96
89 68 73 21 -43 -18 -3 128 -127 -94
21 48 128 5 -33 -26 -35 -51 90 -92
-58 -106 -127 -11 128 -94 128 27 -127 128
-44 128 90 -65 81 -122 27 52 -40 93
52 73 -95 -3 -69 -48 -8 128 11 25
56 117 37 -110 87 -124 49 -94 -80 -63
-24 21 46 -96 108 -16 26 128 -109 29
51 -87 92 61 -127 71 119 -127 94 -47
-59 -88 -22 49 88 -127 94 -104 90 94
128 -7 -44 -67 76 -80 127 -72 93 -52
-127 38 50 -127 36 -9 51 -42 -45 41
-9 -44 29 28 -33 78 -25 19 -119 -55
-14 48 -111 5 12 31 -42 128 -38 94
96 11 64 -65 -42 -84 -24 128 -84 48
-127 -6 59 101 -127 53 -38 -61 -9 -41
-112 58 33 44 -62 -84 -99 -24 50 86
-62 -52 -107 -49 128 -43 60 -32 -90 63
-22 -6 96 -5 -40 16 -41 -86 9 30
-57 -127 -42 108 4 76 -44 -12 -17 12
55 128 -87 -71 -100 -72 -17 25 36 -2
126 -75 117 36 -37 -1 -25 -127 73 43
3 -127 -66 99 -75 -35 128 -81 100 15
-127 79 124 -51 -127 -90 32 32 -29 -42
-69 109 -69 29 12 -76 -121 128 8 -29
-49 74 66 50 -95 -1 30 -85 94 -127
-107 -127 -30 -62 114 -86 10 -50 20 109
121 -101 -123 -76 -15 99 89 -127 91 59
-15 103 -91 63 -105 -87 -60 96 -49 54
-127 -49 -120 127 -42 53 -8 113 -97 128
-127 -100 4 -3 -63 107 128 48 -127 70
10 -44 128 75 32 -2 -44 79 -27 -22
-10 -90 11 -31 -11 128 -38 31 -62 19
78 128 57 58 -64 -57 3 -47 -64 -127
121 -79 15 22 -73 18 -54 9 53 -127
-80 37 -76 9 6 -45 -69 30 112 78
-36 -127 -37 -127 81 77 -113 101 73 -12
-123 34 32 34 -63 -64 85 -35 -9 -89
128 77 -104 -84 -127 128 63 -48 69 -93
98 -107 33 -127 82 -38 -34 -43 118 45
-5 -73 -45 29 70 -47 -103 -76 79 -43
110 48 40 -81 39 -127 49 45 62 19
6 10 16 -51 128 17 10 -67 -63 82
-58 112 -50 32 61 -127 -33 -82 -44 -66
-58 -91 -4 -16 82 -127 52 -14 -113 83
38 -127 -111 46 -27 103 -12 -28 80 59
58 -109 55 128 55 -63 40 -68 -51 31
-16 -32 -127 27 61 -38 -11 98 -80 18
101 -127 -48 -61 -107 12 62 -53 128 -124
-4 -67 128 -72 -23 19 -82 7 45 -40
68 96 88 -24 97 -127 -64 -84 85 -49
12 -58 -9 4 118 72 59 -43 -127 -60
-93 62 79 12 -81 -52 35 -13 -27 -120
117 -21 65 -35 117 -34 45 7 -44 -95
33 1 -88 3 128 112 -107 -37 33 57
32 128 128 -96 -93 -90 -27 64 128 -20
98 -127 64 -80 -120 90 14 101 -7 -14
-4 119 79 -94 -127 -48 -124 109 4 -17
128 -67 -70 -127 -63 128 -49 94 -27 64
111 86 -45 -28 -78 9 -103 -17 57 -15
100 128 18 -42 -121 -53 42 24 38 -92
-14 7 108 113 -127 119 35 -79 33 -62
81 -127 -92 -70 -19 89 -11 89 22 -15
-29 128 88 97 -127 -28 89 -102 109 -90
-111 71 -33 -66 -23 83 77 -119 46 -7
31 -127 128 -22 76 32 14 13 -123 21
61 27 106 -72 96 16 -127 -50 32 4
32 79 91 100 -3 64 -71 30 -127 18
-9 22 49 -94 52 -101 44 -54 85 40
-127 -127 -90 39 119 -8 -75 69 37 128
120 -25 128 1 -127 -76 -8 -48 -34 -52
11 -127 -61 30 46 128 39 40 -127 75
29 128 75 -62 57 -110 -54 -48 40 13
86 -121 -93 -116 128 -45 -77 71 -91 2
58 27 124 -127 -50 -127 23 128 -2 -127
79 120 -28 -75 -22 -37 101 -64 -55 8
128 -43 128 115 -111 -77 -47 -75 30 -33
-35 -24 -73 -50 128 -125 53 -127 8 128
-127 128 66 50 87 -119 -90 34 27 90
63 61 119 -111 75 -4 -59 -127 8 -23
-34 48 52 -47 40 -4 -127 68 36 -13
-24 124 -72 91 -117 -4 60 -84 84 -66
72 -24 -41 -4 48 -82 106 -74 -30 18
29 27 -55 -109 -114 91 33 57 128 -28
-39 -108 30 58 16 -127 -51 116 -4 103
-127 22 52 -112 102 -38 57 -80 36 -14
-127 61 -61 -3 78 -126 80 90 -127 75
-103 -127 -52 -6 126 -57 59 45 -127 94
-72 72 44 86 17 75 -56 77 -46 86
40 51 -70 -55 74 -85 97 -124 -26 44
23 17 56 12 66 -12 -97 107 -81 -36
-55 87 -54 115 -52 96 28 -81 -56 65
90 -110 102 74 -101 50 18 -127 53 -79
105 39 10 2 -108 110 -80 -106 -44 -36
31 -21 101 -106 -2 -15 72 -51 1 -102
44 -127 5 -18 -127 112 -65 -13 16 104
83 -127 -68 -66 38 -79 113 128 41 -46
20 -75 -11 6 -17 -2 -127 17 15 5
41 70 112 -127 61 -37 -95 31 12 -76
-10 57 -35 48 -101 128 27 -31 63 53
103 -127 92 -52 -65 68 116 0 -39 69
48 -45 -109 -68 74 49 -38 76 77 106
14 -115 -100 117 -88 128 89 10 83 -79
-111 121 -11 93 -11 -54 -8 51 -38 -127
2 128 13 -9 85 -127 5 -85 20 -61
-127 107 101 -59 23 -9 -33 40 -102 64
56 -63 -29 -121 105 -84 47 7 -10 95
-26 66 1 -94 -46 -25 126 78 -75 -18
-27 -96 105 72 55 -19 -27 -113 22 69
66 128 112 -34 -120 -10 87 14 30 -103
-91 127 -115 26 81 -99 -70 33 90 -29
-33 73 -80 -14 57 -3 10 128 -107 -22
-14 34 89 -24 -47 38 119 -84 45 -32
108 1 70 74 -43 -10 12 -127 -22 -75
23 -127 128 67 5 -18 -127 81 -37 -120
119 -127 -27 12 13 116 119 -127 38 27
-99 128 -51 -20 128 58 84 -47 20 32
110 -33 43 -52 1 -32 103 45 31 -21
-100 79 29 25 128 76 95 -39 55 -94
36 50 55 -56 72 -89 49 123 -126 32
-18 -124 128 75 -82 -37 54 -65 -52 -2
-44 128 51 -57 -6 29 -68 63 5 -30
119 70 115 94 -69 -84 -28 -94 23 13
82 99 128 72 -12 -127 -104 104 -109 -127
16 128 81 76 -58 -101 86 -75 -87 -17
-44 128 -6 46 128 -113 33 -87 -77 -31
125 48 71 122 -127 -61 -81 106 -57 72
91 -89 -127 -55 89 58 -30 -4 11 49
-5 51 128 -72 -70 67 124 73 -115 39
123 -127 46 43 -127 -107 24 50 -96 128
-93 51 99 -18 -54 57 -108 -6 98 -127
-58 -63 -125 44 99 10 128 -78 -38 128
100 85 22 -44 83 -80 33 37 -63 -79
-114 -109 14 -40 -58 8 -70 112 -41 101
67 -88 1 -53 54 101 88 -109 -73 -25
117 -66 25 19 72 -86 82 -28 -63 46
35 12 12 -63 107 54 37 -127 75 -110
-112 57 -15 -23 114 7 100 -60 -79 -73
112 -65 32 -36 -34 16 108 -101 -12 -15
-127 -92 -7 -56 -79 128 58 -47 27 9
84 3 -127 -42 128 83 -31 -6 -85 5
-33 56 -56 1 48 -7 -105 89 -76 96
73 -38 0 -86 86 36 -53 78 -88 76
-112 -118 -15 -37 97 74 -11 -37 26 -22
-123 -46 128 75 -127 -116 -43 5 9 128
-5 104 77 -37 1 28 82 -23 -85 -81
37 -127 59 6 128 128 27 -127 17 -101
13 -36 -88 84 -34 -50 -76 83 -76 86
65 -124 57 8 115 -99 -127 93 34 -123
126 -127 25 2 107 -65 18 -127 128 -6
71 25 -56 36 -127 -7 47 -115 15 112
-127 -52 90 54 128 104 -14 -37 -19 -86
-108 128 65 -40 -62 -42 -56 128 -116 123
-127 128 47 -52 -117 55 23 -20 -70 -105
126 118 44 -6 128 -127 -28 115 -107 -88
-6 6 -9 -122 56 61 99 -126 128 -60
-86 -43 -59 98 -84 -127 -69 31 19 96
-26 27 -127 26 71 -33 43 57 82 25
-36 -127 -24 -62 108 32 128 -81 128 -36
-63 87 123 -52 128 -127 -127 128 10 -97
-84 -51 8 -90 78 76 -44 60 -61 67
30 -109 96 118 -122 93 53 -127 65 -38
121 -127 86 -47 -61 -30 45 85 -32 23
-33 128 -92 -28 45 20 49 128 -23 119
-86 -113 -99 -75 43 80 -11 43 94 48
-127 84 71 38 -127 29 -43 -32 86 119
67 113 12 -88 35 128 3 -75 1 -104
104 -112 7 -79 -85 98 17 -23 128 -127
109 -66 52 -30 -127 38 -116 -53 3 24
45 -109 -81 -59 66 67 128 68 19 -11
63 -24 64 -99 103 81 115 -11 36 -76
105 128 -10 62 36 -63 85 -64 -73 -79
60 -29 23 -79 128 -35 10 -36 47 -127
-36 67 -127 3 97 18 -97 -8 88 64
128 -83 -127 40 128 -127 12 -8 128 -127
85 -125 -127 -57 12 -36 14 32 -65 128
89 128 26 10 -127 -49 -82 16 9 -21
-58 -108 -30 -33 126 49 -26 57 6 -93
84 -23 0 76 19 -42 58 65 -97 -51
32 35 -19 -51 22 11 115 -80 56 -117
-49 62 94 17 -57 128 122 -78 50 -35
88 64 61 -56 23 16 123 -80 -100 -52
-109 128 51 -55 45 44 -28 12 -90 82
-33 103 128 -58 48 -121 -127 128 -51 -19
99 -127 -75 -15 2 -10 -30 53 9 -15
-107 -127 74 33 41 69 -72 46 54 100
60 -110 -40 -79 28 58 110 17 24 116
4 128 34 11 9 -72 -127 128 -68 -22
-75 -69 128 16 80 70 -127 -34 3 -127
-127 -58 61 68 -71 78 41 -50 20 -90
68 -127 -127 -15 -7 -30 12 60 85 6
9 128 36 93 -37 -18 74 -93 -46 -84
-127 112 99 38 -76 128 55 -65 57 -96
92 1 -28 -97 128 -127 16 128 -38 91
29 71 -100 -126 34 128 43 70 -22 -77
-20 68 -68 -51 51 126 30 -74 -45 -57
73 50 -49 -93 -44 -89 128 110 38 85
-114 36 -104 3 73 -65 43 10 12 -21
128 -127 128 112 14 -58 -96 -41 114 -27
18 -127 -127 -86 128 34 128 -48 -66 -59
41 128 17 -17 -56 -39 71 -67 -39 -93
104 -92 -127 -53 -12 -127 -38 109 91 43
-45 -113 128 58 -80 70 -94 86 -22 14
-56 41 -78 -92 7 106 128 -51 -33 -81
2 8 128 105 -109 -75 -127 40 -25 -41
-64 -127 20 48 -19 -77 99 -72 126 83
-63 -102 128 -12 61 -28 -80 93 -65 50
40 114 -19 -49 46 128 -45 -3 87 -127
-90 88 56 -54 128 -66 -22 128 -73 6
-68 95 64 89 -10 -26 -101 -104 119 -106
93 -127 71 -23 -93 64 113 -127 -1 43
-71 -6 52 -51 -127 79 58 96 -40 128
-91 -106 88 21 34 -55 -101 128 -66 83
-100 20 16 -87 128 -3 82 -30 -36 -25
-122 80 -86 -71 116 63 124 1 -55 -110
-5 -127 -117 -94 -13 -127 128 128 12 56
-40 -112 -2 28 128 -68 -97 107 -65 97
72 98 -24 52 -38 -82 35 -88 38 -79
44 -77 -100 -38 110 68 99 54 -62 44
-113 -59 -27 -41 84 3 -59 -105 -29 128
78 -8 -124 -35 -75 -8 128 -69 20 79
14 -55 -90 53 33 82 -125 -25 27 -88
86 -114 47 -40 61 84 98 -57 -62 -34
52 -127 -127 -40 22 67 -51 15 18 17
128 -97 -18 -19 -127 -115 110 91 0 126
68 26 -62 95 -127 -127 -106 82 16 75
75 96 66 24 -44 59 29 64 53 -94
-123 128 -127 -46 103 38 -6 0 43 0
67 -100 -127 -77 128 124 89 -47 -13 -127
13 69 -78 -13 -53 -127 -20 92 -121 128
128 128 -55 21 19 -104 -75 83 -88 -61
-127 128 22 71 -127 38 -35 -113 60 -45
-1 100 118 -4 -90 27 87 -81 -77 -75
