29 -8 45 -26 57 -62 -42 -43 -83 45 -28 -4 -98 46 47 -39 31 -65 -57 -49 5 -60 -50 44 23 -28 -4 -20 -40 -66 30 41 44 49 -48 19 -38 15 0 -52 -23 25 41 6 -28 -5 -62 22 5 -22 0 -36 -46 51 -66 -65 69 14 29 -29 5 -30 0 -52 26 4 18 -42 -28 34 -69 31 -41 -15 59 48 19 -35 -54 28 -36 -24 -11 -21 -35 51 -1 60 -32 7 62 18 33 19 15 -19 -4 -21 26 -22 36 13 -34 -10 -26 -8 -32 -19 -86 -14 13 61 -6 4 39 -18 -32 -46 -69 9 8 15 39 32 12 22 56 13 34 22 -14 -6 26 -55 -16 -42 -66 30 -17 -19 63 57 -16 23 -72 6 -23 -24 32 -61 54 28 -45 32 -19 25 -39 -24 -52 -43 -36 -24 -1 23 43 -56 12 -1 12 -59 19 28 -67 -60 -51 -39 -8 -60 -35 31 -21 -13 -7 -13 3 -36 -21 22 -10 -35 -4 17 61 34 -19 37 -28 -2 11 48 -27 29 -59 -86 -11 -38 45 34 -16 -46 -54 22 -21 39 42 -61 -11 -50 9 34 32 26 -70 -43 -26 -36 5 -92 -60 4 -59 10 -60 35 8 -60 -3 52 31 38 -38 47 16 -27 -9 61 -16 -66 26 -54 64 -30 -61 56 13 -31
-22 -87 -46 -24 -59 28 -50 10 -25 20 -56 19 51 13 3 39 -4 44 63 -1 38 -1 -9 -34 20 -76 -60 -48 15 -4 9 35 -23 -12 34 -44 -11 0 11 65 51 14 -23 20 -15 -65 35 36 3 49 -60 -29 -5 2 42 59 36 -46 -25 -31 10 32 -37 -20 -65 -72 12 -14 6 -27 -23 6 66 -48 65 63 -39 32 -20 -2 19 -18 -15 37 24 -36 45 -49 29 -37 -36 -56 -14 -37 -53 15 14 -6 -28 27 22 26 -24 -70 2 -66 38 13 19 -41 -74 -34 5 -4 6 21 15 -44 39 21 48 42 -22 30 47 2 55 -40 -48 -7 26 -39 64 -32 -42 42 -18 44 32 46 -32 -4 8 22 36 53 -63 -34 -28 -45 19 -52 -53 -54 -52 -23 68 -35 -69 -59 37 5 50 -20 -2 9 -44 -52 -31 29 -41 -4 8 -4 -25 -21 61 -6 -58 56 9 -14 17 62 -20 34 -9 25 48 -18 65 30 -44 -13 -36 34 -47 -7 -44 3 3 57 51 53 36 -36 -30 -35 -66 -22 50 17 -9 15 11 -33 -55 24 71 23 -72 -26 53 9 -44 -15 30 29 -62 14 16 10 43 9 -55 67 -27 9 -36 34 -30 41 -17 -22 -45 14 55 14 -29 20 -35 -46 41 -60 -12 22
42 -47 64 69 15 -54 -19 29 35 -19 -50 -47 -20 -20 -38 -34 -42 -62 -32 2 -38 28 -47 -5 35 -34 47 36 -28 22 -69 57 -51 -23 -36 -37 -17 8 32 37 -10 -66 27 -9 68 -38 -20 45 -34 0 20 -15 25 18 -19 55 18 -73 38 44 -8 58 52 -19 -7 -10 -28 -51 1 29 40 6 19 -54 62 17 -47 -26 -12 -46 -17 -65 -52 -9 -29 56 -40 13 9 12 43 -17 19 9 -49 3 -62 41 21 45 -38 -14 34 24 63 -49 -33 6 -31 7 -26 -44 34 -3 -51 40 36 40 -12 -47 62 -48 -11 -5 -23 -18 -39 -4 42 -38 24 -14 -19 -5 9 -60 -63 -18 -23 10 -61 45 37 -23 42 13 -54 -56 18 30 -40 -8 -14 -16 -58 -24 -29 -8 -13 -61 8 -32 28 -56 -5 18 25 -22 -30 55 -50 -48 0 -23 48 -48 16 -10 43 12 -20 -31 8 -1 -1 -17 62 23 -33 -27 -27 -69 52 -1 -2 12 2 35 41 42 -35 42 -51 56 -28 -60 -54 -20 -6 19 -14 -37 10 34 18 -58 26 -64 -19 38 -24 -51 3 -20 -28 45 -53 58 48 -56 -53 42 -65 45 53 17 17 -2 -68 -29 -47 -52 -29 40 6 61 51 -36 73 68 -18 2 -7 60 -28 -6
-38 60 -2 2 -31 -42 60 9 -43 -2 44 23 7 -32 -5 -48 19 -55 42 7 8 45 53 38 6 49 -56 -44 54 7 4 -35 1 13 7 53 53 67 -3 -50 -55 -20 -52 -37 -11 -60 -56 32 -64 2 -33 -11 -58 -48 8 15 -51 -61 -22 52 1 30 -53 22 49 -43 -22 -40 -10 -54 -33 0 24 -24 26 37 50 -32 25 -26 -32 -36 15 33 44 18 34 14 55 47 1 24 -59 29 -69 -20 55 -22 42 37 29 44 2 -39 -10 -23 -22 -58 50 15 -23 -35 30 -24 -13 -52 42 -57 24 -45 5 -21 28 41 57 -34 -54 15 -58 -4 39 14 33 49 48 37 11 26 -9 -19 49 17 33 -17 -59 20 -37 -67 -25 15 -51 -30 58 30 -40 28 -44 -26 26 -36 52 6 42 46 54 -41 64 57 -26 -61 42 -30 47 46 -45 -9 3 52 -14 -29 -12 -40 16 47 54 58 47 40 44 3 -54 -8 -3 -44 47 10 -40 -16 57 36 -50 32 20 -67 49 -3 1 -48 -61 45 12 -19 5 -35 -42 27 -38 50 -27 34 -33 -8 15 45 55 49 25 48 -22 -16 42 22 -63 44 54 -5 5 -2 24 -27 -7 20 -50 -51 -64 58 40 36 9 45 -56 -29 -30 22 -41 -31
30 -61 -57 44 -68 24 34 33 16 30 -34 46 33 48 -59 -42 -50 10 51 27 16 57 -13 38 -23 2 32 27 -62 -20 -4 -56 -65 -22 -53 -62 -57 -6 -19 -9 -20 -41 -51 -23 51 42 37 43 52 24 -31 18 45 15 18 45 -35 0 -47 20 32 61 -64 -67 19 -38 -15 19 -33 -28 -15 28 -1 -5 -31 33 58 -53 52 51 50 -43 36 2 -60 -13 0 5 38 -51 54 -29 -39 24 50 -73 -52 10 -71 -49 -48 21 -63 53 -46 -63 -23 67 25 -2 -20 48 -57 26 -61 -20 68 -29 34 -41 3 -55 38 -10 -17 -1 -41 -14 25 -25 12 -63 43 -27 -34 -63 -7 -36 -29 -10 -12 -24 35 -30 49 -24 -52 27 -24 -51 35 -30 -49 -13 -38 32 -59 33 4 15 -26 -26 -28 49 -26 -58 -18 -69 0 45 -24 25 -73 -36 -2 55 -27 47 -46 65 -45 -17 -17 -22 62 1 21 -33 -75 -13 58 -38 54 26 27 -101 -35 -47 54 -68 2 -26 25 -40 62 38 18 35 3 -30 39 1 46 28 59 39 -61 5 0 -66 -13 44 23 -44 54 24 28 -54 -12 47 8 -31 -41 -39 -16 -60 56 -49 -30 29 -51 12 -40 46 38 26 47 -2 -27 30 -26 60 -61 -41 -12 22
-36 41 -78 -30 -53 25 33 6 9 1 43 -71 46 -38 52 32 -44 45 -56 -38 -6 15 4 -25 -46 14 51 -25 -38 -28 11 6 -12 16 40 -4 -22 28 43 12 35 -63 -67 -6 -72 -43 52 60 52 21 47 -20 34 12 -56 -32 57 67 13 -36 19 3 -3 -75 45 6 -59 -1 -23 22 -64 22 -41 -55 38 -31 -23 40 8 16 -5 -26 4 8 28 39 26 40 -18 -8 -11 -49 -48 -1 30 -63 2 -16 -4 -21 -37 55 -22 40 5 -52 15 -32 -79 8 21 57 -11 28 5 -21 -58 -17 -17 29 -4 -52 -35 45 59 57 21 -19 4 13 -33 -30 -13 -44 23 -25 28 7 -66 -7 19 30 -16 -51 -28 -54 -49 -51 -20 8 29 -36 -25 -16 -94 30 -19 21 -8 43 23 14 -35 -44 3 43 17 36 -6 -9 41 -21 20 16 -58 -18 28 8 -72 -55 18 -13 35 -38 -2 -47 -66 -47 -30 -4 10 -19 36 -36 17 13 -41 25 37 6 40 63 2 -2 43 3 -6 -5 6 -18 -28 -38 11 -52 5 11 39 -55 30 -3 -50 -41 -21 -62 32 -4 -4 -76 22 -27 -16 -45 24 4 -11 -25 -12 46 -5 -28 15 -5 -48 -54 2 7 -29 -59 -9 36 49 44 59 -15 -30 -58
-28 -35 27 19 14 61 44 38 -19 26 46 -39 -47 11 -26 -2 41 9 14 -39 -32 47 -30 -13 -49 54 19 22 -3 23 42 58 -7 -3 -41 -9 -60 -30 9 -41 -41 15 -68 -66 -24 24 -33 47 -50 -6 22 -17 6 0 19 -70 13 20 5 29 -42 -39 -48 -48 16 36 -17 48 24 41 -55 59 -79 -52 -43 -20 35 -23 15 -10 -65 14 -21 -1 58 8 -27 10 -66 -55 -44 -1 -5 -12 -36 7 0 -53 45 -8 -16 -37 24 -1 -5 -9 50 -33 -44 48 53 37 -37 -2 -63 32 -23 4 -44 -69 -64 5 26 41 32 39 -59 2 -76 -12 -33 -27 10 -64 -53 45 12 25 30 -58 28 54 -14 63 -29 22 2 59 -30 1 -54 -60 -62 -23 -62 -54 40 -57 -47 19 -20 31 8 30 41 -9 53 -40 10 -11 -26 -27 42 -7 -62 25 -34 12 19 55 -32 61 12 30 -20 -42 12 3 10 2 72 -8 13 23 -63 -13 -25 48 -18 34 43 -47 -31 56 -56 4 12 42 -22 21 21 -35 -41 -32 58 -48 20 -46 -13 32 6 -8 11 58 33 -31 -61 -8 -7 50 15 -68 -42 58 3 46 -19 -16 -27 31 3 -28 -6 -55 -1 -15 41 -33 60 58 -60 -74 24 -54 54 -66
-31 57 12 31 -6 14 9 46 38 -38 -63 -11 12 -58 -62 -42 22 51 76 -60 14 14 13 53 -61 49 32 -52 32 -2 7 -30 -6 17 34 -48 -4 25 -24 -50 3 39 -41 27 37 59 33 38 -8 18 54 31 -63 24 -6 -57 -5 -6 67 -18 54 -40 -19 -24 -4 25 -20 43 36 62 -14 -14 -22 -27 -16 71 -59 39 -46 55 48 57 -29 -48 46 44 -31 63 -29 64 -31 16 -35 70 -6 15 -12 -52 -8 27 22 61 44 19 -73 -6 15 -49 4 -48 27 44 -49 -38 33 57 14 -48 -47 33 30 -22 -48 36 -24 56 1 9 -31 36 26 36 -34 11 -4 1 -48 39 -51 -10 52 43 29 -44 -4 44 28 -22 -5 39 23 -39 -31 -65 -15 -10 21 -3 24 -8 16 -29 -20 -35 -65 31 4 45 33 -25 -23 56 39 -43 -1 -35 -38 -36 -60 33 60 -41 31 -32 -5 -49 -58 11 -28 58 -57 53 -10 -28 -5 2 26 -47 2 -38 26 18 8 -16 16 61 67 -24 -62 27 48 14 15 33 -12 -53 12 19 -52 21 1 -4 61 -35 2 23 13 -69 -6 -59 63 -32 -19 18 7 -22 56 -19 34 43 36 58 11 -33 -57 10 -17 -4 -51 -25 -27 -2 -63 8 10 32
-67 40 48 55 -48 -1 54 -28 26 50 5 -45 -67 -17 -59 -57 29 -14 -64 -33 -60 38 -8 3 -34 49 -76 23 -48 -56 37 -27 10 -48 -52 -74 -48 62 -40 -34 -15 -6 -22 -30 14 27 -58 1 -25 3 -7 23 20 -34 -20 7 -48 3 65 -82 -1 -55 -46 3 -37 -32 18 -42 -77 -26 -58 -56 5 -45 7 -51 28 39 -39 39 -36 32 -33 -22 -49 -18 -24 -5 -44 -65 35 -49 -30 -4 -37 -12 -7 -73 -91 -36 -10 40 -27 29 21 -48 39 -35 19 18 41 6 31 18 -25 -44 -8 39 21 -86 -43 -80 45 13 -20 55 -61 44 7 -40 -10 59 -31 6 -3 56 -51 -28 16 26 -48 24 -55 -52 24 -21 51 -20 -29 -57 -12 41 -54 -52 58 2 17 -56 -24 -13 26 45 -16 -9 42 -35 30 -40 -100 -29 19 -41 -23 -4 -55 19 -44 -72 -37 -33 -40 -13 40 78 0 -63 -73 18 -59 -58 70 11 15 36 -59 -17 -52 6 -57 -35 -3 -47 -47 -29 -48 42 -31 -20 -48 -28 5 -9 -31 -61 -74 -33 13 16 37 -74 -39 33 -32 24 -36 26 -59 -5 5 25 4 6 -56 -63 3 14 -28 27 -25 5 -9 37 -35 -8 24 -9 35 -17 33 -64 47 -75 -37 -42 -37 -50
-59 23 84 20 -21 -14 -46 -47 32 57 -52 -39 30 -70 -63 -1 17 -51 -30 64 -28 33 -14 -78 10 13 -2 12 -51 80 21 7 18 27 64 44 -45 -29 -115 57 13 -38 -54 5 59 -16 -3 -6 46 -31 -66 3 -39 17 -17 1 -67 -46 67 35 -67 -66 28 9 -63 55 4 32 -4 6 42 94 11 -102 -58 35 14 54 22 23 -26 -57 -12 25 -28 21 39 30 -9 30 -5 95 -89 -4 -29 21 45 -11 -2 -25 15 53 -48 -24 20 30 4 57 54 52 97 -30 55 -127 -55 -28 -48 -6 -58 18 37 15 -8 64 -55 31 13 50 52 8 -20 -22 -56 43 -38 -22 16 5 -7 -56 -70 -59 0 51 -43 33 47 52 -23 -2 -38 -1 31 29 64 -35 -27 14 39 29 -51 4 -60 14 -23 44 80 47 -30 -74 55 -28 -48 -24 -59 -27 -47 76 19 21 -26 37 -46 -16 33 -47 51 25 -42 -8 -57 29 -38 -3 -5 -77 -4 -47 100 95 -9 19 13 13 29 52 -14 -10 -28 39 40 -53 -8 -44 -42 35 -42 26 -48 -24 -121 46 -9 -1 -1 17 -56 32 -88 -21 38 -88 40 38 -57 4 -48 -52 -6 -72 -41 -31 -51 23 -2 -59 -1 -1 47 60 25 -39 56 -14 16 -29
31 -33 30 -1 -19 62 -8 4 -22 -53 44 -22 -58 5 -92 -10 -65 -12 -59 23 1 -26 -51 17 8 -8 -24 42 -27 8 45 56 39 26 -35 -24 5 -44 0 50 -12 -66 19 -28 -10 64 -72 2 2 -34 -7 -3 3 -30 -9 -12 -11 -73 47 -74 -33 22 29 6 46 -61 -57 -30 -14 -30 -55 -52 -55 21 30 -23 -9 -15 -31 -4 67 14 -34 -18 -3 30 -29 44 -10 51 -23 52 -35 21 23 10 -52 47 38 -30 49 -36 12 -58 -67 51 32 12 -10 20 -56 27 7 -62 17 21 41 -19 30 -53 5 -28 -39 37 22 61 41 -5 21 29 -25 -68 1 16 -58 -48 -61 -32 43 8 14 30 -10 79 -13 -46 3 39 4 -66 -82 9 -22 -1 -1 -57 22 22 58 29 -45 -22 -66 -6 -58 52 -15 -31 15 -40 -39 14 1 22 10 4 -57 28 -2 17 -42 -21 12 12 -33 -37 28 26 35 15 27 -15 42 -20 -15 -7 42 -57 29 36 -92 -5 17 44 -59 30 22 1 53 -32 -3 24 25 0 62 23 11 -43 6 -69 -47 31 40 -42 4 -52 -17 42 -56 4 36 -3 8 20 19 37 -27 -47 54 -21 32 1 -5 14 -48 -42 -40 16 -56 -50 -33 13 35 4 -8 36
40 -42 -61 -5 -8 51 14 -16 -61 65 -45 -70 -33 62 -49 -10 12 -57 -19 51 -12 -3 -51 -33 8 -22 40 -59 -26 46 -41 40 -47 68 18 -30 -46 -64 -5 12 -33 -49 51 47 30 55 -54 21 29 -4 -69 -24 -1 -13 -29 24 -19 3 -14 30 -61 -11 49 -7 13 -50 -30 -7 4 0 55 -44 -3 -32 30 -49 -13 37 11 -17 23 -17 30 50 -15 -2 -12 -49 62 -31 -4 38 -18 6 -40 35 -1 0 -16 7 34 -24 -29 -33 48 4 -16 9 -69 -32 8 23 -19 -20 56 -33 -37 21 -10 -29 -6 -22 -38 -2 12 15 -38 -22 0 52 -55 -55 -45 -6 38 -2 -60 -4 -9 45 -28 30 -46 52 -21 -3 51 -31 -29 -34 -20 3 -10 -38 38 -40 61 5 -22 6 11 29 59 47 -8 -49 28 36 -14 -26 -36 17 -19 -30 24 34 -35 11 -21 -45 -19 -45 -46 31 10 50 -39 31 -32 61 -52 74 68 -5 50 22 32 4 20 42 -21 -5 38 -10 -10 -48 62 -42 -17 48 -49 47 26 24 -30 17 41 2 39 -38 -56 -21 63 48 60 5 -59 -7 9 -49 -58 -31 7 -52 -2 -32 28 55 39 -51 -29 64 -66 23 4 -6 32 -14 41 -36 -3 42 48 12 32 23
14 21 37 -54 43 6 -34 43 -30 34 -47 37 3 -3 -53 -47 42 11 -63 38 17 -50 -2 -34 -14 17 -38 -60 -16 -29 -3 -44 20 26 32 -43 -27 18 26 18 58 -26 -65 -57 -55 15 -34 -38 -1 -69 57 33 30 12 -9 -2 -40 29 -20 -38 15 -23 -70 8 11 10 4 46 33 8 49 -4 9 -29 24 -50 -42 -24 -38 -17 17 -57 18 -54 52 43 -17 -17 -24 54 48 2 -3 58 -72 -15 -57 12 0 17 36 -42 4 -59 -17 16 -10 1 -40 61 -21 -33 53 -36 -53 -47 50 -13 44 -59 -45 43 -7 33 4 -42 -32 25 -1 -26 -25 -33 43 57 19 49 52 45 -12 67 49 -53 -57 -39 -16 38 11 39 38 -17 -24 44 -44 51 -44 18 -2 -29 62 37 26 -50 38 45 -26 -9 41 8 -19 -47 -61 -48 11 18 -43 -59 20 -32 -36 58 -41 48 49 45 49 -3 -51 -42 -20 60 56 -59 -41 8 -54 16 2 39 -2 -55 -18 -12 49 -4 -5 -51 -39 -27 -55 -16 42 -22 42 18 47 0 -8 -37 -70 -47 -18 -33 3 57 -66 -24 -43 -12 1 41 9 30 -36 -60 27 -8 56 -48 -51 5 40 -2 -18 -61 -62 42 55 21 -56 62 -9 -45 18 -53 -22 61
2 -2 46 -9 -37 57 -56 -35 -34 37 -22 -23 25 -10 -30 -1 19 -38 36 55 -45 -16 -17 2 15 -33 25 30 -40 -5 -2 -6 5 -15 -28 -43 30 44 13 -2 -46 -59 10 56 2 30 -47 38 -46 17 -8 13 22 -38 8 37 -22 10 -58 -29 -38 16 -66 -10 15 -63 -1 -32 -61 -55 40 -3 -35 21 11 25 -43 -23 -19 4 -11 -32 37 35 -8 -26 41 -61 43 15 67 19 -65 48 38 -31 50 -41 37 45 -65 6 15 45 6 14 -57 55 -35 11 21 38 57 -51 -22 23 49 19 -21 65 -53 3 38 17 -45 -16 2 23 -53 31 -48 -22 39 12 -21 13 -4 -31 -47 33 -42 37 25 49 60 -5 -8 -54 58 -20 -36 -34 -9 33 6 -54 16 -39 -40 48 51 -43 -57 31 4 -54 50 -25 49 -34 -4 -47 -42 -46 -5 -38 -21 -50 27 20 -34 31 31 62 -34 8 -9 50 33 57 21 -48 31 -5 -32 -65 52 -6 62 57 -9 14 -21 -8 -36 -50 -11 4 -36 17 -37 21 50 22 -56 -19 -16 -76 -16 -6 -18 41 -61 -6 -53 -49 24 7 -2 22 -37 10 8 20 49 -1 56 23 -12 48 -21 -39 -64 -20 -37 61 13 -21 17 58 49 14 -57 -54 55 8
-20 -24 82 -32 37 -42 -32 28 12 8 -57 -49 36 -36 -51 -77 -50 -48 27 26 61 -53 -47 -69 25 -51 -39 -8 21 -31 7 -60 -29 -8 67 -3 11 -22 -70 23 -7 -10 48 -55 66 -29 -11 -25 26 -26 18 59 41 22 -51 36 -48 40 -29 46 14 -77 -10 33 24 -8 -51 54 22 -43 -6 95 -46 14 43 17 -61 -44 21 48 -56 -74 -8 38 53 65 -65 65 21 66 16 17 9 27 -28 51 25 -3 37 -3 -77 -16 53 48 40 55 54 48 51 -54 11 47 85 -29 -76 -18 13 -66 10 -58 96 6 -27 43 -78 18 -66 82 49 -3 -2 2 26 23 -36 -54 -39 -58 -58 -2 -102 25 51 31 -20 17 53 -28 41 8 11 -10 17 -64 64 -59 15 -45 -64 -69 -63 56 -52 -16 38 -35 37 6 12 16 35 46 38 -20 55 -8 3 51 -25 -36 -21 23 -43 63 17 31 -60 13 9 10 32 3 2 -50 41 36 59 40 85 107 -83 25 -52 40 41 65 -14 37 -14 -24 -54 -69 6 -62 39 -75 25 -44 -61 -58 -11 -42 9 -65 3 44 -52 -18 38 31 -67 -65 54 37 37 -10 -52 1 -5 -2 -85 6 -57 -41 28 -61 41 3 10 -9 44 25 -50 -69 -33 35
46 28 -23 16 -31 36 -2 -10 -36 -72 55 53 14 -18 31 -12 53 -28 6 -30 56 53 -15 63 1 -36 -49 52 50 -83 -12 -29 -50 -6 11 46 50 13 27 -23 -64 58 -5 18 61 12 26 -3 -3 23 43 -29 24 36 -58 -26 38 -47 -84 -14 5 -22 -30 0 19 -38 -68 -15 -62 16 47 2 39 9 -31 -57 60 5 28 -37 61 53 -22 15 12 -55 8 40 -32 -54 -72 52 -49 43 3 -26 -23 -54 -36 38 -25 -12 -64 64 20 48 4 33 -62 -32 -36 -73 34 -13 50 -54 27 4 -27 9 18 28 -57 -65 29 -1 -9 -27 -16 36 37 26 1 -59 -20 -68 47 51 -63 -35 -67 70 -18 40 35 -53 -14 -34 11 -46 -70 -50 46 24 -46 -61 -8 -7 -15 5 52 52 -34 35 2 -12 -50 60 -13 63 1 -23 -49 -18 -24 -43 30 -32 -36 -52 -66 58 18 32 58 10 28 25 28 -49 18 4 57 -51 -39 -39 38 -72 -1 6 22 45 33 -49 -15 -80 -10 -26 -46 11 8 -59 -64 23 -1 38 56 -17 75 -64 47 -3 -59 -14 37 -17 45 51 -14 -27 39 -20 -53 -29 -4 -26 -56 -33 -59 40 54 32 28 -35 52 49 56 15 -56 -48 22 -26 -16 -48 49 56
-68 -48 8 -6 12 32 47 29 2 61 -31 -27 -53 -23 40 -31 25 -30 24 -44 -48 3 -66 35 -4 -13 23 29 -34 10 -3 -3 52 -13 -45 2 -16 39 -10 13 -30 -26 -6 -9 -24 -53 61 -35 -33 -31 33 32 11 -50 31 -55 -40 -25 56 48 -16 8 -10 22 -15 13 -42 -54 47 -59 -18 -12 40 -27 26 -1 37 25 -30 -23 0 -8 -56 38 10 48 48 -23 24 48 42 -10 16 7 28 10 -44 -67 45 65 11 44 -19 20 32 33 8 11 -21 55 -42 59 -11 -3 6 -5 -49 3 19 12 -12 -6 22 -52 -47 -33 -57 48 64 -54 -31 41 -41 1 56 47 -15 -8 -11 43 -38 -42 32 62 -46 54 32 -17 54 23 60 43 -46 -73 -44 42 -12 -24 -61 -66 -58 -2 44 -8 -54 9 -67 -65 -60 52 25 -44 -54 -16 28 16 5 41 -34 -19 -30 -48 -40 -63 51 -18 37 -29 48 33 32 -53 51 47 10 -24 5 -47 -10 10 45 47 53 36 62 58 14 -5 11 22 -51 -11 -2 -46 31 41 34 -16 3 24 -15 17 35 -52 13 -56 -63 -42 8 48 64 -30 -26 -30 -18 4 -11 35 54 34 -21 49 -34 39 -33 -24 -58 60 57 -51 46 -66 -4 26 -35 -32
19 6 -17 0 -18 -6 -16 25 -30 -10 41 -12 60 -34 39 -47 -22 -32 -67 -46 7 25 10 -9 52 -12 40 -43 -38 43 24 13 49 -31 -47 -57 45 -31 -63 42 -51 -63 -17 42 -53 -49 -76 -68 -10 25 13 33 37 38 -6 -48 9 73 -47 -1 9 -75 -22 16 -54 38 -37 -61 16 -11 -58 36 42 26 37 -4 -40 -14 68 -53 46 29 -40 0 64 -14 -9 7 -46 22 47 37 -59 43 -59 -4 -6 -37 55 -36 16 -49 23 47 -32 -58 25 13 25 23 14 2 50 -33 -17 1 28 -32 44 -51 70 -65 49 -40 46 52 26 -40 76 -45 40 -48 -31 -14 48 -11 -43 -12 -52 -39 10 -21 -49 -43 -33 10 -25 3 -41 5 -45 16 -34 4 -63 -46 1 -63 41 -57 -34 -39 -54 -8 9 -16 28 -21 -38 -60 34 -38 18 23 -20 34 -62 27 -17 3 56 -46 4 -27 -49 -3 -17 28 -56 -61 -15 11 10 -13 56 -20 64 39 2 -20 59 -51 41 29 -51 -30 44 -16 -59 -36 -20 22 29 -48 59 -45 49 51 38 -11 -53 32 32 -54 37 21 -48 -24 -66 22 49 -4 40 -59 5 5 36 46 26 -1 49 -38 24 21 -47 1 -59 -8 15 20 46 -28 -21 -59 39 17
-4 43 -18 -2 2 13 60 -39 -55 -47 39 -34 -12 -33 -33 -57 -73 4 -11 61 13 39 12 2 13 33 9 20 -11 11 22 40 48 0 -36 -53 -37 62 75 9 30 -12 -48 -58 20 50 4 57 -51 -8 -37 -26 16 -23 -45 48 -25 -48 -2 -44 -14 -49 -37 -57 38 10 48 -45 -12 -21 22 33 3 3 14 -13 -57 6 6 -50 -59 -58 -12 27 -3 -38 55 -21 -50 -57 -63 -14 -47 68 -11 -2 -39 -56 41 2 20 64 55 -56 52 22 50 29 -33 -17 -54 1 -23 32 -25 -23 -22 -4 -45 -48 -27 -4 15 -52 6 -15 -1 -15 13 13 -50 45 61 -55 -11 -16 35 -31 -13 11 32 -20 -7 0 -14 29 -37 -41 -70 51 -8 -13 -47 14 31 -57 -3 53 -43 0 3 -46 62 32 43 68 26 38 -5 9 60 33 -36 -13 18 34 -53 45 37 8 37 1 -21 -34 -3 45 60 -38 -37 4 -53 -19 45 50 -54 1 -51 24 63 -1 -55 -2 33 29 -51 -21 -33 70 2 29 -62 9 -41 -17 -31 13 -47 19 -4 31 -19 62 27 10 37 56 -13 28 53 -34 -34 -29 -6 36 -15 -50 62 -25 -36 14 55 -17 29 23 -28 22 -35 -17 12 -12 58 -25 42 -49 -43 50
-9 57 -67 12 5 -57 -38 38 -19 -1 50 23 8 22 -5 26 10 -45 -52 -5 -19 -20 -26 32 42 55 -66 43 -63 -9 10 55 -45 -16 50 20 11 26 2 -2 -24 -43 -36 51 36 55 -2 42 53 -67 26 19 35 21 32 -27 20 -42 -55 -46 -17 41 13 5 18 -69 2 4 -17 7 30 30 55 -14 -35 34 -1 -49 -55 -64 -48 -57 -44 -57 -22 50 17 48 24 -44 -10 -6 12 -26 -55 50 -29 40 13 62 -31 28 -12 11 -63 44 -61 42 -13 34 62 55 49 -63 -74 49 34 33 -56 -56 -8 56 47 24 -31 -23 -12 13 2 27 -2 -18 43 40 48 51 -45 34 -41 -25 -2 -12 15 -54 33 -28 -48 61 17 1 -30 -28 -63 4 -31 -50 25 -21 12 44 49 24 -64 26 -42 -52 39 -15 25 41 -22 -68 -69 -17 -37 3 52 30 -34 -10 21 -65 39 -2 -14 27 24 46 -13 16 -35 -49 58 -49 -50 -54 -56 -8 -53 36 -17 -42 6 11 -53 -64 1 58 -9 -31 6 52 -59 -20 42 -74 48 60 49 9 26 -54 21 22 -26 -55 49 -69 0 39 10 18 -38 -35 50 -64 36 29 -38 30 28 6 -52 -27 -50 -32 -11 9 -3 -44 -23 -20 29 -8 -2 -65
48 6 14 -24 -8 -47 44 -43 13 8 38 15 -68 40 -20 57 -32 -57 -45 -18 60 -31 -24 30 -34 57 -37 -23 0 26 45 38 -3 59 16 50 19 -41 17 38 18 0 -18 15 -7 11 -48 24 16 38 -35 -11 -20 38 55 6 34 12 -3 -16 -29 44 40 41 21 0 -33 -5 -44 -28 9 54 -61 -16 -38 -19 60 -34 -38 38 -75 46 -9 6 44 -26 28 46 -61 35 -22 55 -67 -23 50 57 8 49 -36 12 -63 -27 -17 37 -9 -30 -26 -16 26 64 63 -39 32 73 18 -9 27 -22 45 -1 -80 -36 -38 47 -36 10 30 48 49 -53 -67 -40 -7 -43 30 65 58 10 48 25 -9 28 -27 -48 -62 -6 -17 -28 -48 -40 29 47 31 -46 -7 -21 -8 -34 45 -47 23 -7 44 42 41 -11 23 1 42 -11 -50 -27 -23 -30 40 24 -21 -51 21 61 38 20 41 -25 9 -37 43 47 -54 32 41 64 12 1 -10 -9 21 -26 27 -18 52 -46 51 -45 20 33 8 -42 -16 61 31 -26 38 -25 -26 -48 -22 -67 33 -37 39 55 -54 -28 -28 -10 64 -46 -20 27 -42 2 5 6 -36 28 -42 5 2 11 -28 22 24 -20 15 -48 -12 60 37 -37 -51 40 -24 -7 43 46
-46 -50 -25 -32 1 -12 7 50 -50 33 15 -62 38 18 -35 44 -53 29 -11 24 -16 -11 -37 -13 -42 15 -58 4 -20 -6 36 -44 -44 15 53 -48 -37 50 -9 26 9 -51 26 -38 -3 -18 -7 -43 51 48 55 49 -66 -22 -13 13 -4 -20 15 48 -4 -46 2 16 20 -1 -54 -41 -33 45 43 69 54 -14 -27 -59 -55 -21 20 -51 -82 -3 29 -55 57 -19 -58 4 -60 48 69 6 -28 -37 8 -1 0 -35 26 68 -32 -7 10 45 16 -21 7 45 26 47 -9 1 -11 -10 10 -55 -54 53 24 -59 -18 -40 10 -18 52 -29 -17 -50 -15 -68 26 0 -50 19 -9 -18 -5 33 51 -58 7 0 10 63 14 -12 -16 -77 -58 46 37 29 -3 38 15 -3 30 -37 8 -46 49 53 43 62 37 -9 12 54 21 -17 -14 30 -21 -66 -40 -69 -39 -10 0 -7 -45 -56 44 -51 -35 57 -57 0 -30 40 17 57 54 12 -66 40 -24 27 -18 -1 53 -22 -67 -42 20 -31 -21 33 22 -5 -35 -58 -23 55 -51 -25 21 31 41 -51 24 -56 -15 -24 40 -9 19 4 19 18 15 21 7 27 -49 -64 52 18 73 31 -40 -50 52 46 -47 -39 -24 29 -29 -51 -67 4 1 40 27 61
-45 -35 -15 -65 6 30 -36 -62 10 23 48 -25 -72 36 -17 -7 29 -28 -16 44 -58 -40 -17 47 49 -48 -36 36 27 -6 33 -15 34 -64 -38 30 38 -32 -40 27 -71 -56 22 -61 42 18 39 -29 24 36 22 -55 -4 7 -61 -45 -10 13 -63 -13 23 2 28 -9 33 -38 35 -1 -4 -43 49 27 -22 70 -57 -3 37 22 -48 -41 -43 18 -19 -26 44 3 -62 -3 6 -39 29 19 -11 44 37 49 -54 10 -28 55 22 -22 32 -13 -61 5 44 11 54 10 19 14 -28 -14 -44 7 -33 -68 91 -66 -51 -25 26 53 -7 22 -13 54 -1 2 2 -23 42 49 -51 -33 -4 6 -19 9 38 -5 26 -36 54 -41 -43 65 -6 -13 48 60 -51 -47 8 53 38 -21 -10 8 -26 19 -25 -62 -12 6 -2 35 -3 19 49 20 35 -46 -36 -15 19 29 -70 45 -52 22 -58 4 -24 26 11 -34 -27 46 -6 62 -4 71 -64 -43 -47 2 -29 -24 30 46 -17 -53 -48 -5 -47 -46 -30 -14 -12 3 22 3 -56 -69 43 2 -7 5 33 0 -31 5 -22 37 -35 26 23 25 -18 69 -61 16 58 -66 40 3 46 63 -3 56 -26 -35 36 29 -8 -5 -46 3 4 6 50 5 -23 -2
20 -40 20 -10 -42 -65 -18 10 -62 -52 17 -5 -55 -20 -35 41 -7 4 40 -41 -24 -12 45 28 -17 -63 46 -31 49 -43 -3 3 42 -40 30 -27 -1 31 -37 -28 11 34 45 40 21 -46 -30 47 50 44 20 33 -4 -64 -62 -35 6 64 26 -32 -41 -13 -31 -48 30 21 25 -57 -66 -11 44 59 30 34 -19 64 -36 42 66 56 57 -32 -67 40 -41 -1 -22 50 2 51 -63 62 36 -48 -1 -34 44 22 -55 -42 41 27 -49 0 -11 36 -34 53 -54 -1 10 14 -35 -4 55 -62 13 35 47 -31 -64 -54 24 54 -54 -51 -52 61 38 -24 -7 19 0 -57 55 -4 -27 -63 -51 -44 -44 33 28 63 -15 57 19 -14 -57 -44 36 39 41 -25 -44 -53 -76 -35 -14 40 -30 -2 48 54 -33 -4 -44 23 57 -55 -39 -67 13 21 -57 36 -7 53 -28 -13 38 -8 11 23 24 -17 47 -31 -69 12 56 -19 -17 -62 12 25 -27 -4 -10 30 36 -12 -45 4 -8 24 7 36 6 62 7 20 42 -26 5 -52 54 -31 1 -55 41 -61 34 -40 52 5 -48 29 35 -39 0 53 -36 -3 -28 -29 25 49 -4 49 55 3 -42 -59 -13 -28 -51 58 68 52 -2 26 46 36 9 -19
-49 -49 31 2 -28 -65 40 -1 44 24 30 9 27 -49 16 -25 -3 -12 35 6 9 -54 -12 -50 -13 22 -39 42 -37 -63 45 45 38 50 -23 52 38 -66 -86 60 12 -47 62 -37 31 35 -22 -44 43 3 55 -73 -37 41 -25 -73 62 -8 7 44 -13 -60 -7 -38 -17 19 -57 48 27 46 -15 -31 51 20 -29 11 -29 5 59 12 -4 -40 27 33 19 66 -36 -1 -24 -42 43 29 36 -5 56 20 -40 -60 -1 64 -50 18 17 18 15 38 24 -64 -28 -54 -9 40 -55 -39 -61 50 -8 6 3 7 -38 30 45 46 0 -12 18 45 -30 40 -40 41 34 53 6 16 -33 -23 -30 -34 9 2 46 -43 -70 56 -30 -64 39 50 70 4 16 38 44 35 13 -58 -45 55 -41 -49 -38 -29 16 53 -56 -47 -50 -71 6 -11 -6 -56 30 46 55 53 -11 -26 16 -2 14 -16 -12 -31 10 45 -8 -84 -41 12 -7 -25 -67 -1 32 42 57 74 -52 -54 -50 26 45 -16 19 -50 -23 15 8 22 -27 -49 35 -65 -53 -13 -46 -10 -8 37 -52 -60 53 45 -22 -60 48 13 34 -61 14 -11 -49 49 -12 -9 -56 46 -72 14 25 21 -1 3 -52 19 -71 -40 -33 50 -70 -53 -39 -63
27 -29 -76 11 42 -56 19 57 37 -20 -14 -51 17 -6 44 51 -67 -51 15 8 8 -1 45 -51 32 45 42 39 -43 -31 19 -18 -38 -24 26 -54 -61 35 42 -4 -68 -21 -53 -11 -29 30 17 -58 7 12 -63 24 2 -10 6 -45 -25 11 -48 -32 -8 25 -9 34 19 -5 -45 33 35 -45 -34 27 -53 -20 -5 31 -29 28 -14 46 -51 11 30 5 -22 42 19 37 -50 8 -9 54 15 -18 -9 -6 51 -62 -26 -1 20 39 -52 -30 44 -63 -22 42 -24 33 -22 -6 1 1 -42 -30 -8 -62 28 -24 -20 -12 7 5 22 -47 -9 49 7 5 -8 -18 7 46 41 -32 43 -66 0 41 -40 -24 -14 3 -62 -17 45 34 -50 -42 56 2 45 -35 -74 -7 -64 -46 -60 -46 48 32 47 15 -7 28 -36 -67 32 43 -28 -19 -11 31 22 31 -14 -40 -35 8 -4 -47 -47 -35 55 -68 -14 4 -20 -50 34 -23 34 10 -50 34 -43 50 -27 -11 -8 -59 48 37 56 -37 38 62 -45 -31 -51 -46 44 -66 53 -35 51 52 -10 16 -65 -18 -57 49 47 -62 -44 42 -29 -42 30 1 -23 19 53 39 59 5 -35 15 -59 51 -33 12 -54 4 31 6 -59 -59 47 -25 -50 -56 -62 21
11 -8 22 -55 -51 -13 -55 10 -31 70 14 -49 -42 52 -26 -29 18 47 -13 -50 -3 -52 32 -58 54 17 2 -18 -2 -27 -14 -40 46 -27 7 -27 -25 -14 -39 -43 28 -12 18 -44 -49 27 14 51 -24 56 -60 44 -30 14 -10 -54 23 46 -19 -19 -18 -61 40 38 31 9 -13 47 -46 -3 53 -20 6 24 -41 -20 -25 3 -13 18 -40 0 26 -24 41 -57 -60 44 13 3 -11 -32 51 64 -59 -28 3 -59 5 58 -7 44 4 -49 -35 -28 29 -5 -20 -40 -46 12 -26 -49 -52 -29 -6 -22 38 -6 32 57 -67 42 15 -44 -23 26 57 -22 -60 -70 60 -43 -22 -27 -1 -32 31 26 -30 56 14 33 -59 40 -54 -51 -41 40 14 34 -58 18 -43 32 -24 1 48 36 0 -63 -54 44 0 -21 -61 36 7 -60 55 -16 15 4 3 -42 63 11 6 -29 36 8 37 52 31 -36 11 38 -24 54 -43 -57 -17 48 25 -36 -1 -57 38 -62 49 -32 36 -59 -51 25 10 -10 -53 42 39 -62 48 19 -17 -43 29 -25 58 68 -18 -69 -10 26 -55 46 -52 20 -18 -32 -26 -2 -62 -50 8 65 22 43 32 -55 39 4 -36 4 24 -47 6 -9 24 20 -55 40 57 -63 52 -47
-40 -25 17 44 -27 39 41 -27 48 -37 -57 -59 -61 29 -32 -24 -25 47 -47 -18 -23 -55 12 -19 10 -8 -24 54 -1 -29 8 14 -23 -27 -58 52 10 8 -13 -56 -19 -52 7 0 -36 3 40 -10 17 27 8 35 37 -36 25 27 6 -47 -23 -24 -38 32 57 61 -4 51 -5 -21 -17 56 46 26 59 31 13 -62 -10 9 -60 60 34 1 58 49 -11 8 -42 -6 -5 -45 -40 -41 -46 -12 -22 -40 32 37 -26 -49 -46 -10 -56 -35 -10 32 -54 46 -49 4 -47 -39 61 48 -9 14 40 -49 -49 62 5 -26 5 -36 -32 30 2 -53 -36 53 -3 15 -10 6 -10 12 53 3 47 5 25 -32 49 -42 -58 43 -17 26 50 42 49 -37 8 -35 -13 -17 -22 -50 3 -27 -55 17 -51 57 37 -26 53 20 -18 62 60 42 -28 -29 -23 51 -2 21 51 -61 60 -18 11 42 19 -41 -62 -56 4 -28 -32 -2 17 15 -4 47 -28 -35 -5 15 31 47 -8 1 37 -62 31 -53 -7 0 -21 -36 29 39 25 -46 -38 -7 51 -28 43 20 48 -33 44 -30 21 -62 23 -21 -17 -56 -46 32 12 0 -46 35 -42 21 -62 -55 22 52 62 29 24 -7 -49 7 -52 3 -32 15 41 -23
49 5 38 -60 -25 54 58 -10 21 32 -21 -45 28 -31 -27 -18 -59 28 57 58 11 30 -20 16 -22 -38 50 42 52 -66 38 14 -30 42 41 -57 19 -63 36 27 28 -48 -17 27 -17 8 61 -66 -41 -64 -2 30 5 35 -50 -65 15 -19 -21 -55 -6 52 -43 49 16 48 -44 -35 -10 -19 2 44 14 1 30 -53 6 12 1 43 -19 1 -30 25 -14 -47 -1 30 39 0 -24 24 21 74 -12 17 -60 -31 9 2 -55 -23 -10 31 24 -57 -47 -6 36 7 0 -38 -52 -24 47 -8 2 -42 7 -4 -49 -20 -21 42 24 2 7 -31 -30 48 29 25 54 -52 62 48 0 -56 -30 -71 46 64 -8 -12 43 33 65 19 -40 -62 22 -49 -39 34 50 6 -64 -41 27 37 -31 22 -4 34 -20 3 63 31 -39 24 -49 32 -47 -11 21 -57 47 15 3 -27 -47 -67 61 -7 -20 -21 46 -16 -60 12 -34 -18 -36 -30 -8 45 8 -41 -15 58 -6 5 26 55 32 -49 -46 -42 62 -29 36 -51 9 4 7 -8 -49 44 -19 66 -54 17 -15 29 41 -37 -28 32 26 -62 -63 -19 -37 -42 -42 70 62 29 44 18 -44 -45 22 46 30 -13 16 -7 65 -29 -12 49 53 -12 -49 -51
-55 -39 19 -4 25 -34 45 -15 35 -17 15 8 -22 37 -31 -10 -48 -5 39 38 43 -50 -8 16 19 38 32 -69 5 60 1 -43 54 -54 9 47 42 -44 -12 -16 53 -66 62 -11 -32 -46 -27 44 -59 -56 -6 57 49 51 -30 21 59 38 39 -24 -61 35 -34 32 5 -71 -64 25 40 -2 -31 -29 46 -5 -53 2 32 4 6 -32 -21 -50 36 -48 34 16 56 -18 23 28 20 36 41 59 -38 28 -44 42 -7 12 30 -22 -11 -49 26 42 30 -56 -48 -32 -10 34 -3 -5 -61 -37 -10 -38 27 45 26 63 -29 -13 -50 -38 43 9 -42 23 11 26 -58 3 -13 -9 54 18 55 15 26 18 14 -21 -6 -7 56 54 40 -4 -2 -15 14 23 -1 -64 -74 5 -41 43 23 16 -17 12 -42 22 33 10 -50 -46 -34 39 53 -4 50 17 32 -47 -56 -2 -6 14 -16 -40 36 -6 -11 24 0 -45 13 -43 -16 -66 6 -60 -9 53 22 -17 15 -12 49 16 -4 -44 -43 6 16 -37 -19 -9 54 -26 49 -39 -14 34 -23 47 -15 36 24 -43 -43 -4 -10 -50 11 19 -1 -10 -19 -57 -46 50 45 68 -55 -5 -30 -54 54 56 25 36 -37 -59 -80 12 -32 50 -31 -38 52 7
-6 -27 25 -41 50 -1 7 -32 -52 -34 12 -54 54 26 25 -38 56 -22 -42 38 -51 21 5 43 -42 8 1 16 -36 -63 -62 -36 26 11 -8 57 51 -55 6 -18 -43 -58 -13 -10 -29 -45 23 33 31 48 -42 32 -63 -12 -32 29 -60 -2 22 3 -53 46 50 -45 20 58 -31 54 -24 -37 44 -5 -1 -39 34 -27 27 58 -20 -19 -39 5 34 18 -51 3 42 63 -35 -28 -8 58 -27 14 -1 -58 -22 -52 61 -42 -21 15 7 -23 -19 -56 -22 -58 -9 -14 -36 -53 49 33 15 34 -4 -8 56 -45 -41 -29 9 3 -56 56 -58 3 -39 -31 57 -12 42 40 47 64 1 50 -53 -39 -63 0 50 -11 23 -37 41 30 -19 -31 9 -39 -10 -58 -47 35 73 19 46 5 47 -35 -19 3 50 -39 18 4 39 -41 -71 -20 -12 -17 37 60 -46 -31 -20 11 -20 53 60 9 28 40 15 29 32 29 -66 -41 -24 -3 2 -41 -15 40 47 61 -50 20 -42 49 27 54 61 1 -67 62 -61 5 -56 -4 53 39 30 -8 -38 35 -55 14 -10 17 -50 -27 32 -41 -13 27 33 -8 -66 -26 56 -41 -13 46 2 6 -31 62 29 6 19 -1 66 -6 -1 50 -33 -12 -55 20 -25 69
19 -42 -18 21 -40 -4 -36 10 -69 -41 -73 25 5 3 -23 33 17 11 21 22 4 -44 -26 24 27 0 -47 -46 25 60 -49 36 -16 36 25 -64 16 -53 23 -13 -29 -46 14 -73 20 48 10 44 -28 -7 -25 -24 -26 -24 34 -29 43 35 -32 -58 -22 0 21 -19 3 -19 54 -72 3 -63 -9 -21 39 21 -17 61 6 -25 -45 1 46 8 13 -35 -50 38 5 39 -33 -19 46 -23 15 27 43 -14 25 -50 -47 44 -54 11 20 8 7 -50 -62 -65 -65 -58 -6 -40 -26 -16 -53 45 -34 -44 -7 27 -55 7 22 18 23 36 -17 52 -5 10 -19 55 -9 9 -9 -27 -8 10 -29 41 -18 -43 -19 -34 -47 -69 3 56 -32 -41 38 23 -4 39 45 -52 -60 -2 -63 36 -77 -26 -63 -16 25 -44 12 -70 34 -42 40 -39 -7 -9 37 -64 -21 18 -42 -21 57 27 -11 -7 48 -11 -45 -69 -35 38 -43 -30 24 -59 26 -56 -28 54 40 11 -20 -37 37 -9 21 -16 46 60 -56 13 10 -48 35 -71 -52 -9 -61 43 -65 31 -6 20 47 -51 -10 8 4 -21 -80 58 -63 -62 -22 -60 -69 -4 46 39 30 -8 43 19 -67 -49 1 -63 26 -55 90 -11 15 34 26 -55 0 -36
2 -40 -8 -48 25 32 -23 -34 81 -28 -22 51 -9 52 35 -25 27 -63 -62 45 -39 13 53 41 29 -63 -38 -69 29 -48 -36 -59 -13 -29 -45 -31 -76 -42 16 32 43 7 -3 -37 13 17 -36 -37 16 -59 -33 41 36 20 27 43 -16 -10 -23 -36 -53 -70 -7 23 37 51 -70 -36 -58 -24 8 63 -13 18 31 -6 55 -24 -53 -37 11 -7 -62 33 52 -27 8 40 -17 -30 18 78 -19 -1 -51 13 34 -49 -32 -50 47 -52 -5 -13 13 -54 -45 -34 -36 -35 39 -45 -43 24 -36 -14 39 53 -68 53 44 56 79 46 -72 -18 51 50 94 5 60 18 -16 49 64 61 -17 56 -14 -38 -78 -45 -23 -36 -60 -21 -35 -28 33 15 -48 56 -20 -13 72 -72 36 -20 -69 23 -95 22 -36 19 -29 8 -26 -54 -70 -73 -60 -1 -60 48 -33 37 -74 68 -58 43 51 33 -58 10 -39 -61 -55 50 -65 29 53 -77 -15 36 56 17 38 8 36 6 20 -8 11 27 -9 -2 19 -54 -32 34 -11 22 26 -28 34 -19 -5 46 -57 -59 -8 50 -34 -41 -54 73 58 -28 -29 -10 -60 39 -6 50 0 -8 56 -59 -6 -49 -46 -54 -58 9 57 0 47 -58 -4 28 17 -38 1 18 37 -34
48 15 31 -9 12 -20 -19 -40 60 32 55 4 -12 -23 47 -14 30 -47 11 -32 -56 -41 -50 31 -27 -40 26 -20 -58 34 -30 49 28 -38 23 28 11 -59 19 -49 10 -50 -32 53 -11 -33 12 -58 -30 36 57 46 -46 -12 53 -4 -41 -18 -12 -48 -42 33 47 18 -6 25 30 0 -31 -34 8 -23 42 -53 -61 55 26 -19 8 41 31 27 47 24 -67 -36 -59 -38 68 29 -6 43 -51 -19 37 -38 44 -47 -6 -40 37 -42 -2 32 -12 35 43 65 33 -49 -40 29 -1 32 6 -33 60 28 17 -2 25 -36 3 45 23 32 44 -2 56 -55 58 -16 -15 -45 -22 70 41 -9 19 8 5 42 66 -33 -55 2 51 49 47 -24 14 -19 34 27 40 15 29 22 60 26 -42 -35 39 -18 48 50 -36 -18 -58 22 -43 23 27 -62 -60 11 31 -55 2 25 20 38 -31 -11 -55 -36 17 61 -63 34 43 -39 -2 -9 11 33 -47 22 31 -20 -35 46 37 42 -31 -40 18 45 -49 59 -23 -21 -25 -25 -6 -37 18 56 -66 -42 57 5 -55 -54 -36 63 26 -13 26 -32 3 -68 -18 19 -46 44 -63 30 14 45 -57 -48 -53 -56 -11 57 -19 -42 13 11 45 8 -41 55 22 -42
12 -7 -64 -38 -48 24 -61 -60 19 -61 -72 62 23 -21 -34 21 -45 -35 -30 41 -31 -12 -44 52 12 -60 -29 9 51 -29 27 43 -24 34 -42 44 -25 13 -66 -6 39 -24 42 -7 -45 -49 38 -12 9 12 -4 -28 -59 38 -3 14 -80 52 -70 -8 47 -32 20 32 24 -85 23 64 -54 38 -19 -59 30 -68 -32 44 16 5 -28 -10 54 23 -33 7 -43 39 -67 -72 -29 -45 33 -28 -10 0 23 -59 -20 37 34 17 -73 16 -20 -43 -38 -21 -62 36 8 -44 34 15 33 1 36 -27 -9 -64 -16 -59 -26 30 -35 -58 66 -69 -45 18 -35 -33 40 8 65 15 33 2 22 -36 -57 -37 48 -27 10 14 41 20 -36 -53 -64 -12 69 -58 -20 -4 -64 -31 -23 59 29 5 -3 27 52 1 -62 45 33 -24 33 -29 -52 84 9 -63 -69 43 -62 -14 -4 -33 34 -45 44 -68 1 -5 25 -16 -8 -54 54 18 -33 -42 69 50 19 30 -42 -2 -40 -20 -1 -24 18 -32 -2 42 38 -37 33 -49 41 -43 -20 11 11 37 -52 -24 -9 -16 55 -28 -62 20 -31 35 -40 31 23 -10 36 11 21 20 -42 34 11 56 41 -59 19 35 -38 17 53 -31 -23 -42 -18 -64 36 32 -41 14
-22 4 -8 -47 -21 -25 34 2 38 31 34 13 -1 -24 -25 36 -13 7 53 5 -51 59 20 -51 -56 -54 43 7 -54 -38 -26 42 -25 19 20 18 32 20 -30 -25 -45 44 30 -80 -21 -39 -18 -6 -17 1 34 -45 52 -42 -4 -51 -45 81 -35 -7 61 3 -35 -24 36 9 -29 22 -58 6 35 33 74 48 -60 -59 47 -68 40 -36 53 -31 14 -38 -66 2 -21 27 -47 51 -22 -61 29 -31 -33 -6 -8 -43 -59 17 -2 15 44 32 10 35 53 -55 -69 -42 -43 47 -8 71 -7 35 61 30 26 5 43 -53 25 -74 34 6 28 4 15 -66 10 -28 21 -4 21 -8 -50 -32 0 16 -1 -40 -29 -84 -57 -2 43 55 44 13 4 -8 -24 -30 5 -10 16 25 -15 -24 -26 54 55 55 45 -12 22 53 -31 -35 0 30 -8 -13 -9 4 56 -4 -55 -28 -54 -6 31 -2 68 -67 -34 -34 2 -49 -32 6 -7 -46 -22 -37 41 74 32 -57 48 17 56 55 -19 -55 59 34 -19 -3 -64 -62 -38 -18 63 16 -18 -26 53 -63 40 -46 22 -41 -42 21 -3 -72 -2 -23 -13 -48 17 -42 4 2 -62 -51 37 51 24 -22 46 -67 -86 57 -49 23 30 9 -29 -46 67 -25 37 -36
20 36 -26 35 -34 -57 4 43 -45 -50 -52 -6 -32 43 -22 60 -64 62 56 -60 43 11 39 -27 41 -12 48 -72 -52 -41 13 6 -50 -56 25 8 -20 0 18 41 47 6 21 -68 17 41 -49 39 -37 31 -32 30 29 8 -11 -24 10 -38 -7 2 -4 -17 -29 -38 -30 1 23 -26 -38 21 16 -34 -61 56 42 -16 -1 27 -38 18 59 22 -39 -46 -14 -13 37 2 26 56 28 -31 -28 38 24 -38 -53 -39 50 49 3 42 -6 54 50 -40 34 36 53 6 -19 -43 -63 -25 -4 9 -22 -46 -12 -21 55 -52 62 55 -68 -38 60 33 1 45 26 -12 29 47 7 -37 13 -54 -31 30 -23 43 -56 29 -47 1 -32 -52 44 43 9 2 28 11 -54 -26 32 45 27 -33 31 -52 36 -51 37 -11 45 -55 -57 58 18 -18 16 -2 -46 18 7 72 4 33 -42 -59 -1 35 -16 -40 -28 1 17 62 57 43 61 41 44 -23 -47 32 61 -43 -14 -58 -53 6 -43 -34 19 -43 46 -8 -15 32 16 -52 -56 -18 -61 19 44 8 -46 -50 -6 -29 36 53 44 -69 -44 -52 16 -18 -16 -4 -35 63 45 13 -7 6 -6 31 -54 19 -62 53 -55 5 -44 65 52 3 5 15 16 52
-22 -53 71 -50 -23 -55 -30 -20 -15 22 1 -48 -27 5 -21 1 -25 -40 53 7 27 40 9 52 63 52 -17 -5 64 3 31 2 7 3 -32 -8 -52 11 -33 -51 -2 27 -37 24 21 10 -15 5 -55 -22 -62 -8 22 -31 -49 -35 -59 22 15 24 -13 -67 -36 -44 47 0 -60 28 33 -43 -1 73 31 11 -46 67 32 25 75 24 -36 -48 -37 36 -57 -9 -38 -63 -48 -2 -85 -28 21 35 16 -36 -2 -8 -61 -10 -57 33 15 -22 31 3 -46 49 -21 50 32 -50 -24 31 50 -8 22 -51 0 28 48 -44 -45 5 -37 16 45 -60 20 34 -40 32 52 -12 29 3 -15 41 51 -35 -24 27 38 4 62 7 -52 38 -22 11 22 -39 -52 56 40 40 23 -60 12 42 22 35 -27 -41 27 -12 -30 25 -68 65 34 10 -17 -14 52 20 32 -57 29 -54 -54 -41 -55 22 -41 -11 -51 -17 -35 6 -42 -33 -8 -17 -51 56 30 -24 -37 -26 16 -36 37 47 54 -33 43 35 20 34 -30 23 7 -19 13 5 -9 -75 -27 -57 -1 53 68 -20 -45 -1 -6 -43 -62 2 34 -70 7 12 24 14 -27 59 -10 -43 40 -10 -53 37 -23 5 -25 26 61 35 16 -37 -6 -61 -8 -51
32 7 -29 27 -46 -19 -15 20 41 -11 -33 -26 52 42 32 4 -68 -4 -59 -54 1 58 36 53 24 -25 39 -38 -61 -67 -56 12 -1 3 37 7 -67 -9 -22 -18 65 57 35 -30 32 -11 46 -51 -3 -34 42 38 -3 -50 46 52 -38 -25 17 -42 17 45 -49 39 -32 -36 -14 35 25 28 71 -42 63 23 51 -30 17 -52 33 -39 36 18 -52 40 -35 -37 21 -56 63 -49 46 34 58 58 2 33 33 -39 27 48 -56 23 -39 -34 -7 11 -35 32 -47 -5 20 47 -35 -30 37 -41 -48 -46 -41 35 33 15 -34 -55 -12 37 -8 14 -63 18 42 52 33 -24 85 -12 40 -19 56 -29 2 45 68 -32 -1 49 53 5 14 -69 -47 -30 -34 -67 1 -47 19 -7 -25 -32 47 -62 45 23 49 -42 26 -7 -15 17 -24 18 0 56 -6 -42 42 -2 -71 16 -18 -36 65 25 -23 -1 -16 -53 41 40 -25 0 -39 -13 -3 14 39 11 49 -49 37 39 32 -59 -51 -48 -47 24 -39 56 41 -30 37 -14 12 -43 0 50 -52 13 15 -63 -14 5 26 65 -45 50 32 -1 42 -34 41 -43 -51 17 -2 -21 -25 32 -18 -4 38 -4 -65 47 53 32 18 64 -48 -44 0 62 10 63
-18 64 25 -37 -8 -33 40 -6 -70 -33 31 -18 58 6 -31 103 -13 -20 29 -45 -56 -31 -46 62 -21 22 6 41 -11 -62 30 33 54 -7 -39 -20 -9 -55 -41 -30 -17 -53 -8 -56 -42 24 -64 23 24 42 38 -38 -15 27 10 -18 -47 -28 -40 22 -70 9 -10 27 -28 45 44 23 -11 -21 -29 30 -57 18 50 -53 -58 -50 63 -1 -64 11 -25 -60 -1 45 45 -28 -2 27 60 45 -47 -20 -46 -7 -55 -56 9 58 34 58 -48 -70 -12 -4 24 -63 -7 -27 -50 53 65 23 -31 -7 23 -38 -59 -61 11 54 -61 8 89 -15 16 45 46 -8 -5 96 -21 -40 10 64 19 -55 55 15 28 19 37 -45 -7 -53 48 -16 -38 11 27 -62 -53 -38 -5 1 -13 -33 -40 -70 41 -27 2 30 44 -54 -13 52 25 61 -49 -27 32 -63 48 -1 -38 -33 -80 12 45 -66 19 -18 -49 -45 21 35 -15 32 4 88 35 -34 52 -58 -75 11 13 -30 50 55 -36 34 25 1 -72 -30 15 -6 -87 -52 -48 14 17 -73 44 -4 -11 -7 9 -73 55 -33 -14 -59 -68 -14 -41 28 -68 3 -6 -30 21 18 45 -61 -34 44 15 9 12 -19 24 10 47 -32 77 -33 -49 -17 -45 -1 35 -11
-24 -1 6 11 -43 -22 -19 50 9 -6 52 50 -8 37 -55 55 40 16 -23 15 61 40 -21 -16 -52 33 42 25 12 18 -38 4 -33 42 -3 2 -9 24 12 -27 22 31 5 29 21 -52 -10 -69 -55 56 -27 -24 -49 -36 -11 -13 -27 44 -9 -56 25 37 9 -25 51 34 -1 33 30 52 -40 0 -49 12 -56 34 -19 -12 70 -42 -59 -16 61 -14 8 63 18 -27 -39 26 -17 19 -66 -53 33 -57 -60 -2 -44 -22 -2 58 51 -37 50 26 -21 4 -43 11 36 46 20 37 -54 39 -54 -47 -49 -45 -18 15 -18 -38 -37 -23 15 -16 -16 -36 -69 23 35 -57 4 -17 37 -61 33 -34 38 40 61 2 15 43 -65 15 -13 -3 14 15 -26 32 -16 -14 -62 40 -7 -47 46 -61 42 -24 -35 46 39 12 47 14 -8 57 11 50 -64 29 45 10 -39 11 6 11 8 -9 -22 -18 33 45 -23 -10 13 -60 -35 -9 14 -60 -8 -36 -58 49 6 9 48 18 -39 31 19 -54 57 -11 -26 63 -65 27 -22 -32 -30 29 -12 -44 31 59 -2 -11 -47 -43 29 23 58 -56 61 6 -59 55 2 33 16 18 -11 -31 60 -9 -31 20 26 -48 42 -42 -7 12 49 -22 -41 -8 -68 12
3 50 15 34 8 32 -28 -12 48 60 22 4 45 63 -30 -1 2 -42 -60 -14 7 -51 -33 -54 29 28 59 -46 0 -49 41 54 33 31 59 13 13 -61 66 16 55 50 -45 -6 49 7 18 -41 -37 -12 -36 -55 22 20 -12 13 32 60 31 -57 -17 71 -64 2 -36 52 31 -11 -19 -47 -22 -13 -28 -1 18 -50 41 -27 45 -55 -32 -26 34 38 -14 32 -22 11 4 41 -16 75 -18 -62 49 43 18 -47 -8 -12 25 -14 39 -47 33 39 -56 -27 57 -20 -14 -8 27 -41 -22 -64 60 54 -33 -60 66 -52 -10 24 -30 55 66 33 -47 70 -16 -50 0 1 51 2 -54 40 19 -62 70 2 68 -41 -9 -22 -24 25 -45 33 40 -26 -57 -67 -33 -45 -29 -64 -44 57 -3 -23 60 -2 31 1 0 -45 -55 6 -10 45 -9 49 49 29 22 52 -42 46 22 19 68 -35 -15 -15 33 -18 -20 14 -16 29 56 50 16 -1 -6 -5 5 -26 -54 -47 -20 -50 -60 67 68 -9 15 50 -35 -27 -18 40 -43 -46 -62 -37 -1 -3 -48 -22 -43 45 16 64 53 35 -41 1 -28 50 -40 31 41 52 24 -34 60 -17 54 -44 49 -2 29 57 -51 -4 -37 62 -22 2 52 36 11 65
-3 -82 52 4 -56 45 -16 19 85 -33 38 24 49 5 -54 40 -5 -53 -25 -15 44 -55 -48 -69 -33 -29 46 -29 -49 -48 -22 50 -57 26 -36 -60 8 30 45 55 -40 -21 49 -100 52 53 52 -7 -28 -8 -4 44 16 29 -45 29 -21 -24 45 -35 40 -63 49 46 -71 -62 45 -18 -51 34 -47 94 -18 -65 -37 -61 21 17 20 -10 -35 -51 59 45 -36 -37 -31 18 47 -68 -23 71 -30 -10 -10 31 -3 50 62 -7 -65 50 24 -44 -28 -65 54 -49 57 11 31 31 21 -17 -36 56 -50 -17 -20 26 9 -30 5 -31 10 39 -69 79 38 25 43 -60 -14 38 -38 16 -64 38 -28 44 -58 -35 47 -40 15 11 -7 25 36 -53 -60 -62 -10 1 90 54 -37 -49 49 -72 -43 -51 27 26 -6 -35 76 -79 -45 53 54 38 43 -2 -56 -39 1 65 -32 -28 47 38 9 37 41 -1 -24 -8 8 -66 -38 -89 51 -65 13 29 -23 -79 8 57 17 -2 11 1 -38 -48 -32 12 23 63 -28 -1 40 2 20 -32 35 8 31 19 24 -24 38 -34 -3 -4 61 3 11 -42 21 -19 -53 -10 -55 11 6 -16 -7 3 -11 38 -16 23 20 -55 31 -26 8 19 -24 -19 -34 15 41 13
-54 4 -28 -63 -4 -70 19 -18 -35 14 19 -22 -49 9 2 63 37 -45 -55 -34 -48 33 0 -12 34 -3 -7 -3 39 35 42 5 51 -28 5 9 43 -42 56 -32 -61 -43 35 46 60 13 51 5 42 -53 -31 -34 -53 -62 -9 -41 -56 53 66 -41 13 -28 -47 -26 -54 -33 12 1 20 -46 -3 44 28 -1 14 -15 -55 -47 -49 43 21 60 16 -41 -51 -14 49 32 -3 -37 4 -1 27 28 -57 -30 42 -66 -34 58 -62 -58 -6 36 -66 -50 -49 32 1 -37 12 -65 45 76 -50 -2 73 29 -17 -43 -37 55 12 7 11 -27 4 12 38 -11 -29 2 -40 -25 -7 77 -21 -34 22 -1 21 16 -6 26 13 -17 -52 -34 -18 -3 -66 -56 -11 -46 60 59 76 -56 -28 6 58 -57 51 38 46 12 -40 -60 -16 40 -40 9 -7 -42 11 57 55 -38 -68 61 -27 -37 10 -28 52 9 -54 -27 -24 -56 58 18 -63 47 -46 51 42 78 -29 67 -30 6 -23 45 -5 1 -10 -54 3 -24 -3 21 -72 18 45 17 -62 3 6 -40 -35 21 -21 -31 -47 44 -36 -45 -21 -57 -56 73 17 -57 -39 -28 -33 -60 57 43 79 65 -61 -19 -33 17 -25 -67 66 18 45 45 -59 -13 37 -42
-34 -14 47 56 30 7 -51 3 79 11 -22 28 26 -103 -28 -76 38 -9 25 -52 10 -49 34 1 21 44 -23 -4 8 -60 -41 43 -38 -57 -30 -18 -67 54 -31 41 -53 23 52 54 -32 -27 -26 -19 53 53 -59 21 32 33 -2 -39 3 -8 91 -26 38 -46 38 57 -7 32 2 5 -60 -53 11 53 1 -29 -6 -43 27 65 30 -28 60 10 -48 -52 35 -23 -15 12 14 21 30 -15 14 -38 57 15 2 26 -64 15 -58 33 -57 11 -1 4 50 59 16 -7 42 50 73 -62 -10 0 -55 -61 -42 -73 17 -34 86 70 -40 0 30 97 69 82 -33 -60 31 91 16 -24 -40 -40 32 -51 -34 -33 8 87 -27 -37 69 -12 -42 10 36 -57 -29 -55 45 -62 16 3 -14 -58 -49 -3 59 -4 39 -56 60 26 20 3 -15 35 -38 -2 -49 1 6 31 -51 23 50 24 13 -19 35 -2 36 26 -56 3 2 -2 -32 14 -9 -21 9 -33 30 100 7 -61 23 -34 38 -19 -18 -30 54 -82 43 1 -14 -70 35 -69 -15 -58 -15 -12 31 61 1 34 -5 22 -53 41 -9 44 10 -30 -60 52 -7 -25 -39 -8 -22 -7 27 -71 -8 20 35 -63 -58 -60 4 53 -17 -54 50 42 -55 -66
-32 -75 -54 -34 -28 55 -35 10 -70 -17 34 -52 -28 -36 -61 -53 -25 33 -39 20 55 46 17 -72 -69 3 -56 -31 30 -19 22 -47 1 -3 -1 -58 -3 43 -58 -30 -49 -15 -38 -61 20 14 -44 -2 6 46 -60 -41 -14 4 -38 36 8 20 23 -40 -54 -17 0 27 -34 -57 -25 55 -28 -50 -15 31 12 -63 61 28 -15 17 -39 56 -48 -24 -32 -33 62 12 31 54 46 -17 41 -20 -10 27 15 -17 43 -28 21 19 -57 43 54 -30 -22 -11 5 52 1 -79 -28 36 -77 -64 35 -19 22 6 46 30 -40 17 -6 -41 -39 -9 -56 14 46 -58 -21 15 6 -55 -49 66 20 -18 42 -47 -65 45 24 24 16 32 11 -40 11 7 33 -15 -21 23 34 -53 3 -29 29 -29 48 43 13 3 10 26 39 7 0 6 -19 -4 -55 -62 20 -49 -59 -14 -65 54 4 2 -59 16 -35 -36 -22 -65 -56 39 39 48 44 46 6 11 -69 25 12 -16 -60 -58 32 31 -43 55 -36 2 -36 -1 -54 57 26 14 -18 15 -42 -14 24 -24 22 38 -14 -23 -56 8 -11 -42 19 -11 48 -13 17 -6 31 3 -48 12 -4 24 -30 -22 10 -26 -26 53 -33 -58 -23 -6 -51 53 -61 -30 52 31
-14 2 -18 17 7 43 11 28 -11 23 -16 10 -28 -26 4 59 -5 -64 -25 -48 43 -8 -8 13 34 48 17 -39 -69 32 -5 -15 3 -31 -47 31 36 59 -23 -61 57 -38 18 49 -58 -44 -7 -23 -55 14 7 -48 23 37 32 -41 -27 -55 24 40 33 -56 -10 -54 -28 34 -6 26 40 -32 32 51 -59 34 46 -7 -37 -4 11 -57 -20 36 -10 -52 -5 53 -28 50 -18 -56 60 49 57 7 45 25 -73 4 -22 -22 46 -66 -39 4 44 -31 -27 31 -12 -5 58 -56 -67 48 -42 14 5 -25 37 -58 -26 -24 -27 -43 -6 10 47 -17 30 9 43 -26 35 -67 -16 57 49 -1 46 -12 6 35 16 51 6 21 -15 46 37 44 15 -65 22 20 -57 34 -10 -33 -56 7 37 -23 -5 0 -26 55 -57 10 -9 -34 -49 -52 15 18 -58 49 11 5 -19 -32 -43 -47 -20 -59 -47 -32 39 -20 -56 -63 14 33 -11 -36 -7 -38 -29 -32 20 -35 37 30 -73 -56 -63 20 -57 -12 14 -1 28 -23 29 -57 -22 -42 -72 -10 47 -9 41 -42 -53 37 -33 -21 -44 54 18 -69 32 22 -43 -39 -42 48 -30 -63 11 -2 -38 -29 -33 -7 26 1 48 17 -7 12 -16 -1 24 42 -60 -17
44 70 -30 -29 -1 41 25 52 -43 -52 -46 -66 -78 -2 54 62 8 -44 -8 -64 -41 47 47 23 33 -68 30 49 -54 37 -63 -2 74 24 -53 -48 -61 31 -12 -10 -47 -11 -52 23 -13 -60 48 -11 -33 -51 7 -27 -31 7 41 -11 -42 22 -20 47 26 27 -36 39 -50 -21 12 1 -79 4 36 -43 -5 -14 41 -27 37 -57 10 -47 -49 46 -38 -74 31 -12 -51 37 -4 16 51 3 23 52 -48 -70 -20 -9 42 9 -9 -33 22 -47 8 9 32 18 13 35 55 29 58 -12 -81 -60 -14 -8 -9 -25 23 -25 -18 -31 -19 -69 -102 3 26 -7 -70 26 66 -12 -55 42 -54 19 21 43 38 71 52 -44 0 10 -65 -2 -57 47 -11 -41 9 42 28 -53 46 -71 31 -37 10 -36 -8 -61 -18 52 -41 13 31 -38 -38 -48 -34 -74 -39 21 49 -35 -60 -30 16 28 -35 24 -76 11 4 66 -24 -53 51 -20 34 72 -60 1 -46 16 44 -31 49 -9 -30 23 21 47 -13 -65 -28 34 -91 -62 -29 -42 -55 -70 -24 -61 -26 37 32 -7 37 -28 -46 31 39 -48 -43 -27 -30 29 -33 33 -11 -23 10 -29 62 31 43 -50 41 -4 -55 -31 64 -44 85 -48 -28 -31 29 59 -59 -52
-28 38 -36 -64 -63 -16 96 28 45 56 -26 35 41 -1 -22 36 50 29 -46 -33 -8 -19 -67 51 -23 -14 5 -75 -22 49 -1 -27 91 14 -36 -59 -1 25 -37 12 41 -18 16 -71 -27 -7 -9 92 -59 -37 -42 11 -43 -15 -56 0 -63 -17 -6 15 -61 41 -12 4 5 9 35 -76 -9 -33 -18 45 43 42 -3 10 53 13 -40 -63 36 43 23 19 22 -23 37 5 18 -29 41 -18 20 -8 20 53 8 -46 -56 -24 -73 -47 -56 -21 -55 46 12 -4 -54 -14 -48 -21 -37 83 -12 10 67 -18 -45 -20 9 20 27 36 48 57 -52 -5 18 -58 39 104 13 44 -47 78 -40 -31 17 64 47 60 -18 -33 21 52 3 -16 15 37 34 12 -58 15 25 -5 61 -38 -26 -67 59 -34 -20 13 51 21 -4 37 -53 -7 -8 -16 26 51 -1 -10 -21 -33 33 -10 -61 -13 40 -12 -36 15 18 20 -67 -4 46 65 -26 -48 -49 -67 -70 -7 5 29 -65 30 -31 6 -31 -49 -2 1 -33 20 -37 -45 34 -62 -23 7 32 27 20 -22 5 -13 52 1 -58 56 -44 42 -2 -33 -23 65 -30 22 -4 -58 6 -39 -6 -62 -23 12 -29 -44 -12 -30 18 -73 96 56 44 -9 -19 -36 -20 53
59 -6 38 -26 33 -56 -27 -34 63 46 -34 27 -49 -66 -54 -46 48 49 12 -24 -34 33 43 -52 -63 -6 27 68 45 34 -51 -21 12 -27 46 -39 36 -5 -64 -35 45 -27 -26 -15 -36 -13 -33 7 1 -20 42 12 -73 20 21 -30 -7 -9 -29 32 -54 24 61 53 -36 -37 -48 30 -85 -51 25 54 44 -44 49 -73 -5 -36 -81 12 -12 -57 0 -40 -42 8 -23 -64 57 33 -15 -8 -61 38 50 77 27 -6 3 -14 40 17 2 57 -38 -5 -39 24 -10 25 37 33 58 35 7 -28 -82 -14 17 -45 60 15 -27 -18 -4 -65 -54 37 74 11 21 3 47 37 -37 16 -58 -63 -12 -2 -9 -31 -6 -47 -84 41 40 12 -35 -60 -58 -13 -19 23 51 -35 -29 5 35 -18 32 42 -25 -44 6 -9 -2 52 -47 -75 -72 -34 14 4 11 28 3 -2 -39 -19 -41 -27 -25 71 -94 16 -23 40 -47 -72 -60 52 31 -23 27 -8 -1 25 68 9 -12 36 -4 50 -34 -5 -39 23 -5 1 29 -26 -7 -57 -69 -76 -39 11 25 25 -48 33 -52 -4 -15 22 -4 30 -48 -50 -4 52 34 13 -29 -45 -22 -11 -38 -31 -56 -49 28 -65 68 -80 34 -28 10 32 -6 -5 30 -75 -37 3
-29 49 -15 -13 1 -42 47 -46 -31 31 -30 -19 -4 21 13 -19 -46 63 53 22 28 64 16 -30 48 -18 -57 24 -4 -80 -45 53 -8 26 -7 -37 45 46 -34 -60 27 -57 -58 10 23 16 27 -13 -66 -48 33 55 -49 -38 -36 -42 -10 49 -47 -9 60 24 -2 32 39 71 21 2 -15 22 -4 -41 64 -5 -38 -20 13 29 -44 -58 -61 45 4 67 32 -8 19 -24 36 56 8 20 7 -41 -10 25 3 -26 63 23 -81 59 -3 39 8 -37 31 -58 2 -48 -25 31 2 -37 -47 8 -17 0 58 61 -18 -3 -71 43 1 -50 11 27 -1 -60 -4 -7 75 11 -29 -7 57 -52 -28 20 22 -19 14 18 -67 -67 -70 51 -6 -15 -54 9 -40 4 -39 45 45 43 55 31 -40 -46 -33 -8 18 7 -16 -31 -21 -1 -29 -13 -28 -41 28 -35 -7 -42 -38 9 40 -41 32 47 63 5 4 -20 -17 50 21 75 53 -43 -46 53 14 10 -53 -25 31 23 45 5 -53 48 26 68 -51 -43 27 50 7 -7 17 62 -16 -67 -13 -37 -1 39 -51 40 22 -71 -22 -58 77 24 12 81 57 -17 56 32 30 -28 -40 57 6 90 -8 2 18 51 -18 2 -37 -19 76 37 3 -26 16 -36
-45 14 37 -70 49 49 -9 -1 -45 -63 -7 1 31 -44 -58 -26 51 20 -70 -59 -43 27 33 -9 35 40 16 29 -54 -20 40 38 52 6 -1 -38 -35 51 -37 9 28 -18 -69 -30 34 -61 23 -41 3 -46 48 24 -62 -16 -3 -5 -62 24 -15 -56 -39 20 43 16 31 -63 -37 -70 -2 -11 16 53 47 17 55 -27 -64 47 -46 39 -26 0 -30 -52 -43 -61 -3 60 -18 -1 0 30 -1 30 13 -20 33 -37 37 36 -25 35 43 -9 28 -59 -58 -53 -24 42 22 -43 -50 71 -6 -76 16 -11 38 -17 -71 22 28 -26 54 42 16 6 -18 -36 23 50 16 -37 56 -8 17 -20 -12 41 42 -1 35 -11 -2 66 -33 20 60 28 -47 -53 25 53 38 71 -34 -5 -45 -39 -28 -6 57 -13 34 24 -14 47 -20 59 -61 -35 22 -36 52 20 -1 -35 -38 -8 24 14 39 -46 -8 -15 -57 -32 -11 -16 61 -48 -52 -30 -23 0 0 15 57 33 -53 -1 -22 -56 19 -7 -20 -19 -20 36 1 -11 -23 -3 18 30 6 9 -48 -7 6 33 -4 17 -24 -13 -54 47 -15 1 48 -13 -49 -8 -2 61 -13 26 -30 12 4 54 -54 -10 -38 -55 -43 32 -20 -25 -62 43 -1 -15 -14 -1
31 -10 3 -16 -29 20 0 -2 18 -45 7 58 -5 -11 8 -15 4 -21 46 52 -18 11 25 8 -33 3 -37 40 7 -14 -3 -47 32 56 -32 51 -15 73 -32 -7 21 -9 32 63 55 34 10 -1 18 30 42 -62 57 3 27 -10 35 -38 29 -53 -50 -45 4 -36 54 -60 12 18 29 -2 -24 -62 43 -47 -51 -26 63 33 4 -15 14 -21 47 15 -62 -14 -62 -46 -26 7 -43 34 42 48 53 41 20 47 29 -44 -49 -43 44 44 44 -47 24 -58 -48 -8 -57 62 59 30 -72 -23 -2 4 -26 -63 49 -2 54 20 -44 -16 65 2 19 -29 47 58 -40 -35 -11 -54 29 -10 26 34 15 57 -14 -22 -48 5 -26 69 -22 7 -1 -51 37 -46 35 27 -3 -35 37 18 18 49 -6 41 -33 -2 -20 19 53 -6 31 -32 7 57 -14 9 -34 2 29 27 -17 -27 -47 17 31 -42 -69 -34 34 -18 27 23 6 19 -36 38 56 -63 -50 -61 23 -11 19 -15 41 -19 8 -31 45 63 -11 -54 -24 -42 44 -39 -41 -41 -28 21 52 -29 55 -65 38 -43 -54 -28 50 62 10 67 -8 22 -57 -36 6 -54 -50 44 -26 -13 30 -20 51 -21 -4 44 32 -22 62 40 50 60 -4 -58
-27 -31 -22 -38 -51 -4 6 -12 -4 -23 -5 4 24 30 1 49 -6 -19 44 46 -36 -1 -59 -26 57 -54 -67 -75 -23 34 -22 -22 -4 -61 -17 -5 51 -22 65 14 -33 54 -56 1 21 -8 -37 18 58 -7 -21 -53 38 57 -16 33 69 32 -35 -67 -65 11 53 33 57 -37 -55 25 55 -38 -54 38 52 -61 58 62 -29 58 -18 61 59 52 44 -25 -9 -31 30 -52 57 23 -21 -43 -33 -27 -36 -5 8 27 -11 -9 35 -19 46 42 -6 -69 60 36 -22 -9 -19 4 63 -13 -38 -59 -36 -35 -28 -54 -5 21 63 -46 20 39 54 -22 48 26 -7 -54 37 54 -51 -19 -24 -1 -18 26 -48 23 39 -41 -7 57 58 35 -15 54 -49 -2 -44 -10 44 -17 -33 7 43 -4 -61 -30 -8 19 -17 -46 -57 -1 39 -22 -33 21 -45 -43 -17 -12 29 49 -50 37 60 -5 47 2 -31 -17 49 27 -64 -44 -53 -67 3 7 30 9 42 -6 -48 -9 -47 50 24 0 54 12 -41 -27 -33 -39 -4 8 -12 30 -5 7 45 8 -11 -61 -57 30 -19 45 -35 -6 57 -66 8 57 -52 8 -38 8 -8 18 18 7 -46 -8 -47 -65 -55 -8 -23 -49 27 -14 10 -2 -23 55 -34 -29 -58 23
47 -12 5 -78 -20 54 -2 -7 -16 46 -51 -11 1 -3 3 -46 32 -16 16 6 41 58 3 -18 -54 -19 -33 -29 21 13 55 49 -17 -34 40 -21 -51 -55 -58 -35 42 47 -45 41 -15 34 73 13 56 52 52 -32 -39 -12 -55 -30 12 70 1 7 27 -21 10 30 -53 -35 -56 -45 25 -28 29 40 6 31 53 45 -43 -23 -6 -36 -60 17 48 6 -3 -3 52 -20 25 -9 23 -38 76 13 22 -67 -31 8 -53 29 25 10 51 -13 -19 35 -22 -35 5 -58 -42 8 47 66 -42 55 40 9 50 -29 -38 -28 -49 59 -39 51 39 -24 49 53 -42 25 -45 28 -42 58 -47 -11 -19 -51 -12 68 -60 -46 -9 -14 17 -23 13 -32 7 -12 -7 -33 38 50 -49 23 20 28 -18 -50 -24 -20 -43 38 -49 11 -33 1 -28 -32 36 26 32 30 47 54 -55 41 6 -47 44 -1 56 -18 45 -48 -17 5 55 -20 4 5 -14 15 -4 -31 48 27 -45 38 -22 -71 -33 23 23 55 15 53 17 -61 -70 3 -35 6 8 -6 5 -39 -18 20 -29 33 5 16 22 -31 -44 -53 -4 -3 -53 -23 -30 -21 -32 12 43 -16 7 56 -33 27 -44 14 -49 -43 78 -42 53 49 44 37 32 -47
31 36 -25 -41 57 55 -46 -58 -34 32 -45 3 41 5 -47 10 1 -45 32 -48 33 -32 8 -6 -29 -42 -64 -44 -8 -54 -69 -56 21 58 -24 29 -57 51 45 32 -55 48 42 -1 9 47 46 47 1 11 -20 -51 -12 -18 1 -59 -15 -20 42 35 -19 -34 -62 -43 -75 43 -31 -52 -28 -5 -55 -35 11 63 -7 -6 -5 -81 48 -11 -65 8 -65 17 22 61 30 -78 -57 -15 42 -67 37 8 6 -31 26 9 -66 35 24 14 44 8 -25 -9 -50 25 -38 -15 -20 -65 1 -38 -51 60 -26 -16 -22 -55 75 -17 -59 10 28 32 45 -42 24 -45 6 -15 22 1 44 -14 38 -34 -48 33 -55 -71 7 -67 -44 -10 -13 32 54 -82 39 -49 52 -17 14 -45 -8 -46 -37 -22 22 53 -25 -1 -6 -49 9 -47 -17 -18 0 -70 -17 -36 68 31 -48 42 44 -23 -8 -36 27 14 43 -51 20 -62 -28 -63 6 45 23 -60 39 23 -7 -45 -9 31 13 8 -15 -19 14 32 -37 53 15 36 -68 -8 -10 -6 25 34 -33 -50 -56 34 -59 38 30 26 44 59 60 38 20 -19 -61 4 -10 54 19 -12 -44 -67 -67 -21 -36 -55 -44 48 19 38 -28 -10 -21 0 24 -53 -42 25 -29 -28
-58 -31 23 -46 -36 28 65 60 66 -2 -31 9 -47 -22 -11 25 -13 -58 -68 -8 -14 48 -37 -19 -54 -34 45 -2 -63 -33 7 13 54 -16 66 -67 52 20 -55 -62 -40 -5 -9 -4 -52 -60 21 2 -34 3 7 -36 -29 49 26 34 -50 -51 -43 38 -38 38 -53 28 -56 -9 36 24 5 54 -38 -45 -48 52 46 -44 24 42 -44 -8 41 0 33 31 6 12 5 49 42 14 -41 -20 -11 36 13 -51 -20 18 34 -23 -68 28 50 -66 -27 -49 -4 -7 -1 1 30 36 -7 44 33 -60 23 -1 45 -7 -23 -40 42 -34 22 77 33 -1 -24 -11 -58 -5 -22 -30 31 -51 -15 -51 37 -32 -8 -27 -45 27 39 -13 11 -34 39 36 43 11 -34 51 37 -31 10 60 -60 -40 -56 42 -58 -20 -35 59 -29 -47 34 43 11 -62 -6 37 -46 -7 -65 -3 -61 -45 -25 45 38 6 -7 55 -3 55 12 55 -48 29 4 41 46 24 -16 21 37 34 -24 -16 -43 -54 3 -32 45 52 16 -27 69 -45 29 50 -56 -4 -32 36 15 9 -16 59 57 -57 -1 -47 -58 -69 67 -7 5 -14 23 -36 47 73 -45 -39 21 54 14 59 -69 -52 56 -39 50 -30 4 59 1 26 32 21 -30 -25
49 43 38 -22 22 52 26 -31 -23 -18 52 10 -33 3 -34 42 -33 -84 52 -13 -27 -11 -26 -48 -41 12 39 -28 5 9 -24 23 -36 -47 -19 41 -60 -35 -10 -48 -57 -11 8 58 49 46 18 41 -47 -2 -27 -3 33 -26 48 15 -71 -67 33 -54 38 -3 -46 -50 -50 -12 -18 41 1 0 24 2 -30 -4 9 -23 -55 -67 -25 -58 4 -30 41 -61 -35 43 29 -29 -22 25 13 48 25 -41 0 -23 -47 14 -49 -73 -65 41 -17 -3 -61 29 -5 -17 -67 25 -6 -66 -35 -30 -9 4 -36 9 -67 5 -55 28 -17 49 -44 -3 -5 -8 38 31 -21 75 6 -15 -17 -34 -73 29 40 12 15 71 15 -66 3 21 59 -26 -34 -51 -50 46 -52 12 10 29 -34 -7 22 -54 -40 54 25 -15 44 -47 -3 10 38 -7 14 9 17 -79 56 15 1 43 -61 18 16 19 -60 45 -9 41 -27 1 23 -5 51 35 15 23 -9 -9 -40 41 -63 -57 -102 -12 -31 -32 -43 21 10 -38 29 -53 -15 55 -47 36 -54 -7 -60 16 -68 27 30 12 25 -30 -63 -9 -29 33 -47 36 0 -56 -62 -33 -7 2 -1 12 35 14 23 58 4 31 -51 41 -63 14 54 34 38 -24 27 -26 20 -20
-22 49 33 58 -52 -28 2 4 45 -57 -17 -7 -55 6 58 -51 -59 -21 40 -41 -16 57 46 -54 -19 -31 -8 21 18 51 49 -21 -50 34 -17 -32 40 -50 6 37 -39 56 -15 -13 -2 -59 -41 22 -5 26 -45 19 9 -11 45 -4 -56 -39 -55 34 48 9 11 48 -50 -56 30 21 -2 -13 -16 -54 -49 22 23 -34 -24 33 46 -46 5 26 -36 35 -49 42 36 -52 -13 -50 -10 34 62 49 -59 -58 -40 -47 46 -22 49 -51 -13 -30 0 -17 -52 46 -15 3 4 35 -41 -52 -28 50 -42 55 7 -51 32 15 37 1 21 70 -36 24 63 -18 -11 -43 -11 6 -29 39 -52 -57 -8 -14 67 50 39 -36 2 -16 -45 -40 -42 43 -12 -3 49 -28 34 -41 -26 58 -13 54 45 50 70 56 -28 41 0 36 21 -22 18 53 -22 50 -20 -35 -19 28 -36 34 -34 -14 5 -29 10 14 -25 65 -45 20 49 -40 40 5 41 28 14 -24 55 28 64 -64 68 37 21 -15 56 -2 -29 14 41 16 -45 17 -31 24 -32 34 49 61 -45 44 -63 29 16 13 11 -24 -22 -10 -31 45 -66 57 -64 30 -34 -4 51 51 -35 21 -58 -57 59 -39 56 -54 -12 -48 -9 29 36 24 53 34
41 30 -21 -68 -53 -10 -23 65 23 -66 54 44 30 73 -30 39 -9 23 -12 -2 -39 -29 41 51 44 -19 -20 39 58 -11 15 22 1 -35 -64 -28 17 -11 -6 27 65 -4 49 -36 -10 -24 16 29 -27 12 43 33 38 35 -50 -58 50 -67 -15 17 -36 -17 -64 -63 -22 -39 42 -39 -1 41 38 1 19 -24 -18 -1 -24 -7 40 -52 43 7 37 -11 -37 -44 51 -36 38 -35 14 17 -46 3 40 -64 54 12 -3 51 -39 -37 -31 -27 6 -25 36 33 32 22 74 11 36 3 -30 33 7 28 -15 -59 8 31 -40 -37 -31 -29 21 11 60 33 17 32 18 45 -4 11 -57 -21 -56 -62 15 -29 -7 -79 43 -61 -4 -11 -6 -1 -67 29 -26 -69 14 -17 -48 -35 31 -28 -62 -64 47 65 -28 -30 -4 -49 -14 0 -52 10 26 -51 53 56 20 -43 24 16 69 -3 48 26 45 -54 -54 -8 49 20 -60 -33 -22 -28 7 22 -34 65 62 -42 59 -27 25 7 13 32 -51 -3 -29 4 -32 -6 27 5 -38 -3 -17 -62 -20 2 5 -55 -11 0 54 17 15 37 -6 -42 25 -26 20 -71 3 -33 -43 66 -47 47 40 54 51 -60 10 11 -28 -44 49 -41 25 -29 -1 37 45 23
-41 -34 -31 47 32 40 -29 -39 35 22 -52 -60 3 34 46 37 15 -44 -46 60 44 5 -15 0 -46 -36 31 -46 31 -53 -25 56 48 -29 -40 -44 21 40 52 26 53 -63 -17 49 -11 11 -30 -30 -31 -45 19 -12 -7 -10 33 -63 35 16 -10 -34 57 -4 18 -2 -46 -17 60 -43 -13 51 -33 -36 5 30 35 -38 17 22 44 -43 48 -53 -8 57 -37 -4 6 -43 41 -17 38 -57 -34 -37 56 41 -15 -59 42 22 -50 36 40 -12 38 -37 24 -54 -12 -3 16 33 12 33 24 -55 41 58 -61 -62 -42 -34 -26 32 -58 -3 -26 8 41 52 51 -67 -1 55 57 68 57 6 -11 -63 5 -8 -42 34 60 44 70 18 1 -36 49 -16 36 -55 -22 20 1 53 -57 25 36 -25 53 -31 -64 4 32 -53 -64 -17 -69 16 27 -15 -18 35 36 -42 -23 -7 -4 7 18 69 43 38 27 63 -22 49 -43 -2 -28 56 -52 9 46 -20 -52 1 35 -11 34 -6 34 -23 1 54 -9 -9 45 -58 -11 40 -33 -22 35 -12 41 0 -6 24 63 59 -7 10 48 -34 0 -38 -34 56 16 -42 -36 43 -32 -14 -23 -46 32 -20 -8 20 54 25 47 53 -4 32 -13 11 -12 -33 26 22
42 33 -39 59 69 -7 -54 -21 -47 -66 -54 4 24 28 66 -17 25 -32 -65 61 -24 31 -2 -77 -12 17 -41 32 17 -5 51 -35 53 -22 0 -42 -54 31 49 48 27 -35 31 -23 -41 -40 35 -10 -46 40 -26 48 -12 7 43 -45 46 -48 16 -24 -28 50 -73 -30 -17 39 47 32 38 4 20 53 -34 -12 3 -40 -23 -67 -60 46 -9 -33 -14 -8 -72 4 43 16 -64 25 -33 24 4 25 22 -28 -52 -14 0 -41 25 -21 -60 2 -44 51 58 -52 -21 24 45 -57 -4 40 37 -65 5 -12 2 61 -22 23 -5 44 -61 20 9 -56 28 13 -9 -18 5 18 42 -30 11 13 -57 -4 58 -69 28 -76 2 34 20 -31 0 27 -62 -19 -36 18 -28 35 17 11 -55 -24 -49 24 -47 -21 -21 -16 42 48 -36 -80 6 -58 4 12 -40 -43 -3 17 -80 45 -56 -58 6 -28 47 -25 -14 -49 57 14 -9 38 -3 43 -34 -8 12 -45 -64 -51 83 -45 -68 -58 -18 33 41 -17 -54 13 35 39 48 37 -44 -9 37 50 42 -26 -49 -27 36 -8 46 -50 34 -51 -31 60 -27 -24 -18 8 16 -6 -34 61 -51 2 0 50 18 -6 64 61 66 -16 62 -55 14 -38 32 -60 -7 -41
16 -59 -37 -46 -44 -32 49 17 -45 -25 -59 -22 6 21 16 24 37 -4 -5 -12 -50 32 30 -30 -64 -61 18 -34 -40 2 6 -56 40 26 -43 -66 26 -56 -29 33 33 8 -51 26 -27 -10 42 -45 64 -44 46 -61 26 55 -34 36 1 19 2 -22 50 -15 0 -40 -43 49 -55 43 -49 54 29 37 33 -2 -18 -13 -5 12 51 7 17 56 -19 23 -47 31 3 23 11 35 65 -16 -10 26 19 49 5 34 3 -39 -17 -23 -13 -26 42 -49 -6 10 43 -26 21 31 -19 -45 -27 -1 31 21 -50 7 17 52 -31 -32 10 29 -6 4 -1 -47 10 16 46 -25 -63 50 -41 14 49 50 52 -5 -4 -20 -37 -6 -1 -20 62 19 13 38 37 -28 12 -32 53 46 23 37 -23 43 -38 -46 26 54 -62 20 -15 19 -55 -27 -9 5 1 21 -12 -54 -3 -8 25 -11 -55 -2 -39 55 32 -38 37 -10 -32 -45 -55 56 2 -63 -52 8 22 3 -56 18 -26 -63 -52 49 -26 20 -3 -27 -11 30 -25 -29 -9 12 47 -43 24 -7 -42 -2 -11 -38 -50 44 27 27 40 31 -41 -22 -59 -38 -2 55 -27 42 20 60 -28 -3 -20 -55 -45 -26 34 46 59 -13 -54 40 15 -12 -45 33
-26 -78 -27 -14 23 -28 -14 -90 -29 65 -5 -39 -12 -71 52 -44 11 -28 -39 -17 4 -84 5 35 -25 -1 52 -57 -1 45 -33 -97 -71 32 73 -27 -32 42 -76 6 -50 3 -67 -14 70 28 33 -18 35 -9 -37 16 -32 -60 33 21 64 57 -6 -51 -50 -31 -58 -39 -45 12 -32 -4 9 27 18 86 -48 -60 -19 -30 18 -33 2 -28 17 -43 0 -14 45 -33 -37 1 56 33 -12 79 -65 -11 -24 -35 -34 19 14 21 -16 11 1 9 8 -39 -43 65 52 28 14 -10 82 -120 40 -52 -69 -27 36 38 77 -70 87 -20 -30 -66 8 59 101 53 -17 14 -41 38 16 66 -84 -19 51 -58 -94 -72 -19 3 -10 -23 30 -12 7 47 -15 61 12 -50 46 45 -59 32 4 -45 -7 -61 33 24 29 -42 49 45 3 8 27 -14 23 28 -20 47 40 31 -71 -40 -35 -55 -46 62 -31 -27 -41 -64 42 -76 -19 -77 -53 24 25 -5 62 -43 81 94 -57 -56 -3 36 -62 25 11 -52 34 -10 4 -20 -4 -47 46 -42 -15 25 -58 -51 16 30 28 -60 -33 -19 -38 46 14 4 30 -9 -37 -69 32 -30 -51 32 34 -29 -46 -38 -66 -33 86 0 -70 -40 -75 -8 -47 -65 -39 -40 -1 47
53 -24 -67 -60 -8 7 27 57 24 -49 52 55 -42 -48 -23 0 21 0 26 -39 -14 -19 14 -13 46 -41 31 -59 30 -48 -35 8 -34 -49 41 -43 38 -44 57 47 68 -46 -33 -8 -34 41 24 -45 -61 -22 59 37 37 -35 5 44 -16 25 43 -37 -42 -33 29 16 42 -16 -11 -47 14 -12 8 42 -26 -24 -4 96 28 7 -32 35 11 3 11 45 -13 57 -29 25 19 -33 -40 -49 80 57 -21 -33 57 34 -51 -5 21 47 51 29 33 -70 24 -44 -25 -1 -48 -56 31 -21 25 29 1 7 -35 -25 43 6 30 -12 -32 68 -63 9 -75 45 34 -32 22 -78 50 -3 62 -36 -23 -17 -28 9 -49 47 43 43 17 -59 -47 -2 60 43 -9 30 -45 53 34 7 13 -27 47 -60 -46 64 51 5 -26 -4 7 -39 -58 65 -58 45 21 27 -6 -60 47 10 11 18 -12 -10 50 -39 46 -29 -14 8 9 21 -53 -65 6 97 37 71 17 -26 -59 -33 56 -12 59 -69 30 19 50 -13 28 -27 -60 48 -51 24 43 -47 -29 -24 57 -69 36 -12 59 -16 -25 29 -5 -61 37 60 -44 -39 -47 -44 -26 25 8 55 39 -25 9 -41 24 31 37 36 30 -19 -13 10 11 61 33 29
-50 -47 -15 35 -31 -22 29 -44 5 -58 -29 52 -72 -40 -46 14 19 43 34 -14 -33 -36 -28 37 -34 0 33 -44 -2 -48 7 1 3 -15 22 41 -57 45 7 -35 -54 -61 -13 -36 -89 30 7 -38 10 5 -21 -42 8 28 38 22 61 52 -1 27 -81 -37 11 13 -21 -57 -19 -53 -44 7 36 -15 -50 -35 10 32 -10 -44 29 -39 -26 53 47 18 43 56 -39 42 35 26 -24 19 68 60 -42 -67 -68 38 -68 49 -53 21 64 -88 -9 13 29 13 -45 -24 -70 -21 -48 22 0 8 -16 -24 21 -52 33 27 -34 -56 31 13 -74 -67 -9 41 13 25 48 -17 -34 50 14 11 10 -35 36 56 -41 25 10 38 -37 -49 65 -72 48 49 45 30 19 -44 -57 -52 26 -21 -56 -32 -53 25 14 26 20 53 -21 27 37 -6 59 -40 32 1 59 4 28 54 47 17 -39 26 2 47 -67 19 -68 -15 3 17 -15 57 -2 3 45 -51 -52 10 -8 53 -4 23 29 -13 -39 -65 21 -23 -13 47 -48 -12 -2 40 32 42 25 15 5 -60 7 38 -66 -20 -21 8 40 -19 -29 -38 -46 2 24 37 -36 -22 2 -7 -34 -41 -54 31 -6 -47 -29 1 2 50 -7 -3 12 22 -23 -26
-54 -22 34 61 -50 36 18 -55 59 39 46 21 -36 -17 18 49 39 50 52 58 -10 -40 -11 -32 -30 44 13 42 59 -5 34 33 54 40 -6 38 49 27 38 -54 -40 -6 -53 -15 -13 -25 -33 -20 -6 24 58 8 43 -51 -43 26 14 -29 61 52 68 -54 -39 -25 -38 47 56 -10 7 -22 22 72 -23 -7 -48 6 -5 26 -24 -11 -28 -37 7 8 -14 70 -30 -35 -8 -52 -22 -59 2 22 -13 -2 44 -59 26 25 12 5 14 -44 -59 -11 56 -54 42 27 33 15 -50 -12 28 4 -11 22 66 35 16 -67 -22 2 21 1 16 -38 -44 11 36 -24 34 39 27 -23 10 35 22 12 7 1 50 6 51 -1 46 8 31 -3 -53 -52 57 31 74 33 -11 -44 -19 25 63 -28 5 5 -10 53 -51 30 -40 48 -45 -6 34 1 -5 41 -46 25 -44 7 -15 22 38 28 -59 64 -73 25 22 24 22 2 -43 -37 -16 21 18 -3 -44 4 -58 48 -4 55 -51 -45 -41 -32 21 -45 -61 7 -22 2 4 45 27 -12 48 13 13 -5 -4 63 29 58 -30 71 33 -56 58 -30 2 48 21 64 27 -53 -19 -13 41 -46 -6 -16 41 -60 -71 31 35 -23 -16 34 50 3 18 -13
13 40 24 -19 53 -56 -10 11 4 -43 -20 -39 36 27 0 -34 48 -29 -13 -54 -16 20 12 38 27 47 -68 -52 1 18 -46 0 57 -37 0 20 -45 39 -21 30 49 41 29 -81 43 -57 -28 -48 -36 -17 21 -43 48 -58 47 -43 11 -17 56 -20 55 -56 -32 -32 38 -22 -84 40 -14 -57 14 -29 3 -36 32 31 40 55 29 -25 -33 -59 36 32 -23 45 -42 -5 55 -22 -32 -4 -61 -18 -5 -28 -20 54 -43 30 54 -22 -24 -43 21 35 12 -46 53 -43 68 -5 40 0 -18 47 53 -19 -41 -65 -5 11 -10 27 -31 -13 11 6 -17 -54 20 -29 21 15 -1 36 26 58 45 21 -60 29 -30 48 27 52 44 47 -13 -61 6 15 -15 8 5 36 -44 0 34 -17 -46 -2 11 37 -64 -42 25 -37 -49 -59 11 -63 4 -30 -10 -40 -31 44 43 -57 53 -32 42 5 23 45 -51 29 37 -6 -43 19 19 -5 -70 -20 -30 51 -10 10 24 7 -2 -39 -84 57 -29 28 37 -56 28 -39 -6 -26 -31 -8 25 -42 -39 -42 -27 25 11 20 -3 53 2 68 63 8 -98 -78 -51 10 -6 -19 -8 -21 -31 64 -56 45 -17 -14 -18 56 -25 -43 -33 -4 -5 36 -17 -33 31 18
-37 32 -54 61 -47 45 49 -37 -52 45 -17 39 -52 -35 64 62 -46 -25 30 52 17 34 53 -9 -49 59 -6 18 60 -42 -36 -54 39 44 -58 5 -15 -60 14 53 35 -43 40 -4 53 7 -44 -51 -46 -37 51 -1 -13 49 -25 -37 -67 38 2 -6 -9 20 52 10 47 -57 -16 -39 -17 -38 62 -21 19 26 41 29 54 -1 34 -36 -33 -34 4 -23 -7 -44 -17 30 38 70 32 -18 -22 53 -11 -53 -14 29 41 -28 48 -10 -6 -42 27 -7 -61 -46 27 10 69 -30 20 -9 -51 17 -52 -32 51 40 -3 -54 18 -11 57 -7 -11 21 -5 -45 -34 18 10 21 -9 7 14 58 10 39 2 -37 -46 5 66 27 37 27 12 -3 41 18 20 26 -24 20 -1 34 32 -54 -9 40 17 60 29 9 41 4 15 -10 48 20 -36 -26 -1 -27 36 13 -1 -33 -37 -55 -47 26 7 -19 32 40 8 34 -50 25 -3 -46 -6 -57 39 -52 35 34 35 0 -54 -60 -41 0 59 -23 -30 -18 -25 -22 39 -37 -35 -28 -7 53 -27 -23 49 14 40 3 -36 57 15 -38 63 -53 20 -69 49 11 0 10 -26 67 -32 -40 0 28 -37 19 -7 -23 -14 -47 39 -24 -40 13 7 5 -45 60
-68 -46 51 -57 -26 34 7 -7 -28 6 -58 42 -31 67 33 61 57 56 19 23 -31 -55 -11 15 33 39 -69 32 -5 -12 -24 2 -45 25 46 5 -17 48 23 60 21 35 -53 -1 -16 15 22 18 21 22 18 49 -28 -60 -60 12 24 -34 -23 16 49 66 -17 -2 58 -19 19 -55 -57 60 34 15 15 -35 4 6 43 5 -57 63 16 54 63 -32 26 -37 45 9 -43 55 -51 35 27 -12 25 58 -43 25 44 -15 42 -47 20 -48 -50 12 -40 33 -17 35 30 0 53 69 15 -53 -5 -49 -9 33 -29 -20 3 -42 37 -66 36 4 -12 -63 -41 -8 -17 -20 -73 37 32 -6 -10 -53 27 44 34 -55 -5 -40 52 67 59 12 16 55 32 59 -28 -35 -43 -61 -26 -3 -27 18 63 17 54 47 -60 -1 -3 -3 62 39 -42 -38 2 -69 -33 -48 -69 14 61 -19 -58 -58 42 20 44 5 -59 -64 -13 40 -50 60 50 -25 -2 3 -1 11 34 9 58 40 -54 14 -24 9 22 45 -27 28 -35 -54 -18 -53 14 -60 33 45 75 16 57 -52 41 32 -11 -49 -15 -40 -24 33 57 16 -1 -5 -40 -54 54 16 9 -23 -48 47 -30 26 51 23 8 -18 -62 60 -49 -27 -5 47
-25 22 29 -48 -21 -55 -85 -73 -3 13 -33 -19 -27 -115 -64 -38 -8 -23 -74 -22 61 -70 -46 -34 -50 -40 12 -43 7 57 -59 -40 -35 48 62 35 47 51 -56 60 -49 -21 65 30 38 53 -19 -26 45 12 -75 10 37 46 -57 -62 18 -9 33 2 -64 20 -45 21 -18 4 -23 2 13 -27 -55 59 -89 -80 -19 30 5 32 -36 18 -31 29 49 -45 52 6 37 -16 67 3 3 -6 -16 -75 25 90 14 -29 22 -69 31 -34 52 10 -23 9 30 54 12 -37 86 -60 20 -29 1 -33 -49 -46 6 -75 97 -77 80 21 -69 -45 50 79 7 59 -29 29 -53 47 43 -73 34 49 -19 -67 -19 15 3 -41 9 2 -51 -64 -58 -11 0 -57 52 -30 72 -34 -64 -5 -37 -70 -107 0 -42 -32 -23 28 74 51 7 -36 36 29 -25 21 -14 -29 -23 73 34 13 -33 24 -51 56 22 -53 14 -33 -30 -40 -36 -100 8 -6 -72 25 -55 -20 -16 -1 -27 -32 -66 70 -48 -66 -63 8 -58 -26 -58 -2 41 -37 -8 0 17 1 -24 22 -66 85 -4 -6 25 21 -69 57 -15 -13 45 22 -17 15 -40 -35 -9 0 2 -52 -78 -101 -29 -70 84 -72 29 51 -32 2 22 -77 -23 -19 -37 33
-13 -48 -4 -64 29 -33 19 1 54 -17 -29 -41 25 14 50 19 -31 33 -51 62 -51 -66 29 2 -49 3 53 -68 -42 16 55 46 -7 -28 -9 9 -62 -8 -30 -13 -13 51 -61 53 43 13 39 -46 -26 -61 -49 -42 -44 -68 -52 -3 25 -45 -21 4 -61 -75 -31 5 17 2 -38 -18 -97 -19 18 72 30 -73 17 1 6 -42 50 -65 -21 40 -44 9 -68 -20 -5 -51 -9 51 -41 45 -11 51 15 -6 13 -47 -54 54 -27 -46 25 -37 -44 26 -52 5 80 -43 87 52 -35 -99 -59 8 35 -57 5 -63 54 -42 16 -42 -27 -45 0 -9 29 24 -42 -78 37 -31 -17 -8 46 -55 -16 42 -61 -36 18 35 16 -12 22 10 -60 -12 26 -8 17 35 47 -52 2 -45 -57 -65 -23 -56 -53 7 -6 -29 -4 -10 -45 -36 31 -52 20 -47 40 14 -6 -31 -64 -63 19 54 -54 -3 -55 58 38 -55 30 -16 -31 -15 -40 -3 -22 -75 72 9 78 -28 -38 58 -11 13 -39 20 -54 -65 -52 0 -35 28 -60 -16 7 42 16 -48 -21 14 -57 51 -59 37 27 19 5 70 -50 -19 -37 45 60 -50 42 12 -25 -36 5 -51 -39 -60 -6 -46 75 6 9 37 -54 73 21 22 -21 -58 52 26
20 17 17 -4 -42 23 14 -12 -61 -46 44 37 -28 17 -53 -51 -11 13 -31 -52 35 29 20 36 67 -39 43 -26 52 -63 28 3 11 -28 6 -16 42 29 23 7 16 -9 14 28 35 24 40 -4 6 -7 -18 56 16 -48 -49 15 6 14 -47 18 16 29 16 4 49 -33 -56 -74 55 -57 -57 -7 2 13 -4 -15 22 17 65 -50 36 20 51 -52 9 -54 -7 62 -44 20 55 49 5 -15 45 52 31 -51 -6 -70 62 -12 -49 -45 27 14 36 6 58 45 -63 -2 29 47 33 8 -5 55 48 -45 -13 -52 30 -59 -18 -21 -28 -12 -6 15 -2 -72 -44 -11 -46 11 38 -40 10 56 17 -35 24 29 -51 -56 53 -52 41 -22 48 46 5 -28 43 16 -19 18 -44 27 -56 -45 -36 17 -49 27 -6 2 14 -24 -42 0 9 26 14 -63 -21 -11 50 -14 -44 -3 -43 -7 18 18 -9 -52 -48 38 60 48 -22 50 -24 -5 -17 -25 12 41 -19 14 61 -21 -51 -14 59 60 64 -22 -39 19 29 -14 -63 -39 61 -43 52 -39 54 -60 6 -15 23 53 -7 44 -36 -13 18 41 1 50 -47 23 -9 23 -75 6 -2 18 44 29 -26 26 -30 23 24 -22 14 -2 -39 37 22 -11
-69 -17 30 39 -75 -22 12 46 39 63 -10 -47 -16 15 -46 -63 10 -68 -62 -20 -34 2 49 -15 15 -55 47 -24 -18 -9 -17 -42 33 60 76 20 58 44 -39 44 -8 22 23 25 15 11 -58 -65 65 -6 -14 -43 -19 -37 -55 14 -15 -39 -18 -20 36 -26 -42 -61 27 50 14 30 13 -25 -38 38 42 31 -9 -26 53 -12 52 -10 -64 -43 -6 -34 -21 -31 -27 -50 51 -37 54 93 -58 -64 -45 6 -16 15 27 -14 13 5 -6 30 3 14 -43 1 43 24 20 -69 75 -25 -69 -72 23 -42 7 22 -5 -56 45 -35 -2 24 -11 15 87 29 34 -69 -48 47 -4 -26 -47 35 29 -43 -15 17 -46 -37 -57 -16 40 49 16 -83 39 42 -13 -63 -13 40 15 -54 -52 40 -55 -48 56 -51 -35 18 -35 -23 -33 -66 3 -32 43 -16 -10 -33 41 57 36 9 -51 -16 30 36 -50 34 -8 -1 30 -76 22 -18 24 -61 7 -67 54 21 -18 46 -11 32 36 -14 -13 40 0 15 32 46 39 -64 -59 -70 -38 -46 38 -52 4 2 -1 -32 12 -57 -31 67 -48 -49 -19 44 -62 -27 46 -22 32 8 -54 32 -77 -16 -40 23 -25 -24 -3 -33 55 -36 34 -21 54 37 -60 -21 26 3
-58 75 11 48 50 29 41 20 54 -20 -37 -21 16 85 44 20 18 1 53 -33 44 57 0 25 -23 -33 39 -48 -13 31 37 -5 112 -17 -48 33 -62 -1 50 61 27 -44 18 -51 17 -22 -22 73 -16 -9 -70 41 -4 -45 -61 -2 -45 3 -44 38 13 34 -53 -33 -10 49 48 15 -103 -41 -35 33 -33 2 -52 75 37 -18 -18 -46 33 75 -23 -31 40 -3 -5 -35 40 1 35 -40 42 -9 -48 -38 -31 -55 -80 76 45 -43 -70 44 -37 -29 -46 21 48 -29 64 -16 -48 67 41 12 41 67 67 -33 -2 18 -30 46 -6 -4 45 47 66 38 23 83 -30 62 -13 87 -17 -57 -42 45 -19 31 -41 -55 -19 30 45 -47 14 2 30 23 17 -51 -32 -3 56 23 28 63 60 52 -27 -46 21 31 -21 -26 -31 30 -37 59 39 2 23 17 -1 -62 -27 -23 32 -30 -54 -30 -8 46 -49 44 -28 10 100 83 23 2 -66 39 18 64 82 -41 -18 -73 -13 25 -9 21 -68 -6 6 19 -15 -4 53 -45 -52 -21 37 32 -70 -62 22 33 -53 49 -7 -66 -28 24 -46 10 -1 84 -25 62 -50 10 -60 22 -24 -17 87 -21 -28 -4 -55 107 -25 27 80 44 61 -51 -23 14 -7 27
21 -59 -9 10 -41 8 -29 40 -60 59 20 -31 43 -42 -30 3 -57 19 -36 -35 6 33 -56 -56 -65 57 52 -66 -28 50 -35 30 -12 49 -35 -64 12 58 3 21 21 4 -20 5 2 -64 -62 50 43 0 -26 55 -38 38 -18 -7 -62 58 -27 34 0 6 7 3 44 16 10 41 -50 17 -31 -17 1 -29 -51 9 -22 -6 -3 49 -55 34 -42 -1 -54 -30 2 -2 57 19 -22 -26 -29 10 46 -11 15 -7 -1 -20 -68 63 -12 25 -65 36 -54 -13 -58 -61 -37 -56 -64 -72 -8 -47 -25 -26 48 6 -57 -43 23 40 3 -29 -29 33 6 6 48 -8 -11 54 53 -48 25 -67 29 29 -7 47 40 19 -46 -32 37 59 -43 -60 48 -37 35 9 -17 -43 0 -48 -12 -8 -28 50 -50 37 -16 -68 -34 -33 26 -29 1 -20 -51 26 -5 30 -63 17 13 -2 34 -63 -48 -40 35 50 -55 40 45 68 0 13 55 25 6 -14 -1 -1 43 4 20 39 51 57 -17 66 -56 -17 30 -19 57 49 -26 46 28 12 -11 -37 -2 -56 -6 25 -34 -18 -37 -21 32 42 -33 14 -39 -73 -30 19 -26 56 7 14 8 42 10 -49 4 -12 24 13 -43 -20 45 20 -11 16 38 21 42 65
-70 31 -30 -103 36 66 22 42 -3 11 39 49 29 72 19 -11 -29 -54 52 -8 -34 -51 9 1 58 17 -3 3 30 -46 44 -12 -4 -18 -8 -23 22 -39 33 33 36 42 -65 16 14 36 -59 -31 45 30 -26 -50 24 -22 -46 -31 58 51 -7 55 -6 55 -42 -57 2 20 20 43 -57 -42 -18 -26 25 -14 15 41 21 -41 63 -68 -51 -35 41 -5 27 20 -3 56 71 -30 37 33 52 47 -2 44 -28 -20 27 -21 8 66 -20 -49 33 -39 -67 18 -50 68 -34 -37 31 53 -33 -64 -18 16 -38 5 -58 9 31 10 -32 4 56 -15 -53 16 3 49 26 27 -55 56 -25 -13 -54 -11 39 -66 63 9 -12 26 -2 48 25 -70 11 24 72 -9 48 -33 -36 47 -40 12 -51 -55 42 31 28 35 4 18 -72 -66 21 -6 37 53 5 -33 52 29 -46 -21 -5 -17 29 64 -12 -11 -26 5 38 55 19 -35 -36 -29 -59 -40 -44 33 28 -9 -62 -1 59 -12 -45 1 -48 -10 -13 -39 -11 -3 10 25 16 -38 45 -62 24 -34 -13 -13 60 -4 55 52 -17 2 47 53 -50 -76 -7 -19 31 -52 53 -44 10 -24 -7 14 -5 -34 -38 22 30 -74 -39 -4 -22 46 -21 23 -13 -27
35 24 7 5 -55 31 5 -63 69 5 7 44 60 -18 61 -52 -21 -5 -3 -57 -26 7 7 11 -45 -56 -58 -1 -58 38 31 4 -7 -6 19 -2 -7 28 13 -64 45 -1 12 -28 47 -50 -28 35 40 25 6 -72 -19 16 -48 49 50 68 57 44 12 4 29 -58 39 25 -50 -44 -92 -11 16 70 41 -20 -44 25 27 10 46 -3 13 -70 -64 -63 12 -10 -26 -65 52 33 67 40 -29 -17 -2 -49 -70 -30 11 -42 -71 -55 6 6 11 18 -26 -27 -44 -37 44 45 19 -7 -22 -34 -21 48 -1 7 -21 54 37 62 -52 -43 -65 60 -20 44 -57 11 -20 33 -33 1 -57 4 21 -56 -80 -90 -56 11 -12 -34 49 18 -10 19 -27 -37 -38 -16 8 51 -70 -37 -43 52 -75 -26 -57 -27 46 -46 -50 34 -34 -67 -19 -15 58 -32 -64 -11 6 -10 -4 38 -62 -6 51 -31 4 38 20 -49 -51 -87 14 51 -23 -36 -9 -48 10 -46 34 54 60 -16 -43 16 38 -49 38 -32 -60 -37 -51 41 -48 12 56 -40 -44 -4 19 17 26 47 57 -20 46 -5 -57 28 29 -6 31 -1 -31 25 17 9 -6 -22 -78 52 -85 -20 -23 -48 64 11 52 -4 -69 46 -46 -24 -62 -48 -61 -3
-31 -19 -4 -56 28 -38 -30 -44 -39 26 -3 26 -51 -18 1 61 -49 -42 46 22 -45 -66 -67 -59 -39 -12 -37 4 3 11 -56 -33 57 57 -54 -12 -1 -66 39 19 -12 35 50 25 -13 21 23 -7 32 27 0 51 -31 10 -20 40 14 5 -51 -58 19 56 -49 -56 -1 -48 -34 51 53 -36 -38 8 60 5 39 65 -55 -43 -31 55 34 -48 53 51 -2 21 31 -16 -23 16 33 -41 42 49 23 -66 -40 12 2 -7 -30 -9 -2 -45 46 -44 59 -46 -24 -19 28 18 -12 -43 15 7 47 19 7 -22 16 13 6 -28 22 42 -35 62 -10 67 55 -2 45 -57 45 1 26 -51 44 -35 12 -6 -38 9 60 14 40 23 -43 -57 -12 -16 -8 -12 61 -50 -42 26 40 -2 -57 50 -28 -5 28 3 -9 30 -11 46 41 -34 -37 13 -29 31 19 34 -37 8 67 28 5 26 17 -10 22 -22 -27 -14 -13 69 58 38 -40 -33 10 -36 -44 -7 14 -23 22 -21 57 -28 -55 54 -44 12 14 -5 21 20 13 11 35 16 -9 -34 -49 43 23 48 -18 13 -16 -36 17 59 -15 -6 -10 -6 -4 -55 32 27 -24 64 47 4 48 52 46 6 -36 -22 -42 -62 30 0 41 -59 25 -20
-57 35 -45 -20 5 -52 24 -22 16 -29 -31 -52 -55 72 -44 41 -60 14 -39 -35 -28 -10 -48 70 -23 -62 -13 16 -39 -63 -4 -45 48 -36 -51 0 53 -22 63 -65 -11 -62 26 34 18 -7 -27 55 -62 -68 -23 37 -21 -50 -69 13 -40 -61 -88 -53 4 16 43 -15 8 -71 -71 -45 2 1 58 -48 -4 5 -43 -74 -58 -36 18 -24 28 71 4 3 -61 -65 40 20 -50 -41 43 -5 -48 13 48 -29 -36 21 -35 -10 21 53 48 -29 -4 -43 -6 -40 -62 -44 -78 16 -30 93 -38 22 37 -13 -31 -61 -85 -67 -41 -13 1 -39 -33 -62 -62 -80 42 110 36 -77 42 14 -24 36 -37 -59 20 78 -52 -87 43 -26 -74 20 -5 -28 11 3 -100 -1 -78 -55 80 -14 -14 37 50 -53 -48 9 -41 -7 -56 20 32 47 24 34 40 -22 -42 -6 4 -20 -8 -55 -31 -8 -28 -11 4 -57 -7 -61 3 6 64 77 63 62 -15 15 -21 58 -59 -1 -62 39 6 39 43 -12 -40 -16 28 -32 -14 -19 22 -26 -17 -20 -63 -17 -10 9 -42 16 -19 -67 -21 -11 -14 -37 -44 -52 -11 -28 -35 46 -35 28 56 18 39 -43 58 45 -42 -14 -75 88 -40 15 78 -4 -36 20 37 -46 -37 6
-5 -41 -32 36 20 44 -27 -35 -61 -2 -12 -48 -21 37 21 -23 3 -65 10 -36 -6 4 49 30 34 -12 28 -43 8 16 -12 -31 -42 -46 -8 -21 32 3 -2 34 17 13 48 -27 9 -50 23 24 35 -48 51 -24 -32 37 -44 29 -48 64 26 20 -32 -14 1 -64 -51 45 17 58 13 16 -41 -18 18 -35 -42 57 -64 34 3 0 4 25 -1 -22 54 -38 13 -50 -12 -17 -59 -59 -41 -35 54 12 64 13 6 39 18 -50 -22 -42 -36 -31 24 -49 43 -60 -40 45 3 27 -2 -9 -62 46 -60 2 62 -63 34 -56 24 -36 37 -13 -63 -18 51 28 42 50 9 27 12 -54 7 -12 0 -68 14 -14 -23 8 -62 46 67 15 -44 -2 -3 -20 59 50 34 39 -47 63 -17 -26 28 -7 -30 -39 57 55 37 35 -59 25 -32 -34 -54 -13 50 64 -23 37 -63 -57 32 -62 -14 22 -61 29 -32 29 34 41 40 -15 48 -31 -62 -49 3 20 60 -36 58 4 37 25 -69 50 7 -28 -21 -41 -48 -30 -4 36 44 -2 53 31 12 4 27 20 50 13 2 20 45 -1 -26 58 59 -22 40 21 38 -43 46 -11 -20 44 -16 -43 56 -24 -66 -46 -57 30 10 21 57 -29 -59 51
28 25 5 -16 -21 9 34 64 31 10 75 6 47 -61 39 -43 53 -2 13 37 39 30 15 25 15 47 30 49 58 5 -46 3 -15 -10 -1 42 -31 -5 43 4 5 -53 -48 -41 64 30 -38 4 14 -61 42 15 -12 37 -59 7 28 6 66 52 -4 -25 43 -30 -23 -1 18 12 -53 -50 -44 -33 27 30 -46 -41 -58 68 17 -5 42 -23 -26 62 30 4 -20 -4 78 12 -20 -33 0 28 9 -53 -64 49 -5 50 3 -11 -6 -33 32 -30 10 33 -11 22 -55 -51 27 14 -5 9 -50 43 5 -67 60 41 -34 45 28 24 -18 28 64 -22 0 -15 -25 30 -21 -3 -9 -29 1 16 29 15 -38 54 -21 -8 -44 24 58 -40 -20 24 15 8 31 57 -57 -49 37 -47 -27 44 34 -9 35 26 22 58 22 1 -33 -39 -46 37 -19 -21 -49 3 -22 64 -57 -58 -17 76 14 -40 11 35 7 -60 44 53 13 -32 -46 47 48 24 -25 -15 -40 -30 28 66 17 40 -28 -19 -54 50 24 -64 -31 -25 16 -43 -37 -21 39 -69 21 36 34 52 -27 -63 -18 68 -51 -56 -24 -41 -20 24 55 -60 -27 -57 -5 -19 -12 -71 -58 31 7 -11 -47 9 -27 -40 -53 61 39 -66 -4 -21
42 -26 45 14 -10 -57 71 24 16 -29 0 43 -45 4 -79 62 49 51 -24 21 -62 -74 31 22 -62 -7 -41 37 -50 4 -55 -85 17 11 44 -1 25 -34 -83 -8 -63 -9 -66 -40 -8 -11 -21 -34 57 -6 3 -64 -45 24 45 -10 59 35 -6 -60 -32 2 -21 -84 29 -25 43 -13 -11 -39 -53 69 -88 26 -21 -33 40 26 -59 18 29 4 46 40 -47 -43 -4 52 -29 -41 39 -41 -101 13 2 5 -26 41 43 -43 -67 13 23 -6 40 -15 39 38 0 51 4 42 45 -42 31 32 47 -36 -74 40 35 -37 14 -16 -45 -29 34 -38 -58 -59 -9 -53 -31 52 -51 -33 -5 -64 -65 -29 -11 -14 1 54 -48 -52 -53 52 -4 -56 -61 41 -45 -48 42 -14 -14 -28 -42 24 -16 45 20 -45 9 60 3 33 32 -13 17 26 -54 24 45 18 5 -51 53 34 52 21 52 39 -21 -55 32 -43 -52 -24 14 -78 -7 -1 41 28 -40 -45 50 34 53 -50 45 47 -29 34 -63 -55 -52 18 15 -45 -21 16 -14 -8 -41 23 41 62 -54 -45 -58 -61 22 22 -12 43 0 -8 -69 -6 55 -22 -34 -39 4 -43 -51 -48 -24 -58 -66 56 4 -37 31 -60 23 -39 55 39 -35 21 -29 -40
10 -30 -18 -62 2 -13 -19 18 -48 -32 48 -33 -72 -32 -45 -62 54 11 49 63 -49 -47 -62 26 43 -33 58 -2 -6 58 -30 13 -37 -32 3 -36 -9 -8 -56 14 30 -41 39 30 21 32 4 -9 26 -26 -17 24 -62 41 -18 -16 16 63 6 41 -34 2 -60 -22 -1 11 -6 -65 -80 26 -32 9 -21 51 50 -59 44 14 -6 45 -54 -3 33 25 -24 57 -29 -62 71 52 -41 -15 32 12 -19 -41 -54 -15 -11 -46 -39 7 39 39 42 -27 31 3 -36 19 47 -44 -38 -40 -7 14 -7 17 -7 -12 -26 -58 73 -1 -25 -19 -68 3 69 -16 36 -55 -36 29 -15 -19 42 -2 -38 37 35 42 6 63 -51 -7 43 11 23 -17 37 63 34 51 4 -1 46 -27 -4 -61 11 -66 53 24 -75 53 -17 41 -20 -10 -17 -63 -57 -5 10 -25 33 -42 -63 61 -51 41 -53 1 47 24 -57 -32 45 -18 -49 3 59 -51 47 39 3 -15 -32 28 13 -41 -26 -1 15 -18 7 30 -3 60 -43 -15 -4 -8 25 -47 -31 -47 -58 -61 9 -40 -30 66 60 -10 -29 -40 14 10 -110 -79 27 44 21 4 -64 58 38 40 -40 -62 29 -19 50 48 41 -14 -57 43 28 -7 38 -34 -43 45
-20 29 38 -33 24 -40 -37 -44 56 -42 7 -29 10 -48 57 -69 -37 32 -4 38 48 60 -30 70 27 37 42 31 -69 47 55 4 -50 -67 -33 10 16 55 -14 14 -1 -15 31 5 -51 62 14 13 -35 26 -44 5 17 -55 25 21 -43 -21 -11 -10 -29 46 -29 -15 -37 -32 5 -60 -20 -22 -28 -18 38 8 56 -59 -11 -10 61 1 -26 44 38 5 9 -5 24 -5 1 5 10 -22 6 -62 -35 -2 -54 -4 -64 -10 -1 -54 -45 -26 -4 -61 -26 -63 -50 -33 -42 -20 -54 5 -66 -64 -37 16 6 -59 -47 -22 -9 -34 -6 -23 7 -45 35 44 4 -21 -2 56 -12 67 -11 38 51 69 53 -17 6 -15 -28 -8 26 -38 63 -23 38 -19 -57 -66 -13 25 5 39 30 -26 -23 -64 -63 -28 15 40 50 -45 -62 2 -5 7 -47 26 47 50 9 -23 14 -43 -65 -71 -35 -31 -9 20 -45 40 20 -24 44 -65 -7 6 -25 -10 15 40 9 8 5 -24 29 48 48 68 48 22 -68 -56 -54 -11 -73 -57 11 7 -17 -72 1 -40 23 52 -13 50 0 14 39 12 -65 35 46 -20 26 44 -55 -19 35 49 -62 52 14 22 -66 16 -29 -34 -23 29 8 -17 45 -48 47 2 25 -58
-36 34 -40 -43 26 -18 -21 50 30 -3 26 -21 -23 -23 -28 48 -12 48 -10 -20 -23 32 12 39 28 -51 -43 47 36 22 30 38 6 37 -8 -15 -45 -33 23 -24 -35 -33 45 -49 -11 -23 -2 29 -63 4 -34 -45 53 -64 34 -42 78 61 -2 -17 -45 45 60 -12 -8 -55 51 57 34 -4 -15 -60 -33 15 -59 23 -51 51 27 -40 -24 42 -58 1 -18 34 -18 34 -5 69 29 49 -11 -49 -17 19 -61 12 35 31 10 59 51 -20 -56 -26 -47 57 -40 -20 -8 14 -46 74 -56 44 27 -19 47 -36 -9 -55 -41 0 -18 -13 -69 39 -37 -32 -37 -9 20 -29 6 42 45 55 10 -21 -35 -39 -33 77 -64 -33 52 55 42 7 -54 -60 -34 -16 33 45 41 -18 8 -71 -23 19 48 21 52 20 -54 -39 -38 3 13 45 6 -41 -45 -54 -52 31 38 49 -20 -52 -43 71 -33 -36 3 -3 20 -68 -13 -19 39 70 -41 -69 3 -52 27 59 9 61 -40 27 40 32 9 -17 43 33 62 39 -25 -60 5 -4 -51 12 4 -17 72 -14 -22 -38 -43 35 -50 -60 45 -19 -51 -56 -2 -15 37 5 -42 53 43 -40 49 -29 15 -45 31 -23 -59 -35 -12 -35 1 -40 -49 10 -41 47
43 40 13 -14 -7 -21 16 31 68 59 -29 -67 31 11 5 -19 -1 28 -9 -56 17 7 -44 23 -51 19 -59 -27 -22 22 -27 42 1 -18 75 -5 -36 10 -12 14 54 53 -8 -26 -34 56 -62 -82 30 45 3 -46 14 53 12 -1 -18 -38 93 -47 -26 17 36 30 1 52 -60 7 -84 45 48 74 -45 6 -11 -19 45 41 -34 -60 -8 46 43 66 -27 17 -27 9 -36 4 -24 22 12 -58 -15 59 51 -14 -43 12 -29 -33 -17 15 1 -22 10 -7 14 0 -18 -52 5 -72 -3 -12 -3 0 -61 38 62 11 41 34 -32 -34 -7 61 20 15 1 -59 -6 -39 -30 -29 -27 -28 -24 -10 -19 2 4 35 -63 29 4 2 -36 -28 -8 55 37 41 65 -7 13 -13 44 9 -25 40 39 13 -50 51 -31 -29 29 35 -32 8 27 -50 -17 32 37 63 -16 38 0 26 -13 72 21 -8 -68 -50 19 -15 2 -86 53 6 15 33 -50 -50 66 -14 48 -83 -40 -18 -52 19 -53 48 14 -6 9 -13 3 50 48 -8 36 4 55 -14 23 -34 52 -59 -41 4 -8 52 -21 -24 -96 36 7 -34 -60 34 -43 -18 -51 40 -13 -53 42 40 23 42 50 -9 55 8 31 -14 30 50 5 76
-37 18 -52 -12 -21 -48 -14 -51 -23 -35 -70 -52 7 -50 -34 -73 -63 1 -31 -11 -47 24 35 -58 41 -33 26 37 -6 18 25 -32 31 43 -26 -49 -38 44 49 11 -56 53 -11 4 -57 -9 -31 33 58 -32 -65 45 -15 -2 9 -54 -58 69 -33 18 3 7 -36 22 10 -63 -12 -22 30 0 -33 -47 19 -57 23 -69 57 -15 -23 -20 -76 -20 -56 47 16 -23 32 56 46 31 -14 44 -29 6 -5 52 -47 -48 -62 -41 -56 19 -11 -18 -48 -4 -25 64 10 -3 -25 -40 2 -20 -10 51 6 52 -5 18 18 58 12 57 -53 -1 -18 22 37 29 -34 35 48 43 -56 7 -65 -39 -58 -30 -64 42 39 -35 -20 19 -43 -24 -24 18 -23 -57 46 -39 -52 30 41 25 52 -7 10 -11 53 8 -9 39 -62 -24 -19 -47 4 -51 52 36 51 43 -66 22 1 -21 -24 -59 17 -47 -63 -31 -27 -10 -64 -64 -26 8 -61 28 28 39 26 -18 47 -34 -24 32 -58 -21 31 30 13 38 0 47 -42 -35 24 52 32 14 -4 -53 -62 -18 -67 -32 57 -39 45 34 4 34 52 -47 -62 -66 53 -66 -48 -40 -6 -28 -46 5 6 -23 28 37 -5 7 67 41 59 22 24 -69 7 8 28 5
-68 -57 72 33 49 -79 -31 -76 -27 -25 -3 -53 -3 11 -41 -37 -67 -29 19 -12 -55 -79 -47 -58 19 -51 32 0 13 -14 -9 -11 -25 -18 -23 -17 2 -23 -46 73 -45 -60 -35 2 16 55 -13 -75 35 -24 -26 4 -2 16 -14 -25 58 -5 50 -44 -82 -9 -16 23 -27 8 -55 -37 -7 -50 -64 27 -21 -30 -30 -58 -3 -44 50 55 31 -6 48 -72 54 40 4 42 69 -12 -34 -12 28 20 -45 18 42 -1 -45 -65 -14 -27 0 -27 -61 -55 -38 -41 71 23 88 -35 62 -74 31 -37 -54 -22 -67 -54 40 20 -14 7 -34 60 39 79 49 67 -54 -16 14 38 13 53 10 -51 -26 4 1 -96 -47 6 20 1 -46 19 14 -45 15 -39 -3 15 -24 44 9 23 51 39 21 41 32 -74 -3 -27 24 -67 31 -38 -8 -33 29 36 44 54 54 37 13 -54 58 -4 -17 78 14 53 -50 -46 -11 21 -48 43 -64 -35 -71 18 61 -90 82 55 43 -26 -27 -4 -40 -5 -25 -51 -40 -50 10 -61 26 32 -56 43 18 12 -3 -68 -80 75 -46 54 -69 28 -65 -47 -25 -75 -32 -83 13 7 -70 -1 -53 22 -67 13 -38 -61 38 -29 73 2 -18 -37 13 58 50 55 -22 -35 -69 23
-24 -43 21 -2 -57 39 42 -69 68 55 -59 -12 -32 -19 4 5 31 -42 -30 46 3 38 -55 -8 -23 -39 -42 58 -42 -24 -30 58 62 2 -51 -35 -54 -54 39 -9 -56 12 -42 -47 40 44 16 -3 3 -66 -38 -7 -49 -49 44 -14 37 -33 35 35 42 -11 22 15 24 -58 10 -64 -42 -5 52 -23 42 9 -38 -50 -59 -12 -57 -52 64 -40 57 -19 -71 -39 -33 23 47 -23 -59 59 -65 -58 38 67 -58 40 24 -19 -86 28 -12 -35 35 -36 -16 11 86 -24 36 -14 2 -24 -88 -44 -26 -37 -75 32 20 23 50 -7 -40 41 13 33 -31 -39 -51 -52 41 14 79 42 27 55 -56 -44 -62 -10 -59 43 34 -34 38 -1 -40 7 -74 -14 11 -79 51 -32 42 -72 -28 -67 -28 5 -40 33 27 -15 11 -39 -71 -19 -56 -41 -43 -12 -69 -63 -13 65 42 16 -29 -26 23 18 39 -17 0 -7 6 -35 -26 10 -60 19 -76 -14 -52 -47 -34 -26 -28 -60 13 -40 -19 -42 -1 -48 -23 12 -39 -33 -27 18 -30 0 -43 17 4 33 8 17 -34 43 -74 45 60 48 -24 -77 18 28 16 50 -9 29 19 -53 23 -54 -45 12 50 17 -24 -3 -51 -5 -26 27 -34 -26 -17 -37 -20 -9
1 9 59 32 -16 47 -49 42 -53 4 12 49 1 -2 14 -15 8 -48 25 -41 -10 -49 17 35 28 62 13 56 -33 61 -58 -15 32 27 -16 -51 -25 28 -61 -47 41 45 -61 -96 12 -14 21 -72 -64 -20 37 -9 37 -30 -13 68 -37 13 -2 -47 -1 -35 44 -38 -50 -20 -18 -42 4 -53 -66 1 52 -72 -60 -11 -53 65 -7 -54 66 -10 -58 17 -33 -31 -36 51 20 -25 -10 4 21 -14 37 -3 -32 18 -45 -41 44 24 30 -37 -59 -29 -37 4 -24 -14 -38 40 0 -55 34 41 31 32 -35 -44 64 -33 -32 -12 -53 -64 46 64 -30 -35 26 20 31 -49 -46 29 20 45 -38 20 -65 -48 14 55 6 37 15 -24 -46 -2 8 15 -31 -82 -15 45 19 -33 -24 23 47 19 -35 59 -58 -25 67 33 -40 29 -19 -14 66 -44 55 -34 40 -61 -7 -8 -55 -28 39 -23 -32 38 64 42 19 49 51 30 -63 3 7 -4 -65 -25 -11 3 -47 -46 -56 -48 -19 33 5 8 -4 12 -40 16 -38 -45 -52 -14 -56 17 38 57 -41 -36 6 2 -40 9 34 -5 -4 -46 -20 13 -8 9 33 -25 -55 -53 44 -54 43 41 -45 -32 17 42 -44 -1 -14 31 37 41 -33 7 60 -43
12 53 -24 59 -2 -49 19 -20 -48 27 37 -41 39 -43 47 64 55 63 -64 -42 -33 50 -49 47 -53 -57 33 39 38 -15 -19 28 -44 6 -32 47 35 32 -54 50 25 12 15 18 -26 -4 -23 -24 -32 3 14 -37 24 14 30 50 -33 29 40 -27 39 -33 4 1 -25 39 30 -8 26 -33 6 60 -50 34 38 -6 -49 41 25 63 26 6 62 -39 -39 27 18 57 -55 56 -65 44 -7 -39 10 43 34 -29 65 11 -11 -42 47 12 -59 -23 -12 48 -59 -14 11 -34 17 30 -53 45 -28 54 -33 50 35 -1 60 35 10 54 -48 -45 32 -35 -61 8 72 37 20 -54 5 41 -46 -25 -8 -35 29 48 -8 48 53 -53 17 -52 -74 -5 54 -46 -27 -49 58 -27 9 27 45 3 54 -5 -35 9 -23 -3 -30 -43 47 -59 -76 -37 -46 16 31 -43 6 55 63 -20 54 -14 52 -7 24 38 10 41 -18 59 17 -40 -12 -54 5 48 15 26 47 -21 43 -50 -52 6 -14 -56 1 54 -17 45 51 -57 11 -57 1 40 -3 42 0 -32 66 -8 -9 -13 43 -51 4 3 -58 51 26 51 30 46 -23 47 -49 -48 -39 9 -56 -57 24 -40 -26 -59 57 -54 -49 -37 -40 58 4 44
-21 6 -40 30 27 -31 61 61 -3 47 -15 -51 48 53 -37 15 -44 46 -21 8 -40 26 -56 4 -33 -13 28 25 59 -28 -16 -36 -67 35 -11 -35 -26 41 -12 -33 -5 -7 21 8 -5 -29 55 -67 5 -20 19 8 -7 36 -13 -22 -72 52 18 40 19 10 -47 34 -29 -57 10 41 -27 -9 41 65 -37 10 -33 -53 -49 41 -66 1 -33 -11 -9 -69 -40 32 -64 -23 -11 -58 -76 -8 -59 13 1 2 48 54 44 59 4 15 5 17 50 12 12 51 22 -110 -37 -42 9 -13 62 47 47 44 27 67 9 60 -7 1 -5 -54 36 5 11 -31 -41 -11 66 41 -37 12 52 -67 -27 1 33 -35 -33 -59 23 4 -58 -73 30 26 -22 -18 4 -44 -48 23 49 -51 -53 -64 -52 -56 62 -24 -59 -33 27 -67 -61 -25 -37 -29 6 46 -59 55 -57 23 -62 -44 48 -1 53 15 -13 -8 -62 17 24 -53 -63 -4 15 19 52 13 -53 49 -40 50 -59 14 -32 -43 68 -14 1 28 23 66 -30 39 -60 30 -10 -51 -68 -58 -50 29 -65 -18 29 -26 13 15 24 -38 1 51 -31 1 -56 -57 29 -25 0 18 -30 -24 16 -45 31 50 -31 -48 -44 10 13 -60 -38 -61 35 -63 -6 -36
-8 -58 -10 -50 -18 2 6 59 -4 -10 16 38 -14 37 45 -26 -8 -58 -32 33 -36 -50 -63 16 -28 -34 19 -68 60 -49 -30 -40 4 -14 24 42 40 -5 37 60 57 -28 -16 -43 24 -18 -50 -7 53 21 11 -41 -13 25 -1 -52 37 -56 18 -48 -3 55 -47 -26 61 25 7 51 9 33 -45 -38 -53 18 52 -10 -57 -26 48 6 -54 52 -1 -36 -28 -27 38 61 10 41 -45 3 38 53 -61 6 37 -48 -62 -13 -55 -56 55 50 34 -51 39 -12 11 19 -39 50 -37 -38 6 -54 68 69 -38 -54 -50 -1 -28 -21 35 -5 23 14 56 -57 30 -10 -35 37 21 58 -43 -58 52 -16 63 -29 -21 -40 -20 -32 -28 34 36 -41 41 21 16 -16 -40 14 -57 -14 -23 -54 -51 41 41 -30 12 -24 -58 43 0 -63 -38 -16 32 53 2 -32 38 67 -67 -18 45 4 -16 -29 61 -31 13 -42 41 34 14 -54 -19 -17 63 -49 61 31 17 66 -54 -19 -21 40 -31 21 14 -7 -33 -35 11 -22 -12 -21 53 22 -61 -44 26 53 0 -25 -39 -14 -3 -14 -44 23 0 16 48 -47 -9 51 -64 -12 -50 13 -17 -33 -62 4 -55 25 -5 2 42 8 47 63 15 -27 -30 -38 -36 -40
27 26 40 0 25 -57 49 -48 50 39 32 31 -28 58 30 46 42 -67 -10 -37 46 5 3 87 -4 20 18 -64 39 46 7 41 55 -25 -44 16 -68 55 56 72 28 -39 -8 18 -53 4 0 81 -14 -27 35 -19 19 5 29 -59 -15 -29 -32 33 -4 49 -5 -65 -33 -12 38 41 -3 52 -25 -41 12 -31 -20 44 17 -51 42 -34 -59 32 54 0 45 -67 54 4 24 -42 60 -25 75 -13 -40 -48 -9 -67 54 69 42 -35 42 -42 34 -33 42 42 49 8 4 9 -67 19 -27 -19 39 59 -41 -24 23 -42 -42 -13 -16 57 -8 -36 -23 -44 -63 117 51 4 -6 31 -35 -15 -60 -28 26 101 -59 -52 -75 14 53 9 -37 -68 -52 -55 -46 -60 -17 26 55 -53 -57 -52 -26 -1 26 -1 -61 -67 41 -60 3 31 -49 -26 -83 50 10 26 8 -34 -4 50 11 9 -57 -13 -26 4 -73 -49 54 -38 96 -25 48 -10 12 -48 -53 53 -22 -26 11 -14 -5 40 -20 42 30 -31 40 47 -71 -42 42 -41 -42 -60 -56 -13 50 -14 43 -39 -21 -33 -17 3 17 -27 -28 53 -4 -48 10 -36 29 60 -15 -18 -11 12 15 53 19 34 25 -31 -46 18 17 39 15 -51 -34 -69 -41 -4
52 38 -44 39 -28 36 66 6 -1 -38 -63 -17 -18 -28 -42 -25 -66 -10 -21 3 -38 46 53 -54 48 6 -2 -24 48 -35 7 74 46 -9 27 15 32 11 -28 73 -42 -54 -32 -19 0 -5 41 60 -35 -13 -11 -16 27 39 -40 -11 3 -17 75 23 -27 -7 -7 -16 61 -17 4 -55 54 -33 -30 5 -8 -51 18 29 27 34 44 52 13 -55 -36 23 2 30 -8 -22 -4 -24 27 -23 -53 -9 -54 30 34 -63 -9 -44 7 21 -14 -23 10 -4 10 13 -22 52 80 -28 -75 -16 -66 47 47 -53 -41 -22 -28 46 65 9 22 54 23 -49 26 65 -38 7 -47 -9 -18 -31 -57 43 -40 -17 -57 -25 36 11 66 14 19 -41 29 -47 -12 -7 -19 -63 39 -1 -42 57 53 9 -58 30 -46 57 18 33 -36 51 46 -3 0 -48 4 38 -33 -15 -5 15 40 -56 -11 -36 -31 0 -9 -67 -32 -38 -47 -54 1 -49 -26 -34 -48 -59 56 52 26 -11 8 -55 -50 -28 -5 32 36 59 22 15 66 -11 -5 55 -50 30 5 6 51 -3 37 35 -81 53 14 62 -48 1 60 44 -25 -8 -13 -47 -33 -53 -54 52 -47 41 -43 52 56 -39 20 21 14 3 23 -44 -3 -33 -55 -12 -54 -13
39 29 12 -44 -45 12 -24 -16 -11 35 32 57 -17 -53 34 62 -58 -14 -19 -49 11 -46 35 13 -32 -14 -16 -21 -61 12 -18 67 46 67 -26 -15 -14 -46 17 2 -11 -33 25 -45 25 -24 3 41 24 28 27 22 19 63 -47 14 -47 6 14 -45 30 22 -51 13 -1 20 15 -36 -60 60 -34 32 -43 60 -20 64 36 -32 30 -20 66 21 -55 32 -33 43 -30 -33 -5 -37 -3 -53 -4 -34 -67 -50 31 -56 -75 -57 -28 16 26 51 -8 47 -16 9 -17 -9 -12 -30 3 -48 -11 -10 -54 -45 17 9 47 26 43 -53 15 -5 1 -37 70 0 50 5 -37 44 37 17 25 53 21 -61 6 41 -30 45 46 -37 -46 -41 34 -33 33 -47 60 14 -54 27 38 49 -16 -37 -38 31 47 -23 -26 0 16 1 40 -16 36 30 33 33 -5 -38 -8 42 11 -46 25 31 0 -23 38 25 5 45 49 -17 62 0 -49 -12 34 57 -58 63 1 6 61 -21 64 -53 27 22 -26 -39 -36 -4 9 61 18 -17 -9 39 63 -44 49 25 15 -13 -6 31 -25 -30 -39 -30 67 -30 -50 42 49 -50 18 32 -25 20 37 -46 38 55 31 3 -50 3 -26 28 -55 -55 12 19 10 29 -21 68
56 53 16 -41 -3 -68 -42 -16 29 24 -23 17 -30 -28 -39 -22 63 -9 -48 -4 38 -70 60 -11 6 -16 -14 -21 -51 22 62 39 35 37 -7 22 -52 64 -35 10 36 20 28 -11 -45 -64 15 1 -51 -14 -43 -40 -1 -38 -27 58 -7 25 44 -16 2 -32 24 16 57 -26 72 55 47 -22 -12 -7 30 -45 36 -59 1 43 -40 -22 61 -49 -41 33 -39 15 -12 22 43 56 36 -4 -53 -2 -38 -68 52 -14 -63 2 -16 -48 39 -39 -54 -17 -21 18 52 36 24 -87 -55 44 50 -70 35 -48 -29 -6 -6 22 -50 -39 -35 33 47 -12 51 11 29 -22 37 25 51 48 35 -21 -9 8 2 59 -56 30 25 51 39 -49 -54 -8 29 55 -41 38 -44 -51 -13 28 -29 -30 10 -24 53 64 -4 -25 32 -2 -51 20 -54 1 26 -61 -7 41 -1 -6 12 -52 -22 -60 54 45 -37 -18 37 45 50 36 39 -29 -55 23 42 -51 35 5 23 -43 -17 -27 25 -32 14 -46 64 21 -23 -37 27 37 -21 -25 3 -5 14 -47 37 17 1 -56 -62 -38 -21 -51 -6 -19 62 -57 -63 -46 -38 -45 -18 53 0 48 -65 18 82 -9 -38 1 52 23 14 -62 43 42 12 -32 -40 41 34 12
-40 51 -12 -43 22 23 53 34 50 -32 -44 28 -52 55 21 10 -64 24 34 -37 2 40 -12 11 -15 20 29 45 0 34 -28 -39 31 24 3 -56 -65 9 19 33 -42 -48 45 25 43 51 -17 -45 66 -18 -3 -39 52 -25 -50 51 -37 63 24 -48 8 38 -19 35 54 23 53 -12 17 7 36 -25 51 4 6 -25 -56 -14 68 19 -42 47 21 -18 -52 34 -10 -17 -53 37 -37 -8 -38 -29 1 12 -47 -23 15 -7 -50 -21 -10 9 -35 55 32 15 -20 -39 23 -12 -42 14 -33 -30 45 -31 -24 -42 -30 12 34 -31 -54 23 14 -15 65 -55 -11 5 11 17 -28 37 -32 33 23 2 -4 -38 19 36 13 -58 -27 -12 -24 42 -22 3 -47 -17 18 -26 40 48 -37 37 -18 -63 33 -12 12 -5 -21 2 -34 -29 -49 -40 25 -62 -23 -2 25 -20 -73 45 69 -33 -38 61 -40 30 50 -47 1 -28 38 -9 25 59 -21 32 40 -45 72 -1 -64 54 -14 33 -21 -5 2 -7 -34 -26 -25 49 5 33 -13 -48 57 -55 -49 32 -31 -56 -44 -40 46 -24 -24 -49 -3 -28 33 -28 13 -12 -43 22 48 26 -57 -38 -17 42 17 -13 42 -32 47 -22 -25 -37 21 55 -34 27 -31 -63
-67 -25 51 62 2 20 45 -55 22 -39 -6 53 -15 1 40 37 23 -1 -9 -64 -29 -63 -27 -29 59 24 -64 29 56 42 -34 4 -7 25 66 -39 -40 -15 -34 29 -52 9 38 -53 39 25 -12 -57 26 -47 8 -39 -45 47 27 -38 51 -15 -44 -18 -67 36 -49 21 63 55 -47 43 33 -57 -48 78 52 -29 -59 63 -1 -32 51 -52 65 -11 48 50 13 -30 -3 32 -44 12 -19 11 -22 -28 -56 -50 -20 -27 45 17 36 29 -2 -53 -18 30 -6 -19 -37 6 -1 -52 -22 4 -26 15 -43 36 -29 -4 37 49 -49 -58 17 36 73 40 -29 -21 6 -5 9 43 28 22 19 -45 28 -16 -4 37 -30 -28 30 40 2 -52 -55 38 -7 27 16 22 -42 60 -40 -3 16 28 26 -8 0 -20 30 -40 -17 -20 60 5 8 -28 -5 -58 23 20 -19 -42 -34 -33 29 48 20 -49 48 -39 61 -46 -56 53 -47 -12 -50 9 25 -38 3 -58 20 10 49 -25 10 -2 59 -58 9 -22 55 -32 72 -32 -23 -15 41 42 -35 -67 58 68 32 57 7 42 -20 23 -17 37 -45 -16 56 -40 3 -4 -55 -9 -61 -28 24 -23 -64 37 53 43 84 57 -33 42 56 -54 -44 59 28 -17 59 14
-9 -8 95 45 11 23 -1 -12 -4 43 21 -34 60 -63 66 -30 -19 -61 -9 -49 -30 45 -55 -101 -58 -18 -68 -38 21 70 -42 31 -76 -22 -21 -24 -4 -2 -50 -46 10 -55 -48 38 59 61 32 -57 40 -29 -7 -46 -56 1 47 -50 57 19 78 48 -6 -90 14 13 -8 40 25 11 4 47 -57 49 -37 -36 53 37 -19 35 65 -67 -31 -29 42 -74 -42 -55 38 6 81 -13 -19 -15 1 -4 24 32 -60 18 5 -2 -74 -29 34 3 26 26 -3 -20 52 26 46 10 33 4 -63 13 -40 17 -63 34 43 -34 51 26 -37 -45 17 91 111 85 -13 2 -94 71 -53 40 36 49 -25 44 -22 -92 -28 24 -49 -59 -29 40 -27 9 -11 0 57 19 6 35 -95 -46 12 -16 5 34 -27 -5 -28 -20 39 -56 36 -27 15 22 -70 10 -20 58 -44 56 -45 -8 10 11 -9 85 -23 -12 42 50 -37 -46 -20 -70 5 -69 -47 8 58 -57 58 100 14 57 -29 60 49 43 13 -54 -18 29 -46 18 -27 -47 -71 40 22 50 13 15 -49 -6 -14 -1 -45 -17 -25 63 -56 25 -57 11 1 -51 7 35 -25 24 -65 22 -45 22 -4 -57 5 33 -38 59 -49 52 55 62 20 6 40 -15
-16 8 29 38 25 -23 57 -4 -6 -2 -40 25 -23 45 46 48 -66 -43 13 13 -61 26 -40 -2 -8 -43 -56 -54 -16 -10 -57 -54 -9 30 11 -2 -15 -22 16 29 -4 23 39 -45 65 -47 -39 42 15 -37 36 14 -3 -55 -63 36 -54 -34 38 -84 48 -6 54 9 34 -27 31 16 -46 -36 -13 -23 -38 48 -15 -47 27 -77 8 -18 -53 1 48 37 -58 -21 -8 -24 20 -16 37 -32 22 -2 0 -26 -12 26 -17 33 41 20 18 -61 -64 -10 1 56 -46 -42 -12 4 0 -36 -55 -30 -57 -17 -83 -36 50 28 74 -9 -6 38 41 -35 28 -15 12 37 -48 53 50 -50 39 30 -69 -33 -25 -26 2 8 -13 -57 -67 -20 -13 2 -19 -37 -35 3 -28 -19 -15 -59 -46 -54 39 -29 -39 42 -75 2 -8 -69 -7 -3 -46 46 27 31 -14 -22 -35 53 15 -61 -10 -75 -42 -46 13 -63 11 -14 -30 4 -21 -12 53 -54 29 -79 51 9 -37 -49 -31 19 -36 29 54 53 2 -70 12 -24 12 23 -18 -8 1 -3 -52 -80 -40 -40 38 37 -52 28 -41 21 -19 -14 37 -54 5 -22 41 34 -40 -1 -25 43 -47 -49 -38 -11 24 16 61 -26 52 -17 -12 -5 -32 -35 -15 -36 -32 -36
57 34 -63 -10 5 -38 -65 32 45 -17 -66 55 -39 16 0 1 -64 47 -74 -49 -41 -35 27 -26 14 -14 -32 -25 27 -43 -2 -24 4 -24 44 36 39 -30 -5 -30 -21 55 2 -17 -40 28 -62 -75 56 31 29 -82 43 -31 0 0 27 13 13 -35 -8 -66 41 6 -53 12 -81 -9 -25 25 -20 71 37 17 -48 -6 -40 5 -40 -22 8 -42 33 -59 22 -27 47 -51 18 32 23 59 54 -38 -4 4 13 35 -10 0 48 -51 36 21 -37 -52 -3 -4 4 -15 9 20 53 -15 12 -59 -2 -2 40 -27 32 -6 49 10 -46 40 -32 44 -23 -42 -49 -71 -64 -57 -28 49 2 -67 12 -69 9 -1 -12 -58 4 18 -26 30 -37 -74 -50 -23 29 16 24 4 11 61 -54 -54 -56 -68 -10 15 10 10 28 14 -7 -84 37 -25 -45 -20 -8 -35 -54 -1 -49 25 -35 -51 -46 18 -51 25 -35 -31 31 36 -73 48 28 -48 -40 -1 -16 34 -53 69 13 11 9 -3 -22 52 7 12 49 -40 -52 54 20 -31 -40 -71 -17 33 35 30 44 -65 38 -58 -50 0 -24 -67 2 -41 -51 -46 43 -16 -26 58 -26 -31 -82 -48 21 9 31 10 -43 -51 -30 67 29 25 15 47 -14 53 3 -3
32 -2 54 -25 -18 51 85 62 -77 4 42 -30 -2 -22 9 59 -54 -29 -2 -46 45 23 -23 87 -28 -4 -56 -70 6 0 -40 46 74 0 -49 -52 -41 -27 63 -74 -44 25 -28 -51 -14 1 9 30 16 8 49 -11 -7 0 -53 46 -8 -47 -33 1 -11 51 -40 -37 -49 -20 47 -35 -14 -28 49 5 52 19 -12 -36 -31 -13 18 -28 -44 73 -55 -42 13 -35 -3 28 -2 32 -11 23 -16 45 13 -61 -5 -30 -67 26 -38 -9 47 5 39 -55 35 -24 1 30 -32 -6 0 -41 13 22 72 62 -28 -2 30 -44 53 9 83 -40 -44 -44 -26 -10 -56 -7 44 -2 -36 -34 -1 -26 5 -47 19 56 60 30 39 17 -51 -47 -72 -30 -46 55 -30 -8 -42 2 38 6 -49 24 51 -42 26 6 14 -57 -44 -3 -40 -51 -70 -6 37 23 -1 -68 -8 20 0 63 -10 64 41 49 -36 -26 27 -31 -41 26 -35 -50 -37 32 -13 -48 -70 -49 -24 20 -19 20 -50 63 -24 21 28 -22 18 -14 38 -4 -62 21 -18 -25 -11 17 -44 -14 58 24 17 57 32 -57 22 15 -60 23 -48 65 -43 39 66 -48 -20 -13 5 -21 46 -32 -5 36 -12 39 -45 -53 30 -25 -23 9 53 43 63 -48
16 -77 -6 13 59 57 28 -15 82 10 -55 -35 39 -47 -19 45 -38 7 -40 42 52 -84 -57 34 19 7 -58 17 48 -59 -4 10 37 11 26 11 50 -3 -60 -28 -2 41 -10 48 -33 -50 5 50 58 42 -21 -56 44 22 27 -12 -9 -40 -39 -21 -8 -41 -33 -26 55 -59 -47 -40 37 -56 -32 56 -43 -21 9 -42 17 -25 -35 43 13 -10 -4 38 33 4 -7 65 -20 34 -64 -25 -11 -34 10 15 -3 -4 -38 -41 34 -37 48 -10 24 34 -40 20 18 -46 73 13 -39 16 43 -47 37 31 31 -11 -35 -5 32 11 59 -6 -34 38 83 -12 -2 55 -63 4 -61 -9 29 -43 -34 23 -52 33 50 -58 -45 -50 15 5 -3 8 54 -27 -41 -62 58 3 -78 19 -12 -70 -36 -43 -58 -49 28 37 18 -6 27 35 -2 24 -21 54 50 -39 23 -31 -55 -3 -55 -30 43 30 -59 -50 49 46 -41 -25 -59 -13 17 19 12 -56 27 58 65 30 -4 -13 -44 51 -26 34 7 -40 -50 -27 -22 32 -31 -13 -29 -4 -53 32 24 35 -43 21 11 18 -27 -2 6 -67 -58 -22 23 29 -18 45 -21 11 35 -43 -17 -44 -26 7 -32 40 22 40 -25 -25 -14 62 33 -54 -17 -62 7 -7
51 27 36 -45 -51 -30 44 -15 47 -48 -52 10 -12 47 -1 -38 -46 -32 10 5 -35 -44 26 1 38 -14 -57 40 -23 -25 -10 34 -21 -9 -51 31 27 -47 4 43 5 -60 49 -32 -47 57 18 58 -36 29 39 24 38 56 -21 52 57 -8 64 29 -25 0 34 22 -64 -2 40 -3 16 -55 40 -33 -61 -25 51 50 -59 14 -46 39 -66 -5 19 4 -36 37 -27 -19 18 58 31 57 -46 32 31 32 17 -47 -61 19 -57 19 2 23 35 55 -42 61 48 44 3 21 27 -21 -53 53 49 11 -50 -1 -40 18 -16 10 1 -36 7 56 51 5 -49 37 -22 -2 -69 -5 42 11 1 11 -25 -54 53 -44 -65 8 -14 63 28 37 36 -44 -5 40 14 29 -39 -21 47 -19 22 3 -50 45 46 7 -45 46 4 -63 19 -42 13 -25 -36 26 25 45 22 44 -33 57 54 26 -37 -54 37 -13 -34 -10 6 -4 2 43 42 50 64 -10 21 59 -1 -18 -41 -8 47 37 41 26 16 -20 -24 -33 7 -51 -46 -49 -20 57 -59 -24 -8 -37 -47 -8 3 -23 -18 -69 3 -8 8 -11 51 -42 45 -60 64 2 38 22 70 -1 24 47 17 -25 -48 56 5 17 -11 52 -38 5 -70 28
16 -64 -9 49 45 -5 -36 -48 -11 54 36 -36 12 -46 17 -79 66 -36 6 -13 28 -10 42 9 6 -36 70 32 -60 17 -51 -12 18 61 49 -69 -49 -5 -29 -13 -35 -6 26 -4 79 -57 -9 -5 42 -31 36 10 55 8 -8 -34 -45 -2 47 -9 37 -9 22 14 -36 -47 -42 28 -16 -25 30 -2 61 -21 -33 -33 54 -42 -45 45 -76 -91 56 -2 -3 -24 -63 -25 85 9 -19 1 47 24 -6 -23 38 -61 -63 41 -52 34 27 -6 -27 -23 13 64 9 -57 63 25 72 14 -9 31 -63 -5 -21 -22 57 24 -6 -38 -1 36 36 52 -17 68 48 22 -7 16 19 -36 -54 -62 47 -21 -52 35 22 75 23 -65 49 -11 -28 42 -56 12 -25 -35 55 5 44 -62 -62 41 -4 -22 -43 -36 14 32 -27 -59 28 25 40 30 -53 -52 30 43 46 -5 -48 0 -22 -46 -14 -20 38 12 54 -32 6 -13 14 -7 -5 -89 15 -11 64 2 31 67 -45 0 -37 14 -23 11 -46 35 26 52 -52 -19 -37 -28 37 13 -1 -56 -50 -44 -52 24 -10 18 71 17 -44 31 -45 5 -36 -54 -1 -45 22 -45 45 -56 -55 53 -55 5 45 12 75 -59 71 -10 -18 -17 -12 14 -23 55 -63 20
21 66 -62 1 -61 15 30 35 -41 -58 17 51 -82 52 36 95 -40 42 -40 33 11 -12 27 8 -26 54 -56 -49 -4 -5 -20 59 59 -41 8 -27 -39 -21 38 8 43 -60 -15 9 -17 -52 48 43 -19 15 13 37 42 54 -25 -59 -37 24 36 23 -61 60 -30 18 -37 -55 -68 -15 -87 -44 -35 -4 -45 39 28 -34 6 25 -37 38 -7 -1 74 -9 -18 -71 -55 -17 -73 27 15 -7 -8 -45 10 47 -47 -54 -45 55 -44 -44 4 13 -60 7 -55 -14 -28 45 43 -49 37 25 27 -58 25 -1 25 -5 -10 -31 40 5 62 -64 -17 -34 -32 32 -49 94 79 -21 31 -10 44 -57 -41 -75 -26 -31 1 38 -15 58 -24 -38 -63 0 16 -56 -1 -56 -11 11 -26 -14 -27 -14 49 -29 37 -19 -70 38 19 30 10 7 -61 41 39 -40 -23 18 29 -51 39 -46 -19 49 -17 -53 -69 29 -33 -70 47 -18 -2 -7 -3 68 -41 -15 54 61 -44 -28 9 42 26 -60 -52 -56 -37 15 3 -87 -10 37 33 -49 37 -60 15 52 -28 13 51 -73 -57 -20 47 -74 -45 52 -4 -3 22 77 -25 21 -12 39 -54 37 52 -47 10 -24 -26 -70 -43 23 22 24 30 -25 -54 -6 -15 -28 -33 -37
23 -20 13 63 12 1 61 41 20 17 -30 2 -52 -32 -58 -11 -2 -17 33 -26 10 52 37 38 -13 -52 0 -63 -13 -59 18 35 -26 54 -16 -27 40 -38 2 -20 8 -22 40 1 39 44 32 -64 -2 35 -32 -36 -62 50 46 3 -15 -25 66 -6 21 31 -39 11 -12 -34 -25 -37 16 -34 45 22 53 33 -34 57 30 -3 17 8 35 40 17 -8 -47 -30 -56 -32 16 51 7 25 -32 -9 1 36 57 21 28 -28 20 -14 15 14 -72 48 -36 -10 -48 21 -26 28 -52 -31 33 -35 3 -59 -43 9 5 40 52 1 -43 -31 -44 16 -26 -35 19 -2 57 37 32 -16 -46 59 0 -32 13 -51 2 -22 -20 34 -10 -42 17 51 -51 11 -42 52 -2 -24 16 14 10 6 -63 -35 -53 -16 3 -26 -38 -29 1 29 -49 -65 -45 42 28 -9 66 -50 -48 48 54 -47 -35 50 -49 27 13 42 24 41 10 57 7 -17 36 -22 46 7 -52 39 -18 -27 19 -4 -21 -30 25 -50 14 60 -60 -24 14 -37 39 -37 49 53 -2 37 32 55 -21 -46 13 58 35 -33 -29 -51 -36 13 -62 33 23 72 -14 -2 -44 25 -33 57 -11 6 57 48 57 6 17 48 41 -19 70 3 5 46
25 34 -27 -67 10 43 61 12 -35 35 20 -17 -51 18 64 -35 18 61 18 -3 53 -55 31 -31 2 3 30 -62 -26 -62 -43 29 -46 -6 47 13 2 -65 17 57 43 -11 25 13 -43 30 8 0 -27 27 21 63 -2 -42 14 33 -52 7 27 -16 -51 -57 -35 -21 -9 -53 -1 -49 -28 1 -10 -50 11 54 64 52 16 -70 -14 -38 30 -59 35 9 -42 -37 42 -5 -28 -19 -23 22 -57 -42 34 56 -21 -58 -23 -38 11 -13 -55 -43 22 -1 -38 -2 -29 -14 -3 -13 55 82 30 -68 -39 41 -46 -69 -45 -51 6 -17 -49 -62 56 -4 58 0 -59 -7 11 33 -9 13 -77 -61 24 -37 -19 -67 -46 10 15 54 52 30 -15 38 18 63 -22 25 -31 14 38 -49 -46 1 -21 -52 -44 50 -54 66 15 -40 3 -29 17 -43 5 -59 -51 47 36 28 52 46 -19 -7 -3 31 17 -24 -12 -28 -46 64 -1 62 1 1 -27 45 9 -30 3 11 20 -45 -40 6 -47 -7 36 7 -13 -47 4 25 -37 30 41 2 -56 -21 -15 43 41 -30 -48 -23 -7 65 57 8 42 -22 -50 -49 39 -42 -45 12 -48 -33 -67 -44 -37 -6 -55 25 -10 46 -19 32 -34 -17 -41 40 -23 -47 -6 -50
40 84 37 60 61 -8 18 -62 -56 -44 60 -24 11 9 0 22 9 3 18 40 -2 -36 -45 78 -57 -23 7 5 -52 -42 60 17 43 43 20 -20 -59 48 42 -2 -26 -43 -34 -56 -1 20 -30 67 -56 -42 53 -49 7 38 32 -52 -63 -70 -64 -27 17 73 55 -65 3 -36 14 -49 -41 -20 59 51 -28 27 60 4 0 -10 -47 -9 20 61 -26 -39 -20 -76 -35 34 -17 -27 -29 -68 62 20 -37 -22 -54 -28 49 -27 -22 41 -61 -32 -38 59 -51 -16 -46 -55 -25 28 17 7 25 49 -1 -14 -48 34 25 -5 -47 -34 -8 36 -66 -2 15 5 23 66 -19 40 -16 6 19 -51 -39 -63 45 38 -44 -51 -30 9 -17 -18 -73 -7 -49 -17 36 -54 4 43 -21 -34 -13 -48 3 39 -63 -12 -22 36 -17 -72 -35 -9 9 46 28 -26 -9 56 23 -58 -7 -49 30 -52 -34 3 5 -24 -28 -6 25 35 72 36 68 -34 3 37 28 -34 -12 8 -27 27 -63 -25 -5 -53 -41 -3 51 -76 -47 -10 37 -50 -39 -1 -25 3 6 36 52 27 -31 10 26 -70 -31 -7 13 56 -6 45 -13 22 4 7 -10 57 21 -73 79 66 46 -47 -52 -40 -23 -67 52 -48 -70 -14 -57 -26 -44 -25
14 -33 -22 -2 -36 -70 17 26 28 48 11 -68 5 0 -17 -59 14 29 -27 48 3 12 39 23 32 -53 -32 -12 -9 -7 -29 23 -41 50 19 21 49 -56 -44 35 48 22 -36 12 25 69 14 22 62 -18 22 15 -68 7 -30 -68 -27 14 39 68 -33 34 40 -4 -8 -73 26 -39 -110 -24 -91 45 -59 53 -45 37 6 22 14 -42 58 27 11 -27 38 43 43 -69 -12 63 -11 -41 -26 -39 -53 57 0 -16 44 44 -48 -33 -28 -82 -3 -58 -56 46 -57 45 -23 10 -56 51 -31 -11 24 -79 -32 -32 5 55 -10 -45 -33 49 -62 -30 -3 40 -49 -34 -37 29 37 12 -3 -55 0 -21 17 -30 0 11 29 -58 0 -69 7 -45 36 -64 -34 11 22 50 6 9 9 -64 -44 8 34 -67 -10 11 7 -38 -28 -17 -74 -33 -34 13 -17 -47 -1 -15 -18 -2 33 -14 -16 -10 -17 -18 -23 -47 17 -79 -31 -69 -11 -10 -39 -16 22 -42 12 -24 44 -42 -7 12 -76 57 -4 -45 -31 -15 -13 59 15 18 27 21 -13 -43 14 25 64 49 -56 -26 16 81 28 -64 18 -32 -10 11 4 -42 39 -62 -12 9 40 3 44 32 14 3 21 -45 10 46 5 -22 -66 -11 62 6 -38 -46
-41 -8 -8 -5 6 -44 -21 -24 -27 -54 0 -5 -5 34 26 22 -24 -31 -35 -19 51 -5 -39 9 -54 -61 61 -60 -5 30 -63 34 39 -4 54 -46 59 -59 9 31 -15 -37 42 -2 -58 56 33 8 -41 -54 -28 -9 48 27 -51 -16 -54 10 35 60 8 1 -7 -10 27 -5 -19 -20 44 56 39 -29 28 -20 -61 -22 22 -15 10 -50 8 -4 42 -27 57 20 -54 60 34 -39 -50 38 -30 16 49 53 -28 43 31 -14 9 -72 4 43 -49 -3 12 33 16 33 1 -37 -42 -17 17 36 11 55 -28 -56 36 -5 57 -30 -78 8 -36 25 -25 -19 -26 28 -24 -9 -49 -70 -50 -46 -60 64 16 -75 28 49 -51 21 -32 43 -9 -42 -15 -30 2 -25 25 30 6 53 -39 -17 43 -4 14 -67 28 -66 38 -20 14 -5 38 35 47 -39 38 37 -61 20 15 39 37 46 51 -59 -34 -10 -5 -35 -35 18 -58 11 49 39 -68 -32 57 -69 -38 43 49 11 51 60 46 45 -57 -46 29 64 34 -37 -9 56 61 -27 -12 -40 60 2 51 59 -53 -16 21 19 -20 52 -48 62 -3 -44 -30 -4 -48 -66 -44 -3 37 -58 -76 18 56 52 29 27 -71 0 -50 -14 -1 -41 -61 -37 61 63
12 -6 20 64 -20 -17 81 -36 -35 37 33 29 9 39 -32 45 52 -11 42 22 24 34 29 53 -16 19 10 -68 43 -65 -32 -40 35 -5 18 -3 -37 29 94 -51 26 -29 4 0 -66 26 60 87 -15 -66 31 -65 66 -12 20 -31 -41 -20 -47 44 44 49 -7 14 -60 5 -29 -23 -50 -18 -29 -14 64 57 -37 -33 4 56 -4 3 9 83 25 -56 20 32 -4 31 -44 -27 83 -42 -16 -61 21 -89 -15 -50 -47 102 -35 -73 33 -27 -20 -57 0 -10 -10 35 -24 16 -13 51 1 -52 32 -6 6 -11 -19 38 -44 -63 22 26 10 13 46 33 41 109 82 66 18 28 52 -22 -24 -19 43 44 13 48 6 -17 -25 -37 -10 -37 -43 -44 -82 28 -42 25 76 -10 -10 -12 56 43 -16 16 -14 -9 28 44 -3 -24 -7 -51 -20 14 -69 -38 -6 6 -62 -12 46 -17 -67 -33 -61 8 -1 31 -45 -51 58 83 -37 -18 -11 -8 25 27 -61 -54 -41 -35 -58 52 36 -50 -11 -10 -55 42 -1 -27 33 -41 -16 45 7 -15 -9 17 20 -41 -11 33 -19 -14 -61 -24 19 -11 52 45 -22 10 63 -7 -45 -21 66 -30 64 -37 -72 64 -23 9 -61 -80 60 -49 47 0 44 -34 4 31
-1 -48 43 -35 58 -7 -41 34 -12 -34 -6 35 -25 -38 21 -22 34 9 -32 58 46 20 17 -25 -54 -46 -3 -20 40 -33 50 2 44 -50 -58 32 -18 -34 -45 16 68 11 19 -103 -27 -45 9 -40 -2 21 -67 -26 38 -9 -52 24 -40 12 17 -34 21 -33 53 -87 -19 -8 16 -14 -128 -58 70 45 -43 -28 54 47 -51 -34 -7 -20 53 65 33 -63 -5 -19 53 -58 11 -54 -31 25 19 -23 -48 8 -29 -8 -30 -59 4 -39 -18 35 -19 -35 11 2 18 44 -23 43 -29 -4 -10 37 -53 -61 -46 -39 -19 -19 12 11 -31 38 -11 82 28 31 -11 -57 40 25 -34 0 -89 -25 0 -23 -41 60 18 23 21 6 -7 -7 -33 -54 23 -35 -48 46 -25 52 -54 -17 7 8 -12 -15 -26 20 -46 -66 65 35 28 32 -72 64 -54 1 6 16 48 -65 -30 -33 25 -30 56 20 -18 40 -11 -33 -25 -37 54 -65 -36 11 24 38 13 -14 27 -42 -37 -65 -48 10 -56 -60 39 34 -56 7 41 38 45 24 40 1 -59 24 -12 7 -63 -31 1 41 26 -41 27 5 15 26 -97 -24 -74 -15 46 4 12 -22 33 37 33 34 45 -70 30 72 -13 -27 57 22 -33 13 63 46 -21 45
