-2 45 13 47 -17 49 2 22 -34 -48 14 -36 29 24 -33 10 30 -44 -26 -46 6 -20 1 18 -5 14 60 42 -4 -17 -58 56 32 0 58 27 -21 28 34 29 -10 67 34 -8 -33 62 20 41 -20 -8 -20 -56 54 -37 -63 -54 20 17 -42 2 -33 -40 32 39 5 20 -52 -48 47 42 7 4 41 -35 55 -46 -68 -55 57 -38 3 6 -49 2 -58 43 8 57 54 -26 -53 3 18 15 21 23 -50 -36 2 -26 0 46 -46 60 -50 -31 38 51 -23 9 45 36 -48 -18 -58 56 3 1 -37 14 -41 31 44 15 47 -39 38 -62 17 3 -55 49 -25 0 -30 -50 -15 -56 32 -8 -40 26 11 8 -36 -52 53 -66 -16 -50 -6 50 -2 33 19 -44 3 -28 -22 -25 13 -18 -57 -22 -67 13 -47 34 -23 61 -47 0 56 21 26 -25 -46 -58 -21 16 -27 38 37 8 3 42 58 -51 46 -18 38 -10 -5 43 25 -43 16 29 19 62 -32 46 -46 54 58 -32 36 49 -46 -49 -20 -26 -60 25 42 57 -49 -35 52 14 51 3 47 -56 -37 -11 23 65 -5 -22 33 42 -46 -48 17 4 7 37 -59 23 -10 -23 40 47 -61 0 0 2 33 28 -60 -63 -29 11 13 -30
64 -13 -32 -30 44 19 52 -45 5 -57 3 36 53 60 53 49 -27 45 39 31 -35 49 20 -32 20 44 -47 -27 52 -12 56 -20 4 6 -36 63 -1 -12 -48 -3 0 23 -51 -11 32 30 11 -25 -4 -43 41 -48 45 24 49 -22 -46 35 31 38 68 32 62 13 11 65 36 -42 -9 -44 -19 -7 42 28 49 -35 17 -6 53 62 -32 -42 -34 -58 20 28 -15 -59 30 -22 -35 20 0 -36 -29 24 43 22 50 1 -54 -53 -29 30 10 34 -35 18 19 24 -22 19 61 -2 22 18 -62 14 56 27 -15 -41 35 10 15 20 -17 -10 -44 46 -13 22 35 41 -14 8 -56 14 -10 -27 -14 9 -14 -29 -40 1 -43 47 -10 -14 61 50 42 23 28 -29 3 -35 44 32 -4 -16 58 47 -23 -8 18 27 -42 -51 -24 -62 36 -18 44 3 36 -38 66 54 -38 56 47 -53 46 -52 -47 53 12 27 -48 -17 29 63 16 53 56 -30 44 50 -25 -44 31 2 41 -48 -15 1 -5 -1 -27 48 -61 -19 -31 29 54 17 67 -23 59 52 11 -5 -16 29 -63 40 -48 -6 22 -13 26 -24 20 -50 15 34 8 51 38 21 -53 -17 50 7 -63 42 1 47 58 33 -42 -1 -1 44
-22 57 -52 -17 62 53 -45 -38 46 -19 -23 38 -37 -59 -8 51 -18 44 -27 -38 28 35 40 -66 55 22 42 -30 -8 -1 11 68 47 56 44 42 44 15 19 24 -24 -11 23 -37 41 -23 53 47 -61 -17 -23 -64 3 24 16 2 32 60 -51 -59 34 32 29 -24 -49 5 4 4 -30 -3 50 -18 43 -31 -32 -69 3 43 39 37 -18 -15 -6 24 21 27 -48 11 -28 -54 47 5 28 -39 -68 54 -63 -60 50 43 -34 -16 -6 35 -38 -34 47 -59 30 12 -26 36 17 38 58 -21 -48 2 -21 -42 -14 45 36 -22 53 -26 4 0 49 -38 -19 24 -63 -29 18 -46 -66 28 -44 29 48 -15 -58 34 -51 -10 27 4 -49 3 8 -29 -7 31 35 -27 -58 34 -17 19 -10 7 8 -14 -21 42 -41 -59 -30 30 24 -59 44 13 -40 7 -20 8 -32 -1 -51 0 5 53 0 -61 -65 39 -31 8 2 52 -48 60 -27 24 16 -35 27 39 7 45 42 20 -8 -2 -38 59 -12 -48 -4 -26 63 48 -45 32 -51 55 -1 2 21 -22 35 -36 5 36 50 17 24 -27 -69 22 -49 -14 12 59 -18 -41 -24 -33 -43 -63 -33 -30 -40 34 42 53 -34 -38 43 42 21 -61 -58 43
31 38 -53 -49 10 18 -63 -44 -13 -40 -17 45 -12 -35 38 33 -44 52 4 23 12 10 -16 26 11 27 -60 -50 -14 57 -23 28 25 19 -48 -39 1 24 20 41 -46 -32 48 -44 -9 -58 -66 30 -37 8 -14 17 22 43 47 9 3 -55 60 52 42 -48 -52 -26 -34 10 27 -15 51 -4 -26 32 -8 57 -54 43 -2 54 34 22 -8 -28 22 -70 -48 28 -31 50 -12 36 28 -13 1 -18 -45 38 -1 -39 -37 47 -18 -29 -17 -56 -37 -21 -35 69 7 -62 32 39 38 27 -20 23 19 -22 -11 24 -49 24 -64 44 -44 19 50 11 -34 -29 46 13 7 15 46 -38 0 24 49 -22 -49 11 -32 44 30 -39 -41 51 -38 -25 -46 0 -26 22 -50 -37 32 -48 28 -61 7 -11 55 1 1 43 -51 -34 51 49 28 14 11 22 47 47 -60 -66 -19 -34 32 41 -28 52 -58 54 -10 52 -38 -16 -45 20 -36 20 -9 29 0 6 61 -4 -5 14 -55 -8 53 -37 44 -39 2 -60 -51 16 44 6 -53 65 -34 48 29 -61 53 22 32 -18 -61 -24 26 39 33 33 37 11 47 8 -19 56 56 54 54 48 -16 -53 0 -26 57 51 54 -36 -21 44 -15 3 -54 -8 45 43
69 -45 -51 -61 -22 18 -27 16 -13 -19 -41 -63 45 -17 -32 -60 -31 32 28 52 -35 7 31 61 -51 41 15 -41 -24 -47 -9 28 57 37 39 -4 -52 -55 -41 14 68 -46 62 7 -45 27 -19 53 -39 40 23 22 -33 62 53 44 34 33 52 26 12 48 35 15 -15 -9 44 -41 18 -53 -41 3 -3 37 -5 47 -37 -6 -4 9 2 -48 -49 55 -48 20 59 43 20 -20 -35 -51 -60 -14 40 -58 -52 36 -17 -6 63 -40 43 52 -34 35 32 24 -14 50 17 10 21 42 53 -4 41 15 3 -11 -51 5 69 -28 -11 -1 26 -44 -56 60 -45 12 -15 49 52 -39 -41 -56 34 34 -37 -65 -50 -21 -47 -66 -40 10 -37 -18 -1 -6 14 -67 60 -51 -57 37 -31 3 -49 0 33 10 -24 22 -38 51 57 -61 43 3 -17 5 -18 49 -8 -58 -31 0 -35 4 -63 -6 46 -51 -31 -24 11 -12 -46 64 -58 -4 -14 50 -54 -69 -20 64 -38 54 33 -40 -29 -61 -53 21 -45 -8 -12 15 -3 31 -36 48 -35 -50 40 6 -56 12 -66 -39 28 58 -8 -24 -1 31 -8 17 -29 -14 45 27 -10 -57 35 3 -24 -60 -14 -41 -45 29 -12 -39 56 32 -14 23 54 21 50 5
-27 -44 -21 10 -27 -55 -14 64 9 23 27 48 -14 -18 58 14 -49 -20 51 -47 -2 24 -37 -10 -55 63 -22 -36 -69 -16 19 8 51 48 -25 -26 37 36 42 -22 -24 19 -18 -42 12 -51 21 -38 50 53 -39 -47 57 -35 57 -15 52 41 -29 -60 59 43 -44 33 -53 -28 52 43 61 56 27 7 -5 -14 3 34 11 -36 -8 37 63 -63 -42 -21 -38 56 -48 23 -43 -13 -40 -3 -28 -54 -14 49 61 -16 34 -58 -55 -35 59 -54 4 1 -65 32 29 -41 26 -44 -49 57 46 -49 -46 -21 -18 50 -54 -63 10 42 -18 -45 -1 -57 -51 10 12 -33 22 5 27 -52 49 -36 -58 -34 -17 24 52 -7 -7 26 1 13 -60 11 -26 32 -44 -26 -5 -41 -36 36 -55 44 -41 -46 -44 -54 42 34 -23 -16 -51 35 -48 -53 -1 27 46 -23 27 -38 -49 -62 6 57 -33 44 60 -15 -1 13 62 57 -25 -28 -68 -28 -22 31 -59 32 40 17 -1 -49 -23 1 48 -18 -35 41 -53 6 44 -30 -53 -2 19 2 50 21 -21 -12 -47 -46 -9 -18 32 18 -10 -5 10 60 -5 38 33 31 -16 50 -16 -17 -49 -24 -52 -36 63 -51 -53 -55 37 15 -42 -5 -64 38 51 -47 -27 -11
-63 62 -23 -19 14 43 57 47 43 -64 -23 24 -35 15 -34 73 -15 19 -7 27 -30 37 24 -58 -47 -4 -12 -20 15 -36 64 -29 -19 7 -65 -31 21 12 -40 17 -24 47 49 -60 44 -26 -1 5 -7 -49 -68 55 6 -70 -12 31 -20 -38 32 6 49 -45 -7 37 30 -52 -59 2 -2 33 6 -54 19 23 15 36 -15 -8 20 -60 -7 -65 58 7 18 -43 -19 44 5 -39 -16 -50 -23 -17 23 55 11 -23 -103 58 -62 -45 -43 -13 33 -39 -66 5 -48 47 5 -10 69 -38 45 -15 -9 -6 -31 -69 -39 -7 -28 52 -82 -29 32 -67 -56 -56 13 -39 -54 21 38 -38 -19 2 -36 -23 37 13 -2 -40 22 -68 -30 -34 -33 -36 -19 -8 24 -56 21 -27 -20 3 50 32 27 -55 -24 -18 40 53 -17 56 -44 57 -50 20 -16 -22 59 34 34 -8 17 57 39 -59 33 1 32 3 12 7 -58 11 39 -9 -54 6 11 15 50 -49 -60 -22 61 25 53 57 46 -2 -2 29 60 12 -65 -57 61 30 49 -46 22 17 -17 -32 48 -63 4 -1 -21 63 40 -33 -17 -10 -58 -13 43 43 -24 -21 29 18 -58 17 -44 -31 54 30 -7 49 33 -8 29 49 7 -62 -19 -24 6 1
2 -59 28 -23 -50 -16 25 -6 -2 -44 -2 -47 4 -4 -18 40 53 -51 12 13 -52 -23 -8 58 43 17 8 21 49 -34 -5 4 19 -15 -42 -8 -26 -58 -61 7 55 -52 14 -19 -38 30 37 -62 -45 41 18 35 -12 -33 48 64 70 -30 -2 -14 1 56 12 -26 -11 -53 6 -52 7 -45 -21 15 71 35 21 -54 9 40 -44 19 -35 -39 32 19 -58 -20 -45 38 19 33 -63 41 -26 31 7 -34 38 -48 -49 36 34 12 -41 14 -10 -48 -40 0 75 33 -9 -50 -15 22 34 0 -15 16 1 17 -28 -26 -52 43 -18 19 39 -63 29 -46 26 74 54 -28 61 -1 -56 -30 -25 -62 24 -23 -38 -10 -22 9 -32 26 -13 -13 13 -46 63 38 26 -16 19 -45 69 38 59 50 -37 -55 26 28 10 -57 30 -29 5 9 -34 -28 23 57 -60 44 44 -3 54 21 -42 -58 35 -50 9 -35 24 55 13 29 -41 4 41 -49 -62 51 -28 52 28 17 -54 49 -11 43 -52 -62 50 -44 44 33 9 20 -2 11 -42 18 34 43 -7 -11 -10 -15 -60 -29 42 1 14 -22 -52 -27 37 -63 7 -45 -46 -45 -38 -49 -14 0 16 39 -58 -27 43 -21 -27 -58 26 47 53 -34 1 22
-64 21 -19 11 13 -27 -16 -60 -41 -6 57 11 -27 -39 -47 -50 13 -58 46 -19 16 50 58 -53 21 -9 53 5 10 -22 -7 -4 -10 41 -1 -35 13 -30 11 7 8 53 16 13 16 7 -38 66 -8 -31 62 -35 3 63 17 -42 9 -14 37 48 -32 -39 -62 18 -10 32 -48 -5 -5 6 -55 -57 63 27 -49 -16 46 -63 39 3 49 14 -35 35 -60 56 -3 -25 5 -30 -2 25 -54 22 33 -46 19 16 42 44 -38 39 -20 -10 -4 -47 -10 -22 -19 -31 59 36 27 -4 -54 -44 -9 -40 8 43 32 19 -11 15 -57 31 34 44 -11 38 55 52 -41 -52 60 21 43 21 52 -26 1 -54 -53 20 8 4 -24 27 2 -19 34 -33 31 5 1 -58 51 -8 -15 -12 44 -23 -63 -63 42 -16 51 45 61 46 0 -62 17 32 10 39 -4 -5 4 16 54 -1 39 7 47 -35 -58 61 -45 51 34 60 -59 28 0 -59 57 -60 -42 28 25 -51 64 51 -25 -5 -7 -34 42 -16 -4 -14 -65 39 -18 4 -3 -38 24 -21 -3 -13 -48 -52 -60 20 41 4 -43 -18 24 -61 -2 -9 34 52 -63 51 44 -56 -52 57 -40 25 6 -50 -60 57 -21 58 51 -21 11 -48 -5 19
-2 -27 42 -60 3 26 -39 -59 20 18 36 16 19 43 -32 61 59 61 32 -10 -41 2 53 56 -18 -43 58 37 32 30 51 6 44 -6 -34 26 -17 -59 -8 -19 49 23 2 -48 -57 -13 58 21 -34 57 -5 30 60 -39 -40 61 23 57 63 -18 -4 30 9 -28 39 -55 -31 48 -38 38 -51 28 -55 -44 -21 8 56 -58 59 31 37 9 -41 46 -29 58 -13 21 -29 -45 -6 -42 33 34 -19 -43 25 -56 49 -59 -35 46 -55 63 30 18 49 -42 43 41 -33 -51 2 -6 16 -49 4 61 -45 -37 -56 -60 57 -34 -53 0 0 -4 -29 26 20 45 -64 -6 9 44 38 -5 18 47 -8 -29 -16 53 -35 -15 36 12 -14 -19 -57 39 -9 -20 -62 -37 20 -30 -16 -60 0 62 -25 -33 26 -22 -60 -48 -20 -55 4 15 16 42 49 -32 -58 21 26 -6 40 -27 -4 33 59 22 -28 3 -10 -61 -34 37 -50 -38 -10 4 -32 49 28 47 27 6 16 -62 39 51 4 25 58 -33 -46 58 27 -28 5 51 14 62 -32 -44 -3 61 -35 -63 15 -17 -24 -2 -6 -6 -12 62 -3 62 -14 -51 -59 -7 21 -36 55 8 32 -30 37 -51 -42 -6 9 22 -6 17 56 -16 30 -60
18 64 -33 -39 9 50 -11 -41 -38 -58 37 61 22 -62 36 5 59 21 -47 -57 37 11 33 0 -22 -53 -63 -37 3 -3 22 -42 -16 14 -7 -25 50 14 -31 36 20 -46 33 12 20 58 44 36 -2 74 -32 -11 24 -27 66 -8 70 4 1 -92 29 43 -58 -77 -59 47 -8 61 47 47 -22 -38 34 -1 -11 51 38 27 28 5 -13 38 -1 40 28 -10 -6 20 57 -2 17 -21 63 -50 -32 40 43 34 -45 -66 -26 -31 -22 44 53 29 39 51 20 -69 -44 -31 81 -13 -8 -77 -36 -57 58 -66 -55 -34 -16 36 -73 -62 14 -6 -49 -10 1 39 48 -75 -15 -16 58 -21 -75 -12 -57 7 15 3 4 -55 -62 12 3 -4 -4 -7 39 36 14 -5 -47 -36 0 13 27 33 13 -29 -5 22 -34 -49 18 -65 35 -16 16 -27 35 -61 -58 29 -22 -25 -3 30 36 30 19 -19 35 37 -64 35 -51 -19 11 -40 8 -38 48 -64 25 33 36 -48 -25 -11 18 -65 9 -62 -41 -44 -38 -38 37 -38 -38 -60 -69 -33 70 -52 15 -15 23 2 -39 -75 -20 20 -33 14 -32 -36 -78 -16 4 58 28 29 19 55 37 -34 19 -72 -34 -40 -9 -24 -1 -16 53 40 13 -22 -48 12
-29 28 -63 44 57 -19 42 8 -62 10 -35 -8 -3 -14 55 -16 19 -34 -24 64 0 -4 -27 -32 24 52 -5 -4 -63 48 -14 62 -20 -60 29 -49 33 -15 28 -50 -25 30 -59 59 -47 51 17 -43 45 -20 -48 -21 54 56 59 -14 -39 -29 -26 54 -12 56 -63 40 -30 -23 32 12 -32 25 19 -1 57 -40 32 -36 25 48 35 49 54 53 61 -53 40 19 -41 -10 -28 20 -22 -7 55 -8 -8 -39 -51 -17 -34 12 -1 -40 -61 -19 -29 -3 -18 -45 -15 5 -14 -30 43 -28 -17 -19 1 10 54 -9 -64 -35 -47 -23 -63 -57 17 4 -6 -8 35 61 -38 -5 -38 0 58 -37 13 61 21 -23 33 47 50 -61 28 -41 -42 30 -14 -48 -40 53 61 -7 22 33 -21 -31 -13 -58 61 12 -5 50 -51 -15 8 -55 40 -56 -4 -49 -63 -38 45 -40 -1 -21 42 33 -17 -37 -64 -8 -26 -29 59 -44 4 -44 -18 -60 6 23 25 37 54 -39 -50 -58 8 18 4 22 -57 -18 -12 -30 -22 -3 -36 27 -19 39 50 -61 -35 41 38 -26 55 17 -18 18 -59 -1 39 43 37 27 30 -44 -13 41 29 -28 -50 -62 42 24 -14 -25 -61 -6 53 -3 -24 21 -34 -6 43 54 16 63
18 27 -19 -5 20 28 29 -7 -36 9 -37 -5 -25 -14 54 57 -45 2 8 -5 48 -6 19 41 7 -40 -62 12 -2 -57 36 8 -30 0 46 63 32 -2 20 -28 38 -22 11 26 6 23 -3 16 42 20 3 18 0 -38 17 -5 37 -29 46 4 38 57 17 -45 70 -54 -23 32 10 36 40 5 -55 -31 -10 -26 15 53 16 44 -64 40 4 53 -36 9 58 -47 -46 13 41 22 -64 66 12 -4 53 51 34 57 -25 63 55 16 -61 -2 60 3 14 47 -9 -5 -13 65 9 -27 56 30 -8 48 12 18 -32 26 -62 -60 18 60 41 -48 -22 -46 10 -15 62 -45 26 -12 -10 -49 -23 -30 19 -38 46 -21 37 -13 16 61 -1 -44 -14 31 -1 -40 -27 -8 4 11 -55 35 -36 38 -52 -1 -5 -16 6 47 -46 28 -3 -10 -42 16 57 49 44 30 -58 -20 -1 -11 7 -35 11 15 -18 -38 58 68 -46 2 -64 -4 51 26 -16 36 41 -9 -28 66 46 -60 32 19 27 -42 -48 -2 56 -41 39 -25 26 -11 -4 3 53 -24 15 -65 44 34 -11 -53 -61 -18 -67 -26 54 57 46 -36 31 -20 -32 -49 -14 24 -4 37 34 -59 -44 16 53 42 9 27 -56 14 -42 68
2 7 -20 25 -19 -29 59 -54 -61 -54 3 -51 -64 -10 -35 -80 68 -51 -39 -42 -81 -21 -14 -46 -59 -38 -64 -3 0 -91 17 27 -38 48 32 -32 14 -25 -34 -31 -18 -18 -44 -9 -10 18 -7 12 -13 -51 -68 -55 34 -57 -36 29 -55 -63 -78 -81 -65 62 -80 -48 41 52 12 36 59 9 6 -30 0 -1 -1 -46 -3 -38 -53 31 -42 -26 -33 -42 -55 -33 47 -35 59 12 -3 10 19 -7 -69 -28 -14 -35 -20 -56 -58 -61 -35 -20 38 28 -45 47 30 30 -71 15 -15 -52 7 -60 -31 -81 -30 -18 -11 -11 44 1 -49 -97 -34 -7 11 26 -63 22 29 -63 -32 -108 -74 -42 -12 2 -23 19 21 -48 50 15 -57 34 35 25 -47 -17 -57 -58 10 64 -45 -39 6 -10 -80 -54 -66 3 -23 -1 -8 -28 -63 -75 33 3 -73 -64 -57 40 -53 16 31 -4 -58 2 -37 -69 13 -8 -29 1 -11 -49 -69 3 -12 13 -38 -17 -78 -66 21 -32 -56 51 -8 -109 -46 1 -49 -51 18 -59 -73 -81 -48 -25 12 -53 35 -50 -22 -80 -51 -22 -53 -14 -26 -64 7 -63 24 35 -15 24 -7 0 34 -96 45 -28 -16 39 -4 42 14 -21 -36 -23 -4 -16 -6 -83 0 5 61 -51 0 20
34 20 -29 -1 62 34 28 28 39 -53 -38 17 -40 26 19 2 39 48 17 12 43 -11 28 -48 -16 27 -54 53 -45 19 62 33 -44 12 62 -46 -30 -33 -9 30 -10 29 20 -18 49 -31 -41 -56 2 12 -47 3 -35 33 5 10 42 3 11 -34 58 -25 -23 -38 -59 67 -14 33 -26 2 -4 -18 -46 -58 -42 -12 -11 39 -23 31 57 -52 -16 -55 63 24 36 55 51 35 -42 -21 35 41 -11 -61 54 32 -21 -33 19 -8 18 -48 -50 -63 48 -39 -46 42 66 33 -32 0 25 -50 31 -53 -29 14 -46 38 -45 -28 -44 47 1 -1 33 16 0 32 41 38 37 18 -26 11 -18 -21 -3 47 -21 -38 5 -40 -19 27 45 -18 -5 26 -16 -55 -10 50 -45 -29 -54 -54 57 -49 18 52 20 -10 -52 -34 16 27 56 38 54 55 -45 -2 -59 -45 -41 37 -49 -40 -12 -16 43 -36 -16 32 -23 15 29 -65 13 -29 25 -3 -24 -44 33 -1 -46 -42 53 40 -40 -22 -29 14 -19 8 55 -57 -62 37 -47 -12 52 54 -25 -55 -41 20 -21 -60 9 -19 29 0 19 -35 56 -39 -35 55 33 -45 -38 -57 27 45 -23 -24 64 1 -57 53 32 -17 41 -56 26 27 -38 -39 -26 46
-16 -45 8 45 -44 21 15 30 43 -29 -43 -29 3 46 36 -23 32 -40 52 10 -15 42 -33 -44 48 -3 -3 -70 -41 50 -13 -23 -25 45 -61 22 -59 -44 57 53 6 -44 40 35 -27 -48 -46 3 61 -36 -38 -54 55 -25 5 -20 41 -49 -17 -29 15 -50 -54 8 -32 -37 48 2 -47 30 53 10 12 2 5 -16 50 5 -1 -43 7 -47 -50 -14 -30 55 -23 43 -40 3 -63 54 -45 13 29 -64 -45 -19 -6 -53 -19 30 -16 31 14 -4 -26 -24 -42 51 53 17 -26 39 -29 56 27 -13 -7 34 -25 19 -19 -10 45 34 52 19 32 31 -57 48 -55 -1 9 -4 27 55 8 48 3 -54 70 -37 42 5 17 -57 53 22 -10 -36 -20 -18 51 -27 -29 -5 -11 0 -46 47 18 36 -36 42 -43 60 2 46 -61 63 39 42 -16 65 13 -18 0 56 -32 -1 40 38 -39 37 42 32 52 36 -28 22 -7 42 -59 -3 7 50 -51 35 10 -57 -52 28 40 -4 57 25 -41 18 -19 65 -2 19 -61 -31 -18 -36 -46 -59 33 -50 -22 42 43 52 -26 42 50 -60 -33 39 51 -63 18 -13 -7 20 -36 -1 -53 35 -4 -15 -55 -20 -37 13 -15 -57 36 -18 -13 58 -19 18
34 -27 -31 -20 1 -60 49 -22 -34 35 33 33 37 7 -14 43 -28 59 51 -39 -1 41 -45 23 45 22 60 49 -20 39 -32 -46 25 53 35 15 -34 -32 -7 8 37 -44 -58 -31 20 14 -5 26 54 6 -50 5 -15 2 -36 -4 42 18 31 -45 2 -28 -54 48 -63 37 -21 -43 -12 12 10 -7 62 -49 -47 -15 -64 23 -47 21 6 -10 -21 2 -55 13 12 11 -1 29 -23 63 -53 41 -21 -58 19 -60 -6 2 -56 -29 -46 -61 54 4 40 59 -52 63 -48 -38 -42 -4 -19 35 -8 -10 38 -8 2 31 37 -58 25 -19 3 -9 -28 -19 48 26 -63 3 -18 26 -51 3 32 -62 -39 -34 -25 37 18 62 7 -25 -27 62 -48 18 -29 38 40 6 -18 51 -50 -44 62 -15 24 -47 30 -43 15 18 7 -62 -34 19 61 8 0 -53 5 53 7 -46 60 -19 14 -51 34 5 51 5 47 19 -63 -48 -19 -60 16 41 25 27 -29 -43 7 -22 58 -43 17 -42 51 -1 49 5 30 -53 -16 51 -6 -68 -1 -8 43 26 -34 69 16 7 57 -62 -52 -60 -25 -33 -56 -59 -50 -20 -21 50 1 41 41 30 10 3 -40 53 28 8 14 -58 58 -41 4 -54 -15 46 -13 49
43 20 32 -44 7 57 1 -65 5 53 64 7 35 -47 -13 -31 43 -10 -24 -23 0 43 -17 30 -12 2 4 17 -26 -43 -29 -11 49 -37 -26 -56 -40 -11 -23 48 2 -49 32 5 43 -24 -9 -65 -37 -32 -10 56 16 9 42 10 14 -5 -7 29 52 -39 42 44 -12 -40 -41 -33 34 -34 33 43 -25 -53 35 24 22 24 13 43 45 7 28 -59 54 6 16 -45 -49 -29 27 32 -39 -30 49 15 -18 44 -62 26 -28 28 -49 13 6 24 35 41 -32 7 -42 -41 -13 22 13 63 -62 -37 -45 26 6 29 57 -56 -19 40 -5 14 -45 -60 41 -15 41 -30 -18 -27 -57 -17 -20 56 -37 63 43 -56 8 11 31 45 -16 -4 -18 18 -37 25 27 30 -40 -43 9 28 10 -29 33 -13 61 -58 45 -55 36 18 13 7 -53 -32 2 53 -54 -25 -56 -11 21 51 36 -28 5 -55 -62 -27 -34 60 -28 38 48 19 -59 66 -37 40 15 15 -6 38 -54 36 -32 -22 -43 -8 63 -14 -7 -34 15 41 -11 24 43 -56 -51 3 11 -17 -54 -19 -68 -2 -39 -33 -8 -40 35 -19 -46 -49 0 14 -6 -17 10 -14 34 -14 53 13 -13 -25 7 27 26 -46 3 -16 -24 -5 -42 -28
2 -34 62 -3 -16 31 -23 38 -5 -39 -18 -17 13 -53 28 -29 60 2 -15 7 -23 66 -3 -20 48 -37 63 33 27 55 -56 0 -3 -49 6 -21 55 28 -49 6 -34 1 26 -60 -35 27 45 12 -13 -63 -42 -10 38 17 -39 -37 -52 33 -30 -54 -4 -38 -30 46 -17 1 30 -5 -20 -30 -34 -2 49 -2 -21 37 -4 0 20 69 47 -60 -2 10 54 -59 28 -18 -16 -16 55 -47 -34 30 -12 -42 8 -36 -21 48 -43 15 4 -19 6 -41 53 -23 32 49 -13 17 -6 -43 -18 36 -48 -6 -26 -20 37 30 42 -35 -47 -36 51 18 -3 18 -13 -47 30 -49 15 47 -19 13 -25 -56 15 14 25 -8 58 -28 -32 -57 7 -5 30 21 -18 -69 -22 -32 35 -57 12 8 25 -32 40 -2 -56 57 -22 -40 -37 15 -2 28 8 -45 -42 12 9 -45 57 68 -37 -43 -44 -61 -41 59 -31 -55 -43 38 22 63 59 -33 -25 -16 19 13 -26 28 25 46 13 -37 -1 -48 -21 38 34 59 38 -14 56 -19 18 -6 0 -60 -41 -37 19 -42 -23 54 57 -54 49 52 27 -23 -40 -38 17 27 -37 -23 57 -4 31 -39 22 -26 0 16 -46 -44 65 -8 -46 -48 28 -69 56 19 34 -12
24 -49 -5 45 30 -13 41 -39 -24 26 -55 39 25 48 22 63 3 -41 -65 -43 29 -47 16 13 -3 45 37 -16 -17 37 -38 42 50 -10 16 59 52 -23 -36 17 -35 -34 62 42 35 -25 -15 -52 9 -23 1 24 26 40 50 55 17 12 37 45 5 5 -29 31 -35 60 44 -54 -29 -49 37 -33 24 -17 -60 37 -26 46 -20 45 -6 5 -25 57 27 37 9 43 -4 33 -42 -54 -56 -48 -51 -47 27 80 -2 64 18 -51 17 6 -48 22 -52 31 -27 5 20 29 -32 15 -2 49 45 -71 66 -18 30 -25 -60 -43 -65 41 -21 -25 50 40 -45 1 32 10 -46 24 30 46 20 2 -15 56 -12 16 13 -58 42 32 14 19 -19 -21 -51 42 -6 33 -29 -10 39 -16 42 20 -50 48 -51 -2 -32 19 -17 -43 29 115 9 -65 -17 31 -34 -25 -1 26 -44 6 39 -17 -22 -20 -25 -41 -7 42 -69 54 37 50 78 50 -16 -37 24 -22 -9 -43 -56 31 -51 -9 -3 41 25 -23 17 47 -56 -56 43 48 -49 -30 66 15 -6 56 22 -34 -36 49 -39 -49 -12 8 49 -45 -8 20 -31 -10 -42 46 -47 3 -31 -22 -39 28 -57 -59 26 -14 68 40 -10 14 2 44 14 -53
52 36 -50 40 -41 46 8 -58 -45 28 59 -52 20 -14 64 36 -32 23 14 22 18 27 14 8 53 -62 -18 22 -47 -10 -32 -1 25 -52 54 -37 28 11 -49 -34 -3 -58 -40 -7 14 -27 31 -48 -39 -35 -38 48 12 53 14 26 42 -37 19 13 -49 58 -28 48 64 -18 -40 -14 -17 64 -4 7 42 -51 33 50 14 -50 34 19 44 -34 -23 48 -58 42 -43 58 -21 30 -42 -58 -22 -43 34 27 60 12 -36 64 -1 -41 -48 16 29 9 -61 -11 24 54 -49 -16 -12 51 -52 31 -40 -17 -6 29 56 -4 -51 18 -1 -1 53 -60 42 1 24 -16 -37 -58 52 -52 35 -23 -50 -56 -25 -62 47 -50 2 55 33 50 -6 -3 61 56 55 6 -14 10 57 8 -33 -21 -15 -8 -32 8 -39 27 60 35 -55 62 36 42 -8 47 41 49 41 46 10 43 36 -12 -52 -9 -42 55 -27 -1 53 4 63 -45 22 -5 29 -19 -63 -4 -51 -9 63 -57 -1 -35 42 47 -13 2 53 -4 -32 -45 56 19 -29 -49 -23 -40 -27 40 -30 63 -43 -42 38 4 -48 9 52 2 40 33 -7 61 32 49 15 -40 -59 44 -31 -14 7 2 -64 -48 24 -6 -36 34 -1 19 -34 -39 -5 46
26 -38 -58 5 35 -13 44 19 54 62 -23 4 3 28 -25 57 -50 -9 9 40 -8 -16 -39 -56 26 -50 1 43 6 -15 -12 -24 -60 22 60 -41 17 -12 44 -20 4 34 -42 -1 -53 43 -15 48 -20 40 -26 -58 58 -1 25 36 53 -51 -8 -29 -6 54 -2 15 -2 -10 51 -21 -34 -14 53 56 -19 43 43 22 -49 -11 22 51 52 58 44 -25 -25 11 -11 -12 15 41 -7 -21 -34 27 -18 20 -64 -22 5 -47 -6 -15 -28 8 -11 28 -32 -54 -31 8 -43 37 2 -17 -57 0 39 -54 2 -13 -8 -2 -21 6 20 -51 24 51 34 -6 17 47 53 -5 -58 -59 -5 3 -5 -33 -61 -58 -26 13 28 -39 -49 10 -46 19 51 50 -37 20 -11 -52 -27 32 21 -13 -50 6 -18 22 45 -56 -36 9 21 15 18 40 53 46 -44 22 12 29 5 55 -6 -15 6 43 -2 -52 54 7 -2 17 -10 33 9 15 -10 -6 -14 -34 -28 -14 15 -1 59 25 -15 61 14 -63 9 -37 -25 -58 35 53 19 20 39 -33 -33 -28 31 50 28 -47 44 12 38 -8 -43 -43 7 13 -37 -64 28 8 -61 3 17 48 -60 10 -43 60 11 38 53 -21 28 -4 17 -1 -34 -33 -54 -23
60 -63 59 -64 -13 -9 -52 -41 48 57 4 15 -14 -38 -32 -43 54 25 -38 -54 -40 63 62 48 2 -42 -21 -62 25 38 7 28 -4 32 62 -38 50 36 52 49 -60 56 -47 55 51 -44 48 -58 2 19 31 36 37 -48 -59 18 3 -61 61 -5 -16 29 -42 15 34 -56 -43 -52 -2 22 53 63 2 -25 -22 8 10 37 62 21 34 -10 -7 38 -40 57 -1 45 44 -52 -25 -23 14 -50 39 6 56 -33 -30 18 35 -23 41 57 -28 62 -28 22 -47 4 -34 58 -40 -1 -5 44 -64 -19 7 -39 -15 48 42 43 5 22 8 38 -62 14 52 -57 -43 31 -38 -8 -31 -12 -4 63 7 6 -54 49 47 41 30 -52 34 -9 -22 25 -61 37 -28 44 31 -23 48 3 -24 36 -58 10 -25 13 34 17 -49 -29 -29 57 -62 36 0 0 5 -7 -47 -40 18 -24 -7 -63 -27 13 -39 -45 24 -15 -52 -61 -27 -59 27 -56 35 -42 19 31 -39 37 -34 63 -58 -1 -8 50 16 -21 -63 -22 -23 -59 46 -16 -33 -48 0 -63 1 -21 -35 25 9 21 -62 57 8 -8 20 58 -41 3 45 57 63 -14 -46 -18 48 -20 -37 27 34 21 -33 -17 -36 52 7 45 15 15 24 6
-52 30 18 0 6 -12 20 -59 51 -41 -34 14 -29 -51 -11 55 70 38 -46 43 -61 22 -61 -55 -6 3 25 -4 38 -56 -33 -13 -31 2 -8 3 -4 4 16 17 9 61 -35 -47 55 4 -59 -50 -10 -53 31 2 -30 8 41 2 -60 13 60 10 46 -62 -47 -63 -50 22 -14 4 -41 2 -27 46 52 34 32 -49 -49 9 0 -12 11 56 -19 5 -40 -10 -2 -15 57 53 2 42 -57 -6 34 -43 -53 55 0 21 46 9 45 35 -6 10 8 16 14 -58 36 -45 -55 -43 60 -50 61 -68 11 29 -21 50 -52 -2 4 62 -65 59 30 43 61 46 62 -1 -58 -50 -25 43 -44 56 -45 10 40 5 16 50 0 -40 -32 36 -45 -44 52 -69 -5 57 23 -25 -48 60 -48 -13 45 -62 30 -2 -4 19 -16 26 32 40 -18 56 -45 56 66 -53 -44 -56 3 59 -6 -17 50 -36 -49 9 -12 -43 56 -47 -38 17 21 64 -29 44 26 -43 -48 13 -26 0 27 26 42 3 -28 -34 38 50 17 10 31 -45 32 31 51 11 14 57 40 -49 -1 -41 -12 13 -56 -44 -25 -17 -14 25 1 30 -44 -34 -43 57 -59 -6 -8 -51 48 57 48 -25 -14 11 17 -54 -28 6 -11 -17
2 14 1 -55 54 -34 15 57 -7 -63 -1 42 -25 -53 20 11 -14 50 -29 34 45 35 28 -28 28 -39 20 -47 6 53 8 9 -14 -24 -32 56 -27 13 -46 1 51 22 60 -53 24 -27 -35 53 45 0 -13 -59 -55 32 -7 33 -22 -28 -30 43 67 46 -63 14 14 -52 -39 -33 43 44 23 -14 -15 -55 -41 49 -33 -42 -5 -29 63 -18 21 -4 41 2 -44 -10 18 -31 41 21 -34 -38 -49 57 37 62 1 58 -24 28 -5 -16 -19 -17 28 -20 -50 -47 38 -16 36 60 24 23 -7 6 -14 17 -43 -15 9 13 -62 6 9 53 49 -44 -50 -51 34 57 -62 30 44 17 -13 49 -64 -12 -58 -22 -21 12 51 2 -14 -38 -16 -54 -24 0 22 -54 35 -26 10 -40 47 -8 -31 -34 13 21 -31 -20 35 12 -28 -22 30 -59 9 -40 23 26 27 -36 19 51 -51 61 -19 -27 42 -32 24 -57 -10 -31 -31 37 9 32 23 -21 -21 47 28 -30 47 -53 42 46 -12 4 -1 29 -17 52 24 -30 60 -30 -9 0 5 42 -20 -31 28 -43 36 47 44 -43 23 -39 62 23 24 -5 28 -4 55 42 -40 57 18 -26 1 -40 44 1 -12 29 16 -63 36 1 -39 51 29 35
35 -48 -4 18 -19 -37 -38 -29 17 -45 -30 -31 -19 -32 40 37 -57 28 40 -42 -58 55 2 -36 -32 36 22 27 -5 -2 -57 -50 -27 -17 33 50 -56 -27 24 26 14 10 -6 23 13 2 -37 -29 46 12 -48 47 19 -51 14 -16 47 40 11 -5 38 41 -45 20 -29 36 -16 -15 10 4 53 -15 -51 42 35 1 -35 40 -27 19 -24 -67 39 28 30 38 -8 -24 13 -9 53 6 50 42 26 -57 -29 -61 0 -39 7 68 -24 0 -32 9 69 -4 3 28 -35 -3 6 -5 38 47 -9 -54 2 -63 55 6 18 -8 -15 -56 53 67 -22 52 53 40 -20 -39 24 44 -18 50 -24 26 -15 46 -1 23 -19 -59 -47 -61 21 30 5 -59 24 -35 -41 -3 31 -63 40 10 -41 1 -45 42 -17 -7 -23 57 -56 26 -18 16 -41 -29 0 69 70 -5 -61 -15 -40 -26 6 29 54 -56 44 11 -8 -40 -54 -44 60 17 -46 53 -2 8 -18 -2 0 1 64 -16 25 -32 53 -40 -9 -58 63 -29 49 25 -34 8 -9 -7 -20 -46 -27 29 -5 -8 50 34 3 3 -32 46 -21 -36 -22 -50 -36 -69 -14 9 23 59 47 -6 -2 -30 -25 -58 -57 27 23 42 -7 -58 4 -18 56 67
61 38 30 -13 -30 22 -42 22 14 18 4 4 33 55 -60 -33 64 11 19 39 5 -7 29 39 -37 24 -36 -11 -39 9 -61 51 -51 40 -30 -4 52 56 -34 40 30 54 -35 1 -24 29 13 -46 44 4 -6 -5 15 -38 9 -17 40 1 61 52 14 19 -36 -57 1 49 -25 27 53 48 -30 51 24 -9 32 26 15 -24 10 -43 43 62 44 -48 -14 62 9 58 24 -40 32 63 49 -55 32 37 43 1 -4 -48 60 42 5 4 43 55 28 -1 -10 20 20 7 -61 28 -30 62 -10 61 -16 -42 55 -6 -9 -5 -30 -7 33 -36 5 -42 58 1 23 49 -42 13 5 -27 42 45 7 -23 -33 -14 39 -13 -4 50 -42 -10 -18 13 -38 7 60 22 -2 -35 -56 -19 61 -25 58 -53 -30 -21 33 -25 -11 34 -46 40 51 -45 12 27 51 54 58 -29 -6 17 42 35 -38 37 -28 15 -56 61 42 -29 54 -67 -58 1 13 5 30 -26 17 -3 -41 -36 -2 -33 -52 -16 16 -3 -13 39 50 22 41 -51 -45 -53 -19 -27 -12 -46 -42 -8 37 -39 24 -29 -45 32 30 -41 28 -30 38 -2 -19 -30 -43 -46 58 13 49 16 32 32 -25 -29 37 27 3 -10 -20 -32 26 49
40 51 -51 13 -33 -67 -43 -49 49 21 38 27 13 -39 -44 -29 48 -58 3 39 -17 66 -52 -29 45 53 20 55 31 -14 -16 -36 26 40 -65 -63 -61 53 4 47 36 -53 14 47 -26 -5 31 39 -55 23 56 23 22 24 62 25 4 8 56 36 -7 55 43 45 57 -15 -47 -29 13 -48 61 34 19 50 -27 9 4 31 -18 -20 -28 -5 -49 -18 -60 -64 -40 -8 43 -29 32 16 56 -47 58 7 57 61 -38 -48 11 52 -3 51 14 24 21 55 49 35 -63 1 41 -11 -21 3 23 42 -42 35 -47 21 -49 -37 20 -60 25 -61 37 -26 -39 29 31 35 -27 36 47 -67 44 22 -66 49 13 -5 61 -72 63 -46 43 9 -1 57 48 -18 36 11 -39 13 21 35 46 11 43 -3 -19 7 44 15 -22 34 -16 44 -32 35 44 57 -52 -22 15 46 39 29 -48 31 1 50 -3 -56 58 12 -21 37 -48 -32 29 -51 -34 5 -65 9 -18 23 -46 -2 30 -53 50 -37 -9 -5 -40 -13 2 8 1 -24 -37 -49 60 15 -7 -10 61 -52 -45 -33 -30 -16 -58 -48 66 23 -46 -34 -8 -1 -2 -33 -39 22 -30 48 -40 0 -16 -2 8 -41 0 60 -19 34 45 -27 20 58
-56 -36 1 -25 64 -22 33 40 27 -31 -42 55 60 47 69 -55 21 46 37 8 -15 -16 -59 10 -7 54 -6 27 22 -40 -19 -12 -23 40 19 -53 44 -37 1 -44 -10 36 60 -30 44 17 -7 -10 32 -53 22 43 -22 -12 -43 38 16 56 -28 47 4 -62 8 28 41 30 -57 -34 51 -35 48 21 -50 -31 10 -23 25 -13 26 1 -27 49 29 -46 22 21 -1 -65 2 -65 -65 -34 56 -42 19 -8 -35 34 -32 -13 -2 -35 5 -24 19 7 -23 23 56 -16 12 -33 18 -62 -29 -23 -1 20 -21 32 48 41 -9 -15 39 -64 -48 -47 -42 -45 36 32 -55 -54 -54 58 4 -63 6 -28 -35 -42 -25 10 -21 -50 -57 42 8 -12 -47 40 45 -2 35 -41 -36 -6 -20 -25 -64 -5 -28 51 -53 15 36 24 -21 21 -3 -13 -47 49 -49 8 51 55 -44 -70 5 39 8 26 -10 -59 -15 -10 -57 -46 -51 -15 5 11 64 -25 -11 -7 13 25 -2 12 49 -62 -31 27 7 20 1 -32 -16 1 5 4 -5 62 -11 0 -17 -35 4 -36 4 57 -24 -21 -15 42 27 2 -13 -52 -29 -21 -14 -67 12 10 29 -37 23 -28 -6 -29 57 -29 -35 -49 15 -28 23 -48 -52 46 37 -43
-49 -11 68 -25 54 -21 42 -20 13 42 -49 17 -17 53 27 42 22 -51 16 -44 21 -22 62 -45 -8 19 -38 65 38 -1 32 30 29 50 50 59 -47 13 8 -43 -52 33 -3 -61 68 1 9 -28 -1 50 -4 35 -24 23 -26 -9 46 41 -6 -16 62 -44 -57 43 33 28 17 7 4 36 -61 32 34 6 34 -14 21 17 -10 55 -2 55 -2 -53 -23 20 -19 0 32 -60 -63 -40 69 -56 53 -36 -31 -4 -13 20 17 29 12 -29 47 -51 63 -6 -21 54 52 -60 56 7 59 48 -14 -1 -19 -32 53 -8 -42 43 4 30 -51 -61 48 55 54 -56 49 13 53 -29 32 -14 48 -38 -46 -7 47 41 13 -43 -56 -13 40 37 -19 -36 2 -59 19 -19 -50 11 -27 61 -42 16 10 18 20 23 -11 57 47 -37 46 -48 -48 -18 -42 -24 -50 36 -6 -24 22 -10 29 56 40 8 -2 -52 16 45 0 60 10 20 54 11 -51 55 22 17 35 -32 10 -28 5 57 -41 -41 -60 -25 15 52 62 -73 -71 -25 7 -5 -45 43 -20 -54 -1 -59 -33 24 -25 -8 -52 -61 51 -34 -46 -69 36 -51 53 -31 49 16 -18 -47 28 1 61 -27 -50 -34 -51 15 69 46 -25 -18 -24 -52
-15 16 -47 28 40 -30 25 21 23 -10 11 56 -25 39 -27 13 23 19 15 23 56 45 48 32 -42 -21 0 -28 41 -49 -6 -31 -44 -14 27 -53 35 12 -32 -19 -12 13 -42 -40 -28 40 4 12 -51 11 8 -67 -3 -24 54 -64 -47 61 20 45 52 27 2 -50 -52 39 1 17 -20 12 -45 36 56 61 -60 -49 19 -5 59 -47 17 -27 -51 -54 26 -12 -45 36 24 6 56 58 35 40 -38 15 -18 -3 -11 -60 4 -35 -11 -2 35 30 25 7 54 25 -3 24 71 14 -7 -50 -55 28 -30 -46 34 41 53 15 52 -53 29 -2 14 36 9 -10 -46 -57 -17 35 -48 -15 43 -52 -5 39 21 45 -48 38 -25 28 28 43 17 11 -65 -10 -52 -9 -63 40 18 34 16 8 28 -57 -56 -3 45 71 12 -62 -39 26 35 -29 84 64 43 34 62 50 7 -21 29 -40 -34 44 44 -15 26 -12 -30 58 -13 -16 71 47 -65 43 -34 -70 26 -45 54 44 -62 -67 43 36 22 -8 25 55 -37 -18 25 32 26 -15 50 -53 -37 -10 -25 52 -51 -55 52 17 -31 49 2 -8 -41 48 54 -50 0 -22 -36 22 58 -31 35 -14 -13 11 -67 21 -11 36 11 79 -10 -24 43 55
30 -27 -36 3 -37 -60 -49 43 50 -29 -14 62 8 40 -33 2 -21 4 61 43 -31 -48 -57 64 9 -7 13 -62 -1 17 50 -3 -21 52 15 -11 49 1 -31 39 -54 -6 -7 -23 -4 -53 6 -61 60 59 -57 42 15 -44 12 18 25 1 -23 -1 -64 13 5 19 -59 41 -58 -29 -7 -21 -11 -51 33 -51 21 -4 -40 24 -3 -18 -17 -53 -51 -29 63 -52 59 -31 15 1 63 12 42 51 -25 -29 -4 54 62 -49 -59 50 -11 26 -61 -33 -35 -36 12 -26 3 -58 -63 7 49 42 49 -25 -45 54 59 -32 -16 59 -55 -43 36 6 1 24 61 -53 -13 63 -17 51 -41 -15 19 -62 -35 -13 18 -10 -5 52 26 5 54 -42 -60 43 15 -38 24 57 13 -36 38 53 60 17 56 10 -30 11 18 33 -28 20 45 -12 -48 1 -20 -27 37 55 38 12 41 39 21 2 -29 -62 39 7 -14 62 -28 43 46 2 -37 -59 46 2 63 -46 23 -33 6 24 0 -19 7 -39 -57 -21 50 4 29 16 28 -63 21 47 -31 25 -45 -35 19 55 -1 -13 -25 -40 -21 -12 -60 -52 6 -51 21 -28 62 -6 34 -3 33 17 -42 -33 21 29 41 13 21 34 -56 44 14 27 30 41
-32 -49 -6 27 -53 -20 45 10 -16 -23 10 -83 34 -10 10 -113 26 22 -15 30 6 42 -15 -43 -28 -57 12 66 60 -69 -62 -74 -61 -9 -22 -36 -54 0 -56 38 14 17 14 27 -62 -22 1 -27 62 -23 20 51 24 -54 44 28 -31 12 25 -9 57 60 -15 -103 -88 -27 14 30 51 -21 55 -4 -32 -48 5 30 24 -69 28 37 -18 18 17 -74 -6 8 -44 -67 38 9 -70 -89 11 24 26 -7 -36 43 -57 46 7 -44 -10 -21 18 57 39 54 -17 -32 14 -59 82 -68 -33 14 45 -2 8 -61 93 -63 7 46 -10 -48 27 -11 -12 -66 -32 25 64 32 -8 -102 -59 39 48 38 -11 38 -43 -29 89 38 -77 -30 -48 -24 -67 -5 -41 24 20 -20 -36 -12 6 -8 -20 -42 -35 -33 3 -49 -31 -90 14 -22 -49 36 18 -9 51 38 -6 39 -32 78 -7 -13 38 -74 26 -22 36 -42 -93 53 -68 -67 -69 19 66 -50 -20 6 -46 -69 -30 -77 -43 -84 30 -68 34 19 -26 -47 70 10 -48 -34 -57 38 -35 -52 -53 -25 39 28 -6 98 -32 58 -59 -57 18 -65 9 -28 54 -58 58 -14 -86 -60 -52 56 18 77 49 1 -71 1 29 2 39 17 -7 9 30 31 -15 7
21 39 -5 -1 -17 57 -45 7 47 49 -25 50 -57 -3 36 -57 5 -61 3 -23 56 -38 -45 -33 44 -49 19 -37 10 38 49 22 -28 -63 1 -44 33 -34 34 -12 -9 -4 -24 46 -10 29 -36 60 63 25 -30 -63 43 29 19 -15 4 -10 -40 -50 -39 -7 -19 30 -54 17 56 -15 -8 -50 -12 -52 -20 29 -12 -43 24 42 21 8 6 22 6 60 -10 -51 27 -45 -6 -62 25 -47 22 1 35 -46 -49 50 -27 -41 12 15 -44 5 -27 41 -36 -48 59 36 -45 55 9 -62 27 -38 2 -53 -41 10 -29 -55 -13 -51 -37 -12 47 51 -31 2 -32 -13 53 -61 -47 -61 -12 -42 -11 8 -14 40 27 -37 28 -64 48 -45 45 -59 -56 48 -50 56 43 -25 -15 -61 51 -32 -44 -19 44 62 19 -36 -2 14 48 24 -30 38 -14 -59 -34 20 55 2 11 3 -63 46 -62 -14 -36 -47 -55 10 55 -18 -30 -2 12 18 -39 -7 -30 24 13 -18 57 -23 52 -35 -55 -55 -59 22 34 10 10 -58 65 -41 -39 38 20 49 -20 -59 -2 0 -24 32 -45 -2 -33 -34 23 64 -61 16 25 11 34 -30 -39 -45 -25 -50 20 11 -19 -6 -41 -2 57 19 -40 54 46 -40 -59 -53 -42 2
54 60 59 28 25 -1 -48 36 47 -27 38 -53 -2 55 -58 -15 20 14 53 32 -58 -18 23 -28 -14 -25 -59 -36 13 -8 -51 25 -37 41 -40 58 -45 -7 -47 -44 10 47 -18 -36 56 38 28 30 -58 -44 -59 -46 -38 -26 30 -50 55 11 -35 -56 -11 25 51 55 -46 22 55 57 -43 -69 -26 -35 -62 29 -51 12 14 4 22 -39 -63 47 -54 -46 -18 45 61 -16 -39 49 51 -1 2 -40 30 9 3 32 40 -46 -7 33 -35 31 49 15 -39 -13 9 -41 45 -8 16 -18 27 12 10 19 -44 -9 -24 -27 3 22 -3 -22 17 -7 13 -61 38 30 -41 -68 -35 -4 23 39 -18 28 -65 44 -40 40 31 -3 -46 -22 6 -5 -63 -52 -10 29 33 55 20 24 -31 -64 54 -51 48 -22 61 61 -27 24 -17 13 59 -28 50 -41 -8 49 -21 -11 -33 -41 26 -7 -9 -20 -9 -51 -19 -4 0 20 -60 49 -18 -19 -7 -20 42 -44 -63 40 -21 -45 -51 -33 -23 -29 46 -22 57 -57 63 50 -10 57 53 67 34 -32 57 -16 57 -25 49 54 17 -57 60 36 38 -11 53 36 -8 -7 37 -37 -29 1 -37 42 53 -45 -12 -3 -8 -43 32 -14 59 -8 52 45 -13 -46 30 40
44 -22 -42 -52 -61 -15 -32 -56 35 -27 -47 48 43 -5 47 60 19 10 -32 -52 -56 11 18 -17 -61 0 -3 -24 -38 46 -15 27 -23 21 29 -18 63 -17 56 -35 36 -47 43 46 70 -25 64 37 -59 -23 56 6 -24 22 40 60 1 54 20 -24 -5 38 1 53 -31 -38 -11 38 -54 -43 -52 -25 50 -4 -16 -51 -24 21 69 22 40 -57 -26 34 -30 -34 52 -15 -35 43 60 23 26 -4 -11 26 60 -11 -22 -53 7 -10 40 -2 -2 -2 35 -12 49 30 39 38 -1 13 43 -17 -48 -7 7 -65 54 9 -44 -10 45 36 53 -1 -5 -1 -19 -27 -40 24 -27 -9 -53 46 2 -9 -18 40 -39 59 55 3 13 42 -22 24 1 23 -27 2 36 -36 54 19 -2 12 13 39 -38 4 -1 4 -16 1 -22 28 64 28 -11 53 54 -13 35 -35 -46 25 6 -18 53 3 49 -37 9 -15 -57 2 27 3 54 19 -19 34 39 2 -55 12 21 42 45 -39 -16 -26 41 -20 11 -38 20 -27 13 -4 -17 -65 -23 -39 35 14 45 -32 22 52 49 -15 -14 67 49 -36 45 15 34 -44 54 -3 -47 13 15 19 2 -58 -34 -58 37 14 -41 53 -2 55 33 39 27 51 23 68
-43 44 -66 36 -22 56 5 -47 26 -49 -25 -23 24 -51 -26 54 -6 13 45 38 -31 11 -36 36 -51 -68 -13 -5 44 -21 -23 -8 52 -46 -34 -61 -46 40 -27 -45 33 53 62 36 59 25 7 61 56 54 12 -48 18 -3 9 -47 2 45 -46 -60 -52 -25 -24 -6 -40 -22 -27 -1 46 -67 -59 -22 60 27 10 -38 -10 -73 -29 -17 46 38 -43 -10 -73 12 46 -59 -43 6 37 -26 -50 44 -58 16 -54 -24 -36 -29 -23 -36 -53 5 26 -39 44 -54 26 -29 -38 56 -41 7 -38 -19 0 -21 1 -63 16 18 19 -47 38 19 -63 31 -10 -17 -5 24 49 1 -27 20 -15 -41 18 -59 -43 4 37 9 -41 44 -16 -42 12 5 -24 -49 -61 -6 22 -17 47 -59 15 22 8 26 53 -3 -21 51 56 -2 8 -6 -16 -13 77 -40 33 29 25 33 20 24 -4 -53 -13 23 -65 28 12 59 43 -8 66 24 -51 0 17 57 -65 -15 1 -65 42 49 -52 -8 -1 42 27 30 0 -65 -42 -66 -34 16 -38 7 8 -10 -39 -51 -4 -7 11 27 26 -5 -47 -1 -47 -29 25 -21 0 22 -44 0 -52 -43 -42 15 -61 -9 -5 -37 8 -18 -4 -77 40 -46 -44 22 -28 11 -21 2
11 20 -55 48 47 35 30 51 -4 46 -7 -30 41 -25 -14 33 -57 18 -20 -20 -48 53 -57 -55 -66 10 -12 51 -31 25 12 -2 13 46 -23 22 -40 58 -26 49 -15 -21 -2 -46 -37 -51 -25 -32 46 -5 60 -1 59 -55 58 52 -22 45 0 -10 -1 43 -14 -36 54 -26 32 14 -17 23 29 -4 -58 39 -55 22 23 -5 -2 35 54 30 -49 38 40 6 63 -36 -42 1 62 19 -60 11 2 -7 6 -49 33 4 22 -41 -8 31 -4 42 -48 30 33 15 49 -30 17 10 -50 -9 16 -18 -32 -18 -62 11 -27 -43 -43 -11 17 -4 -12 51 35 50 -42 -43 -7 -49 -14 57 38 -54 -46 -12 50 -36 -40 51 -59 -15 24 -8 -48 48 -37 -33 19 -8 8 60 -34 10 -30 62 13 -10 32 9 5 41 36 -1 -17 -4 -12 -13 -9 8 -43 33 -32 39 29 38 2 24 59 -37 -4 1 -54 25 -70 -18 -62 -13 -25 32 29 44 -35 2 61 -2 52 -23 -67 -30 -20 28 36 -28 43 -49 22 -15 33 6 -47 37 -61 -60 -45 56 -29 39 30 3 39 6 -22 -34 -48 -49 -36 3 -27 -5 -60 -11 61 -17 0 -33 57 -10 -51 34 43 64 -6 4 -68 -54 -52 23 -12 -43
54 -59 7 7 4 -28 -40 41 1 55 7 -24 -47 6 -17 41 -47 41 -35 21 42 58 -43 -46 -15 -35 -37 -60 -6 -4 -11 -5 34 28 28 -4 -45 47 15 12 44 -30 -31 -55 -58 25 -26 -57 3 24 8 -14 56 -27 -14 41 26 -58 -32 63 -53 -45 63 -39 22 26 -1 -41 46 25 40 15 -9 42 -57 15 9 7 -17 26 -60 -47 6 -51 2 -53 12 60 10 14 -23 -8 13 33 -58 -63 55 -60 14 -16 13 4 -36 -14 -30 1 38 55 49 -20 54 14 45 -49 23 -10 15 63 39 9 16 39 62 10 3 45 -51 41 28 -25 -44 -17 14 61 47 37 5 8 21 41 41 -51 -15 23 61 -16 16 -48 54 0 -63 63 42 -5 -63 -16 32 -25 -6 54 -27 -30 -22 -35 -29 -20 -63 62 55 23 46 57 -39 -9 -9 58 -57 36 -21 60 18 43 9 61 -54 -29 46 41 17 -43 -58 30 27 -13 -29 38 -52 26 18 -10 3 60 -37 -59 -32 24 41 37 56 -60 -37 -61 34 -45 -28 46 -48 49 -5 -62 -25 -38 -1 -20 28 16 -54 39 55 59 -49 -47 -9 39 56 34 28 30 46 -53 42 -33 -15 -2 53 32 -53 -36 -5 -1 46 19 55 33 22 52
28 40 43 -42 2 35 27 -53 10 49 -11 -9 13 0 -21 47 51 11 -50 45 13 -32 7 19 -69 23 32 -50 -35 -40 1 -34 55 8 49 -62 57 -62 -46 6 44 24 -40 52 -66 23 -59 59 51 -57 -36 27 -20 43 -45 -2 56 47 -12 -5 -51 37 -48 -3 45 13 -1 -12 -13 57 -59 -45 25 25 0 6 -3 -19 -61 45 33 -66 13 18 -41 -25 -41 29 -52 -66 53 -44 -17 -41 17 35 -23 -49 19 50 62 -44 53 -62 -38 23 -20 44 2 -52 -66 -47 -21 51 59 51 -52 -15 10 27 -50 -20 39 -52 -9 -46 -53 -30 -56 55 48 21 45 39 59 40 -36 -61 14 12 19 62 -32 19 -37 -24 -50 -3 22 25 47 47 -12 10 13 -39 -56 -41 34 -15 17 -3 7 10 37 10 -20 -9 51 -46 24 -8 -43 53 25 -50 49 -62 61 2 -25 -13 10 13 13 -9 -45 1 23 29 -14 27 46 -56 45 -4 40 42 33 -65 0 -7 -61 18 2 18 -10 16 31 41 -51 -39 46 -26 -25 1 -14 -1 21 32 18 53 -32 -48 15 44 -39 -6 46 11 -35 -62 -19 58 -7 -53 -58 -20 10 42 -10 58 3 18 -4 -43 -27 -67 12 -57 4 -7 18 22 -52 40
-11 20 42 -6 -30 -32 80 -12 16 35 12 -24 69 63 20 59 -15 -46 -51 -5 58 -58 63 25 -17 -4 -50 51 17 31 -63 -39 -17 -38 60 55 3 34 -53 -33 -29 -9 64 -19 16 -9 21 71 49 -63 -5 -44 5 46 38 -17 -26 -7 8 12 -51 -58 -60 50 74 -5 74 64 -27 66 16 44 -36 -16 -8 48 -25 -50 -1 21 60 30 26 18 11 -32 12 -15 1 48 46 67 -24 44 6 54 -30 -26 -43 -24 0 -14 -57 7 -24 6 44 -25 75 67 -22 64 -26 -43 21 17 24 -23 13 -59 -20 50 67 -6 45 49 -55 -41 18 -22 -58 -22 -28 -13 21 -9 32 42 27 -26 -48 25 -19 -14 22 24 -56 -62 22 -51 -53 39 8 10 -39 -20 7 -12 19 -42 36 -34 6 -6 16 56 44 27 33 -46 -2 15 -39 -15 40 -23 -32 43 -1 36 42 29 -59 21 0 43 41 8 -81 -20 -32 11 62 4 -51 -47 -6 25 68 57 -42 -1 4 21 -22 38 38 35 -44 -62 -62 39 9 18 3 1 31 16 52 -21 25 60 73 11 9 -1 16 34 3 -10 20 61 80 43 7 60 40 -24 27 34 6 45 -62 10 13 37 5 40 56 -64 50 44 9 -61 12 34
-7 0 -33 38 25 13 -56 -14 -46 -49 40 44 4 10 -22 -4 -48 -63 -56 25 -59 17 -33 38 45 38 -2 17 10 -44 1 -24 44 41 25 21 35 58 -9 7 42 -51 64 -47 37 -38 69 -41 34 -28 -21 -25 2 -52 -11 -26 13 -37 46 0 -10 29 31 14 42 -43 6 24 2 30 50 60 -47 -48 -61 -50 69 -28 -11 12 26 26 -31 -53 -20 -22 -58 -23 20 43 -10 -23 -22 -48 28 -55 59 3 -28 -62 -48 20 47 5 -55 -67 -33 -37 -59 28 -18 40 24 -21 40 35 -1 19 57 39 -61 -50 -30 -49 -2 0 -15 -32 -45 18 -36 51 37 54 -39 -17 -3 -41 -45 -55 66 -46 -47 68 6 29 19 -13 -38 22 36 -35 -12 -14 1 16 -63 -9 -3 -43 36 5 -43 14 -17 21 30 -40 9 45 28 -28 12 -26 13 31 -44 -69 12 32 -9 -24 -47 53 -34 -3 -56 62 31 -11 43 19 30 -11 -39 -5 16 0 -6 -9 -18 -4 32 53 1 25 -61 -12 -42 -4 -37 41 0 -61 13 -45 -7 30 -23 -56 5 32 12 -4 -61 -11 -12 -10 -25 21 3 -37 -21 39 -26 -5 -10 38 38 -50 38 -66 15 -59 44 62 -44 64 -40 62 34 -50 2 -53 39 -36
49 44 57 55 18 -24 -9 7 53 4 15 16 56 16 -29 28 51 -3 26 14 -13 -47 -55 46 39 -60 32 23 -18 8 8 2 46 -44 -57 -9 -1 -23 54 33 4 -8 10 -47 53 36 -27 24 15 -11 -28 57 -57 25 34 19 -30 3 -39 -44 5 -13 52 -62 40 12 44 16 -33 -6 27 -55 -24 -26 26 -49 64 -58 57 -20 52 48 13 7 -36 -28 -31 32 -65 13 -37 9 11 -3 -36 -9 36 -3 -52 -45 46 -44 57 -8 56 56 -43 25 -50 29 -26 -64 61 -9 -45 47 58 -43 -39 -30 -30 -60 -8 3 -43 -40 38 45 -54 53 60 -23 27 47 -50 -18 33 -21 -59 -51 8 -32 -50 51 -1 -39 19 2 26 12 16 61 -42 -20 21 0 -11 -1 11 25 -30 -2 20 -32 54 25 -50 -21 -42 35 7 -49 60 -63 54 38 10 -40 41 -6 -53 -33 -51 45 -30 -21 21 -8 1 -24 45 4 6 -17 -41 -13 -45 -30 38 42 53 43 -66 22 -10 42 23 -26 24 -61 21 -32 -9 -24 -44 -11 -42 6 -27 9 53 11 -58 35 -16 57 -18 -2 2 32 43 48 -44 -41 -38 57 -42 -24 -53 -12 -26 -40 -51 6 30 9 61 -29 23 41 14 26 39 -20 15 -35
-45 60 26 -52 35 0 -43 -27 -55 -35 33 29 35 -45 -69 -74 51 -49 38 -42 -17 -5 -56 -28 32 -42 -55 9 -61 -60 36 -54 19 18 61 -21 -45 -26 15 -32 7 55 -40 -25 -18 -8 27 -42 -33 -21 -75 -50 45 -21 34 24 -18 -19 40 -52 -29 -9 29 -54 -1 44 2 -51 22 4 -1 -49 -14 10 42 18 -6 -37 -26 -35 7 7 -61 -34 3 -48 44 25 -20 8 -30 19 38 42 19 -9 -44 37 -3 -39 -26 -53 -7 23 45 -64 52 -6 35 41 -68 2 9 -7 -31 -24 45 28 8 -63 -11 26 22 -1 -40 -7 -37 40 -56 21 -45 -28 14 14 -35 -87 -63 -3 -24 -20 -33 61 53 -25 -5 -65 -21 -66 20 58 11 -17 24 -61 -38 14 -37 -19 9 -64 -26 -16 -51 8 4 47 -25 27 -63 47 17 -25 -13 2 -19 39 -64 51 48 16 -27 10 51 -45 13 -5 21 37 8 27 -35 -16 34 35 -38 -25 27 23 -7 30 31 23 12 12 24 -52 -25 23 -9 36 -46 -54 45 2 2 -42 -38 11 56 -25 -17 -37 56 38 26 5 21 -40 20 -56 -15 -70 -59 56 25 -45 18 48 -27 -23 -11 1 13 -3 26 -25 -30 -66 -43 15 50 -30 51 -50 -14 -31
55 22 5 3 19 -15 -31 -21 17 54 32 65 64 -46 -11 -35 -32 -44 47 53 33 17 12 58 33 -66 21 -49 -29 -24 55 5 62 47 28 -35 32 -24 40 -61 -53 57 38 48 27 48 36 -60 -2 -20 11 54 47 6 5 19 7 -8 55 21 45 -5 -41 -7 -16 -20 6 -18 37 7 -58 -57 -41 11 47 8 67 25 37 -24 -8 -18 31 41 41 45 -40 -56 22 -9 -27 -27 7 42 14 -35 -60 -20 5 -1 -17 -20 70 62 17 -42 40 -53 24 50 13 -12 -56 25 -17 -36 -55 -48 -53 11 -60 -51 -14 -29 54 -24 -35 -21 53 -12 51 24 52 -34 15 -3 57 54 -37 6 -45 29 -46 1 56 -8 -55 -41 36 -59 28 -33 -8 -49 -12 13 31 -49 7 29 14 -65 48 49 28 15 22 49 15 -70 13 -13 29 56 -59 -50 45 48 62 22 -47 -31 -9 -40 10 -18 39 -31 -19 41 -6 -25 -22 -45 38 60 10 -67 59 -27 -54 -28 53 68 6 14 39 -26 35 -53 -43 -21 40 37 8 -11 18 30 29 43 8 18 65 -23 47 -19 17 -6 -56 50 63 2 -60 -21 -23 38 -40 -15 22 45 -9 -39 -3 -63 -48 33 5 1 25 -19 59 -54 52 49 8 60
4 -52 -1 -59 57 20 -42 9 62 37 -11 2 -50 48 -56 -63 60 45 34 0 53 30 -34 -15 -29 -13 -46 -37 -44 -7 55 -43 3 -13 23 53 -6 56 -24 -28 -42 19 57 -19 -6 -56 31 -46 -51 -17 17 34 39 -57 -46 8 49 46 -35 -19 -67 27 50 -25 44 47 -32 61 -9 -51 -52 8 -5 5 9 69 -13 43 63 45 -50 -28 47 5 16 -61 56 59 -48 34 24 -33 28 -22 53 -61 13 11 11 49 48 58 45 58 -11 -22 39 -52 -9 -1 -48 -41 -8 37 -20 -14 -30 10 30 -29 58 -45 32 14 9 -30 -15 -35 -11 19 -26 -9 -32 41 41 -21 46 -50 -57 53 36 49 -4 -21 27 57 2 -5 -21 -25 29 -44 -32 35 -48 37 30 39 67 1 16 54 16 37 -7 45 26 -29 -53 21 4 -28 10 -47 -10 -42 1 16 37 -44 -41 34 -66 -45 -31 6 -65 12 51 -51 -11 23 -47 7 3 -23 51 10 -21 -16 21 -15 27 29 -52 30 -65 -69 -54 11 25 66 -15 -27 -51 -15 -30 -57 -19 -37 17 -47 5 -55 -62 27 -9 0 28 -30 -30 21 -56 52 -38 -4 -60 -34 58 -38 -56 -19 3 27 -46 -21 -22 -36 0 55 -54 -68 -40 -55 -35 63
26 6 -41 28 -35 35 15 -32 -44 -58 -20 -63 50 -34 -42 39 -24 -61 -45 -45 -16 14 33 -24 -20 48 -24 -27 -27 -61 -23 50 58 52 65 -45 38 -52 -34 -40 41 1 5 3 3 -17 -48 -7 -44 -18 21 -20 -6 5 -6 -14 37 41 -3 36 37 -51 16 -17 -32 -58 42 68 -67 31 33 29 -7 -58 -50 -30 13 6 -38 61 19 -22 -36 35 -12 43 -14 -52 -3 -52 5 -58 -49 59 62 -7 41 -36 31 26 -6 67 -48 12 -42 34 -36 6 7 14 20 -49 7 66 -55 -20 -39 -12 -23 12 -9 -35 48 -14 3 -31 -9 58 42 49 42 -48 -28 -44 26 -5 20 -49 33 15 60 -2 -56 -19 55 -42 -6 5 2 49 -30 15 44 55 -54 -49 0 58 8 33 -2 25 -49 -48 -41 28 15 -38 52 -58 62 8 -58 53 -33 -42 -18 51 -57 -21 21 -28 -40 37 21 -23 -38 -37 -3 35 66 -48 27 56 -29 -49 -69 -38 62 -3 -52 32 40 16 47 3 -44 -15 57 47 -9 -45 17 -38 48 20 -25 22 0 5 -19 50 -34 5 34 -32 -69 -49 -10 -21 -19 -4 41 54 -30 -3 9 -58 8 37 -56 -47 55 -37 43 20 10 62 -18 65 -21 -64 11 -47 44 -59
-2 -35 1 64 11 35 40 15 -52 38 10 -19 34 13 31 -3 28 30 -14 9 -56 -49 -30 -54 25 -38 16 -38 8 16 11 24 43 -24 13 25 18 -2 1 3 -52 12 46 64 -39 23 -55 2 -52 40 -2 -41 10 18 38 42 48 52 -47 -43 -20 15 -20 -61 45 37 -12 -3 -41 -54 -33 -38 51 59 7 55 38 53 11 -55 0 -2 30 -58 49 -1 51 -35 -26 17 45 -8 27 -51 -59 -8 0 -4 17 -37 -50 -51 -56 46 -4 -21 43 -28 2 -13 41 48 -58 -55 -45 52 18 54 -47 -47 -39 -34 -51 23 62 49 -20 -47 24 -57 -42 11 40 13 -50 26 -57 57 -62 16 35 -5 -63 51 13 2 -40 -51 -42 24 -30 8 -31 -44 -41 2 -40 -50 30 36 7 -55 14 38 46 41 5 -5 19 15 -26 32 59 45 -4 50 10 12 52 31 11 -26 -1 -63 20 35 -14 -13 54 -10 23 -40 -11 6 7 -33 43 -23 34 -46 -17 24 23 -32 46 -15 4 -5 41 -47 23 -37 -33 55 7 31 -60 -42 29 46 -23 41 -56 37 16 -14 -22 29 -52 34 -58 -30 -13 -16 -21 30 27 7 -38 31 51 -26 -26 45 -25 -50 -48 -41 43 38 24 44 46 15 -30 -40
-2 12 -55 -3 2 -40 -35 51 -10 -6 8 63 1 -59 -10 -50 -52 -54 -47 -62 44 6 -60 -54 -21 -25 -15 27 41 -61 -59 -2 -24 63 -37 -30 8 -40 55 26 43 -36 9 -35 -28 34 48 42 -34 -39 -61 -32 -44 -19 -39 16 -2 -45 5 -21 13 58 -58 -43 -12 23 65 -20 -29 -25 -29 42 -50 -40 14 39 28 38 -42 40 4 8 1 -17 4 -14 3 19 27 -28 -20 -20 29 -30 -21 -59 0 -9 39 5 -62 10 -9 26 -62 -28 51 -44 -9 -8 28 59 -50 46 -1 23 42 29 7 15 50 -50 58 -8 -35 63 -27 -8 50 -43 51 -32 -42 -26 -48 3 35 -13 34 -16 -18 38 -62 0 6 -30 -53 -57 18 58 43 50 3 51 2 -41 -36 -21 -6 -64 -24 -12 -35 45 -38 19 -47 -63 -35 -52 13 -59 -37 5 -56 49 59 -35 8 -22 -14 14 41 49 -2 -67 44 -1 -33 39 -14 -59 -3 -5 -48 -2 -58 58 59 -15 -47 28 -55 9 -12 54 2 43 39 -44 -20 -42 12 -46 -45 -57 -40 27 -31 -16 -9 -36 -59 -2 -12 -4 -15 -50 51 -60 -9 31 33 33 9 -6 -56 26 -62 15 63 42 38 34 -61 26 -58 -6 -10 -10 25 55 -21 40 -42 -15
-51 -33 33 9 -33 -55 -35 -6 -35 11 -7 -3 39 -50 -58 13 23 5 -31 50 12 -21 50 50 -1 29 -44 55 22 27 -31 22 55 -56 0 -12 21 32 -6 38 -2 -45 -49 -18 -8 5 -60 58 -56 34 -13 -51 -64 20 28 -51 -46 55 11 -23 -10 19 56 -52 39 4 10 43 -32 -23 15 -50 -29 58 35 4 57 -32 -35 48 51 -19 -42 -32 -50 -24 -16 18 -29 -29 5 -8 34 21 -18 62 1 39 19 -44 13 -62 21 45 44 -8 61 -39 -1 35 -49 3 39 -38 31 20 35 -3 -3 -8 -19 -12 50 -54 31 56 35 -62 29 -13 10 -38 68 48 44 15 -50 13 49 -59 7 6 -44 32 -36 57 -35 -9 -64 -44 29 3 -48 19 -7 -33 -55 63 -39 37 -12 -34 31 -61 -8 12 -37 54 57 58 46 60 18 40 -3 53 -61 11 24 13 12 -34 -35 41 -44 -39 -43 3 8 61 -32 -54 -38 -50 -18 61 -18 28 67 -7 68 -36 36 0 -13 28 58 5 -52 16 -26 -10 -20 22 20 -18 -57 39 6 23 63 34 -5 -60 -57 23 45 -11 -48 19 -34 -3 25 23 -4 18 -14 -13 25 33 -40 57 -59 -46 -44 -30 23 -2 -24 -7 16 37 7 -21 43 -34
-52 -10 -7 57 0 -24 42 48 -22 36 63 -7 25 15 -31 -25 52 -29 24 -38 -63 -52 34 28 -43 9 -13 -18 -61 -54 9 31 12 -11 27 -58 -40 2 -39 15 55 -12 4 -1 50 -53 10 -20 12 43 -17 43 -38 56 -6 -39 -19 1 20 51 16 7 -1 -21 42 42 54 63 16 -21 -13 33 -20 58 -36 22 31 39 -2 3 -26 19 23 34 -37 -15 -51 11 36 -33 -21 38 -22 41 -62 -39 -32 39 -9 6 58 -34 -41 -17 55 -50 -34 20 63 24 28 -33 0 38 -24 35 21 34 -15 -4 18 -51 4 -32 -14 -57 -56 -10 9 -43 21 10 43 39 12 -27 43 6 62 31 42 0 -34 -21 -53 26 -16 -30 -62 61 62 10 -23 -58 -40 -18 -62 -31 27 18 -20 53 26 20 -28 -53 42 -52 -48 -30 12 -34 -45 -34 56 11 40 -31 47 54 62 7 9 -12 -28 -16 -12 -54 2 2 16 26 1 -55 18 49 -50 -18 5 -7 52 7 23 -40 -25 -59 -37 -8 39 3 29 -10 -11 -13 15 -8 58 37 55 -1 -60 44 -22 -43 -62 6 -31 44 -57 21 7 -41 -6 6 -16 24 27 -63 29 -47 -50 -20 21 56 21 -32 -37 45 20 55 48 28 -39 4 -17 -37
-38 62 -40 -44 25 23 -32 -51 -21 -61 -5 -13 -47 -49 40 60 67 -62 -27 60 6 53 10 32 30 33 17 30 6 16 -14 -25 -22 -5 -34 20 30 -56 -36 -19 -50 54 44 -60 29 -16 53 45 31 -42 54 -19 45 -58 -49 44 54 -20 -17 33 -1 -14 -30 -40 54 -54 -18 -23 -7 32 44 34 -11 -39 -32 -4 38 -42 33 -63 15 -46 45 38 47 33 -29 46 -56 23 29 35 26 48 -50 -14 33 53 -61 -8 42 12 -46 1 49 62 -15 -35 -53 -45 -4 8 28 -44 35 -53 0 -27 -53 -36 -28 -8 -36 57 38 -39 -19 60 -33 67 44 -68 -65 56 -19 -8 52 20 -57 -32 -20 -8 -52 -40 23 -10 -29 14 35 -3 -3 28 58 -20 15 52 6 -34 26 -53 54 -1 1 -49 29 -33 -42 -22 49 59 -52 12 -56 6 -19 -6 -30 -65 22 -43 59 -17 -41 5 -29 14 -24 -19 -1 -15 16 29 -49 37 -44 62 12 52 -60 -56 1 -37 7 -5 -10 -53 -55 28 38 -57 45 -24 41 37 -61 -21 25 -41 47 20 19 44 -6 -16 43 -64 48 -55 4 12 42 -22 -59 -11 52 36 35 -27 64 55 29 64 -55 52 45 -20 -67 62 -33 -58 -12 9 36 -1 52 1
-4 24 -37 -51 -25 -54 -31 14 -4 -47 37 -22 46 8 -40 -4 -20 37 6 9 28 -52 42 -56 -23 -28 -22 -37 15 47 6 1 41 27 -30 -40 24 7 -26 31 2 -33 -34 -63 -36 -8 45 5 -10 6 -45 29 -45 -26 -50 -51 42 -59 20 -21 31 -58 54 -32 -8 -49 59 48 -44 -9 -47 -18 -24 -17 35 4 -17 -23 -24 37 -33 -14 37 21 69 -59 16 -17 4 -25 -26 40 -32 -52 -20 34 56 -60 50 49 4 22 -57 54 -9 5 -45 -35 40 -14 67 -11 32 26 22 12 35 -50 52 -42 -57 5 -14 55 63 -47 -48 -39 -8 53 -20 -41 -7 36 -39 12 53 -16 43 13 43 28 -13 51 49 37 50 23 -11 42 61 19 3 26 41 51 6 -64 -41 53 6 -50 -19 -38 38 41 21 6 -53 -8 49 -4 -35 -26 -57 36 20 63 -12 -47 50 52 42 -17 -32 -15 12 48 52 -25 6 -59 -36 -36 -46 41 -49 6 -15 29 31 55 23 52 -4 -37 62 -44 -7 12 62 -59 -66 48 51 -23 10 -61 -47 17 -25 54 51 15 -8 57 47 -46 -40 19 30 -31 37 33 -2 -12 -23 55 -32 48 -14 22 -40 63 18 28 -30 58 -32 -49 -28 55 -28 -52 -58 -53
33 45 14 -14 45 -37 31 31 63 -61 -32 -33 -71 31 21 31 26 39 -6 13 -48 -8 6 5 46 -43 -57 32 44 -27 0 64 1 53 -7 1 -36 44 43 44 -25 -35 -55 48 -59 6 35 17 -48 33 -36 -45 27 -29 35 13 61 -8 -8 -21 29 -7 -2 -54 46 -23 -25 -20 49 29 45 3 -16 45 27 40 33 -43 39 51 59 -37 -29 -25 11 -6 42 -60 29 49 -37 12 -65 12 35 8 52 -37 -45 18 -34 -22 -16 -14 21 -55 32 30 -7 -15 -56 -6 39 -7 52 -37 61 15 -2 36 -20 -4 -20 -5 -28 52 -64 -51 49 -29 -30 -35 7 -4 -45 29 16 -31 62 -60 -58 -8 -13 -32 26 -30 61 40 38 -46 -2 34 -60 -28 54 25 27 14 54 -63 -32 -35 48 -19 -51 58 -33 -32 12 0 -76 50 6 59 -31 -10 53 -80 -5 5 24 5 29 28 58 46 17 -35 -6 -46 40 -74 45 -36 -50 -40 20 -31 62 -57 -32 45 36 -34 -45 23 45 -3 -19 60 7 62 70 53 52 28 58 -32 35 -37 -10 -36 -22 -23 60 40 -45 -48 -17 63 7 -13 -52 19 20 -62 -18 21 49 -56 8 38 29 -38 -54 -25 38 35 3 53 9 -56 -59 22 -39 -3
-6 -5 -12 -47 -28 7 22 47 -59 -59 31 -53 -7 0 35 14 -21 8 54 -14 39 -11 -5 -54 60 -2 10 -8 -40 -17 13 -27 29 -54 -68 -34 8 -22 -47 37 -71 4 -58 37 30 21 -14 -62 22 2 -1 57 -35 -13 4 -17 3 -58 -47 38 46 69 -44 54 5 -2 42 -58 19 -50 28 -64 64 34 7 -27 -20 34 13 -32 -62 -29 -58 9 29 -58 -61 -32 -41 34 2 -36 -43 -27 -25 28 12 32 -73 -62 -43 -10 -46 -40 10 -36 -57 19 -22 39 45 -24 9 -64 52 73 -52 21 -44 50 -56 -42 6 3 37 -24 15 1 22 -76 -13 33 37 52 47 24 62 11 -15 -17 -22 -32 -56 75 28 -40 17 -15 -21 30 -55 -47 -40 4 -47 16 42 -33 -2 13 38 46 59 -44 -28 8 7 33 62 -29 10 42 4 -18 -13 11 24 -75 -14 -31 40 45 -2 -3 27 21 -27 -8 11 -38 3 -33 -22 -71 9 55 45 35 35 29 -50 69 -64 -54 -64 -36 -19 42 -53 16 35 46 -3 -66 37 -23 -11 -57 32 -44 50 6 -13 -40 -20 -44 -73 -50 1 -32 55 -36 -58 -15 -9 -60 35 -6 34 -10 30 23 -13 -9 36 -46 -29 5 54 -32 -27 48 32 2 -6 13
-57 -33 14 56 43 -22 7 -5 52 52 -38 -52 -27 -38 -28 9 12 9 -5 24 53 40 7 -55 -22 -62 -64 24 52 -14 60 32 48 -50 -3 -1 -46 -18 26 53 12 11 19 -29 36 -43 -3 -29 63 44 42 -57 -50 40 29 0 -4 45 -60 -52 -21 -6 23 20 5 -46 -57 8 5 -34 62 57 -51 -42 64 46 27 60 -17 29 1 -22 44 -22 -12 12 -57 -45 49 0 48 -5 11 42 29 23 48 -61 55 -40 -59 16 -26 -47 -9 -66 -45 -27 28 -21 -23 26 3 31 -25 -64 -20 18 -59 -17 27 41 -40 45 30 42 20 2 -29 -36 23 56 -62 15 -61 47 -15 39 42 20 60 4 62 -45 61 -9 11 40 58 -14 19 -52 14 8 -7 -6 -41 -37 47 30 7 49 -11 22 -40 25 -58 -45 11 -9 -20 -24 -2 -17 -63 -9 -38 -44 -21 11 49 5 25 -44 1 -21 10 -28 64 57 9 1 -20 -16 3 30 4 -2 65 57 5 -63 41 31 54 15 -68 12 -48 -61 -11 34 -48 -54 -46 51 -4 40 -8 43 60 -44 43 49 36 3 -14 -3 -33 -16 31 35 42 -68 -21 15 -33 -44 -38 33 -35 47 -35 57 -27 -49 17 -2 -32 -27 -36 -65 38 5 -36 -36
-43 -28 25 -42 25 -16 52 66 -35 22 12 -40 53 42 32 51 3 -40 -39 47 27 -12 52 59 -5 2 48 -41 -5 -22 12 46 57 -50 15 -48 14 0 -42 -18 -45 -11 -31 45 4 -20 61 16 -37 31 -36 -2 -54 -70 -11 -22 -6 -39 50 -16 -5 -66 16 -45 49 -14 -17 37 -2 -10 28 -52 58 13 53 57 -20 -8 53 24 5 39 -59 4 31 -26 39 14 -3 -31 -26 -46 -13 -15 62 8 16 -19 -34 -21 43 -22 11 47 -27 -60 -41 -42 43 -4 -22 -17 13 22 47 32 19 -40 -61 -45 37 45 18 50 11 -2 -14 -55 21 6 -5 -8 -17 42 -37 10 9 -7 58 -28 -29 -38 -15 -6 41 -25 55 15 -45 -26 9 -19 46 12 34 -36 -16 30 -24 51 -46 19 63 16 -24 32 41 27 -47 -62 -53 -10 54 -46 63 -1 -52 -48 -63 -4 -60 -31 7 -29 44 8 -14 46 -62 46 9 40 27 -32 49 -24 18 22 -16 -30 49 -18 30 16 -20 53 27 -57 -53 -35 57 -40 33 31 40 53 -5 42 17 -43 41 -46 -40 -14 -23 11 49 35 37 -22 -55 -36 -68 -25 -65 16 -40 -61 -59 1 -39 -5 31 28 36 8 49 16 -46 30 -53 36 -50 -45 -62 -26
-3 67 23 35 36 -44 -45 48 34 -53 11 -14 20 28 -42 -57 16 16 -63 26 3 24 -49 -11 -66 43 -63 13 -41 14 34 45 59 32 44 51 -18 -49 -22 25 24 -3 -3 -12 -15 -25 34 30 -32 -28 -27 44 10 11 -57 -36 22 -25 32 -32 -55 8 51 -16 -31 21 37 -51 -47 -61 14 -3 49 45 -36 58 -20 -58 19 6 -42 -9 15 -8 26 -38 -18 46 42 6 -43 -5 6 -21 -54 22 59 -54 33 31 -16 28 -70 49 21 -12 33 58 -59 -43 -62 25 60 -45 -10 -17 -4 -40 5 20 3 64 49 52 -48 50 -51 67 -44 -56 3 -6 33 -8 53 -64 -6 10 -23 32 14 56 46 -2 -58 5 -16 45 14 63 -32 36 -29 50 -44 -58 9 -41 -39 -34 -3 -32 -22 -12 27 -57 59 51 -53 -11 16 15 46 -11 -10 5 -28 57 57 13 -51 -44 42 63 10 -14 -32 48 40 21 -24 28 38 1 -43 11 13 4 -54 53 -30 28 53 52 -29 -16 51 49 54 -26 0 24 11 -51 -51 12 48 -45 -32 -20 -27 26 -59 -3 -4 4 -39 14 39 -63 -20 -6 39 -38 -57 -41 31 -7 -45 -22 -45 -31 -34 -31 15 -59 41 -40 8 1 -16 -31 19 54 -18 -40
-69 6 39 4 -66 99 -28 43 42 -15 -89 46 -42 13 9 72 -74 45 60 44 44 -64 -118 -122 -94 -33 -59 -18 9 24 -43 -14 -60 40 25 -10 -61 42 -51 4 65 -26 -5 29 -49 50 -39 59 -43 -30 47 6 5 56 -82 -16 -35 13 32 -16 23 -91 60 44 100 76 -88 61 -88 85 -81 -75 -9 66 43 -32 5 -22 -37 -92 -8 -20 55 41 34 -44 95 -55 -51 -51 20 27 16 -11 -43 -47 -23 -92 68 35 4 -52 -15 -91 -47 -36 -77 -39 47 12 30 28 2 -66 -31 -10 14 26 63 76 -61 -61 26 -35 -32 11 13 -32 -113 81 24 -53 -53 -65 -22 38 34 7 -18 -42 59 -30 -22 30 -97 16 13 42 -53 -10 41 9 -73 -7 -50 62 -11 -38 -53 -12 -69 39 14 36 -43 67 -57 -49 40 -34 14 -30 36 -35 -16 -29 33 50 19 -21 -66 10 -15 40 -68 -29 -76 -64 -62 -97 -55 38 79 -5 -8 -48 99 34 104 -27 33 83 29 50 -61 -52 -15 -43 3 -26 10 66 31 73 87 -19 -31 -35 109 24 -20 -61 -45 -31 -52 -4 2 -53 -36 -52 29 -53 -4 51 -9 55 26 -58 -87 13 -22 38 -38 18 1 100 31 -58 -63 -31 -66 -69 75 0 28 23
32 16 -7 -50 15 -61 51 44 -43 17 57 -2 -52 33 41 -57 56 33 -14 3 -35 -9 -60 -52 49 8 23 3 -3 -64 -57 63 24 60 18 19 64 63 -34 -9 65 17 26 17 58 2 -7 21 63 -58 26 19 -7 -25 -17 47 -16 66 15 -56 -12 -25 27 58 58 -56 -28 -33 -41 1 -53 -11 -33 1 -48 -21 -3 54 45 21 -62 -11 -27 2 -25 -51 -33 -19 -45 8 62 10 -10 16 -3 52 -39 55 -27 62 55 46 39 14 5 54 3 -55 -32 -53 24 -58 -37 -53 -42 -20 10 55 48 37 -48 20 -17 4 -56 40 55 -41 -61 19 -10 4 -55 -64 63 -2 20 -25 -55 -28 20 45 -8 -1 -42 23 -4 -29 -53 44 18 31 -25 13 9 37 -67 -20 64 -48 -37 -42 23 18 -52 35 11 -37 -42 40 -35 -53 6 -52 14 36 53 14 13 58 9 -62 -60 -9 38 19 38 -55 9 4 20 -46 15 -20 52 -24 44 27 -61 -25 -32 36 23 66 -3 45 13 47 -48 43 11 0 8 -9 -23 12 -35 -11 -51 -23 16 56 16 15 -45 -42 -15 60 10 -35 -45 -64 56 -50 37 -61 48 -31 23 -6 -20 -53 35 11 16 -35 -35 -31 -46 48 15 32 2 6 -60 -13
-52 53 10 -26 -41 18 9 42 -38 53 44 57 -43 -22 -1 15 -36 37 12 -36 -58 8 -58 51 2 -33 -64 -13 35 -17 -72 42 -63 54 -7 -45 -26 -38 -3 -63 -1 37 26 -72 31 -46 -71 5 11 -38 29 -42 45 18 -21 -23 43 -2 17 22 0 -44 -76 2 16 -20 -4 0 -16 -16 -13 -13 47 -53 57 3 42 -53 -19 -68 -19 -7 -47 -23 -58 -68 37 29 50 40 -28 42 -22 56 -42 35 46 -27 48 31 13 59 60 -24 -19 9 57 -29 -52 57 -63 -1 13 6 16 -12 -58 45 -15 -19 16 -28 -28 -9 3 11 -29 -44 22 -25 -33 36 73 -35 37 -24 -42 -68 18 48 23 69 -61 15 51 7 -21 22 36 28 -46 -42 1 38 10 60 -65 -37 50 -26 -4 30 -62 -39 -15 -19 -55 -59 -13 28 18 -78 -102 4 -71 12 -51 29 -60 -37 -13 -19 7 -48 -21 -64 -58 -6 -32 47 47 18 54 25 14 -2 -38 -13 -57 -42 36 -4 -28 -11 36 -3 29 -9 10 42 -19 12 -62 -42 -22 9 -51 -6 -18 -40 -68 -65 -11 -2 -56 -11 37 -49 -5 16 -17 -59 -38 -2 3 -64 1 -16 -45 -5 20 -66 -59 -15 35 26 -49 11 -44 12 9 -64 -40 48 -2 -10
-30 6 26 -19 1 0 35 -33 -20 7 -22 -34 -22 -30 4 -40 28 53 40 45 4 19 34 -50 -49 13 -55 11 -32 -35 5 63 -23 -53 -4 -8 53 -13 -58 60 43 -29 -49 53 43 -60 -22 32 -44 7 -14 4 49 -18 19 -10 -36 10 52 -39 56 -30 -6 31 -15 50 1 10 -20 -70 11 61 59 -22 17 49 -3 -47 -55 44 -60 -37 40 -19 18 13 -15 -48 -15 -45 -20 -10 33 39 56 55 55 29 -28 6 -29 -3 -47 -63 -45 -27 -34 -28 -61 -39 39 29 -37 12 30 52 18 -61 36 28 -51 64 -3 26 32 -40 -23 69 38 -7 -69 11 -39 -41 -28 1 -38 -15 45 56 63 -47 9 32 54 30 -56 57 24 -7 -6 -13 -10 53 57 7 49 47 30 60 29 0 37 -20 13 41 -44 -35 -38 58 -53 58 -17 63 20 57 -5 -9 -15 45 -54 2 -41 44 47 -18 -12 -33 -14 -63 -18 8 -34 18 -46 -40 -24 -65 -50 -14 -51 -61 51 -25 -45 3 16 -22 54 50 50 69 -32 15 -14 -23 -7 -24 -13 -18 -45 45 -22 -13 -67 20 41 29 -17 1 -61 -7 -17 -60 43 -59 8 22 -8 -11 28 -54 -25 29 38 -7 -51 32 -62 56 -30 -42 22 -13 31 -9
-4 7 30 -36 25 -61 27 11 39 31 -36 -45 -30 19 50 21 -10 24 -23 -8 37 -19 -18 32 -5 -36 -40 -3 -56 2 -54 -35 3 19 50 11 50 -44 20 -36 -13 -54 -21 16 32 24 60 -16 -38 5 -52 -16 29 -26 -26 -55 -10 3 -34 18 -14 2 63 -47 15 57 49 -61 27 38 7 -46 55 -57 45 -62 41 -42 16 52 -47 -17 -54 -37 -4 27 -3 -37 -14 -37 -49 62 -31 52 -46 -5 -49 -63 30 -42 39 -54 28 -61 -11 -33 -4 51 -33 -47 -38 -20 51 55 -60 -34 36 23 19 -8 63 54 58 29 50 -1 14 -43 -16 29 -56 24 25 -6 41 18 53 -35 -41 -19 -32 -55 -59 27 -64 15 -50 -34 -11 -39 -44 55 57 -2 -14 -19 -16 58 13 24 -44 48 39 -46 -56 -56 -31 45 -26 -37 24 1 -12 28 -47 49 -22 -9 -62 -4 -54 45 -59 -59 51 30 31 -28 -48 43 59 51 17 -9 -43 -44 46 -50 30 45 34 -60 47 27 3 64 -34 16 35 22 17 64 -34 -12 52 -29 6 42 54 4 -37 -60 -47 0 22 47 -39 53 19 0 63 54 -18 -31 62 50 -36 51 55 35 -42 -36 -3 -50 -53 25 -12 -21 60 -55 20 5 -38 49 8 -48
27 62 -16 24 48 38 -67 65 62 -67 -8 17 18 -46 55 34 -13 -20 -45 -13 12 68 1 33 -27 -13 -54 -9 64 41 50 -47 26 28 46 -55 -54 -63 -9 -52 27 56 24 25 -21 43 55 14 25 35 39 14 -28 -27 21 -56 -37 -63 -37 6 14 25 -45 -50 -44 43 35 10 -51 -30 -39 -48 -4 58 -16 21 12 -56 49 -15 1 3 -16 -40 -63 21 63 -12 -32 24 43 -45 -56 6 -28 25 -50 44 5 44 -9 43 47 40 10 43 32 -38 65 1 -25 -19 -6 -17 60 28 61 29 53 -45 -62 3 -19 28 -35 11 45 -6 -11 59 23 54 12 -62 58 -10 23 -8 2 51 46 -52 9 69 -58 33 -1 -1 -36 -5 -38 28 1 46 -5 -51 -33 -21 21 41 -61 18 26 -30 -57 -20 60 -52 38 15 -49 18 -32 15 -29 53 24 -41 -34 -39 40 -22 43 38 13 -10 -16 52 -5 21 7 -23 45 -12 60 43 20 -63 43 -13 28 4 -56 39 35 2 -67 23 12 -38 9 40 27 12 -22 -46 -13 -33 -3 -57 15 -33 52 -49 39 -58 -69 -54 5 57 41 -12 -42 -26 31 44 56 50 42 -25 32 39 54 -44 -55 -42 -56 50 19 -20 -35 -32 -1 -40 25 -16
-1 -51 -49 23 -28 7 59 -27 54 28 44 54 -46 42 60 41 35 -32 -34 62 -33 -19 -22 46 -64 -63 44 47 -9 53 -18 63 -44 -6 19 -50 32 -61 42 13 59 37 16 -34 -46 -58 -41 26 23 32 51 15 20 -9 -12 10 -23 -41 23 -30 49 5 62 25 -45 -39 -13 -43 48 -11 -61 36 12 10 -24 11 -23 43 -27 8 55 -63 6 -32 8 -49 12 -44 -23 51 53 4 24 -34 30 14 -53 -51 -26 -55 43 -6 31 -20 62 -23 -8 -55 23 19 20 23 -39 -28 27 -55 60 27 1 -6 -61 16 -28 43 -54 -60 42 3 -24 7 -23 -32 -3 39 39 -45 -3 -16 -61 52 54 20 28 -49 56 -49 -57 -64 -40 -31 -38 45 -8 -39 46 38 10 -6 -34 -47 -45 -68 -58 26 49 -20 -12 -57 22 11 -28 -21 0 3 25 36 54 45 -40 30 -18 -6 19 18 33 -9 35 57 -11 19 -25 56 36 58 -39 22 5 -28 29 49 23 -26 -60 20 -39 15 -37 48 20 -11 -50 -43 50 -42 -45 64 6 33 70 22 -16 21 25 39 -20 36 46 16 -47 25 12 -25 -37 55 35 45 -20 52 3 41 -46 13 -63 55 -32 20 -55 -2 -27 40 59 53 3 50 18 -5
14 4 29 -55 -46 -52 -57 3 -55 -16 -17 48 44 18 -56 -12 -9 -4 -37 44 58 42 -35 -8 51 -9 -55 -43 -39 -58 -24 48 -51 33 -31 25 53 -58 -13 -5 -61 16 -22 30 64 21 -35 -16 -57 43 62 -54 -28 -1 -21 -43 6 67 64 -26 61 13 -14 -44 -35 -49 -54 -43 43 37 -30 -3 39 37 16 46 -53 -22 52 -19 16 -18 -12 1 -43 -16 2 -3 10 -3 36 33 43 38 50 28 -34 57 -40 -42 -12 0 -26 47 61 30 -40 6 30 52 17 -32 40 -28 -6 7 -38 -50 -33 -13 10 -8 -66 -3 30 -51 69 17 46 -12 16 25 39 33 -1 -48 -14 57 -41 -31 23 -2 10 -19 20 52 -28 36 -19 30 -24 -9 -15 -19 -27 39 39 -10 -31 3 10 -25 -23 -21 -70 -5 56 49 62 -22 11 42 6 -1 -56 -27 47 -57 -32 65 17 -10 44 21 27 36 57 -7 52 -22 5 -25 18 -12 -4 33 42 58 12 37 -40 36 -54 -54 -39 21 -14 -27 -39 58 50 -39 -63 -48 -23 -52 16 -61 63 31 68 6 24 -19 -16 -63 19 -10 2 19 -42 9 68 -10 -30 -24 15 -49 -41 -29 -48 39 59 -2 58 -48 -2 -53 -8 58 30 -13 62 31 32 -29
-28 23 -17 -11 36 13 -76 0 -45 43 45 67 -57 -11 46 26 34 62 42 -25 58 -15 41 -53 34 -59 -45 1 -53 -58 -13 35 -27 -31 21 -6 0 -41 -25 22 -38 36 -35 46 -4 16 43 -43 24 21 39 -36 -46 39 23 23 -26 -48 4 21 -62 31 61 -31 16 65 51 20 55 50 48 -11 12 -14 51 -42 35 -10 48 -23 -21 -3 45 46 64 52 22 -3 42 40 60 -27 3 -14 20 -16 -24 -58 43 -32 -37 -29 0 -9 -22 17 66 -34 62 -9 -21 60 2 10 47 42 40 24 -42 -51 27 -67 13 49 -9 10 40 36 -59 27 -64 19 50 -35 31 -63 40 -33 35 -52 -14 -41 -28 -11 -59 18 -40 -32 13 8 16 15 -51 -55 43 3 -46 25 -57 -30 4 -35 -35 -63 -2 -61 -48 25 37 49 -26 -41 34 23 19 22 41 -27 -18 -19 31 -1 9 51 -32 -37 -11 -18 5 22 1 45 51 41 48 -35 11 32 19 29 -52 -10 3 21 30 48 -57 25 38 -28 33 -25 -43 -46 58 11 -34 62 -16 4 -48 41 -62 -46 78 42 25 -55 21 68 68 -43 60 -6 7 8 33 -7 7 57 23 -36 60 -56 -41 -27 -22 -16 -23 42 -20 4 24 -6 -20 25
-37 -55 47 -36 -27 36 26 -28 -48 -17 -51 -33 35 27 23 18 36 -62 28 -25 16 40 -29 19 -23 -35 19 38 -44 -5 3 24 -32 -24 33 -32 5 -51 -47 -9 25 52 2 0 57 -49 -19 47 -52 61 26 5 -29 -19 7 0 -24 58 -49 26 -6 34 -20 -62 -55 3 62 49 -48 -39 45 25 36 -10 19 24 -63 -16 -49 -22 -37 19 41 -36 52 54 31 -24 -28 -50 -46 -3 18 -21 -49 26 -42 35 54 -19 -23 -53 -37 44 -27 -6 13 -33 -5 30 17 -16 -54 45 -31 -15 25 6 -60 58 53 54 -19 -3 -47 63 -14 -54 64 21 60 -37 13 -3 -32 -49 54 -32 -18 26 25 19 -18 -32 53 14 -50 61 42 -42 58 -21 -60 -40 -48 -16 50 4 41 4 12 1 -59 24 22 -34 -15 55 -46 -59 62 61 4 -30 -5 27 42 -44 60 -46 20 -55 50 -60 50 -40 11 1 -31 -1 14 41 40 -36 47 0 7 34 -1 29 -21 -58 -38 -11 -16 -32 38 -61 38 -59 15 -19 42 32 -48 26 -32 30 -26 -15 53 -60 -56 -9 -22 -28 -16 19 39 -57 -8 -3 26 26 46 -34 -38 60 -48 -24 57 -34 42 5 -20 -3 -44 58 -23 -25 -32 -33 -37 16 54 -33
15 -3 62 -32 -31 30 -8 50 -12 39 -5 -28 14 -27 64 -8 -9 -12 56 -59 22 43 30 -11 5 20 18 23 24 35 3 42 -44 -32 57 11 36 50 43 -38 39 34 -57 36 -9 57 9 -30 -35 -32 64 -28 -63 -8 30 51 -35 0 52 -29 -26 -43 -57 -50 54 -18 -41 2 -29 -22 22 22 30 17 43 -41 -35 -11 -10 -23 13 34 -45 1 -49 0 -18 -55 60 -13 -22 -8 16 -10 56 -56 -34 11 41 11 -57 26 -4 56 12 -55 32 17 45 42 -24 -17 -29 -26 50 -30 29 -34 -7 15 -45 -25 4 16 42 -6 47 -4 46 -61 20 -51 7 60 -46 -1 25 27 25 -15 -37 28 -15 51 21 -51 30 -67 -44 19 41 -10 -48 31 19 36 49 14 -53 37 -22 -48 55 20 58 -50 -33 -3 -58 57 66 -37 44 49 54 11 -55 -11 -43 -37 17 -43 40 0 34 -45 12 -56 55 7 47 10 -4 31 59 -16 32 60 -49 41 -14 -22 -26 33 -29 46 4 8 -38 -6 12 -14 -69 -21 52 -61 -43 -52 -56 40 9 10 47 -31 -37 -2 46 20 -16 -15 19 48 39 -10 22 -52 18 5 -10 25 18 57 -48 -62 -47 23 53 -49 -39 0 -23 16 10 -60 49 -50
-57 63 22 54 -17 32 -9 -32 42 51 4 -51 5 -8 -63 49 -61 27 39 48 16 50 57 63 -47 59 20 57 -61 -6 32 -23 42 -4 14 31 23 35 52 0 40 -13 47 -20 -6 -32 43 -19 -56 -63 -45 -20 -59 -43 -47 -60 -28 -7 -62 63 23 -25 -22 10 31 40 -38 29 3 -28 46 -27 31 -31 59 -54 -12 24 46 -53 -14 -6 -31 10 46 -7 29 37 -26 27 37 -10 -4 -13 30 54 -40 38 -56 42 -52 39 -13 34 -27 -22 -53 33 -1 -48 33 10 -63 24 54 -43 -57 -24 3 -29 -15 56 23 -21 47 -57 40 -32 44 20 -62 -6 9 2 -28 -34 7 42 14 -36 -4 -2 -4 54 62 50 -61 -8 -51 38 2 -62 49 -2 59 49 -62 -24 37 -57 35 40 -22 26 -43 62 -2 16 -18 63 52 16 4 -22 23 -14 -50 -46 61 14 -27 13 -31 22 15 -36 32 32 -19 49 58 23 -14 24 -18 -34 43 -51 -27 51 -24 59 -9 -22 4 47 1 -12 13 30 -26 -37 34 42 -17 -47 -32 45 42 56 51 -48 -36 0 -58 -59 -4 44 36 4 16 51 14 62 39 3 -54 30 23 -3 21 9 6 21 -24 -40 -42 -18 53 -42 32 -33 51 16 -20 30
-26 -50 46 8 -2 -17 38 39 26 -3 27 -40 -5 32 58 49 22 -33 -41 -9 -2 -8 33 23 25 -39 11 12 -48 54 0 -8 47 -24 -30 -31 40 37 21 58 49 10 7 38 44 58 -23 -4 13 -31 -8 -15 -13 -58 -27 19 -39 63 16 -19 59 9 36 15 25 -7 -63 -27 -40 -22 34 12 48 57 -26 -56 32 -41 57 16 -12 -16 -2 29 28 -2 7 12 35 49 37 8 46 30 -64 45 -29 7 14 -58 11 46 44 -17 52 30 60 -20 35 33 -19 -48 -10 25 11 -7 -9 60 -55 -34 12 35 24 -48 -18 -1 38 52 -38 29 20 12 21 4 -51 22 -35 61 -53 53 21 -27 3 44 -21 -63 39 16 -55 8 60 33 51 38 15 -32 -35 40 -10 40 33 15 -47 -41 -44 34 0 -27 16 52 67 23 -40 -11 -41 -4 -58 -35 -19 26 -40 55 -5 -39 57 41 28 51 -3 -46 57 -43 21 -6 15 -36 4 -61 -40 -37 42 -13 -8 -13 -43 -8 59 16 -15 -53 -32 -38 -2 32 43 -61 -23 -52 -62 -22 -44 22 38 49 13 -44 -67 -21 -40 -23 52 17 -62 -15 68 -15 12 -57 39 -29 -41 -18 -48 -33 -57 30 23 41 28 -9 37 61 -17 -7 -40 -68
-63 -41 62 61 -10 43 24 59 9 45 48 31 -39 -10 -44 31 -24 26 -8 23 -51 22 18 -6 -19 1 -25 12 -37 -36 28 0 -11 -58 21 -48 -16 29 26 41 -40 -38 42 30 39 33 7 -6 54 -44 -48 67 2 42 58 0 -37 56 -2 -63 3 -26 -33 -47 48 -14 -22 -45 -40 6 43 -57 -36 -29 -63 34 6 -6 -31 32 39 -46 -23 -29 -28 -37 41 -18 -46 -26 -19 23 59 13 -31 47 57 58 0 56 31 24 -49 -68 10 -60 17 -42 -32 -42 21 -17 -20 -48 -26 -25 32 11 -56 46 -12 -32 -13 -28 29 -49 31 -55 18 69 -24 56 -19 -37 -43 -2 -32 -37 -53 65 -25 -27 -21 -58 -42 -32 -17 59 -7 34 25 1 66 -15 -2 -39 34 32 -21 7 27 -56 6 -38 5 -5 -25 -6 48 -11 -31 17 58 -11 57 -39 -42 -26 -2 27 -5 -40 51 39 35 -51 56 34 -10 -1 1 37 -54 57 4 48 65 40 51 -19 41 -42 -9 -8 -57 -19 31 36 -29 25 56 51 -56 11 -27 -14 -18 -41 30 49 -59 43 33 55 5 27 -8 34 14 -58 -10 46 -28 -33 -45 -56 -41 47 -29 3 11 -34 -33 -8 13 -61 -60 -21 -43 22 32 -35 10 -46 -50 -63
-43 22 51 -46 -8 5 27 27 -79 -17 4 60 37 -77 10 -88 -26 -60 -6 -58 -49 25 -4 8 27 -17 -45 36 -16 -100 -19 54 20 -2 -12 -40 -91 -57 33 27 50 14 21 -34 4 -60 30 52 5 3 -18 16 -2 -74 33 -3 -1 0 -40 -19 7 51 28 -89 8 24 31 33 24 -20 33 49 36 -21 -13 4 -50 -10 13 -30 -35 15 -42 -64 -14 19 -34 36 46 -59 2 27 60 -49 19 -72 1 -32 -27 -51 -52 56 -44 -44 15 -66 -50 9 11 -19 2 -36 -25 -10 9 -69 -40 8 -46 -40 -13 31 -21 -26 -69 -33 -13 23 -39 -18 -41 58 54 44 -44 -59 -20 12 -66 -12 -42 40 -46 47 4 3 -53 2 -42 -37 -12 3 25 -41 -47 -49 -65 -45 -61 -34 22 -121 -27 -60 -20 26 -5 18 -13 -79 12 -20 -15 -34 32 24 -45 -66 -10 -65 27 0 -49 30 33 3 49 -22 -17 3 -17 -7 32 -18 47 42 -60 2 -29 -30 -15 0 16 -48 -34 -31 -19 -45 -44 -52 -30 32 50 48 23 40 6 -81 63 -73 -26 -11 -61 67 11 21 -31 -53 57 -53 -10 -67 -38 22 -10 -70 19 36 -57 0 -21 -41 -72 15 -59 -81 -63 -64 -56 37 -46 -43 -63 -55 19 -30
-23 35 -39 52 54 43 -26 -9 55 67 -58 -28 23 16 16 -12 68 53 55 62 16 55 27 -22 58 -28 -62 6 29 -38 -63 -24 40 6 -32 53 34 53 47 3 57 2 -13 54 -66 -34 27 -63 -46 -19 -58 47 33 -59 15 -40 15 15 8 66 -61 21 -51 41 39 45 19 -29 -45 -60 54 -39 -64 -33 -69 -32 -19 -7 39 -14 11 47 41 -22 58 27 -21 -2 27 31 -35 -52 -19 -3 46 -58 -36 -5 54 -54 -58 0 -23 29 14 -47 13 29 30 -1 14 62 15 -44 26 -24 -34 -38 19 38 59 -34 -40 -17 -42 30 17 7 -52 18 -15 -57 -39 42 26 -34 57 -25 -42 -39 -57 -39 11 52 -3 23 -54 -28 10 2 29 36 -1 4 -38 -51 -19 50 32 -11 -67 -20 20 -9 -47 -28 19 65 -2 -48 -15 9 57 55 57 57 2 -35 23 51 9 -27 47 18 -38 -37 45 -57 38 65 70 -51 19 35 31 -9 -21 -22 24 -27 -54 -58 53 31 5 -12 19 -8 -43 -29 42 55 -21 -48 2 -41 15 28 -20 26 8 56 -14 57 26 -13 38 1 53 -41 -28 17 -70 -57 -18 55 2 42 21 28 -45 -65 58 22 -53 33 25 -56 49 -39 -38 -68 45 32 45 -12
37 41 4 -13 13 -40 48 -49 -48 30 -26 -4 31 -14 34 58 -42 55 -47 -1 -36 -45 -28 9 -27 -10 -55 -53 -13 15 -5 56 5 -43 -54 61 -55 -31 -61 -3 -67 41 23 54 -38 -51 -56 28 -57 -45 -10 -42 42 -9 16 8 49 28 -16 51 8 35 -17 53 32 28 26 35 -20 -63 21 26 -4 -39 30 -32 26 40 28 -14 36 -59 -9 -21 -59 52 -13 3 51 -61 -1 43 -45 -10 -36 52 2 7 28 59 -23 6 66 30 -29 2 29 11 50 -24 53 38 8 33 61 -46 61 6 -24 -29 38 58 17 2 -59 46 -35 -62 45 33 44 56 36 1 -58 52 -30 -18 -60 -58 -20 55 48 -35 69 -45 -28 -17 40 -26 -20 0 5 -19 -38 -4 11 35 -64 44 57 52 -57 50 30 -49 48 -13 30 -38 47 23 5 29 1 39 60 -37 48 17 11 -28 -25 -39 -44 2 -38 38 51 -27 62 34 -61 -36 52 2 37 -21 -12 46 5 -10 63 -19 -3 2 38 17 30 42 -21 32 -19 31 5 -48 -39 40 -19 -4 38 -36 1 16 18 11 26 23 39 -58 -60 61 -10 -10 -30 52 -7 54 21 56 22 1 37 33 48 -8 -2 -31 -63 -36 -37 -14 50 -35 5 60
34 -35 67 -5 -7 -49 -1 46 64 15 34 -10 -28 42 41 15 67 35 2 -23 -5 17 51 -3 -42 62 13 41 -4 45 24 20 16 58 54 -1 34 26 -12 -47 -14 16 -18 -51 -58 51 -45 37 9 -19 -33 -49 -48 49 0 59 -56 37 -31 61 -55 17 -32 -3 29 -43 -20 51 45 -42 31 17 1 -46 -4 -24 51 -63 -3 -58 5 -31 -38 -14 -13 -17 -35 -26 42 58 7 -1 0 32 -63 -38 -55 13 35 -41 -22 -40 -31 13 -7 42 -27 32 40 -32 50 59 -44 -34 56 -64 -16 43 41 35 25 43 -20 -35 -9 32 45 31 45 20 36 46 -47 -48 -5 38 -1 -14 -45 22 19 20 -19 -6 -26 -9 2 -53 -68 -18 -55 -24 64 54 -25 39 -40 -40 9 64 -41 -11 35 23 -31 -33 28 -13 -9 47 -10 16 26 -23 50 -8 -51 -31 -1 56 2 36 55 29 37 62 42 -44 14 -35 -22 4 21 -58 -12 -12 19 -40 -60 42 -42 40 50 40 -9 54 -47 2 -30 -62 -12 -9 23 52 1 13 -47 -48 -52 -2 -49 -48 24 -22 57 -2 -12 -23 56 -1 36 -32 41 56 40 44 27 -27 -39 56 41 -38 23 -61 50 -29 63 9 2 55 53 11 -47 20 21 -18
-59 34 22 39 -49 20 -21 54 44 -19 18 -40 -46 -16 -6 47 56 63 -8 18 26 4 -8 55 49 31 -59 -24 63 -24 -12 21 -19 -29 48 7 -11 58 54 -28 30 30 21 41 -15 7 51 4 46 -58 -9 -29 64 -14 -52 2 -35 -57 34 -8 -52 -22 -29 -17 15 -23 69 -23 -21 -48 -57 -6 -36 52 73 17 -37 52 -16 -27 -26 61 43 -51 33 -60 -24 -23 67 59 -15 -45 32 -13 36 -54 1 42 -54 11 -29 -31 69 -27 -12 -45 10 31 -57 3 57 -27 -50 -4 21 -27 29 18 56 53 52 -36 29 49 -21 -5 22 -20 49 3 62 -63 10 -41 -63 17 36 -41 18 -39 -12 -3 29 -24 61 -27 16 -5 -59 45 25 -21 -29 -18 -63 -23 -23 15 -57 58 28 49 -61 -1 -22 5 -7 40 2 -13 7 32 31 -21 -26 45 46 45 48 -22 -32 -32 -56 15 -53 58 46 37 0 52 -32 22 20 -19 17 -9 37 -49 43 12 -3 -38 -41 33 5 -1 -10 41 -33 1 9 11 27 44 48 56 -14 5 26 -18 -12 -37 7 49 -17 -3 -1 55 -34 46 6 -14 -19 18 -16 -62 30 -27 -44 9 41 16 60 23 -50 -21 48 -18 62 -52 54 61 -62 -31 -23 -49
-4 -14 40 -13 -14 52 23 -18 -31 -9 -36 -30 -9 51 22 45 62 -66 -48 -64 13 -21 41 -22 -43 -51 30 -48 45 -52 61 -46 24 -36 32 7 -26 -28 46 0 -52 -26 33 -61 19 -58 51 -39 -12 -29 -7 -67 -49 47 9 5 -32 51 28 20 -8 25 37 -1 -23 34 17 1 -32 21 -36 -29 21 10 18 -6 2 10 -13 -33 56 -13 14 52 35 52 -30 55 -4 -33 3 -46 2 67 51 49 4 16 -29 10 -17 8 8 32 -61 -15 -19 30 -36 19 -48 -31 -38 39 52 -60 58 -54 63 1 -19 -14 -12 -69 2 -7 41 -26 28 8 50 -59 -14 -10 -30 7 -30 -7 25 -32 -37 -69 64 49 60 38 48 -41 56 15 0 5 8 -2 -26 -58 0 32 -49 0 10 40 -11 -3 -7 -53 4 68 18 -10 18 -22 24 -36 -18 -10 10 -8 -31 -19 -26 30 6 3 8 49 50 49 -7 -63 45 63 -34 36 32 -37 -25 57 35 -25 25 58 36 -15 5 -28 47 58 -54 -17 23 -57 -53 58 22 38 15 -7 -60 58 67 46 -19 -45 -10 -20 -23 19 37 19 23 8 -64 50 -3 55 -42 -8 30 -41 -48 35 -7 16 -30 -59 39 -58 39 0 -43 26 -24 29 -6 62
56 -6 -62 16 37 -32 22 40 53 46 -5 3 -3 -61 5 14 -2 26 -22 -16 -39 48 52 -18 55 -2 -12 56 23 -12 -5 -54 53 23 53 -33 -18 -17 -2 27 -31 -34 18 3 23 42 64 15 -21 22 20 -22 24 14 33 16 -30 -39 24 50 6 12 -22 55 -13 47 31 60 47 38 -1 -14 -5 -21 37 -44 -58 -7 -2 47 41 14 -57 60 20 -1 -51 40 0 48 -43 4 -12 1 -41 -17 -5 26 -19 -51 -42 -37 14 49 -11 -4 46 -54 36 -6 45 -2 58 32 20 -16 44 -60 -38 51 -28 -19 11 -58 24 33 -4 -30 -8 43 -31 -17 -36 -33 -29 15 24 -63 -28 -3 -26 -15 20 33 -12 9 -45 2 -30 4 -35 -6 -25 22 -41 31 2 20 22 49 -30 34 -61 -62 -34 32 11 -26 5 -50 -28 -27 37 -57 54 -2 36 -13 33 21 17 19 -55 57 52 42 53 -46 -27 61 60 18 11 -63 29 11 -2 -50 -20 -59 -40 -50 14 24 -39 49 28 -37 8 50 -9 62 -3 -25 8 -18 3 -55 -41 -2 -51 -62 -17 -8 50 54 33 -62 -62 24 -41 4 52 55 -15 19 -60 -9 -42 -15 -16 9 27 43 -7 -7 -8 -3 60 15 -62 6 54 -45 34 -19
-32 21 64 38 -35 -49 28 65 16 -42 -2 45 -57 -35 -23 42 22 34 -3 66 -50 7 -22 -40 -27 4 0 3 36 67 34 -31 2 46 31 -37 0 -35 15 -55 52 -7 54 14 -5 -15 49 -35 51 -56 -36 23 -17 34 -56 -25 46 -51 39 57 -58 -28 26 26 -18 -32 25 -29 43 22 54 13 -67 -50 4 -43 -66 -53 7 25 -69 -11 22 -40 66 -15 -18 19 22 -53 -64 40 37 -22 15 32 54 -21 -23 35 -46 -21 -16 -21 -2 -6 -10 63 47 -56 62 46 -1 14 -11 -21 -64 -35 -47 40 45 -35 -6 -18 27 -18 18 -35 24 21 69 3 47 29 22 -11 41 56 48 63 -44 -54 -63 5 27 32 -29 2 -1 65 -4 -29 -50 -29 -21 -4 33 -33 6 45 36 23 24 -11 53 -50 -36 -41 14 32 34 48 17 -70 26 8 -47 33 -62 46 -4 20 8 -7 50 26 -10 -40 50 48 31 -28 -7 21 -63 -45 -21 2 55 -2 -53 12 -55 19 59 -57 47 -57 69 36 -27 -63 48 -26 53 34 47 44 -25 42 -3 -62 64 -24 68 -19 -60 -41 33 -18 64 -5 -9 4 -14 -18 -44 60 -42 33 59 -29 45 43 30 -8 37 -16 -36 51 -66 -34 -51 -46 -39 -8
50 -50 31 23 32 -26 -4 -3 -35 -46 16 59 -31 -42 -45 -3 23 14 20 25 11 -8 6 0 5 -35 -51 -54 -6 -35 -40 -32 61 50 2 51 -10 -50 1 63 -22 63 -22 -49 57 -54 2 18 15 -49 -50 32 9 -3 -32 18 33 65 -33 43 -39 37 54 -57 32 -40 55 35 19 -35 51 -47 -34 -15 -56 -33 -57 -63 4 47 43 -26 -38 -14 48 6 41 41 9 33 -48 39 53 35 -30 -1 -34 52 -17 47 -46 0 45 -39 -19 50 -44 22 12 6 -42 56 34 23 -57 43 -16 49 14 34 42 50 60 0 -10 13 -69 -23 -33 49 25 18 66 23 -29 -63 -48 7 34 -37 -51 -13 -54 65 -42 -10 17 56 -53 -12 15 -13 51 -52 -57 -56 -52 -31 32 -43 -19 -21 16 -26 57 59 35 -50 -22 -37 -48 -51 5 9 16 0 1 3 5 -14 45 -42 -52 14 35 -10 0 -23 57 66 -5 42 -50 6 -16 0 -43 -24 -33 -21 -27 18 62 -40 19 27 -3 15 51 34 -41 39 -44 -38 -63 4 1 57 -28 12 40 16 -56 16 -47 61 -24 -2 -33 -38 49 -56 -52 51 54 44 -23 55 -5 -31 35 -9 35 -10 -57 -52 -58 33 8 -1 9 15 -32 -22 10 33
27 -33 71 8 17 40 57 1 37 -54 20 37 11 59 -20 -61 -27 36 -8 -21 -12 -13 10 58 -41 63 25 53 -33 -31 29 -55 54 37 46 48 -47 25 -60 3 59 12 66 53 32 -21 -47 4 -15 -30 -36 31 26 -34 -34 -23 -60 6 10 3 -50 4 -52 -54 -12 31 37 19 18 -7 4 12 -22 21 53 -43 67 -64 -19 9 -48 -63 -40 57 60 55 12 51 31 24 43 -30 21 -37 8 -17 -54 12 -40 28 -1 -39 1 -66 -56 37 -31 28 -4 -43 -24 -40 66 -21 -40 -11 -14 28 -28 14 27 -15 14 -40 -8 46 -53 54 -58 10 -9 -61 46 40 -12 -43 -68 21 -51 -32 -31 28 31 58 -33 -14 -29 59 -43 47 -69 -20 -4 3 -12 16 -52 51 67 -63 30 24 25 33 -2 20 -42 -11 35 56 23 -11 6 -43 -18 -49 44 3 -19 -53 -65 -10 34 -63 -4 -58 20 -57 -48 50 -21 66 -45 -7 -49 -49 -32 -57 -21 -56 -49 7 -40 -36 22 -63 57 -53 -10 22 61 30 15 -3 7 -51 22 -37 -25 44 28 -35 -21 41 34 -28 -22 45 -40 13 -36 -18 -64 -29 -37 -9 3 -37 59 38 -38 -54 -25 -41 -35 35 25 13 28 -40 62 -51 40 -9 -32 -18
-27 59 30 -9 -52 -61 -52 -53 54 30 -43 38 -61 22 45 60 27 -39 -9 -49 -16 -10 -35 -60 26 63 -3 48 32 31 28 -50 -13 -17 39 -1 3 1 -20 8 20 -47 14 -7 17 -29 58 -50 -42 -40 -69 -30 -66 -19 -55 62 40 40 -35 26 -10 49 27 60 36 38 17 1 28 -47 -32 31 -63 -47 -40 3 36 19 29 28 17 -25 -12 33 42 -34 33 47 2 -6 -42 -24 12 -47 -27 -16 24 36 -48 58 -19 9 4 38 38 21 -4 54 50 -33 21 -39 1 6 -25 47 -53 -29 -26 -36 -36 32 5 -26 32 41 22 25 -22 -27 -14 -10 -9 30 4 45 28 18 -11 29 9 5 45 39 46 -21 28 67 -49 -24 -50 30 -14 -27 -31 -31 -59 32 -52 2 56 11 -49 25 53 13 -22 -23 -28 41 -71 -62 58 47 28 -10 51 -36 51 54 -20 53 43 -60 -37 -47 -18 38 -59 10 21 -48 -10 40 -7 2 42 17 59 -63 -4 67 -64 18 -7 -38 15 45 -2 32 -33 -2 42 20 -54 0 26 17 -7 52 -33 -33 -22 -49 33 62 33 -1 -53 32 53 6 31 3 14 -25 24 -38 62 50 -26 -51 1 42 30 28 -2 31 44 -9 59 15 -46 3 60 13
-33 -39 -54 -24 -26 -62 -30 30 -8 35 -39 26 1 31 51 -18 31 40 12 37 -49 -12 -44 -21 -61 -51 -4 37 -55 -44 13 -39 -65 42 -68 1 -67 -40 31 -26 3 28 -40 32 10 20 -52 9 -47 29 -47 -57 -10 -28 -54 52 28 -23 12 -3 -6 -30 -12 2 -36 59 53 -3 -47 -57 -69 -43 -55 42 16 13 49 29 9 -48 53 2 -11 -12 -5 -46 61 -67 -54 13 63 -18 -43 -16 44 -23 -35 24 60 -18 24 31 -35 -44 54 -30 37 42 -18 4 1 -49 1 27 25 -60 -47 23 8 43 -60 -34 -42 -58 40 37 -30 -41 41 -42 42 47 -40 39 45 61 -32 49 -15 -1 13 36 56 -37 63 33 42 23 25 60 -15 -18 -6 -19 13 -29 -52 -8 29 49 -8 -61 -18 56 37 -61 57 -9 53 -43 -28 -52 -48 52 -36 42 -35 -58 62 36 -39 7 -61 62 1 -41 -56 -11 -33 -11 23 -17 18 -46 32 52 -12 -63 46 -38 -15 5 -31 -49 -36 -36 -28 20 53 22 61 5 -23 52 44 55 -37 -44 -20 -46 53 -13 -12 51 -17 26 -65 -8 17 -6 40 28 -64 -37 -2 50 -25 24 -1 -2 -45 -2 26 -14 24 51 49 -39 -60 -42 9 -16 27 -33 -56 13
38 11 62 44 33 32 57 -9 -31 38 -50 17 -37 -26 -46 15 -38 18 22 -58 9 -45 55 33 47 44 24 -40 2 22 -62 48 -52 -16 49 59 24 25 40 -52 67 22 28 -33 -47 -32 37 58 -37 -23 -37 -55 30 -69 -25 -63 4 17 -43 -22 49 -31 17 12 -49 -28 -41 52 -41 51 17 -34 -43 -17 -29 -47 64 26 58 -47 14 56 -61 57 13 0 -17 6 5 -42 38 39 -1 39 -47 -36 8 -42 -32 14 3 -16 5 -34 -60 25 0 -13 -49 -48 -1 -45 -14 35 46 10 -31 -41 48 21 -62 -51 15 -34 17 -4 37 37 -60 -28 40 1 7 -68 52 -31 69 -43 -22 -18 -38 -47 -22 52 -43 25 42 39 -57 -51 25 -34 19 -8 -59 -64 30 45 65 47 -60 -39 -51 -4 -39 3 42 -4 -22 -59 28 -43 33 51 7 32 -17 -12 41 9 -59 -30 -5 4 48 -39 -17 61 9 34 39 -50 -35 -27 4 -42 35 -47 49 39 46 43 40 -25 40 -47 -27 -35 11 50 63 -26 67 58 -40 32 -1 -31 -24 -6 -32 -30 14 16 14 33 -15 -35 -17 55 20 -37 40 -59 12 -63 43 -32 17 -22 6 15 -54 40 42 49 4 -20 -15 -15 35 24 42 54 35 -11
-35 32 -48 -4 54 39 1 -19 5 -43 -63 -58 -34 34 5 -56 53 -47 47 46 -51 34 52 54 -58 -2 -44 -18 60 -57 -59 53 -58 24 0 62 30 -43 -43 4 -53 -3 -31 -16 51 6 12 24 28 58 -56 -34 11 52 -20 -6 -29 15 -49 -2 17 -33 -18 -57 25 37 -21 -7 -32 27 -25 -7 63 -60 -47 2 56 64 -35 -18 -27 -56 36 23 4 -18 44 50 18 60 23 -34 2 -10 14 12 3 31 -52 58 -14 -17 -13 60 -61 -46 -9 42 55 -33 -10 -35 47 -61 -13 -16 28 -5 24 45 -16 -30 -12 58 -59 59 -64 21 -44 17 23 53 -28 10 53 57 9 -23 13 -43 28 58 46 -40 10 -52 45 39 43 -61 -1 26 6 23 32 -48 39 39 -2 -2 -19 -22 -21 7 -45 -42 -22 12 -32 61 -52 -9 -38 -54 -5 13 -44 -53 57 -52 56 -24 35 3 -15 -25 6 23 19 49 14 26 32 -33 -29 -25 44 -9 31 -30 42 37 -25 -32 -45 -38 -11 13 0 -24 -3 44 63 9 -13 -23 -46 1 5 -15 -47 -32 -16 -47 9 -57 46 55 -39 -32 -57 -11 -41 -54 10 1 -32 -47 12 59 -20 -16 54 8 48 10 13 30 -40 -58 51 -21 51 -61 23 20
-15 -34 -39 49 -37 -41 55 -23 -51 30 42 -43 9 41 -48 35 -9 19 -7 -13 -53 -22 -28 10 -25 57 44 -18 29 -4 34 -52 -35 26 26 36 -32 -14 21 -33 -10 -8 0 15 47 -35 -39 42 -37 -14 -40 -12 47 -38 -10 -15 33 14 50 46 9 37 -38 37 29 18 16 -39 33 -26 -15 1 24 -9 -1 -46 -18 62 -32 -57 34 -61 -44 -49 20 44 -21 56 40 -23 -49 39 53 60 -22 -21 -42 -47 49 35 -8 1 -7 63 -21 -51 -15 -51 -55 -60 2 -19 -14 60 40 30 27 20 -47 -43 25 51 22 -9 -24 -36 -37 -37 51 -41 15 -7 4 -9 -32 -22 49 -3 44 -47 -33 39 32 5 -60 -20 5 -26 12 44 53 26 39 18 -36 11 37 -45 31 -18 -56 -67 -60 -17 -7 -35 -11 44 59 -17 -18 26 -14 -16 -26 -6 -13 -46 -28 44 62 40 -11 -56 58 58 1 2 48 -57 20 19 -3 -45 -50 45 -15 17 60 -50 39 2 -5 32 -10 49 -35 43 41 38 -32 40 67 28 -14 17 -52 58 40 -4 -37 39 21 -67 -6 36 17 21 -63 -16 12 -3 25 40 12 46 6 20 31 5 -43 -56 -5 21 51 12 -25 -23 42 -19 -32 12 -17 13 -1 10
-28 -31 57 41 63 -58 -12 48 -54 51 -34 19 -41 -25 -56 -34 -17 58 -45 47 -3 -4 47 -28 6 14 15 52 -28 -41 -21 28 28 -50 2 -23 64 55 -59 19 -10 13 21 -6 -23 -42 37 60 -57 39 -38 41 -40 -38 -43 44 -45 29 9 -6 11 41 58 4 6 0 32 -57 51 45 -42 -6 -17 20 -15 25 -40 47 -47 31 -21 37 33 11 49 36 -12 -51 0 48 -22 44 -46 11 -37 -35 -24 51 -62 -60 20 -13 -29 -53 -36 -57 -53 55 -35 37 -52 7 9 -52 11 45 -13 14 31 -9 39 -59 27 52 -63 -46 -4 62 -32 52 -21 -47 -37 29 -62 4 10 25 44 43 8 -45 -62 -63 -30 64 53 -3 -17 -45 26 -40 -28 -45 48 55 -36 40 45 13 29 8 -33 9 35 -13 -19 34 -4 -30 -34 -31 -57 -46 -5 26 -4 65 -20 5 22 -31 -47 48 -34 29 -15 12 7 59 -41 -54 48 -66 -45 -5 -1 30 -34 27 -52 33 19 -60 66 42 53 31 51 -14 20 15 -36 -62 12 -38 -49 -29 26 36 -42 -10 2 -63 -24 -11 40 53 16 -64 13 -46 36 -57 -11 10 -16 -57 -19 -23 53 -12 26 -5 -43 49 -23 -25 26 -4 -52 -54 -20 -20 2 -23
-31 17 -23 4 49 11 -45 -28 -41 36 -59 -39 52 -62 24 -50 2 -17 -62 10 22 -46 -17 -58 -64 40 31 -53 54 -41 -30 31 -9 2 13 0 10 -29 21 59 -27 -2 -3 2 -8 15 -33 -41 -13 22 -48 0 -10 -40 -45 28 49 24 -61 28 39 -38 -51 -48 43 -59 12 -43 19 -25 55 0 -50 -42 45 56 -28 7 36 62 29 14 -58 -15 -20 8 34 -5 -28 -56 46 -7 -50 -19 25 -17 55 -1 -50 -23 47 19 26 36 4 -51 21 6 -46 63 -4 24 -47 -23 20 44 -30 22 -7 43 -49 -10 40 -46 50 20 54 -43 -2 53 45 10 -51 21 -57 52 -11 8 21 31 -43 -42 35 33 -29 27 33 -17 25 -49 46 -26 -10 22 64 63 11 38 24 43 23 17 -1 52 29 -24 -16 -52 52 -37 -27 32 59 -35 -23 43 22 -44 50 -39 -43 12 -21 -25 -21 17 34 26 -50 -48 -24 -38 51 -22 -62 -10 59 -39 -17 -55 21 -23 -58 33 -25 48 -55 7 -41 -17 15 -54 50 12 -57 -46 -54 -4 41 18 -45 17 -3 -28 23 15 -57 -31 18 34 -60 -31 5 -43 42 29 65 28 -17 -14 -34 40 57 -23 -49 41 32 13 42 7 -8 23 21 -30 -6 -35
1 16 21 32 -26 44 -34 38 6 11 -35 14 54 -49 -31 -41 -32 -52 -52 25 -35 -28 53 62 -2 32 15 40 26 57 14 -5 31 -35 12 7 -15 -42 59 -35 -37 3 -34 55 1 -24 -21 49 -10 -56 15 25 34 69 -17 34 -19 -69 49 -25 -15 -66 -2 -26 51 -24 61 -36 22 44 40 3 -10 53 56 40 -1 -25 50 49 35 -27 41 -56 4 -64 -57 64 -9 15 -27 -8 51 -23 -16 -33 -14 -2 31 -38 60 -55 -31 -47 1 -6 -33 -29 -32 26 17 51 1 -23 -53 22 56 -48 -22 12 9 -14 0 32 -16 58 16 53 -33 65 35 2 -49 -52 8 50 -21 -38 33 -12 44 8 5 67 -4 54 -19 -52 60 -28 -52 2 -20 46 12 28 9 53 41 -57 19 -63 26 31 -43 55 64 -21 50 -30 -34 -7 -56 31 -5 -47 -27 -35 -38 -40 -62 52 28 53 -26 46 -6 -50 -12 0 -18 -4 -5 -11 -7 -52 1 51 60 -25 22 22 45 -54 -8 20 0 -19 40 -56 18 23 -32 60 46 -55 50 -24 15 19 26 -63 -51 44 52 36 -7 66 -21 -17 14 20 -64 38 -2 28 39 -19 13 6 -9 24 55 34 9 -9 -1 56 20 14 -40 7 -36 -34 -44 5
-15 -75 -31 44 34 -38 27 -50 -44 -23 -11 -48 50 -1 -45 -51 -7 55 -48 38 -26 -47 13 -45 -49 -58 42 -44 -20 -23 -26 44 -4 25 -12 -52 -7 31 27 0 0 -40 -63 -31 11 -10 31 -22 38 34 -8 -44 50 50 31 6 6 35 -60 -58 -2 55 29 -47 -56 -33 -25 -58 -31 -20 20 -3 1 19 42 52 44 25 -2 -18 -28 -47 41 53 22 59 -10 -35 -22 53 -2 -59 -35 16 -47 20 6 41 -64 6 7 -12 12 25 -42 56 48 46 18 45 -7 -74 -7 1 -49 -40 5 40 28 -21 36 -62 -41 -15 46 44 -2 47 -1 27 -23 -25 10 59 30 -35 -3 30 -35 -29 -12 -42 4 59 58 -8 36 -41 -30 -57 -55 -3 -39 -50 -38 -60 -38 24 -31 53 -34 -12 26 -31 -19 -65 -38 43 -43 -63 14 48 3 -31 -25 40 -15 -71 -48 28 25 -41 64 61 11 -47 -19 -59 -44 -39 2 -13 -26 -24 20 19 -49 43 36 -52 -42 44 -60 39 -59 -46 40 -63 62 38 -14 -50 36 38 -51 36 -19 -27 -67 -57 -26 51 49 -30 -8 15 5 46 18 -37 -11 24 48 -22 -48 -21 -62 14 -10 -71 -25 -36 -13 23 45 36 -7 -6 48 -22 -23 4 27 24 -41 36
57 30 6 -43 -42 12 34 37 -11 48 -50 39 5 -42 51 -2 14 -23 15 -14 31 -28 -32 -20 -25 -34 -37 11 57 -65 5 14 3 -30 -16 66 36 -51 14 60 -49 -25 -8 0 9 -41 60 -19 -20 10 34 -37 1 -2 -51 -8 15 13 -24 -62 -7 -66 52 -31 -17 12 -54 -40 -28 -41 -64 4 46 17 -4 8 45 5 -57 -19 -51 -60 -2 47 -9 20 40 -37 -1 -52 42 -10 17 -4 -16 5 11 48 -13 23 7 53 -26 41 -14 41 -49 23 31 -52 9 -57 24 49 -36 -30 -2 17 -42 -63 54 11 26 21 -10 -9 6 -53 -50 37 53 2 -33 -47 -52 -15 -41 21 18 -19 46 -25 -25 39 -14 -40 -42 10 -54 52 -6 62 57 3 -39 55 40 47 45 22 -21 57 55 63 42 28 -26 -19 -14 -66 20 -55 16 -55 18 35 67 20 39 61 36 -19 23 16 -55 -48 20 -34 -37 -29 -39 5 -57 54 -41 7 -44 -23 -8 -21 -25 -14 -48 -56 6 -15 16 47 -63 41 -52 3 50 20 14 14 -27 15 -46 -18 21 40 32 -65 55 -62 -14 70 -5 -30 -48 49 33 -69 -69 56 -1 4 14 -40 -67 34 -7 50 28 -58 31 -17 -52 -9 31 7 -15 25 -59 -8
-2 54 23 -2 30 -54 -54 45 -18 -8 10 -36 33 -56 -30 -24 -18 -3 30 61 -11 15 1 24 27 4 43 6 14 32 14 -31 8 40 44 -10 -30 -6 23 45 42 -4 54 55 -27 -35 38 43 4 -11 20 -17 58 49 41 57 37 -28 13 60 -29 -51 -9 -8 35 -35 -57 -54 25 -38 -54 -19 20 13 -52 -23 27 56 -17 -63 30 -21 -27 -25 -31 -6 -15 54 -37 -66 -57 -16 2 -49 -14 -30 49 -28 -22 -55 -54 19 -48 60 64 -66 -21 37 -33 4 27 31 -13 -56 -51 -34 -45 23 35 -28 -63 28 47 16 -7 -57 27 58 14 -68 55 -35 -59 39 62 34 22 40 -10 -32 41 -25 47 -1 -46 5 10 13 -62 -30 8 3 48 -51 -53 -62 0 44 -10 -53 -23 28 -67 -50 -38 4 -57 -26 -38 24 68 60 -3 -40 -42 54 34 -5 18 22 -18 56 -45 24 -35 53 47 -15 -24 18 15 -35 -9 -23 0 -47 -46 -61 10 56 0 -43 31 -3 29 52 61 22 -13 -46 17 25 34 51 10 67 -52 -40 55 -24 -41 11 67 -48 -27 -3 44 -49 -42 -31 -33 -15 -47 -41 -47 47 -23 -21 39 -14 -12 4 13 -37 47 -9 45 -62 -20 47 65 -23 30 -19 -25 -26
57 -60 -17 29 -53 -20 22 36 2 -37 63 38 -57 37 -41 56 -46 63 26 -24 29 26 -20 23 -31 -36 -52 -42 8 28 -20 50 -25 -63 12 40 13 -50 -39 -28 -45 19 -20 34 -45 -36 38 -7 42 -47 -53 -51 -33 32 52 24 20 -2 -15 -38 54 49 -20 43 13 -3 -50 22 -45 2 48 -16 51 -16 -65 -1 58 -35 -42 2 49 -69 14 -21 -14 -16 -49 -60 -38 46 -35 11 -51 0 -7 54 19 -31 40 36 -46 -46 -44 -37 50 -47 -21 -49 32 17 5 50 62 33 53 -59 30 -38 38 46 25 -16 -63 35 -45 -8 -35 4 -13 3 61 53 67 40 -29 -55 10 57 -51 13 -10 -42 23 36 9 -55 -63 -67 -52 -42 34 51 43 -65 -10 34 -24 16 -6 -5 40 26 6 -47 4 1 5 12 15 -24 66 -19 8 -26 9 -58 53 -15 25 -50 30 -5 -52 -44 -24 47 56 41 25 63 -57 -37 0 32 -63 65 -68 51 -44 57 6 -6 54 9 -48 29 -43 15 -52 3 33 21 -39 21 30 -13 -66 42 39 8 54 27 -44 -28 -17 -45 8 18 51 28 16 16 -39 -30 46 -60 31 -2 -61 16 24 -56 -44 26 14 12 51 1 16 27 -13 -43 -2 -40 17 -7
-21 -21 -22 2 20 45 51 27 -48 28 59 -35 -24 38 -37 35 42 -18 -63 -39 61 53 -61 1 44 20 -52 -53 29 -10 -36 -50 23 44 -54 -24 15 5 23 62 -54 -20 71 23 -8 7 38 18 -1 6 19 30 -32 -25 -49 -41 -26 2 -24 -54 65 42 40 -29 47 -61 3 -26 -11 -21 26 -11 -53 -37 -57 19 -5 37 -23 -42 -55 -29 32 38 -45 -40 15 32 12 1 -10 56 -40 7 -11 -31 62 -22 13 -49 -13 -16 -40 12 -40 -22 50 -11 4 -65 39 -8 1 36 -70 14 -3 -35 -19 36 -26 29 2 -19 43 0 -44 39 -17 52 -47 -49 -27 -28 -12 -42 -43 -41 -39 19 10 -34 15 13 -36 -1 -15 -1 -47 -46 7 -24 52 -6 -26 60 -5 -39 -59 9 9 10 62 2 -62 2 -41 -36 18 20 -15 -45 19 46 -21 -37 -58 40 32 -24 -25 -51 -26 48 -29 12 -4 51 -38 -30 44 -36 58 -35 -53 24 0 22 35 -14 17 18 1 14 -20 -62 56 -36 -35 30 -28 -47 16 -68 -31 20 -15 -20 52 -23 -32 -40 -19 22 39 59 54 -16 -12 -8 -29 -5 17 -16 58 16 -33 -8 -48 -64 -64 18 59 -14 -33 -1 -60 -49 -63 -57 14 -21 -57 -6 33 23
37 51 2 2 39 18 -30 34 41 -51 -2 -31 66 -2 14 14 21 -53 -66 -24 -46 -11 4 3 -8 -14 25 -54 56 39 -45 12 27 22 -61 37 -14 -43 -68 -1 31 -58 9 -42 -60 60 -5 -23 21 -52 -55 11 -57 32 -34 -35 -28 -4 25 -29 -49 9 9 64 -53 55 -61 25 15 -68 -61 10 43 -29 -31 31 38 -62 48 50 38 -11 13 48 37 -47 -40 -34 31 35 29 26 11 35 37 37 55 -44 -12 -36 63 -15 -15 -54 -40 -58 4 -45 67 44 21 -32 47 -33 21 -59 -43 17 9 47 -52 25 -46 -46 -29 23 -40 12 47 51 -36 -17 62 -43 3 -61 41 54 -37 -57 12 50 -10 -12 39 -6 24 12 -71 -39 11 18 20 56 2 -31 -45 -10 53 -34 -27 36 -34 -62 0 -57 -6 67 -21 49 -10 -43 28 15 -1 -13 22 -19 4 57 -4 -23 -18 -46 1 2 33 -27 -62 -49 -24 -10 -50 -14 -60 30 13 47 -53 27 -6 -13 7 24 10 -35 15 6 22 -38 -50 34 -48 -47 7 4 31 -50 -29 -50 -7 -61 -30 10 18 -15 -22 41 52 59 -2 3 -21 -45 -10 -58 6 64 -9 -54 51 -36 3 -46 -42 -43 -27 37 4 37 -28 -58 -38 57 26 8
-30 44 31 9 65 -63 22 -15 28 -38 -30 -21 10 6 -28 -5 -35 60 38 -60 -56 33 -57 -48 25 50 12 -47 52 11 7 -33 -23 -55 -35 17 -27 11 -49 6 13 12 -3 -6 37 -53 41 36 60 -31 -15 34 -23 48 41 40 40 37 -55 24 -34 58 -35 -33 3 -9 44 -8 -43 -7 21 9 47 -14 35 42 34 47 -15 37 -11 -39 51 -12 -27 -50 10 57 -29 -27 4 34 -12 24 55 -19 -46 -59 48 -31 -46 -44 50 37 -43 22 -29 -24 7 -26 -51 -11 -34 30 -45 13 -49 -33 -57 -30 -29 58 -3 -66 -28 -61 55 -11 -36 -64 57 -69 -40 27 57 -62 35 -54 -17 -42 5 -54 -33 62 8 -26 -13 25 57 39 -35 -7 49 26 -34 26 -14 62 -35 48 -22 31 13 -40 8 42 6 34 -63 20 -7 1 62 -19 15 -13 -50 -25 -6 -18 -5 -51 -40 43 -19 53 -18 14 -58 1 64 57 -52 39 -42 -7 18 -56 1 5 13 -25 24 25 -17 37 -3 24 37 -47 13 -2 -1 37 48 -56 37 -11 20 -39 3 -25 -45 37 -20 -10 47 -19 -3 -21 -45 27 50 28 -41 -65 53 34 31 -27 34 36 -45 63 -35 16 -14 -51 -32 72 27 -69 -44 -58 -29 -41
-16 -28 -2 -23 -26 29 25 -23 16 49 48 -43 8 11 6 26 71 19 17 -31 0 -53 -60 -57 -60 52 -36 -43 -34 -65 -19 -51 -50 -2 -11 55 -38 -27 -52 -32 67 -41 -9 12 45 -54 -48 53 16 5 -30 45 61 44 15 15 -68 -25 34 -20 -32 37 -17 40 -36 -55 20 -17 -43 47 -28 52 53 -15 -7 36 40 36 -12 -20 31 -11 38 28 32 -18 20 53 -16 21 32 28 -17 -44 -9 -63 59 51 -3 -44 -23 -22 41 -5 -41 -67 16 17 69 -56 -64 10 46 -5 -25 -5 -41 17 -24 8 44 -19 -51 -11 -38 1 18 22 -35 -57 -38 34 18 -24 -52 46 -7 -6 -20 51 -25 -41 -11 18 12 -59 47 18 -15 -62 1 -13 -67 53 -36 -37 23 59 47 26 -65 52 -28 -46 -22 -53 21 0 32 -46 -44 -29 46 -64 10 -18 62 3 -31 11 57 -21 56 52 -26 -25 -48 -2 -27 15 13 -39 32 25 41 46 32 -11 49 42 37 12 26 52 -63 -26 2 -65 -10 4 38 -15 47 -33 -30 -24 10 -37 -23 57 -42 -30 60 -54 13 -50 -39 -43 -4 -29 -50 -25 -29 -52 -48 -1 -58 -31 -27 8 -37 46 -62 -6 -59 3 13 23 34 13 -21 -49 -28 21 7 -26
-56 11 -61 20 60 -3 21 15 -15 -62 0 -8 -15 28 -3 39 -51 43 -56 53 -17 -38 -2 -66 -60 36 -44 28 -31 33 -42 -49 -41 27 -42 -36 -30 16 -52 -40 46 12 -12 -10 56 50 49 -10 30 30 -6 23 16 -53 -25 29 -31 -52 -19 52 17 0 -13 -13 -7 16 49 -1 54 -37 -49 -66 7 -30 -13 8 -31 -10 45 -62 21 -25 -55 9 12 -65 4 24 -69 -51 60 -2 -56 -27 17 -7 4 17 -58 40 55 -10 -29 62 -13 -51 44 -29 -7 8 -52 14 38 18 -17 -11 -27 17 66 40 0 15 -6 -69 -8 -57 18 36 8 19 -34 -1 14 18 -60 -53 -18 13 -50 -25 49 -27 -3 -8 -2 -44 -58 -1 -26 28 -14 54 -49 3 -32 -50 -48 -37 11 35 14 36 25 -35 -18 5 12 -55 -58 -45 -6 20 -9 19 -13 38 -56 40 13 23 20 -29 -19 56 40 -64 -12 -15 49 -50 -31 11 -24 5 12 -31 -13 50 22 1 48 -46 6 5 -49 38 -54 -28 -23 21 -35 -63 55 -8 10 49 -39 10 -41 -2 45 54 -49 -26 40 -22 -53 41 -41 11 -61 -62 14 39 15 59 28 33 22 -7 -4 -31 27 59 -8 -45 -28 31 35 -40 49 19 27 -5 11 -21
1 41 -24 35 33 48 -10 29 49 5 -27 -49 -19 -7 45 -63 43 11 -68 12 26 38 11 -56 37 -36 21 19 -20 37 -15 -29 -7 27 28 -2 15 62 -9 64 2 38 -58 -7 65 -6 3 -8 -31 9 -36 -48 -53 -19 53 51 1 -58 26 47 21 -39 -5 -20 27 12 -50 -2 51 -64 8 -11 -17 33 -7 -7 -46 -10 -18 51 -1 -66 32 52 40 53 -18 -45 35 29 3 48 -32 69 -50 49 38 -56 57 1 -62 12 -44 48 35 -30 -29 -63 57 48 -62 -6 28 66 63 -22 -28 37 62 -11 -17 -11 -31 -47 45 20 45 -34 40 -23 -3 -35 -36 68 51 -51 34 -11 -56 -52 -35 -47 17 -37 7 -34 5 -30 -28 61 -29 14 47 47 -1 -16 45 31 30 57 46 16 -2 62 -57 45 34 24 -3 -2 -43 -64 -20 -38 26 -19 41 47 51 50 47 -31 -57 1 46 -18 -33 13 -10 -30 44 -39 -60 -44 32 -32 -42 46 -35 21 -37 -55 48 26 -8 -55 -50 41 -33 -11 32 -42 13 31 -6 51 -12 -56 1 29 28 5 48 46 -30 44 -17 22 -27 10 -13 -61 -31 31 4 42 -4 -8 61 -9 -27 35 46 32 27 -46 -23 39 47 66 18 -8 25 10 -9 -62
-69 -44 49 -6 61 -17 9 33 -13 30 42 38 -39 -41 -45 43 24 -19 -21 12 17 -59 39 -29 10 -44 43 58 43 19 19 13 -48 33 64 16 34 7 49 35 -61 -52 58 12 -47 46 -49 -65 -35 60 54 43 -11 7 25 56 -20 -23 12 -48 0 40 -24 -57 -30 28 54 40 -26 -28 19 10 39 -37 38 37 -64 42 -62 0 -17 57 -19 54 -42 -12 -25 -56 31 -14 42 -43 54 3 52 -35 0 -23 42 62 -58 -36 21 34 41 -55 3 -33 56 -32 -11 -16 27 -5 30 33 7 13 -45 -53 24 -55 0 -31 9 47 35 39 21 -51 -52 -19 10 -28 24 -60 -62 -9 60 34 -3 -51 47 -50 39 64 -16 60 -44 53 -10 20 -52 -54 35 44 10 32 -18 9 60 -15 -15 -46 -14 55 29 43 21 14 -43 -4 -29 -30 -43 35 36 16 -15 52 46 40 29 -2 -24 36 -22 17 24 44 44 5 24 20 53 -27 5 9 13 -54 60 -36 64 -13 -67 -67 -4 -15 30 -31 -29 6 -43 16 -13 -35 27 -28 -27 -32 10 32 64 -22 -44 37 35 32 -25 48 14 61 -49 24 -1 42 -48 -49 -63 -60 28 -11 25 58 55 -64 36 -41 8 67 -6 1 20 -33 3 6
-51 -70 -15 -24 49 -46 16 -27 -2 12 -31 -13 -7 23 12 -59 30 -48 -7 26 -15 4 -10 7 -51 45 -1 -11 -35 24 16 -39 -52 -60 56 29 -9 34 60 -60 34 -27 21 5 -37 28 32 6 -49 -63 -4 11 -26 -32 -10 -29 8 34 -56 56 6 -3 -7 -50 -65 46 9 -49 17 -16 20 -26 -39 20 12 -8 -43 -12 49 9 -16 -27 56 21 -52 -32 -69 19 -41 25 35 -24 42 -25 -36 -21 7 5 10 36 38 21 69 31 -14 -27 22 -50 65 47 1 -7 -22 -39 9 22 12 65 -39 -8 -30 4 68 4 5 -18 55 14 61 16 4 -27 -31 9 31 -2 53 4 -16 -56 -13 -46 -28 67 39 -11 -38 62 60 -7 18 -30 -25 -29 -4 31 -1 28 -13 -1 -18 45 2 26 55 27 11 8 18 18 -42 -12 -61 -42 62 -20 50 -2 28 58 -54 -65 45 -49 -6 -40 40 7 63 -24 32 -42 -25 41 -42 7 -27 61 14 37 57 51 29 -61 64 -11 46 19 -6 -10 -50 22 -53 55 36 56 -6 34 -43 -11 -64 24 -6 -25 40 -24 26 47 63 1 -3 36 -27 -44 -46 43 -1 -52 51 -7 -42 24 57 9 58 32 28 -1 54 -40 50 9 43 32 -5 -33
-55 -63 13 -11 -14 -41 -26 26 39 4 34 9 60 45 14 -9 -40 54 -67 58 -64 -47 63 46 24 -17 10 51 -35 -7 47 42 -9 -38 -11 -62 -50 1 16 -53 29 -5 -16 6 -31 -15 56 22 -42 -44 39 -62 -28 23 44 -21 -4 38 39 -23 -32 4 -45 -1 -44 -31 -27 12 -25 -49 -71 34 -7 45 47 27 -27 3 20 -46 -21 -24 -1 -56 15 -65 15 -4 -44 36 20 14 34 36 2 44 43 -19 -29 -52 -60 -59 40 35 -11 -24 -41 -28 44 19 26 41 -18 37 -43 -31 37 -50 -10 -54 30 24 -54 -60 -22 -40 20 -35 -4 -50 50 42 20 11 -36 -42 59 -41 5 11 -36 35 8 -55 -45 46 -58 -27 -6 -55 -6 -56 -45 -61 35 42 -69 -10 50 -1 -8 -50 38 -30 -25 -32 -15 -53 22 -66 -50 -21 -30 -24 8 -13 49 -21 -28 -65 5 7 -33 -56 12 -1 -19 -58 -6 51 57 3 -13 34 -56 15 53 -45 43 42 20 17 18 -54 -8 -67 52 54 17 56 -26 -4 58 -58 -1 -1 -32 -25 23 -33 -53 6 57 29 -5 -38 -28 -23 34 -26 -12 41 51 -50 -16 -67 -48 30 -52 -36 -46 52 -44 -43 -3 -3 33 -21 -47 -5 32 -48 -36 57 -19 51
-42 -44 1 54 2 -25 -23 58 57 45 39 -36 -52 -39 33 30 55 38 -41 47 14 55 6 3 -49 61 18 -15 -4 -14 -3 -56 -60 -54 30 -41 61 -54 -20 15 43 22 -63 43 46 -61 -14 -47 54 -3 37 4 63 -38 -34 -38 -17 -39 -59 -26 3 -40 -35 43 2 41 -7 -16 27 -26 57 -19 -57 -54 -19 58 -33 57 -31 -13 -44 6 -26 -29 -29 -35 14 9 -53 12 -16 6 33 -45 -22 1 10 18 -26 37 -44 7 -14 -55 62 52 -36 -54 39 55 -55 -43 -5 -35 60 -20 -13 -57 -21 -56 -27 38 20 53 17 -51 8 0 49 -33 10 29 -54 57 63 29 35 -59 -8 42 31 48 51 -64 -60 -39 12 48 27 -61 46 57 13 -45 20 16 10 58 45 -27 -59 -48 -28 37 39 10 40 -60 -50 1 62 -40 -21 -64 -59 55 -16 -53 49 -7 54 -31 -8 -10 -37 -43 17 3 -40 -45 -12 50 59 -41 16 33 -50 29 13 13 -19 11 12 56 7 43 -45 37 12 -31 14 -39 -54 -41 56 -20 -47 -55 6 42 4 -35 -23 -9 18 -46 -9 63 -50 6 -45 -33 16 50 -25 -19 -53 -64 -39 8 64 -5 26 -4 43 -24 54 13 24 -57 14 -59 64 -17 19 13
23 62 -15 47 -57 -36 72 27 -8 -14 4 -27 -25 24 44 43 -15 56 -3 63 15 -61 -51 -25 -7 -48 -55 -10 -5 -32 -55 -12 22 -47 12 21 36 58 -1 18 26 22 -42 52 44 52 4 6 55 59 1 -13 -76 -28 -63 -38 24 -61 -6 5 -24 -71 -44 -57 -30 -37 13 -36 3 48 47 -24 51 52 45 -47 10 -35 28 -17 36 -11 38 -20 12 -42 -4 -63 44 -38 37 10 -24 6 11 -60 -16 -58 -8 -12 21 -57 66 0 -45 9 -18 -28 32 29 16 -33 38 57 -62 -44 -18 48 10 35 -18 1 31 3 -10 54 26 25 10 -17 12 -15 44 55 -8 -31 48 62 11 -28 0 -63 -32 -46 16 23 -35 -39 -3 -23 3 45 -40 -53 4 60 -57 -48 7 37 63 13 -18 -37 10 9 41 -46 42 -64 -34 -23 61 -7 -63 -77 -46 22 20 -57 26 -54 -22 12 38 6 -40 -17 14 52 -2 35 -17 8 13 31 -13 14 58 8 -33 -35 6 -37 -13 24 28 5 39 22 -24 31 18 -41 4 50 58 -16 67 62 -47 64 -50 -13 27 -16 64 -25 -75 6 58 -55 51 21 -13 28 17 -51 -11 -10 -6 -48 3 6 24 11 50 2 -31 -9 -35 8 -51 -56 -27 -40
-48 -20 3 -38 -64 -22 24 -60 29 -7 -5 62 -15 -31 -60 23 -15 29 -38 60 -24 -32 -70 -13 17 -46 55 34 -18 -5 1 31 -35 2 12 -62 -57 45 47 56 25 -43 -5 -69 48 -57 -53 33 -58 18 -44 -26 -7 4 -58 -25 -58 -41 -10 28 19 -2 14 4 -5 27 3 -39 -27 39 -26 42 -48 54 -8 -53 -52 -51 -28 -42 11 6 4 36 41 -14 -62 -1 -63 -69 -29 -26 34 23 28 -43 -20 -29 9 -62 -13 64 46 61 -3 -10 56 10 -36 -61 52 28 -42 -3 2 -1 -12 17 9 -14 -28 -63 -24 -6 -2 -49 -64 58 -44 15 26 -27 7 -1 -60 39 6 -52 32 26 -67 61 43 33 -31 -3 5 -37 -10 -26 -4 40 -34 -48 -54 56 38 62 36 -67 21 -38 54 -47 -19 30 5 -41 5 36 -33 -73 5 14 -5 48 54 -14 -39 -66 -40 33 -14 46 16 50 16 67 -36 -7 49 62 -29 -57 -2 -26 32 -5 -9 -66 54 -38 0 -5 32 -49 51 -53 33 -58 -30 -45 35 16 34 64 7 -52 45 6 22 -44 -43 -43 11 15 47 -18 -9 12 -38 15 -69 52 13 53 9 8 -46 10 25 8 -12 54 19 -19 43 -5 -47 18 42 -44 47 18 -50 -46
-68 42 0 -55 34 27 53 57 -11 -67 30 34 -55 -12 72 77 -14 22 -61 72 -58 -2 -60 -25 1 28 19 -68 39 66 -62 17 -58 42 -19 -19 25 15 48 -1 -35 18 -2 -19 34 -9 -18 28 -40 63 14 15 17 -58 9 -35 35 -25 -26 40 28 34 84 72 -15 54 24 41 -30 -52 30 -5 -50 29 50 -49 17 -9 -15 56 -33 -56 -18 -49 -58 42 42 -51 -43 -43 -83 1 53 -12 -29 -69 -12 17 -1 -52 23 -38 21 15 -7 23 2 -48 45 -52 -40 -27 -26 -55 37 57 -16 30 38 -69 -20 33 -23 -66 -8 5 -52 50 -69 -10 -4 -37 -25 -55 -36 22 51 47 2 46 25 -40 44 69 -25 46 60 4 -26 -64 5 46 25 -13 -37 37 69 -63 14 -54 5 -31 34 -14 -11 16 47 -67 18 -56 -47 -70 96 52 28 34 20 16 -41 13 -6 22 -30 -17 -71 51 44 22 38 -30 -45 30 57 -44 19 49 -68 -6 2 -22 -37 42 30 51 -29 -47 -42 46 -57 -14 -53 -40 -2 -9 48 -39 42 41 47 15 9 23 10 -32 -10 6 54 -49 -21 44 38 -52 5 -57 12 56 21 -59 -20 5 44 -46 -42 -87 -43 -57 18 -82 -2 23 39 32 -59 -5 -10 -6
47 15 17 -32 17 -51 41 15 2 63 18 43 -33 23 20 -34 30 -23 15 -27 8 -31 -33 -60 41 -4 -33 39 30 -23 -7 53 9 2 21 2 -9 44 -16 47 6 -49 -30 46 14 32 49 -32 62 44 46 -60 9 -62 -60 -43 6 53 40 -59 31 47 -35 6 2 -13 26 -51 57 41 -64 43 29 -30 14 61 12 53 -11 -30 -18 -1 2 -29 -43 -4 -46 -41 23 58 -57 -8 20 -42 -26 53 -41 11 10 48 -22 -58 -15 -26 -21 3 34 -15 -45 -18 -8 33 -52 -49 -58 -25 3 50 53 19 -6 -52 51 20 12 -37 -5 59 -21 10 48 -47 -42 -17 11 -58 -63 -50 -54 -27 61 35 -45 54 60 -61 57 46 -48 -24 54 58 64 -27 48 -9 -60 43 -2 58 47 -60 41 18 21 60 0 51 41 5 26 -45 -44 52 -60 -50 -15 -47 9 9 24 -6 -21 9 42 -51 15 57 51 34 26 27 -49 -5 -45 28 -27 -21 42 34 57 -4 32 -23 -33 0 -44 6 43 -39 -62 -47 -49 22 -10 32 48 28 29 62 52 38 -43 -4 41 -51 -63 30 -16 -55 -10 11 -23 -20 55 6 -54 -10 34 -61 47 -42 -27 15 59 30 46 -17 -22 37 42 -1 -23 26 2 27
-68 33 -17 3 1 5 -29 -43 -11 52 -9 -49 55 -36 46 81 -13 56 -13 -35 31 61 -59 34 -43 -3 -13 -20 -20 24 -51 16 5 4 -67 -54 3 -39 44 -65 38 23 25 -48 14 -7 -61 21 -36 36 -24 -70 4 -46 7 -26 38 -59 -23 2 -8 -16 -17 -38 36 2 -76 27 -22 21 -20 55 -3 50 -44 -58 -54 -2 31 4 -55 -9 20 -27 1 -49 -39 38 -39 -10 -72 34 20 20 37 -69 17 65 -22 -40 17 -1 -6 -63 -44 -53 -13 48 54 -19 -3 36 64 -57 -33 39 -54 -41 -20 -42 -37 -14 -11 35 -79 -7 37 4 10 -61 6 10 -26 22 -58 -47 -30 -61 -48 -1 -3 25 -21 5 -18 -46 52 -43 29 41 -58 -47 -49 1 34 20 -78 -71 0 28 17 -12 19 23 21 7 -29 -46 -33 -31 57 23 -31 16 -43 29 17 -49 -71 47 -24 -60 4 35 24 -54 3 -35 45 31 59 68 33 -15 -81 55 -37 -53 7 29 13 61 -25 20 -3 -16 42 46 -52 2 19 20 -38 42 51 30 -78 14 -56 59 31 -50 4 -62 -70 -45 -43 -63 -32 23 5 54 -10 46 62 42 -26 -28 -60 -19 -7 33 -50 -45 7 -47 50 -30 1 -22 -48 21 -61 -41 35 -25
-43 -61 13 -51 59 30 -52 7 24 38 -37 -33 53 28 16 2 55 69 21 36 53 -7 -61 2 20 -58 27 53 -52 -37 47 45 44 0 2 -18 52 21 33 -68 -68 5 24 -18 -9 56 -47 52 -61 31 -48 64 39 45 27 57 -20 2 12 33 6 8 -35 -15 -5 18 36 16 23 64 6 15 -8 69 21 -33 3 19 42 -27 39 -3 -25 12 2 -55 -14 -53 -34 -53 -61 22 12 -16 -39 -61 -25 -28 62 -44 -35 7 42 22 -62 51 37 19 -44 -38 -45 -6 22 12 -4 15 17 -41 6 -17 -15 -17 -22 26 35 -59 41 -42 63 -34 -20 -53 28 -6 -45 43 -52 -63 40 43 20 -21 31 1 16 25 37 44 7 -5 54 44 51 61 21 63 -54 -43 57 53 0 53 19 -24 10 25 -61 45 -2 -36 -16 39 -46 35 -33 12 -45 -42 2 8 -12 -42 29 -2 33 62 -29 -34 -3 -54 -6 -5 1 56 -3 42 14 56 -6 -26 -35 22 -17 2 -7 -63 25 -27 66 62 -10 57 -32 -17 -59 26 27 -40 40 15 16 -17 -11 18 -51 -11 -31 -44 65 46 -34 -59 30 39 58 -46 -9 -35 -38 -26 47 -42 16 -6 31 -39 6 48 6 -11 -31 13 -5 46 -23 -12
42 5 3 10 66 49 34 -73 45 -65 26 -35 2 31 -61 21 38 -39 -22 -20 -54 -65 -28 -64 55 -32 58 57 -27 -24 -31 22 -13 -5 -17 51 1 47 -45 45 50 69 35 -30 17 18 45 46 15 14 -59 -39 2 -40 -31 -23 12 28 -31 63 5 44 -28 -40 20 -2 -25 -57 -1 57 -32 46 0 -41 19 -30 -53 28 29 36 25 29 29 -26 46 42 -7 10 34 -65 54 32 57 31 -59 45 57 48 14 -39 61 45 -52 15 51 32 46 -9 21 -20 55 34 -56 -60 -31 -70 -8 -20 30 5 -6 42 -54 49 10 10 -37 -56 1 1 53 33 -14 -16 -30 20 -51 34 30 24 -25 -48 -1 62 -8 28 -55 18 8 47 36 -25 -39 34 14 -58 18 -4 41 -32 33 6 -35 56 22 49 -61 -40 30 -11 30 -57 -50 39 -42 9 -31 42 -7 3 -29 -41 -29 -53 -51 -44 1 -35 -38 -40 -35 55 13 -40 -29 19 -24 -21 52 6 10 4 -45 -59 39 9 -59 58 5 9 -14 -21 -36 20 -60 -14 -58 -53 59 -39 -29 48 58 46 -37 60 -49 39 59 38 26 40 11 -20 23 -44 -19 18 -50 60 61 -40 -44 -54 28 -50 -31 -44 42 42 18 26 -49 -51 -41 56
-48 12 41 -28 54 -19 60 -43 4 -58 37 39 38 58 28 -53 44 8 15 63 4 -38 -7 -28 45 46 -51 -15 51 39 20 45 -28 -53 63 -52 -48 -63 -57 -34 31 -47 55 8 62 -35 10 -47 2 -16 34 49 64 40 28 -38 -3 -60 -25 -43 -58 -39 26 -30 8 41 -18 40 -23 56 -49 -45 -16 -47 -33 -6 59 -29 56 57 -23 -30 20 -14 -52 48 31 -2 -22 49 -17 -12 -13 -40 61 -39 -25 -62 0 30 -16 -5 34 -28 -20 0 18 -59 20 -10 57 37 13 37 -10 29 41 17 -54 -59 51 61 41 -30 -61 50 -9 -64 -12 62 15 62 48 9 -6 -14 22 18 -6 -45 -46 63 -60 -17 -27 -30 -59 4 -19 -23 56 -42 64 -55 -54 -4 7 -55 -23 45 -64 61 -21 -13 15 -52 -62 58 -37 -2 -5 0 -17 -43 -11 -42 -39 -51 54 41 55 -22 17 -1 8 -54 50 -30 50 -16 -43 -1 -29 -40 -4 34 38 -59 -26 58 -55 -43 -28 -59 21 -39 49 -27 -7 2 10 -40 -45 -11 -13 -16 9 11 41 -40 -35 -6 -27 -60 55 53 59 -25 47 -13 -16 -26 56 4 42 21 59 -61 30 -39 -47 47 31 35 36 4 -15 43 63 -63 -53 58 -47 62 37 -36
35 -44 69 -50 -40 -37 41 -43 -21 33 -15 34 54 3 53 49 -18 0 -68 17 -47 45 7 6 -30 -25 13 -12 12 40 -55 -25 43 -31 3 -40 -29 15 -58 40 -12 -12 12 13 -35 55 30 49 -27 -24 62 30 51 57 -40 -12 5 -9 -52 -30 -51 -36 -26 -60 -58 -41 30 -47 -53 38 30 51 46 -63 22 -6 55 -28 -37 64 19 -7 -45 16 -16 -26 19 -27 28 37 -53 50 1 43 -31 -13 19 26 -29 28 28 23 -13 -11 -38 57 53 -2 -50 19 5 50 0 27 -69 -34 -31 51 -61 12 47 5 -5 -6 22 -51 45 29 7 44 23 40 5 50 36 5 -41 19 -58 -5 23 41 56 -52 -20 -51 -51 -12 29 -51 12 -35 19 33 55 20 46 26 -11 -63 20 -11 -21 -6 2 -21 -32 -39 -2 16 35 -8 62 7 1 1 -43 51 64 24 25 33 -16 46 46 -49 -14 -41 5 -31 62 -6 62 -17 44 61 -37 -20 -18 30 -58 -17 -58 23 40 19 51 1 41 19 -9 22 -56 62 -59 37 55 31 7 -12 -4 -48 35 41 14 -62 56 6 55 -44 -61 41 0 -45 42 -6 -10 48 -44 64 16 -27 22 -42 -55 -18 -8 25 46 43 -29 27 -26 -47 -13 32
9 25 -47 -57 -52 -68 47 61 27 5 14 -4 -40 33 17 -44 35 57 14 45 -31 4 24 -47 -35 -26 63 9 53 4 51 13 -42 -39 -30 42 -12 -37 41 70 -47 -65 -20 -65 -29 -31 44 -46 27 0 -27 29 21 35 17 32 -46 39 -39 42 57 -21 -53 -16 66 9 23 -17 33 55 56 -42 53 13 15 -50 67 -55 -40 17 9 -12 -58 4 37 52 30 47 8 34 -23 -1 -7 41 44 -62 10 63 -20 -11 0 5 -59 22 25 26 -12 14 71 -44 -5 -16 12 -43 8 49 -63 -22 3 -71 -25 -33 35 -34 8 -56 52 -60 -64 -4 45 -10 31 -29 -51 -61 32 -2 1 59 -35 54 9 31 31 58 1 25 14 -3 20 -6 18 -44 -38 36 -6 -35 -31 -12 -41 34 -37 -2 -4 -34 -52 -30 -22 23 32 50 -46 -11 -11 45 62 2 -52 66 -34 61 50 -9 -45 53 -12 0 -29 -9 59 64 63 18 -54 36 8 45 -10 32 -50 53 32 -44 57 54 20 10 21 38 10 -47 -7 16 3 18 -56 46 49 -31 27 -24 50 47 -53 -35 -12 -13 -14 49 -4 -7 41 -13 -12 44 39 -18 -35 -35 -20 4 36 -46 -26 -60 55 -16 -24 16 12 19 -19 -1 -34 32
51 -26 -42 -40 26 20 1 -21 -25 55 36 -37 17 -25 50 40 -44 16 14 12 -33 29 -36 -45 50 -2 37 -33 -37 1 -62 39 8 2 -16 26 48 -11 39 -52 -21 0 -20 -27 34 5 -9 -10 -36 -19 62 -63 -11 35 41 26 45 -30 -26 -7 26 -60 -8 1 -6 24 31 19 -68 43 42 -8 -40 -21 -31 4 35 58 58 -56 -7 -46 -31 -43 13 -36 54 49 51 -12 8 12 -42 -5 -22 -14 61 -22 -7 -19 13 -44 26 52 -30 40 -23 54 47 -38 -45 9 4 28 41 -36 44 -63 -4 32 -18 -38 -10 20 -54 -30 53 49 18 37 -11 14 -60 38 -48 30 64 30 -40 -31 -66 -9 24 42 -30 -69 -53 -20 -26 -40 59 -3 36 47 -61 44 52 -26 15 39 47 -31 50 -28 -32 -20 -39 58 38 20 -57 28 -47 -49 35 -12 -40 -55 21 -51 19 69 -8 8 -44 -11 -24 46 18 15 68 31 -22 32 -22 39 -31 -48 -12 -58 -53 26 25 -6 -50 -47 21 -63 36 -53 -3 -52 39 -12 46 36 -27 36 18 -8 -17 26 40 -65 -56 -24 44 -32 67 56 22 51 -3 -17 -51 21 14 -39 -60 2 -58 5 -69 49 -33 -39 18 1 56 27 -56 -70 57 -1 53 60
65 -46 -1 1 -59 -49 -54 -27 -26 49 70 12 8 8 -10 28 -15 -57 -25 32 14 48 9 47 -64 8 -15 2 47 31 1 -16 17 -8 8 45 -43 45 0 -24 -56 -6 -24 -62 25 -38 -1 36 -8 -2 -20 54 2 -17 -12 -21 3 -33 -63 -40 10 3 28 -55 23 5 -65 -37 30 -6 -45 -59 -27 35 55 -41 -47 -10 -1 50 52 51 54 -67 -14 48 31 54 -25 39 56 -3 -50 -4 -23 37 40 5 -44 -29 58 36 -52 -38 15 -60 12 12 -56 -47 32 -29 7 10 51 -63 -9 7 -58 -26 18 -53 26 31 -41 -54 12 26 17 -43 41 -42 18 56 48 21 14 47 24 -9 -15 19 56 -13 -24 11 19 -63 -23 -5 68 -15 -61 18 -54 38 -56 52 28 -45 -13 6 -53 0 13 34 -64 -22 -52 -10 18 -10 24 -30 11 30 0 18 16 -9 -45 33 25 16 -11 27 -13 -26 -50 -58 32 6 -48 37 43 69 41 13 27 49 58 7 -31 -44 28 44 -44 -45 17 19 -47 -23 -22 31 -58 50 4 -43 -14 -36 33 7 29 53 -64 59 9 29 -32 48 4 28 -60 53 -9 -64 -2 37 38 62 37 54 46 -4 26 -24 -18 62 -13 54 -52 30 43 40 8 -55
