-32 -52 25 20 19 24 55 52 -3 30 37 -4 54 4 21 20 51 -12 -17 14 -28 43 24 -8 -30 40 33 22 -4 -19 -27 24 -63 -43 16 -1 8 -15 7 -23 -52 -26 -23 1 10 6 43 -9 57 -69 58 24 -12 27 62 6 -27 29 -67 -21 44 -21 17 25 34 38 2 15 50 -33 31 23 -34 51 45 -66 -57 32 -13 17 -32 -39 -8 -52 -26 17 62 -18 25 -51 -18 21 54 -63 35 42 -61 -37 4 -8 68 5 24 -22 0 49 -41 -7 49 -17 -49 58 27 -16 15 12 -2 -35 28 -66 16 55 29 21 1 8 -25 -13 -38 -15 -62 -55 18 -21 -62 61 10 -60 -20 26 25 -59 -20 -19 -20 23 49 -15 -24 43 13 -27 -9 -49 56 -2 3 -65 -5 27 -58 -54 6 -17 -60 -33 25 -47 -19 -20 -41 23 -7 43 7 -30 -41 -41 28 7 -9 49 -57 -57 -60 61 -3 -16 18 39 11 -4 21 -51 4 -5 43 38 4 33 -42 -17 65 -53 68 -20 16 55 12 -56 -24 35 0 -7 46 13 -33 -48 11 -61 51 -49 -13 23 44 39 -18 2 19 54 -56 49 -17 22 -29 -30 -43 50 -21 49 3 -11 -6 -41 -19 -58 -9 -3 -13 4 42 -18 -39 -1 -43 -61
-54 -38 -10 22 31 53 -29 -29 66 8 28 -36 20 23 41 -47 14 24 -4 -59 -34 61 31 -60 7 -52 27 16 -25 12 69 23 55 -63 3 53 -52 -38 -17 -22 19 -58 -26 -21 -28 19 -17 -18 35 -40 -7 36 14 62 27 4 5 -33 7 -52 47 21 45 33 1 29 -56 -47 -64 48 37 -62 -58 -57 -12 -9 46 -13 35 -71 -23 10 -32 -33 -50 -10 26 13 -29 -62 -37 8 4 60 -17 -35 -38 -13 -38 15 -26 -45 -5 -62 -48 -4 2 -2 -5 -3 -37 -21 -54 42 -45 23 -67 11 -44 -49 -51 39 45 29 -47 12 -21 -47 -8 52 -11 44 31 -17 -17 22 58 -57 -56 -64 -22 -49 61 6 -28 19 38 3 -10 16 30 15 -60 56 -22 -38 -14 29 38 -23 -25 5 9 -11 15 -70 -8 -25 -26 -11 -50 -32 35 -58 -7 28 -57 -38 -10 -60 -22 30 -9 -43 -5 -21 -46 -54 -70 14 -42 -1 36 -46 -34 5 -13 -9 35 -19 1 35 -10 -66 -45 3 -27 -10 18 -16 59 16 -49 8 -43 -50 -47 22 -22 -56 39 -31 16 -28 17 -57 10 -13 47 28 -6 33 9 -10 -9 -49 -14 -20 24 -16 57 65 37 -43 51 7 42 -54 -24 12 -55 -35 23 -47 -11 -11
-26 -40 -25 4 6 29 -35 -28 -50 -20 -83 56 14 -34 -50 24 -28 8 -5 24 50 63 -22 16 29 -59 -8 -40 40 5 63 16 11 -36 51 62 -13 -61 -18 4 -6 29 56 -12 4 57 -33 -20 9 19 -10 26 -67 8 -6 27 32 27 59 57 52 -48 -1 10 -18 -35 -9 -14 48 52 33 35 -65 8 -4 12 44 27 15 -38 75 -49 22 -6 29 50 16 58 -16 -6 -31 -90 43 15 41 20 13 23 63 27 -38 -16 -30 36 -57 -49 41 6 -51 -15 16 -41 -61 -14 -46 68 -24 12 46 -23 -26 -45 13 -67 -42 18 26 -55 -13 9 35 -5 45 47 -5 50 66 51 -5 -24 9 81 34 57 -3 -33 -4 -86 6 18 22 52 19 1 39 1 -42 -68 15 -20 -37 3 50 -39 16 -59 27 -29 -23 -33 -23 6 15 34 -31 -60 -15 -88 -59 -28 63 5 -40 40 -4 5 26 18 1 -32 57 -51 46 -5 10 -19 -8 -53 -9 -18 -4 -58 -61 -53 -6 51 -30 2 -60 -11 71 3 49 -23 44 -16 74 -80 -38 52 -47 49 8 53 -12 -37 -25 -60 -36 14 11 59 -26 63 -21 48 -37 48 -3 62 30 -46 -4 -1 6 -22 -34 21 15 45 2 -23 10 10 -3 -49
-61 46 -30 -15 -38 -23 23 -27 -49 -52 24 26 34 39 62 14 37 -18 36 11 -15 30 -44 -49 13 -7 -43 18 -19 26 47 20 0 -31 41 1 -18 -18 -50 -25 6 -44 18 9 -18 20 -41 3 -18 3 -2 -55 4 -32 46 -7 -50 49 16 58 -62 65 -7 -2 25 24 23 25 -45 66 -6 54 -57 -6 -61 10 -69 -58 44 -62 31 13 -43 3 -27 7 -26 -59 4 25 15 30 34 59 -46 -34 -50 69 -46 -39 -68 52 8 -1 64 53 36 -24 46 -25 39 21 9 17 -31 38 43 26 58 -62 -69 26 -5 -8 35 45 58 -49 62 -45 57 -67 -24 7 60 46 40 -62 19 6 -26 -20 36 5 27 22 29 7 -33 -22 -46 -39 -31 36 55 -9 -37 11 0 56 50 -7 6 -23 -36 63 -16 35 -12 52 -2 19 61 -52 13 -40 32 52 53 35 18 -13 38 -47 -12 -48 27 47 7 22 23 -7 19 -26 51 45 15 -12 3 21 -3 -22 -67 -23 37 -31 28 44 -34 51 -35 -2 20 -49 -56 29 18 -19 19 41 18 -1 -30 -61 6 40 -52 21 50 -3 -35 -42 -27 -25 -34 -55 -20 -8 -48 -55 41 -26 -46 38 41 10 12 54 -32 12 3 7 -38 -7 16 12
-67 54 -52 -17 14 -43 -56 -24 24 7 19 -34 -37 -25 23 60 -5 -38 -20 63 -59 53 29 -8 53 16 -52 40 16 -27 -15 -15 -51 -51 -50 -56 -22 -29 16 -31 -48 -3 67 16 -17 -17 35 -18 9 -5 25 -43 58 11 56 41 43 -12 17 67 57 -54 51 -29 58 5 2 36 40 1 -41 -47 13 55 -54 -36 12 -33 36 28 12 -6 1 60 21 -67 62 -32 4 49 2 2 -2 -36 -9 -11 50 0 -26 -2 44 -14 -45 2 15 42 51 9 20 3 -12 47 -35 -34 17 -27 38 23 35 30 -45 -31 -32 43 46 51 19 31 52 -1 -14 31 32 -40 55 18 25 -13 36 14 -7 -7 3 -13 -35 -36 -17 49 12 29 45 -1 -42 -45 33 31 -47 0 -47 64 30 -15 -50 -12 -62 -28 34 -37 45 -51 -37 57 -40 -4 53 32 -16 37 10 -6 51 -54 32 -23 34 59 -6 -28 13 4 66 56 -24 5 3 40 -3 38 50 40 52 6 65 -2 2 -5 44 11 19 -42 16 43 -63 19 49 -7 -21 -35 -16 -61 -44 65 -15 38 -21 36 -37 3 69 47 -30 -52 -53 -35 53 25 -19 -37 -2 -5 32 58 46 -40 -34 -29 50 52 -27 -49 34 -62 -6 40 -22 -53
50 -39 -4 37 -60 49 56 -28 13 56 -58 -8 -48 29 -3 -16 55 -49 23 -8 -22 -54 -43 -45 -43 -14 54 -54 48 21 23 35 57 51 43 33 14 37 35 -9 -10 -23 15 2 17 33 28 -10 -65 32 15 26 43 -22 -5 -2 -26 -30 41 56 -16 -33 -46 -8 -13 -4 41 -52 56 19 -9 21 -46 50 -26 -41 -49 -19 9 2 -59 -39 56 58 21 -20 -4 24 -9 -57 -29 -14 -4 -13 -2 -61 7 -60 28 43 -5 -1 32 10 36 36 -28 10 -12 -35 9 1 -23 -30 -1 -61 -55 -64 -19 -24 32 28 -7 13 23 -1 -9 31 29 -72 -36 -12 43 8 32 38 -5 48 -39 42 43 -15 -28 -38 -68 24 53 -24 -20 46 12 39 38 -12 51 -37 35 24 23 26 -26 -57 -16 28 -29 13 44 16 -16 -53 50 -4 -4 -32 -45 -47 -68 -7 10 -4 52 -26 25 -56 42 8 47 -18 15 32 49 -59 -28 -42 -25 32 -72 -63 44 28 6 -66 -25 -9 -27 52 -9 42 -46 -51 -13 14 4 -19 32 5 63 -7 36 17 1 -37 43 -21 -4 5 -25 30 67 -53 9 56 -41 -21 36 57 -55 38 56 51 41 1 -62 -44 -18 -34 -23 4 59 38 -26 30 -34 16 18 35
-82 -78 7 -35 -6 41 57 -40 -79 -52 -28 80 -40 -1 -56 -76 -18 -88 -57 -30 0 5 -18 -58 -100 -51 -20 -43 44 -56 -31 29 -39 -88 35 123 -101 -100 -26 92 -10 -54 -101 -54 45 -89 -38 28 -11 -38 8 -17 -23 8 -29 108 -89 -48 88 16 16 -34 -7 -14 -99 -41 -28 107 -50 9 -76 -21 72 0 -36 0 42 32 -29 19 56 29 -82 -5 25 -48 -22 -62 -41 23 -26 -27 98 38 31 -94 -92 -9 -53 -61 47 -27 -10 -69 29 -17 41 -23 -70 5 124 108 -47 -47 -84 -71 102 10 -69 -52 -10 -28 -3 -5 -27 -72 -74 -38 -108 -84 -15 24 27 -121 -87 20 63 -91 -44 80 -73 40 -85 78 101 -51 -24 38 4 -73 -29 -128 -73 44 -23 54 -12 -100 72 37 1 124 -58 -42 -17 29 -92 -101 -76 -63 44 -67 -28 -2 8 -83 2 13 -21 31 5 -53 -12 110 -59 -77 -108 17 -19 -80 -45 -56 96 22 -88 -30 -6 64 118 -33 41 -47 52 -99 36 37 -55 -27 24 -128 118 1 34 -16 -7 116 104 -11 -72 99 14 -1 -98 -66 43 -54 23 -29 -79 -72 -96 -10 -70 76 -85 -16 -104 -94 76 44 -38 -18 -70 -84 -56 20 -12 -128 -27 -50 -85 -5 -36 68 -44 54
-68 18 52 -63 -23 -17 -37 -51 32 11 39 61 -5 -44 -26 61 28 -15 21 8 18 -62 25 -31 19 -3 -34 -45 -35 49 43 -37 -35 -1 25 6 39 57 -52 -54 30 -2 46 51 -29 -50 28 37 26 28 -34 -68 44 7 59 -53 -6 43 48 -22 -62 21 -67 8 -28 31 23 -63 15 5 20 10 37 26 -46 19 -24 -17 21 27 -12 38 1 -17 4 49 -2 -37 -24 -11 18 -51 50 21 3 -44 -35 8 66 17 -39 57 -31 -19 -38 18 -51 -64 55 -17 -66 -34 -30 -6 8 37 37 -21 -51 -34 22 -15 34 -3 32 47 -17 -13 69 -5 -63 -44 -36 10 -50 11 -40 0 -55 47 -49 17 -30 -39 21 6 45 31 -64 47 -51 5 -58 44 55 -12 -44 -10 33 16 3 0 -47 55 61 55 -46 55 15 56 -34 34 -12 -25 -65 -34 -61 18 7 -2 -5 -36 8 -16 -64 -24 42 -11 -38 45 20 -51 -22 24 25 -26 -26 -39 -33 13 -55 15 55 21 33 44 7 6 57 4 -29 17 -10 -42 -12 7 7 53 -8 44 55 51 46 -49 -13 4 27 18 35 48 49 45 -50 -9 29 31 48 45 50 -44 55 -2 29 -38 -36 -2 -12 25 55 -5 39 26 42 -40 -7 54
48 -6 -34 48 -32 32 30 -1 12 -30 23 13 -16 -66 -36 -43 11 -33 -30 8 35 -21 -8 -18 29 -37 46 2 12 15 12 -15 52 57 -61 -25 -54 -59 -44 33 -16 -9 -16 -7 19 31 -24 -4 38 50 -9 -41 -26 -7 56 -40 7 11 -34 18 -21 8 -16 -41 44 -5 1 32 23 25 -1 51 -51 -15 -22 -37 32 -31 -24 -23 -4 -35 42 -32 -52 22 21 -48 -20 46 -16 -15 -3 49 45 17 64 31 15 59 58 -42 -48 -59 -13 55 52 7 3 -63 13 -48 -47 7 40 45 18 24 -60 1 -44 -62 31 -70 34 43 -62 15 38 30 31 -51 26 46 56 -16 -56 61 1 -9 -39 -45 14 -59 -43 -41 -19 5 -26 36 63 32 21 -21 57 52 -53 -60 -51 -58 -7 -2 11 34 36 65 52 -49 55 16 36 -4 -2 -40 -37 19 -17 -2 -3 -54 -38 10 -44 -64 -4 -49 -58 -49 21 3 -70 -32 0 -15 44 -38 50 -68 -36 -31 5 28 -21 -49 12 -37 32 -33 38 -26 -69 -42 35 -6 -52 -26 5 -64 -51 -46 39 -8 1 3 33 57 34 33 14 2 -17 11 -31 -17 -28 49 3 55 -45 36 51 -68 -58 -58 -53 -39 2 -21 39 -40 -63 24 -54 -56 -43 -57
24 33 -11 29 -4 42 -8 -43 37 -10 -36 -16 54 -27 -20 7 -28 50 -22 45 -23 5 45 -8 -13 -37 -58 2 9 12 -16 -7 -40 29 -50 -11 -9 36 57 16 38 -65 51 -20 -23 8 47 -13 28 6 -19 13 7 -1 48 -8 -6 -12 30 41 -43 34 -57 -71 -21 -41 -27 34 39 -6 -23 -27 -38 40 10 4 10 -25 16 14 46 -25 -73 -59 7 38 19 19 29 -52 10 13 -49 -1 -75 29 25 -78 2 8 -53 -77 30 -54 11 -84 -8 -16 -10 -20 -20 -50 -20 22 -50 -36 8 25 24 -35 18 -70 -14 -65 38 -59 -68 -15 -8 -99 28 -69 18 -52 -10 17 -59 29 -48 -17 18 34 -23 26 48 -29 61 -46 -43 -25 -67 -68 -20 -55 -13 5 47 4 53 47 11 70 -17 -5 -27 45 -52 -45 -82 44 0 -40 49 21 -17 -19 35 -55 -78 -26 -62 -41 -5 -28 25 -53 -71 -18 23 14 36 23 -27 40 42 -51 -63 36 -56 -62 -51 9 -28 -53 -63 -70 32 29 -18 -46 15 -61 -40 30 -8 -30 55 27 58 -3 -32 -75 -40 -12 0 -55 -68 -44 2 57 57 -23 -31 -71 49 21 -9 -28 -50 59 -17 -57 -3 6 -8 12 32 57 -70 -23 29 -47 14 -50 -24 -2
58 -54 -24 -39 -2 37 6 3 24 50 -36 43 -56 -35 33 20 48 -54 38 12 31 -38 -48 37 32 -54 -38 -26 -31 19 9 -53 -62 35 -6 29 -65 51 -59 -17 48 -11 -42 -37 -9 -32 14 63 -31 -32 39 -20 -39 -26 -57 -53 42 52 58 -14 -26 58 33 -31 28 18 41 -56 -13 -9 -38 -5 -46 -57 41 -5 21 -12 24 -51 -60 -13 60 -16 36 42 -54 -56 50 30 -16 -33 -33 51 5 44 6 -6 -16 -36 54 -24 63 48 26 49 50 3 -27 -35 1 -47 -59 -43 7 61 -32 -26 29 46 -26 -9 -56 -30 22 -54 -20 25 20 67 -23 -17 14 5 2 -22 5 10 39 58 -14 28 -6 55 -15 -21 23 -39 -41 -15 52 -12 -41 21 11 -28 3 -58 -15 -44 -33 -45 33 39 -27 23 48 9 52 53 -26 1 47 -56 -44 24 -14 35 -57 -56 4 -14 -30 4 -36 59 -7 -26 -24 -35 -10 -32 29 64 26 -25 12 32 -54 16 54 55 -55 -56 -37 15 -28 -63 -58 -11 -4 48 32 2 -49 -42 -56 -24 -24 -53 -38 52 -48 -42 45 41 16 -39 30 8 59 -37 49 -21 -61 54 -19 49 9 -37 51 -53 60 29 -12 49 14 55 -53 -10 -51 -32 43 44 24 -47
-20 -59 -64 44 -52 60 2 20 -23 24 -59 -31 43 -35 38 58 -53 12 47 55 0 -36 -42 -23 -38 44 -31 -22 -44 39 -27 -42 -27 -18 -32 8 12 -10 -20 -20 -3 52 -69 -6 22 8 -41 2 -41 -20 -22 -37 18 9 15 34 21 49 -74 50 56 7 18 4 8 -39 31 68 63 1 -33 47 47 24 5 -51 -27 45 -7 -41 -62 14 -51 -36 -62 30 28 -49 15 16 -12 -73 2 20 32 -40 -63 -68 -30 29 -22 -48 -47 22 56 -49 21 -56 -37 -65 -65 -2 -19 -61 -13 28 31 68 -4 -10 -58 -54 26 50 -75 -44 0 56 60 -70 -15 17 -46 -68 63 -41 -13 54 -55 46 -60 58 27 8 -14 6 2 1 -57 59 -35 -34 -69 -8 51 58 -17 16 -34 -53 35 5 -44 43 29 54 45 18 36 56 9 38 51 -57 7 36 40 13 -9 57 2 13 -50 -61 -26 -11 0 63 24 7 9 50 29 40 45 -23 25 -23 26 -52 -58 13 -51 -22 26 18 -62 -42 -23 -21 49 -5 21 22 31 60 28 -44 49 -53 53 -50 27 14 -12 -20 48 52 41 31 -58 -5 51 -57 -57 -41 6 -1 55 -33 -28 -54 -32 64 -35 16 38 52 42 45 44 54 -49 29 6 31
52 -4 -22 26 61 -12 18 -60 1 48 -19 47 53 16 19 -49 -21 -32 -31 -32 -56 45 -48 -53 -30 26 32 49 -60 -34 46 -50 -15 -4 24 -63 -12 20 54 -58 53 -65 0 -38 -23 -36 45 -22 -1 -33 62 24 63 38 57 57 -58 -22 25 0 8 34 -69 29 60 47 -62 -6 -10 -38 12 -54 26 -32 57 -46 -50 70 25 9 -37 -50 11 5 -54 53 31 46 2 -47 -41 -16 52 10 -59 41 2 -33 -4 9 41 1 51 -39 34 -1 44 49 33 -18 10 -20 19 37 0 70 -16 36 35 -28 54 -9 48 -4 18 33 31 -64 4 -31 25 -32 42 0 -63 52 -55 -56 57 -43 25 8 -24 7 8 26 8 -49 59 -15 -8 -30 -8 23 -37 62 62 -58 43 22 -64 3 46 9 6 -2 -6 -35 27 4 54 69 45 -19 27 69 45 35 50 21 13 37 -62 -33 -51 -38 -23 -13 -58 -47 45 -36 8 -68 45 -47 8 38 -53 16 -30 39 69 -62 -27 53 17 -32 2 -44 29 -37 -59 30 -8 -32 -30 31 35 -7 -30 -21 11 30 -26 -49 -29 -70 28 -4 37 -51 58 -54 -55 2 24 46 -7 -14 47 -64 -28 -12 16 37 -54 1 44 8 -57 29 27 53 -37 49
89 -61 33 58 15 57 -31 5 39 -61 -9 -87 2 52 90 -22 -16 -15 -1 13 -35 -22 33 -99 26 -39 -9 41 -44 39 8 -13 -55 48 -5 2 29 -73 81 13 47 -31 -21 16 19 68 37 16 68 -17 -32 -40 -48 54 -8 -26 9 -10 -28 28 -27 90 -45 -14 -35 86 95 -66 70 -43 -54 -60 -32 61 -29 -31 -35 -66 -19 -43 69 52 20 44 -64 -35 -49 73 33 91 30 -7 -31 35 87 0 60 -55 -84 -69 39 -11 9 -53 -91 -49 -53 93 12 11 41 31 30 -9 24 -29 -59 62 -61 -70 28 -10 61 -26 2 -16 -19 27 48 45 -27 -17 58 77 -38 -8 -43 -30 90 -66 6 -55 -81 -61 -3 -50 30 -27 34 2 0 30 -59 45 39 -28 -47 32 9 78 60 0 -66 -60 -9 -57 -40 -4 -29 27 -24 -6 1 -52 -38 40 39 35 2 44 -11 70 29 48 -7 -41 13 76 34 -30 9 59 -41 12 -44 -78 -17 -28 -7 16 -1 73 57 72 -37 17 20 85 -52 15 -48 -5 17 1 91 -81 7 50 -20 15 46 -10 16 26 26 -3 8 89 6 -25 -53 73 -86 -48 56 -20 -91 -6 -25 -3 66 -73 15 -15 -91 -91 -88 -16 9 -30 -45 -74 22 11 -57 -27
22 41 2 54 -42 -1 -9 26 33 21 -27 5 -35 -47 57 7 3 40 63 -53 34 8 -43 3 -45 1 38 -16 32 -23 -26 34 -52 20 23 32 41 -4 19 -52 16 12 30 -4 40 -7 -9 -45 -23 69 41 13 -31 17 -6 -35 38 59 -52 -40 -25 63 57 35 -48 -42 -57 44 -55 -30 36 48 -32 63 37 19 -33 -1 -58 -52 25 0 -43 36 -62 13 -47 61 -15 -4 -54 21 25 -39 26 -29 -44 48 62 -25 -6 -54 8 -53 50 18 14 -8 53 -61 57 1 -31 -1 42 66 -40 25 48 -53 40 5 1 10 16 -6 55 -2 -54 -10 -34 44 29 -57 -25 -53 66 38 -18 57 -52 55 68 70 37 -1 31 -55 -13 14 -50 23 14 10 -52 -35 17 15 33 47 -19 15 13 -9 61 45 -30 -60 55 -32 -51 57 21 -8 -15 -27 -41 24 44 29 -25 -29 -19 6 -23 48 -27 51 -60 -60 3 -22 -51 -8 -30 -8 47 -52 70 14 -31 5 -18 16 -16 -7 60 38 19 -33 35 37 -40 -23 59 -8 31 -45 -30 -4 -21 -45 22 11 5 -41 48 -34 -4 -21 50 32 -12 -38 53 51 -52 48 29 -14 -68 19 13 47 -41 42 4 -2 -57 12 -39 29 17 -33 -22 -32
-36 -17 -50 28 -3 57 -53 -38 -40 41 26 -35 -68 -10 -5 -38 -7 10 -26 12 3 58 22 -42 33 29 20 53 31 6 50 -59 12 20 22 20 25 65 -38 50 -54 -65 -15 -48 -57 -9 19 -2 -22 -43 -46 37 -21 8 -89 -3 -14 -30 -47 44 -32 -24 15 49 -42 57 -30 27 42 -36 -37 -50 -5 9 -39 -21 28 -4 31 3 -47 -17 12 24 59 18 26 -18 21 -34 -32 21 -53 -21 9 -25 37 -38 46 50 33 6 -10 -7 32 29 5 -42 -58 -30 -62 -32 -64 22 57 -40 -1 -28 29 -42 2 -40 -46 -56 10 -15 -39 5 -27 38 2 9 -2 31 -62 7 38 -64 -45 41 -3 -5 58 12 -60 -44 -6 25 8 43 -62 -49 -60 -62 -52 -54 -3 -14 56 45 -16 -37 31 -52 16 -17 52 25 61 -62 -19 15 -6 -48 32 56 57 -59 12 -68 33 13 -7 53 11 29 43 -29 19 -36 16 43 8 -53 -31 24 -62 -37 -17 -58 12 -27 0 -18 61 -10 43 -59 -41 40 -44 -40 16 -43 58 -50 46 17 20 67 -36 69 42 30 -50 40 33 46 34 18 39 -3 -6 -48 1 51 22 -13 40 62 -47 44 -43 32 -30 50 28 2 -24 65 69 -53 47 6 24 -19
-48 -52 42 4 -32 36 -21 -47 -47 -27 17 25 -63 58 -79 1 -61 36 -33 10 34 -22 -46 3 19 -22 48 21 69 -7 51 45 23 -47 2 81 -7 -63 14 -8 -2 50 -8 -64 3 -35 11 -47 -32 -10 -61 8 63 -12 11 57 26 39 52 -17 41 -13 -46 -53 -38 -7 -29 -35 -4 35 -27 -21 -22 -49 44 17 19 60 57 44 31 -8 37 54 40 -59 -62 29 -28 38 -25 -47 -42 -4 -23 -59 -45 -6 7 7 -23 66 19 -9 -21 34 -28 40 70 -10 -30 -14 10 49 -7 51 -43 -36 -7 -41 -54 5 -32 -54 -6 -25 1 -16 52 5 55 39 24 19 30 13 -27 62 -64 -28 21 -24 -45 -4 -22 -25 -53 63 15 27 23 62 46 57 -42 -3 -42 43 -29 35 6 -6 45 52 -49 43 -4 15 14 -31 51 57 22 6 12 -55 -26 35 -23 -31 -49 4 16 16 -52 27 -34 -44 -2 -40 19 61 1 -16 -34 42 -59 36 40 -19 -63 -64 41 -43 67 -52 -6 9 55 40 -20 -34 60 6 52 15 10 -37 45 61 28 38 -11 -31 16 34 -1 -6 -61 38 -60 18 16 -22 23 10 43 7 10 73 46 24 14 15 7 -63 25 4 -18 43 48 54 32 2 -38 22
43 -63 -51 -58 61 -29 -38 -1 -25 -61 4 -21 43 -35 42 35 -24 -46 -17 47 -11 -33 3 -50 -38 57 17 -39 9 -60 -58 6 -5 -4 13 -18 15 4 8 -71 43 58 55 -3 -60 -10 2 -43 -44 -5 30 -54 47 27 0 53 -20 -16 -17 -41 -41 -33 47 -21 36 53 -23 -9 9 11 1 26 -30 32 43 7 -9 55 3 17 41 18 -7 -13 -9 -36 -62 26 44 -41 38 -10 -3 30 -33 -5 54 37 28 61 -19 50 -6 7 -48 -4 -35 -16 35 -26 -54 50 -36 23 -65 48 39 62 57 -35 17 -26 -60 -46 63 55 28 -12 45 -20 -9 -18 6 -41 -14 39 -37 45 32 -17 -28 -42 -11 -8 1 -47 -48 -13 -30 3 -37 46 -18 -39 41 -51 20 -33 -5 32 -27 7 -2 -20 0 -3 -26 25 -19 16 -26 -54 -68 27 -60 25 -4 -31 -9 -2 5 -29 -19 3 -44 -1 56 4 -16 -17 -23 -22 -38 58 -40 -60 30 -49 -51 8 12 55 42 -7 31 -33 54 50 -39 -20 -11 -44 31 -38 48 -6 7 57 -46 -16 -48 -49 9 40 -45 44 -24 20 -29 1 -7 7 -68 -27 60 20 -39 -46 -15 46 -1 -56 60 11 -58 54 38 19 10 36 31 41 -46 -17 -19 29
-17 -56 -50 -29 -41 -21 2 4 -38 -49 23 -8 -19 -21 -20 55 -30 -42 43 40 -61 33 6 4 51 17 -49 17 1 -15 45 -12 2 -20 24 27 -19 12 -51 -18 28 -40 48 14 24 -24 -48 -51 31 -32 -61 4 19 61 15 48 -12 -49 1 -66 -22 -48 38 -11 -49 -59 -60 16 28 -13 -12 -25 -22 -34 -15 1 -57 13 -28 -34 -63 32 30 -54 -52 62 27 -34 52 50 2 -45 -14 -51 7 7 40 57 4 -36 -13 -39 -64 -2 -65 63 27 -40 -44 3 44 -44 -13 34 53 -24 55 -50 49 55 33 48 43 -59 -60 -63 -64 30 8 25 40 59 64 37 -59 6 -45 -11 -44 -13 -37 16 -54 -36 0 -15 31 -42 -19 24 -45 -10 27 -32 42 24 -25 33 -31 -41 -18 15 -60 -26 30 20 -56 -6 -13 -42 -4 -51 43 11 -46 36 28 -58 60 14 4 28 5 -17 -12 -25 -12 55 5 -11 -10 -3 -22 57 33 -41 -61 -57 -22 -37 -38 28 7 19 -12 -64 28 -26 -9 30 13 -27 -63 -31 2 31 12 49 -50 2 -9 -26 62 -29 -9 13 -5 -16 42 -9 20 21 32 10 -17 -7 39 -59 -37 4 28 -15 35 -8 -33 -56 30 28 -32 34 28 -53 -29 28 35 -48
-41 -20 5 -18 42 -26 15 -25 0 9 -56 6 -65 -9 24 38 6 25 -25 -54 -25 31 -59 -16 -34 -15 37 17 -22 8 26 19 28 6 80 85 37 -28 -5 51 17 -25 -1 55 -16 0 -39 20 -36 -14 35 -32 -25 4 32 33 21 36 57 -30 -58 -35 -67 3 -38 42 -74 62 52 -50 40 35 28 -25 17 -30 19 -4 -57 -14 82 -25 22 7 -4 35 22 16 1 -20 15 -8 -48 -60 -25 -14 -36 62 0 22 79 34 88 10 59 -19 3 -76 -10 -24 3 57 -6 -13 -51 52 58 -46 -37 -55 28 22 28 -28 -18 70 48 13 -54 3 -57 -55 80 32 -19 -8 8 -34 13 31 -17 76 -48 12 37 -37 20 14 -87 44 19 -56 -1 50 -10 60 -61 -26 66 -2 -47 57 -15 52 -1 10 -49 24 9 19 -30 -80 -12 58 -2 -66 16 -13 37 -85 -11 -87 -12 69 -58 32 -5 -37 32 -63 -38 24 -58 83 -87 -20 24 0 -12 43 -14 36 38 20 2 50 60 -57 55 -43 29 26 43 -10 -81 35 86 -55 -9 -39 38 39 15 -27 -69 15 3 -56 -18 18 32 14 19 23 -5 21 1 18 12 46 -15 -5 18 -3 33 15 34 -48 45 -9 -1 -44 -26 24 16 -20
25 14 -34 -18 -46 33 -69 37 -19 -67 -3 -56 15 36 -40 42 45 53 -62 -68 -3 55 -66 42 21 -50 7 -48 -22 -2 -5 3 -19 -37 35 54 24 -6 -19 37 30 -48 -53 -59 -44 -9 26 -26 58 24 21 40 -32 2 11 -24 -57 46 53 -20 -29 46 27 -29 -1 -30 44 -5 -67 37 -14 -74 0 -59 -47 5 1 -21 -59 -30 58 -47 22 6 46 -8 16 -63 -5 23 -26 24 22 -6 -64 -10 15 -12 21 -9 -7 24 -53 25 29 52 12 4 -32 33 41 -61 11 69 48 -3 -65 49 -22 -29 -39 -63 70 -42 -3 -29 -40 -42 46 42 55 11 -37 -13 -49 -49 0 41 30 48 -28 -29 31 -6 -42 14 20 -28 40 -51 -4 -11 -18 -20 -29 -33 -25 -86 -52 -7 -53 -46 -51 -22 50 5 -48 -57 -63 -23 -24 7 8 30 -50 53 -47 -31 6 -1 19 35 57 67 3 29 51 17 -48 51 -67 32 20 21 -20 51 49 45 24 -22 -20 30 31 24 -34 -33 -11 0 47 45 -46 42 -18 12 -58 44 21 17 9 -41 53 60 -40 -5 -6 31 41 25 -46 -40 -2 -21 -37 6 34 47 24 -43 -43 -15 -2 59 53 -5 -7 -29 -43 -19 47 -17 58 -35 48 -10 7 -13
-2 24 -51 36 57 -17 38 5 -5 -21 24 -33 -5 45 59 59 40 4 -53 -10 55 15 -40 22 49 -32 21 6 -48 54 -29 28 50 63 -33 -19 -67 42 2 -35 -69 -35 46 -19 -12 3 -61 32 -41 -42 -44 -55 -20 -9 -60 -5 6 -37 -63 45 22 -38 -20 15 4 -8 54 10 33 -33 16 -2 38 -35 -40 -5 2 -8 0 -13 6 10 -29 48 -4 -25 -35 -8 -40 -64 -43 -28 -61 51 1 16 -50 17 -17 12 -53 -22 7 4 -25 14 -5 0 -38 60 -41 12 14 16 -15 10 10 32 51 -4 -24 48 -52 24 36 -5 -1 -54 17 -28 30 -47 47 50 -12 45 9 -39 46 35 -48 -49 24 -47 -8 -53 -59 10 -13 -36 -57 18 -70 5 43 -54 -30 14 23 -53 -42 -3 24 -54 36 -38 52 -9 19 -35 -43 -40 -9 -19 43 -55 12 44 -24 -7 -46 15 47 56 49 40 -31 -36 -10 -57 29 -5 44 54 18 -23 -36 3 -6 -52 -60 51 -26 -19 69 -26 -1 -41 35 32 -55 -19 39 34 -68 33 -15 28 38 35 37 36 -36 49 -44 -4 27 -50 64 29 55 -25 -42 64 63 14 11 32 8 -62 -21 46 64 51 48 -43 60 29 17 52 -11 0 -11 1 -57 -60
1 43 48 50 47 35 6 -53 24 -10 56 -28 -55 -40 55 54 38 -42 20 -3 32 45 -10 42 20 30 -54 -47 -49 -44 15 9 -49 -10 59 13 -44 41 12 44 -39 -31 37 40 -64 21 1 58 -19 5 -42 -54 19 43 67 -22 42 29 29 -30 -49 32 4 24 47 47 -1 62 44 14 -60 9 -38 49 44 -39 37 35 -47 -26 -13 13 -23 -29 3 21 -13 28 29 -53 -44 -13 -1 24 14 -55 -55 22 39 -9 -7 -37 -36 -43 -36 -16 18 44 -13 10 -58 50 18 19 15 -43 28 -64 -24 46 28 -5 -45 42 -50 43 4 0 40 -7 -6 -59 55 -56 0 -33 29 -19 17 11 -18 -43 51 21 -4 -26 2 -21 31 -7 12 -25 55 -13 48 3 5 34 14 38 -43 0 18 25 -37 46 22 38 21 9 13 -15 29 -20 15 -12 -16 -56 22 56 27 44 49 -55 57 -50 -17 3 -2 2 13 -47 -38 12 -11 -36 -43 -7 -4 -50 -26 35 8 26 -41 0 53 37 30 12 -2 -17 21 -59 -38 -49 -16 -12 10 25 43 -57 -12 41 -23 -28 -25 -51 13 -10 46 -43 -53 4 -8 -37 29 20 30 -48 48 -27 23 -46 -39 -57 35 -14 -5 -20 36 -53 -61 -32 29 54
15 63 -57 44 20 49 -6 44 15 15 23 -18 -29 -48 52 10 -9 -27 57 5 -10 55 -33 -20 52 -17 63 43 -42 -39 5 -17 37 39 9 60 18 -41 54 26 -28 49 13 -53 -35 -37 47 -12 20 -61 -37 -34 -7 -57 -73 55 -39 -15 73 -48 -19 27 60 40 32 14 5 -25 -44 53 -62 0 44 19 49 -38 45 -35 -37 -13 55 -37 -22 15 25 31 72 -24 -38 24 -47 -54 25 -16 -34 52 61 5 -49 59 -45 -7 -63 -14 11 -63 -48 38 20 38 53 -42 11 30 -36 -14 -16 45 -13 59 3 -56 -64 49 58 3 -15 9 -47 -41 62 52 -53 55 33 26 42 -48 -37 51 -22 -25 -40 28 -52 -50 -37 -14 18 -23 -13 -20 51 -22 -37 61 -48 20 -52 -16 24 41 22 -60 23 -17 2 13 13 -8 17 -41 -30 -52 53 -55 13 -51 -41 7 13 50 -43 47 -10 60 -16 67 -6 60 30 -35 63 62 23 51 5 7 -46 -20 -6 31 -51 -36 -40 9 17 26 -30 21 57 14 60 -2 11 33 -45 16 17 -13 -10 -22 56 -48 -9 -11 42 -22 -32 3 7 -41 59 15 -48 -2 -38 1 29 -22 2 14 16 22 33 -17 -23 28 -48 -11 -31 -41 -23 -51 10 -28
32 -29 51 40 33 43 -59 -34 66 8 -28 12 2 10 -10 32 -24 36 32 53 19 -11 41 60 -44 -9 -26 40 66 -9 33 -69 -36 -24 62 20 -11 52 22 48 -88 -19 7 57 -57 55 22 -8 -29 36 -29 9 -32 13 48 -15 41 33 -37 -29 -27 -13 -39 -55 20 24 56 -23 28 6 -12 -58 9 20 8 66 -12 -40 -19 31 14 -4 -36 -6 -51 12 -35 -29 -64 43 29 -33 -39 2 -17 26 -63 -27 42 24 51 0 70 -34 -37 -2 32 -66 -19 53 25 13 4 -27 30 -23 46 29 40 -57 -32 26 15 -14 -58 57 -54 5 38 4 -36 23 -17 50 11 -22 -50 28 -43 35 27 23 31 -18 -11 -63 37 37 39 -19 -11 67 38 -49 -43 -15 -35 -18 60 -83 52 30 -59 58 12 56 61 50 -37 -51 -18 28 -6 -1 -42 31 -16 -47 -50 42 -29 -46 15 -34 -55 -41 39 8 -55 2 -30 15 -15 46 17 -37 7 6 56 -48 54 -3 -44 -13 52 23 -3 2 -24 -29 -55 16 -26 23 -7 -57 53 -41 -41 -62 -56 67 -9 9 -35 22 -1 43 -16 -24 -37 -54 -35 24 -24 54 33 -3 -47 41 -36 20 59 -58 46 -87 -34 -55 -28 37 39 -59 50 51 32 36
-9 62 -44 30 46 15 30 34 -35 -60 55 -50 5 16 -41 53 61 -8 67 -18 16 26 43 15 -59 -19 4 -47 27 -58 5 -29 -42 34 66 -66 14 -45 14 19 1 28 58 61 -12 0 -27 -42 -43 -32 38 -1 -15 2 1 42 -48 16 -18 34 -4 61 26 -47 49 -3 -48 30 54 -27 -11 0 -2 3 5 18 -33 67 57 -26 10 32 61 -6 46 -16 52 30 68 23 -8 18 52 -36 -51 -19 -61 26 12 24 20 -24 -56 52 12 -40 -29 49 34 27 -35 31 -1 -22 23 47 21 -33 36 -40 50 14 13 -39 -39 44 -14 49 34 55 31 -45 53 -12 57 33 29 53 48 4 -12 -56 41 18 -16 -69 57 -7 -8 47 15 -63 5 -53 -39 -34 62 23 30 -17 -43 -64 -33 57 -35 -44 -17 -62 7 -37 68 25 -1 51 -58 -20 -12 -38 -15 16 40 -50 56 3 5 -63 -35 -54 17 1 65 -3 63 20 -34 21 -31 -33 56 -4 21 -28 56 -9 14 -50 -51 2 52 55 11 70 5 47 -57 -38 -4 35 46 -17 30 -35 6 10 -50 -61 -51 34 -30 -46 47 -18 -12 -53 23 28 -54 -38 25 27 -13 -40 50 -17 18 47 -49 28 0 24 44 25 54 10 1 33
-33 20 44 52 -52 -6 -50 62 -27 46 50 -10 12 49 -57 -32 64 -26 34 -1 10 20 0 -29 -30 -70 27 -8 -51 -5 -32 21 -2 56 -6 38 -18 29 -54 -67 -57 -57 41 56 57 17 9 60 26 43 7 5 22 57 -9 -38 56 -33 -24 -34 -27 -37 33 -12 10 -4 9 -43 0 -49 -38 -35 -29 -19 -47 25 -31 -37 -1 -35 33 -7 34 -18 31 38 20 16 -19 53 52 -50 5 -28 36 39 -33 -43 34 53 -42 -47 -5 -70 21 48 -25 -20 50 -28 -31 51 -48 53 -41 -52 -31 -15 24 28 -6 12 -50 35 54 -23 37 8 -14 45 -41 -14 13 -39 -47 8 -45 -48 -56 -46 0 62 -21 11 67 16 -18 -25 -52 -28 4 -55 -32 3 26 -47 -7 53 -56 58 26 -20 -43 48 31 22 27 -7 6 -51 5 -11 69 -49 -17 -2 -50 5 -38 -27 -20 -7 8 7 -37 -52 21 6 -58 -6 -41 -55 7 0 -29 -69 57 70 -14 44 -27 26 -58 10 12 54 -4 -11 -1 -57 40 37 26 9 -55 -52 -55 45 22 -21 -4 17 18 7 12 33 -5 -67 -51 0 -40 -4 -18 -57 -22 -43 -61 -20 -26 28 56 -14 12 44 41 -14 -40 -9 26 20 -38 10 -3 -56 -50 28
29 -30 -20 7 -55 -52 -39 -12 -21 11 -18 -24 -62 52 -49 -39 10 -11 -11 34 9 -52 -23 52 4 64 -12 48 -63 42 -54 -39 -11 25 50 8 -51 -53 -25 15 -30 -28 54 -46 41 13 -24 -31 -29 54 30 -57 13 52 6 24 -32 -38 -8 -2 -57 18 5 -13 -33 50 -1 17 -24 -17 -44 -47 -24 -39 -32 26 31 29 46 -11 -52 -20 -49 25 -27 56 -23 54 -21 6 62 45 21 32 -10 38 35 29 -40 -14 -64 56 18 -45 49 25 -6 -35 -5 -18 43 43 1 16 38 29 30 -10 43 -58 -19 -34 -56 -27 -24 46 3 30 -49 26 -62 -68 -50 -55 10 -17 5 30 0 58 -37 54 -13 68 17 58 -39 18 -51 -48 -70 16 3 -33 -28 21 18 -30 -42 -52 36 17 -3 -53 -5 40 40 -45 -31 0 48 49 48 -51 18 56 6 47 42 60 -54 -40 -51 -41 53 -26 -34 -5 -48 27 -39 -32 52 -11 51 -25 -57 -29 -7 21 37 28 16 66 -20 -6 14 -11 -17 43 53 47 -62 -18 -21 -50 -53 44 55 32 43 50 -8 7 -27 -52 -33 30 -59 -45 -30 0 -29 -49 10 -30 -7 61 -64 -50 22 -17 34 44 -22 29 -4 48 -30 -16 2 -55 17 63 57 -47
19 13 45 55 -24 -54 11 -60 6 -15 -67 14 -58 16 -45 46 27 -30 -33 -53 21 30 -15 39 25 33 -1 41 57 46 54 -46 21 0 58 34 -14 12 -43 -33 20 43 -6 -14 32 20 54 -44 14 -58 -28 -29 -21 -6 34 -27 -24 56 -10 44 -42 -4 11 50 -64 46 44 -37 -53 55 30 64 -24 -21 42 50 -22 -57 67 -25 -67 -63 28 41 38 55 30 32 29 56 33 -2 -28 -41 -54 16 -40 58 12 8 -69 25 42 36 52 47 10 26 7 -10 26 62 -37 48 19 52 -12 -49 55 2 -27 -16 52 -60 -6 9 -56 -26 -24 -31 52 -36 50 7 -33 32 57 -34 -20 37 31 -11 28 -30 20 27 44 36 19 21 -30 -20 -7 42 -1 -5 13 17 -23 26 42 -31 13 16 -26 36 52 -3 -54 -16 14 10 -56 -67 48 -7 19 -4 -37 14 2 -43 -61 -3 43 -10 -27 27 -51 -36 34 -8 57 37 -36 50 -49 -40 -6 -14 -43 57 -45 60 -25 -53 12 -58 5 -6 -9 -36 18 34 11 -37 43 30 -11 50 35 46 -34 56 -12 17 18 38 51 -47 26 38 -24 -53 -22 -17 41 14 -41 36 2 -10 -57 -26 18 -12 24 50 -33 -57 16 -11 -6 -31 -38 -33
-58 54 37 -47 37 -35 27 -2 -39 -24 12 -18 17 -24 -20 61 37 -61 51 9 -1 -29 -1 -19 16 -24 -4 43 -41 -56 -49 35 33 41 -11 -5 13 -36 30 64 -49 -12 37 63 56 -29 -14 23 -60 -16 62 3 -28 57 3 22 -11 -17 -31 -13 -40 34 53 -19 28 13 -21 -22 -22 25 39 -61 55 -43 34 25 -27 7 -4 -20 -18 55 7 11 -51 61 -63 -55 44 43 17 -35 41 -8 30 17 -18 47 41 -21 46 50 10 63 -28 49 36 5 31 63 -36 22 -47 19 40 -31 -39 -27 5 -19 -10 -14 -33 28 -63 -56 -33 0 7 0 36 46 51 -42 -12 0 -55 24 -56 -11 -45 14 -38 26 -43 -27 -63 23 -35 -27 -48 29 1 -6 -27 47 -60 37 -43 -24 -7 -28 -62 -31 54 -19 46 -34 51 58 10 23 33 -7 2 51 44 -36 -11 -58 -62 46 -48 -18 -12 50 -23 -29 24 44 41 -26 -26 48 58 23 -14 -42 33 -7 -57 36 -6 27 52 -48 -8 60 29 -14 -42 39 35 54 -32 -60 26 -23 6 -53 7 4 36 -24 48 -53 -42 58 -12 33 -4 -11 47 33 -45 59 -36 -45 13 -57 -6 42 -57 56 59 10 -30 41 61 60 -13 -58 -35 -33 39 -30
-42 59 -53 19 50 -15 -32 57 -34 -57 -11 -25 38 11 -7 21 -49 6 -20 32 62 40 -44 -33 -27 20 32 -9 -8 -20 60 -25 -30 -53 10 -32 46 -62 7 -53 -26 40 -15 41 0 57 -20 14 27 -29 62 -27 31 -30 -24 -63 -47 -54 -14 63 57 -24 -28 29 -9 13 -28 43 3 52 17 44 17 43 22 4 -5 19 -34 -23 14 -10 -58 43 42 -36 -16 34 -34 -50 27 28 -28 -50 -42 48 45 -44 -52 -49 21 -53 36 60 -43 -14 -30 54 -7 -38 -5 32 -54 41 -12 -50 30 -36 -19 15 -50 -15 -62 -57 -47 37 5 -20 -28 3 63 50 -50 54 36 50 -34 -31 37 -23 18 29 10 -20 -60 -1 -58 32 53 -7 19 11 -25 14 -56 43 54 -57 36 -31 60 -38 -41 -10 -2 7 30 -21 35 -48 -42 -42 29 -11 1 -41 -47 1 -51 -4 41 20 14 22 -43 -26 28 -22 -56 18 40 -10 -9 -23 -35 -64 -64 0 -28 -16 63 -36 20 -47 -4 48 6 -49 14 19 -12 -31 -52 8 -56 16 -7 -16 -23 60 56 63 62 30 -25 31 -30 -8 61 36 -47 6 30 -21 -62 9 6 -28 46 -48 6 -16 -16 -49 60 -38 -17 51 -6 -14 17 47 39 -23 33 -35
-47 23 -51 -49 54 -9 -39 0 -14 53 -51 -3 -17 40 56 26 -35 41 -28 -16 67 -3 7 24 16 57 -45 -35 -8 -49 55 -65 6 34 31 37 -60 8 15 -35 8 -24 44 -63 38 -36 -61 26 60 -63 10 31 -59 -1 12 21 -11 42 17 -14 16 41 -69 -49 -2 -44 -25 12 -4 -42 -21 -59 -15 -61 33 69 51 -46 -56 23 23 6 -17 -58 50 -8 51 -11 -1 -1 14 6 -8 29 32 -37 -64 -36 21 -48 -18 50 -41 2 -38 -8 24 29 -13 44 -62 -63 -41 64 39 -26 45 18 29 13 51 62 29 -46 46 -16 -62 -40 -6 -32 -16 12 12 32 -9 31 -4 40 36 58 0 42 -31 65 64 -13 37 9 -15 -15 46 62 -17 16 40 -26 61 30 37 -14 52 22 48 -1 17 -28 14 -3 -49 -1 7 16 3 6 48 -19 40 21 -44 -34 15 15 -3 10 -21 -8 -38 54 2 35 65 29 56 -6 -25 25 1 -29 -42 -44 -43 39 35 -23 38 11 18 -42 -2 46 -19 9 -10 -44 -43 51 -62 -43 -31 37 11 14 19 -61 16 55 48 52 -59 -30 -25 41 17 41 -11 -32 -49 -27 13 26 0 69 8 -26 57 32 -22 52 11 -8 -68 13 -42 -15 -19 54
-20 42 -49 -50 -9 19 17 52 33 62 -16 38 -41 -48 15 12 5 62 54 11 -13 -27 -63 18 49 6 62 -40 -52 15 24 -30 42 -30 17 -61 -45 14 -38 -55 11 42 70 11 -38 -24 16 16 63 -49 -41 -11 -52 42 -25 54 34 -20 -26 -25 13 44 5 -22 -14 -36 32 58 34 -54 -7 5 4 6 -62 -42 26 -24 -7 -10 -36 -61 -56 67 -31 62 58 -15 7 18 20 50 29 1 -1 -26 -6 -10 -29 13 50 6 51 7 -26 -41 -23 29 31 11 -12 -42 20 -11 45 0 16 40 17 2 19 -57 5 -41 -17 38 -60 -60 15 -55 18 9 -15 63 53 -47 -31 -5 40 -22 -51 -2 -29 22 -4 13 30 -34 -27 46 14 -70 15 -31 20 -54 -32 -53 -32 40 17 23 -49 -21 -50 -47 -53 -24 -10 -31 11 9 63 35 19 41 -45 30 -61 -38 -27 -3 52 -4 37 13 25 -41 37 28 -25 -9 23 0 62 38 -6 -30 -23 28 -20 -60 -28 -68 26 50 40 13 -9 29 9 10 30 31 30 -11 -7 62 27 3 36 59 40 -14 34 -29 52 3 -49 -59 -23 -54 -23 18 -63 38 10 -2 60 -44 55 43 23 27 -50 7 -27 -10 -24 -29 53 14 -29 24 -35 -30
-28 25 -26 -10 40 -18 35 -40 38 6 -75 33 25 -5 -2 18 -68 -20 7 -62 -63 -4 42 -36 56 8 48 -38 32 63 81 -9 -21 -58 19 26 61 -45 -39 -16 -82 5 -35 -36 -2 53 -47 3 35 -25 25 -10 -4 29 12 23 63 -28 48 -36 12 49 -16 -11 47 61 18 -8 -56 28 21 2 -13 -33 11 -79 -57 46 -17 -11 43 -6 -26 -3 39 6 -48 57 -48 -15 -24 -12 -7 43 -14 -49 -39 34 6 -4 73 -38 51 2 1 -25 -36 18 8 49 56 87 3 57 -12 26 40 36 -35 12 -33 19 -30 17 28 73 27 -41 28 -21 -17 -47 7 46 -27 16 41 -50 -51 12 51 6 -58 39 78 33 21 -8 -82 -37 -59 -68 28 -31 8 55 31 -51 -37 36 62 -44 1 -49 8 -41 6 11 -53 -24 27 19 -6 -30 28 -61 10 38 62 -53 5 19 -57 81 -29 37 -59 38 61 -59 -52 -35 -28 -4 -14 -4 -60 -18 36 51 34 19 32 -42 36 41 22 54 26 -37 9 23 -18 47 -43 -23 -18 -1 -21 19 29 13 -39 -36 -82 -9 -87 -1 31 -90 -86 -44 13 49 -52 64 0 -52 18 -59 -26 38 54 12 33 37 -48 37 37 -13 -16 -30 25 -19 12 37
22 21 21 49 -41 40 -57 58 53 12 -13 1 -30 -34 21 27 18 13 58 10 -26 48 -13 23 7 -50 -13 11 9 -7 -45 45 33 -68 22 2 -44 6 -6 39 -9 13 -31 11 -27 17 -42 52 -12 -26 12 17 26 -4 30 3 -17 19 -17 -34 32 41 -65 -40 5 9 1 41 49 -15 11 -14 -60 10 54 -45 28 42 -40 1 0 -54 50 11 34 44 -1 -19 -5 -53 22 26 54 -11 40 40 26 1 -30 26 -69 40 65 33 10 54 -51 19 40 24 -21 -56 -18 44 -25 -51 -25 -39 47 19 -4 61 -20 27 4 -27 35 40 28 -42 -20 50 -21 11 -22 56 65 -55 -1 -20 -46 44 -39 -45 -38 -33 9 -55 43 -21 27 -25 -4 52 31 12 -10 -4 25 -26 -15 24 27 -15 -40 -53 29 -17 1 -16 58 30 -46 -13 38 -57 7 -17 19 -70 -28 70 -52 6 -58 -1 -62 -50 -3 31 -55 33 38 36 -35 20 41 -4 -13 -34 65 3 6 -62 28 -38 -28 -25 -8 -15 -10 -45 61 15 62 34 -8 27 43 -23 -28 17 -30 -27 -55 -35 -34 -2 53 -37 18 6 -7 -12 -20 -50 -17 -37 28 4 -24 -65 -70 26 24 24 -67 -28 -64 53 61 -12 -50 -9 5 -55
-23 -41 -40 -27 -29 67 70 53 -23 -24 38 2 -71 0 22 37 -31 44 -41 -31 -8 -46 -56 -23 -15 -41 -21 11 50 -36 0 7 27 46 -50 63 27 -14 34 55 37 50 7 -7 -59 -59 -4 -23 -48 2 -62 -44 49 -18 -54 28 -57 -6 -6 -1 -13 -31 -62 -67 9 55 -42 13 42 32 57 -64 51 -51 -47 -37 -33 46 46 -24 -34 -46 11 -48 35 -6 -26 -21 14 14 -69 -34 17 -21 21 -63 50 -12 -76 -54 2 53 -64 -7 -73 18 55 -44 8 -23 4 -22 6 -22 -49 47 -48 65 -48 8 -29 9 -37 -5 31 -51 -33 67 -36 44 -55 -40 18 -56 -22 56 56 27 -42 -50 -32 -27 -47 -43 -1 -25 31 11 -33 -8 15 -30 -35 89 -36 37 -68 -34 -4 31 -18 -52 -68 -68 51 -13 38 -62 -10 17 5 20 -57 17 -12 -1 -35 -39 2 46 13 14 64 2 -44 -3 -60 -39 1 18 -36 -8 71 48 -43 -84 38 -25 -27 18 -4 -39 -27 41 -29 4 15 31 22 -8 52 -66 28 -20 53 7 -14 -13 28 59 60 -37 54 -3 -33 4 -23 56 73 -41 -21 7 33 28 55 28 45 -17 38 -57 17 20 37 -19 -49 0 12 37 -69 58 21 52 -19 -13 -30 -2
30 -14 53 -22 63 -50 -58 -68 -4 -45 33 -15 14 56 -50 11 9 -36 12 30 -55 55 -48 12 -14 44 -7 -13 18 25 -57 -29 -22 -27 45 -59 -3 31 -22 55 -68 35 12 -50 38 36 -5 -57 -31 14 -9 29 -23 63 -38 55 -36 -52 35 -4 18 9 -20 1 53 -42 19 44 -17 41 -52 -44 -7 -42 58 -50 60 49 -70 49 -49 -27 -33 -20 -9 55 -8 49 -58 -35 14 32 -25 -4 -44 -11 -33 -51 -53 -29 11 -42 41 36 -63 -38 -19 34 47 -41 -40 -42 -23 49 -55 -34 4 61 -70 -53 -33 14 11 23 -36 32 -18 28 44 53 -38 13 -17 -3 53 34 25 -25 -5 -66 -6 5 35 54 -66 0 -46 18 38 -34 -18 -51 45 -11 53 -8 33 -5 6 -1 -42 -31 46 51 61 27 -2 59 0 43 -68 -11 -51 8 -49 -66 -2 -7 -3 46 36 -29 0 26 -39 41 -61 -37 45 -45 -1 -7 28 -66 26 49 -26 -17 20 -15 14 -16 21 11 66 -62 -45 4 -51 35 23 11 -24 60 47 -47 -27 -47 50 -9 63 -13 13 -22 -7 -42 40 3 -33 -34 -36 22 -66 2 -18 7 48 27 -64 -28 55 48 -56 -37 46 35 -16 52 28 16 20 47 -42 -27 -14 -42
2 -65 36 -25 40 24 20 14 56 -38 57 -31 48 15 -21 -40 13 -53 31 -14 -15 13 -34 -19 -6 -11 58 22 0 -46 -17 -1 36 -3 46 -1 44 55 -58 -7 -16 -66 -32 -41 39 56 -5 6 -54 51 1 -63 2 -27 63 2 -57 22 -60 -51 -37 -35 4 -5 -15 8 19 -15 56 37 24 -64 61 35 -50 -30 16 -48 59 -23 -12 -60 -59 -26 -1 -46 -53 35 46 -40 58 -26 -4 28 35 33 10 30 62 -52 60 -16 24 62 9 -29 -17 -57 59 9 -45 13 -24 38 29 67 13 36 61 24 -60 44 -21 9 60 -56 1 -38 29 12 57 28 -57 53 26 -54 27 -57 -30 57 12 -46 11 -22 55 47 -9 4 3 -24 1 -23 -3 -37 23 -23 -14 -61 33 40 22 -51 16 7 -63 -47 -43 16 -57 36 25 17 69 60 63 28 44 39 -44 -41 -49 11 37 -25 -21 -23 42 -36 -56 30 -50 44 6 26 -43 -62 11 57 53 -14 5 13 -43 -56 44 48 -11 18 27 20 -6 -49 -20 42 -48 -45 -31 2 7 -59 -7 62 -56 -52 22 27 34 -37 -5 -21 23 22 -32 6 -6 49 20 -50 -51 -37 11 -50 -46 -5 44 -60 -51 60 33 -52 -26 -19 32 -24 -37 66
24 10 -43 -66 -1 13 0 16 29 -1 48 44 47 -32 18 -29 47 -6 40 -15 53 1 -27 55 -55 23 33 -47 -24 -35 -30 54 25 -56 18 51 -27 6 -22 25 -14 20 -48 -46 3 31 -52 45 -48 0 58 18 -49 -24 -42 -53 20 -59 2 22 49 5 -27 -22 -10 -44 -39 -37 7 25 -35 -52 42 -25 4 -28 49 -53 12 33 45 14 43 31 44 34 53 38 27 -16 34 -42 -19 -26 -33 15 -67 38 4 35 -13 -23 -25 25 -55 21 56 -31 -1 48 55 45 38 7 20 -5 62 -21 -55 36 52 27 -54 25 33 41 -6 13 57 15 -38 -28 -59 -51 -13 49 52 12 -61 20 33 -37 38 16 10 51 -50 46 0 2 35 11 40 -51 -38 0 46 56 -12 18 -61 -32 37 -48 -22 33 25 -36 -46 16 -36 40 10 37 14 39 29 2 2 -62 -8 -41 42 58 -41 -59 -66 -60 -20 54 61 24 34 -7 -23 -26 0 -24 -57 -30 -4 6 -37 13 32 31 -26 -24 49 -39 65 24 48 47 -46 24 43 -43 -9 -3 -17 58 12 13 -10 -53 25 50 -27 28 54 53 49 38 -50 26 -42 -58 46 0 -14 -37 5 -16 52 17 -23 -43 -42 30 39 31 37 22 40 52
-6 -30 37 -48 46 46 -64 -42 -59 45 17 38 -24 20 8 4 -43 2 -19 58 4 -41 -41 7 31 44 32 30 -37 -2 58 29 53 55 -55 -5 -14 -47 40 -39 -9 -3 28 -50 -56 -5 25 15 51 -23 -21 60 -4 -35 27 -39 -43 -48 -45 43 64 33 1 -52 -39 32 47 59 -44 -52 33 -6 18 -35 59 -9 44 -53 -42 7 -46 -9 44 48 -36 22 -33 -53 -8 -15 -5 -16 60 -5 34 -50 -21 8 -60 3 11 38 40 -46 5 -42 -1 18 55 42 15 -42 -14 -50 -49 11 40 27 -49 1 54 -37 -56 3 -28 -21 -53 -48 38 -40 -39 -31 -63 -56 -56 41 -36 -29 -8 44 7 -47 47 25 -59 11 -58 41 -11 6 -37 -8 49 -4 -45 57 -33 -30 -29 22 -11 -25 -24 -26 7 -29 -31 -59 -6 -35 -10 44 -42 -52 47 53 52 64 6 -26 -11 -4 10 -3 -7 38 36 58 52 7 -56 -54 26 -46 -48 19 46 -9 63 -8 -41 22 53 -30 26 50 -50 -2 -9 -50 -27 -61 24 -30 -12 -2 39 -50 -38 42 8 -15 -26 -19 15 -4 1 14 3 -29 62 23 -46 -48 24 53 -4 63 -43 -2 -35 -46 -59 3 20 8 64 16 -14 30 15 52 24 -13 -18 -12
17 -3 -36 55 30 -26 -46 -11 -55 -46 19 -21 -42 -39 44 29 -64 28 -20 -2 57 -4 -61 -12 -10 -53 -54 3 -37 -48 -9 7 -16 23 -33 -68 13 24 -54 -69 31 -42 -43 -8 -49 -21 -33 50 -12 22 -49 43 -25 -36 -26 68 69 17 33 40 -42 -60 -19 -6 -34 -41 43 -26 9 34 -31 -17 -70 41 -30 43 -55 29 62 -18 -69 51 -10 -12 -44 6 7 -51 -56 -31 11 -18 37 -55 -21 -65 55 69 37 17 46 9 15 -2 10 -23 -50 -32 -34 37 11 24 16 -1 44 9 22 34 2 -22 -27 28 -48 43 -11 53 -52 21 62 -30 56 22 24 29 53 25 59 44 -60 -4 -11 -26 -23 35 -10 -31 40 5 -69 60 -16 -34 3 5 -32 -51 -38 7 -11 35 -56 18 9 -16 1 9 -30 46 -33 43 38 24 30 42 -31 52 0 0 -2 -53 -14 37 -29 11 58 61 -20 46 19 13 63 51 -6 -51 -26 31 47 37 2 -1 8 44 -51 47 60 -13 33 56 -17 -53 -28 -41 -37 -38 -27 -32 19 63 -11 25 -52 32 -59 -25 45 48 60 23 -40 14 -57 33 -37 53 13 -16 49 -53 4 38 34 4 29 5 -35 -28 29 5 -9 -21 -32 -46 13 -64 -12 22
-8 34 50 -12 18 59 22 -21 58 -47 -63 34 -35 -50 -26 20 20 7 3 -56 26 -7 41 -5 1 16 26 24 52 5 -9 18 32 34 -20 -24 2 -63 0 -49 38 17 2 -23 9 18 54 -61 -14 -5 -19 38 41 35 34 -60 -54 -53 58 63 8 21 25 50 -57 45 -64 -49 30 10 -6 -29 -22 -38 -61 57 17 -46 44 -59 -27 -5 25 -30 36 -38 -38 55 -51 -57 -13 25 -15 58 -8 62 -7 35 -9 32 33 48 -8 -64 -2 -54 -11 11 9 28 23 -24 -39 35 -37 -6 45 33 -52 -24 38 -55 -10 29 39 62 -17 37 -53 41 35 58 56 -36 -8 -5 52 32 -43 -64 -15 -15 -9 -53 -10 -56 9 -36 1 -48 -4 28 -10 -2 -4 34 15 22 37 -62 56 25 9 66 -32 44 -18 57 -5 -45 19 52 -38 60 -61 -40 -13 -10 -5 0 31 -8 10 -12 22 7 49 -42 -20 12 58 7 31 -38 21 4 -48 -65 -38 -49 -29 -45 -57 60 61 23 59 -25 9 -17 -43 -46 -26 43 46 7 30 58 32 19 22 45 18 39 34 20 18 -50 21 -28 5 -46 14 -22 -3 40 54 -44 -24 -14 -41 44 64 -27 23 37 23 15 5 3 -57 15 20 -37 -58 19
-50 -13 63 -14 -6 14 50 -15 3 -45 14 18 -50 25 -15 14 38 27 -13 -25 47 54 59 41 8 -64 42 46 39 -48 20 47 -28 45 14 42 35 -1 -63 -46 -3 9 -16 -61 17 -34 11 -43 -32 62 11 22 6 41 -46 -31 -27 57 41 61 -9 20 -4 -64 -48 -1 33 20 -4 20 -18 48 6 -32 7 25 -38 -1 -23 -16 11 47 -27 -31 36 43 -61 -64 -28 55 -9 39 -21 23 37 -32 -32 -56 36 -40 8 55 -41 60 44 40 47 -66 -59 57 54 -13 27 -14 14 -30 -69 -41 56 43 45 22 41 5 -70 -56 -22 -69 14 -56 35 46 3 -29 50 -67 -24 20 -18 -57 -20 45 10 7 -9 -21 43 57 38 3 -45 -55 -67 -33 6 56 -11 4 16 -23 -40 -67 -45 -39 -5 -46 18 -24 -49 30 -22 -35 -53 29 28 61 51 -43 27 -53 14 -51 -58 -15 -49 -53 3 -21 37 -9 -53 -6 53 37 -43 -33 66 27 52 -16 34 -8 11 47 -48 58 -16 -46 52 37 41 18 45 -23 59 -48 -7 47 -46 15 25 -43 40 -13 31 19 16 -33 -15 -10 -27 68 27 -4 -55 -45 -53 19 6 67 -50 12 6 -36 -49 15 2 4 -57 -26 -30 52 31 0 42 54
2 -23 55 -19 41 40 44 58 22 4 -25 -39 -23 -3 61 8 -61 -69 35 48 39 -42 -23 -57 -6 10 11 -10 4 -15 -12 -15 35 -34 50 -3 22 22 6 -19 47 -66 19 -60 -54 -30 -37 -52 54 0 -49 -4 37 29 -21 -34 -42 -47 -36 -31 -39 -36 45 -52 -19 59 -21 6 -25 -33 63 58 -55 49 12 -18 39 -29 -6 61 -61 59 11 32 34 -20 -61 28 -13 1 13 -48 20 -54 26 50 58 -19 -18 -22 -2 -69 17 -13 -51 -52 -12 52 -49 -9 6 43 24 -37 38 11 66 9 -53 -45 64 32 -18 -2 -37 13 -1 -41 3 -42 -34 -10 -30 -47 0 30 -40 -36 -49 -35 -4 24 23 -20 47 -1 -8 55 66 50 -31 22 34 -10 55 -25 -32 57 31 -14 -31 -32 47 -8 34 29 -26 -42 -17 -8 28 -8 -37 -5 14 -13 -55 47 45 19 -53 36 -32 -59 5 63 -21 -35 41 -13 47 -50 -59 -1 -44 39 52 12 11 26 9 -32 33 38 44 5 42 -44 53 17 -11 -18 8 -9 -29 67 28 -22 -58 34 -2 -51 -49 -26 -38 49 59 -67 -54 0 0 17 11 23 59 48 -52 6 22 -41 4 -17 -54 46 -35 -32 -40 -4 -52 -50 49 -51 -13 -6 -29 -17
-69 30 -1 34 -30 22 -46 3 -35 -57 16 -45 -10 -24 -46 16 -42 43 -60 -1 -65 9 -19 -58 12 -15 24 55 -33 4 2 -11 52 36 -60 10 29 -28 50 -9 15 -4 -13 34 31 3 2 20 49 -53 13 -4 -4 21 58 -36 -56 43 -20 13 -8 14 28 49 52 53 36 7 60 36 -55 17 -23 -33 -33 -46 -31 14 24 52 -5 -33 -19 16 12 -56 -78 58 52 6 -68 -42 -52 13 35 32 -47 28 -67 26 -65 41 49 30 11 -20 54 11 -5 12 -52 33 9 7 -15 44 -28 -22 58 -42 12 1 2 60 -18 14 -30 5 -36 -62 -44 -27 2 -3 14 16 45 58 23 -38 -68 -44 -50 -35 -71 -14 -57 -52 -70 -44 19 6 0 34 -18 61 -13 -23 -45 58 57 18 -75 -40 22 -15 19 -37 56 59 -8 -48 57 43 8 49 44 -21 -18 -56 -42 79 14 -67 9 18 -47 -27 -45 45 -56 49 -29 52 -63 -18 2 -13 -27 -39 32 -3 -24 29 -18 40 12 -56 -3 49 -54 40 -33 -22 -9 29 64 -30 27 28 -24 17 -6 3 10 11 -51 -27 23 -53 -21 -8 -24 16 64 -12 -41 16 -29 -75 52 25 -21 25 14 -24 -38 37 -45 28 -28 -62 -24 -59 -69 26
55 -40 -17 2 -9 43 8 -58 -52 57 -42 -27 3 13 26 48 -28 34 63 -12 47 -41 15 17 -1 35 4 -18 -49 -25 37 41 -28 51 64 -65 -25 16 -23 22 28 4 8 1 -52 32 -13 -4 -46 47 44 51 58 -16 -35 -38 -46 61 -40 18 23 54 -11 -64 46 59 -45 -5 -41 45 57 -35 -61 -29 -49 31 41 40 40 -10 -10 -33 32 30 37 57 -24 -61 34 -53 12 56 -52 -12 -20 -59 60 -4 17 5 -39 -60 41 -10 17 49 -4 -39 -21 -29 -3 44 -43 -14 -18 30 47 -50 62 31 -29 31 6 -60 -40 -20 1 15 -24 -28 27 46 -15 57 49 -51 -41 -53 49 -58 18 45 -11 22 10 -8 25 49 -62 -36 26 -21 -32 -60 -40 -48 5 -46 60 -16 21 54 16 9 -31 46 64 -19 -35 18 28 -43 -33 -41 10 55 10 28 -60 12 3 33 43 -50 40 -46 -19 -13 48 41 0 -53 30 51 -50 -66 9 -23 -1 -23 -20 -70 -28 -38 -42 16 8 20 60 54 -19 -11 -46 -6 -7 37 -57 20 41 55 -11 -5 -4 5 20 45 -32 16 21 55 31 -14 11 -56 -5 22 -55 -61 -43 28 -66 59 57 47 11 -9 36 54 25 55 53 -30 -35 8 46 -37
-13 0 31 -20 54 -54 55 -52 -15 45 18 -2 39 -43 38 68 -7 10 -52 43 -63 -5 -50 -53 29 -1 33 -55 -54 24 -12 -45 64 -21 22 60 -39 -15 42 65 60 21 41 41 21 28 -25 24 24 -2 -9 17 48 32 46 -44 -58 -13 -20 51 -21 26 6 -9 33 24 -33 40 54 -2 -52 -53 -30 -42 -59 51 36 61 65 -28 -57 27 50 59 -44 20 47 6 42 -48 50 14 -14 -27 55 -27 -17 26 24 46 50 8 13 12 -15 -33 12 -32 -26 -55 -58 47 -30 -26 7 -42 -20 64 23 -39 -50 -25 -31 21 49 -12 -27 -21 -28 -41 32 -45 7 -59 26 22 4 -65 -14 65 -42 -13 57 -66 -35 -12 57 -12 43 35 5 -28 37 2 -34 -5 43 -51 -20 -48 25 -41 -12 14 -29 -36 -8 14 -48 36 24 -1 -51 -55 -44 44 42 -60 -60 36 48 64 -11 55 -52 -31 -7 -58 23 -23 38 -31 -37 -17 -35 -33 64 -57 -8 -15 -46 -39 -15 63 -16 39 3 -22 -18 49 -25 -10 -15 63 -19 -41 0 -16 -27 -24 -4 48 49 18 55 42 29 52 24 4 8 -8 -62 -6 -28 8 -36 -9 50 33 -5 31 -3 -35 10 29 -51 18 -63 35 46 13 53 -26 17 -27
-26 -52 13 27 18 22 46 -6 50 -61 -70 -30 16 -28 -17 41 9 -28 1 -48 -31 -12 -71 -4 55 -34 31 52 27 -69 -53 -11 7 -29 -57 -4 -47 60 -58 -7 10 -4 51 -21 -4 15 15 -16 1 -25 60 -44 -47 -12 23 56 -34 -32 47 36 -34 33 54 -67 11 45 38 37 14 51 5 -2 2 18 -50 52 36 35 50 -22 57 -33 27 -41 -62 2 20 -68 -13 30 13 -29 -61 8 -28 38 51 32 -13 34 28 -48 -33 -66 -63 -21 27 38 -34 19 -10 -8 -35 -14 34 31 34 40 -5 -43 -62 -38 43 -13 57 -53 -45 -17 46 -17 42 -25 -11 56 -17 -31 66 -6 -41 -47 26 8 56 -48 55 -21 -39 -24 -14 51 -60 -55 -29 -21 70 50 -62 -65 48 46 -29 44 -8 -44 12 -40 43 24 -27 46 -30 51 -33 -6 22 50 4 -10 -63 27 -52 -43 -27 50 -49 -62 22 29 -24 -53 -29 59 -3 45 60 57 -43 25 5 -20 -29 40 -38 -47 -31 30 -29 -62 0 -68 -19 58 -69 -20 33 53 -43 45 29 2 20 14 39 -57 -57 15 -55 8 -8 15 3 23 11 -24 32 -45 46 -30 42 -46 43 2 56 -26 -58 -55 19 -61 -59 -9 20 -1 -1 -49 -35 30
10 47 -44 43 -42 3 -1 -56 17 -56 52 -46 40 12 -60 27 -3 45 -20 58 -42 36 -36 15 44 9 51 29 24 -65 -3 -29 -44 4 41 -42 20 25 49 -41 -58 17 -14 3 61 -62 -2 -6 -42 27 16 27 -1 -39 -16 -33 -52 48 2 50 4 -17 31 35 41 34 -29 45 -27 7 45 -41 21 37 10 -43 47 -23 51 -8 -24 56 -55 -47 -33 21 -12 -26 43 -55 -3 56 1 69 -22 7 -13 4 66 34 38 64 -48 13 -1 -56 13 16 33 4 -27 -43 -25 64 -31 -9 33 -54 -43 53 -42 46 59 -18 33 31 57 -14 35 48 42 -19 61 34 -23 -52 47 48 -63 33 -49 -12 1 -52 -42 10 25 22 35 -28 -3 -62 -38 25 -32 -5 14 41 -34 39 -52 25 -29 48 -18 -36 -1 -46 0 39 -59 -52 54 -18 54 8 -43 10 59 -46 -62 -1 -16 7 -4 -12 -8 33 49 13 41 16 -15 -55 -51 -12 -67 -27 5 -5 48 -6 -32 55 70 4 20 54 -30 -36 -40 -59 37 -49 -42 -41 31 -6 -64 51 -35 -38 -51 46 -64 -34 -46 -22 49 -39 -50 28 -44 -6 -47 27 -47 -10 47 -6 16 -53 4 -32 59 5 16 38 -60 -23 10 51 -55 23 -16 7
10 54 11 13 50 -47 30 -21 26 -40 8 44 31 -10 30 -59 17 -33 -53 5 63 28 -8 12 -37 48 -59 19 22 -53 17 -37 -1 -41 -58 -29 22 18 7 26 -48 -20 29 25 -41 29 -55 50 -63 50 -42 -44 -15 27 -34 -16 1 -46 -62 -11 3 -59 -45 10 -54 2 33 8 59 -20 -32 2 59 25 -26 -35 9 6 -20 15 36 59 -63 -18 3 -56 -31 23 -22 -20 -38 -14 0 24 34 -47 36 0 -42 48 60 -31 -33 -45 -42 54 -31 21 -14 -57 34 58 6 63 24 6 63 33 54 62 44 33 -14 18 48 36 42 63 13 -63 -9 50 -58 -53 -49 -26 -12 33 -11 -46 -11 9 -15 40 54 62 19 -6 -40 -44 34 -37 36 -27 -37 52 19 -32 9 -8 51 58 31 -15 -13 37 3 -54 25 -39 -55 -16 -10 -22 -23 -28 49 -3 -13 50 29 43 51 18 -32 -2 63 4 -28 53 -34 54 -53 -15 16 53 20 -60 -12 32 -29 -24 28 -16 -10 33 6 -39 30 -56 44 44 -54 33 -43 -8 25 -8 8 11 -22 41 18 11 31 -47 -56 -26 43 57 45 28 -32 -35 -2 1 25 31 57 -22 36 -50 36 46 -22 3 10 -31 58 -33 14 -24 3 60 -33 -28
-19 -21 -39 66 -26 -10 -30 -60 82 -17 -30 -48 -50 -44 -83 -44 58 -75 -31 -8 -11 18 -6 -31 35 -1 -56 -45 39 54 -2 6 50 9 -36 11 -56 74 -64 16 28 54 -14 36 -62 69 18 -24 38 -29 -1 61 47 26 -1 34 13 -10 0 -9 39 -15 -7 -43 54 74 57 0 75 0 -57 68 -82 -43 1 -56 8 -13 43 -9 78 35 34 -47 -36 46 1 40 47 48 30 -21 -80 -22 -18 38 -36 52 -40 -21 -1 44 -2 -13 27 -27 43 -18 -14 10 21 0 18 58 76 -47 -40 69 -46 24 -28 6 78 6 26 -29 -13 -23 -6 -38 -59 47 -34 -37 68 -26 -47 55 2 -70 44 -47 -27 -66 -38 12 54 38 -58 -14 -14 38 -51 7 -5 -64 -5 8 -36 -21 77 -51 -59 47 -39 -7 -43 -39 61 56 24 1 -33 -8 37 35 82 70 -25 -59 54 -3 10 -42 9 19 55 -13 49 -52 -33 24 -33 -46 -20 81 81 44 -3 -2 56 -63 13 -10 10 -27 -7 -84 0 18 -19 -10 -12 22 35 -6 10 -4 -52 -84 75 5 10 -19 46 -12 14 -59 52 50 -86 17 -13 -53 84 -49 61 31 31 -3 5 -23 -48 66 -11 14 17 -36 -50 37 -39 84 -12 -73 49 18
13 -64 39 -57 14 -7 -50 -16 -27 -51 28 84 -11 -24 2 30 -15 -56 53 37 -55 -63 40 -58 -9 36 -21 -22 61 -48 0 31 -39 47 -36 91 52 21 25 9 -33 22 17 19 -7 -60 -11 26 60 -71 25 48 21 -36 18 38 24 -11 70 -9 59 57 4 1 -11 39 -29 -7 -41 -22 -16 30 20 11 25 -69 -45 3 60 62 43 50 33 13 -39 -55 -49 0 -64 58 42 4 1 7 83 -76 53 28 35 -45 36 16 86 -44 -34 -21 5 1 -9 34 -18 -9 17 -39 29 2 6 -28 42 -41 -58 -60 12 36 -63 9 -38 -79 25 15 21 -46 57 -12 36 -29 22 -59 -31 -6 16 60 53 -32 89 2 27 -17 -14 -49 -51 -52 -91 29 6 -6 -41 -8 9 29 -8 13 -31 14 -34 -27 10 -34 -1 -29 -57 -38 11 14 -43 -17 -39 -44 -17 30 56 -19 -43 1 -38 -19 1 -46 -23 44 -36 -29 -57 40 35 -65 -50 49 20 0 0 -41 -21 -75 21 37 -46 -25 -62 -47 83 -8 -27 -24 -87 62 29 27 -2 -39 35 -40 -35 45 26 -30 26 44 38 13 36 -63 23 -7 22 39 -56 -52 30 -54 16 -17 -25 33 -5 -13 12 46 51 2 -75 24 -57 -26 -47 -55
-58 62 -4 -62 56 38 17 -13 21 47 -3 -28 -57 -42 52 3 37 -5 -12 32 -35 34 21 -8 53 37 -4 -38 -38 53 3 -7 15 -12 43 -46 -18 16 27 15 -23 49 -22 -58 -49 28 37 -25 -50 47 -4 -39 6 -30 52 59 52 -35 -61 -7 40 -25 -28 27 -33 -40 -20 -58 -22 0 -4 49 5 -26 10 -36 -19 -7 63 -11 -15 -28 -50 -1 8 -40 17 -51 62 -67 3 -20 26 -28 -44 47 -41 -24 20 -27 -15 -56 -12 -47 62 -41 -34 -47 16 24 -37 64 -11 -26 -53 -18 -2 5 -54 -22 11 48 -34 -36 -54 -14 -55 -69 -40 -24 -21 9 -29 53 28 -20 27 15 43 -62 55 20 -1 26 55 -10 30 0 5 28 41 1 -26 -51 58 -46 -38 -54 63 -35 -28 -1 -36 -53 18 50 -53 7 28 -34 43 -38 41 -4 13 -16 14 -44 40 20 -29 -10 -48 0 -52 30 -10 24 41 -59 -54 61 -53 -12 55 15 7 -25 -45 -59 8 -48 -15 16 -25 -39 -37 -52 -17 -22 -63 -34 -19 56 70 -5 10 41 46 -49 -24 -8 32 32 -41 -31 -13 -53 25 -33 -43 15 52 10 40 -9 8 8 46 30 -55 -47 -23 -66 -43 43 44 -29 -39 -7 5 -21 48 51 -15 7
-43 2 9 -18 -19 -47 -18 47 -47 -13 47 48 2 -15 9 23 -39 -50 -38 -62 -8 -28 59 -27 -8 -41 19 13 42 11 15 -3 -44 16 30 13 35 23 19 -50 -41 -17 44 9 -21 -16 55 46 -22 -12 51 -51 -63 -28 -13 -1 -2 51 -66 -6 14 -51 -19 -15 -1 47 10 -52 -65 -48 -50 -55 61 48 6 31 -63 -6 8 -33 20 -39 21 -25 -47 -27 24 -40 41 10 -26 -23 -50 15 13 2 -42 -55 21 39 2 39 -66 -43 -40 29 20 -18 36 -44 19 -51 42 15 31 -35 -38 -17 -69 -7 66 -19 -45 -9 45 -20 -60 -16 -29 -35 48 24 -3 -36 42 -59 -52 -6 -36 18 4 37 -19 -43 3 -64 43 46 -37 65 58 -1 -35 8 1 -33 -2 -45 -32 -18 -55 -24 -30 17 45 -36 -11 -32 19 -24 0 -25 -58 -12 -16 53 -18 -26 57 -52 -65 -33 -67 -25 -5 -61 -27 -61 -14 -40 22 29 -44 56 -24 26 -5 -49 -43 50 -30 -32 -1 -23 70 -22 -25 0 -4 -30 -12 1 -59 4 -25 38 32 62 22 -22 19 -49 -30 -45 -64 -61 -21 16 62 33 -12 -16 54 37 -52 -20 10 -35 35 23 -39 39 59 -54 27 50 -30 4 -14 70 -47 16 -36 -5 55 -30
52 -21 33 48 26 49 3 -15 0 -26 -36 53 -8 -35 -45 -12 -57 3 -9 41 -33 -11 0 -30 25 -43 -39 26 -49 -30 -9 -12 46 19 -7 -43 -46 33 46 39 36 -49 4 -48 -31 40 47 43 9 58 -66 7 -61 -4 -36 -16 56 25 -34 -49 22 24 -67 2 -56 66 -46 0 27 52 -41 7 -17 -21 11 4 33 65 65 -21 41 -39 -10 14 -23 -15 -18 -56 12 16 22 -32 -40 5 55 51 15 44 -31 30 56 -52 31 42 -11 28 -31 -4 9 -40 -28 6 34 11 20 55 1 25 16 56 11 15 -4 -18 -20 10 41 -3 68 -19 51 31 55 41 -56 18 62 -63 -32 26 20 -46 52 27 37 -33 44 -51 -44 -25 -62 33 22 55 -46 -22 -60 -61 -35 -30 -11 15 -60 -41 -54 -33 -29 21 37 -31 -10 -51 35 36 30 57 11 2 -29 46 61 -3 -35 17 16 27 37 -53 -34 -15 4 -38 19 52 -46 -4 -44 19 -27 -3 61 41 54 36 -9 -58 -37 13 57 -64 46 2 -46 -8 55 -68 -12 53 -45 43 -9 -14 -63 -14 46 46 -49 -14 5 9 -19 58 -5 0 0 -13 21 -39 22 -20 -65 -57 38 -7 50 -11 13 -24 39 32 -26 2 21 64 40 14
32 8 54 38 -63 30 59 -20 -3 -46 -41 54 28 54 51 -22 -52 -51 48 -19 55 -24 -1 -17 -15 -34 -46 1 -47 -40 -48 33 23 43 -42 56 -50 11 -14 -39 45 17 -1 -37 -52 -45 -41 33 -44 -22 44 7 5 -22 56 33 52 -14 -3 54 -39 -1 54 -47 -48 -32 -54 46 -48 45 63 -45 32 22 46 -20 -41 36 55 35 -1 27 1 4 50 50 54 -7 63 -35 -35 22 40 -20 -50 -11 -53 47 -52 -37 -7 -24 -62 24 -23 -49 40 -7 -51 52 59 -32 16 -39 36 28 12 20 58 53 -30 -56 -32 38 6 -63 -61 -61 -5 53 7 -49 -52 55 17 -53 -19 -53 3 -48 -16 57 -34 32 6 -51 -70 41 -20 -29 23 53 13 8 -3 58 49 12 -35 20 27 28 12 -27 3 -13 16 31 7 22 23 -49 20 47 55 18 23 -20 -25 -38 -43 -15 9 -1 -9 37 -60 -7 -57 53 -32 48 -18 21 -47 -31 32 18 28 -55 -56 -65 33 -32 46 19 20 36 10 -45 46 -50 -11 19 -24 25 19 0 -64 -9 55 3 -53 -56 -31 25 40 35 -17 -22 -34 22 -23 -56 -25 20 23 -26 9 30 25 10 -55 -49 28 42 21 2 58 -6 34 54 -42 -42 -42 37
2 -15 54 -16 -16 -18 33 -43 38 -28 -25 13 52 -29 3 5 -26 45 -20 -1 -50 -36 -44 -2 -18 -22 57 24 53 12 51 -31 -57 24 46 43 -26 -46 -50 25 54 -50 45 63 -47 29 -62 -31 27 48 -59 39 42 46 16 -9 29 -61 -54 21 -47 22 18 -11 -53 36 -17 23 12 -34 6 57 6 -20 -60 -23 -9 9 28 15 -7 -38 20 52 -51 18 -7 -24 -28 62 -28 -23 -63 58 1 27 -26 4 44 49 -28 -16 9 64 5 56 55 -40 19 45 39 43 -10 -25 -6 45 -19 55 -63 -52 -65 -11 0 60 26 -4 49 58 -48 30 53 35 35 -15 24 -53 -26 -50 20 9 55 59 35 35 10 14 -31 -33 11 -49 -20 -4 -43 -52 51 -14 10 -60 61 26 38 -45 63 -45 3 -61 21 -19 35 10 59 21 -40 -59 20 34 -16 52 34 6 -19 -47 -5 36 -48 -13 41 -38 27 33 -20 -51 -29 44 -24 -6 5 -38 33 -50 44 -34 -57 -45 54 -39 8 -7 -44 -20 -10 58 -25 1 39 -39 37 69 39 64 24 4 -6 3 -63 3 63 -12 -28 57 8 59 -41 58 -41 15 40 -22 45 64 12 -22 -31 53 44 -1 18 -36 26 47 -59 20 -20 33 -57 12
48 -87 43 -16 51 61 -55 0 -16 -75 -81 9 -34 -15 42 -42 -83 74 28 73 3 23 -27 -25 72 -9 -3 67 1 -16 10 0 -60 54 19 44 -30 28 -18 -56 -40 -14 -47 61 23 20 -54 90 -11 -3 -5 12 1 -14 6 27 32 -8 60 9 31 -55 -87 56 15 59 25 -27 -31 71 52 -36 -41 -22 -3 -63 -39 41 -45 -12 16 -29 -13 -50 -12 -12 23 26 54 85 17 39 -88 -42 29 -34 -13 0 72 -21 50 15 9 -42 7 7 -64 -52 -69 -17 36 -31 -9 86 32 -11 -11 82 -3 -33 11 15 -88 63 50 86 56 -43 -45 33 -58 85 92 -12 -46 68 -69 -90 20 -27 106 67 56 56 83 2 -24 -25 25 -25 -4 17 -81 50 -36 -32 -16 -2 24 -39 49 37 15 -2 -24 48 -58 -51 -24 -84 13 -40 -58 -56 -29 -29 -3 -22 -4 -62 -47 -17 1 75 -31 -62 -60 42 -35 -46 37 -24 7 19 -47 64 -13 -10 -27 -51 -42 -30 40 18 18 -38 -22 2 22 21 83 29 53 -30 -80 61 32 -38 -56 -19 -24 -46 -33 1 -71 31 -40 -64 46 -9 68 -10 -5 74 33 33 -14 22 31 -23 -6 -6 93 1 -39 -6 -81 48 35 -28 9 99 -37 -17 35 -44
-68 -7 48 -25 59 40 -51 64 36 -44 35 49 -13 -40 25 -57 59 -63 -55 32 65 -23 -63 16 45 12 -1 50 -42 -26 69 3 18 -22 32 -9 59 -50 -78 76 -66 -3 -9 -56 -54 -42 33 -3 13 12 53 14 25 -4 -47 -40 -50 23 -11 -41 16 -19 22 51 8 -2 -34 13 -29 -3 34 -33 20 80 -57 -43 -25 45 3 -43 6 -43 -47 22 45 24 22 52 13 52 -52 16 29 1 35 15 30 -18 28 -3 70 13 40 -48 -30 42 -37 20 -38 -68 -25 58 22 -5 -20 19 30 -5 30 -37 15 -59 35 -55 -63 11 -59 2 45 30 12 -14 -1 -38 -23 16 21 42 -16 -14 45 -37 27 10 -7 -44 -35 -4 -46 -58 -2 -2 -14 12 35 -20 -15 -15 72 -22 -7 -34 57 -35 -77 -52 -19 33 -50 -43 46 -41 44 28 34 -78 -15 38 17 37 -63 37 1 -8 4 -35 -36 22 -15 25 -5 -55 36 82 13 -42 -44 82 -11 44 -18 -64 -52 17 -47 33 20 56 2 -58 -6 49 43 82 -24 64 8 2 -15 -17 -44 38 -65 -31 -55 37 -81 4 -8 -21 2 62 52 43 -2 36 -19 37 -61 38 -57 -45 18 -7 -15 0 19 12 -55 -16 -30 -21 5 48 -5 22
-22 4 52 55 53 -1 -34 -43 65 18 30 69 -12 -3 -10 -13 -30 61 2 25 3 4 -44 -33 -6 -6 43 -24 21 -60 34 12 -8 54 -5 50 6 61 -58 27 3 9 19 -10 2 -39 -64 67 -24 18 -12 2 -42 16 -34 58 34 -43 36 37 -2 21 30 47 12 18 1 -36 51 41 -56 17 -27 10 -13 -44 -42 -19 -47 -57 15 22 -37 -26 -60 39 51 26 -35 -27 5 -4 27 55 -13 -70 57 16 65 -48 29 -41 -49 -56 -55 8 52 40 -3 51 -16 82 9 58 -17 5 42 -5 -31 -26 50 -1 13 -15 36 53 -26 -3 47 -34 -21 -15 1 -69 -78 -14 -37 -25 40 13 17 -20 46 29 62 15 35 -43 -58 1 1 -58 51 43 16 48 -41 -15 35 -16 12 23 36 -29 -53 -20 23 -45 9 -41 54 17 32 -4 -5 16 42 34 -56 -57 -25 33 26 -6 6 52 -64 -33 -55 -43 1 -7 -26 2 -17 -58 -44 -17 -24 -33 69 -42 65 19 1 -41 -30 -24 43 -62 -28 2 -38 -31 -44 38 67 37 -11 -58 46 -57 -1 -14 -14 16 -47 -31 69 -2 39 58 -57 -26 55 41 53 49 -38 32 5 69 4 43 -38 -47 -26 51 -1 31 34 -19 -13 6 -46 -19
-35 7 69 14 33 -35 18 -53 -53 0 23 -33 -69 49 9 -17 24 2 41 -16 20 -24 54 -63 0 -15 47 9 -25 -61 47 -42 18 -57 -6 79 74 0 4 -18 14 -16 -19 -23 57 -13 -23 6 57 -11 -27 -35 32 -39 -25 -1 57 -2 36 -60 52 66 -5 16 -42 12 -11 -22 20 -33 20 30 28 38 -54 -22 -66 6 -11 -37 61 -47 -55 35 -61 44 -22 -9 29 -4 53 -32 31 -26 -34 -9 -2 -50 68 -59 60 -8 39 16 -1 -57 52 51 -6 -56 77 90 -40 14 16 -13 70 -34 38 48 -61 15 -5 -56 -47 45 -39 -63 44 -33 35 -18 11 24 16 25 0 -85 2 33 -13 66 12 -12 92 13 34 22 29 32 -50 -76 31 -5 25 -23 12 -41 25 -9 55 -64 33 -30 28 8 -57 57 15 -38 -48 16 -9 -27 -36 -36 46 34 -2 -59 31 27 12 68 -70 52 40 -57 49 27 -26 11 69 1 -30 -74 -25 41 13 60 -27 -25 -14 25 6 89 34 -55 -25 6 66 -21 -57 34 40 21 90 25 22 -23 54 -39 58 53 40 -66 14 33 34 -73 42 36 16 -23 23 62 27 -42 -12 -59 28 55 68 40 32 -54 -51 50 -5 -29 -11 -22 -37 -25 9 32
24 7 34 40 -17 -43 27 39 -52 -19 -14 -31 37 12 0 -30 46 53 57 45 -40 -36 -54 -31 34 40 -7 -42 -25 -45 -67 -66 -68 47 -53 -57 27 -20 40 32 29 15 -41 -55 -7 -60 30 -41 57 -21 -26 3 -62 44 10 -49 -35 -8 -34 -33 -29 24 -33 30 -50 17 23 46 19 5 0 25 -28 -23 -35 -12 -1 33 39 18 -29 -44 -7 -23 17 -52 19 -47 -52 -8 3 42 6 -27 -37 41 41 11 17 -47 32 25 26 1 -53 -13 50 15 -44 43 -51 -16 5 33 16 -10 -11 22 -52 -16 1 50 57 59 -67 57 61 41 -54 -51 48 -42 -5 -60 62 35 -20 -36 -5 25 -33 -14 18 42 9 32 42 28 -21 -58 54 -30 -4 -38 54 -60 -25 38 54 -6 -24 -45 0 -31 -38 60 -29 57 -33 -25 64 -47 -13 56 -43 60 -55 -8 17 -16 42 6 42 27 -48 -53 12 -39 20 -20 19 -12 55 -40 -58 -19 -5 33 -8 -41 39 23 -42 -8 1 -43 46 -13 37 -43 -4 6 35 51 55 53 24 45 -45 -8 17 11 20 27 -32 -12 -46 26 10 -34 -53 -30 -30 28 51 -32 42 -45 -16 -32 -56 -37 52 48 -49 -51 -67 -21 -35 -35 -28 28 -18 -55 43 55
11 36 -37 -8 -62 30 -63 -20 50 -15 5 57 29 41 -20 67 -17 -3 -19 -16 4 -40 -17 -31 -9 44 -33 16 -17 28 16 -17 26 -22 51 -46 51 63 8 -23 -39 21 18 -3 14 4 -52 -45 -10 16 54 -13 41 -55 60 3 33 36 0 -41 -56 11 8 48 40 70 5 -63 10 -63 10 24 -29 21 13 26 3 0 -15 41 46 -55 20 -5 -8 -42 -9 -42 62 42 -40 -56 23 -8 -26 -11 -44 67 -17 -33 -42 5 54 11 15 -40 25 -29 -52 -34 36 -46 -31 55 32 -1 -26 -33 -40 6 -19 -14 -46 6 7 21 30 18 -41 -57 -46 -30 33 33 -29 -8 -14 -29 -4 -34 -23 -34 -30 30 57 50 47 -49 42 8 48 -35 -43 -63 49 -48 -17 -40 -38 26 39 -54 34 -64 14 47 20 6 -39 -16 18 0 48 41 16 -22 57 -9 -34 48 -33 38 -1 30 -1 -53 -57 -48 -25 17 -22 12 3 53 45 -58 -28 -3 42 -4 -9 23 -32 24 60 -54 67 17 50 -2 -8 -29 -11 -34 70 3 22 -45 54 -50 -28 -50 20 -8 -26 0 -49 49 -5 -69 -57 57 27 -18 6 -36 1 -40 -5 13 -49 40 -66 -56 5 -38 -16 7 -57 9 -22 -25 3 -23 -13 -24
-22 45 10 26 -21 -38 -29 -38 35 5 -36 -54 32 -13 -38 51 18 33 -26 40 29 -20 19 -14 4 -54 60 51 18 3 63 51 34 -59 57 -46 -8 -40 -24 -23 11 2 -53 -57 -47 -71 31 0 6 9 -12 -49 6 53 -32 -51 -17 -12 -56 15 63 -17 13 22 9 59 -40 22 20 48 1 7 15 -15 -26 12 -58 -21 50 18 50 54 -39 57 -22 -61 1 5 -47 -25 -39 30 -27 22 53 -29 -14 -44 33 -32 -64 7 5 43 -48 49 -27 -40 45 -17 17 49 37 -36 27 -13 27 23 20 9 -8 -47 30 26 10 -2 -40 52 10 26 -18 -51 -28 28 -24 -27 -49 50 -50 -30 -29 53 -45 20 -20 44 -66 32 -41 31 -50 4 -53 -19 9 -39 -44 -5 -31 -17 63 -44 27 -19 -2 7 -62 40 44 -45 -46 -48 53 -58 -62 -29 -9 -24 20 -53 -20 60 48 -14 13 27 -50 -42 -53 -54 -2 -7 -12 33 22 -53 35 32 20 40 55 -6 -40 -1 39 46 -34 33 55 9 34 47 10 -24 -44 64 -35 -5 46 -3 -24 15 50 -66 -56 -58 7 -25 -46 45 -41 -54 -42 -20 70 7 -25 -13 46 -56 4 -21 -24 -36 -38 -57 37 48 -6 8 -25 -10 -18 46 -52 55
54 -58 49 40 -3 35 46 -40 24 47 26 -32 28 30 42 0 56 -6 -59 55 41 43 -26 -5 25 -20 -12 -24 -36 -20 46 -33 -13 29 -1 20 53 -39 50 -8 -26 -60 -56 -23 -30 -36 26 -4 -42 60 -18 39 29 -1 56 5 -42 30 -11 -14 18 -53 13 47 42 44 -1 -37 -32 37 -62 -31 -64 -53 36 63 35 29 -31 18 28 -39 58 32 -65 -30 -19 48 -56 -28 -5 -66 21 -20 1 -6 -47 -48 39 -20 -43 -22 -14 -12 -17 -32 -11 50 -42 -7 41 2 1 9 58 60 15 71 -11 -22 2 22 -33 -15 -64 35 15 21 -23 -56 -5 19 -46 58 19 2 23 -54 9 18 -30 9 -44 8 -29 -46 43 -20 -6 -7 49 42 -14 30 18 51 -60 -58 54 -8 40 27 -18 27 -1 45 12 -28 16 0 -48 -43 -12 -27 15 -10 36 -61 38 -10 13 -22 52 -37 34 -10 -70 7 2 33 13 -13 66 40 -36 62 -21 71 36 -16 -42 35 -42 -50 35 -51 23 -53 -14 -43 -36 7 36 -37 -6 -16 -33 -42 35 48 -53 11 -20 7 -66 -55 42 37 -18 -4 3 -7 67 -46 -12 60 58 6 55 52 -25 25 -46 -56 -2 39 32 -47 40 -13 24 -28 -53 57 -52 -19
-19 14 14 46 -24 21 -60 31 66 45 41 50 11 34 -42 -11 -35 49 -55 -56 48 21 16 65 34 -51 8 -62 62 8 -25 -50 4 49 -39 48 24 50 2 30 12 28 33 -21 -15 -8 53 -43 -8 -11 -31 51 12 -12 -13 31 -41 -37 -42 45 -37 43 -70 -8 -54 6 10 -57 64 15 -27 52 -43 46 -4 -13 18 17 37 10 -31 -14 -54 6 -17 4 41 -48 1 12 -9 38 62 1 64 -1 -35 -42 -54 3 -48 -64 31 40 8 40 36 10 -36 23 -63 33 17 59 68 -54 -11 -23 19 45 -19 26 3 53 42 13 -3 -54 -23 -9 -5 56 -65 2 17 20 -31 -3 -17 -9 -4 -51 37 -37 14 -58 19 -25 49 -18 32 -60 -13 36 -21 -48 -20 -16 37 -1 -55 57 41 -28 -5 -39 61 -63 -10 -12 -6 -25 32 -10 -46 62 41 14 -3 30 -10 -6 25 -17 55 -24 -61 -46 27 -60 49 -2 9 -52 9 1 21 42 -47 -3 -31 17 -45 -8 -37 49 55 -4 21 -23 -13 43 56 -59 5 -48 21 31 -42 14 -2 -56 -1 62 -4 -18 59 -10 -3 -30 35 -8 -51 -42 -28 24 -13 32 39 -37 -42 20 -40 -53 47 20 6 -55 -7 -37 47 30 -15 32 18 -21
-1 -37 -31 0 -13 30 1 22 -12 -28 -41 21 -63 23 24 -32 19 58 68 36 38 -60 -33 -54 -6 -8 45 21 -10 55 69 17 9 45 -9 10 29 15 -53 50 29 -42 53 61 36 -31 16 -49 -35 -10 -42 -26 -55 -36 -19 11 29 -15 -7 43 39 -44 -62 -39 18 50 22 -48 -32 2 42 24 57 -53 29 2 13 -29 -27 16 34 -21 -49 64 -61 -21 -36 -48 -4 37 -50 11 47 -29 -55 -7 -15 36 -12 -23 31 -52 -28 37 50 -12 43 -18 -66 28 -44 -20 45 -54 1 57 -1 20 -8 -30 -40 -17 -59 -5 -17 -26 -41 57 52 18 -17 43 -3 -46 63 15 -13 -5 70 -67 -2 -22 -9 -34 29 -39 37 -50 -5 8 31 -54 -29 47 27 17 22 -31 40 21 -34 -2 -59 43 -2 -11 -26 38 -40 -21 -54 20 -36 52 -37 -26 18 -36 -39 15 -18 62 39 -26 -29 -35 43 30 40 -35 28 68 36 -46 -49 -25 -48 -46 -14 46 -1 31 33 18 -38 -18 71 51 6 -24 -62 39 -38 -31 35 12 51 -33 59 -26 55 -38 15 19 35 -36 9 35 -35 27 70 -12 39 14 -35 37 7 19 -35 42 8 61 -50 -7 23 0 63 28 35 52 52 -11 40 -16 29 -31
35 58 -8 -12 -4 46 -16 48 -27 27 -65 3 -25 -21 -26 5 4 -57 -39 -24 -36 -58 -37 -3 -16 27 -34 -42 -10 -64 -40 -28 54 -43 68 82 21 32 -62 54 15 -62 -9 6 26 -15 -66 91 60 57 -8 -2 -75 -36 -1 -38 -5 -25 -35 66 -24 34 2 23 7 46 -30 27 52 -5 51 -60 -9 65 -1 16 36 19 51 11 -19 -11 -38 -10 -62 47 45 -20 -15 10 -39 -26 -59 13 86 -7 -47 -9 -19 -44 -48 50 37 32 4 37 -69 50 -14 4 46 86 50 -13 7 -58 56 -62 29 -32 -55 -19 -20 63 -41 37 45 -11 -37 48 -30 -44 21 -68 32 -31 -33 48 -52 42 16 -41 41 36 -31 -23 49 -10 7 -28 -48 38 48 35 -49 60 26 19 64 -66 -27 -26 53 8 29 12 5 -52 1 19 48 41 -21 -59 19 -33 31 -5 -36 16 18 43 -25 25 -53 1 3 -13 -42 -35 59 10 -57 8 -21 -10 -50 -11 74 3 -46 46 -58 -64 13 5 2 -59 -41 -67 4 1 52 72 -12 9 58 -79 5 -37 2 -43 -12 -22 -35 -40 -80 -59 79 -13 -3 -10 -51 -48 -62 41 -32 39 4 -25 -36 -36 51 -4 -67 -2 -52 12 -11 18 2 -28 -37 -5 -29 -44
54 -39 -6 -30 -41 34 -55 23 58 46 -73 4 29 -57 36 -23 -31 -48 65 23 -48 -68 34 29 -54 8 65 -15 -33 -22 -49 48 42 -67 -15 39 -42 -32 -51 25 -44 25 34 11 32 -19 23 5 56 20 22 45 -64 -4 -44 52 42 36 -19 39 -54 45 14 30 -57 -53 40 69 14 14 -3 -90 55 81 32 -3 17 39 0 3 9 16 40 13 18 9 26 -57 -78 38 -15 -59 6 -54 63 -49 -21 -55 -12 45 43 20 -25 56 -25 -35 -30 43 -5 -20 39 24 -50 -39 -4 45 -1 -38 6 -3 38 -50 -34 -43 11 34 -3 -16 25 -1 -30 4 48 17 3 -51 61 -1 26 15 -53 -55 -44 34 -36 2 -45 4 37 -8 4 -11 -12 -13 25 -16 -62 45 -4 21 -5 30 -17 15 -35 -23 -18 -12 -16 -35 26 25 8 43 -25 20 54 17 39 18 -4 -3 51 21 -62 -4 30 -33 23 20 -44 -16 17 22 3 -33 -26 -51 39 -38 -39 -5 51 5 30 40 -51 -11 -62 48 -32 16 59 6 57 5 -9 -26 55 59 -22 -34 -57 -48 -59 -30 -62 -25 -7 54 -29 55 69 -54 -63 -34 48 -54 -48 -17 32 12 50 35 3 21 26 23 -65 -1 43 -68 19 1 -9 41
23 -58 -4 -48 -81 40 5 -56 -46 -35 32 36 43 46 -48 -48 13 -10 -56 -48 -59 42 -45 50 -62 -10 -6 23 -21 10 -3 46 49 -22 28 35 -59 -38 76 -52 -35 -12 -49 -50 -41 -36 -55 21 -24 56 57 -67 -69 -39 12 7 58 -69 -27 35 -46 45 12 27 -35 42 49 68 69 -13 -66 40 29 -10 -35 -19 31 -18 -2 -62 37 20 -59 -34 34 -19 -56 17 -41 -1 28 22 13 -31 -10 -5 51 7 -38 -30 -30 51 22 33 -73 -48 20 38 12 -18 -13 -16 40 24 -2 -7 14 46 -56 -9 67 41 -39 2 -74 28 -14 25 29 40 30 53 3 30 -50 -36 -20 38 -34 39 16 14 27 29 25 -50 8 -47 41 46 -11 -28 -35 -39 21 -36 -73 40 -76 74 -44 -78 7 -63 -26 10 -8 41 15 48 56 33 -36 44 7 50 -23 47 56 -33 4 58 36 -74 -25 -12 21 -66 -45 69 55 34 46 -62 6 -33 -2 52 68 14 55 38 31 -60 69 25 58 -12 39 -13 58 18 -7 31 -11 8 18 -71 -9 -69 29 58 2 -22 20 -57 -61 -10 43 33 21 3 13 -23 66 -17 -20 -15 -29 6 -13 44 54 -1 -62 -52 26 -52 41 44 1 -4 -66 51 -27 42
48 13 -54 -19 -5 -22 -50 2 5 -6 -19 -19 13 51 8 42 -17 63 -57 -19 16 -30 23 -57 -19 -5 55 -7 31 39 -25 15 23 -57 -33 52 23 46 -59 -1 -45 -49 -9 47 39 -28 8 8 -14 -12 -16 -30 14 55 -3 0 10 -56 23 59 -19 61 -18 35 18 -53 5 50 19 60 -27 -46 62 -4 28 37 57 21 29 -7 10 -55 -54 2 -5 34 -40 -47 47 35 30 -15 17 30 -44 7 4 26 56 12 -32 -37 13 31 -41 -12 -29 -24 -63 -63 -19 -30 -52 34 -52 8 50 3 16 29 47 54 -4 0 11 26 65 48 -28 30 -37 44 3 26 13 -22 54 -9 2 -42 -30 -9 33 1 4 42 22 -55 0 -19 -31 50 49 -29 25 -37 -3 20 37 -10 30 -16 47 2 31 -16 47 14 -32 36 35 -41 52 52 53 -3 12 14 19 -3 20 -1 -41 37 24 37 55 -46 -17 35 -23 52 -15 34 20 38 -6 12 -12 57 58 55 58 -19 -3 -23 17 5 18 55 -47 -62 -61 55 47 -10 63 50 51 67 17 -39 -43 -17 37 -42 18 -60 -59 50 23 -13 7 38 -23 -1 -57 -61 -34 -14 -15 8 -39 -60 28 52 40 11 -36 33 -41 -14 -9 5 -37 30
53 22 55 35 -21 33 -29 32 -34 20 47 19 -23 -34 38 -10 -15 35 66 36 20 -5 -23 -57 14 32 -32 5 -52 6 -37 49 8 -22 55 -46 33 45 -7 -44 -24 8 4 2 -13 -60 -63 6 22 41 -18 44 -2 21 -10 -4 32 -61 7 -32 -32 34 -58 23 -18 10 -4 58 -42 5 44 -36 -65 -14 -35 -40 26 32 28 -41 32 -40 65 37 25 -24 64 -27 -6 -35 38 -65 55 14 -54 -56 22 -6 -37 25 9 -50 -25 -51 -33 49 -26 49 -6 3 -65 -38 -5 -38 -24 14 -28 -32 14 29 -50 -46 -38 -37 25 -54 -52 55 -52 41 -53 -21 -10 30 12 -12 47 -13 12 22 47 51 55 23 47 53 -30 -69 33 8 47 53 9 -29 -36 62 46 23 -15 -47 -62 12 14 11 16 -8 56 32 -21 -32 -6 14 31 43 -61 14 44 13 7 -50 2 64 55 31 38 8 -23 46 24 -37 51 -2 43 24 67 -20 35 12 -28 -24 38 46 5 61 -11 -50 13 29 27 40 57 63 51 19 -56 60 -27 -20 -63 -46 -51 -52 13 -33 33 -5 -34 29 60 -48 45 -36 45 55 -47 57 -53 -25 -30 55 58 45 41 -70 -12 -58 4 27 24 -28 -45 -55 19 -50 31 35
9 32 -65 29 -12 52 -43 -10 41 -8 28 -35 -35 15 43 -56 -39 24 -23 27 -21 -28 39 -47 -23 -24 41 -45 -63 38 -40 -7 4 -70 -28 -23 53 27 -7 -26 10 -55 -55 52 50 42 -42 -28 -61 59 20 -57 -48 35 -59 -38 26 -13 -49 -43 3 61 -44 -34 -12 -24 -62 -39 -47 26 38 -50 12 52 -50 19 11 0 21 49 -41 -14 21 -53 -5 57 -22 55 -60 30 4 27 23 27 -53 -26 -12 -9 -73 10 -68 37 -11 45 17 24 28 49 -46 -35 -17 17 2 3 55 -46 -27 12 -5 -64 60 -41 -27 26 19 32 17 67 29 48 19 48 -60 -58 -26 5 -10 19 -23 7 -30 -49 14 -13 -59 9 -24 43 -8 -36 -10 7 43 57 -39 -18 37 -3 -12 -45 -33 43 -30 8 9 -60 30 -8 29 -30 -61 57 -59 -17 -1 -34 -19 -1 -20 30 -10 -44 9 -47 4 -46 -50 -18 37 46 19 60 27 33 37 49 28 -56 -44 -18 -39 -63 -59 29 7 -37 -65 -25 41 -69 14 39 -58 -36 17 50 71 -44 -45 4 -43 51 -14 -65 -3 -65 37 -59 -44 54 26 -50 30 18 -12 37 15 -2 -40 59 29 6 -6 61 36 57 20 24 50 13 -29 -25 19 44 -8 -36
7 -18 -9 30 21 23 -3 -3 -32 -32 -61 -42 -1 21 69 18 -30 28 -27 -31 -35 -28 -52 6 -45 57 -22 -4 -13 58 36 -3 -10 36 -62 -6 47 58 -26 -52 -44 21 -15 37 -49 18 -49 53 41 22 27 -36 27 1 38 34 -46 57 38 -59 -14 60 35 -33 -61 -58 14 58 6 29 25 -26 23 63 -42 17 55 34 19 19 49 -47 -44 15 43 -22 -12 5 -8 64 -31 6 -11 -18 -44 44 39 38 23 -15 54 57 48 57 34 -9 -18 -6 25 -43 37 42 43 31 5 62 -29 9 12 38 -38 52 -24 -14 -51 -55 -17 22 43 6 62 -59 41 46 -50 -56 -45 -15 54 -43 42 -34 62 -37 -45 64 3 46 -7 33 -53 -22 -6 -56 16 -6 -49 41 68 -43 -2 -4 -14 62 -45 -24 45 19 43 -12 35 29 5 19 10 40 4 -10 31 -26 -14 3 4 -61 44 -46 61 42 -1 -12 -46 34 63 1 1 2 8 -34 42 26 29 -15 -31 -22 -2 31 -4 62 -43 56 40 -7 -8 -19 6 11 -41 -25 -42 -51 46 -39 -17 34 19 50 52 -63 11 -58 45 -15 11 0 -42 -2 27 32 43 -16 -58 16 23 -62 -40 21 -34 32 32 -35 33 -10 -42 -45 -35 -28
-21 -32 -8 57 -52 -27 19 -44 29 14 -60 -4 -43 6 -45 -38 -64 -52 26 52 61 60 -6 -42 39 -64 46 -44 -47 45 39 -48 -6 6 22 -11 -41 17 29 -2 -18 -20 -17 37 56 50 6 37 -37 -10 60 -6 -19 -30 63 -45 -21 57 -27 44 -1 -56 -25 55 16 -41 54 -23 59 -7 56 29 33 24 -1 0 54 -37 21 -54 48 -61 26 56 49 -6 53 -10 34 29 -58 -1 -9 63 -23 44 -30 -32 18 -43 61 -31 17 -38 14 -40 3 15 -2 -34 46 -3 -44 -44 24 -46 -19 -50 -48 -35 -46 56 -20 -29 -53 -8 -61 40 -12 62 56 -35 -59 -48 -64 -55 -48 -14 -14 -21 64 -9 -4 -20 -63 -62 6 10 20 9 20 -40 22 32 35 -39 37 -13 -61 12 9 13 -47 6 -38 -26 -44 -1 6 37 -59 -6 19 -1 8 20 60 46 -24 -24 -12 -46 -44 -43 -59 29 2 -55 51 56 -18 -24 60 11 -42 -10 10 36 -11 -4 -41 22 -32 37 -6 -1 -22 23 11 63 45 -44 -53 -5 -31 10 -25 10 -9 53 -49 12 -41 -63 30 -31 23 -39 25 11 51 -59 59 -12 52 -64 -38 -8 52 -41 -29 -51 -53 -55 -43 -48 -14 12 -23 -24 -8 15 59 -2 -61 -10
-64 -32 -3 22 56 -42 30 -34 58 -47 -61 -10 23 25 -13 -10 -6 -13 15 -7 4 -12 -38 -74 15 -30 19 -23 -8 -17 -26 39 -61 -19 -4 -16 48 -21 -35 -29 -26 24 18 -21 30 51 -18 -34 -49 -33 -8 -55 3 -34 -42 -33 -68 28 30 29 31 -12 11 -19 -10 50 18 60 46 41 -62 -10 -48 4 -77 57 6 50 23 40 -33 29 -9 -46 -28 -25 -30 -50 45 -6 4 38 -35 -35 40 -52 21 29 14 32 3 -17 -14 -18 -51 -4 -56 32 0 -11 -50 42 16 -16 -7 26 3 40 43 -48 -34 -40 -39 18 42 -50 53 -22 39 4 59 -16 -35 -66 34 -40 -3 1 -69 24 -70 13 -33 2 -27 -35 14 17 -41 8 28 12 47 -15 -29 51 28 -63 -20 -8 -30 16 -70 -56 41 -20 -28 -31 -60 39 -31 8 28 -36 -43 13 -29 -48 50 4 -40 -42 26 -36 -65 43 23 39 -18 -27 19 57 -18 4 12 35 -40 -51 -14 -25 1 1 -29 -19 -45 -50 29 -23 4 -22 -26 -31 25 0 16 -8 23 35 23 -42 5 55 -45 14 28 -54 -53 -13 -61 27 53 -30 23 38 -47 -68 -48 48 -54 -59 1 -50 4 -25 -59 47 -36 -57 -21 12 14 32 -12 -5 39 -54
-64 -32 -35 -27 -20 49 20 -66 -51 -5 55 -27 50 -25 44 26 56 8 -17 47 -64 62 -15 3 35 51 -17 -16 22 -29 65 -42 -57 42 59 -49 27 62 -20 -62 9 25 -15 -2 24 61 -24 62 34 69 29 -48 7 -40 -62 -20 -53 -11 -25 -9 -53 60 -54 42 46 59 -15 32 34 -51 62 -5 -26 62 -1 36 22 -50 -53 46 -39 35 38 33 -44 49 32 31 14 -50 -28 4 37 -7 17 20 10 -50 -54 -40 11 -51 -8 38 -21 -50 5 -54 59 -34 26 52 -32 -45 -38 -41 -1 -53 -69 53 24 -19 14 9 60 -19 -51 -6 1 10 -1 35 -53 11 -32 1 -26 -39 -63 -30 -63 13 32 -54 12 -10 -37 34 -62 6 -9 58 -52 51 -34 45 -9 -13 64 9 45 -18 -61 -10 -43 -61 43 57 22 -3 60 -45 16 -45 -21 55 27 -19 -21 -6 24 -48 43 -37 0 -32 36 -9 11 -14 -43 -53 6 34 -13 7 31 15 -9 12 -28 50 1 4 0 5 45 -39 -56 -51 23 69 -17 59 -21 -20 26 -30 14 63 15 20 14 -27 3 58 45 -17 11 40 34 14 25 39 50 -36 -17 -6 38 9 42 49 -26 54 51 29 16 57 0 -5 39 -32 -14 -38 45 40
-33 -32 26 -2 55 64 -43 34 -4 0 2 28 13 17 17 44 63 -31 -25 27 -40 -51 23 2 34 38 -34 -40 61 20 -47 -44 31 10 26 -56 -14 21 -23 -62 -13 -61 57 -21 22 -20 39 44 -53 -13 -30 -2 26 60 3 -35 1 43 39 60 46 -1 -1 49 -68 -56 26 -59 -15 -2 -48 18 17 47 0 -23 -11 -8 22 28 -9 58 9 10 58 -24 -17 51 6 14 -54 -51 -21 53 41 3 -22 12 -22 -62 26 38 27 25 49 -40 -22 -28 -3 19 -35 56 18 7 -18 43 62 9 -68 59 30 30 -62 3 54 -45 -4 62 -10 34 8 57 -24 12 27 -2 -41 10 -50 8 27 55 -14 -4 35 42 3 -56 -61 -60 -31 -62 -5 9 -39 -45 -62 -49 60 -32 5 -19 25 45 -46 -2 66 3 -34 8 -21 34 -51 47 -59 -66 -36 2 13 -10 57 19 67 50 36 -5 18 -1 -19 33 -36 55 -14 -43 30 -1 -42 -20 -28 53 -1 -55 -31 -36 -45 -31 68 19 34 -21 13 -52 -9 57 29 -16 45 41 49 -25 -51 53 -8 -64 61 28 -36 -8 29 -52 -16 -12 -39 57 -20 39 -11 -46 60 -14 27 -2 44 50 18 -14 -9 38 36 -19 12 -16 23 -6 45 -61
-64 23 40 10 -37 -10 32 -50 35 49 -40 35 -25 -17 30 -7 -16 -68 -16 17 3 51 -66 -4 58 20 45 -20 -47 -19 42 58 -2 29 -8 -69 10 -37 1 24 4 -48 -10 -52 69 12 -55 19 0 20 -54 50 45 40 14 -39 48 -28 16 3 3 -4 -43 -44 -43 -32 -42 12 -39 49 50 42 -59 52 -2 51 -24 3 42 15 -22 63 -17 -30 46 -42 31 13 -38 46 33 36 -32 -38 16 13 17 -49 67 -55 18 28 53 3 -44 4 24 22 16 8 47 -10 4 64 17 15 7 26 70 -16 -9 56 -7 -12 -57 -28 -36 6 -46 -39 39 10 26 12 -21 -2 -19 -50 -15 -53 50 38 34 69 -31 -63 -51 -36 -59 -40 11 28 34 40 16 41 -63 0 9 -41 51 -45 -26 -4 -61 -32 14 -17 -49 36 -52 23 -29 42 2 -5 38 47 42 -13 2 -51 38 -27 -16 21 -25 4 -10 -14 41 18 64 -21 9 -69 22 60 0 -45 28 -19 47 33 6 -19 43 6 32 56 45 -38 -34 53 2 13 58 -4 17 -37 -8 -27 28 25 -24 -2 -17 -19 41 45 -22 -34 53 -5 23 -35 -49 -5 59 -17 -5 40 -5 37 6 -63 -55 -36 -23 -1 52 -32 1 -8 22 -7
28 61 40 -47 -62 -59 64 40 -3 17 43 58 46 8 25 -33 -4 46 19 -38 35 -9 24 5 -1 -54 56 -11 47 32 -34 -6 53 11 -47 26 49 -56 17 -67 3 27 17 0 2 -12 -10 -7 1 8 -24 51 22 -34 -46 -15 23 43 30 0 57 -21 -63 43 -57 18 21 -58 -50 -63 -51 -61 43 -42 -51 -32 -12 2 15 9 -17 -12 33 55 -37 14 -9 6 -6 -44 -20 -51 -56 -41 47 -66 52 -44 -3 52 25 -16 67 36 54 20 -46 21 -5 35 -24 -19 -6 46 -10 -10 25 -9 9 -45 53 27 -59 -41 44 33 -58 -36 -3 -34 -14 19 -5 -37 -14 -13 -17 -9 -20 18 4 49 56 69 17 -4 48 29 43 -41 26 -47 1 -40 -31 -19 -53 -16 38 -11 -2 54 -6 -6 22 58 -47 11 -70 -5 -27 -53 -58 -3 17 0 42 -50 -58 53 10 63 33 27 64 3 -38 53 40 -23 -9 9 48 19 -20 -60 12 -23 32 35 -62 -29 -8 -16 48 12 -34 -7 -25 12 -58 -32 50 -15 -9 -56 -40 35 -53 39 36 -30 12 23 -31 55 17 10 -50 19 -18 -6 -34 -29 26 50 -16 5 -25 9 31 4 4 56 -20 -1 31 57 -70 -9 66 13 54 -11 -5 5
-16 -44 -40 -13 -10 -16 -27 23 -45 57 25 -2 47 16 22 12 53 -54 -24 33 -39 -28 -27 54 5 4 60 35 -55 45 34 40 -33 -51 -52 34 -26 68 -44 -61 23 28 -38 -63 -45 16 -48 38 -6 4 -49 -50 -63 16 -21 12 57 10 -37 -27 23 -42 31 51 -48 38 16 -40 48 42 23 23 25 27 15 -3 35 7 13 -63 38 -17 -32 32 -35 2 66 19 -15 -51 -70 12 -50 55 -61 -43 -4 31 -8 -59 -18 -5 1 52 -20 69 -34 17 -49 -30 50 -26 37 21 -26 -8 -20 41 -58 -11 -26 -32 47 -42 -28 48 -40 6 5 48 -8 -30 -45 -68 -4 36 46 42 -42 -9 28 68 12 -1 -46 -16 -7 -50 -29 -10 -31 34 -5 34 -3 -39 -2 -25 -19 -31 -39 -48 -18 30 -38 35 61 37 -8 10 3 38 55 -45 -2 26 -55 10 37 4 -62 4 56 -53 -59 11 5 -14 -31 -64 51 -20 11 -28 -24 -50 -3 30 -29 0 25 -59 43 54 55 32 27 -61 -45 4 53 5 19 47 -8 20 43 -42 24 -18 -18 -20 44 30 62 54 -23 -51 39 40 35 -27 49 -40 -25 -2 20 -8 -38 -53 -5 -57 31 28 8 51 -44 66 -6 -39 -27 -23 37 31 -26 6
-13 58 -2 0 -19 -39 -22 3 58 16 -13 9 -67 21 26 -44 25 47 16 33 51 -12 5 22 -56 -19 46 39 -44 -13 -29 -49 -42 40 48 21 -23 28 -5 -38 33 -50 -64 37 11 -3 -53 26 -21 -54 21 -22 -34 14 -19 -11 -53 -48 -48 12 -55 -13 54 3 -16 10 -30 -49 -2 51 3 16 -11 14 -57 21 58 60 11 63 13 14 19 -46 -13 -39 6 -78 -26 37 30 11 -28 45 -46 4 -65 33 -5 23 -5 22 -61 -21 -5 -36 56 36 -85 -47 -21 -38 28 43 54 37 -50 30 -4 -41 -37 46 -28 41 -34 25 -44 -37 26 -27 -39 -65 -8 -1 -47 4 48 -44 7 -20 30 -52 8 -28 -42 -52 -16 -40 24 -5 29 15 -48 -50 77 -53 -78 -43 -31 8 44 42 24 30 -40 8 56 -3 -2 49 57 -28 44 -45 14 -61 11 19 57 17 -35 -5 -3 13 -55 16 24 -40 -21 41 12 35 54 -42 -62 2 -78 55 -42 21 59 -39 -8 53 -39 -30 20 -51 -71 -35 57 -48 -18 -15 44 -16 -8 21 -29 -39 -16 7 -26 -57 11 30 -2 -58 63 -17 26 51 21 -5 19 -69 5 28 26 -21 -35 21 5 57 -54 -33 11 -61 53 -49 54 51 -70 27 58 -54
1 62 36 1 -41 -55 4 -2 -44 4 -67 52 35 19 45 36 23 -66 0 -25 0 -5 25 37 8 8 15 -44 20 -24 -51 6 3 46 -37 -41 33 36 0 28 -43 -60 32 53 -62 51 33 20 25 -2 -29 16 -30 14 17 -32 -25 -63 -51 -23 -6 -16 5 2 5 -52 -44 -33 -55 40 38 10 -50 -35 6 18 23 -56 -40 33 -65 -48 -57 -51 -18 27 34 -32 -38 -33 -17 -22 34 -49 19 20 -9 -65 -21 -23 -58 42 -20 -16 -14 -47 -68 46 45 28 25 39 -61 36 26 9 -49 19 37 -24 -56 39 -69 35 -63 11 -7 47 45 -61 -34 21 -61 -38 -54 -35 22 32 46 36 -41 -4 44 37 34 -47 -37 -42 -46 41 -8 54 -5 -16 -48 -4 -34 -51 1 35 -21 65 -57 50 -9 66 -1 -36 3 61 -37 -65 -2 56 -25 56 14 1 0 -43 -25 24 -54 -16 -69 -45 15 46 -55 59 14 -30 -31 35 34 -69 -55 -25 -40 -49 10 2 -63 -43 -52 -7 -53 -7 39 35 26 36 30 -31 -29 -18 19 18 9 14 6 36 -29 20 54 -13 -34 48 -55 4 48 51 -53 -16 10 37 17 47 -13 1 -41 -13 -39 -37 40 -45 39 24 -44 46 -58 40 -32 35 56 -59
-59 21 -34 0 48 -2 -54 -3 10 51 47 -8 40 8 13 70 -12 16 4 -7 -24 49 5 10 34 35 -37 9 -22 -34 9 -70 -7 -47 8 -65 38 -24 12 -62 -11 -24 -4 -33 53 -28 34 31 26 48 -9 -9 35 -37 10 32 7 9 -32 10 -53 -46 -65 -49 19 -42 -32 -8 60 13 54 30 44 53 -26 -49 -6 5 -11 -14 6 -38 8 4 55 31 3 -64 64 1 -36 -6 -62 -14 23 25 27 -34 7 10 56 -4 -21 -19 -44 30 22 -27 35 -18 22 67 -42 13 -10 45 -12 -23 25 -39 51 -50 -7 -35 16 -32 -25 49 62 44 52 -65 4 30 -8 22 -37 -16 20 6 -52 -42 32 66 -41 -68 57 20 -65 62 52 -61 38 -44 -51 -33 -5 5 -28 -22 -49 35 55 49 40 -60 33 -22 -29 -22 27 -17 66 -68 20 39 -31 -15 48 -34 27 -47 64 52 5 33 25 48 52 22 27 8 -38 22 -38 24 -43 53 61 -57 56 5 -15 56 70 -56 15 -38 19 16 -47 -35 -47 -2 -51 -34 -21 9 57 -20 24 -56 32 9 -13 16 56 -60 -47 -40 -18 -10 31 -16 -37 10 1 -4 -13 -56 -31 44 -35 37 -29 -60 69 48 54 -54 52 56 29 -49 29 -5
21 10 -39 46 11 23 30 -2 12 35 1 8 -53 3 65 -32 -32 -34 -32 61 44 -58 33 -32 45 -61 46 61 18 -16 57 -25 -42 -40 -5 -30 -1 22 -16 -20 15 -39 21 56 -78 49 -15 0 -20 67 -62 19 11 18 76 -53 -55 -1 9 33 -34 -25 11 -25 23 16 52 38 29 37 44 -29 -81 39 40 -27 -10 54 -32 -30 36 -32 -25 -34 -43 -2 32 -61 62 -2 -41 68 -61 -20 -44 65 -3 41 68 26 -11 55 -43 48 40 -19 -26 13 4 31 24 50 -51 -51 50 8 -3 -55 45 -55 23 -31 84 18 -59 -18 -23 -45 24 23 -55 -6 56 -16 59 -19 -60 -29 74 8 -9 -80 55 -17 -17 44 55 11 -25 -44 -42 57 -47 31 -57 30 4 -27 45 73 57 -17 -20 -64 -54 0 -56 16 -8 30 -36 -3 49 7 3 20 44 -17 1 23 -58 16 -31 -49 43 -61 -24 32 -8 48 23 5 -51 5 -31 28 51 -25 -32 -15 33 40 -36 39 -13 -45 -28 -15 -11 11 30 -26 -1 12 3 34 -26 -13 -9 -20 -2 -31 60 39 3 3 3 5 -29 72 -43 -26 30 36 -11 -55 -3 -26 -28 -39 41 55 82 -22 -39 -49 9 -46 39 18 14 -4 -40 51 39 -49
-29 20 -40 -2 18 8 38 40 52 5 25 42 53 -3 -65 19 -5 43 60 -20 -47 -52 33 -30 35 -21 27 -2 15 -27 -34 15 -42 -26 51 14 -1 41 -31 4 -13 15 34 -36 -40 43 20 1 -30 30 -60 -2 -22 -15 25 -43 70 -51 8 31 -31 35 -3 41 14 10 -58 -36 3 35 28 -44 -51 -50 18 -23 -31 16 43 -38 33 -53 25 53 -64 -37 25 -13 13 50 -32 -25 -6 -35 30 -7 -51 47 -68 -55 24 42 24 42 12 54 42 54 26 -58 28 -27 7 -60 -65 -4 -66 58 -57 -64 -64 57 38 -56 -58 -31 -46 48 21 46 -32 -45 -56 -37 -11 17 -32 56 -63 -17 37 54 -59 -37 2 -34 -3 13 49 -59 -59 55 -7 36 55 42 -43 -59 -45 15 21 34 3 23 34 -15 30 -41 -53 48 57 38 31 44 33 -28 -47 34 -35 -6 -23 -13 -39 -2 -41 -17 21 -36 -24 -18 7 13 35 26 20 17 -11 49 60 43 45 -47 -42 14 54 52 31 16 0 24 -3 -17 58 -32 54 30 69 -43 -44 -24 13 33 -7 -35 59 41 -4 -40 2 16 -30 16 -42 37 46 7 32 -17 -48 -19 -6 32 -14 0 33 5 34 34 -38 -17 16 -55 -60 25 -66 -11
-57 -38 47 -63 13 6 13 -1 -9 0 22 3 -47 -16 34 2 -5 -51 0 -6 -36 14 46 39 -32 1 0 -56 -17 48 19 -56 -15 -49 0 -61 -41 9 42 5 -30 7 -58 -18 47 41 -29 -46 -42 34 -40 39 38 -52 23 58 58 34 -63 -39 -60 -40 -55 -58 -65 -38 -26 59 5 -6 44 -17 -25 56 -57 24 -17 25 48 53 30 5 59 13 -46 7 20 -12 -4 -36 -48 30 -12 -66 31 37 46 26 52 14 6 -29 -49 -19 -32 20 -66 49 53 14 11 15 44 -36 30 -55 32 -50 18 -26 -35 44 14 -56 -63 8 -49 -37 -18 -34 -23 -37 -65 45 53 -46 -39 -16 -23 54 -1 9 8 -8 5 -35 -23 17 -44 -1 52 50 23 60 1 -30 31 13 -18 41 -14 2 -68 -22 16 28 30 -7 -29 40 -4 -59 -54 -30 43 -24 22 -54 9 51 -31 -52 -51 -29 -62 18 -11 59 -7 8 -50 19 35 58 55 -29 -12 0 29 15 41 20 -44 65 54 -29 47 -67 36 36 36 57 46 -2 -41 -33 -21 52 2 48 14 45 7 -18 -40 -25 18 56 -6 28 32 51 44 50 -41 26 27 26 -45 -29 31 42 -17 25 -11 21 13 17 -6 -10 -9 43 -5 -66 -41 -55
50 -35 48 -11 -52 -14 49 -8 52 -54 -38 23 -36 44 22 40 -10 25 -36 -62 -19 13 -66 -36 21 6 8 11 26 -44 26 -36 53 -16 -66 -18 37 -56 0 -58 -17 30 2 -33 -18 -68 -65 8 -19 -13 -18 -24 -26 -34 0 6 1 -68 -10 -3 69 17 -6 -68 50 -39 25 60 -6 -79 -11 31 -17 -14 3 -15 -42 12 0 -48 -38 -43 49 3 -77 -39 -5 5 3 -61 -50 -30 6 -43 48 48 -52 3 24 10 -64 68 47 49 -70 -6 -9 0 -49 -22 35 -38 -38 -9 -33 -57 -39 9 -25 19 2 56 -18 -49 -25 -15 71 -13 -14 -15 2 53 -37 49 -18 -41 1 -54 -41 -18 -50 23 6 -31 -25 -12 -62 56 -29 3 48 -51 23 17 3 -22 -42 -51 11 -42 -41 -33 -24 -39 23 7 41 -43 -63 -24 54 -41 -24 -18 -4 55 -48 -67 -49 -69 23 48 -47 -44 -5 -26 -33 -38 33 10 -60 -67 48 -15 -2 -37 24 14 -5 48 -68 30 -18 -58 11 -31 -31 -25 -10 29 -15 16 11 15 55 -38 -27 -59 -33 -28 65 12 -45 -68 -17 22 0 -24 -39 25 64 1 -53 44 -59 -53 -63 -42 14 -72 -10 -13 -36 -18 -54 -57 54 5 -9 -25 -4 -26 4 -1 24 47
-24 19 37 24 -43 5 34 30 -36 -11 10 67 -8 47 -20 29 -16 56 22 -36 -48 44 0 -34 -63 23 24 -21 -27 41 51 -34 52 27 30 -42 -68 61 16 45 28 -59 4 -56 -42 11 -41 45 22 57 18 -8 -55 58 48 66 62 -60 40 -1 28 -58 -22 -9 -50 -40 -5 34 -52 -15 38 -42 -64 57 4 -14 35 -8 -27 56 -66 -27 -21 57 -39 7 65 -38 57 24 -20 -17 -40 34 67 -22 3 -50 2 34 -1 10 21 5 -40 -8 -63 -39 -25 -27 38 9 29 37 41 -20 26 54 -54 -48 38 9 46 22 -48 -55 -51 37 -47 -28 26 6 -21 -28 -34 22 8 54 32 55 54 17 22 -34 -21 33 52 -4 1 59 50 -54 -43 30 -48 58 17 35 -56 38 15 13 -38 12 -53 6 43 -29 19 -68 24 -30 68 24 2 58 -47 -12 -9 12 54 -1 -27 -16 -40 17 44 11 -27 53 38 -1 -56 43 -11 -61 47 -10 34 50 3 7 -5 10 -49 -11 6 -45 60 18 49 -8 -34 -41 -20 -49 -36 -48 49 31 42 -26 -13 -54 -56 -26 -14 21 7 49 6 58 -30 23 -30 -28 -36 -42 62 -42 -50 -8 -13 -58 9 29 -51 43 -47 -47 13 23 21 28 43 -50
-45 -37 34 18 33 46 -42 -9 -63 -38 -71 24 33 58 -4 -23 -50 27 -9 -56 69 -15 -55 -53 -64 -22 -23 -48 49 -43 -28 -60 58 39 -57 63 -38 -33 61 -11 -62 -24 9 -48 -66 48 45 -60 38 -48 16 14 -25 31 45 29 -28 -27 36 -48 17 -34 -25 1 -32 -2 33 -15 -5 6 55 -3 62 33 -44 7 -41 3 55 44 -72 21 -2 -64 -32 -25 40 -62 35 10 -62 0 30 -50 37 63 -55 48 -19 42 27 -56 -31 45 55 -45 14 29 16 -52 -64 42 66 -26 9 2 -8 -22 -41 -59 -41 20 -63 -55 47 59 16 -46 -12 -43 23 -55 -53 -61 -53 -63 -44 49 52 -22 -34 -39 49 52 34 49 37 4 52 50 -24 -17 44 4 13 10 -50 51 -30 16 -30 -2 -65 12 -34 -25 -18 2 56 -57 38 12 61 14 -41 -11 -33 4 10 -3 10 -64 -2 -37 -63 -43 -1 52 65 16 -11 15 51 -31 -67 -47 -2 51 -10 43 29 -61 -49 -24 2 -42 -59 -37 60 24 -9 -56 17 -34 10 20 -33 33 51 -29 -35 -33 33 -72 50 57 -34 -13 -12 -46 -11 -24 -6 48 14 38 4 2 -52 23 2 5 16 46 28 51 31 -25 55 -8 -16 42 -43 -21 -44 -50
55 7 -56 26 -26 -1 35 -20 -73 2 -86 3 -26 -46 9 -46 10 16 -11 -37 -18 42 3 -72 18 34 -12 -16 -55 60 -26 -76 12 57 63 31 55 41 12 52 -51 45 49 -38 -45 15 14 83 49 -60 -59 13 -42 18 39 -16 -6 -56 71 57 -53 -25 -52 33 51 58 3 -11 -59 -23 -26 -49 26 43 24 -27 45 -4 -52 39 20 -52 62 47 57 -12 -35 -57 30 -2 20 -79 -62 -63 46 -89 -5 37 64 -58 -18 -51 57 55 -34 -12 -23 21 -50 -61 6 29 -25 -19 -42 17 43 -58 -21 57 56 -34 0 8 42 -4 -16 -32 5 -64 -17 -22 49 -63 -4 85 32 -18 -58 -43 27 75 -22 79 -6 44 17 13 -32 10 31 24 3 -63 -62 -46 -63 -33 84 -72 7 -22 51 38 29 -15 -10 -63 -34 -25 34 24 -41 46 47 -31 -32 -91 46 -69 -58 -7 -36 45 -7 1 -47 -25 51 53 -21 -1 -24 15 24 -4 11 -10 30 -62 -26 -52 -38 -19 -61 13 7 -64 46 16 58 52 11 60 4 54 53 11 -34 -37 6 -75 -37 39 -5 28 -25 5 92 -71 15 14 53 14 36 49 -36 9 15 8 29 -38 -24 -57 -23 -4 32 64 16 -8 3 -70 31 27 -16 -53
-40 18 -46 -26 -21 13 15 23 48 56 49 -62 -35 -56 -4 -45 47 -63 41 39 -44 60 48 55 33 36 -42 -12 -61 -19 47 -6 -23 -53 -56 37 -53 -42 0 43 6 -46 -14 -26 25 40 -37 -36 32 8 -37 -49 -23 -35 15 -5 13 47 16 14 -8 -6 39 -52 -48 -44 21 -57 -2 -50 24 15 -44 32 -10 13 40 24 -21 8 0 -2 -33 -42 -9 49 -61 51 -44 1 56 49 15 -30 6 -2 -6 -60 58 53 -21 56 -61 -46 58 -55 -28 -36 59 0 25 53 -10 39 -34 -58 8 0 -20 -18 -30 -35 -70 13 -23 45 22 -45 -50 -3 -12 -55 25 48 45 21 42 44 61 -65 -18 34 -2 47 20 56 -45 35 -41 -31 -8 29 54 -50 3 27 -8 -36 -10 -44 -6 -12 -61 58 -29 -53 -12 -41 -48 -56 29 -42 -48 40 30 -2 -59 24 63 27 -69 -62 -58 -9 -61 41 -8 -46 38 40 -60 -45 13 -1 10 18 30 -2 46 -5 43 -21 -14 15 -47 -8 36 56 -14 55 -7 24 -25 -54 -48 -46 -4 30 -37 -47 51 31 -43 -10 -33 -30 -23 -25 24 -55 9 18 -47 -49 9 68 0 -18 -27 -51 16 60 -25 -24 10 -8 26 -44 35 -26 6 3 -46 36 21 -9
4 -64 -51 -44 19 -58 -31 -43 -37 -13 6 13 -33 -49 -39 -19 -52 -30 -21 50 -10 -32 -55 -21 24 22 22 31 7 -9 73 5 -24 2 35 59 4 -58 -4 75 -9 6 -48 -14 -14 0 -45 12 63 -79 -22 47 8 -20 -14 40 -36 27 -12 -62 -47 8 -30 -15 40 -2 -53 -5 -42 -47 72 13 -33 40 -17 -12 2 58 -30 -16 -3 56 12 6 16 27 1 59 -55 -16 33 20 55 -27 3 -25 -49 -23 19 45 -33 -38 -5 38 -32 -65 29 15 -40 -1 62 -22 29 27 58 19 16 -40 -51 2 33 -23 -40 19 20 40 34 -12 -81 -39 -47 2 54 4 17 60 37 -58 -2 -61 71 11 -12 65 85 -56 -49 31 -22 7 -27 -1 -12 -46 1 11 49 -29 -23 -18 31 27 -53 -57 -69 16 43 -35 2 23 -60 33 -1 -29 -36 -46 13 22 -7 -31 34 -17 19 66 -17 -63 1 12 21 -48 10 -20 -31 57 -8 -5 53 45 -13 43 -32 59 62 -44 47 13 45 3 -17 36 54 39 48 67 30 9 14 -72 38 42 41 19 -32 -51 -25 -1 -23 -39 -31 26 -24 -48 -13 -36 40 24 -14 7 -54 11 -13 -51 70 -34 -27 -80 55 -54 -37 10 -38 -13 -16 36 -7 7
-20 -1 61 19 7 -32 -59 38 -14 -17 7 -15 25 -28 59 -28 27 -13 48 -25 5 52 37 -36 -15 63 -21 55 -33 -50 -1 -4 29 -9 -63 -46 -38 28 24 -59 -34 -48 56 -28 25 -45 -57 18 45 32 -67 6 -29 -33 -6 39 40 -6 -36 -38 7 52 52 32 -53 20 -54 -10 -32 31 3 -54 37 -50 9 8 -56 32 -26 26 37 -1 37 18 57 -9 64 27 16 -56 21 -46 18 -9 38 -30 -63 -49 59 59 54 -6 -42 58 37 58 20 36 -39 -32 -13 23 33 68 -21 -50 16 41 27 -13 17 -29 -22 -48 7 39 51 55 20 -35 11 1 -39 56 -46 -12 -24 46 -46 -56 2 28 45 58 -11 -58 -53 25 -2 48 10 36 -56 23 55 -54 -63 -22 -8 -46 16 9 -50 -45 -30 50 -49 -5 -6 -42 9 25 49 3 -59 -41 -60 -3 -13 -36 -34 0 -13 -44 -24 -48 31 55 19 27 -20 -28 27 14 20 16 24 2 53 -51 56 27 -14 -24 -69 -4 42 8 50 50 -11 -10 47 -58 37 23 -49 -6 -6 46 0 41 33 -37 -15 -51 17 48 -51 -3 40 -57 41 27 61 8 21 -59 44 -63 -47 -22 51 8 -4 56 -41 -51 -9 28 18 23 7 -60 57 28
-6 -15 13 -49 44 1 -12 -28 36 -14 56 51 25 -1 -31 29 44 -55 55 12 -50 -29 -37 -5 29 -44 -53 60 -42 51 -12 -1 21 62 32 -62 37 -11 -33 61 46 10 -6 -50 54 2 -24 16 21 18 24 -19 56 -47 -26 22 -35 -7 -58 -31 70 -16 18 -30 10 -43 -20 -16 -52 -70 -19 -35 -42 63 51 4 12 19 -25 -8 -28 -53 38 -30 25 -48 -10 44 -49 41 0 39 13 63 34 13 -10 50 -24 -36 -10 56 -54 -10 -7 44 24 -53 -56 41 -31 -49 63 11 -15 20 -13 -4 -25 -63 37 -22 58 39 53 12 -28 15 19 23 -47 3 31 56 2 -23 -20 -67 -13 -50 -48 -43 -63 15 20 48 40 24 16 41 54 -31 -23 19 -53 -49 7 -38 10 -21 -17 5 -50 -31 50 3 -61 44 -25 16 -58 40 51 2 -56 -31 6 22 -39 -50 12 61 26 -18 37 -63 21 -45 -56 1 -38 -21 -36 60 -51 -1 36 47 7 -28 33 41 -14 16 48 -39 -15 41 10 -32 21 -21 -40 55 21 -39 -14 27 60 36 -45 46 -58 16 -53 19 49 -41 35 45 -46 -18 50 37 -55 34 -7 39 55 55 26 44 -61 38 -4 -59 -4 42 -43 -26 52 -21 49 41 -19 -30
-17 -12 68 42 -5 30 -44 -33 -38 42 -36 52 1 -11 -15 22 9 62 -51 19 -39 56 13 -60 64 28 42 -14 -8 -57 -16 -18 4 46 -49 37 -43 -14 -39 -1 -41 -51 -20 35 -52 49 -5 -41 22 28 6 -44 36 31 44 22 -53 -23 -12 58 22 -9 -28 -41 26 -33 -22 -55 -61 -1 51 14 38 18 -33 -6 43 -52 23 -36 -32 -17 -35 22 -47 14 7 49 50 34 1 -4 -3 -53 -7 45 -32 45 6 -3 -21 14 -18 -24 48 8 45 -2 4 25 -63 49 15 -25 48 52 -50 -45 -52 -5 -31 -42 30 -48 -17 38 24 33 -42 -30 5 -4 -48 10 -28 -13 -38 25 22 24 -21 -62 53 -17 22 -28 -48 -16 62 44 -15 -57 51 17 31 21 24 14 42 3 -44 -36 -1 35 -10 -31 9 42 -18 -19 -19 -16 39 49 20 1 11 1 -28 14 19 34 19 51 -6 55 -24 -23 -29 23 -46 34 17 -12 -29 29 -19 2 -51 -19 39 21 15 -25 -30 34 4 16 27 26 -10 8 16 -40 -26 -49 -57 -47 43 -13 -42 30 3 2 -50 -18 -4 -35 -1 -29 38 14 -4 -30 45 56 52 5 43 -33 -52 -8 2 35 18 11 -4 51 13 -3 10 -33 -18 -45 -45 1
56 -44 33 64 -55 18 49 -36 41 -23 -61 -51 35 52 51 -9 17 -50 -43 15 56 34 -14 51 -56 -14 59 -71 55 3 33 -36 -37 -4 -13 -22 -9 29 16 -9 21 14 -30 -6 -2 29 -35 -50 -34 -13 20 40 15 42 32 4 -18 -26 -24 -34 -22 -35 -49 -49 -41 -46 -56 65 -58 -30 31 58 27 -72 36 -29 42 -55 52 -54 57 55 56 6 -38 -40 28 23 -45 11 -35 -52 9 60 -64 -24 63 35 -67 -28 44 12 -18 30 39 -4 47 21 -72 31 -46 -43 -40 -1 49 20 65 74 62 12 -36 -26 -30 -40 51 33 58 -26 -7 -30 -16 -65 -5 -28 -37 0 28 59 -32 58 -64 -5 40 31 -24 -24 15 -60 -41 42 52 52 48 43 40 4 24 11 20 -42 -1 51 -48 -42 -25 -44 -50 -31 20 -20 45 -49 52 -53 55 -16 -23 46 57 -2 -64 4 11 -11 -1 -42 -29 39 -52 -38 64 34 -35 43 6 -6 -12 60 13 -34 36 29 36 -16 61 -55 -55 44 16 -42 54 -54 23 47 41 -41 18 -44 -26 -37 -48 -54 41 59 -11 -36 29 50 0 42 -16 36 -16 -1 -16 -31 20 56 1 20 46 -17 -53 34 -36 -55 -15 25 51 31 55 -52 -29 -5 -43 56
22 30 5 13 13 -21 -49 0 30 -49 -15 56 -48 18 28 -9 -4 -15 66 -23 0 44 -42 51 13 43 -10 -31 15 39 -18 0 8 20 -58 38 9 -54 15 40 -52 -67 46 31 32 -60 -21 -30 43 43 17 22 -46 22 -23 42 -57 -20 6 -20 -58 -4 40 29 -2 49 -42 8 -44 -25 -34 7 29 21 -39 -2 -47 14 -12 -3 50 39 4 55 2 42 26 44 -12 17 40 -65 -17 3 -30 -38 -13 52 -51 -24 -17 -60 22 -19 16 35 -4 -54 -25 27 -14 2 27 67 2 62 -52 57 -4 49 47 -42 -35 52 14 9 34 26 37 -15 40 -25 -32 8 37 20 -17 -45 -4 -11 57 -39 20 24 43 51 16 -40 -23 1 -58 -47 -14 15 67 54 -74 -11 -66 39 -29 -61 39 8 32 4 -31 -14 -24 -30 49 20 40 36 -14 61 30 -28 -69 -2 -39 -41 -36 -6 -13 -50 -36 17 13 -36 26 42 -27 -43 31 -66 34 -23 -28 19 -30 4 57 -39 -20 48 20 1 -43 -22 46 -8 -32 -57 11 23 38 -46 36 30 4 23 20 20 -24 44 13 5 -26 -4 -17 -1 50 16 14 57 -48 20 35 2 51 35 -13 56 31 43 -55 -40 -12 -21 51 -29 -37 -25 1 -20
-32 -9 -33 -36 27 26 44 -35 24 -8 -43 77 -35 4 -49 -22 18 -48 -2 41 -27 41 11 -73 -60 -39 -11 -33 -47 48 58 18 -3 40 -12 68 56 21 -58 40 -44 45 38 -33 59 -16 -71 7 46 -26 5 -40 10 15 -15 23 33 -65 27 21 -53 -26 -7 -31 -36 -20 -17 87 -36 2 -4 -70 -26 10 42 -3 -53 57 56 -10 -4 -14 46 -25 -40 -25 49 -39 31 6 -1 -55 3 43 31 -5 29 -2 -42 59 -10 35 -27 -66 50 -7 -22 -42 -17 -2 21 47 -51 -45 1 6 89 -43 -17 -18 54 -40 19 31 49 21 48 -7 -78 -32 63 -43 20 -17 -32 46 -29 41 45 -49 7 73 -7 74 79 -23 -75 -49 -62 33 53 -23 -54 -14 27 -16 57 -82 -5 34 -44 -33 6 29 -19 40 -29 59 20 -18 -50 -79 38 -9 -31 -22 -51 -51 4 -25 51 13 7 67 -72 16 63 -60 -43 -34 -11 -21 -34 -9 7 -23 -17 46 78 -9 -32 -33 22 -46 45 1 -31 60 -34 44 -14 -38 28 -14 -27 57 15 27 -53 43 0 -38 39 -21 37 -12 17 -41 32 -49 -5 -13 -27 27 -41 46 -23 23 46 -4 -57 61 16 -20 -55 13 -63 -36 -25 19 -65 1 -20 -32 -54 -21
48 42 24 23 -53 -16 -48 26 57 -15 27 63 36 -55 10 11 64 35 13 20 -9 3 -20 -25 -47 -12 25 -31 -3 -63 -55 -42 -39 -20 -50 -16 32 33 -30 10 -32 23 54 6 52 -48 17 -27 27 -63 -61 -7 56 61 11 52 46 20 -60 -47 40 55 -59 59 32 53 -45 2 -17 -41 -42 58 -28 -27 47 26 53 -20 -52 50 -57 -57 27 50 -7 -10 0 35 0 -37 -58 -51 -24 57 22 -23 29 44 21 -20 -42 -34 -63 59 -17 -60 0 25 -52 -48 41 2 -60 14 -17 -6 59 -28 -36 -1 23 -67 53 7 40 26 -24 -5 13 3 63 32 31 -40 -20 14 29 16 10 38 37 -51 55 -49 19 -30 -63 -12 53 -25 61 -12 15 60 -16 33 16 -17 52 -41 62 -59 -29 -34 19 -71 37 27 -24 42 -52 20 54 28 -61 -38 53 40 45 -11 31 -50 35 49 38 -36 1 5 40 29 26 -16 48 7 -47 18 23 28 17 31 -2 4 16 -27 47 24 -5 13 16 -35 -64 52 -52 -45 -41 -31 -1 -26 -49 43 6 -13 -8 -49 5 8 -8 41 -61 -2 -22 19 49 56 -34 27 -47 45 -15 14 -50 11 58 -14 -15 -46 -12 9 5 44 20 51 -35 58 -53 31
-34 3 -52 -41 -19 25 -48 6 56 -25 -16 -16 39 -35 -56 19 60 37 -46 -18 -37 43 45 2 7 -21 43 -15 -44 -39 54 -43 21 -52 -56 55 44 -26 -23 -43 -10 16 10 -36 28 51 -17 -14 15 19 -5 31 18 48 17 -15 15 -9 -29 25 63 15 9 -36 0 68 53 -42 16 -12 -1 -30 -67 -22 -50 42 9 -35 67 8 -69 -23 8 26 20 -62 -2 12 15 44 -2 16 49 47 -42 -38 -52 63 -4 18 -29 55 -56 32 21 -10 -27 -59 -8 51 22 11 -41 45 59 -26 39 -30 49 32 -46 -28 -3 9 -50 -21 -63 44 -20 -9 60 32 -25 -23 1 11 -50 34 62 48 61 52 28 67 -52 -61 47 -14 -66 -35 30 50 54 40 26 -3 20 -40 37 57 30 -53 -19 -49 24 -17 41 -19 -6 -51 69 37 -9 -25 -23 -33 10 24 27 16 -12 7 -24 -29 37 -57 1 -56 54 -58 -17 -51 -51 35 63 -41 -7 -1 36 44 -11 -1 57 -56 42 37 65 12 -21 16 -12 33 24 -41 19 -14 61 -57 -8 28 -24 61 -41 -24 -48 -62 -60 -5 -50 39 9 -7 -34 5 -15 48 57 12 -62 37 -21 6 -33 -66 -21 -62 0 46 32 51 23 -32 -24 25 2 -53
53 35 6 -4 14 -67 29 -49 32 -46 16 -11 28 16 -51 -45 -59 -48 -23 -39 -49 -44 -11 23 26 9 -36 -42 58 -38 -41 -40 -39 -49 -62 7 11 43 52 53 -2 -47 -10 -4 30 -37 2 -53 -11 28 38 -25 -34 -51 -40 -23 24 63 9 -39 49 45 -54 44 30 38 6 28 59 -54 -28 19 20 -38 50 49 49 -36 -52 20 -12 -7 -23 41 1 24 -50 18 42 14 41 35 -47 62 27 -38 6 48 40 -31 -17 -61 -56 29 -18 -34 15 -3 -64 -7 50 -35 51 46 29 14 -8 -53 -63 -15 -62 61 47 34 -4 47 17 2 -33 -29 -5 -40 -49 46 -54 -67 -11 18 -32 3 -17 60 -55 15 26 -10 -54 32 -1 -22 19 37 45 -49 -48 17 -42 -27 32 10 7 2 58 -51 22 44 47 -28 57 26 50 56 62 8 -14 -19 -48 -63 -16 25 18 69 -51 33 56 44 28 -15 12 1 -9 4 -48 -1 37 -20 -18 -51 26 41 57 -25 -50 9 39 -50 58 38 55 -3 46 63 -25 63 -7 41 -49 28 -63 -44 42 15 61 -54 -25 39 63 7 2 13 -55 60 29 29 -44 -42 -27 23 -4 24 49 63 28 -7 -57 47 46 -31 -10 49 9 58 12 26 20 22
21 13 -57 30 19 18 57 6 -15 64 -42 -54 29 -38 18 11 -3 -25 -15 -22 62 55 -18 -48 -7 -41 50 -53 66 -62 54 -28 -26 -40 18 -49 44 -28 27 -7 -8 -5 -8 41 -57 -23 -44 -58 16 -4 68 -60 -2 -51 -23 -31 25 -58 9 2 -7 48 38 -18 44 8 -42 -53 -37 41 53 -18 -4 14 9 -17 41 67 -54 62 23 -56 -59 -28 -37 -4 -40 8 51 -20 -44 52 -44 38 54 19 17 -30 -8 53 1 14 7 42 37 -34 -54 57 42 30 -61 -25 -9 -47 18 -53 -18 -45 23 6 -54 24 47 -1 7 -58 19 21 -13 -41 -51 -56 -29 -11 16 12 -23 -44 45 42 -28 -45 18 4 43 -63 26 -13 58 19 -47 43 -21 -23 32 24 5 2 -63 27 4 -23 -13 -2 59 -54 32 -12 -42 -55 9 -44 29 45 -22 -51 -6 23 -45 -25 -23 47 33 -56 -11 -21 -9 -43 29 -49 40 -28 36 -46 -27 25 36 -15 -2 22 -41 -13 -21 29 20 -10 7 19 -40 -25 -42 8 -7 53 -34 -28 -21 -36 -24 30 -43 -27 -60 -42 -23 -18 30 -59 33 56 -1 1 51 -22 -48 57 -31 63 -5 -13 18 -33 -28 -18 -23 31 -61 21 9 36 12 0 14 39 2 34
29 -30 -3 13 -18 3 48 -4 20 10 -55 48 -35 34 -25 32 5 34 -38 1 60 -31 4 -32 43 -23 0 -15 -55 14 -30 -28 7 43 -30 -20 37 37 -17 -44 42 63 -20 15 11 2 -45 14 20 -45 58 43 -54 29 47 -12 11 -58 32 -32 34 55 48 30 2 -33 19 -12 -58 18 30 -30 -11 -54 -49 -21 -44 -6 -30 50 34 5 -23 17 -45 -24 -23 45 18 -56 -43 -31 -37 50 42 -36 -14 13 -40 0 26 -35 -36 -29 13 39 -21 14 -46 -51 42 -27 24 64 -6 56 61 -17 -7 62 15 -43 -46 -49 -8 -1 -55 -6 -43 14 -18 -21 -1 -47 -43 -24 -12 -44 39 -40 -38 -34 -31 46 35 19 -12 29 21 27 3 2 -13 -50 -15 -37 6 27 16 -1 -18 -46 -24 -8 24 39 -12 -34 -55 -17 55 -7 -47 -50 -48 -5 -50 -27 5 -33 34 -3 70 63 -18 61 5 15 28 12 -22 -58 62 -26 22 25 -21 -50 29 -25 -14 57 -8 -46 14 -28 -24 -9 47 -39 -43 19 23 -45 25 -32 50 -20 -2 25 -16 39 -25 36 64 44 -31 -19 -38 6 -12 -6 36 56 0 9 42 -11 -45 59 4 -55 30 33 -32 -31 -47 -67 -25 -22 24 -1 -20 59 45 15
-37 29 -28 42 -19 37 -32 -45 -33 14 30 90 21 51 -16 -2 -30 21 -56 -59 45 52 -1 14 21 -53 50 -23 38 -37 -28 -42 20 9 26 18 86 -75 -40 -33 15 8 19 11 44 8 16 19 46 3 34 -43 -90 -42 -20 9 3 -25 -32 -58 0 19 -38 -10 0 -21 11 21 -2 -54 88 -57 -62 66 60 -8 36 -18 -7 40 74 -33 46 39 -49 -1 -48 25 31 18 -1 -64 46 9 44 -7 -61 27 -30 -37 -8 64 25 -48 63 60 -26 -25 -78 16 -20 -35 31 18 -32 7 30 31 23 49 -3 -38 1 39 -25 71 7 -20 25 -56 4 -27 53 -4 -47 86 90 -24 -49 19 79 -13 27 83 57 53 20 18 28 -45 -17 -62 -7 41 -43 -21 43 -52 78 -65 -54 9 -63 46 20 -52 -34 52 48 17 17 -88 34 34 -6 -87 -42 -38 42 -8 5 10 63 2 -59 -18 -44 16 -30 14 -51 10 -55 68 -26 17 -23 58 3 15 -57 -38 -55 1 -39 -21 46 -55 -6 42 -13 -17 -6 84 -89 39 63 -9 38 -57 -44 27 62 13 25 -52 0 36 3 -6 -48 -33 12 20 49 50 28 -1 56 44 -57 -16 51 7 -81 37 -35 -60 -57 -3 -22 4 -13 41 22 -32
-52 44 -14 -6 11 -7 -31 37 25 40 -43 -51 -55 -21 -36 19 45 6 -10 36 33 51 -5 69 -17 -9 13 6 -7 28 -15 -7 43 -63 -33 -50 -13 -46 -54 25 -25 25 -25 -35 48 -4 27 -32 -18 17 -29 8 -12 -52 21 -20 -25 -60 -1 26 -51 -52 34 -4 1 3 -54 1 -26 -52 -33 47 -46 23 -11 -33 29 0 -24 -6 26 -53 -52 -5 -48 4 -25 -3 -5 10 42 -26 40 -44 -63 -18 -51 -45 -56 -58 17 44 -29 -27 -30 -51 55 -2 -22 31 -62 -61 -70 30 69 -9 42 51 -44 -31 44 -17 -65 -35 -47 17 34 -20 -52 -47 6 -33 7 55 -55 32 -54 -48 52 2 -43 54 11 34 -29 -39 -6 -42 -40 -46 -19 -24 -15 21 -1 -1 -54 35 -27 -59 21 3 -62 37 63 17 -12 16 -27 -29 31 8 -45 -69 -31 -28 57 -19 -19 -26 -34 66 54 -15 18 57 -17 -43 54 44 -45 -19 -17 13 -50 58 -35 -16 -36 -58 -15 -23 -5 24 -27 -35 17 -64 50 36 -47 18 -31 8 -31 -11 16 34 -57 -60 69 -16 -53 0 3 -20 -18 3 -32 -30 29 59 28 -33 -43 16 -37 23 57 51 27 31 -50 43 -36 -60 40 -32 39 -50 47 -67 18 5 28 -22
-23 8 28 25 -46 -53 -50 -51 -27 -46 5 3 8 9 -21 -23 -30 -60 -39 51 47 -31 15 -23 -9 -29 -48 -39 59 34 -29 -4 -38 -31 49 57 -55 -22 38 -45 -44 -12 -15 56 49 -46 24 11 6 36 25 -66 -16 61 -5 29 32 0 -18 -56 9 -20 11 27 1 -51 -69 -63 -57 -4 -24 -4 -63 35 28 67 18 17 -22 48 57 -52 65 35 -60 56 23 -62 -44 -40 -32 -46 -23 51 -31 36 -20 -38 67 -52 16 8 41 -14 -44 -17 13 7 -11 12 54 -28 37 -52 -41 -26 -45 -35 13 20 37 30 57 55 -1 -43 -40 -54 42 -17 -15 -53 46 40 -56 18 58 -15 27 39 -23 -56 40 65 -18 7 46 46 19 14 -46 -28 -3 56 51 -60 -18 -45 -4 15 -45 19 -23 45 -19 -59 -44 -27 -60 -56 21 65 35 50 -41 -31 30 -15 -44 9 20 -44 12 61 36 62 19 23 10 40 16 20 47 21 55 -42 -48 -35 53 -53 60 -40 -54 53 27 -4 25 43 45 -32 -50 47 -11 -59 -10 -2 45 -54 58 39 36 49 -30 52 -5 -11 29 -12 -41 51 -47 -15 -7 -8 57 -37 -67 -48 -1 -17 33 13 39 41 -34 17 -41 48 44 26 62 -26 -42 -1 50 63
-29 -2 -39 -55 -37 -42 -22 32 9 -68 7 29 -50 50 -6 51 15 38 -3 -47 26 31 37 -14 -7 -15 -43 30 -31 31 37 -66 -9 18 39 -20 14 -29 4 56 39 36 4 62 57 32 -3 8 33 41 -33 28 6 -63 -46 -37 -29 21 33 4 -18 15 27 -25 26 -51 -5 -7 13 -24 36 -53 39 -70 -71 -28 -20 25 35 13 21 -7 -46 13 -58 26 35 -72 -40 -32 -29 -42 -73 -24 40 -60 42 34 43 7 -15 6 -48 -21 37 46 -29 -69 -2 -48 -28 10 -36 -23 -26 -25 -42 -48 -18 49 -32 43 -67 27 -38 -50 60 8 -62 40 -47 -32 -52 -54 -55 28 -17 49 52 62 -48 -21 -17 23 -24 27 -83 1 18 45 -20 20 8 -28 72 23 -8 -26 55 9 -5 -18 -6 -55 10 33 -64 -60 -23 -61 -3 46 48 63 -51 -63 -68 -54 -56 -41 49 27 42 -6 -38 -3 -10 77 -46 38 19 -51 7 -1 -48 38 -23 -15 67 -18 53 -48 -56 12 41 -47 21 24 -32 -36 -19 41 13 6 10 -55 -59 -32 38 61 8 -4 28 49 -68 -29 -10 -57 -59 -46 -24 -56 -44 -27 34 43 32 -40 -53 -39 -56 40 52 -13 37 -41 -11 -62 -21 -7 -19 -43 -33 -7 -66 31
-15 -22 13 -2 -2 5 -53 33 -43 -21 -43 -45 -29 30 23 -38 57 -69 5 -36 -68 -45 -35 7 37 -21 2 -7 27 19 2 26 51 -53 -29 -46 -4 65 -2 42 -10 -36 -20 59 14 11 7 -7 0 -26 -30 5 4 40 -8 -57 62 56 -58 12 -55 -32 -25 -25 -8 -25 55 -42 10 12 -4 41 -6 -1 -49 -4 54 -35 -25 -30 -58 40 -1 -47 16 4 -21 -42 11 -9 -61 39 11 1 -25 58 55 45 40 -52 -6 -12 48 10 43 -35 -53 -20 -56 51 24 -27 -39 -17 39 -21 23 -17 44 -37 34 42 -32 35 -23 0 33 -3 41 -15 -24 -8 6 -55 47 55 37 -42 -32 -36 -53 21 20 12 -20 53 54 56 67 27 -24 -32 -18 -57 -25 -40 -45 -55 -48 37 -63 -16 -53 -29 8 -20 13 -62 28 4 -32 -37 -61 -44 49 -42 -52 35 19 2 26 -57 60 31 -8 30 -32 47 45 -13 -36 -41 54 21 -12 -48 25 -4 55 49 28 -11 57 -4 29 2 19 -4 17 -37 19 -3 -42 -24 40 -57 -13 -24 38 26 -61 -21 53 -38 59 -5 -42 20 -22 38 39 -55 -42 3 -22 -47 42 1 -26 17 -50 -3 47 -7 -27 -45 -49 -27 -53 -45 30 6 -51 52 -4 62
55 34 -19 14 -27 8 -45 -60 -49 -30 -62 -23 36 -49 69 -23 -58 23 49 -58 -8 32 -55 46 47 -28 45 -41 39 -49 -40 37 -35 32 33 -10 38 -58 27 -67 26 48 -23 41 55 43 45 -48 46 -7 44 41 -30 -57 -38 19 -36 19 -4 28 30 40 54 -24 -55 53 46 0 -50 -6 -10 -16 -9 -46 -27 -37 43 -49 -9 -38 -1 -16 7 -32 24 -30 -20 -24 41 -24 -49 11 -1 -64 -20 19 -5 -36 -47 -60 13 -60 35 -39 62 -17 -59 22 -23 45 -19 29 -3 64 -12 47 -51 -39 -51 -65 -31 54 27 -28 26 3 50 -63 61 -13 57 6 12 -22 16 55 70 -66 -20 -29 14 -48 9 25 5 -8 30 35 -22 -16 49 53 -55 50 -6 -49 -61 -28 4 -14 54 56 -70 4 -4 70 45 38 -33 12 20 26 50 -8 41 62 -26 16 20 21 -22 43 4 11 -34 -58 -69 8 26 -41 -31 13 54 9 -26 -41 30 52 -25 10 61 41 11 -1 -21 23 -24 -58 12 31 37 68 -7 29 1 10 -10 20 33 33 -14 39 31 51 -33 -45 50 53 -15 -20 -11 -33 42 32 -21 28 -45 1 38 63 35 -1 39 15 -27 -45 54 -38 27 32 -55 41 -32 2 48 -14
-18 -7 -32 5 51 1 -27 -30 32 33 -63 -23 -48 -20 -7 32 -64 -21 15 -45 -61 -60 -14 -45 -16 -27 53 11 -25 -1 -14 -64 -58 -39 20 -64 44 11 12 40 54 -5 -28 -30 55 53 15 -42 -55 42 -22 -60 -39 -47 58 72 48 -4 -27 60 18 -40 -61 -43 -61 13 49 -38 21 35 -54 13 31 -26 58 28 -41 20 -8 -25 -66 -60 29 59 1 39 -21 -1 3 -8 -54 -19 -13 31 -21 12 42 46 -48 -30 41 -51 -44 1 -21 -55 -10 -53 -34 57 47 -23 -47 51 50 64 -5 -18 52 38 28 37 -2 69 21 31 41 -35 4 54 -1 -61 45 50 59 -60 22 29 43 -15 51 -8 -40 8 -29 -16 13 56 37 -47 34 0 56 54 -57 64 -63 59 -23 20 -37 -40 -63 -42 -17 -2 24 -20 -13 49 -55 -17 30 -41 -37 1 -32 -43 45 -27 -6 8 -40 -8 -34 -47 21 28 59 38 -47 -31 43 -50 59 5 -28 11 -13 -55 35 15 -21 46 -45 -27 13 45 -30 45 -1 45 -52 -52 9 -12 -15 27 6 -48 32 -23 -15 -53 -1 -17 47 -63 -42 -41 61 -31 -35 -42 45 -14 38 -54 39 -21 -66 21 -44 -43 -46 -24 -43 32 28 -22 -60 62 12 -16 47 -2
-67 -3 2 -48 -4 -32 38 -13 -29 -3 -67 6 -54 31 16 -44 13 19 -13 -8 -55 -16 -23 -15 -44 26 17 -39 53 -52 -39 -41 17 4 36 34 -30 -30 -60 -37 -40 49 23 -40 15 51 -62 1 -43 3 -36 -62 -15 35 18 -40 -37 47 -66 30 -56 -38 -69 38 -4 -56 25 20 -2 16 -36 18 -16 51 34 54 15 -12 -45 -22 10 5 -15 -34 -20 26 -3 23 -11 -12 -10 -45 -39 13 -66 -27 -61 28 -26 -10 -26 -47 56 -8 2 48 33 -11 -6 39 37 22 -28 -6 -13 4 -67 -21 3 -62 -8 -21 -3 52 -6 17 -14 -58 -28 -38 -36 -21 -2 32 -81 -36 -17 21 -39 -40 4 -6 58 2 -7 -56 19 -61 -32 2 -38 -20 21 -59 -15 -10 0 41 -22 47 55 -60 -66 -23 -9 30 20 14 -26 23 -64 -62 -7 -42 12 -49 -42 -53 -30 38 -32 -26 -3 -41 35 -28 31 -1 -59 24 -60 29 23 14 -1 -39 4 52 -36 32 -57 -68 9 39 17 -36 24 20 -52 -52 55 -12 -25 69 43 38 17 -12 41 32 -51 24 -30 -22 57 59 54 20 52 -52 -11 -8 -66 -8 -30 -49 -1 -41 14 50 -64 21 8 -56 -54 -23 8 46 52 25 -57 -69 -59 41 -23 -55
-50 10 0 61 10 -15 52 13 -7 -62 -57 71 -41 -49 -20 58 -12 21 8 -62 24 -27 -43 -58 -16 -39 13 -37 -57 -47 85 -53 -32 -47 -31 -32 58 9 8 43 51 -12 55 -7 -58 62 -80 -25 43 -27 58 9 31 -26 12 32 -21 24 72 62 25 -61 -75 25 -5 2 24 -35 44 -50 44 -78 49 -11 13 24 53 76 11 50 70 -36 64 49 41 22 36 -7 -12 34 -59 13 -60 -29 15 35 -62 58 -18 45 44 -38 -32 -22 55 31 -32 45 29 -47 57 59 -6 -17 53 -28 -32 24 -41 -48 23 4 -2 2 24 40 -45 -59 2 32 -7 -17 42 -46 -1 54 -2 -74 -28 -27 -49 -4 -34 -37 -31 -2 -36 10 -41 5 25 19 -63 11 50 4 1 -10 -35 53 -12 12 45 -8 20 -42 -12 64 -25 -64 -61 -80 -38 43 25 38 2 23 -20 -44 -3 -46 -4 -42 1 -51 38 -47 54 19 -7 -9 13 7 34 -31 -34 67 8 56 -61 -10 -1 37 -66 8 68 -19 -23 53 80 61 -12 70 -10 -30 -26 -16 -47 -2 32 26 60 -40 -75 -53 4 39 -14 18 26 21 10 54 37 -57 -85 60 -14 -40 24 38 4 -9 -21 -7 5 -61 -36 -41 -33 32 -61 38 57 -45
10 45 35 -49 -49 -12 32 -23 2 31 15 13 10 49 -45 5 44 -33 40 -29 -22 -66 49 -16 27 51 -45 -55 -35 58 3 -61 28 38 16 56 19 -19 -44 -8 46 -55 10 -1 -41 -61 -28 -58 16 61 30 -3 -30 -62 6 -15 -53 -69 -39 -45 -13 48 -49 -3 16 32 -34 22 27 28 -41 36 20 43 -22 -35 -16 37 -45 43 -52 32 -63 -6 -15 2 0 -26 31 43 -2 -23 -71 53 17 30 19 -41 12 -36 -56 -67 22 32 -51 31 0 19 -65 -21 -32 38 -36 31 -24 40 13 -56 14 31 67 12 50 -43 -18 -31 51 60 39 -72 -42 42 -42 58 -59 7 69 11 0 -57 15 -26 13 -42 55 42 42 40 36 -33 -30 56 4 42 38 54 -64 37 -7 55 -48 14 -68 49 -10 12 -10 -54 30 41 -58 -33 -39 19 -21 60 -45 8 53 -27 36 -23 -50 27 39 8 -16 48 -46 -8 34 -57 56 11 -45 56 6 -48 19 -70 -15 43 -2 29 -50 -50 -39 -36 -47 -23 -9 56 47 -31 -12 -49 52 -47 -9 -2 16 31 19 -45 -34 59 -8 37 -13 -9 60 -1 43 -26 -48 -32 0 53 8 -21 49 -3 9 27 8 -56 -54 46 44 28 43 -23 -20 -17 -56 25
-7 -8 41 -16 -56 8 -6 -23 44 -61 -47 37 -61 -12 -1 52 -7 -48 0 -7 -58 22 -14 -48 -52 22 32 -6 -37 27 61 -45 -42 -18 44 -60 -46 36 -8 49 -58 -5 10 -19 9 9 3 -59 44 -47 26 -1 58 -39 34 -22 -16 -51 8 59 62 -38 58 59 -46 46 33 -55 36 -6 51 -41 -62 34 12 53 13 53 45 -15 14 -2 -13 -46 -38 -56 -21 -24 56 -63 13 -47 64 -43 -60 18 38 -65 41 46 -35 -36 -19 -47 25 -57 23 42 39 20 -37 -64 1 36 -22 -10 51 0 31 30 23 -22 -25 59 -68 48 47 -63 -19 0 -37 -13 -36 -24 -7 -37 13 -21 -49 -16 -9 -12 -57 -51 43 -30 51 -28 49 -50 -48 18 14 -2 -33 -18 -20 54 49 6 28 -19 47 -50 62 -39 -16 -7 -57 29 -7 -46 -52 -33 30 -52 -14 31 46 -13 -59 39 -57 -52 -41 48 -66 68 -43 -15 41 -15 -56 -34 -30 -29 -10 -17 -10 -6 -52 2 48 2 -6 -42 54 51 27 34 -17 1 -16 -17 -1 24 41 0 39 64 51 58 -59 26 -13 -43 -5 -38 42 3 -19 54 42 -53 -42 -56 32 -26 -28 15 19 44 -32 -37 -24 -20 18 61 16 -45 68 1 -53 -36 55 37
42 -53 45 29 18 26 -39 46 24 -22 -30 51 -18 40 42 35 11 -20 34 64 30 21 31 -26 -16 -57 16 -40 -4 52 57 32 -68 -39 56 44 53 49 -54 2 3 34 -58 -6 -58 24 -55 52 -1 -2 -20 -18 -46 18 -28 16 -5 30 -29 -48 -4 45 4 -26 -11 -13 -56 -2 26 -63 -27 22 48 54 20 29 -41 -45 41 -48 30 -22 -26 -60 -9 -59 -33 -41 -10 -15 -28 -6 31 -27 23 -33 -38 0 -4 5 -49 40 7 29 57 54 27 -35 -28 50 -21 1 43 -10 -30 37 -61 3 56 -19 62 48 4 -1 -12 -38 24 -22 -33 -43 46 -27 18 -37 -33 -61 -16 64 9 26 -52 10 -23 52 -54 42 14 -16 9 18 -41 53 -43 -21 16 -23 -47 51 8 62 -36 -45 -52 -55 25 -56 56 34 -2 45 56 -29 -31 39 -47 52 -18 -33 27 14 10 -30 12 56 7 -63 1 -30 58 45 36 25 -46 -40 7 -27 -37 -56 -23 -23 -54 -38 -56 -70 62 7 34 -20 51 4 46 7 50 -51 50 50 -52 53 -43 -11 20 -7 3 53 34 -27 -22 52 63 47 23 37 51 4 53 -54 -58 -44 -42 -15 36 11 37 -14 5 -42 -59 18 -23 -25 -67 -16 50 21 -2 -18
