-7 11 -50 -48 -37 -19 -38 -11 -14 48 -12 -4 64 4 9 -36 -8 46 17 -17 -7 -5 36 28 7 56 -29 -35 25 -63 -31 15 3 -29 -3 -30 45 -7 -41 -53 42 4 -7 44 -2 -3 -46 7 3 -3 -30 37 -21 29 -43 64 -23 -10 -49 -22 40 18 0 -8 -67 -3 50 16 37 -17 65 41 -12 61 42 -48 39 39 10 14 60 -1 47 -32 -41 -49 -36 50 -41 -70 -5 25 -43 26 -36 -33 -7 -17 -49 -14 39 -69 -63 5 36 -52 -31 21 47 -19 10 -22 33 -64 -65 1 14 1 -5 52 -45 23 43 -60 34 -68 30 -3 -57 -21 8 13 -48 -47 -63 -32 28 28 -2 -6 53 -30 -20 -58 15 -30 -10 -39 45 -28 34 27 -22 17 -49 -33 -47 10 -43 -36 51 8 -4 -46 -47 38 32 -9 -27 10 33 -7 -52 -50 -24 -3 -18 -49 -45 -41 32 61 45 46 48 13 -11 2 28 16 -20 39 -41 40 -47 19 9 -1 -45 32 -48 22 17 -32 -48 69 -56 35 -17 -11 43 52 -59 45 -11 -37 27 -50 12 -24 -51 -11 2 -66 -7 12 -36 -67 43 -35 46 28 44 37 36 -8 -17 36 -42 41 59 -43 -52 26 -13 -66 34 -6 -74 -51 42 59 59 -30 -38 -12
48 36 42 0 53 -34 -63 -48 6 41 47 -20 34 -32 27 -38 -53 23 15 9 -18 -25 36 54 -48 -49 -54 59 -23 47 70 46 41 -45 -23 -21 -1 -8 -37 -61 -41 18 27 -28 -16 -51 -19 -23 3 36 -37 -15 55 21 -6 39 -20 42 9 25 -14 9 -54 -66 -52 -61 65 -51 -30 -17 7 -10 16 35 -50 10 7 -32 -58 46 70 -13 -48 2 15 -35 -5 -50 30 -56 -9 -51 -45 71 -4 32 48 53 65 -55 -29 54 -34 -38 -73 86 -3 -58 -16 19 85 -4 -38 -33 -48 17 10 26 16 -44 -51 25 87 -13 -1 -52 -37 7 -57 -15 39 -41 -7 14 -20 8 36 -62 14 -54 -51 0 46 88 -20 63 61 15 -22 -52 24 13 33 -18 -13 -30 48 -31 22 2 -41 10 56 0 -13 6 -16 -40 -50 -68 61 -9 16 33 28 -50 -35 -27 -20 -16 -47 84 -70 -69 51 -11 14 33 -6 -11 -9 -52 13 2 32 59 21 -34 -43 -17 40 -42 -45 73 -68 -8 -40 -63 -20 48 -63 34 -28 -44 -10 31 31 12 -34 51 16 16 35 -34 53 -40 40 20 9 32 54 19 12 -26 -39 27 -53 -61 41 -48 -8 -55 2 -28 51 19 -68 25 -43 -56 22 17 -4 -36 27 29
-21 39 -45 -58 -21 -22 -10 8 -11 -44 43 64 -56 -45 -59 52 -42 -57 -49 34 39 34 24 -67 52 3 -54 28 29 24 40 -72 25 30 49 -28 20 51 -14 6 -101 9 -26 -42 56 46 43 33 -4 10 -23 -73 13 -24 3 -10 -39 -46 13 -11 39 -35 46 3 -10 28 21 -62 -16 -51 10 42 56 4 -19 3 52 -26 50 -50 42 -49 0 52 46 82 -46 54 11 -31 -10 3 -14 -48 -52 -26 -58 81 -27 11 55 -36 12 40 -54 -42 -2 84 -56 60 34 -19 -23 22 -50 33 -44 32 -15 48 21 -38 24 2 13 -12 53 -19 -62 12 -40 -53 -10 -87 55 -32 31 25 23 -2 21 45 -38 -32 -68 -52 -42 25 53 42 -1 -32 -57 -56 53 -29 -55 7 -42 9 -37 -30 -23 -60 13 -19 -36 23 -10 -54 58 -52 -69 30 44 -39 -42 -41 30 0 -60 -58 -54 45 -21 44 15 -62 34 92 27 -63 -24 26 34 -38 -23 -77 -5 -11 39 -13 16 -39 -18 -61 2 9 50 8 32 49 -10 23 2 52 25 -35 -3 54 0 8 42 -69 13 56 -4 -75 0 23 -19 35 -48 -62 45 45 -13 -69 24 -48 -17 18 37 -56 -48 4 -9 -33 -45 20 50 -32 -44 -95 -58 1
-13 -48 -33 -38 43 53 -38 48 -7 56 52 -29 -3 -45 17 20 -46 31 -31 -39 24 62 36 -59 37 -25 -31 26 -35 -60 -18 48 -32 -60 -20 -39 53 -39 -11 29 -45 13 -1 -63 -52 -67 35 -27 22 2 -64 -18 6 -71 24 -12 -27 -15 51 -15 -55 -54 6 40 -60 30 -12 1 49 -59 -22 17 37 -9 62 16 19 12 54 13 -28 22 -55 -3 -58 22 -71 19 24 -39 60 55 -21 51 -43 13 4 34 44 -16 -56 -58 -61 -15 -70 -10 8 30 17 35 28 -46 32 -70 19 11 -6 6 -52 -72 -35 23 -52 -23 -45 -17 -4 -1 -31 -29 33 -53 21 63 8 -45 -41 -42 -68 8 -17 16 11 -40 5 68 54 49 15 75 -60 39 -32 -57 30 -63 -29 -42 -74 54 -49 -58 -27 -31 27 60 -44 -25 0 -56 25 31 -4 -32 28 -20 -9 77 -28 -62 13 -34 -28 33 -22 -42 -73 -55 50 -55 -21 15 -37 -56 -40 52 49 -12 -28 32 7 45 18 -11 -22 -56 -27 -68 9 49 27 -4 6 -8 -18 -30 4 11 -30 38 12 -47 -10 -20 -20 -13 45 29 -36 47 -71 -48 9 -50 41 -24 -41 -5 -39 30 22 23 -2 12 -27 11 59 73 3 4 -7 18 48 -66 -21 -29
7 -51 -27 -21 38 41 7 -27 -41 -43 -22 40 -48 -73 -42 28 46 5 -67 -26 41 -12 53 -50 -9 35 -30 47 -8 -28 31 -58 14 -44 2 -68 -13 -10 2 3 17 -33 27 10 -39 45 -26 18 -73 -16 -64 15 11 30 -43 -3 -48 22 49 -25 -24 -46 5 -9 39 17 13 -38 -47 62 54 -56 61 47 -60 0 -14 15 27 23 -52 -69 -21 57 6 -37 38 -36 -20 44 57 16 -32 11 46 11 9 -62 -48 -26 47 -61 -21 37 50 14 25 1 -12 -24 8 -41 49 5 10 24 -57 27 -31 9 51 41 27 -15 42 -64 26 0 -8 6 -68 -22 59 53 34 42 53 52 35 -40 -18 -35 -8 -53 -60 48 1 -63 -51 37 44 37 -13 50 -43 4 -41 -39 42 32 -58 60 51 42 -29 -13 -28 12 41 25 39 -12 -8 61 24 -50 -46 3 -64 -2 21 -3 -52 -57 -45 17 50 -11 21 66 -6 -14 -69 32 53 46 -36 -45 -49 -36 -40 -16 -16 -39 -14 -46 -20 -62 52 32 21 -72 -65 44 13 -3 44 -62 -33 64 -68 -19 -48 -24 14 -7 -46 21 54 -24 -25 -17 -10 -71 11 -37 -54 6 -38 10 49 -36 -31 50 -44 58 45 3 -11 -12 -18 -15 51 -25 -40 -27
-31 -57 51 -30 32 54 -57 -23 31 40 7 12 -36 15 15 -50 38 12 9 -5 -39 -67 2 -46 -19 -57 52 25 -56 2 12 59 -18 8 -50 5 -49 38 50 20 -40 29 -55 -14 -12 44 42 -53 -27 52 71 11 -4 -30 -37 12 -64 -40 23 23 30 -18 61 -15 55 -27 -32 -27 -9 -57 -43 70 32 14 -19 -53 6 4 36 -38 -38 34 15 20 -39 4 -32 -26 -19 -6 18 -60 45 -55 -8 -52 44 -21 -18 49 -34 31 -5 -40 -51 42 40 1 38 -57 -13 -15 -57 44 74 44 -36 47 30 32 -17 48 9 -8 -34 0 -18 -34 -32 -40 -5 -3 -28 -2 -40 56 -31 46 1 -67 25 34 -53 -24 -36 71 -20 -24 21 45 -17 56 54 -13 1 5 -13 -18 48 -60 27 -31 0 -12 -37 51 64 49 17 45 -32 -44 54 -38 69 49 42 35 25 28 57 -8 15 45 31 18 0 -21 -61 -4 43 -44 -1 -65 -65 -14 -69 43 50 24 11 -71 13 16 10 -68 51 52 34 -10 52 -60 47 -37 27 13 -4 -55 15 25 -34 17 31 -30 -49 -58 13 -3 4 -26 23 18 -63 -4 35 51 -45 -39 13 -5 30 20 45 21 15 -82 45 -47 3 -34 -58 -36 -18 24 -35 56
37 46 8 -47 47 45 -62 36 -33 -16 -68 -50 -5 -36 64 10 -68 9 29 -57 12 -50 -76 -11 -2 9 -47 -17 -9 -64 -15 -33 -46 -60 31 -13 42 64 -15 -41 -62 -24 -63 -31 9 25 -72 -50 -69 25 -3 11 35 -28 49 15 -53 -11 -34 21 -22 42 -52 39 31 -63 -65 -15 25 -15 30 -12 51 -8 -50 16 77 53 -15 -15 84 -17 20 -55 -63 12 -23 -20 -8 23 -13 28 -52 -35 -8 88 -25 2 54 -46 16 8 54 -12 -48 8 25 -11 -2 40 54 -20 -47 -47 -2 -49 47 -27 -7 -54 -3 65 84 5 -2 -33 18 40 58 -47 22 13 -51 -38 51 -14 10 -16 -40 28 13 58 43 22 34 46 41 37 25 -24 2 -43 -9 -28 -7 -20 38 -51 29 -15 -53 -63 38 20 -52 -24 17 -24 -52 -28 72 -66 -58 49 6 7 36 49 16 19 -15 45 -16 -18 -18 15 1 -10 2 -39 31 29 31 -49 -63 29 35 -63 -63 -19 13 -60 -31 70 -41 29 8 -66 -16 10 -22 64 -11 16 -6 -52 28 14 24 -57 -53 29 -20 2 -39 -50 -6 19 -7 77 36 40 -50 -40 -69 -58 45 54 -45 54 -8 -51 -29 -68 39 20 -6 -62 63 -19 -63 1 30 -16 -52 -22
-36 32 -43 -53 -6 37 -52 -2 -15 -7 16 25 -20 -14 53 26 -38 3 -76 -21 -67 -30 33 51 -46 -43 3 -38 -63 46 -19 -16 -19 28 32 50 14 -14 -28 29 -18 11 0 27 39 22 40 12 52 -14 46 28 -38 -37 71 -3 -51 41 9 21 -56 -28 44 -23 34 35 -52 -21 6 -9 -65 44 20 -47 10 -7 39 -64 49 42 -49 -54 -41 -54 38 51 -12 -37 -9 38 27 -57 25 -40 32 -20 -56 -49 33 -77 24 -64 -7 -41 -9 23 -24 52 34 21 -50 -19 -22 46 2 41 -48 13 -54 45 -52 61 46 18 -57 12 -1 -8 28 -50 -45 38 -9 -38 -30 -29 -29 -65 -57 -56 -25 -29 -47 6 -27 23 -7 -40 28 25 -15 18 36 -17 46 62 -61 38 14 23 -27 -53 -36 9 -26 -13 53 -10 8 -8 30 -43 -26 2 59 36 -48 59 36 5 -55 -41 -39 -41 -35 -10 4 39 10 15 34 -11 21 -59 38 -49 9 -20 -5 -55 -39 -2 48 -17 38 -28 -66 -50 -22 -13 -30 -47 39 -41 -65 -46 53 29 27 4 9 -23 -23 -49 -7 -48 48 -52 43 -17 40 1 -56 56 27 -13 24 -76 1 -23 20 -9 -5 28 23 24 19 -45 60 40 51 51 63 -74 29 -51
-17 -52 -6 -31 8 -68 -61 -10 -62 51 19 -3 11 3 -55 35 21 -5 61 -36 36 -3 -36 -17 -72 28 -14 -55 -41 -32 68 33 -49 37 89 24 46 -34 -26 17 -44 -6 41 -56 -19 14 -22 47 49 -28 3 64 80 -20 14 -31 -43 -43 -42 -46 -5 -21 63 77 -21 -4 -18 -22 91 -39 -29 7 -22 30 44 76 28 -13 8 46 44 50 -34 -27 46 85 33 -23 16 12 54 40 -5 -61 -44 1 -73 23 23 47 -25 16 -31 -21 18 4 -15 -23 -51 -49 -46 34 44 -26 -31 -37 -7 -38 2 65 -65 -33 -45 36 -31 5 -89 16 48 38 -4 27 -49 35 25 77 17 -26 32 -53 24 23 29 -62 -63 -44 -2 39 3 -12 -6 29 4 16 51 -9 -53 1 -48 -44 -26 43 -62 43 -3 -31 40 -47 -5 -45 -4 -17 -52 -41 88 4 -48 13 4 -69 -58 -31 29 -50 -13 -29 -35 26 46 -23 -18 -11 46 64 -55 61 -16 13 21 21 -1 50 -33 -50 -38 -73 39 -11 -1 26 -42 -24 58 -52 -44 20 31 -34 -84 -23 -2 -5 -53 -60 17 -56 81 -53 11 -46 -69 11 -51 -50 38 -3 -58 -67 18 61 6 43 -42 46 -40 6 -35 -62 -20 -12 30 57 41 -54 -53 -2
44 59 50 -63 -40 -27 22 -10 -26 -33 -60 39 -4 -41 -18 -2 32 8 -69 57 25 40 20 -50 46 24 49 -56 36 -66 -11 30 -45 6 7 5 -18 85 41 -19 28 -40 -2 22 -28 1 -17 -21 43 -34 -52 -22 52 -21 44 44 -54 -37 -39 2 -1 -76 50 43 -24 17 59 47 -43 31 -58 -44 28 31 -37 0 2 4 102 28 -60 -2 48 -34 51 -1 -42 -52 -59 -19 78 -56 -43 16 -68 -71 -24 61 -46 -6 54 3 22 -61 -28 54 -30 2 -39 62 16 35 19 -13 47 21 -40 21 39 -9 28 51 -12 -16 -18 30 50 -25 -9 -11 -31 -32 -53 -56 58 23 47 -5 49 0 -26 -62 -59 6 10 -20 -14 15 15 1 21 75 15 -13 6 -3 10 -46 -27 -15 9 -20 5 -11 -65 -52 9 -58 52 41 46 -32 49 65 25 44 20 -62 -68 -21 -60 33 -49 -53 -11 37 -49 5 41 67 10 -14 -42 60 0 9 60 35 -25 -36 -61 -21 -25 -44 -40 41 17 40 13 5 -31 2 10 -69 6 30 -51 -68 22 -48 -36 -14 -8 -6 -36 25 43 -1 -65 -5 -25 -71 49 38 9 -47 5 -72 -18 47 8 46 -46 19 -6 -6 23 37 -48 12 -9 50 -56 -16 18 -1
40 -14 9 28 35 51 36 16 -37 0 -25 9 25 37 53 -27 3 -61 -8 -12 62 -18 51 -38 33 50 -4 2 21 -21 -34 -38 49 -5 2 45 34 -37 18 -6 -17 42 56 30 30 7 -41 -8 -39 29 -2 2 34 39 -51 -34 11 -17 -3 -27 40 10 -21 -62 27 -38 -27 -47 24 56 -5 -25 8 21 -28 -7 45 45 4 -61 -8 1 25 18 53 4 4 -3 -16 -53 33 -32 -4 -32 48 23 -33 3 56 -25 44 -10 15 -7 -17 -32 -25 -43 -40 31 -24 -30 -59 -62 -16 41 31 26 -48 -34 18 12 46 39 0 7 19 40 -49 -66 14 -38 -35 43 -32 -27 47 10 -51 42 -36 -53 17 6 66 55 -45 39 57 -24 44 43 48 6 -10 64 -4 59 12 -41 26 9 -17 -50 -15 -64 -29 51 10 -44 56 11 -68 -7 -41 -30 -33 71 -55 66 18 -47 56 -50 -62 14 -15 -53 18 -41 -37 24 10 -35 -33 -11 51 -21 17 -2 -7 3 -25 -34 -2 -28 44 -5 -61 8 10 -32 -18 -57 -51 -44 64 -7 -22 42 54 -29 -40 66 -60 15 -43 46 -49 11 -1 -10 10 -49 -50 39 59 -44 13 -3 -37 61 42 55 -6 32 16 -37 0 -10 63 -43 -13 46 -47 4
-21 16 -4 -48 35 40 0 -36 55 13 -12 -28 2 -23 2 6 54 11 -62 1 -22 42 -10 -42 2 20 17 -40 20 -4 -47 34 37 7 5 69 -9 31 -22 -26 -11 -13 44 18 18 -44 49 -2 -57 -39 -34 -17 -27 -40 43 -30 61 -10 -53 40 -36 16 -21 -38 -16 -41 20 17 -24 7 54 44 -42 23 46 63 40 -33 8 -13 5 31 -24 65 54 56 50 -24 -51 -61 -46 4 50 -1 -9 40 43 39 -3 10 31 -7 -36 -32 16 -46 6 -31 7 -39 -69 -9 -58 6 -20 0 33 52 48 29 -1 15 -15 32 50 -67 29 18 -54 -63 -50 -38 -29 -13 55 1 44 -53 55 -50 49 44 -60 -43 30 -25 -12 -59 30 60 -47 -12 -68 53 -29 -58 -43 -15 -32 67 -18 14 -9 26 5 2 60 -18 34 52 40 48 -56 -49 -3 -1 38 -19 -59 -44 12 -12 8 -18 -4 -5 -5 37 -28 64 50 55 47 12 26 -52 -30 -1 -40 -40 -13 37 -14 -25 48 -10 -4 42 39 -45 10 1 -66 39 -31 6 -21 56 39 48 33 8 -37 -20 52 37 15 -8 46 -37 -54 -25 -48 9 -24 -19 22 22 1 9 -50 4 38 52 2 51 -31 -25 -27 14 -58 5 -37 41 11 3
38 9 -53 -53 41 11 -13 -29 -6 -54 -11 -2 -50 53 -27 33 19 -60 5 51 -23 33 -66 -45 44 40 -55 -64 -58 25 42 38 -62 -4 32 -21 -34 34 -23 5 -60 -5 -36 -38 46 59 -35 -52 -17 -1 21 -62 -18 -8 -60 -53 -17 60 -73 40 55 -70 -5 69 -4 -30 39 -33 -36 30 7 20 76 6 45 5 -16 47 -1 -60 -50 50 39 42 -34 73 21 -35 -31 34 66 -10 -45 -8 -32 33 35 -70 -36 7 -33 41 24 45 10 2 -33 4 0 47 12 -55 -48 -1 -22 -62 46 17 -35 33 -9 -32 -23 -20 19 -12 -57 -57 -16 -58 3 30 3 2 -34 37 -72 -64 7 -66 19 -18 40 -48 38 -13 2 -32 26 32 -52 -51 -56 45 22 -16 -14 -22 -62 -13 57 -23 5 -11 -9 -22 -69 -17 -53 48 -56 16 -45 17 -57 -1 -23 2 47 -32 -8 51 47 -30 -14 35 56 -17 33 42 -39 32 -3 -24 -49 -43 -54 -10 58 0 -82 -71 58 -67 -34 -4 70 -35 -10 -41 -39 62 -50 -22 -12 3 -21 24 37 20 -26 43 28 -12 -43 -20 -8 11 12 60 23 33 51 23 21 -37 45 41 21 3 -30 10 43 -3 -17 5 -3 -55 -12 29 37 7 13 -39 44 5
54 48 -54 -52 -34 35 -10 11 34 2 -36 64 -44 25 67 38 20 -4 -3 -35 -31 52 -39 13 24 20 -26 13 -23 -20 -34 6 39 -69 -47 -9 23 -44 -44 24 -22 50 35 57 52 -10 -28 54 64 -11 -5 32 37 48 -6 23 36 -57 35 29 -61 81 -12 -59 -9 38 45 -61 6 16 16 34 -56 -48 32 -35 25 37 44 46 -20 -55 -20 -2 1 45 35 -22 -53 -77 57 -39 40 -45 36 47 59 55 -19 19 -20 12 51 48 -18 29 13 7 23 12 58 -18 41 60 -47 -25 5 -13 -53 -21 42 54 58 49 12 -56 21 54 43 -11 15 30 58 41 60 -24 -7 -25 -22 -29 -48 -26 -4 70 -3 -49 16 -22 -42 -11 9 53 28 -67 -45 0 69 62 -66 -15 8 -75 7 -6 17 -42 -50 -47 56 40 45 -35 49 75 45 -44 22 50 51 -10 45 43 -64 34 -2 -41 7 0 -65 13 44 -27 -71 -17 50 -70 -23 -36 0 -21 34 -41 52 13 34 -44 -75 14 -36 46 -11 19 -65 -63 33 -64 55 3 -3 -7 50 -19 46 -53 32 -63 12 28 31 77 -22 -72 17 26 15 52 18 -70 -70 26 40 -26 2 19 96 -52 -56 20 -27 -31 18 51 -59 -71 8 -72
-41 -46 25 51 -14 57 0 51 -33 21 55 -48 -59 0 -36 -47 58 -29 12 -22 -13 32 23 -8 -30 44 32 -3 -23 26 16 -56 61 61 -16 66 15 15 28 27 -57 2 7 -58 7 32 44 -2 -10 24 38 -11 -45 62 49 3 58 48 -60 -52 -55 -28 -23 22 -38 -8 -42 35 12 43 0 -1 30 35 18 -46 -9 27 -13 38 38 33 2 31 20 -19 18 -26 4 -5 -49 -53 -51 80 20 58 -34 54 -32 -5 56 -30 -49 -45 56 7 -55 83 49 27 -13 -40 46 -24 10 48 -9 -2 -43 15 -52 -35 8 -72 18 -79 -9 7 1 8 -3 2 1 18 36 -40 52 18 37 -26 60 25 -21 -39 -6 -50 12 -70 -34 -23 -30 -24 -52 36 45 -22 8 -63 10 -44 -62 26 -22 -16 61 -57 -21 -58 32 -1 -54 15 -64 65 1 -43 -41 69 -44 19 -60 37 -32 -8 -33 -44 45 73 -36 1 65 -64 56 -36 -39 -55 23 4 -41 -39 -5 -22 61 -12 -58 -35 57 -41 -26 -20 -17 -10 -1 -11 34 12 38 -7 -4 6 3 20 2 42 -27 14 -48 -32 -1 -6 34 -35 -44 -10 -64 -22 35 61 29 -26 -20 -18 36 22 -20 -60 -22 -68 12 -6 55 -32 -37 -4 15 -31
-5 5 41 -13 -45 -59 52 -8 -23 25 15 -20 -63 -25 69 12 -45 35 -72 54 -5 41 -24 27 -25 33 0 49 49 5 -20 11 -7 25 49 -8 22 29 57 31 -22 21 -31 -40 -28 -35 3 -36 -40 -40 -10 -29 -54 93 108 32 17 -41 -9 -59 -8 103 34 43 12 22 -45 -41 9 23 28 29 -17 12 3 -49 91 -42 -38 8 -2 -48 2 56 -71 11 -12 59 -15 -56 -26 -34 -49 -21 -10 92 50 -39 24 -29 78 14 -8 37 -24 99 -3 32 52 -41 62 -41 3 -4 -38 15 58 -4 39 -33 1 92 89 48 -62 42 8 38 -64 -56 -42 29 49 -44 -1 -34 28 -10 -7 -31 -22 -46 -24 -22 -10 -7 89 4 -53 6 -26 -35 4 -49 31 -49 -48 -18 -9 4 -53 16 15 16 -39 7 -34 -30 -35 51 -7 -73 37 -4 -41 -18 64 -37 -60 54 -46 101 40 24 -39 -43 -59 -27 -41 -1 32 -58 -6 10 43 -20 -68 46 2 -6 21 -56 -27 79 -67 67 44 -46 -31 -69 -61 77 5 -49 27 -30 5 60 15 14 -21 10 -32 24 33 -33 4 42 -63 45 -12 -41 2 3 50 36 6 63 -30 18 -12 -21 -30 -45 41 -27 24 -51 -28 32 -31 36 -36 -72 -24 -57
-52 14 -14 -52 10 -6 -44 -54 32 64 49 47 50 33 5 -24 59 -57 48 -48 34 -33 -29 48 45 47 -44 -51 58 -29 -43 -56 -58 49 -54 -18 61 12 61 -27 35 5 33 -31 45 -15 -7 -14 62 18 19 -15 34 -13 -30 55 -39 57 -50 39 34 -24 -58 0 15 -10 -41 -2 -6 42 51 46 -58 -61 -47 -14 20 -2 52 -33 25 -21 9 -48 -41 40 -37 35 8 35 52 -4 20 -38 -55 10 23 61 -61 -44 37 -48 4 24 -3 33 13 -13 14 68 38 -4 7 -18 -49 -26 37 -47 8 -52 -8 18 -58 -7 36 9 -35 10 -18 -70 22 62 -52 54 71 6 -11 -22 -35 28 -41 37 -3 31 -41 58 3 -5 -31 20 -32 -21 35 -17 33 -1 -57 -16 -4 56 6 -16 7 10 -26 -5 48 51 -20 -70 -24 -30 -20 53 39 32 15 -20 50 -31 60 -6 -22 0 -40 -70 3 61 -39 0 29 11 27 11 46 23 53 30 55 -60 -30 63 61 -2 25 -52 -52 -38 -30 -46 26 35 -58 0 -31 20 -42 31 -2 29 6 -6 -23 52 -8 -4 -6 39 -26 25 -8 1 61 8 -35 -42 31 4 7 -65 -6 16 -39 52 47 30 14 34 35 8 -22 -21 -16 13 33 -35
-6 61 -57 -28 -47 -13 50 -13 -67 -14 55 9 -66 -6 7 6 28 30 -66 -42 -62 46 52 53 -46 -50 -30 51 -18 -41 -1 34 57 54 -14 -63 -12 -3 52 21 37 15 -27 32 55 18 2 10 10 -72 68 -60 17 4 57 -54 23 50 6 -46 -18 -31 58 32 -11 18 -35 -42 -3 -28 7 12 28 38 28 -12 42 -62 8 -23 -6 -7 42 -56 -34 -19 -35 -44 -43 49 -59 -54 -58 -49 -33 0 66 -44 41 -23 -22 41 -19 -57 5 -37 -12 10 -48 39 60 19 64 16 -51 -28 -4 29 37 17 14 -26 8 -51 7 -22 -22 -42 56 29 60 34 -50 -19 68 27 40 6 -56 -13 -25 -7 20 -50 -62 -18 52 -29 34 -28 37 -36 16 -42 -28 47 -11 16 -18 -49 57 8 -7 -63 47 -56 -60 -50 36 31 32 31 23 1 -9 50 47 24 -44 48 -29 -75 41 -7 -18 -15 -69 18 38 -4 -27 25 -17 25 23 12 13 13 18 56 54 -12 25 12 -4 50 -10 -50 -63 -17 -34 15 -14 31 46 8 20 26 -72 -14 -19 -5 -8 -67 -23 -42 8 5 0 -35 -25 -60 56 -2 -30 -4 45 -5 26 -25 -12 -26 16 -54 -21 -49 -42 45 21 -31 -59 20 -48 -24 39 12
35 -24 45 -37 29 -65 -4 -6 -12 60 -44 -42 35 18 -41 45 6 -11 -67 48 -25 -24 -20 36 52 -60 16 11 8 25 14 62 -31 -40 -19 26 19 -35 8 -10 42 34 58 -1 35 26 -20 -11 -53 54 -54 24 -27 -41 10 -12 -19 15 -61 54 7 -39 41 -25 -12 -54 -19 -56 -20 -4 -36 52 6 19 -57 -8 24 31 -45 -1 63 -41 -18 -32 11 -61 -39 4 49 -4 -13 -46 -4 34 -44 45 27 40 -17 -56 -50 32 -20 39 -31 -40 5 5 39 -3 1 46 47 53 15 2 8 -12 -15 38 24 -15 -33 -60 -41 30 -53 29 -13 32 13 57 -62 -32 71 -7 28 27 -29 18 62 -53 -9 39 -63 61 49 11 -21 -62 45 -26 -25 1 11 23 -11 -24 -26 -49 32 -45 -20 -23 -21 39 -33 11 34 26 -6 61 -59 12 18 -40 20 23 40 -20 -52 54 8 1 -42 -43 9 17 -7 -22 42 -44 3 -41 -21 -20 18 52 -21 -60 -27 0 8 -21 19 49 -6 52 -5 -66 -12 22 28 -61 44 61 24 -32 -12 -1 22 -4 -45 49 21 -50 -11 -15 -33 68 46 0 27 -49 -53 -53 -13 -50 -14 -57 5 -8 3 -44 -49 -59 -25 -19 52 10 -25 -63 -36 46 -34 -24
22 26 -50 -45 -53 5 44 52 55 14 -41 17 -44 36 26 58 -39 62 -35 4 -53 -49 50 8 -35 17 57 -27 14 -35 59 -30 -59 48 22 57 25 32 -44 -49 -14 -16 -15 -22 -31 54 -5 55 21 62 61 -36 -53 -47 -11 -20 -3 62 -54 16 -5 17 -52 -44 -13 -3 51 -29 19 -17 51 10 -56 19 -16 -8 46 58 -17 -60 11 35 -62 10 62 39 9 20 51 -45 15 -25 -24 -8 -8 51 19 44 31 53 -50 45 45 10 12 5 44 7 1 -5 52 10 -14 -23 -22 -50 48 28 43 29 8 16 -16 -63 47 -37 -14 62 -26 6 -40 -61 -18 -52 -34 59 31 -22 63 -59 10 -60 -4 57 -20 4 64 43 -21 -58 61 8 -64 49 -22 -46 -12 -48 16 18 11 -53 -13 -28 -19 -15 26 49 62 28 30 -54 5 43 -8 -14 -33 54 27 3 -9 22 15 1 -25 -44 -24 -61 29 -44 3 -11 -20 39 -12 6 -25 39 48 -20 -39 -46 1 -6 26 21 -41 -26 53 -28 -15 -63 44 20 25 -11 -4 1 25 16 48 -54 3 7 44 55 36 56 -3 63 -35 -28 60 53 -59 -52 49 -55 4 44 -51 -31 22 45 -45 -40 19 -29 55 -44 -63 45 54 4 -4 26
-5 53 -37 26 -3 -15 -27 -56 42 -52 38 -8 42 3 -52 32 61 -35 61 -30 9 39 3 49 40 53 -50 -17 64 -53 50 33 39 -18 -6 -11 -34 2 15 32 46 -51 -26 -39 26 10 -48 -45 12 13 21 -25 2 -40 -8 58 -60 29 -34 49 19 -11 -42 -3 17 -16 48 -38 -24 -22 6 -42 -37 -6 -40 -8 -33 18 -25 -63 -44 27 -22 -6 -6 14 3 0 -42 -14 11 39 9 -29 -31 45 33 24 -47 -38 21 -18 -26 -64 23 47 -24 -30 -11 30 28 -10 50 -22 30 -36 58 6 0 42 -47 27 32 46 32 -49 27 38 -32 1 31 6 0 9 26 59 14 24 -27 17 -27 -39 -9 33 -17 -8 43 7 20 -6 14 4 5 -9 -49 -29 -17 60 -31 -3 43 0 -48 48 -8 5 28 -15 29 55 -57 -47 -23 -29 -19 -27 -34 -57 -3 49 49 18 -16 18 52 29 -33 52 49 -39 19 23 -32 63 -36 61 -31 -6 41 50 6 44 -24 25 -36 30 -26 2 47 -9 51 -56 -8 16 12 -54 -62 10 -15 -53 8 -8 -39 61 -41 -15 35 -22 38 -39 16 3 47 47 35 -27 -48 63 -16 -47 -62 -30 32 -4 -19 -20 21 -59 -57 11 -55 42 -36 48 7 -64
-36 -1 45 -57 37 39 47 41 3 -8 -51 -20 0 11 26 -54 51 -73 2 47 47 0 27 28 40 54 16 79 -43 51 19 56 6 39 -58 13 3 20 -2 31 -5 -35 -57 44 0 -18 -31 -56 61 -20 15 23 -52 -45 55 41 42 45 -24 -23 21 45 54 63 35 -47 -72 -2 9 -5 -43 -31 -21 45 43 -57 5 42 7 46 16 -15 46 33 -26 -8 9 59 39 36 15 4 -55 16 13 53 -55 60 38 -16 19 -64 62 -19 -30 -31 44 56 33 -14 41 -62 -53 -39 55 -16 -30 29 -6 20 -53 25 -55 14 -19 -70 11 -39 -45 52 -22 -25 -64 -60 30 -13 61 -50 -67 -58 -31 47 -12 26 -20 5 7 -4 -50 -4 14 -12 -56 43 11 26 4 -46 -1 5 -26 61 -56 -18 -20 -4 -2 44 68 -23 14 10 23 -37 -46 -3 60 -14 41 -11 -31 -42 16 6 30 27 -16 33 -10 15 -56 -62 -58 -12 18 12 -37 40 -15 34 15 26 -30 -28 1 40 -57 26 -30 -4 -23 -9 -49 -49 51 -56 -65 11 -27 17 -49 -54 -49 -2 -42 -47 -28 -64 -9 -10 -76 -64 46 -21 52 29 10 -21 -16 1 -31 -78 60 39 -28 -28 28 49 16 -67 -14 14 -58 27 37 24
56 50 -5 17 -17 -9 2 3 29 69 -46 7 -6 -44 60 -15 51 14 -56 -22 10 -60 6 7 30 55 -29 5 -16 -8 -30 65 -22 -64 41 31 47 -6 48 4 0 55 26 -9 68 49 1 -38 18 55 -57 -46 50 75 26 -3 -42 -31 -56 19 -7 -40 -40 -22 29 27 -44 63 -16 51 -45 -1 6 -39 32 -73 -12 -9 39 31 31 25 -47 50 -48 42 -33 -43 45 47 35 -13 28 28 51 -30 32 -53 -31 58 -36 7 20 -13 -22 18 -11 -32 33 -38 11 -38 -5 -8 -43 54 68 37 -19 24 -56 56 25 -62 -32 -52 -59 -45 -8 -13 50 -50 37 -34 30 -18 -40 5 -34 37 -53 -16 39 67 48 35 -24 -38 -25 -35 55 -11 41 60 -47 -50 59 17 54 47 -58 -55 2 17 1 -36 50 -1 28 14 17 -7 -36 -20 29 34 23 16 0 -15 44 39 -29 -28 -60 -35 -43 22 -39 -42 44 12 -17 -25 51 -8 -28 18 -11 41 -7 47 -65 -12 32 -1 9 -22 -40 -62 -56 -11 -6 28 -6 -58 33 16 18 -1 26 -54 -38 14 41 -48 -9 1 -75 57 -10 45 47 -31 51 16 -18 -34 44 18 -38 18 36 -43 25 -75 -39 -47 58 -46 3 26 10 -47 -59 -17
37 76 38 -41 29 43 52 18 56 10 -42 30 28 -38 50 -17 56 13 36 -58 -20 44 -71 -21 40 -31 52 86 -72 15 -39 61 -27 -45 56 9 -74 14 -11 -26 -24 -21 46 16 35 -3 3 -26 30 -35 -23 -10 -44 -36 61 -17 -44 -23 45 -8 40 60 -36 -25 10 -12 -20 16 46 -32 -25 -25 -27 -47 68 -35 38 20 -38 -49 -24 32 61 7 -5 1 -45 59 -14 -67 15 -63 35 71 -59 -4 74 -1 78 33 77 22 36 -27 12 46 -54 8 15 -61 9 -55 -18 -11 20 -14 -4 47 21 64 -7 66 19 43 22 44 9 -2 -54 -48 -12 -31 42 -43 -13 -58 23 -50 4 -43 -24 17 27 99 -24 -49 33 -62 56 12 -67 69 -2 -50 -32 37 -41 4 0 48 -41 -12 -9 35 -47 -75 -40 -19 -32 -6 83 5 32 28 1 -29 -20 -20 -30 -50 -11 90 35 -33 -12 52 4 49 15 -4 67 27 45 -51 15 47 29 -38 -61 -1 24 -33 12 43 2 5 39 5 -39 -57 9 25 35 -40 -20 -49 -58 -51 10 -24 40 70 50 -48 -47 -70 42 -51 -15 74 -18 -29 -48 -44 23 -21 34 -12 42 24 8 26 41 19 -45 22 -46 -57 -3 -22 -21 -30 15 20 -35 -32
47 40 -63 34 -25 -36 8 -54 27 -20 -13 -20 20 -18 -24 39 2 46 -20 53 -56 -33 30 -49 -61 37 -74 29 14 -55 27 55 -33 28 29 -40 40 -52 58 -39 -1 38 -8 -30 13 -57 -27 15 14 12 27 42 -26 -36 -38 33 -23 -39 44 21 -40 -16 -46 40 57 -54 29 53 65 32 -35 35 52 26 19 27 -1 -3 48 -2 25 53 -49 19 57 46 -35 -43 -15 52 -41 -62 -1 -39 27 39 -30 17 -44 -52 -56 -10 56 -39 15 -58 -36 54 -38 1 51 -63 -38 -61 -35 40 55 51 27 4 54 -21 -47 20 -52 13 54 66 51 -10 17 -60 46 -46 -27 7 51 58 -5 -42 10 24 -11 -30 25 -51 -36 -17 22 28 44 -14 49 27 20 -30 25 18 6 -51 -59 1 25 -50 3 -18 72 -32 -4 55 12 -27 -26 46 -40 63 -49 -24 12 28 49 -22 27 -6 -41 -20 62 -54 44 48 54 24 22 -13 44 63 -28 0 17 -48 -43 -38 -17 1 36 -3 -66 31 -42 -46 45 58 -19 56 48 -10 -44 8 -48 63 -21 40 -4 52 -61 34 24 56 38 -52 -28 32 9 61 20 8 -11 8 -19 64 22 0 -40 39 14 -66 22 22 0 -8 42 -50 -32 35 33 -45
17 -2 -56 9 -50 -59 22 -6 5 -23 -58 -50 -35 55 -54 51 -48 -6 46 35 -49 32 -8 -63 26 26 42 -17 46 46 12 25 51 -2 37 44 23 -13 48 33 -29 -63 30 53 -10 40 -41 57 -41 -53 25 -30 52 64 54 61 -5 62 5 -24 25 -47 9 44 9 -1 19 -24 38 -29 44 -1 5 -59 31 -57 50 19 55 35 -42 -37 -6 -22 55 -30 -29 54 -12 62 -63 -32 -8 46 45 67 -16 3 31 -39 4 -46 -36 52 24 -32 41 55 37 10 32 29 37 17 -11 -33 47 -23 7 -12 49 28 -53 48 39 11 24 23 -30 24 -47 34 -24 -66 -9 28 -28 21 55 52 46 23 41 31 24 -30 -27 9 -60 -74 -14 -49 -25 66 -11 -51 36 17 -1 -46 -50 -40 -56 -37 -61 -55 -5 7 14 -40 41 -35 36 -5 0 39 -4 -27 36 -60 -27 -64 13 -15 -18 15 47 41 -36 56 -14 49 -27 -40 -5 -28 52 66 29 -11 10 55 -44 -50 -68 6 32 -47 -44 24 7 39 -14 27 45 62 -14 -32 -3 56 10 31 6 -19 51 -3 -44 20 4 64 31 10 55 35 -17 -55 -48 33 21 -30 -18 62 6 -27 46 9 11 -47 -10 -47 12 55 -17 -19 -18 -1
15 45 -18 -33 46 34 -60 51 34 -7 -45 -18 49 2 -40 -63 36 53 -62 59 11 12 -44 -52 44 -15 -32 6 -63 -58 -61 -52 13 -59 33 -61 1 -9 15 -30 32 -8 -18 -14 57 43 46 -54 39 -47 -29 -26 -24 -23 -34 33 50 -1 3 -49 51 2 -62 -32 0 -14 -31 -60 -61 11 21 -45 -7 -33 10 51 -56 -20 68 -22 -17 -21 -6 9 48 61 -18 47 46 -3 49 2 -25 -2 -6 -22 -68 -29 -34 42 48 -26 49 -37 38 65 59 -40 60 19 -26 8 10 57 27 -30 45 40 -35 1 -22 -30 -24 -9 60 -39 -19 -11 48 34 -46 7 42 -5 -55 -42 -29 45 53 -33 6 -46 -23 14 -1 63 -67 5 44 36 60 12 26 -20 -51 6 -26 -49 58 -3 2 -40 -51 -43 5 25 40 50 -6 -5 52 23 10 28 11 -55 23 26 44 -30 -3 -28 -70 31 34 -88 -39 -22 4 37 43 35 52 -24 18 -59 38 -57 -34 32 31 5 26 37 6 -11 7 55 26 19 -4 -22 -2 30 -39 -17 -56 64 44 -43 -59 -49 -3 -20 -16 34 68 -62 13 -6 -44 33 -32 -53 -64 61 52 36 -29 -50 -25 11 -13 -44 -18 -35 40 42 68 -15 3 -42 36 -48 30 -30
-30 -42 44 21 -55 19 27 -28 23 -5 -22 25 57 52 -50 -12 -8 -30 44 24 41 -51 23 36 4 -12 -14 4 -5 12 -22 -68 -7 -58 -24 -19 4 41 0 57 47 22 6 46 25 -3 29 43 -11 6 -36 25 -52 27 41 -57 -24 31 -30 -30 37 41 -48 15 10 23 -69 -32 61 17 26 -42 -36 -33 16 16 11 -13 47 25 52 50 61 -42 -37 -35 -38 -17 -12 -56 -53 55 57 -25 10 70 -6 30 21 -14 -15 -52 -31 -50 -29 45 32 46 14 -27 -57 54 -19 10 2 -21 16 -1 4 30 -14 37 -43 17 22 48 -79 -55 18 -20 1 -60 -29 -61 -46 -10 37 18 -37 21 14 -14 -52 -5 -11 66 -17 -48 46 -29 -6 -30 -31 49 51 -13 -60 -13 -55 33 -61 -18 -4 63 -8 -66 34 -26 10 46 17 1 -52 38 -23 -8 60 -24 30 26 21 -61 -28 -36 -58 49 22 -48 54 47 28 41 -64 47 -56 -4 69 -46 -42 -20 -58 20 4 -44 28 -38 -35 42 10 -48 -9 5 47 -60 33 49 -32 -9 -22 -17 -51 38 18 -49 9 32 57 56 -69 -38 -20 42 -60 -4 4 24 36 -20 -48 5 27 -44 39 48 -51 -18 46 2 62 2 58 44 46 10 37 3
-42 8 -15 -51 -55 39 -44 -11 11 15 -26 -13 60 52 6 -6 55 -1 -63 23 43 -2 63 -4 12 -49 -31 -25 -31 64 -52 52 63 14 -27 10 -3 -8 5 -51 33 37 42 -62 17 20 -33 46 -25 43 -18 -30 33 39 -38 -32 -34 -52 -4 -51 -25 -45 -54 40 -51 -30 -37 11 15 28 -29 -14 -56 -9 -40 -4 1 -50 -71 -35 53 2 -38 -41 56 -56 28 65 -39 -47 34 -21 -27 -38 -33 27 7 -7 -54 -61 10 -19 -64 -42 0 -43 -29 -18 1 -24 25 -59 -35 10 38 18 -24 -48 -45 64 49 -60 -57 32 -59 48 21 22 4 19 26 -52 -2 53 4 -57 31 67 42 -45 -9 -21 -14 61 64 27 -24 62 26 -40 -50 -14 -22 3 47 -51 10 -38 -12 35 -53 -18 30 -22 -56 17 60 55 31 -25 -22 57 -55 -8 -63 60 38 59 47 -19 -28 8 -40 -5 -48 -48 44 48 -49 31 49 59 14 -17 36 7 59 29 33 -55 -23 -33 28 50 -14 -17 -10 -47 26 -9 -57 -7 -12 4 15 10 -62 47 -30 -19 55 55 -33 11 39 16 -1 51 61 -51 29 43 64 -44 -34 -57 36 41 15 59 18 20 -51 -6 -15 26 12 24 47 -52 25 37 36 -3 -25 -11
-64 -31 -6 58 52 39 -78 25 -15 -28 28 -23 -7 5 14 47 -14 -29 30 65 9 14 -14 -5 12 0 41 50 -39 -55 -22 -52 46 -21 -41 56 -5 28 4 28 -38 -56 34 -29 51 -58 -18 -18 -58 -60 18 -27 -19 8 -41 -23 -25 37 -33 -1 -30 -29 51 31 27 -1 30 -19 17 25 5 6 45 29 52 -19 -65 -50 -7 39 55 -49 7 -35 22 66 -13 11 4 28 33 -61 -57 28 7 -58 -88 13 -12 10 50 -19 -63 41 -19 -20 6 -36 30 -67 50 53 20 -30 31 45 26 14 -37 19 0 -41 -56 -21 -63 26 49 -48 -56 50 -42 -43 -41 -10 -10 8 1 -29 -16 11 -56 -12 26 -32 33 -58 -2 -2 -4 -30 24 20 -59 -18 13 -1 -26 44 60 -6 -51 2 -63 -62 8 25 -43 -7 -20 -49 2 32 -53 -15 -5 -48 4 -50 -50 22 -32 24 36 -6 -39 15 -23 47 49 -14 -49 -64 9 -56 13 -24 -23 -59 -64 1 9 49 -15 14 -11 -38 21 -58 -44 -8 -67 56 -29 44 7 -36 -45 11 -72 -43 58 45 -104 27 31 -8 -40 -77 50 56 -60 -53 20 27 0 10 59 -51 -34 -55 42 15 6 -6 -35 27 -9 -42 -41 -4 11 -3 -17 -68 -24 -32
-25 -49 -49 36 27 -52 9 12 36 63 25 54 -16 -64 -27 -35 51 4 -41 21 4 3 -43 -51 29 -45 -7 3 27 -28 -43 28 -57 55 -65 -1 -51 32 16 42 -21 -69 -33 27 54 -18 16 -59 8 -50 61 -36 -42 30 -33 54 32 -12 -58 -29 -39 -26 -39 -45 11 29 -26 18 23 -39 -33 -57 20 -47 -47 46 38 -16 33 -44 28 -3 -55 -62 -19 -51 58 49 -73 -27 20 -13 -23 -38 -29 19 27 -31 -4 -74 13 -56 -1 6 44 31 -43 32 45 9 50 -5 -31 -64 -36 -1 -9 22 -9 39 -52 44 -53 42 55 48 17 -12 6 34 14 -26 -36 26 -23 -3 -46 1 -4 -55 58 -62 6 21 -4 -32 -68 -44 56 22 56 52 -51 -54 20 -55 25 -10 10 33 -71 15 4 36 6 52 -15 32 13 -9 -63 27 11 -48 37 11 -46 35 20 -57 51 50 -70 -45 53 37 -20 14 12 58 -59 -38 -24 31 -4 -17 51 -37 11 1 27 65 52 35 -64 -11 -46 26 12 -12 -34 -27 -42 5 -7 -41 3 -8 -28 -14 -9 -33 -63 2 -2 52 33 12 -18 68 -5 -15 -54 -45 38 47 -44 -40 11 47 14 51 42 16 1 8 34 -26 -34 27 -46 51 12 51 26 3
29 21 -17 -43 46 -41 54 27 -6 44 -12 22 32 41 -11 3 -20 38 42 -28 -35 57 25 -52 -42 -72 -27 65 -39 26 56 20 51 27 2 -88 -63 50 -18 -30 1 5 -63 -29 -71 -40 32 -94 51 42 60 -38 30 -63 -3 -54 -10 64 3 19 -7 -1 -9 -20 -24 -56 -42 30 -28 -11 1 50 -9 61 14 -49 -39 -50 46 45 54 -26 44 49 -46 16 60 -78 6 41 -34 -3 -10 -24 -47 53 -56 -82 -22 -65 -13 -13 57 27 61 35 22 21 -23 8 -24 -70 -14 69 -50 -18 -1 -12 -52 -35 -38 -32 18 29 42 -17 -2 12 -75 29 -62 8 18 45 39 -27 -52 22 -59 -28 -63 59 -4 21 -19 36 -79 47 -36 -64 54 -8 6 -13 -55 -13 41 52 -51 -46 -58 51 -50 -15 -50 -48 52 32 6 5 21 -60 -28 -1 -82 15 -66 -12 -31 -36 -6 20 1 33 38 11 -66 -5 -24 -46 1 47 1 36 -41 -81 23 53 -27 30 -9 37 -19 24 33 32 13 24 56 23 -63 -76 57 -47 -8 6 1 -43 36 7 -32 3 -11 49 -16 -8 -34 10 9 -30 -53 -76 -49 -4 60 26 15 -63 6 20 39 -32 45 -40 4 -18 -59 20 42 -54 -20 -49 63 14 -50 -20
-45 30 19 -3 -22 -31 20 35 -29 14 -58 12 -21 35 91 -71 49 -69 28 -47 35 -22 53 52 18 6 -75 62 -49 -16 -26 -64 47 6 30 -71 -58 -1 -54 20 46 47 -7 13 2 -16 -66 -43 -11 11 36 45 10 85 102 -9 34 -7 -9 -19 -54 -7 34 26 -12 -14 -86 36 -63 12 -8 -8 -44 -44 -13 55 32 -36 32 -46 2 -5 -54 -4 -28 -31 19 -35 7 57 -9 -55 -52 95 -38 94 95 -24 20 32 78 -49 -15 -19 -60 61 -42 -6 40 -12 80 -54 5 12 -36 -31 -14 12 -30 -65 -7 106 18 36 -58 -55 58 -3 -43 8 45 -46 -34 42 -31 -69 64 -20 -1 -16 -33 -59 49 25 -21 24 69 -61 5 -43 0 -6 -12 -1 8 3 -23 -43 35 -18 -2 42 24 59 0 -58 -55 -14 -37 -35 44 -3 -21 79 41 3 -53 80 -41 43 13 95 -29 -60 -16 -49 -41 20 -80 -58 54 24 -48 57 -10 -2 -29 54 18 -69 10 -54 18 99 -4 10 -49 65 -71 22 39 31 -68 -6 -72 -1 61 10 50 -52 -63 29 22 3 -12 27 -58 -39 22 89 58 -58 -44 -13 -46 -12 -56 -24 -5 23 27 47 -50 39 -22 14 -54 24 23 -81 45 -41 -28 0 -39 43
-57 -12 -1 3 -4 47 -48 -25 47 64 43 -2 -47 1 23 -13 29 15 -72 -7 -66 -7 26 -43 -17 -10 -53 48 -58 -44 -18 47 40 8 -59 -58 34 -44 -41 29 -5 -40 -8 61 44 39 -19 63 6 -23 1 -20 -22 -12 -42 29 -16 -32 -65 -61 -62 5 11 -6 -68 25 6 16 29 -6 -18 -22 49 -57 -30 21 48 -42 18 -11 -49 -21 48 26 40 -30 2 -60 -4 -64 -47 29 43 -50 46 -54 21 -37 33 6 -11 9 -36 -54 35 -55 25 -7 18 23 -15 -37 -11 24 2 -51 4 29 -67 2 27 21 16 7 3 40 0 1 62 -56 22 31 38 -5 25 -26 30 48 47 17 -60 17 29 5 -2 56 -11 -29 23 38 23 -30 -28 27 -20 38 27 40 26 -44 13 34 12 -48 48 -31 10 -48 10 32 -49 26 20 -6 63 1 -26 -24 -52 -32 1 7 35 5 -56 40 -64 8 -64 58 -6 -21 -63 29 29 39 -42 -61 2 16 55 8 -14 -22 -13 -59 32 -47 12 -29 16 59 52 -61 22 -23 1 58 62 23 51 56 35 52 0 -52 47 44 15 -24 42 -57 -53 -1 50 -33 19 11 48 13 54 -48 -22 -9 45 34 -48 19 16 43 17 -66 53 -56 -5 -34
-3 -9 45 22 12 -29 -13 -46 -7 -16 -4 -15 12 15 37 -8 62 55 25 30 30 26 -43 2 33 9 44 -36 -59 -22 -27 -67 -11 -29 41 -13 8 47 45 -51 47 -58 35 56 44 3 63 -42 27 23 -6 -62 65 -17 17 54 -68 -2 -14 49 -23 23 -29 39 43 -13 26 -71 -21 32 35 33 50 -42 -42 -32 55 7 24 -40 -85 -51 2 -67 47 19 2 -47 -52 61 -32 4 1 -44 14 -25 -44 38 -72 -24 -12 7 13 33 -58 9 -8 -26 -2 -2 61 -56 -43 -33 -19 -46 18 58 -58 19 -44 26 29 23 24 10 -18 -47 -30 -66 65 -39 45 39 8 -9 35 14 36 -53 28 -9 -67 14 15 -41 -6 -4 24 21 -9 35 -7 -34 -10 1 -35 48 40 -26 -15 33 -39 -69 -44 -53 11 17 -20 43 39 1 -22 58 49 -38 -11 38 -41 35 -13 -16 35 -69 -11 89 38 -49 49 74 33 -31 -11 51 -53 -8 -47 -65 35 -23 -30 -19 47 -16 42 50 -39 12 4 -79 -48 -38 -44 26 37 55 -38 29 -18 61 -68 41 21 -5 46 9 41 -44 19 -60 25 -36 4 -21 19 42 3 -36 8 53 -8 -14 28 41 -45 -27 -26 -68 34 -24 -55 18 29 -58 -41 -3
42 27 51 21 -33 -43 47 25 10 -49 -29 36 -50 -49 0 -30 -17 2 59 55 55 36 -40 42 5 -60 50 23 39 13 -7 11 54 52 -12 -45 -56 -40 39 -58 -57 -10 26 58 18 -5 -11 -25 44 2 -6 47 27 48 -28 13 -28 -68 -53 53 -27 -31 23 25 6 45 44 -54 52 2 -14 51 21 45 21 -2 58 -28 -36 28 -23 -50 -49 11 -27 -44 -30 11 3 35 53 12 39 49 -61 34 -58 -11 38 -25 -52 13 40 -29 -1 12 31 -40 54 50 22 -19 -6 -28 -40 8 -73 29 37 -12 4 3 -40 15 -60 -34 -56 -9 26 -34 33 -34 56 16 -37 25 56 -36 -39 52 47 -60 18 -18 28 41 27 49 11 -30 -44 -17 17 -33 5 1 -39 -35 35 -1 48 56 14 18 -40 -16 3 -26 -13 -53 42 4 39 -52 -42 -1 46 44 5 47 56 20 27 -52 53 -41 36 13 -59 -6 24 -2 -19 -45 -19 34 -70 -49 -43 -35 -44 44 65 5 -18 51 -43 62 71 -4 -53 -19 -1 40 46 -37 19 57 -15 -51 -52 68 -42 9 -11 52 3 46 -44 -39 46 41 46 32 19 -51 -6 -15 29 64 64 3 64 -67 -13 -27 -60 67 21 32 4 -49 -43 -12 41 -68
-52 54 41 23 -7 53 -59 -50 -1 13 25 -8 10 21 -17 27 38 -5 20 64 40 -37 -33 -3 22 22 -11 42 58 -50 74 33 -15 21 -45 31 -14 6 29 -8 45 -48 0 -17 -32 -48 53 36 30 51 2 -44 -57 -55 63 -45 14 6 -22 -63 15 70 -20 33 9 66 47 -64 55 -56 21 31 24 32 41 38 4 -58 -57 -38 21 -45 25 -4 37 0 14 -22 -26 46 19 -64 -35 -54 -3 -17 40 -34 -38 -52 30 -30 51 49 -19 37 -36 -53 43 -50 58 -42 16 -18 -49 55 4 26 -12 -43 21 53 -58 70 19 19 -2 68 -11 -5 26 -12 -29 21 64 -53 52 -33 -55 52 22 37 -31 24 46 -33 45 -23 -46 -6 -37 68 24 -51 -33 -26 2 -31 14 -55 -34 62 -1 -42 -60 6 63 51 58 17 -57 4 -41 1 -25 3 1 8 -8 45 52 -45 -17 47 -7 -48 -18 50 19 -28 -17 38 -41 3 -28 7 -32 -18 0 -54 17 -65 33 -54 10 39 -38 1 39 -54 52 35 -23 -31 7 33 -50 6 -42 -17 -44 -46 3 -42 48 18 51 -43 46 55 -32 -54 -43 7 -21 40 61 25 23 15 52 17 -20 -31 -13 46 32 10 -5 -38 -26 45 17 -46 0 13
-42 -47 -56 -44 17 -12 11 -65 57 -52 27 17 -16 8 -14 38 -29 -17 6 57 -19 56 -21 -28 65 -49 42 -15 26 -68 -5 42 -19 -22 33 -31 -58 -4 21 -37 -8 30 -32 -6 -63 4 8 7 -18 -38 30 5 -58 12 34 -63 23 -59 22 15 -18 -15 -3 -63 -39 -15 -11 47 -22 -37 -45 -8 -42 56 -35 31 27 5 23 -17 -51 -49 -55 -20 39 47 -33 -34 -2 9 -11 -44 13 2 -48 20 -16 41 40 35 16 -1 37 -6 38 9 6 -63 4 -42 -22 -21 -22 -30 5 -60 10 -74 31 -72 -56 -50 59 22 55 47 50 -54 35 -31 -45 -9 45 -14 21 -33 26 34 -49 -45 -32 26 -43 -22 -26 53 58 30 22 60 -44 13 -18 -45 -8 9 -32 59 49 -16 3 31 -5 -42 -71 -7 -14 6 43 -42 -23 20 29 30 0 52 42 -67 -1 49 -14 61 39 49 53 -70 13 -68 -24 48 -43 -52 39 -22 33 20 -55 -39 -3 -54 -62 4 -56 -22 55 -27 27 30 -7 -12 51 23 -56 -9 3 -31 -61 -58 -59 6 47 -15 40 -25 -35 17 47 40 47 40 11 -49 1 -40 -25 -30 9 20 -61 -38 -35 51 17 26 -59 -31 25 16 66 -40 43 23 6 -4 21 -68
14 3 -27 -67 -45 14 -67 34 -22 0 -12 51 31 23 -4 -42 -5 40 -56 54 22 52 -18 51 44 -34 -30 48 -67 -5 -42 54 -28 -46 2 -40 14 3 11 24 -43 -3 -30 -46 52 -17 38 54 37 50 5 40 58 -1 11 -19 -42 -43 -28 43 -32 32 45 -37 36 16 -55 -38 -48 -10 27 -4 -12 -36 28 -24 -35 -28 42 50 84 -44 -47 4 39 -67 -54 38 46 19 -37 -64 46 -41 14 -24 -11 -67 91 39 -14 -19 4 -28 10 33 37 16 60 -8 2 -33 31 -10 44 -22 7 -47 56 -28 14 -2 79 -10 -45 58 7 50 -61 56 -46 -65 -6 -27 28 25 -44 57 36 -17 -50 13 -32 40 -40 -26 42 7 -16 -23 16 39 -56 -49 60 -39 10 -50 47 3 -23 14 22 3 -46 -26 -43 -9 -18 -37 66 -52 -39 -10 -56 -61 55 -19 -27 47 34 101 -4 19 -52 46 41 -53 17 22 6 31 6 -78 -18 -74 -9 -19 -59 -58 -20 -60 -2 -3 16 -26 41 -15 -17 58 -3 -7 0 -25 40 -35 -62 -18 32 48 -21 -38 45 -9 30 -62 45 14 -14 64 -92 20 16 -42 -48 -31 -20 28 -67 -20 -23 -38 -21 2 69 -7 -27 26 52 -54 -8 8 38 59 -43 43
30 -17 -42 -2 34 20 -39 -62 22 -32 5 44 -16 -36 56 -59 0 -30 -14 75 27 -58 -45 19 27 -17 -30 -38 -47 -56 -27 16 -38 21 -39 -10 1 -20 -33 22 -42 49 -34 -4 54 -2 -54 -40 36 -7 16 -58 -24 43 -30 46 -43 -68 -65 -51 -1 28 4 42 -64 50 63 -31 -6 40 44 14 -63 -34 -24 58 25 -43 23 53 -19 -23 -33 -55 -71 52 -20 23 45 35 33 -23 40 -98 -71 -28 -54 43 21 46 -16 31 -10 53 10 -34 21 -1 50 -64 -66 60 4 -46 24 -41 3 12 4 41 -16 42 -56 52 45 -64 36 31 -75 -70 48 -55 -49 -9 20 -38 -71 35 -15 10 44 5 47 0 -27 53 8 26 -61 17 -45 57 -42 -62 22 48 2 -23 -17 -5 -16 9 44 -21 52 31 -16 38 -62 -4 -51 -19 33 -31 -41 34 57 -34 -9 -62 -33 -2 28 -41 -29 -34 43 -58 -31 48 -11 23 0 56 -33 23 35 -4 -44 26 27 58 -7 30 -45 0 43 37 7 20 28 -35 -19 -53 -52 -51 51 2 -11 -59 -20 -7 -47 -28 35 -13 5 40 37 -15 7 22 44 54 40 14 -69 -26 45 27 -66 -9 -1 -3 -29 42 -34 -52 -53 -13 20 34 -61 -72 38 -15
32 -7 -45 -9 -28 9 26 26 15 -38 -68 -35 37 5 12 6 46 -49 26 -7 -63 -45 -9 -49 -47 -28 23 31 56 -20 -13 -54 -27 58 51 -43 18 63 -22 10 -24 25 -49 -1 6 6 5 49 -8 -14 -13 -49 41 -23 54 60 -32 -28 36 -55 -65 61 59 50 -40 27 40 -18 46 0 41 28 -15 64 26 -61 -38 53 66 17 43 31 11 5 50 68 -17 0 25 55 61 -51 -62 26 39 36 44 3 30 25 4 23 -63 35 -57 -48 -58 29 48 -18 48 -51 -3 -64 -30 42 -35 -31 5 -19 4 14 -43 -18 43 12 58 5 -68 -28 -53 38 -32 30 -3 54 34 -7 33 37 48 -37 -38 30 5 -19 -4 23 -67 -53 -7 0 -49 -26 -41 51 13 -43 -62 40 38 -46 19 45 0 -9 -26 19 -22 46 37 -59 -22 52 -24 -15 55 -54 30 44 -31 35 22 8 -56 20 6 15 27 48 -19 -49 3 -44 56 19 3 -33 36 -28 -31 -47 4 -34 51 -56 23 -49 52 24 9 5 25 17 8 34 64 15 6 3 0 -12 -35 -40 -48 -8 8 33 54 51 -36 -19 -67 39 4 5 -58 -28 -63 43 -35 7 55 36 35 -47 -44 60 -34 16 -57 -67 29 10 54 -34
-42 -41 7 -35 -63 6 22 -15 55 11 11 -34 35 -13 47 37 -45 25 -62 -20 38 -2 -5 35 -54 1 27 -46 4 -20 63 -51 36 -39 -52 27 36 -22 40 -16 45 10 -2 -30 47 27 -31 6 -27 45 -18 28 -22 -14 3 49 35 -23 4 8 -14 -61 -42 59 -54 -61 -24 35 -48 -6 3 -2 -6 -26 -12 3 -6 -8 -30 23 17 -64 53 57 -9 48 41 -21 20 53 -57 64 -5 21 -22 16 -34 -9 54 49 59 49 -9 -5 9 -41 -21 51 59 29 -41 54 48 -3 -21 -25 -20 -50 -60 25 36 -59 -16 -27 49 15 -42 15 -55 -10 -32 16 -31 15 62 3 36 32 -1 55 51 44 21 -18 -59 10 29 26 8 16 -64 -44 25 -4 43 -54 -23 26 4 56 26 -37 -48 -59 20 7 -64 57 -11 -51 -25 18 -58 -46 10 -44 -39 -61 -51 25 47 14 -39 24 54 60 -42 2 15 -9 -39 -26 -8 59 20 -35 -12 63 -21 -53 22 -59 30 -46 63 -19 21 21 -9 7 -40 -49 -42 14 50 -44 40 8 -60 -6 50 -46 26 47 -25 14 -7 -30 7 -54 38 15 9 47 42 -54 -37 -5 29 -44 -45 -7 10 -22 63 1 -14 -19 -14 -52 49 -18 -5 61 44 21
33 5 -31 -54 3 57 -20 9 -50 -17 56 -55 -14 41 63 -11 18 52 -1 -30 -40 17 -41 -24 18 2 5 -31 40 21 38 -14 -43 5 -30 -21 37 -30 57 -15 -5 22 -30 -7 -25 -11 -8 -16 17 -22 -19 -52 -34 -8 71 47 37 22 32 -26 -27 30 -26 43 1 24 -7 -66 0 21 -47 32 29 -63 32 57 -16 -51 -52 -23 54 29 30 42 29 -2 -24 53 -29 -50 -47 -31 48 -51 51 -23 40 4 -6 46 -9 21 35 -8 -41 17 64 67 -53 -20 1 -63 -13 -9 -39 -9 -19 -7 -41 -20 30 -20 68 -65 -17 -37 -19 -16 42 10 47 59 30 7 38 62 24 29 -35 -24 -11 16 -10 -2 32 -46 21 1 -60 -34 35 21 -24 -7 10 19 38 -22 -7 -8 3 33 -28 -85 2 -66 -19 -4 39 46 -24 -11 7 94 -12 -10 -67 22 14 -47 42 -45 -26 5 24 -64 1 -64 -62 -55 -6 -30 56 54 -49 14 -2 7 12 -29 39 33 -51 0 -56 -27 2 37 -63 24 -56 -36 12 -63 -20 6 33 25 2 8 2 41 4 -56 -3 3 -3 43 38 31 62 -32 56 -57 -26 53 -9 62 -2 45 49 -23 47 56 -27 6 43 9 2 -54 -57 6 1 -17 -18 28
-32 -7 -59 -51 -38 -55 24 0 54 -60 37 17 -47 -30 -43 50 -41 -49 -42 -5 21 -20 -41 54 -16 18 19 -29 -64 -4 -27 -7 -61 40 -53 29 -48 -43 13 -44 58 -19 -10 -54 -30 -64 36 -23 -26 -46 33 30 35 12 2 -57 -41 26 6 -37 36 -23 -42 42 4 -56 -38 7 -43 -55 -27 -14 -33 -25 32 -36 -43 -60 33 -28 19 -23 -59 63 51 -12 -25 -28 12 -17 40 -37 -66 0 -43 5 24 -17 18 19 45 11 0 21 -11 -3 -1 14 -34 -27 64 4 41 30 -7 -41 -17 31 -49 28 -44 46 -44 26 2 -24 -54 12 -69 20 -34 1 28 51 22 29 -76 66 2 -62 32 -15 -11 -28 15 45 1 -68 -25 -48 64 41 7 60 -28 -67 18 53 53 -15 -65 -47 28 49 -36 -15 31 45 62 34 35 -21 11 75 -7 43 -53 32 -9 49 -7 15 -26 36 52 10 37 -18 54 -2 19 -14 -21 12 18 -14 0 2 -54 4 21 21 -42 -19 40 52 -59 -4 -12 47 -63 -41 -2 6 -1 -49 -63 -5 -46 66 -44 -26 39 -10 -2 -17 -14 58 9 7 7 -1 30 38 4 -20 23 -5 -64 29 46 -76 -42 -37 36 49 52 16 -43 -17 31 23 20 -9 -21 -44
16 -56 -52 38 -36 36 21 14 -43 8 41 0 -55 42 -29 -12 20 -31 5 26 32 -29 -38 -49 -7 -73 -60 -25 45 -61 -17 40 13 -45 -28 -1 -2 8 -3 29 16 28 27 16 -11 -63 16 -35 -47 3 -51 34 19 25 -6 -16 12 48 -73 0 23 23 27 33 -51 -64 62 54 -37 25 9 24 -63 -60 -41 21 14 45 -28 -24 -2 2 53 -9 -21 48 -60 -59 -29 29 13 0 47 59 -32 -10 -23 49 -12 -69 -71 -38 -13 -3 -95 -37 -56 72 51 31 25 46 -38 58 -15 -37 61 -68 16 6 37 -49 -58 -27 -74 -33 30 4 45 47 46 -63 30 -63 43 -55 22 26 -11 -22 -43 2 -49 39 -41 25 -2 43 41 -51 -54 -25 -40 -28 28 46 47 -25 -20 -62 -50 -27 39 29 -11 36 13 47 -52 -51 -2 1 -10 -10 -7 -17 17 -65 2 -40 -63 -55 -62 21 42 -49 -33 -63 -51 -24 44 -22 -11 25 -24 42 43 -60 -11 38 21 0 16 -64 -29 -7 46 42 -63 -15 0 -40 -43 -18 -51 -43 -17 -35 -5 -5 -37 45 19 25 50 -24 69 -34 -59 -2 -29 8 1 26 46 -29 -52 -59 -22 -48 -28 36 -9 32 5 -66 -25 -24 -44 -50 -54 -35 18 -37 -41 -23
-49 8 -38 -20 -27 -63 -29 -27 -33 4 -41 54 -42 -29 -42 10 -41 -44 -3 51 -20 53 -38 4 48 4 -34 47 -45 -20 16 55 -20 -24 69 -10 -29 74 44 -14 -81 41 -52 42 -4 -72 10 28 29 33 -13 -8 38 -56 14 -12 -2 55 39 -16 -23 -26 64 45 -8 30 6 -67 -8 -9 62 -55 -20 36 9 62 -2 -21 41 -29 -54 -17 55 -26 -62 77 -25 55 43 18 42 -23 -25 -45 34 54 68 40 23 24 -14 54 59 57 -6 44 -36 -23 -15 8 67 -7 10 2 4 -5 -41 20 -1 -7 41 3 -14 42 13 0 4 18 26 -12 -58 -67 -1 -10 -12 17 -22 -20 -42 -31 -25 -5 24 -36 36 26 -46 -50 -50 -51 -11 15 13 -61 31 42 21 -57 -52 25 -3 -46 31 46 -58 2 -22 46 -13 -15 -41 37 -13 -32 42 34 -43 49 -65 -55 -52 -29 -48 -4 -1 -44 64 23 -40 37 22 -67 -13 -9 -60 -53 57 -39 48 -75 -31 -66 42 1 -24 -24 18 -39 31 -16 7 -53 49 26 -66 24 28 52 -14 -55 39 -47 15 -33 25 -26 36 -47 -32 8 11 -62 -38 37 -52 -18 -14 -57 -47 30 23 7 -64 -36 20 11 17 -4 -26 -74 11 18 -29 11 -6 -26
54 -52 35 26 30 -17 -28 39 36 -13 -30 -34 -16 -14 -33 -35 -3 13 48 -34 10 -60 49 58 -36 -32 -49 -45 41 -17 -51 -28 42 -46 -37 -60 -20 46 10 42 -17 -46 -10 -66 44 10 -23 51 59 -15 -12 32 15 -11 -75 22 48 -40 -45 -6 -54 1 -14 54 -68 23 -58 -16 4 64 4 -2 -29 -3 35 0 13 -14 -36 40 53 25 24 8 -34 -66 -40 49 45 -29 36 47 19 16 -5 -29 33 14 56 28 60 -47 25 63 -68 -15 36 -41 17 10 -4 54 -27 45 62 -58 18 45 2 -71 41 -62 39 -37 47 39 39 -62 65 -16 15 45 -6 -47 49 17 -6 25 -22 37 -20 -26 -26 31 -35 -31 52 33 5 39 -28 5 58 -27 63 -29 41 33 -37 -48 -41 14 0 26 41 -51 49 -24 -48 18 -8 -7 13 34 26 40 20 31 7 -31 -12 -12 -22 -36 2 38 -60 -36 -23 -56 23 -22 6 -44 -41 44 -1 -2 -21 -24 53 37 53 -36 15 -27 21 16 15 -43 -53 16 22 -45 -16 -19 -74 26 -34 -17 -10 -65 49 68 32 -69 23 -5 56 -5 35 -7 -63 -64 -16 24 -35 2 -63 -42 -29 -7 -25 -40 39 -54 -25 54 -8 -11 65 -82 22 9 -53 -25
-44 78 34 19 68 27 36 -53 18 -4 31 -3 49 -2 64 -37 -12 -20 -20 -19 -7 -45 -21 26 -23 7 -59 70 -28 -12 -20 -56 18 -19 -50 45 -60 -63 -18 -33 1 -40 21 2 -15 17 -71 -22 -60 16 20 -29 63 17 82 -42 36 5 32 14 -53 30 -23 53 24 8 33 20 -43 -58 -23 -54 40 12 58 -62 20 -39 61 41 72 38 18 -49 -14 25 -5 17 -38 10 -29 -4 -42 21 25 -2 52 -86 67 34 -38 -49 -34 -24 -58 91 -37 -14 -11 -58 48 -12 -67 45 -40 16 58 41 -64 -46 39 121 31 -32 -52 32 -33 5 -14 -29 -30 -70 -6 28 -25 -18 -63 67 13 6 6 -46 -42 92 -18 -55 16 -29 -39 -16 -2 1 40 -52 -66 -5 -20 22 52 -60 -31 -62 63 -56 -77 22 -45 28 26 -19 87 -57 -25 111 -44 -15 54 -37 -66 -11 -60 74 31 -54 29 -7 -1 -18 -18 -21 52 18 24 29 25 -40 -33 39 38 -12 -19 9 25 34 46 -16 -58 -7 -2 -9 -38 108 49 -44 -29 -62 -61 -34 47 -58 -54 50 36 16 -54 -43 -18 6 21 65 53 33 -4 12 -2 4 46 -15 23 -34 56 37 -29 -15 16 -38 -47 -59 -33 -63 -44 27 29 28 62 -70
-11 -41 44 8 -37 -10 -24 43 -49 37 -40 24 -16 -38 8 -31 19 -42 41 -33 -30 -9 -16 56 35 13 31 -8 22 39 47 -24 -70 19 23 48 28 -8 12 -44 15 10 45 10 36 -27 -13 71 50 -41 35 -65 58 -30 -47 -36 28 -42 27 -25 -22 12 -32 56 -27 6 17 -1 26 -41 5 50 -72 -61 21 32 -62 -63 1 -40 3 49 32 -58 -54 31 24 -6 -45 60 67 -3 -3 22 34 -6 -38 -1 -43 -45 41 9 26 -23 -42 54 1 -7 15 -31 52 -30 -69 -18 30 -39 3 6 -6 12 31 3 42 -14 23 36 33 44 -8 -19 48 21 4 16 66 -40 18 -15 -14 -3 -35 0 -12 -4 -22 45 -70 31 46 43 -29 44 -8 4 45 17 51 -68 -37 -53 -66 -38 -76 -3 -36 -14 -36 -23 -65 38 -11 -22 -28 -52 28 -16 -63 -72 -11 0 28 -11 -37 54 33 29 40 -27 0 76 -69 10 -45 9 -4 -45 -50 -7 -2 41 -64 51 35 -29 -47 -80 87 -67 -22 -66 43 11 55 15 63 38 -13 -43 36 -7 -24 14 -74 -7 -8 -22 77 -70 31 -7 -28 -32 -12 36 -67 -15 -11 -62 29 -48 14 54 -11 -36 -45 -10 2 -2 -29 -62 -58 -25 -40 -12 -29 -31
52 -53 -19 -33 -7 -15 64 -24 47 -12 24 21 -52 -35 -11 34 8 47 -9 3 -1 13 -20 -12 22 -49 -43 -37 56 -29 11 54 -7 -42 8 26 5 65 41 30 25 -10 11 56 -33 -57 -33 39 -14 -27 -17 -11 42 40 -40 52 49 31 14 44 -32 55 18 73 14 25 55 52 59 25 -32 -11 40 53 6 1 -11 -51 48 4 -56 21 3 -37 -63 10 17 -3 56 46 30 27 15 -59 22 52 8 6 -49 28 -4 7 -2 -29 52 -31 -52 -42 -51 30 -22 -33 -36 -11 -51 4 35 -3 -19 -56 -7 -51 -17 65 -24 53 -25 17 -19 17 46 -1 20 36 37 41 9 -9 -66 11 -18 53 -25 45 34 37 -57 38 43 -5 -36 17 32 -60 -21 -44 9 -62 -55 -9 -55 -48 24 15 19 -11 -31 -11 -40 -24 -47 9 -41 -21 62 17 27 -39 -6 28 13 -14 31 -39 -39 47 48 -23 50 40 18 -36 -41 23 -9 43 42 -47 -59 42 -39 48 -48 -66 -24 -68 13 -40 -10 -19 -3 -53 44 -2 22 45 -18 -38 -1 9 -28 -39 -37 6 -59 -35 2 30 33 27 -64 12 57 -46 6 46 -2 43 -22 27 35 25 20 -6 -21 20 30 -23 24 56 0 64 0 -24 -30 35
40 44 47 -34 -24 4 5 43 -65 -1 -50 -12 -5 -10 62 32 -27 19 -69 -51 -54 -57 -19 -28 -30 2 39 16 -12 -51 -30 25 -30 15 58 -41 57 -53 -9 39 6 17 55 55 8 -9 57 -63 -20 -59 41 -42 -14 16 11 1 -10 25 44 -27 33 35 9 56 -34 -46 -14 -16 -8 40 -43 -41 -67 53 42 -4 49 -50 -23 -35 14 -7 -33 38 32 39 26 48 32 5 6 16 45 11 -37 68 -33 -33 -4 -55 -60 -33 6 41 6 37 19 3 -13 31 -31 -18 -17 25 62 19 -37 8 -25 -51 -11 1 -26 -59 26 6 -34 39 -16 -54 -31 51 6 18 47 -54 17 -11 40 1 13 56 -41 -15 21 6 33 29 -62 -23 42 -2 36 -23 -28 8 18 -24 1 -22 26 -72 -59 1 7 23 61 -21 39 -3 -11 -59 -45 -38 -35 -53 4 -43 20 0 33 47 -12 -44 -38 35 49 -9 -44 30 -54 48 51 -32 18 -34 -32 -48 52 -17 -15 52 44 38 -52 59 -26 -47 -56 -4 -29 15 33 -60 -54 -3 -15 -60 43 -54 -19 65 18 -35 40 48 -28 49 -43 25 17 -7 40 0 21 -33 22 65 -2 27 -60 -7 38 -66 40 25 -5 65 24 1 3 8 -31 -40 27 -39
-55 15 -3 12 26 9 -69 -62 -25 -23 -10 8 21 -72 5 -49 -3 51 -44 44 48 61 -53 63 5 42 -9 45 -39 30 23 -6 40 -21 62 15 -4 -24 -52 -45 -69 28 -34 -29 -35 -41 -59 -48 -59 27 9 -50 -24 -42 32 -8 -33 -3 2 12 34 -12 14 29 28 13 -39 58 7 37 -20 -37 -32 -39 61 -18 -20 9 29 -18 -53 -25 12 -55 61 39 0 40 55 -29 10 19 5 -5 -22 -25 -32 -2 -11 -13 9 0 9 -14 -9 21 -48 32 61 60 -31 -12 -34 -34 -50 -55 53 55 45 -31 -23 -24 61 4 -11 -39 -24 23 29 27 32 15 -40 -11 -30 -76 4 37 24 -53 4 46 -50 6 16 1 -48 -37 21 -43 -5 -23 -59 2 -34 -50 30 -43 -67 45 23 57 -32 -54 -47 2 20 36 48 -46 -9 25 -55 27 -20 40 -52 -61 45 -21 32 -59 50 -6 42 31 -26 2 24 -45 -20 -1 42 5 64 -39 62 37 -11 -47 -25 4 13 -36 8 -27 64 53 -20 -51 -63 40 20 -35 57 29 -47 -54 85 22 58 -35 -45 -19 -20 -1 54 2 43 49 21 -39 49 -12 64 46 -19 -18 30 -68 14 -22 -28 -5 38 -44 -18 -41 52 -52 -2 12 47 56 -52 -35
-9 -47 -2 55 -4 5 -49 -37 -41 7 -58 32 51 -5 42 -14 50 -32 5 -60 52 38 -13 -17 -23 57 -56 -53 -16 -12 -18 -10 -30 -30 -30 8 -26 -50 -37 -45 -17 -38 37 0 32 37 -12 -44 42 -63 66 20 4 -56 46 -15 -60 -54 20 22 22 -2 7 -56 -22 -28 -44 -4 45 47 54 -33 -42 -14 -57 64 -44 24 22 -36 6 18 -50 19 51 27 45 38 27 5 48 -13 14 -59 11 2 -17 -55 32 36 30 -16 -40 -18 34 49 36 -36 -72 13 0 -11 38 -60 40 57 19 -46 -49 -21 52 56 32 -63 23 -51 -30 -34 1 -47 45 -29 -13 12 -42 51 39 -29 -57 -9 -62 -25 46 -19 -62 50 53 -39 -53 -21 67 8 -27 -25 45 -4 43 10 8 -23 -63 -4 44 58 12 -62 -32 -23 -33 14 22 52 14 34 -11 -27 23 6 -30 -13 -43 56 8 19 3 -51 20 -37 53 1 -56 19 -47 3 36 36 -16 29 30 -42 -63 -57 -75 38 43 -33 5 26 61 22 -14 -55 22 -5 12 17 -13 43 -16 54 49 24 -48 -9 -35 67 8 -53 30 -4 -8 -28 25 14 25 32 10 -25 -43 6 -12 56 -42 -2 30 1 11 -36 -78 14 38 58 14 -35 41 36
40 54 16 -4 -46 28 -1 -40 -9 -56 7 -8 1 6 59 -6 63 7 -14 27 40 -31 17 -62 52 41 33 -61 -15 -21 15 -75 43 -68 32 18 30 57 -57 54 -4 17 53 15 29 -36 -26 44 43 50 -12 -51 -63 -15 -22 24 18 -68 -61 18 37 -7 4 39 -5 2 -24 -35 -50 38 -58 -28 -21 -35 -31 51 32 6 -44 59 -2 -39 49 13 -60 54 -28 31 -32 -5 10 -57 7 -25 26 33 -56 22 22 -38 9 -24 -8 20 5 21 -36 26 40 14 -40 12 -56 -34 -55 15 0 52 5 -33 7 39 35 -45 -5 27 -19 60 -56 -33 22 54 -1 -8 41 -4 8 -4 0 -69 6 -52 28 28 49 12 -24 -7 -15 11 15 -9 7 -15 -65 -10 -45 27 53 -19 26 -15 -30 -70 2 -3 -49 -20 -19 51 27 -28 -60 -30 -12 20 14 -59 24 40 -20 -23 -32 -45 -65 -35 -15 -37 22 27 -57 30 -72 -47 14 -57 -34 51 44 -30 -39 5 -67 -25 -38 9 -62 -64 52 38 2 -76 26 -15 13 59 10 24 -54 5 50 -36 -30 18 -48 -42 -33 -32 -51 35 45 -12 -22 34 -41 0 -40 -56 55 55 34 -40 53 22 -35 -61 -43 -7 33 9 32 9 -5 12 40 7
-12 35 53 -46 -38 12 17 -1 -24 30 -28 -4 -38 -26 45 43 5 50 -63 38 -51 -69 -48 -51 -47 1 -47 7 35 50 34 4 -43 -10 52 56 -41 64 70 38 30 -55 -54 29 67 -21 -62 9 34 38 -25 25 -50 36 11 -55 -55 42 -40 -28 12 25 11 -17 22 -56 35 49 53 60 49 -54 -53 56 -5 -38 62 -24 66 16 45 58 -6 30 -57 -45 28 -34 -56 -39 -46 -63 -12 -56 42 -49 3 -45 57 8 1 28 19 -56 18 22 -39 -54 58 35 -26 35 -41 -59 -50 -39 21 21 -40 -35 -44 -53 -26 28 33 56 -50 14 32 -8 -46 -53 13 3 44 -29 -46 40 -6 6 -55 -25 -6 -40 21 -56 14 36 -45 38 -17 -24 13 -50 -63 -33 -41 -9 -9 27 -49 48 31 -46 14 47 26 24 -52 42 21 -1 31 68 -52 7 14 -34 4 -4 6 61 4 -51 -28 -7 61 -37 37 42 -30 32 49 -54 7 33 58 27 54 -67 54 40 -55 -18 42 23 -2 62 -21 25 -23 31 -69 7 -43 32 -26 23 -8 12 8 -37 -13 -6 38 -48 -21 8 15 61 34 16 -49 -43 -11 55 -28 18 38 -26 -53 48 66 -67 -27 -13 1 9 -30 16 -21 24 -2 21 36 8
-56 -16 37 53 -40 -48 47 -6 -39 -33 31 -36 54 24 -35 23 25 -55 9 28 -57 -29 -15 49 10 64 -57 -38 10 52 5 -43 -34 -69 37 22 -57 -22 -30 2 60 -46 8 -1 -31 -72 -9 -45 -52 -65 -48 56 63 -13 18 4 -5 -68 -56 25 -29 -51 -49 61 60 31 -62 -60 7 42 -44 -52 -20 7 30 55 38 30 -29 72 -30 37 -36 63 50 28 -37 -16 -37 59 50 -50 -36 51 -49 -3 -68 -38 -47 28 -37 43 -21 59 19 28 13 -4 -31 -6 50 0 63 54 -21 -30 33 -43 -17 -14 -50 -26 8 45 -8 13 9 -48 31 -14 28 -13 -12 53 -40 19 -1 58 24 -50 51 -53 59 56 -23 -54 -23 -75 -57 46 69 -8 22 -56 -66 -40 50 -24 19 22 -35 -11 -21 49 -18 9 -19 -33 -64 -67 -6 35 57 42 23 -34 45 -67 47 62 28 47 56 32 -5 31 -48 9 1 -6 54 -45 53 -59 -73 46 -49 56 -66 21 -47 26 -50 14 49 -42 32 23 5 56 -50 15 47 42 37 -54 -58 -15 -3 6 -30 51 23 -48 35 -29 -16 -8 -36 -14 -57 5 48 -4 -4 -13 22 3 -52 -24 -6 33 -20 10 54 -63 47 30 53 -19 32 -39 -57 33 -19 -10
-58 -38 72 -43 -13 -1 -13 -44 -25 18 22 36 -25 52 -22 -25 -3 19 -29 -31 50 -34 -63 0 -55 -66 -45 53 -25 -8 -45 -68 6 48 54 -24 -63 60 -69 28 -61 -33 -48 -35 29 -32 -18 -66 -71 -32 -64 43 -3 -45 5 -61 23 -7 -30 38 58 -5 42 -18 -34 32 13 -39 42 45 21 18 26 -20 42 -9 34 -25 56 45 -45 31 -62 -54 -67 -12 67 -16 10 57 -36 3 5 20 37 13 -19 -47 -4 -17 64 -38 22 58 -67 62 33 10 -7 8 -2 8 -36 -11 -76 5 -35 0 -37 -51 -88 4 33 -43 -7 44 -35 43 -54 -25 -31 -65 45 2 -52 22 -20 -26 -7 6 -7 6 51 6 -65 29 -20 -43 -9 34 -12 17 -31 -52 30 -55 1 -42 -53 -28 -11 16 -5 53 -13 27 25 -53 -18 -42 57 -57 -24 19 28 -19 -29 15 -63 -73 -61 55 4 16 12 36 -6 -34 -56 -55 64 53 -69 -30 21 12 17 -13 -40 -16 8 21 6 24 33 43 -41 -49 46 59 -60 -55 17 57 22 34 -54 44 0 -50 11 -17 -54 -38 -81 -42 -22 21 -65 13 39 -22 21 27 -25 10 -40 31 45 -53 -35 27 23 19 15 -57 36 43 -54 -65 -34 -5 -2 16 51 -77
46 -41 -58 -35 -14 -29 10 -50 -52 48 -57 -37 36 -50 -7 -45 -45 13 46 19 43 -61 61 -51 30 -25 -57 35 -63 1 58 3 -26 34 -18 33 -27 -13 13 -73 -17 18 -68 17 59 -50 -25 65 14 -4 -67 -50 -12 -32 67 -28 -7 -86 0 -27 -29 -31 33 28 47 42 33 28 14 22 56 43 -38 -34 -42 -29 -4 -43 -44 12 41 9 45 -25 -25 10 -39 28 29 9 -21 -56 9 -30 -56 -27 -38 -45 3 2 4 13 25 -41 57 48 -20 37 10 -31 0 -60 -45 37 -4 22 -35 -57 6 -61 -54 -33 55 -9 -54 -68 61 -51 -62 -31 -67 -16 50 33 -4 -48 -8 12 -18 -45 -51 34 24 5 -5 17 43 10 -48 -53 7 56 19 0 -15 -42 -42 41 19 38 3 50 -43 -13 -32 16 37 -33 -55 25 -10 -15 -79 -25 -40 -65 14 23 -79 1 -4 54 18 -81 -54 4 49 -27 9 55 32 -38 -22 -22 -26 -33 -20 -19 2 24 15 60 -20 -2 17 -20 -56 31 -50 10 -9 67 39 -33 45 23 29 -16 -84 -6 -19 -58 39 19 -12 7 -42 2 -67 -41 66 32 6 -19 49 3 -32 21 -63 -44 -50 -55 18 -45 -20 46 52 5 39 14 14 -43 -42 -10 -62 29
44 18 12 49 -53 8 17 -16 -21 24 5 -48 -14 3 11 20 -34 35 -69 45 20 -14 79 -26 9 -26 50 -56 56 34 40 53 6 27 16 22 5 60 36 -40 51 12 12 -22 2 -38 -17 27 24 -23 58 25 37 47 -61 -14 -45 -18 35 -68 32 19 15 -5 12 -50 14 42 -16 34 -37 -36 -61 -53 10 25 -41 27 70 -70 30 -34 -8 -46 -29 86 -32 -56 -9 37 -3 -26 -20 -47 -61 -23 42 68 -57 -62 -43 -28 43 -52 -18 -68 24 70 -2 52 -1 42 -2 2 31 -35 25 -47 -3 41 -23 -15 -7 12 -56 47 26 38 31 -11 -60 -54 40 -18 27 -58 -22 3 58 -52 -41 -49 46 44 -38 -53 -42 17 40 -4 33 -23 -62 -44 -42 -32 8 -46 9 3 -2 13 -6 35 31 -54 -30 13 42 -50 -35 -13 23 -47 12 60 -35 58 -41 13 -73 3 17 -2 13 22 -35 9 -1 20 -23 -13 -45 -55 -12 -5 -33 33 -10 -54 48 54 67 32 22 13 62 -49 -18 31 -70 -71 5 50 16 -62 -21 60 -13 15 -24 67 -2 52 -39 15 7 -76 -43 15 19 44 -27 -22 -54 56 -11 -24 -8 45 -63 -23 -22 -55 -13 -22 -34 23 -13 52 -64 -13 9 18 -29 -29
-45 16 -19 -38 -43 15 12 -18 -39 -36 4 -35 36 51 -13 -38 12 -54 54 -41 43 62 38 -34 38 61 -13 65 59 42 -41 -15 -63 24 -28 53 2 35 53 -22 -22 6 46 25 48 5 20 3 -30 20 34 4 34 1 9 8 -47 59 20 37 -31 -15 35 20 -25 -3 49 28 -13 63 31 -11 4 -50 62 -31 -41 -33 -33 13 34 -55 16 59 -34 -14 10 -23 6 47 -42 25 -61 77 -34 20 3 -42 35 17 84 18 -25 17 -12 -10 -30 -32 49 -29 -32 46 -50 -17 56 33 -30 11 21 -51 27 -4 57 1 -55 -36 -22 -30 -49 56 19 27 5 45 12 -25 41 -5 -15 -50 -13 -48 -40 -12 -2 52 14 49 51 -5 5 6 -44 12 26 42 35 56 58 -34 63 -12 8 -64 -6 -25 -11 -23 -32 -28 0 32 21 -41 27 42 60 -23 48 -36 -37 74 66 -15 -20 38 -46 -44 -8 -27 -24 -7 35 22 26 -42 25 54 62 5 -14 -22 24 -11 59 3 8 -31 54 6 4 41 -19 35 -1 -19 6 59 79 38 -55 -21 -6 -35 22 -1 -23 -38 -51 50 -28 50 24 24 54 -4 59 12 29 38 -37 -54 -45 62 -42 -52 -17 -43 2 3 56 -28 -57 -60 -52 -2
12 -25 -26 -46 18 -4 7 -47 -32 29 49 -58 13 -15 15 -49 1 -25 -13 -35 -45 15 10 10 -50 43 48 -30 0 44 -22 39 61 -64 -50 8 10 44 23 -7 2 -62 36 -2 31 -30 31 67 -4 31 29 -48 15 -8 17 21 11 35 -36 -15 55 39 -33 70 16 50 -53 21 -41 -64 58 -50 -14 -43 -27 -23 -57 42 16 26 7 8 53 -42 3 -22 -43 5 -4 7 5 8 19 36 21 -13 16 26 -14 14 -35 -63 22 -40 -10 54 -46 -64 -35 13 -34 17 60 -41 -54 -10 -48 8 -46 40 15 -16 -14 -57 -63 43 -59 -23 -72 46 -10 -62 -10 -48 49 -23 -5 54 -16 6 8 -51 13 62 -49 45 -42 20 79 39 48 -10 -30 21 -35 25 -13 -36 39 11 35 8 -39 -43 31 1 -55 -31 -31 33 5 57 30 -6 -40 -14 -6 47 38 -17 51 6 -21 47 -56 -44 18 21 63 -17 7 -21 -5 -16 -27 -3 14 -44 46 36 -42 -37 37 37 46 34 -35 58 -47 30 -46 25 -48 46 -36 11 25 -6 -35 -8 -61 43 -40 64 21 48 47 -13 -3 21 -15 20 27 16 19 -18 -18 38 15 -2 35 7 50 -37 -42 -26 -24 41 -18 -6 5 16 4 -30 43 -38
11 50 11 -41 -72 1 -69 -87 -58 -41 -31 -22 3 2 41 -36 -7 -44 0 23 28 -52 4 -23 -58 61 -4 67 -26 -41 40 30 -43 -29 16 53 -1 21 -69 13 -12 -65 15 -8 -38 18 29 -34 64 -48 9 6 51 14 30 10 29 -84 40 -46 -19 48 10 -58 -54 -15 3 -70 -27 31 -78 10 -16 52 -49 -5 28 -12 -31 -11 45 12 -32 15 -36 -67 56 1 -56 21 -29 -70 -37 42 19 -24 -30 -38 83 -50 73 61 -7 -54 14 17 63 8 -44 -30 32 -62 -7 66 -53 53 -22 -4 18 30 -57 5 -10 -30 47 64 -23 26 -24 -17 -28 40 -3 8 -3 -39 36 33 -8 40 -61 64 64 12 -49 13 63 45 8 31 -24 -55 -30 11 5 -10 -15 -59 -40 28 64 -8 61 33 29 -53 -66 3 -52 -33 65 0 12 60 12 -60 -20 42 43 -24 32 26 30 33 -42 -36 -1 34 -67 15 52 -59 0 8 32 -49 -5 42 48 -36 39 -16 -33 21 -53 29 -31 -17 -36 -7 46 20 -14 57 45 -21 -37 36 -58 -52 -53 -42 24 1 53 42 -48 0 10 -14 -22 31 32 9 -62 -19 42 16 -18 46 42 -71 0 -32 86 43 -35 33 62 -36 0 -12 -35 -58 35 -10
5 -46 16 -2 -38 47 61 -36 -26 -44 18 71 -9 -63 8 -18 23 -46 15 13 38 -9 28 30 -12 -2 5 -41 -41 -55 -55 56 -2 30 -13 -40 36 -26 21 -3 -23 17 41 -5 57 18 45 43 -6 -22 -9 55 -65 6 68 -19 -51 29 -64 -13 -63 -30 -8 29 2 48 43 24 57 10 -47 -65 -54 61 -1 -48 -6 -13 28 36 -12 10 -11 57 -45 -14 27 58 11 -47 -8 -36 10 59 35 -22 -12 48 -20 8 47 -36 -47 27 -64 57 -41 -22 13 66 4 26 38 44 -32 14 -55 -31 -22 12 -17 -28 -41 -37 -52 38 29 44 -65 59 56 48 -20 65 -15 -46 -31 -3 43 -5 13 -30 54 23 -6 52 -53 4 -9 -43 -42 33 29 29 -10 -15 3 -9 10 30 -30 -20 -15 41 31 -26 -38 -34 47 2 51 -52 -70 -33 40 -34 56 57 -39 -36 3 59 0 12 -10 -44 67 -55 -17 44 29 57 16 51 27 43 35 -19 40 -62 48 -21 29 -35 54 -37 -9 -19 -57 55 49 49 -31 46 63 12 -36 -31 4 -32 49 -61 -17 8 -37 2 -47 47 -4 20 12 -56 30 55 -63 -28 1 -13 47 11 -31 53 27 -13 25 36 -13 -21 64 17 -35 -17 -45 4 15 -32
1 -53 41 29 -49 -28 -56 -63 -43 -49 22 -68 -7 18 -43 -52 -28 1 -36 -15 -29 -68 -12 -53 -49 34 12 29 24 -47 40 -2 51 50 -43 3 33 -55 18 56 1 31 37 36 45 39 48 -18 0 -41 -17 -10 -11 -50 -1 -25 -51 12 1 -39 -26 -54 -25 -53 -44 -28 76 -9 23 -13 -14 13 12 -18 51 2 -76 2 83 -26 33 -27 -4 -2 52 66 -38 11 34 -3 -42 51 6 -5 25 -27 1 -32 55 -41 -82 48 -19 -18 22 39 34 -24 -63 -7 51 -18 -67 25 57 -58 4 -12 1 57 -64 -25 -34 -30 -42 50 20 24 -59 -19 23 -58 -20 20 -12 -4 39 28 -15 40 -61 33 -35 18 -65 -55 -25 -48 16 60 42 -28 -19 36 57 41 -5 41 -31 30 11 -72 7 -19 -39 -7 9 -44 10 39 -23 67 -61 -60 76 -37 -57 -22 40 -2 -38 19 -8 20 -41 -58 -53 -5 -59 53 9 36 -27 43 18 -65 -61 -39 54 -64 26 30 67 27 14 17 24 -55 -47 -11 0 28 10 30 -10 -48 -38 -57 -66 20 19 -7 -24 -90 -38 4 0 -28 -49 -2 -48 52 56 -22 0 4 61 59 -56 -47 32 -38 61 40 22 -6 19 -56 -26 -35 -29 42 58 -61 0 -15
36 3 64 -38 -31 -17 51 -56 -10 41 13 1 -1 -16 -29 -25 60 -44 56 -22 57 12 -58 -52 -12 0 -35 48 11 24 -10 -46 33 29 -50 55 4 -39 -43 31 11 43 -31 -39 12 37 -7 -1 56 21 53 19 -20 -19 43 -9 41 49 10 47 -47 7 -12 15 30 16 -1 22 -7 46 -60 16 47 37 -30 -28 -62 6 -28 -34 -56 15 25 29 -1 -12 48 -13 -31 15 41 41 -22 -53 25 -58 -23 53 12 17 32 55 5 -10 -48 -55 42 -29 -61 -67 23 -23 62 -33 -63 -34 51 60 -16 -17 -12 38 -45 -38 -14 41 61 -60 -53 -63 20 18 38 -31 28 -59 -3 -45 20 -52 53 -45 59 62 9 34 38 46 23 54 -54 36 -54 -37 -34 -20 15 -47 7 -11 -61 26 -22 -6 -11 -31 -12 -29 -58 24 49 0 -9 -20 7 34 38 33 48 -9 -3 16 -55 -51 6 -58 55 -56 -23 -1 15 4 59 9 -19 35 51 51 55 34 -61 28 44 48 -38 -56 -18 -57 -18 -2 -51 42 40 -12 27 -15 10 -5 44 42 -14 16 -29 16 12 -56 -42 64 27 -28 -54 -2 -60 -22 38 41 45 -25 14 10 2 6 -35 -13 -47 1 -48 30 8 -8 -58 4 35 31 33 -14
-23 49 -80 -44 6 23 -14 43 -23 45 -45 37 7 -3 -50 -3 -13 -17 -59 -23 -23 41 26 -53 -2 -7 52 48 16 48 -12 14 -22 -53 15 43 5 -28 45 -33 -32 48 54 -65 58 -66 4 40 6 -7 51 -65 9 40 0 17 17 -39 11 58 9 -52 -58 35 23 65 49 -45 0 68 -44 -50 -59 5 44 -15 5 31 26 -23 24 -46 -11 11 55 -26 34 -20 50 -37 5 53 -10 25 -8 45 -52 -9 -21 -19 -32 13 -68 16 -2 -30 -66 5 -10 -9 -52 -31 -41 28 -15 -21 -37 2 46 31 29 36 14 55 -31 -67 -67 -10 -32 50 48 26 28 -17 -63 -52 27 -51 -54 -10 22 -55 -50 53 23 -46 -18 -25 -29 23 -65 59 -1 -62 29 47 -17 4 39 -28 -60 34 -47 32 -19 -28 46 -59 -25 -57 -44 -51 42 69 64 25 -70 16 22 -7 13 21 -11 -56 4 1 -43 36 -35 54 -22 19 -32 -51 -60 2 -49 -26 50 9 53 -45 -64 43 -4 51 46 -44 53 -29 -65 -48 -51 -32 38 34 2 -19 27 51 -43 -46 18 -47 32 56 54 -10 -33 3 47 -52 27 2 32 -53 -75 61 51 -6 31 44 -2 -25 31 -62 -25 -52 -49 -10 31 26 4 -24 22 42
39 -50 -70 2 -56 63 45 -13 7 22 1 27 27 -62 -17 5 -35 -43 -49 50 9 23 -43 -60 30 -44 -43 -30 -57 -73 20 -65 14 28 -15 -31 -25 23 41 5 -15 -72 -8 -16 42 -9 -1 0 12 -22 19 -64 -31 4 -34 11 40 -44 6 17 -60 31 -44 -11 -39 20 -56 -58 20 17 -81 -35 52 9 -51 -24 2 26 21 11 -33 43 68 18 33 -38 -28 -52 -19 -46 -27 -37 25 66 -61 -39 29 -51 -42 21 -43 -35 -61 -68 43 47 -23 35 -51 -3 -4 2 -34 39 -13 -12 -66 5 46 51 -72 -31 81 37 -29 35 57 -15 14 -32 -28 -61 10 -21 22 -1 23 70 36 -49 46 -53 -10 45 36 27 -3 -82 -64 -33 -29 20 -55 -65 -63 -13 -40 -5 48 -1 8 42 24 -45 -15 53 43 38 -62 63 36 41 -43 15 14 22 -41 60 -28 28 49 67 12 -47 -49 -51 30 -33 9 51 54 47 55 31 6 -44 12 2 -34 -1 19 3 1 43 -15 -26 40 -54 13 -20 -52 -2 -64 48 -63 -60 42 -4 -9 -4 61 -43 11 -28 -13 39 36 -70 32 25 26 26 -59 33 15 10 33 -67 -15 -38 41 -54 -74 59 -69 -31 -1 45 -13 61 -46 30 52 -2 -61 32
-9 25 5 -35 1 53 39 -1 -55 23 -19 -16 -14 43 59 50 -23 -39 -54 17 -34 -12 -62 -9 -7 41 -38 -4 -22 -57 17 24 7 -52 -50 -37 29 59 -32 -54 -58 -28 12 31 22 51 8 57 6 -46 62 33 63 30 22 12 43 31 4 6 57 8 26 70 -33 26 -15 58 10 -57 21 0 -12 6 27 -47 -45 -48 6 44 -33 -62 -38 -28 37 -25 -26 -25 30 -21 37 4 -23 -28 -2 26 16 -21 -25 42 24 18 24 -11 11 -12 -36 30 -7 -9 5 -8 -12 8 0 -36 -66 43 -5 -15 -68 -35 -17 -33 -50 48 6 57 -50 -31 -59 -30 2 31 -53 -18 14 2 36 -40 -19 3 -43 14 -1 -43 -15 -27 -36 18 25 51 3 15 -16 -27 -35 7 36 49 -38 61 30 57 -5 56 43 -52 32 28 -54 -51 -15 22 -38 -60 35 34 24 18 -18 -44 -58 -37 36 16 61 54 -63 -29 9 -52 12 -62 -36 21 12 -35 18 -44 -1 -59 -16 -42 -62 -5 -29 55 -42 36 -55 10 3 45 41 -57 -35 -19 43 -28 61 8 11 17 -50 51 -10 24 0 -4 24 -40 60 -50 27 -42 46 5 -11 70 34 -10 -25 39 -40 26 10 3 -22 63 46 -50 49 -18 55 -25
-44 18 -21 -41 1 -37 -27 5 22 -4 26 37 50 36 64 52 2 -7 -47 -19 3 -8 30 44 25 -30 48 58 -44 6 -30 -69 -57 31 13 -13 41 39 13 -7 -54 17 10 66 -11 -55 -44 -69 -57 -7 63 4 13 -25 -20 4 13 40 -70 52 -28 42 -58 12 -28 -57 -4 33 15 7 52 22 0 11 51 -17 9 36 -30 6 -5 -38 -7 5 25 -32 -9 -48 67 10 -43 -29 -44 -66 39 20 23 53 45 19 -58 -18 36 -25 -42 -35 53 3 15 -37 -19 -54 -24 38 56 -44 -55 -54 -59 -88 27 -53 43 -41 25 43 -60 -48 68 38 -27 -57 13 -67 -70 -30 26 -47 -47 -13 37 32 -38 -56 15 -47 -14 -5 -11 -4 35 14 23 -63 5 44 -43 60 -47 -9 6 36 -27 -46 28 37 2 -29 35 -1 -23 30 -14 7 53 17 46 61 17 -63 -8 36 2 71 49 -23 34 52 27 -26 -68 -26 -35 -2 -31 -4 39 52 22 7 53 60 -43 15 -2 15 23 20 -45 65 -1 -43 37 18 -66 -36 -45 12 -49 5 -35 47 28 26 -44 19 30 24 42 49 1 28 -4 -4 47 -22 -22 -56 -54 66 -12 39 16 22 -61 -6 14 38 -46 -37 -38 -9 48 -29 44 -37
52 -3 62 10 34 -57 -56 -17 0 56 -20 60 -5 50 35 -31 -64 16 -50 42 18 -15 56 13 4 -8 -41 -30 -21 -42 40 -36 13 -3 -45 27 38 13 -46 45 51 62 -62 -24 3 -57 -26 -32 48 36 3 58 -40 -24 42 7 -31 19 -16 62 33 21 15 51 42 -49 6 -21 37 -11 -21 53 58 20 -47 59 46 15 58 -57 42 -33 2 33 -60 -27 12 59 -4 15 58 58 -32 -45 35 58 -21 -17 -4 -32 -50 24 -52 -17 3 -47 -58 -8 -1 59 19 59 59 16 -18 -41 -52 31 -32 -45 -15 -46 55 52 4 -62 -42 -17 36 48 2 -9 -26 53 53 -56 8 57 -2 -5 -61 -24 -45 16 -42 -11 49 -14 10 60 -41 -8 -12 -21 -29 26 12 -7 -9 57 54 -27 -25 -41 38 -52 -15 33 30 49 35 -14 41 -14 -6 -62 58 -23 0 3 -10 -23 31 23 23 -11 46 -27 -25 6 -7 -38 -35 63 -35 35 -47 63 17 -52 11 -24 61 25 3 -62 11 -24 -26 -28 60 40 23 -31 -41 -43 58 18 -53 -33 59 -38 -64 -33 39 43 -18 -31 -8 10 17 54 -46 -14 28 -58 20 10 -29 -39 49 25 45 -2 45 -54 7 26 -37 -6 -7 -12 37 57 -61 -39
39 -2 27 8 -18 -44 31 22 49 66 20 22 -50 -30 62 40 55 70 48 -42 -9 -4 -7 -50 -33 -48 -60 -52 -22 -34 -60 20 -58 -70 -8 -56 27 18 54 -14 22 54 -50 -16 2 -49 -25 -59 68 -17 6 -52 58 53 48 -64 1 -1 -53 -18 42 -43 -31 8 -36 37 -51 -31 -21 -64 31 19 53 -37 -36 -48 -9 1 -18 39 17 -44 -46 13 9 13 -35 -72 24 -15 21 33 14 -39 -39 45 34 -55 53 -70 -68 -61 -47 26 -76 -92 -48 35 -11 28 -13 57 48 62 37 -10 -3 -1 -28 -71 -14 -46 -28 30 38 44 56 51 63 -22 -52 15 30 -19 -25 52 73 -7 -62 -5 -25 -30 -2 45 54 -43 -32 7 36 -65 21 -25 14 -52 -62 37 36 -14 -30 -53 2 52 42 34 -13 22 33 -47 -40 -55 31 50 25 13 -32 39 54 -69 -25 -30 -5 -41 17 63 -32 -34 -16 -17 -31 0 -1 -7 -2 -40 -2 -46 -48 -15 9 -33 -67 -34 -61 39 -48 64 22 5 54 -8 21 25 60 10 -3 -37 -73 26 -12 18 35 -38 -63 -5 -50 -39 -40 -40 -24 -68 17 14 51 -23 22 -50 36 16 8 -62 34 -81 1 -23 4 46 1 -19 -22 23 49 17 22 -60 -52 -5
49 -5 38 23 -7 -61 -65 -18 28 49 -21 28 -20 -71 -4 48 18 46 -34 10 -62 -58 40 44 53 -21 -35 -35 -10 -27 45 51 19 -48 81 -46 -57 95 9 -2 -22 -9 34 28 42 43 -38 63 -75 -53 -41 -40 -30 -27 -19 -23 16 -34 0 -56 -30 -7 93 -1 -69 -51 58 6 29 19 -35 -35 -51 -62 48 85 -41 38 87 -7 0 22 -61 10 -21 62 -54 59 -16 47 76 -40 -18 -32 -39 -47 24 62 -44 -64 -30 41 -15 21 30 57 -36 31 -41 3 -72 -40 45 -53 33 -24 54 1 -53 46 -4 4 -39 -50 1 26 41 -59 52 -21 -26 -65 -28 -44 84 -43 10 -45 30 -19 -46 17 1 38 -36 3 37 13 5 -18 47 46 -58 39 -68 -49 -18 28 17 54 -29 -23 22 26 -40 -44 49 -46 51 -6 -21 49 6 -59 -25 48 -23 46 13 -40 7 -100 4 27 37 67 -34 -28 -33 43 -15 -55 17 52 -62 26 35 -69 -21 -23 42 27 -48 -84 -6 -53 58 -48 14 -18 -37 -69 -66 -38 -10 30 -32 32 -3 35 -35 41 22 50 16 -31 79 5 31 -75 -4 -59 4 -32 12 -16 -27 -16 35 -39 -10 -10 9 16 -8 27 15 -38 30 -17 -21 -70 -3 -28 6 54
-30 -43 -67 -2 19 -29 26 -29 -3 34 -37 -3 1 8 30 31 -36 -36 -5 -20 46 -7 -49 -63 9 -43 40 12 -33 9 23 21 -15 25 -80 -25 -3 -52 -31 -57 23 -2 -32 -31 6 18 -57 26 36 -12 -8 -64 -15 19 68 -26 46 7 -10 -37 -40 -28 -31 61 -52 -44 -85 21 -74 -30 -46 43 -64 20 31 -10 14 -33 3 8 35 33 -10 -11 -34 -23 35 11 45 -17 17 -43 -67 3 45 22 -47 39 15 -66 -33 5 11 -10 19 -43 70 -4 18 22 -36 -43 -4 -34 -34 47 -36 61 -57 -30 -1 19 23 -12 4 32 -1 -26 43 -7 2 -42 -31 79 14 -47 36 27 44 -6 -50 -17 37 8 2 47 20 31 34 25 71 38 -65 46 -67 15 11 1 -71 44 31 -14 28 -67 -21 -25 6 35 -44 -46 20 72 -40 -45 -58 36 -60 -7 -49 42 -6 -7 -26 2 -8 13 19 -37 -23 -79 4 -1 -29 -66 37 -12 9 61 -75 4 -59 39 5 21 -53 30 -41 -27 -44 -34 -22 45 -14 38 2 -38 -41 -87 -4 -10 -63 45 -36 -21 -24 -52 -27 1 -80 -33 14 16 -33 -14 25 -28 41 72 51 -48 23 46 -31 -43 -51 -64 44 8 42 -40 -8 -59 -34 -60 46 3
-40 -18 29 -43 43 -31 -47 16 -13 17 -20 -23 48 31 57 46 -20 -60 -22 12 -5 -46 48 -45 -10 47 -2 67 -26 8 -19 -77 33 -43 5 -64 22 64 -75 -38 -56 35 41 -35 40 23 -13 -46 72 34 63 18 40 26 38 -24 40 31 -62 -63 25 -40 38 -29 -64 53 16 -22 -15 33 0 51 -73 -61 33 74 -17 -38 -9 35 -51 30 19 0 -34 19 -50 21 -4 21 -3 5 -66 -2 -30 -53 56 11 -8 -3 9 -60 13 -44 -72 15 -33 40 -45 -4 52 -33 -71 45 54 -51 -2 -17 -29 -55 29 -32 -27 27 56 -60 13 40 -64 25 44 -50 -11 49 -50 -33 0 37 45 24 -24 -31 -63 51 18 -42 26 7 -66 -22 -22 35 2 39 -39 35 -55 14 40 56 -6 -27 23 -11 51 33 52 -26 -34 9 -25 -55 43 26 -23 -5 31 54 17 -66 -26 -6 6 -2 -24 -8 -50 -59 -33 5 34 18 34 -27 43 39 23 46 56 8 27 8 -6 17 39 -30 5 36 50 38 19 -35 50 -26 49 -55 -6 33 -34 -29 -10 -36 -38 -44 56 -64 -76 -28 28 57 -49 -67 24 -11 34 48 -14 14 -67 40 -51 -33 65 54 -37 -61 0 32 40 35 -3 -11 -43 4 -27 -43
1 -5 51 17 -25 10 -27 -9 59 53 -32 -22 2 -39 27 40 -16 -47 -2 21 -58 -37 -32 16 -62 -54 33 42 -35 -52 -14 -35 57 -50 26 9 -30 -4 -46 45 -33 3 -38 -2 39 -48 50 26 -71 -56 27 -40 41 18 7 -39 40 39 11 -40 33 -13 35 51 17 10 -46 -42 33 44 -37 -22 -16 -36 12 0 9 -55 11 -64 -48 5 -63 16 16 34 61 7 32 44 -49 58 -18 28 42 28 2 -13 -1 -7 -17 49 11 -46 45 53 38 67 8 -29 63 -47 -33 -19 49 -21 -55 -46 -6 -36 -7 -23 -50 47 50 6 -2 -59 4 20 44 18 -45 -15 12 5 -9 -1 40 24 36 37 43 -56 -37 38 -45 -49 -7 -57 21 39 -5 46 -4 15 35 -34 -64 35 -4 32 46 -28 -15 -9 53 -24 -37 46 -48 -56 -5 -51 -23 46 56 -49 -10 14 17 23 38 31 -10 47 -35 -51 40 31 -66 -42 -3 37 -15 28 -59 -5 -21 48 -2 -3 38 -59 45 -31 -10 12 -23 -25 46 -10 34 -47 44 -42 -5 -52 -4 -28 13 44 56 42 -3 -51 59 -36 -42 -33 -36 -32 -58 -17 -12 -44 29 71 10 -17 -51 23 -4 32 19 -68 -42 47 61 -46 50 27 34 -46 30 33
25 -16 -2 62 -37 45 -61 32 13 -50 -50 58 -61 33 47 26 48 31 38 11 -25 4 39 -4 -8 -22 -64 -4 -7 -45 37 13 -41 -15 -37 -67 -13 27 54 -34 -59 43 49 -13 23 44 -29 -17 47 39 4 -34 1 26 43 -28 -41 32 -63 16 20 51 19 -6 9 59 5 -53 7 -49 -30 -1 -57 59 24 -7 -70 27 54 -56 48 -21 2 -52 19 -7 9 -4 48 -56 -27 26 36 20 6 63 -55 -20 34 13 -43 -4 -53 24 -55 -60 50 -45 -11 11 28 -18 51 55 -45 -56 61 -9 -6 -17 -1 32 -36 34 -31 5 -52 -60 6 16 14 8 -45 -50 -19 0 11 -5 -40 13 15 -3 41 59 -12 -19 38 -55 -28 -58 -40 38 -65 -34 7 37 -28 17 38 -41 64 -28 -15 -29 -18 -3 -33 55 -28 29 45 -44 4 -44 -9 53 7 -44 11 -38 36 -55 18 -25 31 -12 27 -27 2 55 -13 7 -37 25 -39 -5 -73 30 9 -7 -31 -5 40 55 -43 8 -43 -21 -24 -43 49 -29 -27 -59 52 32 15 -14 -26 -48 35 -2 -21 46 -41 -7 -3 -27 -70 22 38 -66 57 46 -42 -31 -40 32 13 -68 28 48 15 50 46 -22 -19 13 46 -12 -17 -35 38 13 35 -8
33 -47 10 -5 -49 11 37 -8 41 -5 -37 28 -30 24 -41 -47 40 -27 -37 -15 39 -51 -10 -30 -11 -2 -55 17 -52 -37 19 -45 -3 1 23 6 -49 -36 -2 -47 11 -59 40 44 -22 -46 63 -22 -12 19 1 -16 -27 0 61 -44 38 52 -11 6 -2 55 19 64 -23 15 -48 38 4 40 -41 -31 58 44 26 -28 31 18 -4 51 -56 -60 7 -51 37 25 21 41 -32 20 18 -20 -48 39 15 -11 15 50 -62 23 -45 2 -36 16 14 24 -60 -55 26 14 3 38 18 -26 1 -60 -57 39 -46 -13 -2 -49 61 49 -32 -15 42 61 32 2 -36 51 24 -58 32 46 -63 18 -28 40 35 21 46 -26 49 -35 -28 -63 25 -57 42 39 44 20 -20 -25 26 -22 -61 -35 -58 -24 0 7 -22 -5 -61 1 -11 39 35 -8 58 -63 -11 32 54 -52 -34 -3 -9 -54 -25 28 -31 -10 40 -4 -40 26 5 5 1 -55 24 46 -55 -17 -35 -44 57 -61 -53 26 44 55 -48 38 33 47 -31 -6 -36 -15 45 46 -47 -45 39 -36 -18 23 -33 -11 -7 47 -55 50 61 18 -16 -14 14 -40 45 59 -28 44 -20 -10 -30 13 -33 10 -6 -34 11 3 -37 25 62 -24 12 -13 -33 4
-44 3 -12 -50 -52 -11 4 7 -48 -35 -18 42 -8 -15 39 -56 -3 34 -21 62 -43 2 54 -68 -33 8 -73 32 43 -18 34 -12 13 40 -30 26 7 28 52 4 -22 11 52 14 6 -9 -3 -20 -31 30 4 -34 8 37 -50 -15 48 -7 37 -63 2 14 -61 -13 3 35 30 21 30 43 -12 -19 24 21 -23 1 15 0 26 -10 27 -32 7 42 19 29 7 3 33 -2 27 -49 2 -68 -59 -54 -21 -65 -64 -30 29 -39 67 -74 -31 44 -58 35 8 -33 -61 49 -69 -10 55 31 -54 11 25 -47 34 27 22 47 -43 -18 -43 48 -67 10 51 -54 24 32 54 48 -25 15 58 45 37 48 5 -63 -57 -3 -69 43 -18 -66 41 -53 -23 10 -40 -12 4 -2 9 -17 -40 -49 -15 45 -38 56 -39 41 13 -58 -51 31 24 44 -57 49 -5 -32 53 59 -11 55 -14 -29 42 -39 66 -36 -63 -40 -34 26 31 -2 52 55 33 56 36 57 50 13 20 19 -50 37 3 -15 -31 9 24 61 47 -57 -60 42 47 -33 15 4 38 41 -1 -20 25 44 48 35 -49 47 -12 28 -2 47 -29 -13 55 15 -62 -61 -52 -59 39 0 42 30 -63 47 33 9 11 -21 -5 -50 15 29
-12 -38 44 -61 37 34 45 -75 22 12 24 -69 -7 50 -44 -20 21 -65 17 30 -19 36 -8 46 -76 18 -41 -21 -62 -40 -32 -49 60 -35 8 -19 2 -36 -60 -47 -11 -42 -54 2 17 10 -49 -66 -33 -48 23 -46 34 54 55 -28 23 -66 21 -39 12 24 -21 0 -16 -48 -13 -40 54 48 -60 -58 -42 56 -5 -50 -52 17 7 52 -4 -13 -67 -44 -57 65 18 6 -9 -22 4 -30 -6 73 -38 -52 -52 -22 30 50 -49 28 15 -4 58 -66 -53 -15 26 47 43 -64 0 -25 -81 -9 -24 28 5 34 -37 6 -38 -1 22 -11 -56 35 -13 -79 -62 21 -60 -36 33 -46 -48 43 -70 43 -52 1 7 -61 43 -4 13 -12 18 15 18 30 -20 42 -59 33 17 59 10 27 -5 41 17 40 -28 -17 21 -43 -40 37 -11 0 -48 -5 32 -61 52 15 19 30 -54 -3 26 2 11 -66 7 -61 51 3 45 14 -49 32 -2 -78 -61 15 -6 21 14 -4 48 -1 -61 16 -60 -16 -27 -28 -62 15 17 -59 -49 -13 2 -70 -58 40 -58 20 -9 4 -30 -57 52 -67 29 -50 -55 2 -30 -2 9 29 -63 56 -51 -1 32 -23 -43 -54 -3 36 -43 1 -24 -63 52 54 24 -68 1 -38
-1 -40 18 43 56 64 -42 45 23 -10 15 -38 -41 7 -28 -55 18 -28 -3 29 54 -23 9 -56 -29 21 -7 24 62 59 22 32 40 11 66 -43 -63 69 51 -51 13 0 43 -9 12 25 -47 -33 -47 59 -14 25 -7 -44 6 11 58 26 13 -36 -21 -56 -21 -47 -50 -56 -32 44 -39 44 52 61 -4 -4 20 -42 53 -47 -14 -12 24 41 3 9 24 36 -28 -39 3 29 3 -13 54 5 -16 -40 56 -38 49 15 62 -23 49 52 -16 -3 13 -6 19 63 67 53 -12 49 -19 -36 55 16 37 -38 -30 -46 54 -7 59 37 -60 -49 43 -11 29 -8 16 -27 35 33 23 -60 25 -10 56 4 33 15 -44 -7 28 14 -65 -69 43 -59 49 -43 -1 27 -31 -38 -11 13 38 48 -37 28 -46 42 62 -47 26 -20 -57 54 6 62 21 -5 47 -27 -20 56 49 -48 -13 19 -29 42 -51 45 11 4 -17 62 -19 -15 -46 -69 -40 33 55 -41 -28 -21 65 53 -52 38 22 -43 -40 -32 -22 47 -8 -15 -27 -29 44 -9 -15 25 60 -24 -26 -36 -21 17 33 36 -36 44 4 45 -32 -25 1 -22 19 48 62 -57 -27 -35 -1 33 -37 16 51 -32 -18 14 22 -23 46 9 -1 -11
-24 44 -29 39 45 46 45 -20 -62 -30 -2 -40 -17 53 23 -30 -35 37 -16 -18 -8 -23 22 -11 -38 -47 -55 9 -41 -55 -23 50 64 -46 -56 43 -47 -39 21 -26 -49 -46 -19 -4 -23 -33 -14 53 15 2 -14 -16 -12 -16 -40 5 -16 24 -16 -61 -13 -40 -56 35 14 -35 -16 40 -69 33 21 -28 -11 -50 42 40 -21 5 28 14 -47 43 34 -24 -26 -48 25 -47 6 24 12 -17 -51 -38 -30 4 24 -53 -62 -63 -27 16 24 4 54 28 -7 27 -17 37 -30 -30 43 -33 -41 -15 -52 41 -58 41 -14 -12 43 35 5 -57 -35 6 25 -26 -56 59 40 -4 40 22 -65 -57 24 16 54 -60 61 -9 -49 -26 6 22 -20 12 -6 26 47 -60 26 -14 -13 -30 6 43 -51 13 -28 -36 37 -17 -12 -30 40 28 24 39 -34 -66 -11 -44 -38 -63 -34 46 -4 6 3 -13 -31 -16 -2 1 -32 19 48 -39 -16 -49 -26 25 8 -53 50 57 -3 -33 36 4 50 -60 50 7 23 33 -31 -1 25 21 60 -3 -42 -42 -3 -26 0 -5 -60 -42 10 33 26 -38 -50 30 4 30 -47 58 -32 52 -34 -26 -7 24 40 48 62 -32 19 14 -56 5 -23 -73 -36 -64 -46 -88 5 -55
-40 51 -16 72 -2 -11 -52 35 -43 -17 11 -54 24 4 -14 -42 -35 -35 -54 -50 -53 56 42 -32 -27 -17 7 47 0 34 30 -54 45 -59 32 3 18 -18 56 -46 54 38 -61 24 -19 -75 8 17 -46 -55 -15 -23 21 11 1 32 -17 -4 9 -63 -44 60 8 -31 50 -69 -37 42 22 -20 -21 8 29 -36 -48 37 -22 -8 -20 -56 14 16 5 65 36 -9 8 13 33 25 27 43 13 10 50 -18 32 19 21 18 10 -45 5 -24 -62 56 20 53 -63 -47 30 -4 42 56 -68 -45 51 -8 -52 -22 30 90 5 -33 -72 -57 -32 -8 32 -76 -32 -7 29 -51 4 24 29 -37 -45 -18 11 21 -12 50 45 -5 95 -75 23 5 31 46 -68 -24 77 -16 47 -15 -21 1 3 -10 60 -26 -11 43 -70 -30 -58 49 61 33 -47 91 -16 -26 -24 -7 -16 -36 35 61 -6 34 -68 -67 56 -60 -28 54 63 -15 30 3 -16 19 61 -57 -22 41 -57 -11 -49 59 -8 -32 -40 -4 30 39 15 73 -33 31 -44 -1 -9 -17 -51 -27 47 3 27 -60 -54 -71 -34 2 20 18 -36 26 -47 33 24 -51 -35 -9 -59 -31 0 44 8 13 90 -50 22 46 36 0 -50 -16 37 44 -52 -47
33 -34 -65 -14 18 58 -4 10 -29 0 41 -1 -47 -54 67 42 -27 -21 -69 -23 11 14 -25 35 -64 -43 -50 4 14 -40 36 0 23 0 -53 41 -11 18 -55 47 34 -16 45 19 10 -64 -74 -55 -54 52 6 -48 24 -62 45 -66 -12 38 -64 -7 -11 31 -14 72 -65 -14 -28 30 -8 -6 -7 -28 -52 -47 -22 46 30 50 -29 -35 61 -54 -23 -43 -13 -49 37 -37 46 -66 40 -37 74 -63 -42 44 -57 -19 -24 -34 -61 -20 25 -18 -9 57 48 -3 -86 -3 18 40 -32 -26 54 -7 2 11 -38 -21 -51 -2 40 14 -14 -27 31 46 -5 -75 -52 45 -43 73 44 -48 13 5 32 -8 55 43 -21 -28 26 -46 -58 -6 -23 -24 18 7 12 -40 -44 17 34 -11 27 18 -19 -30 32 -34 -50 36 -50 49 47 2 -13 15 18 9 34 -27 -61 41 -41 -22 50 -30 -14 23 53 -40 -8 46 -32 -41 -20 53 -3 -25 47 35 32 -45 39 50 -45 60 2 -52 49 -25 -21 -41 36 -21 -46 -15 -13 -22 55 35 -20 28 -9 -64 44 34 7 1 14 -1 -45 -12 -47 69 -58 14 11 10 39 10 -41 56 -34 -60 21 49 65 -21 -8 -57 -63 51 -38 -27 -7 15 -30 3 -61 50
42 -31 -9 -49 50 10 -48 -58 -36 -18 -13 41 -59 -51 9 32 59 -6 2 -48 57 42 -14 -7 39 56 -54 -7 6 -4 43 -28 56 -32 -11 7 12 -5 -52 -15 11 -56 -62 -40 40 35 -40 -37 -62 -34 -30 -51 -32 -20 25 -54 26 -51 -56 -11 -2 22 47 -29 2 61 -52 -14 -26 -18 -37 -48 28 32 58 12 -3 -10 -20 42 -54 -57 59 -14 31 61 41 -26 42 -17 -44 50 -47 -37 -33 -54 44 -47 -12 12 40 55 51 30 -4 32 28 69 -55 -3 -13 34 28 35 53 1 7 -13 -11 -49 -14 27 1 -2 -19 2 -1 -29 3 9 1 -26 27 -2 21 -31 36 -26 -48 54 37 -12 -9 31 -3 -5 48 -55 16 58 20 35 2 -34 -52 0 19 3 60 6 -35 12 -21 50 -34 -32 18 44 10 -54 22 13 0 12 -46 -56 35 -14 -68 2 40 14 14 -44 -56 -61 58 -51 26 15 -1 52 -58 -38 -53 0 -5 -33 -12 35 24 -19 -6 24 -42 25 -9 61 38 -43 -54 -15 29 -17 -60 -53 -16 -52 -32 9 -47 -2 -16 -48 0 -54 -18 33 30 23 -25 -67 -2 -45 39 -49 29 -44 25 -5 -31 49 -55 32 21 13 32 -9 53 40 -47 -28 -19 -10 -50 1
-76 -12 35 21 34 26 -56 42 -32 3 -7 -29 -33 37 -27 48 -18 29 -64 61 8 36 6 42 -41 24 8 -48 -39 -19 36 31 36 -59 -39 51 35 -32 6 -52 10 -38 -47 -1 -31 -3 29 48 7 -15 6 -30 -50 56 5 49 -4 -13 -12 44 57 -22 55 -21 -39 -43 48 -44 -10 -25 16 23 -4 46 -13 18 -52 27 61 41 -1 -16 9 28 6 9 30 -54 -28 -52 -59 -20 20 34 -5 -48 49 -11 11 19 17 -36 48 41 12 -39 -15 13 -53 64 -72 -24 37 51 11 -42 -20 -66 15 19 24 49 -26 0 27 -60 -56 3 23 29 -64 26 14 -66 44 19 7 -25 -63 -47 -24 -40 -5 59 -29 20 -10 0 43 48 -20 20 35 -40 37 -35 -39 0 -42 31 -38 -29 11 -4 1 -42 21 -10 28 -32 32 8 -34 -2 14 -3 13 -50 -14 -28 34 -8 2 -27 48 0 67 -13 -54 -52 -9 32 -20 -50 -51 -68 60 -41 0 3 -25 9 42 4 13 -10 -34 23 -19 43 -25 -46 -25 -35 65 -28 -31 51 25 34 53 24 -40 12 1 -10 -16 -1 52 -34 -1 38 24 -25 -27 -4 11 -2 29 -13 57 25 9 -58 39 -42 -59 32 -29 6 4 63 -35 40 -8 -61
-6 -25 -11 28 52 3 -20 36 -18 5 -6 58 4 -60 -68 -61 41 -29 35 3 -26 34 11 -57 -52 53 -23 15 57 -5 21 46 -59 10 -71 14 42 1 52 0 -52 -52 -78 -8 51 20 62 26 -57 25 -64 34 37 -20 -9 -47 -29 -32 -9 44 -51 38 28 -44 6 36 -3 -2 9 -45 -26 -27 -4 -45 -41 -56 1 -3 16 58 -56 29 55 42 -51 -30 4 22 -38 -7 19 0 -41 48 -58 56 6 43 -43 -30 -14 -21 14 12 15 -27 -6 18 15 -45 -55 9 -6 33 -46 52 -65 -63 13 36 -42 11 25 57 11 52 -35 3 -74 -12 54 -11 -19 -5 17 18 26 -36 -47 -45 14 20 -13 -35 52 -60 9 21 -63 15 -39 32 -44 -46 24 9 -59 -39 -66 -47 -57 25 -47 -20 -48 -52 17 -36 21 -19 -61 -26 -21 -36 -43 10 33 7 9 8 -45 -56 17 21 -34 1 -32 -64 0 -6 6 -22 -2 -50 -23 0 -49 -70 -44 -69 -8 -21 -2 -72 22 74 17 -20 -18 12 -29 -8 21 -61 59 -65 -39 -4 43 28 -44 -23 -31 41 30 -8 11 21 2 -39 -20 16 28 1 -44 -47 -27 19 17 -61 -30 -57 48 55 -33 46 -53 28 16 -16 -7 29 8 -37 4 -43
33 46 -14 6 -33 -7 -25 26 -12 63 -70 57 40 51 -21 54 -54 20 36 31 -16 -69 47 28 -19 -1 -12 59 45 -56 30 29 -67 -42 34 7 -42 -17 9 -19 -64 39 -69 31 61 48 -55 13 40 10 -30 -27 -4 52 44 -31 -28 -38 38 -48 27 24 42 -2 -41 40 38 17 -16 -41 -19 47 -64 -19 -21 -1 -6 43 -38 57 13 -20 57 -30 -12 -12 -19 33 -13 -28 -39 10 -35 -56 38 -61 8 -5 -21 -11 -6 -8 2 8 51 43 45 -56 50 34 2 56 -9 22 -3 -9 45 51 -44 54 -6 17 -70 -14 -48 -3 -45 -26 -63 14 29 24 44 60 56 -28 -32 -51 -65 -55 5 -41 -24 -48 57 -47 59 -20 12 3 -46 -8 5 -63 -49 -68 -10 2 -21 -52 -17 -28 20 -28 45 56 6 -29 -33 13 -35 12 42 42 55 40 52 -48 -75 1 27 7 40 -17 -5 -20 36 -64 -25 -57 -42 1 -16 55 -12 6 14 33 -44 40 39 55 -33 -31 -30 21 -16 -45 -14 3 -12 17 33 55 7 19 27 54 -38 7 -49 -54 8 31 -56 -20 -60 45 -49 10 10 -49 -40 -62 14 11 -26 -20 -26 45 -45 45 -72 14 -25 -32 15 -4 47 24 -51 14 3 22 -32 -68
9 40 -19 -32 -6 11 -33 -24 -23 -44 41 14 44 -44 -27 10 -25 -66 -44 70 -32 37 -51 -49 59 -53 3 -41 -8 47 -35 -34 29 -58 7 -73 38 -10 39 23 -18 -42 47 -12 -26 38 17 -41 50 -50 -35 -13 -15 35 -47 55 -66 -25 -45 -41 -63 -34 -12 38 -22 25 13 37 -15 -61 14 44 -45 22 -51 -29 0 37 -34 16 -19 -18 -7 -49 -64 63 -43 -68 50 -5 48 -53 10 -10 10 60 -18 23 -53 -8 -25 52 28 53 -58 66 -23 -4 5 -55 -29 38 57 35 36 -32 44 36 52 23 -9 -25 -21 39 -52 0 -9 40 3 -7 -18 6 -2 -54 -41 20 6 39 35 -65 25 -9 52 46 19 59 52 10 36 -56 9 56 28 -25 7 -9 -44 -29 3 -37 -29 -68 -39 -37 48 30 25 -48 -28 46 57 -56 -27 -4 34 -14 -16 2 -17 -6 -60 6 -35 -41 -63 -28 -49 48 -38 -56 42 -27 -83 41 -10 -49 -1 57 -37 -62 -60 -34 37 19 45 -68 56 7 -51 6 13 26 -28 -40 49 -47 14 -11 25 56 -45 9 -32 -34 -24 -53 35 19 13 32 38 20 47 -68 -26 -31 13 5 -55 -22 -27 15 -67 -60 -1 -37 -5 62 65 -51 -41 -45 37 26 -45 19
34 -4 -64 54 19 -21 17 52 12 49 40 -65 -26 10 1 36 35 44 44 7 39 -53 -34 37 -68 -49 -51 -8 -54 55 24 -12 -11 23 71 -56 -56 32 -38 -40 -45 -26 45 -22 -40 -64 5 -38 -29 51 29 5 55 -49 -32 17 7 -37 24 5 -11 -32 -38 45 -59 -21 58 -1 -30 -61 -8 -32 8 -49 -16 -25 13 -12 62 45 12 22 16 -38 -19 77 -36 -54 33 62 33 -18 51 -17 -29 49 -70 -42 -58 -10 -6 -19 -31 -63 -20 -35 51 -15 24 -64 -68 -21 -24 -12 -69 39 -45 -24 54 70 -68 64 -10 4 -44 38 -25 32 -4 -15 -23 11 -59 -6 80 2 -7 -43 40 -36 36 -62 -55 46 24 -47 -16 48 -16 -27 52 34 -41 17 -10 -65 -61 -35 0 -54 -25 52 27 40 22 35 -40 -47 -48 -22 25 -56 -66 -45 40 46 16 -32 -47 27 51 -43 -67 53 -77 -9 -57 -37 -34 81 6 -16 -32 14 -37 53 -18 63 -58 22 2 58 19 -19 11 -12 35 58 54 43 -44 -66 -41 -16 -54 -65 29 23 -40 40 -52 61 -37 41 -52 -22 34 -73 -3 -22 48 -8 16 47 -20 -53 35 -26 -63 46 48 -32 -64 -53 -44 -6 3 24 54 -44 -64 -68 -23 -65 -10 8
26 21 -50 -9 56 -19 -29 -2 -23 -21 -27 27 -16 34 -43 30 25 28 14 -15 5 -3 -30 -18 -40 37 46 6 45 28 -56 -5 -47 19 -33 6 -44 35 50 -35 -14 1 -25 -60 11 23 -31 -19 4 15 -60 42 11 -50 18 -32 -39 -57 -34 -26 -51 16 -39 -33 15 1 -11 -9 -66 56 -53 43 23 37 -21 -46 15 14 23 -9 -8 -43 -7 18 -42 51 -25 -29 -44 50 -34 51 -41 -26 -47 63 -30 39 79 -50 2 49 -9 2 14 -19 -46 -37 2 -42 -4 -50 57 31 -53 -60 25 -41 18 -56 24 5 22 -31 25 -22 10 -4 18 -57 21 -36 56 -56 20 -62 -9 59 50 -29 -49 -61 -6 -16 -14 40 -34 -63 40 7 19 35 -22 -44 -65 33 56 14 -54 13 31 14 10 -18 -74 5 25 -49 59 -56 -16 5 29 -15 22 35 14 -5 -65 50 -34 60 -66 26 -8 -8 34 46 -64 36 16 -8 -52 -17 -56 -52 50 24 10 -21 28 48 -66 -28 -46 28 27 -59 -2 -61 26 18 -45 51 8 54 -25 -59 -26 51 -32 25 -21 -33 42 -20 49 -18 -62 -6 45 -34 44 -24 -13 12 40 -40 -57 -12 -38 -11 15 -32 50 -53 35 -2 -15 54 51 -51 36 -60 44 -24
44 3 -6 -48 45 -33 -69 -76 55 60 -63 -15 7 -67 -42 11 -56 -52 -9 -55 13 16 -9 28 -30 -32 2 66 -14 52 -6 23 33 -36 -72 11 14 -27 -56 -62 -48 9 28 -67 -20 25 -33 -43 25 16 -45 -39 19 -15 -3 -30 13 11 35 -29 -30 10 48 -34 -54 12 -38 -4 31 15 47 -56 24 11 -22 22 -6 8 27 5 0 -56 43 -42 -15 22 -41 36 -31 -5 -34 -55 -32 -45 15 42 72 25 40 -43 -20 -47 -44 56 30 47 -51 -54 1 46 15 -20 -21 -53 -64 -29 9 -40 -60 -63 -77 86 -43 -32 2 25 22 -25 -47 -56 34 -68 11 57 -41 30 -17 -3 1 36 47 -1 -62 -40 44 -20 28 -4 -6 10 -60 -48 -46 -51 50 -64 -42 -36 -70 -42 54 -73 43 -57 -43 -62 24 -7 -7 -54 -10 11 -14 67 -60 14 18 -33 31 47 -4 18 -42 -36 -20 -30 -14 48 -38 -50 -21 24 1 -28 -48 40 5 -20 3 -19 -62 3 15 1 24 58 -60 -55 6 56 -20 32 10 30 -56 28 -8 24 12 11 30 9 -7 45 -67 -53 -44 -70 25 35 61 -14 -17 35 -12 17 -70 -18 9 21 22 -7 46 -21 68 -18 -36 27 -44 -78 -27 -57 19 -23 8 5
-59 1 -25 46 38 -60 47 1 -27 -7 50 10 -34 52 56 -29 -49 -59 -75 -12 -52 16 6 -60 55 -60 -20 6 32 -50 18 53 -50 -9 39 50 -66 90 -45 -27 -85 26 4 -19 10 33 -59 6 12 -64 -22 38 11 -72 13 26 -62 -31 38 -10 5 34 45 43 14 33 92 36 50 -59 40 35 -53 -54 -32 34 30 26 100 -68 -40 -1 -53 57 22 96 -20 31 22 71 41 -34 -59 -42 19 -41 28 -35 -45 -53 12 -52 2 -42 37 67 32 34 -24 2 -84 -29 29 -29 33 41 -25 -42 46 52 -72 -43 -11 21 -50 -6 20 -55 -27 29 -41 17 64 -10 54 20 4 48 -70 31 -4 -12 -28 -16 1 -12 -21 13 -59 37 52 81 -40 22 10 -49 -54 -36 -25 -62 -57 37 -41 10 13 4 -57 11 -36 2 -30 -47 -66 -2 28 16 27 -23 -61 37 -58 -66 38 50 -72 64 11 23 -30 37 -9 -60 36 24 53 -1 -69 39 3 37 -37 -9 -6 -67 -67 -70 36 -18 -21 26 44 -60 -10 -15 -27 2 -10 15 34 -49 11 53 -19 17 48 -10 35 -2 -27 -67 19 34 48 -27 53 -61 -22 23 54 46 -26 16 27 -16 -15 34 23 -72 -16 38 5 -14 -22 -19 -40 -55
40 60 20 -20 53 69 61 39 -45 12 -2 23 10 -28 36 -21 17 0 -51 -33 -31 41 -1 -2 -2 10 28 80 65 -11 65 -48 7 -3 -59 49 -19 82 21 14 -66 33 11 -55 60 -63 17 31 2 58 -53 16 -18 43 49 34 -47 11 -12 -4 23 8 -86 65 -32 -29 23 25 9 -18 52 -50 -78 10 1 -13 71 55 -31 23 -12 -13 34 -37 -59 14 -20 57 34 -97 41 -29 28 -62 58 -12 -28 -65 -25 -1 46 -38 6 -5 39 55 12 -70 33 -66 55 -45 -49 -4 -73 7 41 48 45 -32 -14 31 22 -75 -40 17 32 -9 -71 54 26 -20 27 46 -42 -21 -7 30 35 14 53 -5 16 60 -30 22 22 37 56 -41 -53 -57 -38 13 -32 -54 15 61 -67 -69 -17 -19 -44 -91 -40 38 -4 22 -52 65 -27 -39 2 -41 -3 43 8 -56 -11 42 -2 63 27 10 -48 32 3 -23 34 -55 33 55 -31 -87 -80 17 -57 -52 -61 -37 -47 -18 -17 56 -50 16 -2 -32 36 -55 24 -1 -22 -25 -59 -69 -34 -61 -55 -16 -64 8 -54 13 57 -44 -59 -29 7 67 23 11 -59 19 47 27 -6 47 15 -43 -10 27 -22 -42 1 7 -55 38 25 -69 -36 61 31 1 -47 39
-45 -6 -5 52 32 -37 -41 40 -13 -11 32 -34 -21 -62 21 -45 38 -60 -2 62 49 -17 -5 9 -15 23 49 -40 -54 9 -63 -5 -25 -44 -18 51 26 18 -9 -51 -51 -26 26 9 52 -8 5 -23 4 -58 16 45 2 51 -43 -51 -40 -8 -5 39 -44 -27 54 26 -3 -38 -92 -56 41 42 5 -13 -49 39 17 24 6 8 -16 -1 8 27 -26 -21 -48 30 -42 51 -9 65 -35 44 -54 -25 -61 11 -7 -2 -38 -13 30 -50 19 -63 -12 -44 -20 -33 -39 -57 -37 -59 -22 -49 63 -64 11 63 49 -67 -2 49 -42 42 -24 -61 -49 -38 6 -36 30 -23 -47 -32 -69 27 -45 7 -69 -51 -1 -23 0 39 23 -9 28 -19 25 12 -28 47 52 29 27 -66 13 25 -16 -69 -44 -5 65 51 34 -46 38 54 22 4 54 -69 -68 49 40 31 -55 -53 -30 54 26 -20 45 -38 2 47 -48 56 -18 42 34 5 33 -42 -52 -67 45 54 30 54 44 8 -26 -17 17 -22 -59 -52 -10 -37 26 38 -27 -6 -21 45 24 -63 -56 37 38 47 -31 -21 56 52 -12 32 18 -37 9 7 -22 -5 5 -24 -35 -2 -46 -30 62 55 -41 41 -1 47 -54 -16 55 1 8 -46 -61 42 -63 -20
18 10 -16 36 -32 -28 50 -8 -39 -16 -49 -32 39 27 -3 6 -45 -49 46 14 -49 19 -52 25 -36 68 6 56 44 31 -29 0 15 34 -16 -14 -29 76 34 33 -60 28 -36 2 -36 -28 3 41 -67 -53 43 33 -36 60 -57 -50 -10 -42 -6 16 -32 40 -34 55 -67 -16 -57 41 -57 -53 2 28 -47 -41 -13 -52 19 50 34 -34 -60 -37 13 -45 -15 46 -35 31 -44 -61 -50 31 9 15 20 -45 -27 -2 -50 34 -15 30 32 22 -57 41 47 50 10 14 -6 11 59 -38 -60 46 57 44 -63 -29 -57 -49 6 -39 48 47 -49 43 -59 27 -20 -21 41 -46 34 44 -16 21 15 7 31 -10 32 29 56 -41 26 1 62 -62 -64 54 -21 54 55 24 -40 -47 -32 24 20 61 -17 -24 9 4 -29 21 54 35 -51 -5 -57 28 -22 -54 -39 -45 -4 -9 -20 -7 -56 -30 20 12 -17 -63 -39 -28 -35 19 -25 27 53 -15 46 -18 36 -51 -25 1 25 1 -53 57 28 54 -22 14 41 -63 -2 -42 21 55 -17 66 43 -65 22 64 -56 -56 -44 -46 0 5 -37 -39 0 24 6 34 49 37 13 51 32 -41 -1 59 -10 24 -16 -4 -59 -31 6 38 20 -13 10 53 8 31
-33 -70 -34 27 -12 42 -3 -35 49 -42 -24 -19 -34 24 39 -5 -6 -53 51 12 -14 47 40 45 -27 35 -82 -67 -68 -17 46 -32 35 53 43 33 -14 62 45 -30 -3 14 -31 24 22 -1 -71 36 57 45 -50 15 11 17 -53 -6 -28 -60 40 -44 -24 56 62 -19 -50 -23 92 -15 -57 -69 20 -73 -45 46 -70 4 -58 -66 74 -5 55 -59 -14 48 50 64 37 -20 -26 -27 67 47 23 3 0 29 44 46 -31 -15 -41 26 -12 -21 -93 22 -36 72 -27 -2 33 53 -68 -4 42 -57 -20 -3 -73 -36 1 24 8 -2 -66 -52 -19 -76 0 -26 -68 18 -58 -33 1 -44 20 32 18 -9 52 -41 -54 5 -66 -36 -38 -80 2 33 -49 -39 -41 6 -43 -72 -36 -45 32 -57 -56 -36 4 24 -55 6 36 -48 -1 -10 -13 28 24 52 -42 37 -72 -38 -16 30 -18 -11 -14 -57 -30 11 30 -3 -20 45 -33 -40 34 -20 40 -77 -25 -61 -7 48 38 26 -47 3 43 -45 69 41 33 -66 -25 -55 38 -31 -41 13 15 -57 3 -14 55 1 -75 21 16 -7 13 -4 -54 -52 -67 -18 18 52 -6 -30 -69 -5 -47 -17 -46 -5 32 -12 18 -59 -63 -24 8 3 18 0 -19 35 -10 -46
-31 27 -39 59 48 -46 19 4 -31 28 -13 -59 -55 -71 -41 48 -56 24 11 42 -64 -17 18 43 -38 9 55 -35 -41 -43 -36 9 -18 55 65 7 47 57 44 -44 8 -42 49 16 -62 4 -17 -26 17 42 -49 44 51 28 30 -49 21 12 -60 -23 -6 -25 -45 68 57 29 44 -58 10 0 17 41 34 -28 45 31 -64 -68 4 17 -19 -63 32 -6 -55 73 -28 47 5 72 48 -44 57 2 -58 19 44 70 -9 53 8 39 39 -11 12 -53 44 27 46 38 -14 16 -58 58 39 -26 -42 -41 7 -3 6 31 49 8 17 -27 -44 -13 -28 -33 28 1 15 -16 10 -37 -39 -54 -33 62 -6 36 56 -72 61 -6 -62 -12 57 10 43 23 47 53 -6 -12 40 -60 11 -5 55 58 -9 9 30 -36 -7 -22 -26 -62 47 -9 39 -31 17 -55 34 8 59 13 73 57 16 33 -11 52 32 -48 51 41 -56 -62 25 -30 53 -34 26 -42 -26 -40 8 -26 -38 57 -42 13 -41 -38 50 24 57 -7 -41 -60 -51 -48 -66 43 -31 21 30 -1 -50 35 -6 2 28 -43 31 5 16 35 -57 -34 58 -41 72 -13 35 -32 -27 -44 -33 -43 -22 2 -21 -21 36 47 -47 -74 -48 6 -60 -39
-36 -54 5 -20 -33 15 -50 -6 53 1 62 -4 -49 -5 63 -54 -57 0 39 -31 20 -2 8 -19 -2 -61 57 33 17 38 12 -10 -23 57 -52 12 -2 -30 -7 -11 -27 -62 -10 -44 -21 49 -34 36 53 -38 19 28 -48 -32 -67 -19 59 -62 33 -14 61 -43 35 -2 24 16 -7 54 -6 13 -1 23 0 -60 31 2 38 45 -51 -3 -37 50 -9 7 27 -5 20 21 63 -39 40 5 38 -29 -25 -11 67 39 -53 -61 62 11 -13 -6 -19 -12 27 0 -7 -51 -45 25 63 -42 -3 -20 -1 9 -23 26 -53 -10 8 49 -56 -48 -32 -4 28 -4 -15 51 -39 26 21 64 49 -57 26 -59 -63 -51 -19 17 -23 -14 -62 36 -32 26 -25 -43 16 3 -31 34 35 62 -48 -42 25 -63 6 -43 12 -6 -24 -29 21 -7 41 64 6 -15 -16 2 -45 -69 -13 2 -29 26 -53 11 -17 30 40 -54 -20 -31 14 54 -64 -37 29 -63 44 -18 -53 51 -35 -6 55 -70 -20 -49 25 39 6 -31 25 19 -26 -49 43 -20 19 -14 -41 -16 50 -33 68 20 8 -12 52 56 -40 -3 50 18 61 37 73 23 -13 1 69 -10 -25 -30 42 -36 59 8 -50 30 3 28 39 33 -50 25 -57 -23
45 55 12 -16 32 36 3 27 -13 9 54 1 43 -18 -2 -10 -26 19 8 15 18 -2 63 18 -35 -28 -42 73 36 16 -16 28 61 -46 -49 -40 -15 43 27 12 -32 -53 -36 -59 -36 37 -15 34 -1 41 37 37 -19 4 5 -4 -24 -29 3 9 41 -53 47 73 -5 -25 -44 9 -22 40 59 -59 38 -52 -69 60 -17 54 55 28 12 26 -13 -18 -47 22 -57 45 38 52 -62 34 -47 59 -59 -72 -30 33 52 62 34 -56 55 -31 18 -16 52 -31 3 59 4 24 31 22 57 -54 16 -23 49 -58 41 -23 -37 -10 47 -32 13 5 -62 -56 2 -7 -61 -6 -29 -18 -12 -63 5 -64 -41 16 51 14 -17 -4 -42 -12 -48 -15 17 8 52 -48 -26 50 -62 -19 -40 19 -69 52 -55 50 -34 16 23 -5 -16 -50 -55 43 -7 75 -4 27 37 -13 -71 14 -24 74 15 -12 47 -12 -31 -17 -33 -5 57 28 -40 33 19 -34 -50 32 -66 -3 -15 -19 40 56 37 55 -18 61 51 -48 -6 8 20 -25 61 -27 57 0 -49 -53 -49 15 -11 54 14 -36 25 -57 43 -28 4 -9 -16 -6 -66 46 -78 -27 48 -24 -13 -47 52 -30 36 52 -16 45 -53 37 -53 19 -45 41 -34 36
16 31 -4 54 -25 -51 40 -57 34 -4 -51 50 -73 -17 57 44 -16 -68 54 36 -14 -55 3 41 -5 27 -6 38 53 18 14 27 6 39 8 26 16 69 -38 -67 -29 13 7 -44 14 -76 -19 -45 14 -58 -4 55 -29 60 37 8 41 -6 -58 15 -42 23 6 -51 -40 58 -24 -17 46 -64 -4 40 18 -51 -58 -18 50 56 34 -17 57 -1 -26 -76 -57 41 5 30 -38 57 -61 -32 26 -5 -59 38 -20 -8 43 -29 66 -44 -1 63 60 78 20 1 32 -33 33 -54 -43 20 29 19 -53 18 -41 -32 -3 -1 -16 -26 22 44 10 12 -30 -35 20 -27 17 -14 19 -59 21 48 37 -69 5 4 -66 -6 53 6 -6 -26 43 -55 -64 -25 14 15 1 43 39 -51 -28 20 32 -24 2 37 -32 -72 -9 -11 -19 -65 1 -60 1 43 -7 24 6 -49 -8 -17 24 74 -39 -54 47 -31 -61 -10 -27 -30 25 -49 28 3 15 -39 0 -39 53 -54 -42 -3 -32 75 -70 24 8 -23 -14 -57 19 -15 -44 -10 41 30 48 -37 10 -15 25 -24 59 19 47 5 -57 -61 27 -28 2 -38 -18 13 2 -10 15 51 -38 -60 68 3 52 -35 24 48 -65 -11 31 8 -22 -41 -46 37 -56 -31
40 -54 51 -50 21 45 -8 44 37 19 9 -35 -65 -33 -52 -26 -52 -63 26 -44 -42 -62 -69 -32 40 -61 -10 55 35 35 12 24 37 20 13 50 -3 -19 -2 65 -31 -6 -15 -52 30 2 -39 4 -45 -56 21 -70 9 47 -14 3 -47 20 -14 38 -6 44 17 37 -25 -4 44 -33 -27 -48 47 16 15 -46 50 41 -17 54 -3 8 -7 43 -59 -37 -14 -47 44 -16 5 -10 11 -49 -5 -56 -18 -29 -7 -51 -9 -11 -29 -20 -20 24 -47 43 61 -50 14 21 -52 19 -44 46 -6 48 52 34 -15 -9 55 -42 -25 -17 -44 -40 6 -30 7 14 55 -24 -57 -31 -13 -59 -5 -29 -8 47 -9 -69 -10 24 -44 48 56 -20 -9 -36 -40 -35 28 -9 -24 -27 -7 -47 62 -58 -2 16 -10 50 53 41 8 47 -21 -59 39 -49 -35 -49 -49 -65 -65 -32 -31 -65 34 -23 -19 -48 49 -32 -60 -63 41 -29 -41 -61 -44 -21 -62 11 -56 11 50 32 -29 24 73 35 -3 -61 -26 45 48 -20 23 -4 27 53 36 11 19 27 -36 -41 -60 -46 -57 2 -57 29 17 -11 -7 -25 -61 -16 56 14 48 -46 10 14 49 -35 -21 -44 56 -4 -33 -63 46 32 -29 -92 38 1 47 -58 -43 -76
54 -25 25 48 -41 40 -64 14 -46 28 25 -72 -33 53 51 -52 40 13 47 40 -61 41 49 41 6 3 7 -55 -56 -31 -2 68 -2 20 -31 8 -17 -53 9 8 24 62 -40 -1 13 44 -22 -5 28 -43 -46 23 39 -31 18 -14 -27 23 5 35 -45 -66 12 -47 -49 3 50 -10 -49 -33 -52 5 47 -48 12 -3 -57 -36 -22 39 -4 39 -32 37 64 -20 46 -28 -1 -57 49 -60 37 -29 12 6 -42 51 21 -10 27 16 12 50 62 -8 -13 52 -10 2 11 12 -44 12 -3 52 50 39 -2 -52 58 18 46 -3 -40 -7 65 -24 41 -25 -20 -22 -48 -34 32 -34 -10 -57 -19 -20 -26 57 45 40 20 -6 46 -13 45 -51 -20 40 28 -13 -43 -1 -17 -46 -38 55 41 27 62 -42 54 39 -62 46 -59 -15 17 -63 17 -10 6 -48 56 -60 -61 51 -58 20 -1 -3 -9 53 -67 -64 -38 -30 65 21 -4 -72 1 -26 55 -44 8 20 -7 -56 -48 59 45 20 -22 -52 -47 -48 -16 -5 -19 59 22 -20 -2 -37 -7 41 -53 52 33 -66 -33 11 19 1 -9 23 -46 50 11 -44 55 -3 36 -32 -54 10 48 -11 50 -38 -34 -28 -66 54 -29 25 -24 5 27 -13 -34 -45
-42 -6 -32 67 39 1 32 -27 -67 4 10 -39 -35 -24 -25 -13 -60 59 -12 6 18 23 28 -55 2 36 8 14 -8 -44 22 -34 42 45 -33 11 -58 -12 -20 -68 -20 -23 -25 40 -27 48 -1 -24 -52 27 19 -27 -32 35 -47 -2 -6 -2 -18 -6 -33 7 58 24 48 64 35 1 17 43 41 -3 55 -48 -48 -38 -46 -42 -13 -21 46 -10 -16 60 17 2 -50 47 34 -14 -60 -44 -44 14 15 34 -33 6 -7 -26 -55 65 53 19 -46 -32 -2 -5 -28 4 -3 43 -5 5 -39 46 -26 17 22 -59 38 30 54 -24 -46 -16 18 -28 48 23 2 -54 44 -66 45 -13 -45 55 -7 15 -37 11 30 15 23 25 36 -34 21 24 28 -55 -14 -42 53 -27 -36 -4 -66 -28 -25 48 -39 41 -48 -11 -41 -33 44 -7 56 36 26 7 -11 -2 21 -14 45 3 -1 -45 31 -10 29 61 18 -31 33 -42 49 -5 -45 -5 22 7 38 -65 -66 -29 -8 47 -32 -59 -28 9 -14 -59 -13 -2 -30 -19 14 -36 3 -60 -11 -5 33 34 -3 15 -1 -64 -65 -51 41 -36 44 17 11 -12 9 32 -3 -12 -57 -47 31 16 -67 2 -28 -23 -29 -2 30 14 -11 -26 -43 55 3 -51 28 10
-5 -36 -14 -43 9 -40 61 -25 -14 -7 -12 35 -52 -51 52 -32 25 -61 48 31 -51 41 -30 54 -33 15 -54 -26 5 50 -39 -35 30 36 25 69 -10 -46 34 32 -63 -66 -37 41 60 52 55 56 -24 -30 19 -13 17 33 69 54 26 -21 -25 -50 -40 -32 -19 54 -65 -49 -1 -45 47 51 -27 43 -21 4 38 20 -7 11 -49 -42 -45 20 -64 -22 -36 23 -23 -14 51 14 -39 0 -40 -7 31 -3 41 12 22 41 -41 -10 73 52 -19 -23 0 12 5 -51 -38 -18 -21 -29 -49 -12 -17 52 -49 9 -44 -30 24 61 -8 32 23 -35 32 -37 42 29 16 67 -56 -2 61 -19 -44 29 20 9 -31 -29 -51 62 -45 -32 48 11 -5 67 -47 -17 59 26 -21 -45 24 -12 -1 13 30 -33 -10 -11 -57 23 28 40 33 -29 5 -32 39 32 -20 -9 -64 74 -20 -43 -16 -41 4 -16 -12 -2 40 29 60 58 11 -31 -50 -44 -12 37 -65 12 41 -37 -31 11 0 24 -46 -44 -44 -13 56 -23 33 33 41 -30 -10 -46 48 31 -2 23 29 31 -30 -50 -37 -57 -34 74 -56 -39 -57 1 -23 -53 59 39 27 -16 -39 -32 -4 -5 -33 -15 -9 49 71 49 5 68 -57 8 38 55
11 54 -3 -27 13 54 -60 -9 60 -54 3 33 -43 25 -38 22 -41 23 22 11 24 32 12 4 -66 20 -13 -28 54 17 -29 -58 -56 50 15 -13 -60 5 34 -72 -51 -36 17 2 49 -5 -13 -5 31 50 -13 48 -40 -8 36 11 32 -15 51 -12 -55 -26 -3 -25 -57 -3 -46 -41 6 52 8 48 -31 -7 19 15 14 -54 -29 -20 -8 -50 -37 -9 8 14 -34 59 -59 -8 -17 57 -44 -8 41 -54 50 -4 -48 7 7 -19 -16 10 45 23 11 48 -17 31 15 -47 -25 4 29 63 11 -36 31 33 52 58 8 -29 13 53 34 47 -25 -62 -61 -13 21 -49 64 -7 20 -38 -51 -52 -13 -57 -33 -35 2 27 13 -67 -65 -60 62 -5 38 64 18 -44 -4 -10 -37 -28 -41 30 -3 -10 13 3 -50 -39 20 50 43 -47 51 5 -15 -49 57 24 25 -21 -24 -15 -30 22 38 29 -10 -69 5 -32 -67 -42 -37 -8 -46 15 -49 52 -48 -29 -62 -13 64 -26 9 -48 50 41 -51 -55 -55 -51 9 28 -30 -36 -36 -58 -39 29 -24 50 -21 -27 -25 -32 -48 -43 -15 -18 -15 -61 14 -44 21 -29 48 -6 49 2 18 39 -12 54 53 -48 11 13 -50 16 29 -11 30 -48 32 -37
66 -51 7 -48 22 42 -4 51 -44 20 -67 27 50 29 63 66 -17 43 32 -52 -9 -50 55 -49 30 -29 -33 -49 6 25 -7 12 2 23 -40 -30 39 -2 -11 -10 33 16 38 -34 30 -58 39 18 -26 27 32 -32 16 -51 -9 53 -1 20 48 -13 -7 -7 31 53 50 -41 -40 -18 -7 -5 -47 22 44 8 2 19 -55 31 -37 44 -55 55 -9 -26 -63 69 -18 -46 -33 38 14 -50 -36 -1 45 -24 -44 16 -49 21 52 49 -11 23 45 -28 27 6 43 42 -2 59 4 -60 18 47 -31 -8 48 53 52 48 -26 47 6 -62 -5 11 -7 -9 41 -46 -27 23 -8 46 -25 -55 -23 -39 -62 49 20 -46 -8 11 -49 28 -8 -29 -24 36 1 -61 -2 33 -32 18 -33 -57 -8 9 56 37 61 16 69 0 41 44 -38 -21 32 63 -45 -52 25 -23 -69 29 -6 -11 3 -16 -40 -31 45 -25 -4 12 42 57 1 -31 36 59 -12 -3 -7 -70 -8 -37 -13 -49 17 -64 12 22 20 -56 4 -41 -39 33 26 -55 51 60 46 -49 -29 15 -31 -16 1 -7 16 13 -11 24 18 -14 39 39 -45 -11 -11 47 -43 -23 -11 -4 19 -47 31 4 34 -48 32 -46 -8 -39 11 -4 -52 34
40 -49 40 55 -51 -34 -34 39 26 7 24 -51 7 50 -18 -12 24 42 61 -39 1 -12 51 -26 -63 -60 -57 -52 47 21 -64 -11 -4 -64 4 56 -52 63 41 -24 -10 6 -28 48 45 -27 63 -50 41 -62 19 16 -27 54 14 30 -56 -53 -18 -41 -40 11 62 23 23 5 -13 10 -38 38 29 -36 -73 -56 36 63 35 -37 -34 -43 19 -42 15 21 46 -34 -29 -45 -23 -56 -60 15 26 -43 59 -9 30 -35 -23 3 -21 -14 20 -14 44 59 35 -22 9 5 29 -19 -59 -17 -49 51 53 3 60 -2 11 6 -44 48 11 -24 0 -68 45 38 33 48 -40 -23 -43 57 9 13 19 -39 -10 -32 -41 -50 61 57 -21 -7 -15 -46 44 50 -54 -12 4 -3 -40 -31 -10 -42 -44 10 6 63 -36 53 2 8 7 30 13 -50 15 50 16 2 -34 2 -9 27 39 36 -43 -36 -30 39 48 -3 45 21 -47 21 -6 8 51 56 -22 -58 -18 47 51 -46 -60 22 4 71 -52 -32 -57 31 -46 69 55 -60 -22 42 -2 -22 61 12 10 -23 53 -32 -15 -23 -51 52 13 73 -32 16 -53 32 -15 74 43 -41 36 23 -5 -18 -56 44 -3 58 -45 -41 -29 55 -60 -34 12 -45 -37 9
-42 27 37 -21 34 38 -26 -8 -15 -37 28 44 56 -19 -10 19 -49 -2 -2 70 -59 -65 15 30 61 -51 46 -28 -54 -32 -56 -28 -27 -67 28 31 -20 33 55 -37 15 26 -43 -40 -2 10 -8 -16 21 -46 5 48 -34 -50 12 -9 -26 -60 47 -66 29 -58 23 13 1 -2 57 -3 43 -34 -19 34 25 -18 60 -24 -28 -49 16 -32 37 11 -70 -52 -58 30 -13 -15 26 61 48 30 21 -17 -10 -37 -54 65 -52 40 -66 -36 -41 -45 7 -42 -61 49 49 -33 -69 -69 48 -46 -26 30 -33 47 47 -37 23 -12 4 23 6 -19 -57 37 -44 -4 -31 -66 -44 -86 46 -39 -41 39 -22 -44 -12 -22 -42 13 -55 -31 -4 -26 43 -45 -3 71 43 39 -69 41 48 50 -10 -23 2 48 -26 -63 -10 -59 22 -71 26 4 29 -42 9 51 42 -69 -38 -42 22 7 53 -50 -6 43 32 -37 9 -22 -55 69 -30 -42 35 -49 54 -17 -16 52 41 -52 18 26 -23 -39 -19 16 -23 43 -20 47 17 -45 9 -54 57 -55 22 -67 22 46 -19 66 33 0 49 26 -38 -10 -46 58 -42 -22 59 1 9 -55 19 11 -50 46 4 -44 47 29 -39 -51 -19 -67 12 51 -36 13 -47 2 -22 48
3 -28 -39 -21 53 -7 -72 -30 -32 15 -51 36 22 5 -50 -24 -22 -77 -33 -7 -22 -10 27 21 -47 25 10 -45 6 -60 50 -17 -56 -17 40 0 -36 -5 3 48 1 -17 -38 -28 0 -60 -44 40 17 -63 -10 -64 80 -50 10 -28 -50 -13 1 13 30 -74 83 38 -58 12 48 49 34 50 -36 -6 1 -43 -30 60 54 21 3 -19 -11 53 -2 70 22 73 39 -8 -15 8 40 -46 61 -51 30 19 -80 -7 -38 -23 -40 -58 4 -39 -7 17 16 -10 -19 45 -94 10 32 -46 -24 -64 -49 -17 13 50 36 -29 30 -18 17 -59 -54 -42 -10 -72 -4 -30 -3 -12 -2 -72 -53 -63 -7 -33 58 2 -39 -30 -33 -34 -81 19 -58 62 -22 57 19 -39 -17 -75 -77 0 61 0 -20 -32 -100 -71 -2 18 -12 -41 -7 13 -56 -16 25 0 -25 -40 -24 4 -12 -55 -18 -113 7 58 19 -1 -37 -34 -50 46 -46 -11 -27 13 44 -11 -37 38 -7 36 15 41 5 -43 -2 -18 -19 -15 -47 50 -45 9 -22 -42 -27 -18 -36 -54 9 -43 48 -39 21 -33 15 -32 69 22 -63 -87 17 36 37 35 -49 -59 -28 -37 -45 67 -48 26 43 -15 11 39 -11 -18 -49 -42 -42 -6 30 -79 0 -55
-65 34 32 -11 -50 15 -12 3 20 -21 64 15 -43 61 36 -11 60 15 15 -30 30 -34 -58 -60 13 -3 -16 21 52 37 -2 -59 0 -61 -23 32 -4 -10 -46 0 15 -64 38 -25 -9 41 29 41 -27 25 5 -4 5 -33 -36 28 -54 48 46 -10 47 53 15 37 -61 -36 -8 -38 27 -39 -14 9 17 -15 10 54 -68 58 -23 -56 44 36 10 9 -21 -44 22 -65 -3 -20 -32 -34 -37 7 50 -6 24 -22 -23 -51 -43 26 14 46 -17 23 -16 15 -71 -48 -10 -9 -57 -50 42 -21 -22 22 -49 -47 -78 -33 -20 4 59 -27 21 -30 55 -62 -37 7 -52 -31 27 24 39 -48 32 -50 -62 -45 -33 44 -25 4 0 28 -2 -55 53 8 55 1 -2 4 -61 15 2 17 21 53 7 28 -11 -49 62 -75 -14 -34 21 49 -30 -40 25 4 4 11 49 -16 -90 -7 -61 -6 -9 -5 14 4 -36 17 23 22 27 60 16 -68 32 34 51 18 52 1 -26 -34 -19 40 24 -72 32 21 22 -19 18 -9 -3 -56 -32 12 27 41 17 4 53 -56 40 -18 45 -29 18 13 44 -40 -6 -37 52 41 -24 62 12 -24 45 41 34 39 -12 -35 -29 -45 54 32 8 7 40 -50 29 20
13 17 23 -9 -55 -28 -26 51 41 30 1 3 35 -21 -52 -36 -32 -47 -35 86 34 -55 -32 51 42 -6 9 -53 -45 -54 -47 -23 -40 -23 38 -15 -10 47 48 -19 6 20 -12 -47 85 34 -13 -44 15 72 29 -36 43 -30 -51 -60 14 -60 17 51 1 34 -18 76 -59 6 76 33 -34 -46 36 9 0 -51 13 22 -77 19 100 25 53 -75 19 32 26 106 -36 -20 51 -36 25 31 -28 13 11 -65 -78 30 -12 -16 -27 56 -40 -3 50 -23 55 99 -22 -43 -30 -17 -39 -11 -28 -31 -17 12 -45 2 -26 -73 16 -63 -63 -51 -43 -62 9 43 46 1 4 20 7 -7 -46 -50 0 -40 43 -1 14 -79 -37 -46 47 -20 -65 20 21 -7 23 2 -55 -24 -31 -19 -58 -64 -70 -64 -34 -81 -45 6 12 45 1 14 -52 56 -48 -66 73 -2 -45 55 44 -80 -1 -82 -43 1 47 86 24 46 -15 67 11 9 10 -42 12 11 -49 -7 -65 -66 -40 -1 -9 -21 -68 -75 32 -15 -52 -37 22 -70 -45 -6 -25 -35 -30 37 -54 -22 -18 5 17 20 -55 37 54 -2 -68 10 28 -41 -22 -65 -11 30 14 10 -70 -54 46 -33 18 19 41 -13 -4 33 -63 -34 -73 20 -15 34 -33 -13
38 -31 -51 68 -26 39 31 18 8 60 7 50 48 -24 -36 42 40 45 52 14 17 -9 41 18 -23 -31 -7 42 -40 19 -26 5 15 -50 40 48 75 -6 -35 54 37 -51 -26 55 25 -31 6 47 -9 14 15 -54 -51 20 -35 -46 -36 -48 -38 -4 -10 -52 21 6 -57 -29 -7 -60 -39 -12 -37 44 -18 29 -41 11 -22 29 -12 12 -59 -24 -27 8 45 37 31 16 -64 -11 41 29 -17 3 -12 33 -55 20 -50 43 1 46 -27 71 -11 -27 -46 -43 50 45 65 -65 -33 -11 39 -16 48 9 -47 -54 -1 -19 21 10 33 -33 -37 16 12 7 19 -66 0 -46 -25 26 63 34 9 -35 61 50 -22 -15 13 -1 6 -65 14 22 -57 -36 -34 -35 -43 -34 5 17 -55 6 -38 24 71 3 39 -40 33 -39 -16 25 -67 -29 49 -41 -43 -16 61 -25 35 -31 -39 -50 24 54 40 -56 13 63 -15 -60 37 -9 18 38 -11 21 -44 -15 42 -30 -37 50 43 -3 63 -31 37 -59 -54 -59 -23 -6 -2 32 -54 -16 -30 47 -61 -42 48 -33 45 30 21 -40 53 -40 -52 10 52 -41 -26 -14 48 22 31 -49 -60 -50 -25 -45 48 31 -2 15 -64 13 -57 -61 -23 -25 44 29 48 2
-2 -103 17 -51 -56 61 -49 2 -9 -56 3 65 23 -66 -25 9 -16 -34 60 13 -22 -14 -17 -26 -83 20 42 35 -46 -23 24 43 -36 56 33 25 17 64 -43 -16 13 5 58 33 -32 -1 37 71 23 -13 21 -60 -42 -18 17 -22 18 33 -2 -36 -61 -58 27 34 28 55 44 10 61 3 -10 -22 3 4 31 81 -40 40 11 42 -69 44 -49 27 -23 75 -2 -29 -10 76 -1 -35 -53 10 -8 -27 -32 -8 -105 32 -48 28 -83 -2 45 -39 26 46 -12 22 -83 -12 -63 -29 21 5 -4 -7 59 16 35 -65 -16 17 -3 22 -51 39 62 -46 -20 -42 -39 16 21 -41 -45 2 -30 10 -19 -22 -35 -53 -3 -18 -77 -64 15 -32 8 74 6 -15 -20 42 21 34 40 44 -38 8 28 11 38 33 20 -27 32 -35 -72 -43 -69 -39 54 -5 1 -115 34 40 20 12 61 -41 -56 74 8 33 32 32 -78 -20 -37 7 11 -49 -25 -48 61 12 -9 -48 -46 -82 -12 -51 0 41 -37 11 -42 21 59 -39 -10 -3 -76 35 -69 -71 60 37 12 -6 -14 -3 -32 -3 36 -50 -43 -5 61 2 22 -56 14 -60 31 -1 -65 52 -62 16 -79 40 -17 -28 -16 -36 18 38 -63 -35 19 -24
25 -24 -29 55 15 14 39 -17 -42 -65 -49 -52 17 53 2 -55 -19 -64 -29 -25 -34 -28 56 29 28 -25 39 24 15 -16 -28 -44 -50 -16 26 -15 54 19 21 -48 -33 40 19 39 55 20 46 23 37 -57 2 -2 -2 -41 85 9 5 -61 42 -30 -21 44 -31 0 -46 23 -11 -22 56 -63 -78 -35 8 29 23 -55 21 6 -69 -87 39 -37 54 -39 27 12 15 -26 -28 -40 -15 17 -27 -57 -30 76 -12 41 51 26 -43 -26 34 -58 -12 21 -12 6 -3 0 64 -61 -63 -8 -9 55 21 9 -40 37 31 31 -6 -50 -55 -63 2 13 -45 13 -6 -31 8 -35 52 68 -11 14 -44 -23 15 -41 -16 82 13 -30 71 -20 30 51 27 -25 -54 -39 31 55 -77 -44 -47 52 33 40 2 -26 -69 -4 -75 -18 -16 -10 43 11 -49 22 -2 11 5 70 -75 -50 -15 34 58 -83 6 46 -11 -20 52 50 72 21 57 18 9 9 -47 -33 26 14 32 44 -10 18 -46 57 14 9 -22 37 43 -48 -13 -38 -28 60 -52 6 -84 35 40 30 -14 9 -61 43 -2 39 -20 36 12 17 20 27 -20 -54 48 -29 5 -46 -42 7 -71 -19 100 -87 18 42 51 16 -8 23 19 -24 36 -49
-15 -46 -13 -21 60 -12 -38 13 41 54 25 -63 5 -25 -50 23 -13 -58 52 -58 -47 20 43 -30 60 60 56 13 -41 -32 39 29 -35 -15 -68 11 -25 -76 -50 -48 46 -41 -34 27 -31 -53 -8 -7 -77 64 3 46 23 -11 45 -26 -55 -29 -47 0 -31 7 -36 25 47 -42 16 -9 -54 0 -12 37 5 -9 14 54 33 50 -4 -40 -3 -40 3 18 28 6 46 -30 -17 -29 38 -59 62 56 -50 40 -6 55 40 -60 -43 29 22 -6 -85 -25 33 9 -19 59 -38 49 19 -3 -50 7 2 -28 -57 53 16 -24 47 -77 45 26 6 -73 -60 -18 23 43 -13 -12 29 -45 -26 48 42 -45 50 -56 -32 6 46 52 83 3 10 9 -11 43 -5 -55 24 -1 -43 7 21 21 -6 -20 -63 -52 15 37 -25 24 32 -14 -22 52 42 -23 12 0 -44 56 -38 11 42 12 -10 -14 63 34 34 34 -57 44 64 17 -10 30 58 -28 -3 -9 -13 -57 18 -26 -36 56 -42 57 31 27 42 -43 23 -68 -6 40 -10 -38 41 -6 -65 -3 14 -2 -28 28 -31 -62 20 -63 -14 -6 41 40 10 -49 39 44 30 63 22 -38 -76 -5 78 -34 -51 30 -58 -45 -29 3 -11 25 -26 48 63 16
42 20 -10 -36 2 16 -15 27 4 49 45 -67 21 -59 50 -24 35 -50 1 -24 -11 20 7 51 5 70 8 -19 -62 15 24 21 22 -61 -33 -7 -46 -40 -6 64 35 -17 45 -15 65 -31 -27 58 -54 7 -6 46 40 55 4 -44 -18 46 20 14 -15 -36 0 -47 -63 6 -7 13 45 -61 8 42 -32 -36 12 -34 -24 13 -54 -10 -50 18 -5 16 -42 40 -41 70 32 35 -44 -18 -17 -22 21 16 17 -9 37 -6 44 33 -35 -21 -60 25 53 57 -22 35 -15 6 -13 33 1 -24 4 -10 -57 -16 42 44 38 47 -18 1 -29 9 7 -5 -47 7 52 5 -14 -5 -32 6 -34 -9 -47 -2 66 -23 22 19 -54 -4 -9 39 -23 8 5 -58 -32 -15 -23 3 30 -11 -19 -7 48 -7 17 8 58 52 52 -25 -32 -12 -9 -15 62 -36 31 43 25 27 -2 -44 -9 19 -51 51 28 31 -51 51 -49 -32 18 23 -77 -31 -43 -59 55 -46 -48 -51 -38 45 57 -57 -43 35 36 -26 24 23 -12 54 26 -52 20 38 8 48 52 -30 -19 -4 -26 11 2 -6 -45 -18 -56 -50 -40 -31 -62 21 53 56 -6 24 36 -23 20 -61 23 26 29 54 19 -37 42 2 -53 -38 8 -46
