2 30 48 51 13 -29 7 23 -17 15 -22 11 35 -13 5 -27 45 13 -37 -57 48 28 -50 15 4 14 -13 32 -24 0 61 59 21 6 -14 -35 -1 -52 47 4 5 46 -21 77 9 -67 -64 -43 4 -30 -5 -43 -36 5 -50 6 -40 -29 -17 3 10 -40 -85 -25 -7 3 -17 -60 43 42 -27 26 49 8 -52 41 12 -27 -31 22 51 -69 -57 48 -34 8 -57 -21 -23 -45 -33 38 34 5 0 6 -15 13 -26 51 23 -32 -51 -56 2 -58 -73 -34 -12 -6 38 -17 -12 40 -30 45 -30 45 24 48 42 -41 -44 40 -46 50 38 -10
-12 -37 -41 23 34 38 -46 -57 -54 -58 -23 56 -1 -6 -12 -70 -3 -19 -37 -40 -31 -34 46 42 64 48 -19 -48 -16 -26 -9 48 19 -6 26 9 -24 17 22 92 -62 -46 -7 44 -8 30 -34 33 31 81 39 -5 -8 21 44 48 -2 -67 29 -63 45 75 -6 13 14 20 -26 -42 37 -30 26 -40 38 -66 11 -36 -17 35 36 50 -51 27 40 29 -57 -72 -28 2 -12 43 -2 -16 41 -11 -18 55 38 47 23 -30 48 20 -66 7 -62 -56 55 15 -56 -48 26 -55 -57 65 -59 -51 -38 -39 -9 -26 26 -58 31 26 -28 44 28 16
55 -14 49 -6 -47 -40 -23 -68 -40 30 -6 -26 51 11 51 -11 -19 32 42 -43 1 -31 46 -18 21 -50 -25 48 -6 -17 -9 9 7 37 -45 55 37 38 -2 34 -19 38 -40 39 30 -57 35 -63 -28 -7 -14 -59 -21 -40 -32 -48 -74 55 24 1 -1 4 -67 15 38 17 17 44 -21 3 53 -53 -12 22 -44 -10 23 6 -22 -21 5 9 -5 -59 19 -14 -24 -65 -33 -36 -32 -38 52 45 3 23 4 -6 62 -2 48 44 15 -37 59 40 26 -32 -44 47 29 32 -18 20 -51 -15 -33 57 -24 28 34 -10 -53 -24 34 -64 64 47
-56 -25 42 27 -9 -61 14 -58 -34 -13 -46 -63 -30 52 26 47 -50 -16 -7 8 -8 -25 57 -30 45 23 10 44 15 -3 4 2 -30 -10 -28 15 -17 -45 -58 -23 -1 -54 32 55 -56 -66 -27 -20 52 54 33 -52 -43 31 60 -35 -30 -6 21 11 -9 -47 27 -17 -55 -27 -27 -54 52 26 -39 -50 -30 -28 -8 10 -55 -9 19 -20 26 -58 -8 34 12 34 -74 53 -2 -43 -76 -12 23 -34 -23 12 -1 -31 -16 -56 11 -48 8 -57 -4 -29 -53 -28 26 -61 20 15 49 58 45 20 -48 -6 -65 -32 -49 -7 -10 45 55 59 51 13
-26 16 -67 -34 -29 38 46 -21 -44 -54 11 -13 -30 -21 -4 -53 57 33 47 18 28 11 48 14 45 9 -72 -42 -28 20 13 -18 -53 -19 -9 -14 -32 12 -5 50 -18 -3 -61 52 -69 19 59 37 17 -28 6 -55 48 21 -56 -27 -16 -29 -6 8 -68 -22 -80 -50 8 3 -48 -76 21 37 -67 -27 11 36 -60 39 -13 -62 -3 -73 -28 28 -59 -55 -4 -47 -64 -23 17 25 -3 -25 -61 -73 -59 31 32 -9 6 10 -25 38 -1 -57 15 4 -52 1 -37 9 -35 10 -14 -33 -54 -60 -59 18 -21 33 26 -38 18 -42 -9 -52 24 18
29 49 58 27 -15 26 -38 -35 27 -59 -46 4 64 -39 40 -42 -5 -9 43 -17 1 -7 -52 -36 50 -48 40 56 -15 51 -14 -2 13 -39 26 -29 -19 -42 27 -12 12 34 -38 9 60 5 45 29 50 -22 40 15 45 35 49 67 28 -1 1 7 14 -18 33 25 -5 67 -44 -44 -54 -9 -39 32 -14 -37 -6 -58 21 2 17 1 53 -44 45 -32 -37 29 26 57 1 45 -27 -44 26 -44 -27 -11 18 2 57 -32 -52 60 -47 47 16 49 52 1 4 35 -53 32 8 -52 -32 38 -53 11 -5 -58 7 -5 31 -14 23 -48 46 29
40 5 -47 45 57 41 0 -9 -41 -36 61 -11 39 -57 25 -53 -63 -12 55 7 41 -19 -2 -6 -11 41 44 68 -46 5 57 -43 -40 20 -49 7 31 13 36 -18 9 9 34 16 12 -43 -61 13 50 44 -16 37 19 6 -51 -35 -15 -63 27 -63 26 55 62 38 2 -31 42 -54 6 5 -18 12 44 -63 -35 9 -45 -25 42 -22 -45 -60 -42 -14 -48 50 43 40 -51 -46 -7 42 42 24 19 -58 61 57 -44 -51 4 -64 -51 -51 -62 14 4 9 -16 6 9 -50 -24 -24 30 -42 38 -64 49 -58 49 31 -37 42 43 -62 21 -17
-23 -51 -66 52 18 50 56 6 -4 -29 -25 -50 -53 -1 10 7 18 -61 -54 33 -4 38 -7 -1 7 -50 -23 -1 -4 -62 -13 54 27 6 31 -4 1 -25 -1 -19 -17 10 -11 -35 28 -58 -5 -42 -9 -1 54 -9 27 61 32 -39 -62 53 -53 -26 19 -44 -2 -26 6 -37 -40 44 -27 -48 -1 16 34 -57 -47 60 -33 -48 -51 -30 -17 45 -53 -7 20 -18 -15 36 -57 -4 8 -42 64 -30 62 2 -8 34 -8 23 0 42 -1 0 22 54 -21 -2 -21 -17 -61 -60 -22 -15 -52 47 13 9 -31 54 -48 5 27 -36 22 -58 -50 -47
-33 58 -44 4 30 -52 -11 63 40 -6 -49 57 -6 44 -4 24 27 57 12 10 60 1 41 -57 -54 36 -55 48 -35 38 -42 -22 25 43 -61 3 53 -33 39 -46 -7 -8 -50 49 43 9 6 -12 -26 -15 8 -22 7 -46 -30 -58 0 -31 -6 51 -58 31 34 9 63 -22 26 -58 -40 -63 -55 30 16 34 -23 23 -9 -20 -42 32 57 14 17 -22 32 -58 -32 -40 54 58 -31 -51 -20 29 61 -20 27 -41 27 26 -54 8 56 -4 11 67 43 37 12 3 -7 17 55 4 45 -14 3 -39 -47 34 6 17 63 12 40 -32 43 9
23 41 0 -44 -28 -37 29 22 -27 15 -18 -7 -8 -20 34 -16 52 -32 12 -51 -29 26 15 62 -53 -65 -59 -22 35 50 -4 48 -19 -68 -9 48 -18 56 13 52 -54 -1 -19 51 -26 -65 40 -18 -80 -39 -30 -24 54 29 2 40 -1 -6 -51 -7 -62 -10 -25 -15 4 -29 -37 16 -13 -44 40 12 17 47 -16 2 44 -25 32 -62 26 -70 -31 -56 37 -66 -43 -38 -1 -51 47 -72 10 28 -69 55 -49 -44 -1 37 -43 42 26 -58 -17 -26 50 28 41 -59 42 54 -45 50 -29 49 -37 -57 44 22 -65 44 -14 2 -26 -17 -6 -57
-31 31 -29 16 48 -16 12 -55 33 -16 25 45 -6 -10 43 49 -44 -25 62 54 37 -14 -56 -25 22 52 58 -36 48 1 70 59 32 -17 35 -59 21 -29 15 -14 -37 -7 0 63 -9 53 -13 -19 -55 55 -53 -44 61 -39 -29 -7 -31 7 25 52 -28 29 56 -33 68 -29 48 22 35 -51 51 -39 48 21 -7 -50 24 -5 -43 32 61 51 -50 17 -18 -5 63 10 23 -14 11 6 -29 -32 61 -20 -31 12 50 -2 -10 -62 51 -44 26 -38 6 13 48 -57 0 -56 2 -10 29 5 8 16 -51 14 24 43 -6 -8 -36 -46 -48 -14
-29 52 -3 40 43 30 -37 -64 48 27 53 39 -2 -12 32 -16 45 -10 -68 1 -6 43 -45 24 -39 -50 -53 0 56 -51 -36 38 49 50 59 -31 -34 65 56 22 -39 36 2 -19 48 62 -22 -17 -58 -55 -34 61 -53 -30 -6 -46 -62 16 46 46 -11 -9 -23 -42 -23 42 -10 29 38 -61 41 0 51 -47 -54 45 -16 50 51 0 15 -46 -39 -63 20 33 40 3 -35 -25 -28 21 -20 27 -24 -48 11 -49 27 26 -60 51 34 0 -32 28 36 -39 -27 -54 -17 51 52 46 25 39 -9 51 -4 -10 -32 64 41 -16 33 30 -54 53
47 -42 -11 -38 -10 47 6 22 52 -4 0 -19 -53 21 42 -50 51 -26 -7 63 -40 -28 -30 47 37 -2 -21 -13 18 -9 35 52 -43 24 45 51 8 -25 -8 5 -61 50 -29 45 27 -22 -20 12 -24 -69 -8 21 31 60 -42 26 -28 54 -16 -24 19 -54 15 36 34 61 -52 -4 -64 7 7 36 28 20 53 29 -20 -2 7 16 -46 -54 -2 -49 52 -24 2 20 -27 -70 50 33 66 -7 -3 22 48 23 17 -20 58 55 -60 20 -60 -55 52 49 42 36 -37 -19 -38 48 -51 -24 17 64 0 -35 25 -37 -39 -35 -21 -63 -4 50
29 -57 -31 22 -24 -50 -17 -38 49 4 -23 33 54 -40 36 6 2 -50 17 -59 -38 47 63 25 -41 -1 -11 -27 -39 -17 4 11 -30 13 -37 -32 -27 -35 -51 -2 36 6 44 28 25 -6 -62 51 1 -34 56 15 -32 -11 57 58 -30 40 -44 26 -62 -44 -39 18 -11 -35 54 39 36 44 48 -23 -4 -21 -13 -16 5 64 58 -64 -20 4 -43 -62 -33 2 9 -37 67 -7 -9 -62 -21 33 41 -18 24 56 -16 17 26 -17 -6 18 -21 -2 51 -19 -62 -12 54 -21 26 14 -28 13 38 51 -17 -7 44 -27 -29 3 -39 13 18 -68
-61 0 -59 -39 -4 0 4 43 -70 -24 -1 -57 36 -1 10 44 -13 12 -23 -36 -4 40 11 -2 22 -36 -47 -25 31 43 -43 50 37 -2 -32 45 -62 -37 -14 97 -23 36 -15 30 36 48 68 -16 27 31 -63 -12 -9 -37 -8 -17 -4 37 -64 11 -40 41 -21 -28 -55 -75 -37 1 40 15 8 -76 47 -50 4 -14 -52 6 6 -10 48 -73 -54 22 -43 41 -21 15 56 17 45 -67 16 -49 83 -56 102 -19 -49 -3 -61 19 45 34 -55 -25 61 2 -23 34 27 44 -63 39 -17 -33 -13 31 1 -26 -65 -33 44 -56 39 -21 1 14
44 -42 56 -30 11 54 16 -41 -9 -21 -1 29 48 -8 47 18 -22 57 -63 32 11 14 59 -31 -74 42 7 13 22 44 0 -21 -22 12 41 -67 -51 -54 -28 -1 -57 -60 5 24 7 33 51 -14 -48 -24 29 22 -4 43 -27 -1 47 51 54 -51 -62 43 -59 13 -31 13 11 27 -31 -37 -3 60 26 -63 -49 -6 18 -15 -53 24 63 -4 16 -19 -70 -31 -52 52 -12 41 -33 -57 17 30 8 -31 -1 44 -37 -11 -52 47 19 -25 -31 -29 34 -55 44 12 -47 -4 -74 27 32 -10 -20 -39 33 -45 51 10 -15 -40 -43 -47 6 37
58 -10 -17 -4 1 10 -34 -47 -53 -41 41 20 -9 -48 -20 43 -39 12 49 38 -26 36 2 0 17 -38 21 29 14 63 -47 -38 10 16 -17 -38 58 -56 27 17 14 -20 7 30 11 -62 34 62 -53 26 58 -33 43 -2 -53 8 56 33 -9 38 -5 -20 40 -50 61 0 -60 -33 -62 -27 44 28 53 11 -34 45 -35 27 6 -8 17 41 -16 12 -41 -1 17 25 69 38 -56 27 -24 45 56 -30 0 -23 -9 -4 -55 20 56 -49 -4 35 -23 16 31 29 43 -6 -9 12 33 54 27 18 -15 30 -29 54 32 31 55 55 48 -61
5 -31 -52 47 44 -44 45 41 14 -27 -7 2 -3 35 69 -65 -3 39 22 -30 8 -57 7 -33 -48 9 -48 -35 -23 -64 -73 -42 53 31 -69 -36 -20 10 37 41 -2 -49 -46 45 -5 -10 31 55 15 -49 21 42 -38 30 38 -37 1 -50 1 0 34 -49 31 -18 -15 54 47 59 14 -67 -26 2 -36 25 -10 40 44 52 4 -31 -15 -63 -36 -6 0 -39 -33 -57 31 -64 -6 -61 31 -49 -65 18 28 34 49 -43 34 17 -11 5 63 62 38 29 48 37 -13 -45 -15 -17 -26 38 -61 -61 -48 -9 -43 -7 4 66 51 31 57 47
24 39 -19 -61 -56 10 18 -25 -14 44 5 -42 -32 -3 -12 28 33 -38 13 -54 -34 26 19 -24 41 13 39 64 26 8 27 -60 4 -55 -27 -16 60 -32 -48 35 -44 44 51 47 27 -23 -36 -27 -11 28 -57 60 -15 18 16 -16 -61 53 -57 24 -65 -33 -32 37 38 -1 -50 -17 39 -36 42 -34 -21 49 2 -40 -22 -36 7 -67 -4 -46 -22 -25 -4 -66 6 -6 7 13 -36 -20 -1 -48 -44 -59 -31 -33 49 -8 51 -34 -37 -26 13 -44 -7 27 -16 25 -47 39 50 -20 -42 -33 -58 55 5 29 14 -35 -63 43 47 -9 -26 32
23 14 48 38 -71 16 -20 -14 51 -14 -58 40 43 9 -39 52 57 -38 -20 -22 -43 -51 -56 -49 -45 31 -63 38 -56 -62 -5 6 -62 -37 29 29 -46 -30 -63 -67 -32 36 37 8 -28 -47 3 -27 -34 -23 -38 57 10 -1 55 -44 11 -50 8 -64 -26 -13 59 -49 -42 44 -27 52 53 -28 24 -26 -58 -64 20 -34 -4 -4 61 27 45 -48 -29 -51 -3 -56 15 -36 -15 31 15 -15 -17 -28 16 -56 -27 33 8 20 42 -26 -24 28 31 -58 -54 -60 3 41 74 5 0 42 -39 -58 5 -39 -4 -72 -26 -64 -52 53 -3 -1 16 48
-1 -53 14 -6 -5 -38 -49 -8 -57 60 4 -10 9 59 34 14 1 -27 -28 -16 55 13 -6 53 -18 -23 -8 -27 -53 -40 -6 19 7 -16 -50 -4 -17 36 11 -34 35 -43 16 57 -54 -60 -36 56 21 -14 30 6 -40 -3 70 66 27 -1 54 -27 36 -20 47 21 5 -8 -1 -23 -8 50 51 -4 6 30 -59 -63 -26 -42 -54 -67 -13 -14 25 -29 31 -43 1 34 0 5 11 -47 73 -39 62 -37 -10 11 -23 -42 -40 -51 -57 21 44 33 -10 -2 -15 3 14 5 -8 3 33 -33 -11 -10 -4 49 -43 -35 15 37 2 18 -41 -17
39 -25 45 25 4 -36 -31 39 51 52 -32 -4 20 -27 20 -45 9 -46 -57 -30 -22 27 -44 44 17 -25 29 -35 -2 25 -48 11 9 -53 33 -46 -26 54 46 -55 50 11 27 -46 -36 -30 61 29 -54 -30 -8 42 -21 -45 25 -52 -40 32 19 -5 35 -14 -14 -50 16 -48 51 -52 -21 12 -18 22 -2 -40 56 -12 -29 -34 -11 -15 11 15 -1 54 -49 -7 -50 36 -32 40 30 21 -12 -57 38 39 55 39 31 46 -43 -23 -12 37 -57 64 15 6 51 57 -29 36 24 2 -30 52 47 10 44 3 -35 -21 -57 -59 40 -57 58 41
3 -57 33 -42 27 17 -10 56 71 -10 13 -24 68 27 22 12 -20 83 3 58 -22 55 -33 -25 -57 -52 -39 50 79 58 41 -62 65 -14 -2 83 9 47 -23 -59 -63 20 -27 -11 -6 -26 -41 -14 -12 -8 -57 -25 8 36 41 -4 17 -35 -39 -30 -3 -44 8 -19 -13 80 2 -60 57 29 55 25 32 -50 10 -54 -59 -8 26 18 -28 -46 60 -28 -46 -28 7 88 25 -14 -52 -8 -32 73 -14 28 -10 11 60 -47 11 49 -30 -39 -34 40 -1 -45 32 7 -1 -44 74 66 -56 15 44 5 0 -39 51 62 21 -17 -75 32 52 -52
58 29 -63 17 47 -34 13 -31 -25 -15 1 -59 64 15 7 -54 53 -43 -53 8 38 -46 33 -45 20 -9 -17 -36 -18 30 -24 -37 -36 5 53 43 -52 -26 66 21 22 39 25 -43 44 9 22 -45 -12 -2 -21 6 10 -12 -41 14 -5 -2 -13 26 -52 60 -39 -53 -38 34 26 -15 32 20 -61 18 37 39 35 -34 53 -11 -52 15 52 21 43 53 9 46 -8 54 -4 20 28 2 1 46 14 22 -16 25 63 37 -50 19 61 43 14 40 42 -22 -60 -4 -37 -6 65 57 -33 -16 33 -62 -50 -47 27 -23 -39 35 -44 -58 -12 41
1 23 56 -61 -18 -63 59 -15 -9 -47 -36 -13 47 10 50 10 -30 -28 2 61 7 43 14 44 -29 66 17 48 -2 56 -73 -4 -53 13 -65 53 22 -10 -6 -51 -14 41 -47 -46 4 59 57 -4 10 52 -45 -4 41 1 -50 -54 -26 50 40 -33 53 56 -55 -7 -9 8 30 -47 -36 -58 -23 49 -27 -53 -15 50 35 17 54 -52 -57 55 -63 59 3 -49 -7 -11 -64 -20 -62 33 -22 -50 2 40 10 -22 23 -40 -31 -1 2 -63 26 -42 -71 8 13 55 -2 -28 34 31 27 43 -29 6 -50 57 22 -5 14 6 -17 -57 19 -64
33 -42 0 -35 -30 -4 47 21 -53 -50 -12 -49 46 -8 -56 -19 -35 -24 -31 41 13 15 42 -12 -64 45 13 11 -37 -43 4 -48 58 28 52 9 36 48 -37 -41 31 29 -59 29 11 -71 -59 -20 23 44 0 44 57 31 9 -38 -23 -56 40 -38 -35 -17 24 -48 8 48 8 -33 52 -1 -43 -11 51 62 55 31 46 -64 50 -75 9 -32 -30 -6 -29 -4 27 -3 21 47 -22 63 -45 -53 3 2 1 -27 38 -24 65 -15 -39 25 -56 33 -44 -4 41 18 -63 39 -41 14 -31 -62 -27 13 -51 -10 -44 -59 56 -11 16 -2 49 21
-50 57 -43 -9 -33 24 26 -46 2 48 10 47 12 55 32 36 8 46 -56 -52 -49 47 -9 -3 -29 -30 -44 56 21 43 -69 -69 -23 61 27 47 56 -15 30 -35 -35 42 31 34 -45 -6 -38 -23 20 -40 -12 -2 -15 35 -33 -56 18 -63 -36 19 58 -7 21 -3 36 -47 50 56 50 -71 42 21 13 1 48 -15 10 32 -12 -58 -32 34 0 24 40 50 -25 -7 -12 20 -37 -21 26 -15 -20 -55 2 -44 -12 -42 31 -63 -28 20 52 -63 -27 63 21 -6 3 -15 27 33 64 48 -11 -34 -16 39 -13 -30 -48 48 -41 32 -53 -19
-24 -7 38 -78 -56 61 -49 70 12 -15 45 -24 -18 -52 -68 -39 17 56 14 -51 75 -42 35 -20 70 0 27 -50 -36 15 55 31 -14 -7 54 78 10 -2 -41 63 38 -7 -13 35 62 -56 31 -9 -23 82 26 39 -67 17 42 -56 -53 9 38 28 -20 3 4 3 45 2 -35 -52 13 -27 -20 35 -60 10 54 60 -13 46 66 -49 -25 -13 51 14 -55 1 -25 50 49 35 35 -24 87 -32 15 -54 81 -10 55 45 19 31 9 -7 49 -54 55 -49 -41 30 33 -48 29 -1 26 49 -4 -31 45 49 -8 20 -24 -55 25 17 14 55
15 -42 2 51 -1 38 19 -24 -61 -56 46 29 -19 -37 -54 40 20 65 31 -19 -37 20 -40 -37 -16 23 21 30 26 12 21 55 4 -53 -34 -1 -18 -9 43 -63 48 1 8 62 -44 35 -12 -63 -39 6 57 54 2 -17 10 -30 -34 51 -15 -21 -15 27 43 51 -24 15 -53 38 26 30 13 30 34 -8 -13 -28 -55 -21 52 -24 41 -33 24 57 -39 -18 -62 -20 -7 -19 -18 -35 -3 24 -1 51 27 13 31 33 20 5 -41 -4 -6 -2 -42 60 17 -6 -23 -37 18 58 32 -21 43 3 -33 30 3 -10 -53 0 -49 15 32 -61
46 -24 -30 -48 -39 -43 -28 66 -48 29 -9 -61 -9 17 33 -31 -19 -24 41 33 48 43 -47 61 75 -62 -54 -48 -4 -55 55 0 -55 -20 20 2 20 -24 -9 -21 -17 28 -26 -29 -36 -24 -70 24 -33 43 -5 52 -25 28 -35 -54 28 -41 -37 -28 63 -52 -32 27 -53 -45 43 12 -60 15 54 40 -51 -38 -66 22 -51 -3 -3 12 26 -44 -61 44 -54 17 -11 10 47 41 59 -61 -54 70 -52 7 12 7 -12 -58 -30 -1 49 -19 -37 31 40 -46 51 30 -16 46 -28 -43 7 -23 -4 2 -39 36 18 23 -59 13 -29 34 -25 -47
-55 41 -43 46 -22 -35 -40 7 -51 -29 54 16 24 34 47 12 16 18 -26 -34 3 48 -58 -39 62 46 -15 46 -31 33 -54 49 -39 -64 23 -25 -11 6 20 26 -14 -22 45 54 53 35 -18 -34 -9 14 32 30 -87 42 1 44 52 -66 -69 46 -50 -11 60 -5 16 -22 59 45 -62 49 49 -12 30 -12 41 -32 -66 54 -13 49 34 -62 -51 -36 -13 24 -23 -5 14 -54 -39 -37 -25 18 14 33 10 -56 -22 -25 -20 11 -36 -31 34 -27 -15 -7 -2 30 18 51 -31 30 -29 -53 -3 2 -48 -36 58 39 -37 36 33 -53 -6 43
-70 16 24 -24 44 56 21 34 30 27 6 -28 -14 54 30 -7 52 -45 -40 -24 8 -34 14 21 -39 15 -62 -20 57 -38 -75 -37 -62 -1 32 -35 51 5 -16 -55 6 -28 35 -61 40 19 14 42 -78 13 30 22 -32 41 32 54 33 -11 -11 0 27 28 10 16 55 -32 39 -4 -6 51 -20 18 -39 52 6 12 -18 -80 13 50 -30 3 -26 14 13 63 -12 -4 52 37 38 -14 53 -12 26 -64 -1 -52 -29 -46 40 38 -10 57 -43 40 -52 -28 23 47 41 -2 -21 35 -58 26 52 -5 12 25 37 -50 44 -3 -60 28 27 39
64 17 -13 40 -32 0 -64 28 -58 12 21 -40 41 -24 9 17 33 -37 -22 20 18 4 39 -26 -40 47 -12 40 35 23 -40 -28 -29 -66 37 -17 58 -36 40 45 -39 -38 -15 -40 -22 -44 -22 -21 24 -46 -43 -21 40 -19 -33 -6 -21 -26 -13 46 -52 -19 55 7 -43 -55 61 9 -52 6 2 -45 -16 0 22 -35 -3 -16 -44 -61 -56 26 -1 -33 53 -37 -19 69 30 1 41 -47 28 68 -31 39 -5 51 37 -4 1 -34 26 50 22 -18 0 43 -14 -25 -49 -71 -12 -24 -25 -13 28 -49 57 26 34 0 -35 44 63 55 58 -30
28 -61 -24 -3 48 -21 -32 -38 54 20 -18 19 -64 0 28 7 -22 53 -18 12 7 22 -7 -34 36 -59 51 17 3 36 -38 -61 -12 44 10 -17 -39 21 11 38 -24 -34 10 -22 -39 28 -45 -40 37 -2 -43 -1 -16 -61 5 -54 55 50 34 30 4 -11 -1 -29 -35 43 -13 -41 -40 -62 48 22 -52 48 9 34 58 39 -11 -42 -3 2 19 -39 -23 9 -28 57 18 23 16 -33 -28 29 -25 7 -42 13 12 1 -69 43 -38 -20 -2 -24 -1 -62 -72 -6 -52 40 65 54 -20 -53 27 48 -59 -30 -56 -35 -13 -57 -8 -26 -16 -28
14 48 33 3 32 -16 -51 -17 -60 11 -21 -59 7 -72 -24 34 -59 43 -55 -56 -38 -32 40 -13 -66 46 -9 33 -42 23 22 -52 -6 9 17 12 16 19 -62 -60 36 44 54 -40 -51 -30 1 15 -20 -44 -11 31 35 -27 -73 -50 63 33 67 48 -7 -81 -13 12 3 -71 13 -73 -64 19 -12 -31 43 -67 45 -11 -32 -54 -30 -29 71 -68 -8 24 52 -15 -13 -7 -13 -18 42 -50 -20 -55 -16 -26 26 37 11 63 -38 -2 74 4 33 -8 1 27 -18 -3 81 -51 -7 -57 33 -45 23 -44 -34 25 -64 62 -46 -50 -30 -20 -39 -12
-59 -14 5 -58 24 3 19 -2 30 -17 -46 -11 -2 23 -43 27 46 -68 -36 -50 11 9 40 -69 61 42 -9 -53 35 38 -37 21 47 -22 -7 -15 -53 -63 14 -43 31 30 -9 41 -12 -5 44 49 1 14 -33 45 -19 40 66 -43 -21 42 14 -32 33 -46 18 -28 56 -47 -39 -42 -21 -43 37 2 24 58 -25 -10 -59 -64 -27 -5 18 52 -60 10 -41 64 38 49 1 3 31 2 48 -61 65 49 -9 -12 -66 -19 40 -21 -16 -20 16 -38 41 -12 -28 51 48 43 -17 22 -42 -48 14 -41 -51 -70 -39 -8 -59 -22 -59 -13 -47 -25
-8 -5 -14 43 -77 45 -43 49 -42 50 -42 19 53 8 28 2 -24 28 55 41 -12 20 -48 14 -2 -38 -24 52 -70 -6 -26 6 3 42 -60 -11 18 14 -2 -61 42 8 7 21 -35 42 19 -55 -9 53 39 40 36 47 -5 36 28 33 53 14 44 5 -52 -17 51 -3 1 -18 -26 28 -53 18 -41 -4 15 61 10 18 22 36 44 -40 13 6 -4 16 42 34 50 -11 57 28 -29 6 53 -34 -8 -21 27 -36 45 61 -37 38 -49 -35 -24 -56 52 -1 -28 -58 42 55 -12 6 -20 -40 35 43 35 -53 41 -86 53 13 24 4
-58 -31 -49 -21 4 27 13 21 4 -59 -26 26 52 42 -49 -33 -51 -44 -58 -53 45 32 1 -57 -42 20 9 35 50 2 58 9 -17 -16 60 7 -20 24 12 12 16 -67 44 42 24 -57 52 19 -38 -36 -4 26 -55 -32 -38 13 100 -9 58 -24 5 -68 -42 39 -41 23 -4 -4 -7 -63 -32 -8 15 -37 -60 -53 -55 -34 46 -33 33 -22 -54 -36 40 52 -43 50 -58 -55 1 49 12 5 -11 33 -55 -40 -5 -67 -26 -35 69 -2 15 -25 6 -35 62 -71 -23 47 41 7 6 -48 -34 10 -52 29 37 43 -10 10 25 -37 -1 52
-2 -58 -32 53 -11 52 -20 32 -54 -63 4 -15 36 -62 41 -31 -57 23 14 57 60 45 -24 -40 78 33 -3 26 18 30 -36 6 47 -31 31 30 47 48 -62 61 -55 -10 5 0 32 51 -43 7 -26 -55 -41 -16 -64 58 -26 -66 47 44 38 22 33 -33 -22 52 -54 -50 36 -23 -46 -3 2 30 -45 -38 -59 27 -34 20 -31 28 -21 -12 -32 31 -4 54 -47 42 -36 30 -49 32 13 12 -8 -41 28 -72 -7 -61 43 42 27 -46 -52 -18 -16 48 -48 -9 48 -8 -81 -52 4 -40 17 -38 -17 46 -16 -51 46 -9 61 -41 -40 -5
-49 49 -29 48 -16 0 17 -39 -36 -17 4 -17 -7 -21 -41 -12 -43 -59 -41 -19 -6 45 2 -8 8 -43 -32 -49 42 -45 -40 21 -54 -30 6 57 23 -56 -32 -25 15 33 -9 41 17 -57 -37 14 -46 22 -66 -44 -58 26 -53 -6 31 -22 -9 -41 -32 37 37 -27 -24 23 -51 26 -17 -21 -15 -15 -21 7 -28 -14 28 -13 -1 41 -26 26 -47 14 -31 16 -5 -14 28 50 38 -36 35 -46 -34 49 37 -50 -41 -49 -68 -39 29 -20 39 43 -63 17 -37 62 -23 71 -3 23 16 -63 3 -22 22 -22 -13 -12 -22 -10 47 -52 55 -42
59 -52 -8 3 -43 -19 -56 -5 -31 43 -10 11 -31 41 -32 5 43 55 -50 36 -12 28 8 -43 27 -12 -6 -12 51 -15 -8 -49 -11 -32 -69 28 0 -58 35 12 -29 20 45 27 -64 39 36 60 -49 13 -10 -41 22 18 25 17 -28 -37 2 2 17 7 -34 -72 47 -53 21 -8 62 -28 -70 -76 -23 -37 -39 24 10 19 -64 46 -7 -57 14 -58 -13 4 12 5 -51 -37 -68 19 -17 -4 34 -63 -46 32 58 -52 44 -26 -20 57 -57 -47 -7 54 34 9 -52 2 -49 68 16 28 -43 20 9 24 1 29 -36 -66 25 -15 -21 -58
23 2 21 6 -2 51 58 10 43 27 41 29 -56 0 -44 45 -23 45 -30 -30 13 -30 50 51 -47 12 -15 47 -54 34 29 47 50 2 -10 -24 51 -52 68 22 32 54 65 55 17 -40 33 22 -37 -10 -52 45 16 -45 33 -37 35 8 47 37 -56 21 -22 59 26 -25 4 29 -17 -30 0 -21 34 63 14 47 60 20 16 -53 46 -70 55 43 29 44 -58 -65 -55 49 25 10 -58 -18 69 -40 14 55 -19 3 25 31 55 0 9 58 49 -55 -70 49 22 45 20 43 31 -40 56 -47 10 48 46 14 -11 -47 3 54 46 -37
47 -7 -48 -31 12 19 30 -48 28 52 -49 -30 45 49 -10 -56 -60 -14 -14 -19 1 50 13 -29 57 -3 -60 14 2 -46 46 -51 57 23 25 7 1 -1 37 -53 -17 56 -64 -5 -13 46 -33 9 -29 27 51 -1 -17 60 8 52 -55 15 -12 56 32 56 -58 -2 -7 48 38 -28 20 21 44 -19 31 -20 24 39 -4 -44 -8 13 25 -39 -28 -7 -63 -32 40 -43 -27 -55 18 -45 51 31 26 -67 7 48 18 -36 25 -14 42 -37 -4 43 12 -8 -41 -29 -6 -2 48 35 21 -3 -49 -51 -62 35 60 48 -33 15 -44 -63 -11 0
42 28 45 35 36 29 -8 50 -17 -60 21 13 -49 32 -25 -55 10 -27 -30 -64 58 50 0 -3 -20 -20 31 -34 2 -67 -40 63 24 -15 10 48 6 -36 -26 -10 -64 -63 -18 27 0 3 13 13 -26 -41 -9 -47 22 -5 61 -16 -16 -17 -18 36 30 -64 -43 37 -36 48 6 38 -34 -49 -30 31 -29 -42 -23 -41 27 17 6 -43 -24 1 3 37 41 31 -44 -23 17 31 -58 43 11 0 -45 -42 -20 -16 5 52 21 -28 11 -40 -16 22 34 40 57 14 -21 -63 58 26 41 33 -54 42 1 55 56 -45 45 -60 67 -37 34 -40
-55 45 -51 -7 -43 -16 -24 -43 -72 -24 -36 29 59 18 -10 67 -24 44 -39 12 -28 8 -38 7 -67 -42 -35 55 -1 -19 17 -51 54 -15 70 -26 -25 -9 -18 36 -35 -15 24 50 -51 40 -54 -8 -60 30 54 -61 44 -23 11 -20 49 -60 9 -14 -38 -72 -50 31 21 19 24 19 40 14 -75 73 -17 -7 27 -8 22 -54 35 19 33 9 -53 -15 13 -46 -51 -22 -23 -26 9 43 40 54 65 52 -14 19 -22 -15 66 -42 38 53 -37 -17 49 -46 25 40 7 62 33 -28 46 -44 -52 6 -4 -17 23 -9 58 -41 57 -55 47 -30
19 -64 26 -57 -53 -9 -62 36 12 51 -52 21 38 -44 -7 10 -64 46 -20 -21 58 2 -37 53 10 -47 -54 -47 44 -59 12 28 11 43 -61 -54 -37 -6 -37 -47 57 -7 3 -6 38 -15 66 -20 48 19 16 -8 33 28 4 40 5 -29 12 -9 -22 18 -72 67 59 -31 33 -45 -24 -5 -3 12 -31 13 46 -55 -24 53 -33 -17 -53 -19 53 -8 -23 -45 -56 41 41 55 53 -31 44 -61 -40 -44 1 -19 59 -38 -52 35 -61 -19 -48 -63 -59 -15 -15 46 -15 55 0 34 -22 -29 -63 -60 42 -6 27 23 36 -50 40 20 -31 -54
3 -55 17 -34 48 32 17 -21 31 -13 -38 25 9 -14 -59 33 -28 -12 51 10 -63 34 44 35 18 9 -23 -10 74 -6 -43 -28 -25 -49 32 19 27 28 0 -54 -43 64 30 76 23 42 -59 7 36 -53 54 -33 -53 46 13 17 -27 34 1 -48 0 7 -5 17 11 22 -19 32 33 -11 -44 -34 -65 34 -12 44 62 -63 10 12 39 -9 26 39 18 36 -55 57 29 10 -61 -67 -31 60 -35 -2 -45 40 9 44 -55 5 -38 58 -45 -46 56 62 -8 3 70 -1 21 -6 61 5 -38 -45 -61 -27 -62 -12 -65 46 -24 37 76 -63
-13 -21 -36 23 18 29 -20 1 1 -16 -27 -39 53 19 6 2 -58 -57 -17 -10 -42 -44 23 -15 -6 24 28 63 -53 32 46 -42 62 45 8 -59 -43 -45 27 -117 10 -24 -38 -45 9 -28 -65 -14 -64 24 8 55 37 33 34 -52 -2 -4 -7 -37 10 -35 17 22 -23 -68 -62 53 -18 33 55 38 31 -2 -16 40 -25 -7 4 35 74 1 45 -29 -68 60 -48 -51 -33 -55 -20 -34 -6 1 -57 18 -9 25 42 -42 39 60 14 50 4 -45 -32 -36 -33 48 29 48 32 -3 18 -11 25 -34 44 -19 -58 -2 43 -37 58 35 -55 -51
41 -27 38 19 26 52 55 19 39 6 1 -18 -12 -62 9 35 -48 -27 51 59 9 -46 -43 -51 7 44 14 1 8 27 36 18 41 36 -39 -22 -56 6 -57 0 -35 -36 5 -69 -38 -49 -29 -67 -37 -3 -32 -32 -31 -56 37 0 13 47 2 -52 36 -22 28 5 20 -36 27 -4 48 17 6 -64 4 -29 45 -57 27 -1 -21 5 29 -11 -43 9 28 37 53 -54 -60 -4 39 57 -6 50 -12 -65 -60 18 -48 -2 23 23 -12 -11 -35 27 -59 -26 -20 -38 13 1 -28 12 -58 22 1 0 33 27 -45 -48 -33 -35 -60 40 35 -3
-45 5 55 -19 -26 -12 -31 6 15 58 47 -6 47 -26 -31 12 63 -70 -33 -16 -37 37 -52 -31 -25 -71 -29 9 -9 -27 21 14 8 26 -27 53 32 -40 -5 33 31 -50 29 7 -27 40 -26 6 40 45 61 27 38 -2 -12 62 -60 -48 10 -46 17 -15 71 17 31 -7 4 -67 -25 -7 47 50 2 -64 -37 -40 -2 -20 -44 -43 31 39 -26 -53 -22 -16 -64 36 -21 1 -20 17 1 14 5 -27 -49 -55 -1 4 50 -24 -60 37 -11 52 -33 39 -23 -28 25 53 34 -67 35 -11 -7 50 20 -26 16 -7 3 -35 61 -52 43 -58
46 -45 -67 54 -17 42 16 -49 33 14 56 32 -45 -14 -64 27 55 44 28 -31 -31 -7 -2 -26 8 29 41 1 52 -70 9 53 58 25 -53 3 43 -25 -30 8 -31 -3 -46 -49 52 36 7 -19 -66 -40 48 40 -57 32 -47 -6 -48 5 29 32 34 5 9 -33 43 -8 -6 3 32 -61 -10 24 -34 5 -49 -10 -1 10 58 34 22 38 21 -23 -22 29 -33 -28 -50 -32 -59 -5 32 -36 -41 48 16 -25 -28 -27 -10 -55 3 -61 -51 46 -3 -35 -25 -68 -47 40 -60 -51 6 59 -59 10 -42 -63 41 45 -12 51 17 -35 54 -13
37 -10 28 0 49 0 20 -11 31 51 46 -37 -27 -19 -40 -57 55 64 28 42 -66 51 -40 19 9 51 -6 -24 -45 68 37 -40 -37 51 15 32 -61 -60 37 1 -55 22 -44 7 6 43 54 12 -57 -9 47 -49 51 20 46 -50 -58 -58 3 28 52 -37 -24 49 -29 -22 -35 -65 11 -17 -64 47 47 54 39 1 37 -2 -42 -22 -39 -42 -25 -69 -40 -35 -15 41 62 44 -54 45 -19 46 44 43 37 -50 40 -3 58 8 -19 13 -37 22 -33 63 13 -21 12 -36 -40 25 -34 15 28 37 -43 -29 21 56 10 46 70 25 17 13
2 -35 -42 -62 -60 42 46 24 11 0 -13 -23 26 -57 -44 29 -21 -3 14 -52 32 -40 45 6 -43 -53 36 -41 44 -31 52 -53 -59 -15 8 -19 34 -57 55 -65 39 31 -58 6 -38 -8 28 -63 9 -1 -63 9 8 57 -38 32 -1 19 38 12 -36 64 -51 43 -3 53 -48 11 -13 8 -26 35 -32 -44 -49 8 66 -50 -38 34 -36 36 63 -57 33 40 -29 30 51 32 61 -42 -21 29 47 43 39 -38 -32 -23 -53 -52 6 -67 -54 10 -49 43 47 -24 67 57 58 25 -65 31 30 -22 13 28 -8 -38 -20 41 -66 -9 -44 -35
23 -49 -31 44 11 -29 54 -41 -14 -25 48 14 38 37 -13 -13 -51 35 28 0 -15 8 7 23 38 -37 -54 10 2 -4 -17 20 23 0 39 14 45 -54 -48 77 51 18 59 -42 -23 61 46 -40 -13 -32 32 -59 -10 -10 58 27 -7 25 -39 -8 -69 53 -49 9 -61 -33 -62 1 5 27 45 -26 48 38 32 -50 30 -43 2 -29 46 0 -46 9 22 50 -25 -57 11 25 -33 -67 66 18 -52 -57 81 -69 22 24 49 -25 54 -4 18 43 54 21 35 45 -51 23 19 -62 -39 9 45 -47 3 44 -25 42 3 13 -61 42 -25 -2
-42 -41 17 -20 -46 53 58 63 -22 39 -58 -18 -12 8 -36 -23 -17 11 8 -1 61 -57 -66 41 -6 -7 -29 -28 -20 11 59 67 -20 -16 -35 33 43 -55 -63 86 -67 1 -13 -23 14 -48 34 -76 60 6 -68 57 62 1 -73 62 25 20 -33 17 -69 48 7 36 17 -47 -2 -41 -55 -36 -21 -37 -36 20 39 85 20 57 19 -5 3 38 39 -78 -59 -11 19 68 -80 -20 67 5 87 -10 -17 39 25 -76 14 -33 -44 30 -10 6 44 -29 32 -38 -15 -17 -25 -39 79 36 4 22 -54 -40 -62 -10 -11 35 -94 -11 -38 43 -40 -28
-42 -6 -64 20 6 42 59 34 -45 4 -57 12 -48 24 -41 -52 54 59 -32 -45 -26 58 25 1 -38 4 -65 58 39 54 11 21 50 18 13 3 -26 30 61 70 -19 23 -52 -55 -29 13 -3 37 40 -49 -30 11 49 -1 29 -46 -13 -7 -41 -70 -43 -60 -16 -14 8 -54 16 -12 33 -34 31 43 58 2 11 34 -67 -16 70 26 -29 -4 60 46 24 21 3 38 3 -8 -52 -19 -47 42 43 23 -4 -37 -16 12 -15 49 51 51 5 -57 -44 29 -1 57 -59 63 52 -29 -55 32 6 -41 14 56 -5 0 13 3 65 -40 -17 36
18 -8 20 -4 -5 19 33 -49 42 -46 22 -62 -25 38 -5 0 27 -14 19 -17 -29 -4 16 62 57 14 -38 -22 36 64 -4 10 29 28 -36 46 -40 43 -53 -46 18 9 -18 75 -41 0 34 -38 48 -15 -58 -10 -8 21 5 -17 47 -11 -24 -55 11 -8 21 39 -42 -47 -11 -3 3 -70 60 -32 31 30 -29 39 45 59 -45 12 12 -23 4 -62 28 -14 -28 -38 19 1 5 32 61 -23 -33 -28 20 49 26 0 -53 -33 -54 -53 32 -25 -19 63 -1 -49 6 -60 49 -21 -12 -3 -48 -2 -39 19 57 -19 55 -28 27 -36 -17 -9
-3 -22 -65 8 -34 -3 -62 -17 11 -59 -59 -43 -55 0 46 9 -61 10 -15 41 63 -25 57 46 -14 -49 -45 42 -33 -6 46 -13 28 -22 -50 -6 -42 48 -3 63 17 16 54 44 -51 -12 63 -53 1 54 -14 20 24 -41 -54 66 -61 -45 47 21 -34 50 32 -43 21 49 -66 -46 57 -56 39 -54 65 2 14 29 61 -37 -38 -49 18 -51 -58 46 18 30 61 -19 32 -43 9 12 9 48 -45 51 33 53 -19 24 -22 -58 36 47 -40 33 -77 5 -47 31 -12 2 38 12 -16 18 -23 61 -56 -57 24 54 54 16 -22 53 -34 -25
-64 -56 1 24 -59 -43 -59 -25 56 -29 -17 47 39 -19 47 21 29 23 -15 12 -25 -24 -2 -58 -9 36 -32 31 -43 2 -55 1 -50 42 -29 34 51 -18 44 12 6 52 40 1 -41 -43 44 46 -64 -73 54 14 62 62 22 -21 50 -13 18 -3 -70 5 -25 -5 -59 29 -18 -57 53 9 -4 -30 -42 -21 -70 -62 -10 26 -11 -16 -35 -49 19 -31 -52 -16 6 -45 -48 -28 38 -47 -28 40 -44 -11 25 39 43 9 27 -24 46 -32 -40 -46 -54 -2 65 18 -70 -12 -19 33 -56 -46 -52 -32 23 3 -37 48 14 -60 17 46 38 43
11 -26 39 -31 -35 56 53 55 40 24 -55 -9 4 11 14 40 -41 42 -38 36 -12 -34 -44 -18 -30 29 63 -42 -38 31 34 23 -3 15 53 -15 49 39 2 63 2 -20 -21 1 -56 -57 -35 57 -35 -1 27 53 25 -42 -59 43 24 -30 33 40 -35 28 -25 -15 -40 8 49 -11 49 -52 64 -50 -34 23 -26 10 -38 -39 -26 33 1 20 -53 -44 60 -12 9 47 49 34 -45 12 44 -63 20 -28 21 -5 -32 -62 -36 -52 43 -41 -25 -58 59 37 -13 -67 -33 -58 -41 -52 46 -68 -42 -26 -28 -48 -27 -24 -13 -59 -50 -3 -20 39
28 38 34 52 -52 -54 -56 -54 -3 -62 49 22 -12 -30 40 -48 -54 64 -50 12 -55 -5 68 42 19 -31 -35 34 50 2 -32 -19 40 -17 8 -12 -56 10 49 -27 -7 31 -27 4 -21 -62 33 -7 -5 -17 -38 -60 20 55 -31 57 -20 50 44 24 -68 -65 65 -26 3 -38 0 4 10 58 17 -50 23 -32 -34 -2 -42 -35 49 -27 0 51 22 -21 -9 -57 -36 41 -49 -59 25 -11 35 15 20 -23 24 38 -21 46 66 46 35 47 -8 -37 -33 -2 15 70 -25 -55 20 13 -3 -22 17 38 34 23 12 -67 -26 -56 -30 48 -39 36
47 7 -7 23 20 -45 51 22 -65 17 -34 -59 5 -72 5 32 10 -27 40 -59 43 46 -2 -43 0 -45 59 12 43 12 31 -44 2 -22 53 -30 51 25 28 108 36 30 -31 -71 14 49 -12 -42 36 -12 -53 -54 -55 -53 2 65 -55 42 -28 -44 -10 58 10 -2 -18 17 -33 2 44 -64 -53 -6 56 47 -16 82 -61 -9 59 -38 -5 -34 20 16 -56 -21 -36 -34 -47 14 -65 28 52 -63 27 -22 98 34 -33 -62 52 42 -14 -58 40 50 73 -1 21 4 0 24 22 54 -43 -59 -48 -1 53 -10 -7 19 58 49 -7 -32 2 -58
1 -30 -60 18 -17 30 1 -29 62 -15 -61 -64 -24 17 -32 21 -53 21 -16 2 40 -21 -46 29 -14 10 44 15 -63 -55 46 35 -25 -50 41 -66 -2 -45 26 -109 18 -53 -1 -45 29 39 -42 -4 -43 31 -38 -44 31 41 -46 -40 95 49 48 54 40 20 -3 37 -68 -59 -2 -5 -46 -51 -2 3 -28 26 14 43 -53 26 63 -20 35 -42 -59 6 -47 0 -50 -63 -4 -68 33 3 7 -24 7 46 33 -67 -65 -58 10 -37 3 -12 -64 36 -39 -22 23 -55 62 -15 53 -48 -23 -78 30 0 -49 60 -50 14 -32 -13 25 54 -43 25
-40 -59 -50 -46 38 -48 17 8 47 54 -34 49 58 39 -9 -13 -35 35 -18 23 -60 5 43 54 27 -70 -58 58 -34 -61 59 -59 10 23 66 58 0 -32 52 -15 21 -12 -34 8 -8 -5 14 -63 -2 -51 -68 -9 -4 24 -18 -57 22 -20 40 -49 -1 55 33 -55 -32 21 51 -36 -57 56 -10 35 6 47 -36 -12 45 32 25 -2 59 -45 -52 -60 48 17 9 -42 -15 -32 2 -67 -14 41 -62 -29 -21 -1 -35 -63 -16 -68 -31 -36 37 46 51 52 -29 53 25 -64 -46 40 -17 52 21 -37 33 -11 54 46 -6 -31 -20 9 -46 -21
-19 -2 49 -14 -14 16 44 -53 18 25 -32 24 31 61 28 -53 -56 -48 31 -29 22 -12 6 30 -61 1 -28 -19 23 -32 9 21 21 -44 -13 -26 53 28 -35 -17 11 -27 -19 -21 31 17 -45 -67 -14 -22 -1 -3 14 43 30 -11 -27 11 -84 -56 -30 6 -57 42 -59 20 28 32 15 -43 39 -59 45 -61 31 38 -29 -19 -45 -24 3 5 24 -48 -41 -11 -48 28 -2 49 -24 13 21 48 38 -62 17 53 62 -40 15 2 43 36 35 -42 -26 18 -15 6 -83 -51 -63 -9 5 -35 15 -23 29 -33 -3 -35 -36 30 49 -62 53 -30
-22 19 -44 48 -3 5 32 55 2 13 58 -22 53 53 -56 4 39 20 46 -60 30 14 -29 10 -26 45 56 14 -56 -46 54 27 -1 8 3 41 -21 48 -55 -33 -15 -34 63 -46 -10 38 -66 54 0 29 2 10 22 2 50 45 -26 15 15 4 49 -56 16 46 1 46 15 31 12 -37 -51 -49 44 47 -24 -10 -61 2 -7 -25 14 13 20 -38 -51 -8 46 -73 -18 -43 7 41 31 -18 18 38 -14 -36 11 -46 -12 -26 28 2 -35 31 20 -1 16 22 -31 26 -53 13 32 -52 2 -39 -41 1 -55 -49 61 -43 -31 42 9 -34
45 47 -47 -23 -27 -21 26 -7 35 -33 -37 -11 7 39 15 100 23 0 7 -35 58 49 52 -40 13 36 -42 -17 -42 47 101 -47 -66 -21 108 -94 18 -4 12 -109 -54 43 -33 -7 0 25 18 -35 -73 -91 -44 28 0 0 -71 4 96 12 60 57 54 43 -77 7 55 5 62 46 73 24 47 84 -58 -71 -57 39 -20 19 -14 -24 19 -36 -44 -19 -14 -63 -73 2 42 -44 68 -43 -49 38 34 -33 -17 -36 -10 -29 50 49 48 -4 24 27 -55 47 -42 -10 75 5 14 0 20 22 -36 59 44 -24 21 23 6 52 -14 -15 59 -3
20 -49 7 -58 -52 21 9 6 10 -44 33 27 -6 47 55 27 -61 -47 -54 30 -11 -8 -10 -12 23 21 -60 -18 -22 -5 -46 -47 -57 -31 -18 17 -42 -46 -22 -25 33 -52 -43 3 52 12 -30 -42 59 42 -7 -46 53 49 -12 67 -71 68 0 -64 -40 -7 -32 -22 -26 58 11 21 30 -24 -26 -25 -51 37 55 -11 -24 -19 3 55 -17 44 19 -9 56 59 -19 -38 -40 -14 -32 66 4 35 -55 -27 13 -1 -40 -39 33 36 61 7 9 41 39 43 -2 -45 39 1 4 -29 -32 -15 42 4 -26 -12 19 51 56 -15 46 55 63 0
4 -23 38 35 52 -56 -3 -13 10 58 52 -11 42 1 63 -27 -8 -11 -57 -13 -23 -37 57 36 -26 11 19 -48 25 -21 47 -58 49 -41 -19 -27 -51 23 65 38 55 -45 -27 56 -8 -7 17 21 -21 -42 -42 -30 18 31 20 29 35 -29 -59 -68 -68 10 23 -32 -1 -44 -42 -68 15 -40 -21 4 35 21 43 -56 -48 -8 58 30 8 23 -12 -33 52 -40 36 -43 58 -20 50 15 -5 31 -16 22 43 -26 43 21 -40 2 -8 7 -56 63 -23 -34 39 37 -34 41 -37 -16 -14 3 56 -5 -26 44 -59 -21 -39 18 -70 4 65 55
-28 47 12 -39 32 12 -41 43 -52 -56 1 -42 -43 -3 -13 -22 -63 -48 -16 -19 -18 54 53 64 -22 63 41 -19 39 48 15 23 43 11 -63 25 26 34 51 24 53 12 31 58 -40 51 -10 -66 17 35 69 35 34 7 43 -33 45 15 -49 -19 41 -9 -27 9 1 -35 -14 35 -68 30 13 40 -2 -58 28 -2 50 22 3 -48 -28 -4 9 -15 -14 -27 17 36 49 -25 17 -54 -8 31 -24 55 -2 46 -3 -23 26 51 4 49 -41 18 -27 -41 20 -6 31 68 19 -47 -28 59 51 -25 15 56 48 48 -57 -12 -19 -34 15 20
-65 -59 -29 7 -69 -32 50 48 39 5 42 -11 52 32 5 -40 34 -19 45 18 12 -40 29 -27 -41 0 -53 7 -37 43 -6 -71 24 29 -29 -58 -37 -29 57 -14 45 -7 9 61 -9 59 -31 22 -95 6 5 -19 55 16 66 -12 -51 0 36 41 -57 19 33 -22 38 -57 43 39 24 33 -44 42 7 -15 19 44 -24 -3 -48 33 36 -11 37 -42 -18 34 -48 -93 4 -7 -58 33 66 12 22 -60 38 -17 -6 -69 -41 -20 -5 0 -50 49 45 47 -11 74 -36 -8 -55 7 52 -59 -44 -26 1 46 32 -12 -3 58 42 -29 25 17
15 -9 -64 33 -19 -43 -45 32 10 7 28 -9 -50 -61 35 -46 45 -56 -1 57 -22 6 16 -21 -51 -39 24 -24 56 -25 -35 -20 8 37 -27 -57 -26 37 -37 -30 46 -33 -9 29 14 14 -50 23 -25 -21 38 25 17 4 40 31 -17 16 23 39 -42 8 49 -57 -43 -9 -6 -26 -38 -20 19 -23 54 53 17 -4 24 24 -5 9 63 -74 20 -5 24 14 -51 27 17 -53 47 -40 -27 18 -21 -63 -43 13 43 -56 13 5 37 -51 -22 22 16 -20 54 32 58 24 -15 -57 -48 -70 36 58 -46 -34 -42 -62 31 35 3 -65 30 50
-34 -24 -43 -81 26 -31 20 -35 30 10 -21 28 17 22 13 -41 8 34 -2 -11 64 -9 -48 35 -42 -24 22 11 47 -6 -77 -18 -38 -64 9 13 -6 13 -38 -16 -17 -9 -62 42 -63 50 37 36 -41 6 -1 -73 32 1 51 25 53 35 -63 22 21 24 27 -57 -22 49 -2 -34 -50 -34 -29 33 -18 25 41 18 10 -6 -4 -29 42 40 54 -54 -54 -8 23 -54 8 -12 26 -16 2 32 32 -64 -18 7 50 -42 37 -36 -73 -57 57 54 0 15 -58 46 -43 0 -63 15 16 31 34 -50 -59 -29 23 -6 -64 -4 -60 -30 -7 -13
51 52 3 41 61 35 6 45 -3 -12 44 9 -30 13 -22 37 55 39 30 54 -34 -48 62 12 19 47 -52 -33 15 -32 -59 35 12 46 -7 -26 30 11 -5 -33 54 -42 -13 38 -29 34 47 -56 33 40 45 13 0 -1 27 -10 49 29 -20 -56 -17 6 -63 46 12 -62 -41 8 -41 45 -39 -16 18 -42 12 -14 -31 -30 10 17 53 59 31 -50 19 39 -30 11 -53 50 38 56 41 -36 23 -28 57 14 -61 14 -31 43 -54 23 -58 -54 -17 33 -39 50 -8 -15 20 24 0 0 51 -32 -28 30 -36 24 1 -14 -46 -58 -31 -49
19 -26 -62 -11 48 27 -24 -18 53 -21 -37 2 -64 19 31 -44 -59 -12 59 -44 46 -56 50 20 12 24 -16 25 -44 50 34 -14 -45 -47 -3 -46 -34 32 6 -47 25 54 -24 30 -45 -41 27 54 -30 16 17 37 53 -37 46 56 23 17 16 14 21 55 -24 17 -61 29 -25 3 3 19 -12 27 69 66 -68 50 -18 5 -22 31 -40 -28 30 48 -50 -3 5 21 -31 13 2 -22 -51 33 28 -21 -58 -1 -32 2 -22 -8 7 27 43 -20 28 39 -38 -41 -31 36 -9 -49 -25 -35 -3 -40 -4 -59 21 -44 -21 -56 23 -57 44 -55
-15 -63 16 -37 0 -23 -64 -50 51 -36 52 -35 65 36 -50 67 -25 -35 -53 -16 40 29 -25 14 4 49 -46 1 -36 2 80 -68 5 -19 -34 -31 -79 -21 -25 -25 -9 12 -26 -16 18 -37 20 30 -19 0 2 -32 31 33 5 -41 -21 39 67 -5 -67 39 -61 -38 -69 13 -63 -4 -66 -38 -26 -12 35 -48 21 5 61 38 57 12 46 -1 14 -64 -2 15 20 -48 -24 -42 62 38 -58 -15 14 -34 -21 -32 -38 -48 -39 -67 4 -37 -45 21 -42 52 5 -66 62 -52 47 55 -55 11 -52 12 30 -63 -30 -31 16 -9 -49 -67 -49 49
-5 15 -58 -66 -17 47 29 8 -65 18 24 2 -4 29 -57 -36 -47 -14 -21 9 24 44 -17 -48 68 -53 29 8 -20 18 -58 32 -9 -32 44 48 -55 -47 62 4 -31 27 -50 -30 15 57 2 -3 -25 67 33 21 -19 34 54 -42 28 -5 -57 2 44 17 54 -52 -42 -52 -15 -59 58 14 27 -39 38 -40 -65 -49 -39 -56 38 -5 -8 46 12 -52 -36 -66 -72 57 -54 20 -15 -41 68 21 -23 -9 79 29 14 -60 34 -32 35 -29 -17 -61 15 -4 -71 40 -34 47 -32 60 27 -53 57 -39 -34 -54 40 -52 51 -3 40 -62 11 -19
34 56 55 20 -54 -39 -40 -15 33 -46 -61 56 -15 38 -36 -54 5 15 -22 -21 42 50 -12 -31 51 32 41 3 -50 27 9 -55 15 68 59 50 -33 -65 44 -35 -36 -63 -48 21 -2 29 -8 -2 -34 -9 58 19 25 51 -59 37 -31 -27 -28 -32 6 -15 -33 -37 -16 -29 -37 41 -24 -46 -48 62 -2 22 -56 -27 47 60 55 19 26 9 6 22 -58 5 -14 -41 62 -63 28 -15 17 50 52 -48 -36 -30 35 7 -1 38 13 -51 -14 4 55 21 -45 -20 -51 -35 31 52 51 14 -53 21 2 46 -45 10 50 -16 55 -5 -32 18
-14 -65 22 -70 -42 35 -33 59 46 -36 2 -34 10 -60 -32 30 -58 -65 38 -59 72 27 23 -57 -86 -54 -35 32 -11 -68 20 43 -61 45 91 -54 -14 38 39 26 1 -25 -34 -31 -17 -44 -63 12 35 -27 6 17 -49 1 51 -39 101 32 37 23 -21 -11 42 -59 -4 -65 -37 -37 -48 -65 37 -1 3 -12 -28 -41 -21 -53 35 11 78 -41 -38 9 -18 54 -21 -70 43 -36 54 -7 47 15 -60 -13 15 -69 -40 2 -51 34 57 -9 -59 -42 -62 43 62 -38 70 -25 -5 8 -5 29 -13 -39 -14 26 -5 -18 -24 11 -1 -43 0 18
37 -61 50 -43 52 -53 -29 -9 -57 -31 57 -2 21 -46 -62 9 -25 28 12 -44 -8 7 51 -11 45 -48 -70 -36 -8 12 62 42 3 -23 34 -24 44 -28 -66 -10 11 -4 61 -49 25 64 41 3 24 -74 54 -28 67 47 -13 49 -14 45 5 6 47 64 -60 -20 6 36 18 38 51 29 -15 56 -24 -48 -12 -22 -58 -25 -42 -78 -33 20 33 44 39 9 51 20 63 -63 16 -23 -23 33 -47 12 17 -34 -54 -53 48 -7 28 7 -22 -29 51 -31 47 22 -24 -42 18 16 38 31 -41 -47 22 38 -60 15 -57 58 -59 -42 -37 5
-30 -9 -45 49 -26 -41 -32 63 39 13 -34 -21 12 -60 25 -69 6 -9 -62 18 37 24 -60 -9 95 -40 -40 2 44 -51 14 67 26 -74 -48 58 16 36 9 94 -31 -52 10 -45 -29 -58 -5 -46 -31 -44 -50 -21 -1 -16 43 35 -9 -7 -47 -50 -52 84 -58 3 -55 23 -54 -31 37 -54 -57 32 25 -61 -18 -15 15 44 27 1 29 20 17 -38 -12 -34 27 46 -9 1 -44 -25 46 -47 26 -21 46 -33 -25 34 0 -63 31 2 -79 -46 -3 -61 0 31 21 -6 -28 -60 26 25 22 -35 -16 40 -37 -19 -53 -71 -30 28 -60 -7
41 -17 -34 -18 -13 30 -36 -45 64 49 -7 -14 -32 8 -37 -24 21 45 50 12 -1 28 7 23 16 36 -3 -15 23 23 -56 39 52 -52 -27 65 -26 -21 -54 68 35 61 63 26 -31 31 -49 35 -51 18 -18 20 49 2 -25 -24 28 43 -16 -16 -12 -48 15 -52 14 -23 27 -54 -41 -49 24 55 70 50 40 -36 54 -62 20 45 55 -40 -23 8 3 -27 34 14 2 -26 -43 -25 -11 2 -26 39 -32 -50 11 -22 -35 8 47 -58 1 17 -4 52 44 -14 -20 -15 13 35 6 -40 -59 -11 52 -24 53 -31 -3 48 40 -59 51 1
28 43 -30 -33 -33 -9 -9 -51 37 8 2 -30 -35 -25 17 58 40 24 -56 55 52 -59 -34 27 -1 -34 -36 -68 24 29 -42 14 0 -43 7 77 -34 25 47 -9 -44 -8 -7 -44 5 -43 5 -35 23 0 32 -37 -49 32 -11 46 46 -19 1 -8 -29 -28 62 5 -10 -58 51 -35 -4 4 -62 34 12 -48 3 35 30 51 -44 -1 -8 -18 38 -49 10 29 -47 -2 -2 40 44 35 17 23 -20 -32 -29 -19 21 -56 -18 -10 -5 -51 10 48 -36 18 38 -33 54 -39 33 14 46 -3 0 -8 16 -2 -5 -36 -2 -33 -61 -52 20 35
-48 15 30 5 -53 -27 11 -51 46 44 -3 18 -39 47 -36 -38 32 -53 18 -35 8 29 -30 -15 -30 -42 -58 34 -14 17 39 47 20 -48 11 -67 44 14 65 14 -62 8 -36 -54 28 -45 40 31 -18 12 35 13 -39 -20 18 -59 -43 60 36 -1 -57 60 -2 -21 -49 -46 -13 15 33 -38 24 26 18 -10 -51 3 -9 32 -36 2 33 -43 30 31 -66 44 58 -27 -10 -5 -13 -9 -6 19 21 52 49 -21 12 -66 46 49 -24 6 22 -1 0 39 -4 -55 1 36 -73 27 39 -19 -31 24 -1 42 9 44 -42 27 -54 -67 0 10
18 41 24 -45 26 25 7 12 47 -24 -60 -40 13 -15 -32 60 19 -28 -56 8 39 6 16 -54 36 -51 -63 -39 -44 -53 -29 24 15 -4 -1 20 -39 -26 -53 11 -45 51 32 9 -43 25 57 37 3 46 55 -16 60 19 -13 33 46 6 69 -36 17 -50 -1 -3 -15 -50 38 41 64 25 -58 58 -4 64 9 -55 12 -38 -50 27 -28 -33 47 33 15 3 10 -27 -46 55 15 61 45 -42 58 35 -61 -67 23 57 21 -15 -40 -9 53 -47 -51 41 -39 63 9 -34 9 -29 -20 10 -43 -38 -65 -24 -44 27 -1 -28 24 -10 -41 -22
7 50 -70 43 2 2 -63 -52 -36 53 -28 29 82 39 -1 -24 -51 -17 57 -6 33 -33 -62 -50 -5 6 51 -24 -63 17 89 -22 -47 -2 62 -22 -59 -3 20 -82 1 -20 48 55 -12 -62 -27 -66 -39 -82 3 -51 -18 35 38 -74 104 48 63 11 -50 -25 -14 -22 22 -12 44 -51 -66 43 -12 -27 -30 -3 -71 -34 60 -64 60 -32 66 -51 3 -57 -29 -20 -47 55 -43 25 -38 27 27 -50 -64 -66 -72 12 -33 -58 -51 -51 29 -7 -18 -69 44 -63 -58 -47 15 14 29 -52 18 25 -51 -2 -14 -69 -25 14 -24 -33 -28 -4 7 -59
-70 1 -6 47 30 -60 13 -49 23 24 38 -44 -55 46 0 41 4 -52 40 -60 51 -57 36 -1 -30 -21 -46 66 34 -4 35 35 -39 16 -52 65 -23 -59 38 17 2 -53 5 31 -10 46 -22 12 42 7 -48 -15 -53 55 -32 -45 29 51 -18 60 3 2 11 -63 49 30 -36 -20 -7 -7 -53 -34 61 -1 29 -23 -25 58 -60 8 -9 52 -62 53 18 52 -38 25 -5 -11 -37 -40 18 -25 31 -27 9 -14 51 -36 27 49 43 -37 -2 -6 67 9 64 47 -58 -48 17 18 -32 -36 2 -49 -22 -10 -68 36 -45 39 30 -33 -1 29
47 -53 -52 47 -20 -5 -60 -29 24 45 -47 40 -30 -53 9 -60 -59 4 6 20 -26 -49 46 -58 -10 42 -27 -25 14 -54 -7 -23 -31 -39 50 -20 -11 14 39 -47 -34 -21 -58 -42 5 -31 -47 42 -4 11 -41 35 -42 49 -9 -20 -17 -21 -2 -60 -60 54 -2 41 -11 -40 -33 -27 14 -41 55 42 -33 20 -7 2 2 -9 -46 49 49 -33 -11 4 1 -14 -59 -2 23 -9 8 36 12 -5 48 51 -49 -45 4 23 -58 -50 66 -62 -31 -19 -5 -4 -14 1 -49 -41 -65 -13 -1 10 46 42 -25 41 30 45 -10 51 49 49 -5 18
-3 37 -69 -14 -51 35 -12 41 22 -19 -26 42 -3 -56 -6 -53 45 37 -55 -17 -31 16 38 -48 14 -9 17 -49 41 -38 8 48 36 35 -24 -49 -20 1 -29 -31 0 7 41 18 -48 -4 57 19 58 -51 -60 12 30 53 57 -45 36 22 -38 -1 -37 38 12 39 68 43 13 -67 35 -54 35 -4 59 -40 -16 -21 -21 27 21 44 29 -12 15 51 -69 36 58 -64 40 13 -16 -22 18 3 -27 40 -6 -14 20 27 -9 67 -18 0 -21 13 22 -34 -55 -43 17 -52 45 1 -62 -45 -38 -31 19 46 -56 16 8 -17 -39 -68 64 -58
-83 38 9 43 0 64 -62 -57 24 48 8 -53 71 45 -65 82 39 -31 -27 35 41 45 61 38 -78 -53 29 12 -21 33 80 -61 -9 24 77 57 -41 -71 -13 8 46 -44 14 1 51 68 -62 26 5 19 -68 28 -70 -54 -56 22 -3 -60 8 40 42 -2 -16 83 -39 -37 5 -4 35 -56 23 -32 27 -2 41 -27 -54 -38 -6 -47 67 -52 17 41 -33 -24 31 -26 -40 24 -31 56 43 -57 -67 35 -54 -29 42 1 15 -47 30 46 -38 9 -70 -52 -16 61 40 25 8 10 -61 -79 -34 17 -25 -22 13 -37 38 -6 -44 56 50 18
44 -44 55 -61 -10 -20 45 6 23 -58 -33 -67 -28 -51 21 49 -1 35 48 53 7 -47 -1 -34 -10 57 13 43 26 -60 65 38 -4 -28 21 30 35 50 -42 -63 -66 4 -38 12 22 53 -48 -35 39 -39 -22 4 27 -33 -1 -36 46 -43 58 8 39 -44 -22 -18 -52 -47 -26 -21 15 35 33 18 30 29 30 3 19 -51 26 -16 -1 -42 -55 -61 -71 -28 -17 -72 -42 3 30 -41 -25 2 20 -38 -48 56 20 -1 -30 -8 14 -60 20 -7 -26 8 -53 13 32 40 57 33 20 46 32 36 -52 -15 -36 36 42 39 -54 1 -11 -55
48 -38 26 -5 41 -14 -57 -30 -54 -10 3 53 -40 12 -58 37 51 42 -60 -16 -33 -36 -26 -27 70 21 30 -66 -4 -61 16 -22 -31 9 -37 -37 15 17 -11 -27 62 14 4 38 43 57 7 25 -46 43 -44 -64 -42 11 -63 12 52 30 54 -27 3 52 1 -46 -50 0 -5 29 -46 56 3 30 36 -16 37 -33 -25 -33 17 47 45 0 -34 10 -58 -38 16 -43 15 -59 -44 -19 23 -44 -5 60 -5 -53 -2 27 -54 -50 -46 -57 1 38 -35 -10 26 -49 -42 39 -7 54 15 -17 -22 -4 -13 -59 -45 18 -52 20 30 -3 -59 42
-33 36 13 65 -29 12 10 53 -52 -2 -28 8 4 -22 -65 44 26 -5 -35 -7 -2 -29 -54 13 10 16 -39 -14 -46 15 53 -53 56 49 19 -58 77 48 10 -25 -18 -38 55 -18 -71 24 33 42 42 40 -54 36 -38 -53 10 32 -16 41 -11 -48 6 45 -3 -21 49 45 5 61 20 29 -24 23 64 -52 -10 11 -28 -41 -16 46 -34 43 -42 -41 31 15 -55 14 60 -38 -38 -23 4 -24 57 30 -44 -12 -43 -55 -61 5 -63 2 -8 30 10 57 19 56 45 -37 -26 -50 56 -37 34 19 31 -2 -45 21 -50 18 -13 47 44 44
37 -50 -7 12 -12 -5 -24 20 4 -39 62 22 29 20 18 -38 13 -48 -1 -28 -39 27 -44 -54 59 36 -36 -34 -76 55 49 12 -15 22 -16 -7 -4 -28 -55 13 48 33 7 37 18 -8 -27 -55 9 -54 -61 45 -57 -38 -21 -46 -1 -60 -8 26 -10 76 -42 -39 -20 -47 -13 -33 55 -65 33 -46 16 -31 -36 19 -25 43 21 4 -17 33 -37 -66 -65 43 -24 -19 -59 23 -18 -8 81 -43 53 -62 21 45 20 -34 -20 28 -25 -35 55 -42 -30 13 -65 5 -13 -25 -7 43 -53 23 46 -58 46 27 0 9 -57 36 -63 26 -30 39
-66 57 -35 47 48 -15 -55 -25 -38 54 31 -16 32 59 50 -55 -44 -53 23 -39 -41 -40 5 -18 25 42 6 -37 -47 41 35 27 -25 -34 48 35 -9 2 -58 -36 7 16 -34 23 19 -6 14 0 58 -46 -51 20 8 38 14 34 -64 3 12 17 -39 6 13 11 22 53 -30 30 17 59 -20 -30 38 -62 -16 -68 -45 -34 -34 21 25 -63 -26 34 -55 39 -18 -11 -6 54 31 40 -16 -36 48 -60 -45 -22 15 31 -23 -1 -9 -45 -31 -19 -20 -35 -48 -24 20 -53 -23 -26 -1 -33 -37 53 21 41 -6 -26 -7 52 -19 -38 -41 -61
37 -25 11 10 -35 -8 -19 60 -59 3 -46 -53 9 7 -13 -40 36 -30 -9 -22 83 -13 -53 -60 78 14 -58 48 -60 -8 -41 6 -12 10 -10 -26 -5 24 35 120 -67 14 53 -65 15 10 64 17 41 44 -59 -8 43 -48 48 7 -64 -53 -28 -47 30 79 -12 -44 17 -40 -11 68 38 27 27 -40 20 46 -57 2 -33 45 90 -53 15 8 -36 35 -64 42 -58 58 -30 -59 1 -55 66 0 -19 6 37 50 -54 20 36 29 -47 31 6 -21 -20 -20 -37 1 -60 -18 -16 54 -26 15 -23 -51 -26 -48 57 13 9 34 -60 36 35 9
3 -3 14 -62 10 -61 8 66 0 -17 -9 10 91 31 -32 75 -38 -26 -10 -30 10 -33 27 28 79 -13 -32 -27 -4 62 56 49 -23 12 -45 72 -9 -64 20 81 35 12 37 6 -14 -44 -7 -63 52 46 17 -63 66 -24 -19 48 15 -44 16 -31 45 -19 -41 -46 53 45 -12 -53 28 59 -7 3 -43 4 -60 -1 -60 20 50 -20 -68 -16 -51 54 43 41 -12 -22 44 9 6 32 81 22 15 -11 73 35 -58 39 -41 11 -36 17 -59 57 -18 -15 -87 3 -9 50 70 -36 44 2 -15 -60 -37 -28 -40 2 -4 3 -24 -40 19 -26
-27 -31 18 43 30 29 -52 -16 -4 19 -45 -27 39 -35 -54 46 35 -39 -50 -42 42 -11 -20 50 27 34 -46 9 52 45 -5 33 46 -6 55 -37 -46 -11 -56 -1 23 -51 36 -40 -50 -11 -22 -52 -37 -49 -25 -25 -23 -14 33 -26 -5 -46 -10 17 -67 -61 27 -78 -25 13 16 18 32 -19 -53 -40 -22 -17 -61 -32 -21 7 0 -29 2 -56 29 -5 -54 -16 -4 -11 -42 -18 -48 -18 -65 -43 -11 36 -34 -62 27 5 -39 -42 6 -10 29 -71 -57 -15 -3 -57 49 -16 -11 19 -54 -74 -14 1 -28 5 -3 -58 -30 -34 16 -39 26 19
-62 48 29 -48 15 -37 -37 -3 -50 51 -40 -20 -51 -11 55 -38 57 27 40 7 23 -8 5 56 73 36 6 5 -68 -10 -5 24 -63 39 -52 71 -43 -63 -21 1 -15 36 34 -40 -2 -40 -17 19 -9 61 59 57 33 -60 -27 -55 14 13 22 22 -6 96 35 1 -29 -2 -10 73 63 -49 56 -36 -17 -29 34 59 21 -2 72 -58 -4 2 53 16 61 -18 -65 11 -2 41 -41 42 6 -8 35 -51 73 34 -55 -3 -65 40 -95 -41 -38 12 51 61 -34 -72 -27 -58 22 -64 -51 -23 37 11 -32 -10 -50 -66 5 -7 -20 -4 63 15
29 50 43 1 -32 -62 50 39 -22 -1 11 -2 -61 6 70 3 -34 26 -22 52 54 39 -10 43 -30 -38 -63 9 77 -55 2 17 0 36 -34 50 6 26 -3 -19 11 5 -23 -37 -9 -6 28 30 55 -6 15 -62 16 67 52 42 -39 -5 33 39 50 22 57 -31 -8 -24 -49 -46 37 -32 -30 -61 -7 55 35 33 30 47 -26 -57 28 -9 7 17 -27 3 -74 31 11 28 -62 -60 19 -46 25 21 -45 -9 -38 2 -6 -40 -59 -22 50 -34 57 -4 -30 -66 -69 39 -39 -11 23 3 -24 37 -49 -60 31 -31 -37 27 -5 24 -19 -56
-21 54 -47 35 -17 4 -38 -56 -46 38 60 -8 -30 -39 -43 -39 63 -11 -35 -10 59 -37 -27 50 14 37 -23 48 46 -46 28 35 41 25 -24 16 -45 -36 -36 98 -55 -5 -50 0 4 -30 -61 -5 38 -34 -44 -11 -38 -52 -55 50 -1 -37 -30 3 -16 12 10 -24 -19 10 20 49 5 -9 7 20 -8 -54 -48 -42 -49 -1 -24 -34 31 -37 -58 -21 -7 31 -55 -74 -18 -1 10 65 77 44 -36 11 22 4 -38 14 -31 35 54 -38 -46 11 48 -44 -35 -12 -14 4 33 -55 62 -27 12 36 -51 -31 23 10 -32 13 2 21 51 -36
-67 -23 51 -62 52 -39 34 -12 3 59 -15 52 63 -36 39 -35 0 -55 -55 -11 18 48 -59 41 -13 -37 -46 -16 22 -13 20 -16 -30 -26 11 35 25 -12 47 -62 -5 -45 14 -5 -62 -34 53 27 -63 -21 -34 -53 -3 0 31 9 21 57 31 16 20 6 27 -57 67 -51 15 33 -37 48 -1 -36 52 2 -37 -40 31 46 -8 8 25 23 -23 -3 -32 -42 9 10 51 -34 -42 49 -35 -11 -60 16 34 53 -32 24 14 12 21 31 -60 44 -8 -46 29 -21 -47 -11 -28 17 13 25 -37 -62 -56 14 58 -60 26 32 29 -70 -25 40
30 -9 -61 8 22 32 -32 -1 0 -28 -46 -33 49 -48 6 -2 27 -60 -32 31 -58 -38 7 -31 -13 32 -9 23 -61 8 62 7 -54 -60 54 30 45 31 -40 20 14 -61 -48 -58 16 -37 24 -78 10 13 41 -62 -25 56 -31 37 -72 -28 -18 -42 51 -69 -76 24 -65 -75 13 51 46 44 -33 -60 -50 -23 -65 -54 -12 62 43 -28 -51 -62 1 -40 -46 19 -13 -47 -30 -5 -48 39 -8 29 47 15 23 -52 -8 51 -8 -21 -31 14 -33 -65 27 -29 45 -37 -56 0 55 46 64 -23 6 15 -40 0 41 -19 -37 -42 13 62 -1 -43
-79 11 -15 -64 35 52 -52 0 -44 4 -9 60 -24 -18 -7 -61 -9 50 -68 -2 0 -59 8 -8 -22 -35 45 14 -33 2 8 -14 -69 -51 -53 -5 -43 14 -22 49 53 -30 -2 -6 29 64 44 -19 -33 -12 48 7 34 40 -5 48 -7 51 2 -38 5 31 7 -33 30 36 39 32 -44 1 2 -20 18 48 -54 25 44 -16 -28 -26 -37 -67 11 -60 38 -43 16 -67 35 43 42 -44 -43 -7 -40 -35 1 66 -9 -12 -35 -19 50 -47 15 -15 20 -27 37 9 14 33 15 19 -39 -55 29 -42 -18 35 -57 58 -28 9 0 17 13 -19
5 -29 -13 -40 -50 25 -28 -39 -54 -2 62 32 -12 10 -45 56 14 -6 25 52 25 -4 11 24 31 -24 -16 -61 30 -5 -27 41 -65 -58 25 19 3 -43 -5 -12 30 -46 -10 -9 -34 14 54 38 -46 18 5 -15 -4 -64 61 -48 3 -45 27 49 28 4 51 -42 35 28 -59 -13 8 41 -49 -1 2 -11 -29 -42 -20 -8 59 -22 60 -6 54 24 4 -13 -3 13 -8 -52 -34 -11 -3 9 -39 10 -66 -53 40 31 -8 -44 66 13 15 36 -49 -21 -26 45 -6 40 20 -7 -34 -67 39 52 -29 23 -42 26 -61 -28 38 -1 -32 14
2 -60 3 -38 22 -45 -17 24 -28 -1 -60 -11 -15 -54 -50 14 -49 -38 -19 8 17 30 -63 44 54 50 -43 67 -67 -7 -50 61 59 -44 -32 -21 -61 -67 -30 86 30 -26 -49 52 56 -26 -40 23 -51 67 -64 29 -1 -45 -41 58 1 33 -38 -12 -22 73 23 -27 13 -50 -30 -53 -21 -48 4 -21 62 6 -56 57 27 -26 -19 -75 39 5 -12 25 -42 -38 23 -72 -37 -1 10 39 95 -23 12 -58 102 23 -55 -56 -19 -61 -40 -10 -65 -29 74 17 42 0 23 22 -14 14 -70 -51 -59 15 47 -33 -57 -33 11 -72 1 -35 6 -25
33 -53 49 -17 15 15 45 12 -66 -4 -6 -55 11 28 -4 33 -41 -49 42 -55 -19 -29 -28 -5 -10 27 -2 -28 -7 9 10 33 -48 -42 52 55 33 23 38 31 -29 -32 -20 -66 -42 -68 1 -64 5 -17 -23 -53 -59 49 -55 -53 -37 34 -53 -15 -63 -10 -46 41 -33 4 22 -50 17 -5 -42 27 -20 61 -56 -46 52 -75 -10 12 -3 53 54 -25 -38 36 13 50 8 -7 53 33 -51 18 43 55 -48 -31 -21 -41 43 -48 56 -12 -74 -4 37 -46 33 -26 -22 -52 19 58 -50 36 23 5 -7 -33 3 -54 17 57 46 -12 -12 6
10 -26 -11 43 -72 -39 -33 45 -38 -48 18 -49 73 30 -7 -9 -51 -47 -42 -1 -24 11 -68 -13 12 45 -54 55 56 -44 60 40 -39 -23 47 -6 0 54 -27 -34 -28 -12 -22 -63 -2 -17 -25 -39 -55 -60 -45 -15 -51 2 -16 41 79 4 -38 -20 -35 17 -44 15 45 43 -35 -2 -37 9 -47 57 -21 57 49 49 -29 -40 14 -2 44 43 17 4 -73 -53 15 -1 27 -56 10 17 -49 -66 44 48 33 -68 -49 23 34 27 37 -64 -39 -50 25 -37 -18 -3 35 -6 -35 37 -9 47 -42 -34 -49 -32 -70 -2 -55 -29 15 17 -57 -39
54 -2 28 -21 17 13 -10 31 0 -1 -44 -34 -6 31 -67 13 -37 -65 61 33 15 36 -8 -16 -15 34 37 40 64 2 -14 -38 -8 -2 11 -38 67 -52 -57 -25 -38 6 10 39 -60 -2 -2 -47 19 -47 33 -37 17 53 -33 20 42 37 -10 56 -20 29 -48 -21 -1 22 -27 39 -27 66 -6 -21 1 6 49 -34 -27 -40 1 -15 -13 -60 -26 -6 49 44 -3 -39 -59 -31 54 31 -12 35 -67 51 66 -36 30 -18 -35 34 -18 41 -35 -30 54 -14 -57 -67 -27 -60 0 -40 -10 -15 28 -58 -35 -17 36 -3 -59 -36 -43 -56 1 -61
29 7 -43 42 -52 46 -53 -52 -38 -63 27 -34 3 48 50 15 34 38 -52 -58 10 -41 -61 23 -13 37 -33 -7 -19 -34 61 -21 71 48 51 14 38 1 22 56 -55 -26 31 -12 -81 -8 -22 26 20 -24 69 32 -28 14 -13 19 -14 -10 -34 -59 -60 -55 28 62 -23 3 -4 -52 -31 -16 -30 -36 -13 -95 -16 -5 3 49 -17 55 25 29 17 -61 -35 -38 44 68 11 -27 22 -28 61 -42 -25 -66 -18 42 -50 14 -77 -48 -63 61 5 -45 -32 45 29 3 -7 -21 -10 3 -49 -14 -63 12 2 18 -36 -25 26 41 -68 -37 -40 7
40 10 58 -10 -49 18 16 10 -55 13 50 17 5 -12 -61 -55 -49 8 -61 42 -10 21 48 -21 21 -33 42 -24 11 14 24 74 32 -9 -59 58 -1 40 -66 64 -43 -17 -65 -18 2 -9 4 -31 27 -51 -22 -1 26 -83 19 -1 -26 -4 63 -58 33 78 9 63 47 38 -18 22 -58 28 -20 15 -35 -84 -2 76 -17 31 38 33 -69 -8 -48 -23 23 12 -47 74 42 10 -65 45 -3 -45 63 -13 76 -22 -20 29 18 5 -75 -62 -46 43 17 -30 21 19 -46 -79 18 -67 3 -18 2 33 -42 -7 -50 -57 -9 -89 38 4 -26 -27
-6 7 2 23 -36 -1 39 -45 -58 -10 -58 -18 -26 16 -46 52 -47 40 -61 1 -61 35 -48 -61 24 7 49 27 1 50 -1 -48 16 23 13 70 15 58 -41 13 -12 -33 26 15 9 18 -33 3 -37 6 -20 3 -43 17 -38 -14 -11 -7 34 -46 -56 41 38 -7 57 5 54 -32 -52 22 -55 -30 -15 -45 37 -21 40 29 -26 23 -30 -8 34 46 28 35 37 -17 3 -59 53 -63 -25 18 -31 47 -22 25 28 -43 23 0 32 24 46 -56 -72 -34 52 43 37 18 46 25 12 57 18 -33 -30 -14 37 53 -38 -53 -50 21 -54 -58
52 25 -42 18 44 51 -58 28 41 -37 -20 -53 7 -2 -54 13 39 -10 -17 1 -47 40 -34 -35 34 -29 11 26 30 -7 -18 -39 35 49 -20 47 31 -16 26 -10 -34 18 6 16 -1 -19 -27 27 41 60 11 -19 42 17 62 55 34 -30 15 29 -18 -51 58 -31 -45 -20 44 -28 -16 -35 44 42 -54 40 37 -3 -40 31 -56 12 -22 -46 -45 17 33 12 -16 -60 51 -27 27 22 26 59 40 56 -62 -22 15 6 -45 25 -19 -4 1 -4 37 19 36 -28 -48 -21 27 -11 -7 0 -32 -27 -39 -30 26 -25 -15 -23 -63 16 -30 9
35 44 -23 -73 13 -59 18 -40 40 47 -61 -55 5 6 27 -33 2 45 -9 -26 6 -34 14 -38 -10 -29 13 -19 29 -12 5 -45 1 -67 -26 38 9 17 -9 46 42 -69 39 20 -22 58 1 18 33 16 -12 -24 -28 -34 59 -60 -58 -10 9 -34 -57 12 -45 39 -13 34 -67 -4 33 -12 46 -3 -48 -65 -4 63 38 6 -38 6 8 -1 16 -24 9 40 -14 -64 50 -59 -50 -11 74 39 31 21 28 41 43 -65 -19 -42 44 -3 10 -52 51 -48 -17 -5 -38 -63 29 -38 23 -51 -52 18 38 20 24 56 3 1 58 2 41 57
13 -20 10 19 6 24 -10 43 30 -57 55 -60 -45 -51 -18 57 -5 -50 -68 48 43 -6 -20 3 14 60 12 33 23 1 -40 -57 -58 -9 -45 -17 -1 32 -22 9 -42 21 50 48 6 15 -55 49 54 -63 46 22 -49 43 -52 -70 44 -19 -24 0 52 -17 -37 -34 37 -71 -59 11 -48 -49 -11 23 1 -59 49 -42 -7 -9 -57 -14 32 33 -40 -45 -1 20 3 20 22 35 -74 -71 -32 32 42 -10 73 -75 -37 9 43 30 -45 55 -15 20 29 -42 -45 0 48 -58 -47 31 -10 -45 16 -33 -41 50 33 -29 -49 -46 -38 -7 -35 -33
28 23 -39 37 -12 -54 -20 -32 56 64 -58 45 -34 32 28 44 -38 -46 -9 17 -16 49 37 17 -53 38 57 18 13 -34 20 12 -60 -7 60 -16 30 29 -45 33 22 -28 40 -50 22 -22 53 -58 34 50 -4 -8 34 -24 11 -4 -4 63 57 53 -35 28 7 21 -39 -6 28 -34 -19 -63 -48 -37 -12 -50 -34 -11 -16 -62 -7 -53 43 -41 50 4 -20 72 -40 -10 61 11 -40 29 25 -24 -23 -26 53 -19 -59 -39 48 -55 -37 -1 -50 35 11 -20 4 -9 50 14 -52 10 52 -37 -14 5 48 -55 -56 -34 -18 -29 6 23 73 -5
30 -15 -59 53 28 -59 37 -33 42 -47 -16 24 38 56 -17 -23 -59 -10 7 53 53 -35 19 -58 51 5 -33 -36 48 -7 56 39 -54 31 -68 -46 25 -23 34 90 -26 -31 0 -1 -21 -34 2 -36 -56 -10 -57 -46 -73 -8 10 -58 -60 18 -57 52 -26 -33 -66 -11 51 -22 55 -29 26 -37 -9 30 -34 -9 -51 65 -6 -56 44 47 -17 8 -35 -59 23 3 -27 -58 -33 -10 -43 23 -6 -17 -3 -3 5 -30 27 -23 -5 -26 18 36 -27 52 18 53 -64 -48 9 17 -33 2 -29 6 20 -23 -61 -55 8 47 -30 15 -4 35 -52 27
14 58 7 25 23 -30 -39 10 7 36 -23 49 11 25 64 -40 -14 -45 -15 36 -63 -50 33 -7 -28 31 54 -6 -56 -41 -60 66 39 20 -44 -25 -64 27 67 28 -29 -67 -42 25 43 18 50 51 14 -35 -42 -63 -52 30 34 21 27 -39 21 18 -29 -57 44 1 -28 -61 53 34 52 63 -32 -6 40 -22 42 -14 -41 -2 22 -4 45 -52 13 57 -30 -15 8 6 -36 51 13 14 56 -27 29 -46 -54 35 -27 -14 40 -38 -11 15 -27 -34 -8 -10 -30 33 -27 36 5 59 51 12 -10 18 31 -58 -18 -12 41 55 -41 40 2 -1
-25 18 13 30 -51 25 32 29 -37 17 -62 53 23 -20 31 -15 -52 10 12 -49 -55 9 19 -40 -60 -49 5 52 -11 56 -40 -41 -63 -26 -30 -15 -37 -33 14 30 2 58 35 -62 -18 25 -15 47 34 -70 24 32 17 38 3 -10 -48 -58 -53 55 39 30 57 43 -1 24 -1 -31 -24 9 30 -12 21 -34 5 -48 -13 19 34 -43 38 58 -58 -12 -43 24 -59 19 58 -25 -53 24 -10 19 -23 -45 -1 39 -11 -42 -46 39 41 5 -48 32 -13 12 35 33 20 -35 -48 -17 -32 -55 46 -40 -45 18 -21 -56 -56 25 52 18 40 -54
35 -64 49 -1 35 -67 -38 -7 -4 35 10 -42 81 17 -19 -38 -39 10 -54 -60 62 -21 18 -66 -19 -29 12 -47 9 -22 -41 -38 -21 46 57 -17 14 15 -64 24 18 -37 22 -50 31 -2 36 8 -32 43 -19 -61 -13 13 44 15 23 -5 78 30 27 -64 -23 -1 -34 -28 41 52 -18 43 19 7 48 49 8 62 -9 -28 12 -3 67 24 -24 -61 -68 -4 49 51 27 -5 56 -18 28 -1 54 -9 -51 -47 -16 5 -51 47 9 -63 45 -31 37 -31 -53 -31 28 -40 27 -8 -10 -41 -62 -42 10 9 -32 45 11 -55 -5 0 45 -30
37 62 62 53 0 49 3 23 -37 53 13 -44 -12 -9 11 56 -27 -64 -48 59 55 -54 -13 38 37 -16 -15 -25 -32 -28 46 -31 25 31 54 12 -5 -19 27 -59 -49 57 29 -50 -21 18 -38 -45 22 -33 -33 -65 42 -18 -39 54 1 60 -27 -44 -51 37 -59 -8 -3 -8 -42 8 56 43 47 25 34 20 50 -6 72 13 -54 -47 43 36 59 -27 43 46 -6 6 7 52 56 44 14 14 59 -62 -25 -30 -22 48 -66 -7 -28 57 -6 -28 26 -20 -53 -52 -1 -50 -4 19 19 43 -5 -16 3 -10 34 18 4 -44 -56 44 -31 -24
-15 46 -39 -42 -8 69 57 -19 49 9 -17 1 -38 -73 -43 -67 61 -30 28 1 80 -71 -27 -86 45 -43 38 -36 -22 -18 10 55 -32 -6 -52 -20 -42 36 56 88 1 -49 -10 5 15 47 -42 55 -33 3 48 -36 54 -14 55 62 12 -52 21 31 28 36 46 -4 51 60 -62 0 -61 46 -54 49 13 60 -40 15 -91 -35 -11 -52 -45 -46 -49 -36 -12 -80 -12 -23 14 41 1 20 110 -8 -1 52 84 -75 -47 9 -38 -68 25 9 -4 -44 2 -17 -25 -15 14 30 -4 29 -21 37 21 -26 36 -48 45 -10 -66 42 47 3 8 -70
11 -45 19 11 22 52 -1 -22 35 -16 50 -38 42 -53 3 -12 9 -19 43 57 26 -7 3 -10 42 51 -55 26 48 24 -58 -52 6 25 39 28 22 -69 -61 86 33 -38 59 -21 -46 19 -67 15 49 56 -60 -58 6 -8 -56 57 -33 50 -7 -45 28 79 4 -40 -25 -7 48 9 -7 -37 -73 -15 -44 -7 -18 1 38 -45 -3 28 -42 36 23 11 30 35 17 -27 -62 -70 -29 -49 67 -11 64 -63 35 -71 -55 -49 -16 -20 -29 40 19 -31 -23 24 24 22 -4 -18 -42 34 24 55 9 40 -51 47 47 7 -36 -50 -45 39 5 37
20 -40 56 -65 41 32 46 6 -20 6 42 -33 -34 51 -36 18 -49 -64 -3 -9 22 33 56 -56 8 -56 7 -35 54 -52 38 -41 18 50 34 -49 -32 30 -18 -8 50 -14 53 -23 -39 -60 -58 -52 -15 -56 -38 43 -41 -58 -28 29 19 -53 -49 39 -34 20 -52 -4 -63 -23 -54 47 -64 30 -57 25 1 -52 -58 -27 -55 -30 -11 27 62 -17 -36 -62 -18 46 -26 47 -6 -66 -1 -4 -34 -41 -7 -69 26 29 -64 -60 36 -41 58 -13 39 -40 67 -20 17 24 33 -33 -9 -34 -31 7 -20 42 -31 35 -33 6 8 26 -45 23 40 -56
0 -26 -13 10 -60 -26 -51 49 -57 31 -45 -15 -35 39 -38 37 30 15 55 -51 -13 -45 -54 -51 38 26 57 12 18 46 38 3 -25 46 0 -18 16 17 -8 37 45 53 47 25 37 -56 -6 -7 -33 54 61 -24 35 -7 56 15 50 50 45 -17 54 -33 6 19 -22 36 4 19 -48 -61 -63 49 60 34 -53 -42 60 -41 54 -51 19 5 -64 -1 -15 -19 -58 13 42 -3 -51 -36 50 -60 -32 -55 8 -43 -4 -43 -72 5 -19 -63 -17 -20 39 54 -30 -38 33 6 0 51 -28 14 6 40 -10 38 9 38 17 61 44 -37 -62 -16
-2 7 -59 -10 -47 32 40 8 -68 65 12 38 -31 33 -12 -1 12 37 8 42 -15 64 12 50 -59 12 -61 -61 34 11 0 44 16 -2 -46 -18 -65 13 50 -31 -57 40 -17 60 20 -60 13 -12 43 -22 -66 57 -15 62 -28 -1 -14 60 -39 47 -7 40 64 -55 -47 23 -5 29 -35 -2 -38 28 33 -29 4 -39 -18 15 78 -28 -31 -67 14 43 24 55 26 19 4 -9 3 -54 15 -44 -41 -25 -29 33 -58 15 -6 26 -16 52 9 -13 -50 -13 52 -44 -1 47 53 7 -30 3 18 -24 -64 -59 -44 26 27 -30 16 58 15 -32
-40 0 -5 -15 -27 -38 54 -57 31 55 25 -7 32 -28 56 -54 -35 -64 -75 -32 -2 -55 -68 -34 54 -16 -36 -16 18 45 -21 54 -3 -14 -10 -27 -58 12 -54 72 -35 60 -42 44 -19 0 -26 -76 52 49 63 27 -24 22 -52 51 -44 9 -33 -27 -56 12 55 35 42 -7 -27 40 39 -5 49 -75 -57 4 6 61 53 -90 -2 -6 -12 -40 16 12 -34 -1 -37 28 15 12 -74 -12 19 -59 -26 41 -27 27 49 12 -22 47 43 -58 -6 65 15 63 25 48 -71 38 -2 -29 1 -12 29 62 -53 -48 -23 46 16 3 20 -23 -81 -23
36 -53 8 48 -8 54 37 43 -49 -7 -52 0 -36 17 -35 -60 21 -35 13 -12 58 7 5 51 -5 -35 9 61 -35 -18 31 33 27 1 39 41 -32 15 -38 32 -8 -55 2 18 33 -21 37 16 -39 -30 26 8 57 66 47 -1 -37 42 -31 22 2 -42 -57 -27 -17 44 1 -17 -11 20 -32 42 52 -45 24 35 -55 -24 55 10 45 -54 -27 34 -20 28 -1 -65 9 -64 -63 -39 -65 45 31 9 16 53 -57 -46 37 55 -36 13 34 -45 22 -19 -43 -61 3 37 -3 -56 -19 -56 9 -33 -5 29 -33 -25 -52 21 -48 8 -46 -66
1 -52 -36 -48 -39 -38 -53 -17 17 -52 37 -26 6 -31 -52 -50 -16 -62 -69 -17 -40 49 -45 21 -5 61 -36 -26 4 -19 32 21 -3 54 -14 -31 42 51 20 -25 58 -50 -36 -64 2 21 -56 32 58 -19 25 -26 -32 64 13 -30 -39 -34 29 16 12 24 -26 -12 -4 -12 -49 -28 23 28 -47 -29 44 -6 1 -32 9 69 -36 -46 38 28 -43 -35 -61 -67 11 74 12 28 4 50 32 -7 -28 -59 17 -17 -35 -1 -47 -33 -12 0 -62 -57 -14 31 12 -37 -36 8 25 -25 21 45 26 3 -14 10 51 37 30 -16 -59 26 -38 55
29 60 -46 -3 2 -72 -54 -34 45 35 -26 -48 43 35 35 2 18 -7 -56 -3 -57 52 13 -55 27 -17 -28 -25 -48 9 60 -6 -23 -31 39 50 -52 -27 45 36 -4 -25 -1 -49 -75 -2 -50 8 -24 27 40 7 -43 -4 -11 -24 -29 -60 -43 49 11 55 -29 8 -25 -9 37 31 -28 45 -26 -55 51 17 -37 -57 57 24 5 42 43 12 43 -42 22 27 53 -35 -4 -37 12 32 5 14 -31 38 19 -53 43 -56 -43 49 -38 -12 -67 49 20 3 40 0 -26 49 -34 -40 -19 -14 58 5 -14 -46 17 20 16 -56 -3 -58 21 60
-31 7 14 -8 47 -68 26 -50 -44 -39 -15 30 -15 -18 -65 44 17 -70 -1 -1 -16 -30 -61 -14 -2 50 -18 -30 -44 -65 52 28 43 -7 -7 -58 -65 -5 -50 -24 -68 50 2 13 46 -67 -56 -2 19 57 -10 -64 -15 42 -15 9 62 3 -55 -67 -13 23 -35 -39 -20 36 59 -39 25 58 -9 55 -58 -31 -65 30 -22 -11 -40 -51 -36 -49 -17 -37 39 2 -43 11 8 -10 -55 22 -64 -51 28 36 10 4 10 11 -17 57 -44 47 32 -56 23 4 53 24 -35 -43 -54 -12 12 58 23 0 31 -36 37 -12 -60 22 13 -4 -47 11
64 -17 22 27 15 -14 45 -37 25 43 -36 28 49 -63 18 33 -49 20 33 6 75 -32 -8 36 2 25 -52 -53 -39 33 1 5 -11 -36 -35 -21 -44 22 -33 -31 -42 -36 31 7 27 -26 -16 -53 8 -37 52 3 -32 3 24 -32 17 9 -29 39 -13 49 -66 58 43 66 -57 -61 -15 -25 60 -26 18 -40 18 -41 36 37 59 23 48 13 -23 51 -22 0 -8 -26 -29 -61 46 0 -10 -76 -36 53 28 15 -48 29 -40 -35 -7 -63 2 -29 72 -39 -26 23 40 23 19 -46 11 43 -30 44 53 21 23 -19 14 46 -19 44 -6 49
8 -41 -9 -43 -24 57 -11 37 51 9 -63 -59 23 -39 47 1 -49 4 -15 -27 -32 -19 -33 -21 42 13 -23 -50 -32 -4 51 39 -38 -62 13 -36 -55 39 34 -21 52 15 -22 -44 -30 -56 22 14 50 16 45 -13 -9 18 4 -38 58 37 29 36 -13 -34 -43 64 -31 45 -3 56 -32 58 -13 7 -4 22 -60 -37 -52 -11 21 -42 -31 -26 4 -43 -26 28 -49 -25 18 -18 -10 -7 -10 -33 -52 37 -25 10 7 54 -28 49 -7 -49 -38 -7 -12 -3 32 -48 -53 48 52 58 52 -45 -50 9 38 28 -52 -10 24 -28 41 -51 -20 22
-43 -56 -61 18 -10 -26 36 21 57 -5 -35 -50 13 33 -43 35 -2 65 16 50 61 15 52 52 15 39 38 -48 14 -24 3 -16 9 -28 28 -9 51 -8 -23 51 36 50 -37 66 -32 -36 44 -6 10 -65 -11 -23 -11 10 -22 13 4 -1 -4 3 -5 73 -7 74 -44 16 -40 47 23 61 23 -20 27 18 37 13 -28 54 -37 -58 -45 -35 -42 -66 -12 30 31 73 -62 14 -16 -11 -7 17 -32 6 13 48 -36 7 50 -45 -64 53 19 -6 6 -62 44 29 3 -14 -42 -65 45 -36 12 -52 -56 24 3 -59 -46 34 22 23 81 -2
-51 -17 -18 48 23 -66 -59 -52 34 -66 6 -32 85 -49 35 70 32 1 52 -12 10 -10 -44 2 -66 6 -36 -13 53 -15 43 47 7 29 28 41 -65 38 -46 -47 -12 22 5 -61 13 -63 -39 -51 48 -11 -21 -35 -73 -20 8 -16 46 -1 47 -23 20 -48 34 -25 7 -61 -34 32 -38 -23 -57 7 20 35 35 14 65 -56 -56 -52 -10 27 35 -1 -34 31 -54 76 43 -8 -34 -68 -38 40 -68 -29 9 -70 -24 27 24 34 -30 -56 44 7 -25 8 -7 -63 77 41 11 44 40 -70 -24 51 -4 -61 -36 31 -12 -27 -2 -34 57 -18
-16 -24 -31 -29 -55 39 -1 4 -3 15 -54 34 -23 12 -67 -36 -22 -26 -69 52 -17 -26 32 -10 -47 58 -69 -57 -4 0 -32 -25 -6 8 -67 -47 34 -22 -45 -72 -20 -4 -34 -27 48 -39 -44 29 -52 -81 29 20 44 8 73 -54 47 43 -10 -23 41 -38 -59 65 19 25 -41 16 53 54 -58 26 -54 44 3 15 13 -25 20 33 -22 -13 -18 25 40 50 -5 -34 -22 3 47 -67 -17 21 0 0 -57 -2 -60 -59 17 0 42 -17 -8 -14 15 13 12 38 24 -53 -39 -58 -8 -11 6 -41 39 3 16 28 -65 46 29 8 67 -52
-73 -9 33 -60 36 -34 -60 -12 -63 51 -1 -9 62 15 -50 -11 53 3 -42 26 48 -22 -17 62 -4 -72 26 -29 -39 25 34 -26 -23 -79 -36 11 19 -48 55 53 -24 -31 -51 4 4 -56 23 28 -1 -62 -33 17 -67 14 -14 -44 5 -58 43 -61 -5 34 -43 -24 -65 57 14 37 33 -38 -23 -42 -28 -40 19 39 17 56 42 2 9 -18 54 27 46 32 52 -41 -78 -3 -35 12 -21 -40 -31 -10 24 -2 33 -1 22 52 -63 -42 -16 -69 19 -51 32 -61 9 11 -65 -14 -13 38 4 35 40 -30 24 -62 -38 24 7 28 11 40
10 -25 39 -39 -48 -71 -38 -15 -66 -21 -58 -58 -31 24 -17 -13 -34 -53 20 -22 -54 7 -5 40 -36 -17 51 -4 -29 -36 -8 -20 -29 -56 -39 5 -75 55 65 -5 -68 35 -62 -28 -20 41 18 -54 -71 -13 31 -39 41 -20 -3 30 -11 -33 -5 17 12 -21 -41 14 -26 11 33 40 -21 58 -56 0 42 52 50 -54 -17 29 14 -43 65 11 27 4 35 61 14 -68 -58 45 2 46 36 -16 9 -59 41 -67 54 -60 32 22 -15 -14 -59 -63 48 37 -40 9 -6 32 54 -34 -19 37 34 10 -12 37 -68 -34 47 3 12 -62 -7 -72
-41 56 -29 -25 29 58 17 -22 -50 19 -50 42 -32 26 62 41 -1 -57 -37 -59 23 19 -58 -61 -14 -7 27 6 33 -16 28 35 5 50 -32 23 -3 30 -12 -45 22 3 56 30 -29 -22 61 -6 15 55 34 -34 -59 -21 -42 31 -5 -19 3 35 26 56 -1 4 -58 32 48 -58 23 6 -23 -54 -28 -12 52 -56 48 60 -46 0 60 45 11 -49 -22 -38 -38 43 -32 -20 44 41 -8 -55 -41 20 28 11 7 -50 39 -42 -24 -28 27 -23 71 -56 -72 45 -33 1 -56 -5 14 35 -30 12 7 27 -1 46 28 -19 62 -30 -27 23
15 -55 57 46 -50 -14 -51 -29 36 25 -31 -18 -9 -10 -25 9 14 32 20 -33 45 -52 -25 31 45 21 -22 -40 -54 -23 45 61 39 -14 -11 1 11 -18 -62 58 21 33 32 -12 -5 -60 10 46 -49 23 -47 11 1 -6 -36 60 40 -10 -38 38 61 31 -59 -51 -45 35 3 -27 -23 -42 -52 -65 -12 -21 30 -29 62 -16 -69 51 24 -41 53 -20 34 -36 60 -28 -36 -1 41 -58 -52 5 13 -1 -58 -20 9 9 45 -10 -63 -4 37 6 -51 53 -43 -48 9 2 -9 -28 33 -27 24 -28 55 64 -58 -1 11 -69 18 -44 -19 -18
-37 -40 60 25 -45 34 -5 -7 -14 -43 2 -13 -49 25 -51 -16 -25 42 38 -53 -25 10 -35 41 -39 -17 -8 0 12 17 29 -27 13 6 18 -1 -66 33 -7 -10 -11 -28 13 -64 43 29 -13 -12 39 30 68 -37 -24 -7 -1 -62 33 49 55 27 -32 1 -49 7 -37 -38 -31 -38 41 13 -26 8 -25 -13 -38 26 27 -22 33 14 19 29 -39 -31 -21 5 -15 -46 35 6 45 -29 31 -12 -8 54 45 -33 2 56 -28 62 37 13 -12 -10 46 -52 -38 -37 29 -59 -69 69 46 7 24 57 37 -61 45 4 44 31 64 -64 -47 9
36 -49 51 64 51 45 -17 -41 29 11 13 8 45 66 -62 -20 -5 -18 28 -60 27 1 45 -29 19 -7 60 -61 53 -57 -1 49 51 -56 12 12 6 48 55 -41 17 11 -31 54 -55 -15 -45 -53 -25 45 13 0 41 -20 -16 -56 57 -5 1 -1 8 -6 18 45 30 -63 33 34 -51 -55 49 62 -2 3 -33 -44 51 -20 10 -31 53 53 0 -55 16 -29 1 -22 -44 44 -60 -46 -28 -3 1 -38 -32 -45 -29 -3 7 -12 -49 10 40 27 -59 39 -62 1 -34 -50 47 18 25 24 -62 48 15 46 -34 10 -38 -28 41 -17 39 11
58 -22 9 32 24 16 34 -4 18 -7 21 -32 46 36 -3 -7 -32 24 16 24 22 -4 -9 -42 35 -3 26 -48 25 -21 8 -17 -14 -20 -46 -34 -30 -57 29 2 -33 47 -45 54 9 0 -40 -54 32 -24 35 47 49 24 -65 24 -17 -11 35 1 26 44 25 -28 -57 -40 50 55 17 -65 -7 -21 43 -69 -8 6 -9 50 -10 46 40 -27 -48 -45 9 61 43 -28 5 -57 43 -25 -42 9 62 -46 47 -29 14 -62 26 55 2 -3 41 45 39 -27 -8 -39 13 -7 -44 -50 62 -51 46 -58 5 -23 -33 68 -42 59 -42 11 -59 31
-57 27 52 -83 16 5 -44 61 0 36 -62 2 -15 52 6 34 -21 38 37 -25 36 -57 -59 -59 91 35 22 20 7 32 -11 87 -45 37 -17 24 4 51 0 43 14 -23 -16 -51 -9 26 -35 1 25 70 33 2 -49 -3 -29 23 19 2 41 -44 48 27 -2 58 -55 39 52 52 -2 13 43 45 27 30 0 90 15 2 54 -42 29 -34 -18 52 27 -59 -56 -2 33 -44 37 -18 32 33 34 50 53 -30 -55 -65 60 -39 -27 -54 -1 -45 93 -61 -57 7 -27 5 13 25 26 -49 -8 -31 -8 28 -17 47 47 -44 19 13 -35 0
-37 51 -52 58 25 21 4 55 -15 38 26 -54 23 59 -63 5 -24 5 57 37 49 38 -28 37 3 -3 47 62 8 19 -15 -37 -30 10 -3 -3 7 46 -30 17 -10 -62 15 62 -4 33 -10 17 -40 -23 47 25 4 -51 34 -68 19 0 4 18 -38 -18 57 -52 0 0 -41 13 17 -61 21 24 -46 51 45 -18 -56 3 5 21 23 3 10 10 16 -7 -4 59 26 -38 -30 43 -25 -46 67 46 22 1 52 14 -10 32 -24 -5 30 43 -21 -42 35 32 44 -39 34 -4 -35 -22 -33 46 -7 -43 43 1 54 0 46 -27 36 -28
-27 -16 3 -24 -36 -23 1 34 -10 6 3 -53 23 3 -11 52 -38 -9 -7 -38 31 40 -20 -55 2 -54 -1 -9 29 51 -2 -32 17 6 -20 -40 -57 0 2 -38 -2 37 57 -20 -8 21 10 9 37 -15 29 46 54 62 4 63 -60 52 16 -77 -27 -17 58 1 49 -59 -2 -38 47 58 34 36 34 -25 -45 25 -5 -39 -19 -43 45 -16 25 -51 -56 -7 8 58 58 45 -3 23 -59 39 -38 19 -15 -56 40 -25 -5 51 55 52 -38 45 43 -43 -17 -24 -28 35 -39 -21 2 26 48 -10 -2 -41 44 0 51 0 -26 40 -8 22
45 31 5 -70 16 -45 11 -53 51 -13 -47 26 14 5 13 23 -19 31 7 9 77 -23 22 -4 12 4 15 -47 -45 -42 -53 -6 -28 -39 28 74 -30 58 -43 33 56 21 42 -63 -51 7 0 -15 51 62 -43 28 45 6 18 6 -70 -48 -16 -35 -5 3 43 57 -56 36 26 -24 -53 17 34 12 23 -44 -12 66 27 40 47 44 -54 15 -34 23 -47 42 -36 -3 39 -41 14 -19 65 -97 51 -37 85 -17 49 -26 -35 27 40 50 -63 -50 34 -63 10 -27 46 -76 -68 -63 -37 -6 26 63 -15 -49 -25 40 -15 16 3 -32 45 -62
-36 -32 -2 58 -61 27 -33 59 8 22 39 -44 39 -41 41 -16 -60 12 13 38 -62 68 -61 51 38 -1 17 28 58 -19 54 -50 58 -54 55 8 65 -14 21 22 38 -46 29 20 -13 57 66 -12 44 16 -58 -56 41 -58 -64 43 -63 45 22 26 10 14 -67 29 64 22 -19 -22 -7 -32 -24 4 26 11 -3 35 47 -11 -9 -4 0 -8 21 44 29 20 -59 -40 38 61 -48 2 47 12 40 -31 53 -21 51 -31 18 -41 1 50 -5 -5 56 50 66 -7 65 1 30 10 -13 26 9 20 -4 27 55 41 4 2 48 47 -22 23
-37 -16 -7 -16 -59 -59 -55 14 56 -55 -60 -56 7 -21 -2 2 -63 -35 32 34 50 44 38 0 7 -38 -12 -20 -41 15 12 -47 9 8 -42 -30 10 -65 -39 58 17 51 -50 -17 -53 -52 -7 -27 23 37 31 -5 10 -52 -24 38 47 -29 11 24 -1 -27 -10 15 -27 19 32 -57 30 62 53 -4 -36 26 19 57 -40 -13 -28 28 -42 41 -17 -42 21 -54 60 -8 59 -63 61 -34 74 -28 -6 -30 -18 56 -45 -20 53 -30 0 -9 7 -15 50 -22 13 30 41 -33 17 42 -35 -12 -1 -6 -12 28 -47 -7 37 -17 -5 5 22 -15
-27 -46 -66 31 -6 -37 -64 -27 -2 41 -45 57 56 6 13 -4 -14 -43 -53 14 -21 64 -19 -54 18 -4 13 -32 27 9 -27 -53 8 -74 26 -59 40 -34 11 6 18 -11 -21 -35 -2 -24 -50 37 -5 34 -65 -24 51 -42 43 39 -18 -35 -40 14 55 51 9 -9 27 21 -3 33 31 39 -15 33 11 -30 -38 44 -26 16 52 -26 20 -26 -17 46 -60 -50 2 -54 9 -8 -11 -23 57 -15 62 -16 -50 -14 -62 53 -47 -48 41 -39 -32 -41 -62 -52 -20 3 -48 40 39 -29 20 19 -19 -51 -36 -56 10 -21 -27 -2 -17 5 38 -32
-2 -40 -52 6 55 40 -46 27 -45 -26 8 -59 17 -10 67 57 0 -9 61 -37 -45 25 38 48 -31 38 -45 54 67 -28 49 35 50 52 35 -48 -74 36 55 -27 -32 40 -10 53 -31 -69 -20 51 -58 -15 47 25 -35 -33 -47 0 -44 20 -56 23 31 11 23 -55 -45 53 -32 -50 57 40 -46 22 17 47 -41 27 -31 36 55 16 5 -33 -32 43 -24 43 -28 26 17 -10 47 21 44 2 23 26 -42 -56 -19 -36 -65 -41 -25 31 45 33 -43 21 33 -56 -28 -31 -38 21 4 62 -29 -39 -35 -28 -30 37 55 -45 41 42 0 31
18 48 -9 -4 -24 -29 -42 -13 -3 42 -8 -40 46 -44 41 -33 -48 -3 -19 -62 23 -35 -62 -18 -65 36 28 60 48 -16 4 -63 -60 5 -24 46 38 -23 68 50 48 21 -16 43 -73 40 -21 -27 -28 22 -33 -22 59 56 26 17 34 -50 49 -18 -41 3 26 -58 -62 57 -48 13 -58 -27 -55 50 -46 55 50 -7 -26 -25 -48 25 32 -53 -7 30 12 21 30 -33 50 -57 -46 -17 38 15 18 36 -1 -45 -41 -60 25 49 56 -20 -20 48 -44 -4 -49 -17 44 -50 19 4 40 -29 -30 -9 20 -53 -25 -30 8 31 -25 12 -30 23
-8 -24 -17 20 -53 28 35 38 25 -23 42 -22 -11 15 15 67 -62 50 41 26 -6 29 27 28 27 -38 12 -48 17 0 -58 6 -40 50 24 -5 -24 56 -24 -16 52 55 7 66 -40 43 -8 -48 -42 37 25 -17 -1 22 -21 5 44 22 -24 25 -67 33 -18 -14 -34 -17 45 39 -60 58 -47 40 -31 -23 -38 -27 -2 -29 6 27 -63 47 15 -55 -38 -14 42 37 60 -30 32 -35 37 15 -42 -22 -50 -9 -8 -10 -28 7 9 9 -48 -41 -10 -13 -35 3 -29 37 39 5 7 25 29 -58 -48 -32 -42 -37 32 -47 71 -70 65 34
-55 -37 21 -22 30 19 32 -59 -54 -56 -44 -31 -76 -1 31 -16 -25 0 16 61 34 7 -45 16 23 -49 -12 -10 3 -58 -18 -68 -34 -9 48 5 -14 3 28 -24 6 -55 17 30 -3 -53 -42 6 51 26 38 44 47 17 46 9 46 -45 -55 50 55 -44 -41 -32 -41 23 -56 37 -7 30 58 7 26 60 -30 26 -65 -49 -5 -21 56 -17 -62 24 -43 14 36 7 -53 17 36 -39 -32 -7 -40 36 -14 45 -36 -40 12 -3 13 -32 3 34 5 28 39 -63 -37 7 41 -65 10 41 30 41 -18 -26 25 1 -25 -30 -17 -41 30 -18
-22 -40 -51 29 -31 58 -48 4 -31 -22 -2 -42 42 -52 34 -69 -8 69 41 -9 -1 -40 -40 9 19 -62 -43 -12 55 -54 2 45 -47 -32 -49 -43 -41 -42 -41 -57 -36 49 -49 -20 -27 -2 -23 -57 5 12 -60 35 4 -23 -23 -4 30 45 -43 -30 53 -33 -3 49 -41 2 10 -27 -2 -18 -20 7 -37 -11 -44 -53 57 -13 -35 43 59 -34 -11 -56 -13 -4 39 16 29 -6 -50 -22 -6 -53 11 -12 11 -76 -26 -1 20 -53 13 -41 -55 -27 -16 49 -17 5 50 16 51 26 -30 -56 22 -13 -44 51 0 -28 -62 26 38 -24 60 -22
-34 -60 37 39 36 51 55 43 -61 -35 40 -39 -47 -61 59 -33 -30 8 -5 57 -32 21 -20 -55 -38 -29 41 -43 -19 36 -22 -54 -15 60 59 42 15 -44 -50 26 59 6 46 -20 -21 -50 7 -31 -48 -57 -40 6 -22 -52 -48 44 -25 -47 25 -46 31 -60 20 53 -50 -38 19 -22 -55 -52 12 11 0 15 -45 41 -54 -26 15 45 -60 54 -44 -26 -42 -5 -41 -58 -27 10 12 -53 37 -58 -59 9 -6 39 15 -7 61 39 -13 -3 54 -4 -17 -34 -14 -9 -24 -43 -49 50 -34 63 -37 -57 -3 31 33 -52 -14 63 2 -7 33 30
-17 2 -44 -30 -2 15 -16 54 32 -11 -29 7 38 -16 -63 30 -18 -38 8 -18 7 -42 64 -45 20 -9 -35 18 21 38 11 53 -14 -62 16 35 21 56 -12 67 9 14 52 13 -4 8 -35 -48 -23 -19 16 -29 -43 56 15 -62 45 -38 -53 25 59 -7 59 -41 2 -27 -38 37 -39 -36 -38 6 9 34 -26 21 32 -15 -4 -52 11 61 -37 4 -2 21 39 -45 3 -9 -16 -39 -30 -48 -23 3 44 1 7 11 53 -11 0 -53 -16 -28 53 51 -34 16 49 18 -19 -13 -31 -40 5 -31 -12 43 17 48 -14 46 -52 -3 44 25
-54 2 -60 -30 33 -43 -59 53 34 -37 -55 -62 36 16 -33 43 -45 -13 19 -24 -31 42 -40 30 -53 -69 20 39 -28 41 -33 49 -58 37 -23 -20 22 -52 -11 60 -34 -48 29 14 -51 -14 -52 -26 31 -5 -55 -58 -18 -5 45 -39 17 -22 -7 7 -66 -11 62 8 41 50 -52 8 -46 -55 27 -5 28 56 16 -14 11 -46 2 19 -8 -38 -13 -24 48 23 -49 58 -58 -67 -18 -57 53 17 7 32 -50 -7 23 -69 -55 2 42 22 -19 24 -5 -15 40 -23 -43 28 32 -61 -20 -25 -36 1 -33 -60 9 77 35 -29 37 20 -26 -49
30 42 -17 30 -15 35 13 22 -21 -5 12 -15 9 -10 -33 -16 -23 -34 26 -26 -38 -9 23 43 4 -52 -13 -24 32 47 57 9 -29 -61 11 -31 19 -38 14 -36 -39 -35 -31 20 -49 -72 56 -1 45 -43 34 11 4 53 21 44 34 63 30 -53 -15 9 22 -61 59 -35 -34 5 -10 32 -49 25 30 -34 54 62 -58 38 -37 43 -30 -65 -28 25 44 23 -8 -56 11 -37 27 59 63 -17 40 2 12 27 33 39 40 55 25 29 -18 -1 35 -45 -48 47 -5 -39 2 1 21 44 -53 47 -3 -27 -8 -51 -68 3 31 0 42 -53
39 46 -37 38 49 -35 39 62 37 26 63 57 25 32 63 -2 38 48 24 49 24 -19 40 32 7 4 -43 -17 40 4 51 -26 53 -12 -9 -56 -15 -2 0 16 -10 2 38 64 23 48 28 -39 13 -56 54 -25 13 -7 43 22 41 36 -17 -38 -25 10 -37 35 -19 -27 4 -2 -30 -40 7 16 50 11 -59 -32 47 46 -8 29 57 47 22 -25 29 -4 8 9 -34 -59 41 -28 -42 -37 -22 -4 -64 19 -58 -4 35 41 -26 -21 -1 -39 -29 -45 -35 -24 -23 -26 -48 -21 3 -52 20 -26 -32 -29 52 -58 38 -37 11 30 -57 -33
-58 18 -49 -16 6 -21 51 -33 45 50 30 -32 -55 4 37 22 -28 56 32 -48 -59 26 68 3 -7 -52 -6 -13 -13 -38 67 34 32 -46 -58 39 29 -33 2 -26 -36 -8 47 -28 -62 14 65 -76 6 36 36 -39 -47 -54 -10 34 -55 -21 -48 1 -12 -41 7 -18 10 -38 21 -56 -22 25 23 4 45 -25 -55 42 -3 -35 5 -26 54 2 -22 14 -61 40 62 -13 5 3 24 3 -54 -30 -52 9 -23 53 8 12 20 54 -50 -10 11 15 -43 28 27 -41 -29 36 35 -2 -58 -38 -55 -48 18 22 -4 -30 19 -20 32 -18 13 -56
-35 27 -34 11 -64 33 22 -28 24 -47 42 -52 52 7 -15 -63 26 63 6 62 -42 -5 12 30 -26 53 26 -7 -39 28 -53 -9 51 6 -24 -66 31 43 -74 30 -40 16 61 -57 64 12 -54 -47 54 34 9 29 -37 13 -4 -45 41 -8 2 -11 15 45 -35 51 1 0 40 46 18 0 6 40 31 -1 29 -2 34 -19 2 2 30 -44 56 -51 -32 -25 -32 29 -54 -35 -3 -30 -48 -19 40 8 -24 57 -14 -63 10 49 41 54 -2 56 30 -35 49 2 -65 26 -23 -60 -6 67 -43 52 -48 -25 -38 32 74 -12 21 -52 45 54
-67 9 -27 43 -45 -51 -6 -8 43 -63 46 19 -17 17 26 -44 -8 8 -53 41 -30 -50 -50 -71 16 12 35 20 -34 -14 -56 42 20 -31 17 -49 27 34 13 34 2 -14 -52 -33 -16 49 3 -36 28 -34 54 13 -8 -40 -10 47 24 0 -28 29 41 0 50 36 -34 47 -12 -70 -51 46 -36 -5 67 -17 -21 -27 -20 -39 5 -30 -58 52 35 -28 21 -36 -36 -58 43 21 21 -48 43 12 37 -22 63 -36 -16 3 66 -49 46 -12 -41 -13 23 11 18 34 47 -40 -69 -19 -14 7 -4 39 -57 -63 -46 25 -24 -8 60 -35 -65 49
-29 47 54 -57 4 -21 1 -27 -24 25 -26 45 -30 -44 -15 32 55 -27 -60 -59 -33 19 54 -4 36 34 -33 -43 -31 53 -46 -16 15 -46 -36 56 -7 -20 28 -48 -67 17 -37 -1 16 1 -49 -6 -46 7 -31 50 32 -14 -9 -7 10 -15 -68 2 10 64 11 13 -44 25 -50 2 -10 -6 -31 -2 31 -66 -66 42 16 -8 -3 -19 -11 -33 39 54 -64 58 -28 35 -8 -1 9 33 -28 -19 -60 19 -13 32 -23 -19 -59 -17 32 -58 -40 -44 -27 -9 24 6 52 -3 58 -52 28 8 18 -3 -70 48 2 28 -56 5 38 -15 17 -14
-15 -58 35 0 -39 -95 -4 -40 14 -62 -45 31 -76 -20 0 -57 -4 19 -33 -10 13 -49 3 17 48 42 -42 21 46 -38 -64 18 -4 -13 -58 -8 16 15 -58 31 11 40 -1 44 55 -13 37 21 17 22 25 -55 22 -8 37 -91 12 -9 -46 17 37 -50 -35 4 41 12 7 49 35 25 10 -39 13 -29 13 19 5 -44 43 -42 37 46 0 -38 47 -20 8 -1 59 -46 -9 -17 -43 -87 58 13 33 44 -21 -49 60 38 1 7 -29 -32 -36 38 -46 16 4 31 40 -35 -2 17 -10 25 -55 -7 -45 34 29 3 52 48 26 21
33 53 49 21 29 -37 15 -61 7 -27 23 2 80 11 -49 -36 -9 36 17 51 6 -25 22 13 49 7 -44 48 -53 3 0 51 -27 -50 15 -20 20 -1 18 42 18 -40 -20 -44 33 57 44 -15 -30 -19 -10 -49 15 -57 35 -38 -19 -52 28 -39 16 -77 -44 2 15 -17 -1 -31 6 60 -36 -54 40 70 -64 -32 -11 -36 -49 -68 56 -47 32 30 -22 35 -3 -6 6 42 -23 -8 51 -11 21 53 -2 46 -31 37 -16 -31 23 51 20 -43 -5 -33 31 8 -18 -51 -37 3 -44 -1 -28 -1 -59 -61 -28 7 -39 -51 31 -4 54 49
3 -39 -36 -42 -7 -17 -47 63 -45 77 6 -40 39 25 58 -47 42 -68 -18 23 10 57 54 55 -28 37 -71 -9 -63 -67 2 -31 -53 32 6 -31 -5 -19 -57 -8 57 20 7 -67 -40 -48 -18 -50 26 39 -54 -56 -8 18 -8 35 8 13 -23 -46 -39 -17 58 42 -17 -7 -16 -59 -59 51 1 25 -2 39 -22 -72 -38 -42 30 2 -22 -50 5 -7 72 -46 9 12 51 -46 11 -66 -56 25 31 51 -18 14 -44 32 43 22 47 -48 -8 -69 -47 -3 33 -68 -14 37 -9 -29 22 -13 -29 -37 -35 23 -67 -8 -32 -32 -11 -35 27 7
44 1 -11 -12 35 40 25 -27 14 -39 -64 21 -59 -29 57 -45 -10 59 -51 57 33 -2 -22 54 -28 -7 52 33 -47 -23 63 56 53 -30 29 48 44 -48 61 -73 -5 -14 9 -23 -34 7 35 10 -36 41 39 -44 25 -34 -48 8 75 60 -43 42 -7 14 -18 2 -34 -40 -12 -66 -14 -59 -34 44 27 7 -47 20 -21 40 -41 20 -19 -12 -25 -20 54 -28 -10 -74 39 -47 -12 -11 -43 22 22 21 -30 40 23 -36 -7 58 39 -17 -35 -54 30 37 75 -27 -45 -19 -1 -50 -7 37 23 -30 -19 39 26 -23 43 -64 61 38 37 40
-24 45 34 39 -1 18 -58 11 -69 38 7 10 -6 -19 0 2 -23 13 -45 35 42 -9 42 12 -29 27 59 -37 52 20 -5 -9 0 -8 -35 7 -32 -50 -29 38 -8 48 28 -51 -48 -61 69 -63 18 -14 -45 60 44 13 -23 -4 -43 28 44 12 -45 13 11 -15 35 10 37 -66 -42 -60 -59 0 49 54 55 -39 32 -54 7 -16 28 45 -43 -60 20 -51 -50 43 23 5 -38 32 24 14 49 21 25 -43 17 54 -48 36 36 -13 48 -41 9 62 40 -40 -25 -59 -50 29 -29 -9 16 25 0 36 -41 -15 -54 55 -59 -50 15 -27
49 35 -63 9 17 -5 11 7 -3 2 -1 31 -37 -35 -50 -1 -62 -30 -25 33 -23 -19 -50 46 41 8 -21 56 33 -56 32 22 -33 -45 25 23 -21 -16 -17 40 -3 -49 26 -42 18 -15 61 38 -3 -46 39 20 12 10 -11 20 -20 4 -1 -17 -29 13 43 -31 26 33 -41 -35 57 -20 18 7 32 43 20 3 -17 -59 39 29 6 54 -55 -14 4 39 -3 42 36 57 -47 38 -57 -48 35 -58 -58 14 -57 38 48 33 66 -17 7 51 -5 44 17 -1 -61 46 10 -10 4 -33 -29 61 -64 -24 -11 -60 19 11 -1 32 15 13
29 42 27 1 51 60 13 38 -13 -36 -9 41 -56 -5 -35 -3 -41 7 -15 56 1 35 8 -77 86 -19 -37 -31 -52 -12 22 53 -32 -26 24 19 2 -32 2 71 -65 -42 -33 -56 -60 -69 10 40 53 42 -55 17 -11 39 -55 52 -17 -48 18 32 -16 64 -48 2 25 16 -62 20 -65 38 -18 27 -37 -49 -1 -11 -58 -74 79 -58 -60 -12 9 -29 -3 -59 -28 -22 16 -27 -49 45 49 7 -30 -39 89 -64 -30 -12 38 -44 12 -23 63 52 57 -18 42 -16 30 -67 33 11 5 -17 -2 -2 -24 -49 58 -67 -21 -10 -10 -69 -56 31
19 -63 -13 -31 -15 20 -14 -59 -50 -31 -26 49 -19 25 -19 48 33 6 -22 -26 -63 -25 69 10 25 12 -25 18 18 12 51 -32 38 15 -34 -4 -52 -50 69 45 51 45 42 9 -9 -33 60 -22 59 41 2 44 -53 16 62 8 -26 -32 66 86 -35 -67 22 -42 64 -9 -30 -59 48 -47 -16 -38 17 -21 -47 48 67 40 68 -18 -18 -67 -41 -67 -36 -49 -18 51 31 -61 14 -39 -34 13 7 36 49 -57 26 36 39 -10 -39 36 -25 29 37 -4 65 2 63 42 -4 18 51 36 -18 31 -42 45 -61 -68 45 0 -75 -32 43 -29
-52 20 -34 -46 57 -35 -7 10 52 -54 -41 -16 -59 -8 -11 25 -59 -46 5 17 -38 -19 -56 -36 59 4 37 48 -45 -19 -42 -53 -9 18 21 12 31 -27 21 -35 -56 51 -23 -69 -23 -64 -14 -55 -61 -58 25 5 -19 -21 47 -26 -67 57 8 -66 20 -1 52 27 56 -50 24 -5 -23 35 -46 12 27 -31 11 53 29 -34 -11 36 10 50 43 -54 -22 -14 50 -21 -11 47 -10 35 43 -15 -2 49 -61 -33 -19 35 4 8 -33 3 38 -49 -23 4 -20 -35 62 45 -19 29 -23 -57 1 24 51 37 1 -49 -49 3 -19 56 -24 -6
-45 -32 7 -36 -53 -36 -48 -31 60 -44 -59 11 4 20 -42 64 -43 38 36 -34 -6 4 -41 1 51 -64 31 50 14 -23 -34 50 -45 36 -8 3 -60 -36 18 68 -41 41 -9 -38 36 -47 23 -17 54 80 -32 50 56 -5 -36 -4 -33 23 6 13 -4 96 46 -52 -51 39 -46 -10 -67 -24 25 53 -56 -55 -7 10 26 -6 80 -56 -32 -40 1 -15 -64 34 -63 56 40 22 56 -39 117 -63 69 42 99 -55 37 38 15 -49 20 11 20 -29 21 -34 24 -19 -15 -46 -35 -15 23 -42 -48 24 22 47 -11 -39 -66 -21 26 19 -12 46
-18 54 -45 2 -24 4 -28 -56 -70 12 -5 -31 25 -35 -8 15 7 -8 -41 -6 -7 20 -37 -42 -69 -33 42 55 -62 -65 15 3 5 -24 16 -29 16 17 -13 -32 -65 -43 -55 47 -12 57 54 32 -35 10 29 33 38 -33 -6 -35 43 -54 29 29 -50 45 -4 -26 33 -17 52 24 -62 -42 7 37 -3 2 35 2 0 -28 70 -3 20 -22 -66 -27 -9 -49 -67 -61 59 -76 -18 -32 9 -48 -53 -38 -47 -27 -54 21 -20 -15 40 47 -4 -6 -5 31 -44 11 49 49 40 17 -53 -65 -6 49 -29 26 15 -37 -4 14 22 46 -27 -65
-18 18 -27 12 -25 -12 10 -47 -25 -57 -1 -34 4 46 -43 21 -17 -22 -26 49 -21 -19 -5 73 -81 50 -73 6 36 -54 33 7 48 60 -50 35 34 -45 -12 38 29 -16 32 36 -21 -55 -69 -54 -42 -53 16 -20 7 51 56 -36 -46 48 55 27 -24 -27 20 -57 -62 12 -59 -75 -54 -32 -46 46 -46 -34 41 59 11 50 27 31 -41 27 7 -29 27 61 -39 -58 23 -9 37 -20 46 -49 57 -6 -39 -71 -39 -34 -45 46 19 44 33 3 -35 -17 1 38 -41 2 -56 4 4 5 -46 -37 -1 48 -65 -20 -25 44 -59 -57 -7 6
-29 21 50 -10 -39 -37 -56 -52 -39 0 53 -36 34 -10 -39 -30 -33 45 -18 37 -37 -8 48 -63 33 46 -55 52 -33 2 -24 27 -13 26 41 56 6 -2 -12 62 38 3 -2 -45 -18 42 -43 -45 -24 -26 61 -59 63 41 -51 -51 -31 27 28 28 -38 -22 13 14 3 36 -2 5 64 -46 -1 -33 14 -38 37 -37 -32 -16 59 6 -6 24 -32 -28 3 -21 -36 -35 -17 -32 -37 13 51 -60 43 -45 -28 -10 -19 -15 1 -2 38 8 -63 -47 47 57 -55 -5 23 44 -18 45 -23 51 -61 -54 38 -48 4 61 48 42 19 -57 28 53
37 -7 -65 -33 -21 38 -63 -32 13 -62 -37 -15 45 12 18 36 -63 -52 10 -9 -56 29 -19 -57 43 -32 49 -13 52 3 -36 54 -3 -55 -37 42 39 35 48 -6 -26 -44 -65 23 -64 -34 29 23 33 12 -22 29 -63 -3 -21 15 -55 -17 -60 -47 -2 -18 -32 65 -32 -23 -65 57 33 8 -37 -17 -20 -64 42 43 12 38 0 -4 20 -45 -60 -37 -37 -22 -2 4 36 -38 -19 -14 51 28 6 -34 22 1 -11 -54 -11 53 31 6 -31 -54 52 19 -72 -32 -59 -74 54 -51 -33 -43 54 -59 41 -63 15 -23 -30 -4 -18 -12 -28 9
50 27 3 29 -20 -51 23 -60 54 70 41 -46 -10 -49 48 -40 -49 49 9 -14 -31 4 -4 44 -46 -60 -26 49 47 31 -9 -7 -8 -24 53 7 -25 -14 -14 -30 52 -44 -25 52 45 54 -34 33 5 23 -49 31 -20 57 37 13 30 15 -66 -68 29 37 19 58 -41 65 -10 26 3 54 -43 23 -22 -4 38 -43 -82 21 7 0 -15 -49 7 20 -18 -27 37 -59 -28 28 19 64 18 42 -18 -30 -35 20 53 9 57 -30 -28 52 10 -18 -51 13 -69 -3 -1 3 -55 -27 -56 1 8 -5 -21 28 -34 -24 49 37 67 15 52 -13
5 17 7 20 8 42 55 12 -8 5 20 -26 -23 -47 19 48 -3 12 29 20 -65 12 -11 -24 55 -18 2 -40 11 -43 55 -7 22 -42 -55 67 -28 -39 -38 -44 -32 55 5 -69 -23 -30 33 -27 1 1 49 33 -34 -58 -55 16 -6 8 33 -21 10 30 39 26 -19 -48 33 54 54 -21 -29 -7 -3 42 -42 -64 12 6 56 29 13 -17 62 -10 -33 -2 -39 37 -19 20 34 35 -36 15 23 16 9 -54 -45 45 -33 -24 -35 -48 -32 -28 47 17 -14 7 17 -49 -19 -49 2 -60 16 -18 54 -57 20 63 27 40 60 2 -31 32
-9 -29 35 11 18 -12 -26 33 -61 -19 -53 26 44 -56 52 -28 -16 27 49 5 -45 -28 -33 -11 22 28 -42 -58 -9 -17 57 35 -62 29 -59 -28 5 -46 -28 -47 6 14 58 34 16 -12 23 42 10 -25 -17 -50 -4 -1 64 12 -54 -1 -27 -8 24 -69 17 -57 12 21 30 22 -19 12 -15 46 15 33 -11 0 -3 17 62 45 21 13 -37 -11 58 -48 -15 11 59 49 4 -30 14 -57 33 -27 35 20 -4 18 -36 22 -35 52 15 -49 3 53 -58 -24 -1 -27 10 39 -18 37 18 -1 -55 -68 39 44 -61 -4 -44 -4 -56 22
-60 44 31 30 7 -35 -49 82 -30 -34 -8 -64 4 -16 -45 -20 0 -52 24 -41 29 27 36 18 87 36 -64 15 -4 -68 33 54 20 -4 -51 2 25 -11 58 93 -25 -40 -7 40 -35 20 48 51 10 48 -60 -27 -14 -46 -49 67 29 -9 -17 34 60 38 57 -58 -1 -66 19 -42 -6 66 -50 -73 -40 15 33 82 -33 -48 51 41 1 -20 -44 -35 -14 34 -24 23 -39 -20 -28 -32 90 -49 28 10 62 4 -3 34 -47 3 -60 -27 29 -15 51 -39 15 10 -49 17 -3 -40 7 10 22 4 1 -45 21 21 -18 26 -73 19 31 40
-54 30 -60 26 44 -1 32 38 22 47 -3 -9 30 -55 -37 23 56 69 -64 22 20 -1 52 30 -13 -10 -43 53 51 -22 14 47 52 -3 38 -56 -35 0 52 27 -4 9 35 4 -47 18 0 47 -58 43 44 -54 -18 -52 61 -9 12 -5 16 -58 -5 18 -45 -19 29 -59 -15 -59 45 0 -31 -59 56 -13 1 -53 54 -21 -45 -25 47 -40 -18 37 50 57 37 56 22 -47 8 -26 -39 -49 53 -7 40 -23 56 -52 44 -49 -13 -47 -5 44 36 -19 34 -49 7 68 6 37 59 -14 -4 -27 -43 6 -18 -38 -5 36 10 39 -28 -8
53 22 6 -24 -22 34 -10 8 -3 56 8 17 62 -8 -22 34 -55 -31 61 -53 -64 -13 22 -20 13 26 58 59 61 -8 -29 30 29 -15 -5 -1 34 -34 -65 8 25 2 -52 -24 -22 -27 -44 -36 -58 -50 31 -5 16 20 -36 36 -34 -67 2 -8 -38 -35 4 -69 -59 9 20 56 64 -25 -44 23 -16 26 -3 -75 -16 38 48 31 -41 -19 -64 -33 -28 -49 -62 43 -32 18 3 17 -4 34 -5 28 -59 -43 -13 -16 8 -74 -54 4 -8 60 -42 -41 -14 63 0 -1 35 28 10 -46 -59 -40 18 24 54 16 -51 -53 54 -34 -85 -15
-9 -63 42 9 -68 -47 34 -40 -43 -42 19 -42 -40 12 37 37 -36 33 22 -18 -41 -59 25 35 -50 45 9 -53 13 -23 19 55 -39 -25 17 11 -59 5 40 -3 -52 20 -56 32 -28 4 40 -31 45 5 0 61 60 11 11 37 58 -26 72 25 0 8 -52 38 25 -4 -19 19 21 -18 21 -21 -19 -49 -70 -27 -57 -11 29 -37 -46 26 -46 45 11 54 33 35 -11 54 55 39 -31 45 -22 50 32 -2 -46 57 50 63 -11 -51 -11 -7 -40 -44 29 -28 9 -50 -29 -19 -19 22 42 -51 -42 -26 -39 -41 62 -14 53 42 -52 23
-19 24 -45 36 52 49 47 1 -54 17 -3 -6 2 -18 5 36 -22 -51 -25 4 46 -57 4 57 37 -33 -36 37 -19 -62 65 43 42 30 25 -80 -70 -38 -56 -79 -6 20 -51 -37 -67 40 -36 38 9 -20 -12 -9 -13 -16 10 6 23 -46 59 -73 -17 24 31 -41 -74 56 35 -41 -40 46 -38 65 -30 -12 26 13 13 -34 -25 12 64 -56 39 9 -6 46 -4 6 24 7 -41 -11 20 -27 -38 33 -48 27 24 63 49 19 32 49 44 -4 65 8 -21 45 15 -12 59 -64 -39 1 40 56 16 39 28 48 -54 -28 -14 33 60 -35
10 -28 16 29 20 -5 0 51 46 3 40 23 18 -11 58 -56 10 -3 -14 -6 -47 -33 -56 -4 -7 11 26 42 -36 -36 -43 46 37 21 10 -17 45 -54 -71 32 29 48 -3 31 -13 52 -37 -52 -17 -19 -47 -23 -31 53 -10 -15 -50 -47 48 -18 35 -19 -56 -5 60 55 46 28 -9 63 -67 -27 4 37 -3 -7 -56 -9 -49 40 10 29 53 -23 30 -45 50 -92 -54 -17 -17 -53 0 -27 -44 -21 38 10 -61 -21 -36 -66 21 -51 41 -48 -32 -10 48 -37 -17 52 -28 10 47 5 -64 4 6 -58 -17 42 -56 57 -59 -62 -21 -24
27 46 -28 2 18 62 -30 33 -17 -32 -29 -11 10 3 49 25 -46 -54 42 -62 -8 -15 38 -13 -31 15 -36 41 54 51 -31 -23 -54 -33 -51 -23 -18 19 23 14 47 35 -62 60 -2 52 39 16 -43 15 -48 27 -23 -42 60 -20 36 25 -10 -14 -35 -38 -49 -52 -17 25 -14 27 28 -34 -34 -21 58 -34 -18 -5 -46 71 34 40 -9 8 -42 -24 14 41 -4 -16 26 35 38 -56 -23 -38 66 55 33 12 -51 -20 14 -29 37 31 39 62 64 47 -8 -34 1 -44 3 -13 4 -52 24 22 -25 -14 -29 -61 -9 11 -39 -24 28 -39
-43 -60 -22 9 1 21 -42 12 -61 -23 -62 51 -3 62 37 -25 -47 -40 -28 13 44 -50 37 57 -22 -18 -26 3 -69 18 -32 6 -49 -4 -47 -36 -33 24 -33 -8 -45 -12 43 33 44 44 51 61 -45 43 4 -53 -13 -34 2 -45 36 -49 56 -54 -27 79 -47 -43 1 49 -16 -18 -8 7 -53 -8 -27 6 -34 -14 16 -38 2 -12 -8 56 15 31 -24 63 -9 65 -11 -15 -34 20 74 7 -29 55 -17 28 -19 31 22 12 -22 32 -17 -34 -35 -20 -57 -58 0 56 -37 -14 2 -33 -36 36 53 -37 53 18 33 -18 -27 12 -39 -4
-3 8 56 38 24 -44 -57 32 -18 -6 -14 57 12 17 -4 -29 -15 -51 -16 21 0 -17 44 39 -19 -42 -40 -6 -43 -28 -26 26 25 51 9 -27 -9 -13 8 -93 33 -64 -10 45 -67 -29 -8 -63 3 -73 51 -69 -58 -29 -49 -48 98 -9 37 -14 24 -49 -56 -19 29 52 3 -50 -7 -69 -48 69 58 16 53 -6 79 13 34 -31 61 35 -41 52 16 43 -46 -1 -35 -4 8 42 -69 39 -42 27 -44 -26 12 64 22 14 50 12 37 -21 1 29 -26 33 41 54 20 -34 -6 36 -52 29 -10 -27 49 50 27 -64 3 -13 44 25
3 28 -13 -9 41 9 -18 1 16 -16 31 21 -14 45 0 2 15 53 32 -24 -25 -22 40 -31 -34 -1 39 2 -3 45 -52 37 -24 -56 37 76 -15 20 27 79 16 -51 40 -59 46 14 32 -74 11 7 15 -63 12 47 -70 37 -64 -16 57 22 8 21 -18 13 55 35 35 -33 26 -1 -58 -32 4 26 39 18 -63 -59 93 13 27 -40 -17 12 42 9 -32 52 -36 19 17 16 7 -23 -3 -1 74 -13 -36 -6 -24 -70 -18 46 -7 9 46 -17 -60 7 -20 -42 -19 12 -2 -27 -64 -50 -6 -9 -1 -57 35 -78 -59 -22 33 -25
-33 44 60 -35 55 39 -9 -38 1 -39 -8 -61 -21 18 -9 37 16 -47 35 52 -2 -29 -19 -34 27 -10 -60 -72 2 32 43 -4 -50 -42 -45 16 18 -22 -22 37 26 20 21 -16 63 12 51 -30 60 20 62 -46 45 56 15 25 -23 21 6 -28 11 64 -26 -26 -16 1 28 -52 -47 -62 1 25 -27 -51 -32 23 76 68 56 48 59 39 8 20 -38 -11 30 38 14 -29 -66 -4 -24 57 -8 15 -12 -38 -25 -47 -4 21 18 0 -36 -7 17 -16 -11 35 3 41 57 -16 27 9 -52 -51 -61 -63 7 -63 11 31 41 33 61 -16
41 32 6 -51 37 -18 -15 56 -39 -1 30 14 -24 -27 55 -2 15 56 15 -54 23 12 1 -65 29 38 44 0 -44 -6 28 -69 -41 -6 -50 6 60 47 -31 -9 29 51 -26 38 1 -28 32 24 69 -22 -44 18 -55 41 -28 -43 19 47 -28 -37 41 58 -59 -47 30 -7 28 54 41 2 19 -5 24 -26 -30 6 63 -49 44 -64 -25 -38 11 -12 35 -47 16 -43 45 33 -43 -19 47 42 -49 -62 -66 44 25 -54 17 26 -33 10 61 -22 -38 -38 6 -25 -17 59 16 -34 21 19 63 -49 19 40 15 -48 0 -18 -25 -58 51 52
-15 -35 47 43 44 13 -57 47 -6 -5 -45 -57 0 52 34 -8 13 -23 -20 -17 2 -18 9 10 -100 27 -60 -9 15 38 -49 -73 -27 -70 68 29 -49 61 -2 -94 -14 -61 50 0 -3 55 53 57 19 -87 13 37 4 -11 -9 9 86 -55 30 -43 15 -18 47 30 -67 52 37 39 -32 23 -47 -20 -6 50 18 -4 49 -45 -53 -59 -45 -5 -40 13 23 -65 -11 31 -9 40 -68 33 33 59 -15 -43 -69 -31 -5 -60 8 -33 -9 -30 -5 -37 -46 55 14 -35 37 -40 -75 -11 -49 -16 -62 44 24 40 -12 36 -34 -51 -55 -8 6 -49
-66 14 -40 -54 -32 -46 46 3 6 -5 -36 -39 -24 52 -13 20 30 42 18 13 61 30 44 53 -20 8 38 -54 -56 14 58 -3 49 30 1 29 -57 6 40 -10 58 -47 27 26 -36 11 59 41 -30 29 25 47 4 35 34 -60 47 33 -9 -5 5 6 -13 -13 28 -48 -66 37 42 36 -10 48 26 9 54 75 -51 14 -51 33 -12 57 48 -22 46 32 -53 -15 43 -23 17 41 -38 56 0 5 -14 -34 -29 0 59 16 43 -65 16 -18 -12 -4 27 21 16 17 10 37 59 -10 52 -10 -34 -47 26 45 -5 -65 39 56 -13 15
-43 44 36 -20 -34 -19 -15 -55 -5 41 -53 -24 61 -7 43 -5 -55 60 -11 -54 -49 50 70 22 55 71 -41 2 -2 -15 50 50 47 55 -46 -18 -54 -61 13 3 -15 32 -27 55 50 41 63 -65 -9 -6 -35 -9 60 69 -10 2 -18 -59 -13 17 46 36 -39 -49 -4 -55 3 -63 58 45 54 -49 -46 -54 1 -46 -9 -29 6 14 -7 46 -48 16 10 -24 57 -62 19 -69 -40 39 45 29 12 53 -63 24 -23 -21 -12 33 8 -25 15 14 -8 -55 -43 -8 -33 -20 35 34 64 48 -50 -61 51 -11 29 16 -36 -27 -36 -10 36 -43
-36 -30 -4 -16 33 -18 0 52 -17 40 -34 -49 -32 -54 -48 -9 -34 40 12 20 9 56 68 4 -7 1 21 -7 11 -23 38 48 25 -1 9 -60 -17 37 -25 37 -50 18 -19 -35 -48 30 -10 44 -21 -17 33 31 62 -48 -31 -51 39 59 -34 -40 -38 -61 28 -10 16 -54 -55 44 48 -26 -54 7 -10 45 52 8 48 -8 -29 13 7 55 47 -18 -37 35 36 40 54 -24 39 -7 -55 55 28 27 -59 46 -39 39 -10 -52 64 -46 -58 32 -24 26 -8 31 13 -53 51 45 3 15 2 6 21 31 39 -5 -18 40 -21 8 31 27
-60 41 -56 6 -20 -19 49 49 7 -11 -6 -46 0 -28 46 1 -19 -10 34 -27 -36 -66 61 40 4 -28 -7 44 42 -32 38 -8 -5 -38 -9 22 -48 -16 2 41 -33 54 -50 60 -18 -3 -41 33 -11 -65 38 -6 19 8 -19 -38 -19 6 42 59 19 25 -34 -28 55 46 -31 -12 21 -14 -57 51 -19 35 -75 -14 -79 4 -38 -23 -10 22 44 19 44 41 -8 26 -42 55 -45 22 -40 -9 -52 -36 -3 36 -6 38 -7 -39 -48 -45 7 47 -20 24 10 -51 45 2 32 13 -16 34 30 -31 -26 5 -45 -50 -29 48 46 -37 4 -39
-9 13 -37 6 26 -26 61 -66 42 -55 25 -30 -26 2 -15 70 60 69 6 18 7 -46 -53 32 -47 -33 -60 -7 10 38 48 29 15 -22 -49 15 58 -54 35 42 -7 25 -62 -54 -33 4 -51 39 11 42 41 53 45 -43 -37 -9 -64 -13 24 33 2 29 -25 64 -3 40 55 3 27 -45 -21 -36 -41 0 -25 59 36 -4 44 22 43 -56 31 12 57 40 -3 -19 8 -10 7 -14 -31 -3 26 44 -13 -12 -19 14 58 -30 3 0 27 17 -41 -32 35 57 44 60 -6 -34 58 -6 -15 29 35 12 49 -8 44 -72 -12 -42 -15 -26
42 -28 42 -44 -29 3 -51 -59 -34 59 2 41 -28 -16 55 -40 -58 9 -68 31 -46 7 4 -57 28 -60 -37 -26 34 58 -46 7 13 39 -35 53 8 -22 59 -7 33 -42 8 -59 -23 39 3 -54 -42 -26 -27 -44 -32 27 40 -25 -44 15 9 12 -22 14 -40 48 16 -22 -57 9 36 -54 -21 -7 23 -43 22 -7 -38 -52 -27 6 42 40 14 32 -27 4 4 13 55 29 59 59 26 -38 -44 41 -22 -63 -39 2 19 -2 28 15 8 58 -37 23 19 -9 -26 7 -41 -47 -51 -54 -44 -40 58 45 12 38 -13 6 52 -26 -4 -69
11 -47 -6 50 3 0 45 14 -24 21 -58 46 15 -29 -20 -51 -29 21 6 -16 21 -43 -14 -42 -8 15 -31 -14 -23 -38 -17 57 -48 -29 24 38 10 -67 43 -25 56 -42 -15 43 -42 10 56 -16 62 -3 -45 16 -28 70 41 -35 24 51 -50 50 -31 -49 -39 -22 -17 -35 -14 -20 28 -51 27 -16 19 40 -69 52 -67 -20 53 -30 39 43 43 12 45 34 -60 -19 54 40 -31 6 23 44 -35 -66 6 -19 55 13 -34 5 -10 33 -29 -21 16 -37 18 25 0 -53 10 49 -56 -14 -63 43 -59 -37 18 29 12 24 -24 9 13 47
34 -25 13 -4 -20 22 55 22 -60 -44 38 42 -12 42 46 50 21 82 3 45 -38 -54 49 43 33 -27 -54 -29 -55 21 9 -5 19 2 -40 63 -78 32 -65 0 -50 32 -19 -28 -72 -25 27 -21 52 -15 9 49 -58 2 8 -62 -37 -44 59 -47 -13 44 23 31 32 28 31 -7 26 4 -26 -40 -63 13 5 46 -45 -27 44 0 54 15 54 24 22 62 11 -22 28 29 -4 -35 -53 -13 44 2 9 -34 -37 -19 -30 36 27 49 12 35 -37 46 60 8 57 -13 1 -9 7 7 33 35 -5 -48 -38 45 42 56 -42 -59 7 29
46 -18 -34 9 -61 -34 -50 -23 -48 -4 29 -38 14 32 32 24 37 4 -38 -13 42 56 -42 -41 8 -65 -14 28 -27 -60 14 26 14 -43 1 -13 32 39 18 -40 -53 -18 -36 24 -35 -24 46 -35 21 -53 3 -16 -50 -14 32 6 -24 -54 33 -44 23 44 52 -63 11 52 -8 -34 -9 36 46 51 -31 -10 19 -24 -24 26 7 -72 -59 24 -44 -26 25 3 51 -32 4 -66 7 -40 33 -53 -6 13 13 -18 -17 -51 54 44 -34 -52 -34 36 -58 -24 16 -51 -5 -52 16 56 -11 0 -14 37 32 -54 27 -68 -15 -50 -71 -10 -18 -49
-35 -57 -46 2 -52 -13 -38 30 -30 -31 -43 28 -3 -39 -26 48 -58 15 -55 -38 85 4 13 -41 24 18 62 -45 -37 -10 -14 -47 -8 -60 23 45 -49 -8 12 68 -38 42 -54 24 -12 -54 -55 47 46 45 -25 -58 30 55 -4 38 -40 -61 -5 30 -17 2 -42 -5 33 -49 -47 -51 -48 -23 58 34 -58 39 10 69 -68 -15 56 -63 -43 -29 7 -46 -49 43 -63 -33 -15 -53 31 14 45 21 -37 -67 97 -52 -22 -58 -57 -56 -20 39 -64 -8 42 -6 -57 -62 33 19 51 46 -15 8 -9 34 23 -36 -34 -70 5 45 -17 -32 -80 29
8 -19 -37 -15 46 -29 36 41 -37 -37 -38 41 28 50 -13 -51 -17 0 3 18 -9 -3 26 -1 -38 -14 -28 -57 52 -42 1 55 -46 1 -16 51 26 8 -40 -17 -68 -16 -2 31 -26 -43 -6 40 -19 -59 25 -65 -60 -2 -34 -35 63 43 2 44 -60 45 -60 47 -52 35 53 43 -35 -38 57 17 -45 -12 12 -11 40 21 -7 -62 35 49 57 41 52 32 22 52 33 -54 12 -18 -23 -37 -61 46 10 -47 1 56 52 -27 51 8 13 28 62 3 53 62 -27 55 71 48 -40 -31 13 37 2 -58 24 -46 -31 60 -36 -44 69 -16
0 37 -4 -19 -26 0 -3 -41 -24 42 -43 -32 8 -15 59 -80 54 -9 -66 -5 -2 55 -37 -39 -23 48 2 -38 19 -43 55 69 8 -76 59 14 55 20 43 35 -12 -33 -46 -9 -54 58 -15 -57 -25 -54 -38 56 -22 -73 39 30 44 34 -1 -37 12 8 -37 23 26 -4 -34 -6 -17 -21 -4 -29 -23 0 -33 5 53 28 -25 -11 39 23 -43 -71 61 -10 -64 18 -65 -41 32 -78 4 18 51 -31 55 20 -44 8 -17 -41 -33 48 -62 -38 58 -38 -7 2 -51 -17 -26 -43 10 45 -13 -14 -67 42 26 -14 -73 -68 26 -61 -38 26
-40 33 51 -27 42 -31 -37 -73 -48 -63 12 7 52 -13 -26 60 -34 -38 52 -62 -59 -54 -12 40 -75 -35 43 12 -77 31 -15 31 -54 -6 60 -69 -27 -40 -25 -5 -65 14 -15 69 -25 -41 30 -3 -61 23 5 -77 -11 -26 -26 32 16 -14 -10 20 33 50 -52 -3 41 -19 -36 7 -4 9 33 66 -42 -50 -55 -25 63 14 66 17 -27 44 -1 -52 56 16 47 -23 -38 -48 45 -15 -54 12 27 51 -46 -54 44 -37 27 -49 -11 34 -9 60 -44 -19 -53 46 88 28 26 -6 23 48 -67 -60 51 26 56 -49 -9 -48 42 -68 -1 -12
-7 -34 -67 -26 31 43 4 -12 8 17 -43 -40 -4 -34 -16 -10 14 -3 15 -6 36 -54 -15 -53 60 47 27 43 12 -32 -41 -36 -5 -62 -69 -11 14 9 -56 -2 -12 -1 -23 -11 56 -71 -60 -1 7 -12 55 -46 30 57 17 43 -50 -46 -25 51 9 -30 4 21 10 -26 -18 39 5 -22 -1 -46 -59 -24 -47 52 24 -33 -31 -4 18 -11 36 -34 -37 51 63 32 10 -28 5 36 49 25 1 30 -49 -3 13 -22 33 44 42 5 -43 61 45 32 -1 46 39 -43 -40 6 -37 -27 44 56 -55 -18 -19 36 21 -49 -5 10 2 32
-50 29 37 -50 15 58 35 -49 -59 -9 -16 51 -46 43 16 55 15 0 -48 62 -6 -37 -56 -30 -60 30 38 24 -8 -50 -19 -16 -27 -11 -9 -8 -41 -29 -52 26 -2 -15 -43 -55 -46 -21 -40 -49 62 -30 29 45 -7 47 -9 48 -13 -21 -60 17 28 -20 17 -44 -54 -68 -20 -40 55 -10 -67 -23 29 62 -2 13 59 -33 -57 -2 -17 -24 -32 -32 -11 -22 -4 3 18 -22 -13 -49 -54 -43 -22 -58 -36 -62 -53 9 24 56 5 55 -37 2 10 30 51 -26 -28 44 58 -4 -61 39 1 -39 -39 -34 -10 50 -32 -7 56 -39 1 -17
50 -44 4 38 49 29 -57 -38 -4 -34 -58 -46 1 -9 -38 53 -7 52 -33 -25 67 -70 -6 -32 25 -21 35 -53 -42 -40 38 -30 -35 -34 -49 62 -54 -62 -65 12 -50 4 -44 10 -31 32 -53 -43 -16 -72 -25 51 67 -25 -6 35 24 -25 6 1 -52 -44 -14 61 -59 66 -39 7 46 -3 -55 0 -56 59 24 32 -66 52 -40 30 -19 35 61 -29 5 67 2 55 -58 -14 27 -64 -43 -26 -27 -1 -54 44 0 -53 -60 -60 -57 -39 38 -51 -35 -15 -1 67 60 31 -29 38 -6 -15 10 28 46 15 14 3 -6 -39 25 10 19 -2
-27 2 -70 36 -51 2 -49 40 -13 52 40 42 17 34 27 -9 -10 32 3 -23 53 21 49 -18 -29 46 -28 -41 -15 -20 16 22 8 -36 32 6 -16 -59 42 -20 31 -43 27 10 17 38 -10 -67 -39 -16 6 35 47 -20 2 15 50 -3 1 -9 57 53 -49 -11 43 51 34 48 -23 64 -9 -42 -38 48 50 -19 -20 24 24 -51 -22 31 -11 -50 -37 -13 24 29 6 31 -15 -39 -16 30 -21 -48 20 -56 -17 -33 63 29 25 37 -57 63 51 60 -43 -43 -27 -36 56 -5 -43 50 37 -8 -6 -19 34 33 -15 -35 3 30 -31 -61
59 7 -54 48 14 42 -14 -38 -32 -18 -12 12 -39 5 -2 14 -47 -10 -19 -16 30 -57 -61 44 57 -30 34 29 24 20 -47 -23 3 -11 -29 30 -8 -2 24 29 58 -39 -33 -51 -9 -45 39 -13 54 63 18 11 -39 -68 -56 -23 -13 -35 39 -58 17 100 -21 -31 -40 -24 45 61 -45 29 36 -9 -38 36 10 62 -24 -30 5 -27 -40 -15 -41 -82 25 49 -32 -11 -27 -3 -33 42 49 -52 39 49 41 18 57 53 51 -32 25 -9 -51 -7 59 -32 -21 -70 22 -41 -37 62 21 -6 8 6 -2 -22 -13 -10 -84 -11 -20 27 48 -50
15 38 -59 -70 -13 -38 21 3 -13 -53 -1 -51 -14 57 2 40 -25 4 57 -56 -9 -43 51 -13 -14 -18 38 -2 42 -35 -29 -62 -31 -50 -15 -11 25 -42 46 45 34 -38 7 -1 -50 54 48 -39 -61 43 -31 -32 49 22 -25 -46 44 47 29 -70 -32 34 43 -44 34 38 -3 -48 55 47 10 -53 -35 -51 -49 -32 7 -48 -7 -52 -15 34 54 -25 -45 -31 4 -22 4 -59 15 -48 15 -31 10 -59 -44 -41 21 40 -56 -22 -44 7 53 18 55 1 42 53 38 24 47 -49 7 -5 -61 -26 44 -47 -43 29 -2 39 17 48 45 25
15 -64 55 27 -25 46 -29 41 -24 58 -41 13 -10 50 28 37 -51 -25 1 13 -39 34 -45 43 27 50 20 -58 -47 36 -39 -44 4 -21 5 1 -23 -25 -8 -36 57 40 -33 -17 -57 -46 12 15 24 -50 -38 46 31 -51 18 -8 -48 -5 44 9 39 -69 49 -60 41 40 7 -9 -51 44 -10 -53 44 68 54 -63 -60 -6 57 25 45 -51 7 -3 20 21 -16 44 -24 -32 51 7 31 -57 64 -19 54 47 58 -1 -48 -51 -56 48 -52 13 58 54 -42 -20 21 29 -41 23 -7 50 -45 -24 -33 42 -1 38 -55 -31 10 -56 -7 -48
40 50 30 -60 28 18 -59 5 -24 -63 51 -59 -15 -44 58 9 57 -54 61 23 -2 -20 -5 -46 -20 35 -39 -7 21 -13 -21 -13 37 -39 51 50 28 21 53 51 -69 -20 -56 46 -40 -12 3 50 -18 -11 -28 56 -31 54 -59 -21 32 21 -23 32 -31 -62 -32 37 -35 -47 53 27 -2 -44 16 60 10 -31 -11 10 -9 37 -6 -62 -8 46 62 38 55 -39 -31 34 21 -5 -43 -31 -39 -19 -20 11 34 -61 49 -23 -20 -51 -14 3 -15 26 34 -47 23 41 -32 -25 -3 -21 13 -43 -62 55 23 -29 31 -41 -17 8 37 40 -2 11
-49 32 -4 -27 10 -58 -14 -5 -10 -9 -38 -25 -33 -10 35 -18 -35 48 -57 50 20 39 0 -25 5 41 -41 32 -23 56 66 -45 43 23 -57 -49 -40 -54 42 -30 9 52 47 -35 39 -4 32 -44 -57 -33 -58 -55 -27 -51 -22 14 11 45 -15 24 -25 0 10 -24 -43 64 8 56 35 64 -36 -31 -8 -4 4 57 1 62 18 -7 -50 20 -58 50 5 37 46 61 -23 14 28 -55 54 59 -52 56 14 -11 -38 64 -64 48 58 -63 10 -70 10 -4 41 10 26 30 0 -3 31 49 -40 18 -59 56 56 57 -65 56 13 19 -47 19
-67 2 40 -53 53 -64 -4 20 -61 -37 -36 37 27 -17 -38 18 53 -61 -13 62 3 -14 29 51 21 -36 -2 -25 58 -6 -11 25 -5 58 10 48 -12 3 31 18 11 57 20 43 32 54 2 21 16 -45 46 -30 -16 50 -56 -35 8 34 -46 60 25 -34 43 -26 23 -24 -49 54 8 -23 -16 -43 -64 14 7 -7 -17 59 31 -60 9 -40 22 -65 -7 17 36 -31 39 -73 -13 -13 -71 18 58 -64 32 2 22 32 -36 -17 16 -49 31 -36 15 -1 0 -17 -58 7 -43 12 -46 5 -51 -54 -10 10 1 24 1 -40 50 -56 62 -56
22 -41 -38 42 1 24 60 54 6 54 14 -21 63 44 21 33 0 23 5 -27 53 48 7 -59 -1 64 -31 -6 -21 31 11 -3 -14 53 18 -11 29 57 -57 6 -30 -36 48 -52 3 -62 -10 47 -34 1 35 21 -65 -38 49 -54 31 -59 -36 -39 1 -26 -9 51 -51 26 19 -42 -16 32 18 57 24 57 10 5 -14 12 12 -57 -18 -14 -60 -49 -19 42 -73 -86 -57 -34 59 9 47 -1 -11 -22 -30 -11 55 -23 50 62 66 -27 -24 -4 -3 -44 21 26 -43 -25 29 1 27 -36 -34 -34 15 -23 -51 -28 18 50 -33 -65 -50 12
-55 10 -57 -38 45 -29 1 26 14 -22 18 5 -6 50 -16 12 -15 -31 47 3 -81 40 57 -44 -18 23 -31 19 50 -41 -2 13 -54 -28 -49 56 68 -6 69 42 53 -7 -35 55 11 47 33 -8 23 41 -7 39 9 -56 21 -69 -63 -56 24 -69 -3 -76 -76 -60 33 -69 13 42 32 30 -11 16 -44 25 -64 -27 20 -33 -34 -15 -25 -70 -34 30 4 65 -63 -33 -55 -47 52 -54 30 -54 52 -36 37 -9 41 43 -18 -40 23 -38 -9 37 -20 37 -48 -57 0 38 -19 -39 10 33 -25 19 2 45 -53 1 -36 -67 -32 -28 39 -36
6 -17 13 5 -20 47 -13 46 8 -70 18 -22 -48 -13 -5 15 -38 -40 0 -44 -44 -28 47 -28 -23 -36 18 -43 27 15 0 3 11 -33 66 -6 45 29 4 15 -69 -62 -7 0 -41 32 -40 -12 3 22 27 11 38 -28 -23 -47 -3 16 41 -62 31 31 -24 -17 2 11 44 -20 51 -39 -21 44 -54 -28 26 -36 -31 26 26 -54 -17 5 42 8 46 30 33 33 -53 -40 -54 26 -27 -48 48 -50 30 -24 40 -63 -26 -58 -41 -66 -55 -12 -31 -18 18 -62 22 53 58 -30 -14 -42 41 7 -9 51 25 -56 57 -41 11 45 -1 -6
-1 43 -28 -10 57 -22 38 -14 -48 23 -17 -56 -59 -50 48 -47 -60 -15 -49 50 -60 9 33 -37 -49 26 15 19 -13 29 47 62 11 -12 42 38 -8 -8 -43 -38 -3 -17 45 3 -47 -51 -3 -62 -27 48 -43 22 -23 -13 -21 -54 19 19 -28 52 59 -51 -18 40 1 24 -25 3 17 -70 -5 29 37 31 -7 -50 38 -48 4 -50 -23 -36 -19 -39 -11 61 -49 22 39 -61 6 36 -46 -50 -37 -49 33 36 16 46 -31 7 32 -24 -62 -17 23 -38 38 -34 37 27 -32 -53 -53 -58 -25 -45 52 -69 -24 54 46 0 35 3 -60 -15
-72 -53 -21 -26 -26 7 6 35 -48 9 32 -41 39 -52 3 52 -19 -61 -55 -23 22 8 -30 -3 -31 12 -38 46 -46 1 22 -10 -46 45 9 10 -8 -1 21 -58 -12 -44 -56 -1 17 -36 15 -63 0 -5 -6 3 36 12 -37 16 21 29 12 -55 4 -1 -28 -41 -86 -59 10 -73 -48 43 11 23 8 11 31 33 63 -60 -21 10 10 -28 30 -49 16 -13 -17 -64 3 -46 32 52 8 -66 -51 42 -41 52 -49 22 -43 -59 81 -40 -76 30 -8 9 45 -39 26 37 -64 -13 22 -69 -13 -49 -37 15 47 -37 47 34 15 49 -31 -62
46 31 40 -69 -33 -52 24 -58 -24 64 21 -62 46 62 -56 -21 11 -8 -5 20 -22 0 29 -38 14 -55 -44 6 58 -4 21 13 22 16 -35 54 17 -45 -55 -25 24 -1 9 -3 -69 54 -33 2 -15 -11 51 24 -36 51 33 32 -27 35 0 -8 -60 15 -14 28 -47 -2 -9 -34 21 -7 -7 -52 -42 -20 -26 -2 4 -1 81 30 -62 -35 30 -10 31 -77 -5 -38 38 13 -31 -40 28 -38 61 -14 77 34 -53 -42 -21 2 -37 -30 3 57 -31 28 -40 -38 -12 -43 -6 -6 -42 -29 -54 43 56 42 -60 -24 -17 19 38 20 40 27
-18 -55 23 -55 -59 -62 -2 40 -26 28 63 -27 -54 45 19 -31 -42 -25 8 -51 52 -45 65 -4 34 -18 36 6 -16 -71 11 -61 -54 14 35 -26 38 36 40 0 28 -22 -38 8 38 38 -34 40 26 29 -51 11 2 -6 -22 42 -20 -6 -49 8 43 69 62 -4 -11 -48 3 21 -37 42 -68 66 -38 24 22 36 -10 -34 -24 -51 6 16 13 -55 13 36 -9 54 52 1 -11 -25 -62 -3 36 17 -49 60 58 -51 -53 30 29 -43 -47 25 4 59 -43 -24 -42 24 30 1 56 -17 -28 -18 35 54 -15 19 -40 47 36 -37 36 -30
-38 -11 -5 54 -20 61 17 -32 -42 36 7 -54 -66 -27 42 -16 -44 51 65 -25 51 18 -12 51 54 3 -61 -36 21 40 44 45 40 -39 -54 19 47 -5 14 -62 -17 -1 36 48 -53 13 -29 -6 -6 36 -56 39 18 6 -5 61 -22 16 39 19 -4 19 62 -12 11 -39 55 5 -53 -52 37 -14 1 -60 32 -2 26 -32 -36 2 3 11 -38 8 -37 34 -34 27 54 41 -39 -7 -10 39 -3 -57 2 -8 -41 9 -16 5 61 19 -48 29 -42 47 -20 12 19 -27 -69 24 45 33 59 -28 3 0 -26 -16 39 -66 50 -47 10 -49
-58 56 18 -20 -11 -28 -14 -1 -15 -38 -26 -56 41 58 -31 45 19 39 24 -48 0 25 31 25 54 25 23 56 -39 33 -42 24 -22 20 -40 -15 -30 25 -43 78 -49 -59 6 47 -53 48 40 -54 59 -10 43 -14 26 19 -12 17 -34 -8 54 -24 37 -36 3 -32 -73 60 -4 -67 52 -5 -42 9 24 -39 -19 -7 -9 0 -37 -28 -42 -25 -3 41 57 4 -46 -34 34 -7 8 -62 -56 6 45 -56 60 -57 -57 10 -27 -25 24 -26 -4 66 39 -8 54 46 -38 33 -33 18 -40 59 46 0 2 28 -8 -25 -16 9 22 -24 8 -21
17 -53 -28 13 2 42 -60 -12 12 -58 -40 -3 -32 -37 18 1 -54 -65 -68 53 1 -62 -25 -1 56 19 8 -10 44 -44 69 10 -21 13 33 -53 10 -60 -16 26 47 -28 -14 15 39 53 -32 48 -81 55 -8 -66 -41 32 -44 -50 91 -19 67 3 -15 6 49 18 -65 -1 -36 15 -22 -44 -38 51 16 -1 -33 -31 -47 57 -40 -19 37 -72 59 -18 53 -27 -42 -75 -52 -53 -8 -39 -37 -57 39 -45 75 1 36 -23 -50 10 46 -28 -52 40 40 -10 19 28 77 34 22 -51 28 51 57 30 -66 12 20 16 -26 60 -68 4 -42 6
21 35 -33 35 11 38 22 34 -7 -59 51 -3 -42 5 -29 -2 39 -26 -42 -32 -28 48 -22 -16 -39 -25 -40 10 53 -36 -13 -35 2 37 64 46 -59 61 25 6 -28 -26 54 -40 -52 -53 -43 -29 -30 -29 -12 -53 -10 11 65 -48 11 -29 3 -8 22 -32 -55 -54 46 -48 20 -47 -44 -2 -22 -23 13 42 32 -47 -6 -28 -8 -8 -9 3 62 -26 18 20 28 -23 49 12 -52 62 -40 45 -37 -54 -39 36 2 18 -40 -6 2 -1 -37 17 -15 2 -44 34 -20 -4 42 -67 -30 40 -36 -44 21 -18 -20 39 37 -36 4 12 -31 -49
-14 56 55 -3 -64 -45 -38 -33 -65 -32 -2 -12 -10 -47 42 44 12 37 37 6 21 -35 52 51 47 51 -43 -40 -31 5 -13 -27 61 25 -42 -14 -3 34 10 -16 -52 -18 -2 -39 4 -17 20 44 -25 44 -51 9 65 39 -43 75 -64 51 -45 33 37 -30 26 -14 49 59 -58 -46 5 8 -62 -7 -43 -6 43 -10 -16 60 94 -31 6 -34 38 -18 -15 -43 -40 -23 57 -23 -37 -2 78 -23 57 36 -13 -11 20 -25 10 1 19 -19 -54 -7 1 20 -41 -42 3 -8 49 49 8 13 -38 -7 -34 -19 -46 31 -34 26 -4 49 -35 -66
-31 32 42 12 -44 9 -60 72 -15 -29 62 49 -44 -9 46 -29 -16 -72 4 6 72 -34 49 -39 -15 37 -51 -38 -59 28 -54 27 -15 52 25 82 -92 -62 -11 6 36 -42 -2 6 -52 -31 -36 -41 -11 63 2 47 29 29 -7 10 48 -18 1 -6 -32 87 50 6 2 47 -22 -39 -66 26 26 -40 47 10 -5 -43 -60 13 35 -41 -72 -35 59 -20 -51 15 -46 -80 -5 48 22 64 92 20 70 -37 79 -1 -54 -42 36 -14 -34 -1 37 51 2 50 -5 4 -19 54 34 28 -70 52 6 23 -48 -35 -7 40 -73 -47 -25 46 61 -11
37 -47 42 12 -58 -1 -25 54 -31 -55 -53 -26 -8 -32 -44 -39 -27 -12 60 -59 -57 -49 13 -81 -42 -13 46 18 -27 18 20 -51 -44 33 58 -42 -69 66 46 -10 33 38 -37 -28 -30 -37 28 11 42 -30 -22 21 6 68 23 60 4 8 -60 22 0 57 -4 26 35 19 -49 -57 42 22 58 -8 39 -21 -27 -29 -64 34 71 48 -71 36 -24 6 -3 6 -42 -62 -54 -16 -58 -22 -36 40 65 38 35 -35 40 38 -11 -42 16 37 62 30 -8 53 -61 -62 35 -1 19 -22 -42 -50 5 48 -12 14 48 -18 -43 -9 32 7 -59 50
-28 19 -29 -5 -24 16 -48 -56 40 -75 18 49 -37 30 43 44 13 50 31 -29 -31 50 56 47 -8 -2 -75 -10 37 -16 -12 12 1 -27 -10 18 33 11 -25 32 44 -22 45 66 31 4 60 16 -67 11 7 -18 -11 -31 23 -54 54 -1 -46 -61 -5 -72 21 -42 -19 -51 -61 49 5 18 0 -19 56 -55 -47 27 46 9 15 23 -5 -26 41 35 19 11 -40 -52 52 -4 -41 -47 28 0 -41 40 -42 -47 13 36 -40 -57 -28 -25 20 -17 3 -60 -27 29 -24 25 -65 40 -26 -53 -30 43 22 19 0 -63 53 46 15 -50 8 -35
