19 -58 18 -62 -9 52 55 -14 0 -42 -9 -63 -30 33 52 44 -14 -33 -45 -39 7 36 39 17 -11 -53 25 30 39 -31 54 34 -38 36 10 -1 -29 -54 -23 -41 42 -34 6 59 -14 -45 25 -40 31 -18 2 14 -35 26 -41 -38 -53 -13 -20 18 46 13 19 -8 -13 -30 -50 0 54 -9 -45 -52 21 -31 -22 -60 21 -2 -63 48 18 -42 52 -4 24 46 -52 31 -4 -20 -28 53 -10 -3 49 -26 36 16 48 -52 -2 2 34 6 32 29 4 5 -46 54 -36 71 -44 -37 20 -51 -15 47 36 56 21 -9 19 -2 45 52 13 10 32 60 65 49 20 -14 -42 60 59 -7 47 -35 61 12 -4 -53 23 -49 -37 41 59 36 -67 -28 58 48 -50 -18 1 41 -39 -52 -42 -30 -16 42 -20 -60 -55 50 -35 61 50 -35 40 65 1 7 41 -66 54 -59 58 34 -36 20 -34 -46 17 -24 84 43 22 29 56 33 -55 -17 -30 -24 -11 -61 -36 -45 4 24 61 -17 -48 -3 -56 -45 44 15 -21 16 -10 -1 33 -39 42 -30 53 -21 26 26 -7 -19 -18 -13 57 64 16 46 11 -12 -48 50 23 -39 -60 -58 -2 -67 65 -50 -27 43 33 -38 -5 30 -64 19 -42 21 24 30
-40 -58 -32 -11 34 -45 -15 -44 -21 -42 34 -45 54 27 59 51 46 6 47 -27 48 2 -55 -50 -2 35 8 -39 -23 -26 -29 -50 31 -56 7 57 55 -32 37 -49 29 -7 48 63 23 14 -49 -22 -9 50 -3 -28 -22 -18 -35 57 4 16 56 28 -66 -54 25 8 -11 51 -11 45 6 -22 -39 -33 -62 -63 -39 7 39 -50 -15 -64 44 18 38 -63 -45 56 -41 -53 40 -23 11 -14 62 -45 -48 -29 -13 39 -7 -32 13 -1 47 37 -36 39 -39 -17 7 -2 23 38 19 -21 -70 -39 -20 -23 -55 2 -64 -3 58 -48 -52 53 52 -58 -18 49 -6 7 -27 61 12 -22 57 7 42 -3 56 8 42 57 -22 8 44 41 -20 25 -22 51 5 -8 -64 20 18 -5 21 47 39 -17 33 -11 -40 6 3 8 -68 45 55 -53 -25 -44 -29 -19 -67 -43 14 -49 29 -2 -9 -23 8 -66 38 -14 -3 -25 22 -60 36 -46 0 -58 3 55 -70 50 -43 33 39 -67 -57 -1 -65 50 54 12 -57 10 -58 -42 59 -35 -11 -57 57 17 -59 -39 39 -42 -33 -48 65 -7 -32 -17 -6 41 -45 -19 19 -33 -29 22 -63 36 7 34 -18 37 32 17 5 -22 63 -13 -42 -30 -44 -28 23 1
-13 14 61 -63 -44 -48 26 -44 -26 34 -52 -19 -12 -16 -41 36 54 60 -3 -23 -17 40 -37 13 -37 -58 15 28 43 -64 10 12 -43 18 -59 17 -45 63 -50 53 -35 14 -43 14 -18 0 -1 10 45 77 18 -54 -31 -13 -55 -19 59 -19 41 -12 14 18 42 -17 -32 70 -43 -36 -1 -19 -38 36 -25 16 -5 50 50 -18 6 -64 -56 43 3 56 19 -47 -14 -14 -2 -42 10 12 -52 1 1 -46 -49 -42 42 -35 59 -36 61 -24 32 43 -3 46 45 9 38 -59 23 43 54 18 -40 -34 -48 17 -22 -40 24 39 -58 15 -51 -3 -29 42 -28 40 35 -38 62 37 -14 34 40 -44 47 -28 6 28 -55 -60 -52 -63 -52 -28 -16 57 -25 -4 -46 35 -11 18 -7 -40 33 46 57 -31 -50 -46 -19 26 50 -30 -53 -63 -31 -37 57 65 49 -23 18 37 -61 -18 30 -19 -39 -14 40 25 7 -50 -54 3 29 42 24 -12 -64 -51 5 -59 40 20 -53 -43 24 -52 -36 -17 41 -2 -33 13 -48 28 -33 8 -16 -63 8 -20 41 22 11 -41 1 29 64 -49 -11 -58 -25 47 -20 -7 36 -50 38 5 -53 -7 -1 45 -32 38 -45 -32 8 -56 -47 29 -13 -11 -22 31 31 62
-24 30 28 -47 -74 -71 -66 -72 -27 91 46 -71 35 43 59 -14 -11 27 53 29 -35 28 43 -34 51 -11 44 55 20 -1 4 -45 27 -60 17 -43 30 -29 -11 -70 -39 -66 -17 -43 -34 -20 -32 30 -26 -35 20 50 7 -64 20 40 10 -56 36 -35 -1 33 -58 85 -26 -30 40 -50 -34 -47 76 21 -20 60 -67 36 -99 -53 -6 -12 -39 -87 27 27 -51 -6 29 -65 63 47 -79 -50 -13 -50 -115 36 -80 -13 7 7 20 34 -55 -25 17 -42 -23 -22 8 -47 -75 5 33 -37 37 1 -58 56 -15 34 12 9 1 -27 74 -58 -51 -65 32 -50 -5 5 51 -73 -68 -53 -63 35 8 34 9 -19 28 10 24 -46 -92 -56 -48 38 61 -42 -11 14 54 34 -58 42 -32 -72 33 22 -19 -32 30 -69 -19 -70 41 49 5 -41 -39 -27 1 22 -78 -43 -20 29 -17 28 45 12 -34 -51 41 26 61 -58 -1 -59 51 -7 -27 -21 25 44 34 13 14 30 22 28 -40 18 -45 10 -55 -30 -32 21 -38 31 -44 -3 -38 -26 -113 -92 -70 -33 41 -115 -3 56 -17 -34 -17 -83 33 -107 -26 4 16 39 22 -53 -41 -12 -1 -22 54 -61 65 40 -25 -35 -59 0 -38 32 52 -21 52 -49
9 42 -30 42 46 -69 45 -6 -27 17 47 22 -13 -30 24 -19 50 -35 -8 -36 54 0 42 -14 45 -18 -12 63 53 -29 2 -38 -30 16 38 -56 -47 -41 4 49 -14 4 -38 63 27 -31 -70 80 -5 15 31 50 51 -38 -23 11 54 35 -24 5 59 53 28 -12 26 -19 -42 -12 15 -26 -82 -84 48 -41 -11 -31 25 9 13 8 30 -19 -11 -9 -28 4 1 41 -25 41 8 -38 -25 -15 46 25 6 -2 -30 -2 -61 -24 12 16 32 -13 5 -12 26 -8 41 -52 23 -4 30 -23 -11 -19 -12 -12 -42 -22 -27 20 -66 -40 94 69 -54 69 -67 -7 9 -4 57 -39 54 -44 40 54 -16 -1 45 75 -30 30 73 22 19 -55 -12 44 2 -39 -1 -44 -34 -102 -28 13 16 -25 47 60 -57 -31 -6 38 -14 -18 -65 -3 -14 -33 29 -35 4 33 -7 -31 -30 32 -70 -18 -38 65 -64 -46 35 44 11 -11 0 -1 -56 -46 -24 3 -43 29 -53 54 -9 -14 -37 -6 -20 -3 -2 24 0 17 10 66 25 52 37 67 32 -20 -1 41 -35 10 -29 29 -8 54 30 68 29 -21 41 71 16 83 -63 80 -19 22 54 -33 -46 64 -69 -19 58 -5 7 -62 -40 -47 -14 14 -13 41
37 -21 53 32 -1 -64 -3 -27 49 31 57 0 -14 -55 -36 -40 25 36 47 24 45 53 36 29 -9 42 -41 -35 -47 -5 -22 -15 -26 -13 40 10 -54 93 5 -23 21 -62 -42 -30 -16 38 30 -18 21 71 21 25 -42 -61 53 35 -67 5 43 -13 24 -55 0 3 51 -6 -66 9 -27 -31 41 33 -6 49 90 -18 5 -1 -5 -21 -41 11 -36 7 38 -12 72 65 -38 -67 -19 -52 -38 -19 25 -21 -43 -19 42 -20 42 52 -38 49 54 19 26 -40 35 -74 29 -57 -55 1 39 -20 55 -3 -62 -1 -25 -27 36 -29 15 -45 36 71 -34 68 -50 23 12 46 9 -67 13 4 -42 -30 -32 -11 64 -18 30 -49 -37 -18 10 -24 -37 49 28 -46 -10 19 40 28 72 -32 32 61 32 -30 -32 65 42 -1 35 24 -59 21 52 -35 -32 43 80 21 -83 71 70 -16 -6 -53 -10 -38 11 37 -19 34 49 -52 58 -20 33 27 34 -37 20 -16 14 54 36 -27 -46 -6 11 56 26 -3 10 3 62 35 49 -96 -31 34 95 13 58 -36 48 22 58 0 40 3 -77 69 -38 54 -46 -10 56 49 -38 12 -9 -55 -31 -51 -33 34 35 54 10 -25 54 17 -34 20 -60 16 28 -26
47 -7 40 -48 -53 -45 49 -4 -42 22 -47 -23 -19 18 -77 29 -9 -67 36 0 -30 -49 -31 12 18 -44 -28 -54 35 -63 28 -27 -91 -47 -2 3 -2 -11 -57 -37 -10 42 -1 -1 -3 -75 -54 36 84 -31 -15 29 -10 -12 -27 -39 72 -4 -45 -51 -39 69 23 -39 -32 -11 -8 -53 28 -66 -52 27 -45 -49 16 -9 -48 39 29 47 -59 -24 -71 -11 -48 50 -57 -14 -56 -12 41 -35 -51 -9 -12 -14 18 -13 -61 -65 -36 -37 29 -3 42 46 -10 64 -29 -27 -27 -45 22 47 22 -25 -4 -29 -33 16 -52 -5 -52 23 4 -52 68 -54 -29 54 -44 -30 -57 29 3 -43 0 25 46 -14 -70 -28 -61 -36 -6 -6 39 -39 11 -50 -54 -5 -31 5 -39 -3 1 -73 -30 -29 -50 8 17 10 -27 -27 -7 9 -14 71 -92 63 -41 5 14 -95 77 -42 -47 21 47 -50 23 -55 -12 -4 -55 35 -8 -28 -4 -20 -38 -60 -23 -56 96 18 13 2 1 -66 -39 39 57 -8 -15 39 3 3 73 7 -21 83 20 -69 -26 -20 22 2 -11 -9 -36 47 95 -41 36 -2 9 -56 40 -20 14 76 -8 -18 -68 87 1 -10 -23 -4 23 22 -24 10 -37 -23 -7 -8 -84 -87 -66 2 -38 1
47 23 57 -63 -64 -8 -39 3 60 -47 -62 13 -40 0 -12 23 -4 -36 -46 -61 32 7 19 -79 29 17 -7 33 -42 -1 -32 25 41 62 -17 20 -42 -4 -9 -28 2 12 -16 38 26 12 -39 25 -3 42 -21 11 -59 9 14 -33 22 -9 -36 34 39 -28 26 51 61 30 17 -70 -19 -66 28 -52 -65 15 -55 9 3 13 31 -47 59 34 -29 -56 -26 -60 -28 37 -38 -40 -1 -52 -32 -15 37 -61 41 14 -62 -14 -46 0 30 -29 -17 4 23 -50 -10 11 -34 8 -46 19 -15 6 -30 -20 -54 31 -57 -9 -11 31 -65 -12 -12 -24 -32 5 -55 11 -46 -36 -37 -41 16 55 1 -63 -11 33 -55 8 -38 20 -15 14 -10 60 -57 1 -18 -20 42 44 23 1 -51 17 -36 48 -9 32 -39 64 -13 -70 -35 -10 43 -30 50 10 -8 -25 -3 53 10 46 32 46 -53 41 27 -28 -11 47 -2 21 -45 -41 -59 4 1 -56 28 22 -18 38 19 -5 -27 42 -49 -27 -32 13 -36 -48 -50 -8 47 -29 13 -60 51 -58 62 -35 15 16 21 49 14 48 4 7 34 -11 48 -25 -28 -23 -41 -47 2 1 -11 13 -56 13 -47 -51 23 4 5 40 22 0 -35 -36 -31 -44 -32 -13
-79 -63 -47 -31 -36 -37 -63 5 22 15 -42 -39 -41 5 -7 52 19 19 -20 -18 -72 -9 -63 40 18 -61 21 -45 -53 -61 -59 18 46 -21 31 -70 -64 -3 39 -13 32 -40 12 -73 -1 34 27 69 25 -24 5 -71 -9 32 -12 45 18 31 -52 -69 -48 -34 -15 -17 74 27 -9 29 -69 -52 -17 -1 -21 54 -75 -54 -24 -32 -23 -15 -40 -72 10 -15 -30 9 -9 43 61 -28 -33 -8 -61 -65 -64 -26 42 -72 8 -53 2 53 5 8 -61 39 -72 1 48 37 52 38 -48 13 29 -58 37 -51 -29 22 -48 -41 -37 -56 -19 21 0 -25 48 -52 -30 -26 -65 23 -9 -56 29 19 -59 45 -45 -52 49 -49 54 -69 -58 -43 -47 -14 -19 22 -14 -18 17 13 4 -19 21 -27 -13 -46 -63 -1 31 -13 -26 -73 -51 -55 14 -4 -38 -62 -56 32 -1 55 20 37 -21 -46 6 4 1 -17 -20 -32 37 -58 -25 24 -4 -24 -53 -56 -2 18 -17 -74 26 44 -13 -64 23 41 -3 -49 -32 18 51 -26 22 38 -86 48 -61 35 -44 -40 54 28 -60 -26 8 48 -61 -29 -10 36 -72 1 -21 37 -29 -3 -5 -5 -66 30 5 17 4 -57 12 -44 -29 -68 -12 -12 21 19 55 -50 -35 -6
54 -58 -31 -58 0 20 -35 -31 46 -27 18 50 14 31 -59 56 -11 -38 21 9 51 -15 6 -32 11 22 -67 -53 -42 -45 -12 -57 -11 -2 1 -39 -23 13 -62 56 47 -53 -26 42 -4 -58 55 45 -56 -16 -19 -61 -39 1 51 52 49 43 -37 40 -43 55 52 -23 26 36 -30 -52 49 5 64 6 -18 -25 23 38 -55 5 -12 -36 -24 52 11 9 -5 -54 53 47 9 -22 12 -23 -28 -64 -63 -13 8 -49 39 -31 -43 40 -47 58 -15 -12 -47 -49 -43 -19 19 21 39 -37 32 -42 19 -32 -50 43 -13 18 30 34 19 7 -35 21 46 26 -59 -45 57 -38 42 -46 -52 44 -42 -68 -47 -14 -8 -35 18 -15 24 44 10 -10 -12 11 8 -59 48 -10 7 7 -31 -44 4 -46 35 -26 40 -67 -22 -4 -59 -34 45 -63 -55 -34 30 53 26 -38 46 -16 22 -60 -34 40 15 23 34 48 -7 42 32 -57 40 -55 49 -3 -47 -43 -38 -14 61 -32 26 35 -49 32 59 -62 -63 -25 57 41 -12 35 -51 -22 -14 49 2 15 -17 -28 -7 49 -2 44 1 -7 1 -34 44 18 34 -36 55 62 -36 -23 -65 49 16 43 -13 -24 40 -22 14 -67 -16 33 43 -27 -40 -25 40 -38
-7 -67 8 14 2 -32 -50 25 -19 -43 -48 -12 -39 -24 36 -60 -16 51 -46 -52 8 -58 1 52 14 -24 -22 -49 23 -13 10 50 -19 -14 -13 -63 -20 2 39 -6 7 47 43 7 -71 16 28 29 85 -76 -3 5 -20 -43 -14 10 -31 65 -28 25 10 35 -20 -45 16 42 43 25 49 -10 -20 -33 24 39 55 43 28 -52 -13 -33 23 4 1 43 50 -27 -71 -40 -28 -28 -28 -27 26 19 60 -72 -56 -33 -66 44 21 51 32 16 13 0 -56 13 -71 -3 38 -7 -76 -37 -75 -22 -63 -62 -19 -38 -59 16 -5 14 -4 41 17 -45 -14 -67 33 36 -42 -41 -21 10 -35 -8 24 -62 -8 -75 -45 36 31 -63 -10 21 -2 21 24 -29 -54 8 18 -24 -10 -17 34 40 0 56 -48 -62 -43 36 -49 6 -50 21 42 48 23 -74 -7 -46 16 -19 14 33 -60 23 -70 -34 -12 73 26 -65 -49 12 -55 -21 -14 -6 -37 -54 -27 -13 23 8 -40 24 -16 -6 -30 -73 47 35 5 -72 -32 -52 -35 33 19 42 -73 -48 21 -1 -34 53 -60 12 -56 -16 -69 -8 42 -43 59 -37 -58 45 52 -54 -5 -6 -60 -51 13 -44 -48 42 13 -14 -77 38 -2 16 -31 9 -34 -36 -47 35
-20 -45 -62 -44 46 -61 -35 7 3 -46 -5 -53 3 -59 41 -20 44 39 -21 50 0 -16 -40 8 56 -11 31 -11 31 -4 27 -1 -22 10 -52 -79 35 59 -64 -60 22 -51 -11 -30 55 -19 -55 -18 -5 -42 7 -57 37 -45 64 57 -4 54 -40 -27 -8 -17 -39 36 -51 -67 13 3 30 -32 28 23 34 41 -40 -47 -15 -13 8 -36 -10 30 -10 -20 -50 56 -54 -54 -43 45 68 -88 -35 -2 12 -84 -21 31 5 -55 -62 52 21 -54 -6 43 -42 54 -8 31 18 42 48 60 40 38 -1 62 24 -4 22 -1 -8 -16 -22 2 8 -24 45 -42 18 17 -41 13 -72 -30 -41 -27 0 -27 -75 -77 10 0 4 -8 10 -13 28 -23 25 -13 15 39 42 55 51 -14 55 15 -23 -59 -25 -27 17 -32 -50 -23 5 -22 -75 22 3 15 61 -21 -48 18 6 -58 -48 57 -30 -12 30 48 30 -10 -13 41 9 25 -22 -7 -8 57 27 10 -18 12 43 -26 -4 57 40 -9 58 -50 45 10 49 42 -29 26 -48 11 21 -70 -8 -48 -83 41 70 -30 17 -79 -40 -62 -20 -28 -77 44 39 35 21 15 -19 -49 2 -3 -75 -46 19 12 44 -36 19 59 -39 -28 -35 -59 -54 5 -59 29
47 35 -37 7 31 -61 41 52 32 -13 -39 -31 23 57 12 -45 40 28 14 8 41 7 -48 -24 4 21 -13 13 -8 -37 22 36 -20 -11 -46 43 -16 32 -25 2 31 42 2 59 19 -27 -25 -42 63 -14 -17 39 -12 -26 -1 9 47 -30 -2 -19 -48 34 -5 -72 -41 -17 -41 3 41 -32 43 -46 52 46 24 -65 58 54 -72 9 12 -3 35 -48 -3 57 44 -24 -18 -4 -52 -49 12 30 -46 31 -78 -6 0 -57 10 13 3 -46 -21 43 35 -33 45 -71 64 2 19 -28 -58 5 -19 32 25 -63 0 43 42 -16 -82 -57 44 -65 33 -42 0 38 -47 -7 -2 48 53 11 4 -30 -47 20 -1 -58 20 40 33 35 -35 12 1 -60 -61 58 13 47 -57 -11 28 0 42 20 -37 9 0 12 -64 -80 -49 -10 -42 -3 59 35 32 30 -51 -35 -40 -15 -18 -3 -63 46 1 -20 39 4 -17 -46 30 -67 35 -43 -40 -25 37 19 -75 -63 -50 52 42 -60 -51 24 12 -20 -31 -69 34 -70 3 -50 -5 48 -33 -15 63 59 -41 46 -42 -26 53 -31 47 38 -56 57 -35 -6 -63 15 31 -53 -71 -23 -76 -65 -47 23 32 52 1 -34 -66 31 5 3 48 44 37 55 7 -2
61 -58 35 -49 -2 -9 -39 -25 44 -30 -8 -21 13 52 63 16 -56 -62 42 -56 -24 -37 -34 44 2 -26 45 29 -61 -19 37 13 -47 40 -20 22 44 -54 -55 17 28 -47 3 -43 -34 24 36 45 -33 -1 -36 -22 17 -11 -57 2 51 -3 -17 -10 1 -29 35 -25 36 -1 -3 23 48 -39 -55 57 -40 -37 -33 25 -39 40 -46 -24 61 -59 -5 15 64 -6 -44 53 -37 -6 65 -49 -49 26 47 62 -23 24 15 38 -3 57 -31 61 44 47 22 -16 58 0 -22 19 -47 -32 10 -16 2 7 26 -6 15 -58 37 45 -44 -30 -52 -46 -42 -56 26 1 56 -50 -20 4 47 60 34 54 38 -12 -25 -2 37 4 -59 9 61 44 -6 59 -18 -19 30 -23 -49 11 68 11 22 -32 -62 38 12 -26 -34 9 37 -1 33 -47 12 53 -53 17 -50 -18 -11 -59 17 -42 14 40 3 56 -8 -6 14 51 20 -24 36 -29 46 38 -6 5 -23 38 48 13 -18 10 -61 -62 46 51 -13 -46 -12 -65 -2 -49 12 -21 -32 15 7 -31 24 6 25 26 21 12 5 61 26 11 -55 -13 -40 -59 -31 15 -36 28 -43 55 -15 -53 5 6 33 -40 -41 -58 27 -37 45 -46 44 29 -37 -34
7 -28 16 -31 58 -20 30 -8 45 40 29 -24 32 -35 -3 -36 -33 46 15 8 20 -31 65 27 35 41 -42 59 38 32 32 37 -59 -55 -55 -41 15 -36 37 28 -1 -25 9 25 -11 23 49 -68 -29 90 45 29 5 -5 0 46 -49 -11 -60 -13 -38 -38 -15 -2 -57 -41 16 -66 3 60 33 41 40 -59 -18 -67 62 43 1 35 55 41 -83 -28 12 -33 8 26 32 -11 -30 38 -16 17 -32 61 -39 8 20 33 -84 -1 -46 49 -39 18 -64 -73 -30 -58 -53 -7 -39 57 3 -37 16 -64 36 -42 -35 -17 -55 46 -15 -9 36 1 -25 3 -27 -87 56 -32 -6 -65 19 32 35 -3 55 36 32 -11 8 -4 44 -1 36 -39 -14 13 29 31 36 34 -40 -24 21 -15 -32 -50 3 -49 49 -53 -61 33 -41 -49 -23 -29 17 9 59 -112 -31 -19 6 61 -61 43 -31 -5 40 -10 -40 55 39 -21 32 37 40 -33 32 22 56 14 6 13 24 13 31 9 41 -14 -10 -63 57 6 -58 -40 -37 18 -26 -1 37 44 -4 -58 53 -2 -25 -49 -63 59 33 6 -19 32 -21 -65 -4 -34 70 34 22 8 23 -42 -47 20 24 51 -60 -23 40 56 15 28 -5 45 42 19 -79 39
-53 -51 56 -7 34 0 24 32 49 54 37 54 -22 38 6 43 -28 -16 10 -49 -36 -19 31 -19 -3 59 -51 -27 32 -60 56 56 -23 7 43 -11 -25 -39 -54 -7 -16 17 -44 -57 5 14 -18 -47 7 -43 7 3 -16 -58 38 37 -63 57 -26 8 -51 -54 -60 16 -41 -9 -51 -55 27 3 -52 -1 -36 2 -30 -25 -57 36 17 -38 53 -62 14 37 -52 41 -47 -7 68 4 39 -7 -4 -26 39 -22 -59 18 12 -27 -51 12 37 -61 -23 23 -34 -60 37 2 -30 -49 -24 -4 4 11 -44 54 -16 14 -31 47 -52 52 17 -36 4 -43 47 21 -1 -9 15 -43 -58 9 -61 -23 -58 -55 -49 -4 61 36 46 29 -63 36 -2 57 55 0 -57 -30 50 -46 33 29 -7 -36 51 12 35 4 -26 -18 -12 -3 -42 60 -50 -43 25 22 56 -7 -37 -38 -44 -47 48 6 -38 -57 20 -55 57 -5 -54 -8 -20 48 -17 41 -60 -13 0 -55 67 2 35 -15 -47 -47 21 -17 28 -42 61 23 19 -3 37 56 47 -28 -40 8 -36 -20 33 6 3 -14 37 -36 3 2 20 3 61 45 60 5 -48 48 4 50 -29 49 21 -19 17 -52 27 28 -33 51 -34 -22 56 61 7 -42 69 10
-49 -1 16 -44 53 1 43 -28 49 -72 -68 24 17 15 62 25 40 -6 25 -11 -7 -45 -41 40 17 -33 -34 46 -23 44 24 3 -23 -60 -21 53 60 -46 35 -25 -24 10 11 -40 -10 23 50 -66 9 54 -43 -43 -27 56 28 -23 -3 -60 28 12 0 13 -41 -50 -61 -25 25 -40 -64 33 -46 38 64 52 -7 -11 72 -31 33 -49 -36 -35 47 40 -33 5 39 -25 46 58 15 65 63 15 10 11 -63 -58 16 8 -3 29 -7 8 -51 32 8 43 53 -13 -8 -27 -59 40 10 62 -64 -25 51 -25 43 -50 59 -28 14 7 3 -50 50 -22 0 38 13 -49 -35 47 -23 -26 -46 -39 -41 0 -49 -42 -46 41 52 9 -12 -58 24 50 34 -42 -16 15 50 43 -5 -50 55 5 -48 -5 -14 -52 0 -36 -39 -36 44 56 10 -8 -47 6 68 -34 -54 -33 -12 11 -13 6 35 35 39 -42 3 -60 -15 -26 -37 7 -34 -21 71 52 -33 -27 63 -4 39 -48 -17 -27 8 -21 -60 24 25 -26 32 45 12 59 -47 10 -24 -32 -1 -6 36 21 -13 53 18 -44 48 -18 21 -29 18 47 -9 -10 33 -29 -2 34 2 -63 51 -41 19 -42 -13 27 -34 -69 -18 -39 53 43 -54 54
14 -35 -58 49 -65 -25 -36 47 -17 11 -67 -25 38 45 53 1 16 -49 -33 48 -1 15 -16 23 -33 -66 -47 39 -2 49 -56 -56 -41 -35 13 17 11 44 10 56 31 33 -2 -61 46 -53 18 31 -23 -35 -40 -53 -2 13 -47 56 -52 -71 -26 -39 -50 32 -67 72 15 -38 30 14 53 44 7 35 -33 35 -16 55 -41 68 14 -28 -37 7 34 -43 -59 36 8 43 -40 19 -36 21 1 27 -18 53 -16 -8 -52 33 -23 -8 -11 -6 -48 -58 47 -18 58 41 20 55 -13 -13 19 31 -29 18 -59 -4 -6 -10 4 32 -12 32 44 -3 -21 -20 -18 -48 -13 -38 -2 58 -13 10 40 44 57 -50 34 -49 -3 30 -59 -66 -49 -11 -32 -47 31 -44 -1 -46 -13 -24 -40 -3 11 53 -30 39 25 -36 23 -24 46 -26 68 -43 6 -39 -54 31 53 -26 50 39 32 43 -45 -22 -31 8 -44 -24 33 -28 28 18 -19 2 -55 -29 8 15 -44 17 1 -42 2 56 19 1 52 -1 -32 -10 -6 61 45 29 30 50 56 -67 2 -17 -37 -6 17 -29 2 -41 -41 20 14 55 -34 -41 -12 -81 -53 -3 37 -43 70 -25 46 60 22 28 -6 -21 1 -40 -28 59 15 -23 65 -15 -19 -61
-36 7 9 40 -27 -7 19 -51 -11 39 34 -18 -57 -55 28 28 15 9 -1 53 32 -33 -32 -41 14 -42 6 -4 1 55 13 59 35 30 10 5 -37 -19 -52 -27 44 -19 -33 -22 -15 54 1 -57 5 -13 17 -20 21 -1 46 -49 -27 6 -32 -10 54 -9 19 -19 13 31 -38 44 -50 55 -1 -28 17 -25 -36 -61 65 66 15 -29 -9 -56 -63 -28 18 -14 -41 58 -36 42 51 64 63 30 -17 55 -24 48 16 -33 -52 3 10 7 -12 30 -54 -19 -17 -59 41 23 -35 39 -9 24 -17 5 36 -57 -39 18 -17 -60 28 53 -55 -12 -51 -1 -11 -11 -24 -32 22 29 39 -43 -19 66 -37 -12 -57 -10 10 36 60 14 28 -53 -65 -30 -20 56 -26 -45 -68 -35 47 -23 -59 -15 -22 -47 -12 -29 -40 18 30 64 -8 -24 -5 -14 5 -36 -7 -55 32 36 -9 -20 48 33 44 19 34 -20 -8 6 -32 -17 55 44 33 -29 5 62 41 -63 57 60 -16 52 -57 33 -31 10 -25 2 -20 -53 26 65 22 38 24 32 27 -15 -14 -4 -13 -49 64 -61 7 -31 14 28 13 20 -34 -33 60 43 -60 4 17 -53 -21 -1 -11 29 38 40 2 48 0 1 -47 3 38 -25 33 -52
1 -28 -3 39 48 0 20 7 -63 50 -51 -14 -3 -56 1 23 -31 -25 -31 -26 -50 -31 -41 29 -32 -9 -59 12 10 37 -14 24 -16 -25 -32 6 53 43 -9 50 42 -18 52 8 -21 -12 21 23 59 -12 6 -11 49 4 3 -45 48 58 -9 31 12 50 22 -52 55 2 52 5 -2 -32 -53 -7 45 -60 39 -33 -56 21 35 35 -63 -1 -75 -9 -56 16 -30 12 -44 38 46 -53 -20 -30 5 -59 -38 -64 -3 -6 -29 11 11 -6 22 -24 25 -9 29 37 -36 50 -23 -14 -74 20 46 -2 5 -44 34 -68 57 -15 -37 -47 8 -66 10 -52 21 -18 43 5 -31 47 -4 -3 -34 50 -4 14 -7 34 43 14 -44 62 7 5 -68 35 40 13 33 22 -44 38 19 7 8 2 39 -68 -49 -25 9 -16 -38 48 -6 34 -53 58 0 22 1 -32 47 34 32 -3 -27 -36 8 9 -50 0 21 -26 -3 -47 -24 54 -31 -33 -38 -21 -76 -69 -65 12 -8 -52 53 49 -3 -10 46 28 1 41 -15 -82 -12 26 -51 25 -25 -52 17 -41 -23 -44 65 -25 -44 14 48 -32 51 19 46 -28 41 56 -73 2 -69 15 26 -7 -16 -7 24 -33 -19 12 -47 27 15 16 -50 -14 51 -36
51 -31 -15 11 -1 55 14 56 29 -61 0 -14 -15 38 35 -18 -41 17 -41 53 18 16 -34 18 -2 17 30 9 -38 -41 14 25 -16 12 50 3 -63 51 42 30 -55 -46 -23 -39 42 62 -19 46 21 -18 31 14 2 -52 12 -22 -29 41 48 4 -26 -68 44 -30 1 -18 -28 -8 24 -16 -53 -45 3 39 -60 29 -4 9 58 46 2 -33 57 -40 -15 -2 53 6 -49 45 -4 31 3 -44 17 -52 51 -52 -3 -21 5 59 -44 -72 32 -53 61 47 -2 -4 56 -42 24 38 7 -40 55 44 -19 -9 -26 -13 -24 -15 40 65 -36 32 -20 -9 -41 -5 -37 -16 -62 4 -65 34 15 -42 28 7 -42 53 33 -2 4 -20 59 -45 37 46 -62 17 43 -46 -33 32 34 -8 23 18 -31 -5 51 -37 -9 37 -35 -6 -49 61 -8 -66 9 1 -21 -32 -49 32 22 -33 -57 29 45 47 -69 1 -2 -9 -23 47 -38 -43 -38 13 -12 -30 -40 -1 -28 -24 -31 39 0 40 -43 50 -55 20 47 34 19 29 -14 -32 15 -22 -56 -60 58 40 46 1 32 -38 21 40 10 -31 -8 -26 -40 -29 -57 51 35 -8 -2 2 23 -70 31 16 61 -29 49 -47 -7 -33 -49 2 49 -29 -39 23
5 50 22 6 -17 -2 -50 -50 31 -62 34 11 -11 15 51 13 57 50 6 -40 5 14 63 -26 48 33 51 -58 12 -35 -55 20 -60 64 -56 44 22 31 -46 94 -51 9 -45 -2 30 -29 -7 28 -16 20 -43 -5 -26 -47 19 -51 13 -48 49 45 19 -55 -55 -40 -20 -35 7 -3 41 50 57 9 -50 -48 61 53 -50 -22 -32 42 -17 -25 23 58 -19 94 -23 -17 39 -68 -3 39 -33 -1 57 -47 21 -24 -36 52 -12 -23 44 5 -41 -16 -16 -29 17 17 16 26 -13 -24 -3 -12 -34 2 28 -37 26 -2 -23 64 -56 15 -3 70 -49 -4 21 15 -16 -30 -36 21 55 -13 50 -37 42 20 42 5 -21 -61 40 24 -42 21 -31 58 -63 27 -18 -18 -28 41 -4 52 19 59 22 50 -20 26 40 17 49 64 29 -30 -10 52 -6 -32 32 23 46 -49 1 56 -37 -15 -54 -6 44 -31 -18 -63 11 -39 21 -36 58 -37 -1 -31 -4 -16 -37 17 4 -18 -1 59 -64 -11 60 18 11 39 4 -24 -36 -21 55 60 -42 57 -54 -4 52 51 -25 5 -42 54 38 -57 35 26 8 65 -28 38 -12 -2 37 29 -46 -14 56 2 13 7 33 32 49 -21 28 24 -48 50 -64 -21
-36 -13 -5 -57 63 -27 24 5 -49 -26 7 -61 -33 -33 31 -34 -24 -8 -28 11 -25 38 -23 16 28 -4 43 -18 -39 10 -60 -49 -13 8 -52 -35 -36 -24 -7 60 -32 30 1 18 -46 22 -54 -11 -61 -3 -37 -66 48 26 -63 15 -19 -41 7 -56 -2 56 59 1 4 3 -4 5 -38 -57 -43 6 10 -34 26 -56 -17 -24 -45 19 -64 -51 17 27 -45 34 34 33 31 48 -13 -11 -42 -10 -34 62 31 -30 -6 -53 25 34 -9 -49 11 -17 53 32 52 20 7 21 -39 39 -60 -35 -45 -42 -37 4 -30 13 6 -19 20 -24 -20 -21 -56 4 42 -63 29 -16 -31 -43 29 28 50 -28 -16 -13 -10 -59 4 -14 21 -6 52 -13 -6 59 -65 8 -9 -49 52 -25 -20 -56 21 49 -20 -42 -11 -13 -34 12 47 -25 55 23 -11 53 -39 -34 60 31 -54 32 -16 -67 -45 -13 -30 -8 -49 -7 11 22 0 -23 -19 19 25 -12 65 47 31 -66 -14 -7 -66 -57 -12 19 -57 42 34 35 -24 -12 21 2 -7 -25 47 27 -2 -5 9 -55 -34 0 -52 -32 -32 64 -16 -47 33 20 -53 -33 19 39 -24 -21 -73 0 24 41 10 53 -78 61 1 51 -68 32 -37 -5 4 -65 62 -64
10 41 24 -58 -28 5 -52 28 -56 10 30 29 -58 -63 48 -25 39 -52 -34 14 28 -19 42 14 -56 3 33 -56 -59 -28 -56 -53 25 -18 -28 -3 56 9 -31 -39 43 55 19 55 6 31 -62 43 -27 44 -15 -3 64 -33 13 -7 -36 22 12 41 18 -27 18 63 -28 11 5 3 30 -45 8 -59 -25 26 3 49 33 38 -39 55 -32 33 -23 -56 -26 7 19 43 22 32 14 8 -33 -40 -48 -59 -1 -24 52 54 -1 5 -21 -56 -67 33 24 22 -28 22 -32 -52 1 34 2 -27 -60 -48 -29 -13 51 -15 8 25 2 -31 -7 12 7 -37 -63 -32 44 -42 -28 22 -38 38 16 24 -27 -18 9 -29 -4 -9 54 -47 10 0 -45 -16 -51 -23 2 38 46 26 -34 14 18 39 -50 -53 5 -41 -52 11 58 44 -25 -4 -43 -51 45 -23 -8 49 -52 32 36 -33 34 22 -13 30 -55 -62 -52 41 -63 -40 -22 25 -48 -40 -49 25 -88 -73 8 6 -57 -52 -53 36 -19 -56 -16 -40 -27 -38 35 3 21 5 -60 -31 -49 37 22 32 30 -21 43 22 -16 5 -35 -14 -41 -41 34 54 60 14 -9 27 -5 -53 28 -49 3 -5 18 24 14 10 -47 -8 -30 36 -51 -37 26 14
-56 22 66 34 21 55 13 -16 51 -38 -30 -37 54 31 -51 40 -15 -30 49 -68 -23 -59 -51 17 -67 -8 -58 -2 18 52 -52 42 -20 -61 -63 25 -33 -47 67 53 48 6 10 -32 -27 57 11 6 43 -46 60 39 -43 25 56 9 28 -73 -58 -61 -13 44 -25 -14 -27 -10 44 -5 25 -13 14 47 15 24 23 31 4 15 -24 -9 39 24 -73 -11 -6 -58 -33 3 -59 -57 13 -39 43 0 -1 52 -57 -59 66 -11 -12 44 37 64 -24 -55 39 15 -21 15 21 -65 19 -13 -48 11 -54 18 11 30 -42 18 58 51 24 57 9 -49 -24 71 33 -8 -56 -27 18 -68 -54 16 -45 3 -51 -36 -14 36 -14 6 13 -5 -67 23 -66 39 -26 51 -68 11 -17 33 19 -33 58 60 -21 12 -2 -32 -42 -54 13 18 -4 11 24 -71 14 -57 -3 52 -3 59 -47 0 55 53 55 -9 -7 27 -44 -4 -17 -19 -26 12 -74 -10 59 -51 -60 -37 -45 44 -59 -51 -33 -36 3 -54 -19 31 10 -30 4 -37 53 -10 -5 45 46 4 -65 -22 -62 49 -47 9 -12 50 -41 39 -7 -40 -37 -1 61 46 45 -35 28 -18 -54 39 -9 31 -74 10 37 -24 -36 62 -56 -9 18 -2 -46 21
-22 -24 24 -24 -39 -55 -56 -15 84 -1 30 -24 34 -5 -21 -39 42 56 -62 16 -30 6 -19 25 -40 7 34 37 19 27 7 27 11 10 57 -40 -48 27 -1 66 -10 46 -45 53 8 -10 -4 23 -24 -21 -36 -1 49 -41 -11 -52 0 -37 -23 -47 35 -7 -54 -2 -27 8 47 35 -34 -55 -50 -32 31 -53 -18 25 -2 3 29 38 -32 4 -25 -25 -30 -16 -11 -66 -4 -17 -28 28 -39 27 66 -29 -51 -28 -46 34 8 26 0 41 18 22 19 -55 26 18 0 17 6 -40 -17 -66 -4 -63 12 15 -13 -29 -19 14 -10 -40 -25 17 36 -26 -36 -63 34 30 -62 25 34 20 17 47 55 -68 7 -29 15 -6 52 49 -24 16 -12 -24 59 8 31 50 -37 31 50 36 -29 26 -21 38 44 3 24 -52 3 -12 12 -31 -27 45 -44 11 -50 36 -28 -49 3 -36 -17 -25 -21 -20 0 31 45 42 -43 -14 37 42 0 5 -37 40 4 -1 -26 -34 -21 8 -60 16 17 -46 12 -31 20 -56 54 51 -39 17 -32 56 22 -2 -57 -37 -61 15 8 -31 65 71 10 -56 46 7 -37 -5 -53 57 -26 36 -2 -1 10 31 -72 -39 -19 31 11 40 -33 51 7 47 -31 72 -6 69
55 55 -56 9 8 -17 -84 -15 9 -4 -7 -61 -66 -13 -13 -59 58 0 16 -61 46 -52 22 -28 56 -31 -49 62 42 -28 -30 -6 -82 -8 45 56 -33 -23 39 8 -44 -65 35 -67 18 52 1 -48 -28 -80 -44 -51 -61 11 -24 -47 -22 -65 1 11 -31 -12 -23 7 -51 -2 -22 38 22 49 12 -3 51 -53 31 39 7 -8 -22 27 20 -78 30 20 50 -5 -6 -43 -12 -70 36 35 -8 -31 22 -36 22 -51 22 -4 -61 46 4 1 -7 5 -43 -47 15 37 -30 -12 -1 47 61 22 25 44 -32 -62 -16 -55 -1 -55 -42 -23 3 11 -56 19 -84 -30 47 -48 6 55 -33 -17 -23 -3 -10 39 23 -29 -14 35 -68 -14 35 -25 11 13 5 -11 -53 -64 36 -14 11 -27 21 -4 -35 -45 7 24 -9 21 -34 49 -55 55 -29 41 -17 -70 -58 13 -34 42 24 -24 -15 56 21 50 -63 -13 -16 5 -12 -6 -4 7 14 -6 -2 4 -79 8 -42 9 -33 -37 14 -7 -15 -5 20 -29 1 35 -67 16 -34 -6 -41 11 44 -23 28 27 -44 -77 48 -38 -31 5 38 -7 10 -30 43 -6 39 -58 22 -47 1 58 1 -21 -16 -30 -82 -26 -64 -33 -41 -56 20 -33 36 -7 4 -28
3 57 12 11 63 61 -68 -62 -35 -35 -1 11 -37 32 -21 -24 -44 -5 26 -54 -9 1 -45 41 6 53 60 42 20 34 44 2 -19 -54 2 -48 -38 -5 52 -20 -26 -16 18 -18 31 -15 -11 7 -15 43 -12 -43 -57 11 46 12 13 26 57 -13 -67 -37 71 24 23 17 44 51 10 21 44 45 -51 -27 -2 45 63 4 -19 -18 24 67 -45 -37 12 -48 -3 57 36 -43 29 -28 -18 29 -19 -37 33 -35 -64 28 8 11 25 -19 -34 37 12 -11 65 24 15 32 -5 42 -57 19 27 50 62 25 -24 -16 -43 -16 -33 7 -29 -55 10 -65 28 57 -54 61 -29 29 27 25 34 -44 -25 64 -21 -4 -32 -34 -2 -29 -34 39 23 -28 64 57 -65 11 -57 22 -10 -9 5 40 -53 -18 43 -3 47 -64 -43 34 54 24 -44 22 30 41 34 -51 26 56 -16 47 26 -50 42 6 35 -54 31 1 -6 -41 42 0 -38 57 49 69 45 7 6 47 28 -13 -23 -45 30 1 24 34 -14 21 26 -16 4 -22 -49 5 18 -55 47 -64 24 42 -32 -7 2 25 -69 -17 -9 -44 -24 38 28 48 -7 29 1 27 19 31 -45 19 -65 -42 16 48 -3 -26 -31 24 -67 36 -21 -32
-79 44 17 -46 39 -30 -6 -55 43 -49 -43 30 17 -40 -61 -22 -47 28 21 14 -60 50 -28 35 51 10 -64 59 49 69 16 -45 3 -28 4 31 -34 -35 -27 -16 -37 -40 -23 -53 6 38 -37 -27 38 -36 32 -23 -5 -24 -40 0 -54 55 9 26 62 -12 17 52 -30 30 -16 -3 -31 -57 -34 41 55 -23 25 30 -61 28 -5 -35 29 -51 -33 41 37 21 15 26 33 -47 39 46 31 -24 -45 62 21 11 -22 -14 61 -21 16 -5 -45 24 27 -60 -39 -12 -59 9 55 -11 51 -25 -57 -13 34 35 -42 -38 -26 17 3 -28 11 -38 17 -22 59 -30 -62 24 -21 -29 5 48 4 19 1 29 -18 -63 -17 20 37 -78 18 31 35 -6 -7 -37 7 44 30 54 5 -21 11 19 62 -7 -54 0 -48 4 -59 42 6 42 11 -27 50 -46 -5 -45 -6 54 -25 -46 9 7 -9 55 -28 5 -3 -15 -24 -44 -30 9 0 -9 35 1 -37 -61 28 -59 4 33 -16 -28 22 -34 -3 3 50 -51 31 19 -31 24 -52 15 -28 27 -52 3 -9 26 -1 41 26 23 -43 -32 9 2 55 12 55 -62 45 -11 62 7 -50 49 -48 -15 50 44 -51 1 57 -30 -18 -1 69 -57 -20 -15
30 -45 53 55 -5 8 -52 -53 -54 -47 33 -15 26 27 -14 -64 -46 53 22 -63 7 -45 40 -42 53 -10 -19 60 8 -54 -39 -12 17 43 -22 -4 -53 -51 -14 15 7 -16 1 -8 -2 -63 -26 31 47 -29 -52 -23 -28 -30 -29 22 34 10 -33 -52 -7 -6 13 44 -32 -58 48 -40 -30 12 -39 -28 -17 36 -74 39 -18 -44 8 -40 -45 -66 -43 58 13 -62 46 -49 -20 36 -30 -55 15 -53 -40 17 15 -27 -9 40 -13 28 -39 8 32 -21 -5 -31 28 -13 -61 -27 55 46 0 -58 -9 33 14 16 -26 -12 -32 -44 -30 -57 4 -16 41 -49 56 -66 60 51 40 -21 -49 15 31 33 -6 10 -50 -77 -4 57 -3 -34 -54 52 19 16 32 30 54 46 25 -48 45 49 -37 -46 43 47 63 -6 7 -36 5 -46 18 10 25 -3 -24 5 -31 -14 15 15 20 -37 -36 58 0 -19 -53 -4 -16 -63 -38 38 31 28 1 -3 -17 -22 22 -6 -45 6 25 60 -48 -20 57 40 0 -28 -74 20 46 13 32 26 -56 -23 11 -24 -14 24 -53 -55 -4 -52 -45 44 -33 -1 -36 -40 47 48 -42 -43 41 23 47 54 -23 -13 -40 -66 71 53 44 14 23 -54 1 -47 -43 15 50 27
46 -8 -3 -27 -27 2 27 31 -35 22 -49 -7 51 -63 30 -85 -30 51 -32 -39 -5 -39 -47 60 37 4 -4 12 -10 28 48 37 21 41 -20 -40 45 -91 36 28 -41 -27 61 -26 63 -26 -49 38 50 -5 -44 -26 -60 4 -23 24 18 -9 18 30 -7 -57 5 75 5 13 34 25 14 -13 -45 28 -2 44 12 52 -51 77 -41 -58 -9 -2 -6 -59 21 -3 56 -8 28 -40 32 -6 -50 -43 30 57 -34 31 46 -43 -36 49 -28 30 -3 -46 -56 29 -66 13 -30 9 -4 -50 -44 -85 -62 -30 5 43 -24 25 -4 -53 45 -32 53 -31 -57 42 71 60 4 46 28 -68 5 27 8 36 -15 5 -15 -36 28 -58 -55 40 28 -66 -22 -70 -54 -7 -49 46 -36 39 -38 -47 -81 -51 -40 -42 -17 2 -8 24 -21 14 20 -45 47 46 -19 -79 -52 -5 40 34 34 6 -13 3 -34 -10 16 51 71 13 -32 40 -35 5 29 34 -12 20 -44 -6 -19 29 -75 -49 -25 -75 -30 -62 4 -31 23 -6 10 -57 37 65 32 -2 -80 -58 -25 -36 -1 -25 63 -55 63 -56 -5 26 11 32 4 -28 29 25 47 51 35 -34 -56 -61 3 -6 25 42 -16 33 11 -62 24 -68 9 1 28 36
-37 -6 -30 -19 22 -3 46 -57 13 -38 -32 15 43 -16 1 -26 19 -39 -13 -35 -70 1 18 62 -52 -21 -27 50 24 -50 57 17 -46 -47 59 -52 10 -26 -8 -6 14 -15 7 -27 -34 60 -43 -39 42 -21 -6 23 -37 31 -12 -14 23 75 -57 -70 6 -49 24 -5 -63 -33 -32 -16 -68 10 34 -56 6 -15 -14 -63 2 -22 32 64 -37 -12 -36 21 67 -45 -21 -2 16 -15 -23 -12 7 43 -26 8 -46 -6 -25 1 -61 -25 -7 86 -3 44 56 -26 28 -9 -40 62 42 3 -59 48 -9 -45 -22 34 18 -23 -65 -14 20 -12 8 58 -33 69 -63 44 -29 2 58 -2 38 -43 -5 13 -16 24 -9 -33 37 8 -30 -11 -58 53 36 -47 44 0 -58 30 55 -62 -8 39 -36 -56 -22 62 3 62 39 -48 39 24 44 62 -11 17 -30 55 -39 11 -27 -21 8 11 -68 -8 -29 82 -57 37 -55 -2 -7 -64 -11 36 41 -34 11 45 -12 -33 -45 47 28 -20 -5 -59 -9 -7 34 -53 15 25 -2 58 -6 36 38 63 76 -41 -35 -48 22 -36 -26 53 -43 -12 -7 13 48 -54 -40 -5 -14 -32 -50 74 17 -11 -48 -26 39 -36 11 45 -34 22 32 31 51 57 -69 -51 41 79
-19 41 14 26 44 -1 -35 57 -60 -51 37 -19 -11 -46 -56 -33 -11 -46 -36 -17 55 -66 60 -49 16 -64 -16 55 33 6 50 8 -31 -28 41 6 63 -41 15 14 31 -31 35 2 5 -6 43 -33 54 4 56 70 -23 -32 20 60 -13 -22 47 -27 37 -60 -13 41 -38 43 51 37 -8 -64 36 -40 49 -48 10 18 45 -44 21 -43 35 48 19 -57 -42 -39 11 -5 -67 61 -42 -56 8 -45 40 -17 19 -2 -45 -4 43 -49 -49 -55 -33 -30 46 -19 36 -40 22 17 42 -19 -20 65 -54 -59 16 58 47 -52 -46 -17 29 -19 25 -10 -35 53 38 -4 40 12 53 -56 45 4 29 47 -23 44 -52 20 -35 2 -60 -50 15 37 -36 -53 -55 -34 -11 -21 49 10 -55 -17 -52 -57 -44 -56 9 40 46 55 -40 -41 -49 5 41 62 15 -39 -48 20 14 35 34 45 18 -11 34 44 45 -11 35 42 30 -44 28 11 -62 33 9 -19 27 28 -6 -13 52 -49 -1 -4 60 27 11 -24 -13 -28 -8 1 -33 -51 62 6 -57 -4 46 -44 -50 31 -10 -31 -40 12 -29 -48 16 24 37 -24 -49 -13 2 -31 -44 -30 -11 -25 -8 53 30 33 -27 -38 12 -23 -37 -63 8 36 -53 -55
4 19 -40 44 -57 -23 36 -17 25 -41 -30 -37 6 56 -18 16 -3 -15 44 -58 60 -5 -25 10 53 12 43 -49 17 -33 68 33 54 23 14 -41 -57 51 37 -64 72 -52 -69 -10 44 -10 -45 -79 11 -37 4 6 -71 -40 7 -43 59 33 45 37 -25 32 -33 65 -9 -40 -41 53 56 -52 -16 -15 25 0 -41 -14 2 -62 57 -31 -37 15 67 45 -22 4 54 -31 -28 -34 22 30 -16 -55 41 55 25 20 61 37 -64 46 -13 -31 -33 -45 19 -60 -26 -43 -62 31 -28 -5 -14 32 -44 44 -37 -19 17 -2 -55 13 -31 -18 35 8 -18 56 -37 -35 39 9 -59 -28 48 38 -43 25 7 27 -32 -2 -59 -22 25 8 -12 47 -29 -29 29 62 -45 -50 -34 26 -27 37 -36 60 -17 31 -5 -46 -13 65 45 -12 50 -24 -54 26 -53 -59 45 31 -36 36 -37 -75 52 -43 -13 -16 36 -30 58 -39 16 -56 -25 25 -10 -54 51 65 60 -9 -32 -37 -9 6 11 17 -17 41 30 0 15 -53 -37 -53 -26 0 -7 -39 -34 45 3 9 -47 13 -66 -54 -9 20 47 -46 54 -25 40 -3 -7 -52 -47 58 -13 -46 40 39 46 -9 -40 12 52 63 4 -39 -17 -29 -50 -27 6 -85
-28 -39 -5 -25 47 52 -41 -12 -39 -64 -65 -10 -51 -45 -52 30 -43 -30 -11 -29 26 23 -32 -56 66 60 -20 -36 1 48 -39 16 -22 46 -38 -4 63 65 -48 14 -15 16 17 74 -55 -7 -69 -9 27 -51 68 28 -43 31 -60 -58 49 20 54 21 -14 56 29 52 36 -22 -40 -21 -60 -47 37 -7 -1 -13 54 33 41 3 -54 -57 -60 10 -55 57 -39 -23 -34 59 16 -3 -19 66 38 31 55 52 -37 4 45 1 11 61 27 -49 16 -4 45 -52 43 -38 45 -11 -24 -20 1 -43 45 -63 8 45 -39 -6 52 -22 -77 -4 4 59 -47 -10 -7 -89 15 33 21 55 -37 -33 0 -79 8 -33 -55 -12 -8 36 -36 -51 12 34 -76 -48 -11 22 -43 7 12 -43 4 -44 12 -28 -44 1 -40 24 -61 -63 -37 -27 -16 -26 30 -51 -4 25 46 45 -4 -16 -25 13 -10 14 61 -1 48 50 9 7 -30 -26 19 48 10 -30 -15 -23 5 52 6 61 -65 -57 -56 15 34 -27 34 -3 77 38 23 6 -32 -35 -40 11 -3 29 52 43 44 -32 -13 -6 41 -12 -69 -38 14 24 19 -35 -46 -46 -42 -42 -68 11 -22 5 24 17 -8 29 -47 -56 3 46 -10 -53 -73 23 -4 -4
3 33 56 46 -37 -30 -56 -30 -55 43 -18 42 -47 -32 49 -72 -39 -42 11 -14 -46 7 2 -25 -52 -20 29 59 46 23 62 36 -51 -29 21 3 -49 -64 -17 -76 -20 30 -54 -57 48 -41 -22 -61 47 -46 -17 -66 -23 58 -21 -51 50 -13 -3 4 34 -15 -36 -53 48 -47 -57 84 -55 -61 67 -50 -47 12 35 14 31 -30 -61 -8 -8 -10 -62 -34 -27 61 -35 -70 -48 70 -57 -18 11 -24 -30 -21 62 0 -19 9 76 -5 50 42 37 -19 59 13 -23 -33 55 37 -62 -45 29 40 -28 20 56 1 -44 30 45 42 7 -7 12 -25 22 -54 34 -37 -56 44 38 -82 -22 -12 -43 0 6 16 -4 45 -28 -23 27 -39 -2 -64 4 -45 64 -12 17 10 -32 11 9 0 -23 -15 -76 10 -12 -48 -50 13 -33 -28 10 59 -25 -45 -4 18 -20 40 64 17 7 52 -71 -49 2 61 -58 -1 23 -52 40 36 -59 -31 -55 -16 -21 -40 52 36 10 -7 7 -42 -54 21 34 15 53 43 45 -31 8 64 -17 19 48 31 26 27 8 -2 -9 -26 -58 24 23 8 -4 -67 -44 49 -43 54 37 13 -24 14 -26 -19 -4 -9 12 -50 -55 -16 -56 23 43 4 -36 -31 43 -45 -12 43
34 64 -1 -59 75 4 -67 4 -18 -14 -61 29 14 -45 -16 12 -72 49 -41 27 -67 -58 41 -72 18 33 -84 3 -48 -27 26 -73 43 -23 31 28 -43 65 40 39 -36 -34 20 -49 36 -60 4 77 -3 0 -39 0 22 9 -75 -52 -31 33 -70 -36 52 23 9 -61 -89 -35 -61 -42 16 18 19 -53 -9 -39 15 -62 -36 -3 -57 81 -8 -11 0 -25 -47 30 -16 44 -44 -13 53 -34 -70 -63 76 -62 -86 20 3 -47 26 32 -7 -23 28 -42 10 10 -9 -34 81 22 -2 -39 -44 -51 5 37 -15 -76 -15 -32 -21 18 -41 -13 55 36 -103 -31 20 26 12 -5 -42 25 -21 -43 23 -76 -26 -1 -36 -27 -17 -22 0 -52 29 1 -27 -23 11 5 -27 12 -70 12 32 -26 -36 -57 4 30 12 -36 25 -43 18 -3 -17 54 49 -20 -4 -28 -64 2 -70 -21 -21 8 23 44 -4 4 38 -64 60 45 -35 -17 -44 -7 -54 -25 39 11 -12 1 -14 -51 -34 -56 -69 -26 -59 28 57 -33 35 -27 -50 1 12 23 23 -38 -25 -5 -62 8 -66 39 53 -42 -20 -37 -59 -62 -10 -38 -37 86 -54 -2 -70 77 42 31 -43 -17 -61 71 -60 8 9 -5 -20 11 -21 -49 -37 56 -42 -1
-17 20 58 -1 21 56 47 -36 -62 -8 -13 50 65 60 -44 57 1 4 -51 -25 48 -40 -23 49 -42 36 -9 -30 3 39 55 -67 -50 -9 56 -60 -64 25 -59 10 -50 -10 14 47 9 18 -17 -58 -60 -43 -33 62 -13 34 -27 -25 46 43 -49 16 3 -34 35 -71 57 -5 -49 -43 -58 2 43 38 -55 47 54 19 -31 -5 -27 -24 -25 -38 -52 16 53 71 -43 56 6 63 24 -17 64 45 8 -27 7 -28 -60 34 20 -35 -34 -20 -16 13 -31 48 30 -49 40 -14 -33 17 -43 -59 13 -6 10 25 52 51 56 16 -2 -23 -46 13 -59 32 -16 42 47 30 -53 -25 32 12 27 15 -6 -25 -33 13 -60 -61 47 -15 -65 19 -47 -8 -35 12 15 -61 26 -76 -44 -35 8 60 53 -44 -23 44 -48 31 35 24 -57 -8 46 -62 15 -61 1 2 -50 -32 -25 60 -20 7 16 54 33 29 -21 1 57 13 2 47 47 -69 48 39 52 -32 -35 32 3 -6 -8 -67 50 -3 -2 -34 -51 -19 -19 -7 56 -54 -45 -49 32 -14 -3 46 38 12 -27 -27 21 60 34 -13 -5 -7 16 -46 14 34 -32 46 -4 42 -42 -4 -33 29 16 18 -53 -49 51 38 -47 -19 -10 7 27 48
-3 -42 -4 42 33 34 44 -68 25 16 -5 -50 55 55 18 27 -33 16 -62 -46 46 9 -39 -13 1 34 -42 44 -14 -38 -29 -5 21 47 27 39 -8 47 12 46 35 52 -47 40 -43 56 -23 -56 23 52 54 42 -50 -51 -26 -35 -67 21 12 -21 -51 38 61 -24 -45 24 63 -39 -8 38 -49 -35 -47 52 -48 -47 -39 -10 -65 58 24 -70 -23 21 -8 -56 -38 49 -31 5 -20 -16 -26 -49 -58 37 14 -13 -27 -11 17 -39 -52 27 43 -32 54 24 -13 57 -4 8 53 43 1 58 43 -52 -49 11 -22 -70 -1 -38 10 23 -32 -5 6 -40 50 -43 -26 30 47 28 16 -54 -8 -41 -31 26 -51 -50 -59 9 20 -56 -16 -43 -33 -1 51 -69 -52 48 -55 56 45 -54 56 -58 45 -45 -10 -17 -10 -31 -23 48 -33 30 30 -16 -31 -61 27 -49 40 8 0 48 25 -20 7 18 -5 -26 56 39 -10 -34 59 -57 39 -9 -66 11 -19 13 25 -44 -8 -37 20 -21 -14 23 16 -19 -62 -58 41 -12 -53 -1 -52 28 -13 30 -44 -56 -50 54 9 -1 19 47 34 51 50 -64 24 46 29 -13 30 49 -19 12 57 -10 -30 -44 55 21 -63 1 -50 -19 58 -51 12 68 15 27
-50 35 40 -64 27 -50 -51 11 55 -38 49 -15 -48 -63 28 -5 -26 21 5 45 -61 -35 22 -29 -1 -17 -16 57 -36 15 -12 -22 -38 18 -17 11 -37 56 39 -5 -48 24 -30 -30 -23 -58 53 28 -56 -2 57 5 24 7 6 58 -30 -40 41 45 60 -9 46 39 -63 73 -26 29 -29 -32 63 -54 14 -58 50 -7 61 62 4 2 6 -15 -25 4 36 15 25 17 -9 -19 -15 -47 46 10 45 -54 40 -60 27 52 21 57 32 -51 42 -23 65 69 -26 -6 -17 60 21 37 -34 -6 -52 31 33 -46 54 17 -41 43 19 -28 0 44 -14 -22 -2 78 11 -37 -42 -9 59 -23 -46 32 33 37 -18 27 -28 51 -73 2 -40 14 36 33 -15 21 14 19 30 0 44 -60 12 18 -28 -28 21 -47 16 2 -1 -15 -8 -2 -19 6 33 -24 -10 6 -9 15 -15 55 17 41 27 -19 43 -46 63 -47 -8 -43 68 -8 56 44 -41 20 59 -49 11 22 -47 -64 -28 34 -38 8 55 4 -24 0 -43 15 54 13 52 -57 28 -58 -13 9 48 -51 6 -45 34 9 -13 -30 -27 -9 37 64 50 61 2 28 -18 -51 59 8 54 -16 5 -68 10 -32 -47 -31 21 38 -38 -52 -24 -30
-10 -45 -9 -51 0 -20 -28 45 -39 47 57 -47 39 62 51 -77 -2 -44 -50 54 -58 -20 -71 -52 76 20 -54 44 39 -59 11 9 -45 -11 -33 34 -26 72 45 8 -40 -69 -47 -13 -5 65 35 -73 45 -25 -52 24 -45 35 5 -68 -11 -14 -56 67 55 -28 34 31 -31 -48 -57 -30 -48 -37 39 13 54 17 15 42 25 22 -39 28 -11 28 20 -51 33 -57 35 -60 35 -33 -3 16 -17 48 -34 36 -28 -36 -67 1 5 43 29 -30 -35 -59 -58 25 22 64 64 -45 0 -31 -53 77 49 -13 41 48 45 -45 -35 13 -41 54 39 -24 -39 24 -9 7 -37 -15 33 22 45 -2 -65 41 -27 -33 -24 28 -18 30 55 54 -31 31 -86 35 -11 -32 29 -42 -38 -37 -49 34 55 10 -33 27 39 -46 -81 14 48 22 -51 54 -23 44 18 -8 64 43 45 -23 26 3 -45 31 -43 -5 -10 -46 33 -6 -19 -18 -63 3 -60 44 -35 -65 -51 -10 58 -4 24 -29 -42 1 31 -10 10 -4 17 7 -16 -32 49 62 -8 28 -33 -52 -43 -3 -34 -41 13 43 -17 -4 16 -13 13 -42 9 -44 38 -64 -6 -39 -43 7 -47 16 69 -30 -29 56 18 -5 -50 40 7 -67 0 29 6 -30
25 -61 -58 -54 -64 1 -56 -64 -2 87 25 -62 -55 -26 44 29 15 -51 6 -37 -71 -36 18 -74 30 -41 -79 -48 -12 22 -6 -48 48 0 31 39 -61 48 52 -65 4 -40 63 -83 74 -24 -5 -37 -39 22 -12 26 47 -22 0 -45 24 -29 16 -14 -60 -71 17 7 -51 -78 0 6 -43 56 66 17 -43 10 -50 -56 -75 33 -30 53 -7 -30 52 23 37 -27 -38 47 -32 3 -85 6 -23 39 -87 -27 -69 -61 37 -25 33 -38 6 -47 -37 45 23 34 20 7 -41 -53 30 -33 -8 14 -49 63 31 -31 -6 -69 -60 -22 -41 -65 40 -28 35 -24 70 34 -10 43 1 -14 -4 45 -12 19 -33 36 -33 -33 12 -80 -15 -66 -6 -11 22 -4 40 -4 -36 -1 -18 -59 -39 -51 38 25 39 -11 -31 55 -11 -17 -53 13 -23 -55 -17 -46 -42 0 -14 -39 20 30 -55 -57 35 -69 9 -54 -76 -29 -21 -34 19 -15 48 -52 -21 -8 -21 44 -34 -17 1 20 -62 52 -1 -6 -26 -16 -81 -8 -21 -27 -6 -16 10 12 25 22 -15 25 2 56 40 -63 -35 -9 -4 -40 19 -45 57 -86 -36 6 -43 32 12 45 -38 -53 -83 -59 19 -100 58 -18 42 -45 9 -13 -17 -53 -9 -59 38 25
42 1 52 2 30 -41 -35 -75 -49 19 -2 -42 27 62 3 26 -64 46 48 -34 30 -11 -2 37 -68 47 3 -55 37 10 -21 29 -23 -15 20 -9 -44 15 -10 3 44 54 -11 39 22 -51 -27 2 23 -13 -2 -43 37 23 -2 -27 29 -64 -29 -52 12 29 18 -1 11 37 -43 -70 -6 -55 -6 -18 55 52 42 31 -1 -61 7 -16 27 -47 3 -19 -61 45 -75 11 -21 -44 -1 -29 33 -12 -38 55 7 -52 -35 -11 3 52 20 -19 -55 12 -40 36 21 -2 60 27 -7 -52 -15 -45 -1 32 61 -18 -26 -52 2 20 5 -21 45 58 28 54 27 -60 -29 -47 -29 1 -41 -14 53 -6 38 16 -60 -7 22 0 -35 40 22 14 34 -19 -16 -35 -44 -29 12 25 -31 12 -25 -32 -68 -62 -49 -37 32 10 22 -4 45 16 6 41 -37 35 19 -44 41 -52 44 -22 55 5 60 -24 -17 22 44 9 12 50 13 35 53 -6 24 61 14 23 49 58 19 -54 -15 7 -49 29 50 10 38 57 -22 -24 4 -45 50 64 -30 -18 -26 14 -8 -21 -49 1 15 62 -33 59 38 30 51 -65 3 -15 -31 -55 20 -4 28 18 14 25 0 35 53 -59 49 -12 5 -76 1 -5 -37 50
-26 -27 8 44 -50 -31 2 -23 40 48 -6 -47 -64 2 40 -39 28 48 28 37 53 43 24 47 -39 -32 -64 -21 50 7 48 23 -17 7 27 -22 -36 -27 10 25 26 2 -5 -5 11 30 -5 -18 42 36 16 61 6 -5 -41 46 0 17 50 -5 -68 -43 -36 -28 25 -8 -27 5 -40 5 -57 45 63 22 40 17 45 -41 41 -2 -12 -45 -41 -12 12 -51 3 -1 -15 36 -55 32 21 44 -57 -46 33 38 12 -3 26 -36 -51 49 -68 -13 -40 -51 26 -52 -57 -3 43 -52 27 -57 59 -48 -46 -27 3 -49 -43 42 28 46 -32 -15 28 63 -70 -32 -37 -53 55 25 -39 24 -8 43 -37 3 -49 61 23 23 -73 45 46 2 -23 -17 21 54 35 -56 -21 -38 -21 59 -45 35 52 43 21 -56 -1 -12 18 33 -15 7 37 -39 -40 19 23 27 5 -12 61 7 11 -51 -25 33 19 -29 15 2 -27 34 30 -7 19 10 -61 75 -73 -64 42 17 -59 23 -38 -25 -27 -42 10 24 -53 -64 -47 -51 41 -59 -46 19 29 -26 -29 -31 -24 -14 -60 14 17 -55 62 39 70 4 56 -64 -22 58 -21 -30 -53 64 56 3 -57 -19 -47 -6 18 1 28 -41 -58 -47 50 -72 55 52
-46 -17 -36 24 -18 44 58 -51 26 28 -2 4 47 23 19 -56 8 -28 -39 57 17 -35 -66 69 22 -2 42 16 -46 -57 -18 -27 18 -31 -60 36 54 -60 52 -52 -35 9 20 2 61 8 8 12 -18 10 -19 41 -23 -61 -57 -34 57 -50 -47 -52 -61 -30 -6 71 53 86 -24 13 -7 27 -24 38 -22 -29 5 -33 72 -42 60 3 15 -35 -7 -31 20 -26 -46 -56 18 -24 49 50 28 -7 -37 -30 28 -14 -53 30 -30 -18 -50 57 -43 -28 9 19 18 31 -33 -68 -27 -36 53 -21 -59 -61 -25 -12 -63 -12 37 -46 -26 -8 -21 8 -21 -31 71 49 -56 -30 32 63 -5 -2 42 -38 30 -1 49 -3 -45 -39 25 -42 62 -21 -24 -1 -45 18 42 41 50 69 -15 2 6 -35 -12 -29 -15 27 33 -4 -72 -15 -38 -49 -18 -42 -40 42 38 -57 28 -54 40 -51 36 -11 40 42 1 -15 2 -37 -7 54 -34 -74 -52 -11 -37 25 46 49 -8 -18 -37 31 -71 40 48 -25 -47 -19 42 19 11 41 34 10 28 26 14 -7 -32 -9 35 -33 2 -9 -60 -36 -44 -6 3 -73 19 4 7 -22 -50 36 61 17 -5 37 7 -23 62 -22 -24 -62 26 31 -32 -49 69 45 47 -20
3 -6 -3 -9 16 -10 -55 40 15 -48 -23 17 -69 -35 -20 24 -32 27 28 -32 -9 -49 39 -3 -53 28 45 49 29 -3 8 -55 28 13 7 -15 1 22 40 30 -43 6 -55 -35 4 38 22 55 -9 26 36 -64 -53 10 27 25 -74 34 33 38 34 5 35 -38 38 -34 -36 -36 -14 -67 42 -51 40 23 -82 -24 0 21 52 -21 -52 -24 6 23 26 -18 24 -47 -31 13 17 5 -19 -15 44 -2 -13 -13 5 19 30 63 -7 28 41 49 35 -26 19 -8 -13 -22 -72 15 4 27 1 -36 15 -66 -38 26 -17 23 -53 56 51 32 0 14 67 8 -56 3 53 -19 -29 -62 -12 -56 -36 -13 -30 19 -13 23 -26 60 6 -1 -55 26 42 30 48 -50 -68 -51 -28 -68 21 68 -20 -40 50 31 55 -29 -62 24 14 18 30 -57 -61 -27 -8 -18 46 -16 -68 -56 -38 -33 -10 -14 -15 57 14 -32 -52 -46 1 18 -27 -21 24 1 -58 20 12 49 16 -36 -30 38 -48 -21 1 16 -4 -9 62 -42 -12 45 33 19 -50 6 1 -22 -39 -58 -44 -10 21 -36 51 45 -61 -7 42 24 27 -4 34 -63 27 -15 -5 -52 -57 6 1 -43 24 -50 -63 -12 -22 24 -28 7 31 -9
46 -45 -50 2 -110 -56 -74 5 -77 39 -49 -33 58 -56 37 65 10 -12 -48 22 34 57 -68 63 16 -26 -62 22 36 -2 4 65 -5 2 -12 19 63 -32 18 -74 -20 53 85 -13 23 49 2 37 -14 51 -37 5 -24 8 -2 2 -7 -43 -43 73 -41 10 25 27 21 -21 46 13 50 -26 19 -14 14 100 -67 -56 60 55 39 -25 -62 -12 9 1 -40 1 25 -22 -26 4 -72 16 54 -9 -29 -29 -8 -1 -2 -65 87 -6 57 -12 42 -26 59 -52 37 39 -52 -2 -24 7 36 -60 -36 22 6 9 9 57 41 -24 50 -43 30 16 2 -45 92 49 -36 56 -34 56 54 32 -29 32 -20 3 -23 -22 -8 27 5 -52 -8 28 -8 -41 -8 11 16 50 37 87 1 64 38 -77 -46 38 19 8 57 -1 -62 34 109 -50 34 56 -13 36 -7 -30 52 -41 -50 -40 -79 53 -38 63 3 45 89 -3 -26 19 66 37 20 77 22 63 55 -42 6 57 -8 -31 54 22 -60 23 -65 -53 -48 -25 -66 48 55 31 -81 8 9 -69 17 8 -1 -97 -14 -62 42 9 52 -31 9 -57 22 -11 -15 49 -10 -10 61 12 -31 -1 59 -93 17 -37 11 48 -15 -16 -2 27 88 17 79 -48
49 23 -43 -3 48 45 38 -4 32 -38 28 -75 37 59 42 -37 38 -69 -27 30 47 3 -7 0 -9 1 -36 16 -31 -11 -6 -18 -1 -14 -65 16 -23 -45 -72 68 -44 -65 -3 -2 58 28 -22 15 -17 -1 -40 -10 -1 -32 54 45 -1 -59 16 -11 25 -63 22 46 -58 -6 6 -83 38 -44 -5 41 -38 2 -83 24 4 34 32 19 -24 10 -54 -33 27 29 -41 -35 -4 22 -32 -43 27 -13 3 -31 -4 -15 20 59 21 41 -57 -60 -30 0 40 52 -52 46 -65 15 33 56 -75 -23 -28 -32 38 44 30 -48 -74 -5 -4 39 51 -55 -50 61 -22 -43 -40 12 -70 49 5 58 -66 11 -40 -16 61 -22 -12 18 43 19 -10 -74 30 11 6 55 -22 -61 -20 -43 -55 -44 -48 -48 -19 30 -35 -23 27 -56 -64 -28 31 1 -34 47 -50 23 26 8 37 28 -7 9 -7 -58 -57 6 -29 46 27 -30 22 -18 -31 -4 -26 19 1 52 -36 -62 -59 -36 40 -11 -24 1 13 -50 36 22 -21 -46 -9 -41 3 -48 -83 3 -90 -74 2 0 -8 14 24 -70 -23 54 44 -18 -32 -23 4 8 66 2 -25 -34 16 -65 -69 -28 2 -46 -22 31 -32 46 -15 -57 20 -65 43 14 27 -71
-9 -77 -46 10 58 52 -89 5 -13 49 62 47 -60 -47 80 -13 -28 -54 -20 -16 -7 -25 -49 47 -33 27 44 -44 32 -45 32 8 -16 -19 -68 -26 0 -8 -8 5 10 17 99 31 64 -35 -34 -9 -6 -27 41 -27 -2 -3 3 7 -28 50 47 52 -53 -48 -47 30 48 6 7 0 41 -44 60 51 12 25 -79 -34 43 26 -34 25 -59 5 17 7 -122 -27 -27 -61 96 78 -60 -21 3 39 -82 44 3 -32 39 -35 28 -44 13 -32 -52 43 36 5 35 -41 24 47 -27 -19 39 44 39 10 -33 23 -32 38 -61 -33 75 -41 -1 -45 78 -25 36 -2 -61 50 -22 38 -66 22 -17 11 -61 -57 -17 9 9 -5 -19 -30 -62 15 -7 3 -35 45 47 19 16 40 37 -6 17 16 21 -61 -7 -10 27 -26 -9 14 87 15 -48 -48 13 38 -72 3 31 6 -83 -60 -2 -25 -28 25 -34 -24 89 26 -58 40 88 -3 73 -28 31 86 -48 27 -8 55 -51 25 -46 50 -17 3 -77 -37 -62 -37 -5 -50 -56 -17 -3 -84 0 -8 4 -19 -44 -33 -15 49 32 53 97 -50 -56 14 -18 -56 -35 58 25 -69 44 24 -63 44 -62 -33 87 50 -45 -6 19 24 64 49 62 8 48 9
-44 66 60 -31 73 7 19 -36 -27 -60 12 -26 -7 44 -67 1 24 38 -21 -60 46 12 -38 -12 -27 -45 -4 -20 15 -34 17 25 -37 -56 57 0 47 -50 13 -24 -48 -22 55 0 -43 16 -31 -34 -44 -24 27 45 -42 33 -39 28 -1 -47 -63 -21 11 -10 4 -40 59 -32 -35 -47 0 -62 -63 17 -26 -6 51 -34 58 15 49 27 -5 -53 38 39 -22 16 22 35 -56 44 35 -37 14 -40 17 56 -52 21 50 -57 -5 53 -62 14 54 -37 -39 -58 22 -17 29 0 42 8 28 22 -14 -20 9 24 39 -2 14 61 -16 -20 -45 34 -44 -44 21 29 -24 -8 45 -2 16 48 54 -38 -59 -21 -43 19 5 53 -55 9 -1 63 27 -7 -7 5 -56 -15 -7 24 47 42 30 56 -8 -49 -12 -1 -44 28 13 42 -4 48 -13 4 31 -4 1 -22 23 -57 -27 27 -5 48 -35 -10 -39 -15 -49 -28 -2 -23 -1 18 -68 56 -6 10 29 -29 3 -25 54 6 -39 9 72 -61 -30 -30 20 50 40 -78 -66 -15 -7 35 -59 -45 -25 34 21 -54 2 38 -27 21 -8 44 10 -3 -34 41 -65 13 -40 50 4 -63 -23 -41 -12 42 20 -9 -36 13 -51 -13 42 -16 28 20 -31 -39
27 41 -9 -26 -8 19 30 -16 3 24 25 -54 -42 -13 33 59 29 30 46 -47 -28 -1 -80 22 -29 -42 -22 13 -68 18 22 29 14 51 -64 53 -16 8 52 -43 -12 38 3 23 -48 -48 37 44 -35 -54 -61 20 33 -23 36 42 -73 65 13 15 -53 -69 58 65 22 24 -22 -69 53 -33 -30 19 -10 -22 -74 -63 -64 -19 -30 33 -23 -65 51 -67 55 47 -19 41 61 -46 -48 41 -25 -1 -63 27 -67 -34 50 46 -56 -8 -39 28 76 9 43 -53 8 47 15 13 -28 -30 -21 33 61 -47 64 4 -69 42 -8 -17 18 2 -44 9 -36 45 -14 35 -75 35 63 41 -16 -5 -84 -75 -34 -36 -8 44 61 -78 -1 26 63 1 53 54 -54 27 24 19 -21 57 -75 -40 -4 -53 2 -31 -49 11 -8 56 -25 -52 60 34 2 38 -37 -26 -67 -50 -7 -24 65 4 -12 -26 -64 -18 26 -16 -42 47 38 51 58 45 39 -17 41 -13 31 22 -27 -2 38 -9 63 -31 28 -23 -10 62 52 -27 44 -22 -32 33 52 2 -54 -14 36 39 -42 41 -66 63 37 -30 5 16 47 -30 -21 33 -57 47 -5 50 0 -61 -49 25 13 51 10 -39 -34 33 -34 45 -48 -57 -36 40 26 74
-49 67 -10 -19 44 49 45 -13 0 6 -48 15 -48 -27 -29 -11 30 49 -47 -12 -32 4 55 -63 26 30 11 41 15 0 45 -49 32 -34 -44 -70 -1 11 -23 -43 -12 19 42 -9 54 -56 -25 -8 -54 -38 38 -33 -39 -64 -2 36 -55 14 47 0 36 -27 55 -60 -73 -53 -38 2 27 19 -54 49 20 -48 -21 -51 -5 -27 -24 -16 -9 -7 -5 -2 -48 -21 -12 -53 27 -30 40 -15 -12 -23 52 -28 -26 -6 -60 45 61 36 21 10 -17 -36 -57 34 -12 52 49 -30 -25 -38 3 -29 -24 8 26 2 36 -1 51 -50 39 45 52 -50 -34 -43 -13 -11 58 20 -58 -53 15 23 -36 -53 -65 -23 -45 40 4 -13 16 41 1 8 25 -5 13 -26 -26 -20 45 -55 47 -10 40 -3 -8 -31 35 -49 9 -43 -33 -22 29 -51 -25 -25 41 -5 12 61 53 -54 34 42 34 -41 46 -26 -51 25 -21 -59 -26 33 10 -72 -50 -9 11 67 -20 20 -20 -38 -66 2 38 -63 -77 28 25 -59 43 -14 6 -10 -10 4 3 -80 33 -39 -4 8 18 52 -6 17 10 60 -31 60 -10 7 -17 29 69 -28 -5 33 -78 -5 -85 46 -27 -29 -46 1 4 14 5 -1 -50 38 -36 -31 -67 2
54 -32 16 -37 -16 62 -60 2 -70 -26 -8 40 -13 -34 -12 -9 -42 -51 25 -7 49 -45 59 43 48 18 8 -32 36 -66 -56 27 -77 -58 -66 -38 -37 -46 -11 -44 38 -50 2 49 -36 29 41 -61 -39 -70 -16 -60 44 -11 -51 4 -21 -62 -13 -33 58 -7 -19 52 15 41 55 -88 7 14 -47 -12 -41 43 -13 -71 52 29 -1 59 56 2 33 0 6 -9 15 12 -18 43 22 -18 -44 -11 35 -31 -31 -41 30 -30 46 -52 -13 -59 -35 44 -70 30 22 40 28 -10 -23 -52 -46 -9 16 34 -63 36 0 7 25 -58 -24 -66 -39 -4 -3 -42 -40 -31 -35 -25 -17 -40 -65 -21 0 -36 17 -51 -34 -58 27 49 -74 25 -8 10 -63 -47 -7 45 30 -15 46 -74 19 -34 -18 23 -40 47 -28 2 -62 -50 15 12 0 34 30 14 -29 -19 21 -2 -26 59 -25 -10 -34 -48 67 42 -2 -6 39 -4 6 -53 34 6 44 -53 33 37 -36 -3 38 -50 4 -30 50 -52 -75 37 -59 37 40 -26 46 26 33 -20 5 -28 -7 -62 15 26 -26 -30 -36 33 48 46 15 9 -44 -77 57 23 67 -8 3 47 42 -18 42 34 27 48 -8 64 -20 14 -45 57 32 -34 38 -14 24 45
50 -20 41 -56 58 16 -62 -37 3 103 -15 3 55 -12 65 51 -39 -44 -10 34 -19 -55 6 11 83 -13 25 35 -22 -43 -23 37 80 34 5 10 -24 3 -27 -95 -38 -33 52 -27 78 -92 1 -43 -1 69 -19 29 50 -23 8 -37 23 -59 -21 43 36 10 22 83 -5 28 29 17 31 -19 99 33 42 64 -15 -24 36 17 39 -47 -6 28 35 -31 24 40 33 -49 44 47 -41 -5 -95 -38 -47 -63 -72 -37 63 55 48 -1 16 -12 -34 -31 -32 -128 -52 19 -41 35 18 -63 -13 -47 13 -22 -46 45 -12 41 35 -11 69 -30 -70 -58 21 54 -3 -23 -21 -63 38 -12 43 53 9 1 -49 -20 22 -18 -33 -36 -79 24 -45 46 76 7 -57 -67 45 -52 -15 85 -16 35 48 52 -37 -26 42 -26 19 -12 -57 22 41 21 -33 -16 -53 -11 -88 -36 65 -66 38 -13 -9 -72 -51 -12 41 -69 55 -49 -36 61 38 48 37 -14 22 70 61 -10 -28 -58 56 7 -7 20 -17 -39 -43 -45 -36 49 -40 13 -19 11 7 26 20 -58 -61 47 3 -16 -84 15 -46 -49 -18 -37 -12 33 -12 -36 23 55 51 28 66 1 -10 -37 -68 -13 80 32 54 -3 -19 -1 18 43 92 9 95 -32
-25 -13 49 54 27 -58 -19 12 -4 18 -44 -61 2 50 63 -4 64 -67 41 44 37 23 42 39 2 -5 -55 -26 -1 -4 15 53 65 38 19 -22 -19 5 -7 17 36 -11 7 -10 -31 -10 5 -25 -40 5 35 39 15 -51 -43 -28 63 -31 20 18 -45 25 34 -54 -49 6 -42 -4 28 22 -9 -39 -54 -22 24 -8 -3 38 45 61 -48 55 -30 16 -29 62 48 -59 41 38 21 42 -60 -33 -19 10 -5 -9 -13 56 16 6 3 -11 47 17 -3 37 -10 31 -8 -29 -14 48 -29 -49 11 -59 42 13 24 -22 -43 51 -30 7 12 -40 19 41 49 -25 29 42 34 13 35 4 -41 -50 -16 -29 55 1 31 35 57 -24 -21 17 -40 -6 -45 -49 28 -36 49 20 -58 -36 -37 12 18 11 51 58 20 -10 4 -42 35 -20 -53 -53 58 51 -27 -49 2 -13 63 46 -48 -7 38 -16 18 -53 -2 55 40 -13 59 -58 60 -37 -19 22 -45 -12 39 -16 -53 -9 52 -44 -20 47 37 22 -3 0 44 -55 -41 46 22 -49 48 -39 -61 -14 11 -72 40 -62 -38 -32 24 22 -18 18 13 -60 -45 -2 -2 23 11 43 32 19 7 50 54 -5 -18 -29 -46 38 -62 -9 -21 -58 -16 -52
-3 -17 -4 30 7 -72 -38 20 69 4 -39 -38 28 44 -16 5 -12 -31 -52 -44 -25 -58 -31 -34 35 -4 15 56 -48 17 -52 58 42 -50 49 42 4 63 -41 35 -15 37 -11 -19 -42 -39 -56 -31 20 35 12 -20 -39 8 -23 52 -58 11 48 -21 15 52 -11 78 -11 59 63 59 13 -56 57 12 -15 75 -10 -39 35 -9 16 -4 -63 45 -25 55 9 45 64 17 31 53 24 -1 42 -41 57 -55 23 34 61 -3 42 73 -28 33 53 11 65 60 -34 -64 75 43 21 -25 63 51 35 11 -39 30 -54 22 36 -62 71 -10 20 1 -52 5 -36 29 -36 -44 16 59 28 -30 61 -29 0 37 -9 53 52 -45 37 39 23 21 48 13 55 -1 24 63 20 0 9 -28 -10 -1 -1 24 59 -37 4 40 -44 29 33 -6 41 -24 -42 -78 -2 5 -7 14 32 46 54 -28 24 -2 -58 -3 -1 56 43 34 49 -5 14 58 -21 69 91 26 1 46 -15 9 -63 5 22 41 62 -60 -30 54 -36 65 54 -42 -23 11 -20 44 -11 -39 2 25 -44 -72 24 -26 -30 35 59 -42 -36 51 -6 58 39 -22 29 2 33 -6 -27 49 -23 1 -46 11 21 9 38 40 44 -5 72 68
-48 -66 -42 36 -71 23 27 -44 55 -13 1 51 13 53 -12 24 -16 30 -38 -17 47 34 -22 -20 5 -15 -20 21 1 25 -19 64 1 -52 -25 -22 -24 29 -68 54 -26 22 34 89 34 25 -43 62 1 50 -50 41 -61 -33 19 8 -17 -38 -32 -25 -38 59 41 38 2 46 -25 26 25 57 -44 87 -77 44 93 -35 40 -44 -47 27 33 5 4 49 -30 -52 55 3 -40 -7 -16 -21 -16 57 90 54 -4 34 -8 -37 32 -43 -4 -29 41 50 0 77 1 68 48 -15 -17 90 7 61 -37 -75 16 18 20 49 -22 37 -37 36 -27 -52 -88 29 32 -37 36 51 21 26 -7 -16 -38 -20 -51 -48 12 -11 -3 -1 21 47 -53 -9 -31 -49 58 -20 -64 -35 29 -65 43 26 -63 -15 -69 62 6 -32 36 -42 31 68 13 36 34 25 18 -49 93 37 29 2 -51 -24 14 -30 52 49 31 16 37 -22 -36 -61 44 -69 -5 -31 88 2 -56 30 -31 36 41 22 60 16 -49 -44 -21 38 -31 -1 23 83 -47 -32 6 -5 63 7 14 25 -51 -12 53 -53 -51 -49 -45 25 -72 68 -7 57 20 34 -31 23 42 0 -80 50 13 15 5 12 47 49 -27 -48 -26 -22 35 69 27 -8
7 57 -44 -37 -56 -7 31 -9 -36 33 36 19 41 20 -32 13 -57 64 -40 -16 -50 35 49 -59 -103 37 -71 7 10 -43 6 -44 -7 -26 -15 -43 -64 -23 -41 72 -36 -42 -80 35 -42 -42 -14 -5 24 -2 5 -58 -21 14 -41 -28 27 -1 -47 -56 8 -30 -72 -28 22 26 29 0 -26 -32 -19 18 -30 -42 15 47 36 -31 20 114 10 30 17 -2 36 16 20 -5 -22 -31 16 42 -6 -9 21 -66 20 -50 14 15 -70 44 34 66 -23 2 -4 65 -35 0 81 -28 13 31 34 42 15 19 -14 -36 6 20 19 48 -40 -23 46 63 -23 13 13 16 -47 -30 -28 -51 -48 40 -1 -24 16 50 -21 78 10 0 50 4 31 3 -90 36 57 48 -48 18 29 -77 -5 -17 30 -29 -11 32 -14 -59 -55 -20 3 66 -70 59 -35 -41 12 -39 -9 -37 -20 -23 -26 37 -38 2 9 106 -24 22 -86 14 -57 -46 -24 35 -23 17 53 -31 -22 23 23 -10 -70 -43 52 -11 33 13 92 63 57 -45 47 108 12 28 26 72 -17 66 -63 -29 -25 48 66 -23 -4 -28 -87 9 -57 25 24 37 -44 -33 -55 81 -6 -97 -51 73 -45 4 -100 -55 34 -52 17 -55 -17 32 0 61 -81 -5
30 10 39 -48 -5 2 13 34 38 37 -39 -12 -11 -52 -77 0 4 -9 -41 18 57 -20 19 57 -63 -41 52 -51 21 -42 34 7 -2 21 -6 33 -20 -26 -43 -1 -57 -30 1 4 8 -80 14 84 84 21 -57 52 -1 -18 22 13 -12 34 -25 10 16 -2 53 15 13 -34 -40 10 39 33 1 -6 52 -2 90 -40 -36 -59 17 21 -36 -59 -31 57 -27 -44 -50 -30 51 20 16 27 12 52 35 42 35 -19 47 -41 -42 -57 18 -12 53 -14 -6 83 -2 -4 57 -7 4 14 9 6 -38 -67 -31 -62 31 -4 -43 -47 46 -9 44 -27 -63 -27 40 -28 -33 -17 33 1 61 -20 11 -65 18 -47 31 44 3 -76 -17 -2 48 17 13 38 -51 -29 -15 -59 40 -43 0 11 32 -34 55 58 -28 23 30 -21 -69 26 13 73 30 -51 -29 16 -19 22 56 33 -33 -42 -76 -60 35 18 -52 -30 -62 12 38 -41 28 9 10 -53 59 -35 -4 -7 -75 -11 -36 26 -6 -64 -42 -16 64 22 29 -17 -32 63 43 23 15 75 66 -33 10 63 38 35 6 -31 -12 -47 29 -28 -14 60 -39 24 -25 -69 -7 38 -32 -27 25 53 23 29 8 6 -56 -54 26 -86 -62 46 13 -40 -8 -25
26 41 -2 43 -6 -16 2 12 45 -89 10 -56 56 -57 -30 47 44 -7 -37 13 35 60 -36 -29 -49 21 -29 1 6 -42 -22 28 2 -9 -9 0 -11 -3 12 35 -58 31 62 -6 -54 3 18 51 -32 1 44 45 7 -12 -65 -46 -66 9 -1 -2 -41 -14 33 -73 -40 56 -19 49 58 -17 -43 -8 -63 16 10 16 -32 27 -24 50 47 45 -42 41 -4 14 12 -23 -46 60 33 66 63 4 50 19 23 -27 -27 58 -63 13 -12 0 26 -59 -46 -39 16 -55 44 -17 -10 -15 -29 -5 -47 -65 30 -51 23 18 8 -27 -44 54 52 -1 20 12 -44 31 0 -35 49 44 12 62 29 49 34 -38 29 53 -67 -7 30 68 10 46 -24 22 -34 20 -29 10 22 56 25 56 30 55 50 -37 35 26 38 13 47 27 22 -6 -12 8 -31 -62 -24 -55 39 -18 -2 54 -8 -26 44 49 -3 -44 15 63 5 -2 1 -18 11 -13 7 -26 32 57 -10 32 49 8 -19 0 9 -1 -67 -5 -46 54 8 -9 -18 26 -26 -26 31 11 -59 54 -45 42 30 8 4 -41 -4 -52 -26 -39 -57 1 -55 -26 46 -28 29 -7 -6 -19 -38 22 8 44 -40 6 -2 -44 68 33 39 -58 3 -20
-31 -26 -31 19 -14 -28 -25 -30 12 -62 -26 -32 -36 -63 -16 -30 -19 -28 -23 45 -31 22 32 21 56 1 -49 -46 -55 -19 -56 -23 -62 -6 51 15 44 41 -54 -28 22 -29 37 23 15 -62 11 -41 26 25 -18 34 49 26 8 -2 41 11 24 46 10 -7 -40 8 17 31 32 -16 -66 -38 52 46 -48 -7 -35 -16 -53 18 -33 1 26 22 -56 22 -8 37 51 51 30 -38 23 -1 29 13 32 -23 52 -70 -58 55 30 -1 -16 56 3 -7 -28 -19 -23 -16 41 -9 -49 5 -47 27 26 50 -1 -12 34 10 -10 -49 -11 -59 -30 -51 32 -11 -33 22 -24 -27 38 26 -32 8 40 -21 -4 -55 35 -38 -3 -28 -23 20 -1 -29 -26 -16 -41 -30 -51 -56 -28 1 27 -49 -62 6 41 -23 -37 32 42 -29 -18 35 2 60 35 -5 -60 13 56 1 -24 8 7 -40 -57 42 -2 -29 35 -41 -61 40 -57 50 36 -33 -66 -11 -24 -5 -4 19 54 49 -29 16 -58 51 26 46 3 -12 12 9 -17 -28 -41 -3 -39 -31 -14 -62 -19 53 16 4 22 31 -14 43 5 29 -35 -5 29 49 -30 -12 22 -39 -14 1 -10 50 49 -32 -22 42 -21 -43 -33 -55 -12 11 6 -26 -17 -33
-65 11 -37 45 -79 -4 58 11 15 30 -81 48 -52 -57 -7 -54 29 -47 12 -55 8 -39 11 -39 17 -73 37 -11 -54 43 -6 -60 31 36 41 -57 49 -43 36 -36 -11 -79 -60 24 -3 -47 58 -3 13 -18 15 -5 -43 -61 -41 -52 -12 25 26 -53 39 16 -24 -18 -58 -33 -27 21 -37 -48 18 -14 -46 -51 8 43 -36 26 -29 14 -26 -27 -21 -6 -4 6 41 46 -67 -74 -38 22 -15 -64 72 -66 -32 -38 12 32 6 -85 -36 60 57 -73 -68 43 59 19 83 -81 50 88 -26 -11 39 -76 -51 -23 46 33 -54 -22 -15 27 -42 -12 0 6 -38 -21 -3 -55 -57 0 -18 15 49 -38 -23 2 25 -20 -84 -36 -22 -51 -37 -24 -56 -11 -52 -59 -26 -41 -36 24 -41 -55 15 -27 -35 62 10 41 -84 6 18 -3 27 30 8 11 -38 -50 67 54 -38 41 -29 -8 -78 -51 -56 39 -39 -3 -44 51 -25 51 -86 -25 -55 -74 -20 -1 -90 -16 -18 22 -39 -61 -48 -68 -45 -59 36 -51 -9 -35 14 78 13 -37 -76 43 78 40 56 22 -54 -10 -8 -21 -60 -39 2 61 37 -13 -15 49 30 -43 -61 38 -13 24 -29 62 -52 -26 -62 44 -43 48 8 -26 -94 -36 43 -40 -13 66
-53 -17 -10 -59 -21 -38 -95 5 35 36 -44 41 25 5 79 -49 21 37 -61 -43 -15 19 -2 -73 -40 -71 -24 -17 -5 -9 0 22 -18 49 -54 11 24 -46 -93 -82 30 15 37 -51 41 29 -43 -27 -59 18 21 46 23 49 -69 -24 46 -14 19 40 56 21 42 23 -45 -90 -64 0 2 -44 37 -22 -51 56 -6 45 -12 -46 -13 30 -12 45 -35 55 -57 45 50 -55 -4 10 -9 -8 13 5 20 -50 46 4 -28 41 88 30 -48 -59 19 49 -56 -41 -17 -4 -102 6 -69 -4 -2 -13 -36 30 -3 -64 -28 -29 -3 9 19 35 -54 -31 19 -37 50 7 -22 -70 -14 20 -12 19 -67 -60 -18 -24 48 25 35 8 -9 44 -5 26 5 14 -73 -61 -44 -45 12 3 -33 -35 35 34 49 11 12 20 7 53 4 -79 30 -89 23 -2 5 -27 -112 -46 -6 44 -48 -64 25 -18 -67 -8 45 38 89 -4 -50 -46 55 31 -73 -30 -27 16 -48 2 -74 46 13 50 -39 -88 -46 20 -60 -50 -67 57 -55 -17 -53 29 22 -50 -114 -85 50 -76 49 -7 -77 -66 -45 -68 -17 10 -48 -99 22 -31 -68 -14 63 21 73 34 -24 -26 47 -36 53 3 -30 -13 -53 32 -45 -69 68 7 88 -26
52 -11 -50 40 -22 29 -57 0 -73 16 -23 41 44 -44 -58 4 -64 -44 49 -63 -13 42 11 19 6 -8 -53 61 11 -43 -44 7 -34 -30 -50 33 -9 20 -46 -12 -16 -47 23 26 25 37 -17 -3 -8 45 59 -38 50 12 -36 37 45 -31 -45 11 -6 -20 41 -7 50 25 22 -67 -3 0 -32 1 19 -64 -30 54 8 14 -20 13 60 -53 -92 25 -7 -31 -43 40 -79 -27 -58 -54 67 53 -86 30 11 -58 36 40 20 -43 -50 -54 27 -11 31 -49 62 54 -1 -49 -14 -3 -60 -19 -10 5 48 2 -53 -9 19 20 -102 -25 2 -72 48 -11 -25 -18 -28 13 -60 -44 8 0 -94 -9 7 -25 17 -1 -17 50 13 48 -51 -16 25 -48 -69 -56 23 39 -62 -77 45 -10 -74 34 -14 -63 -64 -50 -43 30 -7 -36 -60 -10 -68 -1 -48 32 6 22 -48 -21 -45 -38 -10 53 10 -9 0 -28 11 18 48 33 -46 54 -24 16 28 -1 15 -90 53 -25 -12 32 18 46 50 31 31 -10 29 43 -22 -1 -14 -30 15 -77 11 -10 -22 52 15 -34 -37 -33 41 28 -10 -26 -2 4 41 -41 37 -84 -29 -46 -73 -23 32 11 17 -95 39 -11 -49 -58 35 38 -76 2 -78 25 30 -18
20 -46 -89 17 -6 57 57 -59 80 -114 16 -50 36 55 -34 -87 -32 -55 -37 -56 -35 26 -17 42 -81 44 -14 15 -70 -54 -29 9 -111 12 -4 -19 -21 7 -68 36 -34 -32 -48 -18 -65 -71 -36 38 48 -47 -38 -78 -50 -50 -88 -11 -51 45 -40 -20 -12 -28 -30 -38 -44 28 27 -70 -21 11 -52 -70 -12 -87 79 -70 -25 5 -15 111 4 60 -22 -11 14 -33 -82 33 -81 -97 -26 -27 23 -60 50 37 32 29 -52 -10 -67 -56 -23 84 15 27 -40 56 36 31 57 9 18 65 12 45 -45 -13 9 -4 -63 6 -52 36 -24 -8 24 37 -78 -45 -47 -90 -8 -34 -57 -28 -25 -3 -14 -25 -15 1 32 55 -92 -26 -35 -42 -26 23 5 32 17 -71 -60 -36 -26 -14 16 36 -12 -14 -52 -12 -65 -49 -79 -39 -7 52 -53 87 -37 35 -53 7 62 -57 -10 3 -20 -48 -51 -34 -31 50 34 41 -89 29 2 -52 -54 -12 -52 -24 56 -61 -67 5 15 13 -26 -54 -59 14 2 -78 68 16 8 -69 -41 49 -84 -41 -42 -7 68 7 0 -8 43 70 79 -5 -23 49 -7 57 -71 34 16 43 9 -76 -10 86 -61 -33 3 71 13 -12 -104 -23 -17 -60 -44 -49 -58 -42 42 -5 -44 11
-5 0 -48 -24 51 -27 -44 4 22 83 -61 -61 -44 44 44 66 -20 24 -34 -17 -37 8 44 27 -70 -5 -5 -48 -50 34 53 -50 22 33 -55 -33 54 36 55 2 -42 -22 -19 49 82 -34 24 31 2 -2 50 36 19 -41 -20 -81 33 52 50 -48 40 -2 -42 -13 -29 -71 68 60 -8 27 -44 10 25 -17 -28 9 -41 34 5 40 -6 -18 27 -47 39 -10 14 -51 -58 -2 5 30 7 -16 9 14 -58 23 -59 -53 -57 10 -18 22 -19 -2 -3 -114 -53 37 -27 -10 -7 31 -26 -7 40 -41 8 2 -69 -49 -18 35 18 -51 28 50 14 33 -12 88 -44 -18 6 3 8 63 -32 4 -17 -42 52 -6 -74 -14 21 39 4 -28 69 -5 -73 -77 -42 18 -42 -35 72 -19 39 41 -17 36 -59 56 -22 -50 -5 6 -20 8 52 42 -26 -97 33 -67 -57 -2 25 -3 -51 24 55 67 -45 -14 31 9 -38 41 91 47 5 -7 -42 44 16 12 -57 -4 25 -34 33 -47 42 -63 -83 -35 59 -31 36 -51 2 -51 43 -52 -41 -62 -60 -49 49 26 -12 65 27 -41 51 -43 32 -66 -62 30 -32 39 4 28 79 -19 -31 -39 -63 -60 -49 62 41 35 -7 28 -2 -2 -23 33 -55 -67
-16 39 -53 19 9 -44 26 -12 24 -25 51 -37 -66 -23 68 58 -30 56 -2 -57 57 -44 5 12 62 -40 42 25 49 -26 15 -46 60 -11 -15 -24 -29 -37 -56 -9 -18 -34 23 -55 -49 26 -31 -19 -46 59 -14 -23 21 -27 38 9 40 -37 38 59 -63 -48 46 48 31 -34 -30 -32 -45 -51 -28 -5 15 -65 -23 -8 -4 45 2 39 -27 -53 12 59 54 -27 39 -50 69 -39 -30 66 52 -20 -38 33 -67 -53 -29 47 13 31 -54 -47 -46 -39 -26 1 -20 -54 -8 14 -51 -15 -6 20 -14 34 12 55 34 -29 18 -16 -43 61 47 -8 48 6 -51 48 6 43 28 65 55 55 -5 33 54 -40 -49 46 -19 38 64 -27 56 18 55 -24 -45 51 9 -63 56 27 -46 -66 -39 54 37 22 -48 -4 -28 17 -44 -46 18 -51 21 14 -28 39 -12 -20 -52 -50 -42 -51 35 -8 49 1 22 -49 16 61 45 -50 29 45 6 20 -58 3 -22 -15 -50 7 -52 8 -34 -12 25 42 -38 -6 -53 17 38 -22 27 -55 -20 -34 36 -12 -7 -56 -22 -40 0 -55 1 -55 48 57 61 -25 26 -51 -3 -14 -57 -49 10 -14 13 40 -39 40 -58 65 -59 -30 9 19 -56 -6 30 -38 0 -13
-50 -50 -37 -66 64 -1 50 -1 -53 17 -26 -50 -66 3 -46 0 10 -57 25 -43 -36 26 -58 -43 20 37 -30 -11 -59 -20 47 -55 28 27 -61 -26 -41 53 3 -19 48 17 45 26 40 -51 18 -24 -23 -13 -76 38 11 -34 36 -53 17 -73 50 10 -45 -45 -35 -31 -24 1 58 -32 42 -13 -11 55 52 44 43 -19 54 -11 48 -9 34 24 -39 46 -47 -23 -22 43 23 13 -1 36 66 -28 52 21 -39 16 1 6 -50 -11 43 -3 -56 -68 25 -18 -37 -14 -58 -50 -16 -54 -65 8 39 -21 21 -6 -33 -6 -3 36 -24 -8 -5 -42 -61 34 -9 -37 -24 -36 -21 -57 44 -46 36 -55 -49 -24 -18 -22 20 33 -61 19 68 -24 3 4 -28 -57 56 -48 38 41 -11 6 8 -50 15 1 -14 -2 36 -23 -15 27 -14 77 -55 -53 -39 33 -47 26 -11 -8 27 -29 67 41 65 -21 -32 -2 3 54 -48 55 36 54 44 -33 1 -25 -60 -69 -25 43 -55 41 48 34 -38 55 31 -57 -31 15 -38 -13 45 -54 -5 -48 23 42 0 -38 -53 -3 -2 73 10 37 0 -9 -39 -34 -45 -51 -17 48 -42 63 39 -54 -1 52 11 67 -33 12 59 33 54 -11 48 -42 -6 -3 29 -6
-12 28 -36 36 4 9 -4 -53 39 6 47 10 -38 -44 -56 29 -47 -23 5 -1 -5 -90 -33 -27 -11 33 32 -28 -21 -40 -59 -23 -51 -19 -15 22 -45 -37 -59 66 -25 -10 13 37 -77 4 -2 -7 65 -83 -57 26 55 23 10 27 35 27 -10 -4 -44 -65 -13 -31 -54 -60 -20 29 -58 20 46 -48 -58 -84 55 -50 -5 35 -58 -12 -37 -51 27 -53 -1 -51 -94 11 6 -82 47 9 -57 -55 67 23 -28 1 -37 -67 14 -40 -9 63 -50 -37 -54 61 -42 -16 65 6 -15 82 -66 6 -23 14 3 -55 -37 -69 -49 32 -12 37 37 18 -49 37 -62 -75 -60 -10 30 36 -11 -41 21 35 16 -87 -21 -11 -89 -30 1 -24 41 -62 -82 -1 16 43 -66 -60 24 -85 -19 27 26 29 33 58 -51 -84 -50 -17 -12 55 -48 84 6 -14 -56 -44 64 -10 -101 21 37 -7 1 24 3 76 -67 -66 -57 -52 -11 -80 16 -57 -30 -87 103 -73 -78 3 -23 41 -49 -51 -58 -63 30 18 45 -54 47 -57 -21 18 -30 -33 -18 59 30 1 -35 -2 -4 -29 4 22 34 19 26 -18 -24 28 55 4 -46 -37 -78 48 -71 29 -57 58 12 79 -64 13 -42 -52 -17 42 -73 -68 -50 -50 3 67
-64 -6 58 42 20 2 -21 -13 -57 43 -59 39 48 22 -20 -48 37 62 -30 -9 52 8 0 17 -31 22 27 -50 5 49 42 -13 -39 -68 9 -29 17 1 -21 -54 -71 -71 -47 5 -41 -61 -10 -22 46 -32 -57 -5 -1 -13 53 -24 -73 32 -37 16 30 3 -5 13 41 22 13 -12 24 24 55 -36 -49 29 16 25 6 31 -54 -21 29 -37 54 -9 50 25 33 -28 27 32 -7 39 -49 9 -4 -15 -40 49 -44 43 -2 -22 1 -29 45 -64 -44 -45 35 -32 -2 -34 -14 -52 47 -3 38 36 -8 21 -69 21 -22 -9 -74 56 31 -35 -22 7 49 10 26 50 30 39 -5 -19 -19 1 -67 8 -12 5 -40 -6 26 -46 -44 -42 11 -9 19 48 -70 47 4 -47 -2 -45 -16 44 -43 4 -34 -26 19 -45 50 -60 -66 22 -20 13 13 -63 18 -58 -36 -48 5 -23 46 -6 -18 -4 33 33 -45 -46 -8 -48 67 -54 -8 -63 -57 -40 44 -68 42 -27 -69 -55 1 -26 -12 -5 -22 39 5 -28 -19 -5 -46 19 20 -50 -46 54 55 -13 -64 58 -19 -23 -47 -47 -23 -14 4 -75 0 -26 39 -58 -36 24 -54 44 -72 -36 37 -47 49 12 23 -54 -35 38 -35 -12 54 18 -31 47
2 61 -3 -3 -31 12 -15 -31 -6 29 -44 -71 -16 -31 35 -43 -20 4 -18 -57 -73 45 -12 17 -6 -57 3 45 -33 -24 -71 5 -17 -51 14 -62 45 -60 45 8 45 -29 -34 64 -60 -36 33 15 -60 -29 46 -65 -35 -25 -35 -60 31 -8 9 -30 -24 -37 -55 -12 5 -44 -40 -61 -35 6 -10 -44 6 -53 -32 -66 -24 -30 -11 -56 -18 46 -66 -8 -19 56 18 26 -15 7 -28 45 50 5 -70 35 43 26 -49 -66 -37 -21 24 68 -16 41 58 28 -1 23 13 -54 13 -33 43 16 35 -54 59 -68 -2 49 -2 11 48 67 49 -61 -56 32 3 53 7 32 26 36 42 -19 -39 -6 -20 -50 4 34 25 -64 32 14 18 -20 -44 -11 2 14 19 -71 -32 15 -9 -44 -18 5 -65 49 2 67 9 22 -18 -22 -24 66 -30 -34 6 -68 30 57 30 43 -19 35 20 -67 -16 -22 -69 -55 -26 -48 52 50 -70 -46 -12 28 -29 64 6 -42 -40 40 36 -32 -34 51 -7 -34 -17 3 -43 17 36 -16 -31 23 60 8 -48 -10 -33 49 -7 -44 -53 66 -8 -10 -3 -68 5 -10 7 57 27 60 37 55 -36 -31 55 -54 58 8 -46 -13 56 -38 -9 -60 29 36 -19 -9 -5 -1
6 -28 62 46 -48 -37 21 -37 -41 50 40 28 -9 5 0 39 36 48 -8 -54 59 -12 -56 -49 60 23 28 27 -59 31 39 -47 20 18 -30 26 35 -8 28 -56 -18 38 -61 45 29 -23 -8 -16 -54 28 41 -14 29 5 26 7 -46 -53 -57 -45 -24 4 -30 -57 -34 54 -52 4 -44 21 -38 22 57 46 46 2 41 -83 -38 -61 26 -17 38 -34 -5 -5 -61 -54 -23 40 -67 -35 47 -56 -46 36 -27 -46 -37 49 -2 6 11 -20 -39 53 23 -52 11 -38 -31 -31 -41 58 47 52 46 -10 60 17 -28 46 19 33 -38 -4 21 40 -40 -60 -25 10 -8 42 -33 60 4 -60 39 -4 -2 -61 6 16 -23 -29 4 -49 -56 19 -38 14 -40 17 -48 -16 19 -64 -15 -21 56 14 -59 33 53 -43 -38 -16 -36 49 -57 -12 -33 13 49 5 -66 -15 -58 -62 -7 -5 40 34 -53 19 -23 -39 -57 -51 30 -19 -57 -52 33 67 -10 -23 -23 -13 51 -32 -11 42 -59 -69 64 -32 50 51 15 27 -48 -29 65 -29 -11 38 -61 -1 -47 -33 -27 21 12 75 -14 43 16 -53 55 -72 -45 56 -42 -61 -82 -16 -34 -57 -50 -4 -51 30 -87 22 -5 -25 62 25 -39 51 -60 -37 32 -4
60 -13 0 53 -23 3 -33 -5 -3 5 -49 18 0 1 -10 58 33 11 -3 -59 -34 8 1 -47 1 -19 54 -20 -16 50 44 -24 -33 54 -28 15 26 -1 -14 44 7 49 65 -47 -16 61 -39 -17 9 -41 -30 6 -15 52 -34 -11 -8 -45 -29 10 -39 -60 47 67 -67 30 25 31 9 41 19 -49 -34 39 47 48 -4 48 -42 -41 -24 44 33 49 -5 52 28 10 42 -47 25 -53 17 -42 -20 -78 -55 22 44 -47 64 -42 41 41 -28 -46 -5 -44 34 2 17 6 45 -21 55 -42 -44 -52 3 58 60 59 -14 62 -55 -2 -13 51 -6 51 7 -46 49 54 -20 18 -9 29 -28 12 -53 50 46 24 -29 34 -47 43 30 27 -51 18 -15 59 28 -46 35 -17 -30 -32 -21 0 -59 -31 -15 21 -27 -26 -19 -6 14 82 63 -57 28 -40 -15 -33 45 -25 -21 24 33 64 -53 5 15 46 14 -43 28 -41 -16 14 33 -13 -44 12 -49 47 -19 49 39 55 7 49 -51 3 -23 18 17 30 -47 -7 34 -21 26 -23 -47 -40 -12 4 41 62 -45 32 16 37 10 33 -34 29 39 26 -11 54 -29 -47 31 60 29 -8 -24 -26 -69 -11 -21 -28 -47 -5 5 44 38 29 70 -17
-27 -5 46 27 -25 12 45 46 8 -11 25 40 21 49 3 -15 25 -58 -14 -5 -52 49 -29 36 1 -29 41 22 4 -5 -15 32 29 25 1 -26 -33 32 -36 -43 12 18 -49 60 -35 -57 -8 7 -45 28 15 -50 25 45 34 2 14 -19 15 -18 35 34 5 -36 -33 -60 13 17 36 -30 32 5 34 0 -1 33 -15 -36 20 13 24 -13 24 -8 56 11 48 1 -21 -46 -48 -61 44 -1 36 -29 -52 16 -17 8 59 52 30 -55 42 -70 10 60 -36 -36 -26 -38 42 9 -60 -30 -6 33 56 57 30 -16 11 -2 -50 55 52 58 46 -64 -53 -6 -52 -58 -39 -4 -22 56 54 -6 -20 39 6 27 -16 -10 10 36 -9 42 39 -51 -14 -53 -3 50 -12 -11 39 -13 26 -7 45 -13 -45 43 36 60 53 28 29 -26 -60 36 21 53 -15 -11 34 37 -3 32 16 -58 -62 -10 -54 -26 22 -33 34 -55 -7 -13 49 41 42 -13 17 -35 32 20 -2 -32 -20 37 -62 -62 4 63 -27 23 -41 53 22 5 -45 19 -14 65 -59 -7 14 -11 64 -6 49 14 -14 -33 -20 -29 -33 37 -36 18 54 -9 -62 -13 36 19 56 -23 30 30 -16 -32 49 -9 -9 -33 18 5 -37 -31
44 -9 -34 -43 -67 12 -84 49 -56 17 35 17 60 -19 -25 -59 39 -55 -14 -9 -51 29 43 -36 43 29 -23 -42 -26 38 -19 -75 -51 -18 -26 29 -16 -20 0 -53 12 9 -28 -51 -51 -65 50 0 -53 7 -56 39 54 46 54 -25 -43 -73 47 -60 -23 15 19 -49 58 -16 22 -12 6 9 -21 4 -3 53 18 37 -5 14 -56 -45 5 -13 69 -23 60 50 7 22 59 -67 -2 11 50 19 -26 4 24 49 -6 -33 -33 -4 -16 -47 28 -40 20 13 -25 -24 62 -27 -19 38 52 36 23 52 -6 3 39 -12 -33 -24 -5 -52 51 -33 0 -3 -59 -33 -37 -43 20 38 -68 -58 -33 -16 31 31 14 -65 51 -41 -52 -34 45 17 -29 -46 33 -19 25 56 -58 72 92 -54 55 -41 -35 -32 32 61 -7 -73 -41 -35 -26 -14 -51 -16 58 47 -78 -4 -41 41 -4 46 -61 52 52 -8 11 5 -43 -52 21 -45 43 4 -48 59 34 -16 50 45 45 35 -8 -48 10 14 12 4 -20 -53 -55 -46 -18 26 9 -21 22 -61 -4 -29 -23 -79 25 -15 3 61 -8 49 -21 8 56 2 40 -11 -47 11 -30 17 46 19 52 -52 -44 -2 22 -40 7 -44 6 -67 -13 30 37 -42 -63 34
45 3 -55 60 8 20 40 17 11 24 11 32 55 32 72 32 -48 3 51 -12 41 42 48 -40 7 53 11 -22 -43 -60 -23 59 2 -21 -10 -45 1 30 -42 6 -53 -24 0 47 15 -20 -42 29 -12 36 16 19 -9 -49 11 21 -1 -15 -55 -21 -4 63 49 -32 28 50 19 52 39 -25 36 -33 -16 -42 63 -18 37 -9 -41 -2 -31 9 -4 -22 45 -69 -21 57 -22 10 31 38 -34 -34 -45 -61 4 -16 54 -51 15 -62 65 14 -24 31 45 53 46 20 59 54 -29 16 62 -3 -15 23 33 -52 41 -13 -43 -48 -44 5 51 6 -26 9 -37 -41 0 -55 45 -40 24 -27 40 -42 36 -26 -58 49 -18 -14 63 45 -51 58 -15 -3 25 -26 19 0 -13 71 -18 -54 -12 -26 -20 52 -11 -52 44 51 10 15 -41 -60 -14 7 19 31 -30 40 13 62 15 25 5 51 37 -62 -13 19 -19 44 10 -27 60 -30 39 11 63 30 51 27 23 -38 -56 44 -41 -37 -42 18 2 -18 5 -26 -37 -34 -15 -35 -10 -18 23 -19 -40 60 48 41 55 -34 7 19 65 -31 10 10 -54 -5 38 69 -17 46 -13 44 56 41 -43 16 -38 46 24 46 -31 13 -14 -3 0 42 68 3
32 39 -26 34 -29 50 40 -8 -54 78 -22 31 32 62 75 -61 50 -16 -41 -5 -52 41 -8 -28 -35 -47 -12 37 44 -2 -8 -43 35 -50 42 -42 -5 66 -26 -25 -51 0 -5 61 42 21 59 29 69 79 6 30 12 -33 -24 -42 -33 -7 -38 -7 -47 15 32 5 32 -6 -54 -72 47 22 -6 -16 -57 18 -53 20 -56 72 10 -21 62 4 -66 49 -36 59 22 -47 -30 -17 -17 -7 78 -14 -56 33 19 -11 66 48 50 12 50 -50 28 -41 -6 -9 -35 -32 -56 -38 -51 -4 -15 -26 -10 -37 1 60 21 33 55 -35 12 55 68 -26 78 23 34 58 -53 54 -42 -57 46 -56 52 21 -38 -21 -60 37 29 -15 9 55 -4 -22 -19 45 63 -17 -57 -59 -58 41 22 -9 12 24 -60 -41 -25 35 50 -43 -55 -8 -28 58 -42 24 -26 -44 -67 -46 -20 -72 -56 48 -15 -25 -53 30 47 67 66 0 -13 -56 64 -18 -60 14 -43 1 34 -38 -14 -30 10 -4 2 18 -15 -62 -16 13 41 27 0 30 -99 45 25 22 57 41 -53 49 20 56 -1 -6 8 -32 13 28 8 46 32 -38 16 48 -23 37 41 -29 -12 -52 49 -2 59 51 20 24 -56 31 -29 -44 -13 75 8 -9
35 -29 41 -63 6 25 -10 49 -49 25 -22 -32 -9 40 -23 -33 51 -7 23 -27 -4 59 -48 42 -59 -41 -1 -60 4 -56 -13 62 27 13 -36 -40 -33 24 47 67 -28 -24 33 -8 -66 8 -25 -48 36 37 19 31 -38 55 -54 -31 -42 -28 -50 -46 -58 -31 -43 43 -35 8 33 39 -1 26 2 -29 20 -60 72 -14 9 -3 -34 54 12 -44 -7 33 -13 -15 -45 42 41 -6 7 -88 -58 21 -43 -61 -14 -55 -27 -58 -1 -32 15 4 50 -51 -56 12 6 22 16 10 -59 2 -21 56 -38 -3 43 -21 35 -33 -18 31 0 -12 49 50 -33 44 51 -41 -15 26 -32 -32 24 -8 -24 47 38 49 51 -28 31 -33 -49 -65 49 4 -20 3 16 -74 47 -8 -63 24 -66 15 -30 -54 -4 -60 -53 -1 -55 45 -53 32 -57 -42 30 30 40 8 -13 0 -33 -66 25 4 26 52 -57 -49 30 13 -47 -2 26 58 -31 -23 -18 -22 68 -34 -78 41 -81 12 32 -2 -6 -65 -37 37 45 29 32 -58 47 -28 -35 -26 -23 -16 -47 24 44 44 -15 -45 81 1 25 -3 -51 -36 -17 -31 29 -28 51 -36 33 -1 -36 -71 -37 -13 -37 53 -38 -34 -43 -63 -18 -57 -40 -75 21 13 27 50
16 44 35 1 33 6 -40 30 43 24 1 12 34 47 -35 11 -44 26 19 -49 -40 18 -39 58 -24 -2 35 55 -28 22 41 -42 -65 -45 17 -7 53 -32 35 -32 5 50 5 -49 -57 2 35 16 54 29 -23 60 -30 -42 19 -35 -41 0 -44 66 53 -28 55 17 -33 72 -28 -41 67 -47 -7 2 -64 -30 13 25 -21 39 -15 63 -44 -42 -37 -43 -18 61 -9 29 -23 -64 45 61 36 -63 -49 -48 54 -52 -23 -14 10 -2 12 -16 30 19 -45 54 70 24 44 -24 -22 72 57 29 26 26 -48 19 14 -9 49 -47 -16 -2 -42 18 39 -23 -31 -51 -10 -64 51 -39 -6 -28 -22 -41 22 51 -27 27 30 -69 -37 -37 -41 -24 -7 45 60 29 33 59 -51 -2 18 -44 0 2 -8 -16 23 -69 -65 -46 -56 33 -10 70 -34 37 -22 26 73 -59 10 53 -24 30 -50 3 30 25 42 -56 30 33 -31 -13 3 37 19 5 -49 -71 -45 9 -12 16 -57 6 -13 47 -23 -40 -37 -9 45 10 -9 -42 55 18 15 15 2 38 9 23 -50 36 18 66 52 36 -10 -43 -46 4 -65 -12 -53 7 -58 -3 -7 43 51 20 36 -22 7 59 -22 -29 -37 3 40 -28 44 21 -10 24
17 -33 -57 -39 15 -22 61 -48 -31 33 -18 -4 -49 -7 -36 -39 -16 -26 44 41 -28 20 39 50 62 15 -19 23 -41 39 35 29 13 46 8 -1 3 51 32 19 65 44 22 70 63 10 52 23 68 -14 64 36 -44 -16 -70 0 -16 12 33 -47 30 -54 55 -31 56 8 13 14 35 17 -24 41 12 21 -5 40 51 15 11 -45 19 -1 32 12 -1 44 -41 46 29 66 -37 5 40 -29 -10 32 -7 46 19 15 9 -55 5 7 -26 -77 -27 14 54 73 52 30 -38 79 54 11 -18 -67 64 51 21 -47 32 -11 -30 -6 17 42 6 -67 -19 0 25 -16 19 4 -32 -42 4 17 56 -24 24 -4 8 9 41 -36 29 56 58 38 6 1 48 -62 36 12 -31 38 54 35 59 -57 -19 -45 43 -51 -32 4 11 -28 -8 20 -38 -54 -38 -21 -42 7 -30 -47 -8 -64 36 45 38 60 -31 54 57 24 2 50 3 -26 20 44 56 15 58 -18 10 47 27 -27 -14 13 60 42 57 29 3 -12 0 36 22 73 -2 1 -41 -46 49 37 -42 44 19 -40 15 17 -37 -30 -42 57 25 -29 20 -60 -52 -36 -3 -48 -52 3 7 7 14 42 61 8 5 36 -25 75 -42 -55
-12 -6 -11 8 -49 19 1 20 56 10 33 19 -20 -14 17 47 -67 -65 -2 -55 -31 -71 39 -5 -28 12 -52 63 60 -20 -34 -47 52 -39 -52 61 29 -70 -8 10 -49 26 23 -38 -6 -35 -32 -56 -16 33 16 -60 -64 -63 -48 11 27 38 11 26 24 6 -25 18 65 32 49 8 -22 44 77 25 17 57 -62 -48 47 9 -34 -42 -17 -32 18 52 -13 38 15 52 76 30 -67 -62 40 -12 1 -19 -79 49 4 -55 32 -6 -50 -48 -83 -48 98 -52 -2 -51 -16 -13 -5 -87 71 -52 34 -35 -29 -38 -8 -52 -75 43 32 -34 7 -27 52 53 28 23 -2 -48 -33 9 -23 2 -100 27 -48 41 -50 -61 46 7 -80 -28 57 -65 23 -8 -25 -5 3 -53 -39 8 -67 0 -11 26 61 -61 10 -51 42 56 23 -64 64 -38 1 -45 -48 -18 -32 1 2 -35 1 16 17 29 -46 20 -51 34 34 -9 -54 -70 53 -49 27 9 30 53 -17 -63 56 -21 4 -37 -15 -28 -28 -24 -5 -53 44 4 -42 22 87 -69 11 42 -46 -49 -47 -33 40 -111 -16 28 5 2 64 9 -94 -7 37 45 14 57 85 22 -25 -75 -76 -100 48 -107 8 2 -46 51 -5 10 -55 10 -4 -4 25 -46
30 -26 -10 -1 -48 13 -61 6 45 -34 9 4 20 41 -52 -15 -12 -16 -49 -34 2 -91 3 40 20 -54 -25 11 30 -49 -32 45 13 -4 -69 -3 44 36 -46 9 8 -53 -60 80 -10 -54 19 34 69 33 -61 3 -61 10 19 -63 -50 65 35 -45 38 -6 -51 28 -30 19 -37 15 -16 -21 -50 -17 -61 11 90 -58 51 49 8 78 -10 11 -9 18 71 -63 -44 -37 -31 0 -18 -50 -47 41 49 54 -62 3 37 1 65 -1 -3 33 -3 53 12 -31 5 -67 67 -10 -54 -23 -41 -39 -24 -14 -2 -9 16 -9 29 -54 -10 -41 74 58 45 -46 61 -73 30 -25 -27 -54 45 -29 11 -6 14 -71 35 53 -51 -11 -8 8 23 -34 -49 -14 3 -53 15 -58 5 -23 -70 36 18 -44 33 55 -15 -52 46 -4 44 65 0 100 46 18 -21 -81 -17 -41 -24 -34 -57 -50 -56 47 -47 3 -6 -61 10 -17 60 -69 8 -16 31 -64 67 -6 13 61 35 -49 16 1 -16 4 -24 -18 28 -58 56 8 0 41 54 36 -21 61 -10 37 20 -17 2 62 2 43 1 -27 -37 32 -33 -6 46 28 22 -18 -16 -58 -59 59 -56 -35 -74 79 -65 26 -23 14 -16 -14 43 -38 56 35 27 40
32 10 17 -10 -43 47 -82 35 -66 18 -40 -24 18 20 -19 25 -54 12 -15 -51 -5 44 -3 37 23 -8 6 -55 -35 10 -58 22 57 -14 5 -53 -13 32 -43 -70 -44 17 46 -104 44 42 54 2 -106 -15 -44 -76 2 37 5 15 -79 -24 -37 -54 44 -27 3 23 -55 -1 -55 26 0 27 -16 16 -58 31 -119 -72 -40 -24 28 -44 -11 3 18 6 45 15 -29 -51 69 -7 29 -43 29 -10 -82 -6 -8 -60 26 8 60 -67 46 34 23 56 -33 -9 -26 -17 -6 57 23 -84 -53 -3 -55 78 -74 -7 -50 49 31 -2 12 -22 13 21 84 -2 65 13 -36 46 6 52 -7 -27 -40 -59 44 -64 -35 -121 86 -39 24 20 26 -41 69 -7 -111 0 -29 -27 -26 -17 28 -17 45 -31 -14 -71 -68 38 48 11 2 -41 42 -3 -22 -54 35 -34 -99 48 53 -35 29 -33 -73 27 -13 -19 20 -71 88 2 7 -48 83 -54 -12 -4 11 83 44 14 -17 -16 5 -40 -61 -59 -22 -77 -61 28 -59 -32 -22 -56 -26 23 41 8 -121 -100 57 2 41 -8 10 -16 -66 57 71 -51 -21 -68 -76 -30 -22 -25 45 -30 67 -60 4 -89 -34 -123 75 -12 51 46 -42 -3 -27 26 54 -12 -8 -76
-61 -8 40 -42 72 -56 -50 4 9 32 0 -37 -8 53 87 6 0 -48 -48 -3 -38 -41 0 -69 -34 43 5 -39 -38 -48 -8 -24 -2 -24 -53 -82 -12 -30 -47 31 3 44 -24 -28 37 -54 -66 -56 -46 58 46 22 17 -8 23 -36 -30 37 -51 -10 -11 -56 -64 41 55 -38 10 35 18 43 23 76 48 33 -66 -71 -47 19 -13 11 -52 4 -10 60 6 13 -27 43 -16 44 -49 -42 55 -26 -98 -15 48 -17 -58 25 59 -51 52 -58 -67 -47 -8 -68 -27 49 9 54 19 -101 -3 17 -3 28 38 -53 -20 49 52 -49 -32 -49 14 2 -17 -27 56 54 -58 -23 -9 -2 -29 -42 -118 -11 -56 5 -3 -30 19 -28 -58 -17 -44 -28 48 -23 30 -30 6 -1 -71 47 -42 19 -82 7 -13 -25 -33 35 54 -27 12 3 13 -18 32 0 -16 -17 -103 50 32 -51 -78 3 1 -29 8 -43 24 -41 40 -50 -16 0 53 -58 -20 -55 -61 38 -30 -95 35 -16 23 49 20 20 -63 -56 -50 39 -15 35 -11 -17 21 6 -42 -32 -56 -37 10 -65 -33 -25 -31 48 -38 14 -19 -22 35 0 -74 -47 -59 73 -43 18 -13 18 -38 -97 13 -76 52 16 22 -33 -14 6 57 -56 -31 -23 -1 -54
-20 3 47 -57 -5 -21 8 50 -47 -53 -55 -29 -55 3 69 -38 48 -11 30 -50 57 -60 -35 -70 6 -38 35 -48 -14 -35 57 -45 -1 2 -71 -31 -13 42 21 29 -44 -80 48 61 -41 -27 -33 -15 -1 16 -51 13 65 51 -51 -35 -11 19 34 -101 -56 -31 11 48 53 -19 25 -87 -31 8 67 22 48 62 -31 3 -56 40 72 -43 57 -16 -14 -23 -64 -52 -14 -42 -33 -33 38 12 13 54 -46 22 -26 -51 -2 -3 -48 -76 -48 20 -64 -17 -37 41 0 34 -29 -47 39 52 67 25 19 -56 53 -28 -1 -4 -9 63 52 36 -41 64 60 -47 -50 35 34 28 -19 -31 -2 -35 -58 20 -43 42 18 0 -39 -31 -6 -27 39 -68 -12 8 48 35 14 -4 -18 26 31 9 26 -65 35 -62 28 -39 72 -58 -31 72 77 27 39 20 17 36 6 18 17 -44 53 -58 -78 -2 -34 -16 -17 42 6 -27 30 -61 43 -5 10 -35 -36 39 -41 29 17 66 -31 -51 39 -9 18 -21 -28 12 18 -54 59 42 7 47 -8 -52 -33 10 47 -39 -45 -12 -10 -21 -44 -40 -17 40 10 -32 18 27 57 7 43 1 66 17 -41 -34 -29 -3 -39 -52 29 4 -27 -1 34 -40 15 21 56 63
-12 -49 -45 -40 -55 -18 37 -43 -62 44 -7 1 40 13 27 -32 -50 -15 -9 50 0 4 30 -48 3 -20 61 -13 4 -35 20 -42 46 24 2 -23 60 -46 57 -11 -67 -9 -49 -1 56 -3 7 63 54 -24 -24 61 28 -56 -7 -24 45 60 29 41 1 43 3 24 -26 -36 3 -10 -63 -47 50 4 62 -56 31 -43 -41 50 51 32 17 18 -18 34 -50 -50 24 12 66 -17 -13 26 29 2 -49 32 33 -63 -56 -59 -2 34 -62 76 26 39 36 38 -20 16 66 -38 62 -14 26 -18 22 61 -32 -14 -63 -33 -58 -59 -29 -27 -19 5 -6 -2 -54 -24 54 25 -11 -66 -16 38 -8 5 -2 -21 -17 -34 -14 4 -65 -56 48 27 39 -32 33 3 26 52 59 51 58 18 -7 -31 -39 -48 -50 -9 56 -44 41 -30 -28 42 -18 -1 -33 30 62 19 49 -45 32 -51 52 -55 34 13 28 -35 -39 -22 42 49 10 -33 29 -17 -33 7 -7 -35 41 -51 -21 -52 8 -60 15 -20 -38 62 22 -44 -20 -28 45 47 -9 -43 50 -25 50 51 -59 25 8 34 -11 -54 46 -59 -24 15 37 -7 -3 -11 5 -10 -19 -14 26 30 38 -12 -63 -25 -41 57 -21 -62 -56 23 -26 -48 -38 -16
-59 41 14 15 -16 -47 54 34 36 4 10 -18 -14 -38 -48 -5 45 -23 36 -29 -22 -7 -1 -30 38 -10 -9 -17 11 24 -43 -55 -9 -25 -29 33 39 48 -60 28 60 25 46 68 -79 23 -19 52 -39 7 -43 -36 41 -55 51 -25 69 -18 -30 55 -47 -8 28 -49 -4 23 12 50 -53 38 37 -34 7 -13 -50 -40 29 -72 59 25 5 36 -44 67 46 35 58 2 -2 -18 7 -3 40 48 44 -5 6 14 41 61 -15 18 30 -13 50 40 42 31 34 16 20 -48 -18 50 62 -21 61 -22 -7 -58 -27 -38 -41 -51 -43 -19 5 51 11 -13 -23 1 -29 36 34 -39 16 -3 -27 -49 -2 63 31 -3 26 12 -49 3 41 56 18 -12 -51 54 1 -39 -29 -55 -55 -30 58 56 -61 -1 -27 -22 -45 19 30 -44 -12 -39 18 44 11 -35 34 -6 -38 67 67 -50 -53 0 49 -29 -13 58 -62 32 -20 42 49 25 25 47 16 23 -26 -26 -31 38 60 -31 -44 51 31 33 12 -46 33 21 -15 -19 62 -47 27 16 70 -8 3 30 31 73 -44 -59 -41 21 -11 -41 -30 61 62 5 -48 31 21 -31 46 -62 -16 -34 -61 5 -32 27 -6 7 -45 -9 67 56 34 70 28 23
69 -9 -2 -37 -53 22 13 39 12 33 56 49 20 -19 47 46 33 21 46 1 -39 -28 -16 9 -62 -7 64 -31 -7 11 -15 -70 -43 -56 -33 16 -33 34 19 2 56 -17 31 -42 20 23 -40 -37 -27 -1 15 36 -55 30 -11 -33 -14 -54 -45 21 11 50 -35 35 -62 -25 64 -34 -47 -25 33 -54 -47 -20 -45 -51 49 6 46 -56 -16 27 -35 28 -13 -34 21 -60 3 -3 -41 9 -57 30 1 62 28 -31 -56 -19 36 60 51 18 9 60 2 22 6 -19 -59 38 13 28 9 48 13 49 -39 52 21 43 1 70 -2 -38 2 57 -16 33 -6 -10 -1 -34 36 -12 49 -19 -32 55 -63 2 -21 -18 18 31 -50 5 -35 26 -3 -27 7 -31 15 45 -10 -30 35 -7 -43 -35 -65 -36 16 -44 -9 -27 -48 57 -12 67 45 -20 -32 -1 -46 27 -11 -53 28 -44 37 52 63 49 -55 30 69 -9 23 74 39 -65 36 -36 -17 -55 47 -26 43 21 68 -28 -42 13 28 -45 -32 -54 -7 -60 -54 -18 -10 66 -45 -37 39 -43 5 -62 -4 -35 -76 31 25 62 -31 -5 -55 -6 -34 -14 38 3 -67 29 32 27 -29 -4 14 -2 -55 1 36 -33 13 -25 11 0 -9 -3 66 -6
14 54 -59 -51 36 -13 8 -33 -62 -35 19 -38 -55 49 -22 -52 42 5 41 12 2 56 -2 32 -30 7 69 63 -61 -61 -49 -48 32 -61 -13 -62 -16 -31 -14 -53 -52 31 -45 -3 16 -43 -30 -43 12 -53 -28 -22 -56 14 35 38 24 49 4 33 -56 -27 -43 -37 -35 -37 52 -25 -15 29 50 27 27 -35 -53 -1 -58 -49 -58 -11 -53 36 -6 -13 -19 -8 17 -42 -13 18 31 52 57 4 35 -35 7 -69 49 65 5 12 27 43 -58 -3 10 -61 28 60 13 51 -61 -55 36 44 5 25 16 -56 30 -52 44 -63 -61 -28 40 44 -17 -42 -26 -9 -65 -59 0 53 -20 61 -9 4 22 -43 37 -63 -59 24 -24 -44 -27 -57 -50 -15 -68 -23 19 -36 8 -2 -6 34 6 -13 -3 6 50 31 -14 38 -49 -28 28 31 -47 -4 40 -25 -44 7 7 14 -19 23 17 64 -10 -22 -48 38 -20 -1 2 -7 40 -26 0 30 7 42 9 -22 -31 18 -4 -45 10 11 -49 -14 -31 -57 11 -47 -26 15 57 -7 -60 -55 -41 30 -66 -17 -37 -65 3 24 23 59 -4 -20 -33 -71 42 -11 -40 -43 28 -10 -70 52 -19 -17 -49 -34 -78 14 -27 -5 -40 -27 -29 57 -76 29 -19 23
50 -48 39 -59 58 -28 -67 16 -8 31 4 -2 11 -17 -35 -85 -25 -53 -21 -20 66 -9 -17 -34 -2 -45 -12 -28 -34 41 -7 26 24 -47 13 7 21 -36 16 -25 30 -7 7 51 20 -21 12 51 23 -66 14 31 -62 46 -27 28 -3 35 42 7 9 -51 29 43 -63 44 -44 57 -20 -19 -32 -7 48 -20 69 -56 -62 12 -43 -47 -60 39 -29 30 -4 -16 -17 -8 -12 -23 -20 32 33 -22 7 32 -15 -14 -6 47 -19 -55 -18 54 -20 22 -67 31 7 13 -17 -10 -65 -24 -56 49 -16 40 -9 -13 52 -24 -25 13 26 43 -28 43 8 -23 -11 -63 20 -67 -51 -46 -32 -35 9 2 -65 -34 -10 59 -7 1 32 27 -2 57 7 -56 72 -52 -18 16 -17 -70 -5 -28 49 21 -13 -53 7 9 -40 -35 26 5 -23 53 21 25 -27 19 -25 -4 55 12 3 4 9 -57 -48 -50 1 30 -3 46 -62 -20 42 -26 54 -3 75 -5 -75 6 48 29 -61 27 3 -53 -55 36 55 22 29 -53 9 51 -8 -43 50 62 -39 52 -37 19 -36 14 -40 -35 22 34 -54 -29 41 44 -32 -36 -24 23 5 40 25 69 27 30 -61 93 3 -20 14 -6 -22 49 8 -29 28 51 21 55
-32 15 35 -50 19 -54 53 17 -9 -8 -31 57 -32 4 38 46 -37 18 -48 51 -27 -18 65 17 43 71 31 -41 21 23 53 -17 -84 18 -43 22 -46 20 52 55 -46 -12 -31 70 25 -12 9 38 42 2 53 -42 -18 37 52 47 18 -2 1 -24 -32 -68 -55 -45 31 60 59 -18 -50 -50 -60 -33 -31 -14 -5 -34 -20 -41 -38 -61 23 14 16 -33 29 -39 -55 -58 55 -45 47 -28 -25 -54 4 37 -62 -54 19 45 -28 1 39 -1 24 -42 39 -38 63 -46 -31 44 6 24 35 -6 60 -14 3 12 12 39 -44 -63 14 52 20 -26 14 31 -55 41 -23 -3 -45 55 -10 60 -11 -58 -18 -33 -40 46 -40 -24 35 44 -46 9 -45 27 19 -1 -55 12 10 54 -33 -7 -43 56 34 -27 14 40 36 -20 6 74 55 -28 -62 27 54 -61 -5 27 25 45 -17 -1 -14 5 -33 -28 35 44 -44 -27 62 -7 41 47 42 20 60 9 11 45 56 -13 43 -27 53 -42 14 11 5 -51 -23 -26 62 -37 61 -32 73 25 29 -8 31 31 42 -24 0 38 -1 48 41 72 -35 47 -22 58 -47 -52 13 34 49 5 30 -65 42 -22 -14 47 6 7 35 22 -55 -12 33 35 25 -32
-58 -9 -57 -54 -40 31 -26 29 42 59 -60 -20 52 18 40 -48 0 -3 -5 -3 -69 -50 -19 43 -61 -49 33 -5 17 2 -3 54 53 41 16 -60 15 -56 44 24 -10 24 -26 34 -41 -47 -48 7 -4 47 -9 32 16 38 16 7 -11 -4 -32 45 -48 49 -24 57 -51 63 -35 12 2 57 55 -46 40 49 11 30 -8 -54 -23 -56 32 -41 51 41 51 -15 -28 26 -45 -1 -25 41 0 -49 12 -46 -64 -15 37 52 4 15 -42 35 31 -51 26 -47 8 -19 -69 -12 -47 -41 9 -55 -53 -9 -60 56 13 11 -14 0 -18 7 28 13 35 -53 -14 24 4 35 -7 -3 -19 55 -56 63 -49 -60 -51 57 13 -68 -5 20 -12 -37 55 -35 -30 1 -22 40 39 45 -4 15 49 1 13 -37 -64 13 33 -2 -22 18 55 29 -7 -20 -3 -36 54 53 17 64 -13 2 15 -55 23 31 13 -35 32 -35 8 -36 -26 0 -23 -50 -7 71 -74 -14 6 -8 1 6 40 -62 21 -46 40 24 29 -26 -47 24 -11 -54 -35 -36 -18 -29 -37 31 -23 -65 -49 -49 26 59 -13 -54 -34 -50 -16 34 -32 2 -31 24 -4 -13 47 40 -39 -13 -36 25 -29 57 23 -8 58 34 40 -51 11 -26
-13 21 -45 8 -48 -4 -32 24 -21 36 -51 56 -65 3 -38 -46 6 -36 -19 69 6 54 -16 -15 -43 29 -50 -8 23 -51 -19 23 -40 -69 56 -3 63 -5 26 -25 -3 10 -44 49 -2 -40 -40 -6 29 -4 51 8 -50 -24 43 -76 41 -13 57 30 10 -7 65 -51 29 -19 33 37 37 -62 0 19 27 -33 35 20 57 -29 22 -15 17 -40 10 -5 46 -9 -38 -2 -6 -6 -12 25 24 9 -15 -46 28 29 -57 -28 25 -50 6 -15 25 -37 -32 -26 -35 34 -37 -22 -21 -35 34 15 2 18 -14 5 24 -67 -54 -30 3 -44 -21 -6 -25 11 45 41 35 -53 9 47 -16 -43 68 -40 57 27 -59 -23 -13 0 -21 24 -39 -41 33 40 51 12 -1 -39 -6 -4 13 25 -10 23 -43 0 31 -22 -16 38 -30 -40 -6 47 53 -16 -11 -3 33 38 -40 -10 63 58 6 -16 -49 -52 9 -9 27 27 -57 61 -16 12 -66 -29 -3 -1 -44 23 48 68 -29 -51 -56 -17 37 -34 47 -9 40 15 8 -29 -18 0 55 15 -14 43 35 55 -56 72 -33 32 50 -18 -53 -20 -45 -34 -48 -48 -35 57 -8 -47 -48 37 39 54 3 37 -59 1 -36 37 58 57 11 -26 7 18 13 -8
-11 39 47 51 -58 -2 -12 -34 1 2 20 -22 30 -23 1 -27 58 -27 28 58 -30 15 -6 23 -9 28 22 -9 -36 -14 -6 22 -27 -2 -42 14 -48 34 12 53 -3 -4 56 -30 1 -35 -49 -38 -10 8 63 14 59 -44 58 52 38 45 19 55 43 -52 -11 48 -18 -51 57 -51 -49 -59 -60 15 -5 56 66 31 -51 38 33 19 -38 44 6 29 42 24 45 51 62 22 55 31 36 20 -65 69 45 18 26 42 -61 -42 51 -24 19 47 -14 -58 -19 59 48 3 -52 -45 -64 -64 32 -20 37 45 12 27 47 -16 18 -11 39 -47 -58 41 0 -5 -30 -16 -52 -48 17 -2 41 20 24 19 -28 -37 -35 -31 51 64 43 26 48 -9 -39 28 -28 5 6 -7 56 -62 -8 42 -23 -53 -30 46 -35 63 32 36 41 -51 -42 -1 20 -51 45 59 -2 56 22 53 -35 53 41 20 -20 14 42 -4 47 11 6 -24 -24 -5 41 -22 -26 -36 -58 -58 28 56 2 34 -38 54 -52 15 -12 22 -39 -10 -28 -7 7 51 -5 -47 17 40 7 34 6 10 56 16 35 20 9 32 -19 -28 25 23 29 -32 -38 -48 -21 -27 25 -30 -37 -39 14 34 3 -7 11 -16 -27 -34 19 -60
4 23 -28 10 -4 -15 -16 2 2 25 -59 -63 29 32 5 46 41 20 22 32 25 -42 11 13 42 47 -30 23 25 5 52 41 -5 10 57 -56 -24 -46 -65 25 33 -31 -13 -38 1 -22 30 -2 -19 -20 -37 0 1 -11 -34 -64 54 29 3 -64 -13 -8 40 -43 55 69 67 14 -24 27 -57 22 4 28 -35 -1 -29 -63 -5 -66 -41 -1 -21 68 -16 -44 -57 -31 48 16 -32 48 -48 0 -10 -29 -40 -65 3 1 8 -4 -55 64 15 30 -20 -41 14 -38 26 62 -5 -53 -47 58 5 -34 20 14 -42 -21 -42 -41 -31 38 35 53 12 42 25 12 30 7 37 -3 -28 -9 -2 -39 -4 -25 -51 -51 -19 -52 18 -30 -12 -20 11 12 22 -76 -44 -42 26 -36 14 -61 30 -45 -25 65 -20 -32 -31 -15 62 -22 -9 -41 51 -7 18 -33 32 3 24 -39 3 44 -53 60 68 32 43 -37 -33 49 -27 13 -9 -34 7 -5 48 40 -41 17 66 16 -7 8 41 41 -35 3 -24 -42 45 0 41 33 -24 -36 19 -43 -73 40 -34 -26 -43 -54 -44 2 15 58 44 -61 -19 44 -31 -65 5 -33 46 18 31 -18 -46 -21 -47 -23 -33 0 -27 -41 -1 -69 -11 -1 -8 6 -23 27
-40 58 2 -3 60 -67 -38 -16 -45 62 -8 11 -36 -27 -77 5 8 -32 12 -61 -25 -61 -75 -11 -48 -60 13 -6 -29 17 -61 -62 -48 -54 -40 64 -18 -34 56 -35 -30 14 -67 -34 -42 58 -4 -48 -7 -63 -50 26 5 46 -9 -33 -39 -14 67 -61 47 0 -39 24 56 45 -13 -49 -24 -28 -42 -50 -16 -35 -55 -54 -16 29 -21 11 -44 4 25 41 -11 32 28 -38 -68 -13 31 33 -29 37 -14 -17 -9 -20 -20 -46 45 1 -66 2 12 -4 -41 -3 24 41 21 -31 -65 -3 41 50 -4 17 44 -47 33 -20 -55 35 -44 53 -67 45 45 -28 59 -11 6 14 -62 18 55 -7 29 9 51 -19 -52 29 -54 6 34 -28 48 -15 22 46 51 -42 -55 -11 3 25 4 34 2 -51 -39 -21 -34 -17 -56 46 30 53 26 -19 31 2 54 28 46 28 -22 21 -12 -62 46 35 10 -67 -59 -67 33 20 11 -69 -41 33 20 8 -38 18 10 39 59 -42 -56 -36 -20 -48 49 14 24 -43 -31 -65 1 -40 58 -28 -32 -9 -66 -4 -31 49 -6 -33 26 -28 -42 52 37 -20 -12 -56 13 39 -15 22 51 35 31 20 54 39 -41 14 -27 -19 26 29 -27 -6 4 -36 20 -24 -38 50
-6 11 -26 24 51 58 -45 -55 -58 26 -33 43 42 -29 61 59 52 -37 -37 52 15 -23 -16 10 19 1 63 -11 51 6 -33 -32 -31 33 57 -19 -9 -36 42 -3 -50 -55 -38 36 -56 -60 -46 -44 38 13 -43 6 57 30 -31 -9 13 26 59 -59 17 22 -43 -28 24 23 -20 -3 1 -4 49 -35 61 31 -37 14 -21 21 -2 7 -6 -43 45 -60 31 -53 -37 -13 -22 -19 46 11 2 -3 -4 38 -56 -49 8 1 -28 1 -48 -58 -53 -55 36 -12 28 37 45 -24 -3 -42 20 64 -31 -8 -35 7 -45 -48 -30 46 49 -43 -29 -14 -28 -45 -35 59 61 57 -48 -52 -49 -4 -15 -35 -4 -34 -19 6 -44 -44 -16 52 10 11 -37 12 -16 -48 -13 12 -46 -10 -1 19 23 24 -15 -56 -58 16 -31 42 -51 50 -30 29 -14 -58 -58 -1 -63 21 -39 -49 -16 -48 -50 8 9 -33 9 -47 -57 8 -4 -55 -64 0 30 59 19 14 -63 58 43 59 -34 -16 -14 -45 22 -20 31 -8 -49 15 19 8 -9 -59 -56 48 22 -36 -24 -10 33 40 -50 -53 -11 56 24 -44 -56 -15 26 54 39 -56 42 -24 -31 -42 40 53 17 49 -2 14 4 -9 34 45 1 -39 -46 -53 24 -35
-62 -44 60 13 19 10 -28 6 -2 13 17 5 23 56 -29 37 -8 10 35 -17 39 70 -42 -21 -56 -19 -9 0 -39 36 19 28 27 51 39 57 -42 -45 -35 -45 23 -64 47 -15 20 -40 19 -19 -42 -43 46 -24 7 -22 0 64 28 18 -21 58 9 -47 55 3 -5 -40 33 -41 -45 16 -40 -48 -28 18 20 -37 39 -34 -18 -31 13 -23 13 63 11 -56 -2 -60 -18 9 4 47 -28 56 53 -18 -54 32 -54 1 30 17 -48 27 -31 41 39 -36 -41 60 -8 -40 -60 56 45 -24 18 70 60 0 55 -39 -56 14 45 52 -21 -61 57 42 42 -49 -10 16 24 40 -9 37 -29 37 -1 26 60 -14 25 -56 35 45 47 16 -62 4 6 -47 33 -39 7 1 -32 6 53 -32 -18 -10 16 38 -6 1 34 -55 39 -35 10 14 -13 -15 51 -52 26 -65 52 -20 -2 41 -13 -54 -19 -11 -42 7 -23 -23 3 -25 57 -21 51 -38 -61 -7 56 52 -59 -2 -4 -62 0 -40 9 -27 2 25 -22 18 -49 36 32 -62 60 53 39 -41 42 38 -6 50 -62 18 58 -18 57 49 -15 -49 -46 9 60 -14 -6 42 -58 -34 -31 -39 44 -54 -45 17 -37 19 -27 -10 48 -51 -66 -48
-53 31 0 -22 -68 51 51 -46 67 -3 -24 -51 30 48 -26 -21 15 19 18 -37 -15 36 -43 -24 -69 -34 -59 -45 2 17 -70 32 -8 -46 -70 -50 11 -45 -51 40 -48 16 -72 -17 61 -45 44 40 -9 21 -54 -30 -21 -8 20 -15 -43 -34 44 -54 35 14 21 -45 63 55 6 1 -15 48 -46 34 -6 -62 3 43 41 -47 -38 -43 -62 -10 -21 -34 25 63 2 11 -51 -30 6 -69 44 21 63 -9 -50 -14 54 -68 -5 -28 1 -15 46 -33 -37 -5 -52 -5 44 -11 29 8 15 -2 55 35 5 28 -16 -33 -78 -30 -33 -46 25 -14 53 -63 46 15 -8 -30 -33 36 39 -16 -14 -24 -14 21 12 27 13 -57 -42 44 -54 57 40 36 38 -25 -39 -61 -63 4 -3 39 59 -40 17 25 -3 0 -60 7 54 -8 12 0 5 -67 -38 -14 -7 -43 -31 -20 -3 25 -35 1 -50 -16 26 10 23 33 8 1 33 16 18 -1 62 -36 17 0 -8 -3 -44 18 6 1 0 -36 -33 -9 4 -2 -23 -44 -26 -9 25 -40 69 44 -50 23 -63 -5 -9 15 -17 11 -47 -8 48 -41 38 21 -49 50 -12 -8 -20 -45 2 -11 55 26 -36 12 -24 5 41 1 50 -52 68 34 -23 -38
-40 33 -41 -40 2 -62 53 12 11 -19 28 33 -31 -58 3 9 47 42 -6 -24 29 -40 -13 -28 31 -56 21 37 -75 -34 45 -31 -19 -22 -72 -36 -12 -60 -39 67 3 40 -74 -49 -77 2 59 68 75 24 47 -97 59 -18 -81 -13 -28 -25 -15 -43 27 -32 22 2 -25 -11 42 55 14 -17 8 10 7 -43 -4 13 21 20 -91 74 -44 44 -72 -52 -53 -21 17 15 31 19 48 -5 -24 3 86 25 36 51 -62 20 -45 6 -56 52 -31 51 -47 22 -21 -21 -25 -90 15 72 -75 36 -38 -6 46 49 -1 -27 2 -40 -29 -47 18 25 15 -34 -60 -28 -52 -55 34 8 -37 25 -31 -45 -32 12 -56 5 -36 -72 -1 -15 -13 1 -24 28 -15 -74 -52 -23 -40 0 -64 -48 -48 16 -45 -2 11 32 24 13 -48 30 4 40 -29 -26 -35 -15 33 -33 2 -3 31 48 14 57 0 -28 -62 -20 -85 -60 -23 5 -59 29 49 -36 76 21 -110 -32 48 29 62 30 -37 -12 46 -31 83 -43 0 -45 32 -29 -17 -26 -60 71 55 58 31 -39 20 -14 49 -69 40 -57 -21 -22 -28 -55 4 6 -50 -90 -20 -40 -67 -3 -60 -38 10 -36 -95 8 54 59 -52 59 -98 -82 -9 -22 -27 74
60 -17 66 -32 -50 4 -38 34 12 -13 3 -46 11 60 9 25 -4 15 -34 52 53 0 -52 -21 -40 8 -22 64 -28 3 25 45 -26 13 19 -59 4 47 46 -26 57 -66 -58 -38 -34 -11 -38 -43 -33 -34 1 39 -40 -53 -46 -45 11 13 -47 -27 -63 21 37 59 -14 53 -7 -52 -64 -48 -42 -6 20 -45 14 -42 -7 -52 -3 15 35 25 52 26 -49 -8 16 -15 -3 27 -34 57 3 -52 -69 4 -53 -13 -67 -6 45 -60 58 -12 -72 -54 -1 -27 15 -5 44 67 48 -33 -52 21 14 -54 -67 -39 -44 -60 -61 -14 29 23 20 -57 -45 -25 -65 -28 71 13 54 -22 26 42 -11 -9 45 -9 -47 48 36 37 37 -66 35 -27 -16 -39 -10 0 -29 29 -46 18 -12 25 38 -37 54 -18 24 -3 -25 1 47 -15 -18 -45 -40 -26 6 -13 32 -32 -62 -39 10 -66 -62 15 9 -55 -55 -49 -11 -58 28 -45 55 -35 51 -21 40 38 43 -67 -34 -3 -46 -63 22 25 24 -40 53 57 29 -56 16 -52 2 -24 -18 -53 53 -45 -34 31 2 28 -63 5 21 9 -16 18 -50 -62 -20 -50 -7 38 2 41 12 -14 30 -9 44 10 -35 -9 -53 -28 -40 -31 41 -25 11 -9 11 -60
-32 51 65 -53 11 19 -42 40 58 -32 69 -25 5 -3 -15 -28 -58 -41 -26 67 -47 30 -36 51 -23 -68 19 -49 21 -23 -42 -39 30 -46 13 38 -7 59 43 49 -30 -32 46 2 53 2 -60 34 -23 30 -47 14 -60 -15 30 27 -65 59 -21 -14 20 -20 39 50 -23 52 70 33 -11 -27 -27 -56 27 -40 76 -67 -30 -6 72 -33 14 8 -18 66 26 47 27 -35 63 61 -32 -31 8 -50 21 47 28 -45 59 33 44 -16 -47 -25 84 56 8 38 50 -25 -25 -32 -60 -15 -23 -40 -14 -64 37 54 -65 31 6 -21 -30 61 83 -55 56 -41 -40 -50 -35 16 26 -11 39 -7 62 51 26 57 5 80 -49 -67 65 -46 -37 77 -5 57 -9 14 -44 -4 -31 -51 -11 -62 57 -59 48 23 39 50 -29 15 -22 56 9 38 -13 11 42 -11 -34 -13 -61 6 23 1 -30 24 -18 71 57 -28 12 19 47 7 43 -45 16 13 23 -45 4 -6 -38 -5 7 46 -28 7 -1 -22 63 6 -18 -12 23 -21 19 -65 43 -18 -19 -26 12 -61 39 -4 39 23 -41 29 -24 -18 45 -2 -37 -22 42 -7 13 30 -51 -65 85 -30 53 -20 10 31 1 -30 45 -43 53 60 8 29 1 21
0 39 9 9 -59 -88 -34 -59 4 82 -56 -52 -40 -53 0 52 -54 31 7 -23 25 -20 -52 -8 -35 -66 56 -58 -29 -9 57 7 -26 51 24 -32 -11 -63 29 7 -41 11 -34 -46 56 60 34 72 -37 70 -20 -15 1 -65 30 -55 15 23 -60 -63 -41 -3 -36 -19 27 -52 30 -6 53 -49 7 23 -36 57 34 54 24 42 46 63 44 46 -59 -83 -58 32 38 16 -59 -56 12 -48 -4 -10 2 29 12 51 41 19 -17 46 31 19 -44 33 113 -8 -3 -15 -47 51 46 35 64 3 -6 -36 -15 -30 -30 -39 -57 2 -66 59 15 -8 -56 64 -25 -68 -63 51 53 -6 6 43 -32 31 -45 48 -34 -35 3 52 -6 51 -47 0 33 14 -44 -48 18 -12 39 -29 -40 -58 61 -1 7 -26 -30 -68 -29 9 -34 -23 -23 -21 37 41 -63 1 -19 34 -25 26 66 -26 -52 -40 -55 71 6 34 17 56 -47 -44 72 -64 -18 40 84 21 -38 -17 -31 -49 4 11 19 94 13 -61 48 -30 -19 29 -46 25 -10 32 20 -43 20 -11 -27 -51 59 14 -2 31 58 -42 -63 47 -35 50 55 34 -31 -42 98 -31 49 -60 -19 -41 25 -32 49 59 -10 60 29 27 -5 45 -67 0 -7 -12
-40 35 -31 -19 -27 40 -28 -24 -81 34 18 -32 54 13 5 -15 28 34 32 28 -23 -37 -7 -63 -60 23 -64 43 -60 -45 -21 32 28 20 23 -19 -34 47 64 -43 51 57 -64 -44 -46 33 -28 -56 -43 -35 39 -55 38 14 44 62 -23 31 48 11 42 -18 22 1 -19 39 18 9 -56 -20 31 35 34 -69 24 3 7 20 -26 -7 -38 -64 3 14 58 -20 -81 -47 -33 -29 1 -40 -20 9 -9 -48 -30 -60 29 -55 -48 62 -16 -13 34 -45 44 -71 26 4 33 -56 20 -17 -44 -64 -37 -20 41 26 -61 60 -28 9 -24 -22 -49 -36 -64 -26 1 -39 -32 -12 5 -30 28 53 32 -41 22 -41 -8 -22 -12 -63 -8 47 -50 -50 19 34 -63 43 -23 57 -18 -78 -15 -49 49 2 41 47 -29 60 -12 19 30 0 35 -68 -11 -55 23 -15 -26 -48 -50 -40 -21 58 57 -60 -46 -55 5 42 -58 2 64 12 18 -55 -20 0 -78 -39 23 64 -4 -54 33 13 23 6 -31 36 -29 19 -43 12 31 29 32 -23 1 7 -6 37 -8 51 -5 -56 8 -5 -36 8 38 36 -56 40 59 -78 53 -3 -74 -72 -35 -8 16 -14 45 -24 -62 52 -29 -38 31 -37 -82 -31 -1 11 -68 -55
-38 27 -78 -22 -76 41 -77 49 -26 83 -2 -28 -57 35 56 -62 36 25 -36 5 6 -25 18 25 15 22 8 38 -56 -32 56 -47 -28 -9 -71 22 -2 -45 -5 -70 19 -9 52 -101 11 -3 32 -34 -34 -25 2 -11 -53 -41 -52 39 11 38 -10 -55 -6 5 -40 67 -28 -33 -16 -51 -59 -66 95 66 -69 -42 -73 -21 -65 78 25 -27 -39 22 74 37 53 22 26 -1 91 14 -1 6 35 19 -116 45 -31 -10 -64 36 37 47 -10 -73 10 -54 46 -32 -52 27 -116 31 -62 -71 40 30 -59 93 -30 -42 19 -26 53 16 -21 -85 -1 -50 20 -1 49 54 39 -2 46 -56 43 -40 -50 2 21 -37 -57 -27 79 -60 -96 32 25 38 78 -55 -60 1 53 -43 -33 1 -18 20 10 -81 -64 -16 -2 -20 25 -37 -7 14 41 -10 -26 8 -76 -21 -73 -32 88 1 -27 18 -74 -61 45 23 -18 66 63 -16 15 -45 40 -18 33 -33 -59 54 -3 -7 47 -42 -58 -66 -61 24 -62 -8 -78 31 -20 -55 -63 -78 -21 -42 -69 29 -115 -70 -41 12 33 -60 -39 -61 -12 -37 -39 -78 -32 -40 -70 -50 -35 9 61 -58 71 55 -73 -97 -38 -24 61 -56 -96 15 36 -63 22 40 7 22 48 -82
-60 17 39 3 60 -67 25 6 23 -9 -25 -41 1 -27 39 33 -35 -60 22 48 -27 46 44 -20 66 40 -54 -54 54 -38 -38 -53 0 31 10 19 20 -59 13 8 -55 39 13 19 16 33 -14 17 -62 -28 49 63 26 -39 -20 9 4 44 -16 -28 -5 23 -35 21 -55 -5 22 37 10 31 45 12 -6 45 18 -58 13 -65 13 -58 -3 -46 -40 23 -7 1 43 41 -58 -13 -66 -59 -46 -15 -1 29 25 23 56 51 -22 51 -2 9 21 32 8 -29 -57 61 42 -5 22 17 -81 13 40 1 -8 49 51 0 64 32 -11 6 -75 8 -50 31 46 20 -23 -33 -64 38 -43 12 13 -33 2 -41 -37 -35 -66 57 13 22 -39 50 34 62 -20 10 -22 1 5 4 57 50 44 2 32 -45 -20 -47 58 7 8 -9 -69 26 43 -23 -7 -47 -30 -57 29 -71 -51 -56 -24 -12 46 -44 -3 -36 -27 34 -12 -21 36 -48 16 -19 -5 -21 -24 -7 23 -23 13 -39 63 -32 40 25 44 -65 40 -61 58 43 55 -36 27 19 -6 44 34 -36 -16 -70 27 -30 -42 -65 -64 40 -2 41 44 -25 -24 -36 -38 24 -27 9 -14 42 -32 51 -16 18 -27 55 -47 24 -7 50 14 -24 -26 -48
-60 -51 -4 -32 17 -6 -57 -18 4 -18 -28 -1 -25 -46 -68 -33 51 -54 -16 -75 -32 -92 12 -45 -73 -71 -3 -42 25 -9 -15 -43 0 -9 -70 12 -70 30 38 64 -12 33 -19 80 -22 -79 49 31 62 -9 -12 -26 37 -63 47 -45 2 -20 -70 49 -56 -43 -8 -37 -10 58 4 -67 -56 -30 36 34 -51 -3 34 30 -31 -12 13 94 7 11 31 -64 0 -55 -96 -71 13 -37 28 12 -68 -57 85 1 13 -83 -45 -49 -66 -26 9 36 -49 -36 -81 0 -5 -33 105 -93 -65 -16 -75 -18 -61 30 0 -10 58 18 22 -23 -42 19 77 -28 -54 47 47 -47 -32 -60 -66 18 -10 -18 -55 -37 12 -79 19 5 -26 -1 -26 -23 47 16 13 -28 10 35 -3 -65 -21 37 29 -19 -58 -61 -1 25 41 -19 28 -73 -65 30 -126 4 57 -50 -58 -45 79 11 -90 -12 -24 -3 31 -25 20 35 -15 -36 -21 -23 12 45 -78 -39 35 -50 34 -76 -57 -21 20 -27 3 47 12 -64 -3 31 52 -21 65 43 22 89 -31 -20 -87 26 12 48 -24 50 -36 9 43 -61 -20 -12 61 -35 45 -20 -54 46 -63 5 -26 62 -46 6 -94 81 -37 87 -47 -71 -42 23 19 -25 10 -43 23 21 -87 -17
55 -14 34 -8 48 -55 52 34 -41 43 -16 6 57 41 -9 9 -25 -5 -8 33 41 35 -61 67 64 -6 -36 -36 -12 42 46 -15 25 8 -56 -60 -52 0 -6 -2 41 52 -56 39 55 -23 59 32 -24 24 61 34 58 43 -59 -27 -2 52 -32 16 23 51 37 -40 -61 -13 57 -75 -15 6 -3 -15 57 -17 19 33 56 1 46 46 -9 -77 43 -45 35 -15 -21 -18 14 43 -53 2 63 19 -55 30 -52 -7 17 -43 -26 -23 -34 5 -21 -63 0 -46 48 -30 -12 62 -61 -4 35 37 40 -9 79 -45 -48 56 71 65 -35 64 7 -47 43 -6 19 10 -53 58 -8 36 -44 54 -29 -41 -57 -34 -27 -19 -35 10 2 51 -30 -13 16 -1 35 -50 55 63 -37 44 8 43 23 54 40 -41 -39 51 11 57 61 -52 32 39 -38 17 -33 54 9 37 -6 22 -5 -5 -49 -42 -44 -57 -28 -39 26 -44 48 -20 -46 -44 -67 0 54 -51 -41 -16 60 61 -13 -29 -55 -67 59 27 40 38 -57 -67 -33 7 -30 32 -23 -6 -15 -8 17 26 28 44 42 5 -71 -2 27 -3 -51 55 26 2 30 -24 -1 55 36 9 14 48 -12 -40 11 52 -17 18 54 23 15 64 9 11 46 5
3 32 -25 0 -39 -56 27 12 84 51 -31 -28 43 -49 102 -53 -30 10 -51 72 5 27 37 -41 4 33 45 49 -6 31 39 35 53 42 -61 27 57 -72 -15 18 65 17 -14 76 -10 63 29 -31 -53 -27 57 -36 -16 -13 1 -71 24 -59 9 62 40 -2 -58 -59 -35 52 47 35 35 -53 -69 25 49 -13 49 -39 -24 32 -58 56 -19 29 59 -16 21 50 77 7 11 -8 -2 -19 -23 22 72 -22 14 55 37 -6 8 -8 53 20 -59 -26 34 -1 14 -26 18 12 3 56 6 -62 7 20 28 49 54 -41 31 -62 -29 -42 11 -12 41 -62 39 -49 46 -3 -58 56 8 -42 -57 9 -62 18 -3 3 -7 3 -2 -34 -48 5 40 -58 -43 14 -54 53 37 5 64 -48 51 -13 1 24 -47 44 9 -29 -45 25 -27 29 12 43 0 -75 -30 -11 1 -22 0 38 32 -55 32 41 26 40 16 34 58 -53 76 4 -48 -56 -25 15 54 -13 51 42 -64 -42 -11 -14 -24 5 -41 -42 0 33 16 61 68 -43 3 23 -41 5 27 -48 59 13 88 63 66 -54 6 63 -56 -15 -4 -28 -24 32 87 42 -5 -49 -61 8 28 52 7 15 -47 -44 -7 -61 94 58 -51 -14 88 -19
-51 -76 -20 26 -17 -44 1 -49 12 -37 54 -31 47 8 11 -24 -41 -2 48 -38 47 -1 -12 -29 -33 -43 -5 -8 -64 -69 -40 -71 -9 18 -31 8 -69 -50 -68 42 24 -72 -44 24 -21 -13 44 5 -3 17 -77 15 7 17 -62 40 36 0 -61 -42 -55 -52 20 41 -62 -45 -25 -71 -60 5 65 30 5 -22 2 -18 29 4 -63 24 -6 -39 52 19 19 -49 45 -8 18 42 -86 -47 -88 -9 -6 -57 -41 -73 -8 -59 -56 4 14 1 -13 -71 -53 -43 -60 -19 23 -42 45 -10 -10 -3 49 -36 4 -17 -60 -64 -44 5 42 21 -56 -52 -30 4 57 -53 -10 16 -71 -75 13 54 -41 22 24 5 -59 -3 52 -12 32 -28 -40 -61 -3 16 -63 -12 -49 37 -46 48 53 -36 -37 -4 -54 -44 22 -42 18 28 -61 -13 -23 -38 -62 -38 -58 31 23 16 21 -56 42 18 -41 18 -60 3 -63 -41 -18 -57 -27 -5 6 -19 11 14 -36 10 -35 14 -43 -16 -52 -41 -33 -52 9 -37 -5 3 51 -51 54 -43 -71 -29 -23 -11 -8 -2 -71 43 25 17 13 -27 34 -41 -60 21 -66 0 30 6 41 -50 -51 29 29 27 -80 39 33 -56 19 24 1 -41 -23 -63 -33 -46 44 4 48 -18
-32 62 1 -8 5 -35 -62 -47 62 43 -17 -33 53 28 -59 50 57 20 44 -8 -11 -41 -70 27 -64 29 -12 55 -18 -37 7 38 61 39 19 11 51 1 -32 20 25 -31 27 54 22 -49 14 37 -43 52 -1 -24 57 -8 10 57 20 11 -12 58 -59 41 54 -27 46 -19 40 -39 -12 45 -18 57 -3 13 -17 -44 27 -31 30 -17 54 37 65 -35 48 -8 -42 60 13 33 38 -35 -24 10 8 -14 -32 -56 32 34 -36 -31 -37 -23 63 59 -37 51 21 -61 -32 42 55 -55 -20 -10 9 17 -44 61 35 -30 -28 0 -63 11 4 -17 -65 -59 -26 -33 -1 -1 -4 60 39 30 -19 -4 57 -30 57 -53 -36 29 -34 27 -40 -4 54 -29 12 -2 -32 4 5 52 -20 -25 50 65 -11 -56 68 10 9 56 16 -12 26 -26 -25 -33 5 -30 14 22 -9 22 -49 42 18 -48 54 -61 40 -67 66 38 -18 -11 35 -61 50 25 32 10 -65 7 -27 49 30 3 12 9 -1 0 -38 15 -42 50 42 57 2 62 -37 -75 58 8 5 -63 35 7 -45 -11 -8 13 39 -37 40 7 -27 -74 -2 -11 35 40 -20 -36 -53 20 49 39 -39 47 -3 -10 21 -36 35 35 -52 -59 -48 -50
54 45 -36 22 -20 -56 -6 -6 -50 -26 -23 -6 20 59 -5 42 3 -48 52 27 -42 12 -53 -23 6 -23 46 -59 -5 -17 -35 0 -14 -38 -55 63 43 44 30 58 9 -18 -17 45 20 -50 12 -52 2 4 55 63 58 1 58 56 10 -35 37 43 16 -7 54 -16 46 10 -32 6 -18 15 -3 -58 -50 -63 39 -16 17 46 -45 -24 45 -15 39 21 60 38 -61 -20 -9 -28 -54 24 -30 -26 16 24 44 -42 -11 -28 20 -22 22 11 63 -9 -19 37 -38 54 -39 51 1 60 -49 -50 6 -17 -56 62 -61 -31 -15 -58 -30 13 29 20 54 40 35 37 26 -44 -22 20 -40 -60 -56 -8 27 59 25 -27 -13 55 -51 20 -22 45 -28 40 -24 53 -32 -42 20 38 -64 30 31 -19 14 -21 16 -54 -17 61 23 26 6 -34 4 43 21 -27 -31 16 -16 -22 9 43 -24 42 37 -27 15 -60 39 56 -16 26 -21 -9 -3 24 -30 -39 43 -15 8 27 33 59 50 -36 -47 -53 -29 29 -6 61 -52 40 63 -52 -62 34 -59 22 45 -58 -7 18 -36 -26 45 -36 -34 -56 -36 -26 36 -47 23 -23 -38 -31 -21 -30 49 39 -59 -23 52 -18 -30 -59 48 -50 32 63 34 60 63 54
12 48 -24 -46 -27 50 -17 -16 -23 -35 25 -26 -67 -32 -28 -32 45 20 40 -12 -35 -28 -30 -38 9 28 41 3 -44 -55 2 -45 70 48 -3 -63 32 66 14 -11 -22 -21 59 -5 5 -54 31 -35 45 -31 -57 -50 -33 -18 -24 -8 -26 -2 25 -41 33 29 -43 5 20 -19 -27 -14 -19 -29 47 3 -16 -40 -23 7 -12 25 37 -22 -3 -12 77 47 50 -45 67 59 10 -53 -42 18 19 0 33 -50 26 -15 -61 -33 70 37 -33 -25 57 -47 5 41 -33 -45 -57 42 54 -1 46 43 57 -32 30 -4 -41 -63 51 -27 -31 -33 32 35 30 -50 42 50 -22 10 -52 3 -33 58 -8 38 -45 -19 -8 45 -65 -6 -55 10 -59 69 -7 -12 26 13 -9 -55 -5 37 -19 -5 22 18 -27 28 -30 -28 -51 -51 25 -14 -42 5 -41 8 62 4 -13 7 17 -1 -16 -23 65 35 22 -29 41 -49 -37 -25 -72 -16 -4 44 39 6 -42 -2 -5 -72 -37 62 23 -49 40 -20 -47 49 -60 11 15 -33 62 -58 -46 -9 14 -57 44 -48 44 -1 -13 -37 37 -55 -60 38 -1 -65 -34 14 13 -3 -36 13 -53 -56 -43 -41 54 -17 -50 49 -22 10 17 25 18 25 -33 -19 -23 21 19 10
47 -2 42 -32 56 -22 13 54 4 42 6 -7 35 42 -33 -7 -44 -61 19 36 3 -52 39 69 68 5 9 -60 -28 53 20 17 -42 -26 8 40 43 3 -61 -33 22 -58 68 59 58 -45 -19 -68 59 5 60 -14 -37 34 -8 -52 -28 21 28 -42 38 -36 -55 -4 22 -46 55 53 8 14 -36 37 -16 -66 49 -15 -8 -52 12 4 48 -31 -31 -44 -64 41 -64 -47 52 30 -9 -41 -52 -54 23 10 -29 35 -64 21 -58 -4 54 -12 26 -26 -11 -75 -19 -48 -67 27 48 50 -58 35 32 -12 -34 -44 51 -56 -23 -3 54 61 40 28 -54 53 62 4 13 -22 42 26 1 -13 -3 44 13 -37 45 -55 -35 -54 -24 -58 -18 -16 11 3 -35 -3 -17 -43 -32 50 -47 55 -21 16 45 12 -17 21 -17 -26 29 3 -33 22 -3 -56 15 13 32 46 -42 -39 -21 -26 20 20 35 -40 16 -25 5 -27 54 5 14 -67 24 42 -53 47 47 39 47 0 -69 -41 -31 -10 8 -6 29 -35 7 22 26 -71 -2 -48 6 14 -61 -29 -11 -38 5 35 -50 55 12 22 43 -42 -30 16 18 41 -63 -53 -59 -53 -34 -7 -29 24 -25 -22 -58 -31 -17 -13 42 59 -27 19 -29 43 -46 -52
-5 -32 9 16 39 32 -25 -78 42 44 34 23 18 -40 65 -23 4 36 -10 -24 -10 16 -54 -14 -54 19 -20 -9 -15 -5 30 37 67 -13 -46 25 32 23 47 31 -57 18 -29 -37 36 -59 26 18 -19 -39 4 -22 -24 -74 -53 22 27 -58 -52 -30 13 52 40 69 29 -20 -36 -70 -61 25 -46 68 44 -2 -40 18 -11 -44 15 60 3 -68 -49 -20 30 -21 -74 -21 -57 56 -91 23 8 -64 49 -59 4 -31 45 -37 25 -46 -13 -69 -28 12 -76 46 -37 -71 -51 -54 -10 22 -15 13 -28 -44 8 -67 23 59 -27 -64 -43 4 21 38 -46 -55 -15 -63 3 -33 -50 -12 -57 -6 -47 -29 -46 -55 -16 -31 47 -23 27 -42 -44 -33 33 -43 -65 -10 -3 5 -9 26 -8 -56 -28 72 -54 57 -67 59 50 44 -14 53 -32 46 33 51 -44 -38 52 28 5 14 -45 -11 29 -65 18 -55 50 31 64 -24 52 32 -32 -42 -59 -15 -25 -41 4 -49 -47 37 -8 -41 -2 -69 -57 -27 64 -9 37 9 -4 -11 48 48 41 -41 63 5 41 37 45 -56 17 -39 3 62 34 28 53 -52 -83 -22 26 20 35 10 -60 46 33 -53 52 31 26 4 -18 -25 26 23 -5 -13 -47 -49 27 -27
