-41 -28
-49 -41
-5 -31
23 -12
-59 -39
43 43
-7 -20
30 -28
-59 59
64 57
-27 -26
-3 57
54 20
22 -4
-26 -57
-9 -29
-7 16
-16 -36
29 20
-37 12
-18 -10
-56 -29
21 30
58 4
-27 40
37 59
58 -30
9 -2
-25 26
56 -22
-10 -41
15 -42
-22 -29
-48 -40
-51 -20
46 12
-23 -10
3 -33
23 23
-67 15
8 35
-60 6
39 -28
-13 -5
17 0
24 8
-34 58
-54 -22
48 43
-77 16
56 29
13 -54
26 54
43 38
16 33
-14 46
6 53
-54 -46
-21 36
9 -50
37 36
45 -52
20 18
0 -26
-27 -16
2 -57
-7 -38
-57 -35
2 35
-9 -1
44 -42
21 30
4 9
-32 12
20 29
8 -46
19 -25
-46 3
12 -23
-5 -31
-11 32
25 50
-31 -36
30 40
-35 -44
-21 -5
48 49
10 3
-36 33
-26 -41
-38 -19
-25 -37
-1 47
-29 -72
-54 29
-15 43
-20 -15
44 30
-8 52
29 -33
-50 5
-30 1
-14 -20
61 -29
-55 42
24 14
-33 34
24 25
33 -56
-50 31
-5 26
6 18
-1 49
-38 42
-15 -23
-54 22
-28 43
-22 13
5 54
-42 23
-51 -31
-44 -44
-11 47
-14 37
51 2
39 1
-29 9
18 52
18 30
-49 9
-13 -16
36 -52
-18 34
-54 -27
-38 -14
35 -6
-42 -6
10 60
18 -3
50 14
23 -47
-13 7
-58 30
47 54
16 11
10 13
-25 -2
-20 -19
4 2
3 2
24 -24
-43 -26
-43 -19
-60 -58
38 -14
22 18
57 50
15 -13
-30 -37
36 -20
36 -8
-31 25
33 -23
21 37
-53 28
7 11
-49 20
0 -4
-55 -42
-30 53
61 1
14 -25
-25 31
-41 -41
44 32
22 21
-16 2
5 47
33 50
-2 7
47 47
43 32
-54 -13
4 40
-20 43
-14 24
54 16
-29 -22
-12 37
-11 -50
30 33
11 13
41 3
53 22
8 5
-56 -3
-20 -44
-8 3
-30 -27
65 43
3 6
-21 44
3 19
-15 52
-9 -21
47 -44
-69 10
-10 32
7 38
-46 -39
38 -21
-1 19
-29 -6
36 22
-20 7
-26 26
3 -46
59 31
44 7
-53 -31
27 19
44 -47
-53 -54
-24 22
-5 -11
-4 12
-22 -30
-19 36
4 1
-16 20
-56 -5
-37 -28
54 63
-36 -38
-1 14
71 -14
-4 32
-12 18
4 -11
11 20
39 13
31 33
-16 7
-5 -3
32 -43
-33 8
-43 13
14 16
28 -50
38 43
-4 -17
-9 -26
-12 -6
43 -43
36 -56
47 50
