71 -1 44 33 -79 -6 -30 49 68 -72 31 30 -10 -29 56 41 85 38 -74 -55 63 -63 76 15 30 65 61 -68 -15 27 93 -5 -25 25 20 -74 -70 85 31 -10 -90 32 -2 -19 28 58 85 61 -83 47 -89 -55 10 -46 1 -52 65 -83 39 69 -89 78 -79 -15
27 -41 58 -13 -49 85 44 75 -52 -18 -1 -43 -86 14 -23 -31 61 -66 42 64 -36 47 35 -6 42 -34 17 52 8 70 -15 -32 15 -11 -95 57 -24 36 -43 72 43 25 17 -49 31 -25 54 80 7 25 -33 10 4 -37 0 -35 65 -60 -70 -49 14 -86 -49 -23
28 34 39 -14 38 20 -58 -12 -9 -21 -6 56 -74 22 27 25 76 47 -46 46 -25 -38 9 -36 42 -19 94 7 61 -38 -59 -31 33 -57 41 -92 -31 78 -64 -67 -53 52 18 3 -77 -27 -67 -44 -17 -47 -38 22 32 -44 48 -50 27 -27 -85 -54 -18 -35 68 -28
-60 58 -5 40 75 -41 31 19 56 0 -61 34 69 13 -68 78 65 38 53 -55 52 87 2 -65 56 -17 8 60 33 -21 9 -65 11 21 -38 -2 -64 -78 57 67 -58 23 2 -62 -79 1 82 66 -86 -3 -94 63 -44 68 -26 49 63 -42 2 -15 -75 -49 5 -80
-11 -53 41 38 -37 -58 -11 -46 -48 96 -6 -61 -62 -11 96 42 5 -37 -9 92 60 79 -9 -63 17 -26 -4 40 39 -47 -93 53 -39 -66 -81 -69 -28 24 -28 62 84 9 -63 75 -28 76 66 6 67 56 -11 -59 -40 -27 81 42 80 -63 34 26 -65 -63 -64 -8
2 56 15 -10 36 -1 -78 52 36 -87 -47 20 -113 -5 -10 -84 69 95 9 61 -28 54 -22 -7 -60 -25 -70 -44 -37 -39 11 19 9 -54 -30 -92 52 81 57 72 29 -19 14 5 -69 -74 -5 39 13 -43 26 -74 19 -72 2 34 -3 -87 -10 61 -20 -18 63 66
28 81 -13 -62 -18 71 -37 -15 79 72 -79 89 52 -8 8 -15 -38 -29 -33 -22 -43 90 -33 26 -86 62 35 -66 75 28 25 -60 29 1 -15 74 -22 44 22 88 -13 23 35 -34 -45 -14 -45 -68 2 -6 41 67 72 68 -54 -19 53 31 -87 -14 57 -58 -4 63
8 18 62 50 10 -46 -60 4 84 -51 40 10 12 -50 78 -29 -6 70 16 61 -21 7 76 -58 -99 -11 83 -119 64 -46 -81 -51 -29 -77 -51 -48 -40 -77 -31 77 -80 -74 82 55 28 -62 9 3 -36 -15 46 -81 -77 25 54 26 43 -21 -2 76 89 32 15 37
24 86 58 -13 -3 -46 -71 28 -69 -49 64 52 -36 -16 17 5 -85 -1 -24 61 -21 25 18 -89 -86 -30 -68 -47 19 -35 -7 59 12 -11 20 -31 -28 -72 -55 -94 -85 -71 10 -21 31 52 29 13 47 7 -70 14 14 -10 -68 -53 -33 16 -88 8 11 68 10 61
-85 -21 63 73 -42 37 62 -60 22 -17 40 -32 -56 74 -36 -30 -82 87 -3 79 48 -32 24 15 -9 89 -47 68 65 -31 81 -8 3 -50 33 -88 -33 67 -59 86 -49 -31 -86 102 -87 -78 43 66 -46 27 65 46 -35 -87 49 -4 94 89 -41 -81 26 -81 -29 -62
-5 30 17 -19 0 70 -59 -27 -37 45 51 16 -49 14 27 -14 -69 75 -88 -84 76 -6 32 20 -12 26 49 -76 58 -23 -83 77 -20 -21 46 -68 75 6 20 -35 -80 -68 -3 -66 5 -44 85 -57 45 -55 -50 80 1 39 31 72 -36 34 39 88 31 -12 21 -54
55 82 -59 -39 16 -18 35 -8 -33 -48 -37 -67 21 36 -2 -40 58 16 -62 27 -71 29 16 -12 34 23 34 8 79 -40 95 -65 76 7 87 -94 50 12 -14 54 41 30 -34 -9 -32 -64 -84 30 94 -46 -42 34 -72 -63 -2 52 -12 -7 -91 50 89 -2 49 72
5 28 -56 -49 -92 -79 37 40 38 58 73 9 -46 -55 -32 45 52 17 1 -67 -6 -77 -7 88 -81 38 -52 80 -53 94 -51 57 -18 23 47 74 77 -13 -85 -56 -22 29 -93 -45 -28 40 -8 26 -29 48 -45 -13 42 -61 7 -54 -55 -105 -33 17 54 -69 -13 -10
-83 -1 32 -31 -66 85 -64 -68 24 31 -53 -59 20 -55 95 60 14 48 70 39 21 13 49 61 -59 -66 -50 34 74 -75 90 -14 36 6 -44 40 54 -60 35 -10 -62 -6 80 96 95 51 -84 -83 58 -34 -64 -93 28 20 76 -38 45 10 87 -66 -3 -21 6 -1
21 22 80 -78 -55 -61 -39 -30 -7 -83 26 1 5 -12 -85 13 -44 71 82 23 -72 59 -11 -56 0 -18 79 23 -58 -3 6 -46 6 -85 25 82 -90 -56 62 -70 -63 12 -64 -26 -49 -90 26 20 -50 -67 -91 -72 35 -44 -39 -46 60 61 -34 -8 48 41 -49 90
-36 8 -31 49 -26 70 -37 -12 -59 -19 -46 -50 48 27 49 0 -18 44 -40 16 18 14 -80 -56 26 -61 48 39 42 90 33 30 21 -30 24 18 96 -35 59 -59 -34 -39 -1 -66 -32 79 48 -43 28 36 44 28 -66 83 -2 47 20 35 49 -48 -50 -68 -69 -86
33 67 -83 -87 -72 -76 11 76 21 20 -81 35 -38 -45 -87 -67 -80 1 26 -16 32 22 4 70 -46 -41 -17 27 67 20 -3 89 -16 -86 -21 13 5 44 -32 -46 -2 45 -42 -22 -53 39 -39 23 30 23 -45 -51 49 64 62 83 -34 -56 -80 51 70 -34 22 86
60 -22 6 -43 -37 11 -11 -99 49 -65 -54 -53 -73 -2 73 62 44 -4 -34 -34 24 76 -64 -38 -49 -24 37 -93 43 -65 -21 -32 44 -65 -58 -32 -105 -23 70 -16 53 -29 -24 -57 -70 -73 -4 -36 32 62 62 -41 57 0 -37 20 3 84 69 -38 0 -14 -27 42
-36 28 -9 -15 69 -81 -5 -94 51 7 -47 81 25 -17 -40 -76 -19 -40 -54 80 -58 54 -71 -79 -90 6 -10 -44 21 -79 37 -15 18 -54 33 -42 11 26 71 -32 81 66 73 -65 -88 31 34 75 -64 -65 28 -45 -38 -70 59 36 78 -14 51 -51 53 76 59 65
30 -7 -62 8 64 10 -20 -75 -87 51 -66 79 77 22 24 17 41 -61 31 40 59 -45 3 -62 89 24 -47 11 -20 72 -3 68 -80 11 -40 65 -85 2 -15 14 -66 2 -86 62 61 -59 -44 10 -26 38 64 2 69 -13 -30 83 56 46 -15 77 0 57 61 -59
62 32 69 -93 66 54 61 78 39 3 -74 -103 -14 -21 -67 45 -72 -97 -35 43 7 35 -84 -68 -21 44 -35 11 22 -83 61 -23 -62 41 -90 -11 35 -60 -101 36 -31 63 27 69 -3 67 -56 27 -82 23 88 75 53 -80 -14 16 -12 27 -25 -74 64 -81 -20 -42
-56 -14 25 -65 -37 21 79 85 -74 34 16 52 -47 -38 -70 82 -3 81 51 -58 98 -76 60 4 -50 42 20 -78 6 17 45 72 -88 -76 -72 28 31 8 -4 -64 -6 13 73 73 -27 -11 82 -82 69 -25 -52 -64 32 39 26 -3 -55 30 23 -14 -8 21 -83 75
-92 -5 93 63 80 -61 23 52 -79 -55 -72 35 50 -49 33 6 -56 51 78 -40 34 18 89 8 31 26 82 55 -62 69 -57 -97 -18 -3 85 55 7 15 -10 -23 79 -2 -78 -5 -81 8 -54 31 3 43 -66 54 -63 59 75 -85 -52 -62 33 -77 -3 -40 51 -16
17 -79 16 67 31 -7 6 23 25 63 18 72 -25 26 -29 -48 28 -3 -34 -77 90 -37 -88 -90 -2 70 22 -15 -60 -49 -16 92 31 -19 80 -36 50 75 38 21 50 52 -47 -85 -65 -54 47 -71 51 -8 -65 87 -15 14 -77 56 -94 -39 -51 -93 -54 1 -54 -22
103 57 -89 -88 75 -11 -52 113 31 -29 -75 45 14 -8 -38 -97 77 29 11 -20 -57 14 -25 -44 48 67 -42 58 -6 13 -42 -92 -8 -83 -9 2 -99 57 -8 -17 -66 22 105 -74 9 -38 49 -65 -30 -63 -31 -94 36 -25 -5 2 14 -100 -75 -20 2 -37 0 77
-20 78 -92 -85 57 21 67 -4 -70 13 31 41 -39 0 -32 62 68 53 11 77 -3 21 -38 62 -38 16 42 -73 57 -23 -82 -26 60 -9 38 21 57 14 -74 73 -31 -59 72 20 47 39 -4 68 -57 3 -83 -21 -43 -65 46 -24 -8 -85 -52 -24 -39 -7 12 -75
59 -9 47 -74 28 54 -77 62 -3 63 -28 90 70 15 22 73 -50 -22 -3 -34 -41 80 -2 28 -26 81 -65 74 89 10 41 84 3 85 -7 38 -90 83 76 101 12 -69 74 -50 61 -82 -23 28 77 -35 -8 65 22 -69 -75 -6 -92 75 45 23 -51 -60 -78 76
-53 -51 -86 -1 56 20 -45 56 51 73 67 5 0 -39 29 17 37 -47 48 37 19 11 81 -78 -77 -70 1 -54 -47 -19 31 -33 -50 -7 -70 -26 -26 12 -48 -54 -95 -16 32 81 -80 64 39 41 66 -59 -84 -63 42 1 -46 37 -119 -95 82 40 -18 -6 -21 39
60 29 -56 33 -35 62 -80 -28 38 -66 -75 -35 25 -72 -83 31 53 -92 74 47 -16 -5 57 -44 48 46 0 3 57 27 16 -66 -63 -58 3 -79 -20 -23 -72 -61 -36 -29 -24 -46 -9 -43 60 67 57 70 -52 2 86 91 -69 12 -47 11 45 83 37 16 -69 -43
25 41 -20 -5 -72 6 57 -29 84 61 67 -86 18 -55 37 55 10 -5 28 20 -94 -19 -70 -88 88 -6 -53 -66 -18 53 18 -37 35 12 25 33 87 49 -49 18 -65 19 7 82 -64 -65 -73 5 -22 -85 -7 -49 -85 45 -7 8 7 15 -22 -1 -26 72 -39 -73
-97 31 -80 -91 -13 -15 -1 19 105 -74 -54 -80 -66 -78 27 18 -111 14 15 -57 -30 -25 -86 -77 -30 9 -15 -77 47 -31 -77 -76 -66 64 -46 59 16 -71 43 78 11 28 -76 7 -72 84 17 -47 -73 -89 42 -13 26 -47 28 43 -2 -49 74 26 -108 -26 10 70
97 2 44 -75 -83 -37 -20 34 -84 -9 51 -16 45 -31 -62 76 45 -46 72 18 -35 59 -28 -65 -78 -10 -41 -103 -21 82 -53 -82 5 -8 -95 59 19 -36 11 -34 45 6 -15 -45 83 -72 33 30 -50 -87 77 44 -28 -62 72 -57 73 -75 -35 77 -62 -80 -62 29
25 -32 53 72 34 30 60 -56 64 -16 42 -65 17 -64 -16 -50 -76 -31 -48 41 -3 1 67 -17 -29 82 -33 -80 -57 -73 75 -5 6 -85 -16 -1 24 76 44 17 -106 -9 -38 -42 -5 -26 -15 -103 6 55 43 -99 -36 -71 -65 -101 -13 -18 44 -5 -31 25 61 -6
-64 21 82 42 -54 -76 55 -19 -52 56 -58 -62 75 12 8 -86 -91 75 -57 -14 -17 -34 -26 -78 15 64 55 -18 -18 -26 74 11 -12 -63 -79 -81 35 -78 -62 -24 -92 -89 -96 21 70 14 44 27 75 52 33 42 64 87 -63 -96 -79 67 -81 19 40 -87 80 90
-62 32 -67 -58 52 64 -58 -56 22 42 -54 -23 76 -6 4 17 43 -30 42 -66 -78 -19 -3 -7 -45 -10 -44 -20 -77 35 -23 65 -21 -38 1 -10 99 59 -82 46 -16 63 81 50 11 79 -10 93 -17 51 -21 72 68 10 -34 24 -74 22 -88 -60 -1 80 76 0
62 -26 28 -53 -32 86 14 25 -29 -65 29 -6 -10 -118 -97 -42 4 -75 47 35 58 64 60 23 -2 30 92 7 -57 -62 -53 42 -58 -70 44 -68 -7 -48 -53 -30 -71 -65 32 -55 -108 -16 -54 52 -73 -72 64 -46 1 76 -52 -47 -33 47 95 67 -12 -77 -24 -4
-78 24 22 56 8 24 -36 75 -73 49 18 -19 72 82 30 65 10 -1 50 -32 43 -30 -4 -4 50 73 -45 84 -73 55 38 46 40 43 6 59 63 -60 -29 -7 -54 88 -90 -8 62 66 -61 48 -55 69 -7 -53 18 -36 73 28 61 -5 -44 43 -51 -25 -61 -56
-1 7 11 40 -14 58 79 28 -32 86 1 -12 40 -62 36 39 21 30 -78 65 4 -48 -4 -10 65 38 8 6 -41 -74 63 -58 34 48 -44 49 -27 58 -88 19 -44 -29 51 27 49 -26 -78 53 -24 55 -75 69 76 19 9 -81 -34 15 -47 -37 48 -12 -52 51
-29 31 -29 -42 -59 -30 -40 -15 -68 51 56 -33 78 14 49 88 79 -64 -68 -72 -1 -57 -97 -9 -75 -74 -32 50 27 -70 -42 -23 -60 22 37 -46 -8 66 -78 -26 -48 33 19 -80 33 -93 44 97 -21 24 10 55 22 54 39 -3 23 -61 -86 -14 -46 -103 -8 86
104 -44 -79 55 106 111 41 111 -73 -13 -22 -38 61 17 20 49 -35 7 -26 -31 -85 -39 -71 -10 -90 15 7 23 -104 -1 -4 -27 52 4 -79 13 -52 76 -8 -5 -29 24 -2 97 -21 -68 19 -45 35 52 79 4 -74 37 -21 -6 102 -40 -2 -65 -90 10 -43 -38
74 -12 -45 17 -81 -43 -56 48 -29 27 57 -79 28 65 -87 -68 69 -58 -66 62 -64 -73 42 57 30 -11 12 -57 -24 81 16 -64 -47 1 -2 51 -2 -83 -25 47 -10 19 87 -56 -87 -84 76 -32 -4 -6 -7 -29 93 -14 -89 -30 11 72 -44 67 43 -90 -33 -49
58 -41 -67 -69 -56 50 -89 -33 -57 2 -4 -55 66 -81 -22 1 -89 69 -5 30 -62 24 57 -10 -2 -87 19 -4 84 -76 -75 -28 -5 84 51 -79 -40 -25 -44 -90 80 6 -50 -7 -73 -38 50 37 -33 -54 -14 10 18 -26 75 43 74 -9 -61 -47 -54 50 -61 5
10 -75 45 59 -30 89 30 70 25 -60 65 -17 -44 -41 -82 27 10 -17 -8 7 71 -80 -6 -82 29 -75 8 -76 -3 8 23 -25 -37 51 -85 -53 -59 -66 -78 -83 68 16 33 31 -54 -29 -80 -31 31 -83 48 -11 21 86 14 -64 12 -33 78 20 -27 -71 77 18
-74 -86 -55 23 70 -3 -55 -35 0 76 -36 -75 58 0 11 -78 -44 25 -46 -50 -17 -58 -51 49 -52 -8 24 45 31 10 73 14 -11 -14 -81 -91 42 -14 59 13 -23 -60 -43 74 -18 -46 -26 32 25 60 22 -60 0 47 26 1 8 81 -32 25 -72 23 37 50
30 -75 77 -28 -78 -33 56 -68 48 -27 30 -59 -73 19 -63 57 -29 -54 -29 4 34 46 47 67 -62 30 -14 38 -57 12 -45 59 -77 -38 -94 38 -41 41 56 -82 -21 -37 70 93 -2 -17 66 57 -19 28 -1 -15 -20 -61 52 15 -94 -50 -43 26 12 6 -1 45
53 76 -82 -47 40 -63 85 -26 1 4 -11 27 2 29 -41 -35 -53 -3 18 85 -45 -43 -44 34 -53 64 -11 -25 79 -44 -84 -61 6 -54 85 40 -14 -56 89 -5 38 55 -81 -38 56 -37 -26 -70 68 -49 -45 -71 -13 82 -57 -81 -37 68 -2 35 -68 -73 -64 -7
-79 60 89 35 69 29 -85 -87 -74 72 -76 22 51 59 -51 -79 0 3 31 29 -6 -14 23 26 -97 -40 -57 -87 -109 10 -63 -14 2 -16 88 -29 -67 -32 44 -75 -10 -50 -64 82 62 20 -97 39 -59 -71 67 -39 -62 -47 -14 -1 23 -12 -30 72 -79 -19 86 5
84 3 17 -76 73 17 30 -19 76 -31 -12 -9 -48 -7 -35 14 78 5 23 52 76 -47 17 14 31 61 16 -60 -92 -24 24 -86 74 -83 3 26 20 -87 -15 32 25 -61 -66 -54 82 5 66 -38 43 -10 5 -16 9 -10 59 76 -68 38 87 38 -46 33 -81 62
33 75 20 -73 75 60 17 31 -2 75 -7 -29 -102 32 -28 -66 -89 -6 -79 14 -115 -7 -85 37 58 -46 51 61 -14 -26 -41 -68 -87 71 89 -88 -68 -50 52 -4 58 88 -7 44 -63 5 61 -46 68 5 -88 52 -84 -90 -21 -27 -60 68 57 -78 -12 5 -76 5
67 -86 -24 62 41 61 26 101 -60 -34 62 -30 -33 -28 9 -64 78 42 -123 56 69 -85 28 -40 -81 28 -16 59 -18 -11 -40 -7 72 26 -35 -6 64 -58 58 91 8 -14 34 71 33 80 28 97 9 -49 -71 39 38 64 -60 -2 69 44 5 40 67 -23 12 -8
83 78 24 53 -83 66 72 -44 26 -70 -5 -36 -28 -73 24 3 -18 -73 1 -74 -28 46 -41 -49 35 32 -4 -10 13 -40 -27 -83 -9 86 65 30 10 50 29 -28 -30 77 -10 -45 30 -36 49 58 -17 -28 -48 -90 52 66 -56 57 54 -34 -29 79 -79 13 66 31
70 12 -52 -54 -44 86 37 -24 80 -25 29 -36 64 -78 -16 -25 17 17 81 -76 53 -4 -34 -25 -3 -76 41 21 13 12 -83 -58 51 74 -87 -1 62 -59 16 46 -43 62 -57 -55 17 47 -70 17 -2 -79 4 -83 62 -80 64 42 -50 50 90 -64 3 -41 -45 22
18 43 -55 -12 -19 -14 -83 42 48 81 15 -15 7 20 -72 32 -85 -75 70 38 -102 15 77 -47 -17 -87 -41 -58 28 57 -47 -43 -45 -2 82 -94 20 36 78 25 -22 17 -72 -125 52 -47 -66 33 24 32 -62 -74 -50 -42 -47 52 74 77 52 -55 48 24 25 88
-67 -7 -95 -16 59 -96 23 -27 40 -75 -73 -11 -25 -43 -27 56 -58 -32 76 55 -37 -32 40 48 28 -64 -23 -11 -39 5 -72 38 20 33 -88 58 -9 -85 -8 -95 -36 -68 -36 77 -71 2 59 29 -43 -69 -26 -63 -69 51 -15 -50 28 -35 70 18 -65 -24 61 -12
-90 -56 -22 21 69 -64 38 -90 44 -5 -15 -49 53 -89 -34 -12 50 47 76 58 -67 -59 60 60 -72 -45 -13 77 -66 44 -79 32 25 11 40 57 -58 79 -61 10 -87 23 -22 -21 83 68 68 -87 52 29 -72 53 60 31 59 18 -85 56 -27 -82 -72 -91 72 -68
55 -92 -54 15 51 -11 52 70 33 23 36 -41 -3 -52 -88 -18 58 -78 -31 62 -107 -59 34 27 9 -49 -71 51 -6 43 -46 -62 -21 -80 21 -85 -87 22 70 4 60 79 -7 12 -31 -88 71 47 36 -23 -12 51 -119 16 66 62 -25 -64 -43 -58 82 -80 17 -58
42 -61 11 0 13 -92 49 -67 126 40 48 -42 -103 -88 94 64 -17 97 31 68 -31 -54 -29 23 53 3 -44 -25 -2 -19 25 -6 -59 -88 70 -85 44 -43 -25 80 73 -124 -18 -112 -12 115 -90 -40 10 -97 -33 -18 -39 -55 10 -13 -35 18 -48 -23 -78 -46 63 71
78 -51 21 -63 -65 -77 -24 -93 -39 29 -15 -49 -54 71 32 30 -75 -62 83 7 -37 -55 5 -36 15 16 89 -3 -32 -70 39 -83 27 -8 31 -5 -65 -36 -56 90 -71 3 34 -49 20 40 -36 -31 62 73 -62 43 -30 63 65 -19 -59 -28 88 44 -73 -76 56 58
-51 -54 40 21 -30 -30 74 6 -5 -71 -3 -22 -16 -30 41 83 48 75 28 -74 83 -41 76 -24 13 49 85 -65 -9 96 -15 -16 -58 -21 -95 65 14 74 59 -58 -16 52 -26 22 58 64 -63 -19 -57 67 -53 -10 -27 89 -78 56 6 -20 -64 -41 -55 -72 -42 30
25 75 -47 -33 66 -12 -50 62 57 69 -6 -79 -3 -6 36 2 -86 -92 -16 58 -26 38 82 -53 -9 31 -32 59 -36 -18 38 -84 71 -62 -58 -78 -34 -6 45 20 -83 -68 56 -50 -26 -7 72 30 -33 -81 20 -66 79 -78 66 -82 -3 -70 50 -77 14 26 -31 -30
50 -53 69 13 76 -66 -45 18 -28 -2 83 -85 6 -39 -88 -47 4 -32 46 47 3 -47 -50 -89 72 -40 -47 -9 53 -60 -52 -38 24 28 -2 -21 -25 0 75 29 -75 72 90 62 78 -40 -47 -24 -4 -58 75 -75 -11 25 -77 15 -73 -53 -26 59 -26 -55 -79 7
92 -62 63 -85 -23 -50 -109 -47 7 -24 14 19 -77 -57 -41 12 -18 13 32 -24 39 50 -24 -72 -21 -58 -13 -40 30 -76 -81 -59 -9 -105 16 -23 -60 -85 -85 49 -78 90 58 -40 -42 47 37 -13 28 -62 49 -4 -54 -53 -82 -5 127 39 17 -43 7 77 83 -55
78 -68 34 64 -29 -50 -7 27 55 21 -1 43 -2 -11 -40 -79 -60 -35 -42 -70 -50 -69 31 -34 -35 75 -17 62 19 -57 -38 -47 -5 75 10 22 -6 -76 52 54 64 -16 -94 31 -56 -12 75 -36 -89 -74 -50 3 -26 -10 0 -31 39 -15 -11 -89 21 -93 -86 -62
77 9 33 -5 -92 4 62 -50 -89 64 -41 13 -49 -9 22 11 -58 13 24 -50 -56 44 51 -25 -44 9 -25 50 -44 -4 -37 -80 40 -58 -26 38 27 34 58 -9 -2 -59 13 35 -17 -23 77 66 -102 -68 -80 19 -108 24 50 -83 -21 -21 11 71 -35 -5 -80 30
-76 77 80 64 -57 -29 33 -66 34 -97 -58 -32 -48 49 -61 -98 64 -30 -82 -35 14 -72 50 -85 -78 -22 -49 79 34 58 -42 13 2 -87 7 16 69 43 -33 6 -63 90 -16 50 36 -70 44 74 -29 11 8 -99 83 19 -37 11 85 69 -14 32 19 85 -86 56
2 63 -60 36 -85 45 34 -5 -37 34 19 -14 -3 -14 -33 39 84 -15 33 -77 -44 55 -38 -63 -72 -91 24 -51 41 81 -37 26 31 -28 -98 -119 -55 67 12 -69 -65 42 -55 5 -83 -32 12 50 19 -70 -4 74 -60 64 -74 9 30 42 -30 -58 2 -13 -85 72
84 -72 -85 57 72 6 69 43 79 87 -65 77 -88 -2 12 -26 32 -76 -65 -42 -52 59 78 78 25 -71 26 -93 -39 6 70 18 31 -66 31 -90 14 22 69 -30 -30 -22 9 4 -47 57 33 -53 68 19 45 -62 55 12 -81 -17 -32 -3 -25 14 43 -57 48 95
-45 35 68 -94 2 22 -79 -66 -66 43 13 16 -24 -80 8 -37 71 62 75 82 -77 67 51 10 32 63 7 24 60 33 44 -70 79 71 -84 -23 -46 86 -72 3 -58 37 -10 -49 13 -4 -20 -50 56 -16 44 60 -54 42 43 69 -83 52 -26 -27 36 7 -28 64
-10 -48 49 -39 -35 -3 -6 47 12 38 48 -5 -75 39 47 28 -88 25 39 14 88 -36 -50 -80 5 3 64 -63 27 -32 27 -42 -65 57 -67 71 -84 14 78 -44 10 49 -29 45 -6 -1 -55 77 -86 22 -52 -4 -6 -53 -71 -21 -69 34 -84 -27 70 -95 -25 -46
-4 -68 -36 54 41 4 -64 -53 -66 -90 -83 8 -55 -88 -5 -21 20 -74 34 81 -47 -41 26 33 -53 51 76 10 42 79 -16 -26 -80 -5 69 26 28 -18 33 24 27 -12 42 49 -23 -59 -69 68 -2 -76 20 -27 60 -56 85 -76 -66 44 9 14 71 32 -89 -58
2 77 -49 12 -63 74 43 -12 -92 -78 8 21 -5 38 69 -45 -6 72 -64 -32 -39 33 -5 -29 -36 -9 -34 57 55 59 -70 5 -65 -23 -81 -18 -55 36 -58 -35 -22 -87 0 4 -59 8 45 28 -16 90 74 30 39 59 -27 74 -39 58 71 -55 89 -45 -48 -22
56 -16 -77 -67 26 55 -50 -30 51 -85 -53 1 -44 24 27 -13 70 -97 -84 80 -72 -71 -17 -79 -29 -92 12 -20 74 57 -19 -10 42 -81 60 -82 50 20 -25 -99 65 -7 -9 50 25 35 -51 -83 -1 29 65 -13 55 42 35 4 38 -22 -24 -66 -97 -67 18 58
-44 67 -13 13 3 22 -51 -50 80 -69 -38 -105 46 58 -17 -38 -59 71 72 69 -60 81 39 21 8 -56 86 15 29 -58 -82 -98 5 58 -54 23 5 -48 51 75 57 -1 16 -36 45 -68 23 -13 78 -53 21 33 -42 69 20 -39 -1 -14 43 -68 -74 -87 48 -49
0 48 78 -24 -4 46 44 -100 72 56 37 -75 -88 77 53 10 78 -50 45 -15 -48 -70 16 -49 57 -63 47 13 -84 80 98 -72 19 87 50 -25 -80 47 -36 -2 -48 36 28 -63 -31 -2 -15 1 -33 64 -60 24 -93 68 76 -49 -81 -61 -65 7 -107 8 27 73
-40 87 81 -30 4 -35 -60 38 -57 13 -18 -75 49 -58 12 85 -27 68 -36 63 38 -38 39 89 -25 14 51 51 -52 -76 -58 83 58 85 41 -2 3 -72 39 -47 -80 -52 -79 3 2 -53 49 7 65 16 -89 -48 -70 48 15 19 14 69 -24 28 -47 -89 42 55
80 83 -73 -83 63 -8 36 110 -40 -67 14 1 44 -35 -32 29 -70 -84 20 -20 -31 26 -19 65 -57 48 66 -2 29 -33 66 -31 77 14 -4 36 68 6 -29 -30 12 31 74 -64 90 32 69 36 -59 -72 58 -57 -3 -31 -88 -59 57 53 24 -26 -66 -49 55 42
-87 55 73 -30 -71 18 -42 58 7 36 69 -27 -15 57 9 -81 -13 -66 11 42 20 -50 -49 -20 -69 -44 88 -64 -31 -64 -13 -38 63 15 38 -56 21 -67 -87 -65 35 19 7 -22 51 58 44 54 -15 26 0 -44 6 83 -76 -106 -78 10 14 -51 -41 -25 56 51
-17 -98 -20 -37 23 3 -2 -71 -96 -11 -93 -43 -44 54 79 1 -5 -61 -89 -14 -16 -36 72 -17 -7 -17 86 -59 -80 -90 17 20 -83 -90 42 -67 -61 -90 -83 16 -30 10 -65 83 41 -54 -72 -20 -107 36 -31 -120 19 -76 49 -29 90 -15 46 23 -4 -2 28 54
76 64 -91 -66 44 96 -30 -34 40 77 -72 -46 23 5 -70 -91 -68 51 29 -77 81 95 -18 -1 -26 -79 18 -114 68 98 62 48 13 16 37 33 7 -7 -17 -30 -12 60 -55 -9 -54 -53 -61 -87 -74 -9 -65 -39 52 -63 -6 50 69 -113 -3 55 76 -27 -30 38
69 -25 52 40 76 53 85 55 -50 34 1 -59 -64 -87 13 71 13 10 -43 -62 -25 58 58 2 -83 -16 -52 10 8 -32 71 -76 -27 -78 1 86 42 69 -5 0 59 -47 -1 36 5 -5 50 -29 72 3 -7 -46 90 69 -61 40 -39 -50 59 86 11 -80 73 86
-26 42 -75 -85 51 26 17 -72 73 1 41 -47 -30 19 -37 10 -18 41 -66 -38 20 44 90 -63 -97 33 55 33 -12 58 13 41 -48 -64 -33 50 72 7 82 58 23 70 -26 18 9 -6 -95 -69 -80 56 -5 -68 16 -42 90 -89 -128 74 21 -51 52 43 -36 25
-14 -49 -85 65 -15 -45 -81 38 83 -10 53 65 -61 41 -69 -68 -84 2 -78 95 85 -28 -75 32 19 75 9 8 -45 8 -89 9 39 86 -36 4 -25 22 -14 72 17 87 -63 38 22 -70 60 10 -80 -34 -32 21 78 13 -27 -69 -35 45 -30 62 72 -64 -77 -26
-31 24 -86 -71 15 88 -66 36 86 77 -66 77 68 -78 33 62 80 -24 -52 17 61 -22 0 -53 -60 24 52 10 8 11 -33 -51 66 -42 49 60 71 82 66 -54 66 49 -65 -5 -35 -89 -33 -14 50 76 12 71 -42 36 -55 42 60 69 -20 45 23 47 81 -55
59 -17 30 68 -71 -57 -86 12 -40 -69 78 -89 49 -64 89 -25 25 23 23 -34 -44 -27 -8 22 79 23 -17 -62 -59 56 -53 0 -25 -30 -64 -4 -87 0 72 65 -21 -92 33 29 -27 95 -29 -38 -49 -64 32 -8 55 38 66 -17 12 -44 -28 -73 54 30 78 -60
41 -81 65 69 16 -29 8 48 -9 -1 -52 -63 -7 16 -65 -54 40 80 49 19 -33 62 48 82 45 -66 50 -101 0 13 -11 -44 79 -50 33 54 -5 31 -20 22 41 -18 4 -63 -15 95 30 63 -45 83 5 61 41 22 67 8 -88 -20 81 -12 -16 -29 -34 3
-14 66 48 -55 12 -15 -81 8 -53 -41 59 63 -28 -2 -15 47 -46 46 15 -33 3 -28 -57 83 -18 0 -55 39 25 87 -85 -91 -22 -64 -88 -14 -60 -60 27 53 -77 -47 -38 61 -38 -67 -63 -33 -68 -53 54 -26 -20 41 -33 51 35 -87 81 31 8 -42 38 31
-33 38 -84 84 8 -44 20 -26 41 49 -36 81 -18 35 -69 -6 13 -82 83 -66 -53 -46 5 22 5 -70 30 33 -57 17 -68 14 9 -13 84 1 -46 88 -24 -17 90 23 75 -73 -45 52 16 -60 -87 62 -42 -41 -17 5 97 -75 64 60 -7 62 -68 -4 -59 -6
35 -45 -6 37 49 89 -41 -64 -40 -58 -62 -109 -104 -67 -15 51 -34 -64 27 -38 -94 -52 -95 51 -83 51 108 61 -33 51 61 -59 61 31 -85 -39 68 -30 -8 21 -23 60 -3 -44 26 18 -55 -63 -52 70 -24 -49 -39 24 59 -43 -64 17 82 -86 -53 78 98 -74
-74 -71 82 -65 38 54 -53 9 -32 15 -35 12 -83 -2 93 4 60 17 28 84 -86 55 30 -52 72 -64 -23 -29 8 89 -24 -28 -22 -57 -33 -66 62 -9 89 42 15 16 -13 16 58 -85 26 -15 86 79 -24 -38 -72 -76 48 -32 -52 75 65 4 -55 -82 -84 3
49 -48 27 -28 -3 -56 31 -60 79 -15 30 83 -73 -28 -66 52 76 91 7 2 -55 -89 26 -14 -25 34 -62 23 79 20 84 69 -15 -76 -2 -28 19 12 -33 -89 -49 -39 11 41 30 44 72 62 8 27 -47 70 -70 -77 89 13 16 12 55 67 50 -45 81 13
-37 23 -22 -7 -86 -100 -59 65 68 -47 -49 40 -76 -82 76 -83 38 42 -42 60 -45 87 -11 3 -85 -28 -77 74 -7 -43 -59 -111 -9 -44 -105 -23 14 66 16 22 32 67 77 -12 -37 55 78 83 52 18 -58 -10 -35 48 73 -101 -60 -73 -65 60 -36 -73 -15 -89
39 -8 -4 -78 -51 -21 -21 -19 33 49 74 47 77 -49 -5 81 -37 -17 69 -61 10 51 37 85 -73 -83 -25 -65 -80 62 37 -45 -35 -39 -10 15 -16 -85 -62 61 -88 48 -30 32 -47 -41 -74 -53 55 72 -41 -16 -2 25 -86 -29 68 -23 -75 90 -22 -13 -26 0
100 7 -59 -76 -12 43 -61 5 33 81 -76 39 -95 19 73 -38 70 -45 -78 -69 6 60 -7 40 -25 -59 -50 30 29 24 74 -43 -71 60 32 -36 -58 -90 24 -47 24 65 65 15 -66 18 -19 21 19 47 61 22 -120 -28 -60 -31 95 -87 59 -30 -43 9 -61 -76
32 -82 -37 -75 -112 62 20 -27 59 66 -5 -83 24 -90 18 -40 69 -39 -31 -6 31 2 1 64 -38 -51 -48 -89 -17 -15 83 -50 -78 -58 -11 -82 -28 22 76 -76 -2 -4 -37 -52 -2 -16 -31 9 -48 -29 31 50 -96 -81 -10 38 -38 -4 -53 4 -80 73 -6 -20
30 -1 41 8 36 45 -35 -44 46 -57 -25 -109 25 37 -93 17 61 -46 8 51 -114 -76 -87 29 -90 -53 -2 25 -31 -81 -71 77 -36 57 -29 7 46 -43 -15 -66 53 57 67 70 -3 -14 -75 17 16 -5 -10 -107 -17 -38 -45 -95 -19 62 -55 -12 82 -8 -73 32
57 36 -42 10 -21 -64 -50 0 -35 64 11 14 -81 -8 -6 -65 -1 -22 -82 86 -69 29 43 -9 -23 83 60 61 -77 12 53 -72 -38 -27 -23 63 2 2 69 -61 -86 -59 67 73 -86 73 48 33 39 51 21 0 46 -2 -69 -13 -53 -28 9 -62 -27 -84 -53 -40
116 -26 24 -37 -65 47 20 104 -100 -75 -44 27 53 -19 59 -102 -29 -85 7 -15 26 -86 -3 -30 -73 -85 -62 19 -70 -101 44 -56 -59 10 -84 38 41 -21 -15 -65 -94 59 117 109 -69 24 -48 -44 -1 -85 122 49 -22 79 6 -105 127 33 -22 -18 2 58 5 -79
10 31 77 68 -59 -34 22 50 -72 -47 -79 24 3 33 56 7 17 -8 65 81 77 4 -63 -2 -31 -81 51 -16 -4 -59 7 46 -48 57 63 62 -20 -54 5 -56 39 40 21 -1 71 -14 -65 -86 37 62 12 -8 70 -69 -70 -41 89 28 -59 34 -7 -31 81 -12
59 2 5 7 73 40 -47 50 -54 42 58 62 -18 -25 100 97 71 -46 46 79 -60 -33 63 86 -5 -28 47 -89 -1 2 80 39 -72 63 6 64 49 -63 -71 -52 -86 -12 22 -38 19 -4 86 49 87 -7 -31 34 -53 40 -98 -17 -21 37 -20 -73 -71 26 100 30
53 28 86 -81 50 -11 -65 23 -35 4 -51 83 45 65 -87 -50 -34 85 -13 -43 14 43 -62 20 11 -12 79 -96 -47 16 -55 24 57 -4 -56 -22 45 55 -23 -44 -39 56 -12 26 76 -83 18 33 37 71 -30 -61 72 -75 -43 10 14 48 -12 -21 48 -28 -33 12
34 -56 -85 -55 -60 -53 89 25 79 20 -76 -85 -7 -28 10 -85 54 38 81 65 48 -19 16 -46 -80 -74 -85 17 63 21 -9 74 -66 4 3 -57 -16 -60 -2 -12 -26 -91 5 69 -92 -92 43 26 15 18 22 -27 36 -76 13 -5 41 63 61 61 -7 -79 13 -19
-51 71 -14 -7 -22 -11 -27 6 60 -11 65 -40 45 65 -85 -27 38 33 -64 -12 -11 70 70 2 42 -8 83 -44 74 24 -51 -81 69 -51 8 11 2 -38 8 -38 46 40 83 49 80 -112 12 50 23 20 73 -83 25 40 -63 23 -46 -30 56 62 -3 63 46 14
-17 66 -12 -93 -77 20 59 16 61 -57 -86 -21 46 -41 55 -30 13 -77 -65 -74 -24 -40 -70 -48 76 35 -82 21 -71 83 45 -78 -35 -80 -6 -17 5 -17 -34 -23 -74 -31 -58 47 -23 -13 -11 -32 -24 -22 -11 -13 63 -49 -51 -49 14 -81 23 7 -42 37 -47 75
76 18 -9 8 43 63 -69 -80 -2 -31 -71 4 34 -48 -7 77 64 -62 -32 15 -71 -82 83 24 -37 83 -37 16 89 65 -1 45 -9 80 -32 -35 -52 -33 -2 -19 0 48 65 42 -37 14 27 -80 -24 31 -58 71 6 11 47 -26 43 57 37 41 81 20 26 49
-74 8 -23 -15 -46 25 10 26 61 15 92 -7 73 75 -19 7 -58 61 -87 -79 56 -13 -1 14 76 23 30 10 16 -27 -44 47 -75 45 54 -39 45 -14 17 -4 0 -1 -14 -68 27 63 -36 -103 -82 -28 -39 31 -96 9 -59 -14 -90 23 27 -11 6 -68 28 37
-24 83 -21 8 31 -69 64 -3 -74 -58 35 70 15 72 -59 76 89 -32 -84 55 -2 86 60 -86 55 -61 3 56 67 -85 -17 -40 27 14 23 -34 -36 75 85 -50 -72 13 -66 58 85 -57 -6 -1 85 -38 -61 -58 53 -83 -49 -55 -8 -36 54 -81 -54 -24 11 -13
60 -79 -73 -6 51 62 -84 120 33 -86 -54 -31 -25 -120 38 52 88 50 -26 74 -18 -77 80 -44 10 68 -26 -5 71 -66 -61 -58 -54 -1 59 48 -70 -74 -83 -36 18 -37 47 67 -61 24 -47 32 52 -29 8 -108 -11 -84 -10 46 48 36 -50 31 -34 63 87 34
0 50 -25 14 85 8 -4 5 21 5 -22 79 65 -81 1 38 -66 64 88 -36 64 51 -61 22 -17 -17 -7 68 69 -82 -27 -37 31 -23 87 -23 -47 88 49 -70 -65 -83 -22 -90 6 3 -8 61 -49 38 75 59 -57 -59 -13 -50 -27 -63 53 -81 -79 43 51 35
-45 61 76 -83 92 11 28 56 29 35 -40 -73 -92 -26 69 -30 -34 35 6 -55 83 -14 68 24 -59 -70 78 63 -45 -56 -71 25 -38 31 -69 -41 33 21 84 7 45 -78 25 1 -62 -78 -45 -40 -39 -80 60 -39 88 -56 -55 -62 -19 -81 54 -97 2 25 12 -22
-85 61 -65 83 68 -67 -41 -86 -29 -39 -77 -55 15 -76 -7 10 76 34 -89 7 -62 -48 -83 45 28 22 -68 -4 46 75 55 -64 -54 45 -57 -12 10 41 -54 -76 38 96 -20 -6 -64 32 36 41 18 -47 51 -53 12 4 30 -69 10 52 -26 -90 66 48 -20 19
-38 -92 -60 68 -40 -86 -91 -45 1 12 2 -104 80 47 46 86 -21 -66 -7 83 86 101 -15 -83 -20 -90 20 55 16 105 -106 12 -18 67 -36 -24 103 -9 -23 43 15 -51 -45 -54 73 76 -94 62 -33 -14 39 -71 -34 10 44 -5 82 65 -22 59 36 -47 10 1
-54 59 -7 25 -78 -92 51 -46 -47 28 82 28 47 13 24 9 55 -56 35 16 16 -38 -29 -74 2 50 -59 -54 18 74 3 41 -89 -77 24 -88 56 -30 -1 -52 16 -46 -22 -60 83 -13 39 63 -10 56 46 -2 -33 -88 -50 9 -105 -90 -18 -39 -2 -26 -67 -37
1 -41 -28 48 21 24 -68 -8 -58 0 4 64 0 -46 -19 43 46 -85 69 -51 62 76 -59 72 -61 79 87 52 69 87 38 -22 -90 67 -70 -4 -26 40 37 40 -73 -74 93 -35 5 29 72 85 -11 -3 -95 -52 17 19 -55 11 78 -37 6 23 -1 -46 -33 98
-25 -46 -24 31 19 -3 -54 71 0 -4 50 -64 -85 -94 -24 63 -98 5 -55 -33 63 30 36 64 37 -86 38 -116 37 -14 5 39 44 48 67 -109 -36 -79 -77 34 39 -15 43 17 -68 -21 5 82 -71 -40 -92 -89 51 -48 46 -58 -23 -34 36 -64 -66 48 -8 16
73 -75 79 -36 -17 38 6 -57 48 -12 -37 62 52 13 -69 39 52 6 5 5 -88 66 -16 12 41 -59 27 26 70 -83 -5 -47 55 -72 -86 36 63 52 -28 46 69 6 50 54 9 44 -42 -14 62 -74 73 22 -63 34 54 71 -64 -23 -63 -67 71 85 56 -19
39 -84 -27 -46 -21 -18 -44 -77 2 -2 13 -51 -31 -86 -38 16 64 -1 -7 -12 -80 74 -6 -78 68 13 89 44 34 -28 -46 58 -21 -62 42 -50 -52 64 -96 69 23 63 -32 73 22 -68 -65 3 -83 80 -35 77 -36 -45 24 76 5 -76 -8 6 -59 90 -68 -55
-23 -24 -73 7 53 93 50 -85 34 2 86 27 20 42 76 46 35 17 13 -55 -75 -82 46 -28 -87 73 -34 87 -4 49 56 -62 -63 57 -58 66 -72 -60 34 -49 -19 82 54 93 75 -7 -62 8 70 -30 21 -36 -33 -75 18 -4 40 -34 67 27 -11 25 38 -74
55 -74 -33 18 26 56 -40 14 48 -8 -14 0 -18 -44 -50 89 -9 36 -4 -14 -43 72 -78 -48 53 -4 -43 -10 15 35 -23 3 -78 30 3 26 -35 61 63 37 85 80 -13 47 56 -51 -80 -39 61 -44 -44 24 -74 -34 72 21 82 -81 -37 -56 11 21 70 -25
-46 45 -15 -5 -47 -43 70 30 9 30 -26 -69 46 -88 87 -87 79 24 77 66 18 -45 32 -73 -23 -21 -28 -19 48 -37 12 33 24 0 -43 82 -51 -70 46 -48 56 85 -29 -80 61 -54 -9 36 70 49 15 -49 82 -44 -55 39 -22 -80 -69 16 -18 78 -28 23
-5 27 -26 -34 -17 -51 -7 -53 -30 -7 -59 80 -8 -72 -67 -3 -77 -9 43 69 25 -65 25 -87 78 -16 -93 23 11 18 17 -1 31 86 76 1 45 54 53 53 -75 -42 -65 50 38 22 21 20 -81 61 21 19 -72 -11 87 80 -23 -17 30 15 19 1 -74 -71
9 60 50 -29 -27 -53 33 -65 -26 -8 68 -80 49 -69 8 2 50 -71 -37 -79 52 -15 75 -78 -78 32 10 -83 -23 10 -6 -101 34 23 15 -89 -22 -20 56 58 81 54 -90 1 -24 -45 -24 100 3 -9 43 56 -30 -7 -80 33 -37 -75 -13 52 102 -12 -10 57
16 -61 -12 29 44 32 70 -5 81 -100 -60 -75 -38 82 -24 50 36 22 -60 -40 -19 62 -79 61 -12 0 -32 -26 -40 -51 24 -56 -4 47 -20 56 -33 -84 11 -46 -12 29 -18 -50 -6 40 -4 26 -61 -63 41 -38 2 -15 -48 -22 -90 51 33 -6 75 21 -91 -28
-92 -9 34 52 -30 -58 46 -4 -34 -74 -74 50 17 86 33 -52 82 2 -80 37 -87 -69 -13 46 -90 -78 -18 -25 74 -45 -62 18 -41 -41 -41 87 -67 -83 -45 75 -30 0 -84 47 85 42 88 -1 75 -89 76 -17 62 19 59 32 -95 -38 21 89 6 -37 -27 58
0 -49 -2 -31 -42 -62 10 34 67 52 18 38 -81 85 -67 62 -59 27 32 -1 -79 -4 7 18 78 47 -43 21 28 -52 -32 19 36 -51 73 -99 -73 -28 -26 91 21 -84 -57 87 -39 -24 -67 16 -79 53 30 26 10 58 53 -35 21 5 60 -61 -46 -31 -37 -47
-70 -6 -93 -23 -58 -88 80 -65 -41 32 5 -8 66 -62 -74 21 -96 80 61 29 68 -50 -48 -44 -48 10 78 -83 38 -66 75 72 -90 -75 -5 85 36 39 -84 21 -29 57 -54 23 -73 85 28 -45 77 -77 85 -8 54 22 31 -97 -91 60 81 47 -56 71 47 91
69 -8 41 -48 17 -22 80 43 48 44 -15 -34 50 -79 -14 73 56 51 24 -75 61 47 -2 88 -74 -94 -1 -95 -13 20 46 -10 -11 -72 13 -43 19 29 -49 22 89 -4 -2 -31 62 66 40 51 0 -93 57 -58 67 -12 -9 -39 65 -7 63 44 39 55 -16 22
-10 74 50 36 11 -11 -41 -4 -12 -1 2 41 -13 -51 87 18 -62 -48 -63 87 -28 44 -23 -22 -22 -23 15 72 -59 71 -36 9 63 49 -12 21 -52 41 9 -35 -92 -60 21 -25 -39 -63 -16 12 -84 67 22 55 37 -28 37 -29 -46 -60 49 -21 -18 -77 72 88
17 69 -25 -17 -7 55 0 10 -62 -82 -37 89 -62 -59 16 47 -72 -22 11 -53 -21 -40 -40 -42 -52 15 -21 -30 -83 81 6 36 -38 -41 0 -10 20 -49 -67 51 -22 -86 3 58 25 1 -6 87 -89 -85 -14 61 42 -2 -10 82 -22 -52 -90 -68 30 -48 35 33
